~o
<STREAMINFO> 1 39
<VECSIZE> 39<NULLD><MFCC_D_A_0><DIAGC>
~h "MJ"
<BEGINHMM>
<NUMSTATES> 3
<STATE> 2
<NUMMIXES> 2
<MIXTURE> 1 5.000000e-001
<MEAN> 39
 -6.185453e+000 -1.742747e+000 5.802916e-001 -7.259149e+000 -7.035136e+000 -5.816885e+000 -8.232535e+000 -1.776403e+000 -4.826462e-002 3.730886e+000 3.204064e-001 -2.284811e+000 6.577526e+001 3.496070e-001 2.866027e-001 3.308559e-001 3.403743e-001 3.510945e-001 3.552698e-001 4.052140e-001 3.506989e-001 3.653479e-001 2.998321e-001 3.093821e-001 2.956462e-001 3.083098e-001 1.310967e-001 1.191952e-001 1.274541e-001 1.409385e-001 1.460828e-001 1.457659e-001 1.670327e-001 1.513617e-001 1.542732e-001 1.308050e-001 1.337011e-001 1.266318e-001 1.236636e-001
<VARIANCE> 39
 6.436475e+001 3.355825e+001 7.643975e+001 4.651430e+001 5.216582e+001 6.023087e+001 6.918533e+001 4.154020e+001 5.401958e+001 3.134402e+001 3.705787e+001 3.030079e+001 6.831348e+001 3.040054e+000 2.054848e+000 2.731988e+000 2.890763e+000 3.085217e+000 3.136661e+000 4.088551e+000 3.077023e+000 3.373267e+000 2.257855e+000 2.425076e+000 2.177014e+000 2.380622e+000 4.300539e-001 3.545057e-001 4.064058e-001 4.976587e-001 5.351674e-001 5.309317e-001 6.967466e-001 5.726990e-001 5.957656e-001 4.286883e-001 4.468243e-001 3.993673e-001 3.821956e-001
<GCONST> 1.257852e+002
<MIXTURE> 2 5.000000e-001
<MEAN> 39
 -9.394559e+000 -4.059927e+000 -2.916902e+000 -9.987205e+000 -9.924172e+000 -8.921227e+000 -1.155964e+001 -4.354471e+000 -2.988185e+000 1.491457e+000 -2.114601e+000 -4.486657e+000 6.246918e+001 -3.478231e-001 -2.867870e-001 -3.302931e-001 -3.397155e-001 -3.514969e-001 -3.531550e-001 -4.035926e-001 -3.509589e-001 -3.693103e-001 -3.012144e-001 -3.135241e-001 -2.945421e-001 -3.088608e-001 -1.312173e-001 -1.189663e-001 -1.275458e-001 -1.412413e-001 -1.465377e-001 -1.456944e-001 -1.668527e-001 -1.513458e-001 -1.544703e-001 -1.310922e-001 -1.336786e-001 -1.261503e-001 -1.236243e-001
<VARIANCE> 39
 6.436475e+001 3.355825e+001 7.643975e+001 4.651430e+001 5.216582e+001 6.023087e+001 6.918533e+001 4.154020e+001 5.401958e+001 3.134402e+001 3.705787e+001 3.030079e+001 6.831348e+001 3.040054e+000 2.054848e+000 2.731988e+000 2.890763e+000 3.085217e+000 3.136661e+000 4.088551e+000 3.077023e+000 3.373267e+000 2.257855e+000 2.425076e+000 2.177014e+000 2.380622e+000 4.300539e-001 3.545057e-001 4.064058e-001 4.976587e-001 5.351674e-001 5.309317e-001 6.967466e-001 5.726990e-001 5.957656e-001 4.286883e-001 4.468243e-001 3.993673e-001 3.821956e-001
<GCONST> 1.257852e+002
<TRANSP> 3
 0.000000e+000 1.000000e+000 0.000000e+000
 0.000000e+000 9.984397e-001 1.560251e-003
 0.000000e+000 0.000000e+000 0.000000e+000
<ENDHMM>
~h "PB"
<BEGINHMM>
<NUMSTATES> 3
<STATE> 2
<NUMMIXES> 2
<MIXTURE> 1 5.000000e-001
<MEAN> 39
 -4.464649e+000 3.974581e+000 4.326417e+000 -1.121277e+000 -5.229117e+000 1.176280e+000 -4.073889e+000 2.402399e+000 2.111755e+000 1.673031e+000 2.291689e+000 -2.284241e+000 6.378614e+001 3.350148e-001 3.316899e-001 3.282325e-001 3.446640e-001 3.882495e-001 3.303173e-001 3.777102e-001 3.445636e-001 3.192576e-001 2.996894e-001 2.968628e-001 3.179108e-001 3.142749e-001 1.303617e-001 1.330913e-001 1.299611e-001 1.435316e-001 1.614877e-001 1.399821e-001 1.604895e-001 1.489550e-001 1.386449e-001 1.313748e-001 1.308408e-001 1.356970e-001 1.249421e-001
<VARIANCE> 39
 5.710303e+001 4.607711e+001 6.105447e+001 4.420074e+001 7.211774e+001 4.371009e+001 6.696455e+001 3.674137e+001 3.413740e+001 2.830846e+001 2.567730e+001 3.932126e+001 8.545258e+001 2.809857e+000 2.748946e+000 2.690156e+000 2.969859e+000 3.768609e+000 2.735238e+000 3.574757e+000 2.971942e+000 2.546119e+000 2.245302e+000 2.195217e+000 2.510781e+000 2.467567e+000 4.234977e-001 4.430599e-001 4.223462e-001 5.155094e-001 6.486088e-001 4.884417e-001 6.434230e-001 5.548702e-001 4.813126e-001 4.325834e-001 4.269115e-001 4.564457e-001 3.907429e-001
<GCONST> 1.252061e+002
<MIXTURE> 2 5.000000e-001
<MEAN> 39
 -7.487311e+000 1.259376e+000 1.200923e+000 -3.780623e+000 -8.626004e+000 -1.468265e+000 -7.347163e+000 -2.218723e-002 -2.253334e-001 -4.551972e-001 2.647785e-001 -4.792507e+000 6.008852e+001 -3.354903e-001 -3.315079e-001 -3.278353e-001 -3.446671e-001 -3.882668e-001 -3.312250e-001 -3.785710e-001 -3.450093e-001 -3.190050e-001 -2.996839e-001 -2.957878e-001 -3.159070e-001 -3.140647e-001 -1.299451e-001 -1.331597e-001 -1.299915e-001 -1.436643e-001 -1.606573e-001 -1.395723e-001 -1.603651e-001 -1.490034e-001 -1.388619e-001 -1.317095e-001 -1.305130e-001 -1.345460e-001 -1.250956e-001
<VARIANCE> 39
 5.710303e+001 4.607711e+001 6.105447e+001 4.420074e+001 7.211774e+001 4.371009e+001 6.696455e+001 3.674137e+001 3.413740e+001 2.830846e+001 2.567730e+001 3.932126e+001 8.545258e+001 2.809857e+000 2.748946e+000 2.690156e+000 2.969859e+000 3.768609e+000 2.735238e+000 3.574757e+000 2.971942e+000 2.546119e+000 2.245302e+000 2.195217e+000 2.510781e+000 2.467567e+000 4.234977e-001 4.430599e-001 4.223462e-001 5.155094e-001 6.486088e-001 4.884417e-001 6.434230e-001 5.548702e-001 4.813126e-001 4.325834e-001 4.269115e-001 4.564457e-001 3.907429e-001
<GCONST> 1.252061e+002
<TRANSP> 3
 0.000000e+000 1.000000e+000 0.000000e+000
 0.000000e+000 9.985553e-001 1.444716e-003
 0.000000e+000 0.000000e+000 0.000000e+000
<ENDHMM>
~h "TOMAS"
<BEGINHMM>
<NUMSTATES> 3
<STATE> 2
<NUMMIXES> 2
<MIXTURE> 1 5.000000e-001
<MEAN> 39
 -4.150198e+000 5.210025e+000 6.805563e+000 3.008980e-001 5.984731e-001 -1.678438e+000 5.687594e-002 8.706858e-001 1.911081e+000 2.463755e+000 3.336960e+000 3.118602e+000 6.361098e+001 3.112832e-001 2.786655e-001 3.004021e-001 3.262034e-001 3.726049e-001 3.551839e-001 3.489230e-001 3.227471e-001 3.387182e-001 3.039099e-001 2.901309e-001 2.594392e-001 2.801137e-001 1.163779e-001 1.101700e-001 1.185388e-001 1.323994e-001 1.525623e-001 1.515058e-001 1.469057e-001 1.393372e-001 1.445497e-001 1.291708e-001 1.244083e-001 1.155853e-001 1.090445e-001
<VARIANCE> 39
 5.972921e+001 3.440372e+001 5.401954e+001 5.454368e+001 5.990792e+001 5.273852e+001 5.546510e+001 4.591676e+001 4.734441e+001 3.405450e+001 2.996223e+001 2.151168e+001 6.375271e+001 2.460594e+000 1.865783e+000 2.262890e+000 2.670528e+000 3.451294e+000 3.149307e+000 3.022566e+000 2.624858e+000 2.919523e+000 2.194155e+000 2.076375e+000 1.749104e+000 1.957634e+000 3.434503e-001 3.000317e-001 3.552558e-001 4.330151e-001 5.958773e-001 5.653866e-001 5.496653e-001 4.837194e-001 5.260998e-001 4.153311e-001 3.879240e-001 3.373997e-001 2.935979e-001
<GCONST> 1.214650e+002
<MIXTURE> 2 5.000000e-001
<MEAN> 39
 -7.241584e+000 2.863837e+000 3.865644e+000 -2.653250e+000 -2.497535e+000 -4.583290e+000 -2.922120e+000 -1.839791e+000 -8.412101e-001 1.295053e-001 1.147450e+000 1.263374e+000 6.041718e+001 -3.161680e-001 -2.677092e-001 -3.013141e-001 -3.274666e-001 -3.705015e-001 -3.546676e-001 -3.464982e-001 -3.253094e-001 -3.447463e-001 -2.885973e-001 -2.862544e-001 -2.695756e-001 -2.795482e-001 -1.180406e-001 -1.089306e-001 -1.198746e-001 -1.308161e-001 -1.562100e-001 -1.492629e-001 -1.496519e-001 -1.388626e-001 -1.455812e-001 -1.286140e-001 -1.247258e-001 -1.167592e-001 -1.076942e-001
<VARIANCE> 39
 5.972921e+001 3.440372e+001 5.401954e+001 5.454368e+001 5.990792e+001 5.273852e+001 5.546510e+001 4.591676e+001 4.734441e+001 3.405450e+001 2.996223e+001 2.151168e+001 6.375271e+001 2.460594e+000 1.865783e+000 2.262890e+000 2.670528e+000 3.451294e+000 3.149307e+000 3.022566e+000 2.624858e+000 2.919523e+000 2.194155e+000 2.076375e+000 1.749104e+000 1.957634e+000 3.434503e-001 3.000317e-001 3.552558e-001 4.330151e-001 5.958773e-001 5.653866e-001 5.496653e-001 4.837194e-001 5.260998e-001 4.153311e-001 3.879240e-001 3.373997e-001 2.935979e-001
<GCONST> 1.214650e+002
<TRANSP> 3
 0.000000e+000 1.000000e+000 0.000000e+000
 0.000000e+000 9.973280e-001 2.671972e-003
 0.000000e+000 0.000000e+000 0.000000e+000
<ENDHMM>
~h "CERNY"
<BEGINHMM>
<NUMSTATES> 3
<STATE> 2
<NUMMIXES> 2
<MIXTURE> 1 5.000000e-001
<MEAN> 39
 -9.375854e+000 -3.881055e-001 -8.040488e-002 -2.805447e+000 -3.417064e+000 -2.017048e+000 -4.213318e+000 6.610131e-001 1.836122e+000 2.193929e+000 7.464730e-001 -3.631438e-001 6.499981e+001 1.976906e-001 2.253197e-001 2.305172e-001 2.861947e-001 2.933755e-001 2.758549e-001 3.390561e-001 2.994250e-001 2.836484e-001 2.778974e-001 2.407563e-001 2.478820e-001 1.653772e-001 7.603807e-002 9.015429e-002 9.200634e-002 1.159731e-001 1.235283e-001 1.189725e-001 1.454701e-001 1.308292e-001 1.245442e-001 1.208972e-001 1.079997e-001 1.066890e-001 6.791669e-002
<VARIANCE> 39
 1.964336e+001 2.057627e+001 2.901611e+001 4.214114e+001 3.596424e+001 3.030165e+001 5.151111e+001 2.778539e+001 2.521030e+001 2.438537e+001 1.620238e+001 2.349303e+001 2.006407e+001 9.801930e-001 1.259133e+000 1.328225e+000 2.041706e+000 2.148376e+000 1.903568e+000 2.885388e+000 2.235325e+000 2.036060e+000 1.919518e+000 1.464098e+000 1.528086e+000 6.867328e-001 1.444248e-001 2.040740e-001 2.106737e-001 3.372799e-001 3.824752e-001 3.541937e-001 5.297450e-001 4.289865e-001 3.875164e-001 3.675342e-001 2.903732e-001 2.849583e-001 1.154566e-001
<GCONST> 1.044341e+002
<MIXTURE> 2 5.000000e-001
<MEAN> 39
 -1.114869e+001 -2.202549e+000 -2.235069e+000 -5.402095e+000 -5.815872e+000 -4.218925e+000 -7.084168e+000 -1.447461e+000 -1.722726e-001 2.186671e-001 -8.636141e-001 -2.301928e+000 6.320809e+001 -1.983282e-001 -2.235247e-001 -2.304774e-001 -2.853584e-001 -2.929181e-001 -2.760245e-001 -3.404011e-001 -2.986152e-001 -2.871139e-001 -2.762893e-001 -2.432434e-001 -2.465811e-001 -1.661002e-001 -7.597498e-002 -9.054391e-002 -9.159048e-002 -1.163301e-001 -1.238500e-001 -1.190842e-001 -1.456643e-001 -1.311590e-001 -1.244590e-001 -1.216012e-001 -1.075455e-001 -1.068370e-001 -6.799893e-002
<VARIANCE> 39
 1.964336e+001 2.057627e+001 2.901611e+001 4.214114e+001 3.596424e+001 3.030165e+001 5.151111e+001 2.778539e+001 2.521030e+001 2.438537e+001 1.620238e+001 2.349303e+001 2.006407e+001 9.801930e-001 1.259133e+000 1.328225e+000 2.041706e+000 2.148376e+000 1.903568e+000 2.885388e+000 2.235325e+000 2.036060e+000 1.919518e+000 1.464098e+000 1.528086e+000 6.867328e-001 1.444248e-001 2.040740e-001 2.106737e-001 3.372799e-001 3.824752e-001 3.541937e-001 5.297450e-001 4.289865e-001 3.875164e-001 3.675342e-001 2.903732e-001 2.849583e-001 1.154566e-001
<GCONST> 1.044341e+002
<TRANSP> 3
 0.000000e+000 1.000000e+000 0.000000e+000
 0.000000e+000 9.986002e-001 1.399776e-003
 0.000000e+000 0.000000e+000 0.000000e+000
<ENDHMM>
~h "ZSS2"
<BEGINHMM>
<NUMSTATES> 3
<STATE> 2
<NUMMIXES> 2
<MIXTURE> 1 5.000000e-001
<MEAN> 39
 -4.598438e+000 3.780170e+000 2.972506e+000 -1.121442e+000 7.983372e-001 1.773233e-001 1.398294e+000 1.091197e+000 5.873922e-001 3.510336e+000 -9.941586e-001 2.466425e+000 6.579997e+001 3.938025e-001 3.271104e-001 3.192688e-001 4.061070e-001 4.398973e-001 3.833098e-001 3.824751e-001 3.390148e-001 3.908573e-001 3.430251e-001 4.118759e-001 2.889356e-001 3.721313e-001 1.548474e-001 1.376936e-001 1.310876e-001 1.644703e-001 1.818545e-001 1.638539e-001 1.580696e-001 1.460412e-001 1.613993e-001 1.511069e-001 1.695492e-001 1.266931e-001 1.552940e-001
<VARIANCE> 39
 6.581062e+001 3.901216e+001 4.545362e+001 6.644147e+001 8.518867e+001 5.157756e+001 6.616812e+001 4.297000e+001 6.423455e+001 3.355183e+001 7.719531e+001 2.547840e+001 7.343651e+001 3.831680e+000 2.684596e+000 2.546344e+000 4.070734e+000 4.802497e+000 3.627845e+000 3.664550e+000 2.913374e+000 3.786752e+000 2.950565e+000 4.223234e+000 2.080736e+000 3.525668e+000 5.982058e-001 4.728822e-001 4.297164e-001 6.801491e-001 8.288559e-001 6.705835e-001 6.244655e-001 5.366682e-001 6.546866e-001 5.696508e-001 7.164770e-001 4.021261e-001 6.027525e-001
<GCONST> 1.322694e+002
<MIXTURE> 2 5.000000e-001
<MEAN> 39
 -7.843388e+000 1.281782e+000 2.757339e-001 -4.381907e+000 -2.893571e+000 -2.695377e+000 -1.855457e+000 -1.530863e+000 -2.618466e+000 1.193378e+000 -4.508593e+000 4.473794e-001 6.237217e+001 -3.891847e-001 -3.282791e-001 -3.190219e-001 -4.009354e-001 -4.366867e-001 -3.785663e-001 -3.832455e-001 -3.437295e-001 -3.875258e-001 -3.440632e-001 -4.101444e-001 -2.880546e-001 -3.789392e-001 -1.545276e-001 -1.373721e-001 -1.311234e-001 -1.654143e-001 -1.823115e-001 -1.637027e-001 -1.580229e-001 -1.469894e-001 -1.622515e-001 -1.507939e-001 -1.690306e-001 -1.269605e-001 -1.552545e-001
<VARIANCE> 39
 6.581062e+001 3.901216e+001 4.545362e+001 6.644147e+001 8.518867e+001 5.157756e+001 6.616812e+001 4.297000e+001 6.423455e+001 3.355183e+001 7.719531e+001 2.547840e+001 7.343651e+001 3.831680e+000 2.684596e+000 2.546344e+000 4.070734e+000 4.802497e+000 3.627845e+000 3.664550e+000 2.913374e+000 3.786752e+000 2.950565e+000 4.223234e+000 2.080736e+000 3.525668e+000 5.982058e-001 4.728822e-001 4.297164e-001 6.801491e-001 8.288559e-001 6.705835e-001 6.244655e-001 5.366682e-001 6.546866e-001 5.696508e-001 7.164770e-001 4.021261e-001 6.027525e-001
<GCONST> 1.322694e+002
<TRANSP> 3
 0.000000e+000 1.000000e+000 0.000000e+000
 0.000000e+000 9.982025e-001 1.797483e-003
 0.000000e+000 0.000000e+000 0.000000e+000
<ENDHMM>
~h "SMOLA"
<BEGINHMM>
<NUMSTATES> 3
<STATE> 2
<NUMMIXES> 2
<MIXTURE> 1 5.000000e-001
<MEAN> 39
 -5.128918e+000 1.827145e+000 2.673930e+000 4.925299e-002 -1.427093e+000 -7.385315e-001 -4.143783e+000 4.227779e+000 -2.781485e+000 9.620961e-001 4.878006e+000 -2.090903e+000 6.158021e+001 3.635724e-001 3.813387e-001 3.360102e-001 3.818362e-001 3.644871e-001 3.830713e-001 4.307839e-001 3.407343e-001 4.198467e-001 3.052187e-001 2.937523e-001 2.965444e-001 4.691284e-001 1.386736e-001 1.519599e-001 1.328268e-001 1.610894e-001 1.524894e-001 1.626730e-001 1.794954e-001 1.551741e-001 1.883603e-001 1.360905e-001 1.297778e-001 1.273260e-001 1.834022e-001
<VARIANCE> 39
 6.367906e+001 6.508096e+001 4.790777e+001 7.041777e+001 5.697699e+001 6.495542e+001 7.789153e+001 4.359462e+001 7.402283e+001 3.446930e+001 2.706331e+001 3.802541e+001 1.440287e+002 3.304405e+000 3.614038e+000 2.639164e+000 3.861326e+000 3.170030e+000 3.579908e+000 4.462872e+000 3.194414e+000 4.898048e+000 2.436193e+000 2.231982e+000 2.293626e+000 5.209860e+000 4.867293e-001 5.811232e-001 4.386280e-001 6.569462e-001 5.677235e-001 6.545179e-001 8.089757e-001 6.037471e-001 8.854362e-001 4.579020e-001 4.301626e-001 4.113072e-001 8.370835e-001
<GCONST> 1.328524e+002
<MIXTURE> 2 5.000000e-001
<MEAN> 39
 -8.320885e+000 -1.399766e+000 -9.468782e-002 -3.307359e+000 -4.446417e+000 -3.962328e+000 -7.674029e+000 1.586730e+000 -6.222945e+000 -1.386326e+000 2.797110e+000 -4.557493e+000 5.677973e+001 -3.635485e-001 -3.790863e-001 -3.138099e-001 -4.041740e-001 -3.476960e-001 -3.737545e-001 -4.142365e-001 -3.741827e-001 -4.654147e-001 -3.191136e-001 -3.038404e-001 -3.092445e-001 -4.438763e-001 -1.403904e-001 -1.529658e-001 -1.320892e-001 -1.631195e-001 -1.489003e-001 -1.609361e-001 -1.802769e-001 -1.556306e-001 -1.880302e-001 -1.345833e-001 -1.325693e-001 -1.292069e-001 -1.825669e-001
<VARIANCE> 39
 6.367906e+001 6.508096e+001 4.790777e+001 7.041777e+001 5.697699e+001 6.495542e+001 7.789153e+001 4.359462e+001 7.402283e+001 3.446930e+001 2.706331e+001 3.802541e+001 1.440287e+002 3.304405e+000 3.614038e+000 2.639164e+000 3.861326e+000 3.170030e+000 3.579908e+000 4.462872e+000 3.194414e+000 4.898048e+000 2.436193e+000 2.231982e+000 2.293626e+000 5.209860e+000 4.867293e-001 5.811232e-001 4.386280e-001 6.569462e-001 5.677235e-001 6.545179e-001 8.089757e-001 6.037471e-001 8.854362e-001 4.579020e-001 4.301626e-001 4.113072e-001 8.370835e-001
<GCONST> 1.328524e+002
<TRANSP> 3
 0.000000e+000 1.000000e+000 0.000000e+000
 0.000000e+000 9.966091e-001 3.390863e-003
 0.000000e+000 0.000000e+000 0.000000e+000
<ENDHMM>
~h "NOZICKA"
<BEGINHMM>
<NUMSTATES> 3
<STATE> 2
<NUMMIXES> 2
<MIXTURE> 1 5.000000e-001
<MEAN> 39
 -1.357033e+001 -7.458539e+000 1.060695e+001 -7.574890e+000 -6.669137e-001 3.978137e+000 -2.427772e+000 7.574863e-001 1.257166e+000 -1.721902e+000 4.772723e+000 -1.712269e+000 5.855643e+001 3.654310e-001 4.297853e-001 3.965017e-001 4.580073e-001 5.122596e-001 4.772925e-001 4.613349e-001 3.939368e-001 4.456778e-001 3.721370e-001 3.610796e-001 3.005010e-001 4.272931e-001 1.348775e-001 1.668207e-001 1.587871e-001 1.869651e-001 2.080643e-001 1.890138e-001 1.908292e-001 1.650786e-001 1.813405e-001 1.560226e-001 1.537333e-001 1.301320e-001 1.574582e-001
<VARIANCE> 39
 1.184298e+002 1.511539e+002 2.040752e+002 1.613637e+002 1.247284e+002 1.214878e+002 9.070489e+001 7.203521e+001 8.358607e+001 5.726394e+001 4.904927e+001 3.610233e+001 4.229086e+002 3.348405e+000 4.690112e+000 3.906079e+000 5.354401e+000 6.438407e+000 5.665624e+000 5.407864e+000 3.886244e+000 5.021420e+000 3.374227e+000 3.235481e+000 2.279762e+000 4.500592e+000 4.609521e-001 6.899915e-001 6.085697e-001 8.760314e-001 1.077167e+000 8.996154e-001 9.223711e-001 6.755296e-001 8.396398e-001 6.122105e-001 5.846307e-001 4.246611e-001 6.217328e-001
<GCONST> 1.462383e+002
<MIXTURE> 2 5.000000e-001
<MEAN> 39
 -1.792335e+001 -1.237633e+001 4.892756e+000 -1.265605e+001 -5.134189e+000 -4.307231e-001 -6.237336e+000 -2.637456e+000 -2.399851e+000 -4.748820e+000 1.971315e+000 -4.115677e+000 5.033053e+001 -3.665149e-001 -4.364813e-001 -3.940505e-001 -4.675759e-001 -5.027010e-001 -4.748104e-001 -4.688577e-001 -3.946056e-001 -4.506632e-001 -3.626258e-001 -3.584181e-001 -3.034543e-001 -4.212909e-001 -1.366964e-001 -1.654422e-001 -1.532564e-001 -1.874211e-001 -2.070823e-001 -1.903784e-001 -1.933314e-001 -1.636838e-001 -1.851869e-001 -1.569529e-001 -1.521114e-001 -1.305321e-001 -1.579419e-001
<VARIANCE> 39
 1.184298e+002 1.511539e+002 2.040752e+002 1.613637e+002 1.247284e+002 1.214878e+002 9.070489e+001 7.203521e+001 8.358607e+001 5.726394e+001 4.904927e+001 3.610233e+001 4.229086e+002 3.348405e+000 4.690112e+000 3.906079e+000 5.354401e+000 6.438407e+000 5.665624e+000 5.407864e+000 3.886244e+000 5.021420e+000 3.374227e+000 3.235481e+000 2.279762e+000 4.500592e+000 4.609521e-001 6.899915e-001 6.085697e-001 8.760314e-001 1.077167e+000 8.996154e-001 9.223711e-001 6.755296e-001 8.396398e-001 6.122105e-001 5.846307e-001 4.246611e-001 6.217328e-001
<GCONST> 1.462383e+002
<TRANSP> 3
 0.000000e+000 1.000000e+000 0.000000e+000
 0.000000e+000 9.977571e-001 2.242944e-003
 0.000000e+000 0.000000e+000 0.000000e+000
<ENDHMM>
~h "DAVID"
<BEGINHMM>
<NUMSTATES> 3
<STATE> 2
<NUMMIXES> 2
<MIXTURE> 1 5.000000e-001
<MEAN> 39
 -9.167272e+000 2.722013e+000 2.302789e+000 -2.581525e+000 -3.198552e-002 -1.720782e+000 -4.464943e-001 6.907086e-001 -2.229339e+000 1.679987e+000 -3.541052e-002 -1.143926e+000 7.138036e+001 3.324161e-001 2.536625e-001 2.937622e-001 3.544522e-001 3.036163e-001 3.009943e-001 3.495600e-001 3.479229e-001 3.760151e-001 2.898971e-001 2.862776e-001 2.629172e-001 2.895584e-001 1.233546e-001 1.034145e-001 1.129484e-001 1.456341e-001 1.253229e-001 1.273675e-001 1.450821e-001 1.508798e-001 1.575621e-001 1.286865e-001 1.251264e-001 1.126382e-001 1.167255e-001
<VARIANCE> 39
 5.920746e+001 2.678050e+001 5.316615e+001 4.878764e+001 3.575499e+001 3.100750e+001 4.473487e+001 3.905518e+001 5.662184e+001 2.369257e+001 2.779306e+001 2.479944e+001 7.109743e+001 2.759504e+000 1.616910e+000 2.156034e+000 3.133423e+000 2.295316e+000 2.244130e+000 3.040141e+000 3.047090e+000 3.561366e+000 2.129447e+000 2.066211e+000 1.711996e+000 2.093914e+000 3.802966e-001 2.680040e-001 3.191143e-001 5.326417e-001 3.965771e-001 4.135317e-001 5.315737e-001 5.678691e-001 6.208692e-001 4.127016e-001 3.889401e-001 3.141092e-001 3.414087e-001
<GCONST> 1.190843e+002
<MIXTURE> 2 5.000000e-001
<MEAN> 39
 -1.224513e+001 6.520184e-001 -6.138163e-001 -5.375451e+000 -2.423805e+000 -3.948158e+000 -3.121860e+000 -1.809057e+000 -5.239239e+000 -2.670131e-001 -2.144176e+000 -3.135888e+000 6.800759e+001 -3.320541e-001 -2.549686e-001 -2.935754e-001 -3.536069e-001 -3.023957e-001 -2.982225e-001 -3.478801e-001 -3.503138e-001 -3.788482e-001 -2.938080e-001 -2.886953e-001 -2.604559e-001 -2.892561e-001 -1.233182e-001 -1.036619e-001 -1.130124e-001 -1.462951e-001 -1.265746e-001 -1.298582e-001 -1.465544e-001 -1.505486e-001 -1.576189e-001 -1.282810e-001 -1.243339e-001 -1.115436e-001 -1.169953e-001
<VARIANCE> 39
 5.920746e+001 2.678050e+001 5.316615e+001 4.878764e+001 3.575499e+001 3.100750e+001 4.473487e+001 3.905518e+001 5.662184e+001 2.369257e+001 2.779306e+001 2.479944e+001 7.109743e+001 2.759504e+000 1.616910e+000 2.156034e+000 3.133423e+000 2.295316e+000 2.244130e+000 3.040141e+000 3.047090e+000 3.561366e+000 2.129447e+000 2.066211e+000 1.711996e+000 2.093914e+000 3.802966e-001 2.680040e-001 3.191143e-001 5.326417e-001 3.965771e-001 4.135317e-001 5.315737e-001 5.678691e-001 6.208692e-001 4.127016e-001 3.889401e-001 3.141092e-001 3.414087e-001
<GCONST> 1.190843e+002
<TRANSP> 3
 0.000000e+000 1.000000e+000 0.000000e+000
 0.000000e+000 9.972219e-001 2.778121e-003
 0.000000e+000 0.000000e+000 0.000000e+000
<ENDHMM>
~h "JAN"
<BEGINHMM>
<NUMSTATES> 3
<STATE> 2
<NUMMIXES> 2
<MIXTURE> 1 5.000000e-001
<MEAN> 39
 -7.372953e+000 -5.491872e+000 4.628380e+000 -2.513672e+000 -1.118680e+001 3.528158e+000 1.042852e+000 -1.065321e+000 9.817231e-002 3.933083e+000 -6.543903e+000 -5.510610e+000 5.119782e+001 1.787460e-001 2.294362e-001 2.831403e-001 2.701319e-001 2.921982e-001 2.692866e-001 3.524405e-001 3.077699e-001 2.755553e-001 2.687152e-001 2.461525e-001 2.314899e-001 1.801765e-001 6.716761e-002 9.016514e-002 1.067456e-001 1.096121e-001 1.180518e-001 1.121193e-001 1.411920e-001 1.272992e-001 1.151734e-001 1.140570e-001 1.073470e-001 9.834804e-002 6.528945e-002
<VARIANCE> 39
 2.424329e+001 2.988236e+001 7.578333e+001 3.455883e+001 4.705912e+001 3.833567e+001 8.542300e+001 5.749592e+001 3.131378e+001 2.930783e+001 2.024331e+001 2.018172e+001 3.323808e+001 8.012618e-001 1.330745e+000 1.994432e+000 1.815576e+000 2.112365e+000 1.828425e+000 3.102491e+000 2.367520e+000 1.893539e+000 1.806326e+000 1.515490e+000 1.324978e+000 8.070661e-001 1.123683e-001 2.037106e-001 2.839610e-001 3.012309e-001 3.476822e-001 3.127364e-001 5.005151e-001 4.049711e-001 3.345916e-001 3.268857e-001 2.895540e-001 2.395325e-001 1.063898e-001
<GCONST> 1.077044e+002
<MIXTURE> 2 5.000000e-001
<MEAN> 39
 -9.342452e+000 -7.678462e+000 1.146235e+000 -4.865142e+000 -1.393078e+001 1.051526e+000 -2.654130e+000 -4.098363e+000 -2.140176e+000 1.767615e+000 -8.343606e+000 -7.307572e+000 4.889172e+001 -1.793069e-001 -2.319955e-001 -2.817571e-001 -2.688413e-001 -2.891609e-001 -2.715905e-001 -3.521151e-001 -3.077000e-001 -2.748684e-001 -2.688833e-001 -2.462685e-001 -2.289409e-001 -1.791710e-001 -6.691791e-002 -9.037210e-002 -1.064064e-001 -1.099259e-001 -1.178066e-001 -1.115721e-001 -1.417964e-001 -1.272502e-001 -1.162022e-001 -1.146387e-001 -1.078939e-001 -9.742019e-002 -6.518035e-002
<VARIANCE> 39
 2.424329e+001 2.988236e+001 7.578333e+001 3.455883e+001 4.705912e+001 3.833567e+001 8.542300e+001 5.749592e+001 3.131378e+001 2.930783e+001 2.024331e+001 2.018172e+001 3.323808e+001 8.012618e-001 1.330745e+000 1.994432e+000 1.815576e+000 2.112365e+000 1.828425e+000 3.102491e+000 2.367520e+000 1.893539e+000 1.806326e+000 1.515490e+000 1.324978e+000 8.070661e-001 1.123683e-001 2.037106e-001 2.839610e-001 3.012309e-001 3.476822e-001 3.127364e-001 5.005151e-001 4.049711e-001 3.345916e-001 3.268857e-001 2.895540e-001 2.395325e-001 1.063898e-001
<GCONST> 1.077044e+002
<TRANSP> 3
 0.000000e+000 1.000000e+000 0.000000e+000
 0.000000e+000 9.972063e-001 2.793643e-003
 0.000000e+000 0.000000e+000 0.000000e+000
<ENDHMM>
~h "MAR"
<BEGINHMM>
<NUMSTATES> 3
<STATE> 2
<NUMMIXES> 2
<MIXTURE> 1 5.000000e-001
<MEAN> 39
 -3.752549e+000 3.226673e+000 5.592508e+000 2.126912e+000 9.039879e-001 6.897241e-001 1.319616e+000 -4.779788e-001 3.653454e+000 -6.294398e-001 5.912464e+000 -1.025337e+000 7.126252e+001 4.102151e-001 3.466482e-001 3.415983e-001 4.106630e-001 4.211107e-001 4.000573e-001 3.783278e-001 3.711241e-001 3.413800e-001 3.578527e-001 3.369459e-001 3.479201e-001 4.482508e-001 1.556842e-001 1.429633e-001 1.355883e-001 1.718580e-001 1.752116e-001 1.725678e-001 1.599051e-001 1.592884e-001 1.476643e-001 1.521807e-001 1.509769e-001 1.467823e-001 1.839591e-001
<VARIANCE> 39
 8.035582e+001 4.693398e+001 6.142456e+001 5.812206e+001 7.341074e+001 5.466494e+001 5.797247e+001 4.839909e+001 4.030555e+001 5.042109e+001 3.037331e+001 4.481084e+001 1.105339e+002 4.204361e+000 3.007275e+000 2.896081e+000 4.206509e+000 4.429920e+000 4.027221e+000 3.595671e+000 3.461152e+000 2.928335e+000 3.207061e+000 2.857585e+000 3.022364e+000 5.021848e+000 6.057006e-001 5.095668e-001 4.606153e-001 7.377291e-001 7.678687e-001 7.466989e-001 6.434807e-001 6.360561e-001 5.464743e-001 5.771893e-001 5.726974e-001 5.407988e-001 8.446300e-001
<GCONST> 1.341180e+002
<MIXTURE> 2 5.000000e-001
<MEAN> 39
 -7.338205e+000 4.863374e-001 2.457556e+000 -9.226012e-001 -2.523215e+000 -2.267705e+000 -1.725970e+000 -3.260757e+000 1.113988e+000 -3.469752e+000 3.707984e+000 -3.702973e+000 6.705712e+001 -4.099664e-001 -3.470117e-001 -3.391167e-001 -4.097280e-001 -4.207843e-001 -4.026602e-001 -3.801624e-001 -3.730428e-001 -3.431152e-001 -3.584781e-001 -3.392299e-001 -3.474778e-001 -4.481284e-001 -1.556229e-001 -1.425725e-001 -1.358863e-001 -1.717066e-001 -1.753009e-001 -1.730791e-001 -1.609639e-001 -1.597241e-001 -1.480313e-001 -1.517112e-001 -1.517302e-001 -1.473738e-001 -1.836559e-001
<VARIANCE> 39
 8.035582e+001 4.693398e+001 6.142456e+001 5.812206e+001 7.341074e+001 5.466494e+001 5.797247e+001 4.839909e+001 4.030555e+001 5.042109e+001 3.037331e+001 4.481084e+001 1.105339e+002 4.204361e+000 3.007275e+000 2.896081e+000 4.206509e+000 4.429920e+000 4.027221e+000 3.595671e+000 3.461152e+000 2.928335e+000 3.207061e+000 2.857585e+000 3.022364e+000 5.021848e+000 6.057006e-001 5.095668e-001 4.606153e-001 7.377291e-001 7.678687e-001 7.466989e-001 6.434807e-001 6.360561e-001 5.464743e-001 5.771893e-001 5.726974e-001 5.407988e-001 8.446300e-001
<GCONST> 1.341180e+002
<TRANSP> 3
 0.000000e+000 1.000000e+000 0.000000e+000
 0.000000e+000 9.984528e-001 1.547198e-003
 0.000000e+000 0.000000e+000 0.000000e+000
<ENDHMM>
~h "MJB"
<BEGINHMM>
<NUMSTATES> 3
<STATE> 2
<NUMMIXES> 2
<MIXTURE> 1 5.000000e-001
<MEAN> 39
 -3.568690e+000 1.173133e+000 3.772225e+000 2.115049e+000 -1.420523e+000 3.003163e+000 -4.567149e+000 1.886773e+000 -1.192032e+000 -1.920104e-001 -7.501953e-001 1.629961e-001 6.710626e+001 3.768843e-001 3.164561e-001 2.842798e-001 3.206629e-001 4.163542e-001 3.713925e-001 3.546576e-001 3.433457e-001 3.426317e-001 2.913221e-001 2.952886e-001 2.549019e-001 3.036952e-001 1.473860e-001 1.288894e-001 1.172298e-001 1.349849e-001 1.709422e-001 1.561217e-001 1.488668e-001 1.465317e-001 1.474063e-001 1.263154e-001 1.273882e-001 1.113403e-001 1.237360e-001
<VARIANCE> 39
 8.462669e+001 4.508920e+001 5.293253e+001 4.216860e+001 7.899224e+001 5.593862e+001 6.119561e+001 4.747735e+001 4.836010e+001 3.001520e+001 3.279954e+001 2.629727e+001 8.192671e+001 3.602426e+000 2.483772e+000 2.063760e+000 2.577311e+000 4.315945e+000 3.420975e+000 3.062973e+000 2.900554e+000 2.898452e+000 2.068762e+000 2.179292e+000 1.606042e+000 2.317439e+000 5.394716e-001 4.143800e-001 3.450061e-001 4.570675e-001 7.335442e-001 6.106316e-001 5.571328e-001 5.383250e-001 5.379345e-001 3.979365e-001 4.068186e-001 3.102225e-001 3.827615e-001
<GCONST> 1.251481e+002
<MIXTURE> 2 5.000000e-001
<MEAN> 39
 -7.248401e+000 -1.512807e+000 8.620352e-001 -4.824449e-001 -4.975627e+000 1.147747e-002 -7.696253e+000 -8.693792e-001 -3.973690e+000 -2.383456e+000 -3.041031e+000 -1.888238e+000 6.348573e+001 -3.823180e-001 -3.139434e-001 -2.903520e-001 -3.214973e-001 -4.146399e-001 -3.684427e-001 -3.453964e-001 -3.378948e-001 -3.383619e-001 -2.840056e-001 -2.952084e-001 -2.520169e-001 -3.052303e-001 -1.464089e-001 -1.286000e-001 -1.177191e-001 -1.354422e-001 -1.716466e-001 -1.564499e-001 -1.496985e-001 -1.469509e-001 -1.459697e-001 -1.260135e-001 -1.277412e-001 -1.114502e-001 -1.237349e-001
<VARIANCE> 39
 8.462669e+001 4.508920e+001 5.293253e+001 4.216860e+001 7.899224e+001 5.593862e+001 6.119561e+001 4.747735e+001 4.836010e+001 3.001520e+001 3.279954e+001 2.629727e+001 8.192671e+001 3.602426e+000 2.483772e+000 2.063760e+000 2.577311e+000 4.315945e+000 3.420975e+000 3.062973e+000 2.900554e+000 2.898452e+000 2.068762e+000 2.179292e+000 1.606042e+000 2.317439e+000 5.394716e-001 4.143800e-001 3.450061e-001 4.570675e-001 7.335442e-001 6.106316e-001 5.571328e-001 5.383250e-001 5.379345e-001 3.979365e-001 4.068186e-001 3.102225e-001 3.827615e-001
<GCONST> 1.251481e+002
<TRANSP> 3
 0.000000e+000 1.000000e+000 0.000000e+000
 0.000000e+000 9.982219e-001 1.778108e-003
 0.000000e+000 0.000000e+000 0.000000e+000
<ENDHMM>
~h "MJL"
<BEGINHMM>
<NUMSTATES> 3
<STATE> 2
<NUMMIXES> 2
<MIXTURE> 1 5.000000e-001
<MEAN> 39
 -2.741802e+000 1.203063e+000 2.954913e+000 3.612146e+000 -1.370895e+000 1.054233e+000 3.165524e+000 2.930232e+000 3.782621e+000 5.868576e+000 6.381152e+000 2.823041e+000 5.451622e+001 3.886956e-001 3.474774e-001 2.840015e-001 3.046685e-001 4.154831e-001 3.238638e-001 3.161581e-001 3.758252e-001 3.174952e-001 2.849822e-001 2.707815e-001 2.747430e-001 2.789543e-001 1.520597e-001 1.431143e-001 1.125125e-001 1.262158e-001 1.722779e-001 1.330343e-001 1.322820e-001 1.583445e-001 1.342150e-001 1.233735e-001 1.169135e-001 1.156195e-001 1.204044e-001
<VARIANCE> 39
 8.707343e+001 4.749564e+001 4.848838e+001 3.946780e+001 9.724904e+001 6.519180e+001 4.750563e+001 6.296777e+001 4.352259e+001 2.763990e+001 2.304973e+001 3.628292e+001 1.364078e+002 3.825318e+000 2.952754e+000 1.997868e+000 2.263283e+000 4.233315e+000 2.555861e+000 2.431858e+000 3.477095e+000 2.467011e+000 2.001456e+000 1.790129e+000 1.848812e+000 2.044167e+000 5.683106e-001 5.207236e-001 3.183251e-001 4.073268e-001 7.556096e-001 4.546286e-001 4.544924e-001 6.391647e-001 4.539202e-001 3.864561e-001 3.494676e-001 3.410013e-001 3.479135e-001
<GCONST> 1.245262e+002
<MIXTURE> 2 5.000000e-001
<MEAN> 39
 -6.474328e+000 -1.553621e+000 1.695690e-001 1.099210e+000 -5.315493e+000 -2.175425e+000 4.085504e-001 -2.438577e-001 1.143755e+000 3.765630e+000 4.460746e+000 4.136288e-001 4.984446e+001 -3.936412e-001 -3.398658e-001 -2.813824e-001 -2.971000e-001 -4.075177e-001 -3.156187e-001 -3.076185e-001 -3.700536e-001 -3.107736e-001 -2.809091e-001 -2.644013e-001 -2.691411e-001 -2.929432e-001 -1.494858e-001 -1.455304e-001 -1.131687e-001 -1.290728e-001 -1.754253e-001 -1.366703e-001 -1.373822e-001 -1.614466e-001 -1.352794e-001 -1.252889e-001 -1.195496e-001 -1.179618e-001 -1.155323e-001
<VARIANCE> 39
 8.707343e+001 4.749564e+001 4.848838e+001 3.946780e+001 9.724904e+001 6.519180e+001 4.750563e+001 6.296777e+001 4.352259e+001 2.763990e+001 2.304973e+001 3.628292e+001 1.364078e+002 3.825318e+000 2.952754e+000 1.997868e+000 2.263283e+000 4.233315e+000 2.555861e+000 2.431858e+000 3.477095e+000 2.467011e+000 2.001456e+000 1.790129e+000 1.848812e+000 2.044167e+000 5.683106e-001 5.207236e-001 3.183251e-001 4.073268e-001 7.556096e-001 4.546286e-001 4.544924e-001 6.391647e-001 4.539202e-001 3.864561e-001 3.494676e-001 3.410013e-001 3.479135e-001
<GCONST> 1.245262e+002
<TRANSP> 3
 0.000000e+000 1.000000e+000 0.000000e+000
 0.000000e+000 9.983717e-001 1.628322e-003
 0.000000e+000 0.000000e+000 0.000000e+000
<ENDHMM>
~h "MKK"
<BEGINHMM>
<NUMSTATES> 3
<STATE> 2
<NUMMIXES> 2
<MIXTURE> 1 5.000000e-001
<MEAN> 39
 -3.957041e+000 -1.691564e-001 6.505163e+000 -5.591109e+000 9.746580e-001 -1.982780e+000 1.292419e+000 3.394719e+000 3.582913e+000 2.028959e+000 -3.193800e-001 -1.839784e-001 6.316368e+001 3.547787e-001 3.021616e-001 3.046713e-001 4.348771e-001 3.128700e-001 3.223203e-001 3.590412e-001 3.267906e-001 3.767281e-001 3.048393e-001 3.139746e-001 2.556931e-001 3.646769e-001 1.333103e-001 1.269852e-001 1.222191e-001 1.786233e-001 1.347120e-001 1.367290e-001 1.528285e-001 1.430589e-001 1.607883e-001 1.342762e-001 1.340047e-001 1.130779e-001 1.470827e-001
<VARIANCE> 39
 6.998012e+001 3.287259e+001 5.352624e+001 8.135353e+001 3.544313e+001 4.106845e+001 4.517653e+001 3.268712e+001 4.899775e+001 3.052259e+001 3.397444e+001 1.838688e+001 8.840408e+001 3.149302e+000 2.260201e+000 2.301291e+000 4.679633e+000 2.414346e+000 2.563289e+000 3.177520e+000 2.659011e+000 3.518429e+000 2.327047e+000 2.448388e+000 1.625781e+000 3.357020e+000 4.454133e-001 4.034688e-001 3.725111e-001 7.983077e-001 4.548841e-001 4.677200e-001 5.830440e-001 5.113052e-001 6.466409e-001 4.511203e-001 4.489068e-001 3.201053e-001 5.406352e-001
<GCONST> 1.241243e+002
<MIXTURE> 2 5.000000e-001
<MEAN> 39
 -7.303205e+000 -2.462542e+000 3.578698e+000 -9.198956e+000 -1.406707e+000 -4.546167e+000 -1.396121e+000 1.107813e+000 7.829771e-001 -1.809311e-001 -2.650884e+000 -1.899176e+000 5.940274e+001 -3.550722e-001 -2.991970e-001 -3.021289e-001 -4.304213e-001 -3.086566e-001 -3.180907e-001 -3.539828e-001 -3.254684e-001 -3.735709e-001 -3.053472e-001 -3.119185e-001 -2.543314e-001 -3.682100e-001 -1.336469e-001 -1.270916e-001 -1.219156e-001 -1.787690e-001 -1.350684e-001 -1.368312e-001 -1.526008e-001 -1.429635e-001 -1.608677e-001 -1.343858e-001 -1.339974e-001 -1.132335e-001 -1.470290e-001
<VARIANCE> 39
 6.998012e+001 3.287259e+001 5.352624e+001 8.135353e+001 3.544313e+001 4.106845e+001 4.517653e+001 3.268712e+001 4.899775e+001 3.052259e+001 3.397444e+001 1.838688e+001 8.840408e+001 3.149302e+000 2.260201e+000 2.301291e+000 4.679633e+000 2.414346e+000 2.563289e+000 3.177520e+000 2.659011e+000 3.518429e+000 2.327047e+000 2.448388e+000 1.625781e+000 3.357020e+000 4.454133e-001 4.034688e-001 3.725111e-001 7.983077e-001 4.548841e-001 4.677200e-001 5.830440e-001 5.113052e-001 6.466409e-001 4.511203e-001 4.489068e-001 3.201053e-001 5.406352e-001
<GCONST> 1.241243e+002
<TRANSP> 3
 0.000000e+000 1.000000e+000 0.000000e+000
 0.000000e+000 9.988053e-001 1.194696e-003
 0.000000e+000 0.000000e+000 0.000000e+000
<ENDHMM>
~h "MMS"
<BEGINHMM>
<NUMSTATES> 3
<STATE> 2
<NUMMIXES> 2
<MIXTURE> 1 5.000000e-001
<MEAN> 39
 -3.779002e+000 2.793393e+000 7.048240e+000 1.129685e+000 2.549483e-001 2.594619e+000 5.019103e-001 3.919197e-001 4.638498e+000 8.601255e-001 4.949434e+000 4.626731e-001 6.840397e+001 4.433708e-001 3.497072e-001 3.461915e-001 3.776067e-001 4.471822e-001 3.630204e-001 3.956749e-001 3.840022e-001 3.697710e-001 3.622188e-001 3.261954e-001 3.280177e-001 3.855870e-001 1.657615e-001 1.482636e-001 1.372129e-001 1.593202e-001 1.808680e-001 1.534485e-001 1.656319e-001 1.604727e-001 1.577112e-001 1.553246e-001 1.441543e-001 1.403766e-001 1.627950e-001
<VARIANCE> 39
 8.543913e+001 3.993795e+001 5.784713e+001 5.016893e+001 8.203833e+001 5.268513e+001 6.691422e+001 5.902455e+001 4.623747e+001 4.022669e+001 2.820041e+001 3.963034e+001 8.408399e+001 4.896943e+000 3.047147e+000 2.992775e+000 3.555887e+000 4.967315e+000 3.318948e+000 3.918489e+000 3.661101e+000 3.418693e+000 3.288202e+000 2.639487e+000 2.700438e+000 3.742171e+000 6.859210e-001 5.512115e-001 4.713368e-001 6.350141e-001 8.224552e-001 5.906343e-001 6.872370e-001 6.431853e-001 6.208232e-001 6.013094e-001 5.203087e-001 4.931694e-001 6.614293e-001
<GCONST> 1.331781e+002
<MIXTURE> 2 5.000000e-001
<MEAN> 39
 -7.476334e+000 2.655334e-001 4.005948e+000 -1.703516e+000 -3.368052e+000 -3.087626e-001 -2.770134e+000 -2.681178e+000 1.918572e+000 -1.676855e+000 2.825272e+000 -2.055432e+000 6.473608e+001 -4.417907e-001 -3.485360e-001 -3.457941e-001 -3.766757e-001 -4.443168e-001 -3.656988e-001 -3.961320e-001 -3.813580e-001 -3.698173e-001 -3.631172e-001 -3.236646e-001 -3.293027e-001 -3.882006e-001 -1.655199e-001 -1.487109e-001 -1.374030e-001 -1.594309e-001 -1.818893e-001 -1.539624e-001 -1.659671e-001 -1.603227e-001 -1.574582e-001 -1.548520e-001 -1.443754e-001 -1.405275e-001 -1.625182e-001
<VARIANCE> 39
 8.543913e+001 3.993795e+001 5.784713e+001 5.016893e+001 8.203833e+001 5.268513e+001 6.691422e+001 5.902455e+001 4.623747e+001 4.022669e+001 2.820041e+001 3.963034e+001 8.408399e+001 4.896943e+000 3.047147e+000 2.992775e+000 3.555887e+000 4.967315e+000 3.318948e+000 3.918489e+000 3.661101e+000 3.418693e+000 3.288202e+000 2.639487e+000 2.700438e+000 3.742171e+000 6.859210e-001 5.512115e-001 4.713368e-001 6.350141e-001 8.224552e-001 5.906343e-001 6.872370e-001 6.431853e-001 6.208232e-001 6.013094e-001 5.203087e-001 4.931694e-001 6.614293e-001
<GCONST> 1.331781e+002
<TRANSP> 3
 0.000000e+000 1.000000e+000 0.000000e+000
 0.000000e+000 9.980944e-001 1.905537e-003
 0.000000e+000 0.000000e+000 0.000000e+000
<ENDHMM>
~h "MOS"
<BEGINHMM>
<NUMSTATES> 3
<STATE> 2
<NUMMIXES> 2
<MIXTURE> 1 5.000000e-001
<MEAN> 39
 -4.681147e+000 -1.235254e+000 4.357060e+000 -4.650896e+000 -2.513282e+000 -4.855702e+000 -1.479292e+000 1.290231e+000 3.230750e+000 1.445040e+000 2.480276e+000 -2.028434e+000 6.035827e+001 3.624652e-001 3.275353e-001 3.015756e-001 3.532890e-001 3.655746e-001 3.451278e-001 3.475469e-001 3.545864e-001 3.572455e-001 3.392751e-001 3.175872e-001 3.154586e-001 3.296161e-001 1.334953e-001 1.365485e-001 1.209509e-001 1.476088e-001 1.536323e-001 1.483561e-001 1.461212e-001 1.520473e-001 1.497983e-001 1.501286e-001 1.378839e-001 1.337327e-001 1.313079e-001
<VARIANCE> 39
 7.434586e+001 3.962571e+001 5.044595e+001 4.846338e+001 5.344961e+001 4.713550e+001 5.157570e+001 4.036969e+001 4.499044e+001 3.385517e+001 3.415758e+001 3.748666e+001 8.211250e+001 3.282061e+000 2.677044e+000 2.281913e+000 3.149191e+000 3.354896e+000 3.001888e+000 2.996270e+000 3.146220e+000 3.197155e+000 2.900296e+000 2.545128e+000 2.503521e+000 2.699069e+000 4.465155e-001 4.646814e-001 3.640516e-001 5.451563e-001 5.902620e-001 5.508315e-001 5.353450e-001 5.807191e-001 5.632938e-001 5.625212e-001 4.760454e-001 4.461868e-001 4.320642e-001
<GCONST> 1.265826e+002
<MIXTURE> 2 5.000000e-001
<MEAN> 39
 -8.130109e+000 -3.753212e+000 1.516048e+000 -7.435522e+000 -5.437652e+000 -7.601914e+000 -4.351941e+000 -1.251254e+000 5.477537e-001 -8.823678e-001 1.424962e-001 -4.477488e+000 5.673363e+001 -3.621932e-001 -3.269317e-001 -3.026645e-001 -3.565494e-001 -3.670804e-001 -3.479105e-001 -3.448426e-001 -3.549170e-001 -3.579781e-001 -3.419351e-001 -3.205511e-001 -3.174422e-001 -3.275376e-001 -1.337920e-001 -1.361217e-001 -1.203959e-001 -1.477300e-001 -1.536818e-001 -1.485160e-001 -1.465479e-001 -1.527724e-001 -1.504133e-001 -1.498770e-001 -1.381002e-001 -1.334562e-001 -1.316184e-001
<VARIANCE> 39
 7.434586e+001 3.962571e+001 5.044595e+001 4.846338e+001 5.344961e+001 4.713550e+001 5.157570e+001 4.036969e+001 4.499044e+001 3.385517e+001 3.415758e+001 3.748666e+001 8.211250e+001 3.282061e+000 2.677044e+000 2.281913e+000 3.149191e+000 3.354896e+000 3.001888e+000 2.996270e+000 3.146220e+000 3.197155e+000 2.900296e+000 2.545128e+000 2.503521e+000 2.699069e+000 4.465155e-001 4.646814e-001 3.640516e-001 5.451563e-001 5.902620e-001 5.508315e-001 5.353450e-001 5.807191e-001 5.632938e-001 5.625212e-001 4.760454e-001 4.461868e-001 4.320642e-001
<GCONST> 1.265826e+002
<TRANSP> 3
 0.000000e+000 1.000000e+000 0.000000e+000
 0.000000e+000 9.984229e-001 1.577121e-003
 0.000000e+000 0.000000e+000 0.000000e+000
<ENDHMM>
~h "MPM"
<BEGINHMM>
<NUMSTATES> 3
<STATE> 2
<NUMMIXES> 2
<MIXTURE> 1 5.000000e-001
<MEAN> 39
 -6.288754e+000 4.919335e+000 4.235798e+000 3.140992e+000 -1.488592e+000 8.269527e-001 -1.645939e+000 1.365250e+000 4.197394e-001 3.351362e+000 2.165932e+000 -1.529599e-001 6.618350e+001 3.535763e-001 3.039628e-001 3.430660e-001 3.335283e-001 4.003578e-001 3.610807e-001 3.705098e-001 3.919235e-001 3.612103e-001 3.379270e-001 3.214199e-001 3.103828e-001 3.008579e-001 1.323742e-001 1.257146e-001 1.388719e-001 1.437073e-001 1.706747e-001 1.530354e-001 1.605794e-001 1.699660e-001 1.569575e-001 1.468213e-001 1.424966e-001 1.343543e-001 1.251674e-001
<VARIANCE> 39
 6.833995e+001 4.243060e+001 6.515498e+001 4.185135e+001 6.711038e+001 5.959239e+001 7.133787e+001 5.448069e+001 5.070069e+001 4.227692e+001 3.173851e+001 3.946585e+001 8.744449e+001 3.104887e+000 2.263356e+000 2.985601e+000 2.798788e+000 3.950282e+000 3.204970e+000 3.416343e+000 3.869419e+000 3.249044e+000 2.816858e+000 2.560340e+000 2.405416e+000 2.308631e+000 4.384973e-001 3.961437e-001 4.832778e-001 5.169418e-001 7.292278e-001 5.847169e-001 6.491719e-001 7.250869e-001 6.170974e-001 5.385320e-001 5.069692e-001 4.491615e-001 3.909555e-001
<GCONST> 1.291915e+002
<MIXTURE> 2 5.000000e-001
<MEAN> 39
 -9.595473e+000 2.313785e+000 1.007052e+000 5.532875e-001 -4.765429e+000 -2.260892e+000 -5.024409e+000 -1.587191e+000 -2.428437e+000 7.505338e-001 -8.754587e-002 -2.665834e+000 6.244304e+001 -3.512513e-001 -2.978153e-001 -3.480896e-001 -3.356549e-001 -3.946548e-001 -3.550165e-001 -3.688243e-001 -3.949101e-001 -3.597938e-001 -3.334130e-001 -3.186226e-001 -3.099934e-001 -3.069093e-001 -1.325024e-001 -1.260452e-001 -1.392008e-001 -1.438873e-001 -1.709047e-001 -1.528317e-001 -1.617054e-001 -1.706422e-001 -1.572647e-001 -1.467176e-001 -1.423105e-001 -1.337238e-001 -1.249383e-001
<VARIANCE> 39
 6.833995e+001 4.243060e+001 6.515498e+001 4.185135e+001 6.711038e+001 5.959239e+001 7.133787e+001 5.448069e+001 5.070069e+001 4.227692e+001 3.173851e+001 3.946585e+001 8.744449e+001 3.104887e+000 2.263356e+000 2.985601e+000 2.798788e+000 3.950282e+000 3.204970e+000 3.416343e+000 3.869419e+000 3.249044e+000 2.816858e+000 2.560340e+000 2.405416e+000 2.308631e+000 4.384973e-001 3.961437e-001 4.832778e-001 5.169418e-001 7.292278e-001 5.847169e-001 6.491719e-001 7.250869e-001 6.170974e-001 5.385320e-001 5.069692e-001 4.491615e-001 3.909555e-001
<GCONST> 1.291915e+002
<TRANSP> 3
 0.000000e+000 1.000000e+000 0.000000e+000
 0.000000e+000 9.985097e-001 1.490239e-003
 0.000000e+000 0.000000e+000 0.000000e+000
<ENDHMM>
~h "MPS"
<BEGINHMM>
<NUMSTATES> 3
<STATE> 2
<NUMMIXES> 2
<MIXTURE> 1 5.000000e-001
<MEAN> 39
 -3.304919e+000 1.883085e-001 6.659539e+000 -2.384547e-001 -6.908748e-001 1.657747e+000 -2.066739e-001 3.179392e-001 2.804878e+000 1.977980e+000 3.867581e+000 4.665912e-001 6.868677e+001 4.423997e-001 3.561938e-001 3.550169e-001 3.695152e-001 3.739918e-001 3.288797e-001 3.580601e-001 3.460354e-001 3.614008e-001 2.878954e-001 2.781408e-001 2.575783e-001 3.686169e-001 1.657197e-001 1.478478e-001 1.399519e-001 1.536721e-001 1.559580e-001 1.387842e-001 1.514002e-001 1.491497e-001 1.534543e-001 1.252292e-001 1.200168e-001 1.116464e-001 1.499162e-001
<VARIANCE> 39
 9.873817e+001 4.935600e+001 7.242937e+001 5.385118e+001 6.460521e+001 4.389598e+001 6.082308e+001 4.475805e+001 5.517942e+001 2.848819e+001 2.800303e+001 2.636388e+001 1.019312e+002 4.882366e+000 3.168334e+000 3.136127e+000 3.419378e+000 3.501388e+000 2.712791e+000 3.199295e+000 2.998025e+000 3.278612e+000 2.072230e+000 1.924179e+000 1.657552e+000 3.409079e+000 6.864821e-001 5.463363e-001 4.888134e-001 5.886827e-001 6.083034e-001 4.819190e-001 5.715501e-001 5.550895e-001 5.887823e-001 3.923952e-001 3.605978e-001 3.121231e-001 5.622424e-001
<GCONST> 1.279845e+002
<MIXTURE> 2 5.000000e-001
<MEAN> 39
 -7.279602e+000 -2.621845e+000 3.255321e+000 -3.173790e+000 -3.905969e+000 -9.924151e-001 -3.326240e+000 -2.358119e+000 -1.664361e-001 -1.569933e-001 1.750865e+000 -1.587240e+000 6.464833e+001 -4.414434e-001 -3.557988e-001 -3.533476e-001 -3.701472e-001 -3.744881e-001 -3.299424e-001 -3.574028e-001 -3.465568e-001 -3.628767e-001 -2.879143e-001 -2.767183e-001 -2.574055e-001 -3.699308e-001 -1.656971e-001 -1.478104e-001 -1.397089e-001 -1.532306e-001 -1.560172e-001 -1.388974e-001 -1.510035e-001 -1.488676e-001 -1.534743e-001 -1.253366e-001 -1.201824e-001 -1.118255e-001 -1.500150e-001
<VARIANCE> 39
 9.873817e+001 4.935600e+001 7.242937e+001 5.385118e+001 6.460521e+001 4.389598e+001 6.082308e+001 4.475805e+001 5.517942e+001 2.848819e+001 2.800303e+001 2.636388e+001 1.019312e+002 4.882366e+000 3.168334e+000 3.136127e+000 3.419378e+000 3.501388e+000 2.712791e+000 3.199295e+000 2.998025e+000 3.278612e+000 2.072230e+000 1.924179e+000 1.657552e+000 3.409079e+000 6.864821e-001 5.463363e-001 4.888134e-001 5.886827e-001 6.083034e-001 4.819190e-001 5.715501e-001 5.550895e-001 5.887823e-001 3.923952e-001 3.605978e-001 3.121231e-001 5.622424e-001
<GCONST> 1.279845e+002
<TRANSP> 3
 0.000000e+000 1.000000e+000 0.000000e+000
 0.000000e+000 9.984200e-001 1.580028e-003
 0.000000e+000 0.000000e+000 0.000000e+000
<ENDHMM>
~h "MVL"
<BEGINHMM>
<NUMSTATES> 3
<STATE> 2
<NUMMIXES> 2
<MIXTURE> 1 5.000000e-001
<MEAN> 39
 -4.682772e+000 9.633895e-001 3.579035e+000 8.708298e-001 -4.580357e+000 3.178664e+000 -2.006288e+000 -2.534392e-001 2.293773e+000 3.317755e+000 -1.564233e+000 -6.035247e-001 7.149438e+001 4.081761e-001 3.752703e-001 3.694530e-001 3.378829e-001 5.029192e-001 3.994642e-001 4.270391e-001 3.874024e-001 3.781554e-001 3.228784e-001 3.082103e-001 3.030716e-001 3.909321e-001 1.612112e-001 1.548451e-001 1.473900e-001 1.420941e-001 2.124748e-001 1.728469e-001 1.857956e-001 1.699197e-001 1.662090e-001 1.429634e-001 1.375273e-001 1.329804e-001 1.617382e-001
<VARIANCE> 39
 7.479310e+001 4.796209e+001 7.032717e+001 4.308022e+001 1.009260e+002 5.513323e+001 7.599490e+001 6.145821e+001 4.515081e+001 3.046555e+001 3.066125e+001 3.530162e+001 1.183110e+002 4.185239e+000 3.506548e+000 3.406454e+000 2.839815e+000 6.305446e+000 3.992922e+000 4.574711e+000 3.792241e+000 3.590167e+000 2.574851e+000 2.423248e+000 2.328503e+000 3.797382e+000 6.434634e-001 6.032002e-001 5.451764e-001 5.053584e-001 1.127461e+000 7.483544e-001 8.683101e-001 7.203982e-001 6.907102e-001 5.087844e-001 4.718038e-001 4.423824e-001 6.557190e-001
<GCONST> 1.343531e+002
<MIXTURE> 2 5.000000e-001
<MEAN> 39
 -8.142092e+000 -1.806797e+000 2.245830e-001 -1.754591e+000 -8.598835e+000 2.085940e-001 -5.493290e+000 -3.389251e+000 -3.940012e-001 1.109931e+000 -3.779137e+000 -2.980131e+000 6.714355e+001 -4.101382e-001 -3.737608e-001 -3.688103e-001 -3.361871e-001 -5.015067e-001 -3.998277e-001 -4.285039e-001 -3.915448e-001 -3.797541e-001 -3.189753e-001 -3.144611e-001 -3.073057e-001 -3.885429e-001 -1.596535e-001 -1.558188e-001 -1.479542e-001 -1.422602e-001 -2.122531e-001 -1.731830e-001 -1.869370e-001 -1.695854e-001 -1.662269e-001 -1.423531e-001 -1.372246e-001 -1.330670e-001 -1.621677e-001
<VARIANCE> 39
 7.479310e+001 4.796209e+001 7.032717e+001 4.308022e+001 1.009260e+002 5.513323e+001 7.599490e+001 6.145821e+001 4.515081e+001 3.046555e+001 3.066125e+001 3.530162e+001 1.183110e+002 4.185239e+000 3.506548e+000 3.406454e+000 2.839815e+000 6.305446e+000 3.992922e+000 4.574711e+000 3.792241e+000 3.590167e+000 2.574851e+000 2.423248e+000 2.328503e+000 3.797382e+000 6.434634e-001 6.032002e-001 5.451764e-001 5.053584e-001 1.127461e+000 7.483544e-001 8.683101e-001 7.203982e-001 6.907102e-001 5.087844e-001 4.718038e-001 4.423824e-001 6.557190e-001
<GCONST> 1.343531e+002
<TRANSP> 3
 0.000000e+000 1.000000e+000 0.000000e+000
 0.000000e+000 9.980443e-001 1.955714e-003
 0.000000e+000 0.000000e+000 0.000000e+000
<ENDHMM>
~h "ZLG"
<BEGINHMM>
<NUMSTATES> 3
<STATE> 2
<NUMMIXES> 2
<MIXTURE> 1 5.000000e-001
<MEAN> 39
 -4.930285e+000 3.743005e+000 -5.770398e-001 -1.026409e+000 -4.077287e+000 -2.818489e+000 -5.330372e+000 -4.810017e+000 -3.181213e+000 -1.781505e+000 -4.126368e+000 -2.337443e+000 6.674542e+001 3.407447e-001 2.992821e-001 3.135931e-001 3.158981e-001 3.937713e-001 3.387921e-001 3.597270e-001 3.486341e-001 3.287913e-001 3.206036e-001 3.102531e-001 2.915546e-001 2.953536e-001 1.354069e-001 1.237152e-001 1.294742e-001 1.329998e-001 1.635674e-001 1.459087e-001 1.510419e-001 1.487323e-001 1.383852e-001 1.394726e-001 1.326337e-001 1.272222e-001 1.233651e-001
<VARIANCE> 39
 5.714746e+001 3.798048e+001 5.377826e+001 4.107080e+001 6.826897e+001 4.829154e+001 6.540518e+001 5.767575e+001 4.996473e+001 3.727585e+001 4.176642e+001 3.742266e+001 6.108161e+001 2.918620e+000 2.194767e+000 2.491376e+000 2.493251e+000 3.814309e+000 2.862809e+000 3.169503e+000 3.024444e+000 2.668945e+000 2.551245e+000 2.372997e+000 2.155618e+000 2.209331e+000 4.552717e-001 3.835158e-001 4.184721e-001 4.423770e-001 6.708130e-001 5.315182e-001 5.721554e-001 5.539080e-001 4.847952e-001 4.900607e-001 4.432255e-001 4.075435e-001 3.799465e-001
<GCONST> 1.253415e+002
<MIXTURE> 2 5.000000e-001
<MEAN> 39
 -7.954123e+000 1.277873e+000 -3.510386e+000 -3.589869e+000 -7.382288e+000 -5.598173e+000 -8.565310e+000 -7.847799e+000 -6.008642e+000 -4.223663e+000 -6.711445e+000 -4.784405e+000 6.361923e+001 -3.426141e-001 -2.933077e-001 -3.177706e-001 -3.157032e-001 -3.874390e-001 -3.380014e-001 -3.523969e-001 -3.470030e-001 -3.246850e-001 -3.183011e-001 -3.059283e-001 -2.957264e-001 -2.991991e-001 -1.344884e-001 -1.239994e-001 -1.292835e-001 -1.330459e-001 -1.640453e-001 -1.457125e-001 -1.515219e-001 -1.489677e-001 -1.401238e-001 -1.405448e-001 -1.336671e-001 -1.281344e-001 -1.231941e-001
<VARIANCE> 39
 5.714746e+001 3.798048e+001 5.377826e+001 4.107080e+001 6.826897e+001 4.829154e+001 6.540518e+001 5.767575e+001 4.996473e+001 3.727585e+001 4.176642e+001 3.742266e+001 6.108161e+001 2.918620e+000 2.194767e+000 2.491376e+000 2.493251e+000 3.814309e+000 2.862809e+000 3.169503e+000 3.024444e+000 2.668945e+000 2.551245e+000 2.372997e+000 2.155618e+000 2.209331e+000 4.552717e-001 3.835158e-001 4.184721e-001 4.423770e-001 6.708130e-001 5.315182e-001 5.721554e-001 5.539080e-001 4.847952e-001 4.900607e-001 4.432255e-001 4.075435e-001 3.799465e-001
<GCONST> 1.253415e+002
<TRANSP> 3
 0.000000e+000 1.000000e+000 0.000000e+000
 0.000000e+000 9.981921e-001 1.807852e-003
 0.000000e+000 0.000000e+000 0.000000e+000
<ENDHMM>
~h "ZLR"
<BEGINHMM>
<NUMSTATES> 3
<STATE> 2
<NUMMIXES> 2
<MIXTURE> 1 5.000000e-001
<MEAN> 39
 -4.568332e+000 3.481857e+000 3.096936e+000 -2.172210e+000 2.370455e+000 -2.715120e+000 1.769552e+000 -3.315182e+000 1.603026e-001 -5.551372e-001 -1.184545e-001 6.023276e-001 6.861815e+001 3.685578e-001 3.593758e-001 3.299334e-001 5.258976e-001 3.858446e-001 4.378980e-001 3.688862e-001 4.618560e-001 3.564362e-001 3.535146e-001 3.569274e-001 2.972805e-001 4.185005e-001 1.472317e-001 1.504577e-001 1.358985e-001 2.178587e-001 1.627190e-001 1.858529e-001 1.584622e-001 1.980652e-001 1.513667e-001 1.519907e-001 1.476805e-001 1.297396e-001 1.766333e-001
<VARIANCE> 39
 5.235644e+001 4.534352e+001 5.039973e+001 1.015021e+002 6.170741e+001 7.429390e+001 5.265110e+001 7.964964e+001 5.407989e+001 4.478205e+001 5.856676e+001 3.179229e+001 9.353050e+001 3.363586e+000 3.238873e+000 2.693471e+000 6.921359e+000 3.698588e+000 4.819149e+000 3.399023e+000 5.346215e+000 3.201630e+000 3.106937e+000 3.210405e+000 2.200502e+000 4.406314e+000 5.417944e-001 5.664079e-001 4.630293e-001 1.187404e+000 6.642076e-001 8.644814e-001 6.321113e-001 9.837735e-001 5.732711e-001 5.795452e-001 5.450776e-001 4.192719e-001 7.777846e-001
<GCONST> 1.358122e+002
<MIXTURE> 2 5.000000e-001
<MEAN> 39
 -7.462642e+000 7.883530e-001 2.572256e-001 -6.202140e+000 -7.717077e-001 -6.162877e+000 -1.132891e+000 -6.885048e+000 -2.781259e+000 -3.231913e+000 -3.179611e+000 -1.653059e+000 6.474969e+001 -3.650455e-001 -3.604990e-001 -3.265385e-001 -5.264415e-001 -3.834239e-001 -4.402045e-001 -3.685714e-001 -4.630193e-001 -3.592878e-001 -3.515456e-001 -3.597767e-001 -2.960831e-001 -4.211484e-001 -1.471950e-001 -1.505827e-001 -1.362865e-001 -2.180136e-001 -1.632768e-001 -1.860571e-001 -1.595596e-001 -1.986762e-001 -1.514920e-001 -1.525208e-001 -1.476370e-001 -1.292652e-001 -1.761351e-001
<VARIANCE> 39
 5.235644e+001 4.534352e+001 5.039973e+001 1.015021e+002 6.170741e+001 7.429390e+001 5.265110e+001 7.964964e+001 5.407989e+001 4.478205e+001 5.856676e+001 3.179229e+001 9.353050e+001 3.363586e+000 3.238873e+000 2.693471e+000 6.921359e+000 3.698588e+000 4.819149e+000 3.399023e+000 5.346215e+000 3.201630e+000 3.106937e+000 3.210405e+000 2.200502e+000 4.406314e+000 5.417944e-001 5.664079e-001 4.630293e-001 1.187404e+000 6.642076e-001 8.644814e-001 6.321113e-001 9.837735e-001 5.732711e-001 5.795452e-001 5.450776e-001 4.192719e-001 7.777846e-001
<GCONST> 1.358122e+002
<TRANSP> 3
 0.000000e+000 1.000000e+000 0.000000e+000
 0.000000e+000 9.983712e-001 1.628753e-003
 0.000000e+000 0.000000e+000 0.000000e+000
<ENDHMM>
~h "ZNM"
<BEGINHMM>
<NUMSTATES> 3
<STATE> 2
<NUMMIXES> 2
<MIXTURE> 1 5.000000e-001
<MEAN> 39
 -7.115609e+000 -1.245672e+000 4.163713e+000 -5.784567e+000 -1.155460e+000 -9.240088e+000 5.277998e+000 -2.292817e+000 6.504735e-001 1.424053e+000 5.252081e-001 -1.279876e+000 6.442545e+001 3.501481e-001 2.999830e-001 3.335356e-001 4.038050e-001 3.266065e-001 4.656908e-001 3.180332e-001 3.794249e-001 3.896193e-001 3.158605e-001 3.202582e-001 3.000031e-001 4.086832e-001 1.289497e-001 1.238545e-001 1.320551e-001 1.582770e-001 1.339560e-001 1.826378e-001 1.371433e-001 1.576703e-001 1.596512e-001 1.382305e-001 1.338361e-001 1.250304e-001 1.640201e-001
<VARIANCE> 39
 7.000160e+001 3.858504e+001 7.222417e+001 8.053847e+001 5.114348e+001 1.014142e+002 4.295308e+001 6.261082e+001 7.035388e+001 3.102138e+001 4.933928e+001 3.807262e+001 1.028102e+002 3.065001e+000 2.219327e+000 2.790892e+000 4.061548e+000 2.610598e+000 5.342859e+000 2.576492e+000 3.649083e+000 3.797830e+000 2.503335e+000 2.600126e+000 2.248126e+000 4.241238e+000 4.161468e-001 3.825361e-001 4.352241e-001 6.271954e-001 4.506535e-001 8.341413e-001 4.707859e-001 6.217575e-001 6.370431e-001 4.770458e-001 4.469479e-001 3.903072e-001 6.718212e-001
<GCONST> 1.305633e+002
<MIXTURE> 2 5.000000e-001
<MEAN> 39
 -1.046229e+001 -3.730346e+000 7.643209e-001 -9.374296e+000 -4.016047e+000 -1.326827e+001 2.656454e+000 -5.457897e+000 -2.704616e+000 -8.038202e-001 -2.284469e+000 -3.747996e+000 6.036963e+001 -3.501377e-001 -2.959132e-001 -3.347029e-001 -4.023264e-001 -3.196873e-001 -4.588942e-001 -3.240250e-001 -3.846780e-001 -3.899017e-001 -3.170167e-001 -3.247381e-001 -2.997470e-001 -4.150875e-001 -1.290881e-001 -1.235435e-001 -1.318309e-001 -1.585057e-001 -1.345669e-001 -1.826876e-001 -1.373120e-001 -1.577361e-001 -1.596088e-001 -1.380435e-001 -1.335806e-001 -1.248679e-001 -1.638387e-001
<VARIANCE> 39
 7.000160e+001 3.858504e+001 7.222417e+001 8.053847e+001 5.114348e+001 1.014142e+002 4.295308e+001 6.261082e+001 7.035388e+001 3.102138e+001 4.933928e+001 3.807262e+001 1.028102e+002 3.065001e+000 2.219327e+000 2.790892e+000 4.061548e+000 2.610598e+000 5.342859e+000 2.576492e+000 3.649083e+000 3.797830e+000 2.503335e+000 2.600126e+000 2.248126e+000 4.241238e+000 4.161468e-001 3.825361e-001 4.352241e-001 6.271954e-001 4.506535e-001 8.341413e-001 4.707859e-001 6.217575e-001 6.370431e-001 4.770458e-001 4.469479e-001 3.903072e-001 6.718212e-001
<GCONST> 1.305633e+002
<TRANSP> 3
 0.000000e+000 1.000000e+000 0.000000e+000
 0.000000e+000 9.989599e-001 1.040048e-003
 0.000000e+000 0.000000e+000 0.000000e+000
<ENDHMM>
~h "ZSS"
<BEGINHMM>
<NUMSTATES> 3
<STATE> 2
<NUMMIXES> 2
<MIXTURE> 1 5.000000e-001
<MEAN> 39
 -4.660416e+000 3.661117e+000 3.560986e+000 -1.025923e+000 6.527132e-001 2.298160e+000 1.366432e+000 2.535053e+000 -7.534850e-002 3.355962e+000 7.667726e-001 3.063505e+000 5.675227e+001 3.988456e-001 3.631746e-001 3.333446e-001 4.294586e-001 4.507192e-001 3.774832e-001 4.235064e-001 3.751291e-001 4.277140e-001 3.541300e-001 4.173609e-001 2.812688e-001 3.986039e-001 1.567435e-001 1.530973e-001 1.350125e-001 1.746287e-001 1.859463e-001 1.614778e-001 1.736292e-001 1.597566e-001 1.760519e-001 1.565277e-001 1.719417e-001 1.222877e-001 1.675895e-001
<VARIANCE> 39
 6.931341e+001 4.298468e+001 5.277618e+001 7.021591e+001 8.094144e+001 4.763535e+001 7.986075e+001 4.866699e+001 7.467937e+001 3.642543e+001 7.601701e+001 2.674275e+001 8.115085e+001 4.000211e+000 3.254229e+000 2.756265e+000 4.540112e+000 4.987854e+000 3.560176e+000 4.459144e+000 3.489195e+000 4.571774e+000 3.151182e+000 4.355746e+000 1.950996e+000 4.041015e+000 6.060340e-001 5.912884e-001 4.593630e-001 7.694335e-001 8.644328e-001 6.553220e-001 7.591952e-001 6.430289e-001 7.748090e-001 6.136289e-001 7.444678e-001 3.742908e-001 6.987156e-001
<GCONST> 1.355260e+002
<MIXTURE> 2 5.000000e-001
<MEAN> 39
 -7.990602e+000 1.038609e+000 6.550967e-001 -4.377721e+000 -2.945985e+000 -4.625744e-001 -2.208162e+000 -2.554166e-001 -3.532038e+000 9.418222e-001 -2.720737e+000 9.949691e-001 5.314893e+001 -4.011755e-001 -3.584047e-001 -3.307355e-001 -4.228430e-001 -4.426210e-001 -3.772539e-001 -4.211611e-001 -3.720464e-001 -4.275543e-001 -3.559327e-001 -4.174560e-001 -2.774434e-001 -4.054872e-001 -1.546492e-001 -1.544838e-001 -1.360928e-001 -1.762407e-001 -1.859532e-001 -1.623301e-001 -1.748981e-001 -1.609997e-001 -1.760411e-001 -1.568102e-001 -1.731885e-001 -1.224295e-001 -1.667673e-001
<VARIANCE> 39
 6.931341e+001 4.298468e+001 5.277618e+001 7.021591e+001 8.094144e+001 4.763535e+001 7.986075e+001 4.866699e+001 7.467937e+001 3.642543e+001 7.601701e+001 2.674275e+001 8.115085e+001 4.000211e+000 3.254229e+000 2.756265e+000 4.540112e+000 4.987854e+000 3.560176e+000 4.459144e+000 3.489195e+000 4.571774e+000 3.151182e+000 4.355746e+000 1.950996e+000 4.041015e+000 6.060340e-001 5.912884e-001 4.593630e-001 7.694335e-001 8.644328e-001 6.553220e-001 7.591952e-001 6.430289e-001 7.748090e-001 6.136289e-001 7.444678e-001 3.742908e-001 6.987156e-001
<GCONST> 1.355260e+002
<TRANSP> 3
 0.000000e+000 1.000000e+000 0.000000e+000
 0.000000e+000 9.981949e-001 1.805054e-003
 0.000000e+000 0.000000e+000 0.000000e+000
<ENDHMM>
~h "ZTK"
<BEGINHMM>
<NUMSTATES> 3
<STATE> 2
<NUMMIXES> 2
<MIXTURE> 1 5.000000e-001
<MEAN> 39
 -5.088814e+000 -2.928067e+000 5.228765e+000 -8.508239e+000 -2.220816e+000 -5.380554e+000 -1.193156e+000 2.395915e+000 -6.222019e-001 2.389842e-001 -2.203295e+000 -5.022002e-001 6.705801e+001 3.901224e-001 4.342124e-001 3.408335e-001 5.540342e-001 3.951412e-001 4.015210e-001 4.250374e-001 4.084154e-001 4.213673e-001 3.622316e-001 3.940293e-001 2.918656e-001 4.865781e-001 1.504198e-001 1.721384e-001 1.387997e-001 2.182565e-001 1.609278e-001 1.663097e-001 1.733216e-001 1.780575e-001 1.700604e-001 1.595995e-001 1.617411e-001 1.270297e-001 1.989159e-001
<VARIANCE> 39
 7.122913e+001 7.774460e+001 5.614158e+001 1.147878e+002 6.667015e+001 5.816517e+001 7.343007e+001 5.153094e+001 7.407253e+001 3.795403e+001 6.460018e+001 2.901550e+001 9.857149e+001 3.759173e+000 4.606596e+000 2.888742e+000 7.581376e+000 3.842350e+000 3.923695e+000 4.476375e+000 4.190912e+000 4.399261e+000 3.285555e+000 3.876262e+000 2.145619e+000 6.062458e+000 5.651901e-001 7.376503e-001 4.810516e-001 1.187346e+000 6.464469e-001 6.862052e-001 7.485638e-001 7.891676e-001 7.229452e-001 6.392618e-001 6.555963e-001 4.033677e-001 9.929668e-001
<GCONST> 1.389286e+002
<MIXTURE> 2 5.000000e-001
<MEAN> 39
 -8.464708e+000 -6.454983e+000 2.231658e+000 -1.279380e+001 -5.486888e+000 -8.431198e+000 -4.620810e+000 -4.754878e-001 -4.064818e+000 -2.225290e+000 -5.418265e+000 -2.656842e+000 6.308669e+001 -3.854211e-001 -4.243069e-001 -3.390185e-001 -5.473378e-001 -3.889353e-001 -3.908118e-001 -4.212605e-001 -4.104533e-001 -4.176094e-001 -3.628125e-001 -3.934997e-001 -2.940516e-001 -4.983043e-001 -1.502966e-001 -1.714078e-001 -1.386319e-001 -2.176052e-001 -1.606799e-001 -1.650403e-001 -1.727567e-001 -1.772829e-001 -1.700443e-001 -1.602159e-001 -1.621345e-001 -1.270152e-001 -1.996750e-001
<VARIANCE> 39
 7.122913e+001 7.774460e+001 5.614158e+001 1.147878e+002 6.667015e+001 5.816517e+001 7.343007e+001 5.153094e+001 7.407253e+001 3.795403e+001 6.460018e+001 2.901550e+001 9.857149e+001 3.759173e+000 4.606596e+000 2.888742e+000 7.581376e+000 3.842350e+000 3.923695e+000 4.476375e+000 4.190912e+000 4.399261e+000 3.285555e+000 3.876262e+000 2.145619e+000 6.062458e+000 5.651901e-001 7.376503e-001 4.810516e-001 1.187346e+000 6.464469e-001 6.862052e-001 7.485638e-001 7.891676e-001 7.229452e-001 6.392618e-001 6.555963e-001 4.033677e-001 9.929668e-001
<GCONST> 1.389286e+002
<TRANSP> 3
 0.000000e+000 1.000000e+000 0.000000e+000
 0.000000e+000 9.985837e-001 1.416295e-003
 0.000000e+000 0.000000e+000 0.000000e+000
<ENDHMM>
~h "ZTV"
<BEGINHMM>
<NUMSTATES> 3
<STATE> 2
<NUMMIXES> 2
<MIXTURE> 1 5.000000e-001
<MEAN> 39
 -5.312525e+000 2.013648e+000 2.757035e+000 -4.498932e+000 -3.238050e+000 -2.996289e+000 -4.471006e+000 -4.514393e-001 -2.710632e+000 3.953810e-001 -3.649625e+000 -6.536639e-002 6.909888e+001 3.525269e-001 3.138805e-001 3.222141e-001 4.246330e-001 4.512349e-001 3.776037e-001 4.455462e-001 3.748519e-001 3.855484e-001 3.540421e-001 3.926093e-001 3.127681e-001 3.875808e-001 1.359441e-001 1.325414e-001 1.276232e-001 1.729123e-001 1.842686e-001 1.585515e-001 1.819571e-001 1.618069e-001 1.624162e-001 1.561664e-001 1.673553e-001 1.355823e-001 1.608173e-001
<VARIANCE> 39
 5.907151e+001 3.642035e+001 5.772902e+001 7.520395e+001 9.023837e+001 5.233553e+001 9.477779e+001 5.235367e+001 6.747753e+001 4.104865e+001 6.760893e+001 3.159781e+001 8.294510e+001 3.076620e+000 2.479032e+000 2.521689e+000 4.450927e+000 4.980324e+000 3.492093e+000 4.977864e+000 3.540233e+000 3.749823e+000 3.195122e+000 3.903123e+000 2.459275e+000 3.844075e+000 4.648249e-001 4.376162e-001 4.118861e-001 7.464098e-001 8.540378e-001 6.303987e-001 8.259776e-001 6.538972e-001 6.577433e-001 6.089005e-001 7.005804e-001 4.628453e-001 6.436127e-001
<GCONST> 1.344857e+002
<MIXTURE> 2 5.000000e-001
<MEAN> 39
 -8.386845e+000 -4.003235e-001 -2.821493e-001 -7.967740e+000 -7.037806e+000 -5.890021e+000 -8.365162e+000 -3.345673e+000 -5.996420e+000 -2.167388e+000 -6.938611e+000 -2.313844e+000 6.545591e+001 -3.490850e-001 -3.159172e-001 -3.129790e-001 -4.192558e-001 -4.414306e-001 -3.698820e-001 -4.468988e-001 -3.777684e-001 -3.890300e-001 -3.609541e-001 -3.976436e-001 -3.145149e-001 -3.966717e-001 -1.367682e-001 -1.320689e-001 -1.290902e-001 -1.726678e-001 -1.853880e-001 -1.590391e-001 -1.815761e-001 -1.616488e-001 -1.619893e-001 -1.559619e-001 -1.674475e-001 -1.365487e-001 -1.600846e-001
<VARIANCE> 39
 5.907151e+001 3.642035e+001 5.772902e+001 7.520395e+001 9.023837e+001 5.233553e+001 9.477779e+001 5.235367e+001 6.747753e+001 4.104865e+001 6.760893e+001 3.159781e+001 8.294510e+001 3.076620e+000 2.479032e+000 2.521689e+000 4.450927e+000 4.980324e+000 3.492093e+000 4.977864e+000 3.540233e+000 3.749823e+000 3.195122e+000 3.903123e+000 2.459275e+000 3.844075e+000 4.648249e-001 4.376162e-001 4.118861e-001 7.464098e-001 8.540378e-001 6.303987e-001 8.259776e-001 6.538972e-001 6.577433e-001 6.089005e-001 7.005804e-001 4.628453e-001 6.436127e-001
<GCONST> 1.344857e+002
<TRANSP> 3
 0.000000e+000 1.000000e+000 0.000000e+000
 0.000000e+000 9.983172e-001 1.682794e-003
 0.000000e+000 0.000000e+000 0.000000e+000
<ENDHMM>
~h "MPCH"
<BEGINHMM>
<NUMSTATES> 3
<STATE> 2
<NUMMIXES> 2
<MIXTURE> 1 5.000000e-001
<MEAN> 39
 -4.923831e+000 -4.700010e+000 4.272512e+000 -6.362009e+000 -3.525548e+000 -3.240592e+000 -1.207109e+000 2.176024e+000 8.674895e-001 4.268601e-001 9.895636e-001 -9.220393e-001 6.751926e+001 3.826978e-001 3.738810e-001 3.180328e-001 3.960618e-001 3.935419e-001 3.351070e-001 3.891366e-001 3.394952e-001 4.295392e-001 3.098891e-001 3.176894e-001 2.681983e-001 4.230126e-001 1.424433e-001 1.501625e-001 1.281587e-001 1.584772e-001 1.578284e-001 1.396400e-001 1.596044e-001 1.470580e-001 1.761336e-001 1.343685e-001 1.328131e-001 1.169885e-001 1.691902e-001
<VARIANCE> 39
 8.406622e+001 5.366786e+001 5.615846e+001 6.120603e+001 7.200269e+001 4.116518e+001 5.602708e+001 3.628699e+001 7.435116e+001 2.914648e+001 3.499152e+001 2.338799e+001 1.157077e+002 3.673465e+000 3.346002e+000 2.561067e+000 3.765257e+000 3.805347e+000 2.683249e+000 3.680602e+000 2.939976e+000 4.636287e+000 2.383843e+000 2.505552e+000 1.826619e+000 4.745567e+000 5.072225e-001 5.629498e-001 4.088626e-001 6.240070e-001 6.204575e-001 4.860922e-001 6.346931e-001 5.389256e-001 7.781280e-001 4.535983e-001 4.424580e-001 3.432057e-001 7.181665e-001
<GCONST> 1.297979e+002
<MIXTURE> 2 5.000000e-001
<MEAN> 39
 -8.591336e+000 -7.630344e+000 1.274954e+000 -9.491381e+000 -6.919724e+000 -5.806996e+000 -4.201159e+000 -2.335230e-001 -2.581595e+000 -1.732639e+000 -1.376582e+000 -2.856485e+000 6.321656e+001 -3.839537e-001 -3.578023e-001 -3.221006e-001 -3.801090e-001 -3.867500e-001 -3.201180e-001 -3.782592e-001 -3.463592e-001 -4.317424e-001 -3.076989e-001 -3.154681e-001 -2.724116e-001 -4.483602e-001 -1.424349e-001 -1.499574e-001 -1.276108e-001 -1.574993e-001 -1.572481e-001 -1.392413e-001 -1.590661e-001 -1.465882e-001 -1.767126e-001 -1.350303e-001 -1.332569e-001 -1.173465e-001 -1.697886e-001
<VARIANCE> 39
 8.406622e+001 5.366786e+001 5.615846e+001 6.120603e+001 7.200269e+001 4.116518e+001 5.602708e+001 3.628699e+001 7.435116e+001 2.914648e+001 3.499152e+001 2.338799e+001 1.157077e+002 3.673465e+000 3.346002e+000 2.561067e+000 3.765257e+000 3.805347e+000 2.683249e+000 3.680602e+000 2.939976e+000 4.636287e+000 2.383843e+000 2.505552e+000 1.826619e+000 4.745567e+000 5.072225e-001 5.629498e-001 4.088626e-001 6.240070e-001 6.204575e-001 4.860922e-001 6.346931e-001 5.389256e-001 7.781280e-001 4.535983e-001 4.424580e-001 3.432057e-001 7.181665e-001
<GCONST> 1.297979e+002
<TRANSP> 3
 0.000000e+000 1.000000e+000 0.000000e+000
 0.000000e+000 9.984196e-001 1.580361e-003
 0.000000e+000 0.000000e+000 0.000000e+000
<ENDHMM>
~h "MVL2"
<BEGINHMM>
<NUMSTATES> 3
<STATE> 2
<NUMMIXES> 2
<MIXTURE> 1 5.000000e-001
<MEAN> 39
 -3.171565e+000 2.929794e+000 3.939389e+000 -1.263086e-001 -3.455660e+000 -8.055789e-001 -5.348576e+000 -2.537642e+000 5.164157e-001 2.366748e+000 3.027275e+000 1.375001e+000 7.381422e+001 3.339453e-001 2.778911e-001 2.889515e-001 2.980030e-001 3.792627e-001 3.721982e-001 3.594832e-001 3.577414e-001 3.339556e-001 3.110346e-001 3.081341e-001 2.939685e-001 2.862280e-001 1.213529e-001 1.126099e-001 1.148646e-001 1.243550e-001 1.582388e-001 1.505226e-001 1.502327e-001 1.514435e-001 1.404558e-001 1.325875e-001 1.346151e-001 1.247094e-001 1.095870e-001
<VARIANCE> 39
 7.456745e+001 3.577906e+001 5.441372e+001 4.405039e+001 7.172014e+001 7.573987e+001 7.112299e+001 6.423319e+001 5.360189e+001 4.015743e+001 3.297189e+001 3.751476e+001 9.317582e+001 2.793852e+000 1.895850e+000 2.109942e+000 2.209515e+000 3.549924e+000 3.411270e+000 3.254182e+000 3.234112e+000 2.801923e+000 2.416188e+000 2.372099e+000 2.168949e+000 2.073035e+000 3.668375e-001 3.168432e-001 3.294645e-001 3.874923e-001 6.244600e-001 5.650206e-001 5.662643e-001 5.750759e-001 4.959405e-001 4.429865e-001 4.551771e-001 3.885505e-001 2.995478e-001
<GCONST> 1.252106e+002
<MIXTURE> 2 5.000000e-001
<MEAN> 39
 -6.625663e+000 5.371699e-001 9.887629e-001 -2.781127e+000 -6.843170e+000 -4.286725e+000 -8.721954e+000 -5.743466e+000 -2.412117e+000 -1.680478e-001 7.304289e-001 -1.074971e+000 6.995312e+001 -3.346475e-001 -2.728684e-001 -2.920741e-001 -2.965745e-001 -3.743869e-001 -3.665868e-001 -3.620909e-001 -3.616041e-001 -3.356022e-001 -3.107291e-001 -3.079307e-001 -2.951256e-001 -2.896935e-001 -1.209156e-001 -1.125454e-001 -1.147314e-001 -1.246406e-001 -1.578523e-001 -1.501489e-001 -1.507694e-001 -1.518915e-001 -1.412364e-001 -1.336414e-001 -1.352522e-001 -1.246258e-001 -1.093368e-001
<VARIANCE> 39
 7.456745e+001 3.577906e+001 5.441372e+001 4.405039e+001 7.172014e+001 7.573987e+001 7.112299e+001 6.423319e+001 5.360189e+001 4.015743e+001 3.297189e+001 3.751476e+001 9.317582e+001 2.793852e+000 1.895850e+000 2.109942e+000 2.209515e+000 3.549924e+000 3.411270e+000 3.254182e+000 3.234112e+000 2.801923e+000 2.416188e+000 2.372099e+000 2.168949e+000 2.073035e+000 3.668375e-001 3.168432e-001 3.294645e-001 3.874923e-001 6.244600e-001 5.650206e-001 5.662643e-001 5.750759e-001 4.959405e-001 4.429865e-001 4.551771e-001 3.885505e-001 2.995478e-001
<GCONST> 1.252106e+002
<TRANSP> 3
 0.000000e+000 1.000000e+000 0.000000e+000
 0.000000e+000 9.984462e-001 1.553765e-003
 0.000000e+000 0.000000e+000 0.000000e+000
<ENDHMM>
~h "VACLAV"
<BEGINHMM>
<NUMSTATES> 3
<STATE> 2
<NUMMIXES> 2
<MIXTURE> 1 5.000000e-001
<MEAN> 39
 -6.291923e+000 3.243973e+000 3.854682e+000 3.740956e+000 7.318563e-001 5.290495e+000 -1.193048e+000 5.204699e+000 4.593377e+000 5.281564e+000 5.145089e+000 2.413351e+000 4.885383e+001 3.081503e-001 3.188182e-001 2.810635e-001 3.975097e-001 3.691262e-001 3.260459e-001 3.910966e-001 3.641644e-001 3.493567e-001 3.101660e-001 2.971469e-001 2.886419e-001 2.928563e-001 1.171856e-001 1.324608e-001 1.135337e-001 1.634713e-001 1.504338e-001 1.382335e-001 1.631841e-001 1.563163e-001 1.479817e-001 1.327946e-001 1.292006e-001 1.213244e-001 1.178878e-001
<VARIANCE> 39
 5.431883e+001 3.731062e+001 4.619615e+001 8.229249e+001 6.005634e+001 4.547725e+001 6.930562e+001 5.400027e+001 5.265767e+001 4.080587e+001 2.686988e+001 4.785270e+001 6.934962e+001 2.372254e+000 2.542452e+000 1.977210e+000 3.961004e+000 3.379623e+000 2.674246e+000 3.813865e+000 3.302355e+000 3.049608e+000 2.384274e+000 2.196543e+000 2.098435e+000 2.144248e+000 3.434093e-001 4.391221e-001 3.196546e-001 6.679183e-001 5.674006e-001 4.788167e-001 6.649553e-001 6.100601e-001 5.498615e-001 4.380966e-001 4.189271e-001 3.684401e-001 3.477425e-001
<GCONST> 1.256206e+002
<MIXTURE> 2 5.000000e-001
<MEAN> 39
 -9.239975e+000 8.006756e-001 1.135972e+000 1.123478e-001 -2.367985e+000 2.593023e+000 -4.523048e+000 2.265304e+000 1.690753e+000 2.726386e+000 3.071643e+000 -3.536750e-001 4.552277e+001 -3.079347e-001 -3.189845e-001 -2.813897e-001 -3.985811e-001 -3.662239e-001 -3.280790e-001 -3.900682e-001 -3.627309e-001 -3.491684e-001 -3.074778e-001 -2.956827e-001 -2.907972e-001 -2.928737e-001 -1.172189e-001 -1.326044e-001 -1.126183e-001 -1.634338e-001 -1.508702e-001 -1.385528e-001 -1.629951e-001 -1.561090e-001 -1.486289e-001 -1.319609e-001 -1.296977e-001 -1.214726e-001 -1.179910e-001
<VARIANCE> 39
 5.431883e+001 3.731062e+001 4.619615e+001 8.229249e+001 6.005634e+001 4.547725e+001 6.930562e+001 5.400027e+001 5.265767e+001 4.080587e+001 2.686988e+001 4.785270e+001 6.934962e+001 2.372254e+000 2.542452e+000 1.977210e+000 3.961004e+000 3.379623e+000 2.674246e+000 3.813865e+000 3.302355e+000 3.049608e+000 2.384274e+000 2.196543e+000 2.098435e+000 2.144248e+000 3.434093e-001 4.391221e-001 3.196546e-001 6.679183e-001 5.674006e-001 4.788167e-001 6.649553e-001 6.100601e-001 5.498615e-001 4.380966e-001 4.189271e-001 3.684401e-001 3.477425e-001
<GCONST> 1.256206e+002
<TRANSP> 3
 0.000000e+000 1.000000e+000 0.000000e+000
 0.000000e+000 9.975002e-001 2.499791e-003
 0.000000e+000 0.000000e+000 0.000000e+000
<ENDHMM>
~h "DUTKA"
<BEGINHMM>
<NUMSTATES> 3
<STATE> 2
<NUMMIXES> 2
<MIXTURE> 1 5.000000e-001
<MEAN> 39
 7.311540e-001 -2.976836e+000 1.642193e+000 -1.279918e+001 -9.645885e+000 -2.114466e+000 -1.167284e+001 -5.066737e-001 -4.599432e+000 -3.127596e+000 -3.163118e+000 -4.306867e+000 6.280790e+001 3.868149e-001 4.504859e-001 4.227044e-001 4.576284e-001 4.297957e-001 4.428187e-001 4.342059e-001 4.452855e-001 4.122356e-001 3.615056e-001 3.476613e-001 3.172271e-001 3.724220e-001 1.411030e-001 1.800328e-001 1.662665e-001 1.896574e-001 1.808146e-001 1.826032e-001 1.872946e-001 1.883775e-001 1.794417e-001 1.587230e-001 1.527910e-001 1.379852e-001 1.362543e-001
<VARIANCE> 39
 1.316405e+002 9.505078e+001 1.216452e+002 1.027371e+002 8.187225e+001 9.110526e+001 6.980478e+001 7.972215e+001 6.160605e+001 4.326645e+001 4.202694e+001 3.343835e+001 1.312671e+002 3.714018e+000 5.161216e+000 4.484210e+000 5.252653e+000 4.556368e+000 4.971067e+000 4.749480e+000 5.003670e+000 4.323575e+000 3.285536e+000 3.056491e+000 2.527251e+000 3.385767e+000 4.985740e-001 8.092647e-001 6.913785e-001 9.002492e-001 8.174918e-001 8.345894e-001 8.778911e-001 8.902748e-001 8.074228e-001 6.292273e-001 5.848022e-001 4.770723e-001 4.650868e-001
<GCONST> 1.416885e+002
<MIXTURE> 2 5.000000e-001
<MEAN> 39
 -3.858234e+000 -6.876595e+000 -2.769522e+000 -1.685356e+001 -1.326522e+001 -5.932429e+000 -1.501482e+001 -4.078164e+000 -7.739013e+000 -5.758686e+000 -5.756246e+000 -6.619903e+000 5.822502e+001 -3.840566e-001 -4.582465e-001 -4.243337e-001 -4.591183e-001 -4.240303e-001 -4.490168e-001 -4.375261e-001 -4.494700e-001 -4.194927e-001 -3.635364e-001 -3.516516e-001 -3.186661e-001 -3.635962e-001 -1.413361e-001 -1.798038e-001 -1.663302e-001 -1.898685e-001 -1.808464e-001 -1.828203e-001 -1.874888e-001 -1.890400e-001 -1.799852e-001 -1.585725e-001 -1.530985e-001 -1.382965e-001 -1.365348e-001
<VARIANCE> 39
 1.316405e+002 9.505078e+001 1.216452e+002 1.027371e+002 8.187225e+001 9.110526e+001 6.980478e+001 7.972215e+001 6.160605e+001 4.326645e+001 4.202694e+001 3.343835e+001 1.312671e+002 3.714018e+000 5.161216e+000 4.484210e+000 5.252653e+000 4.556368e+000 4.971067e+000 4.749480e+000 5.003670e+000 4.323575e+000 3.285536e+000 3.056491e+000 2.527251e+000 3.385767e+000 4.985740e-001 8.092647e-001 6.913785e-001 9.002492e-001 8.174918e-001 8.345894e-001 8.778911e-001 8.902748e-001 8.074228e-001 6.292273e-001 5.848022e-001 4.770723e-001 4.650868e-001
<GCONST> 1.416885e+002
<TRANSP> 3
 0.000000e+000 1.000000e+000 0.000000e+000
 0.000000e+000 9.983122e-001 1.687827e-003
 0.000000e+000 0.000000e+000 0.000000e+000
<ENDHMM>
~h "BLAZEK"
<BEGINHMM>
<NUMSTATES> 3
<STATE> 2
<NUMMIXES> 2
<MIXTURE> 1 5.000000e-001
<MEAN> 39
 -5.448478e+000 -1.314226e-001 3.570603e+000 -2.429035e+000 -7.898808e-004 -9.327375e-001 -2.924619e-001 2.436297e-001 1.477877e+000 1.245739e+000 1.836769e+000 -3.162088e-001 6.061444e+001 3.458340e-001 3.108713e-001 3.164104e-001 3.549241e-001 3.785715e-001 3.483540e-001 4.004487e-001 3.359875e-001 3.215467e-001 3.001862e-001 2.923623e-001 2.904097e-001 3.545468e-001 1.338601e-001 1.263544e-001 1.275246e-001 1.517450e-001 1.594817e-001 1.514143e-001 1.685211e-001 1.467389e-001 1.389560e-001 1.292042e-001 1.290269e-001 1.272711e-001 1.433788e-001
<VARIANCE> 39
 7.220542e+001 3.685651e+001 6.010861e+001 5.198887e+001 4.783487e+001 5.255536e+001 5.678241e+001 3.891125e+001 3.664690e+001 2.763439e+001 2.575154e+001 2.953565e+001 1.007150e+002 3.073112e+000 2.361219e+000 2.513473e+000 3.191435e+000 3.476821e+000 3.145414e+000 3.924723e+000 2.833016e+000 2.596418e+000 2.188587e+000 2.161054e+000 2.118086e+000 3.114552e+000 4.446907e-001 4.034436e-001 4.020829e-001 5.702556e-001 6.378826e-001 5.712988e-001 7.069091e-001 5.362805e-001 4.822106e-001 4.193431e-001 4.120990e-001 4.019527e-001 5.167177e-001
<GCONST> 1.253403e+002
<MIXTURE> 2 5.000000e-001
<MEAN> 39
 -8.847428e+000 -2.559805e+000 4.694133e-001 -5.313167e+000 -2.767300e+000 -3.832541e+000 -3.306626e+000 -2.251526e+000 -9.435903e-001 -8.569984e-001 -1.930698e-001 -2.490077e+000 5.660016e+001 -3.553778e-001 -3.037791e-001 -3.177471e-001 -3.596594e-001 -3.672779e-001 -3.610586e-001 -3.919879e-001 -3.372751e-001 -3.229895e-001 -2.915688e-001 -2.956586e-001 -2.917362e-001 -3.513769e-001 -1.328804e-001 -1.277145e-001 -1.261155e-001 -1.503160e-001 -1.599886e-001 -1.509229e-001 -1.677904e-001 -1.461858e-001 -1.388095e-001 -1.298227e-001 -1.277529e-001 -1.263279e-001 -1.441535e-001
<VARIANCE> 39
 7.220542e+001 3.685651e+001 6.010861e+001 5.198887e+001 4.783487e+001 5.255536e+001 5.678241e+001 3.891125e+001 3.664690e+001 2.763439e+001 2.575154e+001 2.953565e+001 1.007150e+002 3.073112e+000 2.361219e+000 2.513473e+000 3.191435e+000 3.476821e+000 3.145414e+000 3.924723e+000 2.833016e+000 2.596418e+000 2.188587e+000 2.161054e+000 2.118086e+000 3.114552e+000 4.446907e-001 4.034436e-001 4.020829e-001 5.702556e-001 6.378826e-001 5.712988e-001 7.069091e-001 5.362805e-001 4.822106e-001 4.193431e-001 4.120990e-001 4.019527e-001 5.167177e-001
<GCONST> 1.253403e+002
<TRANSP> 3
 0.000000e+000 1.000000e+000 0.000000e+000
 0.000000e+000 9.982690e-001 1.730969e-003
 0.000000e+000 0.000000e+000 0.000000e+000
<ENDHMM>
~h "KOUNOVSKY"
<BEGINHMM>
<NUMSTATES> 3
<STATE> 2
<NUMMIXES> 2
<MIXTURE> 1 5.000000e-001
<MEAN> 39
 -5.479298e+000 -1.154523e+000 3.957197e+000 5.753426e+000 -8.030470e+000 7.390396e+000 -2.796997e+000 -2.462203e+000 -5.875397e-002 3.785466e+000 -1.099669e+000 -7.180424e-001 5.977690e+001 3.764906e-001 3.397846e-001 3.399416e-001 3.315540e-001 4.397683e-001 3.661013e-001 3.991823e-001 3.390680e-001 3.558096e-001 3.197984e-001 2.946368e-001 2.680122e-001 3.549540e-001 1.377053e-001 1.411273e-001 1.340617e-001 1.364682e-001 1.742565e-001 1.484778e-001 1.673092e-001 1.431873e-001 1.521540e-001 1.359483e-001 1.292294e-001 1.174178e-001 1.443287e-001
<VARIANCE> 39
 8.308690e+001 4.875666e+001 6.900697e+001 5.094372e+001 1.138137e+002 6.563243e+001 6.266273e+001 5.923621e+001 5.197257e+001 4.760760e+001 3.608937e+001 2.940674e+001 1.394265e+002 3.601347e+000 2.909514e+000 2.929878e+000 2.805057e+000 4.883789e+000 3.378987e+000 4.033618e+000 2.941775e+000 3.243423e+000 2.637777e+000 2.212100e+000 1.848454e+000 3.185565e+000 4.739788e-001 4.988634e-001 4.483468e-001 4.674288e-001 7.621650e-001 5.540026e-001 6.950671e-001 5.109922e-001 5.749503e-001 4.580234e-001 4.151832e-001 3.401081e-001 5.207683e-001
<GCONST> 1.306053e+002
<MIXTURE> 2 5.000000e-001
<MEAN> 39
 -9.125379e+000 -3.947562e+000 6.343793e-001 2.898431e+000 -1.229781e+001 4.149842e+000 -5.963389e+000 -5.540805e+000 -2.942434e+000 1.025536e+000 -3.502646e+000 -2.887162e+000 5.505374e+001 -3.825981e-001 -3.425073e-001 -3.447338e-001 -3.383782e-001 -4.442036e-001 -3.691796e-001 -4.041725e-001 -3.469962e-001 -3.645706e-001 -3.298509e-001 -3.002884e-001 -2.758193e-001 -3.589721e-001 -1.376792e-001 -1.413938e-001 -1.337731e-001 -1.370068e-001 -1.749518e-001 -1.492476e-001 -1.661735e-001 -1.427476e-001 -1.511479e-001 -1.347614e-001 -1.285095e-001 -1.158574e-001 -1.443284e-001
<VARIANCE> 39
 8.308690e+001 4.875666e+001 6.900697e+001 5.094372e+001 1.138137e+002 6.563243e+001 6.266273e+001 5.923621e+001 5.197257e+001 4.760760e+001 3.608937e+001 2.940674e+001 1.394265e+002 3.601347e+000 2.909514e+000 2.929878e+000 2.805057e+000 4.883789e+000 3.378987e+000 4.033618e+000 2.941775e+000 3.243423e+000 2.637777e+000 2.212100e+000 1.848454e+000 3.185565e+000 4.739788e-001 4.988634e-001 4.483468e-001 4.674288e-001 7.621650e-001 5.540026e-001 6.950671e-001 5.109922e-001 5.749503e-001 4.580234e-001 4.151832e-001 3.401081e-001 5.207683e-001
<GCONST> 1.306053e+002
<TRANSP> 3
 0.000000e+000 1.000000e+000 0.000000e+000
 0.000000e+000 9.971693e-001 2.830723e-003
 0.000000e+000 0.000000e+000 0.000000e+000
<ENDHMM>
~h "KOLAR"
<BEGINHMM>
<NUMSTATES> 3
<STATE> 2
<NUMMIXES> 2
<MIXTURE> 1 5.000000e-001
<MEAN> 39
 -2.916740e+000 3.973584e+000 -1.483191e+000 7.893772e+000 -4.601032e-001 3.347854e+000 1.417702e+000 3.712780e+000 2.686340e+000 5.294374e+000 5.823153e+000 8.049452e-001 5.919903e+001 2.540695e-001 2.159288e-001 2.734720e-001 2.289433e-001 3.330590e-001 2.780969e-001 3.198917e-001 2.775388e-001 2.745670e-001 2.523359e-001 2.538868e-001 2.620639e-001 2.512026e-001 9.295119e-002 9.074656e-002 1.133500e-001 9.542320e-002 1.345379e-001 1.177258e-001 1.318864e-001 1.169639e-001 1.160001e-001 1.066098e-001 1.104105e-001 1.093995e-001 1.001819e-001
<VARIANCE> 39
 5.265254e+001 1.879731e+001 3.212584e+001 2.228246e+001 7.302880e+001 3.769424e+001 5.222964e+001 3.534955e+001 3.431334e+001 2.516244e+001 2.125760e+001 4.583348e+001 6.592988e+001 1.617631e+000 1.160733e+000 1.862218e+000 1.297023e+000 2.752283e+000 1.930313e+000 2.548683e+000 1.912894e+000 1.868631e+000 1.565249e+000 1.598305e+000 1.709268e+000 1.586673e+000 2.149091e-001 2.066979e-001 3.215088e-001 2.277004e-001 4.537323e-001 3.502868e-001 4.362278e-001 3.446237e-001 3.386682e-001 2.858659e-001 3.080390e-001 2.998185e-001 2.495995e-001
<GCONST> 1.101591e+002
<MIXTURE> 2 5.000000e-001
<MEAN> 39
 -5.819223e+000 2.239350e+000 -3.750377e+000 6.005600e+000 -3.878379e+000 8.920282e-001 -1.473101e+000 1.334561e+000 3.432362e-001 3.287888e+000 3.978914e+000 -1.903072e+000 5.595115e+001 -2.546749e-001 -2.150205e-001 -2.723804e-001 -2.266043e-001 -3.305412e-001 -2.776459e-001 -3.186921e-001 -2.756909e-001 -2.722245e-001 -2.481037e-001 -2.518095e-001 -2.608920e-001 -2.526502e-001 -9.248197e-002 -9.110961e-002 -1.134569e-001 -9.544865e-002 -1.349007e-001 -1.190143e-001 -1.323038e-001 -1.178548e-001 -1.167807e-001 -1.072559e-001 -1.115945e-001 -1.096232e-001 -9.965781e-002
<VARIANCE> 39
 5.265254e+001 1.879731e+001 3.212584e+001 2.228246e+001 7.302880e+001 3.769424e+001 5.222964e+001 3.534955e+001 3.431334e+001 2.516244e+001 2.125760e+001 4.583348e+001 6.592988e+001 1.617631e+000 1.160733e+000 1.862218e+000 1.297023e+000 2.752283e+000 1.930313e+000 2.548683e+000 1.912894e+000 1.868631e+000 1.565249e+000 1.598305e+000 1.709268e+000 1.586673e+000 2.149091e-001 2.066979e-001 3.215088e-001 2.277004e-001 4.537323e-001 3.502868e-001 4.362278e-001 3.446237e-001 3.386682e-001 2.858659e-001 3.080390e-001 2.998185e-001 2.495995e-001
<GCONST> 1.101591e+002
<TRANSP> 3
 0.000000e+000 1.000000e+000 0.000000e+000
 0.000000e+000 9.984227e-001 1.577287e-003
 0.000000e+000 0.000000e+000 0.000000e+000
<ENDHMM>
~h "HALADAVETY"
<BEGINHMM>
<NUMSTATES> 3
<STATE> 2
<NUMMIXES> 2
<MIXTURE> 1 5.000000e-001
<MEAN> 39
 -8.411168e+000 2.078492e+000 -2.388383e+000 -4.883468e-001 -9.120458e+000 1.075018e+000 -1.031425e+001 -2.009773e+000 -3.777341e+000 -3.889249e+000 -2.570536e-001 -5.621040e-001 5.711702e+001 3.742544e-001 3.531065e-001 3.336709e-001 3.604196e-001 3.941993e-001 4.262286e-001 4.067866e-001 3.905363e-001 3.703333e-001 3.321261e-001 3.397592e-001 3.237645e-001 4.145595e-001 1.423226e-001 1.407734e-001 1.321723e-001 1.470630e-001 1.662665e-001 1.754985e-001 1.766599e-001 1.706001e-001 1.606133e-001 1.448507e-001 1.466251e-001 1.457001e-001 1.596412e-001
<VARIANCE> 39
 1.250407e+002 6.273855e+001 7.412191e+001 7.484405e+001 6.309544e+001 8.472953e+001 6.608813e+001 6.483376e+001 5.533368e+001 3.820644e+001 4.457527e+001 4.027774e+001 3.094409e+002 3.464757e+000 3.070247e+000 2.753231e+000 3.255142e+000 3.869918e+000 4.500710e+000 4.167727e+000 3.902022e+000 3.492507e+000 2.771132e+000 2.899943e+000 2.702603e+000 4.279956e+000 5.063551e-001 4.961453e-001 4.382172e-001 5.402713e-001 6.946234e-001 7.794172e-001 7.706991e-001 7.131017e-001 6.430071e-001 5.349950e-001 5.446142e-001 5.129060e-001 6.374015e-001
<GCONST> 1.362564e+002
<MIXTURE> 2 5.000000e-001
<MEAN> 39
 -1.288403e+001 -1.089815e+000 -5.832147e+000 -3.948845e+000 -1.229776e+001 -2.606927e+000 -1.356603e+001 -5.230549e+000 -6.752806e+000 -6.361703e+000 -2.927642e+000 -3.100694e+000 5.008065e+001 -3.702999e-001 -3.477784e-001 -3.300437e-001 -3.612608e-001 -3.926850e-001 -4.223665e-001 -4.098139e-001 -3.996052e-001 -3.771967e-001 -3.337426e-001 -3.414096e-001 -3.338194e-001 -4.129626e-001 -1.423119e-001 -1.409769e-001 -1.326196e-001 -1.469496e-001 -1.671098e-001 -1.776399e-001 -1.744980e-001 -1.671813e-001 -1.601376e-001 -1.477227e-001 -1.485669e-001 -1.407697e-001 -1.597085e-001
<VARIANCE> 39
 1.250407e+002 6.273855e+001 7.412191e+001 7.484405e+001 6.309544e+001 8.472953e+001 6.608813e+001 6.483376e+001 5.533368e+001 3.820644e+001 4.457527e+001 4.027774e+001 3.094409e+002 3.464757e+000 3.070247e+000 2.753231e+000 3.255142e+000 3.869918e+000 4.500710e+000 4.167727e+000 3.902022e+000 3.492507e+000 2.771132e+000 2.899943e+000 2.702603e+000 4.279956e+000 5.063551e-001 4.961453e-001 4.382172e-001 5.402713e-001 6.946234e-001 7.794172e-001 7.706991e-001 7.131017e-001 6.430071e-001 5.349950e-001 5.446142e-001 5.129060e-001 6.374015e-001
<GCONST> 1.362564e+002
<TRANSP> 3
 0.000000e+000 1.000000e+000 0.000000e+000
 0.000000e+000 9.987823e-001 1.217648e-003
 0.000000e+000 0.000000e+000 0.000000e+000
<ENDHMM>
~h "HORKYVETY"
<BEGINHMM>
<NUMSTATES> 3
<STATE> 2
<NUMMIXES> 2
<MIXTURE> 1 5.000000e-001
<MEAN> 39
 -1.435594e+001 1.676640e+000 -2.305474e+000 1.033210e+000 -5.994471e+000 1.645362e-002 -4.542013e+000 -1.503937e+000 1.720209e+000 -1.366161e+000 5.340132e+000 -2.247435e+000 4.957574e+001 3.286886e-001 2.807434e-001 2.944113e-001 3.238903e-001 3.509903e-001 3.219029e-001 3.668078e-001 3.376463e-001 3.392053e-001 3.515592e-001 3.379856e-001 2.896024e-001 4.388384e-001 1.341524e-001 1.182541e-001 1.207278e-001 1.335838e-001 1.460221e-001 1.385164e-001 1.516367e-001 1.412886e-001 1.459522e-001 1.461951e-001 1.416295e-001 1.208053e-001 1.773906e-001
<VARIANCE> 39
 7.683846e+001 3.012696e+001 6.525114e+001 5.277189e+001 4.632486e+001 5.061089e+001 5.122356e+001 5.109539e+001 3.895829e+001 4.507236e+001 5.079870e+001 3.431294e+001 2.544660e+002 2.944243e+000 1.965811e+000 2.223394e+000 2.671455e+000 3.038915e+000 2.631687e+000 3.343807e+000 2.844256e+000 2.945294e+000 3.040150e+000 2.922979e+000 2.062876e+000 4.924592e+000 4.208388e-001 3.488765e-001 3.580830e-001 4.428130e-001 5.308134e-001 4.785118e-001 5.740823e-001 4.965435e-001 5.340593e-001 5.387414e-001 5.032424e-001 3.664126e-001 7.659727e-001
<GCONST> 1.275350e+002
<MIXTURE> 2 5.000000e-001
<MEAN> 39
 -1.786224e+001 -5.188811e-001 -5.536602e+000 -1.872560e+000 -8.716966e+000 -2.829200e+000 -7.404839e+000 -4.363179e+000 -7.764542e-001 -4.051599e+000 2.489204e+000 -4.590525e+000 4.319494e+001 -3.576633e-001 -2.800861e-001 -3.020307e-001 -3.298931e-001 -3.463091e-001 -3.269961e-001 -3.646354e-001 -3.369506e-001 -3.472691e-001 -3.458818e-001 -3.458833e-001 -2.849062e-001 -4.488184e-001 -1.253360e-001 -1.180090e-001 -1.186323e-001 -1.325930e-001 -1.454056e-001 -1.381818e-001 -1.514362e-001 -1.405747e-001 -1.463653e-001 -1.474009e-001 -1.421289e-001 -1.213228e-001 -1.726888e-001
<VARIANCE> 39
 7.683846e+001 3.012696e+001 6.525114e+001 5.277189e+001 4.632486e+001 5.061089e+001 5.122356e+001 5.109539e+001 3.895829e+001 4.507236e+001 5.079870e+001 3.431294e+001 2.544660e+002 2.944243e+000 1.965811e+000 2.223394e+000 2.671455e+000 3.038915e+000 2.631687e+000 3.343807e+000 2.844256e+000 2.945294e+000 3.040150e+000 2.922979e+000 2.062876e+000 4.924592e+000 4.208388e-001 3.488765e-001 3.580830e-001 4.428130e-001 5.308134e-001 4.785118e-001 5.740823e-001 4.965435e-001 5.340593e-001 5.387414e-001 5.032424e-001 3.664126e-001 7.659727e-001
<GCONST> 1.275350e+002
<TRANSP> 3
 0.000000e+000 1.000000e+000 0.000000e+000
 0.000000e+000 9.985222e-001 1.477760e-003
 0.000000e+000 0.000000e+000 0.000000e+000
<ENDHMM>
~h "CHMELIK"
<BEGINHMM>
<NUMSTATES> 3
<STATE> 2
<NUMMIXES> 2
<MIXTURE> 1 5.000000e-001
<MEAN> 39
 -8.433773e+000 -3.904424e+000 3.541724e+000 -3.437543e+000 -4.057373e+000 -2.181901e+000 -8.401542e-001 -3.358130e-001 1.836081e+000 -2.475297e-001 8.443457e-001 -3.336123e+000 6.455652e+001 4.181463e-001 2.831583e-001 3.420449e-001 3.130547e-001 3.725393e-001 2.993528e-001 3.249195e-001 3.299268e-001 3.287368e-001 2.963413e-001 2.733134e-001 2.670767e-001 3.855454e-001 1.529316e-001 1.314534e-001 1.414348e-001 1.415734e-001 1.542455e-001 1.416268e-001 1.460239e-001 1.475448e-001 1.445786e-001 1.324164e-001 1.264332e-001 1.191408e-001 1.352895e-001
<VARIANCE> 39
 6.528944e+001 3.441578e+001 6.661843e+001 3.281542e+001 3.977644e+001 3.258151e+001 2.850283e+001 3.142017e+001 3.144992e+001 2.307017e+001 2.043426e+001 2.222890e+001 9.456496e+001 3.817502e+000 2.387198e+000 3.013620e+000 2.636969e+000 3.132142e+000 2.593185e+000 2.678344e+000 2.777616e+000 2.698913e+000 2.167960e+000 1.983200e+000 1.825759e+000 2.751060e+000 5.935243e-001 4.244019e-001 4.973963e-001 4.976164e-001 6.004387e-001 4.956589e-001 5.289786e-001 5.450139e-001 5.249167e-001 4.386230e-001 3.954145e-001 3.544871e-001 4.697154e-001
<GCONST> 1.213330e+002
<MIXTURE> 2 5.000000e-001
<MEAN> 39
 -1.166585e+001 -6.251022e+000 2.769197e-001 -5.728933e+000 -6.580115e+000 -4.465109e+000 -2.975676e+000 -2.577961e+000 -4.071286e-001 -2.168786e+000 -9.638251e-001 -5.222025e+000 6.066674e+001 -3.633909e-001 -3.348641e-001 -3.523464e-001 -3.364952e-001 -3.353751e-001 -3.447820e-001 -3.297064e-001 -3.367204e-001 -3.283980e-001 -2.926185e-001 -2.899911e-001 -2.734059e-001 -2.779074e-001 -1.552305e-001 -1.291311e-001 -1.406705e-001 -1.405944e-001 -1.557064e-001 -1.399854e-001 -1.448998e-001 -1.477555e-001 -1.452259e-001 -1.324981e-001 -1.250948e-001 -1.190145e-001 -1.388537e-001
<VARIANCE> 39
 6.528944e+001 3.441578e+001 6.661843e+001 3.281542e+001 3.977644e+001 3.258151e+001 2.850283e+001 3.142017e+001 3.144992e+001 2.307017e+001 2.043426e+001 2.222890e+001 9.456496e+001 3.817502e+000 2.387198e+000 3.013620e+000 2.636969e+000 3.132142e+000 2.593185e+000 2.678344e+000 2.777616e+000 2.698913e+000 2.167960e+000 1.983200e+000 1.825759e+000 2.751060e+000 5.935243e-001 4.244019e-001 4.973963e-001 4.976164e-001 6.004387e-001 4.956589e-001 5.289786e-001 5.450139e-001 5.249167e-001 4.386230e-001 3.954145e-001 3.544871e-001 4.697154e-001
<GCONST> 1.213330e+002
<TRANSP> 3
 0.000000e+000 1.000000e+000 0.000000e+000
 0.000000e+000 9.983881e-001 1.611881e-003
 0.000000e+000 0.000000e+000 0.000000e+000
<ENDHMM>
~h "VACEKVETY"
<BEGINHMM>
<NUMSTATES> 3
<STATE> 2
<NUMMIXES> 2
<MIXTURE> 1 5.000000e-001
<MEAN> 39
 -4.532743e+000 2.859088e+000 -2.316035e-001 1.195248e-001 -2.868157e+000 -1.029122e+000 -4.537031e+000 -3.455310e+000 -1.670806e+000 3.414212e+000 -2.042363e+000 -5.743260e-001 5.530683e+001 4.155771e-001 3.620257e-001 3.606766e-001 3.687777e-001 3.708650e-001 4.060457e-001 4.166577e-001 4.167479e-001 4.007176e-001 3.650036e-001 3.205771e-001 3.218448e-001 3.401866e-001 1.510960e-001 1.465304e-001 1.386100e-001 1.523416e-001 1.530246e-001 1.656309e-001 1.800248e-001 1.768557e-001 1.699044e-001 1.562416e-001 1.394709e-001 1.444184e-001 1.329969e-001
<VARIANCE> 39
 1.850497e+002 5.038111e+001 9.386243e+001 6.135643e+001 6.048824e+001 8.867899e+001 5.780974e+001 7.466705e+001 6.443209e+001 4.997780e+001 3.913670e+001 3.569734e+001 2.676453e+002 4.294422e+000 3.265555e+000 3.269804e+000 3.415336e+000 3.418428e+000 4.083239e+000 4.344216e+000 4.365787e+000 4.008854e+000 3.306814e+000 2.561433e+000 2.660216e+000 2.879790e+000 5.691024e-001 5.369701e-001 4.826199e-001 5.809504e-001 5.900466e-001 6.939676e-001 8.027164e-001 7.671384e-001 7.175726e-001 6.197290e-001 4.926279e-001 5.110601e-001 4.417796e-001
<GCONST> 1.366949e+002
<MIXTURE> 2 5.000000e-001
<MEAN> 39
 -9.974063e+000 1.990187e-002 -4.106908e+000 -3.013689e+000 -5.979125e+000 -4.795903e+000 -7.578339e+000 -6.911714e+000 -4.881590e+000 5.864125e-001 -4.544737e+000 -2.964216e+000 4.876289e+001 -4.133424e-001 -3.608082e-001 -3.626274e-001 -3.704474e-001 -3.686947e-001 -4.022353e-001 -4.170536e-001 -4.190308e-001 -4.001673e-001 -3.623823e-001 -3.196020e-001 -3.305620e-001 -3.386112e-001 -1.506595e-001 -1.465825e-001 -1.392734e-001 -1.525388e-001 -1.542334e-001 -1.675880e-001 -1.783530e-001 -1.734901e-001 -1.689343e-001 -1.586498e-001 -1.412789e-001 -1.415355e-001 -1.328691e-001
<VARIANCE> 39
 1.850497e+002 5.038111e+001 9.386243e+001 6.135643e+001 6.048824e+001 8.867899e+001 5.780974e+001 7.466705e+001 6.443209e+001 4.997780e+001 3.913670e+001 3.569734e+001 2.676453e+002 4.294422e+000 3.265555e+000 3.269804e+000 3.415336e+000 3.418428e+000 4.083239e+000 4.344216e+000 4.365787e+000 4.008854e+000 3.306814e+000 2.561433e+000 2.660216e+000 2.879790e+000 5.691024e-001 5.369701e-001 4.826199e-001 5.809504e-001 5.900466e-001 6.939676e-001 8.027164e-001 7.671384e-001 7.175726e-001 6.197290e-001 4.926279e-001 5.110601e-001 4.417796e-001
<GCONST> 1.366949e+002
<TRANSP> 3
 0.000000e+000 1.000000e+000 0.000000e+000
 0.000000e+000 9.979952e-001 2.004811e-003
 0.000000e+000 0.000000e+000 0.000000e+000
<ENDHMM>
~h "DVORSKY"
<BEGINHMM>
<NUMSTATES> 3
<STATE> 2
<NUMMIXES> 2
<MIXTURE> 1 5.000000e-001
<MEAN> 39
 -4.006842e+000 4.376098e+000 5.583418e+000 2.554492e+000 3.332984e+000 1.484101e+000 2.153673e+000 2.521399e+000 1.926793e+000 4.314832e+000 2.619188e+000 9.375803e-001 5.935868e+001 3.255061e-001 2.825766e-001 2.967877e-001 3.551043e-001 3.184926e-001 3.284935e-001 3.407399e-001 3.279464e-001 3.479959e-001 2.975702e-001 2.901761e-001 2.732707e-001 3.386631e-001 1.268721e-001 1.178743e-001 1.185644e-001 1.475841e-001 1.345426e-001 1.383292e-001 1.451261e-001 1.437879e-001 1.493397e-001 1.310335e-001 1.262744e-001 1.186121e-001 1.373707e-001
<VARIANCE> 39
 5.096732e+001 3.593482e+001 4.806327e+001 5.130972e+001 3.671114e+001 4.769911e+001 4.004444e+001 3.375442e+001 4.067366e+001 2.583833e+001 2.819492e+001 2.650700e+001 1.438310e+002 2.653492e+000 1.995235e+000 2.207831e+000 3.169094e+000 2.533340e+000 2.659925e+000 2.870574e+000 2.682540e+000 3.022710e+000 2.206083e+000 2.088995e+000 1.859194e+000 2.883016e+000 4.033048e-001 3.486797e-001 3.509957e-001 5.417562e-001 4.543552e-001 4.781611e-001 5.252482e-001 5.158860e-001 5.601376e-001 4.279508e-001 3.956304e-001 3.519908e-001 4.712961e-001
<GCONST> 1.214884e+002
<MIXTURE> 2 5.000000e-001
<MEAN> 39
 -6.862498e+000 1.978272e+000 2.810310e+000 -3.107401e-001 9.093957e-001 -1.278480e+000 -3.775536e-001 1.974570e-001 -6.242430e-001 2.281576e+000 4.952322e-001 -1.121818e+000 5.456150e+001 -3.260756e-001 -2.824346e-001 -2.975631e-001 -3.569737e-001 -3.181662e-001 -3.238776e-001 -3.369709e-001 -3.271920e-001 -3.474419e-001 -2.965453e-001 -2.879581e-001 -2.721384e-001 -3.405148e-001 -1.271530e-001 -1.183222e-001 -1.184152e-001 -1.468323e-001 -1.350809e-001 -1.382676e-001 -1.447700e-001 -1.435129e-001 -1.500297e-001 -1.306383e-001 -1.253222e-001 -1.187031e-001 -1.372333e-001
<VARIANCE> 39
 5.096732e+001 3.593482e+001 4.806327e+001 5.130972e+001 3.671114e+001 4.769911e+001 4.004444e+001 3.375442e+001 4.067366e+001 2.583833e+001 2.819492e+001 2.650700e+001 1.438310e+002 2.653492e+000 1.995235e+000 2.207831e+000 3.169094e+000 2.533340e+000 2.659925e+000 2.870574e+000 2.682540e+000 3.022710e+000 2.206083e+000 2.088995e+000 1.859194e+000 2.883016e+000 4.033048e-001 3.486797e-001 3.509957e-001 5.417562e-001 4.543552e-001 4.781611e-001 5.252482e-001 5.158860e-001 5.601376e-001 4.279508e-001 3.956304e-001 3.519908e-001 4.712961e-001
<GCONST> 1.214884e+002
<TRANSP> 3
 0.000000e+000 1.000000e+000 0.000000e+000
 0.000000e+000 9.976948e-001 2.305210e-003
 0.000000e+000 0.000000e+000 0.000000e+000
<ENDHMM>
~h "POLACEKVETY"
<BEGINHMM>
<NUMSTATES> 3
<STATE> 2
<NUMMIXES> 2
<MIXTURE> 1 5.000000e-001
<MEAN> 39
 -6.068342e+000 2.451338e+000 2.829933e+000 9.059052e-001 -8.184897e+000 -2.834830e-001 -8.052051e+000 1.114211e+000 -1.250381e+000 4.070068e-001 -6.410012e-001 -3.709084e+000 5.269195e+001 3.892671e-001 3.210821e-001 3.207095e-001 3.292360e-001 3.811395e-001 3.280368e-001 3.231894e-001 3.194882e-001 3.053578e-001 2.903554e-001 2.659072e-001 2.717333e-001 3.272484e-001 1.371775e-001 1.297389e-001 1.217643e-001 1.408715e-001 1.536344e-001 1.373589e-001 1.419570e-001 1.427766e-001 1.337384e-001 1.244178e-001 1.174810e-001 1.217001e-001 1.233447e-001
<VARIANCE> 39
 8.805804e+001 4.442082e+001 7.147452e+001 4.635899e+001 6.879066e+001 6.096970e+001 4.319879e+001 3.477113e+001 3.752531e+001 2.930647e+001 2.523991e+001 2.981918e+001 1.264509e+002 3.527221e+000 2.471325e+000 2.431755e+000 2.766129e+000 3.516609e+000 2.673095e+000 2.672408e+000 2.656508e+000 2.418025e+000 2.090360e+000 1.834807e+000 1.952626e+000 2.387769e+000 4.687752e-001 4.205378e-001 3.704359e-001 4.948281e-001 5.954590e-001 4.797476e-001 4.973725e-001 4.940364e-001 4.461617e-001 3.955916e-001 3.504947e-001 3.538959e-001 3.821434e-001
<GCONST> 1.234553e+002
<MIXTURE> 2 5.000000e-001
<MEAN> 39
 -9.821912e+000 -2.146200e-001 -5.517710e-001 -1.817592e+000 -1.150250e+001 -3.406807e+000 -1.068108e+001 -1.244471e+000 -3.700697e+000 -1.758411e+000 -2.650575e+000 -5.893362e+000 4.819393e+001 -3.619688e-001 -3.077358e-001 -3.030539e-001 -3.360313e-001 -3.689654e-001 -3.259473e-001 -3.307107e-001 -3.324637e-001 -3.166423e-001 -2.879676e-001 -2.759130e-001 -2.872123e-001 -2.908479e-001 -1.366912e-001 -1.296566e-001 -1.216894e-001 -1.405046e-001 -1.550296e-001 -1.396964e-001 -1.401415e-001 -1.383743e-001 -1.334429e-001 -1.271665e-001 -1.193294e-001 -1.162565e-001 -1.239263e-001
<VARIANCE> 39
 8.805804e+001 4.442082e+001 7.147452e+001 4.635899e+001 6.879066e+001 6.096970e+001 4.319879e+001 3.477113e+001 3.752531e+001 2.930647e+001 2.523991e+001 2.981918e+001 1.264509e+002 3.527221e+000 2.471325e+000 2.431755e+000 2.766129e+000 3.516609e+000 2.673095e+000 2.672408e+000 2.656508e+000 2.418025e+000 2.090360e+000 1.834807e+000 1.952626e+000 2.387769e+000 4.687752e-001 4.205378e-001 3.704359e-001 4.948281e-001 5.954590e-001 4.797476e-001 4.973725e-001 4.940364e-001 4.461617e-001 3.955916e-001 3.504947e-001 3.538959e-001 3.821434e-001
<GCONST> 1.234553e+002
<TRANSP> 3
 0.000000e+000 1.000000e+000 0.000000e+000
 0.000000e+000 9.987432e-001 1.256790e-003
 0.000000e+000 0.000000e+000 0.000000e+000
<ENDHMM>
