~o
<STREAMINFO> 1 39
<VECSIZE> 39<NULLD><MFCC_D_A_0><DIAGC>
~h "MJ"
<BEGINHMM>
<NUMSTATES> 3
<STATE> 2
<NUMMIXES> 8
<MIXTURE> 1 1.193951e-001
<MEAN> 39
 -8.745602e+000 -1.296578e+000 -1.467677e+000 -8.101260e+000 -4.502575e+000 -6.511204e+000 -6.552238e+000 -1.560812e+000 2.151456e+000 4.086806e+000 -4.708554e-001 -4.642246e-001 6.704450e+001 -1.817295e-001 6.151965e-001 2.204997e-001 8.118995e-001 7.445337e-001 2.349648e-001 1.128333e+000 2.961572e-001 7.956206e-001 1.548273e-001 4.527100e-001 5.521396e-001 1.163225e-001 3.247209e-001 1.792545e-001 2.530891e-001 2.541042e-001 -2.413973e-002 2.177718e-001 8.041933e-002 1.166099e-001 4.629967e-002 1.014126e-001 2.125664e-001 -6.228320e-003 3.151905e-002
<VARIANCE> 39
 9.681951e+001 4.329376e+001 5.558366e+001 5.153827e+001 4.343417e+001 7.206377e+001 7.153387e+001 4.097189e+001 4.043084e+001 3.309890e+001 3.392221e+001 2.232002e+001 5.056480e+001 3.830123e+000 2.413404e+000 2.549235e+000 2.703437e+000 2.792195e+000 3.213978e+000 3.733855e+000 2.850432e+000 3.123701e+000 2.243436e+000 2.276033e+000 1.932907e+000 2.874569e+000 6.375778e-001 4.641859e-001 4.077693e-001 5.275922e-001 5.218782e-001 6.095451e-001 7.427885e-001 5.682371e-001 5.640481e-001 4.448050e-001 4.491859e-001 3.633195e-001 3.938737e-001
<GCONST> 1.260707e+002
<MIXTURE> 2 1.285135e-001
<MEAN> 39
 -3.939617e+000 -1.666226e+000 2.998984e+000 -6.584849e+000 -9.625222e+000 -5.626183e+000 -1.023273e+001 -2.267831e+000 -2.846286e+000 3.942948e+000 1.671954e+000 -4.011076e+000 6.517745e+001 4.484604e-001 2.059453e-001 3.464895e-001 1.743611e-001 3.492970e-001 5.479890e-001 2.782031e-001 4.617918e-001 3.715012e-001 5.344698e-001 3.428612e-001 3.335082e-001 3.153282e-001 -6.471099e-002 8.848199e-002 2.828459e-002 1.031401e-001 3.151986e-001 1.262373e-001 3.128504e-001 1.963673e-001 3.141469e-001 1.262287e-001 6.119951e-002 2.617692e-001 1.442781e-001
<VARIANCE> 39
 2.500961e+001 2.635461e+001 8.541871e+001 3.903124e+001 4.697785e+001 5.234454e+001 5.830140e+001 4.002356e+001 5.462097e+001 2.987719e+001 3.470594e+001 3.148432e+001 6.928085e+001 2.093338e+000 1.880960e+000 2.907187e+000 3.204559e+000 3.206701e+000 3.247360e+000 3.764527e+000 3.269469e+000 3.429027e+000 2.257541e+000 2.435509e+000 2.210522e+000 1.996652e+000 2.437407e-001 2.876277e-001 4.094280e-001 4.872141e-001 5.241134e-001 5.021046e-001 6.197582e-001 5.565525e-001 6.029370e-001 4.127416e-001 4.281473e-001 3.962446e-001 3.580010e-001
<GCONST> 1.224905e+002
<MIXTURE> 3 1.422865e-001
<MEAN> 39
 -7.608128e+000 -2.440822e+000 -3.125303e+000 -7.927894e+000 -4.777608e+000 -4.576592e+000 -6.174699e+000 -4.295628e-001 2.349975e+000 3.694121e+000 -1.062268e+000 -1.014862e+000 6.475418e+001 1.883553e-001 2.279137e-001 1.172584e-001 3.894193e-001 3.617559e-001 2.470853e-001 4.803613e-001 2.108478e-001 3.152385e-001 8.412690e-002 1.570438e-001 3.076363e-001 1.247696e-001 2.707973e-001 1.613795e-001 2.358402e-001 1.769241e-001 -8.677855e-003 7.197703e-002 -1.359731e-002 1.159340e-003 -3.329147e-002 9.168973e-002 1.634731e-001 1.029600e-002 1.438763e-001
<VARIANCE> 39
 7.974555e+001 3.559336e+001 4.716499e+001 5.289789e+001 3.853339e+001 6.093004e+001 6.713177e+001 3.806842e+001 3.457985e+001 3.083662e+001 3.610673e+001 2.123067e+001 8.507844e+001 2.303380e+000 1.601490e+000 1.810048e+000 1.969982e+000 2.089157e+000 2.491140e+000 2.508088e+000 2.435338e+000 2.412263e+000 1.862772e+000 1.971758e+000 1.606177e+000 2.201292e+000 4.097494e-001 3.266754e-001 2.835574e-001 4.266560e-001 4.151305e-001 4.610309e-001 5.753700e-001 4.796978e-001 4.559317e-001 3.855086e-001 3.991379e-001 3.294766e-001 3.704136e-001
<GCONST> 1.187709e+002
<MIXTURE> 4 1.098017e-001
<MEAN> 39
 -4.784296e+000 -1.455756e+000 4.275625e+000 -6.335156e+000 -1.016330e+001 -6.958252e+000 -1.061006e+001 -3.262931e+000 -2.773996e+000 3.132802e+000 1.286947e+000 -4.186732e+000 6.631923e+001 9.640237e-001 8.449355e-002 6.884247e-001 -8.036321e-002 -1.269277e-001 3.929966e-001 -4.187699e-001 4.534656e-001 -7.926017e-002 4.498821e-001 3.037744e-001 -6.805122e-002 7.255593e-001 -5.829440e-002 3.086418e-002 -4.962209e-002 9.750873e-003 3.163690e-001 1.834959e-001 3.120048e-001 3.228263e-001 3.125756e-001 2.170036e-001 9.108061e-002 2.519076e-001 1.713010e-001
<VARIANCE> 39
 2.937274e+001 2.777543e+001 8.979461e+001 3.804203e+001 5.262748e+001 5.179287e+001 6.401844e+001 4.328328e+001 6.051751e+001 3.127075e+001 3.827782e+001 3.487335e+001 5.953929e+001 3.491092e+000 2.300912e+000 3.790257e+000 3.409610e+000 4.080337e+000 3.695496e+000 5.468368e+000 3.899248e+000 4.364914e+000 2.637078e+000 3.114085e+000 2.889410e+000 2.250615e+000 3.313798e-001 3.370077e-001 4.750167e-001 5.335395e-001 6.027076e-001 5.589144e-001 8.035838e-001 6.630304e-001 7.040942e-001 4.770803e-001 5.110441e-001 4.662274e-001 4.001248e-001
<GCONST> 1.283273e+002
<MIXTURE> 5 1.422865e-001
<MEAN> 39
 -1.118014e+001 -4.827229e+000 -5.872374e+000 -1.083713e+001 -7.260618e+000 -7.698900e+000 -9.452059e+000 -2.897547e+000 -2.210736e-003 1.472891e+000 -3.465824e+000 -2.857932e+000 6.106466e+001 -4.187203e-001 -2.782862e-001 -4.208937e-001 -1.720049e-001 -2.164008e-001 -3.842485e-001 -1.531165e-001 -4.133750e-001 -3.060199e-001 -4.618067e-001 -4.046334e-001 -1.993039e-001 -4.687005e-001 1.475056e-002 -6.724261e-002 2.283978e-002 -8.435155e-002 -2.664003e-001 -1.996200e-001 -3.170099e-001 -2.758815e-001 -3.033823e-001 -1.566676e-001 -8.923632e-002 -2.193042e-001 -9.957014e-002
<VARIANCE> 39
 7.974555e+001 3.559336e+001 4.716499e+001 5.289789e+001 3.853339e+001 6.093004e+001 6.713177e+001 3.806842e+001 3.457985e+001 3.083662e+001 3.610673e+001 2.123067e+001 8.507844e+001 2.303380e+000 1.601490e+000 1.810048e+000 1.969982e+000 2.089157e+000 2.491140e+000 2.508088e+000 2.435338e+000 2.412263e+000 1.862772e+000 1.971758e+000 1.606177e+000 2.201292e+000 4.097494e-001 3.266754e-001 2.835574e-001 4.266560e-001 4.151305e-001 4.610309e-001 5.753700e-001 4.796978e-001 4.559317e-001 3.855086e-001 3.991379e-001 3.294766e-001 3.704136e-001
<GCONST> 1.187709e+002
<MIXTURE> 6 1.285135e-001
<MEAN> 39
 -5.940001e+000 -3.719696e+000 -6.979058e-001 -9.083849e+000 -1.236684e+001 -8.520164e+000 -1.328695e+001 -4.798398e+000 -5.802526e+000 1.756546e+000 -6.845161e-001 -6.255512e+000 6.184805e+001 -1.302746e-001 -3.426471e-001 -3.355294e-001 -5.416901e-001 -3.669936e-001 -1.728284e-001 -4.978925e-001 -2.614752e-001 -3.692041e-001 -6.653480e-002 -2.813835e-001 -2.612048e-001 -2.498836e-001 -2.621914e-001 -1.260417e-001 -2.276617e-001 -1.760628e-001 2.561584e-002 -1.572001e-001 -2.048552e-003 -1.020425e-001 3.550857e-003 -1.307512e-001 -2.005323e-001 9.977385e-003 -9.505462e-002
<VARIANCE> 39
 2.500961e+001 2.635461e+001 8.541871e+001 3.903124e+001 4.697785e+001 5.234454e+001 5.830140e+001 4.002356e+001 5.462097e+001 2.987719e+001 3.470594e+001 3.148432e+001 6.928085e+001 2.093338e+000 1.880960e+000 2.907187e+000 3.204559e+000 3.206701e+000 3.247360e+000 3.764527e+000 3.269469e+000 3.429027e+000 2.257541e+000 2.435509e+000 2.210522e+000 1.996652e+000 2.437407e-001 2.876277e-001 4.094280e-001 4.872141e-001 5.241134e-001 5.021046e-001 6.197582e-001 5.565525e-001 6.029370e-001 4.127416e-001 4.281473e-001 3.962446e-001 3.580010e-001
<GCONST> 1.224905e+002
<MIXTURE> 7 1.193951e-001
<MEAN> 39
 -1.268148e+001 -3.928498e+000 -4.449855e+000 -1.097287e+001 -7.138759e+000 -9.906819e+000 -9.935347e+000 -4.121184e+000 -3.919538e-001 1.785540e+000 -2.800567e+000 -2.353987e+000 6.420014e+001 -9.645575e-001 -6.208867e-003 -4.181533e-001 1.542143e-001 7.613915e-002 -4.821380e-001 3.554055e-001 -3.791717e-001 8.866078e-002 -4.442969e-001 -1.507510e-001 -3.976464e-003 -5.618597e-001 5.327061e-003 -9.327032e-002 -2.338141e-003 -3.643798e-002 -3.131043e-001 -9.452174e-002 -2.643214e-001 -1.849161e-001 -2.541129e-001 -1.653622e-001 -5.551890e-002 -2.473323e-001 -2.195184e-001
<VARIANCE> 39
 9.681951e+001 4.329376e+001 5.558366e+001 5.153827e+001 4.343417e+001 7.206377e+001 7.153387e+001 4.097189e+001 4.043084e+001 3.309890e+001 3.392221e+001 2.232002e+001 5.056480e+001 3.830123e+000 2.413404e+000 2.549235e+000 2.703437e+000 2.792195e+000 3.213978e+000 3.733855e+000 2.850432e+000 3.123701e+000 2.243436e+000 2.276033e+000 1.932907e+000 2.874569e+000 6.375778e-001 4.641859e-001 4.077693e-001 5.275922e-001 5.218782e-001 6.095451e-001 7.427885e-001 5.682371e-001 5.640481e-001 4.448050e-001 4.491859e-001 3.633195e-001 3.938737e-001
<GCONST> 1.260707e+002
<MIXTURE> 8 1.098017e-001
<MEAN> 39
 -6.952160e+000 -3.563852e+000 4.852246e-001 -8.802285e+000 -1.306510e+001 -9.836943e+000 -1.381052e+001 -5.894533e+000 -5.885716e+000 8.959918e-001 -1.187816e+000 -6.548878e+000 6.323276e+001 2.166451e-001 -5.222567e-001 -9.031865e-002 -8.189684e-001 -9.349215e-001 -3.759503e-001 -1.354152e+000 -3.363949e-001 -9.149553e-001 -1.996813e-001 -4.020965e-001 -7.479818e-001 1.254773e-001 -2.885568e-001 -2.013453e-001 -3.253079e-001 -2.824243e-001 5.832016e-003 -1.155464e-001 -4.656658e-002 -2.880454e-003 -2.306564e-002 -5.928039e-002 -1.948688e-001 -2.121579e-002 -8.172067e-002
<VARIANCE> 39
 2.937274e+001 2.777543e+001 8.979461e+001 3.804203e+001 5.262748e+001 5.179287e+001 6.401844e+001 4.328328e+001 6.051751e+001 3.127075e+001 3.827782e+001 3.487335e+001 5.953929e+001 3.491092e+000 2.300912e+000 3.790257e+000 3.409610e+000 4.080337e+000 3.695496e+000 5.468368e+000 3.899248e+000 4.364914e+000 2.637078e+000 3.114085e+000 2.889410e+000 2.250615e+000 3.313798e-001 3.370077e-001 4.750167e-001 5.335395e-001 6.027076e-001 5.589144e-001 8.035838e-001 6.630304e-001 7.040942e-001 4.770803e-001 5.110441e-001 4.662274e-001 4.001248e-001
<GCONST> 1.283273e+002
<TRANSP> 3
 0.000000e+000 1.000000e+000 0.000000e+000
 0.000000e+000 9.984397e-001 1.560251e-003
 0.000000e+000 0.000000e+000 0.000000e+000
<ENDHMM>
~h "PB"
<BEGINHMM>
<NUMSTATES> 3
<STATE> 2
<NUMMIXES> 8
<MIXTURE> 1 1.233813e-001
<MEAN> 39
 -9.940583e+000 3.304750e+000 -1.244357e+000 1.450516e+000 6.821489e-002 2.775373e+000 2.137344e+000 3.341547e+000 3.229210e+000 2.622250e+000 2.386723e+000 1.215903e+000 5.111377e+001 8.410785e-002 1.057182e-001 1.485346e-001 2.299128e-001 2.751701e-001 3.030277e-001 3.486480e-001 3.640297e-001 3.607543e-001 3.445304e-001 3.260073e-001 2.918183e-001 3.130360e-002 6.450420e-002 5.201885e-002 8.807538e-002 7.937983e-002 9.285967e-002 1.146792e-001 9.931690e-002 1.169480e-001 1.129560e-001 1.134941e-001 1.087398e-001 9.942241e-002 8.601215e-002
<VARIANCE> 39
 6.541493e+000 4.781788e+000 5.716570e+000 7.054825e+000 9.097983e+000 1.247021e+001 1.249904e+001 1.293559e+001 1.184016e+001 1.163145e+001 1.212722e+001 1.080563e+001 6.757987e+000 3.266999e-001 3.397020e-001 4.741757e-001 6.669497e-001 8.385283e-001 1.086890e+000 1.177008e+000 1.267526e+000 1.248869e+000 1.233847e+000 1.250829e+000 1.130689e+000 2.078325e-001 6.758686e-002 6.367913e-002 9.724797e-002 1.308571e-001 1.691263e-001 2.139398e-001 2.381282e-001 2.582286e-001 2.600406e-001 2.590038e-001 2.535437e-001 2.296522e-001 5.105678e-002
<GCONST> 7.207493e+001
<MIXTURE> 2 1.704956e-001
<MEAN> 39
 -2.132490e+000 3.342885e+000 7.170034e+000 -3.315732e+000 -9.204174e+000 4.690754e-002 -8.326731e+000 2.530885e+000 1.528891e+000 1.457921e+000 2.649970e+000 -4.342933e+000 6.934718e+001 8.055222e-002 8.827343e-001 1.505720e-001 8.785434e-001 9.227126e-001 2.798969e-001 9.326643e-001 3.110608e-001 5.165845e-001 5.275938e-001 2.638364e-001 6.848717e-001 -1.230889e-001 1.198701e-001 2.883164e-001 9.583459e-002 3.074953e-001 3.416879e-001 1.744664e-001 3.395596e-001 9.050480e-002 1.703080e-001 1.302798e-001 8.303695e-002 2.189155e-001 -6.135276e-002
<VARIANCE> 39
 6.849136e+001 6.669215e+001 7.925870e+001 5.421916e+001 7.859046e+001 6.022687e+001 6.084054e+001 4.791674e+001 4.589885e+001 3.591443e+001 3.286645e+001 4.260003e+001 3.208319e+001 3.002832e+000 3.760337e+000 3.178345e+000 3.785405e+000 4.293145e+000 3.452883e+000 4.113275e+000 3.614217e+000 3.031895e+000 2.595202e+000 2.566231e+000 2.671571e+000 2.953784e+000 6.222501e-001 6.539497e-001 6.100079e-001 7.045991e-001 8.826441e-001 6.549153e-001 8.491544e-001 7.070016e-001 6.205957e-001 5.293766e-001 5.175229e-001 5.720243e-001 4.895664e-001
<GCONST> 1.325615e+002
<MIXTURE> 3 6.973805e-002
<MEAN> 39
 -5.520585e+000 5.238458e+000 1.432184e+000 7.296052e-001 -1.886486e+000 1.949142e+000 -1.046048e+000 2.171253e+000 2.716578e+000 1.698829e+000 1.882402e+000 -1.157294e+000 5.899800e+001 -2.194223e-002 1.416876e-001 -7.399747e-002 2.188250e-001 2.537492e-001 1.623112e-001 2.649161e-001 -3.206044e-003 -2.128765e-003 -1.299094e-002 1.759453e-002 2.373472e-001 -1.455672e-001 1.257621e-001 -2.633767e-002 1.212666e-001 -7.042313e-002 -5.388268e-002 2.450851e-002 -6.895822e-002 1.420244e-001 6.013834e-002 1.030258e-001 1.003974e-001 6.987384e-002 3.671793e-001
<VARIANCE> 39
 5.824718e+001 3.473892e+001 2.784534e+001 2.710903e+001 3.248562e+001 2.765216e+001 3.628305e+001 2.927394e+001 2.323314e+001 2.168390e+001 2.093811e+001 3.211979e+001 5.978749e+001 1.072001e+000 9.177864e-001 9.891371e-001 1.159770e+000 1.235395e+000 1.495993e+000 1.504868e+000 1.474864e+000 1.441622e+000 1.421964e+000 1.310011e+000 1.279918e+000 1.166322e+000 2.018734e-001 1.889038e-001 1.814674e-001 2.386233e-001 2.575244e-001 2.793468e-001 3.174375e-001 3.080482e-001 2.992256e-001 2.925226e-001 2.791261e-001 2.637195e-001 2.556168e-001
<GCONST> 1.016579e+002
<MIXTURE> 4 1.363806e-001
<MEAN> 39
 -2.567126e+000 4.352767e+000 6.452713e+000 -2.214530e+000 -7.985571e+000 4.513354e-001 -7.215971e+000 1.340060e+000 1.326049e+000 9.400707e-001 1.894103e+000 -3.976213e+000 6.788499e+001 9.392111e-001 -1.853735e-001 8.221859e-001 -2.638780e-001 -2.373318e-001 4.663968e-001 -3.360314e-001 5.060836e-001 1.665887e-001 1.068456e-001 4.342363e-001 -1.338069e-001 1.199850e+000 1.743355e-001 5.507189e-002 1.883864e-001 7.462387e-002 7.231869e-002 1.653834e-001 8.315491e-002 2.400805e-001 1.537110e-001 1.573981e-001 2.185317e-001 8.660824e-002 2.265829e-001
<VARIANCE> 39
 5.985944e+001 6.128557e+001 7.161606e+001 5.308528e+001 6.868021e+001 5.152682e+001 5.647789e+001 4.484810e+001 4.099208e+001 3.478599e+001 3.086070e+001 4.024421e+001 3.836000e+001 5.361012e+000 3.953217e+000 4.712707e+000 4.201905e+000 6.187960e+000 3.936146e+000 5.142703e+000 4.414746e+000 3.550596e+000 2.988272e+000 2.994364e+000 3.750305e+000 3.549759e+000 6.074111e-001 6.156497e-001 5.980750e-001 7.207793e-001 9.331617e-001 6.315323e-001 8.620863e-001 7.464874e-001 5.989367e-001 5.396879e-001 5.361569e-001 6.046604e-001 5.491161e-001
<GCONST> 1.349229e+002
<MIXTURE> 5 1.704956e-001
<MEAN> 39
 -5.442870e+000 7.627475e-002 3.608940e+000 -6.261078e+000 -1.275023e+001 -3.057332e+000 -1.144674e+001 -2.379915e-001 -1.181057e+000 -9.392253e-001 3.567996e-001 -6.953681e+000 6.708150e+001 -6.125950e-001 1.070707e-001 -5.625446e-001 1.002987e-001 9.391636e-002 -4.633806e-001 1.214159e-001 -4.493830e-001 -1.799091e-001 -1.167914e-001 -3.769420e-001 3.107408e-002 -8.105519e-001 -1.956612e-001 -3.515221e-002 -2.165774e-001 -2.826631e-002 -3.410868e-002 -1.492409e-001 -2.903876e-002 -2.458288e-001 -1.448036e-001 -1.607533e-001 -2.047193e-001 -8.361364e-002 -3.412288e-001
<VARIANCE> 39
 6.849136e+001 6.669215e+001 7.925870e+001 5.421916e+001 7.859046e+001 6.022687e+001 6.084054e+001 4.791674e+001 4.589885e+001 3.591443e+001 3.286645e+001 4.260003e+001 3.208319e+001 3.002832e+000 3.760337e+000 3.178345e+000 3.785405e+000 4.293145e+000 3.452883e+000 4.113275e+000 3.614217e+000 3.031895e+000 2.595202e+000 2.566231e+000 2.671571e+000 2.953784e+000 6.222501e-001 6.539497e-001 6.100079e-001 7.045991e-001 8.826441e-001 6.549153e-001 8.491544e-001 7.070016e-001 6.205957e-001 5.293766e-001 5.175229e-001 5.720243e-001 4.895664e-001
<GCONST> 1.325615e+002
<MIXTURE> 6 1.363806e-001
<MEAN> 39
 -5.661881e+000 1.221363e+000 3.067662e+000 -5.128916e+000 -1.130051e+001 -2.419952e+000 -1.022204e+001 -1.338689e+000 -1.234953e+000 -1.419115e+000 -3.279939e-001 -6.513746e+000 6.540757e+001 1.305673e-002 -9.806814e-001 -4.616490e-002 -1.083820e+000 -1.232356e+000 -3.271921e-001 -1.243133e+000 -3.343683e-001 -5.871323e-001 -5.846192e-001 -2.579330e-001 -9.084351e-001 4.462175e-001 -1.374108e-001 -2.587815e-001 -1.209548e-001 -2.649710e-001 -3.140825e-001 -1.524926e-001 -2.882395e-001 -1.055175e-001 -1.558530e-001 -1.364557e-001 -7.435920e-002 -2.244314e-001 -6.982654e-002
<VARIANCE> 39
 5.985944e+001 6.128557e+001 7.161606e+001 5.308528e+001 6.868021e+001 5.152682e+001 5.647789e+001 4.484810e+001 4.099208e+001 3.478599e+001 3.086070e+001 4.024421e+001 3.836000e+001 5.361012e+000 3.953217e+000 4.712707e+000 4.201905e+000 6.187960e+000 3.936146e+000 5.142703e+000 4.414746e+000 3.550596e+000 2.988272e+000 2.994364e+000 3.750305e+000 3.549759e+000 6.074111e-001 6.156497e-001 5.980750e-001 7.207793e-001 9.331617e-001 6.315323e-001 8.620863e-001 7.464874e-001 5.989367e-001 5.396879e-001 5.361569e-001 6.046604e-001 5.491161e-001
<GCONST> 1.349229e+002
<MIXTURE> 7 1.233813e-001
<MEAN> 39
 -1.096364e+001 2.430058e+000 -2.200731e+000 3.880789e-001 -1.138300e+000 1.362845e+000 7.231843e-001 1.902904e+000 1.852828e+000 1.258054e+000 9.937568e-001 -9.897351e-002 5.007392e+001 -1.445228e-001 -1.274176e-001 -1.269071e-001 -9.675518e-002 -9.111466e-002 -1.139884e-001 -8.531201e-002 -8.630811e-002 -8.625692e-002 -9.978425e-002 -1.213545e-001 -1.335171e-001 -1.510510e-001 -3.948570e-002 -4.892005e-002 -3.666305e-002 -6.531687e-002 -7.164021e-002 -7.033533e-002 -9.587663e-002 -8.631680e-002 -9.102070e-002 -9.007559e-002 -9.267271e-002 -9.226575e-002 -4.370846e-003
<VARIANCE> 39
 6.541493e+000 4.781788e+000 5.716570e+000 7.054825e+000 9.097983e+000 1.247021e+001 1.249904e+001 1.293559e+001 1.184016e+001 1.163145e+001 1.212722e+001 1.080563e+001 6.757987e+000 3.266999e-001 3.397020e-001 4.741757e-001 6.669497e-001 8.385283e-001 1.086890e+000 1.177008e+000 1.267526e+000 1.248869e+000 1.233847e+000 1.250829e+000 1.130689e+000 2.078325e-001 6.758686e-002 6.367913e-002 9.724797e-002 1.308571e-001 1.691263e-001 2.139398e-001 2.381282e-001 2.582286e-001 2.600406e-001 2.590038e-001 2.535437e-001 2.296522e-001 5.105678e-002
<GCONST> 7.207493e+001
<MIXTURE> 8 6.973805e-002
<MEAN> 39
 -8.573379e+000 2.880868e+000 -6.785638e-001 -1.353048e+000 -4.166332e+000 -1.542707e-001 -3.455464e+000 7.037044e-003 7.885476e-001 -1.638097e-001 5.207509e-002 -3.424267e+000 5.590510e+001 -4.360922e-001 -2.415171e-001 -4.718190e-001 -2.119455e-001 -1.908441e-001 -3.269320e-001 -2.257762e-001 -4.889820e-001 -4.823990e-001 -4.899755e-001 -4.402283e-001 -2.151866e-001 -5.775528e-001 -5.395918e-002 -2.001899e-001 -4.912940e-002 -2.658195e-001 -2.568701e-001 -1.869045e-001 -2.943246e-001 -7.998401e-002 -1.586677e-001 -1.133156e-001 -1.109321e-001 -1.355407e-001 1.649451e-001
<VARIANCE> 39
 5.824718e+001 3.473892e+001 2.784534e+001 2.710903e+001 3.248562e+001 2.765216e+001 3.628305e+001 2.927394e+001 2.323314e+001 2.168390e+001 2.093811e+001 3.211979e+001 5.978749e+001 1.072001e+000 9.177864e-001 9.891371e-001 1.159770e+000 1.235395e+000 1.495993e+000 1.504868e+000 1.474864e+000 1.441622e+000 1.421964e+000 1.310011e+000 1.279918e+000 1.166322e+000 2.018734e-001 1.889038e-001 1.814674e-001 2.386233e-001 2.575244e-001 2.793468e-001 3.174375e-001 3.080482e-001 2.992256e-001 2.925226e-001 2.791261e-001 2.637195e-001 2.556168e-001
<GCONST> 1.016579e+002
<TRANSP> 3
 0.000000e+000 1.000000e+000 0.000000e+000
 0.000000e+000 9.985553e-001 1.444716e-003
 0.000000e+000 0.000000e+000 0.000000e+000
<ENDHMM>
~h "TOMAS"
<BEGINHMM>
<NUMSTATES> 3
<STATE> 2
<NUMMIXES> 8
<MIXTURE> 1 1.185078e-001
<MEAN> 39
 -8.137896e+000 3.812228e+000 3.133990e+000 2.150842e+000 4.000891e+000 -5.960870e-002 4.719235e+000 4.722013e+000 4.512782e+000 3.523901e+000 4.214320e+000 3.908117e+000 5.437593e+001 4.457870e-002 1.169362e-001 1.602441e-001 3.519747e-001 3.428181e-001 4.229918e-001 4.638520e-001 3.422213e-001 4.580182e-001 3.871607e-001 3.744770e-001 2.780890e-001 -1.392825e-001 3.432253e-002 4.958754e-002 7.423184e-002 6.739441e-002 5.677804e-002 1.029298e-001 9.789802e-002 1.103343e-001 1.020517e-001 1.242876e-001 1.015509e-001 9.168185e-002 1.044188e-001
<VARIANCE> 39
 2.464283e+001 1.493257e+001 1.329615e+001 1.594717e+001 1.280875e+001 2.667750e+001 2.320546e+001 2.484116e+001 2.366259e+001 1.949424e+001 1.630070e+001 1.395527e+001 2.354609e+001 3.177224e-001 4.321826e-001 5.239299e-001 8.209494e-001 9.622802e-001 1.237175e+000 1.222662e+000 1.320030e+000 1.370881e+000 1.370037e+000 1.244724e+000 1.151651e+000 2.994803e-001 5.793912e-002 7.710899e-002 1.043174e-001 1.545904e-001 1.848963e-001 2.412384e-001 2.432607e-001 2.649679e-001 2.757571e-001 2.740052e-001 2.483862e-001 2.313791e-001 5.236199e-002
<GCONST> 8.368265e+001
<MIXTURE> 2 1.500827e-001
<MEAN> 39
 -2.360098e+000 5.581599e+000 8.808103e+000 -1.147243e+000 -2.036761e+000 -2.189957e+000 -2.872523e+000 -1.216864e+000 1.655037e-001 2.074430e+000 3.075524e+000 2.867486e+000 6.775827e+001 2.283027e-001 6.451020e-001 1.969318e-001 5.829169e-001 8.457185e-001 2.575665e-001 6.037483e-001 3.489585e-001 6.053665e-001 4.366386e-001 4.107862e-001 3.889988e-001 1.059443e-001 1.311918e-001 1.904645e-001 1.179378e-001 2.836708e-001 2.897641e-001 1.637401e-001 2.511767e-001 1.711495e-001 2.464893e-001 1.442743e-001 1.712699e-001 1.278339e-001 -3.453735e-002
<VARIANCE> 39
 6.743790e+001 4.336287e+001 7.319878e+001 7.162386e+001 7.170998e+001 6.678030e+001 5.218877e+001 4.828240e+001 5.673439e+001 4.381073e+001 3.710783e+001 2.565017e+001 2.715511e+001 3.343037e+000 2.622704e+000 2.872464e+000 3.870447e+000 4.563135e+000 4.353424e+000 3.596037e+000 3.352024e+000 3.781956e+000 2.555643e+000 2.650984e+000 2.086390e+000 2.472028e+000 5.039809e-001 4.424414e-001 5.141732e-001 6.352741e-001 8.436682e-001 8.199826e-001 6.971046e-001 6.435543e-001 7.023296e-001 5.244849e-001 4.902366e-001 4.209548e-001 3.454157e-001
<GCONST> 1.300194e+002
<MIXTURE> 3 1.084642e-001
<MEAN> 39
 -3.267779e+000 6.044259e+000 4.864551e+000 -2.605850e-001 2.629221e+000 -8.844397e-001 9.904076e-001 1.085754e+000 2.289355e+000 3.015116e+000 2.621826e+000 3.186511e+000 6.236438e+001 -1.627935e-002 2.871161e-001 4.228041e-003 3.143807e-001 3.607828e-001 1.228464e-001 3.255102e-001 1.284936e-001 1.582144e-001 1.063021e-001 1.557477e-001 2.145614e-001 -2.276698e-001 5.563973e-002 -5.409673e-003 1.348538e-001 3.532603e-002 -4.450832e-002 5.880473e-002 1.469719e-002 8.224557e-002 3.453857e-002 4.957766e-002 8.151066e-002 1.037669e-001 2.399722e-001
<VARIANCE> 39
 6.724451e+001 3.466976e+001 3.259119e+001 6.525012e+001 3.641758e+001 5.193972e+001 4.401743e+001 3.832658e+001 3.542393e+001 2.883169e+001 3.158324e+001 2.135247e+001 5.628827e+001 5.995849e-001 8.976256e-001 8.470261e-001 1.282508e+000 1.437949e+000 1.649969e+000 1.494374e+000 1.656914e+000 1.620980e+000 1.486203e+000 1.472421e+000 1.332659e+000 6.435133e-001 1.348966e-001 1.566661e-001 1.640589e-001 2.612574e-001 2.699721e-001 3.517553e-001 3.002697e-001 3.232832e-001 3.446803e-001 3.020169e-001 2.993622e-001 2.557537e-001 1.697942e-001
<GCONST> 1.035907e+002
<MIXTURE> 4 1.229407e-001
<MEAN> 39
 -3.575312e+000 5.259308e+000 9.106836e+000 4.695296e-001 -2.029667e+000 -3.504394e+000 -2.362746e+000 -9.143957e-001 9.102582e-001 1.313304e+000 3.359834e+000 2.552180e+000 6.687411e+001 8.170589e-001 -1.044323e-001 7.295923e-001 -8.061686e-002 -2.876400e-001 5.566707e-001 -1.295097e-001 4.121433e-001 3.958136e-003 2.141714e-001 1.599907e-001 1.089636e-001 1.192258e+000 1.943433e-001 1.479629e-001 1.222648e-001 7.329246e-002 2.163978e-001 2.468032e-001 1.624010e-001 1.685267e-001 1.447087e-001 1.794700e-001 1.216728e-001 1.300106e-001 1.368849e-001
<VARIANCE> 39
 6.178715e+001 4.036834e+001 7.000233e+001 5.143496e+001 7.221031e+001 5.291732e+001 5.750597e+001 4.426416e+001 5.472691e+001 3.687996e+001 3.100041e+001 2.248954e+001 4.141497e+001 4.897235e+000 2.848047e+000 4.291313e+000 3.907891e+000 5.452566e+000 4.744922e+000 4.951481e+000 3.821249e+000 4.225702e+000 3.097149e+000 2.644532e+000 2.228492e+000 3.139806e+000 6.045916e-001 4.570141e-001 5.675827e-001 5.769193e-001 9.426056e-001 7.465019e-001 8.679135e-001 6.398736e-001 6.981685e-001 5.133981e-001 4.735312e-001 4.095954e-001 5.186024e-001
<GCONST> 1.321318e+002
<MIXTURE> 5 1.500827e-001
<MEAN> 39
 -5.644922e+000 2.947579e+000 5.385851e+000 -4.532478e+000 -5.424031e+000 -5.458725e+000 -5.762195e+000 -3.996286e+000 -2.847386e+000 -5.731571e-001 6.388761e-001 8.416461e-001 6.567384e+001 -5.030563e-001 -2.688617e-003 -4.810020e-001 -2.040211e-001 -8.741349e-003 -5.770279e-001 -1.547805e-001 -3.833828e-001 -1.725235e-001 -2.028166e-001 -2.404875e-001 -1.887749e-001 -5.229631e-001 -1.527747e-001 -7.560058e-002 -1.688857e-001 -3.514557e-002 -7.764152e-002 -1.984715e-001 -8.279449e-002 -1.497379e-001 -8.873110e-002 -1.454110e-001 -1.087977e-001 -1.316902e-001 -2.696257e-001
<VARIANCE> 39
 6.743790e+001 4.336287e+001 7.319878e+001 7.162386e+001 7.170998e+001 6.678030e+001 5.218877e+001 4.828240e+001 5.673439e+001 4.381073e+001 3.710783e+001 2.565017e+001 2.715511e+001 3.343037e+000 2.622704e+000 2.872464e+000 3.870447e+000 4.563135e+000 4.353424e+000 3.596037e+000 3.352024e+000 3.781956e+000 2.555643e+000 2.650984e+000 2.086390e+000 2.472028e+000 5.039809e-001 4.424414e-001 5.141732e-001 6.352741e-001 8.436682e-001 8.199826e-001 6.971046e-001 6.435543e-001 7.023296e-001 5.244849e-001 4.902366e-001 4.209548e-001 3.454157e-001
<GCONST> 1.300194e+002
<MIXTURE> 6 1.229407e-001
<MEAN> 39
 -6.719504e+000 2.717864e+000 5.760141e+000 -2.399197e+000 -5.428733e+000 -6.414166e+000 -5.396054e+000 -3.575648e+000 -2.048847e+000 -1.115851e+000 1.132714e+000 6.552542e-001 6.429994e+001 -6.812897e-002 -7.794787e-001 -9.902710e-002 -8.713523e-001 -1.221669e+000 -3.146431e-001 -1.019587e+000 -3.697773e-001 -8.183024e-001 -4.897774e-001 -4.904900e-001 -4.881618e-001 4.834780e-001 -1.166786e-001 -1.224484e-001 -1.790876e-001 -2.305284e-001 -1.719537e-001 -9.879818e-002 -2.102465e-001 -1.514417e-001 -1.895172e-001 -1.071372e-001 -1.535816e-001 -1.259879e-001 -1.511713e-001
<VARIANCE> 39
 6.178715e+001 4.036834e+001 7.000233e+001 5.143496e+001 7.221031e+001 5.291732e+001 5.750597e+001 4.426416e+001 5.472691e+001 3.687996e+001 3.100041e+001 2.248954e+001 4.141497e+001 4.897235e+000 2.848047e+000 4.291313e+000 3.907891e+000 5.452566e+000 4.744922e+000 4.951481e+000 3.821249e+000 4.225702e+000 3.097149e+000 2.644532e+000 2.228492e+000 3.139806e+000 6.045916e-001 4.570141e-001 5.675827e-001 5.769193e-001 9.426056e-001 7.465019e-001 8.679135e-001 6.398736e-001 6.981685e-001 5.133981e-001 4.735312e-001 4.095954e-001 5.186024e-001
<GCONST> 1.321318e+002
<MIXTURE> 7 1.185078e-001
<MEAN> 39
 -1.012356e+001 2.266521e+000 1.675434e+000 5.534859e-001 2.569319e+000 -2.125619e+000 2.792353e+000 2.728377e+000 2.567014e+000 1.757809e+000 2.599355e+000 2.413847e+000 5.243496e+001 -1.808888e-001 -1.460262e-001 -1.292879e-001 -1.045032e-002 -4.956548e-002 -2.192174e-002 2.155581e-002 -1.173489e-001 -1.032026e-002 -8.103365e-002 -7.179180e-002 -1.511710e-001 -3.581817e-001 -6.195965e-002 -6.148648e-002 -5.496097e-002 -8.987755e-002 -1.152202e-001 -9.353426e-002 -9.938784e-002 -9.556583e-002 -1.079987e-001 -8.509442e-002 -9.780250e-002 -1.007257e-001 1.288779e-002
<VARIANCE> 39
 2.464283e+001 1.493257e+001 1.329615e+001 1.594717e+001 1.280875e+001 2.667750e+001 2.320546e+001 2.484116e+001 2.366259e+001 1.949424e+001 1.630070e+001 1.395527e+001 2.354609e+001 3.177224e-001 4.321826e-001 5.239299e-001 8.209494e-001 9.622802e-001 1.237175e+000 1.222662e+000 1.320030e+000 1.370881e+000 1.370037e+000 1.244724e+000 1.151651e+000 2.994803e-001 5.793912e-002 7.710899e-002 1.043174e-001 1.545904e-001 1.848963e-001 2.412384e-001 2.432607e-001 2.649679e-001 2.757571e-001 2.740052e-001 2.483862e-001 2.313791e-001 5.236199e-002
<GCONST> 8.368265e+001
<MIXTURE> 8 1.084642e-001
<MEAN> 39
 -6.547889e+000 3.689018e+000 2.581003e+000 -3.491687e+000 2.153424e-001 -3.767208e+000 -1.663418e+000 -1.390585e+000 -9.136522e-002 8.673100e-001 3.738676e-001 1.338161e+000 5.936336e+001 -3.260108e-001 -9.185634e-002 -3.639081e-001 -1.386108e-001 -1.188752e-001 -3.909581e-001 -1.634682e-001 -3.863912e-001 -3.510564e-001 -3.813376e-001 -3.296257e-001 -2.472020e-001 -5.485470e-001 -9.127337e-002 -1.637339e-001 -2.716298e-002 -1.691273e-001 -2.523437e-001 -1.784311e-001 -2.044903e-001 -1.451864e-001 -2.002994e-001 -1.702466e-001 -1.373454e-001 -9.852146e-002 7.514782e-002
<VARIANCE> 39
 6.724451e+001 3.466976e+001 3.259119e+001 6.525012e+001 3.641758e+001 5.193972e+001 4.401743e+001 3.832658e+001 3.542393e+001 2.883169e+001 3.158324e+001 2.135247e+001 5.628827e+001 5.995849e-001 8.976256e-001 8.470261e-001 1.282508e+000 1.437949e+000 1.649969e+000 1.494374e+000 1.656914e+000 1.620980e+000 1.486203e+000 1.472421e+000 1.332659e+000 6.435133e-001 1.348966e-001 1.566661e-001 1.640589e-001 2.612574e-001 2.699721e-001 3.517553e-001 3.002697e-001 3.232832e-001 3.446803e-001 3.020169e-001 2.993622e-001 2.557537e-001 1.697942e-001
<GCONST> 1.035907e+002
<TRANSP> 3
 0.000000e+000 1.000000e+000 0.000000e+000
 0.000000e+000 9.973280e-001 2.671972e-003
 0.000000e+000 0.000000e+000 0.000000e+000
<ENDHMM>
~h "CERNY"
<BEGINHMM>
<NUMSTATES> 3
<STATE> 2
<NUMMIXES> 8
<MIXTURE> 1 1.379185e-001
<MEAN> 39
 -1.163429e+001 -7.304213e-001 -1.942873e+000 -5.366125e-001 -4.130739e-001 1.085965e-001 3.535258e-001 5.800788e-001 9.562443e-001 9.364447e-001 1.379800e+000 1.022324e+000 5.998436e+001 4.895882e-002 8.587485e-002 1.292501e-001 1.920476e-001 2.440966e-001 2.917212e-001 3.168240e-001 3.355764e-001 3.523824e-001 3.618786e-001 3.415634e-001 2.800439e-001 1.852327e-002 3.391998e-002 5.136027e-002 7.255465e-002 7.400922e-002 8.192977e-002 8.573146e-002 8.410062e-002 9.748710e-002 9.946879e-002 9.385511e-002 8.391676e-002 8.112756e-002 3.635378e-002
<VARIANCE> 39
 2.001606e+000 2.538297e+000 3.492578e+000 4.465129e+000 5.955939e+000 7.738198e+000 9.107743e+000 9.795251e+000 1.005885e+001 9.907864e+000 9.722659e+000 8.912067e+000 1.476234e+000 1.116688e-001 2.047067e-001 3.533763e-001 5.019092e-001 6.685410e-001 8.447257e-001 9.784024e-001 1.070678e+000 1.097914e+000 1.079495e+000 1.058703e+000 9.864190e-001 4.787028e-002 2.266412e-002 4.187256e-002 6.984217e-002 1.012425e-001 1.366381e-001 1.735061e-001 2.017327e-001 2.212028e-001 2.296778e-001 2.278738e-001 2.231241e-001 2.009231e-001 1.160068e-002
<GCONST> 5.569054e+001
<MIXTURE> 2 1.466483e-001
<MEAN> 39
 -7.580082e+000 -1.160694e+000 3.579448e-001 -6.351978e+000 -6.199618e+000 -3.536283e+000 -8.715824e+000 1.458435e+000 3.219932e+000 4.002590e+000 1.171210e-001 -2.188254e+000 6.859490e+001 3.061931e-002 5.899106e-001 1.799507e-001 5.730143e-001 6.273491e-001 5.417650e-001 8.085719e-001 1.908852e-001 1.147122e-001 2.443870e-001 4.568182e-001 4.252906e-001 -5.295026e-002 3.375868e-002 2.198544e-001 1.039218e-001 3.098683e-001 2.567580e-001 1.846798e-001 3.544806e-001 8.435813e-002 4.060946e-002 3.549135e-002 1.585583e-001 2.037997e-001 -5.337895e-002
<VARIANCE> 39
 3.025163e+001 3.694671e+001 4.583965e+001 6.346790e+001 4.070892e+001 4.217346e+001 4.927941e+001 4.348892e+001 3.674924e+001 3.441337e+001 2.164106e+001 3.368540e+001 1.094154e+001 1.185429e+000 1.820912e+000 1.637679e+000 2.963254e+000 2.480645e+000 2.279262e+000 3.279990e+000 2.819148e+000 2.345982e+000 2.241246e+000 1.642158e+000 1.708943e+000 9.419171e-001 2.281580e-001 3.375407e-001 2.889872e-001 5.061440e-001 5.014014e-001 4.641843e-001 7.101541e-001 5.754654e-001 4.837199e-001 4.618436e-001 3.405554e-001 3.443193e-001 1.686825e-001
<GCONST> 1.145938e+002
<MIXTURE> 3 8.958210e-002
<MEAN> 39
 -1.047519e+001 4.049771e-001 -8.884129e-001 -6.264611e-001 -1.157616e+000 -6.223498e-001 -9.990146e-001 -2.967036e-001 1.881156e-001 5.108913e-001 9.140717e-001 5.468593e-001 6.137558e+001 2.052864e-002 1.261385e-001 5.516967e-002 2.411979e-001 2.556450e-001 1.625703e-001 2.321042e-001 7.970591e-002 -1.689534e-002 -5.078357e-002 -2.313825e-002 1.469165e-001 -3.346318e-002 6.418373e-002 -1.530831e-002 4.745900e-002 -5.458251e-002 -6.876513e-002 -2.838636e-002 -9.154890e-002 1.316552e-001 2.078791e-001 1.912496e-001 9.311465e-002 7.397693e-002 1.674923e-001
<VARIANCE> 39
 8.166042e+000 5.674580e+000 9.157286e+000 9.868230e+000 1.247615e+001 1.333872e+001 1.750972e+001 1.489120e+001 1.338667e+001 1.270564e+001 1.144715e+001 1.143497e+001 4.036974e+000 2.683539e-001 3.199055e-001 5.587210e-001 7.607270e-001 9.661444e-001 1.114615e+000 1.303564e+000 1.260863e+000 1.299669e+000 1.263927e+000 1.163481e+000 1.076095e+000 1.559145e-001 4.891651e-002 6.903727e-002 1.112470e-001 1.640043e-001 2.013486e-001 2.351553e-001 2.985338e-001 2.684349e-001 2.906052e-001 2.796146e-001 2.483656e-001 2.206741e-001 4.741972e-002
<GCONST> 7.449250e+001
<MIXTURE> 4 1.258488e-001
<MEAN> 39
 -8.672703e+000 -9.284401e-002 1.551563e+000 -3.734042e+000 -6.008499e+000 -4.115994e+000 -7.690820e+000 3.078297e-001 2.157967e+000 2.425694e+000 5.855728e-001 -7.294391e-001 6.731615e+001 5.830082e-001 -7.897025e-002 4.637772e-001 -6.924272e-004 -1.005740e-001 -1.854610e-002 -2.102975e-001 5.041171e-001 5.843307e-001 4.316650e-001 4.795557e-002 5.789885e-002 6.160621e-001 1.518419e-001 2.472999e-002 1.143984e-001 2.543665e-002 1.251911e-001 1.705110e-001 1.076693e-001 2.079508e-001 1.807898e-001 1.911718e-001 8.367106e-002 3.891000e-002 1.382139e-001
<VARIANCE> 39
 2.814967e+001 2.936827e+001 4.819398e+001 4.674654e+001 4.270961e+001 3.504086e+001 4.750167e+001 3.732174e+001 3.351540e+001 3.150338e+001 1.884727e+001 2.683680e+001 1.106700e+001 2.066184e+000 2.169647e+000 2.549686e+000 3.365146e+000 3.857775e+000 2.974214e+000 4.963639e+000 3.449930e+000 3.064570e+000 2.839290e+000 1.759976e+000 2.136578e+000 1.231214e+000 2.406484e-001 2.993456e-001 3.438209e-001 4.643192e-001 6.078905e-001 4.939590e-001 7.699448e-001 5.915030e-001 4.973546e-001 4.531252e-001 3.323083e-001 3.385785e-001 1.802686e-001
<GCONST> 1.172814e+002
<MIXTURE> 5 1.466483e-001
<MEAN> 39
 -9.780142e+000 -3.592046e+000 -2.350255e+000 -9.538648e+000 -8.751760e+000 -6.133927e+000 -1.152380e+001 -1.179410e+000 7.950859e-001 1.656074e+000 -1.743677e+000 -4.509820e+000 6.727178e+001 -4.048903e-001 5.014595e-002 -3.319366e-001 -1.155499e-001 -2.653480e-003 -6.212400e-002 8.414215e-002 -4.807276e-001 -4.979518e-001 -3.544447e-001 -5.576874e-002 -9.761558e-002 -4.411599e-001 -1.573049e-001 -1.253860e-002 -1.111083e-001 2.529310e-002 -2.648082e-002 -8.784449e-002 1.739801e-002 -2.190796e-001 -2.375905e-001 -2.363450e-001 -7.487020e-002 -3.091518e-002 -2.176629e-001
<VARIANCE> 39
 3.025163e+001 3.694671e+001 4.583965e+001 6.346790e+001 4.070892e+001 4.217346e+001 4.927941e+001 4.348892e+001 3.674924e+001 3.441337e+001 2.164106e+001 3.368540e+001 1.094154e+001 1.185429e+000 1.820912e+000 1.637679e+000 2.963254e+000 2.480645e+000 2.279262e+000 3.279990e+000 2.819148e+000 2.345982e+000 2.241246e+000 1.642158e+000 1.708943e+000 9.419171e-001 2.281580e-001 3.375407e-001 2.889872e-001 5.061440e-001 5.014014e-001 4.641843e-001 7.101541e-001 5.754654e-001 4.837199e-001 4.618436e-001 3.405554e-001 3.443193e-001 1.686825e-001
<GCONST> 1.145938e+002
<MIXTURE> 6 1.379185e-001
<MEAN> 39
 -1.220021e+001 -1.367703e+000 -2.690411e+000 -1.381847e+000 -1.389266e+000 -1.004108e+000 -8.536358e-001 -6.718158e-001 -3.123833e-001 -3.226257e-001 1.325530e-001 -1.718000e-001 5.949836e+001 -8.470871e-002 -9.510326e-002 -1.085317e-001 -9.133466e-002 -8.296083e-002 -7.591462e-002 -7.883295e-002 -7.831785e-002 -6.674318e-002 -5.371639e-002 -7.000978e-002 -1.172306e-001 -6.899384e-002 -2.629845e-002 -3.049087e-002 -3.315603e-002 -5.326530e-002 -6.592860e-002 -8.088480e-002 -9.555803e-002 -9.064171e-002 -9.223006e-002 -9.708942e-002 -1.050273e-001 -9.817023e-002 -6.728800e-003
<VARIANCE> 39
 2.001606e+000 2.538297e+000 3.492578e+000 4.465129e+000 5.955939e+000 7.738198e+000 9.107743e+000 9.795251e+000 1.005885e+001 9.907864e+000 9.722659e+000 8.912067e+000 1.476234e+000 1.116688e-001 2.047067e-001 3.533763e-001 5.019092e-001 6.685410e-001 8.447257e-001 9.784024e-001 1.070678e+000 1.097914e+000 1.079495e+000 1.058703e+000 9.864190e-001 4.787028e-002 2.266412e-002 4.187256e-002 6.984217e-002 1.012425e-001 1.366381e-001 1.735061e-001 2.017327e-001 2.212028e-001 2.296778e-001 2.278738e-001 2.231241e-001 2.009231e-001 1.160068e-002
<GCONST> 5.569054e+001
<MIXTURE> 7 1.258488e-001
<MEAN> 39
 -1.079495e+001 -2.260544e+000 -1.225313e+000 -6.468900e+000 -8.622602e+000 -6.483808e+000 -1.044768e+001 -2.135831e+000 -1.577328e-001 1.805795e-001 -1.150965e+000 -2.801609e+000 6.598547e+001 8.039057e-003 -6.681591e-001 -1.749322e-001 -7.344658e-001 -8.862228e-001 -7.083825e-001 -1.101467e+000 -2.388424e-001 -1.159059e-001 -2.423427e-001 -4.827008e-001 -5.267826e-001 1.722217e-001 -4.438180e-002 -1.941200e-001 -1.201466e-001 -2.471272e-001 -1.866782e-001 -1.106179e-001 -2.433167e-001 -9.968619e-002 -1.013037e-001 -7.808653e-002 -1.469137e-001 -1.938400e-001 -3.161826e-002
<VARIANCE> 39
 2.814967e+001 2.936827e+001 4.819398e+001 4.674654e+001 4.270961e+001 3.504086e+001 4.750167e+001 3.732174e+001 3.351540e+001 3.150338e+001 1.884727e+001 2.683680e+001 1.106700e+001 2.066184e+000 2.169647e+000 2.549686e+000 3.365146e+000 3.857775e+000 2.974214e+000 4.963639e+000 3.449930e+000 3.064570e+000 2.839290e+000 1.759976e+000 2.136578e+000 1.231214e+000 2.406484e-001 2.993456e-001 3.438209e-001 4.643192e-001 6.078905e-001 4.939590e-001 7.699448e-001 5.915030e-001 4.973546e-001 4.531252e-001 3.323083e-001 3.385785e-001 1.802686e-001
<GCONST> 1.172814e+002
<MIXTURE> 8 8.958210e-002
<MEAN> 39
 -1.161825e+001 -5.478780e-001 -2.098853e+000 -1.883011e+000 -2.570480e+000 -2.083238e+000 -2.672799e+000 -1.840268e+000 -1.275396e+000 -9.149076e-001 -4.392738e-001 -8.057661e-001 6.057190e+001 -1.866829e-001 -1.001023e-001 -2.438209e-001 -1.076808e-001 -1.375256e-001 -2.597310e-001 -2.245907e-001 -3.694467e-001 -4.729075e-001 -5.004816e-001 -4.545974e-001 -2.680235e-001 -1.914072e-001 -2.428459e-002 -1.204081e-001 -8.595586e-002 -2.165723e-001 -2.482527e-001 -2.223576e-001 -3.101019e-001 -7.558764e-002 -7.752120e-003 -2.026474e-002 -1.062305e-001 -1.139269e-001 8.038806e-002
<VARIANCE> 39
 8.166042e+000 5.674580e+000 9.157286e+000 9.868230e+000 1.247615e+001 1.333872e+001 1.750972e+001 1.489120e+001 1.338667e+001 1.270564e+001 1.144715e+001 1.143497e+001 4.036974e+000 2.683539e-001 3.199055e-001 5.587210e-001 7.607270e-001 9.661444e-001 1.114615e+000 1.303564e+000 1.260863e+000 1.299669e+000 1.263927e+000 1.163481e+000 1.076095e+000 1.559145e-001 4.891651e-002 6.903727e-002 1.112470e-001 1.640043e-001 2.013486e-001 2.351553e-001 2.985338e-001 2.684349e-001 2.906052e-001 2.796146e-001 2.483656e-001 2.206741e-001 4.741972e-002
<GCONST> 7.449250e+001
<TRANSP> 3
 0.000000e+000 1.000000e+000 0.000000e+000
 0.000000e+000 9.986002e-001 1.399776e-003
 0.000000e+000 0.000000e+000 0.000000e+000
<ENDHMM>
~h "ZSS2"
<BEGINHMM>
<NUMSTATES> 3
<STATE> 2
<NUMMIXES> 8
<MIXTURE> 1 1.143040e-001
<MEAN> 39
 -8.470638e+000 2.929664e+000 3.488199e+000 4.671924e+000 8.082023e+000 4.733801e+000 7.719261e+000 5.092997e+000 6.678790e+000 4.434336e+000 6.565206e+000 4.765214e+000 5.442898e+001 2.055343e-001 1.723336e-001 1.926070e-001 3.206942e-001 3.749910e-001 3.283055e-001 2.817410e-001 2.790599e-001 3.754196e-001 3.073319e-001 3.511915e-001 2.635406e-001 -8.006437e-002 7.179845e-002 4.727513e-002 6.249610e-002 3.043674e-002 4.224696e-002 6.783239e-002 7.016709e-002 7.718617e-002 5.948999e-002 9.755964e-002 5.365990e-002 7.985713e-002 1.642912e-001
<VARIANCE> 39
 1.901390e+001 1.102512e+001 8.404464e+000 1.059839e+001 1.502043e+001 1.201044e+001 1.242702e+001 1.243616e+001 1.504722e+001 1.293419e+001 1.293151e+001 1.095844e+001 2.168389e+001 8.366513e-001 5.352350e-001 5.901679e-001 9.394419e-001 1.244841e+000 1.151282e+000 1.190062e+000 1.245673e+000 1.461410e+000 1.354638e+000 1.269714e+000 1.074503e+000 1.024548e+000 1.260912e-001 9.900406e-002 1.095047e-001 1.724255e-001 2.193038e-001 2.108794e-001 2.217701e-001 2.383944e-001 2.698964e-001 2.569935e-001 2.347635e-001 2.128841e-001 1.644274e-001
<GCONST> 8.359081e+001
<MIXTURE> 2 1.713724e-001
<MEAN> 39
 -4.392092e-001 3.790769e+000 2.846886e+000 -6.261512e+000 -5.078492e+000 -2.755222e+000 -4.040858e+000 -1.763614e+000 -5.023827e+000 3.008530e+000 -7.827559e+000 1.774397e+000 7.028736e+001 -2.449304e-001 9.439477e-001 6.552882e-001 1.290516e+000 1.195296e+000 4.019394e-001 9.260659e-001 3.975372e-001 9.980879e-001 2.746815e-001 1.194948e+000 1.189242e-001 -3.832989e-001 -1.921357e-001 2.065706e-001 1.833256e-001 4.875586e-001 5.356082e-001 3.086196e-001 4.457988e-001 2.814914e-001 4.699519e-001 1.569527e-001 5.438367e-001 7.793558e-002 -1.089502e-001
<VARIANCE> 39
 3.518837e+001 5.452566e+001 6.552935e+001 5.354938e+001 6.921584e+001 5.124266e+001 4.900721e+001 4.374453e+001 4.334717e+001 4.386080e+001 4.448729e+001 2.903280e+001 2.472641e+001 3.291102e+000 2.935055e+000 2.741690e+000 4.043135e+000 4.490987e+000 3.746405e+000 3.597665e+000 3.011101e+000 3.753320e+000 3.216366e+000 4.008662e+000 2.358585e+000 2.563484e+000 4.782263e-001 5.937903e-001 5.046013e-001 7.378895e-001 8.384579e-001 7.763018e-001 6.520849e-001 6.101015e-001 6.877916e-001 6.754549e-001 7.445425e-001 4.765419e-001 4.496002e-001
<GCONST> 1.305232e+002
<MIXTURE> 3 1.175087e-001
<MEAN> 39
 -2.539275e+000 2.787755e+000 2.220199e+000 -4.949947e+000 -3.070577e+000 -2.887818e+000 -2.129926e+000 -1.234106e+000 -2.751322e+000 2.701594e+000 -5.138006e+000 8.766152e-001 7.021826e+001 1.797704e+000 -3.394845e-002 6.995803e-002 -8.902522e-001 -8.837515e-001 1.444628e-001 -7.363389e-001 5.886018e-003 -8.475897e-001 2.855060e-001 -1.139246e+000 3.734837e-001 1.424703e+000 2.619835e-001 2.370479e-001 1.625172e-001 1.970882e-001 2.095158e-001 3.295214e-001 1.580595e-001 2.512329e-001 1.373244e-001 2.565944e-001 1.170525e-001 2.562763e-001 -2.019025e-002
<VARIANCE> 39
 5.477096e+001 5.014325e+001 5.878299e+001 5.336110e+001 6.934974e+001 5.307196e+001 5.353345e+001 4.208699e+001 5.271205e+001 4.319165e+001 5.552042e+001 2.906827e+001 2.653072e+001 4.768916e+000 3.555556e+000 4.018594e+000 4.707658e+000 6.168232e+000 5.788269e+000 4.762699e+000 4.324387e+000 4.446641e+000 4.347882e+000 4.916966e+000 2.736175e+000 3.756323e+000 7.398634e-001 6.309288e-001 6.022565e-001 7.721545e-001 1.024292e+000 8.503011e-001 7.728128e-001 6.698611e-001 7.330027e-001 7.586903e-001 8.410656e-001 4.657023e-001 5.391557e-001
<GCONST> 1.367620e+002
<MIXTURE> 4 9.680885e-002
<MEAN> 39
 -1.151760e+001 5.632990e+000 3.114536e+000 3.580666e+000 4.865642e+000 2.508322e+000 5.606220e+000 3.253340e+000 5.168731e+000 4.060508e+000 4.134485e+000 2.569661e+000 6.269162e+001 -1.940606e-001 -2.819209e-001 8.953072e-002 2.718970e-001 5.624835e-001 6.345429e-001 7.265774e-001 6.573411e-001 6.603206e-001 5.389414e-001 7.131785e-001 4.904808e-001 7.730569e-001 6.507959e-001 -3.169812e-002 5.751745e-002 -3.690282e-001 -4.006694e-001 -2.261935e-001 -3.088062e-001 -1.698108e-001 -2.935110e-001 6.087202e-002 -3.748690e-001 1.002372e-001 7.384523e-001
<VARIANCE> 39
 8.319289e+001 2.485460e+001 3.408247e+001 2.932813e+001 3.717202e+001 3.004237e+001 2.890959e+001 2.666871e+001 2.793626e+001 2.327923e+001 2.419267e+001 1.928804e+001 5.728507e+001 3.935633e+000 2.516752e+000 2.355191e+000 3.488890e+000 4.483451e+000 3.498591e+000 3.024874e+000 2.675448e+000 3.057178e+000 2.580824e+000 2.934196e+000 1.865422e+000 5.534919e+000 7.667006e-001 4.674968e-001 4.566815e-001 6.096172e-001 7.428700e-001 6.050666e-001 5.214381e-001 4.657812e-001 5.882111e-001 5.070418e-001 5.579321e-001 3.920370e-001 1.035853e+000
<GCONST> 1.240611e+002
<MIXTURE> 5 1.713724e-001
<MEAN> 39
 -2.812001e+000 8.371092e-001 -3.911220e-001 -9.188610e+000 -8.406334e+000 -5.618582e+000 -6.841064e+000 -4.409200e+000 -7.657370e+000 3.594302e-001 -1.049551e+001 -3.808863e-001 6.829833e+001 -9.705862e-001 2.586676e-001 -7.033795e-003 4.862137e-001 3.476181e-001 -3.722859e-001 1.673654e-001 -2.965638e-001 2.231484e-001 -4.426877e-001 3.940826e-001 -4.953832e-001 -1.023734e+000 -4.687513e-001 -1.016606e-001 -1.008156e-001 1.439566e-001 1.693388e-001 -4.381238e-002 1.227917e-001 -3.094459e-002 1.382191e-001 -1.717916e-001 1.986892e-001 -1.981925e-001 -3.771592e-001
<VARIANCE> 39
 3.518837e+001 5.452566e+001 6.552935e+001 5.354938e+001 6.921584e+001 5.124266e+001 4.900721e+001 4.374453e+001 4.334717e+001 4.386080e+001 4.448729e+001 2.903280e+001 2.472641e+001 3.291102e+000 2.935055e+000 2.741690e+000 4.043135e+000 4.490987e+000 3.746405e+000 3.597665e+000 3.011101e+000 3.753320e+000 3.216366e+000 4.008662e+000 2.358585e+000 2.563484e+000 4.782263e-001 5.937903e-001 5.046013e-001 7.378895e-001 8.384579e-001 7.763018e-001 6.520849e-001 6.101015e-001 6.877916e-001 6.754549e-001 7.445425e-001 4.765419e-001 4.496002e-001
<GCONST> 1.305232e+002
<MIXTURE> 6 1.175087e-001
<MEAN> 39
 -5.499571e+000 -4.472101e-002 -8.466040e-001 -7.871895e+000 -6.401637e+000 -5.801838e+000 -5.056588e+000 -3.829086e+000 -5.655444e+000 7.277989e-002 -8.118487e+000 -1.279985e+000 6.815794e+001 9.241900e-001 -7.881957e-001 -7.318992e-001 -1.758138e+000 -1.877189e+000 -8.178900e-001 -1.609283e+000 -8.259204e-001 -1.691072e+000 -5.485570e-001 -2.026216e+000 -2.881719e-001 6.494533e-001 -8.207776e-002 -8.067624e-002 -1.479035e-001 -1.544011e-001 -1.953135e-001 -3.932574e-002 -1.935796e-001 -7.614731e-002 -2.051379e-001 -9.181689e-002 -2.497860e-001 -1.669327e-002 -3.138992e-001
<VARIANCE> 39
 5.477096e+001 5.014325e+001 5.878299e+001 5.336110e+001 6.934974e+001 5.307196e+001 5.353345e+001 4.208699e+001 5.271205e+001 4.319165e+001 5.552042e+001 2.906827e+001 2.653072e+001 4.768916e+000 3.555556e+000 4.018594e+000 4.707658e+000 6.168232e+000 5.788269e+000 4.762699e+000 4.324387e+000 4.446641e+000 4.347882e+000 4.916966e+000 2.736175e+000 3.756323e+000 7.398634e-001 6.309288e-001 6.022565e-001 7.721545e-001 1.024292e+000 8.503011e-001 7.728128e-001 6.698611e-001 7.330027e-001 7.586903e-001 8.410656e-001 4.657023e-001 5.391557e-001
<GCONST> 1.367620e+002
<MIXTURE> 7 1.143040e-001
<MEAN> 39
 -1.021484e+001 1.601500e+000 2.328581e+000 3.369717e+000 6.531775e+000 3.347558e+000 6.309182e+000 3.682399e+000 5.127160e+000 2.995770e+000 5.126790e+000 3.441072e+000 5.256634e+001 -1.603403e-001 -1.203055e-001 -1.146825e-001 -6.700502e-002 -7.129879e-002 -1.008857e-001 -1.546188e-001 -1.673790e-001 -1.081356e-001 -1.582237e-001 -9.953488e-002 -1.510924e-001 -4.849442e-001 -7.023884e-002 -7.858451e-002 -6.986989e-002 -1.356599e-001 -1.450726e-001 -1.158540e-001 -1.182028e-001 -1.181164e-001 -1.483162e-001 -1.052185e-001 -1.401497e-001 -1.047003e-001 2.092607e-003
<VARIANCE> 39
 1.901390e+001 1.102512e+001 8.404464e+000 1.059839e+001 1.502043e+001 1.201044e+001 1.242702e+001 1.243616e+001 1.504722e+001 1.293419e+001 1.293151e+001 1.095844e+001 2.168389e+001 8.366513e-001 5.352350e-001 5.901679e-001 9.394419e-001 1.244841e+000 1.151282e+000 1.190062e+000 1.245673e+000 1.461410e+000 1.354638e+000 1.269714e+000 1.074503e+000 1.024548e+000 1.260912e-001 9.900406e-002 1.095047e-001 1.724255e-001 2.193038e-001 2.108794e-001 2.217701e-001 2.383944e-001 2.698964e-001 2.569935e-001 2.347635e-001 2.128841e-001 1.644274e-001
<GCONST> 8.359081e+001
<MIXTURE> 8 9.680885e-002
<MEAN> 39
 -1.516600e+001 3.638814e+000 7.793281e-001 1.414448e+000 2.426887e+000 3.158855e-001 3.455514e+000 1.187670e+000 3.054540e+000 2.130566e+000 2.167043e+000 8.129350e-001 5.966414e+001 -9.875978e-001 -9.164919e-001 -5.243345e-001 -4.752458e-001 -2.844829e-001 -1.136379e-001 3.089082e-002 3.069162e-003 -3.907087e-002 -1.036564e-001 2.799869e-002 -5.584100e-002 -1.679994e-001 3.005501e-001 -3.051931e-001 -2.127954e-001 -6.813402e-001 -7.454290e-001 -5.373377e-001 -5.976490e-001 -4.428034e-001 -6.002907e-001 -2.239555e-001 -6.736484e-001 -1.502142e-001 3.313448e-001
<VARIANCE> 39
 8.319289e+001 2.485460e+001 3.408247e+001 2.932813e+001 3.717202e+001 3.004237e+001 2.890959e+001 2.666871e+001 2.793626e+001 2.327923e+001 2.419267e+001 1.928804e+001 5.728507e+001 3.935633e+000 2.516752e+000 2.355191e+000 3.488890e+000 4.483451e+000 3.498591e+000 3.024874e+000 2.675448e+000 3.057178e+000 2.580824e+000 2.934196e+000 1.865422e+000 5.534919e+000 7.667006e-001 4.674968e-001 4.566815e-001 6.096172e-001 7.428700e-001 6.050666e-001 5.214381e-001 4.657812e-001 5.882111e-001 5.070418e-001 5.579321e-001 3.920370e-001 1.035853e+000
<GCONST> 1.240611e+002
<TRANSP> 3
 0.000000e+000 1.000000e+000 0.000000e+000
 0.000000e+000 9.982025e-001 1.797483e-003
 0.000000e+000 0.000000e+000 0.000000e+000
<ENDHMM>
~h "SMOLA"
<BEGINHMM>
<NUMSTATES> 3
<STATE> 2
<NUMMIXES> 8
<MIXTURE> 1 9.768040e-002
<MEAN> 39
 -1.149924e+001 7.088806e+000 9.759272e-001 7.397965e+000 4.189311e+000 7.043352e+000 4.225078e+000 7.648998e+000 5.007441e+000 2.801191e+000 5.467349e+000 4.016763e+000 4.304990e+001 3.785998e-002 2.994153e-001 2.852227e-001 2.491424e-001 2.726637e-001 4.269689e-001 3.172377e-001 3.189012e-001 3.037274e-001 3.515233e-001 3.373507e-001 2.816805e-001 -7.518542e-002 9.137268e-002 4.212327e-002 8.907281e-002 4.685364e-002 9.902375e-002 6.069470e-002 8.893608e-002 7.478460e-002 5.936244e-002 9.698734e-002 5.857010e-002 5.091235e-002 1.698289e-001
<VARIANCE> 39
 1.658528e+001 1.140344e+001 1.184364e+001 1.428141e+001 1.261454e+001 3.028233e+001 1.845996e+001 2.323922e+001 2.639991e+001 2.137393e+001 1.732837e+001 1.217703e+001 4.738929e+001 6.176355e-001 8.632362e-001 8.110050e-001 1.055165e+000 1.135818e+000 1.375884e+000 1.496471e+000 1.375211e+000 1.494744e+000 1.357723e+000 1.273146e+000 1.110059e+000 9.808068e-001 1.084330e-001 1.581556e-001 1.490341e-001 1.979756e-001 2.073348e-001 2.626958e-001 2.915924e-001 2.787791e-001 2.961073e-001 2.755826e-001 2.591399e-001 2.199254e-001 1.948883e-001
<GCONST> 9.100584e+001
<MIXTURE> 2 1.497399e-001
<MEAN> 39
 -4.729748e-001 -3.338000e+000 3.272933e+000 -4.693608e+000 -3.962753e+000 -4.188396e+000 -9.597986e+000 4.866933e+000 -8.127055e+000 7.181225e-001 5.040701e+000 -5.994941e+000 6.770789e+001 1.353568e-002 1.203693e+000 1.036519e-001 1.133137e+000 1.009010e+000 4.471562e-001 1.124974e+000 -2.261382e-002 7.921636e-001 3.407289e-001 2.548086e-001 6.247407e-001 -3.807632e-001 -1.826813e-001 4.643992e-001 6.712461e-002 4.112148e-001 2.421460e-001 3.527116e-001 4.551711e-001 9.174600e-003 5.590209e-001 9.871407e-002 1.411298e-001 3.258926e-001 -1.230112e-001
<VARIANCE> 39
 2.500036e+001 5.443582e+001 5.691159e+001 6.627512e+001 5.336811e+001 5.841156e+001 5.298338e+001 4.639256e+001 5.354039e+001 3.798632e+001 3.225505e+001 2.410517e+001 4.718570e+001 2.594158e+000 4.612132e+000 2.687584e+000 4.942826e+000 3.474126e+000 3.666131e+000 4.580009e+000 3.540790e+000 5.320294e+000 2.605913e+000 2.364972e+000 2.166971e+000 5.052211e+000 3.779171e-001 6.135563e-001 4.808711e-001 8.283411e-001 6.548002e-001 7.354850e-001 8.716227e-001 6.988901e-001 1.034154e+000 4.980966e-001 4.618531e-001 4.175165e-001 7.017511e-001
<GCONST> 1.311185e+002
<MIXTURE> 3 1.323775e-001
<MEAN> 39
 -1.593863e+000 -2.101296e+000 4.390532e+000 -3.659568e+000 -5.556098e+000 -3.169383e+000 -9.078002e+000 3.112622e+000 -6.988508e+000 -9.532615e-001 4.924982e+000 -5.443334e+000 6.760264e+001 1.189594e+000 -4.916229e-001 8.040383e-001 -3.339359e-001 -3.131365e-001 1.343763e-001 -6.431595e-001 9.930612e-001 -3.707869e-001 3.086054e-001 4.939303e-001 -3.390893e-001 1.296693e+000 -1.000736e-002 2.391815e-001 8.919770e-002 2.508807e-001 2.859738e-001 2.147588e-001 2.672411e-001 2.764878e-001 2.951030e-001 2.532587e-001 1.781895e-001 2.007586e-001 -7.855733e-002
<VARIANCE> 39
 3.130624e+001 5.592735e+001 7.122257e+001 6.021418e+001 5.714804e+001 5.009136e+001 5.314902e+001 4.904573e+001 5.433084e+001 4.044600e+001 3.032469e+001 2.465103e+001 4.150093e+001 3.350924e+000 3.730847e+000 3.741438e+000 4.804474e+000 4.028586e+000 4.530889e+000 5.588530e+000 4.142437e+000 6.026967e+000 3.011738e+000 2.480679e+000 2.390007e+000 4.518176e+000 3.857803e-001 5.550985e-001 5.705518e-001 7.809349e-001 7.019497e-001 7.265312e-001 9.645084e-001 7.553825e-001 9.677898e-001 5.081089e-001 4.860379e-001 3.985596e-001 6.914809e-001
<GCONST> 1.329600e+002
<MIXTURE> 4 1.201982e-001
<MEAN> 39
 -1.150592e+001 6.613626e+000 1.143955e+000 2.457666e+000 6.194012e-001 -1.136879e+000 -6.404808e-001 1.519339e+000 5.290811e-001 1.688759e+000 4.098548e+000 1.781828e-001 5.843506e+001 3.337219e-002 2.532871e-001 9.936482e-002 2.270897e-001 2.926465e-001 5.077367e-001 7.046859e-001 3.187409e-002 8.315063e-001 2.075377e-001 7.085930e-002 5.443599e-001 9.050362e-001 6.654980e-001 -3.022345e-001 2.823179e-001 -1.966807e-001 -8.410336e-002 -7.050937e-002 -2.281856e-001 2.531029e-001 -3.482777e-001 7.936066e-002 1.164728e-001 -1.650039e-001 7.852585e-001
<VARIANCE> 39
 6.710764e+001 2.393839e+001 3.524911e+001 2.584734e+001 3.145743e+001 4.213858e+001 4.226321e+001 3.079347e+001 3.743504e+001 2.522170e+001 2.387955e+001 2.129884e+001 8.077604e+001 5.263378e+000 2.864163e+000 2.539681e+000 2.499354e+000 2.429211e+000 4.076849e+000 3.394100e+000 2.533988e+000 4.784203e+000 2.443029e+000 2.463784e+000 2.656672e+000 7.727486e+000 6.498581e-001 5.785976e-001 4.430909e-001 4.932677e-001 5.281280e-001 6.921576e-001 7.256524e-001 5.271710e-001 6.576129e-001 4.813865e-001 4.645292e-001 4.296722e-001 1.189677e+000
<GCONST> 1.260420e+002
<MIXTURE> 5 1.497399e-001
<MEAN> 39
 -2.472989e+000 -6.289226e+000 2.553415e-001 -7.949989e+000 -6.884892e+000 -7.245494e+000 -1.250957e+001 2.142449e+000 -1.105391e+001 -1.747199e+000 2.768960e+000 -7.958821e+000 6.496021e+001 -6.307199e-001 3.446578e-001 -5.521021e-001 2.438378e-001 2.634497e-001 -3.187295e-001 2.689362e-001 -7.752934e-001 -1.304669e-001 -3.049847e-001 -3.603300e-001 3.591529e-002 -1.279848e+000 -4.285811e-001 1.510798e-001 -2.102549e-001 4.716179e-002 -8.153296e-002 9.669855e-003 8.172813e-002 -3.252240e-001 1.522475e-001 -1.835898e-001 -1.307093e-001 6.743057e-002 -4.580936e-001
<VARIANCE> 39
 2.500036e+001 5.443582e+001 5.691159e+001 6.627512e+001 5.336811e+001 5.841156e+001 5.298338e+001 4.639256e+001 5.354039e+001 3.798632e+001 3.225505e+001 2.410517e+001 4.718570e+001 2.594158e+000 4.612132e+000 2.687584e+000 4.942826e+000 3.474126e+000 3.666131e+000 4.580009e+000 3.540790e+000 5.320294e+000 2.605913e+000 2.364972e+000 2.166971e+000 5.052211e+000 3.779171e-001 6.135563e-001 4.808711e-001 8.283411e-001 6.548002e-001 7.354850e-001 8.716227e-001 6.988901e-001 1.034154e+000 4.980966e-001 4.618531e-001 4.175165e-001 7.017511e-001
<GCONST> 1.311185e+002
<MIXTURE> 6 1.323775e-001
<MEAN> 39
 -3.831943e+000 -5.092680e+000 1.014793e+000 -6.763480e+000 -8.579950e+000 -6.000393e+000 -1.199414e+001 3.113159e-001 -9.936886e+000 -3.497149e+000 2.722268e+000 -7.429326e+000 6.502579e+001 4.573725e-001 -1.264239e+000 3.032646e-002 -1.210700e+000 -1.115990e+000 -7.170591e-001 -1.588762e+000 1.789421e-001 -1.352782e+000 -3.855690e-001 -1.360765e-001 -9.574752e-001 4.464526e-001 -2.584522e-001 -5.883823e-002 -2.129418e-001 -1.026014e-001 -4.915598e-002 -1.261884e-001 -1.255965e-001 -7.116318e-002 -9.840227e-002 -3.186832e-002 -1.006762e-001 -5.176771e-002 -4.111786e-001
<VARIANCE> 39
 3.130624e+001 5.592735e+001 7.122257e+001 6.021418e+001 5.714804e+001 5.009136e+001 5.314902e+001 4.904573e+001 5.433084e+001 4.044600e+001 3.032469e+001 2.465103e+001 4.150093e+001 3.350924e+000 3.730847e+000 3.741438e+000 4.804474e+000 4.028586e+000 4.530889e+000 5.588530e+000 4.142437e+000 6.026967e+000 3.011738e+000 2.480679e+000 2.390007e+000 4.518176e+000 3.857803e-001 5.550985e-001 5.705518e-001 7.809349e-001 7.019497e-001 7.265312e-001 9.645084e-001 7.553825e-001 9.677898e-001 5.081089e-001 4.860379e-001 3.985596e-001 6.914809e-001
<GCONST> 1.329600e+002
<MIXTURE> 7 1.201982e-001
<MEAN> 39
 -1.478269e+001 4.656551e+000 -1.230884e+000 4.240544e-001 -1.624076e+000 -3.733449e+000 -3.240887e+000 -7.003352e-001 -1.918286e+000 -3.200893e-001 2.143880e+000 -1.667844e+000 5.484004e+001 -8.843100e-001 -4.236664e-001 -5.380902e-001 -4.052841e-001 -3.307905e-001 -2.999117e-001 -3.223747e-002 -6.048661e-001 -4.340664e-002 -4.176699e-001 -5.569985e-001 -1.076121e-001 -2.068982e-001 3.430429e-001 -6.064969e-001 1.605766e-002 -4.776127e-001 -3.747931e-001 -4.032934e-001 -5.689266e-001 -3.732328e-002 -6.726511e-001 -1.981674e-001 -1.561527e-001 -4.272015e-001 3.489692e-001
<VARIANCE> 39
 6.710764e+001 2.393839e+001 3.524911e+001 2.584734e+001 3.145743e+001 4.213858e+001 4.226321e+001 3.079347e+001 3.743504e+001 2.522170e+001 2.387955e+001 2.129884e+001 8.077604e+001 5.263378e+000 2.864163e+000 2.539681e+000 2.499354e+000 2.429211e+000 4.076849e+000 3.394100e+000 2.533988e+000 4.784203e+000 2.443029e+000 2.463784e+000 2.656672e+000 7.727486e+000 6.498581e-001 5.785976e-001 4.430909e-001 4.932677e-001 5.281280e-001 6.921576e-001 7.256524e-001 5.271710e-001 6.576129e-001 4.813865e-001 4.645292e-001 4.296722e-001 1.189677e+000
<GCONST> 1.260420e+002
<MIXTURE> 8 9.768040e-002
<MEAN> 39
 -1.312824e+001 5.738046e+000 -4.006565e-001 5.886335e+000 2.768633e+000 4.842176e+000 2.506476e+000 5.720716e+000 2.952207e+000 9.519130e-001 3.802255e+000 2.620939e+000 4.029630e+001 -2.764992e-001 -7.222671e-002 -7.500053e-002 -1.617425e-001 -1.536354e-001 -4.222348e-002 -1.720837e-001 -1.501763e-001 -1.853115e-001 -1.145621e-001 -1.139845e-001 -1.397568e-001 -4.713282e-001 -4.034398e-002 -1.169519e-001 -6.534693e-002 -1.311242e-001 -8.311238e-002 -1.443207e-001 -1.270611e-001 -1.364135e-001 -1.583005e-001 -1.129965e-001 -1.450530e-001 -1.366725e-001 -6.755747e-003
<VARIANCE> 39
 1.658528e+001 1.140344e+001 1.184364e+001 1.428141e+001 1.261454e+001 3.028233e+001 1.845996e+001 2.323922e+001 2.639991e+001 2.137393e+001 1.732837e+001 1.217703e+001 4.738929e+001 6.176355e-001 8.632362e-001 8.110050e-001 1.055165e+000 1.135818e+000 1.375884e+000 1.496471e+000 1.375211e+000 1.494744e+000 1.357723e+000 1.273146e+000 1.110059e+000 9.808068e-001 1.084330e-001 1.581556e-001 1.490341e-001 1.979756e-001 2.073348e-001 2.626958e-001 2.915924e-001 2.787791e-001 2.961073e-001 2.755826e-001 2.591399e-001 2.199254e-001 1.948883e-001
<GCONST> 9.100584e+001
<TRANSP> 3
 0.000000e+000 1.000000e+000 0.000000e+000
 0.000000e+000 9.966091e-001 3.390863e-003
 0.000000e+000 0.000000e+000 0.000000e+000
<ENDHMM>
~h "NOZICKA"
<BEGINHMM>
<NUMSTATES> 3
<STATE> 2
<NUMMIXES> 8
<MIXTURE> 1 1.240802e-001
<MEAN> 39
 -1.209976e+001 -7.912117e+000 1.548506e+001 -9.861288e+000 3.045105e+000 1.918739e+000 -5.601528e-001 1.236790e-001 4.896009e-001 -1.872893e+000 4.417340e+000 -1.985970e+000 6.291105e+001 1.295168e-001 5.697989e-001 8.898517e-001 4.652086e-001 1.311320e+000 8.787769e-002 1.120069e+000 4.394411e-001 8.083324e-001 5.338836e-001 5.735577e-001 6.462746e-001 1.047310e+000 2.771715e-001 -8.733526e-003 3.012025e-001 7.901989e-002 1.281181e-001 3.413402e-001 1.493703e-001 1.963585e-001 2.801012e-001 1.641411e-001 3.193658e-001 1.491224e-001 4.951467e-001
<VARIANCE> 39
 1.121145e+002 1.261458e+002 1.454110e+002 1.349503e+002 1.669097e+002 1.554370e+002 1.208951e+002 9.672202e+001 1.168283e+002 7.499337e+001 5.684566e+001 4.539449e+001 1.825144e+002 5.982672e+000 7.940461e+000 7.773799e+000 9.178114e+000 1.098935e+001 9.323248e+000 8.288443e+000 5.770996e+000 7.584811e+000 4.929378e+000 4.666639e+000 3.112208e+000 8.788282e+000 8.533928e-001 1.173205e+000 1.193809e+000 1.509131e+000 1.944652e+000 1.521602e+000 1.480284e+000 1.020271e+000 1.275368e+000 8.998083e-001 8.199927e-001 6.008847e-001 1.249528e+000
<GCONST> 1.596255e+002
<MIXTURE> 2 1.086334e-001
<MEAN> 39
 -1.495310e+001 -7.427277e+000 6.661833e+000 -6.715584e+000 -1.816629e+000 4.688092e+000 -3.083666e+000 2.231932e+000 2.046904e+000 -9.519199e-001 4.153874e+000 -1.252983e+000 5.618854e+001 1.604740e-001 4.847780e-001 1.299033e-001 4.896613e-001 1.988798e-001 5.208863e-001 3.190008e-001 4.367254e-001 1.897083e-001 4.462274e-001 3.203307e-001 3.313571e-001 -2.453958e-001 1.177375e-001 1.720026e-001 1.640102e-001 1.705093e-001 1.702123e-001 9.681088e-002 1.578213e-001 1.009602e-001 9.785672e-002 1.133401e-001 1.191292e-001 1.387642e-001 4.725866e-003
<VARIANCE> 39
 1.306951e+002 1.891551e+002 1.824909e+002 1.734039e+002 9.970381e+001 1.069397e+002 7.913377e+001 5.441612e+001 5.367090e+001 4.400034e+001 3.978333e+001 3.108439e+001 5.349269e+002 5.808024e-001 1.237258e+000 1.221473e+000 1.630630e+000 1.689827e+000 2.002794e+000 1.851083e+000 2.057530e+000 2.300348e+000 1.771135e+000 1.665057e+000 1.350994e+000 9.983197e-001 1.236819e-001 2.257447e-001 2.118750e-001 2.844174e-001 2.939177e-001 3.252946e-001 3.487978e-001 3.627829e-001 4.104300e-001 3.252726e-001 2.974993e-001 2.601946e-001 1.414932e-001
<GCONST> 1.187653e+002
<MIXTURE> 3 1.202326e-001
<MEAN> 39
 -2.016450e+001 -9.162021e-001 -1.477308e+000 4.958142e-001 -5.459655e+000 5.541770e+000 -3.504307e+000 2.109942e+000 2.023108e+000 -1.047539e+000 2.979221e+000 -7.923359e-002 3.987209e+001 6.579279e-002 2.196142e-001 4.324783e-002 2.679119e-001 2.959301e-002 3.165514e-001 1.135390e-001 1.787633e-001 1.390590e-001 1.096384e-001 9.429462e-002 1.034167e-001 -1.099575e-001 4.082096e-002 6.459264e-002 8.566991e-002 7.207401e-002 1.028716e-001 4.851796e-002 7.272705e-002 7.103149e-002 7.978821e-002 1.048492e-001 8.410496e-002 6.158739e-002 3.040067e-002
<VARIANCE> 39
 7.383914e+001 1.177776e+002 1.466420e+002 1.202649e+002 4.519102e+001 4.386462e+001 3.438930e+001 2.895168e+001 3.260268e+001 2.596444e+001 2.657102e+001 2.006570e+001 4.005191e+002 2.772313e-001 6.014964e-001 8.660808e-001 9.438574e-001 1.112698e+000 1.192145e+000 1.364720e+000 1.461551e+000 1.633822e+000 1.299158e+000 1.168907e+000 1.155957e+000 6.861504e-001 4.515485e-002 9.455445e-002 1.125845e-001 1.572869e-001 1.728394e-001 1.943925e-001 2.413692e-001 2.644619e-001 2.912206e-001 2.394247e-001 2.285608e-001 2.187710e-001 5.095246e-002
<GCONST> 9.942040e+001
<MIXTURE> 4 1.470492e-001
<MEAN> 39
 -8.984301e+000 -1.304462e+001 1.767663e+001 -1.368428e+001 5.702211e-001 3.635033e+000 -2.823304e+000 -1.158020e+000 4.568884e-001 -2.865967e+000 6.856140e+000 -3.300074e+000 6.879108e+001 7.954823e-001 2.924612e-001 3.546222e-001 4.490773e-001 2.939198e-001 7.768034e-001 1.739331e-001 4.479108e-001 5.033951e-001 3.464291e-001 3.789210e-001 1.141317e-001 6.779832e-001 5.224958e-002 3.377663e-001 4.872411e-002 3.293003e-001 3.229755e-001 1.966966e-001 3.047868e-001 2.423412e-001 2.152070e-001 2.030267e-001 7.360884e-002 1.534840e-001 1.525480e-002
<VARIANCE> 39
 9.342573e+001 1.062962e+002 1.096605e+002 1.138536e+002 1.489856e+002 1.565805e+002 1.170029e+002 8.901662e+001 1.143588e+002 7.396117e+001 6.204407e+001 3.896747e+001 9.005491e+001 5.463296e+000 7.717878e+000 4.986991e+000 8.406425e+000 9.962766e+000 8.626820e+000 8.480425e+000 5.607507e+000 7.559719e+000 4.891630e+000 4.842033e+000 3.037365e+000 6.173507e+000 6.969334e-001 1.047122e+000 7.869243e-001 1.330335e+000 1.636407e+000 1.365271e+000 1.418589e+000 9.483852e-001 1.233623e+000 8.855259e-001 8.604588e-001 5.639390e-001 8.198984e-001
<GCONST> 1.548652e+002
<MIXTURE> 5 1.470492e-001
<MEAN> 39
 -1.285058e+001 -1.716862e+001 1.348787e+001 -1.795236e+001 -4.312165e+000 -1.370253e+000 -7.150020e+000 -4.931965e+000 -3.820658e+000 -6.305995e+000 3.705418e+000 -5.797030e+000 6.499520e+001 -1.394655e-001 -8.187816e-001 -5.386406e-001 -7.106761e-001 -9.686341e-001 -3.980546e-001 -9.909137e-001 -4.992962e-001 -5.964026e-001 -5.382521e-001 -5.012639e-001 -5.829898e-001 -3.158786e-001 -2.816806e-001 -7.154955e-002 -3.061109e-001 -1.320602e-001 -1.887130e-001 -2.706826e-001 -1.716314e-001 -1.471991e-001 -2.290673e-001 -1.733828e-001 -2.974348e-001 -1.468995e-001 -3.469382e-001
<VARIANCE> 39
 9.342573e+001 1.062962e+002 1.096605e+002 1.138536e+002 1.489856e+002 1.565805e+002 1.170029e+002 8.901662e+001 1.143588e+002 7.396117e+001 6.204407e+001 3.896747e+001 9.005491e+001 5.463296e+000 7.717878e+000 4.986991e+000 8.406425e+000 9.962766e+000 8.626820e+000 8.480425e+000 5.607507e+000 7.559719e+000 4.891630e+000 4.842033e+000 3.037365e+000 6.173507e+000 6.969334e-001 1.047122e+000 7.869243e-001 1.330335e+000 1.636407e+000 1.365271e+000 1.418589e+000 9.483852e-001 1.233623e+000 8.855259e-001 8.604588e-001 5.639390e-001 8.198984e-001
<GCONST> 1.548652e+002
<MIXTURE> 6 1.240802e-001
<MEAN> 39
 -1.633512e+001 -1.240470e+001 1.066160e+001 -1.450801e+001 -2.122637e+000 -3.068236e+000 -4.958245e+000 -3.810215e+000 -3.833885e+000 -5.336841e+000 1.401498e+000 -4.680987e+000 5.750713e+001 -8.488632e-001 -5.573540e-001 -2.254096e-001 -7.466074e-001 -1.468748e-002 -1.133482e+000 -3.151757e-002 -5.214748e-001 -2.932891e-001 -3.542045e-001 -2.905385e-001 -5.938342e-002 -1.384915e-001 -9.234558e-002 -4.419919e-001 -1.358438e-001 -4.123669e-001 -4.296849e-001 -1.520727e-001 -3.372974e-001 -2.076753e-001 -1.716276e-001 -2.152919e-001 -4.284799e-002 -1.609446e-001 4.801752e-002
<VARIANCE> 39
 1.121145e+002 1.261458e+002 1.454110e+002 1.349503e+002 1.669097e+002 1.554370e+002 1.208951e+002 9.672202e+001 1.168283e+002 7.499337e+001 5.684566e+001 4.539449e+001 1.825144e+002 5.982672e+000 7.940461e+000 7.773799e+000 9.178114e+000 1.098935e+001 9.323248e+000 8.288443e+000 5.770996e+000 7.584811e+000 4.929378e+000 4.666639e+000 3.112208e+000 8.788282e+000 8.533928e-001 1.173205e+000 1.193809e+000 1.509131e+000 1.944652e+000 1.521602e+000 1.480284e+000 1.020271e+000 1.275368e+000 8.998083e-001 8.199927e-001 6.008847e-001 1.249528e+000
<GCONST> 1.596255e+002
<MIXTURE> 7 1.202326e-001
<MEAN> 39
 -2.360168e+001 -5.257218e+000 -6.321142e+000 -3.890800e+000 -8.148625e+000 2.892555e+000 -5.850003e+000 -4.232824e-002 -2.608421e-001 -3.085751e+000 9.173373e-001 -1.871024e+000 3.186691e+001 -1.448182e-001 -9.061056e-002 -3.290060e-001 -1.206974e-001 -3.923450e-001 -1.201901e-001 -3.537460e-001 -3.048152e-001 -3.722252e-001 -3.462840e-001 -3.381694e-001 -3.266451e-001 -4.412943e-001 -4.417773e-002 -5.840619e-002 -4.854455e-002 -8.656365e-002 -6.342426e-002 -1.278419e-001 -1.237903e-001 -1.346720e-001 -1.360712e-001 -9.087499e-002 -1.071272e-001 -1.255045e-001 -5.988993e-002
<VARIANCE> 39
 7.383914e+001 1.177776e+002 1.466420e+002 1.202649e+002 4.519102e+001 4.386462e+001 3.438930e+001 2.895168e+001 3.260268e+001 2.596444e+001 2.657102e+001 2.006570e+001 4.005191e+002 2.772313e-001 6.014964e-001 8.660808e-001 9.438574e-001 1.112698e+000 1.192145e+000 1.364720e+000 1.461551e+000 1.633822e+000 1.299158e+000 1.168907e+000 1.155957e+000 6.861504e-001 4.515485e-002 9.455445e-002 1.125845e-001 1.572869e-001 1.728394e-001 1.943925e-001 2.413692e-001 2.644619e-001 2.912206e-001 2.394247e-001 2.285608e-001 2.187710e-001 5.095246e-002
<GCONST> 9.942040e+001
<MIXTURE> 8 1.086334e-001
<MEAN> 39
 -1.952598e+001 -1.292862e+001 1.258265e+000 -1.198290e+001 -5.810701e+000 5.516260e-001 -6.641953e+000 -7.187590e-001 -8.835129e-001 -3.605230e+000 1.630913e+000 -3.483119e+000 4.693714e+001 -1.443675e-001 3.984961e-002 -3.121778e-001 -2.112316e-002 -3.210936e-001 -4.519412e-002 -2.252173e-001 -1.370384e-001 -4.169677e-001 -8.610860e-002 -1.958176e-001 -1.335720e-001 -6.450596e-001 -2.293625e-002 -1.804776e-002 -2.010937e-002 -4.281385e-002 -4.664444e-002 -1.313275e-001 -7.841511e-002 -1.399656e-001 -1.584025e-001 -1.147906e-001 -9.904478e-002 -6.527288e-002 -1.457365e-001
<VARIANCE> 39
 1.306951e+002 1.891551e+002 1.824909e+002 1.734039e+002 9.970381e+001 1.069397e+002 7.913377e+001 5.441612e+001 5.367090e+001 4.400034e+001 3.978333e+001 3.108439e+001 5.349269e+002 5.808024e-001 1.237258e+000 1.221473e+000 1.630630e+000 1.689827e+000 2.002794e+000 1.851083e+000 2.057530e+000 2.300348e+000 1.771135e+000 1.665057e+000 1.350994e+000 9.983197e-001 1.236819e-001 2.257447e-001 2.118750e-001 2.844174e-001 2.939177e-001 3.252946e-001 3.487978e-001 3.627829e-001 4.104300e-001 3.252726e-001 2.974993e-001 2.601946e-001 1.414932e-001
<GCONST> 1.187653e+002
<TRANSP> 3
 0.000000e+000 1.000000e+000 0.000000e+000
 0.000000e+000 9.977571e-001 2.242944e-003
 0.000000e+000 0.000000e+000 0.000000e+000
<ENDHMM>
~h "DAVID"
<BEGINHMM>
<NUMSTATES> 3
<STATE> 2
<NUMMIXES> 8
<MIXTURE> 1 1.025817e-001
<MEAN> 39
 -1.284394e+001 1.228539e+000 -1.736286e+000 3.730617e-001 4.298933e-001 -1.011207e-001 1.460568e+000 1.951233e-001 1.209349e+000 7.161930e-001 1.151577e+000 1.196643e+000 6.180750e+001 3.517640e-002 8.976546e-002 1.432377e-001 2.865930e-001 2.821161e-001 3.489175e-001 3.932386e-001 3.968272e-001 5.077601e-001 4.675772e-001 4.795482e-001 4.173101e-001 4.980782e-002 1.065952e-001 7.078095e-002 1.061084e-001 5.726387e-002 1.099696e-001 8.914635e-002 1.114867e-001 1.302602e-001 9.456421e-002 1.378967e-001 1.111859e-001 9.391185e-002 1.584447e-001
<VARIANCE> 39
 2.013118e+001 7.765829e+000 8.447712e+000 1.070039e+001 1.060147e+001 1.371546e+001 1.362175e+001 1.349650e+001 1.358337e+001 1.227478e+001 1.362380e+001 1.015596e+001 2.288650e+001 4.135850e-001 4.139342e-001 5.229491e-001 7.533923e-001 8.271919e-001 1.123235e+000 1.231503e+000 1.275133e+000 1.278679e+000 1.336719e+000 1.232191e+000 1.090475e+000 3.940898e-001 1.027607e-001 7.671458e-002 1.096049e-001 1.611403e-001 1.656769e-001 2.145225e-001 2.470022e-001 2.524630e-001 2.696198e-001 2.679382e-001 2.602478e-001 2.258331e-001 1.276623e-001
<GCONST> 7.967403e+001
<MIXTURE> 2 1.595145e-001
<MEAN> 39
 -7.147958e+000 3.345472e+000 3.660364e+000 -5.004527e+000 -1.359483e-001 -2.874917e+000 -1.801205e+000 1.323081e+000 -4.443083e+000 2.637964e+000 -8.646559e-001 -2.580612e+000 7.597536e+001 1.604064e-001 5.090908e-001 2.818168e-001 6.227800e-001 5.730848e-001 3.877841e-001 7.038690e-001 2.911238e-001 5.470856e-001 2.422348e-001 3.548676e-001 4.485076e-001 1.859721e-001 8.053868e-002 1.686187e-001 1.375278e-001 2.941398e-001 1.576028e-001 1.519756e-001 2.483393e-001 8.211658e-002 2.410933e-001 6.702568e-002 1.540787e-001 1.645378e-001 1.363998e-002
<VARIANCE> 39
 7.597392e+001 3.653553e+001 6.598669e+001 5.754837e+001 4.730638e+001 3.708197e+001 5.894920e+001 5.192665e+001 6.551486e+001 3.072991e+001 3.515086e+001 2.615339e+001 2.884936e+001 3.831717e+000 2.353361e+000 2.741536e+000 4.739104e+000 3.041301e+000 2.909077e+000 3.806144e+000 4.031024e+000 4.579775e+000 2.624075e+000 2.594707e+000 1.880071e+000 2.849532e+000 5.830056e-001 3.843870e-001 4.465119e-001 7.905934e-001 5.328447e-001 5.278524e-001 7.223916e-001 7.501127e-001 8.388383e-001 5.113657e-001 4.856220e-001 3.656624e-001 4.539362e-001
<GCONST> 1.281474e+002
<MIXTURE> 3 9.939255e-002
<MEAN> 39
 -1.047400e+001 8.825012e-001 -1.362855e+000 -1.643383e+000 1.126779e+000 -1.088608e-001 1.112919e+000 1.328397e+000 3.646464e-001 1.545668e+000 5.395317e-001 5.873761e-001 6.657640e+001 9.245754e-002 9.082939e-002 1.022896e-001 1.445111e-001 4.654525e-002 5.548227e-002 1.062241e-001 4.409809e-002 5.506957e-002 -2.362736e-002 7.432997e-003 1.074697e-001 2.539482e-002 1.098390e-001 9.087008e-002 1.001279e-001 9.098237e-002 4.714135e-002 2.538242e-002 2.423973e-002 6.723130e-002 3.991299e-002 7.784188e-002 5.231323e-002 3.353839e-002 1.006398e-001
<VARIANCE> 39
 4.302530e+001 1.624212e+001 1.280451e+001 4.662969e+001 1.707196e+001 1.922131e+001 2.425359e+001 2.522069e+001 2.705778e+001 1.582110e+001 2.332135e+001 1.542356e+001 7.320747e+001 4.026504e-001 4.834334e-001 5.799309e-001 8.033965e-001 8.671534e-001 1.035190e+000 1.229184e+000 1.268492e+000 1.260355e+000 1.187318e+000 1.202049e+000 1.021844e+000 3.759345e-001 1.017491e-001 8.787121e-002 1.067719e-001 1.791188e-001 1.689013e-001 2.099458e-001 2.504476e-001 2.634053e-001 2.595209e-001 2.576544e-001 2.482854e-001 2.100274e-001 1.142595e-001
<GCONST> 8.807270e+001
<MIXTURE> 4 1.385085e-001
<MEAN> 39
 -8.123022e+000 4.215736e+000 5.654469e+000 -3.069910e+000 -1.333869e+000 -2.983944e+000 -1.755302e+000 -2.875117e-001 -4.733002e+000 1.304063e+000 -4.822247e-001 -2.801359e+000 7.484175e+001 7.968131e-001 1.375423e-001 4.843995e-001 1.556263e-001 1.395628e-001 3.105546e-001 2.162728e-002 5.470499e-001 2.433232e-001 4.155189e-001 2.421311e-001 2.196741e-002 6.798592e-001 1.660669e-001 3.969985e-002 7.865913e-002 4.863276e-002 1.396654e-001 1.890429e-001 1.211988e-001 2.863186e-001 1.724154e-001 2.216678e-001 1.490588e-001 1.192372e-001 1.933053e-001
<VARIANCE> 39
 6.812908e+001 3.239960e+001 7.590370e+001 4.995173e+001 4.967242e+001 3.622808e+001 5.397643e+001 5.096812e+001 6.649725e+001 2.834045e+001 2.973675e+001 2.733108e+001 3.192416e+001 4.754405e+000 2.393643e+000 3.808790e+000 4.593729e+000 3.416037e+000 3.141993e+000 4.490616e+000 4.427431e+000 5.582101e+000 2.724759e+000 2.606306e+000 2.320475e+000 3.587297e+000 5.430834e-001 3.943465e-001 4.743848e-001 7.333615e-001 5.722560e-001 5.707047e-001 7.107687e-001 7.870944e-001 8.823729e-001 5.032597e-001 4.717816e-001 3.901659e-001 5.072607e-001
<GCONST> 1.297139e+002
<MIXTURE> 5 1.595145e-001
<MEAN> 39
 -1.063448e+001 9.276865e-001 4.110763e-001 -8.038953e+000 -2.887134e+000 -5.310715e+000 -4.872341e+000 -1.559325e+000 -7.680733e+000 4.205817e-001 -3.236182e+000 -4.626228e+000 7.382689e+001 -6.225845e-001 -1.045359e-001 -3.804865e-001 -2.479994e-001 -1.244882e-001 -2.944565e-001 -7.650474e-002 -5.119726e-001 -3.089308e-001 -4.057251e-001 -2.894561e-001 -9.995517e-002 -4.892501e-001 -2.248805e-001 -7.937708e-002 -1.297584e-001 -6.152143e-002 -1.343821e-001 -1.386382e-001 -9.163519e-002 -2.643196e-001 -1.252592e-001 -2.190137e-001 -1.246676e-001 -7.734230e-002 -2.558592e-001
<VARIANCE> 39
 7.597392e+001 3.653553e+001 6.598669e+001 5.754837e+001 4.730638e+001 3.708197e+001 5.894920e+001 5.192665e+001 6.551486e+001 3.072991e+001 3.515086e+001 2.615339e+001 2.884936e+001 3.831717e+000 2.353361e+000 2.741536e+000 4.739104e+000 3.041301e+000 2.909077e+000 3.806144e+000 4.031024e+000 4.579775e+000 2.624075e+000 2.594707e+000 1.880071e+000 2.849532e+000 5.830056e-001 3.843870e-001 4.465119e-001 7.905934e-001 5.328447e-001 5.278524e-001 7.223916e-001 7.501127e-001 8.388383e-001 5.113657e-001 4.856220e-001 3.656624e-001 4.539362e-001
<GCONST> 1.281474e+002
<MIXTURE> 6 1.385085e-001
<MEAN> 39
 -1.142464e+001 1.938910e+000 2.169559e+000 -5.896972e+000 -4.153015e+000 -5.391535e+000 -4.694048e+000 -3.143190e+000 -7.994836e+000 -8.253671e-001 -2.663481e+000 -4.892525e+000 7.258170e+001 -7.537085e-002 -4.813139e-001 -2.962454e-001 -7.016932e-001 -5.997382e-001 -3.984722e-001 -8.260157e-001 -2.946085e-001 -7.017356e-001 -2.447549e-001 -4.036312e-001 -5.873568e-001 -7.774732e-002 -1.287098e-001 -2.114882e-001 -1.968433e-001 -2.939134e-001 -1.629250e-001 -1.131371e-001 -2.160295e-001 -6.855478e-002 -2.033234e-001 -6.209539e-002 -1.256866e-001 -1.306159e-001 -9.158364e-002
<VARIANCE> 39
 6.812908e+001 3.239960e+001 7.590370e+001 4.995173e+001 4.967242e+001 3.622808e+001 5.397643e+001 5.096812e+001 6.649725e+001 2.834045e+001 2.973675e+001 2.733108e+001 3.192416e+001 4.754405e+000 2.393643e+000 3.808790e+000 4.593729e+000 3.416037e+000 3.141993e+000 4.490616e+000 4.427431e+000 5.582101e+000 2.724759e+000 2.606306e+000 2.320475e+000 3.587297e+000 5.430834e-001 3.943465e-001 4.743848e-001 7.333615e-001 5.722560e-001 5.707047e-001 7.107687e-001 7.870944e-001 8.823729e-001 5.032597e-001 4.717816e-001 3.901659e-001 5.072607e-001
<GCONST> 1.297139e+002
<MIXTURE> 7 1.025817e-001
<MEAN> 39
 -1.463866e+001 1.138493e-001 -2.898884e+000 -9.353963e-001 -8.725027e-001 -1.582496e+000 -1.573813e-002 -1.274380e+000 -2.648759e-001 -6.852224e-001 -3.248408e-001 -7.809407e-002 5.989390e+001 -2.220659e-001 -1.675854e-001 -1.460232e-001 -6.059965e-002 -8.168429e-002 -7.501367e-002 -5.065382e-002 -5.485998e-002 5.544533e-002 5.110964e-003 3.553179e-002 -3.931224e-004 -2.012985e-001 -2.162999e-002 -4.000865e-002 -2.631813e-002 -1.033053e-001 -5.284413e-002 -9.611995e-002 -8.731060e-002 -7.072262e-002 -1.131355e-001 -6.915425e-002 -9.287211e-002 -9.617575e-002 1.552522e-002
<VARIANCE> 39
 2.013118e+001 7.765829e+000 8.447712e+000 1.070039e+001 1.060147e+001 1.371546e+001 1.362175e+001 1.349650e+001 1.358337e+001 1.227478e+001 1.362380e+001 1.015596e+001 2.288650e+001 4.135850e-001 4.139342e-001 5.229491e-001 7.533923e-001 8.271919e-001 1.123235e+000 1.231503e+000 1.275133e+000 1.278679e+000 1.336719e+000 1.232191e+000 1.090475e+000 3.940898e-001 1.027607e-001 7.671458e-002 1.096049e-001 1.611403e-001 1.656769e-001 2.145225e-001 2.470022e-001 2.524630e-001 2.696198e-001 2.679382e-001 2.602478e-001 2.258331e-001 1.276623e-001
<GCONST> 7.967403e+001
<MIXTURE> 8 9.939255e-002
<MEAN> 39
 -1.309774e+001 -7.295593e-001 -2.794191e+000 -4.374821e+000 -5.259503e-001 -1.862545e+000 -8.569980e-001 -6.804116e-001 -1.716037e+000 -4.536176e-002 -1.392156e+000 -9.835376e-001 6.315395e+001 -1.613614e-001 -1.872881e-001 -2.023232e-001 -2.140185e-001 -3.259391e-001 -3.514949e-001 -3.372501e-001 -4.064113e-001 -3.939926e-001 -4.594839e-001 -4.311190e-001 -2.968755e-001 -2.198592e-001 -1.775356e-002 -2.770224e-002 -3.057596e-002 -7.830735e-002 -1.172491e-001 -1.578970e-001 -1.759392e-001 -1.380608e-001 -1.638598e-001 -1.251968e-001 -1.469997e-001 -1.497766e-001 -3.456936e-002
<VARIANCE> 39
 4.302530e+001 1.624212e+001 1.280451e+001 4.662969e+001 1.707196e+001 1.922131e+001 2.425359e+001 2.522069e+001 2.705778e+001 1.582110e+001 2.332135e+001 1.542356e+001 7.320747e+001 4.026504e-001 4.834334e-001 5.799309e-001 8.033965e-001 8.671534e-001 1.035190e+000 1.229184e+000 1.268492e+000 1.260355e+000 1.187318e+000 1.202049e+000 1.021844e+000 3.759345e-001 1.017491e-001 8.787121e-002 1.067719e-001 1.791188e-001 1.689013e-001 2.099458e-001 2.504476e-001 2.634053e-001 2.595209e-001 2.576544e-001 2.482854e-001 2.100274e-001 1.142595e-001
<GCONST> 8.807270e+001
<TRANSP> 3
 0.000000e+000 1.000000e+000 0.000000e+000
 0.000000e+000 9.972219e-001 2.778121e-003
 0.000000e+000 0.000000e+000 0.000000e+000
<ENDHMM>
~h "JAN"
<BEGINHMM>
<NUMSTATES> 3
<STATE> 2
<NUMMIXES> 8
<MIXTURE> 1 1.230363e-001
<MEAN> 39
 -1.193820e+001 -4.659904e+000 -4.890724e+000 -4.513552e-001 -6.724593e+000 5.754962e+000 9.103806e+000 5.314287e+000 8.509533e-001 1.363071e+000 -7.004072e+000 -4.181171e+000 4.402541e+001 1.048069e-002 9.016946e-002 5.612086e-002 1.664509e-001 2.871671e-001 2.802092e-001 3.765803e-001 4.062198e-001 3.281198e-001 2.760739e-001 2.791407e-001 2.517806e-001 -1.033318e-002 4.783260e-002 3.890867e-002 1.106346e-001 6.782975e-002 8.608722e-002 1.018630e-001 7.738076e-002 8.287197e-002 1.047604e-001 1.092127e-001 8.107137e-002 6.947194e-002 5.264283e-002
<VARIANCE> 39
 5.827785e+000 5.000692e+000 1.419705e+001 7.588889e+000 8.908030e+000 1.064748e+001 1.659706e+001 1.910261e+001 1.103477e+001 1.033818e+001 9.892543e+000 8.165158e+000 4.184398e+000 1.022380e-001 2.166166e-001 3.515792e-001 4.179980e-001 6.811157e-001 7.967136e-001 9.388130e-001 9.847213e-001 9.557165e-001 9.805236e-001 9.268443e-001 7.834025e-001 5.209394e-002 2.461911e-002 4.906433e-002 8.456680e-002 8.805314e-002 1.294859e-001 1.557441e-001 1.950809e-001 2.020986e-001 1.975341e-001 2.053576e-001 1.930849e-001 1.564817e-001 1.457723e-002
<GCONST> 6.115463e+001
<MIXTURE> 2 1.539585e-001
<MEAN> 39
 -4.531595e+000 -6.495635e+000 8.212400e+000 -3.885443e+000 -1.483574e+001 1.973706e+000 -5.575839e+000 -5.343925e+000 2.953672e-002 6.114752e+000 -5.772562e+000 -6.527133e+000 5.461926e+001 1.791234e-001 4.032257e-001 1.423098e-001 4.215097e-001 4.695584e-001 3.864904e-001 5.814814e-001 3.744093e-001 3.935581e-001 3.519332e-001 3.395173e-001 3.706012e-001 1.316545e-001 -3.183337e-002 1.371505e-001 4.720624e-002 1.350799e-001 2.416597e-001 1.793944e-001 3.405400e-001 2.385281e-001 1.359911e-001 6.548708e-002 8.512437e-002 1.533160e-001 2.517596e-003
<VARIANCE> 39
 1.204439e+001 3.761315e+001 5.102996e+001 4.582130e+001 3.966496e+001 4.820347e+001 5.167096e+001 4.457632e+001 4.156521e+001 3.668759e+001 2.550683e+001 2.370417e+001 1.714703e+001 7.981624e-001 2.102227e+000 2.534842e+000 2.837209e+000 2.614002e+000 2.363050e+000 3.940120e+000 3.170179e+000 2.396945e+000 2.385553e+000 1.902692e+000 1.600576e+000 1.247519e+000 1.205018e-001 3.107549e-001 3.705688e-001 4.537758e-001 4.220400e-001 3.993546e-001 6.343383e-001 5.389109e-001 4.241931e-001 4.234155e-001 3.571377e-001 2.939155e-001 1.612962e-001
<GCONST> 1.136220e+002
<MIXTURE> 3 9.090200e-002
<MEAN> 39
 -8.340143e+000 -3.838589e+000 2.618041e+000 -1.222450e+000 -8.840615e+000 4.835098e+000 4.144425e+000 -2.621269e-002 -3.473705e-001 2.162883e+000 -7.635693e+000 -5.402085e+000 4.916372e+001 -8.596352e-002 9.744029e-002 -8.764020e-002 1.086678e-001 2.941020e-001 1.610553e-001 3.173289e-001 2.583492e-001 8.475968e-002 -9.301841e-003 1.276447e-002 1.630982e-001 -1.025719e-001 8.538792e-002 -1.205621e-002 1.876705e-001 1.083356e-002 -3.251257e-002 1.521629e-002 -8.711535e-002 1.915820e-003 8.763523e-002 1.442316e-001 1.095632e-001 6.626908e-002 1.269844e-001
<VARIANCE> 39
 2.525907e+001 3.209473e+001 5.908049e+001 2.281901e+001 2.712692e+001 2.432008e+001 5.678678e+001 4.555361e+001 2.417814e+001 1.865695e+001 1.523682e+001 1.736550e+001 2.390908e+001 2.083273e-001 3.681155e-001 7.568079e-001 6.011233e-001 8.770291e-001 8.998011e-001 1.127625e+000 1.123580e+000 1.022954e+000 9.904126e-001 9.313183e-001 7.830157e-001 1.378389e-001 3.955984e-002 8.438982e-002 1.605646e-001 1.375711e-001 1.759011e-001 1.855805e-001 2.617998e-001 2.372325e-001 2.181773e-001 2.136155e-001 1.964628e-001 1.602111e-001 4.057553e-002
<GCONST> 8.371055e+001
<MIXTURE> 4 1.321012e-001
<MEAN> 39
 -6.509041e+000 -6.549537e+000 9.137383e+000 -4.152896e+000 -1.369905e+001 1.954484e+000 -2.792171e+000 -3.860211e+000 -3.692534e-001 4.683660e+000 -6.348875e+000 -5.797093e+000 5.383591e+001 4.393169e-001 1.723402e-001 8.181370e-001 2.322835e-001 2.445138e-002 1.606906e-001 -2.150536e-004 1.261205e-001 1.910766e-001 3.315904e-001 2.503745e-001 7.773063e-002 5.144335e-001 1.647162e-001 1.326174e-001 9.662084e-002 1.659218e-001 8.611344e-002 9.895468e-002 9.848434e-002 1.118958e-001 1.128218e-001 1.474816e-001 1.513400e-001 7.826895e-002 8.473467e-002
<VARIANCE> 39
 2.676966e+001 3.584147e+001 6.414672e+001 4.051782e+001 5.312337e+001 4.693261e+001 6.546736e+001 4.330698e+001 4.127224e+001 3.447523e+001 2.599489e+001 2.508883e+001 1.983436e+001 1.810695e+000 2.102521e+000 3.460517e+000 2.741402e+000 3.540390e+000 2.758399e+000 5.213336e+000 3.473041e+000 2.725916e+000 2.423738e+000 1.979450e+000 1.822703e+000 1.343311e+000 2.159314e-001 3.003881e-001 4.354069e-001 4.305818e-001 5.544475e-001 4.371713e-001 7.250312e-001 5.359211e-001 4.372507e-001 3.980232e-001 3.620076e-001 3.044896e-001 1.601938e-001
<GCONST> 1.185770e+002
<MIXTURE> 5 1.539585e-001
<MEAN> 39
 -5.919796e+000 -8.948817e+000 5.354990e+000 -6.593101e+000 -1.735494e+001 -8.034425e-001 -8.451139e+000 -8.014545e+000 -2.549307e+000 3.691940e+000 -7.792733e+000 -8.474609e+000 5.296290e+001 -1.782364e-001 -1.767367e-001 -4.945377e-001 -2.522510e-001 -1.771566e-001 -2.283982e-001 -2.125080e-001 -3.377906e-001 -2.257248e-001 -2.658762e-001 -2.122351e-001 -1.354544e-001 -3.151151e-001 -1.706868e-001 -8.583111e-002 -1.962912e-001 -1.343716e-001 -1.819871e-002 -7.338364e-002 2.195859e-002 -5.511412e-002 -1.245293e-001 -1.947944e-001 -1.539196e-001 -6.353994e-002 -1.581292e-001
<VARIANCE> 39
 1.204439e+001 3.761315e+001 5.102996e+001 4.582130e+001 3.966496e+001 4.820347e+001 5.167096e+001 4.457632e+001 4.156521e+001 3.668759e+001 2.550683e+001 2.370417e+001 1.714703e+001 7.981624e-001 2.102227e+000 2.534842e+000 2.837209e+000 2.614002e+000 2.363050e+000 3.940120e+000 3.170179e+000 2.396945e+000 2.385553e+000 1.902692e+000 1.600576e+000 1.247519e+000 1.205018e-001 3.107549e-001 3.705688e-001 4.537758e-001 4.220400e-001 3.993546e-001 6.343383e-001 5.389109e-001 4.241931e-001 4.234155e-001 3.571377e-001 2.939155e-001 1.612962e-001
<GCONST> 1.136220e+002
<MIXTURE> 6 1.321012e-001
<MEAN> 39
 -8.578617e+000 -8.944247e+000 5.933716e+000 -6.699040e+000 -1.661448e+001 -7.858107e-001 -6.028647e+000 -6.492533e+000 -2.938993e+000 2.335036e+000 -8.388283e+000 -7.800643e+000 5.205447e+001 -9.893136e-002 -4.076627e-001 7.403839e-002 -4.300037e-001 -7.281856e-001 -5.036466e-001 -9.135243e-001 -6.193234e-001 -4.693373e-001 -2.911440e-001 -3.123972e-001 -4.622994e-001 5.082831e-002 -2.115753e-002 -8.661329e-002 -1.673206e-001 -9.655312e-002 -2.117315e-001 -1.655211e-001 -2.421107e-001 -1.809307e-001 -1.516780e-001 -1.048747e-001 -8.932829e-002 -1.424534e-001 -7.536220e-002
<VARIANCE> 39
 2.676966e+001 3.584147e+001 6.414672e+001 4.051782e+001 5.312337e+001 4.693261e+001 6.546736e+001 4.330698e+001 4.127224e+001 3.447523e+001 2.599489e+001 2.508883e+001 1.983436e+001 1.810695e+000 2.102521e+000 3.460517e+000 2.741402e+000 3.540390e+000 2.758399e+000 5.213336e+000 3.473041e+000 2.725916e+000 2.423738e+000 1.979450e+000 1.822703e+000 1.343311e+000 2.159314e-001 3.003881e-001 4.354069e-001 4.305818e-001 5.544475e-001 4.371713e-001 7.250312e-001 5.359211e-001 4.372507e-001 3.980232e-001 3.620076e-001 3.044896e-001 1.601938e-001
<GCONST> 1.185770e+002
<MIXTURE> 7 1.230363e-001
<MEAN> 39
 -1.290384e+001 -5.554394e+000 -6.397883e+000 -1.553273e+000 -7.918447e+000 4.449744e+000 7.474226e+000 3.566025e+000 -4.777917e-001 7.694918e-002 -8.262168e+000 -5.324161e+000 4.320718e+001 -1.174180e-001 -9.599890e-002 -1.810556e-001 -9.216015e-002 -4.295186e-002 -7.682602e-002 -1.098913e-002 9.287238e-003 -6.292321e-002 -1.200117e-001 -1.059504e-001 -1.022595e-001 -1.016296e-001 -1.492931e-002 -4.969321e-002 -5.686935e-003 -5.086525e-002 -5.784938e-002 -5.599468e-002 -9.929110e-002 -9.694954e-002 -7.301880e-002 -7.205284e-002 -9.469434e-002 -8.875914e-002 4.348349e-003
<VARIANCE> 39
 5.827785e+000 5.000692e+000 1.419705e+001 7.588889e+000 8.908030e+000 1.064748e+001 1.659706e+001 1.910261e+001 1.103477e+001 1.033818e+001 9.892543e+000 8.165158e+000 4.184398e+000 1.022380e-001 2.166166e-001 3.515792e-001 4.179980e-001 6.811157e-001 7.967136e-001 9.388130e-001 9.847213e-001 9.557165e-001 9.805236e-001 9.268443e-001 7.834025e-001 5.209394e-002 2.461911e-002 4.906433e-002 8.456680e-002 8.805314e-002 1.294859e-001 1.557441e-001 1.950809e-001 2.020986e-001 1.975341e-001 2.053576e-001 1.930849e-001 1.564817e-001 1.457723e-002
<GCONST> 6.115463e+001
<MIXTURE> 8 9.090200e-002
<MEAN> 39
 -1.035048e+001 -6.104677e+000 -4.565127e-001 -3.133220e+000 -1.092395e+001 2.862482e+000 1.130145e+000 -2.725949e+000 -2.314221e+000 4.351351e-001 -9.197067e+000 -7.068963e+000 4.720784e+001 -2.685351e-001 -1.452498e-001 -4.356190e-001 -2.014607e-001 -8.049737e-002 -2.183761e-001 -1.074299e-001 -1.656470e-001 -3.198051e-001 -4.073797e-001 -3.732549e-001 -1.908545e-001 -2.510785e-001 5.829297e-003 -1.282559e-001 2.738847e-002 -1.375287e-001 -2.002748e-001 -1.570999e-001 -2.917809e-001 -1.929103e-001 -9.920259e-002 -4.064265e-002 -6.773327e-002 -9.383643e-002 4.641091e-002
<VARIANCE> 39
 2.525907e+001 3.209473e+001 5.908049e+001 2.281901e+001 2.712692e+001 2.432008e+001 5.678678e+001 4.555361e+001 2.417814e+001 1.865695e+001 1.523682e+001 1.736550e+001 2.390908e+001 2.083273e-001 3.681155e-001 7.568079e-001 6.011233e-001 8.770291e-001 8.998011e-001 1.127625e+000 1.123580e+000 1.022954e+000 9.904126e-001 9.313183e-001 7.830157e-001 1.378389e-001 3.955984e-002 8.438982e-002 1.605646e-001 1.375711e-001 1.759011e-001 1.855805e-001 2.617998e-001 2.372325e-001 2.181773e-001 2.136155e-001 1.964628e-001 1.602111e-001 4.057553e-002
<GCONST> 8.371055e+001
<TRANSP> 3
 0.000000e+000 1.000000e+000 0.000000e+000
 0.000000e+000 9.972063e-001 2.793643e-003
 0.000000e+000 0.000000e+000 0.000000e+000
<ENDHMM>
~h "MAR"
<BEGINHMM>
<NUMSTATES> 3
<STATE> 2
<NUMMIXES> 8
<MIXTURE> 1 1.042211e-001
<MEAN> 39
 -7.984804e+000 4.479708e+000 4.043861e+000 5.804937e+000 7.550237e+000 3.452678e+000 7.304400e+000 4.028467e+000 5.307149e+000 3.077165e+000 6.444552e+000 4.327334e+000 5.675439e+001 1.792797e-001 2.897796e-001 2.393476e-001 3.826677e-001 3.800110e-001 4.937063e-001 4.886574e-001 3.853271e-001 3.708499e-001 3.629893e-001 3.541549e-001 3.604843e-001 -2.219684e-001 1.215246e-001 1.351855e-002 9.907406e-002 1.957753e-002 4.414643e-002 8.747661e-002 5.970960e-002 7.105673e-002 6.687580e-002 6.079984e-002 6.042681e-002 2.730712e-002 2.762976e-001
<VARIANCE> 39
 3.919097e+001 1.219891e+001 1.775778e+001 1.104680e+001 1.636338e+001 2.106726e+001 1.579414e+001 1.423027e+001 1.309356e+001 1.263136e+001 1.163903e+001 1.034833e+001 5.415119e+001 1.041369e+000 7.776437e-001 7.878698e-001 1.050139e+000 1.191438e+000 1.466440e+000 1.563652e+000 1.399101e+000 1.469890e+000 1.473770e+000 1.258328e+000 1.225156e+000 1.904570e+000 1.853546e-001 1.490159e-001 1.538133e-001 1.924208e-001 2.155591e-001 2.691337e-001 2.783478e-001 2.595050e-001 2.745770e-001 2.815183e-001 2.382147e-001 2.208904e-001 3.238235e-001
<GCONST> 9.184901e+001
<MIXTURE> 2 1.577553e-001
<MEAN> 39
 2.297378e-001 7.661481e-001 6.238162e+000 -1.262815e+000 -3.190244e+000 7.073384e-001 -2.537127e+000 -2.684098e+000 3.139088e+000 -2.889583e+000 6.780289e+000 -4.861179e+000 7.618918e+001 1.266353e-001 8.994054e-001 3.476652e-001 8.981754e-001 9.863456e-001 1.213509e-001 5.330823e-001 4.346354e-001 3.032845e-001 7.612441e-001 2.713381e-001 7.531956e-001 -2.024800e-001 -1.276304e-001 4.014082e-001 1.347574e-001 4.727961e-001 4.521033e-001 1.363041e-001 3.579164e-001 2.505480e-001 1.944547e-001 3.263369e-001 6.658286e-002 4.280720e-001 -2.149918e-001
<VARIANCE> 39
 4.635532e+001 4.998268e+001 7.433408e+001 6.554733e+001 6.957539e+001 6.800534e+001 4.838393e+001 4.845248e+001 5.620591e+001 5.787376e+001 4.330700e+001 3.851676e+001 3.321433e+001 3.820240e+000 3.443500e+000 3.051555e+000 4.836393e+000 5.216825e+000 4.562522e+000 4.213934e+000 4.102408e+000 3.724895e+000 3.966469e+000 3.735578e+000 3.627063e+000 4.617013e+000 5.585116e-001 5.526560e-001 5.413672e-001 8.227201e-001 9.478889e-001 9.017880e-001 7.516436e-001 7.812258e-001 7.415104e-001 7.609721e-001 7.950143e-001 6.648080e-001 6.574409e-001
<GCONST> 1.369624e+002
<MIXTURE> 3 1.327030e-001
<MEAN> 39
 -1.203997e+000 2.835078e+000 7.081419e+000 2.122679e+000 -2.447614e+000 -8.288908e-001 -2.229124e+000 -2.993128e+000 2.562972e+000 -2.993227e+000 4.847988e+000 -3.726925e+000 7.462025e+001 1.183814e+000 -1.522963e-001 5.522580e-001 -9.108603e-002 -2.911289e-001 6.274467e-001 -5.403194e-002 1.927604e-001 3.436826e-001 -1.427972e-001 5.330645e-001 -2.813487e-001 1.427505e+000 8.767138e-002 1.319459e-001 7.837094e-002 1.216357e-001 2.204697e-001 3.603411e-001 2.721219e-001 2.591696e-001 2.151615e-001 1.631580e-001 3.155513e-001 1.414319e-001 1.321218e-001
<VARIANCE> 39
 4.333416e+001 5.110597e+001 7.132871e+001 7.205894e+001 6.301644e+001 6.462401e+001 4.718598e+001 5.008947e+001 4.569016e+001 5.426479e+001 3.198081e+001 3.538979e+001 4.681950e+001 5.128539e+000 4.032485e+000 4.358373e+000 6.594204e+000 6.450753e+000 6.253978e+000 4.781230e+000 5.145750e+000 3.746630e+000 4.199698e+000 3.799502e+000 3.882958e+000 6.192321e+000 5.801286e-001 6.158176e-001 5.819107e-001 1.065568e+000 9.831210e-001 1.067438e+000 7.710899e-001 8.606403e-001 6.214415e-001 6.924199e-001 6.787701e-001 6.177786e-001 7.945945e-001
<GCONST> 1.394454e+002
<MIXTURE> 4 1.053123e-001
<MEAN> 39
 -1.013615e+001 5.718551e+000 4.019418e+000 2.762201e+000 3.226749e+000 -5.075142e-001 4.240027e+000 7.527004e-001 3.878022e+000 1.292820e+000 5.249510e+000 1.503107e+000 7.092361e+001 -2.174366e-002 1.039320e-001 1.140040e-001 2.218079e-001 3.803894e-001 3.730549e-001 5.277491e-001 4.355305e-001 3.384265e-001 3.106267e-001 1.306908e-001 4.385582e-001 7.260484e-001 6.394117e-001 -1.434978e-001 2.287108e-001 -1.165338e-001 -2.188217e-001 4.834490e-002 -2.150313e-001 -3.785488e-002 6.018349e-002 -5.393055e-002 1.370185e-001 -1.913259e-001 6.864035e-001
<VARIANCE> 39
 1.186573e+002 5.233329e+001 6.674812e+001 3.651436e+001 4.756021e+001 4.002699e+001 3.734920e+001 3.640085e+001 2.910906e+001 3.190413e+001 2.417445e+001 2.685829e+001 9.898006e+001 5.717066e+000 2.408478e+000 2.830771e+000 2.561788e+000 2.656178e+000 2.728757e+000 2.765500e+000 2.291928e+000 2.116179e+000 1.936459e+000 1.855724e+000 1.984525e+000 5.233171e+000 7.899519e-001 4.873247e-001 4.745697e-001 5.275928e-001 5.377670e-001 5.388168e-001 4.910501e-001 4.621268e-001 4.178313e-001 3.812287e-001 3.881702e-001 3.670681e-001 1.247210e+000
<GCONST> 1.250551e+002
<MIXTURE> 5 1.577553e-001
<MEAN> 39
 -2.493652e+000 -2.061789e+000 2.789474e+000 -4.501267e+000 -6.526718e+000 -2.591276e+000 -5.319469e+000 -5.468411e+000 1.402639e-001 -5.932575e+000 4.147967e+000 -7.343655e+000 7.388390e+001 -6.551821e-001 1.571386e-001 -3.510828e-001 1.850337e-002 7.273087e-002 -7.330515e-001 -2.880325e-001 -3.755407e-001 -4.687150e-001 -3.539574e-002 -5.017677e-001 -8.598417e-003 -1.061969e+000 -4.265650e-001 1.040448e-001 -1.595532e-001 1.099804e-001 6.266491e-002 -2.435460e-001 1.112683e-002 -1.030000e-001 -1.499893e-001 -2.259792e-002 -2.900715e-001 1.019290e-001 -5.393227e-001
<VARIANCE> 39
 4.635532e+001 4.998268e+001 7.433408e+001 6.554733e+001 6.957539e+001 6.800534e+001 4.838393e+001 4.845248e+001 5.620591e+001 5.787376e+001 4.330700e+001 3.851676e+001 3.321433e+001 3.820240e+000 3.443500e+000 3.051555e+000 4.836393e+000 5.216825e+000 4.562522e+000 4.213934e+000 4.102408e+000 3.724895e+000 3.966469e+000 3.735578e+000 3.627063e+000 4.617013e+000 5.585116e-001 5.526560e-001 5.413672e-001 8.227201e-001 9.478889e-001 9.017880e-001 7.516436e-001 7.812258e-001 7.415104e-001 7.609721e-001 7.950143e-001 6.648080e-001 6.574409e-001
<GCONST> 1.369624e+002
<MIXTURE> 6 1.327030e-001
<MEAN> 39
 -3.837145e+000 -2.445984e-002 3.703166e+000 -1.272823e+000 -5.622930e+000 -4.044453e+000 -4.976806e+000 -5.824084e+000 -1.408080e-001 -5.939813e+000 2.585924e+000 -6.106498e+000 7.188327e+001 2.779626e-001 -9.555383e-001 -2.828107e-001 -1.118253e+000 -1.307062e+000 -3.728715e-001 -9.286729e-001 -7.146094e-001 -4.305660e-001 -9.625238e-001 -2.466279e-001 -1.069558e+000 4.321299e-001 -2.169933e-001 -1.819503e-001 -2.267614e-001 -2.912697e-001 -1.761401e-001 -5.292650e-002 -7.912495e-002 -1.119132e-001 -1.001647e-001 -1.696891e-001 -1.399872e-002 -1.729637e-001 -2.244383e-001
<VARIANCE> 39
 4.333416e+001 5.110597e+001 7.132871e+001 7.205894e+001 6.301644e+001 6.462401e+001 4.718598e+001 5.008947e+001 4.569016e+001 5.426479e+001 3.198081e+001 3.538979e+001 4.681950e+001 5.128539e+000 4.032485e+000 4.358373e+000 6.594204e+000 6.450753e+000 6.253978e+000 4.781230e+000 5.145750e+000 3.746630e+000 4.199698e+000 3.799502e+000 3.882958e+000 6.192321e+000 5.801286e-001 6.158176e-001 5.819107e-001 1.065568e+000 9.831210e-001 1.067438e+000 7.710899e-001 8.606403e-001 6.214415e-001 6.924199e-001 6.787701e-001 6.177786e-001 7.945945e-001
<GCONST> 1.394454e+002
<MIXTURE> 7 1.053123e-001
<MEAN> 39
 -1.449335e+001 2.824881e+000 7.514365e-001 3.451167e-001 4.681927e-001 -3.038190e+000 1.795467e+000 -1.660624e+000 1.719910e+000 -9.665298e-001 3.282810e+000 -5.698925e-001 6.694405e+001 -9.781591e-001 -5.168388e-001 -5.589918e-001 -4.184156e-001 -2.715220e-001 -2.877031e-001 -1.374426e-001 -1.700341e-001 -2.434573e-001 -2.460001e-001 -4.142090e-001 -1.249344e-001 -1.889967e-001 2.838947e-001 -4.227324e-001 -4.684533e-002 -4.070762e-001 -5.121521e-001 -2.452717e-001 -4.953311e-001 -3.097745e-001 -1.983760e-001 -3.009054e-001 -1.121948e-001 -4.336705e-001 2.396892e-001
<VARIANCE> 39
 1.186573e+002 5.233329e+001 6.674812e+001 3.651436e+001 4.756021e+001 4.002699e+001 3.734920e+001 3.640085e+001 2.910906e+001 3.190413e+001 2.417445e+001 2.685829e+001 9.898006e+001 5.717066e+000 2.408478e+000 2.830771e+000 2.561788e+000 2.656178e+000 2.728757e+000 2.765500e+000 2.291928e+000 2.116179e+000 1.936459e+000 1.855724e+000 1.984525e+000 5.233171e+000 7.899519e-001 4.873247e-001 4.745697e-001 5.275928e-001 5.377670e-001 5.388168e-001 4.910501e-001 4.621268e-001 4.178313e-001 3.812287e-001 3.881702e-001 3.670681e-001 1.247210e+000
<GCONST> 1.250551e+002
<MIXTURE> 8 1.042211e-001
<MEAN> 39
 -1.048891e+001 3.082630e+000 2.358262e+000 4.475469e+000 5.932170e+000 1.616714e+000 5.714726e+000 2.519545e+000 3.859748e+000 1.655540e+000 5.079911e+000 3.040582e+000 5.381089e+001 -2.289102e-001 -6.295682e-002 -1.157006e-001 -2.723749e-002 -5.660102e-002 9.319693e-003 -1.152685e-002 -8.780730e-002 -1.141061e-001 -1.226065e-001 -9.454593e-002 -8.226272e-002 -7.739930e-001 -5.068671e-002 -1.408918e-001 -5.780210e-002 -1.558857e-001 -1.415669e-001 -1.200358e-001 -1.513251e-001 -1.327098e-001 -1.427246e-001 -1.514334e-001 -1.348022e-001 -1.606888e-001 4.867561e-002
<VARIANCE> 39
 3.919097e+001 1.219891e+001 1.775778e+001 1.104680e+001 1.636338e+001 2.106726e+001 1.579414e+001 1.423027e+001 1.309356e+001 1.263136e+001 1.163903e+001 1.034833e+001 5.415119e+001 1.041369e+000 7.776437e-001 7.878698e-001 1.050139e+000 1.191438e+000 1.466440e+000 1.563652e+000 1.399101e+000 1.469890e+000 1.473770e+000 1.258328e+000 1.225156e+000 1.904570e+000 1.853546e-001 1.490159e-001 1.538133e-001 1.924208e-001 2.155591e-001 2.691337e-001 2.783478e-001 2.595050e-001 2.745770e-001 2.815183e-001 2.382147e-001 2.208904e-001 3.238235e-001
<GCONST> 9.184901e+001
<TRANSP> 3
 0.000000e+000 1.000000e+000 0.000000e+000
 0.000000e+000 9.984528e-001 1.547198e-003
 0.000000e+000 0.000000e+000 0.000000e+000
<ENDHMM>
~h "MJB"
<BEGINHMM>
<NUMSTATES> 3
<STATE> 2
<NUMMIXES> 8
<MIXTURE> 1 1.027996e-001
<MEAN> 39
 -9.513133e+000 1.492890e+000 -4.478092e-001 3.906723e+000 4.157437e+000 4.198617e+000 3.193841e+000 5.391321e+000 3.265015e+000 1.660337e+000 2.125247e+000 4.213757e+000 5.389594e+001 3.413609e-002 1.293116e-001 7.331400e-002 1.946917e-001 2.875451e-001 3.149095e-001 3.858010e-001 3.188928e-001 3.757293e-001 4.122416e-001 3.686743e-001 3.123294e-001 -2.545349e-002 7.306258e-002 5.287345e-002 9.851047e-002 6.250070e-002 5.241149e-002 9.270555e-002 6.113783e-002 9.317021e-002 8.235693e-002 1.020964e-001 9.051753e-002 7.832855e-002 1.247408e-001
<VARIANCE> 39
 2.576664e+001 1.540894e+001 1.433924e+001 1.435529e+001 1.743727e+001 2.880750e+001 2.178329e+001 1.873034e+001 2.195853e+001 2.253638e+001 2.013021e+001 1.828702e+001 3.880947e+001 5.277208e-001 5.756096e-001 6.632860e-001 7.771953e-001 9.893414e-001 1.221943e+000 1.342431e+000 1.410611e+000 1.491511e+000 1.554300e+000 1.368237e+000 1.130027e+000 4.686655e-001 1.027239e-001 1.030106e-001 1.261853e-001 1.530068e-001 1.899993e-001 2.312784e-001 2.641164e-001 2.698811e-001 2.871289e-001 3.023196e-001 2.589374e-001 2.173529e-001 9.782889e-002
<GCONST> 8.857509e+001
<MIXTURE> 2 1.599312e-001
<MEAN> 39
 -1.320324e+000 3.628707e-001 5.634959e+000 1.032054e+000 -4.488296e+000 3.142902e+000 -8.339785e+000 8.287910e-001 -2.923538e+000 -5.326197e-001 -1.780495e+000 -1.398937e+000 7.085107e+001 -1.623175e-002 7.781034e-001 4.394428e-001 4.846489e-001 8.698171e-001 8.570123e-002 7.686294e-001 3.907483e-001 3.984009e-001 4.022921e-001 3.678766e-001 4.871145e-001 2.647373e-001 7.232118e-002 2.564647e-001 1.027737e-001 2.610210e-001 3.439483e-001 9.924645e-002 3.199323e-001 1.538856e-001 1.998535e-001 1.315338e-001 1.778546e-001 1.572003e-001 6.201968e-003
<VARIANCE> 39
 7.551791e+001 4.940907e+001 6.473728e+001 4.867698e+001 8.077302e+001 6.244724e+001 4.660445e+001 5.359516e+001 5.204590e+001 3.092529e+001 3.477236e+001 2.177465e+001 2.914846e+001 4.777996e+000 3.347608e+000 2.632405e+000 3.298939e+000 5.795488e+000 4.454998e+000 3.768359e+000 3.634466e+000 3.523543e+000 2.270049e+000 2.439443e+000 1.721576e+000 2.918951e+000 7.842641e-001 5.773492e-001 4.772530e-001 6.074353e-001 1.042677e+000 8.446435e-001 7.457286e-001 7.107931e-001 6.885896e-001 4.518453e-001 4.867746e-001 3.596098e-001 4.613172e-001
<GCONST> 1.306033e+002
<MIXTURE> 3 1.412406e-001
<MEAN> 39
