~o
<STREAMINFO> 1 39
<VECSIZE> 39<NULLD><MFCC_D_A_0><DIAGC>
~h "MJ"
<BEGINHMM>
<NUMSTATES> 3
<STATE> 2
<NUMMIXES> 16
<MIXTURE> 1 3.680950e-002
<MEAN> 39
 -1.291216e+001 1.371214e+000 1.581376e+000 -7.383024e+000 -6.025539e+000 -1.326248e+001 -7.678432e+000 -3.680980e+000 5.226064e-001 2.218957e+000 -7.495428e-001 -3.650823e-001 6.811371e+001 -1.592448e+000 9.129497e-001 -5.251656e-001 1.141230e+000 9.990380e-001 -1.055098e-001 1.878388e+000 1.693658e-002 1.144320e+000 -6.001072e-001 5.353163e-001 3.163719e-001 -5.147359e-001 5.209818e-002 -2.041814e-001 -1.387316e-001 2.005844e-002 -6.171944e-002 4.101391e-001 -2.338340e-002 1.517408e-001 -2.378124e-002 8.924917e-002 7.874117e-002 -1.313589e-001 -1.190870e-001
<VARIANCE> 39
 7.453870e+001 4.085982e+001 6.114556e+001 3.107507e+001 4.957620e+001 5.253191e+001 5.841851e+001 3.793792e+001 4.766802e+001 2.809181e+001 2.704423e+001 1.998106e+001 1.020390e+001 4.102030e+000 2.650083e+000 2.831733e+000 2.488114e+000 2.882425e+000 3.385008e+000 4.096799e+000 2.946987e+000 3.229610e+000 2.402129e+000 2.565830e+000 2.134738e+000 2.058215e+000 6.905854e-001 4.212065e-001 3.922127e-001 4.398342e-001 4.554341e-001 5.423543e-001 7.249507e-001 5.433859e-001 6.002796e-001 4.047737e-001 4.526743e-001 3.281724e-001 2.384656e-001
<GCONST> 1.221330e+002
<MIXTURE> 2 4.536342e-002
<MEAN> 39
 -4.432287e+000 -8.452982e-001 -7.925577e-001 -8.660414e+000 -8.430376e+000 -5.418734e+000 -9.724931e+000 -1.948726e+000 -2.624551e+000 2.762383e+000 -1.051878e+000 -3.993057e+000 6.231434e+001 3.061366e-002 3.142664e-001 -5.966534e-002 4.455806e-001 3.588477e-001 2.821352e-001 5.792261e-001 2.657948e-001 3.535211e-001 2.624173e-002 1.335308e-001 2.314972e-001 -6.771466e-001 -8.002529e-002 -9.365889e-002 4.186937e-002 3.874350e-002 4.395761e-002 -2.388497e-002 1.755585e-002 -1.349079e-002 8.944122e-002 5.579520e-002 6.236388e-002 1.040156e-001 1.319116e-001
<VARIANCE> 39
 3.571863e+001 2.926866e+001 6.744500e+001 3.680565e+001 4.558255e+001 5.068594e+001 3.969429e+001 3.997421e+001 4.722619e+001 3.015898e+001 3.164471e+001 2.903746e+001 5.084362e+001 5.318019e-001 7.516694e-001 1.081290e+000 1.428703e+000 1.429262e+000 1.535555e+000 1.537917e+000 1.735766e+000 1.603498e+000 1.427383e+000 1.543682e+000 1.325683e+000 8.894540e-001 1.045324e-001 1.664802e-001 1.791678e-001 2.446244e-001 2.730921e-001 2.522074e-001 2.724128e-001 3.092046e-001 3.155966e-001 2.779393e-001 2.771922e-001 2.514881e-001 1.703840e-001
<GCONST> 1.030922e+002
<MIXTURE> 3 9.037481e-002
<MEAN> 39
 -2.131767e+000 -6.138101e+000 -4.219853e+000 -1.496626e+001 -6.737268e+000 -3.767322e+000 -1.698206e+001 -8.975152e-001 -3.422026e-001 7.258167e+000 -3.878377e+000 -3.593813e+000 7.128616e+001 1.731750e-001 4.021474e-001 8.578220e-002 8.273005e-003 2.751735e-001 1.548867e-001 2.005096e-001 2.348410e-002 -8.238342e-002 2.450671e-001 8.645120e-002 2.897090e-001 -3.177745e-001 -1.850526e-001 3.148902e-001 1.221158e-001 5.018865e-001 2.016046e-002 -1.368388e-001 4.427737e-001 -2.366857e-001 4.826527e-002 -2.692635e-001 2.525899e-001 7.265617e-003 -4.035940e-001
<VARIANCE> 39
 9.070973e+000 2.383740e+001 5.302402e+001 4.335703e+001 5.078665e+001 9.135950e+001 4.646558e+001 5.606473e+001 5.264847e+001 3.132394e+001 4.669946e+001 2.780840e+001 1.339179e+001 8.070893e-001 1.901961e+000 2.051329e+000 3.284605e+000 2.981853e+000 3.620268e+000 3.273061e+000 3.851931e+000 3.147016e+000 2.458211e+000 2.676839e+000 2.074553e+000 1.722420e+000 2.117180e-001 2.600777e-001 3.478208e-001 4.255670e-001 5.249711e-001 5.611312e-001 6.247671e-001 6.494235e-001 6.133671e-001 4.200689e-001 4.763283e-001 4.161181e-001 2.072610e-001
<GCONST> 1.183446e+002
<MIXTURE> 4 6.704407e-002
<MEAN> 39
 -4.888927e+000 9.364830e-001 2.929967e+000 -4.612420e+000 -1.008842e+001 -8.220525e+000 -8.738090e+000 -3.128496e+000 -3.891327e+000 2.321976e+000 1.548992e+000 -5.195833e+000 6.094517e+001 -4.929800e-001 -2.116064e-001 -5.158952e-001 3.336776e-001 7.389361e-001 8.399317e-002 8.382195e-001 3.440156e-002 7.764850e-001 -2.637398e-002 -3.068697e-003 4.595065e-001 -1.148006e-001 -3.599578e-001 -3.178098e-001 1.463959e-002 -2.988391e-001 9.069969e-002 -4.235130e-002 -5.538264e-002 1.325471e-002 9.255579e-002 1.048656e-001 -7.063383e-002 1.850055e-001 5.831774e-001
<VARIANCE> 39
 2.559789e+001 2.078425e+001 7.170413e+001 2.624675e+001 4.882689e+001 3.701926e+001 3.488776e+001 2.706440e+001 4.470346e+001 2.169842e+001 2.221720e+001 2.882652e+001 3.043768e+001 3.181479e+000 2.670091e+000 3.603771e+000 3.373489e+000 3.547949e+000 3.753488e+000 3.550575e+000 2.938936e+000 3.550848e+000 2.013278e+000 2.236854e+000 2.301622e+000 4.042955e+000 3.279017e-001 3.354746e-001 5.205892e-001 4.490739e-001 6.515498e-001 5.856280e-001 5.477214e-001 5.456091e-001 6.181530e-001 3.845887e-001 3.902678e-001 3.817731e-001 4.596053e-001
<GCONST> 1.212237e+002
<MIXTURE> 5 8.946551e-002
<MEAN> 39
 -8.043648e+000 -2.679912e+000 -5.933228e+000 -5.987424e+000 -6.445686e+000 -4.173617e+000 -5.199583e+000 -1.416267e+000 -5.833561e-001 3.539342e-001 -1.392924e+000 -2.335186e+000 5.281313e+001 9.261259e-003 5.234261e-002 1.732846e-002 9.147894e-002 9.934536e-002 1.862869e-001 1.833000e-001 1.489697e-001 9.607248e-002 1.209838e-001 1.241408e-001 1.342728e-001 -1.260743e-001 9.805793e-003 1.408219e-002 4.656984e-002 1.452621e-002 3.328833e-002 3.684805e-003 4.635748e-003 2.369532e-002 3.335145e-002 5.467927e-002 2.421250e-002 2.542314e-002 6.514624e-002
<VARIANCE> 39
 1.562537e+001 1.038169e+001 3.114138e+001 1.576485e+001 1.827751e+001 2.009766e+001 2.328103e+001 1.858184e+001 2.191665e+001 1.699865e+001 1.746360e+001 1.424249e+001 5.049214e+001 1.971979e-001 3.330593e-001 5.711725e-001 6.584031e-001 8.623544e-001 1.007737e+000 1.063223e+000 1.194081e+000 1.280665e+000 1.232922e+000 1.157750e+000 9.857228e-001 1.678440e-001 4.535605e-002 7.480778e-002 1.088947e-001 1.451548e-001 1.743278e-001 2.114403e-001 2.325224e-001 2.394867e-001 2.675521e-001 2.498188e-001 2.343636e-001 2.020817e-001 6.250311e-002
<GCONST> 8.094856e+001
<MIXTURE> 6 6.276368e-002
<MEAN> 39
 -3.174147e+000 -4.222751e+000 9.517218e-001 -9.559944e+000 -1.059904e+001 -6.724787e+000 -1.571965e+001 -5.748831e+000 -4.355483e+000 4.721314e+000 1.437779e+000 -4.858657e+000 6.872813e+001 4.002715e-001 -2.142997e-001 3.369358e-001 -4.841587e-001 -3.190677e-001 2.973592e-001 -7.554116e-001 3.685609e-001 -9.819447e-002 6.209425e-001 1.009947e-001 -1.142477e-001 5.629058e-001 -1.672045e-001 2.015495e-001 -1.475894e-001 9.299145e-002 2.120456e-001 4.490465e-002 4.155701e-001 2.263864e-001 1.973339e-001 -8.649793e-002 -1.414362e-001 1.382223e-001 -2.739091e-001
<VARIANCE> 39
 2.017244e+001 2.641152e+001 7.963641e+001 5.226765e+001 6.503169e+001 7.299883e+001 5.523281e+001 6.083541e+001 7.290880e+001 3.768432e+001 4.386842e+001 4.038766e+001 1.539295e+001 2.523690e+000 2.589116e+000 3.867285e+000 5.576616e+000 5.204013e+000 5.468276e+000 5.881759e+000 5.257442e+000 5.248578e+000 3.576881e+000 3.790756e+000 3.164691e+000 2.586720e+000 4.018367e-001 4.232487e-001 6.772331e-001 8.644414e-001 1.001527e+000 8.437949e-001 1.004105e+000 9.205345e-001 1.079273e+000 6.421181e-001 7.364795e-001 6.583425e-001 3.138670e-001
<GCONST> 1.342985e+002
<MIXTURE> 7 7.226775e-002
<MEAN> 39
 -2.026119e+001 -1.423150e+000 -1.398051e+000 -6.325572e+000 -4.998299e+000 -1.098728e+001 -2.384176e+000 -3.286141e+000 2.626134e+000 9.815918e-001 7.717077e-001 2.787441e-001 6.728935e+001 2.082488e-002 -1.752750e-002 4.039055e-001 1.757000e-001 -9.128576e-002 3.802521e-003 2.695237e-002 1.282191e-001 3.379453e-002 1.238842e-001 -3.510753e-002 8.873041e-002 3.294951e-001 9.193664e-001 2.456741e-001 2.945617e-001 -7.516746e-003 -2.211302e-001 1.375735e-001 -5.328748e-001 4.468375e-003 -2.807905e-001 1.462725e-001 -6.713219e-002 -2.336630e-001 -2.588147e-001
<VARIANCE> 39
 4.953716e+001 4.215697e+001 6.104397e+001 3.130069e+001 4.767640e+001 3.880893e+001 3.926538e+001 2.896162e+001 3.132478e+001 2.307643e+001 1.749369e+001 1.791045e+001 1.397066e+001 6.064688e+000 2.136184e+000 3.306474e+000 2.193458e+000 2.637169e+000 3.238947e+000 3.561618e+000 2.614246e+000 2.656994e+000 1.829358e+000 1.892506e+000 1.831537e+000 3.191786e+000 3.987851e-001 4.451663e-001 4.808539e-001 4.955187e-001 5.596021e-001 6.645591e-001 6.044672e-001 5.491801e-001 4.807870e-001 3.977404e-001 3.905998e-001 3.673814e-001 2.787974e-001
<GCONST> 1.191793e+002
<MIXTURE> 8 4.580523e-002
<MEAN> 39
 -7.680375e+000 1.240523e+000 5.233093e+000 -4.447806e+000 -1.037963e+001 -1.002649e+001 -8.071862e+000 -4.445841e+000 -4.121362e+000 1.182803e+000 8.020613e-001 -4.037380e+000 6.376582e+001 1.105139e+000 -7.945284e-002 9.410844e-001 -3.553234e-001 -7.880473e-001 -1.416636e-001 -1.030683e+000 -7.078870e-003 -7.783588e-001 2.961674e-001 3.406652e-001 -3.527232e-001 6.821436e-001 -2.841124e-001 -3.346311e-001 -2.874385e-001 -3.177596e-001 1.570802e-001 9.121028e-002 -3.363325e-002 1.900323e-001 2.213071e-001 2.211861e-001 2.041560e-002 9.823334e-002 3.004935e-001
<VARIANCE> 39
 3.088975e+001 2.292688e+001 8.843832e+001 2.280244e+001 5.408674e+001 3.717796e+001 3.616679e+001 2.516637e+001 4.919672e+001 1.884307e+001 2.325560e+001 2.604844e+001 3.269482e+001 6.300516e+000 3.368697e+000 5.091724e+000 3.331222e+000 4.627804e+000 3.627165e+000 5.826203e+000 3.002476e+000 4.341185e+000 2.156700e+000 2.566853e+000 2.706111e+000 2.555640e+000 4.146499e-001 3.569889e-001 6.400570e-001 4.332404e-001 6.919963e-001 5.769073e-001 6.897553e-001 5.148227e-001 6.204499e-001 3.418103e-001 3.998194e-001 3.375968e-001 4.583524e-001
<GCONST> 1.241963e+002
<MIXTURE> 9 7.186521e-002
<MEAN> 39
 -8.475364e+000 -2.801307e+000 -6.374077e+000 -5.814662e+000 -6.567791e+000 -4.503720e+000 -5.169158e+000 -1.733291e+000 -7.501482e-001 -7.714832e-002 -1.660316e+000 -2.216121e+000 5.193598e+001 -5.229189e-002 -1.007362e-001 -1.928313e-001 -1.699483e-001 -2.017561e-001 -1.824995e-001 -2.531972e-001 -2.846021e-001 -2.879235e-001 -3.078175e-001 -2.573535e-001 -1.918918e-001 -1.478192e-001 -2.388604e-002 -3.066799e-002 -1.426711e-002 -7.249287e-002 -2.944360e-002 -8.200004e-002 -6.645999e-002 -6.341725e-002 -5.414252e-002 -4.774397e-002 -6.059646e-002 -4.062327e-002 6.152420e-002
<VARIANCE> 39
 1.229784e+001 8.605819e+000 2.521927e+001 1.294014e+001 1.648083e+001 1.873215e+001 2.118496e+001 1.701057e+001 2.084710e+001 1.593038e+001 1.571426e+001 1.432581e+001 4.028667e+001 2.041916e-001 3.273160e-001 5.326830e-001 6.295382e-001 8.569815e-001 9.686478e-001 1.077610e+000 1.155968e+000 1.295620e+000 1.276204e+000 1.154271e+000 1.058157e+000 1.683104e-001 4.264585e-002 6.697353e-002 9.830745e-002 1.395876e-001 1.766400e-001 2.156606e-001 2.339724e-001 2.448656e-001 2.711474e-001 2.600399e-001 2.368903e-001 2.209747e-001 6.401164e-002
<GCONST> 7.919611e+001
<MIXTURE> 10 8.742417e-002
<MEAN> 39
 -2.284347e+000 -6.612456e+000 -4.393443e+000 -1.519579e+001 -7.623312e+000 -3.866834e+000 -1.766279e+001 -8.368143e-001 -5.161681e-001 6.658997e+000 -4.220607e+000 -4.421966e+000 7.137340e+001 1.731026e-001 1.490919e-001 -4.542873e-002 -1.149271e-001 9.654442e-002 9.530755e-002 -7.851428e-002 2.108382e-002 -2.170880e-001 8.346344e-002 -1.499558e-001 -3.637322e-002 -2.365800e-001 -1.601371e-001 2.616625e-001 9.099092e-002 4.402488e-001 6.364294e-003 -1.789955e-001 3.792822e-001 -2.342899e-001 -1.549917e-002 -2.830940e-001 1.782354e-001 -1.961719e-002 -3.658299e-001
<VARIANCE> 39
 1.018351e+001 2.516101e+001 5.659259e+001 4.430996e+001 5.484095e+001 8.991685e+001 4.783191e+001 5.656232e+001 5.610572e+001 3.477936e+001 4.980354e+001 2.920596e+001 1.500747e+001 7.528250e-001 1.786089e+000 2.079089e+000 3.268548e+000 3.007892e+000 3.503974e+000 3.124229e+000 4.066308e+000 3.424089e+000 2.492075e+000 2.875524e+000 2.124763e+000 1.682040e+000 1.942071e-001 2.436958e-001 3.482412e-001 4.235344e-001 5.153874e-001 5.576612e-001 5.801433e-001 6.791120e-001 6.375478e-001 4.394669e-001 4.958836e-001 4.185566e-001 2.063805e-001
<GCONST> 1.190417e+002
<MIXTURE> 11 5.689550e-002
<MEAN> 39
 -3.678206e+000 -4.362556e+000 1.290686e+000 -9.596873e+000 -1.171688e+001 -7.419052e+000 -1.671519e+001 -6.402079e+000 -4.598602e+000 3.979955e+000 8.021095e-001 -6.079326e+000 6.890433e+001 4.031227e-001 -4.087826e-001 2.615281e-001 -5.744026e-001 -6.298315e-001 1.449751e-001 -1.089161e+000 2.777511e-001 -3.174872e-001 3.832575e-001 -7.148347e-002 -5.369200e-001 6.213087e-001 -1.694699e-001 1.495522e-001 -2.162220e-001 5.489428e-003 2.105548e-001 1.959596e-002 3.805806e-001 2.780509e-001 1.553039e-001 -1.065768e-001 -1.883416e-001 1.460454e-001 -2.310454e-001
<VARIANCE> 39
 2.244926e+001 2.655946e+001 8.304823e+001 5.162790e+001 6.863363e+001 7.384636e+001 5.669785e+001 6.194491e+001 7.836090e+001 4.191193e+001 4.762077e+001 4.084242e+001 1.622334e+001 2.531300e+000 2.510479e+000 3.811721e+000 5.528193e+000 5.161362e+000 5.608100e+000 6.137281e+000 5.357553e+000 5.526535e+000 3.564745e+000 4.152071e+000 3.080487e+000 2.451764e+000 4.107185e-001 4.142567e-001 6.470554e-001 8.440812e-001 9.987299e-001 8.643978e-001 1.011941e+000 9.250308e-001 1.111877e+000 6.611317e-001 8.019146e-001 6.491458e-001 3.126991e-001
<GCONST> 1.350519e+002
<MIXTURE> 12 5.786654e-002
<MEAN> 39
 -4.502766e+000 -1.211661e+000 -4.612878e-002 -9.616002e+000 -9.876833e+000 -5.655333e+000 -1.095665e+001 -2.225263e+000 -3.546056e+000 2.358356e+000 -8.988174e-001 -4.945733e+000 6.359808e+001 -6.831084e-003 1.378947e-001 -1.955329e-001 1.586163e-001 -2.421010e-002 6.941120e-002 2.468950e-001 -3.971006e-002 9.231403e-002 -2.118754e-001 -1.348495e-001 -6.273846e-002 -6.010930e-001 -8.717489e-002 -1.297327e-001 -1.586817e-002 -4.023092e-002 -3.693185e-004 -9.690075e-002 -5.039092e-002 -6.651179e-002 2.867263e-002 4.241560e-002 -1.104143e-002 6.036439e-002 1.492711e-001
<VARIANCE> 39
 3.638746e+001 3.114112e+001 8.269991e+001 3.992299e+001 5.173475e+001 5.364680e+001 4.459138e+001 4.024366e+001 5.320881e+001 3.187477e+001 3.307879e+001 3.578531e+001 5.224201e+001 4.838622e-001 7.250159e-001 1.036750e+000 1.300908e+000 1.353213e+000 1.397884e+000 1.400709e+000 1.543073e+000 1.603689e+000 1.311635e+000 1.401855e+000 1.351591e+000 8.185039e-001 8.951509e-002 1.443480e-001 1.731710e-001 2.328418e-001 2.544447e-001 2.390375e-001 2.695128e-001 2.970968e-001 3.136851e-001 2.667916e-001 2.526617e-001 2.475804e-001 1.674975e-001
<GCONST> 1.026202e+002
<MIXTURE> 13 6.810874e-002
<MEAN> 39
 -1.966681e+001 -2.156691e+000 -1.262583e+000 -6.529328e+000 -5.370837e+000 -1.100599e+001 -2.915826e+000 -3.540223e+000 2.278610e+000 8.473774e-001 3.427858e-001 -5.695654e-002 6.686097e+001 4.623759e-002 -2.618464e-001 1.329504e-001 -1.836793e-001 -4.569296e-001 -3.435968e-001 -4.586561e-001 -2.918117e-001 -3.438379e-001 -2.064705e-001 -3.301636e-001 -2.074555e-001 4.285709e-001 8.845235e-001 2.296059e-001 1.966102e-001 -1.077340e-001 -3.300338e-001 7.669967e-002 -6.661982e-001 -4.594819e-002 -3.554572e-001 1.085693e-001 -1.043212e-001 -3.145988e-001 -2.186298e-001
<VARIANCE> 39
 5.173320e+001 4.158781e+001 5.970703e+001 3.333836e+001 4.771388e+001 3.962316e+001 3.965480e+001 2.932290e+001 3.155896e+001 2.403167e+001 1.785773e+001 1.868403e+001 1.464103e+001 6.552918e+000 2.210356e+000 3.306700e+000 2.226509e+000 2.806644e+000 3.359374e+000 3.983971e+000 2.710515e+000 2.900812e+000 1.927396e+000 2.092833e+000 2.023080e+000 3.488346e+000 3.987269e-001 4.533686e-001 4.891149e-001 5.240686e-001 6.019403e-001 6.579849e-001 6.671225e-001 5.459576e-001 4.932593e-001 4.223236e-001 4.185244e-001 3.995985e-001 2.884433e-001
<GCONST> 1.207737e+002
<MIXTURE> 14 7.152393e-002
<MEAN> 39
 -5.368843e+000 3.655298e-001 1.900414e+000 -5.393755e+000 -1.025122e+001 -8.278323e+000 -8.975482e+000 -3.318922e+000 -3.581629e+000 2.061362e+000 9.860551e-001 -5.229358e+000 6.011419e+001 -6.096941e-001 -6.145505e-001 -7.099368e-001 -3.837901e-002 3.929390e-001 -1.954035e-001 3.924951e-001 -2.828096e-001 3.600717e-001 -3.446566e-001 -2.150965e-001 2.796538e-001 1.253210e-002 -3.711902e-001 -3.632907e-001 9.885719e-003 -3.858490e-001 8.692721e-003 -1.577254e-001 -1.874177e-001 -6.271629e-002 -2.142464e-002 7.948464e-002 -1.067506e-001 1.163467e-001 7.408468e-001
<VARIANCE> 39
 2.713325e+001 1.902984e+001 7.300886e+001 2.583935e+001 4.797414e+001 3.610796e+001 3.777394e+001 2.612996e+001 4.679322e+001 2.210280e+001 2.362001e+001 2.876753e+001 3.304887e+001 3.057397e+000 2.541517e+000 3.642920e+000 3.207273e+000 3.443738e+000 3.662991e+000 3.306940e+000 2.923893e+000 3.360346e+000 2.126697e+000 2.135097e+000 2.216923e+000 4.483520e+000 3.346083e-001 3.253369e-001 5.111834e-001 4.506449e-001 6.239096e-001 5.791643e-001 5.687954e-001 5.503423e-001 6.142600e-001 3.948965e-001 3.957616e-001 3.673405e-001 5.004987e-001
<GCONST> 1.212109e+002
<MIXTURE> 15 3.902632e-002
<MEAN> 39
 -1.334772e+001 1.695708e-001 1.220527e+000 -7.727293e+000 -6.586481e+000 -1.301453e+001 -7.538607e+000 -3.809418e+000 1.021176e-001 2.042082e+000 -7.198202e-001 -9.611809e-001 6.756457e+001 -1.248773e+000 5.288064e-001 -6.894782e-001 7.055272e-001 5.765782e-001 -2.415715e-001 1.273378e+000 -1.418639e-001 6.684760e-001 -7.029312e-001 2.382167e-001 7.461002e-002 -6.030719e-001 2.078104e-001 -1.796427e-001 -1.545700e-001 -4.421312e-002 -1.719003e-001 3.392645e-001 -2.081107e-001 8.049273e-002 -1.255068e-001 3.336135e-002 -4.935253e-003 -1.959631e-001 -1.676544e-001
<VARIANCE> 39
 8.044991e+001 3.942338e+001 6.228935e+001 3.138703e+001 5.197817e+001 5.065902e+001 5.861395e+001 3.766055e+001 4.966236e+001 2.876098e+001 2.639526e+001 2.144719e+001 1.199808e+001 4.602309e+000 2.481138e+000 2.850257e+000 2.576688e+000 2.883228e+000 3.257613e+000 3.999620e+000 2.815494e+000 3.249517e+000 2.295973e+000 2.517391e+000 2.115184e+000 2.600348e+000 5.709202e-001 4.357828e-001 4.098467e-001 4.753541e-001 5.024744e-001 5.537003e-001 7.350567e-001 5.274966e-001 6.118501e-001 4.171538e-001 4.309521e-001 3.431410e-001 2.587070e-001
<GCONST> 1.228263e+002
<MIXTURE> 16 3.737272e-002
<MEAN> 39
 -8.565733e+000 1.088597e+000 5.398851e+000 -5.175851e+000 -1.093083e+001 -1.068412e+001 -8.745853e+000 -5.244193e+000 -4.359778e+000 5.610284e-001 -4.041961e-003 -4.390374e+000 6.412108e+001 1.422032e+000 -1.483841e-001 9.920625e-001 -6.855945e-001 -1.328060e+000 -4.731871e-001 -1.755686e+000 -2.974219e-001 -1.331131e+000 -7.617590e-003 1.657840e-001 -8.216704e-001 8.171216e-001 -3.390301e-001 -4.267872e-001 -3.593864e-001 -3.983076e-001 7.394872e-002 7.397798e-002 -8.977710e-002 2.050588e-001 1.713196e-001 2.224541e-001 4.823143e-002 5.515474e-002 3.397776e-001
<VARIANCE> 39
 3.301261e+001 2.229515e+001 9.132793e+001 2.306606e+001 5.652514e+001 3.619438e+001 3.923758e+001 2.572244e+001 5.005175e+001 2.033375e+001 2.526244e+001 2.852541e+001 3.447842e+001 6.506288e+000 3.504328e+000 5.237706e+000 3.160875e+000 4.965444e+000 3.617808e+000 6.051913e+000 3.062675e+000 4.517496e+000 2.370510e+000 2.786592e+000 3.138159e+000 2.501537e+000 4.307932e-001 3.659284e-001 6.484494e-001 4.116024e-001 6.907122e-001 5.516129e-001 7.111302e-001 5.317507e-001 6.395838e-001 3.444876e-001 4.018837e-001 3.499349e-001 4.633447e-001
<GCONST> 1.253664e+002
<TRANSP> 3
 0.000000e+000 1.000000e+000 0.000000e+000
 0.000000e+000 9.983178e-001 1.682227e-003
 0.000000e+000 0.000000e+000 0.000000e+000
<ENDHMM>
~h "PB"
<BEGINHMM>
<NUMSTATES> 3
<STATE> 2
<NUMMIXES> 16
<MIXTURE> 1 4.387644e-002
<MEAN> 39
 -1.007595e+001 2.745433e+000 -1.725046e+000 6.948155e-001 -2.189789e-001 2.491761e+000 2.574198e+000 3.504136e+000 3.070159e+000 2.327860e+000 1.652763e+000 7.383215e-001 4.984215e+001 1.108088e-001 1.589465e-001 2.928686e-001 3.834970e-001 4.789419e-001 5.207340e-001 5.337766e-001 5.781301e-001 6.069047e-001 5.680596e-001 3.981040e-001 2.333055e-001 -2.348744e-003 -1.342350e-002 5.366450e-003 8.863379e-003 5.111158e-002 2.222776e-002 5.609528e-002 -2.102632e-002 8.029527e-004 1.038771e-002 2.091245e-003 4.234787e-002 2.324442e-002 4.675109e-002
<VARIANCE> 39
 1.084597e+000 2.196372e+000 3.858231e+000 5.397885e+000 6.872644e+000 8.299952e+000 9.176435e+000 1.103804e+001 1.117694e+001 1.013418e+001 1.046324e+001 9.086006e+000 6.314706e-001 1.437505e-001 2.186692e-001 3.592811e-001 5.088679e-001 5.991876e-001 9.135113e-001 1.067723e+000 1.064012e+000 1.068171e+000 1.019805e+000 1.166757e+000 1.078978e+000 7.837181e-002 2.786046e-002 4.321676e-002 8.034648e-002 1.154525e-001 1.512273e-001 1.817693e-001 2.176326e-001 2.483050e-001 2.587908e-001 2.327169e-001 2.449406e-001 2.189423e-001 1.147539e-002
<GCONST> 5.708593e+001
<MIXTURE> 2 5.962133e-002
<MEAN> 39
 -2.073519e+000 1.692671e+000 8.814951e+000 -4.883883e+000 -1.394624e+001 -3.652511e+000 -1.135794e+001 1.965200e+000 -7.035602e-001 6.011971e-001 1.308330e+000 -5.141502e+000 6.973022e+001 -3.048021e-001 1.636665e+000 -3.934527e-001 1.483024e+000 1.330483e+000 -2.736582e-001 1.587218e+000 -2.309425e-001 4.209791e-001 3.400917e-001 -2.216849e-001 9.295585e-001 -1.459471e+000 -3.083239e-001 2.492466e-001 -3.871629e-001 3.030474e-001 6.144220e-001 1.600107e-001 5.295452e-001 -9.389648e-002 1.776630e-001 -9.587767e-002 -6.141953e-002 1.384367e-001 -4.439352e-001
<VARIANCE> 39
 4.597087e+001 4.940328e+001 8.030925e+001 3.658385e+001 7.695744e+001 5.956480e+001 5.233100e+001 4.264849e+001 4.914176e+001 3.156086e+001 2.850719e+001 3.122935e+001 1.695846e+001 1.903666e+000 3.575601e+000 3.079175e+000 3.144905e+000 4.285963e+000 3.699187e+000 4.062275e+000 3.126453e+000 3.207157e+000 2.370095e+000 2.522539e+000 2.460629e+000 1.949935e+000 5.914472e-001 6.605136e-001 6.184359e-001 6.225083e-001 9.524447e-001 7.074452e-001 8.576338e-001 6.181795e-001 6.926334e-001 5.226345e-001 4.910390e-001 5.596464e-001 4.069975e-001
<GCONST> 1.283852e+002
<MIXTURE> 3 3.383399e-002
<MEAN> 39
 -1.210387e+001 3.005147e+000 -2.961155e+000 1.323683e+000 -1.260381e+000 2.524563e+000 -1.440910e-001 1.447132e+000 2.505919e+000 1.587175e+000 2.444668e+000 4.070984e-002 5.418654e+001 -1.636928e-001 9.636370e-003 4.884817e-002 3.287350e-001 2.377007e-001 3.467346e-001 3.675704e-001 2.842046e-001 2.795491e-001 1.756805e-001 3.748645e-001 2.518176e-001 -4.854087e-002 2.028146e-001 5.234681e-002 1.873174e-001 -2.046089e-002 4.778173e-002 -8.076129e-002 5.683510e-002 1.367504e-001 9.691341e-002 6.965251e-002 -4.676482e-002 -1.391850e-002 9.311766e-002
<VARIANCE> 39
 2.188319e+001 1.581863e+001 1.215849e+001 1.331701e+001 1.772656e+001 3.312765e+001 1.977799e+001 2.069459e+001 1.608155e+001 1.597665e+001 1.916862e+001 1.547156e+001 1.536300e+001 1.051293e+000 7.659653e-001 8.383521e-001 9.988422e-001 1.208002e+000 1.920330e+000 1.668508e+000 1.678522e+000 1.525133e+000 1.543504e+000 1.676343e+000 1.492379e+000 9.367441e-001 2.071364e-001 1.493426e-001 1.683455e-001 2.112410e-001 2.628430e-001 3.779531e-001 3.816362e-001 3.370393e-001 3.261798e-001 3.337200e-001 3.489383e-001 3.022157e-001 2.317916e-001
<GCONST> 9.505755e+001
<MIXTURE> 4 8.370280e-002
<MEAN> 39
 -1.285225e+001 6.293101e+000 4.929022e-001 1.839089e-001 -3.837177e+000 -3.127274e+000 -2.108319e+000 1.409826e+000 2.197124e+000 8.573283e-001 9.586024e-001 1.725762e-001 6.409584e+001 -4.866007e-001 -1.050256e-001 1.144608e-001 -2.146557e-002 1.804646e-001 1.846516e-001 2.232551e-001 3.438092e-001 1.641407e-001 1.885424e-001 2.318233e-001 3.050760e-001 5.697994e-001 6.060287e-001 -1.653844e-001 4.488483e-001 -2.693692e-001 -4.404601e-001 7.265981e-002 -4.436424e-001 3.444566e-004 -1.078678e-001 -1.095529e-002 5.177438e-002 -3.290234e-001 1.058689e-001
<VARIANCE> 39
 8.515376e+001 5.135825e+001 5.760865e+001 4.241787e+001 4.128040e+001 4.811930e+001 4.065359e+001 4.194003e+001 3.102752e+001 2.709955e+001 2.350821e+001 2.364822e+001 2.547807e+001 7.661759e+000 3.568523e+000 4.736644e+000 3.752977e+000 4.759699e+000 3.900571e+000 4.196387e+000 3.866113e+000 3.314611e+000 2.704987e+000 2.303434e+000 2.700028e+000 4.111110e+000 8.730588e-001 6.867015e-001 6.330599e-001 7.210659e-001 7.276880e-001 7.114747e-001 7.126281e-001 7.331095e-001 5.895250e-001 5.650214e-001 4.778249e-001 4.827171e-001 6.079584e-001
<GCONST> 1.308516e+002
<MIXTURE> 5 1.080853e-001
<MEAN> 39
 6.987394e-001 -1.995364e+000 4.769069e+000 -8.216873e+000 -1.072139e+001 5.331883e-001 -1.124159e+001 1.763043e+000 8.543396e-001 -1.179630e+000 1.097226e+000 -9.222433e+000 7.133846e+001 6.223549e-002 3.393183e-001 2.561954e-002 2.719999e-001 2.550299e-001 1.078977e-001 1.450838e-001 -1.203019e-001 4.468759e-002 1.552787e-001 8.973918e-002 1.556680e-001 -3.447389e-001 -9.712112e-002 2.981410e-001 -5.462445e-003 3.194512e-001 1.432895e-001 -1.306712e-001 2.141889e-001 -6.921756e-002 1.450397e-002 1.252004e-001 -5.504116e-002 2.845532e-001 -2.892095e-001
<VARIANCE> 39
 1.401698e+001 6.622277e+001 7.150581e+001 3.793494e+001 6.706158e+001 4.759030e+001 3.349715e+001 5.396135e+001 4.267881e+001 3.341196e+001 3.549916e+001 3.275653e+001 2.170167e+001 5.717726e-001 2.247112e+000 1.763546e+000 2.195513e+000 2.385868e+000 2.112872e+000 2.143656e+000 2.608185e+000 2.009934e+000 2.029283e+000 1.955739e+000 2.203372e+000 1.138798e+000 1.442588e-001 4.164120e-001 3.101042e-001 4.208992e-001 4.532684e-001 3.785368e-001 4.194407e-001 5.747429e-001 4.065470e-001 3.721063e-001 3.956239e-001 4.168493e-001 2.306230e-001
<GCONST> 1.141307e+002
<MIXTURE> 6 5.421731e-002
<MEAN> 39
 -1.453224e+000 2.341566e+000 6.177599e+000 -3.652369e+000 -1.085798e+001 -2.240532e+000 -1.018171e+001 -2.238509e-001 1.118239e-001 3.361604e-001 6.332860e-001 -4.938288e+000 6.798089e+001 1.260397e+000 -1.273665e+000 1.170077e+000 -1.490006e+000 -1.833726e+000 3.301608e-002 -1.795390e+000 5.955667e-001 -2.161847e-001 3.758980e-002 3.461535e-001 -8.980825e-001 1.766510e+000 -3.168174e-001 -2.623609e-002 -1.307303e-001 -1.075891e-003 1.854362e-001 1.698414e-001 2.478651e-001 1.645330e-001 5.879150e-002 1.460620e-004 1.421660e-001 5.019056e-002 -1.706648e-001
<VARIANCE> 39
 3.012936e+001 4.349778e+001 5.904433e+001 4.223746e+001 5.457639e+001 4.809121e+001 4.676785e+001 4.765391e+001 4.143198e+001 2.836231e+001 2.595377e+001 2.777329e+001 2.590826e+001 5.110985e+000 4.234675e+000 5.131973e+000 4.094085e+000 6.034345e+000 5.250596e+000 4.708100e+000 6.787852e+000 4.810262e+000 3.331629e+000 3.480233e+000 3.816790e+000 2.168291e+000 5.853473e-001 6.643701e-001 6.162309e-001 7.564766e-001 9.601342e-001 7.301784e-001 9.549771e-001 9.714885e-001 7.363713e-001 5.793778e-001 5.869526e-001 6.419372e-001 5.260870e-001
<GCONST> 1.337296e+002
<MIXTURE> 7 8.566187e-002
<MEAN> 39
 -9.961848e+000 2.690636e+000 -1.728345e+000 5.933127e-001 -3.212949e-001 2.255086e+000 2.563390e+000 3.584622e+000 2.950067e+000 2.175516e+000 1.521317e+000 6.839679e-001 4.969970e+001 4.308158e-002 2.038345e-002 -3.142138e-003 -5.061450e-002 -6.439441e-002 -8.440889e-002 -6.321669e-002 -7.147697e-002 -8.038139e-002 -3.565988e-002 6.793750e-003 7.440752e-002 -3.287294e-003 -6.871907e-003 9.480345e-003 9.086614e-003 2.689676e-002 2.738389e-002 6.053559e-002 2.086664e-002 2.228318e-002 3.866779e-002 4.596711e-002 4.594914e-002 3.021615e-002 2.513763e-002
<VARIANCE> 39
 7.809800e-001 1.822509e+000 3.202023e+000 4.847293e+000 6.292002e+000 7.877327e+000 9.365631e+000 9.614233e+000 9.866068e+000 1.019199e+001 1.005667e+001 8.861277e+000 3.392983e-001 9.491806e-002 1.867935e-001 3.323219e-001 4.991056e-001 6.599497e-001 7.769902e-001 9.297927e-001 1.029547e+000 1.028268e+000 1.083160e+000 1.102202e+000 9.648637e-001 3.759921e-002 2.012089e-002 3.842498e-002 6.899682e-002 1.085575e-001 1.428825e-001 1.786241e-001 2.156269e-001 2.245142e-001 2.285789e-001 2.430949e-001 2.307131e-001 1.988509e-001 7.711409e-003
<GCONST> 5.195113e+001
<MIXTURE> 8 4.141597e-002
<MEAN> 39
 -3.763625e+000 6.922812e+000 2.749430e+000 8.222771e-001 -4.529856e+000 -2.068110e+000 -2.764351e+000 4.030344e-001 1.141301e+000 5.893879e-001 2.128206e-001 -2.714492e+000 5.705571e+001 -5.913165e-001 -1.862247e-002 -6.629724e-001 3.378136e-001 5.788592e-001 2.561547e-001 6.293751e-001 -3.540272e-002 1.248619e-001 7.300116e-002 -1.038705e-002 3.709230e-001 -6.638025e-001 -2.126855e-001 -3.692712e-001 2.234916e-002 -3.998173e-001 -2.730193e-001 -9.683698e-003 -3.222133e-001 1.302029e-001 -3.217663e-002 4.434403e-002 1.334055e-001 1.877473e-002 8.397081e-001
<VARIANCE> 39
 3.468317e+001 1.982317e+001 2.992869e+001 1.789174e+001 3.150631e+001 2.862374e+001 2.560789e+001 2.878018e+001 2.626411e+001 1.888653e+001 1.992787e+001 1.939345e+001 1.575161e+001 2.247285e+000 1.643335e+000 1.955106e+000 1.885748e+000 1.879199e+000 1.986142e+000 2.027382e+000 1.879439e+000 1.979466e+000 1.634507e+000 1.529669e+000 1.399317e+000 3.246219e+000 2.798800e-001 3.082742e-001 3.036708e-001 3.037224e-001 3.629938e-001 3.530608e-001 4.259108e-001 3.993361e-001 4.246109e-001 3.395297e-001 3.195903e-001 2.821660e-001 3.356192e-001
<GCONST> 1.071057e+002
<MIXTURE> 9 1.006529e-001
<MEAN> 39
 4.659134e-001 -2.327070e+000 4.907595e+000 -8.743472e+000 -1.187469e+001 9.644407e-001 -1.212182e+001 1.005521e+000 2.027658e-001 -2.008533e+000 8.658422e-001 -1.011466e+001 7.153569e+001 -1.744844e-002 -1.145916e-002 -2.430717e-002 -3.481775e-002 9.616333e-002 1.114549e-001 -4.136785e-002 -7.979812e-002 4.726415e-003 -1.385437e-001 -1.763321e-002 -2.639183e-001 -3.868867e-002 -8.798995e-002 2.166333e-001 -2.147715e-002 2.629966e-001 9.237611e-002 -1.955559e-001 1.569860e-001 -3.375120e-002 1.831768e-002 8.651099e-002 -7.360347e-002 2.227710e-001 -1.915901e-001
<VARIANCE> 39
 1.573366e+001 6.967971e+001 8.225486e+001 3.855363e+001 6.789791e+001 4.825145e+001 3.473706e+001 5.630911e+001 4.343064e+001 3.832140e+001 3.464832e+001 3.195509e+001 2.191465e+001 5.848944e-001 2.079451e+000 1.761278e+000 2.017031e+000 2.359185e+000 2.085031e+000 1.960843e+000 2.632096e+000 1.993896e+000 2.005141e+000 1.943991e+000 2.182497e+000 1.054540e+000 1.422178e-001 3.967007e-001 3.176799e-001 4.086952e-001 4.628070e-001 3.785998e-001 3.971428e-001 5.951883e-001 3.993227e-001 3.737345e-001 3.864191e-001 4.061384e-001 2.159863e-001
<GCONST> 1.141205e+002
<MIXTURE> 10 6.136750e-002
<MEAN> 39
 -1.972545e+000 1.832467e+000 9.056279e+000 -5.302943e+000 -1.446291e+001 -2.899621e+000 -1.182876e+001 1.450819e+000 -1.291334e+000 2.752515e-001 1.533901e+000 -5.833802e+000 6.912726e+001 -2.781975e-001 1.231386e+000 -4.865328e-001 1.214710e+000 1.030483e+000 -4.453716e-001 1.231859e+000 -4.603628e-001 2.081875e-001 1.275022e-001 -2.812929e-001 6.514672e-001 -1.413752e+000 -2.054916e-001 9.009276e-002 -4.481398e-001 2.056997e-001 5.061767e-001 7.783438e-002 3.699738e-001 -1.542826e-001 1.401564e-001 -1.576651e-001 -1.483471e-001 3.593311e-002 -3.498057e-001
<VARIANCE> 39
 4.475737e+001 4.946862e+001 7.994541e+001 3.656234e+001 7.531372e+001 5.987291e+001 5.179737e+001 4.704956e+001 4.972600e+001 3.406681e+001 2.936300e+001 3.091113e+001 1.923326e+001 1.917315e+000 3.696585e+000 3.342640e+000 3.324270e+000 4.667103e+000 3.749006e+000 4.171350e+000 3.311513e+000 3.434423e+000 2.505472e+000 2.683066e+000 2.705868e+000 2.559860e+000 4.878786e-001 6.837138e-001 6.162893e-001 6.654452e-001 9.815123e-001 7.320725e-001 9.300372e-001 6.884174e-001 7.421097e-001 5.395151e-001 5.127600e-001 5.856213e-001 3.996806e-001
<GCONST> 1.299025e+002
<MIXTURE> 11 6.589523e-002
<MEAN> 39
 -1.013661e+001 2.422843e+000 -2.090436e+000 2.151554e-001 -8.025289e-001 1.869691e+000 2.126405e+000 3.114391e+000 2.491442e+000 1.754955e+000 1.085871e+000 4.029876e-001 4.964833e+001 -6.181938e-002 -1.374279e-001 -2.382640e-001 -3.582162e-001 -3.950060e-001 -4.198588e-001 -3.945722e-001 -4.445582e-001 -4.883952e-001 -4.351315e-001 -3.523785e-001 -1.709476e-001 -5.137571e-002 -2.560397e-002 -1.548347e-002 -2.873889e-002 -1.974066e-002 -6.477737e-003 -7.531933e-003 -3.914893e-002 -4.424433e-002 -3.167225e-002 -2.176078e-002 -1.278089e-002 -1.327590e-002 1.462615e-002
<VARIANCE> 39
 8.050382e-001 1.833463e+000 3.115332e+000 4.703319e+000 5.935127e+000 7.773621e+000 9.580557e+000 9.816028e+000 9.682506e+000 1.046468e+001 1.034786e+001 8.907387e+000 3.531174e-001 9.253611e-002 1.932920e-001 3.425172e-001 5.215387e-001 6.670776e-001 7.827644e-001 9.371646e-001 1.031870e+000 1.015108e+000 1.140556e+000 1.099000e+000 9.610346e-001 3.734871e-002 1.922124e-002 4.078590e-002 7.337129e-002 1.131117e-001 1.452881e-001 1.823350e-001 2.205854e-001 2.248184e-001 2.288089e-001 2.558701e-001 2.317574e-001 2.021371e-001 7.524240e-003
<GCONST> 5.234577e+001
<MIXTURE> 12 7.539918e-002
<MEAN> 39
 -1.064114e+001 5.833455e+000 1.707961e+000 -3.872424e-001 -4.824966e+000 -3.017653e+000 -3.317080e+000 6.466481e-001 1.516856e+000 3.908499e-001 4.440597e-001 -9.082439e-001 6.373050e+001 -1.406429e-001 -4.474425e-001 -6.655968e-002 -4.834738e-001 -2.555795e-001 -1.831906e-001 -3.985576e-001 -1.017690e-001 -3.413662e-001 -2.521204e-001 -2.502941e-001 -1.938260e-001 7.043693e-001 5.640644e-001 -3.083241e-001 3.425817e-001 -4.309123e-001 -6.560020e-001 1.250691e-002 -6.295812e-001 -1.428103e-002 -1.891242e-001 -8.591957e-002 3.804688e-002 -4.519207e-001 3.336094e-001
<VARIANCE> 39
 8.628605e+001 4.376981e+001 5.711571e+001 3.830447e+001 4.167118e+001 4.443824e+001 3.756727e+001 3.875666e+001 3.075287e+001 2.661775e+001 2.303132e+001 2.511621e+001 2.597659e+001 8.616506e+000 3.514547e+000 5.407641e+000 3.740205e+000 5.108748e+000 3.842362e+000 4.325813e+000 3.851202e+000 3.409909e+000 2.733058e+000 2.419092e+000 3.001349e+000 4.251225e+000 8.452513e-001 6.893234e-001 6.368659e-001 6.942941e-001 7.290848e-001 7.080672e-001 7.229485e-001 7.487963e-001 6.005121e-001 5.584112e-001 4.897381e-001 5.117183e-001 5.791025e-001
<GCONST> 1.309524e+002
<MIXTURE> 13 5.045563e-002
<MEAN> 39
 -1.634704e+000 2.444669e+000 6.063314e+000 -4.197861e+000 -1.176994e+001 -2.716717e+000 -1.070228e+001 -6.113073e-001 -4.163341e-001 -6.682171e-001 -1.151821e-001 -5.921998e+000 6.839863e+001 1.593326e+000 -1.479957e+000 1.094799e+000 -1.818023e+000 -2.230525e+000 4.505884e-002 -2.317051e+000 3.860233e-001 -4.151596e-001 -4.360030e-001 1.442020e-001 -1.592703e+000 1.926333e+000 -3.315481e-001 -1.699675e-001 -2.054765e-001 -6.499224e-002 1.442831e-001 1.459916e-001 1.772639e-001 1.571261e-001 5.169289e-002 -2.149279e-002 1.420765e-001 1.769555e-002 -1.053735e-001
<VARIANCE> 39
 3.051577e+001 4.577640e+001 6.331291e+001 4.076884e+001 5.581343e+001 4.464466e+001 4.809957e+001 4.736617e+001 4.291059e+001 2.849392e+001 2.730341e+001 2.857197e+001 2.423812e+001 5.093265e+000 4.337186e+000 5.494089e+000 3.884754e+000 6.273064e+000 5.044068e+000 4.986889e+000 6.408203e+000 4.837081e+000 3.433146e+000 3.584461e+000 4.075562e+000 1.926313e+000 5.510589e-001 6.042974e-001 6.172423e-001 6.911383e-001 9.864610e-001 6.791878e-001 9.401283e-001 8.667804e-001 6.758917e-001 5.351525e-001 5.775516e-001 6.375428e-001 4.925034e-001
<GCONST> 1.332241e+002
<MIXTURE> 14 6.386866e-002
<MEAN> 39
 -1.027918e+001 2.370721e+000 -2.186376e+000 2.589066e-001 -7.078176e-001 1.987874e+000 2.008675e+000 2.953171e+000 2.498211e+000 1.757974e+000 1.206050e+000 2.755995e-001 4.979964e+001 1.847683e-002 5.545007e-003 8.850344e-002 1.298375e-001 1.834521e-001 1.610558e-001 1.805389e-001 2.600476e-001 2.358917e-001 1.847796e-001 -1.472238e-002 -3.822021e-002 -6.427746e-002 -3.618564e-002 -2.016392e-002 -3.656311e-002 -2.120017e-002 -4.219639e-002 -1.086372e-003 -7.560015e-002 -6.303214e-002 -4.827512e-002 -5.618292e-002 -2.137982e-002 -1.878473e-002 3.226138e-002
<VARIANCE> 39
 1.064021e+000 2.099939e+000 3.490826e+000 5.120206e+000 6.547285e+000 7.935940e+000 9.006032e+000 1.054365e+001 1.076378e+001 1.034811e+001 1.080304e+001 9.039320e+000 6.421482e-001 1.423195e-001 2.148053e-001 3.445641e-001 4.960383e-001 6.203433e-001 8.388636e-001 1.015808e+000 1.062150e+000 1.032103e+000 1.019601e+000 1.139264e+000 1.022168e+000 7.531484e-002 2.800535e-002 4.411300e-002 7.929676e-002 1.193464e-001 1.518893e-001 1.798064e-001 2.183620e-001 2.431219e-001 2.466304e-001 2.358229e-001 2.434825e-001 2.169470e-001 1.085166e-002
<GCONST> 5.630388e+001
<MIXTURE> 15 4.011221e-002
<MEAN> 39
 -1.156827e+001 2.901904e+000 -2.968806e+000 7.527640e-001 -1.434910e+000 2.420265e+000 -5.629599e-001 8.502764e-001 2.380915e+000 1.423530e+000 2.246059e+000 -2.489856e-001 5.373804e+001 -2.980686e-001 -1.720058e-001 -2.107950e-001 -2.323483e-002 -1.632913e-001 2.709302e-002 -1.691152e-001 -2.292578e-001 -1.672015e-001 -2.871506e-001 -3.954087e-002 -7.301559e-002 -7.955820e-002 1.622041e-001 1.432550e-002 1.152094e-001 -6.716148e-002 -4.711194e-002 -1.608212e-001 5.745360e-004 1.018290e-001 -2.702281e-002 -2.098302e-002 -1.157634e-001 -7.393494e-002 1.309593e-001
<VARIANCE> 39
 2.034444e+001 1.391526e+001 1.139345e+001 1.269242e+001 1.651421e+001 3.140584e+001 1.992360e+001 2.020341e+001 1.575049e+001 1.522313e+001 1.917989e+001 1.542667e+001 1.164598e+001 1.003497e+000 7.421461e-001 8.499988e-001 9.389544e-001 1.219711e+000 1.836961e+000 1.740410e+000 1.558237e+000 1.501192e+000 1.504573e+000 1.697165e+000 1.459446e+000 9.157268e-001 1.836571e-001 1.466734e-001 1.633749e-001 2.037719e-001 2.586057e-001 3.587147e-001 3.746208e-001 3.199703e-001 3.265724e-001 3.188063e-001 3.451432e-001 2.888802e-001 2.432247e-001
<GCONST> 9.359124e+001
<MIXTURE> 16 3.182006e-002
<MEAN> 39
 -3.479684e+000 6.315722e+000 2.631248e+000 2.031176e-001 -5.132866e+000 -2.400843e+000 -3.471663e+000 1.767191e-001 8.568413e-001 7.422285e-001 3.610182e-001 -2.812714e+000 5.692907e+001 -9.591054e-001 -4.677861e-001 -1.201616e+000 2.600541e-002 3.133948e-001 -2.326677e-001 2.453573e-001 -4.719627e-001 -2.859747e-001 -3.565448e-001 -2.623057e-001 2.883412e-001 -1.214129e+000 -2.510533e-001 -4.143212e-001 -5.474380e-002 -4.938750e-001 -3.782956e-001 -5.080363e-002 -4.187804e-001 3.654054e-002 -1.479405e-001 -2.184922e-002 4.427085e-002 -1.231231e-001 8.982909e-001
<VARIANCE> 39
 2.579070e+001 1.932169e+001 3.441919e+001 1.882245e+001 3.397994e+001 2.877767e+001 2.521720e+001 2.991557e+001 2.995445e+001 2.124323e+001 2.124647e+001 1.996502e+001 1.290898e+001 2.017049e+000 1.485929e+000 1.964524e+000 1.869316e+000 1.954496e+000 2.212517e+000 2.042721e+000 1.879309e+000 1.977685e+000 1.759341e+000 1.544867e+000 1.540321e+000 3.315220e+000 2.490196e-001 3.190063e-001 2.989503e-001 2.897755e-001 3.669510e-001 3.519519e-001 3.902999e-001 3.799824e-001 4.191589e-001 3.687020e-001 3.287693e-001 2.972717e-001 2.934949e-001
<GCONST> 1.071046e+002
<TRANSP> 3
 0.000000e+000 1.000000e+000 0.000000e+000
 0.000000e+000 9.985216e-001 1.478415e-003
 0.000000e+000 0.000000e+000 0.000000e+000
<ENDHMM>
~h "TOMAS"
<BEGINHMM>
<NUMSTATES> 3
<STATE> 2
<NUMMIXES> 16
<MIXTURE> 1 4.935187e-002
<MEAN> 39
 -1.005018e+001 1.774496e+000 1.527549e+000 2.063768e+000 3.726545e+000 1.326703e+000 5.709237e+000 5.736338e+000 6.027540e+000 4.015996e+000 4.820620e+000 4.055223e+000 5.052297e+001 2.547762e-002 8.499586e-002 1.014258e-001 2.262805e-001 2.707417e-001 3.790676e-001 4.117777e-001 2.874291e-001 4.664520e-001 4.784845e-001 4.049478e-001 2.388788e-001 -7.371411e-002 2.346969e-004 2.249581e-002 3.748340e-002 3.451064e-002 3.342963e-002 1.540985e-002 1.317172e-002 1.972204e-002 -1.059445e-002 -4.191072e-004 1.249328e-002 -5.485615e-003 3.537247e-002
<VARIANCE> 39
 1.316833e+000 3.949398e+000 3.998575e+000 6.004751e+000 7.685424e+000 1.310991e+001 1.135081e+001 1.207099e+001 1.427432e+001 1.365534e+001 1.163068e+001 1.130119e+001 1.931077e+000 1.070358e-001 2.274801e-001 3.397243e-001 5.179318e-001 6.707489e-001 9.603472e-001 1.112659e+000 1.094486e+000 1.272053e+000 1.179378e+000 1.020512e+000 9.891108e-001 5.493712e-002 2.544013e-002 4.714392e-002 7.109027e-002 1.124426e-001 1.492755e-001 1.887176e-001 2.291210e-001 2.257373e-001 2.521478e-001 2.624773e-001 2.377762e-001 2.246287e-001 1.364749e-002
<GCONST> 6.063861e+001
<MIXTURE> 2 5.265445e-002
<MEAN> 39
 -4.578268e-001 3.350234e+000 5.656650e+000 -5.891938e+000 -3.341382e+000 -4.238564e-001 -4.711287e+000 -3.936266e+000 -2.020445e+000 1.237080e+000 8.927415e-001 2.337311e+000 6.814358e+001 -2.818638e-001 1.118799e+000 -4.416303e-001 8.962078e-001 1.488864e+000 -6.572251e-001 7.857654e-001 -2.121256e-001 8.372445e-001 2.019087e-001 1.956985e-001 4.268387e-001 -1.038272e+000 -2.173291e-001 1.075264e-001 4.423318e-004 3.125886e-001 1.278715e-001 -1.648930e-001 1.731884e-001 1.633969e-001 1.023753e-001 8.878164e-004 1.959070e-001 -6.129315e-002 -1.763983e-001
<VARIANCE> 39
 3.046569e+001 3.403460e+001 5.328295e+001 9.547298e+001 5.438957e+001 7.759673e+001 5.004876e+001 4.579826e+001 5.105156e+001 4.828917e+001 4.132283e+001 3.108310e+001 1.911289e+001 1.783901e+000 1.999850e+000 1.857644e+000 3.929890e+000 3.604622e+000 4.622602e+000 3.659679e+000 3.196359e+000 3.428047e+000 2.798517e+000 2.750925e+000 2.273545e+000 1.800728e+000 3.118387e-001 3.192816e-001 3.556969e-001 6.223872e-001 6.075668e-001 9.103938e-001 5.544644e-001 5.409141e-001 6.449832e-001 5.234921e-001 4.546617e-001 4.699735e-001 2.233754e-001
<GCONST> 1.246348e+002
<MIXTURE> 3 6.251514e-002
<MEAN> 39
 -7.079408e+000 7.143044e+000 4.199228e+000 -1.023216e+000 3.088052e+000 -4.326687e+000 -7.875851e-001 -2.177751e-001 -1.732014e-001 4.815506e-001 8.281528e-001 3.076969e+000 6.191346e+001 -3.960966e-002 1.687087e-001 1.387982e-001 5.225471e-001 5.769709e-001 2.228587e-001 5.185976e-001 3.169566e-001 3.302731e-001 2.966706e-001 2.150425e-001 6.833676e-002 -7.266372e-001 4.783366e-002 -1.482075e-001 1.014454e-001 4.539268e-002 -1.542662e-001 1.450311e-001 4.756124e-002 -1.645316e-002 5.799133e-002 7.593626e-002 1.336478e-001 -5.098331e-004 5.024530e-002
<VARIANCE> 39
 9.200536e+001 3.945206e+001 4.843884e+001 5.536748e+001 3.422237e+001 5.190910e+001 3.372783e+001 3.478625e+001 2.767298e+001 2.836750e+001 2.432680e+001 2.178554e+001 3.464920e+001 9.459310e-001 1.174231e+000 1.078931e+000 1.453527e+000 1.622763e+000 1.895966e+000 1.568859e+000 1.646088e+000 1.802717e+000 1.885583e+000 1.569955e+000 1.480897e+000 7.913206e-001 1.776358e-001 1.858395e-001 2.090763e-001 2.558935e-001 3.134613e-001 3.471803e-001 3.004826e-001 3.093941e-001 3.362053e-001 3.221077e-001 2.877760e-001 2.903836e-001 1.297804e-001
<GCONST> 1.055836e+002
<MIXTURE> 4 7.751480e-002
<MEAN> 39
 -1.199737e+001 6.345538e+000 3.444320e+000 1.518886e-001 2.345499e+000 -7.636345e+000 8.288879e-001 -2.045332e+000 1.426973e+000 -2.469454e-001 2.661981e+000 3.648206e+000 6.485498e+001 -4.169293e-001 -4.305308e-002 1.830191e-001 -3.905275e-002 -4.159442e-003 1.284254e-002 7.798612e-002 1.962083e-001 2.162340e-001 1.433073e-001 -9.329840e-003 1.698259e-001 5.403844e-001 5.042535e-001 -1.076885e-001 2.990746e-001 -7.702157e-002 -3.766505e-001 3.556003e-001 -3.640866e-001 2.501885e-003 -1.539901e-001 1.083808e-001 1.885302e-002 -1.156836e-001 -4.406002e-002
<VARIANCE> 39
 7.727970e+001 4.837431e+001 5.309641e+001 4.282469e+001 3.814716e+001 4.830919e+001 4.091280e+001 4.319868e+001 4.135613e+001 3.073545e+001 2.365507e+001 1.987958e+001 2.717232e+001 6.929045e+000 3.065112e+000 3.718849e+000 3.159531e+000 4.349016e+000 4.292144e+000 3.784244e+000 3.342003e+000 3.547720e+000 2.728177e+000 2.319445e+000 2.283992e+000 2.717476e+000 6.578460e-001 5.156436e-001 5.324714e-001 6.056007e-001 6.426452e-001 7.245865e-001 7.041413e-001 6.448182e-001 6.185825e-001 5.315226e-001 4.316489e-001 4.290933e-001 3.990480e-001
<GCONST> 1.276690e+002
<MIXTURE> 5 7.954591e-002
<MEAN> 39
 4.504520e-002 1.049552e+000 1.037783e+001 -3.754881e+000 -1.037353e+001 -9.836888e-001 -8.200071e+000 -1.414456e+000 -5.393486e+000 1.128278e-001 3.572239e+000 7.827967e-002 7.025444e+001 2.291442e-001 1.637485e-001 -6.349202e-002 -5.823899e-002 3.639518e-001 2.736924e-001 5.152771e-002 1.784779e-001 6.042554e-003 2.883324e-001 1.371521e-001 1.875301e-002 -2.790556e-001 -2.194579e-001 3.973604e-001 -2.934421e-001 3.154417e-001 7.463217e-001 -3.511555e-001 4.801244e-001 -1.672714e-001 4.088728e-001 -7.267538e-003 -1.143940e-001 1.600771e-001 -4.338217e-001
<VARIANCE> 39
 1.701016e+001 3.221205e+001 8.348780e+001 6.563689e+001 5.317084e+001 6.221448e+001 4.778326e+001 5.706115e+001 5.435614e+001 5.433824e+001 4.470739e+001 2.486638e+001 1.807032e+001 9.220362e-001 1.902599e+000 2.140047e+000 3.107379e+000 4.429008e+000 4.064836e+000 3.115838e+000 3.351368e+000 3.510834e+000 2.339215e+000 2.462213e+000 1.882947e+000 1.262959e+000 2.557954e-001 3.144963e-001 4.552395e-001 4.676928e-001 7.581778e-001 6.732063e-001 6.232198e-001 6.614410e-001 6.392900e-001 5.236828e-001 4.817216e-001 3.918399e-001 2.011608e-001
<GCONST> 1.220809e+002
<MIXTURE> 6 5.891616e-002
<MEAN> 39
 -5.080293e+000 4.550337e+000 6.505507e+000 2.769255e-001 -1.551965e+000 -4.872662e+000 -1.854639e+000 -2.959641e+000 3.571595e-001 -2.440025e-002 2.057601e+000 1.900395e+000 6.333622e+001 6.531376e-001 -7.763722e-001 7.654337e-001 -9.459130e-001 -1.601672e+000 4.575075e-001 -8.934106e-001 1.171452e-001 -7.383710e-001 -7.839776e-002 -7.320693e-002 -9.148693e-002 1.853862e+000 1.574974e-003 -6.944492e-002 9.920151e-003 -2.019346e-001 -1.126591e-001 2.294336e-001 -1.330762e-001 1.590591e-001 -1.049811e-001 1.152444e-001 1.390696e-001 3.114829e-002 1.083702e-001
<VARIANCE> 39
 4.389133e+001 2.690078e+001 5.119168e+001 4.661679e+001 5.007480e+001 4.390739e+001 4.724712e+001 3.919577e+001 3.880677e+001 3.351611e+001 2.339668e+001 1.734020e+001 4.756389e+001 6.990280e+000 3.050735e+000 5.321737e+000 4.832267e+000 5.606907e+000 6.456500e+000 6.197890e+000 4.373649e+000 4.669381e+000 4.064696e+000 2.822659e+000 2.478002e+000 2.450264e+000 6.212979e-001 4.195712e-001 5.317914e-001 5.737783e-001 8.356572e-001 7.878624e-001 8.135123e-001 5.919397e-001 6.459958e-001 5.757972e-001 4.492402e-001 4.268998e-001 6.389008e-001
<GCONST> 1.309985e+002
<MIXTURE> 7 6.019909e-002
<MEAN> 39
 -1.093863e+001 1.650716e+000 3.279370e+000 2.925228e+000 3.379482e+000 -2.826604e+000 5.269393e+000 3.382255e+000 2.223727e+000 1.191449e+000 4.207238e+000 3.107987e+000 5.279351e+001 3.045566e-003 3.203117e-002 8.856130e-002 1.159599e-001 4.331297e-002 1.202269e-001 1.444816e-001 3.840278e-002 3.446539e-002 -4.328986e-002 3.833975e-002 3.296372e-002 -6.827915e-002 2.752449e-002 4.899727e-002 -2.631770e-002 -3.567056e-002 -6.610208e-003 4.644037e-002 5.852294e-003 9.161779e-002 8.483383e-002 1.318147e-001 2.345167e-002 1.160961e-002 3.899367e-002
<VARIANCE> 39
 3.234001e+000 5.829574e+000 5.357214e+000 6.760738e+000 9.040606e+000 2.256113e+001 1.305690e+001 1.983204e+001 1.999269e+001 1.550199e+001 1.347260e+001 1.411300e+001 5.911106e+000 1.784314e-001 3.014422e-001 3.893540e-001 6.670348e-001 7.715832e-001 1.010751e+000 1.167684e+000 1.229020e+000 1.220371e+000 1.297187e+000 1.251213e+000 1.107581e+000 8.467256e-002 3.069107e-002 5.592183e-002 8.430670e-002 1.246663e-001 1.561852e-001 1.993379e-001 2.332976e-001 2.623311e-001 2.627847e-001 2.816412e-001 2.494203e-001 2.306081e-001 2.123798e-002
<GCONST> 6.950014e+001
<MIXTURE> 8 6.013880e-002
<MEAN> 39
 -1.524605e+000 6.152263e+000 5.717321e+000 -2.325925e-001 9.858651e-002 -2.216766e+000 -2.294852e+000 -1.959286e+000 3.189555e-001 2.073058e+000 3.041827e+000 1.108300e+000 6.010467e+001 -2.264400e-001 1.689964e-001 -1.755965e-001 3.407735e-001 2.940114e-001 -2.043234e-003 4.182985e-001 5.574397e-002 1.520868e-001 1.030649e-001 2.773172e-001 2.437883e-001 -5.599177e-001 -1.875163e-001 -1.840295e-001 7.744614e-002 -1.780745e-001 -1.339114e-001 -8.094776e-002 -1.248437e-002 8.629286e-002 -1.686797e-001 -1.550245e-001 -1.024835e-001 1.156548e-001 4.127335e-001
<VARIANCE> 39
 3.252026e+001 2.571529e+001 3.662712e+001 5.642931e+001 3.432721e+001 4.465541e+001 3.676498e+001 3.542230e+001 3.183013e+001 3.274128e+001 2.662785e+001 1.947319e+001 3.491388e+001 6.108262e-001 9.445832e-001 8.710045e-001 1.238760e+000 1.432965e+000 1.823448e+000 1.451817e+000 1.656488e+000 1.856958e+000 1.498215e+000 1.594556e+000 1.394810e+000 8.459159e-001 1.428751e-001 1.762650e-001 2.181003e-001 2.943044e-001 3.471643e-001 4.231687e-001 3.761134e-001 3.433889e-001 3.998138e-001 3.568194e-001 3.142299e-001 2.737797e-001 2.196869e-001
<GCONST> 1.040109e+002
<MIXTURE> 9 7.795866e-002
<MEAN> 39
 -4.868925e-001 7.512549e-001 1.085567e+001 -4.119258e+000 -1.146450e+001 -1.899842e+000 -9.518580e+000 -1.191597e+000 -6.317899e+000 -4.432082e-001 3.769347e+000 -6.690646e-001 7.082070e+001 2.274201e-001 -5.332885e-002 -6.193606e-002 -1.779207e-001 -3.950110e-002 1.224998e-001 -3.341604e-001 1.395179e-001 -2.206324e-001 2.355901e-002 3.264599e-002 -2.476771e-001 -9.960762e-002 -2.450726e-001 3.403112e-001 -3.529388e-001 2.581905e-001 7.235001e-001 -3.203894e-001 4.776383e-001 -2.147388e-001 4.302203e-001 -3.994031e-002 -1.726662e-001 1.527280e-001 -4.216173e-001
<VARIANCE> 39
 1.692575e+001 3.391682e+001 8.402617e+001 6.130498e+001 5.263397e+001 6.349895e+001 4.977246e+001 5.724331e+001 5.508369e+001 5.512094e+001 4.471840e+001 2.444340e+001 1.971083e+001 9.702545e-001 1.932658e+000 2.244947e+000 2.966533e+000 4.575733e+000 3.791148e+000 3.380673e+000 3.375211e+000 3.553967e+000 2.311814e+000 2.508549e+000 1.877050e+000 1.307624e+000 2.700723e-001 3.268246e-001 4.414555e-001 4.424280e-001 7.751755e-001 6.254169e-001 6.800180e-001 6.481777e-001 6.224165e-001 5.119067e-001 4.737298e-001 3.866700e-001 2.135821e-001
<GCONST> 1.223903e+002
<MIXTURE> 10 7.539150e-002
<MEAN> 39
 -1.165363e+001 5.858771e+000 3.790347e+000 2.499554e-002 1.547788e+000 -8.080933e+000 1.867182e-001 -2.543470e+000 9.924294e-001 -8.480704e-001 2.193262e+000 3.078746e+000 6.489149e+001 -1.612217e-001 -3.585946e-001 9.362897e-002 -3.706174e-001 -4.818727e-001 -2.094073e-001 -2.854502e-001 -1.103520e-001 -2.164784e-001 -2.611876e-001 -3.998284e-001 -1.612175e-001 7.677350e-001 5.104116e-001 -1.087360e-001 2.455990e-001 -1.417914e-001 -4.623254e-001 3.113025e-001 -4.554304e-001 -3.754172e-002 -2.504269e-001 4.955729e-002 -1.165505e-002 -1.510215e-001 3.440769e-002
<VARIANCE> 39
 8.050858e+001 4.370492e+001 5.143319e+001 4.269844e+001 3.801391e+001 4.665325e+001 4.015022e+001 4.258629e+001 4.000134e+001 3.049814e+001 2.143255e+001 1.980257e+001 2.951539e+001 6.794972e+000 2.917646e+000 3.727551e+000 3.170085e+000 4.216980e+000 4.356858e+000 3.921270e+000 3.316732e+000 3.766343e+000 2.756986e+000 2.264920e+000 2.203318e+000 2.856437e+000 6.664305e-001 5.114756e-001 5.295859e-001 5.895605e-001 6.757887e-001 7.059483e-001 7.403007e-001 6.445538e-001 6.222544e-001 5.335723e-001 4.492055e-001 4.217058e-001 4.496226e-001
<GCONST> 1.276486e+002
<MIXTURE> 11 5.358130e-002
<MEAN> 39
 -6.816996e-001 3.149972e+000 5.864094e+000 -5.900965e+000 -4.291573e+000 -1.308561e+000 -5.348067e+000 -4.067729e+000 -2.692253e+000 8.387310e-001 1.325945e+000 1.676421e+000 6.828531e+001 -2.451632e-001 8.586401e-001 -6.088280e-001 6.345968e-001 1.171648e+000 -7.307498e-001 4.993994e-001 -4.638305e-001 6.565437e-001 2.549588e-002 -2.117073e-002 1.671792e-001 -9.880619e-001 -1.903711e-001 4.942948e-002 -3.162409e-002 2.347313e-001 5.464506e-002 -1.563843e-001 9.081016e-002 1.055529e-001 6.209238e-002 -6.455685e-002 9.409092e-002 -8.463693e-002 -1.538258e-001
<VARIANCE> 39
 3.247126e+001 3.583031e+001 5.340524e+001 9.022070e+001 5.343238e+001 8.386002e+001 4.956486e+001 4.979976e+001 5.130673e+001 4.917918e+001 4.361074e+001 3.100671e+001 2.154623e+001 1.740055e+000 1.992356e+000 1.890876e+000 3.801801e+000 3.827362e+000 4.531008e+000 3.602281e+000 3.291358e+000 3.628386e+000 2.699680e+000 2.796417e+000 2.343939e+000 1.945401e+000 2.884459e-001 3.268630e-001 3.554264e-001 5.601783e-001 6.423500e-001 8.940628e-001 5.551124e-001 5.766945e-001 6.530502e-001 5.123332e-001 4.657288e-001 4.718312e-001 2.441623e-001
<GCONST> 1.252286e+002
<MIXTURE> 12 6.957136e-002
<MEAN> 39
 -5.950003e+000 6.955074e+000 4.319423e+000 -1.227528e+000 2.031525e+000 -4.731846e+000 -1.865047e+000 -1.185769e+000 -9.857522e-001 -3.281160e-001 6.222020e-001 2.388389e+000 6.301345e+001 -1.771590e-001 7.784107e-002 -1.358858e-001 3.051311e-001 2.690035e-001 -9.314912e-002 2.107870e-001 -2.600490e-002 3.554608e-002 8.417682e-005 -6.141479e-002 -1.631240e-001 -6.571456e-001 1.572578e-002 -1.938504e-001 5.225994e-002 -5.894355e-002 -2.432075e-001 7.307234e-002 -4.120389e-002 -6.794842e-002 -1.362445e-002 1.294228e-002 8.191538e-002 -4.321115e-002 9.339150e-002
<VARIANCE> 39
 9.438310e+001 4.011114e+001 4.523287e+001 5.925147e+001 4.008413e+001 5.673008e+001 3.509284e+001 3.441553e+001 2.780736e+001 2.831201e+001 2.581513e+001 2.295923e+001 3.538304e+001 8.455462e-001 1.141597e+000 1.020025e+000 1.388868e+000 1.603313e+000 1.852474e+000 1.480389e+000 1.613019e+000 1.814768e+000 1.721636e+000 1.611232e+000 1.525480e+000 7.959249e-001 1.578689e-001 1.786024e-001 1.931510e-001 2.439694e-001 3.227002e-001 3.389629e-001 2.778651e-001 3.147850e-001 3.300211e-001 2.983719e-001 2.948890e-001 2.790773e-001 1.211675e-001
<GCONST> 1.051384e+002
<MIXTURE> 13 4.835485e-002
<MEAN> 39
 -1.114155e+001 1.564739e+000 3.238411e+000 2.673654e+000 2.950980e+000 -3.814623e+000 4.868898e+000 2.852299e+000 1.472690e+000 4.130942e-001 3.813236e+000 2.561608e+000 5.342468e+001 -5.266294e-002 -7.137774e-002 -9.356143e-002 -8.886958e-002 -2.061983e-001 -1.197339e-001 -1.773182e-001 -3.342000e-001 -3.605293e-001 -4.204572e-001 -3.268382e-001 -2.678651e-001 -1.228421e-001 8.693735e-003 1.510866e-002 -5.296421e-002 -8.841730e-002 -5.340603e-002 -5.986011e-002 -9.147623e-002 -1.833389e-002 -2.946812e-002 6.343371e-002 -4.845962e-002 -8.659379e-003 2.557208e-002
<VARIANCE> 39
 3.555901e+000 5.807008e+000 5.631163e+000 6.791223e+000 8.576368e+000 2.128337e+001 1.250869e+001 1.904299e+001 1.967898e+001 1.502589e+001 1.271475e+001 1.357410e+001 5.871358e+000 1.749814e-001 2.787348e-001 3.706712e-001 6.752348e-001 7.541065e-001 9.255055e-001 1.171612e+000 1.226764e+000 1.223490e+000 1.222083e+000 1.230528e+000 1.171260e+000 8.644094e-002 2.982194e-002 5.420485e-002 7.765669e-002 1.254932e-001 1.426471e-001 1.928475e-001 2.300455e-001 2.372309e-001 2.741715e-001 2.648544e-001 2.599976e-001 2.249027e-001 1.939872e-002
<GCONST> 6.859196e+001
<MIXTURE> 14 5.339484e-002
<MEAN> 39
 -5.337328e+000 4.200790e+000 6.608526e+000 -1.638552e-001 -2.487336e+000 -5.546358e+000 -2.824764e+000 -3.234748e+000 9.030151e-002 -5.486821e-001 1.686789e+000 1.496605e+000 6.394455e+001 8.841714e-001 -9.992654e-001 6.786721e-001 -1.224161e+000 -2.036695e+000 2.059285e-001 -1.372639e+000 -1.090715e-001 -1.218690e+000 -5.916660e-001 -3.439270e-001 -4.555508e-001 2.018052e+000 -2.909943e-002 -1.020758e-001 -7.196748e-002 -2.686905e-001 -1.734279e-001 1.915773e-001 -1.728984e-001 1.210736e-001 -1.980997e-001 3.730288e-002 1.185258e-001 -3.916946e-002 1.869124e-001
<VARIANCE> 39
 4.275135e+001 2.673526e+001 5.083753e+001 4.294800e+001 5.161867e+001 4.659953e+001 5.189427e+001 3.806345e+001 3.994421e+001 3.413282e+001 2.230072e+001 1.766087e+001 5.253157e+001 6.990212e+000 2.898946e+000 5.559740e+000 4.581870e+000 5.428540e+000 6.247006e+000 7.421373e+000 4.446847e+000 4.684217e+000 4.025029e+000 2.845404e+000 2.566217e+000 2.387846e+000 6.511171e-001 4.153418e-001 5.287580e-001 5.417410e-001 8.473830e-001 7.448662e-001 9.052011e-001 5.975713e-001 6.318572e-001 6.127835e-001 4.732354e-001 4.267013e-001 6.634364e-001
<GCONST> 1.314069e+002
<MIXTURE> 15 7.172994e-002
<MEAN> 39
 -1.005979e+001 1.596181e+000 1.339831e+000 1.618445e+000 3.366145e+000 8.542362e-001 5.163185e+000 5.356678e+000 5.533261e+000 3.510405e+000 4.384202e+000 3.773009e+000 5.068665e+001 -4.620300e-002 -4.462949e-002 -9.019434e-002 -2.102208e-002 -9.001431e-003 1.035771e-001 3.300501e-002 -1.148768e-001 5.232933e-002 1.825588e-002 -8.696435e-003 -6.455007e-002 -1.196291e-001 -2.391607e-002 4.874302e-003 1.231169e-002 3.126133e-003 -4.371531e-002 -8.301914e-002 -5.457889e-002 -5.560433e-002 -1.093377e-001 -9.933814e-002 -7.444020e-002 -4.383598e-002 2.716392e-002
<VARIANCE> 39
 1.240099e+000 4.420753e+000 3.795032e+000 5.672341e+000 7.125856e+000 1.284875e+001 1.054679e+001 1.207677e+001 1.368196e+001 1.361015e+001 1.114499e+001 1.170741e+001 2.100544e+000 1.086904e-001 2.241924e-001 3.200502e-001 5.156133e-001 6.780502e-001 9.540647e-001 1.069060e+000 1.024207e+000 1.167863e+000 1.162547e+000 1.079536e+000 9.683136e-001 5.636526e-002 2.369089e-002 4.344063e-002 6.531314e-002 1.077430e-001 1.361890e-001 1.851210e-001 2.303643e-001 2.148023e-001 2.434986e-001 2.476264e-001 2.189886e-001 2.023175e-001 1.260242e-002
<GCONST> 5.944439e+001
<MIXTURE> 16 4.916342e-002
<MEAN> 39
 -1.818412e+000 5.669374e+000 5.288684e+000 -6.456898e-001 -1.095560e+000 -3.070017e+000 -3.157181e+000 -2.765710e+000 3.069340e-001 2.333026e+000 3.772613e+000 1.089257e+000 5.943810e+001 -3.866075e-001 -8.056013e-002 -4.796063e-001 6.521260e-002 -7.629938e-002 -3.382227e-001 4.039640e-002 -3.154490e-001 -9.988585e-002 -2.420316e-001 7.952939e-003 1.184543e-001 -6.357744e-001 -2.388472e-001 -2.273496e-001 4.972395e-003 -2.788228e-001 -1.801995e-001 -1.577929e-001 -6.096553e-002 4.829235e-002 -3.147492e-001 -2.792432e-001 -1.923506e-001 5.380492e-002 5.629720e-001
<VARIANCE> 39
 2.618386e+001 2.191061e+001 3.434450e+001 5.349287e+001 3.467727e+001 4.829240e+001 3.745698e+001 3.540657e+001 3.362025e+001 3.217139e+001 2.735324e+001 1.893996e+001 3.135814e+001 6.621643e-001 9.273058e-001 8.706878e-001 1.155925e+000 1.410683e+000 1.769709e+000 1.423540e+000 1.612991e+000 1.642952e+000 1.454368e+000 1.583493e+000 1.378885e+000 8.979096e-001 1.560138e-001 1.733823e-001 2.178217e-001 2.753550e-001 3.433314e-001 4.799942e-001 3.800904e-001 3.560201e-001 4.110268e-001 3.539393e-001 3.142717e-001 2.752670e-001 2.392464e-001
<GCONST> 1.036172e+002
<TRANSP> 3
 0.000000e+000 1.000000e+000 0.000000e+000
 0.000000e+000 9.971837e-001 2.816306e-003
 0.000000e+000 0.000000e+000 0.000000e+000
<ENDHMM>
~h "CERNY"
<BEGINHMM>
<NUMSTATES> 3
<STATE> 2
<NUMMIXES> 16
<MIXTURE> 1 6.457302e-002
<MEAN> 39
 -1.186263e+001 -1.054083e+000 -2.147975e+000 -5.787034e-001 -4.224196e-001 -1.269210e-001 7.128289e-002 6.987302e-002 3.880054e-001 3.630799e-001 9.869010e-001 5.425332e-001 5.963005e+001 3.824928e-002 9.518429e-002 1.425785e-001 2.156792e-001 2.985699e-001 3.732191e-001 3.820231e-001 3.853430e-001 4.054149e-001 3.822879e-001 2.995391e-001 1.468141e-001 8.893704e-003 2.310946e-002 3.257874e-002 3.381157e-002 7.704831e-003 -9.554520e-003 5.089784e-003 1.957128e-003 1.760429e-002 1.916011e-002 -5.575662e-003 -4.264639e-002 -3.835753e-002 1.340724e-002
<VARIANCE> 39
 1.169054e+000 1.752552e+000 2.953423e+000 4.661620e+000 5.925619e+000 7.254832e+000 8.550620e+000 9.675102e+000 1.032775e+001 9.833512e+000 9.425825e+000 8.988882e+000 5.193808e-001 8.285488e-002 1.823791e-001 3.396644e-001 4.850030e-001 6.269339e-001 7.936357e-001 8.663443e-001 1.000782e+000 1.024289e+000 1.041655e+000 1.040514e+000 9.836178e-001 2.745991e-002 1.859541e-002 3.940928e-002 7.106074e-002 1.039901e-001 1.384483e-001 1.718159e-001 2.043698e-001 2.251516e-001 2.381340e-001 2.244890e-001 2.230814e-001 2.131635e-001 5.993707e-003
<GCONST> 5.121929e+001
<MIXTURE> 2 5.635483e-002
<MEAN> 39
 -5.600319e+000 -5.383954e+000 -2.665555e+000 -1.149742e+001 -8.437850e+000 -4.126917e+000 -1.353426e+001 1.126677e+000 4.826550e+000 5.890813e+000 -1.444637e+000 -5.539738e+000 6.986304e+001 1.399397e-002 4.844963e-001 4.788899e-002 3.414893e-001 5.173029e-001 4.958958e-001 5.839654e-001 -3.761849e-001 -2.992229e-001 3.631484e-002 4.372385e-001 1.975032e-001 -3.887924e-001 -3.452138e-001 4.738864e-001 2.608451e-002 5.411261e-001 3.735705e-001 1.048230e-001 7.079789e-001 -1.728990e-001 -3.810380e-001 -4.217552e-001 1.448014e-001 3.441406e-001 -4.190438e-001
<VARIANCE> 39
 4.288956e+000 1.933858e+001 2.730720e+001 5.845996e+001 2.887459e+001 5.139785e+001 4.729363e+001 4.439092e+001 3.775956e+001 2.980284e+001 2.108233e+001 3.304025e+001 8.044432e+000 6.867970e-001 2.373668e+000 1.394913e+000 3.997037e+000 2.326036e+000 2.444411e+000 4.121253e+000 3.188409e+000 2.743317e+000 2.497264e+000 1.893903e+000 2.079132e+000 1.376006e+000 1.472848e-001 3.399412e-001 2.799585e-001 6.224589e-001 5.418806e-001 5.806794e-001 8.095165e-001 6.574751e-001 5.323572e-001 4.685620e-001 3.934043e-001 3.884625e-001 1.761816e-001
<GCONST> 1.126830e+002
<MIXTURE> 3 3.461920e-002
<MEAN> 39
 -1.359910e+001 1.164750e+000 -3.268634e+000 -1.316286e+000 -1.616982e+000 -1.825139e+000 -2.153434e+000 1.188951e-001 6.055472e-002 6.360034e-001 -3.184117e-001 -6.322979e-002 6.236195e+001 -4.841395e-002 -8.431103e-002 4.004588e-002 2.934776e-001 2.806908e-001 3.972813e-001 4.504027e-001 2.822034e-001 2.239243e-001 2.374750e-001 2.863495e-001 2.346469e-001 -2.402662e-001 6.247083e-002 7.815700e-004 6.263089e-002 -9.851024e-002 -1.539629e-001 -1.792534e-001 -2.316070e-001 -1.486379e-002 1.198030e-001 5.884311e-002 -1.144574e-003 -5.176815e-003 1.712608e-001
<VARIANCE> 39
 1.941281e+001 1.587198e+001 1.610397e+001 1.125680e+001 1.324400e+001 1.440523e+001 1.840166e+001 1.760226e+001 1.708596e+001 1.419398e+001 1.259216e+001 1.322946e+001 4.797277e+000 9.122143e-001 6.998390e-001 8.105739e-001 8.865136e-001 1.048569e+000 1.526519e+000 1.699971e+000 1.566579e+000 1.602462e+000 1.400854e+000 1.239017e+000 1.118150e+000 3.446826e-001 1.407221e-001 1.221212e-001 1.508305e-001 1.841467e-001 2.375339e-001 2.871781e-001 3.412139e-001 2.977972e-001 3.181177e-001 2.983916e-001 2.631720e-001 2.300242e-001 7.406745e-002
<GCONST> 8.617311e+001
<MIXTURE> 4 5.474880e-002
<MEAN> 39
 -1.688292e+001 4.214533e+000 -3.647400e+000 -1.567998e+000 -2.641760e+000 -4.419652e+000 -4.028533e+000 -6.232334e-001 7.282292e-001 7.014881e-001 -6.432831e-001 6.544016e-002 6.574091e+001 -7.463583e-001 3.587361e-001 -1.872963e-001 1.913385e-001 3.156185e-001 8.903021e-002 3.826017e-001 2.427111e-001 2.135924e-001 2.249491e-001 1.901411e-001 2.719075e-001 5.537371e-002 4.090453e-001 -3.258190e-001 2.394819e-001 -1.366939e-001 -2.692304e-001 -1.780409e-002 -2.635506e-001 -1.702621e-002 5.088337e-002 7.361805e-002 3.434483e-002 -5.982726e-002 1.280924e-002
<VARIANCE> 39
 3.435251e+001 2.540400e+001 4.166233e+001 1.799416e+001 2.546256e+001 2.641524e+001 3.519320e+001 2.656707e+001 2.395645e+001 2.233006e+001 1.455233e+001 1.341375e+001 4.041374e+000 2.801422e+000 2.305560e+000 1.989174e+000 1.773593e+000 2.522452e+000 2.242326e+000 3.334178e+000 2.177671e+000 2.278806e+000 1.985839e+000 1.511103e+000 1.297218e+000 6.042119e-001 3.313141e-001 2.655378e-001 2.502626e-001 2.740926e-001 3.892041e-001 4.363196e-001 5.828812e-001 4.341400e-001 4.420249e-001 3.779271e-001 3.124200e-001 2.498974e-001 1.004361e-001
<GCONST> 1.049980e+002
<MIXTURE> 5 8.458772e-002
<MEAN> 39
 -6.367378e+000 -4.932306e+000 1.310007e+000 -1.061944e+001 -1.112308e+001 -4.765899e+000 -1.151212e+001 1.802513e+000 2.783594e+000 1.145314e+000 -1.187597e+000 -2.357501e+000 6.908704e+001 4.351555e-003 2.464607e-001 -1.837289e-002 2.742966e-001 3.818105e-001 1.726681e-001 4.814122e-001 -6.620666e-002 -1.419330e-001 -8.676078e-003 1.176958e-001 8.904100e-002 -2.636588e-001 -7.243293e-002 1.777847e-001 -1.491884e-001 2.505888e-001 3.326334e-001 8.687482e-002 1.990949e-001 -1.457247e-001 -3.680771e-002 6.107369e-002 4.252100e-002 -1.127002e-002 -1.764069e-001
<VARIANCE> 39
 5.889003e+000 2.580093e+001 6.701105e+001 5.630457e+001 4.409632e+001 4.997718e+001 3.596606e+001 5.412594e+001 4.311804e+001 3.774569e+001 2.776849e+001 3.710368e+001 7.725932e+000 1.840620e-001 1.019494e+000 1.529298e+000 2.106319e+000 2.127193e+000 1.936610e+000 2.056276e+000 2.630512e+000 1.982070e+000 1.862757e+000 1.556063e+000 1.492289e+000 6.072350e-001 4.423491e-002 1.610945e-001 2.884061e-001 2.694573e-001 3.791258e-001 3.770923e-001 3.933260e-001 4.693594e-001 3.652288e-001 3.397792e-001 3.146460e-001 2.543887e-001 7.450131e-002
<GCONST> 1.024932e+002
<MIXTURE> 6 1.038349e-001
<MEAN> 39
 -1.204750e+001 -1.125512e+000 -2.215662e+000 -7.799248e-001 -6.495276e-001 -2.843661e-002 2.981197e-001 3.350995e-001 6.290693e-001 4.134973e-001 7.916176e-001 4.376474e-001 5.934092e+001 3.595374e-002 4.352866e-002 3.741346e-002 2.078613e-002 -9.732734e-003 -5.021028e-002 -5.853587e-002 -5.712107e-002 -6.238500e-002 -1.098384e-002 5.052190e-002 9.320256e-002 2.110385e-002 3.461067e-003 -5.357811e-007 3.261528e-003 2.004927e-002 2.933742e-002 1.800870e-002 8.172235e-003 1.406679e-002 1.588254e-002 3.723404e-002 4.928099e-002 3.708553e-002 1.027433e-002
<VARIANCE> 39
 1.656529e+000 2.199918e+000 3.008776e+000 4.104683e+000 5.560451e+000 7.192838e+000 8.289043e+000 9.227652e+000 9.731606e+000 9.928955e+000 1.012107e+001 9.133290e+000 1.658749e+000 9.298306e-002 1.910478e-001 3.154696e-001 4.759384e-001 6.304457e-001 7.580594e-001 9.149869e-001 1.027193e+000 1.115133e+000 1.081292e+000 1.072630e+000 1.023615e+000 3.541268e-002 1.933030e-002 3.942576e-002 6.581851e-002 9.528755e-002 1.311870e-001 1.650164e-001 1.938437e-001 2.148063e-001 2.354516e-001 2.247796e-001 2.286539e-001 2.058890e-001 7.754698e-003
<GCONST> 5.320920e+001
<MIXTURE> 7 4.859173e-002
<MEAN> 39
 -9.138622e+000 -1.218928e+000 2.140240e-001 -3.452616e+000 -7.168852e+000 -5.577168e+000 -9.563095e+000 -1.934449e+000 1.684795e+000 7.018582e-001 -1.044564e-001 -8.193456e-001 6.579365e+001 1.101866e+000 -1.312771e+000 7.001433e-001 -1.329051e+000 -1.973566e+000 -7.582460e-001 -2.293687e+000 5.559407e-001 1.236321e+000 6.541762e-001 -1.464312e-002 -2.473006e-001 1.410023e+000 4.413493e-004 -1.284065e-001 2.671261e-002 -2.650518e-001 -4.787616e-002 1.943920e-001 3.776872e-003 2.192939e-001 5.921347e-002 1.460475e-001 1.808547e-002 -8.890495e-002 1.253185e-001
<VARIANCE> 39
 1.506261e+001 1.356461e+001 3.987398e+001 2.696392e+001 3.206652e+001 2.933073e+001 4.464708e+001 2.518560e+001 2.837846e+001 3.108338e+001 1.421175e+001 1.981716e+001 9.651888e+000 1.918634e+000 1.747726e+000 3.761976e+000 3.902299e+000 3.385656e+000 3.694030e+000 4.104284e+000 4.392437e+000 3.558547e+000 3.926567e+000 1.879506e+000 2.632802e+000 7.060276e-001 2.386030e-001 2.690465e-001 4.170508e-001 4.556858e-001 7.071922e-001 5.435127e-001 9.373028e-001 5.623993e-001 5.690441e-001 4.942669e-001 3.205808e-001 3.355130e-001 1.940305e-001
<GCONST> 1.146007e+002
<MIXTURE> 8 5.752400e-002
<MEAN> 39
 -8.249577e+000 3.642436e-001 5.894081e-001 -2.927647e+000 -4.912171e+000 -3.240150e+000 -6.329919e+000 -3.760691e+000 -1.598001e+000 -7.408864e-001 4.733674e-001 -7.671323e-001 6.312988e+001 -2.996980e-001 3.164236e-001 -1.736339e-001 5.034860e-001 7.437208e-001 4.171374e-001 8.691680e-001 1.946455e-001 -1.789211e-001 -2.337326e-001 -1.297657e-002 1.448826e-001 -4.081777e-001 -5.830134e-004 -2.703767e-001 -1.509605e-002 -3.230782e-001 -3.242333e-001 -1.757385e-001 -3.893814e-001 3.624792e-001 4.231513e-001 2.480352e-001 -5.036005e-002 -1.526257e-002 3.429735e-001
<VARIANCE> 39
 5.241644e+000 4.904228e+000 1.626727e+001 1.599894e+001 1.326141e+001 1.626308e+001 1.892358e+001 1.610701e+001 1.642529e+001 1.864219e+001 1.392133e+001 1.616957e+001 3.091727e+000 3.614454e-001 5.670707e-001 9.875836e-001 1.353840e+000 1.469916e+000 1.583300e+000 2.042029e+000 1.642869e+000 1.771283e+000 1.765018e+000 1.266387e+000 1.239429e+000 4.028088e-001 7.219239e-002 1.220996e-001 1.941003e-001 2.740151e-001 2.804783e-001 3.278191e-001 4.133558e-001 3.581996e-001 3.373531e-001 3.420362e-001 2.784047e-001 2.656763e-001 6.767273e-002
<GCONST> 8.587196e+001
<MIXTURE> 9 8.258561e-002
<MEAN> 39
 -1.221005e+001 -1.305470e+000 -2.467072e+000 -1.057565e+000 -9.082350e-001 -2.839226e-001 -8.244762e-003 5.953401e-002 2.771150e-001 1.676353e-001 5.665230e-001 3.718782e-001 5.924531e+001 -3.971476e-002 -7.831249e-002 -1.184104e-001 -1.609222e-001 -2.343695e-001 -2.926889e-001 -3.181145e-001 -3.365010e-001 -3.671159e-001 -3.251445e-001 -2.590781e-001 -1.224810e-001 -2.003954e-002 -1.899165e-002 -2.896861e-002 -2.528965e-002 -6.050329e-003 -1.561198e-003 -1.339527e-002 -1.804031e-002 -2.143985e-002 -1.098860e-002 6.960373e-003 3.063819e-002 2.671167e-002 -4.902507e-003
<VARIANCE> 39
 1.733721e+000 2.313204e+000 3.078706e+000 4.131608e+000 5.496054e+000 7.264645e+000 8.216388e+000 9.215973e+000 9.518500e+000 9.721227e+000 1.030845e+001 9.161598e+000 1.965837e+000 9.299878e-002 1.965134e-001 3.109423e-001 4.692523e-001 6.275146e-001 7.708502e-001 9.378252e-001 1.017956e+000 1.145709e+000 1.064965e+000 1.109167e+000 1.036873e+000 3.729429e-002 1.866207e-002 3.791809e-002 6.518642e-002 9.611750e-002 1.298777e-001 1.655798e-001 1.889631e-001 2.070351e-001 2.408188e-001 2.206752e-001 2.266177e-001 2.078438e-001 7.874654e-003
<GCONST> 5.348397e+001
<MIXTURE> 10 8.022185e-002
<MEAN> 39
 -6.913853e+000 -5.062673e+000 2.731794e+000 -9.707059e+000 -1.196683e+001 -5.801510e+000 -1.209902e+001 1.436568e+000 2.821674e+000 5.878819e-001 -1.390668e+000 -1.791662e+000 6.898537e+001 -4.898890e-002 1.335260e-001 -1.321767e-001 1.120933e-001 2.231915e-001 -8.266782e-002 2.619576e-001 -1.584040e-001 -3.114479e-001 -1.986452e-001 -1.607332e-001 -1.020393e-001 -2.415635e-001 -7.273517e-002 1.631752e-001 -2.076975e-001 1.859408e-001 3.240188e-001 7.515509e-002 1.674793e-001 -1.689327e-001 -9.507350e-002 1.169626e-002 -3.725326e-002 -8.488964e-002 -1.593497e-001
<VARIANCE> 39
 6.125620e+000 2.570995e+001 6.984927e+001 5.335955e+001 4.570451e+001 4.773252e+001 3.527233e+001 5.587521e+001 4.719026e+001 3.897421e+001 2.898454e+001 3.870045e+001 7.865680e+000 1.856045e-001 1.012467e+000 1.603723e+000 1.965893e+000 2.048201e+000 1.965542e+000 1.961557e+000 2.679483e+000 2.003742e+000 1.852606e+000 1.610463e+000 1.472845e+000 5.867832e-001 4.374496e-002 1.590269e-001 2.875613e-001 2.480394e-001 3.732108e-001 3.666762e-001 3.912874e-001 4.623199e-001 3.589010e-001 3.329076e-001 3.110527e-001 2.573612e-001 7.387967e-002
<GCONST> 1.024448e+002
<MIXTURE> 11 8.937313e-002
<MEAN> 39
 -1.198109e+001 -1.233398e+000 -2.372143e+000 -8.640068e-001 -7.465727e-001 -4.133050e-001 -2.312129e-001 -2.874243e-001 8.905042e-002 1.097655e-001 6.737005e-001 3.680891e-001 5.958848e+001 -6.040965e-002 -5.369116e-002 -4.035798e-002 -4.783082e-003 2.880723e-002 5.997395e-002 8.569479e-002 9.914164e-002 1.027772e-001 6.595319e-002 -3.122500e-002 -7.188057e-002 -3.730954e-002 -4.873768e-004 9.179201e-003 2.737630e-003 -2.292456e-002 -3.794414e-002 -2.995355e-002 -2.807688e-002 -1.965131e-002 -2.707328e-002 -4.922172e-002 -6.499136e-002 -4.683005e-002 9.498689e-004
<VARIANCE> 39
 1.239876e+000 1.832005e+000 2.940097e+000 4.555301e+000 5.916575e+000 7.215612e+000 8.626683e+000 9.767487e+000 1.008670e+001 9.953614e+000 9.474493e+000 8.709566e+000 6.067654e-001 8.525081e-002 1.828599e-001 3.310010e-001 4.691485e-001 6.238327e-001 7.717647e-001 8.839201e-001 1.019440e+000 1.050412e+000 1.055902e+000 1.061121e+000 9.820272e-001 2.797092e-002 1.779953e-002 3.892099e-002 6.916326e-002 1.022137e-001 1.371376e-001 1.722828e-001 2.027332e-001 2.241261e-001 2.385754e-001 2.289795e-001 2.252059e-001 2.067153e-001 6.088896e-003
<GCONST> 5.137306e+001
<MIXTURE> 12 5.759693e-002
<MEAN> 39
 -5.977751e+000 -5.753938e+000 -2.189132e+000 -1.100261e+001 -8.747881e+000 -5.158234e+000 -1.421628e+001 1.197534e+000 5.224690e+000 5.704935e+000 -1.856595e+000 -5.435910e+000 6.990674e+001 -7.431424e-002 3.517186e-001 -8.545893e-002 1.798333e-001 3.492475e-001 2.326199e-001 4.197906e-001 -3.721128e-001 -4.207496e-001 -2.205774e-001 8.893010e-002 -1.187967e-002 -3.429411e-001 -3.231069e-001 4.576918e-001 -2.918690e-002 4.447001e-001 3.349614e-001 1.172165e-001 6.508809e-001 -2.144213e-001 -4.586450e-001 -4.590319e-001 9.484645e-002 2.786275e-001 -3.746259e-001
<VARIANCE> 39
 4.317006e+000 1.998412e+001 3.026225e+001 5.762694e+001 3.028265e+001 5.111971e+001 4.969229e+001 4.484292e+001 3.784406e+001 3.151559e+001 2.157485e+001 3.211089e+001 8.779926e+000 7.110155e-001 2.653322e+000 1.491943e+000 3.958502e+000 2.426264e+000 2.548552e+000 4.165331e+000 3.508626e+000 3.088383e+000 2.656083e+000 1.955698e+000 2.130213e+000 1.404453e+000 1.449399e-001 3.424503e-001 2.966931e-001 5.700619e-001 5.444849e-001 5.547951e-001 7.914917e-001 6.590652e-001 5.398329e-001 4.911779e-001 3.916280e-001 3.640548e-001 1.764276e-001
<GCONST> 1.135971e+002
<MIXTURE> 13 5.300415e-002
<MEAN> 39
 -1.550887e+001 3.670819e+000 -2.623895e+000 -2.037392e+000 -3.310380e+000 -4.416731e+000 -4.809559e+000 -1.248060e+000 1.720468e-001 3.490611e-001 -7.562302e-001 -1.629704e-001 6.552988e+001 -4.390551e-001 2.382054e-001 -2.026322e-001 5.085579e-002 -3.314654e-002 -2.700416e-001 -7.967820e-002 -1.439402e-001 -1.497988e-001 -1.536603e-001 -1.961543e-001 -7.275852e-003 1.060243e-001 4.110626e-001 -3.747999e-001 2.223732e-001 -2.083772e-001 -4.014844e-001 -8.949551e-002 -4.266168e-001 -5.464943e-002 4.243958e-002 2.266658e-002 -4.216415e-002 -1.141577e-001 1.098454e-001
<VARIANCE> 39
 3.745325e+001 2.402382e+001 4.222898e+001 1.998927e+001 2.805607e+001 2.588878e+001 3.568426e+001 2.608924e+001 2.432101e+001 2.310034e+001 1.469243e+001 1.359210e+001 4.371968e+000 3.350158e+000 2.365514e+000 2.296629e+000 2.025167e+000 3.130184e+000 2.352887e+000 3.597390e+000 2.321847e+000 2.517362e+000 2.061550e+000 1.581547e+000 1.434202e+000 6.232307e-001 3.515445e-001 2.835370e-001 2.789454e-001 3.056261e-001 4.339133e-001 4.511611e-001 6.263800e-001 4.782543e-001 4.525476e-001 3.850730e-001 3.090734e-001 2.647909e-001 1.038742e-001
<GCONST> 1.073454e+002
<MIXTURE> 14 4.672935e-002
<MEAN> 39
 -9.537826e+000 -1.140994e+000 -9.574795e-002 -3.470630e+000 -7.105972e+000 -5.972065e+000 -9.559777e+000 -2.016549e+000 1.340695e+000 5.715365e-001 -5.418942e-001 -1.180646e+000 6.587111e+001 1.251359e+000 -1.439272e+000 7.164588e-001 -1.430023e+000 -2.157112e+000 -1.121747e+000 -2.614078e+000 3.227613e-001 9.157781e-001 4.247151e-001 -4.508916e-001 -5.945550e-001 1.444321e+000 1.658579e-002 -1.761955e-001 1.915224e-002 -3.329509e-001 -9.844438e-002 1.460038e-001 -8.117047e-002 2.182701e-001 5.699461e-002 1.239233e-001 -3.767746e-002 -1.402310e-001 1.592115e-001
<VARIANCE> 39
 1.640407e+001 1.480506e+001 3.904100e+001 2.678054e+001 3.214494e+001 2.942956e+001 4.367614e+001 2.500677e+001 3.020640e+001 3.132508e+001 1.517556e+001 2.019055e+001 9.867383e+000 1.982166e+000 1.999232e+000 3.693531e+000 3.982978e+000 3.482083e+000 3.580096e+000 4.418272e+000 4.361078e+000 4.042133e+000 3.964937e+000 2.019401e+000 2.787421e+000 7.542517e-001 2.336069e-001 2.839179e-001 3.945846e-001 4.322762e-001 7.033720e-001 5.279143e-001 9.127745e-001 5.619204e-001 5.605477e-001 4.850456e-001 3.442158e-001 3.447169e-001 1.936000e-001
<GCONST> 1.153880e+002
<MIXTURE> 15 3.832204e-002
<MEAN> 39
 -1.236071e+001 7.103552e-001 -2.767508e+000 -1.832407e+000 -2.240562e+000 -2.052555e+000 -2.600582e+000 -3.804830e-001 -1.691071e-001 2.732596e-001 -5.257375e-001 -3.543639e-001 6.221921e+001 -1.125280e-001 -1.409601e-001 -1.282752e-001 9.370834e-002 8.653770e-002 1.047413e-001 1.445383e-001 -4.016213e-002 -1.174845e-001 -1.065661e-001 -2.910638e-002 2.197752e-002 -2.283985e-001 6.153060e-002 -2.000559e-002 2.160923e-002 -1.747598e-001 -2.382748e-001 -2.268673e-001 -3.260995e-001 -6.431070e-002 5.105978e-002 9.699746e-003 -7.133627e-002 -4.535291e-002 2.100007e-001
<VARIANCE> 39
 1.780283e+001 1.285714e+001 1.517389e+001 1.237831e+001 1.431577e+001 1.456127e+001 1.806892e+001 1.700614e+001 1.633736e+001 1.468423e+001 1.261536e+001 1.329398e+001 4.344722e+000 8.799917e-001 6.497871e-001 8.143982e-001 9.249569e-001 1.114783e+000 1.467041e+000 1.654688e+000 1.543474e+000 1.564213e+000 1.419739e+000 1.208456e+000 1.122826e+000 3.550487e-001 1.293970e-001 1.226133e-001 1.535168e-001 1.927283e-001 2.520052e-001 2.805142e-001 3.402944e-001 2.961441e-001 3.170018e-001 3.059084e-001 2.563014e-001 2.353407e-001 7.819559e-002
<GCONST> 8.584143e+001
<MIXTURE> 16 4.731853e-002
<MEAN> 39
 -8.373916e+000 3.161224e-001 6.275924e-001 -3.052828e+000 -5.391283e+000 -3.666019e+000 -6.538856e+000 -4.047174e+000 -1.883146e+000 -1.111422e+000 2.725989e-001 -5.264733e-001 6.302296e+001 -3.382155e-001 2.238588e-001 -3.852599e-001 2.397455e-001 5.202206e-001 1.416929e-001 5.361420e-001 -1.040845e-001 -4.545073e-001 -4.592795e-001 -3.383364e-001 -7.294115e-002 -3.979937e-001 7.035944e-003 -2.856528e-001 -4.306491e-003 -3.511952e-001 -3.705691e-001 -2.151045e-001 -4.545326e-001 2.904675e-001 3.806551e-001 1.994718e-001 -1.273010e-001 -8.655875e-002 3.694315e-001
<VARIANCE> 39
 4.965554e+000 5.126041e+000 1.698376e+001 1.660829e+001 1.386155e+001 1.639061e+001 1.926062e+001 1.629668e+001 1.647661e+001 1.888109e+001 1.316359e+001 1.587938e+001 2.998141e+000 3.769488e-001 5.549445e-001 1.033273e+000 1.370511e+000 1.471994e+000 1.570449e+000 1.837996e+000 1.574412e+000 1.743312e+000 1.710403e+000 1.325059e+000 1.278078e+000 4.058185e-001 7.313208e-002 1.351568e-001 1.928572e-001 2.909977e-001 2.726883e-001 3.360627e-001 4.210113e-001 3.756522e-001 3.784350e-001 3.391694e-001 2.723567e-001 2.632783e-001 7.445625e-002
<GCONST> 8.629623e+001
<TRANSP> 3
 0.000000e+000 1.000000e+000 0.000000e+000
 0.000000e+000 9.985551e-001 1.444878e-003
 0.000000e+000 0.000000e+000 0.000000e+000
<ENDHMM>
~h "ZSS2"
<BEGINHMM>
<NUMSTATES> 3
<STATE> 2
<NUMMIXES> 16
<MIXTURE> 1 5.825422e-002
<MEAN> 39
 -7.765973e+000 2.256171e+000 3.108797e+000 4.933296e+000 8.493124e+000 4.818048e+000 7.175390e+000 4.324070e+000 6.938496e+000 3.739192e+000 6.500913e+000 4.430824e+000 5.100244e+001 -2.770638e-003 -2.044688e-002 1.111125e-002 5.665059e-002 7.534306e-002 9.082717e-002 4.513065e-002 6.855734e-002 1.529067e-001 1.776438e-001 1.354479e-001 1.258316e-001 -8.287936e-002 -4.973069e-002 5.501526e-003 -3.698034e-003 -4.077828e-002 -1.765568e-002 -2.081312e-002 1.355906e-002 3.439758e-002 -2.627951e-002 4.197276e-002 -2.635329e-004 1.656825e-002 5.617325e-002
<VARIANCE> 39
 8.190666e-001 1.873878e+000 2.460460e+000 4.095349e+000 5.926327e+000 6.733708e+000 7.678703e+000 8.723120e+000 9.383716e+000 9.210798e+000 9.089894e+000 8.154896e+000 6.432638e-001 1.277619e-001 2.067518e-001 3.244043e-001 5.147710e-001 6.458157e-001 7.410685e-001 8.882334e-001 9.554324e-001 1.049477e+000 1.030617e+000 9.584742e-001 9.228151e-001 7.878127e-002 2.765412e-002 3.869415e-002 6.593516e-002 9.873575e-002 1.278678e-001 1.522729e-001 1.744313e-001 1.962281e-001 2.049172e-001 2.030018e-001 1.889277e-001 1.797612e-001 1.912341e-002
<GCONST> 5.201369e+001
<MIXTURE> 2 6.543767e-002
<MEAN> 39
 -2.607431e+000 4.490908e+000 2.550541e+000 -5.040565e+000 -5.525980e+000 -5.525409e+000 -4.047241e+000 -3.987415e+000 -4.122343e+000 1.423267e+000 -6.127070e+000 8.687034e-001 6.692407e+001 -1.735088e+000 1.296803e+000 6.606380e-001 2.487912e+000 2.127610e+000 2.576260e-001 1.640740e+000 2.947985e-001 1.941050e+000 -3.737889e-001 2.456173e+000 -7.310278e-001 -1.930307e+000 -4.962846e-001 -2.357556e-001 -1.341408e-001 2.375625e-001 4.640820e-001 5.106135e-001 3.828672e-001 4.743799e-001 3.432828e-001 1.087835e-001 3.355008e-001 5.832792e-002 -1.902539e-001
<VARIANCE> 39
 3.095521e+001 3.951128e+001 5.366638e+001 4.630987e+001 6.250351e+001 3.857556e+001 4.309973e+001 3.824655e+001 3.434248e+001 3.754197e+001 4.157908e+001 2.524174e+001 2.642916e+001 3.966710e+000 3.203729e+000 3.104964e+000 3.302885e+000 4.260397e+000 3.712513e+000 3.465371e+000 3.373960e+000 3.600609e+000 3.309526e+000 3.282257e+000 2.138949e+000 3.596885e+000 4.718144e-001 5.674073e-001 4.947616e-001 8.095276e-001 8.458867e-001 6.047440e-001 6.377808e-001 5.797444e-001 7.501086e-001 6.819081e-001 8.315185e-001 4.781361e-001 5.355161e-001
<GCONST> 1.288738e+002
<MIXTURE> 3 4.722797e-002
<MEAN> 39
 -9.528409e-001 8.498628e-003 -4.033044e-002 -9.016054e+000 -8.420813e+000 -5.390434e+000 -5.197147e+000 -2.763988e+000 -5.395972e+000 2.254355e+000 -9.128546e+000 1.310131e+000 7.109815e+001 1.090987e+000 -7.085330e-001 -4.305231e-001 -1.319487e+000 -1.040120e+000 5.166129e-001 -8.084462e-001 3.669558e-001 -1.219643e+000 2.741558e-001 -1.400405e+000 8.953462e-001 9.233392e-001 -7.583528e-001 3.425427e-001 2.877709e-001 8.087264e-001 8.923402e-001 3.983671e-001 6.112739e-001 2.838371e-001 5.356169e-001 2.810596e-002 8.200682e-001 -8.276553e-003 -7.278390e-001
<VARIANCE> 39
 2.228265e+001 4.657280e+001 6.553254e+001 5.107328e+001 6.289580e+001 4.963906e+001 5.081779e+001 4.723321e+001 4.428181e+001 4.403586e+001 4.171339e+001 2.769725e+001 1.936813e+001 2.837964e+000 3.392168e+000 3.779130e+000 3.764723e+000 4.592597e+000 5.072968e+000 3.726521e+000 3.875515e+000 3.821421e+000 4.521398e+000 3.741728e+000 2.420762e+000 2.034277e+000 6.727793e-001 7.998715e-001 7.977275e-001 9.011738e-001 1.042883e+000 9.268804e-001 8.789343e-001 8.188472e-001 1.023491e+000 8.458702e-001 1.061112e+000 5.260903e-001 6.166915e-001
<GCONST> 1.341372e+002
<MIXTURE> 4 8.431377e-002
<MEAN> 39
 -1.624482e+001 4.871212e+000 1.240706e+000 2.746993e+000 3.488054e+000 1.185921e+000 4.931197e+000 2.683969e+000 4.501997e+000 2.975500e+000 3.386354e+000 2.220421e+000 6.314170e+001 -6.932742e-001 6.630289e-003 -7.491706e-002 5.655895e-001 9.346107e-001 7.725915e-001 8.744183e-001 7.542602e-001 9.207156e-001 4.812187e-001 9.686258e-001 4.095936e-001 -9.612430e-001 4.352424e-001 -1.463868e-001 4.882639e-002 -2.232727e-001 -1.552715e-001 -8.734484e-003 -1.692389e-001 -8.498285e-002 -1.846693e-001 2.400634e-002 -2.013643e-001 8.371181e-002 -4.517334e-002
<VARIANCE> 39
 7.007299e+001 3.109205e+001 3.810620e+001 3.059535e+001 4.115152e+001 3.482982e+001 3.059309e+001 3.112201e+001 2.871359e+001 2.459691e+001 2.209222e+001 1.918916e+001 4.739801e+001 4.690328e+000 1.880038e+000 2.075427e+000 2.542097e+000 3.237430e+000 3.006328e+000 2.865217e+000 2.576105e+000 2.528435e+000 2.150973e+000 2.252163e+000 1.533476e+000 3.514848e+000 4.843275e-001 4.076019e-001 3.429908e-001 5.078661e-001 5.918986e-001 5.516425e-001 4.598427e-001 4.233240e-001 5.097325e-001 4.369556e-001 4.252248e-001 3.702981e-001 7.002500e-001
<GCONST> 1.194913e+002
<MIXTURE> 5 1.147218e-001
<MEAN> 39
 -1.235734e-001 6.407724e-001 -1.035332e-001 -8.286473e+000 -5.337271e+000 -9.003101e-001 -5.974869e+000 -2.126703e+000 -8.064744e+000 1.814607e+000 -1.074144e+001 1.044428e+000 6.971757e+001 -2.895213e-002 2.265109e-001 2.561655e-001 2.151009e-001 2.504339e-001 -1.752251e-002 1.631819e-001 -2.036125e-002 1.025966e-001 1.115139e-001 1.614869e-001 1.718959e-001 -3.462982e-001 -2.104238e-001 1.919042e-001 1.714765e-001 3.127569e-001 2.069980e-001 -1.827624e-001 2.104753e-001 -6.530426e-002 3.377075e-001 -4.885716e-002 3.595850e-001 -1.089014e-001 -2.451090e-001
<VARIANCE> 39
 1.441923e+001 5.503036e+001 7.095520e+001 5.370017e+001 7.914137e+001 5.271773e+001 4.950136e+001 4.416786e+001 3.554153e+001 4.528579e+001 3.018580e+001 2.907532e+001 2.213449e+001 5.672786e-001 1.395546e+000 1.742849e+000 1.839686e+000 2.627058e+000 2.631233e+000 2.273962e+000 1.951344e+000 2.264940e+000 2.331619e+000 1.879505e+000 1.636009e+000 6.803579e-001 1.855938e-001 3.334931e-001 3.607819e-001 4.676410e-001 5.419717e-001 5.504062e-001 4.868453e-001 4.519227e-001 4.883126e-001 5.364220e-001 4.824465e-001 3.661469e-001 2.060557e-001
<GCONST> 1.147021e+002
<MIXTURE> 6 3.534054e-002
<MEAN> 39
 -9.089526e+000 5.646114e-001 3.535499e+000 2.939973e+000 6.783438e+000 3.814280e+000 8.220757e+000 5.369898e+000 4.975518e+000 3.864023e+000 6.599191e+000 4.924963e+000 5.416065e+001 8.709384e-002 1.308341e-001 3.575294e-002 2.313044e-001 1.774651e-001 1.726256e-001 8.296181e-002 1.146215e-001 2.122512e-001 1.930433e-001 1.892122e-001 6.481647e-002 -4.200001e-001 -7.987341e-002 -2.659265e-003 -2.941617e-002 -2.848534e-002 -9.533954e-002 -4.316873e-002 -5.788330e-002 -3.371022e-002 -2.041010e-002 -1.220754e-002 -5.331085e-002 -1.157598e-002 1.745749e-001
<VARIANCE> 39
 5.256567e+000 1.759625e+001 6.152192e+000 1.231006e+001 1.528254e+001 1.139658e+001 1.523535e+001 1.473122e+001 1.753500e+001 1.432668e+001 1.428563e+001 1.311865e+001 1.016542e+001 1.047454e+000 8.596624e-001 8.122509e-001 1.103759e+000 1.523230e+000 1.329418e+000 1.354710e+000 1.504478e+000 1.644454e+000 1.626812e+000 1.269069e+000 1.268548e+000 1.101890e+000 1.453483e-001 1.410348e-001 1.440116e-001 2.188687e-001 2.970288e-001 2.486009e-001 2.650735e-001 2.717916e-001 3.194108e-001 3.027754e-001 2.672268e-001 2.507246e-001 2.115188e-001
<GCONST> 8.777121e+001
<MIXTURE> 7 3.413257e-002
<MEAN> 39
 -7.553980e+000 3.359149e+000 2.858119e+000 -2.721799e+000 -3.123775e+000 -5.380659e+000 -1.197761e+000 -3.373043e+000 -9.476594e-001 1.108154e+000 -2.181785e+000 -8.523013e-001 6.742872e+001 2.722998e+000 1.146731e-001 -1.064232e-001 -2.109522e+000 -2.756919e+000 -1.108322e+000 -2.239680e+000 -1.322719e+000 -2.113407e+000 -1.382565e-001 -2.576010e+000 -1.420509e-001 1.549401e+000 1.689065e-001 3.668545e-002 -5.754197e-002 -8.268370e-002 8.581065e-002 4.977406e-001 1.510974e-002 3.301823e-001 -5.739723e-002 2.820429e-001 -1.290628e-001 3.331107e-001 -3.142588e-001
<VARIANCE> 39
 3.659082e+001 4.060419e+001 4.939539e+001 3.072895e+001 5.693116e+001 3.855976e+001 3.911851e+001 3.756271e+001 3.114361e+001 3.252609e+001 2.904243e+001 2.429139e+001 2.362450e+001 4.440001e+000 4.504434e+000 5.127232e+000 4.252029e+000 5.161204e+000 5.241296e+000 4.426347e+000 4.391246e+000 4.507876e+000 3.927596e+000 4.258737e+000 2.674091e+000 4.259404e+000 7.453289e-001 7.277012e-001 6.062936e-001 6.228187e-001 1.011753e+000 6.527818e-001 7.132169e-001 6.061175e-001 6.640899e-001 6.659493e-001 7.169960e-001 4.410435e-001 6.589655e-001
<GCONST> 1.318092e+002
<MIXTURE> 8 5.321106e-002
<MEAN> 39
 -1.275527e+001 3.081331e+000 2.386908e+000 2.522994e+000 4.845988e+000 2.214123e+000 5.704751e+000 3.253700e+000 5.389081e+000 4.134528e+000 4.680373e+000 2.934494e+000 5.931348e+001 -4.095124e-001 -1.014309e+000 -2.381017e-001 -9.693137e-001 -7.562282e-001 -4.228290e-001 -3.531738e-002 -4.729265e-002 -1.661257e-001 1.997262e-001 -9.403025e-002 2.652293e-001 1.519748e+000 4.562443e-001 3.302067e-002 -7.260080e-002 -5.321443e-001 -6.846120e-001 -5.089614e-001 -5.796851e-001 -4.294285e-001 -5.656485e-001 -1.390288e-001 -6.663875e-001 -1.112880e-001 6.702696e-001
<VARIANCE> 39
 5.757424e+001 2.113725e+001 2.961505e+001 3.276860e+001 3.395527e+001 2.536562e+001 2.238391e+001 2.231626e+001 2.236284e+001 2.494831e+001 1.953448e+001 1.794734e+001 5.357266e+001 5.171737e+000 3.212151e+000 3.520965e+000 4.161674e+000 4.937398e+000 3.598718e+000 3.413437e+000 3.206743e+000 3.504546e+000 3.112933e+000 3.323678e+000 2.203434e+000 5.420100e+000 9.738004e-001 6.058202e-001 6.039366e-001 7.796973e-001 9.245666e-001 5.884664e-001 5.757037e-001 5.748734e-001 6.581185e-001 6.218210e-001 5.965236e-001 4.094521e-001 1.167176e+000
<GCONST> 1.264883e+002
<MIXTURE> 9 1.089422e-001
<MEAN> 39
 -3.579881e-001 3.883355e-001 2.626160e-001 -1.042058e+001 -6.287097e+000 -2.715345e+000 -7.252255e+000 -3.081572e+000 -9.301719e+000 1.757872e+000 -1.176833e+001 5.420872e-001 7.065092e+001 -3.665251e-003 1.915314e-001 1.168158e-001 8.193462e-002 7.353806e-002 -2.701719e-002 -4.557462e-002 -7.321630e-002 -6.669078e-002 7.250232e-002 -1.653342e-001 -2.073057e-002 -1.725261e-001 -1.046077e-001 1.425705e-001 6.407325e-002 2.035636e-001 5.012637e-002 -1.536008e-001 1.237874e-001 -7.844201e-002 2.250040e-001 -8.000285e-002 2.240744e-001 -9.901379e-002 -1.208655e-001
<VARIANCE> 39
 1.544464e+001 6.327040e+001 7.536867e+001 5.034302e+001 7.368732e+001 5.803755e+001 4.837162e+001 4.242847e+001 3.218037e+001 4.769010e+001 2.833158e+001 3.148345e+001 2.191572e+001 5.700876e-001 1.426039e+000 1.683698e+000 1.837065e+000 2.574909e+000 2.790885e+000 2.322598e+000 1.974763e+000 2.041037e+000 2.390939e+000 1.767687e+000 1.659372e+000 6.430427e-001 1.586883e-001 3.226676e-001 3.301235e-001 4.619653e-001 5.142241e-001 6.136685e-001 4.728734e-001 4.374578e-001 4.276064e-001 5.273530e-001 4.250736e-001 3.620328e-001 1.899224e-001
<GCONST> 1.140410e+002
<MIXTURE> 10 9.424518e-002
<MEAN> 39
 -1.444699e+001 5.336881e+000 2.143711e+000 1.851181e+000 2.288324e+000 1.530781e-001 3.330408e+000 1.001463e+000 3.066628e+000 2.243280e+000 2.110579e+000 7.667143e-001 6.374613e+001 -8.445594e-001 -3.401364e-001 -1.882948e-001 4.629995e-001 7.954748e-001 6.752214e-001 7.549739e-001 6.668907e-001 6.564204e-001 2.382898e-001 7.170745e-001 2.068434e-001 -4.602328e-001 4.601516e-001 -2.499347e-001 -4.201373e-002 -4.189437e-001 -4.142961e-001 -1.781719e-001 -2.877814e-001 -1.643629e-001 -3.173457e-001 -7.704322e-003 -3.749969e-001 7.852856e-002 2.820944e-001
<VARIANCE> 39
 8.869485e+001 3.149082e+001 4.272950e+001 3.119709e+001 4.173066e+001 3.769730e+001 3.404338e+001 3.316487e+001 3.022494e+001 2.628043e+001 2.330560e+001 1.982210e+001 5.127984e+001 3.917680e+000 1.870948e+000 1.908717e+000 2.451603e+000 3.381191e+000 2.944245e+000 2.679926e+000 2.432796e+000 2.603009e+000 2.228249e+000 2.239066e+000 1.521042e+000 2.932899e+000 6.133448e-001 4.561466e-001 3.995847e-001 5.411873e-001 6.296347e-001 5.571287e-001 4.565186e-001 4.361479e-001 5.185894e-001 4.757080e-001 4.427630e-001 3.676829e-001 7.959009e-001
<GCONST> 1.208052e+002
<MIXTURE> 11 7.435191e-002
<MEAN> 39
 -1.390042e+000 4.750991e+000 3.775964e+000 -6.349366e+000 -7.050111e+000 -7.334240e+000 -5.544798e+000 -4.725445e+000 -5.892511e+000 1.422549e+000 -8.046686e+000 -5.367643e-001 6.740073e+001 -1.123261e+000 1.368332e+000 5.787212e-001 2.008378e+000 1.455986e+000 -4.957744e-001 7.538760e-001 -4.272022e-001 1.190992e+000 -6.002790e-001 1.589164e+000 -1.004576e+000 -1.205629e+000 -4.193332e-001 -2.337628e-001 -1.990987e-001 1.053215e-001 2.560050e-001 3.864034e-001 2.276793e-001 2.855869e-001 1.201361e-001 -1.926253e-002 1.788446e-001 1.690970e-002 9.728956e-002
<VARIANCE> 39
 2.667875e+001 4.340244e+001 5.224734e+001 4.396142e+001 5.513429e+001 4.020444e+001 3.800214e+001 3.686792e+001 3.405748e+001 3.738306e+001 3.618041e+001 2.840750e+001 2.488905e+001 3.605362e+000 3.710503e+000 3.572318e+000 3.325767e+000 4.352961e+000 4.334382e+000 3.404896e+000 3.410485e+000 3.274860e+000 4.319363e+000 3.281297e+000 2.257066e+000 2.882795e+000 4.950503e-001 6.782833e-001 5.260618e-001 8.541393e-001 9.677274e-001 6.604918e-001 6.234729e-001 5.870192e-001 7.146540e-001 7.521241e-001 7.932777e-001 5.375152e-001 5.690335e-001
<GCONST> 1.295060e+002
<MIXTURE> 12 6.264941e-002
<MEAN> 39
 -7.811023e+000 2.305709e+000 3.026853e+000 4.719049e+000 8.433490e+000 4.667123e+000 6.993690e+000 4.091973e+000 6.676561e+000 3.638873e+000 6.202569e+000 4.188480e+000 5.103401e+001 5.381709e-002 9.315109e-003 1.797592e-002 1.507837e-002 -1.470287e-003 -2.272516e-002 -8.661317e-002 -1.026866e-001 -6.836171e-002 -7.647493e-002 -1.127199e-001 -7.964706e-002 -5.254465e-002 -3.945152e-002 6.276018e-003 2.642959e-003 -3.895989e-002 -3.123970e-002 -3.360118e-002 -1.225974e-002 -1.016631e-002 -5.565961e-002 5.215630e-003 -4.309852e-002 -2.623051e-002 6.989982e-002
<VARIANCE> 39
 8.514691e-001 1.835612e+000 2.508566e+000 4.176983e+000 5.817729e+000 6.861070e+000 7.767251e+000 8.634319e+000 9.344771e+000 9.260421e+000 9.006656e+000 8.328204e+000 6.300398e-001 1.293581e-001 2.065268e-001 3.185547e-001 5.185594e-001 6.733249e-001 7.666633e-001 8.641292e-001 9.478268e-001 1.042590e+000 1.027004e+000 9.715719e-001 9.019301e-001 7.904540e-002 2.836218e-002 4.101852e-002 6.627190e-002 1.000440e-001 1.335596e-001 1.527990e-001 1.775541e-001 1.951624e-001 2.088508e-001 2.048587e-001 1.944307e-001 1.813750e-001 2.149035e-002
<GCONST> 5.243288e+001
<MIXTURE> 13 5.203689e-002
<MEAN> 39
 -1.276360e+001 2.165958e+000 1.956907e+000 8.061805e-001 2.925244e+000 3.047919e-001 4.354049e+000 2.139004e+000 4.305740e+000 3.395078e+000 3.359258e+000 2.076404e+000 6.245301e+001 8.710749e-001 -9.806688e-001 -3.203479e-001 -1.479763e+000 -1.655091e+000 -1.213412e+000 -1.149696e+000 -9.173769e-001 -1.187908e+000 -5.284860e-001 -1.374368e+000 -3.489987e-001 2.090511e+000 1.043520e+000 9.360125e-002 -1.666382e-001 -7.911981e-001 -9.598125e-001 -6.239021e-001 -9.037715e-001 -5.924544e-001 -8.596018e-001 -1.505558e-001 -1.076980e+000 -1.670172e-001 6.107807e-001
<VARIANCE> 39
 5.731599e+001 2.515275e+001 3.279915e+001 3.082602e+001 4.030843e+001 2.771814e+001 2.366512e+001 2.599557e+001 2.497449e+001 2.701957e+001 2.321175e+001 1.997842e+001 6.148730e+001 6.530911e+000 3.741687e+000 3.741693e+000 3.693666e+000 5.243301e+000 3.690589e+000 3.876682e+000 3.652679e+000 3.895375e+000 3.470281e+000 4.178113e+000 2.428266e+000 5.976688e+000 7.179749e-001 6.887302e-001 6.768584e-001 6.794401e-001 8.717563e-001 5.884641e-001 5.164463e-001 5.673472e-001 5.968646e-001 6.726170e-001 6.051715e-001 4.092675e-001 9.456144e-001
<GCONST> 1.284867e+002
<MIXTURE> 14 5.062803e-002
<MEAN> 39
 -4.203251e-001 2.895513e-001 1.111377e-001 -1.019058e+001 -8.861932e+000 -6.253104e+000 -6.061580e+000 -3.445300e+000 -6.627913e+000 1.549600e+000 -9.929594e+000 6.702675e-002 7.116808e+001 1.333365e+000 -1.175216e+000 -8.131049e-001 -1.850769e+000 -1.397828e+000 8.010738e-001 -1.129601e+000 4.282787e-001 -1.629261e+000 -8.831549e-002 -1.916715e+000 6.748476e-001 1.298258e+000 -5.114638e-001 2.099942e-001 1.313493e-001 5.944063e-001 6.214033e-001 3.046423e-001 3.891756e-001 1.938332e-001 3.347991e-001 4.414272e-002 5.157006e-001 4.028691e-002 -4.640427e-001
<VARIANCE> 39
 1.798760e+001 4.720466e+001 6.469247e+001 4.634146e+001 6.273621e+001 4.978820e+001 4.358081e+001 4.404212e+001 3.946432e+001 4.523738e+001 3.332090e+001 2.818089e+001 1.928855e+001 3.162461e+000 3.459269e+000 4.233847e+000 3.826610e+000 5.057661e+000 5.968581e+000 4.451221e+000 4.365704e+000 4.017047e+000 5.276682e+000 4.170606e+000 2.643973e+000 2.020498e+000 6.029237e-001 7.671772e-001 7.445557e-001 8.305236e-001 1.042620e+000 9.722536e-001 8.506665e-001 7.802838e-001 8.810700e-001 8.839460e-001 9.224693e-001 5.133132e-001 5.533313e-001
<GCONST> 1.337974e+002
<MIXTURE> 15 3.067943e-002
<MEAN> 39
 -8.043050e+000 2.941319e+000 2.212379e+000 -3.689282e+000 -3.250553e+000 -5.682336e+000 -1.471163e+000 -3.682443e+000 -1.307003e+000 4.155181e-001 -2.904078e+000 -8.269042e-001 6.792558e+001 3.353611e+000 -4.196666e-001 -4.554802e-001 -2.948204e+000 -3.281940e+000 -1.654073e+000 -2.787847e+000 -1.622867e+000 -2.701101e+000 -4.761399e-001 -3.380755e+000 -5.396521e-001 2.098652e+000 2.655380e-001 -7.194751e-002 -1.517524e-001 -2.731200e-001 -4.821957e-002 3.824228e-001 -9.175216e-002 2.927344e-001 -1.643173e-001 3.178748e-001 -2.520313e-001 2.864637e-001 -1.198520e-001
<VARIANCE> 39
 4.016569e+001 3.839155e+001 4.449934e+001 3.338218e+001 5.867835e+001 3.712698e+001 3.337939e+001 3.578787e+001 3.100597e+001 3.320172e+001 2.935215e+001 2.467076e+001 2.424871e+001 4.474946e+000 4.786069e+000 5.569745e+000 4.220244e+000 5.308685e+000 5.220881e+000 4.543423e+000 4.358171e+000 4.281507e+000 4.157312e+000 3.968585e+000 2.583018e+000 4.708672e+000 7.915086e-001 7.211943e-001 5.978985e-001 6.256162e-001 9.360909e-001 6.449382e-001 6.873847e-001 6.415567e-001 6.665096e-001 7.266096e-001 7.065749e-001 4.282866e-001 6.256266e-001
<GCONST> 1.318320e+002
<MIXTURE> 16 3.381282e-002
<MEAN> 39
 -8.848385e+000 1.120214e+000 3.479231e+000 3.236096e+000 6.941346e+000 3.473171e+000 7.543664e+000 4.566127e+000 5.102235e+000 3.712390e+000 5.838882e+000 4.298701e+000 5.393861e+001 -7.767186e-002 2.252490e-002 3.034879e-002 1.303100e-003 -1.632974e-001 -5.392812e-002 -1.061377e-001 -6.288899e-002 -1.490045e-001 1.405158e-002 -1.518796e-001 -1.535597e-001 5.425588e-002 -9.806307e-002 -5.193626e-002 -9.126112e-002 -1.683511e-001 -2.716152e-001 -1.719987e-001 -1.486539e-001 -1.183307e-001 -1.313597e-001 -7.419959e-002 -1.469334e-001 -6.766108e-002 4.387370e-001
<VARIANCE> 39
 6.004274e+000 1.716110e+001 5.751006e+000 1.209838e+001 1.394722e+001 1.067895e+001 1.431054e+001 1.220033e+001 1.628624e+001 1.310871e+001 1.290326e+001 1.232456e+001 1.420552e+001 1.174848e+000 7.979712e-001 7.583826e-001 1.068000e+000 1.690963e+000 1.365499e+000 1.303783e+000 1.459439e+000 1.565295e+000 1.504980e+000 1.343438e+000 1.259917e+000 1.414700e+000 1.663609e-001 1.530408e-001 1.664884e-001 2.561350e-001 3.453268e-001 3.002900e-001 2.798345e-001 2.902391e-001 3.413163e-001 3.000706e-001 2.818878e-001 2.554277e-001 3.390319e-001
<GCONST> 8.914817e+001
<TRANSP> 3
 0.000000e+000 1.000000e+000 0.000000e+000
 0.000000e+000 9.983138e-001 1.686199e-003
 0.000000e+000 0.000000e+000 0.000000e+000
<ENDHMM>
~h "SMOLA"
<BEGINHMM>
<NUMSTATES> 3
<STATE> 2
<NUMMIXES> 16
<MIXTURE> 1 4.088726e-002
<MEAN> 39
 -1.352966e+001 7.245246e+000 6.895435e-001 8.193391e+000 4.054293e+000 8.930536e+000 3.379366e+000 1.028189e+001 6.783934e+000 3.584596e+000 7.505229e+000 4.562236e+000 3.670416e+001 -4.688975e-002 9.557404e-002 5.977931e-002 7.252605e-002 5.826280e-002 1.109154e-001 1.088911e-001 2.345410e-001 1.993782e-001 2.157037e-001 2.160570e-001 1.298915e-001 -1.185267e-001 -4.682290e-005 -4.715388e-002 2.101078e-002 -5.558253e-002 1.925389e-002 -4.553452e-002 -5.770992e-003 -2.217213e-002 5.244092e-003 2.074844e-002 -5.083671e-002 -3.543897e-003 9.084574e-002
<VARIANCE> 39
 3.536585e+000 2.745812e+000 4.090732e+000 4.346683e+000 7.467143e+000 9.896674e+000 8.308656e+000 9.513840e+000 1.151850e+001 1.140850e+001 1.152902e+001 9.183963e+000 2.709474e+000 2.460932e-001 3.037216e-001 4.837602e-001 5.553841e-001 8.618746e-001 8.923373e-001 9.646129e-001 1.014520e+000 1.155118e+000 1.128337e+000 1.037197e+000 9.464725e-001 1.687858e-001 3.957078e-002 7.392988e-002 8.686329e-002 1.092512e-001 1.584889e-001 1.814275e-001 1.805607e-001 2.070832e-001 2.231040e-001 2.224790e-001 1.969456e-001 1.811287e-001 4.523850e-002
<GCONST> 6.355460e+001
<MIXTURE> 2 6.834974e-002
<MEAN> 39
 -9.580855e-001 -2.050430e+000 1.962674e+000 -4.045244e+000 -3.699328e+000 -7.442649e+000 -8.816483e+000 2.590782e+000 -1.137299e+001 6.226184e-001 3.241063e+000 -7.133172e+000 6.370721e+001 -8.848665e-001 2.247220e+000 -1.681000e-001 2.023998e+000 1.217240e+000 2.884796e-001 1.799921e+000 -8.657854e-001 1.200192e+000 9.097608e-002 -2.069280e-001 9.562167e-001 -2.282403e+000 -4.897912e-001 1.357651e-001 -1.706692e-001 1.090844e-002 -7.640045e-002 4.198974e-001 8.740813e-002 -3.073153e-002 8.025852e-001 -7.581212e-002 1.300343e-001 3.184969e-001 -1.426237e-001
<VARIANCE> 39
 1.660836e+001 3.815086e+001 4.988907e+001 5.939514e+001 4.968316e+001 5.520872e+001 5.399907e+001 4.327376e+001 4.427999e+001 4.311867e+001 3.463291e+001 2.285001e+001 5.061784e+001 2.344250e+000 3.516732e+000 2.478089e+000 3.579261e+000 3.089011e+000 3.720937e+000 3.508686e+000 2.823919e+000 5.591339e+000 2.819202e+000 2.392858e+000 2.079555e+000 3.820498e+000 3.622478e-001 7.340311e-001 4.759444e-001 8.611082e-001 6.834980e-001 7.060338e-001 8.370732e-001 6.409702e-001 9.269967e-001 6.344721e-001 4.858789e-001 4.532447e-001 8.373033e-001
<GCONST> 1.288892e+002
<MIXTURE> 3 4.936231e-002
<MEAN> 39
 -1.233395e+000 -5.320334e+000 2.879399e+000 -7.103340e+000 -9.945423e+000 -3.679642e+000 -1.234002e+001 1.777511e+000 -9.579353e+000 -1.931242e+000 6.008317e+000 -6.725990e+000 6.791468e+001 6.234260e-001 -1.229042e+000 1.084862e-001 -1.344539e+000 -2.595744e-001 7.147197e-001 -1.274066e+000 1.209470e+000 -3.520753e-001 4.750886e-001 6.918919e-001 -3.109166e-001 7.036666e-001 -2.952326e-001 3.875602e-001 -1.057003e-001 3.560739e-001 5.442569e-001 1.377423e-002 4.800430e-001 -1.506912e-002 2.885109e-001 7.108535e-002 -2.190806e-001 1.787923e-001 -4.771056e-001
<VARIANCE> 39
 2.728370e+001 3.423125e+001 9.238091e+001 4.569376e+001 6.390967e+001 6.256226e+001 4.271085e+001 4.735730e+001 5.347322e+001 4.208679e+001 2.650536e+001 2.141058e+001 2.397511e+001 1.710759e+000 2.744013e+000 2.965287e+000 4.318274e+000 3.007369e+000 3.946456e+000 3.640097e+000 3.541371e+000 4.771038e+000 2.771425e+000 2.186141e+000 1.982311e+000 2.564916e+000 4.475832e-001 4.683887e-001 6.953281e-001 8.096134e-001 7.575592e-001 9.599081e-001 9.052403e-001 8.416027e-001 1.143653e+000 5.163208e-001 4.544654e-001 4.761085e-001 4.960633e-001
<GCONST> 1.286383e+002
<MIXTURE> 4 8.375018e-002
<MEAN> 39
