~o
<STREAMINFO> 1 39
<VECSIZE> 39<NULLD><MFCC_D_A_0><DIAGC>
~h "MJ"
<BEGINHMM>
<NUMSTATES> 3
<STATE> 2
<NUMMIXES> 2
<MIXTURE> 1 5.033066e-001
<MEAN> 39
 -8.203403e+000 -2.175818e+000 -1.130078e+000 -8.918702e+000 -7.564710e+000 -7.681172e+000 -9.974792e+000 -2.839368e+000 -1.207261e+000 3.119117e+000 -8.334750e-001 -2.904213e+000 6.528184e+001 -1.633560e-001 1.588998e-001 -4.992170e-002 1.795367e-001 2.082683e-001 1.819286e-002 3.138965e-001 3.116986e-002 1.933454e-001 1.059376e-002 7.518675e-002 1.522163e-001 -1.492306e-001 2.851474e-002 3.185273e-002 3.239463e-002 7.692706e-002 -2.639052e-002 3.062540e-002 2.932086e-002 -2.536156e-002 2.513458e-003 -2.940078e-002 2.638330e-002 -1.997841e-002 -7.161698e-002
<VARIANCE> 39
 7.390904e+001 3.605349e+001 7.092988e+001 4.843172e+001 5.201936e+001 6.729022e+001 7.094981e+001 4.125221e+001 5.132479e+001 3.309429e+001 3.391201e+001 2.924690e+001 5.490849e+001 3.124810e+000 2.133168e+000 2.784550e+000 2.991586e+000 3.089225e+000 3.257711e+000 3.907310e+000 3.019659e+000 3.275240e+000 2.277798e+000 2.313019e+000 2.055125e+000 2.462025e+000 5.187557e-001 3.912338e-001 4.438168e-001 5.230217e-001 5.691823e-001 5.835656e-001 7.224034e-001 5.723733e-001 6.068665e-001 4.296369e-001 4.444050e-001 4.001222e-001 3.789156e-001
<GCONST> 1.263730e+002
<MIXTURE> 2 4.966933e-001
<MEAN> 39
 -7.340839e+000 -2.228243e+000 -8.020972e-001 -7.668015e+000 -8.661402e+000 -6.983246e+000 -9.624411e+000 -3.076953e+000 -1.881248e+000 2.309808e+000 -5.504484e-001 -3.708874e+000 6.299413e+001 1.681806e-001 -1.606845e-001 5.119322e-002 -1.810182e-001 -2.106610e-001 -1.712193e-002 -3.147858e-001 -3.027000e-002 -1.993901e-001 -1.056481e-002 -8.015971e-002 -1.519043e-001 1.499592e-001 -2.895298e-002 -3.209781e-002 -3.246596e-002 -7.881247e-002 2.618604e-002 -3.105586e-002 -3.061822e-002 2.559539e-002 -2.597551e-003 2.895273e-002 -2.686667e-002 2.021137e-002 7.278492e-002
<VARIANCE> 39
 5.076313e+001 2.866070e+001 7.856717e+001 4.122585e+001 5.058109e+001 5.299393e+001 6.408385e+001 3.842348e+001 5.124292e+001 3.067959e+001 3.243291e+001 3.005764e+001 7.351248e+001 2.935530e+000 1.856083e+000 2.862655e+000 2.682961e+000 3.162775e+000 3.096863e+000 3.849406e+000 2.952945e+000 3.295288e+000 2.170264e+000 2.361438e+000 2.149415e+000 2.210082e+000 3.557864e-001 3.118632e-001 4.043311e-001 4.605760e-001 5.311909e-001 5.021580e-001 6.328452e-001 5.429891e-001 5.804425e-001 4.044137e-001 4.267349e-001 3.825008e-001 3.758360e-001
<GCONST> 1.236073e+002
<TRANSP> 3
 0.000000e+000 1.000000e+000 0.000000e+000
 0.000000e+000 9.983178e-001 1.682227e-003
 0.000000e+000 0.000000e+000 0.000000e+000
<ENDHMM>
~h "PB"
<BEGINHMM>
<NUMSTATES> 3
<STATE> 2
<NUMMIXES> 2
<MIXTURE> 1 5.095446e-001
<MEAN> 39
 -8.459641e+000 2.988916e+000 -1.146621e-001 -8.186525e-001 -3.269518e+000 6.215320e-001 -1.348404e+000 2.238437e+000 2.067954e+000 1.279194e+000 1.341586e+000 -1.273644e+000 5.617060e+001 -1.548274e-001 1.813970e-001 -1.115114e-001 2.203846e-001 2.191597e-001 5.434262e-002 2.770651e-001 -1.311419e-002 8.411985e-002 8.551212e-002 2.281575e-002 1.891745e-001 -3.011182e-001 3.470583e-002 -1.262884e-002 3.707450e-002 -1.066284e-002 -8.780380e-003 8.465070e-003 -2.042337e-002 6.240415e-003 4.774269e-004 -1.139846e-003 -9.125059e-003 -5.177944e-003 3.815582e-002
<VARIANCE> 39
 4.298028e+001 2.196933e+001 3.480328e+001 2.427319e+001 4.048429e+001 3.024855e+001 4.429660e+001 2.338709e+001 2.071703e+001 1.717202e+001 1.721087e+001 2.481759e+001 7.205219e+001 1.103718e+000 1.287244e+000 1.148027e+000 1.416910e+000 1.557664e+000 1.592952e+000 1.851474e+000 1.704519e+000 1.595334e+000 1.493495e+000 1.482278e+000 1.412534e+000 1.205721e+000 2.643038e-001 2.030602e-001 2.323425e-001 2.678198e-001 3.188412e-001 3.134908e-001 3.799600e-001 3.360507e-001 3.267893e-001 3.069867e-001 2.976783e-001 2.860070e-001 2.255002e-001
<GCONST> 1.039034e+002
<MIXTURE> 2 4.904554e-001
<MEAN> 39
 -3.285108e+000 1.682510e+000 4.969479e+000 -4.411821e+000 -9.911444e+000 -1.493386e+000 -8.810803e+000 8.996088e-001 3.815969e-001 -3.420229e-001 7.769590e-001 -5.559065e+000 6.740041e+001 1.614064e-001 -1.880410e-001 1.164239e-001 -2.283834e-001 -2.270646e-001 -5.808800e-002 -2.894868e-001 1.425460e-002 -8.747081e-002 -9.118161e-002 -2.323538e-002 -1.953853e-001 3.128473e-001 -3.524236e-002 1.299090e-002 -3.915070e-002 1.015324e-002 9.255910e-003 -8.817274e-003 2.068528e-002 -6.228340e-003 -7.722492e-004 1.265224e-003 9.990063e-003 6.590155e-003 -3.971841e-002
<VARIANCE> 39
 5.451760e+001 6.473121e+001 7.406464e+001 4.987437e+001 7.347804e+001 5.074588e+001 5.757236e+001 4.834804e+001 4.210445e+001 3.314188e+001 2.938014e+001 4.192302e+001 4.648269e+001 4.378993e+000 3.930369e+000 4.173916e+000 4.022925e+000 5.463971e+000 3.652819e+000 4.838575e+000 4.079854e+000 3.348519e+000 2.681697e+000 2.623647e+000 3.340777e+000 3.558511e+000 5.662073e-001 6.604175e-001 5.946548e-001 7.020472e-001 9.232457e-001 6.226407e-001 8.598385e-001 7.442011e-001 6.086352e-001 5.140751e-001 5.011784e-001 5.966917e-001 5.499225e-001
<GCONST> 1.338654e+002
<TRANSP> 3
 0.000000e+000 1.000000e+000 0.000000e+000
 0.000000e+000 9.985216e-001 1.478415e-003
 0.000000e+000 0.000000e+000 0.000000e+000
<ENDHMM>
~h "TOMAS"
<BEGINHMM>
<NUMSTATES> 3
<STATE> 2
<NUMMIXES> 2
<MIXTURE> 1 5.255124e-001
<MEAN> 39
 -7.163749e+000 3.853445e+000 3.872979e+000 -2.280042e-001 1.245370e+000 -2.353070e+000 7.574677e-001 9.501945e-001 1.219787e+000 1.547226e+000 2.889155e+000 2.686542e+000 5.878761e+001 -1.319591e-001 1.716951e-001 -9.334690e-002 2.213399e-001 2.985963e-001 -5.457046e-003 2.532536e-001 2.879868e-002 1.991813e-001 1.220621e-001 9.477025e-002 7.747750e-002 -3.892096e-001 -4.377352e-003 -2.734634e-002 3.060290e-002 7.655081e-003 -4.937115e-002 -1.523412e-002 -8.487455e-003 5.294359e-004 -1.437169e-002 -8.818355e-003 7.513245e-003 -1.011629e-002 4.083680e-002
<VARIANCE> 39
 5.409724e+001 2.787435e+001 3.447436e+001 4.421682e+001 3.757765e+001 4.553378e+001 4.578449e+001 3.999741e+001 3.737616e+001 2.851802e+001 2.448070e+001 1.957827e+001 6.175407e+001 1.043978e+000 1.074397e+000 1.032323e+000 1.513276e+000 1.797523e+000 2.011680e+000 1.766360e+000 1.806494e+000 1.941208e+000 1.743172e+000 1.605682e+000 1.440911e+000 9.108226e-001 1.783103e-001 1.788699e-001 1.995619e-001 2.791167e-001 3.329889e-001 3.966865e-001 3.546187e-001 3.520603e-001 3.798986e-001 3.470351e-001 3.100066e-001 2.893955e-001 1.553304e-001
<GCONST> 1.067832e+002
<MIXTURE> 2 4.744882e-001
<MEAN> 39
 -4.585463e+000 3.887333e+000 6.807168e+000 -1.637540e+000 -3.471296e+000 -4.169702e+000 -3.743591e+000 -2.462482e+000 -1.575642e+000 -1.138929e-001 2.559221e+000 1.522525e+000 6.577860e+001 1.405579e-001 -1.776103e-001 1.060207e-001 -2.439439e-001 -3.278567e-001 3.942257e-003 -2.766503e-001 -4.250674e-002 -2.349682e-001 -1.208267e-001 -1.024606e-001 -9.737764e-002 4.327947e-001 3.453143e-003 3.135239e-002 -3.520107e-002 -5.996889e-003 4.949324e-002 1.906347e-002 6.883797e-003 1.170210e-003 1.502636e-002 1.032925e-002 -6.886246e-003 1.056371e-002 -4.511871e-002
<VARIANCE> 39
 6.215990e+001 3.906661e+001 6.528732e+001 6.227609e+001 7.348298e+001 6.257521e+001 5.953526e+001 4.628094e+001 5.249658e+001 4.038276e+001 3.260314e+001 2.396034e+001 4.570909e+001 4.075962e+000 2.606493e+000 3.366001e+000 3.691613e+000 5.264789e+000 4.602272e+000 4.461570e+000 3.431187e+000 3.935464e+000 2.830249e+000 2.511068e+000 2.190662e+000 2.898353e+000 5.358869e-001 4.293077e-001 5.066639e-001 5.669193e-001 9.324184e-001 7.799267e-001 8.050236e-001 6.068781e-001 6.918959e-001 5.317972e-001 4.647247e-001 4.186271e-001 4.607034e-001
<GCONST> 1.310943e+002
<TRANSP> 3
 0.000000e+000 1.000000e+000 0.000000e+000
 0.000000e+000 9.971837e-001 2.816306e-003
 0.000000e+000 0.000000e+000 0.000000e+000
<ENDHMM>
~h "CERNY"
<BEGINHMM>
<NUMSTATES> 3
<STATE> 2
<NUMMIXES> 2
<MIXTURE> 1 5.395277e-001
<MEAN> 39
 -1.137649e+001 -6.510145e-001 -2.007504e+000 -2.409781e+000 -2.482675e+000 -1.499878e+000 -2.526878e+000 -4.911554e-001 3.166306e-001 4.415378e-001 2.317762e-001 -1.899090e-001 6.163277e+001 -9.894159e-002 7.203903e-002 -3.629720e-002 1.280828e-001 1.657166e-001 1.301016e-001 2.117602e-001 8.157341e-003 -2.636425e-002 2.223684e-002 1.098053e-001 1.009214e-001 -1.328967e-001 1.556110e-002 -3.426870e-002 1.717483e-002 -2.192808e-002 -4.322056e-002 -3.510619e-002 -5.642301e-002 2.643698e-002 4.545622e-002 2.041507e-002 -5.870360e-003 -2.382487e-003 3.848469e-002
<VARIANCE> 39
 1.408648e+001 1.067632e+001 1.519071e+001 2.311987e+001 2.030259e+001 1.671283e+001 2.935619e+001 1.762646e+001 1.582687e+001 1.579965e+001 1.281649e+001 1.432813e+001 1.178847e+001 3.670623e-001 4.953322e-001 6.366714e-001 9.391931e-001 1.066964e+000 1.175012e+000 1.475520e+000 1.393608e+000 1.422608e+000 1.348294e+000 1.196247e+000 1.105451e+000 2.463406e-001 7.456814e-002 9.410809e-002 1.188368e-001 1.854680e-001 2.176630e-001 2.379032e-001 3.058206e-001 2.839928e-001 2.944406e-001 2.766533e-001 2.488744e-001 2.252994e-001 5.062656e-002
<GCONST> 8.353663e+001
<MIXTURE> 2 4.604718e-001
<MEAN> 39
 -9.040410e+000 -2.375173e+000 -2.958283e-001 -6.284638e+000 -7.508187e+000 -4.752559e+000 -9.518730e+000 -5.019454e-002 2.156966e+000 1.544981e+000 -8.018622e-001 -1.969149e+000 6.694242e+001 1.140175e-001 -8.393797e-002 4.270846e-002 -1.500940e-001 -1.937027e-001 -1.542642e-001 -2.515506e-001 -6.647907e-003 2.774830e-002 -2.600536e-002 -1.340908e-001 -1.161630e-001 1.550775e-001 -1.820584e-002 3.958770e-002 -1.968795e-002 2.563752e-002 5.018502e-002 4.073017e-002 6.516699e-002 -3.153439e-002 -5.333921e-002 -2.432177e-002 7.715746e-003 2.754034e-003 -4.518884e-002
<VARIANCE> 39
 2.327719e+001 3.086082e+001 4.637576e+001 5.407338e+001 4.398553e+001 3.919501e+001 5.456095e+001 4.038068e+001 3.802411e+001 3.488427e+001 2.046685e+001 3.011319e+001 1.621634e+001 1.600736e+000 2.195837e+000 2.181596e+000 3.124662e+000 3.461666e+000 2.666649e+000 4.536103e+000 3.092243e+000 2.957212e+000 2.576879e+000 1.759093e+000 1.895237e+000 1.216071e+000 2.139702e-001 3.429231e-001 3.235661e-001 4.817659e-001 5.847500e-001 4.795097e-001 8.092953e-001 5.634448e-001 5.268881e-001 4.624657e-001 3.389799e-001 3.343612e-001 1.939481e-001
<GCONST> 1.173448e+002
<TRANSP> 3
 0.000000e+000 1.000000e+000 0.000000e+000
 0.000000e+000 9.985551e-001 1.444878e-003
 0.000000e+000 0.000000e+000 0.000000e+000
<ENDHMM>
~h "ZSS2"
<BEGINHMM>
<NUMSTATES> 3
<STATE> 2
<NUMMIXES> 2
<MIXTURE> 1 4.887838e-001
<MEAN> 39
 -9.598709e+000 3.373506e+000 2.368219e+000 1.829498e+000 3.909340e+000 1.814393e+000 4.044043e+000 2.086977e+000 3.167675e+000 2.936086e+000 2.450796e+000 2.689745e+000 5.900130e+001 -4.651161e-001 2.480234e-002 5.013552e-002 4.274519e-001 5.430357e-001 2.880165e-001 4.654888e-001 2.801521e-001 5.086100e-001 1.199317e-001 5.761395e-001 5.142020e-002 -4.691354e-001 7.555564e-002 -1.057923e-001 -2.630097e-002 -1.559457e-001 -1.373299e-001 -5.823944e-002 -9.194437e-002 -3.614179e-002 -1.051069e-001 -6.010146e-005 -1.270824e-001 9.532070e-003 1.649287e-001
<VARIANCE> 39
 6.102012e+001 2.432328e+001 2.760748e+001 3.398953e+001 4.987563e+001 3.221113e+001 4.144165e+001 3.136964e+001 4.084644e+001 2.119479e+001 4.392392e+001 1.839277e+001 6.195579e+001 2.500178e+000 1.486277e+000 1.452311e+000 2.363755e+000 2.833287e+000 2.151547e+000 2.271527e+000 1.974517e+000 2.461513e+000 1.886073e+000 2.351794e+000 1.484229e+000 2.622980e+000 3.893752e-001 2.747935e-001 2.568836e-001 4.056485e-001 4.996679e-001 4.243065e-001 3.972911e-001 3.811660e-001 4.542068e-001 3.682504e-001 4.107632e-001 2.982607e-001 5.080409e-001
<GCONST> 1.150645e+002
<MIXTURE> 2 5.112135e-001
<MEAN> 39
 -3.604537e+000 1.678508e+000 1.222225e+000 -6.946736e+000 -5.338615e+000 -4.007316e+000 -4.119886e+000 -2.518675e+000 -4.904704e+000 1.889314e+000 -7.242969e+000 4.998341e-001 6.892944e+001 4.510236e-001 -2.409355e-002 -4.806896e-002 -4.038571e-001 -5.152942e-001 -2.700885e-001 -4.459436e-001 -2.737836e-001 -4.845046e-001 -1.151293e-001 -5.514704e-001 -5.033784e-002 4.411620e-001 -7.195340e-002 1.015174e-001 2.542048e-002 1.475571e-001 1.305499e-001 5.503229e-002 8.707199e-002 3.367094e-002 9.933924e-002 4.573228e-004 1.219548e-001 -8.971901e-003 -1.574831e-001
<VARIANCE> 39
 5.406363e+001 5.196198e+001 6.334461e+001 6.065381e+001 7.467384e+001 5.234391e+001 5.755801e+001 4.445686e+001 5.493101e+001 4.274634e+001 5.922062e+001 2.892640e+001 3.374208e+001 4.831853e+000 3.848952e+000 3.584551e+000 5.453130e+000 6.180831e+000 4.687119e+000 4.613008e+000 3.707541e+000 4.678236e+000 3.789376e+000 5.342916e+000 2.533874e+000 3.974936e+000 7.980222e-001 6.461862e-001 5.978484e-001 9.084813e-001 1.107263e+000 8.594908e-001 8.214979e-001 7.001445e-001 8.419889e-001 7.331892e-001 9.861162e-001 4.826012e-001 6.324729e-001
<GCONST> 1.381198e+002
<TRANSP> 3
 0.000000e+000 1.000000e+000 0.000000e+000
 0.000000e+000 9.983138e-001 1.686199e-003
 0.000000e+000 0.000000e+000 0.000000e+000
<ENDHMM>
~h "SMOLA"
<BEGINHMM>
<NUMSTATES> 3
<STATE> 2
<NUMMIXES> 2
<MIXTURE> 1 4.346380e-001
<MEAN> 39
 -1.029911e+001 3.987430e+000 -1.472805e-001 2.167469e+000 4.303397e-001 5.513162e-001 -1.035289e+000 4.391511e+000 -3.924840e-002 1.157459e+000 4.155553e+000 -4.328631e-002 5.137328e+001 -3.881215e-001 3.410227e-001 -1.070715e-001 2.484265e-001 2.277294e-001 2.762870e-001 4.088393e-001 -1.407488e-001 3.888736e-001 4.165840e-002 -2.248420e-003 2.815745e-001 -4.792098e-001 9.020452e-002 -1.306089e-001 4.754344e-002 -9.740920e-002 -4.760301e-002 -3.769415e-002 -8.447878e-002 -2.766040e-002 -7.692438e-002 -3.549426e-002 -4.523595e-002 -7.196909e-002 2.092904e-001
<VARIANCE> 39
 5.882632e+001 3.853325e+001 2.614565e+001 5.199855e+001 3.702600e+001 6.416406e+001 5.276749e+001 3.889803e+001 6.128232e+001 2.507495e+001 2.382337e+001 3.201985e+001 1.421466e+002 1.945259e+000 2.184862e+000 1.458234e+000 2.068588e+000 1.949390e+000 2.173886e+000 2.394823e+000 1.996584e+000 2.875265e+000 1.872157e+000 1.835402e+000 1.641438e+000 3.710692e+000 3.590989e-001 3.737628e-001 2.748620e-001 3.724499e-001 3.859459e-001 4.680623e-001 4.696279e-001 3.979797e-001 5.845753e-001 3.790282e-001 3.574767e-001 3.353888e-001 6.525506e-001
<GCONST> 1.188756e+002
<MIXTURE> 2 5.653639e-001
<MEAN> 39
 -3.410225e+000 -3.415304e+000 1.649038e+000 -5.384509e+000 -5.903084e+000 -4.615204e+000 -9.818243e+000 2.000517e+000 -7.345438e+000 -8.854800e-001 3.766091e+000 -6.321021e+000 6.573726e+001 2.989071e-001 -2.548510e-001 1.024369e-001 -2.137071e-001 -1.589530e-001 -2.086869e-001 -3.000179e-001 6.722987e-002 -3.456387e-001 -4.674672e-002 -1.128026e-002 -2.247270e-001 3.942398e-001 -7.203262e-002 9.860323e-002 -3.542981e-002 7.295366e-002 3.899658e-002 2.989368e-002 6.402662e-002 2.170241e-002 5.908149e-002 2.797692e-002 3.204868e-002 5.219149e-002 -1.590019e-001
<VARIANCE> 39
 4.785781e+001 6.248671e+001 5.741964e+001 6.552686e+001 5.452909e+001 5.061587e+001 5.927966e+001 4.761345e+001 5.823048e+001 3.784790e+001 3.120992e+001 2.869294e+001 5.464801e+001 4.060930e+000 4.666490e+000 3.233929e+000 5.034440e+000 4.020028e+000 4.538666e+000 5.612892e+000 4.169458e+000 5.898668e+000 2.835252e+000 2.596012e+000 2.832336e+000 5.779405e+000 5.451534e-001 7.227727e-001 5.161785e-001 8.285550e-001 7.067518e-001 7.907290e-001 9.994822e-001 7.777900e-001 1.061877e+000 5.111420e-001 4.924679e-001 4.941923e-001 8.610017e-001
<GCONST> 1.358444e+002
<TRANSP> 3
 0.000000e+000 1.000000e+000 0.000000e+000
 0.000000e+000 9.965732e-001 3.426764e-003
 0.000000e+000 0.000000e+000 0.000000e+000
<ENDHMM>
~h "NOZICKA"
<BEGINHMM>
<NUMSTATES> 3
<STATE> 2
<NUMMIXES> 2
<MIXTURE> 1 4.695146e-001
<MEAN> 39
 -1.226929e+001 -1.144999e+001 1.240669e+001 -1.302893e+001 -8.351988e-001 2.915730e-002 -4.366190e+000 -1.256257e+000 -4.472257e-001 -2.814279e+000 4.069004e+000 -3.132511e+000 6.227402e+001 -8.813442e-002 -3.882734e-002 1.844440e-001 -1.283921e-001 2.608974e-001 -2.289989e-001 2.070870e-001 -2.698994e-002 1.418049e-001 8.645736e-002 9.695508e-002 1.020162e-001 3.168871e-001 1.729136e-002 -3.828303e-002 6.769620e-003 -1.051459e-002 -7.230812e-002 4.488336e-002 -1.409666e-002 2.278857e-002 2.770101e-002 -1.361309e-002 3.021609e-002 3.075476e-003 5.025482e-002
<VARIANCE> 39
 1.142455e+002 1.265793e+002 1.501078e+002 1.422978e+002 1.428151e+002 1.424400e+002 1.145369e+002 9.164641e+001 9.719955e+001 6.863029e+001 5.503121e+001 4.308334e+001 2.489312e+002 5.058260e+000 6.783991e+000 6.287872e+000 7.828403e+000 8.900653e+000 7.824424e+000 7.142889e+000 5.132506e+000 6.527424e+000 4.316384e+000 4.134454e+000 2.781137e+000 7.813480e+000 6.954739e-001 1.015535e+000 9.961376e-001 1.303204e+000 1.535689e+000 1.288765e+000 1.234954e+000 8.816342e-001 1.124199e+000 8.057144e-001 7.454106e-001 5.300807e-001 1.090213e+000
<GCONST> 1.553521e+002
<MIXTURE> 2 5.304837e-001
<MEAN> 39
 -1.761244e+001 -7.110038e+000 2.983150e+000 -6.280296e+000 -5.206806e+000 2.538940e+000 -4.763314e+000 1.368424e-001 9.539515e-001 -2.621453e+000 2.945153e+000 -2.098366e+000 4.786156e+001 7.805444e-002 3.028024e-002 -1.652854e-001 1.107447e-001 -2.207882e-001 2.037826e-001 -1.877706e-001 2.088669e-002 -1.283763e-001 -6.782922e-002 -8.205731e-002 -8.998259e-002 -2.764888e-001 -1.660289e-002 3.636199e-002 -5.584339e-004 1.110223e-002 6.502172e-002 -4.141182e-002 9.457681e-003 -2.081439e-002 -2.858904e-002 1.001615e-002 -2.567985e-002 -2.692422e-003 -4.548034e-002
<VARIANCE> 39
 1.174016e+002 1.374948e+002 2.263611e+002 1.515182e+002 7.815670e+001 7.833868e+001 5.967482e+001 4.717398e+001 5.102166e+001 3.785115e+001 3.633533e+001 2.691333e+001 5.618906e+002 1.620090e+000 2.075084e+000 1.852403e+000 2.418726e+000 2.909558e+000 2.805002e+000 3.074550e+000 2.316780e+000 2.943208e+000 2.180311e+000 1.931428e+000 1.610160e+000 1.787207e+000 2.169175e-001 3.113657e-001 2.854557e-001 3.911504e-001 4.549348e-001 4.322579e-001 4.977295e-001 4.026419e-001 4.898486e-001 3.845106e-001 3.521789e-001 2.865881e-001 2.454880e-001
<GCONST> 1.261152e+002
<TRANSP> 3
 0.000000e+000 1.000000e+000 0.000000e+000
 0.000000e+000 9.975101e-001 2.489944e-003
 0.000000e+000 0.000000e+000 0.000000e+000
<ENDHMM>
~h "DAVID"
<BEGINHMM>
<NUMSTATES> 3
<STATE> 2
<NUMMIXES> 2
<MIXTURE> 1 5.079244e-001
<MEAN> 39
 -1.197586e+001 1.098575e+000 -9.822441e-001 -3.167231e+000 -7.701491e-002 -1.969113e+000 -5.411859e-001 -1.997135e-001 -1.678405e+000 6.670045e-001 -5.968375e-001 -1.086757e+000 6.717761e+001 -2.492460e-001 7.996675e-002 -4.469972e-002 1.607319e-001 1.296370e-001 4.850625e-002 2.395762e-001 -1.408034e-002 1.921501e-001 -1.860017e-002 1.038638e-001 1.959723e-001 -1.409331e-001 2.365774e-002 2.981482e-002 5.301896e-002 2.095376e-002 -1.655376e-002 -1.472065e-002 -8.174668e-003 -3.085513e-002 -2.522081e-002 -1.606633e-002 5.570968e-005 -9.509260e-003 1.787484e-002
<VARIANCE> 39
 6.070984e+001 2.240084e+001 2.719097e+001 4.524673e+001 2.457772e+001 2.551476e+001 3.401279e+001 2.797099e+001 4.088712e+001 1.972140e+001 2.397484e+001 1.991649e+001 7.578878e+001 1.855574e+000 1.188544e+000 1.195137e+000 2.122330e+000 1.574915e+000 1.725738e+000 2.108344e+000 2.122287e+000 2.283926e+000 1.740971e+000 1.711787e+000 1.335174e+000 1.355585e+000 3.319440e-001 2.028940e-001 2.122050e-001 3.887581e-001 2.852368e-001 3.129524e-001 4.001355e-001 4.102009e-001 4.414676e-001 3.405438e-001 3.294822e-001 2.667798e-001 2.700846e-001
<GCONST> 1.081751e+002
<MIXTURE> 2 4.920742e-001
<MEAN> 39
 -9.516181e+000 2.151967e+000 3.194451e+000 -4.891101e+000 -2.543785e+000 -3.347936e+000 -3.271469e+000 -1.151845e+000 -6.066916e+000 6.057944e-001 -1.102668e+000 -3.746186e+000 7.324783e+001 2.566973e-001 -8.536287e-002 4.751803e-002 -1.628045e-001 -1.332539e-001 -4.580352e-002 -2.437836e-001 1.040360e-002 -2.040885e-001 9.985999e-003 -1.106608e-001 -1.990801e-001 1.449218e-001 -2.410270e-002 -3.143323e-002 -5.477655e-002 -2.216737e-002 1.580325e-002 1.329568e-002 8.285623e-003 3.381625e-002 2.550999e-002 1.560700e-002 -1.020967e-003 1.128412e-002 -1.883391e-002
<VARIANCE> 39
 6.619774e+001 3.225859e+001 7.037218e+001 5.334330e+001 4.860216e+001 3.582523e+001 5.329715e+001 4.973336e+001 6.765958e+001 2.789680e+001 3.028843e+001 2.823278e+001 4.872539e+001 4.133566e+000 2.218113e+000 3.137375e+000 4.312259e+000 3.104649e+000 2.914430e+000 4.126608e+000 4.164007e+000 5.178008e+000 2.658902e+000 2.438566e+000 2.136950e+000 2.931750e+000 5.021220e-001 3.703819e-001 4.294387e-001 7.126783e-001 5.232647e-001 5.397107e-001 7.182225e-001 7.787059e-001 8.730811e-001 5.164292e-001 4.625212e-001 3.787667e-001 4.362951e-001
<GCONST> 1.282359e+002
<TRANSP> 3
 0.000000e+000 1.000000e+000 0.000000e+000
 0.000000e+000 9.973117e-001 2.688353e-003
 0.000000e+000 0.000000e+000 0.000000e+000
<ENDHMM>
~h "JAN"
<BEGINHMM>
<NUMSTATES> 3
<STATE> 2
<NUMMIXES> 2
<MIXTURE> 1 5.087297e-001
<MEAN> 39
 -9.579819e+000 -5.493828e+000 -8.220698e-001 -2.148348e+000 -1.004539e+001 3.368410e+000 2.743830e+000 -6.179464e-001 -9.607787e-001 2.242739e+000 -7.230684e+000 -5.748308e+000 4.742271e+001 -7.947162e-002 3.873361e-002 -1.747220e-001 2.434337e-002 1.651530e-001 9.831775e-002 1.936493e-001 1.344603e-001 9.334335e-002 1.346271e-002 2.109100e-002 1.009215e-001 -1.176170e-001 -3.888017e-003 -3.839060e-002 4.859346e-002 -3.282427e-002 -7.524966e-003 7.448064e-003 -1.990872e-002 9.542140e-003 8.671423e-003 2.330628e-002 8.730688e-003 -2.449075e-003 3.316762e-002
<VARIANCE> 39
 2.319275e+001 1.933883e+001 5.589814e+001 2.252861e+001 3.046471e+001 2.668635e+001 6.990066e+001 5.867241e+001 2.279612e+001 2.225754e+001 1.567011e+001 1.482770e+001 2.718560e+001 3.076381e-001 7.665780e-001 1.051425e+000 1.075743e+000 1.206059e+000 1.255865e+000 1.765210e+000 1.712976e+000 1.357417e+000 1.424195e+000 1.231613e+000 9.954118e-001 3.791720e-001 5.865295e-002 1.288381e-001 1.782929e-001 1.924045e-001 2.158778e-001 2.254804e-001 3.400328e-001 3.246201e-001 2.654640e-001 2.773684e-001 2.468275e-001 1.946390e-001 6.141828e-002
<GCONST> 9.309619e+001
<MIXTURE> 2 4.912712e-001
<MEAN> 39
 -6.961695e+000 -7.836540e+000 6.423949e+000 -4.694782e+000 -1.467281e+001 6.029333e-001 -3.978050e+000 -5.063165e+000 -2.333911e+000 4.211089e+000 -6.568698e+000 -6.987916e+000 5.279419e+001 8.107635e-002 -4.312179e-002 1.795745e-001 -2.548113e-002 -1.677199e-001 -1.037196e-001 -2.015076e-001 -1.400408e-001 -9.717160e-002 -1.468250e-002 -2.637756e-002 -1.005433e-001 1.221065e-001 4.328059e-003 3.927997e-002 -5.073350e-002 3.426759e-002 7.947062e-003 -7.155114e-003 1.997131e-002 -9.384231e-003 -1.084791e-002 -2.571342e-002 -8.755160e-003 4.137731e-003 -3.404665e-002
<VARIANCE> 39
 2.322215e+001 3.786712e+001 6.827220e+001 3.806117e+001 5.054509e+001 4.927106e+001 6.745801e+001 4.879602e+001 3.782521e+001 3.379876e+001 2.384909e+001 2.363770e+001 2.462502e+001 1.314526e+000 1.902801e+000 2.828029e+000 2.424506e+000 2.910885e+000 2.409875e+000 4.114063e+000 3.134675e+000 2.365722e+000 2.217321e+000 1.776145e+000 1.650108e+000 1.145127e+000 1.708661e-001 2.655590e-001 3.773082e-001 3.914867e-001 4.736455e-001 3.973738e-001 6.310361e-001 4.990655e-001 3.931479e-001 3.798809e-001 3.314416e-001 2.920310e-001 1.402398e-001
<GCONST> 1.151134e+002
<TRANSP> 3
 0.000000e+000 1.000000e+000 0.000000e+000
 0.000000e+000 9.973017e-001 2.698327e-003
 0.000000e+000 0.000000e+000 0.000000e+000
<ENDHMM>
~h "MAR"
<BEGINHMM>
<NUMSTATES> 3
<STATE> 2
<NUMMIXES> 2
<MIXTURE> 1 4.713511e-001
<MEAN> 39
 -8.418947e+000 3.211638e+000 3.050915e+000 2.283832e+000 2.577125e+000 -1.875163e-001 2.868913e+000 4.986022e-001 3.072979e+000 4.800720e-001 5.104846e+000 4.626882e-001 6.423397e+001 -3.653238e-001 2.927673e-001 -4.956580e-002 3.050030e-001 4.001628e-001 1.083142e-001 3.120145e-001 1.844320e-001 8.735541e-002 2.529975e-001 -1.830413e-003 3.895392e-001 -6.421022e-001 9.234135e-002 -9.300572e-002 4.600433e-002 -6.859735e-002 -8.975612e-002 -8.394177e-003 -6.873793e-002 -4.322941e-002 -2.461359e-002 -6.804349e-002 -2.358864e-002 -7.728396e-002 1.463348e-001
<VARIANCE> 39
 8.378689e+001 3.554013e+001 4.640676e+001 3.945350e+001 5.765727e+001 4.279690e+001 4.534165e+001 3.473137e+001 2.919432e+001 3.321220e+001 2.249596e+001 3.405664e+001 1.268628e+002 2.786915e+000 1.836145e+000 1.720456e+000 2.030539e+000 2.343880e+000 2.346574e+000 2.344764e+000 2.023094e+000 2.067708e+000 2.068920e+000 1.802755e+000 1.960345e+000 3.533708e+000 4.906394e-001 3.491647e-001 3.113577e-001 4.091032e-001 4.524463e-001 4.593139e-001 4.638658e-001 3.930216e-001 4.089695e-001 3.967629e-001 3.655878e-001 3.675809e-001 7.446386e-001
<GCONST> 1.196278e+002
<MIXTURE> 2 5.286480e-001
<MEAN> 39
 -2.789483e+000 7.933981e-001 4.925117e+000 -8.278588e-001 -4.070856e+000 -1.830955e+000 -3.199065e+000 -3.935241e+000 1.367555e+000 -4.070497e+000 4.625962e+000 -5.110989e+000 7.382335e+001 3.268939e-001 -2.599815e-001 4.552514e-002 -2.701009e-001 -3.573645e-001 -9.975149e-002 -2.788033e-001 -1.665594e-001 -7.980757e-002 -2.269413e-001 -4.791748e-004 -3.489349e-001 5.719948e-001 -8.236145e-002 8.313749e-002 -4.120762e-002 6.131579e-002 8.030885e-002 8.092904e-003 6.091530e-002 3.714904e-002 2.064467e-002 6.079952e-002 2.088662e-002 6.850863e-002 -1.303359e-001
<VARIANCE> 39
 5.603947e+001 5.520555e+001 7.454078e+001 6.789523e+001 6.618082e+001 6.580087e+001 5.260356e+001 4.887881e+001 4.695322e+001 5.278245e+001 3.651003e+001 3.998900e+001 4.984718e+001 4.995871e+000 4.037685e+000 3.856629e+000 5.897932e+000 5.918467e+000 5.649858e+000 4.579184e+000 4.601021e+000 3.561134e+000 4.074205e+000 3.690038e+000 3.819039e+000 5.732797e+000 6.574572e-001 6.508803e-001 5.740299e-001 1.013582e+000 1.014488e+000 1.038731e+000 8.093301e-001 8.433405e-001 6.494606e-001 7.211027e-001 7.301399e-001 7.118568e-001 9.158663e-001
<GCONST> 1.400172e+002
<TRANSP> 3
 0.000000e+000 1.000000e+000 0.000000e+000
 0.000000e+000 9.984556e-001 1.544402e-003
 0.000000e+000 0.000000e+000 0.000000e+000
<ENDHMM>
~h "MJB"
<BEGINHMM>
<NUMSTATES> 3
<STATE> 2
<NUMMIXES> 2
<MIXTURE> 1 4.650272e-001
<MEAN> 39
 -8.175795e+000 1.378263e+000 1.323725e+000 1.700565e+000 -1.670543e-001 1.347862e+000 -2.800889e+000 1.913783e+000 -1.115908e+000 -4.296401e-001 -9.869698e-001 8.008865e-001 6.055251e+001 -3.295248e-001 1.772634e-001 -4.020158e-002 1.170956e-001 3.236902e-001 -8.141301e-002 3.354487e-001 5.505527e-002 9.117696e-002 1.104119e-001 1.088348e-001 1.721477e-001 -2.813600e-001 3.274221e-002 -5.775972e-002 3.727207e-002 -1.613672e-002 -8.090829e-002 1.460834e-002 -4.901532e-002 -2.930954e-002 -9.270004e-003 -2.628499e-003 -4.416315e-003 -1.275662e-002 8.479124e-002
<VARIANCE> 39
 7.677569e+001 3.355133e+001 4.102848e+001 3.064748e+001 5.874917e+001 4.547856e+001 5.660252e+001 3.872189e+001 4.280808e+001 2.696350e+001 2.923478e+001 2.511360e+001 8.961346e+001 2.154021e+000 1.579240e+000 1.329769e+000 1.573452e+000 2.413007e+000 2.181286e+000 2.113953e+000 2.031834e+000 2.094129e+000 1.722825e+000 1.638944e+000 1.271185e+000 1.521066e+000 3.966873e-001 2.843096e-001 2.482493e-001 3.010091e-001 4.697624e-001 4.248643e-001 4.381537e-001 4.069983e-001 4.237991e-001 3.485966e-001 3.316028e-001 2.600731e-001 3.049145e-001
<GCONST> 1.142513e+002
<MIXTURE> 2 5.349719e-001
<MEAN> 39
 -2.851041e+000 -1.045300e+000 3.273812e+000 2.102443e-001 -6.002237e+000 1.521736e+000 -9.336440e+000 -1.283544e+000 -4.262759e+000 -2.067509e+000 -2.820127e+000 -2.321844e+000 6.930422e+001 2.804685e-001 -1.507300e-001 2.734450e-002 -1.031467e-001 -2.791002e-001 7.576661e-002 -2.780308e-001 -4.193226e-002 -7.558317e-002 -8.759244e-002 -9.367011e-002 -1.483271e-001 2.420969e-001 -2.788651e-002 5.033281e-002 -3.269832e-002 1.310381e-002 7.027401e-002 -1.321561e-002 4.080624e-002 2.432878e-002 8.788345e-003 2.805893e-003 4.371900e-003 1.170640e-002 -7.341509e-002
<VARIANCE> 39
 7.624998e+001 5.074235e+001 6.120980e+001 5.068745e+001 7.537749e+001 6.631055e+001 4.469524e+001 4.981812e+001 4.772866e+001 3.135011e+001 3.479476e+001 2.168556e+001 3.307249e+001 4.601604e+000 3.259636e+000 2.771626e+000 3.440385e+000 5.930273e+000 4.640102e+000 3.746497e+000 3.620237e+000 3.668713e+000 2.316463e+000 2.779831e+000 1.857105e+000 2.975880e+000 6.541079e-001 5.330690e-001 4.446782e-001 5.867946e-001 9.921548e-001 7.948911e-001 6.721038e-001 6.540041e-001 6.648827e-001 4.361018e-001 5.032985e-001 3.545198e-001 4.531110e-001
<GCONST> 1.301860e+002
<TRANSP> 3
 0.000000e+000 1.000000e+000 0.000000e+000
 0.000000e+000 9.982883e-001 1.711742e-003
 0.000000e+000 0.000000e+000 0.000000e+000
<ENDHMM>
~h "MJL"
<BEGINHMM>
<NUMSTATES> 3
<STATE> 2
<NUMMIXES> 2
<MIXTURE> 1 4.435853e-001
<MEAN> 39
 -9.646684e+000 3.107848e+000 5.500327e-001 4.215113e+000 3.555539e+000 3.741942e+000 6.081914e+000 6.101871e+000 6.245752e+000 6.235903e+000 7.035443e+000 5.501054e+000 4.335374e+001 -1.337211e-001 5.315490e-002 -1.235528e-002 3.855076e-002 1.140882e-001 1.217129e-001 1.128809e-001 1.013732e-001 9.727785e-002 5.493652e-002 5.652053e-002 9.763154e-002 -1.936471e-001 7.817595e-002 -6.844777e-002 2.975250e-002 -3.226859e-002 -5.896236e-002 -1.232979e-002 -5.840401e-002 -4.928946e-002 -5.622305e-002 -3.199551e-002 -3.741270e-002 -4.750479e-002 8.647935e-002
<VARIANCE> 39
 3.847501e+001 1.723423e+001 1.566579e+001 1.975700e+001 3.645560e+001 4.239709e+001 2.616743e+001 2.810460e+001 2.410912e+001 1.501630e+001 1.314257e+001 1.778213e+001 6.376297e+001 8.949407e-001 7.423775e-001 7.134079e-001 7.995919e-001 1.121800e+000 1.215390e+000 1.305421e+000 1.455932e+000 1.335768e+000 1.210223e+000 1.128528e+000 1.055236e+000 6.941286e-001 1.700199e-001 1.471059e-001 1.372908e-001 1.652473e-001 2.287703e-001 2.430761e-001 2.626417e-001 2.949254e-001 2.650439e-001 2.443396e-001 2.279742e-001 2.110282e-001 1.446146e-001
<GCONST> 9.299863e+001
<MIXTURE> 2 5.564138e-001
<MEAN> 39
 2.645483e-001 -2.325764e+000 1.893431e+000 4.142399e-001 -8.658593e+000 -3.815280e+000 -1.644941e+000 -2.635863e+000 -7.722309e-001 3.827179e+000 4.058315e+000 -1.485430e+000 5.982132e+001 1.023505e-001 -3.622061e-002 1.273570e-002 -2.391589e-002 -8.337443e-002 -8.922561e-002 -8.197191e-002 -7.441261e-002 -7.200796e-002 -4.075335e-002 -3.992191e-002 -7.370999e-002 1.425409e-001 -5.995250e-002 5.219257e-002 -2.422214e-002 2.299853e-002 4.416117e-002 6.750061e-003 4.286762e-002 3.716436e-002 4.402357e-002 2.348406e-002 2.720234e-002 3.540099e-002 -6.474695e-002
<VARIANCE> 39
 8.179389e+001 5.835632e+001 7.171235e+001 5.228688e+001 7.861649e+001 5.727151e+001 3.716068e+001 6.093407e+001 3.881902e+001 3.516286e+001 2.884574e+001 2.907678e+001 6.151740e+001 6.051683e+000 4.797346e+000 3.103396e+000 3.537807e+000 6.732090e+000 3.721482e+000 3.324329e+000 5.269171e+000 3.450447e+000 2.599396e+000 2.438482e+000 2.436153e+000 3.192863e+000 8.642979e-001 8.270226e-001 4.818799e-001 6.180921e-001 1.189267e+000 6.515164e-001 6.071715e-001 9.400762e-001 6.210183e-001 4.916033e-001 4.728214e-001 4.330880e-001 5.250037e-001
<GCONST> 1.337905e+002
<TRANSP> 3
 0.000000e+000 1.000000e+000 0.000000e+000
 0.000000e+000 9.984567e-001 1.543268e-003
 0.000000e+000 0.000000e+000 0.000000e+000
<ENDHMM>
~h "MKK"
<BEGINHMM>
<NUMSTATES> 3
<STATE> 2
<NUMMIXES> 2
<MIXTURE> 1 4.963855e-001
<MEAN> 39
 -4.730860e+000 -1.158440e+000 5.705222e+000 -8.023172e+000 -2.985549e-001 -3.282615e+000 -2.007310e-001 2.630086e+000 1.486416e+000 8.021432e-001 -1.840602e+000 -1.077085e+000 6.166499e+001 -2.281983e-001 4.349301e-001 5.250263e-002 6.305488e-001 2.711377e-001 2.311394e-001 4.529493e-001 -2.237487e-002 2.334602e-001 4.806402e-002 3.866071e-001 6.277236e-002 -5.388508e-001 -9.858061e-002 3.597361e-002 -2.642307e-002 1.579370e-001 4.734796e-002 1.867029e-002 9.823791e-002 -3.672399e-002 8.394801e-002 -1.804512e-002 7.696114e-002 -5.199524e-003 -1.030065e-001
<VARIANCE> 39
 6.947193e+001 3.188289e+001 5.915962e+001 8.572607e+001 3.819801e+001 4.519356e+001 4.594245e+001 3.392893e+001 4.947170e+001 3.189566e+001 3.454142e+001 1.947892e+001 8.541447e+001 2.301769e+000 2.019531e+000 2.238890e+000 4.434619e+000 2.263517e+000 2.365810e+000 2.653775e+000 2.654553e+000 3.351117e+000 2.249771e+000 2.259912e+000 1.632229e+000 2.855810e+000 4.444986e-001 3.925437e-001 4.123166e-001 8.059714e-001 4.581443e-001 4.762594e-001 5.577450e-001 5.213693e-001 6.234136e-001 4.469037e-001 4.506574e-001 3.289627e-001 4.377174e-001
<GCONST> 1.232588e+002
<MIXTURE> 2 5.036146e-001
<MEAN> 39
 -6.612912e+000 -1.652288e+000 4.745531e+000 -6.325881e+000 1.168202e-001 -3.733732e+000 1.291700e-001 2.023139e+000 2.856772e+000 7.530998e-001 -1.060892e+000 -1.222589e+000 6.071395e+001 2.239311e-001 -4.263857e-001 -4.883118e-002 -6.164314e-001 -2.622818e-001 -2.242077e-001 -4.414078e-001 2.460654e-002 -2.257778e-001 -4.548382e-002 -3.759679e-001 -6.093884e-002 5.274932e-001 9.674302e-002 -3.537450e-002 2.698516e-002 -1.552206e-001 -4.734009e-002 -1.896010e-002 -9.687199e-002 3.614202e-002 -8.298990e-002 1.836916e-002 -7.566864e-002 5.317385e-003 1.016401e-001
<VARIANCE> 39
 6.700556e+001 3.389508e+001 4.941523e+001 6.917778e+001 3.239584e+001 3.708993e+001 4.138750e+001 3.144662e+001 4.418714e+001 2.879859e+001 3.150935e+001 1.754179e+001 9.158220e+001 3.939154e+000 2.151916e+000 2.419498e+000 3.976857e+000 2.462238e+000 2.650845e+000 3.092499e+000 2.718510e+000 3.423852e+000 2.431334e+000 2.253824e+000 1.607629e+000 3.194207e+000 4.445502e-001 4.104602e-001 3.447751e-001 7.192251e-001 4.565583e-001 4.616704e-001 5.534419e-001 5.169852e-001 6.263340e-001 4.672983e-001 4.266420e-001 3.097505e-001 6.038061e-001
<GCONST> 1.230992e+002
<TRANSP> 3
 0.000000e+000 1.000000e+000 0.000000e+000
 0.000000e+000 9.987468e-001 1.253211e-003
 0.000000e+000 0.000000e+000 0.000000e+000
<ENDHMM>
~h "MMS"
<BEGINHMM>
<NUMSTATES> 3
<STATE> 2
<NUMMIXES> 2
<MIXTURE> 1 4.587690e-001
<MEAN> 39
 -9.323857e+000 3.515574e+000 4.159471e+000 1.548055e+000 3.332319e+000 1.762124e+000 2.818770e+000 1.802714e+000 4.188030e+000 1.868383e+000 3.872746e+000 1.272910e+000 6.180856e+001 -6.002887e-001 3.315084e-001 -1.832640e-001 3.451715e-001 6.313048e-001 5.382471e-002 5.765484e-001 1.895434e-001 -1.253649e-002 3.464786e-001 -1.019207e-001 3.808888e-001 -5.384547e-001 1.308697e-001 -1.333902e-001 3.810982e-002 -8.281793e-002 -1.718752e-001 2.124504e-002 -9.877183e-002 -8.496812e-002 6.114261e-003 -8.218179e-002 9.426486e-003 -4.962987e-002 1.548210e-001
<VARIANCE> 39
 8.742056e+001 3.004621e+001 3.907252e+001 3.821869e+001 5.762056e+001 4.275084e+001 5.676673e+001 4.062144e+001 3.025384e+001 2.749419e+001 1.994531e+001 3.359973e+001 9.758231e+001 3.829048e+000 2.229837e+000 1.981025e+000 2.194468e+000 2.992486e+000 2.267779e+000 2.456093e+000 2.266275e+000 2.104622e+000 2.100922e+000 1.768413e+000 1.997977e+000 2.958201e+000 5.805236e-001 3.941109e-001 3.083673e-001 4.098228e-001 4.860632e-001 4.203118e-001 4.642521e-001 4.175414e-001 3.767177e-001 3.991624e-001 3.401754e-001 3.746254e-001 5.952758e-001
<GCONST> 1.200569e+002
<MIXTURE> 2 5.412332e-001
<MEAN> 39
 -2.471936e+000 1.293172e-001 6.607112e+000 -2.151185e+000 -5.670600e+000 6.605139e-001 -4.541544e+000 -4.119271e+000 2.563164e+000 -2.369264e+000 3.929395e+000 -2.628288e+000 7.065305e+001 5.105092e-001 -2.805569e-001 1.551810e-001 -2.926154e-001 -5.336399e-001 -4.660974e-002 -4.875458e-001 -1.596298e-001 7.979186e-003 -2.935920e-001 8.896996e-002 -3.227637e-001 4.545809e-001 -1.104409e-001 1.125855e-001 -3.268960e-002 6.985018e-002 1.461318e-001 -1.753240e-002 8.368763e-002 7.275832e-002 -5.315890e-003 6.938239e-002 -9.019206e-003 4.156629e-002 -1.310732e-001
<VARIANCE> 39
 6.193377e+001 4.246481e+001 7.133328e+001 5.579585e+001 6.269699e+001 6.100851e+001 4.880417e+001 5.572635e+001 5.903927e+001 4.170236e+001 3.486915e+001 3.671833e+001 3.508460e+001 5.322244e+000 3.524761e+000 3.837311e+000 4.734625e+000 6.090965e+000 4.300484e+000 4.524132e+000 4.761753e+000 4.484103e+000 4.065888e+000 3.379351e+000 3.058639e+000 4.038407e+000 7.804636e-001 6.428200e-001 6.103991e-001 8.608503e-001 1.080436e+000 7.482537e-001 8.312901e-001 8.278685e-001 8.074694e-001 7.506566e-001 6.770861e-001 5.854686e-001 6.923209e-001
<GCONST> 1.376084e+002
<TRANSP> 3
 0.000000e+000 1.000000e+000 0.000000e+000
 0.000000e+000 9.981932e-001 1.806810e-003
 0.000000e+000 0.000000e+000 0.000000e+000
<ENDHMM>
~h "MOS"
<BEGINHMM>
<NUMSTATES> 3
<STATE> 2
<NUMMIXES> 2
<MIXTURE> 1 5.064008e-001
<MEAN> 39
 -9.896653e+000 -1.118633e+000 1.948136e+000 -3.549718e+000 -1.124200e+000 -4.638800e+000 -2.500364e-001 5.402261e-001 3.685527e+000 6.974465e-001 1.910389e+000 -8.387857e-001 5.415128e+001 -6.310160e-001 2.647294e-001 -8.700633e-002 4.330471e-001 4.491107e-001 2.590466e-001 4.932844e-001 -1.154468e-002 3.433416e-001 2.236506e-002 1.730834e-001 3.436081e-001 -4.846376e-001 3.377786e-002 -7.953509e-002 2.468393e-002 -6.970935e-002 -5.257590e-002 -1.589792e-002 -4.698266e-002 -4.434711e-003 -5.094093e-002 -2.705951e-002 -2.455855e-002 -5.739823e-002 1.097051e-001
<VARIANCE> 39
 6.906867e+001 2.605161e+001 3.500216e+001 3.236687e+001 3.933218e+001 3.949019e+001 3.864922e+001 2.885624e+001 3.475467e+001 2.353180e+001 2.650997e+001 2.453951e+001 8.024293e+001 2.420828e+000 1.931285e+000 1.462375e+000 1.993974e+000 2.119113e+000 1.974715e+000 2.158600e+000 2.177531e+000 2.489346e+000 2.081639e+000 2.009362e+000 1.778916e+000 2.312949e+000 3.920024e-001 3.361521e-001 2.556118e-001 3.707665e-001 4.055148e-001 3.936852e-001 4.282518e-001 4.260803e-001 4.604982e-001 4.078116e-001 3.874104e-001 3.423139e-001 3.878501e-001
<GCONST> 1.149297e+002
<MIXTURE> 2 4.936003e-001
<MEAN> 39
 -3.132767e+000 -3.882812e+000 4.471395e+000 -8.703413e+000 -6.863166e+000 -8.014187e+000 -6.206981e+000 -3.078471e-001 1.105994e-001 9.395688e-002 8.522906e-001 -5.599207e+000 6.335528e+001 6.479878e-001 -2.705980e-001 8.894493e-002 -4.452612e-001 -4.609483e-001 -2.682523e-001 -5.031108e-001 9.576919e-003 -3.512605e-001 -2.463922e-002 -1.821020e-001 -3.542584e-001 4.991290e-001 -3.491151e-002 8.205104e-002 -2.477664e-002 7.201409e-002 5.438881e-002 1.570585e-002 4.710608e-002 4.039515e-003 5.111343e-002 2.786931e-002 2.624248e-002 5.875831e-002 -1.128240e-001
<VARIANCE> 39
 5.532882e+001 4.872465e+001 6.373814e+001 5.069550e+001 5.074243e+001 4.791967e+001 5.037304e+001 4.934778e+001 5.211875e+001 4.411629e+001 4.419791e+001 3.932669e+001 4.114162e+001 3.490310e+000 3.347030e+000 3.078028e+000 3.944328e+000 4.211463e+000 3.876756e+000 3.582804e+000 4.071023e+000 3.883974e+000 3.738179e+000 3.227331e+000 3.044098e+000 2.831604e+000 5.251682e-001 6.024653e-001 4.778587e-001 7.156482e-001 7.829795e-001 7.121603e-001 6.763601e-001 7.410657e-001 6.963187e-001 7.218607e-001 5.995939e-001 5.543903e-001 4.826241e-001
<GCONST> 1.326022e+002
<TRANSP> 3
 0.000000e+000 1.000000e+000 0.000000e+000
 0.000000e+000 9.984926e-001 1.507387e-003
 0.000000e+000 0.000000e+000 0.000000e+000
<ENDHMM>
~h "MPM"
<BEGINHMM>
<NUMSTATES> 3
<STATE> 2
<NUMMIXES> 2
<MIXTURE> 1 4.901696e-001
<MEAN> 39
 -9.815358e+000 2.627362e+000 6.349733e-001 2.012589e+000 -6.497573e-001 9.489484e-002 -6.185181e-001 1.190880e+000 7.952768e-001 2.205987e+000 9.426803e-001 1.245405e-001 6.116494e+001 -9.262320e-002 8.839888e-002 -3.293867e-002 1.415036e-001 2.084245e-001 9.943780e-002 2.169982e-001 -4.884358e-002 1.334367e-001 5.508114e-003 6.439883e-002 1.479269e-001 -2.450381e-001 4.016096e-002 4.371376e-002 6.166804e-002 4.136027e-002 -1.261238e-002 1.729902e-003 1.186733e-003 -6.575453e-002 -2.980486e-002 -2.477496e-002 9.328547e-003 -5.780363e-003 -9.266625e-003
<VARIANCE> 39
 6.604365e+001 3.901364e+001 4.723717e+001 2.918580e+001 5.324102e+001 5.453735e+001 7.059383e+001 4.350984e+001 4.127416e+001 3.306787e+001 2.593871e+001 3.629990e+001 1.032654e+002 1.887602e+000 1.473999e+000 1.726947e+000 1.657672e+000 2.411600e+000 2.153371e+000 2.308793e+000 2.536577e+000 2.319791e+000 2.105519e+000 1.928318e+000 1.741401e+000 1.584734e+000 3.423530e-001 2.852969e-001 3.241057e-001 3.192237e-001 4.710000e-001 4.267567e-001 4.865993e-001 5.026539e-001 4.628877e-001 4.175189e-001 3.831399e-001 3.530888e-001 2.867999e-001
<GCONST> 1.177150e+002
<MIXTURE> 2 5.098312e-001
<MEAN> 39
 -6.184263e+000 4.841522e+000 5.610871e+000 2.000939e+000 -5.190740e+000 -1.466349e+000 -6.282454e+000 -2.242994e+000 -3.490875e+000 1.107276e+000 1.291054e+000 -3.228535e+000 6.790986e+001 8.999459e-002 -7.954949e-002 2.904805e-002 -1.385928e-001 -1.964385e-001 -9.038451e-002 -2.071635e-001 4.483733e-002 -1.265529e-001 8.864178e-004 -5.923850e-002 -1.432475e-001 2.301522e-001 -3.875001e-002 -4.247649e-002 -5.938033e-002 -3.987513e-002 1.163131e-002 -2.004390e-003 -2.320080e-003 6.312263e-002 2.847702e-002 2.362466e-002 -8.658117e-003 6.730681e-003 9.093611e-003
<VARIANCE> 39
 6.844344e+001 4.813791e+001 7.881683e+001 5.228383e+001 7.267065e+001 6.609696e+001 5.503739e+001 6.352138e+001 4.866552e+001 5.141519e+001 3.646415e+001 3.675123e+001 3.840414e+001 4.339084e+000 3.142784e+000 4.559853e+000 3.797082e+000 5.683328e+000 4.366127e+000 4.555442e+000 5.178946e+000 4.115447e+000 3.563329e+000 3.151139e+000 3.069083e+000 2.927676e+000 5.245445e-001 5.247506e-001 6.906207e-001 6.975365e-001 1.029871e+000 7.651433e-001 8.344739e-001 9.328997e-001 7.685589e-001 6.583662e-001 6.274765e-001 5.543094e-001 5.061559e-001
<GCONST> 1.363492e+002
<TRANSP> 3
 0.000000e+000 1.000000e+000 0.000000e+000
 0.000000e+000 9.985227e-001 1.477323e-003
 0.000000e+000 0.000000e+000 0.000000e+000
<ENDHMM>
~h "MPS"
<BEGINHMM>
<NUMSTATES> 3
<STATE> 2
<NUMMIXES> 2
<MIXTURE> 1 4.657556e-001
<MEAN> 39
 -9.297000e+000 3.499925e-001 2.075098e+000 6.209645e-001 1.873011e+000 1.391025e+000 2.562211e+000 1.711676e+000 4.057710e+000 1.886074e+000 4.107057e+000 1.460073e+000 5.999131e+001 -3.528281e-001 1.247034e-001 -1.406156e-001 1.428712e-001 2.381411e-001 8.093169e-002 2.162889e-001 1.200891e-001 1.170473e-001 6.242244e-002 1.276286e-001 1.486228e-001 -3.823763e-001 1.029020e-001 -7.365807e-002 6.376772e-002 -5.830552e-002 -6.986035e-002 -1.545894e-002 -7.754868e-002 -3.599619e-002 -4.437942e-002 -1.564576e-002 -3.624023e-002 -3.712885e-002 1.130285e-001
<VARIANCE> 39
 8.278201e+001 2.920210e+001 3.747796e+001 2.764791e+001 3.866380e+001 2.554488e+001 3.433244e+001 3.086746e+001 3.566152e+001 2.077962e+001 2.100707e+001 2.084140e+001 9.556179e+001 2.249897e+000 1.480666e+000 1.352579e+000 1.381680e+000 1.554978e+000 1.568056e+000 1.784287e+000 1.676667e+000 1.893575e+000 1.464188e+000 1.445063e+000 1.177231e+000 1.995162e+000 3.576923e-001 2.746837e-001 2.272983e-001 2.619740e-001 2.914723e-001 2.964701e-001 3.465585e-001 3.399922e-001 3.580441e-001 2.907458e-001 2.834210e-001 2.352386e-001 3.897576e-001
<GCONST> 1.079384e+002
<MIXTURE> 2 5.342429e-001
<MEAN> 39
 -2.024814e+000 -2.473568e+000 7.176629e+000 -3.994188e+000 -6.190142e+000 -1.783625e-001 -5.764352e+000 -3.399586e+000 -8.609237e-001 2.991318e-001 1.527490e+000 -2.811333e+000 7.227225e+001 3.088611e-001 -1.080468e-001 1.246248e-001 -1.240858e-001 -2.064460e-001 -7.155955e-002 -1.889384e-001 -1.058361e-001 -1.043059e-001 -5.347517e-002 -1.102273e-001 -1.305599e-001 3.315839e-001 -8.988845e-002 6.445425e-002 -5.563269e-002 5.112488e-002 6.107638e-002 1.347337e-002 6.765037e-002 3.073015e-002 3.825689e-002 1.428656e-002 3.184514e-002 3.296178e-002 -9.884543e-002
<VARIANCE> 39
 8.646236e+001 5.924850e+001 9.401910e+001 6.896569e+001 5.905790e+001 5.728212e+001 5.314760e+001 4.213301e+001 6.005975e+001 3.375859e+001 3.140778e+001 2.291637e+001 4.088245e+001 7.007345e+000 4.547746e+000 4.718734e+000 5.108727e+000 5.125977e+000 3.666003e+000 4.452457e+000 4.048837e+000 4.370441e+000 2.592628e+000 2.384565e+000 1.997387e+000 4.362936e+000 9.535861e-001 7.622896e-001 7.063760e-001 8.454950e-001 8.660629e-001 6.367150e-001 7.830197e-001 7.354879e-001 7.608569e-001 4.785209e-001 4.448296e-001 3.720270e-001 6.745214e-001
<GCONST> 1.354869e+002
<TRANSP> 3
 0.000000e+000 1.000000e+000 0.000000e+000
 0.000000e+000 9.983956e-001 1.604428e-003
 0.000000e+000 0.000000e+000 0.000000e+000
<ENDHMM>
~h "MVL"
<BEGINHMM>
<NUMSTATES> 3
<STATE> 2
<NUMMIXES> 2
<MIXTURE> 1 4.746342e-001
<MEAN> 39
 -8.577334e+000 8.454674e-001 6.921674e-002 5.235375e-001 -2.591718e+000 2.704245e+000 -3.898296e-001 1.460192e+000 2.177268e+000 1.992022e+000 -1.720884e+000 7.058250e-002 6.363287e+001 -2.221654e-001 2.715187e-001 -6.174068e-002 1.358624e-001 3.764246e-001 -1.255658e-002 3.423165e-001 1.463386e-001 3.457737e-002 -3.171721e-003 5.948565e-002 1.255533e-001 -4.784302e-001 1.761237e-002 -3.963587e-002 2.010269e-002 -2.590212e-002 -2.024112e-002 -3.998800e-002 -3.272307e-002 -2.828612e-002 -2.504052e-002 -2.083299e-003 -1.773714e-002 -8.797693e-003 7.365721e-002
<VARIANCE> 39
 6.781488e+001 3.557738e+001 4.964758e+001 2.821494e+001 8.108405e+001 4.215390e+001 6.581206e+001 4.851068e+001 3.048108e+001 2.415672e+001 2.660370e+001 3.105004e+001 1.288270e+002 2.047325e+000 1.828283e+000 1.560310e+000 1.523726e+000 2.589425e+000 2.141373e+000 2.485362e+000 2.010749e+000 2.019303e+000 1.774568e+000 1.675938e+000 1.505521e+000 2.196654e+000 3.963751e-001 3.492510e-001 3.103631e-001 3.023533e-001 5.287821e-001 4.364000e-001 5.186333e-001 4.239059e-001 4.156911e-001 3.646794e-001 3.342601e-001 3.084728e-001 4.567295e-001
<GCONST> 1.173223e+002
<MIXTURE> 2 5.253652e-001
<MEAN> 39
 -4.791184e+000 -1.443685e+000 3.820863e+000 -9.386067e-001 -1.042365e+001 7.640019e-001 -7.548223e+000 -4.582689e+000 -7.142777e-002 2.316320e+000 -3.467992e+000 -3.640452e+000 7.486202e+001 2.005025e-001 -2.435988e-001 5.624458e-002 -1.201466e-001 -3.407457e-001 1.025155e-002 -3.115437e-001 -1.371455e-001 -3.493928e-002 6.565082e-003 -6.173017e-002 -1.171264e-001 4.343605e-001 -1.374668e-002 3.542792e-002 -1.882059e-002 2.278780e-002 1.821879e-002 3.570629e-002 2.704716e-002 2.564985e-002 2.107204e-002 2.120503e-003 1.548201e-002 7.279905e-003 -6.702495e-002
<VARIANCE> 39
 7.524477e+001 5.914312e+001 8.488237e+001 5.389905e+001 9.066099e+001 6.495332e+001 6.514796e+001 5.419362e+001 5.681872e+001 3.625596e+001 3.225278e+001 3.344793e+001 4.848302e+001 6.104634e+000 5.112526e+000 5.250666e+000 3.968613e+000 9.418722e+000 5.600735e+000 6.233572e+000 5.205173e+000 4.965820e+000 3.288048e+000 3.057876e+000 2.985394e+000 4.755795e+000 8.716603e-001 8.576259e-001 7.847084e-001 6.831582e-001 1.651173e+000 1.013575e+000 1.164952e+000 9.533159e-001 9.218736e-001 6.331631e-001 5.907391e-001 5.443091e-001 8.224301e-001
<GCONST> 1.421750e+002
<TRANSP> 3
 0.000000e+000 1.000000e+000 0.000000e+000
 0.000000e+000 9.980396e-001 1.960400e-003
 0.000000e+000 0.000000e+000 0.000000e+000
<ENDHMM>
~h "ZLG"
<BEGINHMM>
<NUMSTATES> 3
<STATE> 2
<NUMMIXES> 2
<MIXTURE> 1 4.344459e-001
<MEAN> 39
 -1.016506e+001 3.081603e+000 -1.113971e+000 1.093486e+000 -1.164417e+000 -1.667953e+000 -1.231509e+000 -2.593904e+000 -1.213564e+000 -1.088374e+000 -2.111070e+000 -5.293334e-001 5.988777e+001 -4.624752e-001 -2.749822e-002 4.266468e-003 1.625297e-001 3.736326e-001 1.609692e-001 4.148740e-001 3.334940e-001 3.311941e-001 2.085637e-001 3.192440e-001 2.752654e-001 -1.999968e-001 8.289955e-002 -9.017990e-002 -1.981722e-002 -1.007051e-001 -1.241240e-001 -4.884753e-002 -1.331750e-001 -4.487140e-002 -4.596783e-002 4.753818e-003 -5.120371e-002 -1.467362e-002 1.481369e-001
<VARIANCE> 39
 5.357682e+001 2.848670e+001 3.144414e+001 2.460522e+001 4.691983e+001 3.904773e+001 3.984008e+001 4.419793e+001 3.789067e+001 2.818610e+001 3.460794e+001 3.107811e+001 6.346441e+001 2.165335e+000 1.467915e+000 1.458622e+000 1.483312e+000 2.107123e+000 1.808185e+000 2.111308e+000 1.841666e+000 1.949102e+000 1.799609e+000 1.741151e+000 1.577804e+000 2.018631e+000 3.863594e-001 2.720886e-001 2.850967e-001 2.882103e-001 4.243833e-001 3.816345e-001 4.300113e-001 3.950401e-001 3.932781e-001 3.595310e-001 3.583424e-001 3.299385e-001 4.023819e-001
<GCONST> 1.129957e+002
<MIXTURE> 2 5.655528e-001
<MEAN> 39
 -3.688272e+000 1.703116e+000 -3.104181e+000 -4.809262e+000 -8.603484e+000 -5.876368e+000 -1.121583e+001 -8.983984e+000 -7.136207e+000 -4.215393e+000 -7.879382e+000 -5.685662e+000 6.920377e+001 3.536023e-001 2.801475e-002 -5.688669e-003 -1.220674e-001 -2.811486e-001 -1.282070e-001 -3.151843e-001 -2.574736e-001 -2.544120e-001 -1.606719e-001 -2.394400e-001 -2.179422e-001 1.505920e-001 -6.273174e-002 6.942690e-002 1.537227e-002 7.645214e-002 9.416338e-002 3.666681e-002 1.029104e-001 3.446103e-002 3.336010e-002 -5.859788e-003 3.786912e-002 1.036732e-002 -1.134402e-001
<VARIANCE> 39
 4.383591e+001 4.450962e+001 6.747217e+001 3.924611e+001 5.838026e+001 4.613680e+001 4.047891e+001 4.515449e+001 4.319116e+001 4.317546e+001 3.432834e+001 3.053316e+001 2.061088e+001 3.236875e+000 2.874997e+000 3.324672e+000 3.420689e+000 4.923230e+000 3.663665e+000 3.895485e+000 3.774134e+000 3.199418e+000 3.162024e+000 2.733874e+000 2.493050e+000 2.377945e+000 5.002754e-001 4.893271e-001 5.280983e-001 5.772197e-001 8.348593e-001 6.528636e-001 6.831061e-001 6.796309e-001 5.706711e-001 6.084896e-001 5.062218e-001 4.684626e-001 3.529797e-001
<GCONST> 1.278902e+002
<TRANSP> 3
 0.000000e+000 1.000000e+000 0.000000e+000
 0.000000e+000 9.981495e-001 1.850481e-003
 0.000000e+000 0.000000e+000 0.000000e+000
<ENDHMM>
~h "ZLR"
<BEGINHMM>
<NUMSTATES> 3
<STATE> 2
<NUMMIXES> 2
<MIXTURE> 1 4.360118e-001
<MEAN> 39
 -9.089890e+000 3.440101e+000 2.468201e+000 1.810819e+000 4.298048e+000 4.084233e-001 4.073078e+000 2.741412e-001 2.368203e+000 1.883025e-001 3.093467e+000 2.456339e+000 5.978580e+001 -4.380984e-001 4.206751e-002 6.294630e-003 5.149698e-001 2.931470e-001 5.612381e-001 2.829891e-001 5.263755e-001 3.075216e-001 3.124583e-001 4.591392e-001 2.723709e-001 -4.838481e-001 7.480335e-002 -1.123418e-001 -2.265510e-002 -1.941575e-001 -8.751470e-002 -1.421534e-001 -7.978580e-002 -1.236485e-001 -5.263700e-002 -3.145219e-002 -9.739740e-002 -5.205089e-002 2.032295e-001
<VARIANCE> 39
 5.268607e+001 2.703060e+001 2.909953e+001 5.404604e+001 4.158383e+001 4.913686e+001 3.130656e+001 4.281217e+001 3.283829e+001 2.647859e+001 3.424368e+001 1.895128e+001 8.462978e+001 2.606940e+000 2.013085e+000 1.596046e+000 3.185133e+000 2.310319e+000 2.940813e+000 2.037701e+000 2.789047e+000 2.018173e+000 2.036105e+000 1.972558e+000 1.396044e+000 3.829820e+000 4.590399e-001 3.695704e-001 3.026490e-001 5.639337e-001 4.540086e-001 5.441563e-001 4.016003e-001 5.142682e-001 4.025013e-001 3.781106e-001 3.577163e-001 2.767704e-001 7.896759e-001
<GCONST> 1.185613e+002
<MIXTURE> 2 5.639899e-001
<MEAN> 39
 -3.821944e+000 1.081958e+000 1.120432e+000 -8.990157e+000 -2.152902e+000 -8.238661e+000 -2.768795e+000 -9.151127e+000 -4.194030e+000 -3.489662e+000 -5.365208e+000 -3.049683e+000 7.219727e+001 3.426166e-001 -3.338651e-002 -2.811040e-003 -3.979518e-001 -2.242289e-001 -4.352249e-001 -2.188638e-001 -4.068445e-001 -2.400861e-001 -2.416575e-001 -3.569818e-001 -2.088961e-001 3.711418e-001 -5.775404e-002 8.660059e-002 1.772543e-002 1.499320e-001 6.712262e-002 1.090764e-001 6.005624e-002 9.450662e-002 4.068853e-002 2.442507e-002 7.522621e-002 4.113984e-002 -1.567662e-001
<VARIANCE> 39
 4.020132e+001 5.575902e+001 6.550783e+001 8.585110e+001 5.906763e+001 6.187676e+001 4.928805e+001 6.490907e+001 5.226286e+001 5.391441e+001 4.821297e+001 2.916216e+001 3.606133e+001 3.706979e+000 4.176337e+000 3.509677e+000 9.471573e+000 4.691062e+000 5.837430e+000 4.343392e+000 6.815045e+000 3.885196e+000 3.827346e+000 4.005177e+000 2.654924e+000 4.679343e+000 6.002791e-001 6.984839e-001 5.839233e-001 1.628492e+000 8.340330e-001 1.090147e+000 7.993116e-001 1.300737e+000 6.871093e-001 7.334660e-001 6.998999e-001 5.047045e-001 7.365487e-001
<GCONST> 1.396192e+002
<TRANSP> 3
 0.000000e+000 1.000000e+000 0.000000e+000
 0.000000e+000 9.984344e-001 1.565619e-003
 0.000000e+000 0.000000e+000 0.000000e+000
<ENDHMM>
~h "ZNM"
<BEGINHMM>
<NUMSTATES> 3
<STATE> 2
<NUMMIXES> 2
<MIXTURE> 1 4.796933e-001
<MEAN> 39
 -1.171233e+001 -1.556370e+000 1.688991e+000 -3.199950e+000 -1.097655e+000 -7.151508e+000 4.461263e+000 -6.551337e-001 1.960467e+000 7.739016e-001 2.038824e+000 -8.667080e-001 5.722002e+001 -6.242357e-001 1.214583e-001 -7.002919e-002 5.939417e-001 3.378730e-001 8.419960e-001 7.564370e-002 5.814622e-001 5.948374e-001 1.187233e-001 3.765275e-001 3.505367e-001 -4.754257e-001 3.116229e-002 -8.003359e-002 1.276013e-002 -1.362465e-001 -3.674450e-002 -7.937343e-002 8.402598e-003 -5.685932e-002 -6.058927e-002 -1.199834e-002 -6.811135e-002 -4.987296e-004 1.665223e-001
<VARIANCE> 39
 7.165783e+001 2.927343e+001 4.242385e+001 5.443625e+001 3.950142e+001 8.613889e+001 3.295583e+001 4.799720e+001 5.094028e+001 2.765231e+001 3.237453e+001 3.003292e+001 1.064555e+002 2.467514e+000 2.196472e+000 2.290443e+000 3.563088e+000 2.339899e+000 4.291909e+000 2.199634e+000 3.073341e+000 3.211688e+000 2.392870e+000 2.420574e+000 2.082381e+000 4.959371e+000 4.143377e-001 3.866876e-001 3.959201e-001 6.114123e-001 4.462981e-001 8.366127e-001 4.221462e-001 5.985183e-001 6.285146e-001 4.787143e-001 4.556409e-001 4.115638e-001 8.749377e-001
<GCONST> 1.260132e+002
<MIXTURE> 2 5.203076e-001
<MEAN> 39
 -5.921537e+000 -3.437670e+000 3.352448e+000 -1.191349e+001 -4.254165e+000 -1.541807e+001 3.378257e+000 -6.740380e+000 -4.189552e+000 -9.550553e-002 -3.335347e+000 -4.096917e+000 6.721407e+001 5.756850e-001 -1.081233e-001 6.427822e-002 -5.463269e-001 -3.035531e-001 -7.695369e-001 -7.407162e-002 -5.409144e-001 -5.476789e-001 -1.089710e-001 -3.505087e-001 -3.213576e-001 4.326712e-001 -2.881356e-002 7.409514e-002 -1.137109e-002 1.252300e-001 3.309233e-002 7.270039e-002 -8.166078e-003 5.208725e-002 5.590753e-002 1.148722e-002 6.329948e-002 8.020335e-004 -1.531177e-001
<VARIANCE> 39
 5.327533e+001 4.493508e+001 9.804217e+001 6.922758e+001 5.568585e+001 8.300043e+001 5.045455e+001 5.782856e+001 7.055902e+001 3.386905e+001 4.881247e+001 3.998184e+001 5.175394e+001 3.014722e+000 2.169475e+000 3.069203e+000 3.954352e+000 2.648445e+000 5.078511e+000 2.822714e+000 3.576136e+000 3.828567e+000 2.504827e+000 2.574659e+000 2.219595e+000 3.234843e+000 4.301557e-001 3.644562e-001 4.538641e-001 6.166558e-001 4.480775e-001 8.176680e-001 4.979526e-001 6.376778e-001 6.613658e-001 4.568172e-001 4.480591e-001 3.810799e-001 4.453961e-001
<GCONST> 1.294117e+002
<TRANSP> 3
 0.000000e+000 1.000000e+000 0.000000e+000
 0.000000e+000 9.989859e-001 1.014070e-003
 0.000000e+000 0.000000e+000 0.000000e+000
<ENDHMM>
~h "ZSS"
<BEGINHMM>
<NUMSTATES> 3
<STATE> 2
<NUMMIXES> 2
<MIXTURE> 1 4.762887e-001
<MEAN> 39
 -9.862949e+000 4.385125e+000 3.271113e+000 1.607103e+000 2.854506e+000 2.746160e+000 4.344575e+000 3.391137e+000 2.504265e+000 2.998603e+000 3.917539e+000 3.479554e+000 4.977677e+001 -6.461643e-001 1.706091e-001 1.425449e-001 5.720517e-001 6.579969e-001 2.184132e-001 6.404867e-001 2.249505e-001 6.746628e-001 1.214539e-001 7.127815e-001 1.161451e-001 -5.947631e-001 9.903683e-002 -1.675497e-001 -4.477384e-002 -1.841308e-001 -1.245754e-001 -1.939723e-002 -1.312778e-001 -3.019623e-002 -1.166129e-001 -1.477079e-002 -1.422773e-001 -1.371198e-002 1.966416e-001
<VARIANCE> 39
 6.945375e+001 2.636188e+001 3.380607e+001 4.514118e+001 5.868725e+001 3.518426e+001 5.105071e+001 3.608332e+001 4.666967e+001 2.494788e+001 4.965893e+001 2.011367e+001 7.615114e+001 2.687479e+000 2.334716e+000 1.829474e+000 3.010085e+000 3.318334e+000 2.361193e+000 2.845364e+000 2.261573e+000 2.651548e+000 2.135641e+000 2.581547e+000 1.468921e+000 3.644840e+000 4.532897e-001 4.129153e-001 3.186863e-001 5.165856e-001 5.927764e-001 4.757907e-001 5.150015e-001 4.441811e-001 4.989677e-001 4.259022e-001 4.787942e-001 3.005445e-001 6.932476e-001
<GCONST> 1.217195e+002
<MIXTURE> 2 5.237122e-001
<MEAN> 39
 -3.105865e+000 4.451926e-001 1.005380e+000 -6.892193e+000 -5.103992e+000 -1.007208e+000 -5.052652e+000 -8.801869e-001 -5.793526e+000 1.398057e+000 -5.656806e+000 6.812181e-001 6.010068e+001 5.838906e-001 -1.514613e-001 -1.284005e-001 -5.135369e-001 -5.923512e-001 -1.988093e-001 -5.790411e-001 -2.047361e-001 -6.146148e-001 -1.131510e-001 -6.494403e-001 -1.010613e-001 5.370443e-001 -8.771042e-002 1.512152e-001 3.991283e-002 1.656657e-001 1.135102e-001 1.752842e-002 1.183101e-001 2.662586e-002 1.065034e-001 1.337628e-002 1.287408e-001 1.260151e-002 -1.787752e-001
<VARIANCE> 39
 4.999119e+001 5.190586e+001 6.797961e+001 5.576908e+001 6.912788e+001 5.417829e+001 6.299394e+001 5.262234e+001 6.801266e+001 4.536029e+001 5.761790e+001 2.914211e+001 3.398486e+001 4.637442e+000 4.149660e+000 3.607233e+000 5.436951e+000 5.926271e+000 4.686861e+000 5.347074e+000 4.594694e+000 5.588645e+000 4.087085e+000 5.257991e+000 2.451242e+000 4.016977e+000 7.669901e-001 7.229581e-001 5.876663e-001 9.591014e-001 1.113256e+000 8.373746e-001 9.777713e-001 8.339010e-001 1.010508e+000 7.839039e-001 9.866984e-001 4.572595e-001 6.665487e-001
<GCONST> 1.397621e+002
<TRANSP> 3
 0.000000e+000 1.000000e+000 0.000000e+000
 0.000000e+000 9.983050e-001 1.694987e-003
 0.000000e+000 0.000000e+000 0.000000e+000
<ENDHMM>
~h "ZTK"
<BEGINHMM>
<NUMSTATES> 3
<STATE> 2
<NUMMIXES> 2
<MIXTURE> 1 4.725919e-001
<MEAN> 39
 -1.155118e+001 -1.403715e+000 2.772743e+000 -4.313673e+000 -3.997139e-001 -3.582552e+000 1.467786e+000 2.505454e+000 2.346051e+000 -5.121949e-001 8.052214e-001 4.828866e-001 5.978649e+001 -7.149085e-001 4.486936e-001 -2.686642e-001 9.392570e-001 6.416056e-001 6.337138e-001 7.535679e-001 2.077301e-001 7.319328e-001 2.069017e-001 7.486629e-001 2.647505e-001 -5.854627e-001 1.361677e-001 -1.869627e-001 2.674565e-002 -2.734628e-001 -1.161743e-001 -8.933806e-002 -1.286414e-001 -3.117112e-002 -1.701864e-001 2.357111e-002 -1.251286e-001 -1.624825e-002 2.366001e-001
<VARIANCE> 39
 6.682618e+001 5.294449e+001 3.927125e+001 6.095180e+001 4.830735e+001 4.842677e+001 5.163497e+001 3.886566e+001 4.679916e+001 3.497496e+001 4.328808e+001 2.273954e+001 1.034878e+002 3.475407e+000 3.949398e+000 2.678855e+000 5.241305e+000 3.009676e+000 3.077414e+000 3.518444e+000 3.043237e+000 3.753352e+000 3.046076e+000 3.049698e+000 1.892591e+000 6.595633e+000 6.302722e-001 6.080613e-001 4.678923e-001 8.299707e-001 5.751392e-001 6.369992e-001 6.929356e-001 6.156654e-001 6.849742e-001 6.219436e-001 5.743814e-001 3.884879e-001 1.141309e+000
<GCONST> 1.318750e+002
<MIXTURE> 2 5.274084e-001
<MEAN> 39
 -2.916682e+000 -7.549541e+000 4.743217e+000 -1.619945e+001 -7.280098e+000 -9.942286e+000 -6.828408e+000 -2.890065e-001 -6.574665e+000 -1.250428e+000 -7.745708e+000 -3.245624e+000 6.960210e+001 6.476431e-001 -3.937239e-001 2.445579e-001 -8.342366e-001 -5.673429e-001 -5.565607e-001 -6.702920e-001 -1.861251e-001 -6.486924e-001 -1.830850e-001 -6.671240e-001 -2.383694e-001 5.138148e-001 -1.217597e-001 1.685218e-001 -2.367082e-002 2.460249e-001 1.049592e-001 8.249424e-002 1.158992e-001 2.978900e-002 1.527631e-001 -2.165579e-002 1.117250e-001 1.481245e-002 -2.130358e-001
<VARIANCE> 39
 3.865198e+001 8.180392e+001 7.038157e+001 8.910017e+001 6.418817e+001 4.693057e+001 5.960679e+001 5.971716e+001 6.366119e+001 4.025574e+001 4.975090e+001 2.753595e+001 4.931796e+001 3.137119e+000 4.786411e+000 3.049078e+000 7.937924e+000 4.001756e+000 3.972096e+000 4.306728e+000 5.059167e+000 4.213120e+000 3.348805e+000 3.691907e+000 2.155521e+000 5.094137e+000 4.734611e-001 7.716971e-001 5.095351e-001 1.346676e+000 7.080408e-001 7.163371e-001 7.646614e-001 9.204323e-001 7.254188e-001 6.329378e-001 7.007655e-001 3.980694e-001 7.750284e-001
<GCONST> 1.370059e+002
<TRANSP> 3
 0.000000e+000 1.000000e+000 0.000000e+000
 0.000000e+000 9.985621e-001 1.437894e-003
 0.000000e+000 0.000000e+000 0.000000e+000
<ENDHMM>
~h "ZTV"
<BEGINHMM>
<NUMSTATES> 3
<STATE> 2
<NUMMIXES> 2
<MIXTURE> 1 4.594798e-001
<MEAN> 39
 -9.697210e+000 2.496997e+000 1.090087e+000 -1.708812e+000 -3.587715e-001 -2.443948e+000 -1.005023e+000 -2.253310e-001 -5.293168e-001 -3.414598e-001 -1.266382e+000 -3.652356e-001 6.182207e+001 -4.445040e-001 -4.730893e-002 -1.177942e-002 3.702570e-001 4.360721e-001 2.495474e-001 6.410562e-001 2.276131e-001 4.838166e-001 7.927714e-002 5.453758e-001 1.272710e-001 -2.907286e-001 4.806333e-002 -1.125775e-001 -1.504871e-002 -1.714988e-001 -1.399330e-001 -5.348028e-002 -1.505756e-001 -2.360290e-002 -7.230679e-002 4.435750e-002 -7.707644e-002 2.712862e-002 2.096714e-001
<VARIANCE> 39
 6.681942e+001 2.534390e+001 3.651809e+001 5.512375e+001 6.032019e+001 3.535949e+001 6.519571e+001 3.741655e+001 4.725406e+001 3.130058e+001 5.702895e+001 2.409354e+001 8.867773e+001 2.208792e+000 1.918212e+000 1.602802e+000 2.691548e+000 2.579491e+000 2.107445e+000 2.800184e+000 2.067579e+000 2.334146e+000 2.311911e+000 2.270926e+000 1.789014e+000 3.846969e+000 3.792976e-001 3.423699e-001 3.025384e-001 4.915562e-001 5.040376e-001 4.262428e-001 5.218989e-001 4.289876e-001 4.610892e-001 4.695010e-001 4.648530e-001 3.676485e-001 6.949059e-001
<GCONST> 1.213409e+002
<MIXTURE> 2 5.405176e-001
<MEAN> 39
 -4.468958e+000 -6.958992e-001 1.087110e+000 -1.034309e+001 -9.596409e+000 -5.949018e+000 -1.157688e+001 -3.569540e+000 -7.764850e+000 -1.250700e+000 -8.900656e+000 -1.980866e+000 7.209704e+001 3.804215e-001 3.910147e-002 1.898906e-002 -3.100091e-001 -3.612671e-001 -2.047202e-001 -5.455652e-001 -1.946118e-001 -4.159801e-001 -7.546028e-002 -4.693138e-001 -1.093588e-001 2.383789e-001 -4.148080e-002 9.608258e-002 1.182101e-002 1.464217e-001 1.187998e-001 4.575078e-002 1.286175e-001 2.063046e-002 6.253331e-002 -3.685948e-002 6.461153e-002 -2.452423e-002 -1.778175e-001
<VARIANCE> 39
 3.901713e+001 4.288939e+001 7.699744e+001 5.730836e+001 8.192679e+001 5.985643e+001 7.075836e+001 6.276891e+001 6.037569e+001 5.042104e+001 5.197695e+001 3.660720e+001 2.853711e+001 3.372431e+000 2.953710e+000 3.348300e+000 5.740633e+000 7.019103e+000 4.524010e+000 6.322041e+000 4.791770e+000 4.566285e+000 4.033856e+000 4.785859e+000 3.028605e+000 3.723172e+000 5.064183e-001 4.914229e-001 5.164844e-001 9.346139e-001 1.150750e+000 7.978690e-001 1.069353e+000 8.572075e-001 8.080649e-001 7.453800e-001 8.804156e-001 5.468677e-001 5.334027e-001
<GCONST> 1.381793e+002
<TRANSP> 3
 0.000000e+000 1.000000e+000 0.000000e+000
 0.000000e+000 9.983748e-001 1.625203e-003
 0.000000e+000 0.000000e+000 0.000000e+000
<ENDHMM>
~h "MPCH"
<BEGINHMM>
<NUMSTATES> 3
<STATE> 2
<NUMMIXES> 2
<MIXTURE> 1 5.028359e-001
<MEAN> 39
 -1.095663e+001 -3.193969e+000 1.604664e+000 -4.939425e+000 -1.113021e+000 -3.366836e+000 1.920185e-001 1.378850e+000 2.512424e+000 2.920320e-001 1.166550e+000 -3.346359e-001 5.948331e+001 -6.677896e-001 3.817862e-001 -1.311358e-001 4.957563e-001 5.391037e-001 2.428191e-001 5.200571e-001 8.937630e-002 5.240921e-001 2.772737e-002 3.526015e-001 2.997982e-001 -6.070617e-001 9.532596e-002 -1.387653e-001 2.901128e-002 -1.243929e-001 -1.120471e-001 -1.622477e-002 -9.406352e-002 1.237352e-003 -9.894375e-002 -4.082190e-002 -5.246647e-002 -3.963526e-002 1.881624e-001
<VARIANCE> 39
 6.963248e+001 3.586278e+001 3.480469e+001 4.724840e+001 4.071269e+001 3.338561e+001 3.916927e+001 2.866043e+001 4.465161e+001 2.375060e+001 2.860221e+001 2.161939e+001 1.232702e+002 2.629496e+000 2.624698e+000 1.775731e+000 2.662956e+000 2.422194e+000 2.089119e+000 2.478401e+000 2.129338e+000 3.066417e+000 2.018626e+000 2.139747e+000 1.654733e+000 4.511499e+000 4.165761e-001 4.275169e-001 2.891091e-001 4.959248e-001 4.268799e-001 4.271393e-001 4.674695e-001 4.218816e-001 5.734803e-001 3.978906e-001 4.119359e-001 3.412124e-001 7.718573e-001
<GCONST> 1.200237e+002
<MIXTURE> 2 4.971654e-001
<MEAN> 39
 -2.530323e+000 -8.922042e+000 3.632727e+000 -1.107748e+001 -9.189741e+000 -5.640473e+000 -5.712303e+000 3.571124e-001 -4.184531e+000 -1.495295e+000 -1.678137e+000 -3.674947e+000 7.087873e+001 6.739025e-001 -3.703663e-001 1.272247e-001 -4.877965e-001 -5.397330e-001 -2.298545e-001 -5.138828e-001 -9.578678e-002 -5.310327e-001 -2.622489e-002 -3.537308e-001 -3.064465e-001 5.903198e-001 -9.659787e-002 1.400584e-001 -2.917558e-002 1.262027e-001 1.133747e-001 1.670964e-002 9.650795e-002 -8.897487e-004 9.993915e-002 4.123501e-002 5.320814e-002 3.981688e-002 -1.905640e-001
<VARIANCE> 39
 6.069482e+001 5.596805e+001 7.679909e+001 6.086513e+001 6.953043e+001 4.511335e+001 5.762365e+001 4.309968e+001 7.941663e+001 3.372038e+001 3.941587e+001 2.183592e+001 4.940086e+001 3.779351e+000 3.693441e+000 3.258948e+000 4.592797e+000 4.472286e+000 3.166153e+000 4.442695e+000 3.695789e+000 5.655967e+000 2.746578e+000 2.707878e+000 1.862658e+000 3.870980e+000 5.797454e-001 6.425985e-001 5.151232e-001 7.603139e-001 7.790560e-001 5.537494e-001 8.034936e-001 6.444187e-001 9.634967e-001 5.025096e-001 4.769377e-001 3.460405e-001 5.270255e-001
<GCONST> 1.325911e+002
<TRANSP> 3
 0.000000e+000 1.000000e+000 0.000000e+000
 0.000000e+000 9.984553e-001 1.544640e-003
 0.000000e+000 0.000000e+000 0.000000e+000
<ENDHMM>
~h "MVL2"
<BEGINHMM>
<NUMSTATES> 3
<STATE> 2
<NUMMIXES> 2
<MIXTURE> 1 4.724861e-001
<MEAN> 39
 -7.865593e+000 1.671769e+000 4.525539e-001 -2.715013e-001 -2.086011e+000 -2.917278e+000 -4.550760e+000 -1.706498e+000 4.115811e-001 2.501276e+000 1.361309e+000 1.779625e+000 6.835163e+001 -1.500846e-001 1.000163e-001 -1.529526e-002 1.295693e-001 2.044399e-001 1.467470e-002 2.534373e-001 4.558003e-002 -8.484288e-003 1.040995e-001 -5.469159e-002 1.228900e-001 -1.930018e-001 1.002169e-001 4.526830e-002 7.854272e-002 2.483069e-002 -3.986521e-002 1.915564e-002 -2.579683e-002 -5.038834e-002 -1.854834e-002 -3.171040e-002 2.190997e-003 -2.490591e-002 2.792492e-002
<VARIANCE> 39
 8.028258e+001 3.251329e+001 4.394685e+001 3.546630e+001 6.511548e+001 6.795537e+001 6.638116e+001 5.909462e+001 4.459201e+001 3.138081e+001 2.761246e+001 3.592257e+001 1.239312e+002 1.821363e+000 1.420776e+000 1.529192e+000 1.562534e+000 2.166428e+000 2.374726e+000 2.336080e+000 2.304118e+000 2.029614e+000 1.846575e+000 1.791471e+000 1.624381e+000 1.475105e+000 3.253988e-001 2.593172e-001 2.650148e-001 2.969187e-001 4.477955e-001 4.399045e-001 4.577392e-001 4.519761e-001 3.873901e-001 3.579132e-001 3.608104e-001 3.245855e-001 2.452632e-001
<GCONST> 1.167090e+002
<MIXTURE> 2 5.275145e-001
<MEAN> 39
 -2.064729e+000 1.818896e+000 4.082539e+000 -2.671457e+000 -7.913112e+000 -1.995866e+000 -9.565916e+000 -6.394362e+000 -2.096173e+000 -3.875920e-001 2.178761e+000 -1.314975e+000 7.562157e+001 1.340665e-001 -8.224496e-002 1.258500e-002 -1.155561e-001 -1.798105e-001 -6.394628e-003 -2.267202e-001 -4.425806e-002 3.394110e-003 -9.334699e-002 4.678007e-002 -1.159239e-001 1.694850e-001 -8.931181e-002 -4.090714e-002 -7.029234e-002 -2.301185e-002 3.545716e-002 -1.776876e-002 2.250925e-002 4.482111e-002 1.683120e-002 2.843816e-002 -1.635010e-003 2.256570e-002 -2.483000e-002
<VARIANCE> 39
 5.684051e+001 3.967533e+001 5.536200e+001 5.267504e+001 6.228588e+001 8.546296e+001 6.525217e+001 5.792737e+001 5.690260e+001 4.431997e+001 3.837904e+001 3.682896e+001 3.553316e+001 3.737186e+000 2.360828e+000 2.567914e+000 2.759388e+000 4.879127e+000 4.596537e+000 4.080280e+000 4.157704e+000 3.497786e+000 2.969138e+000 2.879622e+000 2.709862e+000 2.455026e+000 3.901743e-001 3.741122e-001 3.670863e-001 4.634945e-001 8.042432e-001 7.147875e-001 6.788016e-001 6.963142e-001 5.856184e-001 5.257326e-001 5.402305e-001 4.539921e-001 3.320276e-001
<GCONST> 1.295360e+002
<TRANSP> 3
 0.000000e+000 1.000000e+000 0.000000e+000
 0.000000e+000 9.984708e-001 1.529223e-003
 0.000000e+000 0.000000e+000 0.000000e+000
<ENDHMM>
~h "VACLAV"
<BEGINHMM>
<NUMSTATES> 3
<STATE> 2
<NUMMIXES> 2
<MIXTURE> 1 4.593959e-001
<MEAN> 39
 -1.259824e+001 4.841427e+000 7.927621e-001 7.703164e+000 3.545158e+000 6.116407e+000 2.227088e+000 8.084888e+000 7.394733e+000 7.162644e+000 5.676003e+000 5.409734e+000 4.030878e+001 -2.560857e-001 2.630369e-002 -6.861039e-002 1.817046e-001 1.792592e-001 1.054811e-001 2.506133e-001 1.796366e-001 1.928637e-001 1.398449e-001 7.321662e-002 2.008394e-001 -2.457859e-001 9.228823e-002 -9.301621e-002 3.022065e-002 -1.077442e-001 -6.866448e-002 -9.687198e-003 -7.603881e-002 -5.793482e-002 -7.746980e-002 -5.431551e-002 -2.445370e-002 -5.082823e-002 1.128062e-001
<VARIANCE> 39
 2.494240e+001 1.204449e+001 1.749000e+001 2.948783e+001 2.108140e+001 2.499767e+001 2.275671e+001 2.382173e+001 2.375848e+001 2.030182e+001 1.792453e+001 2.234105e+001 3.100907e+001 9.346272e-001 8.165830e-001 8.106208e-001 1.357139e+000 1.260285e+000 1.268395e+000 1.429818e+000 1.333414e+000 1.438626e+000 1.232615e+000 1.238580e+000 1.143836e+000 8.163861e-001 1.612090e-001 1.747450e-001 1.543049e-001 3.063421e-001 2.335661e-001 2.524755e-001 2.748395e-001 2.675168e-001 2.878506e-001 2.519751e-001 2.450982e-001 2.211762e-001 1.759360e-001
<GCONST> 9.411553e+001
<MIXTURE> 2 5.406045e-001
<MEAN> 39
 -3.644977e+000 -1.872950e-001 4.683435e+000 -2.635910e+000 -5.300877e+000 2.648488e+000 -7.461236e+000 -7.681239e-002 -4.508310e-001 4.176418e-001 3.699152e+000 -2.411539e+000 5.266189e+001 2.176687e-001 -2.279983e-002 5.704090e-002 -1.557442e-001 -1.462522e-001 -9.118464e-002 -2.105894e-001 -1.522627e-001 -1.627106e-001 -1.154238e-001 -6.388189e-002 -1.742842e-001 2.088672e-001 -7.839196e-002 7.825376e-002 -2.518141e-002 9.207086e-002 5.758243e-002 8.792399e-003 6.519371e-002 4.944889e-002 6.525239e-002 4.631949e-002 2.051592e-002 4.370764e-002 -9.566956e-002
<VARIANCE> 39
 4.077137e+001 4.830308e+001 6.604427e+001 6.875491e+001 6.495476e+001 5.440449e+001 6.412064e+001 5.346367e+001 4.775156e+001 4.044790e+001 3.166323e+001 3.738918e+001 3.066002e+001 3.366949e+000 4.086344e+000 3.239032e+000 6.078947e+000 5.463140e+000 3.828181e+000 5.809369e+000 4.953811e+000 4.343604e+000 3.457510e+000 2.935472e+000 2.754286e+000 3.260280e+000 4.711370e-001 6.625247e-001 5.118362e-001 9.642254e-001 9.084563e-001 6.851496e-001 9.880219e-001 9.042946e-001 7.681475e-001 6.145775e-001 5.567290e-001 4.792863e-001 4.825492e-001
<GCONST> 1.347842e+002
<TRANSP> 3
 0.000000e+000 1.000000e+000 0.000000e+000
 0.000000e+000 9.973894e-001 2.610625e-003
 0.000000e+000 0.000000e+000 0.000000e+000
<ENDHMM>
~h "DUTKA"
<BEGINHMM>
<NUMSTATES> 3
<STATE> 2
<NUMMIXES> 2
<MIXTURE> 1 4.782729e-001
<MEAN> 39
 -8.014286e-001 -4.738736e+000 1.290276e+000 -1.650688e+001 -1.097336e+001 -3.878223e+000 -1.417558e+001 -1.089940e+000 -5.035586e+000 -4.512929e+000 -4.256484e+000 -4.670835e+000 6.253950e+001 3.390197e-001 -3.550270e-001 2.953079e-001 -2.181782e-001 1.595586e-002 2.117321e-001 -1.688575e-001 2.526329e-001 8.732472e-002 5.202942e-002 4.077221e-002 6.868363e-002 5.249162e-001 5.641795e-002 9.697065e-003 5.300832e-003 6.564429e-005 -1.183364e-002 1.543302e-002 -4.232963e-002 -1.265081e-002 -3.051640e-002 1.149639e-002 -1.330015e-002 -3.752167e-002 2.478663e-002
<VARIANCE> 39
 1.183260e+002 1.004920e+002 1.295944e+002 1.191305e+002 9.658906e+001 1.189772e+002 8.558929e+001 8.936955e+001 7.494991e+001 5.271416e+001 4.992274e+001 3.929791e+001 8.559793e+001 6.289372e+000 6.931953e+000 5.908967e+000 7.272482e+000 6.107037e+000 6.630159e+000 6.551114e+000 6.398001e+000 5.512952e+000 4.133635e+000 3.708887e+000 3.150944e+000 4.761608e+000 8.377938e-001 1.113243e+000 9.331532e-001 1.294190e+000 1.112181e+000 1.121985e+000 1.209759e+000 1.148259e+000 1.016760e+000 8.131323e-001 7.037411e-001 5.934696e-001 7.110122e-001
<GCONST> 1.506924e+002
<MIXTURE> 2 5.217250e-001
<MEAN> 39
 -2.405728e+000 -4.823725e+000 -4.509690e-001 -1.409260e+001 -1.122553e+001 -3.988225e+000 -1.362101e+001 -1.720508e+000 -6.605895e+000 -4.842930e+000 -5.010551e+000 -5.746284e+000 5.888947e+001 -3.016856e-001 3.092553e-001 -2.772567e-001 1.904636e-001 -7.990472e-003 -2.082286e-001 1.476904e-001 -2.372589e-001 -9.036233e-002 -5.167071e-002 -5.097927e-002 -6.675085e-002 -4.607890e-001 -5.199313e-002 -8.526170e-003 -4.730555e-003 8.501339e-004 1.134241e-002 -1.446108e-002 3.774678e-002 1.147556e-002 2.713389e-002 -1.054603e-002 1.259718e-002 3.477377e-002 -2.325121e-002
<VARIANCE> 39
 1.445667e+002 9.998562e+001 1.267866e+002 1.022891e+002 7.160366e+001 7.482285e+001 6.380780e+001 7.953665e+001 5.905836e+001 3.687645e+001 3.743795e+001 3.140840e+001 1.689771e+002 1.526260e+000 3.503022e+000 3.139625e+000 3.837461e+000 3.574182e+000 3.516758e+000 3.458489e+000 3.870089e+000 3.353487e+000 2.661772e+000 2.401409e+000 2.112330e+000 1.866405e+000 2.261748e-001 5.556232e-001 4.913920e-001 6.257720e-001 6.161945e-001 5.896413e-001 6.227158e-001 6.880096e-001 6.230025e-001 4.993283e-001 4.530273e-001 3.962294e-001 2.634823e-001
<GCONST> 1.321254e+002
<TRANSP> 3
 0.000000e+000 1.000000e+000 0.000000e+000
 0.000000e+000 9.982075e-001 1.792516e-003
 0.000000e+000 0.000000e+000 0.000000e+000
<ENDHMM>
~h "BLAZEK"
<BEGINHMM>
<NUMSTATES> 3
<STATE> 2
<NUMMIXES> 2
<MIXTURE> 1 4.995880e-001
<MEAN> 39
 -9.603051e+000 -2.123280e-001 9.105134e-001 -2.865453e+000 2.594686e-001 -3.588098e+000 5.540738e-001 -9.750152e-001 7.231367e-001 3.663948e-001 1.904811e-001 -6.650241e-001 5.709417e+001 -3.406110e-001 1.165442e-001 -3.880707e-002 1.460718e-001 4.012243e-001 -1.227154e-001 4.675881e-001 1.403764e-001 2.249176e-001 1.121720e-001 1.880350e-002 3.243206e-001 -9.534094e-002 1.318781e-001 -5.994599e-002 7.920432e-002 -3.025088e-002 -9.427457e-002 6.763924e-002 -1.048071e-001 2.145203e-002 6.004283e-003 -1.051868e-002 6.582633e-002 -4.445770e-002 7.128189e-002
<VARIANCE> 39
 7.217395e+001 3.154559e+001 4.612388e+001 4.169195e+001 4.035602e+001 5.623325e+001 4.984109e+001 3.576893e+001 2.994483e+001 2.488897e+001 2.181300e+001 2.453714e+001 9.273043e+001 2.989015e+000 2.250687e+000 2.275745e+000 2.811300e+000 2.643698e+000 3.164927e+000 3.203398e+000 2.469137e+000 2.301764e+000 2.069029e+000 2.026830e+000 1.738287e+000 3.446612e+000 5.387127e-001 3.882191e-001 3.808143e-001 5.429586e-001 5.752577e-001 5.869456e-001 6.921639e-001 5.006328e-001 4.614623e-001 4.215691e-001 3.982624e-001 3.836469e-001 5.390404e-001
<GCONST> 1.222005e+002
<MIXTURE> 2 5.004136e-001
<MEAN> 39
 -5.078024e+000 -2.636335e+000 2.893117e+000 -5.007895e+000 -2.587651e+000 -2.437489e+000 -2.674027e+000 -1.196442e+000 3.085894e-001 -1.332018e-001 1.814345e+000 -2.644178e+000 6.083088e+001 3.308765e-001 -1.112261e-001 3.826988e-002 -1.501510e-001 -3.895019e-001 1.119464e-001 -4.561044e-001 -1.405579e-001 -2.267635e-001 -1.044352e-001 -2.002820e-002 -3.266233e-001 9.807404e-002 -1.309523e-001 5.875213e-002 -7.775924e-002 3.173956e-002 9.356841e-002 -6.784525e-002 1.050355e-001 -2.061817e-002 -5.528040e-003 9.204296e-003 -6.530374e-002 4.419413e-002 -7.164920e-002
<VARIANCE> 39
 6.451702e+001 3.816525e+001 7.011428e+001 5.435481e+001 4.857837e+001 4.990268e+001 5.415143e+001 4.090754e+001 4.267444e+001 2.930658e+001 2.943946e+001 3.534539e+001 1.055674e+002 3.392245e+000 2.425049e+000 2.715774e+000 3.377257e+000 4.065634e+000 3.139456e+000 4.316924e+000 3.007501e+000 2.782050e+000 2.274435e+000 2.305839e+000 2.359441e+000 3.025498e+000 3.929751e-001 4.039523e-001 4.063853e-001 5.772342e-001 7.058700e-001 5.491605e-001 7.211624e-001 5.376059e-001 5.084667e-001 4.161185e-001 4.185517e-001 4.287857e-001 5.254186e-001
<GCONST> 1.269458e+002
<TRANSP> 3
 0.000000e+000 1.000000e+000 0.000000e+000
 0.000000e+000 9.983500e-001 1.650029e-003
 0.000000e+000 0.000000e+000 0.000000e+000
<ENDHMM>
~h "KOUNOVSKY"
<BEGINHMM>
<NUMSTATES> 3
<STATE> 2
<NUMMIXES> 2
<MIXTURE> 1 4.487190e-001
<MEAN> 39
 -1.099527e+001 -1.377186e-001 -1.296417e+000 4.301352e+000 -4.191391e+000 5.100901e+000 -1.216498e+000 -1.802465e-001 2.863638e-001 3.799832e+000 -1.911773e-001 2.341375e-001 4.943750e+001 -1.250918e-001 1.095172e-001 -2.998761e-002 8.910421e-002 1.541439e-001 -4.211539e-003 1.262441e-001 2.661222e-002 -6.844327e-003 -9.950184e-003 4.868764e-002 9.575330e-002 -2.242973e-001 6.791762e-002 6.350881e-003 5.405752e-002 3.686608e-002 -1.785700e-002 4.782492e-003 -1.703439e-002 -4.564877e-002 -1.781111e-002 -2.248048e-002 -2.735508e-002 -2.928840e-002 4.063559e-003
<VARIANCE> 39
 6.236405e+001 2.716973e+001 2.794922e+001 2.867962e+001 7.189896e+001 3.905235e+001 3.521196e+001 3.878531e+001 3.653456e+001 2.320128e+001 3.180194e+001 2.478829e+001 1.324061e+002 1.102320e+000 1.052647e+000 9.950542e-001 1.253766e+000 1.705123e+000 1.586583e+000 1.794418e+000 1.628104e+000 1.849362e+000 1.509573e+000 1.510725e+000 1.296471e+000 1.333941e+000 2.189132e-001 1.777770e-001 1.925286e-001 2.197896e-001 2.898709e-001 2.865084e-001 3.359672e-001 3.093678e-001 3.479503e-001 2.983614e-001 2.954805e-001 2.480300e-001 2.197907e-001
<GCONST> 1.061262e+002
<MIXTURE> 2 5.512794e-001
<MEAN> 39
 -3.971133e+000 -4.168052e+000 5.151986e+000 4.980620e+000 -1.438009e+001 6.076303e+000 -7.105276e+000 -6.172271e+000 -3.706968e+000 7.157754e-001 -4.359641e+000 -3.974434e+000 6.309981e+001 9.301828e-002 -9.097616e-002 2.146312e-002 -7.747525e-002 -1.275057e-001 4.768721e-003 -1.045234e-001 -3.099129e-002 -8.194826e-003 -3.164774e-003 -4.520419e-002 -9.158722e-002 1.766614e-001 -5.470731e-002 -5.230264e-003 -4.381280e-002 -3.101051e-002 1.406186e-002 -4.225401e-003 1.512945e-002 3.662825e-002 1.684433e-002 1.832628e-002 2.199188e-002 2.613059e-002 -3.114386e-003
<VARIANCE> 39
 7.385168e+001 5.625517e+001 7.795155e+001 6.758849e+001 8.931349e+001 8.221451e+001 6.897887e+001 5.207391e+001 6.221494e+001 5.801885e+001 3.284845e+001 2.661731e+001 5.179695e+001 5.091136e+000 4.288334e+000 4.054711e+000 3.829891e+000 6.600977e+000 4.353571e+000 5.597943e+000 3.733748e+000 4.430902e+000 3.391540e+000 2.648942e+000 2.139548e+000 4.394847e+000 6.071277e-001 7.477556e-001 5.908480e-001 6.189152e-001 1.023760e+000 6.916794e-001 9.405088e-001 6.371474e-001 7.597963e-001 5.639350e-001 4.830116e-001 3.798500e-001 7.353266e-001
<GCONST> 1.372244e+002
<TRANSP> 3
 0.000000e+000 1.000000e+000 0.000000e+000
 0.000000e+000 9.971880e-001 2.811952e-003
 0.000000e+000 0.000000e+000 0.000000e+000
<ENDHMM>
~h "KOLAR"
<BEGINHMM>
<NUMSTATES> 3
<STATE> 2
<NUMMIXES> 2
<MIXTURE> 1 4.718136e-001
<MEAN> 39
 -8.744999e+000 3.140206e+000 -1.488126e+000 6.072866e+000 3.777863e+000 4.689569e+000 4.566352e+000 5.411876e+000 4.483692e+000 5.800950e+000 6.148034e+000 3.988073e+000 5.138457e+001 -1.085709e-001 1.028875e-002 3.329565e-002 4.872723e-003 1.516792e-001 1.312938e-001 1.299338e-001 8.195651e-002 8.559956e-002 4.488514e-002 2.507487e-002 1.250660e-001 -1.918330e-001 3.880944e-002 -1.921202e-002 -2.808525e-002 9.168731e-003 -4.647983e-002 -2.854642e-002 -3.693250e-002 -2.853541e-002 -2.104210e-002 -2.496833e-003 -7.510975e-003 -3.551224e-002 5.601065e-002
<VARIANCE> 39
 1.861607e+001 6.735839e+000 1.314415e+001 9.714695e+000 2.130767e+001 2.005789e+001 1.722233e+001 1.511629e+001 1.900144e+001 1.385314e+001 1.407104e+001 2.038179e+001 2.571823e+001 3.383408e-001 3.650284e-001 5.658703e-001 6.348286e-001 9.787057e-001 1.005988e+000 1.117043e+000 1.070658e+000 1.104652e+000 1.087118e+000 1.062297e+000 1.033286e+000 4.062236e-001 5.233651e-002 7.099030e-002 1.244870e-001 1.181803e-001 1.868604e-001 1.975820e-001 2.109248e-001 2.118083e-001 2.221764e-001 2.197535e-001 2.132794e-001 2.021956e-001 7.922071e-002
<GCONST> 7.896007e+001
<MIXTURE> 2 5.281846e-001
<MEAN> 39
 -6.358120e-001 2.268948e+000 -3.766971e+000 7.114353e+000 -6.892794e+000 -8.955219e-001 -3.765490e+000 4.264605e-002 -1.212939e+000 3.801072e+000 3.056153e+000 -5.289648e+000 6.331454e+001 9.548781e-002 -7.660741e-003 -2.747317e-002 -1.866142e-003 -1.314387e-001 -1.154609e-001 -1.157268e-001 -7.098087e-002 -7.396671e-002 -3.611874e-002 -2.165545e-002 -1.111877e-001 1.676407e-001 -3.419232e-002 1.687392e-002 2.508915e-002 -8.592431e-003 4.153059e-002 2.424576e-002 3.346204e-002 2.482534e-002 1.893563e-002 1.991918e-003 5.527870e-003 3.121596e-002 -4.944202e-002
<VARIANCE> 39
 5.231768e+001 3.005392e+001 4.540078e+001 3.308988e+001 5.419726e+001 4.114932e+001 5.103455e+001 3.985732e+001 3.418576e+001 3.159906e+001 2.609835e+001 3.268393e+001 2.988990e+001 2.897160e+000 1.856575e+000 2.983621e+000 1.865743e+000 3.997042e+000 2.654733e+000 4.005997e+000 2.785123e+000 2.524534e+000 1.920522e+000 2.042511e+000 2.465662e+000 2.539974e+000 3.779774e-001 3.195711e-001 4.867635e-001 3.172199e-001 6.369671e-001 4.616818e-001 6.609625e-001 4.847501e-001 4.377054e-001 3.313603e-001 3.843491e-001 4.043637e-001 3.826716e-001
<GCONST> 1.200150e+002
<TRANSP> 3
 0.000000e+000 1.000000e+000 0.000000e+000
 0.000000e+000 9.982134e-001 1.786672e-003
 0.000000e+000 0.000000e+000 0.000000e+000
<ENDHMM>
~h "HALADAVETY"
<BEGINHMM>
<NUMSTATES> 3
<STATE> 2
<NUMMIXES> 2
<MIXTURE> 1 5.000364e-001
<MEAN> 39
 -1.247634e+001 9.013001e-001 -4.485043e+000 -1.467399e+000 -1.018448e+001 -1.221794e+000 -1.162474e+001 -3.336939e+000 -4.226392e+000 -4.491788e+000 -1.876554e+000 -1.547957e+000 5.147141e+001 -3.750385e-002 2.122219e-001 1.085051e-001 2.211910e-001 1.598097e-001 -9.289400e-002 2.569010e-001 1.475645e-001 2.389490e-001 2.272149e-001 8.943053e-002 1.290531e-001 -2.113822e-001 -2.412087e-002 1.015239e-002 5.755378e-003 2.801036e-002 4.844570e-002 1.314102e-002 1.012033e-001 4.478041e-002 3.434181e-002 3.158472e-002 2.165260e-002 1.866318e-002 -1.000382e-001
<VARIANCE> 39
 1.252425e+002 5.501230e+001 6.987619e+001 7.096494e+001 5.747612e+001 8.131036e+001 6.286928e+001 5.707631e+001 4.456567e+001 3.477358e+001 4.185831e+001 3.717124e+001 3.514426e+002 3.402208e+000 2.685866e+000 2.269604e+000 2.570545e+000 3.379833e+000 4.050272e+000 4.043960e+000 3.580070e+000 2.940580e+000 2.484968e+000 2.718267e+000 2.570313e+000 3.636636e+000 4.624223e-001 4.484026e-001 3.929757e-001 4.758057e-001 6.152899e-001 7.260914e-001 7.278115e-001 6.790165e-001 5.613624e-001 5.030575e-001 5.341361e-001 4.868652e-001 5.833894e-001
<GCONST> 1.327952e+002
<MIXTURE> 2 4.999628e-001
<MEAN> 39
 -9.151862e+000 -5.695965e-001 -3.423670e+000 -2.900946e+000 -1.068002e+001 -8.659879e-001 -1.271922e+001 -3.476839e+000 -5.625216e+000 -4.601706e+000 -1.778070e+000 -2.546571e+000 5.627215e+001 4.164452e-002 -2.076871e-001 -1.055361e-001 -2.225520e-001 -1.576968e-001 9.723879e-002 -2.596461e-001 -1.572061e-001 -2.460666e-001 -2.281532e-001 -9.046941e-002 -1.403893e-001 2.131514e-001 2.405511e-002 -1.047238e-002 -6.479535e-003 -2.845011e-002 -4.926337e-002 -1.547864e-002 -9.906701e-002 -4.140996e-002 -3.411384e-002 -3.465756e-002 -2.372964e-002 -1.360285e-002 9.992847e-002
<VARIANCE> 39
 1.130088e+002 6.807176e+001 8.039014e+001 7.512013e+001 6.505254e+001 8.268260e+001 6.694618e+001 7.431030e+001 5.822614e+001 4.055329e+001 4.616964e+001 4.192964e+001 2.718033e+002 3.379043e+000 3.314122e+000 3.328945e+000 3.744155e+000 4.060004e+000 4.634248e+000 4.085124e+000 4.395154e+000 3.671496e+000 2.902104e+000 3.074850e+000 2.820930e+000 5.117831e+000 5.362293e-001 5.250657e-001 5.009554e-001 5.826505e-001 7.258391e-001 7.913893e-001 7.865291e-001 7.871362e-001 6.802397e-001 5.550785e-001 5.643120e-001 5.423091e-001 7.193151e-001
<GCONST> 1.382740e+002
<TRANSP> 3
 0.000000e+000 1.000000e+000 0.000000e+000
 0.000000e+000 9.987579e-001 1.242120e-003
 0.000000e+000 0.000000e+000 0.000000e+000
<ENDHMM>
~h "HORKYVETY"
<BEGINHMM>
<NUMSTATES> 3
<STATE> 2
<NUMMIXES> 2
<MIXTURE> 1 4.903693e-001
<MEAN> 39
 -1.773968e+001 9.275689e-001 -4.571331e+000 -2.738143e-001 -6.624249e+000 -1.079528e+000 -5.273592e+000 -2.417350e+000 6.990798e-002 -1.996913e+000 2.925380e+000 -2.882780e+000 4.413561e+001 -3.419875e-001 2.276499e-001 1.665746e-001 1.956705e-001 3.824274e-001 1.883900e-001 4.133832e-001 2.188493e-001 -8.355375e-002 2.561758e-001 -2.454993e-001 2.509079e-001 -2.631852e-001 5.406724e-002 1.947847e-002 4.767754e-002 3.561105e-002 -3.371795e-002 1.009555e-002 -1.487379e-002 6.368716e-003 1.938773e-002 -1.324230e-002 3.222917e-002 2.129308e-002 1.060913e-003
<VARIANCE> 39
 7.498509e+001 2.780959e+001 6.456792e+001 5.099208e+001 4.343922e+001 4.832638e+001 4.722227e+001 4.783375e+001 3.374930e+001 3.872528e+001 4.300097e+001 3.122744e+001 2.442461e+002 2.621192e+000 1.984671e+000 2.032976e+000 2.640156e+000 2.628933e+000 2.492910e+000 2.966237e+000 2.636777e+000 2.572670e+000 2.723624e+000 2.501141e+000 1.891435e+000 4.945227e+000 4.662207e-001 3.525671e-001 3.721181e-001 4.424494e-001 5.031383e-001 4.601147e-001 5.631492e-001 4.870442e-001 4.880980e-001 5.319652e-001 4.743035e-001 3.761111e-001 6.894641e-001
<GCONST> 1.252227e+002
<MIXTURE> 2 5.096300e-001
<MEAN> 39
 -1.546580e+001 1.890355e-001 -3.588088e+000 -4.706729e-001 -8.199256e+000 -1.689958e+000 -6.576233e+000 -3.063745e+000 5.366979e-001 -3.203756e+000 4.478273e+000 -3.300502e+000 4.643854e+001 2.992221e-001 -2.176813e-001 -1.693584e-001 -1.957356e-001 -3.635681e-001 -1.880765e-001 -3.949249e-001 -2.105418e-001 7.033423e-002 -2.394494e-001 2.280344e-001 -2.359788e-001 2.431970e-001 -4.342527e-002 -1.861363e-002 -4.383281e-002 -3.392591e-002 3.310747e-002 -8.504448e-003 1.457268e-002 -5.222447e-003 -2.044962e-002 1.104711e-002 -3.173615e-002 -2.121270e-002 4.011862e-003
<VARIANCE> 39
 6.857233e+001 3.017285e+001 6.704149e+001 5.396503e+001 4.509210e+001 5.366545e+001 4.994771e+001 5.525132e+001 3.830671e+001 4.944870e+001 5.288227e+001 3.461289e+001 2.566085e+002 2.962717e+000 1.724873e+000 2.190607e+000 2.502529e+000 2.921961e+000 2.580420e+000 3.394263e+000 2.939521e+000 3.105045e+000 3.134084e+000 3.124295e+000 2.104111e+000 4.140009e+000 3.626614e-001 3.175332e-001 3.182648e-001 4.163524e-001 5.194415e-001 4.762683e-001 5.759195e-001 5.021437e-001 5.516570e-001 5.278566e-001 5.317606e-001 3.641420e-001 7.246919e-001
<GCONST> 1.270414e+002
<TRANSP> 3
 0.000000e+000 1.000000e+000 0.000000e+000
 0.000000e+000 9.984801e-001 1.519930e-003
 0.000000e+000 0.000000e+000 0.000000e+000
<ENDHMM>
~h "CHMELIK"
<BEGINHMM>
<NUMSTATES> 3
<STATE> 2
<NUMMIXES> 2
<MIXTURE> 1 4.921065e-001
<MEAN> 39
 -7.324702e+000 -6.241719e+000 4.006876e+000 -5.588348e+000 -6.832230e+000 -3.996433e+000 -2.355997e+000 -9.252057e-001 7.174376e-001 -2.536079e-001 1.196705e-001 -5.269832e+000 6.730756e+001 -2.546958e-002 1.504093e-001 7.596805e-002 1.722100e-001 1.319000e-001 5.012264e-002 1.857985e-001 5.647772e-002 1.426992e-001 8.514407e-002 8.079483e-002 8.996315e-002 1.793294e-002 -1.187608e-001 6.644780e-002 -7.312753e-002 5.561480e-002 6.119661e-002 3.352200e-002 6.344017e-002 1.415997e-002 5.702189e-002 -1.400760e-002 2.096223e-002 3.434965e-002 -1.212607e-001
<VARIANCE> 39
 6.988235e+001 4.692824e+001 7.673470e+001 4.223965e+001 4.903044e+001 4.158572e+001 3.555659e+001 4.043548e+001 4.069207e+001 2.797964e+001 2.594394e+001 2.564598e+001 6.724989e+001 4.927041e+000 3.594926e+000 4.138889e+000 3.526764e+000 4.208764e+000 3.368096e+000 3.407859e+000 3.562457e+000 3.593681e+000 2.670926e+000 2.396257e+000 2.217279e+000 4.019538e+000 7.856680e-001 6.260995e-001 6.767695e-001 6.713089e-001 7.851309e-001 6.285856e-001 6.688024e-001 6.913977e-001 6.776848e-001 5.544497e-001 4.705059e-001 4.206139e-001 5.475720e-001
<GCONST> 1.303427e+002
<MIXTURE> 2 5.078950e-001
<MEAN> 39
 -1.245505e+001 -3.968510e+000 -1.301993e+000 -3.652440e+000 -3.527651e+000 -3.450294e+000 -6.641793e-001 -1.806461e+000 1.139654e+000 -1.933149e+000 -7.257338e-002 -3.275733e+000 5.802468e+001 8.013123e-002 -1.985173e-001 -8.575270e-002 -1.920721e-001 -9.034972e-002 -9.543844e-002 -1.842953e-001 -5.950022e-002 -1.385127e-001 -7.840880e-002 -9.525325e-002 -9.295380e-002 9.185547e-002 1.126190e-001 -6.221548e-002 7.139299e-002 -5.263354e-002 -6.087761e-002 -3.120545e-002 -6.099628e-002 -1.355149e-002 -5.604345e-002 1.299309e-002 -1.782212e-002 -3.215256e-002 1.137516e-001
<VARIANCE> 39
 4.872214e+001 2.153494e+001 3.511110e+001 1.879703e+001 2.146855e+001 2.020831e+001 1.817029e+001 2.038942e+001 2.203748e+001 1.661155e+001 1.474266e+001 1.652313e+001 8.983368e+001 2.618212e+000 1.279830e+000 1.651867e+000 1.476434e+000 1.741294e+000 1.706989e+000 1.791639e+000 1.798617e+000 1.857392e+000 1.652736e+000 1.446768e+000 1.363205e+000 1.492447e+000 3.628066e-001 2.311851e-001 2.828179e-001 2.811826e-001 3.448821e-001 3.425349e-001 3.605550e-001 3.632472e-001 3.860176e-001 3.264982e-001 2.912143e-001 2.711467e-001 3.616377e-001
<GCONST> 1.047645e+002
<TRANSP> 3
 0.000000e+000 1.000000e+000 0.000000e+000
 0.000000e+000 9.983341e-001 1.665884e-003
 0.000000e+000 0.000000e+000 0.000000e+000
<ENDHMM>
~h "VACEKVETY"
<BEGINHMM>
<NUMSTATES> 3
<STATE> 2
<NUMMIXES> 2
<MIXTURE> 1 4.954521e-001
<MEAN> 39
 -3.040766e+000 1.550750e+000 1.169391e+000 -2.641354e+000 -2.577946e+000 -5.765951e+000 -7.237822e+000 -7.013569e+000 -5.226878e+000 4.176825e+000 -4.789891e+000 -2.658831e+000 5.987631e+001 4.147299e-002 3.828543e-002 1.374665e-001 8.726798e-002 1.243564e-001 -7.131884e-002 6.687882e-003 2.452002e-002 7.612972e-002 9.719716e-002 1.359950e-001 1.473300e-001 3.157953e-001 -5.189519e-003 1.232287e-002 5.823581e-003 1.321858e-002 -1.278438e-002 5.912961e-002 5.018239e-002 4.728313e-002 -8.982856e-003 1.489257e-002 2.098249e-002 -1.596832e-002 -9.191329e-003
<VARIANCE> 39
 1.105337e+002 6.687675e+001 1.037615e+002 7.465343e+001 7.383003e+001 9.778561e+001 7.653796e+001 8.709257e+001 7.938824e+001 5.846321e+001 4.404103e+001 4.556096e+001 7.475066e+001 7.187924e+000 4.761197e+000 4.990656e+000 5.118751e+000 4.904400e+000 5.805535e+000 6.231186e+000 6.298914e+000 5.935822e+000 4.729771e+000 3.356719e+000 3.486880e+000 4.253967e+000 8.441256e-001 7.818826e-001 7.284319e-001 8.603289e-001 8.619108e-001 9.619542e-001 1.126631e+000 1.096144e+000 1.014953e+000 8.714752e-001 6.418085e-001 6.560917e-001 6.286190e-001
<GCONST> 1.463146e+002
<MIXTURE> 2 5.045472e-001
<MEAN> 39
 -1.111564e+001 1.128274e+000 -3.911526e+000 -5.731394e-001 -5.124918e+000 -1.005275e+000 -5.482330e+000 -3.412806e+000 -2.881339e+000 2.034317e+000 -2.853279e+000 -2.546375e+000 4.672624e+001 -3.641420e-002 -3.645325e-002 -1.379644e-001 -8.846501e-002 -1.202656e-001 7.043917e-002 -8.569794e-003 -2.784858e-002 -7.637827e-002 -9.245200e-002 -1.295207e-001 -1.523559e-001 -3.074647e-001 5.706886e-003 -1.200592e-002 -6.777969e-003 -1.347374e-002 1.061043e-002 -5.968524e-002 -4.668505e-002 -4.251416e-002 1.001915e-002 -1.771939e-002 -2.196826e-002 1.961936e-002 9.179179e-003
<VARIANCE> 39
 2.118550e+002 3.837750e+001 8.547189e+001 5.494154e+001 4.816367e+001 7.325959e+001 4.355693e+001 6.483743e+001 5.953657e+001 4.440423e+001 3.464558e+001 3.130191e+001 3.600854e+002 1.591897e+000 1.836680e+000 1.869208e+000 2.147631e+000 2.137795e+000 2.503119e+000 2.786943e+000 3.256007e+000 2.862472e+000 2.278735e+000 1.931097e+000 1.974152e+000 1.396044e+000 3.032664e-001 2.954229e-001 2.828726e-001 3.618354e-001 3.664866e-001 4.373704e-001 5.320702e-001 5.752075e-001 5.430000e-001 4.460153e-001 3.732449e-001 3.833066e-001 2.751245e-001
<GCONST> 1.235378e+002
<TRANSP> 3
 0.000000e+000 1.000000e+000 0.000000e+000
 0.000000e+000 9.981127e-001 1.887237e-003
 0.000000e+000 0.000000e+000 0.000000e+000
<ENDHMM>
~h "DVORSKY"
<BEGINHMM>
<NUMSTATES> 3
<STATE> 2
<NUMMIXES> 2
<MIXTURE> 1 4.948628e-001
<MEAN> 39
 -6.010445e+000 5.216720e+000 3.902064e+000 2.812093e+000 3.389216e+000 9.640165e-001 2.053930e+000 1.849556e+000 1.905967e+000 2.909076e+000 2.133671e+000 9.633076e-001 5.140285e+001 -1.693706e-001 2.125549e-001 -4.065731e-002 2.100455e-001 1.235073e-001 7.885457e-002 2.014378e-001 -1.734716e-002 1.356767e-001 -4.240495e-002 9.225831e-002 1.069462e-001 -3.436881e-001 -2.310778e-003 -4.547575e-002 1.434062e-002 -3.873786e-002 -2.465691e-002 -6.626469e-003 -1.535118e-002 -1.470409e-003 -1.916487e-002 3.968839e-003 8.434480e-004 -7.774617e-003 4.748176e-002
<VARIANCE> 39
 3.620630e+001 2.005088e+001 2.720918e+001 3.326035e+001 2.204848e+001 3.300063e+001 2.582767e+001 2.172033e+001 2.429557e+001 1.863221e+001 2.063317e+001 1.899356e+001 1.119798e+002 1.127085e+000 1.040116e+000 1.014389e+000 1.559465e+000 1.414035e+000 1.492135e+000 1.644687e+000 1.693444e+000 1.794268e+000 1.552632e+000 1.533210e+000 1.431780e+000 1.412260e+000 1.930970e-001 1.932014e-001 1.830425e-001 2.947461e-001 2.602277e-001 2.903064e-001 3.125757e-001 3.318133e-001 3.468087e-001 3.122778e-001 3.061861e-001 2.825350e-001 2.296398e-001
<GCONST> 1.021422e+002
<MIXTURE> 2 5.051360e-001
<MEAN> 39
 -4.484385e+000 9.680017e-002 5.579816e+000 -1.696137e+000 5.973717e-001 -1.930581e+000 -1.477219e+000 6.691030e-001 -1.931052e+000 4.163018e+000 8.369614e-001 -2.124044e+000 6.605554e+001 1.654479e-001 -2.076964e-001 3.940221e-002 -2.065346e-001 -1.218636e-001 -7.367414e-002 -1.959390e-001 1.631964e-002 -1.324683e-001 4.034934e-002 -9.218103e-002 -1.059860e-001 3.345322e-001 2.023406e-003 4.441092e-002 -1.361308e-002 3.810649e-002 2.358799e-002 6.264789e-003 1.511350e-002 2.555801e-003 1.781768e-002 -4.025274e-003 6.917613e-004 7.833729e-003 -4.641362e-002
<VARIANCE> 39
 7.616115e+001 4.331528e+001 8.312605e+001 7.002285e+001 5.368148e+001 6.639137e+001 5.583442e+001 5.219053e+001 5.723948e+001 3.856815e+001 3.959173e+001 3.254966e+001 5.952869e+001 4.896654e+000 3.339332e+000 4.080691e+000 5.545700e+000 4.082739e+000 4.400084e+000 4.575270e+000 4.370622e+000 4.927985e+000 3.262975e+000 2.908424e+000 2.588367e+000 4.690899e+000 7.348402e-001 5.851474e-001 6.118717e-001 9.274768e-001 7.301872e-001 7.689987e-001 8.350677e-001 8.280181e-001 9.043137e-001 6.095190e-001 5.337124e-001 4.825046e-001 8.114094e-001
<GCONST> 1.371727e+002
<TRANSP> 3
 0.000000e+000 1.000000e+000 0.000000e+000
 0.000000e+000 9.980264e-001 1.973652e-003
 0.000000e+000 0.000000e+000 0.000000e+000
<ENDHMM>
~h "POLACEKVETY"
<BEGINHMM>
<NUMSTATES> 3
<STATE> 2
<NUMMIXES> 2
<MIXTURE> 1 5.002312e-001
<MEAN> 39
 -7.480621e+000 2.214873e-002 1.003529e+000 -1.565483e+000 -9.928548e+000 -8.440680e-001 -1.017415e+001 -5.377360e-001 -2.259696e+000 2.447106e-001 -8.914890e-001 -4.321212e+000 5.299190e+001 -4.538917e-002 1.632211e-001 1.440380e-001 1.066719e-001 1.733219e-001 1.540704e-002 1.517155e-001 2.989388e-002 5.987344e-002 1.268398e-001 7.441922e-002 1.517059e-001 2.690362e-002 -1.822319e-003 6.868747e-002 3.144899e-002 7.293428e-002 4.552613e-002 4.404009e-002 6.534642e-002 1.960317e-002 3.254187e-002 -1.156766e-002 2.857743e-005 2.315036e-002 -7.860708e-002
<VARIANCE> 39
 9.591940e+001 4.740569e+001 8.159755e+001 4.450184e+001 6.628471e+001 5.715679e+001 4.719970e+001 3.691121e+001 3.918943e+001 2.924410e+001 2.595991e+001 3.148904e+001 1.246835e+002 3.418331e+000 2.813614e+000 2.501343e+000 2.911884e+000 3.834228e+000 2.796300e+000 3.096724e+000 2.689319e+000 2.563978e+000 2.087619e+000 1.904157e+000 2.023563e+000 2.865734e+000 5.772631e-001 4.756334e-001 4.556411e-001 5.223323e-001 6.456778e-001 5.243405e-001 5.712364e-001 5.132954e-001 4.753135e-001 4.241029e-001 3.810457e-001 3.752185e-001 4.219627e-001
<GCONST> 1.259485e+002
<MIXTURE> 2 4.997708e-001
<MEAN> 39
 -7.972709e+000 8.309071e-001 3.428583e-001 -3.168008e-001 -9.453992e+000 1.202814e-001 -9.046530e+000 3.373425e-002 -1.691076e+000 -3.091286e-001 -1.087609e+000 -4.311735e+000 5.022480e+001 7.072922e-002 -1.543528e-001 -1.295871e-001 -1.167605e-001 -1.633633e-001 -1.275993e-002 -1.594328e-001 -4.036103e-002 -6.895389e-002 -1.205434e-001 -8.102427e-002 -1.621741e-001 8.237245e-003 2.392531e-003 -6.882035e-002 -3.138965e-002 -7.247172e-002 -4.659215e-002 -4.576127e-002 -6.347531e-002 -1.567477e-002 -3.241869e-002 9.430197e-003 -1.623378e-003 -1.828411e-002 7.810643e-002
<VARIANCE> 39
 7.939574e+001 4.144704e+001 7.605087e+001 3.799438e+001 6.433678e+001 4.807821e+001 4.489862e+001 3.250233e+001 3.592112e+001 2.530265e+001 2.347116e+001 2.992975e+001 1.382930e+002 3.541934e+000 2.237628e+000 2.598227e+000 2.491832e+000 3.157049e+000 2.566654e+000 2.644360e+000 2.432715e+000 2.245489e+000 1.966272e+000 1.806282e+000 1.805544e+000 2.332346e+000 3.462530e-001 3.738397e-001 3.234335e-001 4.363102e-001 5.392762e-001 4.265754e-001 4.879883e-001 4.411466e-001 4.192379e-001 3.527033e-001 3.325478e-001 3.234845e-001 4.015193e-001
<GCONST> 1.207080e+002
<TRANSP> 3
 0.000000e+000 1.000000e+000 0.000000e+000
 0.000000e+000 9.988280e-001 1.171989e-003
 0.000000e+000 0.000000e+000 0.000000e+000
<ENDHMM>
