~o
<STREAMINFO> 1 39
<VECSIZE> 39<NULLD><MFCC_D_A_0><DIAGC>
~h "proto-3s-39f"
<BEGINHMM>
<NUMSTATES> 5
<STATE> 2
<MEAN> 39
 -7.166791e+000 1.522824e+000 -2.090666e+000 -1.432978e+000 -4.253049e+000 -2.631783e+000 -6.031308e+000 -5.349749e+000 -3.338706e+000 2.160981e+000 -3.320655e+000 -1.904752e+000 5.209793e+001 1.081023e-003 5.141066e-004 -6.704298e-004 -6.661184e-004 8.335574e-004 1.729007e-003 -2.540782e-004 -1.382426e-003 -1.393862e-005 1.147749e-003 5.293027e-004 -4.015352e-003 7.376242e-004 2.128940e-004 -1.925634e-005 -2.752999e-004 -1.028897e-004 -6.836309e-004 -9.061043e-004 7.144572e-004 1.347975e-003 3.357330e-004 -9.475636e-004 -6.883402e-004 1.368415e-003 6.063672e-005
<VARIANCE> 39
 1.839407e+002 5.055985e+001 9.479033e+001 6.215054e+001 6.160400e+001 8.905843e+001 5.856075e+001 7.613122e+001 6.463617e+001 5.057683e+001 3.952759e+001 3.561317e+001 2.650915e+002 4.270912e+000 3.287616e+000 3.317619e+000 3.467858e+000 3.476052e+000 4.153837e+000 4.417936e+000 4.427769e+000 4.042449e+000 3.326667e+000 2.585238e+000 2.651159e+000 2.908320e+000 5.656816e-001 5.424386e-001 4.873811e-001 5.895212e-001 6.002573e-001 7.033362e-001 8.159822e-001 7.757285e-001 7.229425e-001 6.221126e-001 4.967291e-001 5.084890e-001 4.450694e-001
<GCONST> 1.370175e+002
<STATE> 3
<MEAN> 39
 -7.166791e+000 1.522824e+000 -2.090666e+000 -1.432978e+000 -4.253049e+000 -2.631783e+000 -6.031308e+000 -5.349749e+000 -3.338706e+000 2.160981e+000 -3.320655e+000 -1.904752e+000 5.209793e+001 1.081023e-003 5.141066e-004 -6.704298e-004 -6.661184e-004 8.335574e-004 1.729007e-003 -2.540782e-004 -1.382426e-003 -1.393862e-005 1.147749e-003 5.293027e-004 -4.015352e-003 7.376242e-004 2.128940e-004 -1.925634e-005 -2.752999e-004 -1.028897e-004 -6.836309e-004 -9.061043e-004 7.144572e-004 1.347975e-003 3.357330e-004 -9.475636e-004 -6.883402e-004 1.368415e-003 6.063672e-005
<VARIANCE> 39
 1.839407e+002 5.055985e+001 9.479033e+001 6.215054e+001 6.160400e+001 8.905843e+001 5.856075e+001 7.613122e+001 6.463617e+001 5.057683e+001 3.952759e+001 3.561317e+001 2.650915e+002 4.270912e+000 3.287616e+000 3.317619e+000 3.467858e+000 3.476052e+000 4.153837e+000 4.417936e+000 4.427769e+000 4.042449e+000 3.326667e+000 2.585238e+000 2.651159e+000 2.908320e+000 5.656816e-001 5.424386e-001 4.873811e-001 5.895212e-001 6.002573e-001 7.033362e-001 8.159822e-001 7.757285e-001 7.229425e-001 6.221126e-001 4.967291e-001 5.084890e-001 4.450694e-001
<GCONST> 1.370175e+002
<STATE> 4
<MEAN> 39
 -7.166791e+000 1.522824e+000 -2.090666e+000 -1.432978e+000 -4.253049e+000 -2.631783e+000 -6.031308e+000 -5.349749e+000 -3.338706e+000 2.160981e+000 -3.320655e+000 -1.904752e+000 5.209793e+001 1.081023e-003 5.141066e-004 -6.704298e-004 -6.661184e-004 8.335574e-004 1.729007e-003 -2.540782e-004 -1.382426e-003 -1.393862e-005 1.147749e-003 5.293027e-004 -4.015352e-003 7.376242e-004 2.128940e-004 -1.925634e-005 -2.752999e-004 -1.028897e-004 -6.836309e-004 -9.061043e-004 7.144572e-004 1.347975e-003 3.357330e-004 -9.475636e-004 -6.883402e-004 1.368415e-003 6.063672e-005
<VARIANCE> 39
 1.839407e+002 5.055985e+001 9.479033e+001 6.215054e+001 6.160400e+001 8.905843e+001 5.856075e+001 7.613122e+001 6.463617e+001 5.057683e+001 3.952759e+001 3.561317e+001 2.650915e+002 4.270912e+000 3.287616e+000 3.317619e+000 3.467858e+000 3.476052e+000 4.153837e+000 4.417936e+000 4.427769e+000 4.042449e+000 3.326667e+000 2.585238e+000 2.651159e+000 2.908320e+000 5.656816e-001 5.424386e-001 4.873811e-001 5.895212e-001 6.002573e-001 7.033362e-001 8.159822e-001 7.757285e-001 7.229425e-001 6.221126e-001 4.967291e-001 5.084890e-001 4.450694e-001
<GCONST> 1.370175e+002
<TRANSP> 5
 0.000000e+000 1.000000e+000 0.000000e+000 0.000000e+000 0.000000e+000
 0.000000e+000 6.000000e-001 4.000000e-001 0.000000e+000 0.000000e+000
 0.000000e+000 0.000000e+000 6.000000e-001 4.000000e-001 0.000000e+000
 0.000000e+000 0.000000e+000 0.000000e+000 6.000000e-001 4.000000e-001
 0.000000e+000 0.000000e+000 0.000000e+000 0.000000e+000 0.000000e+000
<ENDHMM>
