~o
<STREAMINFO> 1 39
<VECSIZE> 39<NULLD><MFCC_D_A_0><DIAGC>
~h "proto-3s-39f"
<BEGINHMM>
<NUMSTATES> 5
<STATE> 2
<MEAN> 39
 -7.166791e+000 1.522823e+000 -2.090666e+000 -1.432975e+000 -4.253057e+000 -2.631785e+000 -6.031306e+000 -5.349751e+000 -3.338706e+000 2.160985e+000 -3.320654e+000 -1.904752e+000 5.209793e+001 1.080998e-003 5.140858e-004 -6.704481e-004 -6.660612e-004 8.336044e-004 1.728958e-003 -2.541145e-004 -1.382401e-003 -1.384548e-005 1.147851e-003 5.293285e-004 -4.015414e-003 7.376152e-004 2.128963e-004 -1.924480e-005 -2.752965e-004 -1.028867e-004 -6.836375e-004 -9.061237e-004 7.144308e-004 1.347940e-003 3.357402e-004 -9.475789e-004 -6.883494e-004 1.368433e-003 6.063305e-005
<VARIANCE> 39
 1.839409e+002 5.055984e+001 9.479030e+001 6.215053e+001 6.160393e+001 8.905843e+001 5.856077e+001 7.613120e+001 6.463618e+001 5.057680e+001 3.952767e+001 3.561319e+001 2.650916e+002 4.270912e+000 3.287617e+000 3.317620e+000 3.467857e+000 3.476051e+000 4.153837e+000 4.417941e+000 4.427766e+000 4.042449e+000 3.326664e+000 2.585237e+000 2.651160e+000 2.908320e+000 5.656813e-001 5.424383e-001 4.873810e-001 5.895213e-001 6.002568e-001 7.033357e-001 8.159821e-001 7.757282e-001 7.229421e-001 6.221125e-001 4.967287e-001 5.084891e-001 4.450695e-001
<GCONST> 1.370175e+002
<STATE> 3
<MEAN> 39
 -7.166791e+000 1.522823e+000 -2.090666e+000 -1.432975e+000 -4.253057e+000 -2.631785e+000 -6.031306e+000 -5.349751e+000 -3.338706e+000 2.160985e+000 -3.320654e+000 -1.904752e+000 5.209793e+001 1.080998e-003 5.140858e-004 -6.704481e-004 -6.660612e-004 8.336044e-004 1.728958e-003 -2.541145e-004 -1.382401e-003 -1.384548e-005 1.147851e-003 5.293285e-004 -4.015414e-003 7.376152e-004 2.128963e-004 -1.924480e-005 -2.752965e-004 -1.028867e-004 -6.836375e-004 -9.061237e-004 7.144308e-004 1.347940e-003 3.357402e-004 -9.475789e-004 -6.883494e-004 1.368433e-003 6.063305e-005
<VARIANCE> 39
 1.839409e+002 5.055984e+001 9.479030e+001 6.215053e+001 6.160393e+001 8.905843e+001 5.856077e+001 7.613120e+001 6.463618e+001 5.057680e+001 3.952767e+001 3.561319e+001 2.650916e+002 4.270912e+000 3.287617e+000 3.317620e+000 3.467857e+000 3.476051e+000 4.153837e+000 4.417941e+000 4.427766e+000 4.042449e+000 3.326664e+000 2.585237e+000 2.651160e+000 2.908320e+000 5.656813e-001 5.424383e-001 4.873810e-001 5.895213e-001 6.002568e-001 7.033357e-001 8.159821e-001 7.757282e-001 7.229421e-001 6.221125e-001 4.967287e-001 5.084891e-001 4.450695e-001
<GCONST> 1.370175e+002
<STATE> 4
<MEAN> 39
 -7.166791e+000 1.522823e+000 -2.090666e+000 -1.432975e+000 -4.253057e+000 -2.631785e+000 -6.031306e+000 -5.349751e+000 -3.338706e+000 2.160985e+000 -3.320654e+000 -1.904752e+000 5.209793e+001 1.080998e-003 5.140858e-004 -6.704481e-004 -6.660612e-004 8.336044e-004 1.728958e-003 -2.541145e-004 -1.382401e-003 -1.384548e-005 1.147851e-003 5.293285e-004 -4.015414e-003 7.376152e-004 2.128963e-004 -1.924480e-005 -2.752965e-004 -1.028867e-004 -6.836375e-004 -9.061237e-004 7.144308e-004 1.347940e-003 3.357402e-004 -9.475789e-004 -6.883494e-004 1.368433e-003 6.063305e-005
<VARIANCE> 39
 1.839409e+002 5.055984e+001 9.479030e+001 6.215053e+001 6.160393e+001 8.905843e+001 5.856077e+001 7.613120e+001 6.463618e+001 5.057680e+001 3.952767e+001 3.561319e+001 2.650916e+002 4.270912e+000 3.287617e+000 3.317620e+000 3.467857e+000 3.476051e+000 4.153837e+000 4.417941e+000 4.427766e+000 4.042449e+000 3.326664e+000 2.585237e+000 2.651160e+000 2.908320e+000 5.656813e-001 5.424383e-001 4.873810e-001 5.895213e-001 6.002568e-001 7.033357e-001 8.159821e-001 7.757282e-001 7.229421e-001 6.221125e-001 4.967287e-001 5.084891e-001 4.450695e-001
<GCONST> 1.370175e+002
<TRANSP> 5
 0.000000e+000 1.000000e+000 0.000000e+000 0.000000e+000 0.000000e+000
 0.000000e+000 6.000000e-001 4.000000e-001 0.000000e+000 0.000000e+000
 0.000000e+000 0.000000e+000 6.000000e-001 4.000000e-001 0.000000e+000
 0.000000e+000 0.000000e+000 0.000000e+000 6.000000e-001 4.000000e-001
 0.000000e+000 0.000000e+000 0.000000e+000 0.000000e+000 0.000000e+000
<ENDHMM>
