~o
<STREAMINFO> 1 39
<VECSIZE> 39<NULLD><MFCC_D_A_0><DIAGC>
~h "MJ"
<BEGINHMM>
<NUMSTATES> 3
<STATE> 2
<NUMMIXES> 4
<MIXTURE> 1 2.387902e-001
<MEAN> 39
 -1.071354e+001 -2.612538e+000 -2.958766e+000 -9.537064e+000 -5.820667e+000 -8.209012e+000 -8.243793e+000 -2.840998e+000 8.797512e-001 2.936173e+000 -1.635711e+000 -1.409106e+000 6.562232e+001 -5.731435e-001 3.044938e-001 -9.882677e-002 4.830569e-001 4.103364e-001 -1.235866e-001 7.418693e-001 -4.150722e-002 4.421407e-001 -1.447348e-001 1.509795e-001 2.740816e-001 -2.227686e-001 1.650240e-001 4.299207e-002 1.253755e-001 1.088331e-001 -1.686220e-001 6.162501e-002 -9.195103e-002 -3.415314e-002 -1.039066e-001 -3.197483e-002 7.852377e-002 -1.267803e-001 -9.399966e-002
<VARIANCE> 39
 9.681951e+001 4.329376e+001 5.558366e+001 5.153827e+001 4.343417e+001 7.206377e+001 7.153387e+001 4.097189e+001 4.043084e+001 3.309890e+001 3.392221e+001 2.232002e+001 5.056480e+001 3.830123e+000 2.413404e+000 2.549235e+000 2.703437e+000 2.792195e+000 3.213978e+000 3.733855e+000 2.850432e+000 3.123701e+000 2.243436e+000 2.276033e+000 1.932907e+000 2.874569e+000 6.375778e-001 4.641859e-001 4.077693e-001 5.275922e-001 5.218782e-001 6.095451e-001 7.427885e-001 5.682371e-001 5.640481e-001 4.448050e-001 4.491859e-001 3.633195e-001 3.938737e-001
<GCONST> 1.260707e+002
<MIXTURE> 2 2.570269e-001
<MEAN> 39
 -4.939809e+000 -2.692961e+000 1.150539e+000 -7.834349e+000 -1.099603e+001 -7.073173e+000 -1.175984e+001 -3.533115e+000 -4.324406e+000 2.849747e+000 4.937189e-001 -5.133294e+000 6.351275e+001 1.590929e-001 -6.835087e-002 5.480054e-003 -1.836645e-001 -8.848283e-003 1.875803e-001 -1.098447e-001 1.001583e-001 1.148554e-003 2.339675e-001 3.073887e-002 3.615170e-002 3.272231e-002 -1.634512e-001 -1.877987e-002 -9.968853e-002 -3.646134e-002 1.704072e-001 -1.548140e-002 1.554009e-001 4.716241e-002 1.588489e-001 -2.261260e-003 -6.966642e-002 1.358733e-001 2.461175e-002
<VARIANCE> 39
 2.500961e+001 2.635461e+001 8.541871e+001 3.903124e+001 4.697785e+001 5.234454e+001 5.830140e+001 4.002356e+001 5.462097e+001 2.987719e+001 3.470594e+001 3.148432e+001 6.928085e+001 2.093338e+000 1.880960e+000 2.907187e+000 3.204559e+000 3.206701e+000 3.247360e+000 3.764527e+000 3.269469e+000 3.429027e+000 2.257541e+000 2.435509e+000 2.210522e+000 1.996652e+000 2.437407e-001 2.876277e-001 4.094280e-001 4.872141e-001 5.241134e-001 5.021046e-001 6.197582e-001 5.565525e-001 6.029370e-001 4.127416e-001 4.281473e-001 3.962446e-001 3.580010e-001
<GCONST> 1.224905e+002
<MIXTURE> 3 2.845730e-001
<MEAN> 39
 -9.394135e+000 -3.634025e+000 -4.498838e+000 -9.382512e+000 -6.019113e+000 -6.137746e+000 -7.813379e+000 -1.663555e+000 1.173882e+000 2.583506e+000 -2.264046e+000 -1.936397e+000 6.290942e+001 -1.151825e-001 -2.518624e-002 -1.518177e-001 1.087072e-001 7.267755e-002 -6.858160e-002 1.636224e-001 -1.012636e-001 4.609311e-003 -1.888399e-001 -1.237948e-001 5.416618e-002 -1.719655e-001 1.427739e-001 4.706844e-002 1.293400e-001 4.628627e-002 -1.375391e-001 -6.382149e-002 -1.653036e-001 -1.373611e-001 -1.683369e-001 -3.248895e-002 3.711840e-002 -1.045041e-001 2.215309e-002
<VARIANCE> 39
 7.974555e+001 3.559336e+001 4.716499e+001 5.289789e+001 3.853339e+001 6.093004e+001 6.713177e+001 3.806842e+001 3.457985e+001 3.083662e+001 3.610673e+001 2.123067e+001 8.507844e+001 2.303380e+000 1.601490e+000 1.810048e+000 1.969982e+000 2.089157e+000 2.491140e+000 2.508088e+000 2.435338e+000 2.412263e+000 1.862772e+000 1.971758e+000 1.606177e+000 2.201292e+000 4.097494e-001 3.266754e-001 2.835574e-001 4.266560e-001 4.151305e-001 4.610309e-001 5.753700e-001 4.796978e-001 4.559317e-001 3.855086e-001 3.991379e-001 3.294766e-001 3.704136e-001
<GCONST> 1.187709e+002
<MIXTURE> 4 2.196034e-001
<MEAN> 39
 -5.868228e+000 -2.509804e+000 2.380425e+000 -7.568721e+000 -1.161420e+001 -8.397597e+000 -1.221029e+001 -4.578732e+000 -4.329856e+000 2.014397e+000 4.956528e-002 -5.367805e+000 6.477599e+001 5.903344e-001 -2.188816e-001 2.990530e-001 -4.496658e-001 -5.309246e-001 8.523135e-003 -8.864608e-001 5.853536e-002 -4.971077e-001 1.251004e-001 -4.916106e-002 -4.080165e-001 4.255183e-001 -1.734256e-001 -8.524055e-002 -1.874650e-001 -1.363367e-001 1.611005e-001 3.397476e-002 1.327191e-001 1.599729e-001 1.447550e-001 7.886162e-002 -5.189410e-002 1.153459e-001 4.479017e-002
<VARIANCE> 39
 2.937274e+001 2.777543e+001 8.979461e+001 3.804203e+001 5.262748e+001 5.179287e+001 6.401844e+001 4.328328e+001 6.051751e+001 3.127075e+001 3.827782e+001 3.487335e+001 5.953929e+001 3.491092e+000 2.300912e+000 3.790257e+000 3.409610e+000 4.080337e+000 3.695496e+000 5.468368e+000 3.899248e+000 4.364914e+000 2.637078e+000 3.114085e+000 2.889410e+000 2.250615e+000 3.313798e-001 3.370077e-001 4.750167e-001 5.335395e-001 6.027076e-001 5.589144e-001 8.035838e-001 6.630304e-001 7.040942e-001 4.770803e-001 5.110441e-001 4.662274e-001 4.001248e-001
<GCONST> 1.283273e+002
<TRANSP> 3
 0.000000e+000 1.000000e+000 0.000000e+000
 0.000000e+000 9.984397e-001 1.560251e-003
 0.000000e+000 0.000000e+000 0.000000e+000
<ENDHMM>
~h "PB"
<BEGINHMM>
<NUMSTATES> 3
<STATE> 2
<NUMMIXES> 4
<MIXTURE> 1 2.467626e-001
<MEAN> 39
 -1.045211e+001 2.867404e+000 -1.722544e+000 9.192973e-001 -5.350424e-001 2.069109e+000 1.430264e+000 2.622226e+000 2.541019e+000 1.940152e+000 1.690240e+000 5.584648e-001 5.059384e+001 -3.020749e-002 -1.084968e-002 1.081379e-002 6.657880e-002 9.202772e-002 9.451966e-002 1.316680e-001 1.388608e-001 1.372487e-001 1.223731e-001 1.023264e-001 7.915059e-002 -5.987370e-002 1.250925e-002 1.549402e-003 2.570617e-002 7.031479e-003 1.060973e-002 2.217193e-002 1.720140e-003 1.531560e-002 1.096766e-002 1.170924e-002 8.033539e-003 3.578329e-003 4.082065e-002
<VARIANCE> 39
 6.541493e+000 4.781788e+000 5.716570e+000 7.054825e+000 9.097983e+000 1.247021e+001 1.249904e+001 1.293559e+001 1.184016e+001 1.163145e+001 1.212722e+001 1.080563e+001 6.757987e+000 3.266999e-001 3.397020e-001 4.741757e-001 6.669497e-001 8.385283e-001 1.086890e+000 1.177008e+000 1.267526e+000 1.248869e+000 1.233847e+000 1.250829e+000 1.130689e+000 2.078325e-001 6.758686e-002 6.367913e-002 9.724797e-002 1.308571e-001 1.691263e-001 2.139398e-001 2.381282e-001 2.582286e-001 2.600406e-001 2.590038e-001 2.535437e-001 2.296522e-001 5.105678e-002
<GCONST> 7.207491e+001
<MIXTURE> 2 3.409911e-001
<MEAN> 39
 -3.787680e+000 1.709580e+000 5.389487e+000 -4.788405e+000 -1.097720e+001 -1.505212e+000 -9.886738e+000 1.146447e+000 1.739172e-001 2.593477e-001 1.503385e+000 -5.648307e+000 6.821434e+001 -2.660214e-001 4.949025e-001 -2.059863e-001 4.894210e-001 5.083145e-001 -9.174186e-002 5.270401e-001 -6.916113e-002 1.683377e-001 2.054012e-001 -5.655278e-002 3.579729e-001 -4.668204e-001 -3.789559e-002 1.265821e-001 -6.037142e-002 1.396145e-001 1.537896e-001 1.261275e-002 1.552604e-001 -7.766199e-002 1.275218e-002 -1.523675e-002 -6.084118e-002 6.765094e-002 -2.012908e-001
<VARIANCE> 39
 6.849136e+001 6.669215e+001 7.925870e+001 5.421916e+001 7.859046e+001 6.022687e+001 6.084054e+001 4.791674e+001 4.589885e+001 3.591443e+001 3.286645e+001 4.260003e+001 3.208319e+001 3.002832e+000 3.760337e+000 3.178345e+000 3.785405e+000 4.293145e+000 3.452883e+000 4.113275e+000 3.614217e+000 3.031895e+000 2.595202e+000 2.566231e+000 2.671571e+000 2.953784e+000 6.222501e-001 6.539497e-001 6.100079e-001 7.045991e-001 8.826441e-001 6.549153e-001 8.491544e-001 7.070016e-001 6.205957e-001 5.293766e-001 5.175229e-001 5.720243e-001 4.895664e-001
<GCONST> 1.325615e+002
<MIXTURE> 3 1.394761e-001
<MEAN> 39
 -7.046982e+000 4.059663e+000 3.768098e-001 -3.117214e-001 -3.026409e+000 8.974357e-001 -2.250756e+000 1.089145e+000 1.752563e+000 7.675099e-001 9.672387e-001 -2.290780e+000 5.745155e+001 -2.290172e-001 -4.991471e-002 -2.729082e-001 3.439736e-003 3.145251e-002 -8.231039e-002 1.956995e-002 -2.460940e-001 -2.422639e-001 -2.514832e-001 -2.113169e-001 1.108032e-002 -3.615600e-001 3.590147e-002 -1.132638e-001 3.606858e-002 -1.681213e-001 -1.553764e-001 -8.119802e-002 -1.816414e-001 3.102017e-002 -4.926470e-002 -5.144914e-003 -5.267375e-003 -3.283341e-002 2.660622e-001
<VARIANCE> 39
 5.824718e+001 3.473892e+001 2.784534e+001 2.710903e+001 3.248562e+001 2.765216e+001 3.628305e+001 2.927394e+001 2.323314e+001 2.168390e+001 2.093811e+001 3.211979e+001 5.978749e+001 1.072001e+000 9.177864e-001 9.891371e-001 1.159770e+000 1.235395e+000 1.495993e+000 1.504868e+000 1.474864e+000 1.441622e+000 1.421964e+000 1.310011e+000 1.279918e+000 1.166322e+000 2.018734e-001 1.889038e-001 1.814674e-001 2.386233e-001 2.575244e-001 2.793468e-001 3.174375e-001 3.080482e-001 2.992256e-001 2.925226e-001 2.791261e-001 2.637195e-001 2.556168e-001
<GCONST> 1.016579e+002
<MIXTURE> 4 2.727611e-001
<MEAN> 39
 -4.114504e+000 2.787065e+000 4.760187e+000 -3.671723e+000 -9.643042e+000 -9.843083e-001 -8.719007e+000 6.858240e-004 4.554795e-002 -2.395223e-001 7.830543e-001 -5.244980e+000 6.664628e+001 4.761339e-001 -5.830275e-001 3.880105e-001 -6.738490e-001 -7.348440e-001 6.960233e-002 -7.895820e-001 8.585766e-002 -2.102718e-001 -2.388868e-001 8.815165e-002 -5.211210e-001 8.230336e-001 1.846233e-002 -1.018548e-001 3.371578e-002 -9.517358e-002 -1.208819e-001 6.445388e-003 -1.025423e-001 6.728146e-002 -1.070955e-003 1.047119e-002 7.208627e-002 -6.891159e-002 7.837819e-002
<VARIANCE> 39
 5.985944e+001 6.128557e+001 7.161606e+001 5.308528e+001 6.868021e+001 5.152682e+001 5.647789e+001 4.484810e+001 4.099208e+001 3.478599e+001 3.086070e+001 4.024421e+001 3.836000e+001 5.361012e+000 3.953217e+000 4.712707e+000 4.201905e+000 6.187960e+000 3.936146e+000 5.142703e+000 4.414746e+000 3.550596e+000 2.988272e+000 2.994364e+000 3.750305e+000 3.549759e+000 6.074111e-001 6.156497e-001 5.980750e-001 7.207793e-001 9.331617e-001 6.315323e-001 8.620863e-001 7.464874e-001 5.989367e-001 5.396879e-001 5.361569e-001 6.046604e-001 5.491161e-001
<GCONST> 1.349229e+002
<TRANSP> 3
 0.000000e+000 1.000000e+000 0.000000e+000
 0.000000e+000 9.985553e-001 1.444716e-003
 0.000000e+000 0.000000e+000 0.000000e+000
<ENDHMM>
~h "TOMAS"
<BEGINHMM>
<NUMSTATES> 3
<STATE> 2
<NUMMIXES> 4
<MIXTURE> 1 2.370156e-001
<MEAN> 39
 -9.130727e+000 3.039374e+000 2.404712e+000 1.352164e+000 3.285105e+000 -1.092614e+000 3.755794e+000 3.725195e+000 3.539898e+000 2.640855e+000 3.406838e+000 3.160982e+000 5.340544e+001 -6.815504e-002 -1.454499e-002 1.547810e-002 1.707622e-001 1.466263e-001 2.005350e-001 2.427039e-001 1.124362e-001 2.238490e-001 1.530635e-001 1.513426e-001 6.345905e-002 -2.487321e-001 -1.381856e-002 -5.949467e-003 9.635434e-003 -1.124157e-002 -2.922110e-002 4.697789e-003 -7.449065e-004 7.384240e-003 -2.973493e-003 1.959659e-002 1.874222e-003 -4.521918e-003 5.865328e-002
<VARIANCE> 39
 2.464283e+001 1.493257e+001 1.329615e+001 1.594717e+001 1.280875e+001 2.667750e+001 2.320546e+001 2.484116e+001 2.366259e+001 1.949424e+001 1.630070e+001 1.395527e+001 2.354609e+001 3.177224e-001 4.321826e-001 5.239299e-001 8.209494e-001 9.622802e-001 1.237175e+000 1.222662e+000 1.320030e+000 1.370881e+000 1.370037e+000 1.244724e+000 1.151651e+000 2.994803e-001 5.793912e-002 7.710899e-002 1.043174e-001 1.545904e-001 1.848963e-001 2.412384e-001 2.432607e-001 2.649679e-001 2.757571e-001 2.740052e-001 2.483862e-001 2.313791e-001 5.236199e-002
<GCONST> 8.368266e+001
<MIXTURE> 2 3.001654e-001
<MEAN> 39
 -4.002510e+000 4.264589e+000 7.096977e+000 -2.839861e+000 -3.730396e+000 -3.824341e+000 -4.317359e+000 -2.606575e+000 -1.340941e+000 7.506364e-001 1.857200e+000 1.854566e+000 6.671606e+001 -1.373768e-001 3.212067e-001 -1.420351e-001 1.894479e-001 4.184886e-001 -1.597307e-001 2.244839e-001 -1.721216e-002 2.164215e-001 1.169110e-001 8.514934e-002 1.001120e-001 -2.085094e-001 -1.079145e-002 5.743197e-002 -2.547395e-002 1.242626e-001 1.060613e-001 -1.736571e-002 8.419110e-002 1.070580e-002 7.887912e-002 -5.683086e-004 3.123609e-002 -1.928123e-003 -1.520815e-001
<VARIANCE> 39
 6.743790e+001 4.336287e+001 7.319878e+001 7.162386e+001 7.170998e+001 6.678030e+001 5.218877e+001 4.828240e+001 5.673439e+001 4.381073e+001 3.710783e+001 2.565017e+001 2.715511e+001 3.343037e+000 2.622704e+000 2.872464e+000 3.870447e+000 4.563135e+000 4.353424e+000 3.596037e+000 3.352024e+000 3.781956e+000 2.555643e+000 2.650984e+000 2.086390e+000 2.472028e+000 5.039809e-001 4.424414e-001 5.141732e-001 6.352741e-001 8.436682e-001 8.199826e-001 6.971046e-001 6.435543e-001 7.023296e-001 5.244849e-001 4.902366e-001 4.209548e-001 3.454157e-001
<GCONST> 1.300194e+002
<MIXTURE> 3 2.169283e-001
<MEAN> 39
 -4.907834e+000 4.866638e+000 3.722777e+000 -1.876136e+000 1.422282e+000 -2.325824e+000 -3.365050e-001 -1.524153e-001 1.098995e+000 1.941213e+000 1.497847e+000 2.262336e+000 6.086387e+001 -1.711451e-001 9.762988e-002 -1.798400e-001 8.788499e-002 1.209538e-001 -1.340559e-001 8.102098e-002 -1.289488e-001 -9.642099e-002 -1.375178e-001 -8.693902e-002 -1.632029e-002 -3.881084e-001 -1.781682e-002 -8.457181e-002 5.384539e-002 -6.690066e-002 -1.484260e-001 -5.981319e-002 -9.489655e-002 -3.147042e-002 -8.288039e-002 -6.033447e-002 -2.791735e-002 2.622740e-003 1.575600e-001
<VARIANCE> 39
 6.724451e+001 3.466976e+001 3.259119e+001 6.525012e+001 3.641758e+001 5.193972e+001 4.401743e+001 3.832658e+001 3.542393e+001 2.883169e+001 3.158324e+001 2.135247e+001 5.628827e+001 5.995849e-001 8.976256e-001 8.470261e-001 1.282508e+000 1.437949e+000 1.649969e+000 1.494374e+000 1.656914e+000 1.620980e+000 1.486203e+000 1.472421e+000 1.332659e+000 6.435133e-001 1.348966e-001 1.566661e-001 1.640589e-001 2.612574e-001 2.699721e-001 3.517553e-001 3.002697e-001 3.232832e-001 3.446803e-001 3.020169e-001 2.993622e-001 2.557537e-001 1.697942e-001
<GCONST> 1.035907e+002
<MIXTURE> 4 2.458815e-001
<MEAN> 39
 -5.147408e+000 3.988586e+000 7.433489e+000 -9.648339e-001 -3.729200e+000 -4.959280e+000 -3.879400e+000 -2.245022e+000 -5.692945e-001 9.872653e-002 2.246274e+000 1.603717e+000 6.558703e+001 3.744650e-001 -4.419555e-001 3.152826e-001 -4.759846e-001 -7.546546e-001 1.210138e-001 -5.745482e-001 2.118301e-002 -4.071721e-001 -1.378030e-001 -1.652496e-001 -1.895991e-001 8.378680e-001 3.883237e-002 1.275728e-002 -2.841140e-002 -7.861795e-002 2.222206e-002 7.400251e-002 -2.392271e-002 8.542474e-003 -2.240422e-002 3.616638e-002 -1.595443e-002 2.011361e-003 -7.143193e-003
<VARIANCE> 39
 6.178715e+001 4.036834e+001 7.000233e+001 5.143496e+001 7.221031e+001 5.291732e+001 5.750597e+001 4.426416e+001 5.472691e+001 3.687996e+001 3.100041e+001 2.248954e+001 4.141497e+001 4.897235e+000 2.848047e+000 4.291313e+000 3.907891e+000 5.452566e+000 4.744922e+000 4.951481e+000 3.821249e+000 4.225702e+000 3.097149e+000 2.644532e+000 2.228492e+000 3.139806e+000 6.045916e-001 4.570141e-001 5.675827e-001 5.769193e-001 9.426056e-001 7.465019e-001 8.679135e-001 6.398736e-001 6.981685e-001 5.133981e-001 4.735312e-001 4.095954e-001 5.186024e-001
<GCONST> 1.321318e+002
<TRANSP> 3
 0.000000e+000 1.000000e+000 0.000000e+000
 0.000000e+000 9.973280e-001 2.671971e-003
 0.000000e+000 0.000000e+000 0.000000e+000
<ENDHMM>
~h "CERNY"
<BEGINHMM>
<NUMSTATES> 3
<STATE> 2
<NUMMIXES> 4
<MIXTURE> 1 2.758370e-001
<MEAN> 39
 -1.191725e+001 -1.049062e+000 -2.316642e+000 -9.592295e-001 -9.011697e-001 -4.477558e-001 -2.500550e-001 -4.586847e-002 3.219305e-001 3.069095e-001 7.561766e-001 4.252618e-001 5.974136e+001 -1.787495e-002 -4.614206e-003 1.035920e-002 5.035645e-002 8.056788e-002 1.079033e-001 1.189955e-001 1.286293e-001 1.428196e-001 1.540811e-001 1.357768e-001 8.140667e-002 -2.523529e-002 3.810769e-003 1.043470e-002 1.969931e-002 1.037196e-002 8.000582e-003 2.423329e-003 -5.728706e-003 3.422693e-003 3.619362e-003 -1.617156e-003 -1.055527e-002 -8.521332e-003 1.481249e-002
<VARIANCE> 39
 2.001606e+000 2.538297e+000 3.492578e+000 4.465129e+000 5.955939e+000 7.738198e+000 9.107743e+000 9.795251e+000 1.005885e+001 9.907864e+000 9.722659e+000 8.912067e+000 1.476234e+000 1.116688e-001 2.047067e-001 3.533763e-001 5.019092e-001 6.685410e-001 8.447257e-001 9.784024e-001 1.070678e+000 1.097914e+000 1.079495e+000 1.058703e+000 9.864190e-001 4.787028e-002 2.266412e-002 4.187256e-002 6.984217e-002 1.012425e-001 1.366381e-001 1.735061e-001 2.017327e-001 2.212028e-001 2.296778e-001 2.278738e-001 2.231241e-001 2.009231e-001 1.160068e-002
<GCONST> 5.569054e+001
<MIXTURE> 2 2.932967e-001
<MEAN> 39
 -8.680112e+000 -2.376370e+000 -9.961549e-001 -7.945313e+000 -7.475689e+000 -4.835105e+000 -1.011981e+001 1.395127e-001 2.007509e+000 2.829332e+000 -8.132781e-001 -3.349037e+000 6.793334e+001 -1.871355e-001 3.200283e-001 -7.599293e-002 2.287322e-001 3.123478e-001 2.398205e-001 4.463570e-001 -1.449212e-001 -1.916198e-001 -5.502886e-002 2.005247e-001 1.638375e-001 -2.470551e-001 -6.177309e-002 1.036579e-001 -3.593219e-003 1.675807e-001 1.151386e-001 4.841766e-002 1.859393e-001 -6.736074e-002 -9.849050e-002 -1.004268e-001 4.184405e-002 8.644228e-002 -1.355209e-001
<VARIANCE> 39
 3.025163e+001 3.694671e+001 4.583965e+001 6.346790e+001 4.070892e+001 4.217346e+001 4.927941e+001 4.348892e+001 3.674924e+001 3.441337e+001 2.164106e+001 3.368540e+001 1.094154e+001 1.185429e+000 1.820912e+000 1.637679e+000 2.963254e+000 2.480645e+000 2.279262e+000 3.279990e+000 2.819148e+000 2.345982e+000 2.241246e+000 1.642158e+000 1.708943e+000 9.419171e-001 2.281580e-001 3.375407e-001 2.889872e-001 5.061440e-001 5.014014e-001 4.641843e-001 7.101541e-001 5.754654e-001 4.837199e-001 4.618436e-001 3.405554e-001 3.443193e-001 1.686825e-001
<GCONST> 1.145938e+002
<MIXTURE> 3 1.791642e-001
<MEAN> 39
 -1.104672e+001 -7.145046e-002 -1.493633e+000 -1.254736e+000 -1.864048e+000 -1.352794e+000 -1.835907e+000 -1.068486e+000 -5.436404e-001 -2.020081e-001 2.373990e-001 -1.294534e-001 6.097374e+001 -8.307713e-002 1.301808e-002 -9.432562e-002 6.675853e-002 5.905968e-002 -4.858032e-002 3.756745e-003 -1.448704e-001 -2.449014e-001 -2.756326e-001 -2.388678e-001 -6.055347e-002 -1.124352e-001 1.994957e-002 -6.785820e-002 -1.924843e-002 -1.355774e-001 -1.585089e-001 -1.253720e-001 -2.008254e-001 2.803377e-002 1.000635e-001 8.549245e-002 -6.557935e-003 -1.997500e-002 1.239402e-001
<VARIANCE> 39
 8.166042e+000 5.674580e+000 9.157286e+000 9.868230e+000 1.247615e+001 1.333872e+001 1.750972e+001 1.489120e+001 1.338667e+001 1.270564e+001 1.144715e+001 1.143497e+001 4.036974e+000 2.683539e-001 3.199055e-001 5.587210e-001 7.607270e-001 9.661444e-001 1.114615e+000 1.303564e+000 1.260863e+000 1.299669e+000 1.263927e+000 1.163481e+000 1.076095e+000 1.559145e-001 4.891651e-002 6.903727e-002 1.112470e-001 1.640043e-001 2.013486e-001 2.351553e-001 2.985338e-001 2.684349e-001 2.906052e-001 2.796146e-001 2.483656e-001 2.206741e-001 4.741972e-002
<GCONST> 7.449250e+001
<MIXTURE> 4 2.516975e-001
<MEAN> 39
 -9.733828e+000 -1.176694e+000 1.631250e-001 -5.101471e+000 -7.315551e+000 -5.299901e+000 -9.069249e+000 -9.140008e-001 1.000117e+000 1.303137e+000 -2.826960e-001 -1.765524e+000 6.665081e+001 2.955236e-001 -3.735647e-001 1.444225e-001 -3.675791e-001 -4.933984e-001 -3.634643e-001 -6.558820e-001 1.326373e-001 2.342124e-001 9.466116e-002 -2.173726e-001 -2.344419e-001 3.941419e-001 5.373006e-002 -8.469498e-002 -2.874126e-003 -1.108453e-001 -3.074354e-002 2.994652e-002 -6.782366e-002 5.413228e-002 3.974303e-002 5.654263e-002 -3.162131e-002 -7.746500e-002 5.329784e-002
<VARIANCE> 39
 2.814967e+001 2.936827e+001 4.819398e+001 4.674654e+001 4.270961e+001 3.504086e+001 4.750167e+001 3.732174e+001 3.351540e+001 3.150338e+001 1.884727e+001 2.683680e+001 1.106700e+001 2.066184e+000 2.169647e+000 2.549686e+000 3.365146e+000 3.857775e+000 2.974214e+000 4.963639e+000 3.449930e+000 3.064570e+000 2.839290e+000 1.759976e+000 2.136578e+000 1.231214e+000 2.406484e-001 2.993456e-001 3.438209e-001 4.643192e-001 6.078905e-001 4.939590e-001 7.699448e-001 5.915030e-001 4.973546e-001 4.531252e-001 3.323083e-001 3.385785e-001 1.802686e-001
<GCONST> 1.172814e+002
<TRANSP> 3
 0.000000e+000 1.000000e+000 0.000000e+000
 0.000000e+000 9.986002e-001 1.399776e-003
 0.000000e+000 0.000000e+000 0.000000e+000
<ENDHMM>
~h "ZSS2"
<BEGINHMM>
<NUMSTATES> 3
<STATE> 2
<NUMMIXES> 4
<MIXTURE> 1 2.286080e-001
<MEAN> 39
 -9.342737e+000 2.265582e+000 2.908390e+000 4.020820e+000 7.306899e+000 4.040680e+000 7.014221e+000 4.387698e+000 5.902975e+000 3.715053e+000 5.845998e+000 4.103143e+000 5.349766e+001 2.259702e-002 2.601404e-002 3.896225e-002 1.268446e-001 1.518461e-001 1.137099e-001 6.356110e-002 5.584041e-002 1.336420e-001 7.455409e-002 1.258283e-001 5.622411e-002 -2.825043e-001 7.798054e-004 -1.565469e-002 -3.686896e-003 -5.261156e-002 -5.141281e-002 -2.401083e-002 -2.401785e-002 -2.046512e-002 -4.441312e-002 -3.829422e-003 -4.324490e-002 -1.242160e-002 8.319191e-002
<VARIANCE> 39
 1.901390e+001 1.102512e+001 8.404464e+000 1.059839e+001 1.502043e+001 1.201044e+001 1.242702e+001 1.243616e+001 1.504722e+001 1.293419e+001 1.293151e+001 1.095844e+001 2.168389e+001 8.366513e-001 5.352350e-001 5.901679e-001 9.394419e-001 1.244841e+000 1.151282e+000 1.190062e+000 1.245673e+000 1.461410e+000 1.354638e+000 1.269714e+000 1.074503e+000 1.024548e+000 1.260912e-001 9.900406e-002 1.095047e-001 1.724255e-001 2.193038e-001 2.108794e-001 2.217701e-001 2.383944e-001 2.698964e-001 2.569935e-001 2.347635e-001 2.128841e-001 1.644274e-001
<GCONST> 8.359081e+001
<MIXTURE> 2 3.427448e-001
<MEAN> 39
 -1.625605e+000 2.313939e+000 1.227882e+000 -7.725061e+000 -6.742413e+000 -4.186902e+000 -5.440961e+000 -3.086407e+000 -6.340598e+000 1.683980e+000 -9.161534e+000 6.967556e-001 6.929285e+001 -6.077583e-001 6.013077e-001 3.241272e-001 8.883647e-001 7.714571e-001 1.482677e-002 5.467156e-001 5.048672e-002 6.106181e-001 -8.400311e-002 7.945155e-001 -1.882295e-001 -7.035166e-001 -3.304435e-001 5.245500e-002 4.125503e-002 3.157576e-001 3.524735e-001 1.324036e-001 2.842953e-001 1.252734e-001 3.040855e-001 -7.419418e-003 3.712629e-001 -6.012845e-002 -2.430547e-001
<VARIANCE> 39
 3.518837e+001 5.452566e+001 6.552935e+001 5.354938e+001 6.921584e+001 5.124266e+001 4.900721e+001 4.374453e+001 4.334717e+001 4.386080e+001 4.448729e+001 2.903280e+001 2.472641e+001 3.291102e+000 2.935055e+000 2.741690e+000 4.043135e+000 4.490987e+000 3.746405e+000 3.597665e+000 3.011101e+000 3.753320e+000 3.216366e+000 4.008662e+000 2.358585e+000 2.563484e+000 4.782263e-001 5.937903e-001 5.046013e-001 7.378895e-001 8.384579e-001 7.763018e-001 6.520849e-001 6.101015e-001 6.877916e-001 6.754549e-001 7.445425e-001 4.765419e-001 4.496002e-001
<GCONST> 1.305232e+002
<MIXTURE> 3 2.350174e-001
<MEAN> 39
 -4.019423e+000 1.371517e+000 6.867973e-001 -6.410921e+000 -4.736107e+000 -4.344828e+000 -3.593257e+000 -2.531596e+000 -4.203383e+000 1.387187e+000 -6.628247e+000 -2.016848e-001 6.918810e+001 1.360947e+000 -4.110721e-001 -3.309706e-001 -1.324195e+000 -1.380470e+000 -3.367136e-001 -1.172811e+000 -4.100172e-001 -1.269331e+000 -1.315255e-001 -1.582731e+000 4.265590e-002 1.037078e+000 8.995287e-002 7.818582e-002 7.306844e-003 2.134354e-002 7.101173e-003 1.450978e-001 -1.776001e-002 8.754278e-002 -3.390678e-002 8.238877e-002 -6.636672e-002 1.197915e-001 -1.670447e-001
<VARIANCE> 39
 5.477096e+001 5.014325e+001 5.878299e+001 5.336110e+001 6.934974e+001 5.307196e+001 5.353345e+001 4.208699e+001 5.271205e+001 4.319165e+001 5.552042e+001 2.906827e+001 2.653072e+001 4.768916e+000 3.555556e+000 4.018594e+000 4.707658e+000 6.168232e+000 5.788269e+000 4.762699e+000 4.324387e+000 4.446641e+000 4.347882e+000 4.916966e+000 2.736175e+000 3.756323e+000 7.398634e-001 6.309288e-001 6.022565e-001 7.721545e-001 1.024292e+000 8.503011e-001 7.728128e-001 6.698611e-001 7.330027e-001 7.586903e-001 8.410656e-001 4.657023e-001 5.391557e-001
<GCONST> 1.367620e+002
<MIXTURE> 4 1.936177e-001
<MEAN> 39
 -1.334180e+001 4.635902e+000 1.946932e+000 2.497557e+000 3.646264e+000 1.412104e+000 4.530867e+000 2.220505e+000 4.111635e+000 3.095537e+000 3.150764e+000 1.691298e+000 6.117788e+001 -5.908292e-001 -5.992064e-001 -2.174019e-001 -1.016744e-001 1.390003e-001 2.604525e-001 3.787341e-001 3.302051e-001 3.106249e-001 2.176425e-001 3.705886e-001 2.173199e-001 3.025287e-001 4.756730e-001 -1.684456e-001 -7.763898e-002 -5.251842e-001 -5.730492e-001 -3.817656e-001 -4.532276e-001 -3.063071e-001 -4.469008e-001 -8.154172e-002 -5.242587e-001 -2.498848e-002 5.348986e-001
<VARIANCE> 39
 8.319289e+001 2.485460e+001 3.408247e+001 2.932813e+001 3.717202e+001 3.004237e+001 2.890959e+001 2.666871e+001 2.793626e+001 2.327923e+001 2.419267e+001 1.928804e+001 5.728507e+001 3.935633e+000 2.516752e+000 2.355191e+000 3.488890e+000 4.483451e+000 3.498591e+000 3.024874e+000 2.675448e+000 3.057178e+000 2.580824e+000 2.934196e+000 1.865422e+000 5.534919e+000 7.667006e-001 4.674968e-001 4.566815e-001 6.096172e-001 7.428700e-001 6.050666e-001 5.214381e-001 4.657812e-001 5.882111e-001 5.070418e-001 5.579321e-001 3.920370e-001 1.035853e+000
<GCONST> 1.240612e+002
<TRANSP> 3
 0.000000e+000 1.000000e+000 0.000000e+000
 0.000000e+000 9.982025e-001 1.797483e-003
 0.000000e+000 0.000000e+000 0.000000e+000
<ENDHMM>
~h "SMOLA"
<BEGINHMM>
<NUMSTATES> 3
<STATE> 2
<NUMMIXES> 4
<MIXTURE> 1 1.953608e-001
<MEAN> 39
 -1.231374e+001 6.413426e+000 2.876354e-001 6.642150e+000 3.478972e+000 5.942764e+000 3.365777e+000 6.684857e+000 3.979824e+000 1.876552e+000 4.634802e+000 3.318851e+000 4.167310e+001 -1.193196e-001 1.135943e-001 1.051111e-001 4.369997e-002 5.951411e-002 1.923727e-001 7.257699e-002 8.436244e-002 5.920792e-002 1.184806e-001 1.116831e-001 7.096185e-002 -2.732568e-001 2.551435e-002 -3.741429e-002 1.186294e-002 -4.213526e-002 7.955686e-003 -4.181302e-002 -1.906252e-002 -3.081447e-002 -4.946905e-002 -8.004586e-003 -4.324147e-002 -4.288006e-002 8.153656e-002
<VARIANCE> 39
 1.658528e+001 1.140344e+001 1.184364e+001 1.428141e+001 1.261454e+001 3.028233e+001 1.845996e+001 2.323922e+001 2.639991e+001 2.137393e+001 1.732837e+001 1.217703e+001 4.738929e+001 6.176355e-001 8.632362e-001 8.110050e-001 1.055165e+000 1.135818e+000 1.375884e+000 1.496471e+000 1.375211e+000 1.494744e+000 1.357723e+000 1.273146e+000 1.110059e+000 9.808068e-001 1.084330e-001 1.581556e-001 1.490341e-001 1.979756e-001 2.073348e-001 2.626958e-001 2.915924e-001 2.787791e-001 2.961073e-001 2.755826e-001 2.591399e-001 2.199254e-001 1.948883e-001
<GCONST> 9.100584e+001
<MIXTURE> 2 2.994798e-001
<MEAN> 39
 -1.472982e+000 -4.813613e+000 1.764137e+000 -6.321799e+000 -5.423823e+000 -5.716945e+000 -1.105378e+001 3.504691e+000 -9.590481e+000 -5.145384e-001 3.904831e+000 -6.976881e+000 6.633405e+001 -3.085921e-001 7.741753e-001 -2.242251e-001 6.884871e-001 6.362299e-001 6.421334e-002 6.969553e-001 -3.989536e-001 3.308483e-001 1.787212e-002 -5.276069e-002 3.303280e-001 -8.303057e-001 -3.056312e-001 3.077395e-001 -7.156513e-002 2.291883e-001 8.030650e-002 1.811907e-001 2.684496e-001 -1.580247e-001 3.556342e-001 -4.243785e-002 5.210247e-003 1.966616e-001 -2.905524e-001
<VARIANCE> 39
 2.500036e+001 5.443582e+001 5.691159e+001 6.627512e+001 5.336811e+001 5.841156e+001 5.298338e+001 4.639256e+001 5.354039e+001 3.798632e+001 3.225505e+001 2.410517e+001 4.718570e+001 2.594158e+000 4.612132e+000 2.687584e+000 4.942826e+000 3.474126e+000 3.666131e+000 4.580009e+000 3.540790e+000 5.320294e+000 2.605913e+000 2.364972e+000 2.166971e+000 5.052211e+000 3.779171e-001 6.135563e-001 4.808711e-001 8.283411e-001 6.548002e-001 7.354850e-001 8.716227e-001 6.988901e-001 1.034154e+000 4.980966e-001 4.618531e-001 4.175165e-001 7.017511e-001
<GCONST> 1.311185e+002
<MIXTURE> 3 2.647550e-001
<MEAN> 39
 -2.712903e+000 -3.596988e+000 2.702662e+000 -5.211524e+000 -7.068024e+000 -4.584888e+000 -1.053607e+001 1.711969e+000 -8.462697e+000 -2.225205e+000 3.823625e+000 -6.436330e+000 6.631422e+001 8.234831e-001 -8.779309e-001 4.171824e-001 -7.723181e-001 -7.145633e-001 -2.913414e-001 -1.115961e+000 5.860017e-001 -8.617845e-001 -3.848177e-002 1.789269e-001 -6.482823e-001 8.715727e-001 -1.342298e-001 9.017164e-002 -6.187207e-002 7.413963e-002 1.184089e-001 4.428522e-002 7.082227e-002 1.026623e-001 9.835035e-002 1.106952e-001 3.875667e-002 7.449545e-002 -2.448680e-001
<VARIANCE> 39
 3.130624e+001 5.592735e+001 7.122257e+001 6.021418e+001 5.714804e+001 5.009136e+001 5.314902e+001 4.904573e+001 5.433084e+001 4.044600e+001 3.032469e+001 2.465103e+001 4.150093e+001 3.350924e+000 3.730847e+000 3.741438e+000 4.804474e+000 4.028586e+000 4.530889e+000 5.588530e+000 4.142437e+000 6.026967e+000 3.011738e+000 2.480679e+000 2.390007e+000 4.518176e+000 3.857803e-001 5.550985e-001 5.705518e-001 7.809349e-001 7.019497e-001 7.265312e-001 9.645084e-001 7.553825e-001 9.677898e-001 5.081089e-001 4.860379e-001 3.985596e-001 6.914809e-001
<GCONST> 1.329600e+002
<MIXTURE> 4 2.403964e-001
<MEAN> 39
 -1.314430e+001 5.635089e+000 -4.346447e-002 1.440860e+000 -5.023372e-001 -2.435164e+000 -1.940684e+000 4.095021e-001 -6.946025e-001 6.843349e-001 3.121214e+000 -7.448305e-001 5.663755e+001 -4.254689e-001 -8.518965e-002 -2.193627e-001 -8.909720e-002 -1.907201e-002 1.039125e-001 3.362242e-001 -2.864960e-001 3.940498e-001 -1.050661e-001 -2.430696e-001 2.183739e-001 3.490690e-001 5.042705e-001 -4.543657e-001 1.491878e-001 -3.371467e-001 -2.294482e-001 -2.369014e-001 -3.985561e-001 1.078898e-001 -5.104644e-001 -5.940339e-002 -1.983991e-002 -2.961027e-001 5.671139e-001
<VARIANCE> 39
 6.710764e+001 2.393839e+001 3.524911e+001 2.584734e+001 3.145743e+001 4.213858e+001 4.226321e+001 3.079347e+001 3.743504e+001 2.522170e+001 2.387955e+001 2.129884e+001 8.077604e+001 5.263378e+000 2.864163e+000 2.539681e+000 2.499354e+000 2.429211e+000 4.076849e+000 3.394100e+000 2.533988e+000 4.784203e+000 2.443029e+000 2.463784e+000 2.656672e+000 7.727486e+000 6.498581e-001 5.785976e-001 4.430909e-001 4.932677e-001 5.281280e-001 6.921576e-001 7.256524e-001 5.271710e-001 6.576129e-001 4.813865e-001 4.645292e-001 4.296722e-001 1.189677e+000
<GCONST> 1.260420e+002
<TRANSP> 3
 0.000000e+000 1.000000e+000 0.000000e+000
 0.000000e+000 9.966092e-001 3.390863e-003
 0.000000e+000 0.000000e+000 0.000000e+000
<ENDHMM>
~h "NOZICKA"
<BEGINHMM>
<NUMSTATES> 3
<STATE> 2
<NUMMIXES> 4
<MIXTURE> 1 2.481603e-001
<MEAN> 39
 -1.421744e+001 -1.015841e+001 1.307333e+001 -1.218465e+001 4.612338e-001 -5.747482e-001 -2.759199e+000 -1.843268e+000 -1.672142e+000 -3.604867e+000 2.909419e+000 -3.333479e+000 6.020909e+001 -3.596732e-001 6.222447e-003 3.322211e-001 -1.406994e-001 6.483163e-001 -5.228022e-001 5.442756e-001 -4.101688e-002 2.575217e-001 8.983952e-002 1.415096e-001 2.934456e-001 4.544092e-001 9.241295e-002 -2.253627e-001 8.267935e-002 -1.666735e-001 -1.507834e-001 9.463379e-002 -9.396353e-002 -5.658404e-003 5.423679e-002 -2.557540e-002 1.382589e-001 -5.911125e-003 2.715821e-001
<VARIANCE> 39
 1.121145e+002 1.261458e+002 1.454110e+002 1.349503e+002 1.669097e+002 1.554370e+002 1.208951e+002 9.672202e+001 1.168283e+002 7.499337e+001 5.684566e+001 4.539449e+001 1.825144e+002 5.982672e+000 7.940461e+000 7.773799e+000 9.178114e+000 1.098935e+001 9.323248e+000 8.288443e+000 5.770996e+000 7.584811e+000 4.929378e+000 4.666639e+000 3.112208e+000 8.788282e+000 8.533928e-001 1.173205e+000 1.193809e+000 1.509131e+000 1.944652e+000 1.521602e+000 1.480284e+000 1.020271e+000 1.275368e+000 8.998083e-001 8.199927e-001 6.008847e-001 1.249528e+000
<GCONST> 1.596255e+002
<MIXTURE> 2 2.172668e-001
<MEAN> 39
 -1.723954e+001 -1.017795e+001 3.960049e+000 -9.349242e+000 -3.813665e+000 2.619859e+000 -4.862809e+000 7.565866e-001 5.816957e-001 -2.278575e+000 2.892394e+000 -2.368051e+000 5.156284e+001 8.053250e-003 2.623138e-001 -9.113722e-002 2.342691e-001 -6.110687e-002 2.378461e-001 4.689173e-002 1.498435e-001 -1.136297e-001 1.800594e-001 6.225652e-002 9.889259e-002 -4.452277e-001 4.740063e-002 7.697744e-002 7.195040e-002 6.384774e-002 6.178391e-002 -1.725833e-002 3.970310e-002 -1.950269e-002 -3.027291e-002 -7.252261e-004 1.004221e-002 3.674567e-002 -7.050530e-002
<VARIANCE> 39
 1.306951e+002 1.891551e+002 1.824909e+002 1.734039e+002 9.970381e+001 1.069397e+002 7.913377e+001 5.441612e+001 5.367090e+001 4.400034e+001 3.978333e+001 3.108439e+001 5.349269e+002 5.808024e-001 1.237258e+000 1.221473e+000 1.630630e+000 1.689827e+000 2.002794e+000 1.851083e+000 2.057530e+000 2.300348e+000 1.771135e+000 1.665057e+000 1.350994e+000 9.983197e-001 1.236819e-001 2.257447e-001 2.118750e-001 2.844174e-001 2.939177e-001 3.252946e-001 3.487978e-001 3.627829e-001 4.104300e-001 3.252726e-001 2.974993e-001 2.601946e-001 1.414932e-001
<GCONST> 1.187653e+002
<MIXTURE> 3 2.404652e-001
<MEAN> 39
 -2.188309e+001 -3.086710e+000 -3.899225e+000 -1.697493e+000 -6.804140e+000 4.217162e+000 -4.677155e+000 1.033807e+000 8.811330e-001 -2.066645e+000 1.948279e+000 -9.751287e-001 3.586950e+001 -3.951273e-002 6.450184e-002 -1.428791e-001 7.360723e-002 -1.813760e-001 9.818065e-002 -1.201035e-001 -6.302597e-002 -1.165831e-001 -1.183228e-001 -1.219374e-001 -1.116142e-001 -2.756259e-001 -1.678384e-003 3.093223e-003 1.856268e-002 -7.244820e-003 1.972366e-002 -3.966197e-002 -2.553163e-002 -3.182023e-002 -2.814151e-002 6.987098e-003 -1.151111e-002 -3.195854e-002 -1.474463e-002
<VARIANCE> 39
 7.383914e+001 1.177776e+002 1.466420e+002 1.202649e+002 4.519102e+001 4.386462e+001 3.438930e+001 2.895168e+001 3.260268e+001 2.596444e+001 2.657102e+001 2.006570e+001 4.005191e+002 2.772313e-001 6.014964e-001 8.660808e-001 9.438574e-001 1.112698e+000 1.192145e+000 1.364720e+000 1.461551e+000 1.633822e+000 1.299158e+000 1.168907e+000 1.155957e+000 6.861504e-001 4.515485e-002 9.455445e-002 1.125845e-001 1.572869e-001 1.728394e-001 1.943925e-001 2.413692e-001 2.644619e-001 2.912206e-001 2.394247e-001 2.285608e-001 2.187710e-001 5.095246e-002
<GCONST> 9.942040e+001
<MIXTURE> 4 2.940984e-001
<MEAN> 39
 -1.091744e+001 -1.510662e+001 1.558225e+001 -1.581832e+001 -1.870972e+000 1.132390e+000 -4.986662e+000 -3.044993e+000 -1.681885e+000 -4.585981e+000 5.280779e+000 -4.548552e+000 6.689314e+001 3.280084e-001 -2.631602e-001 -9.200921e-002 -1.307994e-001 -3.373572e-001 1.893744e-001 -4.084903e-001 -2.569271e-002 -4.650373e-002 -9.591150e-002 -6.117145e-002 -2.344290e-001 1.810523e-001 -1.147155e-001 1.331084e-001 -1.286934e-001 9.862006e-002 6.713129e-002 -3.699299e-002 6.657770e-002 4.757103e-002 -6.930168e-003 1.482197e-002 -1.119130e-001 3.292247e-003 -1.658417e-001
<VARIANCE> 39
 9.342573e+001 1.062962e+002 1.096605e+002 1.138536e+002 1.489856e+002 1.565805e+002 1.170029e+002 8.901662e+001 1.143588e+002 7.396117e+001 6.204407e+001 3.896747e+001 9.005491e+001 5.463296e+000 7.717878e+000 4.986991e+000 8.406425e+000 9.962766e+000 8.626820e+000 8.480425e+000 5.607507e+000 7.559719e+000 4.891630e+000 4.842033e+000 3.037365e+000 6.173507e+000 6.969334e-001 1.047122e+000 7.869243e-001 1.330335e+000 1.636407e+000 1.365271e+000 1.418589e+000 9.483852e-001 1.233623e+000 8.855259e-001 8.604588e-001 5.639390e-001 8.198984e-001
<GCONST> 1.548652e+002
<TRANSP> 3
 0.000000e+000 1.000000e+000 0.000000e+000
 0.000000e+000 9.977571e-001 2.242944e-003
 0.000000e+000 0.000000e+000 0.000000e+000
<ENDHMM>
~h "DAVID"
<BEGINHMM>
<NUMSTATES> 3
<STATE> 2
<NUMMIXES> 4
<MIXTURE> 1 2.051633e-001
<MEAN> 39
 -1.374130e+001 6.711940e-001 -2.317585e+000 -2.811673e-001 -2.213047e-001 -8.418085e-001 7.224150e-001 -5.396283e-001 4.722366e-001 1.548530e-002 4.133679e-001 5.592743e-001 6.085070e+001 -9.344475e-002 -3.890999e-002 -1.392749e-003 1.129967e-001 1.002159e-001 1.369519e-001 1.712924e-001 1.709836e-001 2.816027e-001 2.363441e-001 2.575400e-001 2.084585e-001 -7.574533e-002 4.248263e-002 1.538615e-002 3.989514e-002 -2.302069e-002 2.856272e-002 -3.486797e-003 1.208803e-002 2.976878e-002 -9.285638e-003 3.437125e-002 9.156873e-003 -1.131955e-003 8.698495e-002
<VARIANCE> 39
 2.013118e+001 7.765829e+000 8.447712e+000 1.070039e+001 1.060147e+001 1.371546e+001 1.362175e+001 1.349650e+001 1.358337e+001 1.227478e+001 1.362380e+001 1.015596e+001 2.288650e+001 4.135850e-001 4.139342e-001 5.229491e-001 7.533923e-001 8.271919e-001 1.123235e+000 1.231503e+000 1.275133e+000 1.278679e+000 1.336719e+000 1.232191e+000 1.090475e+000 3.940898e-001 1.027607e-001 7.671458e-002 1.096049e-001 1.611403e-001 1.656769e-001 2.145225e-001 2.470022e-001 2.524630e-001 2.696198e-001 2.679382e-001 2.602478e-001 2.258331e-001 1.276623e-001
<GCONST> 7.967403e+001
<MIXTURE> 2 3.190290e-001
<MEAN> 39
 -8.891218e+000 2.136579e+000 2.035720e+000 -6.521740e+000 -1.511541e+000 -4.092816e+000 -3.336773e+000 -1.181225e-001 -6.061908e+000 1.529273e+000 -2.050419e+000 -3.603420e+000 7.490112e+001 -2.310890e-001 2.022775e-001 -4.933484e-002 1.873903e-001 2.242983e-001 4.666379e-002 3.136821e-001 -1.104244e-001 1.190774e-001 -8.174511e-002 3.270574e-002 1.742762e-001 -1.516390e-001 -7.217092e-002 4.462082e-002 3.884736e-003 1.163092e-001 1.161033e-002 6.668689e-003 7.835206e-002 -9.110152e-002 5.791708e-002 -7.599400e-002 1.470557e-002 4.359775e-002 -1.211096e-001
<VARIANCE> 39
 7.597392e+001 3.653553e+001 6.598669e+001 5.754837e+001 4.730638e+001 3.708197e+001 5.894920e+001 5.192665e+001 6.551486e+001 3.072991e+001 3.515086e+001 2.615339e+001 2.884936e+001 3.831717e+000 2.353361e+000 2.741536e+000 4.739104e+000 3.041301e+000 2.909077e+000 3.806144e+000 4.031024e+000 4.579775e+000 2.624075e+000 2.594707e+000 1.880071e+000 2.849532e+000 5.830056e-001 3.843870e-001 4.465119e-001 7.905934e-001 5.328447e-001 5.278524e-001 7.223916e-001 7.501127e-001 8.388383e-001 5.113657e-001 4.856220e-001 3.656624e-001 4.539362e-001
<GCONST> 1.281474e+002
<MIXTURE> 3 1.987851e-001
<MEAN> 39
 -1.178587e+001 7.647099e-002 -2.078523e+000 -3.009102e+000 3.004143e-001 -9.857031e-001 1.279607e-001 3.239925e-001 -6.756954e-001 7.501532e-001 -4.263120e-001 -1.980808e-001 6.486517e+001 -3.445194e-002 -4.822936e-002 -5.001684e-002 -3.475372e-002 -1.396969e-001 -1.480063e-001 -1.155130e-001 -1.811566e-001 -1.694615e-001 -2.415556e-001 -2.118430e-001 -9.470292e-002 -9.723218e-002 4.604271e-002 3.158392e-002 3.477598e-002 6.337509e-003 -3.505386e-002 -6.625727e-002 -7.584976e-002 -3.541475e-002 -6.197339e-002 -2.367746e-002 -4.734326e-002 -5.811911e-002 3.303523e-002
<VARIANCE> 39
 4.302530e+001 1.624212e+001 1.280451e+001 4.662969e+001 1.707196e+001 1.922131e+001 2.425359e+001 2.522069e+001 2.705778e+001 1.582110e+001 2.332135e+001 1.542356e+001 7.320747e+001 4.026504e-001 4.834334e-001 5.799309e-001 8.033965e-001 8.671534e-001 1.035190e+000 1.229184e+000 1.268492e+000 1.260355e+000 1.187318e+000 1.202049e+000 1.021844e+000 3.759345e-001 1.017491e-001 8.787121e-002 1.067719e-001 1.791188e-001 1.689013e-001 2.099458e-001 2.504476e-001 2.634053e-001 2.595209e-001 2.576544e-001 2.482854e-001 2.100274e-001 1.142595e-001
<GCONST> 8.807270e+001
<MIXTURE> 4 2.770169e-001
<MEAN> 39
 -9.773829e+000 3.077323e+000 3.912014e+000 -4.483441e+000 -2.743442e+000 -4.187740e+000 -3.224675e+000 -1.715351e+000 -6.363919e+000 2.393479e-001 -1.572853e+000 -3.846942e+000 7.371172e+001 3.607211e-001 -1.718858e-001 9.407707e-002 -2.730334e-001 -2.300877e-001 -4.395879e-002 -4.021942e-001 1.262207e-001 -2.292062e-001 8.538197e-002 -8.075003e-002 -2.826947e-001 3.010559e-001 1.867854e-002 -8.589419e-002 -5.909207e-002 -1.226403e-001 -1.162983e-002 3.795286e-002 -4.741535e-002 1.088819e-001 -1.545400e-002 7.978621e-002 1.168613e-002 -5.689370e-003 5.086084e-002
<VARIANCE> 39
 6.812908e+001 3.239960e+001 7.590370e+001 4.995173e+001 4.967242e+001 3.622808e+001 5.397643e+001 5.096812e+001 6.649725e+001 2.834045e+001 2.973675e+001 2.733108e+001 3.192416e+001 4.754405e+000 2.393643e+000 3.808790e+000 4.593729e+000 3.416037e+000 3.141993e+000 4.490616e+000 4.427431e+000 5.582101e+000 2.724759e+000 2.606306e+000 2.320475e+000 3.587297e+000 5.430834e-001 3.943465e-001 4.743848e-001 7.333615e-001 5.722560e-001 5.707047e-001 7.107687e-001 7.870944e-001 8.823729e-001 5.032597e-001 4.717816e-001 3.901659e-001 5.072607e-001
<GCONST> 1.297139e+002
<TRANSP> 3
 0.000000e+000 1.000000e+000 0.000000e+000
 0.000000e+000 9.972219e-001 2.778121e-003
 0.000000e+000 0.000000e+000 0.000000e+000
<ENDHMM>
~h "JAN"
<BEGINHMM>
<NUMSTATES> 3
<STATE> 2
<NUMMIXES> 4
<MIXTURE> 1 2.460727e-001
<MEAN> 39
 -1.242102e+001 -5.107149e+000 -5.644304e+000 -1.002314e+000 -7.321520e+000 5.102353e+000 8.289016e+000 4.440156e+000 1.865808e-001 7.200100e-001 -7.633120e+000 -4.752666e+000 4.361630e+001 -5.346866e-002 -2.914716e-003 -6.246737e-002 3.714538e-002 1.221076e-001 1.016916e-001 1.827956e-001 2.077535e-001 1.325983e-001 7.803109e-002 8.659515e-002 7.476054e-002 -5.598138e-002 1.645165e-002 -5.392267e-003 5.247381e-002 8.482252e-003 1.411892e-002 2.293418e-002 -1.095517e-002 -7.038787e-003 1.587082e-002 1.857995e-002 -6.811483e-003 -9.643602e-003 2.849559e-002
<VARIANCE> 39
 5.827785e+000 5.000692e+000 1.419705e+001 7.588889e+000 8.908030e+000 1.064748e+001 1.659706e+001 1.910261e+001 1.103477e+001 1.033818e+001 9.892543e+000 8.165158e+000 4.184398e+000 1.022380e-001 2.166166e-001 3.515792e-001 4.179980e-001 6.811157e-001 7.967136e-001 9.388130e-001 9.847213e-001 9.557165e-001 9.805236e-001 9.268443e-001 7.834025e-001 5.209394e-002 2.461911e-002 4.906433e-002 8.456680e-002 8.805314e-002 1.294859e-001 1.557441e-001 1.950809e-001 2.020986e-001 1.975341e-001 2.053576e-001 1.930849e-001 1.564817e-001 1.457723e-002
<GCONST> 6.115462e+001
<MIXTURE> 2 3.079169e-001
<MEAN> 39
 -5.225695e+000 -7.722226e+000 6.783695e+000 -5.239272e+000 -1.609534e+001 5.851318e-001 -7.013489e+000 -6.679235e+000 -1.259885e+000 4.903346e+000 -6.782647e+000 -7.500871e+000 5.379108e+001 4.434945e-004 1.132445e-001 -1.761139e-001 8.462936e-002 1.462009e-001 7.904612e-002 1.844867e-001 1.830932e-002 8.391666e-002 4.302848e-002 6.364112e-002 1.175734e-001 -9.173028e-002 -1.012601e-001 2.565968e-002 -7.454249e-002 3.541773e-004 1.117305e-001 5.300539e-002 1.812493e-001 9.170699e-002 5.730896e-003 -6.465369e-002 -3.439762e-002 4.488801e-002 -7.780580e-002
<VARIANCE> 39
 1.204439e+001 3.761315e+001 5.102996e+001 4.582130e+001 3.966496e+001 4.820347e+001 5.167096e+001 4.457632e+001 4.156521e+001 3.668759e+001 2.550683e+001 2.370417e+001 1.714703e+001 7.981624e-001 2.102227e+000 2.534842e+000 2.837209e+000 2.614002e+000 2.363050e+000 3.940120e+000 3.170179e+000 2.396945e+000 2.385553e+000 1.902692e+000 1.600576e+000 1.247519e+000 1.205018e-001 3.107549e-001 3.705688e-001 4.537758e-001 4.220400e-001 3.993546e-001 6.343383e-001 5.389109e-001 4.241931e-001 4.234155e-001 3.571377e-001 2.939155e-001 1.612962e-001
<GCONST> 1.136220e+002
<MIXTURE> 3 1.818040e-001
<MEAN> 39
 -9.345311e+000 -4.971633e+000 1.080764e+000 -2.177835e+000 -9.882285e+000 3.848790e+000 2.637285e+000 -1.376081e+000 -1.330796e+000 1.299009e+000 -8.416380e+000 -6.235524e+000 4.818578e+001 -1.772493e-001 -2.390476e-002 -2.616296e-001 -4.639645e-002 1.068023e-001 -2.866036e-002 1.049495e-001 4.635112e-002 -1.175227e-001 -2.083408e-001 -1.802452e-001 -1.387815e-002 -1.768252e-001 4.560861e-002 -7.015606e-002 1.075295e-001 -6.334759e-002 -1.163937e-001 -7.094182e-002 -1.894481e-001 -9.549722e-002 -5.783680e-003 5.179447e-002 2.091498e-002 -1.378367e-002 8.669765e-002
<VARIANCE> 39
 2.525907e+001 3.209473e+001 5.908049e+001 2.281901e+001 2.712692e+001 2.432008e+001 5.678678e+001 4.555361e+001 2.417814e+001 1.865695e+001 1.523682e+001 1.736550e+001 2.390908e+001 2.083273e-001 3.681155e-001 7.568079e-001 6.011233e-001 8.770291e-001 8.998011e-001 1.127625e+000 1.123580e+000 1.022954e+000 9.904126e-001 9.313183e-001 7.830157e-001 1.378389e-001 3.955984e-002 8.438982e-002 1.605646e-001 1.375711e-001 1.759011e-001 1.855805e-001 2.617998e-001 2.372325e-001 2.181773e-001 2.136155e-001 1.964628e-001 1.602111e-001 4.057553e-002
<GCONST> 8.371055e+001
<MIXTURE> 4 2.642024e-001
<MEAN> 39
 -7.543829e+000 -7.746892e+000 7.535549e+000 -5.425968e+000 -1.515677e+001 5.843369e-001 -4.410409e+000 -5.176372e+000 -1.654123e+000 3.509348e+000 -7.368579e+000 -6.798868e+000 5.294519e+001 1.701928e-001 -1.176613e-001 4.460877e-001 -9.886009e-002 -3.518671e-001 -1.714780e-001 -4.568697e-001 -2.466014e-001 -1.391304e-001 2.022319e-002 -3.101138e-002 -1.922844e-001 2.826309e-001 7.177931e-002 2.300206e-002 -3.534989e-002 3.468434e-002 -6.280902e-002 -3.328319e-002 -7.181319e-002 -3.451743e-002 -1.942811e-002 2.130342e-002 3.100584e-002 -3.209221e-002 4.686235e-003
<VARIANCE> 39
 2.676966e+001 3.584147e+001 6.414672e+001 4.051782e+001 5.312337e+001 4.693261e+001 6.546736e+001 4.330698e+001 4.127224e+001 3.447523e+001 2.599489e+001 2.508883e+001 1.983436e+001 1.810695e+000 2.102521e+000 3.460517e+000 2.741402e+000 3.540390e+000 2.758399e+000 5.213336e+000 3.473041e+000 2.725916e+000 2.423738e+000 1.979450e+000 1.822703e+000 1.343311e+000 2.159314e-001 3.003881e-001 4.354069e-001 4.305818e-001 5.544475e-001 4.371713e-001 7.250312e-001 5.359211e-001 4.372507e-001 3.980232e-001 3.620076e-001 3.044896e-001 1.601938e-001
<GCONST> 1.185770e+002
<TRANSP> 3
 0.000000e+000 1.000000e+000 0.000000e+000
 0.000000e+000 9.972063e-001 2.793643e-003
 0.000000e+000 0.000000e+000 0.000000e+000
<ENDHMM>
~h "MAR"
<BEGINHMM>
<NUMSTATES> 3
<STATE> 2
<NUMMIXES> 4
<MIXTURE> 1 2.084421e-001
<MEAN> 39
 -9.236857e+000 3.781169e+000 3.201062e+000 5.140203e+000 6.741204e+000 2.534696e+000 6.509563e+000 3.274006e+000 4.583449e+000 2.366352e+000 5.762232e+000 3.683958e+000 5.528264e+001 -2.481523e-002 1.134114e-001 6.182350e-002 1.777151e-001 1.617050e-001 2.515130e-001 2.385653e-001 1.487599e-001 1.283719e-001 1.201914e-001 1.298045e-001 1.391108e-001 -4.979807e-001 3.541895e-002 -6.368661e-002 2.063598e-002 -6.815406e-002 -4.871025e-002 -1.627959e-002 -4.580775e-002 -3.082654e-002 -3.792439e-002 -4.531676e-002 -3.718768e-002 -6.669084e-002 1.624866e-001
<VARIANCE> 39
 3.919097e+001 1.219891e+001 1.775778e+001 1.104680e+001 1.636338e+001 2.106726e+001 1.579414e+001 1.423027e+001 1.309356e+001 1.263136e+001 1.163903e+001 1.034833e+001 5.415119e+001 1.041369e+000 7.776437e-001 7.878698e-001 1.050139e+000 1.191438e+000 1.466440e+000 1.563652e+000 1.399101e+000 1.469890e+000 1.473770e+000 1.258328e+000 1.225156e+000 1.904570e+000 1.853546e-001 1.490159e-001 1.538133e-001 1.924208e-001 2.155591e-001 2.691337e-001 2.783478e-001 2.595050e-001 2.745770e-001 2.815183e-001 2.382147e-001 2.208904e-001 3.238235e-001
<GCONST> 9.184901e+001
<MIXTURE> 2 3.155107e-001
<MEAN> 39
 -1.131957e+000 -6.478206e-001 4.513818e+000 -2.882041e+000 -4.858481e+000 -9.419686e-001 -3.928298e+000 -4.076255e+000 1.639676e+000 -4.411079e+000 5.464128e+000 -6.102417e+000 7.503654e+001 -2.642734e-001 5.282720e-001 -1.708818e-003 4.583394e-001 5.295383e-001 -3.058503e-001 1.225249e-001 2.954736e-002 -8.271526e-002 3.629242e-001 -1.152148e-001 3.722986e-001 -6.322247e-001 -2.770977e-001 2.527265e-001 -1.239793e-002 2.913882e-001 2.573841e-001 -5.362092e-002 1.845216e-001 7.377400e-002 2.223271e-002 1.518695e-001 -1.117443e-001 2.650005e-001 -3.771573e-001
<VARIANCE> 39
 4.635532e+001 4.998268e+001 7.433408e+001 6.554733e+001 6.957539e+001 6.800534e+001 4.838393e+001 4.845248e+001 5.620591e+001 5.787376e+001 4.330700e+001 3.851676e+001 3.321433e+001 3.820240e+000 3.443500e+000 3.051555e+000 4.836393e+000 5.216825e+000 4.562522e+000 4.213934e+000 4.102408e+000 3.724895e+000 3.966469e+000 3.735578e+000 3.627063e+000 4.617013e+000 5.585116e-001 5.526560e-001 5.413672e-001 8.227201e-001 9.478889e-001 9.017880e-001 7.516436e-001 7.812258e-001 7.415104e-001 7.609721e-001 7.950143e-001 6.648080e-001 6.574409e-001
<GCONST> 1.369625e+002
<MIXTURE> 3 2.654060e-001
<MEAN> 39
 -2.520571e+000 1.405309e+000 5.392293e+000 4.249280e-001 -4.035272e+000 -2.436672e+000 -3.602965e+000 -4.408606e+000 1.211082e+000 -4.466520e+000 3.716956e+000 -4.916712e+000 7.325176e+001 7.308882e-001 -5.539173e-001 1.347236e-001 -6.046697e-001 -7.990956e-001 1.272876e-001 -4.913524e-001 -2.609245e-001 -4.344172e-002 -5.526605e-001 1.432183e-001 -6.754531e-001 9.298174e-001 -6.466097e-002 -2.500221e-002 -7.419521e-002 -8.481704e-002 2.216481e-002 1.537073e-001 9.649850e-002 7.362818e-002 5.749842e-002 -3.265577e-003 1.507763e-001 -1.576589e-002 -4.615827e-002
<VARIANCE> 39
 4.333416e+001 5.110597e+001 7.132871e+001 7.205894e+001 6.301644e+001 6.462401e+001 4.718598e+001 5.008947e+001 4.569016e+001 5.426479e+001 3.198081e+001 3.538979e+001 4.681950e+001 5.128539e+000 4.032485e+000 4.358373e+000 6.594204e+000 6.450753e+000 6.253978e+000 4.781230e+000 5.145750e+000 3.746630e+000 4.199698e+000 3.799502e+000 3.882958e+000 6.192321e+000 5.801286e-001 6.158176e-001 5.819107e-001 1.065568e+000 9.831210e-001 1.067438e+000 7.710899e-001 8.606403e-001 6.214415e-001 6.924199e-001 6.787701e-001 6.177786e-001 7.945945e-001
<GCONST> 1.394454e+002
<MIXTURE> 4 2.106247e-001
<MEAN> 39
 -1.231475e+001 4.271716e+000 2.385427e+000 1.553659e+000 1.847471e+000 -1.772852e+000 3.017747e+000 -4.539619e-001 2.798966e+000 1.631451e-001 4.266160e+000 4.666072e-001 6.893383e+001 -4.999514e-001 -2.064534e-001 -2.224939e-001 -9.830389e-002 5.443370e-002 4.267588e-002 1.951532e-001 1.327482e-001 4.748459e-002 3.231328e-002 -1.417591e-001 1.568119e-001 2.685258e-001 4.616532e-001 -2.831151e-001 9.093271e-002 -2.618050e-001 -3.654869e-001 -9.846339e-002 -3.551812e-001 -1.738147e-001 -6.909626e-002 -1.774180e-001 1.241186e-002 -3.124982e-001 4.630463e-001
<VARIANCE> 39
 1.186573e+002 5.233329e+001 6.674812e+001 3.651436e+001 4.756021e+001 4.002699e+001 3.734920e+001 3.640085e+001 2.910906e+001 3.190413e+001 2.417445e+001 2.685829e+001 9.898006e+001 5.717066e+000 2.408478e+000 2.830771e+000 2.561788e+000 2.656178e+000 2.728757e+000 2.765500e+000 2.291928e+000 2.116179e+000 1.936459e+000 1.855724e+000 1.984525e+000 5.233171e+000 7.899519e-001 4.873247e-001 4.745697e-001 5.275928e-001 5.377670e-001 5.388168e-001 4.910501e-001 4.621268e-001 4.178313e-001 3.812287e-001 3.881702e-001 3.670681e-001 1.247210e+000
<GCONST> 1.250551e+002
<TRANSP> 3
 0.000000e+000 1.000000e+000 0.000000e+000
 0.000000e+000 9.984528e-001 1.547198e-003
 0.000000e+000 0.000000e+000 0.000000e+000
<ENDHMM>
~h "MJB"
<BEGINHMM>
<NUMSTATES> 3
<STATE> 2
<NUMMIXES> 4
<MIXTURE> 1 2.055993e-001
<MEAN> 39
 -1.052835e+001 7.078051e-001 -1.205153e+000 3.148955e+000 3.322278e+000 3.125164e+000 2.260389e+000 4.525750e+000 2.327816e+000 7.108873e-001 1.227913e+000 3.358490e+000 5.264999e+001 -1.111527e-001 -2.242630e-002 -8.957074e-002 1.837438e-002 8.861383e-002 9.382647e-002 1.540743e-001 8.135452e-002 1.314744e-001 1.628985e-001 1.347310e-001 9.972388e-002 -1.623718e-001 8.961439e-003 -1.131708e-002 2.746534e-002 -1.573147e-002 -3.476633e-002 -3.477285e-003 -4.164669e-002 -1.072995e-002 -2.481189e-002 -7.870812e-003 -1.125426e-002 -1.491369e-002 6.218557e-002
<VARIANCE> 39
 2.576664e+001 1.540894e+001 1.433924e+001 1.435529e+001 1.743727e+001 2.880750e+001 2.178329e+001 1.873034e+001 2.195853e+001 2.253638e+001 2.013021e+001 1.828702e+001 3.880947e+001 5.277208e-001 5.756096e-001 6.632860e-001 7.771953e-001 9.893414e-001 1.221943e+000 1.342431e+000 1.410611e+000 1.491511e+000 1.554300e+000 1.368237e+000 1.130027e+000 4.686655e-001 1.027239e-001 1.030106e-001 1.261853e-001 1.530068e-001 1.899993e-001 2.312784e-001 2.641164e-001 2.698811e-001 2.871289e-001 3.023196e-001 2.589374e-001 2.173529e-001 9.782889e-002
<GCONST> 8.857509e+001
<MIXTURE> 2 3.198623e-001
<MEAN> 39
 -3.058345e+000 -1.042961e+000 4.025769e+000 -3.633240e-001 -6.285772e+000 1.562431e+000 -9.705133e+000 -6.353834e-001 -4.366395e+000 -1.644830e+000 -2.959857e+000 -2.332203e+000 6.977128e+001 -4.534043e-001 4.121740e-001 1.149490e-001 1.213892e-001 3.883407e-001 -3.364361e-001 3.803842e-001 9.462780e-003 2.297884e-002 1.009585e-001 5.550224e-002 2.246968e-001 -7.696147e-002 -1.047962e-001 1.044977e-001 -3.539331e-002 1.051447e-001 1.397252e-001 -8.456253e-002 1.472212e-001 -1.473150e-002 3.389089e-002 -2.905088e-003 3.831613e-002 3.726538e-002 -1.296387e-001
<VARIANCE> 39
 7.551791e+001 4.940907e+001 6.473728e+001 4.867698e+001 8.077302e+001 6.244724e+001 4.660445e+001 5.359516e+001 5.204590e+001 3.092529e+001 3.477236e+001 2.177465e+001 2.914846e+001 4.777996e+000 3.347608e+000 2.632405e+000 3.298939e+000 5.795488e+000 4.454998e+000 3.768359e+000 3.634466e+000 3.523543e+000 2.270049e+000 2.439443e+000 1.721576e+000 2.918951e+000 7.842641e-001 5.773492e-001 4.772530e-001 6.074353e-001 1.042677e+000 8.446435e-001 7.457286e-001 7.107931e-001 6.885896e-001 4.518453e-001 4.867746e-001 3.596098e-001 4.613172e-001
<GCONST> 1.306033e+002
<MIXTURE> 3 2.824811e-001
<MEAN> 39
 -1.544230e+000 -2.222265e+000 2.904319e+000 3.005885e-001 -6.814425e+000 1.885001e+000 -9.650393e+000 -1.169700e+000 -4.032451e+000 -2.336426e+000 -2.698887e+000 -2.770086e+000 7.005044e+001 6.931398e-001 -4.564881e-001 3.571554e-003 -2.385984e-001 -6.297099e-001 3.565796e-001 -6.329857e-001 -1.836595e-002 -5.485644e-002 -1.259624e-001 -1.075643e-001 -3.508250e-001 4.666210e-001 -5.360508e-002 4.849157e-002 -3.081130e-002 -3.295804e-002 7.424533e-002 2.783963e-002 2.214788e-002 5.861262e-002 2.509971e-003 2.359825e-002 -1.418939e-002 1.294005e-002 -6.899307e-002
<VARIANCE> 39
 5.771101e+001 4.602274e+001 6.094715e+001 5.201863e+001 7.293060e+001 6.519084e+001 4.262868e+001 5.007856e+001 4.900092e+001 3.305148e+001 3.530330e+001 2.126252e+001 2.981920e+001 4.444450e+000 3.160312e+000 2.926049e+000 3.739786e+000 6.084139e+000 4.687050e+000 3.767771e+000 3.826762e+000 3.868912e+000 2.452837e+000 2.913207e+000 1.908410e+000 2.979227e+000 5.396008e-001 4.732109e-001 4.186293e-001 5.862435e-001 9.113753e-001 7.570564e-001 6.156293e-001 6.245726e-001 6.393095e-001 4.454610e-001 4.883865e-001 3.537139e-001 4.063650e-001
<GCONST> 1.292644e+002
<MIXTURE> 4 1.920425e-001
<MEAN> 39
 -9.525827e+000 3.363747e+000 2.378504e+000 1.042310e+000 2.833983e-001 -8.720535e-001 -3.988687e+000 5.824031e-001 -2.737370e+000 -1.290122e+000 -2.285505e+000 -1.282968e-001 6.438741e+001 -1.595181e-001 1.550258e-002 -1.166246e-001 1.269311e-001 1.890324e-001 -5.691253e-002 1.566735e-001 -6.165238e-002 -8.722287e-002 -1.382223e-001 -7.825907e-002 4.253262e-002 -3.883346e-001 2.463433e-001 -2.325048e-001 7.359212e-002 -1.109953e-001 -3.065420e-001 1.027621e-001 -2.353622e-001 -5.128166e-002 -2.983582e-002 -2.066004e-002 -3.181705e-002 -6.542133e-002 2.508315e-001
<VARIANCE> 39
 1.262237e+002 4.752048e+001 4.414537e+001 3.803201e+001 5.809016e+001 5.185930e+001 3.553368e+001 4.063357e+001 3.531541e+001 2.593402e+001 2.596239e+001 2.124876e+001 5.399945e+001 2.610005e+000 1.502533e+000 1.303530e+000 1.467876e+000 1.933575e+000 1.802596e+000 1.813360e+000 1.899528e+000 1.904833e+000 1.631650e+000 1.487075e+000 1.200888e+000 1.812409e+000 5.158523e-001 3.139042e-001 2.410075e-001 3.095562e-001 4.031217e-001 3.880031e-001 3.766155e-001 4.034407e-001 4.029367e-001 3.392834e-001 3.081079e-001 2.563481e-001 4.202108e-001
<GCONST> 1.134680e+002
<TRANSP> 3
 0.000000e+000 1.000000e+000 0.000000e+000
 0.000000e+000 9.982219e-001 1.778108e-003
 0.000000e+000 0.000000e+000 0.000000e+000
<ENDHMM>
~h "MJL"
<BEGINHMM>
<NUMSTATES> 3
<STATE> 2
<NUMMIXES> 4
<MIXTURE> 1 2.493853e-001
<MEAN> 39
 -1.004879e+001 3.642534e+000 7.671453e-001 5.863584e+000 6.191002e+000 7.024497e+000 8.105896e+000 7.561354e+000 7.626902e+000 6.696055e+000 7.748095e+000 7.055899e+000 4.022255e+001 -4.589747e-002 5.742999e-002 3.935958e-002 2.805499e-002 2.556684e-002 6.957734e-002 7.599508e-002 1.516706e-002 7.366650e-003 1.494782e-002 4.187103e-002 3.552450e-002 -7.797313e-002 3.323943e-003 -2.238750e-002 -8.299346e-003 -8.958763e-003 -6.717556e-003 -1.346651e-002 -2.288441e-002 -2.177789e-002 -8.760899e-003 -6.941328e-004 -8.974956e-003 -1.554272e-002 3.074561e-002
<VARIANCE> 39
 5.188561e+000 7.934956e+000 4.151209e+000 4.578352e+000 7.862010e+000 1.154310e+001 1.257105e+001 1.001385e+001 1.098403e+001 8.868850e+000 8.219180e+000 8.116722e+000 1.300987e+001 1.053009e-001 2.677801e-001 3.899641e-001 4.512660e-001 7.007026e-001 8.076786e-001 9.121156e-001 1.067072e+000 9.333238e-001 9.292253e-001 8.864688e-001 7.991692e-001 1.358635e-001 1.901408e-002 4.389412e-002 6.919746e-002 8.731910e-002 1.302109e-001 1.533100e-001 1.743008e-001 1.994677e-001 1.844978e-001 1.839114e-001 1.759771e-001 1.592859e-001 1.893685e-002
<GCONST> 6.024781e+001
<MIXTURE> 2 3.293857e-001
<MEAN> 39
 -2.824008e+000 -6.653048e-001 2.028476e+000 6.230694e-001 -6.367548e+000 -4.271351e+000 -9.278893e-001 -1.149149e+000 6.175989e-001 4.276640e+000 4.804675e+000 -3.115293e-001 5.826678e+001 -8.216113e-001 6.226151e-001 -1.098786e-001 -3.630309e-002 7.600248e-001 6.511289e-002 3.409534e-001 2.735349e-001 2.954205e-001 1.208578e-001 1.368523e-001 3.822842e-001 -4.746214e-001 9.445764e-003 -7.018888e-002 1.444974e-002 -1.219702e-002 -6.306316e-002 5.391488e-002 2.119488e-002 7.127246e-003 -1.023290e-002 -2.324160e-002 -1.812293e-002 -1.943882e-002 3.836616e-002
<VARIANCE> 39
 1.145813e+002 5.735885e+001 6.542770e+001 5.067597e+001 8.181048e+001 5.906630e+001 4.109188e+001 6.142028e+001 4.572810e+001 3.469241e+001 2.706921e+001 3.189869e+001 6.668457e+001 5.311132e+000 4.015136e+000 2.532907e+000 2.998389e+000 5.064643e+000 3.201795e+000 3.034816e+000 4.082306e+000 3.172044e+000 2.398440e+000 2.138543e+000 2.015603e+000 2.946135e+000 9.282841e-001 7.857608e-001 4.266211e-001 5.799859e-001 9.921314e-001 6.232809e-001 6.271743e-001 8.198332e-001 6.224440e-001 4.879208e-001 4.407928e-001 4.194351e-001 5.738567e-001
<GCONST> 1.318887e+002
<MIXTURE> 3 3.136223e-001
<MEAN> 39
 9.768157e-002 -3.121684e+000 2.468086e+000 1.049787e+000 -9.682961e+000 -3.521502e+000 -1.491639e+000 -2.629617e+000 -8.024666e-001 3.592643e+000 3.870050e+000 -1.752078e+000 5.908041e+001 9.281595e-001 -6.599458e-001 9.637796e-002 1.427251e-002 -8.449301e-001 -1.446869e-001 -4.157375e-001 -3.152970e-001 -3.420956e-001 -1.306704e-001 -1.662780e-001 -4.426025e-001 5.858665e-001 -4.083294e-002 9.751901e-002 -3.539441e-002 2.856683e-002 9.131004e-002 -3.224043e-002 2.179520e-002 2.977400e-002 4.020004e-002 3.560824e-002 4.266831e-002 5.225482e-002 -9.447580e-002
<VARIANCE> 39
 7.502763e+001 5.758095e+001 7.403252e+001 4.821093e+001 7.623248e+001 5.466289e+001 3.706801e+001 5.837732e+001 3.484700e+001 3.378443e+001 2.599957e+001 2.821386e+001 8.368428e+001 4.782789e+000 3.907479e+000 3.142936e+000 3.454659e+000 5.953570e+000 3.687174e+000 3.065378e+000 5.288623e+000 3.107899e+000 2.661025e+000 2.271735e+000 2.376742e+000 2.563912e+000 7.712600e-001 7.379330e-001 4.560392e-001 5.605214e-001 1.169087e+000 5.788234e-001 5.452389e-001 9.114625e-001 5.406221e-001 4.753979e-001 4.148083e-001 4.294098e-001 4.287079e-001
<GCONST> 1.313183e+002
<MIXTURE> 4 1.076088e-001
<MEAN> 39
 -1.117502e+001 1.064215e+000 -6.623107e-001 3.335614e+000 2.296044e+000 1.849098e+000 5.009127e+000 6.140302e+000 5.663352e+000 5.685681e+000 6.434299e+000 4.747139e+000 4.115185e+001 -1.067938e-001 -8.012913e-002 -2.359964e-002 3.968055e-002 1.138892e-001 9.944949e-002 3.157881e-002 7.331768e-002 1.069256e-001 -4.814894e-003 -1.669701e-003 6.350476e-002 -1.389974e-001 9.434740e-002 -2.871463e-002 7.511089e-002 -3.843580e-002 -7.214063e-002 -5.675168e-002 -9.905993e-002 -7.253419e-002 -7.048039e-002 -3.992824e-002 -6.033064e-002 -6.765536e-002 1.092933e-001
<VARIANCE> 39
 4.174781e+001 1.824085e+001 1.547295e+001 1.689759e+001 2.531049e+001 3.211487e+001 2.171226e+001 2.617123e+001 2.392430e+001 1.744602e+001 1.476781e+001 1.567828e+001 8.430146e+001 5.154076e-001 6.709846e-001 6.810422e-001 7.322052e-001 9.986584e-001 1.238157e+000 1.387982e+000 1.405394e+000 1.375716e+000 1.253881e+000 1.272360e+000 1.207040e+000 4.683272e-001 1.339135e-001 1.366951e-001 1.527155e-001 1.694760e-001 2.341603e-001 2.591906e-001 2.970300e-001 3.024820e-001 2.995597e-001 2.791036e-001 2.714325e-001 2.501470e-001 1.386453e-001
<GCONST> 9.215990e+001
<TRANSP> 3
 0.000000e+000 1.000000e+000 0.000000e+000
 0.000000e+000 9.983717e-001 1.628322e-003
 0.000000e+000 0.000000e+000 0.000000e+000
<ENDHMM>
~h "MKK"
<BEGINHMM>
<NUMSTATES> 3
<STATE> 2
<NUMMIXES> 4
<MIXTURE> 1 1.937902e-001
<MEAN> 39
 -1.323274e+000 -8.039617e-001 6.933400e+000 -1.003162e+001 -1.286415e+000 -3.081394e+000 -1.906280e+000 2.695340e+000 1.520120e-001 9.081948e-001 -2.889218e+000 -1.373354e+000 6.381076e+001 -3.571900e-001 9.242398e-001 4.967713e-002 1.393265e+000 4.482864e-001 3.715561e-001 8.306984e-001 -2.159939e-001 4.193139e-001 -1.967637e-002 7.540178e-001 -7.579935e-002 -1.220456e+000 -3.634932e-001 6.535832e-002 -1.060755e-001 3.491624e-001 1.221377e-001 1.621791e-002 3.056599e-001 -5.459482e-002 1.903756e-001 -1.450400e-002 1.666642e-001 3.114074e-005 -2.312003e-001
<VARIANCE> 39
 4.439493e+001 2.934610e+001 5.905273e+001 8.846763e+001 4.074665e+001 5.081091e+001 5.322653e+001 3.931577e+001 5.168964e+001 3.604397e+001 3.363933e+001 1.986506e+001 5.824765e+001 1.832862e+000 2.200740e+000 2.297410e+000 5.832841e+000 2.581264e+000 2.738237e+000 3.360757e+000 3.285262e+000 4.402552e+000 2.567161e+000 2.536951e+000 1.823501e+000 2.698666e+000 3.892507e-001 4.029475e-001 4.608110e-001 9.795390e-001 5.293142e-001 5.610465e-001 6.880317e-001 6.135345e-001 7.330201e-001 4.882748e-001 5.133782e-001 3.599937e-001 3.951312e-001
<GCONST> 1.257193e+002
<MIXTURE> 2 2.827746e-001
<MEAN> 39
 -1.130699e+001 -2.648022e-001 3.081880e+000 -2.972330e+000 1.246196e+000 -2.685493e+000 2.762415e+000 1.635203e+000 4.854271e+000 4.500471e-001 1.189373e+000 -3.143505e-001 5.665324e+001 -1.045947e-001 -1.309699e-001 4.056187e-002 -1.409276e-001 6.257623e-002 4.029882e-002 -1.937312e-002 9.921600e-002 3.546408e-002 7.713220e-002 1.492138e-002 1.456026e-001 2.125361e-001 2.665179e-001 -6.439834e-002 1.125731e-001 -2.288705e-001 -8.639543e-002 -7.149978e-003 -1.724227e-001 3.608996e-002 -1.460155e-001 2.613068e-002 -1.406875e-001 1.286343e-003 1.410292e-001
<VARIANCE> 39
 5.707145e+001 2.984402e+001 3.873099e+001 3.769047e+001 2.549286e+001 3.195166e+001 2.729198e+001 2.351973e+001 3.330927e+001 2.268261e+001 2.124968e+001 1.705393e+001 8.731881e+001 3.917742e+000 1.915749e+000 2.424190e+000 3.071080e+000 2.141536e+000 2.370407e+000 2.458915e+000 2.262830e+000 2.946921e+000 2.183361e+000 2.233619e+000 1.613275e+000 3.611832e+000 4.614276e-001 4.317340e-001 3.639334e-001 5.417399e-001 4.077110e-001 4.439996e-001 4.527692e-001 4.492416e-001 5.542926e-001 4.367420e-001 4.083402e-001 3.332637e-001 6.138437e-001
<GCONST> 1.179123e+002
<MIXTURE> 3 2.202161e-001
<MEAN> 39
 -7.905758e+000 -1.618871e-001 4.819971e+000 -4.065567e+000 3.927614e-001 -3.404775e+000 7.620829e-001 1.017451e+000 4.173547e+000 3.563134e-001 3.752060e-002 -1.337076e+000 5.976414e+001 4.996230e-001 -7.466992e-001 -3.899777e-002 -1.170343e+000 -5.396124e-001 -3.713901e-001 -9.149860e-001 1.044339e-002 -4.778332e-001 -8.690661e-002 -6.141754e-001 -1.210779e-001 1.057487e+000 1.923213e-001 -1.590298e-001 3.842101e-002 -4.597643e-001 -1.435910e-001 -3.940606e-002 -2.321194e-001 1.438640e-001 -2.388596e-001 1.089232e-001 -1.839474e-001 5.356241e-002 2.694977e-001
<VARIANCE> 39
 5.846883e+001 3.088950e+001 4.272228e+001 4.370978e+001 2.732885e+001 3.335403e+001 3.811050e+001 2.946663e+001 4.025629e+001 2.652848e+001 2.431107e+001 1.791204e+001 7.841193e+001 6.266984e+000 3.057723e+000 3.402481e+000 5.374478e+000 3.122500e+000 3.346128e+000 4.087125e+000 3.474866e+000 4.545817e+000 3.126965e+000 2.772359e+000 1.977692e+000 4.435510e+000 5.447024e-001 5.593626e-001 4.029385e-001 7.855396e-001 5.495455e-001 5.496113e-001 6.739049e-001 6.135167e-001 7.337143e-001 5.418856e-001 4.617711e-001 3.650532e-001 8.880467e-001
<GCONST> 1.274230e+002
<MIXTURE> 4 3.031902e-001
<MEAN> 39
 -1.435451e+000 -3.461463e+000 5.822246e+000 -1.225300e+001 -1.337806e+000 -3.819573e+000 -2.082497e+000 3.438163e+000 -4.562398e-001 1.788503e+000 -4.188057e+000 -1.293146e+000 6.508915e+001 -3.752122e-002 7.865535e-002 -3.706528e-002 9.833069e-002 5.399792e-002 1.660069e-003 1.600474e-001 4.011525e-002 5.118971e-002 2.925115e-003 -4.636298e-002 2.839744e-003 -1.920681e-001 -1.564867e-001 1.336199e-001 -6.459970e-002 3.239902e-001 1.062193e-001 2.475576e-002 1.344184e-001 -1.030994e-001 1.878633e-001 -9.439576e-002 1.583074e-001 -4.038042e-002 -1.794158e-001
<VARIANCE> 39
 4.346626e+001 3.262322e+001 6.512378e+001 9.053375e+001 4.297338e+001 4.829127e+001 4.765436e+001 3.634448e+001 4.912332e+001 3.601534e+001 3.615443e+001 1.834006e+001 7.571266e+001 7.352087e-001 1.067122e+000 1.383697e+000 2.674442e+000 1.701228e+000 1.872831e+000 1.994834e+000 1.994967e+000 2.458141e+000 1.715248e+000 1.717048e+000 1.221384e+000 9.137014e-001 1.922034e-001 2.213923e-001 2.777130e-001 5.457466e-001 3.397895e-001 3.687543e-001 4.268064e-001 4.008256e-001 4.945348e-001 3.565536e-001 3.503307e-001 2.459661e-001 1.753831e-001
<GCONST> 1.118942e+002
<TRANSP> 3
 0.000000e+000 1.000000e+000 0.000000e+000
 0.000000e+000 9.988053e-001 1.194696e-003
 0.000000e+000 0.000000e+000 0.000000e+000
<ENDHMM>
~h "MMS"
<BEGINHMM>
<NUMSTATES> 3
<STATE> 2
<NUMMIXES> 4
<MIXTURE> 1 1.922427e-001
<MEAN> 39
 -1.030719e+001 4.581377e+000 3.103631e+000 4.475759e+000 7.789510e+000 4.399843e+000 8.025146e+000 4.856236e+000 5.628613e+000 3.510455e+000 5.149478e+000 4.281333e+000 5.353661e+001 -5.066015e-002 1.067513e-001 2.072247e-003 1.313218e-001 1.552949e-001 1.237977e-001 1.793094e-001 6.236202e-002 6.925401e-002 3.306082e-002 1.118967e-001 1.243515e-001 -3.261993e-001 5.877291e-002 -5.733157e-002 2.681987e-002 -2.530711e-002 -6.624623e-002 -3.701552e-004 -3.859052e-002 -2.044712e-002 -2.827165e-002 -1.464023e-002 -1.605530e-002 -3.927740e-002 7.913590e-002
<VARIANCE> 39
 3.253279e+001 9.221133e+000 9.304404e+000 1.222750e+001 1.099890e+001 1.731408e+001 1.765750e+001 1.188289e+001 1.240719e+001 1.120135e+001 1.174996e+001 1.124394e+001 4.045425e+001 1.014052e+000 7.729332e-001 7.063188e-001 9.369035e-001 1.120744e+000 1.178800e+000 1.451290e+000 1.192600e+000 1.316781e+000 1.328212e+000 1.141135e+000 1.112185e+000 1.245732e+000 1.794425e-001 1.404986e-001 1.316671e-001 1.718678e-001 1.998096e-001 2.175395e-001 2.440900e-001 2.284228e-001 2.505365e-001 2.586828e-001 2.228620e-001 2.083600e-001 1.836491e-001
<GCONST> 8.642433e+001
<MIXTURE> 2 3.132403e-001
<MEAN> 39
 -1.582680e-001 -4.874487e-001 7.013473e+000 -2.904635e+000 -7.242464e+000 8.700696e-001 -5.913328e+000 -3.907067e+000 1.868304e+000 -3.092723e+000 4.535740e+000 -4.071436e+000 7.125642e+001 -3.782777e-001 7.015943e-001 -4.746887e-002 5.090597e-001 7.791912e-001 -1.720148e-001 5.066766e-001 1.008767e-001 -3.279042e-001 4.704313e-001 -2.872599e-001 2.146574e-001 -7.140972e-001 -3.660991e-001 2.000643e-001 -1.005356e-001 2.064465e-001 3.615889e-001 -3.803990e-003 3.103145e-001 8.789448e-002 3.758738e-002 1.748918e-001 -1.203861e-001 2.204667e-001 -2.541897e-001
<VARIANCE> 39
 3.000190e+001 3.949037e+001 7.854351e+001 5.639212e+001 4.815202e+001 6.642312e+001 4.254183e+001 6.507009e+001 6.242652e+001 4.273285e+001 3.478035e+001 3.826062e+001 2.410786e+001 3.711376e+000 3.096194e+000 3.383230e+000 4.321644e+000 5.704046e+000 3.888867e+000 3.761870e+000 4.267185e+000 4.013062e+000 3.658646e+000 3.228630e+000 2.925588e+000 3.210055e+000 5.149417e-001 5.512831e-001 5.880460e-001 7.494384e-001 8.707983e-001 7.224709e-001 7.103468e-001 8.024521e-001 7.866462e-001 7.286249e-001 6.259404e-001 5.650445e-001 4.585289e-001
<GCONST> 1.330298e+002
<MIXTURE> 3 2.660922e-001
<MEAN> 39
 -1.092352e+000 -5.604582e-001 6.279533e+000 -2.413073e+000 -6.847713e+000 5.761949e-001 -5.233075e+000 -4.559800e+000 2.497268e+000 -2.675984e+000 3.547489e+000 -3.064829e+000 7.174067e+001 9.872453e-001 -5.612573e-001 3.596009e-001 -6.713459e-001 -1.131920e+000 1.236181e-001 -9.603574e-001 -2.153393e-001 2.292671e-001 -7.532938e-001 4.327213e-001 -5.519139e-001 7.265756e-001 -1.642458e-001 9.020257e-002 -1.906987e-002 6.604807e-002 1.831441e-001 5.357473e-002 1.204781e-001 1.460450e-001 2.272872e-002 5.489111e-002 8.418737e-002 4.269056e-002 -2.097071e-001
<VARIANCE> 39
 3.633036e+001 3.877058e+001 7.340456e+001 5.303735e+001 4.977318e+001 6.121229e+001 4.156003e+001 5.512907e+001 6.000538e+001 4.078064e+001 3.604380e+001 3.394259e+001 2.242893e+001 4.408242e+000 3.015681e+000 3.483333e+000 4.012092e+000 5.448898e+000 4.023812e+000 4.471989e+000 5.058309e+000 4.623790e+000 3.953355e+000 3.209829e+000 2.997192e+000 3.157979e+000 5.346169e-001 5.581140e-001 5.512651e-001 7.178720e-001 8.720666e-001 6.616961e-001 7.109984e-001 7.553957e-001 7.966691e-001 7.188407e-001 6.604350e-001 5.329411e-001 4.455836e-001
<GCONST> 1.330084e+002
<MIXTURE> 4 2.284089e-001
<MEAN> 39
 -1.447332e+001 4.161480e+000 4.651844e+000 1.771388e+000 4.538946e+000 -5.638460e-001 2.486300e+000 1.571675e+000 4.144715e+000 2.616352e+000 2.331836e+000 2.064006e+000 6.508910e+001 -5.852460e-001 -3.955936e-001 -3.546987e-001 -2.451621e-002 1.256425e-001 -1.816935e-002 2.720210e-001 6.582545e-002 1.242052e-001 2.026241e-001 -1.987964e-001 2.411097e-001 4.016949e-001 6.444677e-001 -3.321746e-001 1.371001e-001 -3.390042e-001 -6.557132e-001 -5.800923e-002 -5.341669e-001 -2.731372e-001 -5.367668e-002 -2.904326e-001 8.004884e-002 -3.193502e-001 5.268951e-001
<VARIANCE> 39
 1.015418e+002 4.233058e+001 4.279900e+001 3.223537e+001 3.826714e+001 4.136478e+001 3.672268e+001 3.321095e+001 2.763464e+001 2.262812e+001 1.941373e+001 2.143970e+001 6.845611e+001 8.683968e+000 3.722611e+000 3.530664e+000 3.283114e+000 4.272190e+000 3.445866e+000 4.037405e+000 3.204317e+000 2.740690e+000 2.648465e+000 2.046767e+000 2.893560e+000 5.688535e+000 8.894519e-001 7.112807e-001 4.703634e-001 5.923731e-001 5.703963e-001 6.343456e-001 5.652857e-001 5.327281e-001 4.941149e-001 4.481712e-001 4.277981e-001 4.159245e-001 1.170528e+000
<GCONST> 1.280878e+002
<TRANSP> 3
 0.000000e+000 1.000000e+000 0.000000e+000
 0.000000e+000 9.980944e-001 1.905537e-003
 0.000000e+000 0.000000e+000 0.000000e+000
<ENDHMM>
~h "MOS"
<BEGINHMM>
<NUMSTATES> 3
<STATE> 2
<NUMMIXES> 4
<MIXTURE> 1 1.993254e-001
<MEAN> 39
 -1.345212e+001 -3.845912e-001 7.377346e-001 -1.425034e+000 1.301704e+000 -3.068905e+000 1.950032e+000 7.192080e-001 4.779484e+000 4.364566e-001 2.577984e+000 6.483360e-001 5.001476e+001 -6.148471e-001 9.850614e-002 -1.049532e-001 3.788056e-001 3.672858e-001 4.830655e-001 6.041039e-001 3.503424e-001 4.778726e-001 3.437381e-001 4.502668e-001 4.711297e-001 -4.510989e-001 1.287848e-001 -1.264158e-001 1.349633e-002 -1.097187e-001 -7.664365e-002 2.174722e-003 -3.756726e-002 3.729873e-002 -6.118749e-002 2.423387e-002 -2.584818e-002 -6.109893e-002 1.477430e-001
<VARIANCE> 39
 3.386895e+001 1.470111e+001 1.562342e+001 1.289354e+001 1.745525e+001 2.472699e+001 1.945078e+001 1.986787e+001 2.211338e+001 1.743362e+001 1.617287e+001 1.468305e+001 5.221828e+001 2.122530e+000 1.049276e+000 1.064288e+000 1.405999e+000 1.443403e+000 1.665363e+000 1.827403e+000 1.795980e+000 1.952192e+000 1.825275e+000 1.660754e+000 1.602056e+000 2.032091e+000 2.137573e-001 2.432492e-001 1.817413e-001 2.620510e-001 2.835948e-001 3.054307e-001 3.253180e-001 3.453064e-001 3.519540e-001 3.533998e-001 3.164983e-001 2.815297e-001 2.827208e-001
<GCONST> 1.004261e+002
<MIXTURE> 2 3.195300e-001
<MEAN> 39
 -3.697741e-001 -4.694637e+000 3.655997e+000 -1.019262e+001 -8.045342e+000 -8.535924e+000 -6.738482e+000 2.967210e-001 -1.048711e-001 8.230035e-001 3.041240e-001 -5.826934e+000 6.463627e+001 -2.121658e-001 4.366396e-001 5.051109e-002 4.208952e-001 4.142635e-001 6.794518e-002 2.945224e-001 -1.098424e-001 2.487772e-001 3.566998e-002 3.615185e-002 2.531466e-001 -4.124256e-001 -3.415984e-001 2.010432e-001 1.320578e-002 2.840779e-001 2.461720e-001 8.922362e-002 2.366314e-001 -6.407619e-002 1.314119e-001 -4.422784e-002 6.136302e-002 1.406477e-001 -2.815298e-001
<VARIANCE> 39
 3.119502e+001 4.923392e+001 6.742134e+001 4.552941e+001 4.395418e+001 5.063738e+001 4.204015e+001 5.504622e+001 4.888768e+001 4.455648e+001 4.422630e+001 2.887054e+001 2.428529e+001 3.297444e+000 3.645372e+000 2.724333e+000 3.917684e+000 3.998722e+000 3.240491e+000 3.168523e+000 3.891461e+000 3.808654e+000 3.181617e+000 2.981157e+000 2.437718e+000 2.743563e+000 4.166528e-001 5.603547e-001 4.516231e-001 6.107087e-001 6.799064e-001 6.258905e-001 5.780626e-001 7.241411e-001 6.829183e-001 6.364222e-001 5.471472e-001 4.565932e-001 3.494996e-001
<GCONST> 1.282022e+002
<MIXTURE> 3 2.246275e-001
<MEAN> 39
 -1.279682e+001 -4.874816e-001 1.454200e+000 -1.802565e+000 6.965582e-001 -2.981308e+000 2.048776e+000 5.814250e-001 4.795282e+000 6.036090e-001 2.669271e+000 5.383374e-001 5.159362e+001 -2.483217e-001 -2.858944e-001 -1.399974e-001 -1.334204e-001 -1.485051e-002 -1.674933e-001 -1.197029e-001 -2.114152e-001 -1.868275e-001 -3.369384e-001 -3.116575e-001 -1.514971e-001 1.829185e-001 3.482037e-001 -1.166569e-001 6.910476e-002 -2.467217e-001 -2.444775e-001 -2.138209e-001 -3.127565e-001 -9.826162e-002 -1.997627e-001 -7.507186e-002 -1.354221e-001 -2.339281e-001 3.497799e-001
<VARIANCE> 39
 5.162304e+001 2.272672e+001 2.793041e+001 1.970210e+001 2.293984e+001 2.741077e+001 2.298792e+001 2.521654e+001 2.794205e+001 2.004523e+001 2.167654e+001 1.885474e+001 5.857389e+001 1.871480e+000 1.433038e+000 1.399161e+000 1.633210e+000 1.632741e+000 1.789821e+000 1.832763e+000 1.789568e+000 1.865843e+000 1.754612e+000 1.682662e+000 1.698184e+000 2.070321e+000 3.891493e-001 3.149365e-001 2.355359e-001 3.847408e-001 3.680216e-001 3.721807e-001 4.008238e-001 3.816161e-001 4.095027e-001 4.002048e-001 3.646378e-001 3.600965e-001 4.962395e-001
<GCONST> 1.084043e+002
<MIXTURE> 4 2.565028e-001
<MEAN> 39
 -2.851895e+000 -3.149903e+000 5.047159e+000 -8.176610e+000 -7.097816e+000 -8.654246e+000 -6.281920e+000 -1.361723e+000 -4.175047e-001 -7.962034e-001 3.927560e-001 -6.398335e+000 6.367696e+001 9.600884e-001 -3.689357e-001 1.391122e-001 -7.082020e-001 -7.914049e-001 -3.187717e-001 -7.262395e-001 4.908622e-002 -5.190743e-001 -2.166620e-002 -1.277814e-001 -5.526581e-001 7.081760e-001 1.994617e-002 -4.921414e-002 -8.637510e-002 -5.279348e-002 -3.310084e-002 7.410113e-002 7.476822e-003 1.354745e-001 5.758627e-002 1.024967e-001 6.181671e-002 7.766967e-002 -7.102174e-002
<VARIANCE> 39
 4.708639e+001 4.837947e+001 6.529566e+001 4.662710e+001 4.882843e+001 4.795389e+001 4.393781e+001 4.862939e+001 4.868292e+001 4.374324e+001 4.155184e+001 3.969623e+001 2.657644e+001 4.073811e+000 3.372497e+000 3.401803e+000 4.024934e+000 4.601352e+000 4.491415e+000 3.777425e+000 4.303285e+000 4.014222e+000 4.195324e+000 3.184007e+000 3.413466e+000 2.811774e+000 4.500251e-001 5.716189e-001 4.971813e-001 6.580120e-001 7.780441e-001 7.490258e-001 6.065887e-001 7.263565e-001 6.505220e-001 7.567894e-001 5.839435e-001 5.550922e-001 3.668979e-001
<GCONST> 1.318318e+002
<TRANSP> 3
 0.000000e+000 1.000000e+000 0.000000e+000
 0.000000e+000 9.984229e-001 1.577121e-003
 0.000000e+000 0.000000e+000 0.000000e+000
<ENDHMM>
~h "MPM"
<BEGINHMM>
<NUMSTATES> 3
<STATE> 2
<NUMMIXES> 4
<MIXTURE> 1 2.194245e-001
<MEAN> 39
 -1.150944e+001 2.134105e+000 -2.428319e+000 3.174480e+000 2.783324e+000 3.193570e+000 5.604837e+000 2.622084e+000 4.157885e+000 1.865872e+000 1.640286e+000 3.388821e+000 5.174671e+001 -3.893583e-002 6.150486e-002 7.315182e-003 4.914757e-002 9.914202e-002 1.133512e-001 1.470239e-001 9.283264e-002 9.608575e-002 8.718022e-002 9.929422e-002 9.116209e-002 -1.503248e-001 1.266870e-002 -1.911385e-004 1.985384e-002 2.039850e-003 -8.900482e-003 2.974195e-005 -2.051538e-002 4.459450e-003 -2.842103e-003 9.072847e-003 -3.064629e-003 -1.304951e-002 3.431403e-002
<VARIANCE> 39
 1.608380e+001 1.825715e+001 9.561764e+000 1.017961e+001 1.663631e+001 2.599172e+001 2.564243e+001 1.865898e+001 1.932405e+001 1.768717e+001 1.724401e+001 1.452967e+001 4.027794e+001 3.211241e-001 5.050345e-001 5.578055e-001 7.231222e-001 9.229517e-001 1.094234e+000 1.239101e+000 1.328384e+000 1.409170e+000 1.410397e+000 1.323221e+000 1.149306e+000 3.561842e-001 7.518575e-002 9.112222e-002 1.166083e-001 1.420907e-001 1.836341e-001 2.235748e-001 2.454775e-001 2.618862e-001 2.829232e-001 2.852141e-001 2.603071e-001 2.294487e-001 6.778244e-002
<GCONST> 8.403907e+001
<MIXTURE> 2 3.223974e-001
<MEAN> 39
 -5.293865e+000 3.628015e+000 4.660923e+000 4.746459e-001 -6.092702e+000 -2.025371e+000 -7.665014e+000 -2.014364e-001 -3.440529e+000 2.814787e+000 9.588438e-001 -3.757212e+000 6.986077e+001 -8.587571e-003 1.839163e-001 4.374617e-002 2.010650e-001 1.821287e-001 3.675405e-002 1.652922e-001 -1.471148e-001 1.086912e-001 -1.391360e-002 1.802103e-002 1.075270e-001 -3.298195e-002 -7.122628e-002 1.350197e-001 7.113489e-003 1.487284e-001 9.584153e-002 2.546890e-003 1.320847e-001 -1.539898e-001 4.725387e-002 -7.748295e-002 4.174517e-002 7.420140e-002 -2.007439e-001
<VARIANCE> 39
 6.674571e+001 4.488758e+001 7.541944e+001 5.694801e+001 7.150449e+001 6.885078e+001 5.155687e+001 6.724065e+001 4.952307e+001 5.445689e+001 4.042271e+001 3.652665e+001 2.469673e+001 4.524632e+000 2.996578e+000 4.034216e+000 3.800479e+000 5.625137e+000 4.256797e+000 4.506364e+000 5.210598e+000 4.212050e+000 3.607921e+000 3.313616e+000 3.030673e+000 3.039607e+000 6.495261e-001 5.549200e-001 6.981794e-001 7.083650e-001 1.043005e+000 7.984862e-001 8.665450e-001 9.878896e-001 8.113595e-001 7.005121e-001 6.676629e-001 5.740939e-001 4.260674e-001
<GCONST> 1.364726e+002
<MIXTURE> 3 2.807396e-001
<MEAN> 39
 -5.197159e+000 5.902445e+000 6.195808e+000 2.559557e+000 -5.849433e+000 -1.353159e+000 -6.615999e+000 -3.091660e+000 -3.804804e+000 9.010022e-001 1.411064e+000 -3.383788e+000 6.747866e+001 1.251192e-001 -1.675225e-001 2.926633e-002 -2.358079e-001 -3.272532e-001 -1.119059e-001 -3.294675e-001 1.248358e-001 -1.846206e-001 2.839261e-002 -5.910276e-002 -2.141319e-001 3.469544e-001 -8.620229e-002 -1.596412e-001 -1.021904e-001 -1.530007e-001 -3.874023e-002 9.178170e-003 -5.151697e-002 1.954603e-001 2.034566e-002 8.038731e-002 -2.913919e-002 -2.332379e-002 1.497792e-001
<VARIANCE> 39
 5.154396e+001 3.948698e+001 7.399081e+001 5.325462e+001 7.056115e+001 6.661546e+001 4.952856e+001 5.942896e+001 4.723241e+001 5.083743e+001 3.461266e+001 3.429789e+001 3.562151e+001 4.729724e+000 3.382138e+000 4.755489e+000 4.157231e+000 5.763098e+000 4.520366e+000 4.716079e+000 5.569018e+000 4.421909e+000 3.714419e+000 3.193996e+000 3.231881e+000 3.279955e+000 4.852874e-001 4.880424e-001 6.473041e-001 7.015996e-001 1.032192e+000 7.668585e-001 8.404517e-001 9.425020e-001 7.906042e-001 6.598799e-001 6.107958e-001 5.563582e-001 5.529121e-001
<GCONST> 1.360401e+002
<MIXTURE> 4 1.774247e-001
<MEAN> 39
 -1.268573e+001 1.812187e+000 -4.950964e-001 1.572279e+000 -7.398586e-001 -2.169057e+000 -1.332536e+000 1.389726e+000 1.469279e+000 2.711423e+000 -1.465934e-001 4.679428e-002 6.476562e+001 -1.276650e-001 -1.278623e-001 -1.490015e-001 -5.901290e-002 8.032456e-002 -1.281249e-002 4.388271e-002 -5.343223e-002 -2.021912e-002 -1.147406e-001 -5.414639e-002 3.178660e-002 -3.201900e-001 2.497911e-001 6.562675e-003 1.232872e-001 -3.118915e-002 -1.024929e-001 -1.861381e-002 -1.362943e-001 -3.688388e-002 -1.154068e-001 2.668117e-003 -2.543365e-002 -8.000930e-002 8.598223e-002
<VARIANCE> 39
 9.953172e+001 5.827917e+001 3.225172e+001 2.906768e+001 3.948164e+001 4.844269e+001 4.435452e+001 4.220469e+001 3.486560e+001 3.338058e+001 2.725454e+001 3.704642e+001 7.451619e+001 1.353861e+000 1.208598e+000 1.255133e+000 1.228436e+000 1.534279e+000 1.784483e+000 1.821744e+000 1.808206e+000 1.831737e+000 1.674556e+000 1.697693e+000 1.410262e+000 1.535362e+000 3.467767e-001 2.659693e-001 2.544224e-001 2.623161e-001 3.247860e-001 3.542252e-001 3.958008e-001 3.714685e-001 3.848426e-001 3.442401e-001 3.505969e-001 3.067854e-001 3.530092e-001
<GCONST> 1.116501e+002
<TRANSP> 3
 0.000000e+000 1.000000e+000 0.000000e+000
 0.000000e+000 9.985098e-001 1.490239e-003
 0.000000e+000 0.000000e+000 0.000000e+000
<ENDHMM>
~h "MPS"
<BEGINHMM>
<NUMSTATES> 3
<STATE> 2
<NUMMIXES> 4
<MIXTURE> 1 2.275428e-001
<MEAN> 39
 -9.087065e+000 4.358497e-001 1.493478e+000 2.260728e+000 4.927809e+000 2.558196e+000 5.312342e+000 3.838039e+000 5.849118e+000 2.713732e+000 5.449079e+000 3.769974e+000 5.294522e+001 -1.955934e-002 5.142296e-002 4.555875e-002 5.797528e-002 6.975201e-002 6.546336e-002 7.029381e-002 5.062170e-002 7.490882e-002 1.025764e-001 1.016757e-001 6.223416e-002 -2.081326e-001 -3.131632e-003 -7.450264e-003 1.033459e-002 -2.207415e-002 -1.828602e-002 -3.370230e-003 -1.452093e-002 -8.665665e-003 -3.093058e-002 -7.684260e-003 -1.966632e-002 -2.653354e-002 6.985509e-002
<VARIANCE> 39
 1.301371e+001 1.295483e+001 7.993707e+000 6.457353e+000 1.063513e+001 1.102512e+001 1.303086e+001 1.442889e+001 1.849599e+001 1.435855e+001 1.355450e+001 1.048595e+001 1.542503e+001 4.886326e-001 5.310814e-001 5.889314e-001 6.798722e-001 8.825122e-001 1.004112e+000 1.177823e+000 1.218175e+000 1.458531e+000 1.241053e+000 1.235109e+000 1.026925e+000 6.406678e-001 8.028443e-002 9.348328e-002 1.107828e-001 1.310774e-001 1.678889e-001 1.963109e-001 2.266396e-001 2.357080e-001 2.756991e-001 2.444843e-001 2.365489e-001 2.022226e-001 1.005986e-001
<GCONST> 7.888581e+001
<MIXTURE> 2 3.184973e-001
<MEAN> 39
 -3.589109e-001 -2.880950e+000 7.756280e+000 -4.483050e+000 -6.550166e+000 -5.786286e-001 -6.051380e+000 -3.632333e+000 -9.651145e-001 3.852571e-001 1.564701e+000 -2.622721e+000 7.272401e+001 -4.837108e-001 5.719932e-001 -3.059391e-001 3.918817e-001 4.836920e-001 6.680743e-002 4.328296e-001 7.248717e-002 5.962294e-002 6.925329e-003 1.063681e-001 1.644055e-001 -4.801147e-001 -2.932725e-001 1.484062e-001 -1.256384e-001 1.577170e-001 1.768884e-001 3.293663e-002 1.932393e-001 6.392068e-002 3.318984e-002 -2.034309e-002 3.972143e-002 6.542195e-002 -2.022706e-001
<VARIANCE> 39
 6.599519e+001 6.083646e+001 8.949020e+001 6.833023e+001 5.436158e+001 6.255754e+001 4.929443e+001 4.323328e+001 5.854646e+001 3.402150e+001 3.063304e+001 2.326136e+001 3.247890e+001 5.796252e+000 4.251334e+000 3.732671e+000 4.659401e+000 4.213877e+000 3.355839e+000 3.669151e+000 3.548332e+000 3.727922e+000 2.290416e+000 2.013515e+000 1.653848e+000 3.599234e+000 7.580909e-001 7.678000e-001 6.084111e-001 7.881950e-001 7.670922e-001 6.250702e-001 6.865419e-001 6.755033e-001 6.992731e-001 4.526457e-001 3.948011e-001 3.318516e-001 5.681865e-001
<GCONST> 1.315126e+002
<MIXTURE> 3 2.808046e-001
<MEAN> 39
 -2.435317e+000 -1.824182e+000 7.234554e+000 -3.118493e+000 -5.583898e+000 -5.015196e-001 -5.059433e+000 -3.560467e+000 -1.417026e+000 -2.293680e-001 1.634349e+000 -2.290042e+000 7.153481e+001 8.353312e-001 -5.412950e-001 4.594152e-001 -4.705006e-001 -6.295686e-001 -1.316367e-001 -6.224502e-001 -1.927372e-001 -1.355549e-001 -5.170213e-002 -2.314393e-001 -3.300495e-001 7.620658e-001 4.667532e-002 -5.589056e-002 1.662542e-002 -6.014886e-002 -4.013393e-002 2.100939e-002 -2.726232e-002 5.382562e-002 8.476403e-002 6.638918e-002 4.376977e-002 2.222595e-002 -2.364821e-002
<VARIANCE> 39
 8.277930e+001 5.797855e+001 8.797115e+001 6.601823e+001 5.792037e+001 5.281561e+001 5.052137e+001 4.237347e+001 6.016873e+001 3.267327e+001 2.905250e+001 2.293464e+001 4.088610e+001 7.208443e+000 4.199409e+000 5.039716e+000 4.974475e+000 5.248051e+000 3.843663e+000 4.421813e+000 4.453510e+000 4.895520e+000 2.754158e+000 2.451980e+000 2.151948e+000 4.488313e+000 8.943087e-001 7.228768e-001 7.302821e-001 8.528324e-001 8.636456e-001 6.223598e-001 7.240868e-001 7.393448e-001 7.926185e-001 4.744835e-001 4.304000e-001 3.899988e-001 6.506370e-001
<GCONST> 1.353462e+002
<MIXTURE> 4 1.731420e-001
<MEAN> 39
 -1.401341e+001 6.577154e-001 6.682200e-001 4.794091e-001 1.354387e+000 4.371001e-001 2.153299e+000 1.520592e+000 4.005742e+000 1.355489e+000 3.534653e+000 3.478705e-001 6.566671e+001 -4.364789e-001 -2.407479e-001 -2.373536e-001 -3.582822e-002 3.817864e-002 1.495271e-003 1.228127e-001 1.112065e-001 7.459353e-003 -6.374933e-002 5.016972e-002 1.515600e-001 -8.301342e-002 4.679573e-001 -1.724496e-001 1.912664e-001 -1.622857e-001 -2.364350e-001 -9.055855e-002 -2.910195e-001 -1.926730e-001 -1.579323e-001 -6.046080e-002 -1.186865e-001 -1.220365e-001 3.183402e-001
<VARIANCE> 39
 1.445141e+002 4.929758e+001 4.353534e+001 2.689310e+001 3.249136e+001 2.912551e+001 2.896904e+001 3.079897e+001 3.318036e+001 2.300576e+001 2.567979e+001 2.035505e+001 8.801981e+001 3.450303e+000 1.831547e+000 1.725429e+000 1.569325e+000 1.718712e+000 1.899443e+000 2.014428e+000 1.878707e+000 2.177989e+000 1.634933e+000 1.685668e+000 1.436916e+000 3.517848e+000 6.336673e-001 3.723832e-001 3.077974e-001 3.160563e-001 3.643773e-001 3.552346e-001 4.110308e-001 4.050436e-001 4.265271e-001 3.311697e-001 3.269007e-001 2.694789e-001 8.307447e-001
<GCONST> 1.152172e+002
<TRANSP> 3
 0.000000e+000 1.000000e+000 0.000000e+000
 0.000000e+000 9.984200e-001 1.580028e-003
 0.000000e+000 0.000000e+000 0.000000e+000
<ENDHMM>
~h "MVL"
<BEGINHMM>
<NUMSTATES> 3
<STATE> 2
<NUMMIXES> 4
<MIXTURE> 1 2.164520e-001
<MEAN> 39
 -9.828813e+000 8.502967e-001 -2.134836e+000 1.373531e+000 2.937575e+000 4.753737e+000 4.985394e+000 5.640518e+000 3.184346e+000 9.615626e-001 3.732959e-001 2.810536e+000 5.375337e+001 -4.049547e-002 3.844461e-002 1.158120e-002 6.283671e-002 6.361091e-002 8.706735e-002 1.092514e-001 7.629136e-002 2.591570e-002 -9.463025e-003 6.186284e-002 6.532454e-002 -1.653407e-001 -4.413968e-004 -2.144100e-002 2.600993e-002 -1.870652e-002 -7.320419e-003 -8.112362e-003 -3.386768e-002 -1.562809e-002 -3.542708e-003 1.358856e-002 -6.689853e-003 -2.164543e-002 6.050891e-002
<VARIANCE> 39
 1.384805e+001 8.214652e+000 8.384138e+000 8.205307e+000 1.270435e+001 1.766593e+001 1.796560e+001 1.642179e+001 1.438951e+001 1.553231e+001 1.511020e+001 1.609124e+001 2.378782e+001 4.446337e-001 4.656698e-001 6.033542e-001 7.818267e-001 9.958296e-001 1.135290e+000 1.401241e+000 1.260177e+000 1.315861e+000 1.476157e+000 1.331687e+000 1.174881e+000 5.166572e-001 9.169128e-002 8.702897e-002 1.192728e-001 1.426679e-001 1.856382e-001 2.195225e-001 2.612521e-001 2.461180e-001 2.559800e-001 2.938531e-001 2.600631e-001 2.301963e-001 8.981647e-002
<GCONST> 8.196973e+001
<MIXTURE> 2 3.255253e-001
<MEAN> 39
 -3.076486e+000 -3.007921e+000 4.387462e+000 -1.607833e+000 -1.251377e+001 1.795883e+000 -8.818851e+000 -4.814466e+000 3.565836e-001 2.759476e+000 -3.650895e+000 -3.737056e+000 7.624997e+001 -2.894201e-001 4.633125e-001 -5.680341e-002 2.470791e-001 4.462297e-001 -1.872659e-001 3.169654e-001 1.527152e-001 5.740444e-002 1.502747e-001 9.942783e-002 1.765861e-001 -2.497691e-001 -2.131100e-001 2.791950e-001 -1.155288e-001 1.032086e-001 3.446029e-001 -1.566577e-001 2.951535e-001 4.674926e-002 -4.315092e-002 -3.460922e-002 2.710603e-002 5.868536e-002 -2.870041e-001
<VARIANCE> 39
 5.502871e+001 5.423432e+001 8.988502e+001 5.881923e+001 8.581551e+001 6.920821e+001 6.341729e+001 5.661012e+001 5.780310e+001 3.759143e+001 3.415475e+001 3.324490e+001 3.856487e+001 4.887739e+000 4.993307e+000 4.100985e+000 3.473181e+000 8.320824e+000 5.245047e+000 5.835464e+000 4.566227e+000 4.363255e+000 2.926003e+000 2.841255e+000 2.624058e+000 4.329185e+000 7.486689e-001 8.263881e-001 7.141083e-001 6.618422e-001 1.522709e+000 9.974440e-001 1.118799e+000 9.178649e-001 8.874750e-001 6.027170e-001 5.734072e-001 5.306219e-001 7.389020e-001
<GCONST> 1.395254e+002
<MIXTURE> 3 2.867181e-001
<MEAN> 39
 -5.312512e+000 -6.241049e-001 3.537345e+000 -7.506834e-001 -9.127385e+000 6.607795e-002 -6.183149e+000 -4.738025e+000 -5.563785e-001 2.119913e+000 -3.311819e+000 -3.472741e+000 7.394062e+001 4.954157e-001 -5.837439e-001 1.356873e-001 -3.376638e-001 -8.099626e-001 1.066969e-001 -6.492987e-001 -3.288711e-001 -7.944461e-002 -3.988470e-002 -1.700888e-001 -2.884147e-001 8.442808e-001 1.137776e-001 -1.378674e-001 4.569793e-002 -4.651305e-002 -2.302149e-001 1.680973e-001 -1.441499e-001 2.893486e-002 7.236730e-002 3.339250e-002 8.174544e-003 -1.041859e-002 6.209480e-002
<VARIANCE> 39
 7.772684e+001 5.306664e+001 7.876453e+001 5.033667e+001 8.581925e+001 5.928391e+001 6.127937e+001 5.281994e+001 5.436944e+001 3.459794e+001 3.127376e+001 3.258931e+001 4.846618e+001 6.895384e+000 4.697093e+000 5.833661e+000 4.302214e+000 9.545997e+000 5.721441e+000 6.335574e+000 5.781773e+000 5.384857e+000 3.499235e+000 3.175159e+000 3.183736e+000 5.083232e+000 8.682523e-001 7.461458e-001 7.723002e-001 6.833021e-001 1.544021e+000 9.582558e-001 1.098691e+000 1.001412e+000 9.531131e-001 6.464136e-001 5.980808e-001 5.663747e-001 7.999913e-001
<GCONST> 1.420526e+002
<MIXTURE> 4 1.712956e-001
<MEAN> 39
 -1.027602e+001 3.224524e+000 -4.586666e-001 -3.236114e-003 -3.122386e+000 3.567434e-001 -1.081592e+000 -6.802180e-001 1.775095e+000 2.916556e+000 -3.587033e+000 -1.097237e+000 6.808056e+001 -2.337853e-001 5.243910e-002 -1.319272e-001 2.119505e-002 4.314660e-001 6.620185e-002 3.421260e-001 1.517603e-001 -1.352620e-002 -1.954670e-001 -6.677784e-004 5.227116e-002 -7.226156e-001 2.196481e-001 -2.755556e-001 1.085423e-001 -9.512611e-002 -2.596341e-001 2.561205e-002 -2.801521e-001 -1.165481e-001 -3.470282e-002 -5.512411e-003 -5.585687e-002 -6.698603e-002 3.637629e-001
<VARIANCE> 39
 1.316015e+002 4.960700e+001 5.492984e+001 3.799390e+001 6.221566e+001 5.070799e+001 3.557670e+001 3.911471e+001 3.309183e+001 2.582075e+001 2.758544e+001 2.885657e+001 7.147757e+001 2.414130e+000 1.548134e+000 1.511468e+000 1.476565e+000 2.092964e+000 2.231489e+000 2.212776e+000 1.935073e+000 1.973058e+000 1.664732e+000 1.677673e+000 1.586396e+000 2.911875e+000 6.083024e-001 3.355780e-001 3.406711e-001 3.350809e-001 4.873493e-001 4.972152e-001 4.935326e-001 4.546404e-001 4.133541e-001 3.671116e-001 3.302202e-001 3.234618e-001 6.713102e-001
<GCONST> 1.182608e+002
<TRANSP> 3
 0.000000e+000 1.000000e+000 0.000000e+000
 0.000000e+000 9.980443e-001 1.955714e-003
 0.000000e+000 0.000000e+000 0.000000e+000
<ENDHMM>
~h "ZLG"
<BEGINHMM>
<NUMSTATES> 3
<STATE> 2
<NUMMIXES> 4
<MIXTURE> 1 1.871740e-001
<MEAN> 39
 -1.024202e+001 1.206054e+000 -6.028606e-001 2.849021e+000 2.313405e+000 1.765277e+000 2.508084e+000 1.882981e+000 2.021754e+000 3.081916e-001 8.572282e-001 2.407073e+000 5.315854e+001 -8.225129e-002 -3.355525e-002 -5.336054e-002 1.778640e-002 1.153885e-001 8.787818e-002 1.022168e-001 1.335507e-001 1.457039e-001 1.111107e-001 1.416066e-001 1.190543e-001 -1.625529e-001 -1.323709e-002 -1.534403e-002 2.982847e-003 -1.447469e-002 -2.809642e-002 -1.207923e-002 -2.419480e-002 -1.678845e-002 -2.232221e-002 4.226080e-003 -1.806146e-002 -5.892887e-003 7.800462e-002
<VARIANCE> 39
 1.363908e+001 1.821777e+001 1.299933e+001 9.768308e+000 1.672821e+001 1.997933e+001 1.675393e+001 2.213136e+001 2.047140e+001 1.997652e+001 1.982748e+001 2.258755e+001 2.132759e+001 4.531363e-001 5.365095e-001 6.047377e-001 7.232386e-001 9.358314e-001 1.189480e+000 1.202470e+000 1.222148e+000 1.320203e+000 1.326125e+000 1.272698e+000 1.179438e+000 4.870380e-001 8.732236e-002 1.003395e-001 1.163225e-001 1.435596e-001 1.788587e-001 2.286207e-001 2.367827e-001 2.403443e-001 2.602932e-001 2.487536e-001 2.403664e-001 2.231242e-001 1.018280e-001
<GCONST> 8.459963e+001
<MIXTURE> 2 3.406947e-001
<MEAN> 39
 -2.828294e+000 2.009874e+000 -3.053575e+000 -4.817143e+000 -9.394771e+000 -5.971084e+000 -1.124124e+001 -9.595445e+000 -7.648646e+000 -4.758399e+000 -8.304066e+000 -6.005949e+000 6.913480e+001 -4.638040e-001 1.992139e-001 2.369322e-001 4.544521e-001 5.775732e-001 1.447162e-001 5.930336e-001 1.851356e-001 1.796052e-001 -2.627321e-002 1.816383e-001 2.275352e-001 -2.717908e-001 -2.195148e-001 4.104957e-002 6.361303e-002 1.133277e-001 1.786395e-001 6.937914e-002 1.898736e-001 1.440490e-001 1.460279e-001 6.665135e-002 1.329697e-001 8.864569e-002 -1.061684e-001
<VARIANCE> 39
 2.953341e+001 4.330167e+001 7.107681e+001 3.813874e+001 6.150330e+001 4.804603e+001 3.661501e+001 4.263377e+001 4.071161e+001 3.943941e+001 3.223549e+001 2.440331e+001 2.073337e+001 2.415366e+000 2.397452e+000 2.759121e+000 2.515541e+000 4.000788e+000 2.831255e+000 2.992300e+000 3.100556e+000 2.771829e+000 2.723093e+000 2.185881e+000 1.953990e+000 2.126369e+000 3.558466e-001 4.471682e-001 5.312726e-001 5.175335e-001 8.025872e-001 5.998929e-001 6.048920e-001 6.292381e-001 5.331593e-001 5.624753e-001 4.589418e-001 3.997441e-001 3.455766e-001
<GCONST> 1.229484e+002
<MIXTURE> 3 2.741846e-001
<MEAN> 39
 -3.049427e+000 2.193314e+000 -2.516440e+000 -4.933666e+000 -9.319342e+000 -6.385700e+000 -1.193869e+001 -9.680329e+000 -7.385630e+000 -4.129133e+000 -7.867865e+000 -5.984288e+000 6.911520e+001 8.537635e-001 -4.419896e-002 -2.456490e-001 -5.175361e-001 -8.021840e-001 -2.052922e-001 -8.346415e-001 -4.834574e-001 -4.787048e-001 -1.885363e-001 -4.409184e-001 -5.443826e-001 3.135550e-001 -8.003822e-002 1.515657e-002 -6.033234e-002 4.130330e-002 9.601595e-002 8.821668e-002 1.342109e-001 7.324253e-002 2.128058e-002 -1.989134e-002 2.016873e-002 1.511569e-006 -7.944373e-002
<VARIANCE> 39
 3.326854e+001 4.332066e+001 6.701973e+001 3.723348e+001 5.428550e+001 4.655658e+001 3.380967e+001 4.477552e+001 4.159298e+001 3.871470e+001 3.116982e+001 3.149990e+001 1.903698e+001 3.004892e+000 2.784651e+000 3.545397e+000 3.416820e+000 5.077418e+000 4.066301e+000 3.717615e+000 4.038751e+000 3.269010e+000 3.213152e+000 3.031893e+000 2.655334e+000 2.143150e+000 3.615592e-001 4.301300e-001 4.779281e-001 5.186191e-001 7.532313e-001 6.084691e-001 5.506895e-001 5.971245e-001 5.070830e-001 5.560435e-001 4.590107e-001 4.548297e-001 3.080241e-001
<GCONST> 1.255466e+002
<MIXTURE> 4 1.979369e-001
<MEAN> 39
 -1.376904e+001 5.044755e+000 -1.013183e+000 7.705926e-001 -2.055072e+000 -3.806896e+000 -1.586310e+000 -3.829390e+000 -1.729974e+000 -1.550659e+000 -2.995428e+000 -1.639087e+000 6.430132e+001 -3.112654e-001 -2.348444e-001 -2.763395e-002 -8.164791e-002 2.393875e-002 -4.582004e-002 5.726010e-002 2.288588e-001 2.265531e-001 2.071287e-001 1.751395e-001 2.393223e-001 1.774777e-001 5.035379e-001 -7.785877e-002 -2.825848e-002 -2.387026e-001 -4.151146e-001 -2.296953e-001 -4.910534e-001 -3.341123e-001 -2.641059e-001 -9.387264e-002 -2.423373e-001 -1.493113e-001 2.194534e-001
<VARIANCE> 39
 7.313423e+001 3.151038e+001 3.913296e+001 2.602102e+001 3.237515e+001 3.207021e+001 2.520260e+001 3.110784e+001 2.893133e+001 2.837990e+001 2.783911e+001 2.626569e+001 4.056349e+001 4.513471e+000 2.469668e+000 2.170904e+000 2.115867e+000 2.986912e+000 2.728573e+000 2.991932e+000 2.740673e+000 2.491636e+000 2.391995e+000 2.447111e+000 2.163279e+000 3.752663e+000 7.586057e-001 4.676566e-001 4.148586e-001 4.083250e-001 5.542678e-001 5.216848e-001 5.339813e-001 5.058560e-001 4.754167e-001 4.851744e-001 4.961156e-001 4.940076e-001 7.196561e-001
<GCONST> 1.213121e+002
<TRANSP> 3
 0.000000e+000 1.000000e+000 0.000000e+000
 0.000000e+000 9.981921e-001 1.807852e-003
 0.000000e+000 0.000000e+000 0.000000e+000
<ENDHMM>
~h "ZLR"
<BEGINHMM>
<NUMSTATES> 3
<STATE> 2
<NUMMIXES> 4
<MIXTURE> 1 2.102593e-001
<MEAN> 39
 -8.335854e+000 2.930030e+000 3.060004e+000 5.254138e+000 7.486605e+000 3.781028e+000 6.547019e+000 3.627185e+000 4.634975e+000 1.226090e+000 5.488737e+000 4.320031e+000 5.345866e+001 1.570182e-002 3.975819e-002 3.060479e-002 9.319725e-002 1.203422e-001 1.457291e-001 9.734496e-002 1.052548e-001 8.666750e-002 8.999816e-002 7.707951e-002 7.726435e-002 -2.491986e-001 -2.147001e-003 -2.284498e-002 -4.976045e-003 -4.928758e-002 -4.355814e-002 -3.723436e-002 -1.923688e-002 -4.766270e-002 -1.543069e-002 -4.521387e-004 -2.402681e-002 -1.399773e-002 8.645745e-002
<VARIANCE> 39
 1.360743e+001 1.724270e+001 8.421500e+000 8.851871e+000 1.266181e+001 1.415642e+001 1.176366e+001 1.348650e+001 1.249779e+001 1.371114e+001 1.118727e+001 1.011288e+001 2.046019e+001 7.872360e-001 7.150158e-001 6.797827e-001 8.301876e-001 1.140165e+000 1.395665e+000 1.215140e+000 1.437246e+000 1.292612e+000 1.249801e+000 1.206676e+000 1.065760e+000 9.720746e-001 1.329509e-001 1.338709e-001 1.277351e-001 1.648264e-001 2.073007e-001 2.488585e-001 2.346414e-001 2.605478e-001 2.425575e-001 2.408233e-001 2.205463e-001 2.080775e-001 1.724475e-001
<GCONST> 8.384339e+001
<MIXTURE> 2 3.653646e-001
<MEAN> 39
 -2.392826e+000 1.410050e+000 1.367618e+000 -1.023423e+001 -2.268023e+000 -9.330222e+000 -2.663312e+000 -1.002896e+001 -4.763569e+000 -3.935598e+000 -6.229178e+000 -2.732481e+000 7.228960e+001 -3.834202e-001 4.675756e-001 1.941328e-001 1.019855e+000 3.318180e-001 6.100756e-001 2.066396e-001 4.388973e-001 1.878341e-001 1.062126e-001 4.865212e-001 2.118270e-001 -7.741987e-001 -2.516587e-001 6.104382e-002 8.382143e-003 3.942801e-001 1.402630e-001 3.089834e-001 1.082143e-001 2.453233e-001 1.442967e-001 1.131802e-001 2.457844e-001 6.913089e-002 -2.507251e-001
<VARIANCE> 39
 2.539248e+001 5.751303e+001 6.873888e+001 8.201865e+001 6.217743e+001 5.925197e+001 5.007942e+001 4.866117e+001 4.870774e+001 5.221072e+001 3.760897e+001 2.511100e+001 3.337749e+001 2.582949e+000 3.492666e+000 2.725703e+000 7.516975e+000 3.758995e+000 4.440326e+000 3.587691e+000 5.093168e+000 3.183575e+000 3.166865e+000 2.754955e+000 2.035695e+000 3.451098e+000 3.914776e-001 6.342134e-001 4.964847e-001 1.352897e+000 7.197077e-001 8.955566e-001 6.992835e-001 1.002379e+000 6.332636e-001 6.363382e-001 5.022976e-001 4.323547e-001 5.969394e-001
<GCONST> 1.324866e+002
<MIXTURE> 3 2.498488e-001
<MEAN> 39
 -3.449984e+000 1.306746e+000 8.795967e-001 -7.764349e+000 -1.841512e+000 -7.883453e+000 -3.148216e+000 -9.711446e+000 -4.408072e+000 -3.660161e+000 -5.247165e+000 -3.408169e+000 7.182387e+001 8.852388e-001 -3.094106e-001 -1.688194e-001 -1.353124e+000 -4.973162e-001 -1.021148e+000 -4.616514e-001 -9.016299e-001 -5.203669e-001 -4.370956e-001 -9.536027e-001 -5.092903e-001 9.328085e-001 -3.680186e-002 7.976271e-003 -9.109640e-004 -7.797314e-002 8.477153e-002 5.895348e-002 1.394440e-001 1.369935e-001 7.331726e-002 2.585729e-002 2.431514e-002 1.001025e-001 -9.233307e-002
<VARIANCE> 39
 3.342116e+001 5.772419e+001 6.372197e+001 8.269274e+001 5.891182e+001 5.573939e+001 4.318896e+001 6.704070e+001 4.549090e+001 5.120554e+001 4.221540e+001 2.920761e+001 3.096994e+001 3.797125e+000 4.013687e+000 3.705830e+000 9.149496e+000 4.981061e+000 6.401960e+000 4.584181e+000 8.105207e+000 4.235342e+000 4.258996e+000 4.072242e+000 3.079743e+000 4.174139e+000 5.174436e-001 7.319633e-001 6.042697e-001 1.508343e+000 7.911982e-001 9.667239e-001 7.390830e-001 1.346861e+000 6.353028e-001 7.369681e-001 6.147222e-001 5.251362e-001 6.794414e-001
<GCONST> 1.387460e+002
<MIXTURE> 4 1.745224e-001
<MEAN> 39
 -1.447689e+001 3.881221e+000 1.800541e+000 2.219023e+000 2.945235e+000 8.288103e-001 4.019118e+000 1.305794e+000 3.190326e+000 1.152325e+000 4.491372e+000 2.384776e+000 6.352316e+001 -4.734747e-001 -5.870243e-001 -1.918764e-001 -3.117619e-001 -1.207400e-001 2.515639e-003 1.119336e-001 2.418110e-001 2.391536e-001 3.006126e-001 2.456310e-001 1.959933e-001 5.780004e-001 5.822262e-001 -1.120500e-001 -1.135960e-002 -6.548580e-001 -3.641180e-001 -6.869778e-001 -4.061405e-001 -6.540291e-001 -3.888132e-001 -2.749322e-001 -5.202834e-001 -2.698075e-001 5.543398e-001
<VARIANCE> 39
 6.761505e+001 3.010454e+001 4.007693e+001 3.753622e+001 3.564895e+001 2.857310e+001 2.458972e+001 2.818785e+001 2.617680e+001 2.326814e+001 2.139786e+001 1.674698e+001 7.273479e+001 5.826922e+000 3.697862e+000 3.445074e+000 4.916710e+000 4.201686e+000 5.173062e+000 3.519968e+000 4.996729e+000 3.531741e+000 3.172335e+000 3.479172e+000 2.142940e+000 7.966648e+000 9.103857e-001 6.874664e-001 5.944256e-001 8.475208e-001 7.303410e-001 7.162927e-001 5.994337e-001 7.129675e-001 5.545392e-001 5.400037e-001 5.272015e-001 3.973718e-001 1.566323e+000
<GCONST> 1.300337e+002
<TRANSP> 3
 0.000000e+000 1.000000e+000 0.000000e+000
 0.000000e+000 9.983712e-001 1.628753e-003
 0.000000e+000 0.000000e+000 0.000000e+000
<ENDHMM>
~h "ZNM"
<BEGINHMM>
<NUMSTATES> 3
<STATE> 2
<NUMMIXES> 4
<MIXTURE> 1 1.963599e-001
<MEAN> 39
 -1.446829e+001 -1.284440e+000 1.336161e+000 -3.406717e-001 -5.815716e-002 -3.795547e+000 5.192836e+000 1.327436e+000 4.064884e+000 7.794663e-001 3.010933e+000 3.704958e-001 5.459986e+001 -6.768829e-001 7.080218e-002 -1.295478e-001 5.699268e-001 5.157649e-001 1.129223e+000 3.153699e-001 8.778636e-001 8.890118e-001 5.271958e-001 7.003058e-001 6.326396e-001 -8.125408e-001 1.166799e-001 -1.115416e-001 1.262745e-003 -2.234608e-001 -2.920228e-002 -1.723124e-001 4.702095e-002 -1.057904e-001 -9.187863e-002 3.343172e-002 -2.462735e-002 1.151939e-002 1.481131e-001
<VARIANCE> 39
