~o
<STREAMINFO> 1 39
<VECSIZE> 39<NULLD><MFCC_D_A_0><DIAGC>
~h "MJ"
<BEGINHMM>
<NUMSTATES> 3
<STATE> 2
<NUMMIXES> 2
<MIXTURE> 1 5.068337e-001
<MEAN> 39
 -8.352587e+000 -2.813051e+000 -1.685344e+000 -8.992805e+000 -7.726470e+000 -7.465472e+000 -9.547112e+000 -2.897098e+000 -1.019474e+000 2.933153e+000 -9.664917e-001 -2.846320e+000 6.458234e+001 -2.057833e-001 1.302893e-001 -6.073768e-002 1.860099e-001 2.181504e-001 1.196173e-002 3.459459e-001 1.677589e-002 2.298529e-001 2.345475e-002 8.273815e-002 1.768475e-001 -1.379368e-001 3.114403e-002 2.519166e-002 4.220428e-002 5.931445e-002 -3.253052e-002 1.719834e-002 6.313406e-003 -2.351786e-002 -4.507176e-003 -2.855489e-002 2.035196e-002 -2.116681e-002 -4.541188e-002
<VARIANCE> 39
 7.572717e+001 3.637207e+001 7.057786e+001 4.847145e+001 5.052934e+001 6.500526e+001 6.919307e+001 4.069007e+001 5.156803e+001 3.156370e+001 3.552033e+001 2.810881e+001 6.325595e+001 3.050775e+000 2.137543e+000 2.577531e+000 2.894323e+000 2.900227e+000 3.149807e+000 3.739413e+000 2.943331e+000 3.176258e+000 2.222068e+000 2.279642e+000 1.985303e+000 2.445626e+000 4.890334e-001 3.817672e-001 4.070449e-001 5.022526e-001 5.346822e-001 5.532753e-001 6.890149e-001 5.527602e-001 5.843610e-001 4.230546e-001 4.354699e-001 3.831741e-001 3.800396e-001
<GCONST> 1.254728e+002
<MIXTURE> 2 4.931679e-001
<MEAN> 39
 -7.211840e+000 -2.992068e+000 -6.369488e-001 -8.243308e+000 -9.253706e+000 -7.269969e+000 -1.025474e+001 -3.238441e+000 -2.030793e+000 2.280268e+000 -8.257803e-001 -3.940096e+000 6.364935e+001 2.132932e-001 -1.340868e-001 6.299020e-002 -1.904964e-001 -2.246035e-001 -1.014922e-002 -3.538886e-001 -1.750521e-002 -2.402400e-001 -2.550649e-002 -8.923005e-002 -1.806289e-001 1.412005e-001 -3.212927e-002 -2.565766e-002 -4.346679e-002 -6.126504e-002 3.297053e-002 -1.760253e-002 -6.305825e-003 2.418558e-002 4.431948e-003 2.905455e-002 -2.089325e-002 2.224150e-002 4.671005e-002
<VARIANCE> 39
 5.202709e+001 3.065055e+001 8.190658e+001 4.421847e+001 5.266528e+001 5.530408e+001 6.892268e+001 4.235477e+001 5.602033e+001 3.090217e+001 3.862794e+001 3.194742e+001 7.307005e+001 2.940027e+000 1.934432e+000 2.882946e+000 2.815264e+000 3.175941e+000 3.122907e+000 4.199132e+000 3.213816e+000 3.463729e+000 2.293408e+000 2.559563e+000 2.309277e+000 2.274301e+000 3.674068e-001 3.251800e-001 4.020264e-001 4.855692e-001 5.334788e-001 5.073581e-001 7.046146e-001 5.920336e-001 6.074466e-001 4.327981e-001 4.576344e-001 4.150522e-001 3.801166e-001
<GCONST> 1.255641e+002
<TRANSP> 3
 0.000000e+000 1.000000e+000 0.000000e+000
 0.000000e+000 9.984397e-001 1.560251e-003
 0.000000e+000 0.000000e+000 0.000000e+000
<ENDHMM>
~h "PB"
<BEGINHMM>
<NUMSTATES> 3
<STATE> 2
<NUMMIXES> 2
<MIXTURE> 1 5.119554e-001
<MEAN> 39
 -8.154965e+000 3.281022e+000 6.185461e-001 -7.538286e-001 -3.885543e+000 5.943187e-001 -2.375397e+000 1.827634e+000 1.752221e+000 1.276529e+000 1.470313e+000 -1.565722e+000 5.710160e+001 -1.867044e-001 2.150896e-001 -1.423215e-001 2.530732e-001 2.738561e-001 2.760611e-002 3.280758e-001 3.844684e-003 1.078914e-001 1.048044e-001 -2.934063e-003 2.152289e-001 -3.461795e-001 2.438362e-002 -1.684430e-002 3.238651e-002 -1.173812e-002 -7.691747e-003 4.331946e-003 -1.636845e-002 4.782240e-004 -3.808884e-003 -4.475962e-004 -1.166274e-002 7.469122e-004 3.782104e-002
<VARIANCE> 39
 4.900129e+001 2.680418e+001 3.853368e+001 2.914096e+001 4.896233e+001 3.261898e+001 5.062605e+001 2.592358e+001 2.394321e+001 2.017740e+001 1.914176e+001 2.879609e+001 7.546217e+001 1.247652e+000 1.458524e+000 1.241556e+000 1.611038e+000 1.736741e+000 1.735143e+000 1.988230e+000 1.837246e+000 1.719637e+000 1.607761e+000 1.562135e+000 1.495892e+000 1.255972e+000 2.905307e-001 2.392315e-001 2.463580e-001 3.004279e-001 3.524081e-001 3.389345e-001 4.085881e-001 3.637804e-001 3.508730e-001 3.268173e-001 3.138953e-001 3.107860e-001 2.410939e-001
<GCONST> 1.078204e+002
<MIXTURE> 2 4.880452e-001
<MEAN> 39
 -3.690221e+000 1.920399e+000 5.013895e+000 -4.231221e+000 -1.011862e+001 -9.225782e-001 -9.209062e+000 5.213431e-001 9.455972e-002 -9.141222e-002 1.076741e+000 -5.607684e+000 6.700995e+001 1.953645e-001 -2.254433e-001 1.497002e-001 -2.654779e-001 -2.872930e-001 -2.988954e-002 -3.450344e-001 -4.492273e-003 -1.129205e-001 -1.099368e-001 4.177525e-003 -2.237232e-001 3.633585e-001 -2.515159e-002 1.759890e-002 -3.400453e-002 1.217642e-002 8.917740e-003 -4.124954e-003 1.729631e-002 -5.514703e-004 3.772386e-003 1.258421e-004 1.256970e-002 3.948111e-004 -3.983040e-002
<VARIANCE> 39
 5.539582e+001 6.534494e+001 7.478825e+001 5.380749e+001 7.651757e+001 5.416564e+001 6.019484e+001 4.721444e+001 4.342354e+001 3.587933e+001 3.245338e+001 4.199722e+001 4.566955e+001 4.373747e+000 4.003172e+000 4.165988e+000 4.257563e+000 5.738725e+000 3.782586e+000 5.006995e+000 4.162137e+000 3.388117e+000 2.890413e+000 2.859231e+000 3.476745e+000 3.480719e+000 5.617012e-001 6.562511e-001 6.046827e-001 7.408169e-001 9.591587e-001 6.452259e-001 8.891751e-001 7.553059e-001 6.181061e-001 5.435138e-001 5.451601e-001 6.092393e-001 5.446158e-001
<GCONST> 1.350421e+002
<TRANSP> 3
 0.000000e+000 1.000000e+000 0.000000e+000
 0.000000e+000 9.985553e-001 1.444716e-003
 0.000000e+000 0.000000e+000 0.000000e+000
<ENDHMM>
~h "TOMAS"
<BEGINHMM>
<NUMSTATES> 3
<STATE> 2
<NUMMIXES> 2
<MIXTURE> 1 5.219142e-001
<MEAN> 39
 -6.740799e+000 4.145776e+000 3.832354e+000 -6.658158e-001 1.300186e+000 -2.208504e+000 6.372587e-001 1.035262e+000 1.698748e+000 2.066571e+000 2.379785e+000 2.657974e+000 5.885477e+001 -1.428690e-001 1.646142e-001 -9.748752e-002 2.163627e-001 2.891444e-001 -2.411237e-003 2.583628e-001 4.214441e-002 1.881624e-001 1.012575e-001 1.044017e-001 7.692572e-002 -3.705034e-001 -7.793942e-003 -3.183898e-002 2.906916e-002 7.740349e-003 -5.711951e-002 -9.843118e-003 -1.208345e-002 -3.668447e-003 -1.001655e-002 -1.128490e-002 1.223629e-002 -4.254116e-003 4.746339e-002
<VARIANCE> 39
 5.541996e+001 2.846847e+001 3.580046e+001 4.702118e+001 3.759995e+001 4.527081e+001 4.502755e+001 4.151482e+001 3.759293e+001 2.868462e+001 2.624845e+001 1.905465e+001 6.098603e+001 1.117438e+000 1.115257e+000 1.110643e+000 1.670664e+000 1.845261e+000 2.059292e+000 1.790069e+000 1.881786e+000 1.981962e+000 1.682925e+000 1.647550e+000 1.419054e+000 9.329038e-001 1.871733e-001 1.861604e-001 2.051920e-001 3.016157e-001 3.356905e-001 4.050818e-001 3.528943e-001 3.707400e-001 3.838993e-001 3.405710e-001 3.179712e-001 2.821951e-001 1.628966e-001
<GCONST> 1.076950e+002
<MIXTURE> 2 4.780841e-001
<MEAN> 39
 -4.555185e+000 3.918107e+000 6.976662e+000 -1.733328e+000 -3.405500e+000 -4.137781e+000 -3.692266e+000 -2.143696e+000 -7.355751e-001 4.561083e-001 2.092007e+000 1.681189e+000 6.546304e+001 1.508574e-001 -1.682470e-001 1.054706e-001 -2.375196e-001 -3.134522e-001 3.172259e-003 -2.795130e-001 -4.868820e-002 -2.117171e-001 -9.452593e-002 -1.099184e-001 -9.457886e-002 4.050615e-001 6.769557e-003 3.605416e-002 -3.313110e-002 -6.794068e-003 5.854185e-002 1.309152e-002 1.031924e-002 4.501272e-003 9.856204e-003 1.290205e-002 -1.369010e-002 3.416511e-003 -5.040272e-002
<VARIANCE> 39
 6.194072e+001 4.085585e+001 6.874880e+001 6.216151e+001 7.270441e+001 5.894883e+001 5.707622e+001 4.544745e+001 5.489700e+001 3.856311e+001 3.397314e+001 2.369599e+001 4.398185e+001 3.881819e+000 2.627283e+000 3.499254e+000 3.654557e+000 5.015016e+000 4.339216e+000 4.217019e+000 3.431743e+000 3.859568e+000 2.732252e+000 2.520541e+000 2.094071e+000 2.762353e+000 5.139480e-001 4.219332e-001 5.170589e-001 5.763471e-001 8.729370e-001 7.401100e-001 7.642160e-001 6.070194e-001 6.811274e-001 4.966420e-001 4.639396e-001 3.976330e-001 4.312792e-001
<GCONST> 1.303293e+002
<TRANSP> 3
 0.000000e+000 1.000000e+000 0.000000e+000
 0.000000e+000 9.973280e-001 2.671971e-003
 0.000000e+000 0.000000e+000 0.000000e+000
<ENDHMM>
~h "CERNY"
<BEGINHMM>
<NUMSTATES> 3
<STATE> 2
<NUMMIXES> 2
<MIXTURE> 1 5.387854e-001
<MEAN> 39
 -1.123658e+001 -5.791961e-001 -1.933553e+000 -2.363135e+000 -2.409937e+000 -1.567844e+000 -2.472752e+000 -5.303968e-001 1.870789e-001 5.449412e-001 3.035099e-001 -3.563032e-001 6.169151e+001 -9.759218e-002 7.939334e-002 -3.674390e-002 1.353662e-001 1.597013e-001 1.391073e-001 2.102472e-001 6.828859e-003 -1.466059e-002 1.395395e-002 1.001801e-001 1.065903e-001 -1.314501e-001 1.070425e-002 -2.979004e-002 1.734487e-002 -2.054157e-002 -3.706425e-002 -3.096996e-002 -5.336851e-002 2.200268e-002 3.615233e-002 2.045240e-002 -1.831310e-003 -3.368499e-003 3.600568e-002
<VARIANCE> 39
 1.341902e+001 1.055940e+001 1.407511e+001 2.363773e+001 1.936766e+001 1.716863e+001 2.783993e+001 1.725708e+001 1.533049e+001 1.533778e+001 1.261174e+001 1.481741e+001 1.130630e+001 3.678098e-001 4.934115e-001 6.295464e-001 9.654204e-001 1.056246e+000 1.169837e+000 1.459015e+000 1.395007e+000 1.384014e+000 1.336031e+000 1.191192e+000 1.106954e+000 2.418196e-001 7.253056e-002 9.170370e-002 1.162749e-001 1.878810e-001 2.125102e-001 2.356663e-001 3.027241e-001 2.845281e-001 2.831765e-001 2.767306e-001 2.462391e-001 2.231658e-001 4.867724e-002
<GCONST> 8.297201e+001
<MIXTURE> 2 4.612119e-001
<MEAN> 39
 -9.124085e+000 -2.131903e+000 -2.514333e-001 -6.137180e+000 -7.194143e+000 -4.928870e+000 -9.358932e+000 -2.329808e-001 1.585222e+000 1.978899e+000 -4.815519e-001 -2.472969e+000 6.692215e+001 1.133156e-001 -9.080146e-002 4.296690e-002 -1.572284e-001 -1.860674e-001 -1.626897e-001 -2.470696e-001 -7.101605e-003 1.336722e-002 -1.455939e-002 -1.197281e-001 -1.231089e-001 1.527763e-001 -1.243617e-002 3.437782e-002 -1.981154e-002 2.360959e-002 4.294850e-002 3.605774e-002 6.213256e-002 -2.606117e-002 -4.214080e-002 -2.465580e-002 2.631255e-003 3.774404e-003 -4.215046e-002
<VARIANCE> 39
 2.451012e+001 3.097869e+001 4.494535e+001 5.608266e+001 4.301940e+001 3.955656e+001 5.361425e+001 4.003608e+001 3.569868e+001 3.384649e+001 2.006480e+001 3.121362e+001 1.555401e+001 1.671559e+000 2.138016e+000 2.140966e+000 3.252823e+000 3.359714e+000 2.711589e+000 4.438949e+000 3.216844e+000 2.797323e+000 2.600652e+000 1.756853e+000 1.991596e+000 1.162908e+000 2.281180e-001 3.331217e-001 3.202014e-001 5.107520e-001 5.775726e-001 4.902327e-001 7.877494e-001 5.964906e-001 5.061007e-001 4.725061e-001 3.419181e-001 3.571167e-001 1.901705e-001
<GCONST> 1.174061e+002
<TRANSP> 3
 0.000000e+000 1.000000e+000 0.000000e+000
 0.000000e+000 9.986002e-001 1.399776e-003
 0.000000e+000 0.000000e+000 0.000000e+000
<ENDHMM>
~h "ZSS2"
<BEGINHMM>
<NUMSTATES> 3
<STATE> 2
<NUMMIXES> 2
<MIXTURE> 1 4.827488e-001
<MEAN> 39
 -9.334180e+000 3.490727e+000 2.433731e+000 1.800812e+000 3.785630e+000 1.732658e+000 4.040081e+000 2.174438e+000 3.129460e+000 3.010288e+000 2.383918e+000 2.598515e+000 5.878517e+001 -4.492594e-001 2.764090e-002 5.283385e-002 4.341280e-001 5.418327e-001 2.985237e-001 4.447656e-001 2.707620e-001 4.949033e-001 1.131163e-001 5.640094e-001 5.640817e-002 -4.767690e-001 6.986061e-002 -1.105603e-001 -2.938961e-002 -1.505346e-001 -1.323885e-001 -5.036850e-002 -8.528968e-002 -3.941450e-002 -1.000610e-001 -4.323297e-003 -1.244160e-001 6.985136e-003 1.657831e-001
<VARIANCE> 39
 5.864426e+001 2.388796e+001 2.622002e+001 3.380969e+001 5.098756e+001 3.313750e+001 4.048757e+001 3.025196e+001 4.042744e+001 2.154363e+001 4.451359e+001 1.871292e+001 6.187062e+001 2.378723e+000 1.459784e+000 1.403060e+000 2.280999e+000 2.766247e+000 2.124328e+000 2.187192e+000 1.905300e+000 2.385382e+000 1.902960e+000 2.333422e+000 1.501394e+000 2.557178e+000 3.788188e-001 2.750984e-001 2.485106e-001 3.990980e-001 4.919009e-001 4.186576e-001 3.872150e-001 3.637673e-001 4.430648e-001 3.743330e-001 4.101273e-001 3.004869e-001 5.132997e-001
<GCONST> 1.145140e+002
<MIXTURE> 2 5.172484e-001
<MEAN> 39
 -3.315332e+000 1.635264e+000 8.685318e-001 -7.000494e+000 -5.558472e+000 -4.051150e+000 -4.212489e+000 -2.454389e+000 -4.884025e+000 1.737362e+000 -7.544113e+000 3.914623e-001 6.903335e+001 4.237384e-001 -2.692025e-002 -4.906517e-002 -4.001521e-001 -5.025674e-001 -2.740170e-001 -4.158250e-001 -2.572499e-001 -4.586528e-001 -1.065691e-001 -5.246916e-001 -5.179112e-002 4.383675e-001 -6.489308e-002 1.034956e-001 2.739502e-002 1.395825e-001 1.231179e-001 4.715691e-002 7.964773e-002 3.587024e-002 9.256580e-002 4.337968e-003 1.166204e-001 -6.777408e-003 -1.546894e-001
<VARIANCE> 39
 5.500881e+001 5.146463e+001 6.221983e+001 5.949969e+001 7.495609e+001 5.263619e+001 5.725606e+001 4.449499e+001 5.545114e+001 4.397572e+001 6.011129e+001 2.944015e+001 3.352815e+001 4.819713e+000 3.826175e+000 3.608276e+000 5.404967e+000 6.176199e+000 4.872729e+000 4.685735e+000 3.719525e+000 4.655580e+000 3.904855e+000 5.414687e+000 2.615690e+000 4.025218e+000 7.941764e-001 6.353379e-001 5.972680e-001 9.018058e-001 1.111807e+000 9.010932e-001 8.327382e-001 6.952839e-001 8.342508e-001 7.518769e-001 9.743180e-001 4.968769e-001 6.366379e-001
<GCONST> 1.383558e+002
<TRANSP> 3
 0.000000e+000 1.000000e+000 0.000000e+000
 0.000000e+000 9.982025e-001 1.797483e-003
 0.000000e+000 0.000000e+000 0.000000e+000
<ENDHMM>
~h "SMOLA"
<BEGINHMM>
<NUMSTATES> 3
<STATE> 2
<NUMMIXES> 2
<MIXTURE> 1 4.404775e-001
<MEAN> 39
 -1.063244e+001 4.439739e+000 2.588895e-001 2.642347e+000 7.260836e-001 5.583912e-001 -8.425700e-001 4.027643e+000 -3.170259e-001 1.178737e+000 3.957785e+000 1.102757e-001 5.106805e+001 -4.353140e-001 3.422496e-001 -1.285287e-001 2.531700e-001 2.214527e-001 3.011921e-001 4.374427e-001 -1.506150e-001 4.508916e-001 7.260354e-002 9.342187e-003 3.135149e-001 -4.918680e-001 1.004068e-001 -1.426912e-001 4.204059e-002 -1.194317e-001 -6.033131e-002 -3.435441e-002 -8.988659e-002 -1.734497e-002 -8.966294e-002 -4.077904e-002 -3.980346e-002 -7.757537e-002 2.231525e-001
<VARIANCE> 39
 5.603147e+001 3.609291e+001 2.689808e+001 4.751516e+001 3.442167e+001 6.710175e+001 5.369577e+001 3.616039e+001 6.177261e+001 2.549826e+001 2.265596e+001 3.009458e+001 1.402368e+002 2.177043e+000 2.248588e+000 1.529657e+000 2.107524e+000 1.917137e+000 2.313786e+000 2.452231e+000 1.989927e+000 2.973265e+000 1.791997e+000 1.778060e+000 1.673515e+000 3.964213e+000 3.827144e-001 3.868237e-001 2.856205e-001 3.837596e-001 3.710221e-001 4.873742e-001 4.810780e-001 3.923502e-001 5.935395e-001 3.616444e-001 3.482680e-001 3.285330e-001 7.047118e-001
<GCONST> 1.190078e+002
<MIXTURE> 2 5.595202e-001
<MEAN> 39
 -3.648713e+000 -3.113254e+000 2.101054e+000 -4.991691e+000 -5.820299e+000 -4.640388e+000 -9.897344e+000 2.025234e+000 -7.796978e+000 -1.307054e+000 3.742907e+000 -6.027967e+000 6.556600e+001 3.427165e-001 -2.674181e-001 1.210213e-001 -2.192653e-001 -1.593285e-001 -2.287836e-001 -3.295819e-001 8.867988e-002 -3.956779e-001 -6.957278e-002 -1.636887e-002 -2.581586e-001 4.097827e-001 -8.057877e-002 1.114346e-001 -3.243684e-002 9.220774e-002 5.070288e-002 2.859798e-002 7.006492e-002 1.324670e-002 7.088199e-002 3.344963e-002 2.884050e-002 5.938983e-002 -1.749292e-001
<VARIANCE> 39
 4.821525e+001 6.277187e+001 6.295222e+001 6.277648e+001 5.585614e+001 5.135987e+001 6.082471e+001 4.768020e+001 5.902089e+001 3.880950e+001 3.051237e+001 2.767200e+001 5.442861e+001 3.925250e+000 4.525212e+000 3.485146e+000 5.143626e+000 4.092459e+000 4.452903e+000 5.786512e+000 4.117362e+000 6.097588e+000 2.934399e+000 2.589014e+000 2.637810e+000 5.832354e+000 5.541794e-001 7.056355e-001 5.566362e-001 8.522738e-001 7.171412e-001 7.843434e-001 1.055831e+000 7.697459e-001 1.103867e+000 5.312521e-001 4.925502e-001 4.681987e-001 8.714812e-001
<GCONST> 1.361807e+002
<TRANSP> 3
 0.000000e+000 1.000000e+000 0.000000e+000
 0.000000e+000 9.966092e-001 3.390863e-003
 0.000000e+000 0.000000e+000 0.000000e+000
<ENDHMM>
~h "NOZICKA"
<BEGINHMM>
<NUMSTATES> 3
<STATE> 2
<NUMMIXES> 2
<MIXTURE> 1 4.610127e-001
<MEAN> 39
 -1.381668e+001 -1.151487e+001 1.199582e+001 -1.309870e+001 -5.158001e-001 4.553519e-001 -3.648747e+000 -1.911780e+000 -1.425708e+000 -3.408869e+000 3.564859e+000 -3.487271e+000 6.058715e+001 -1.249245e-001 -9.253442e-002 1.795853e-001 -1.805775e-001 2.999205e-001 -2.413200e-001 2.479068e-001 -3.968374e-002 1.814299e-001 8.698893e-002 1.398948e-001 1.518575e-001 3.914673e-001 2.699118e-002 -7.010255e-002 2.208083e-002 -2.832163e-002 -8.162469e-002 5.051524e-002 -3.399565e-002 2.743225e-002 3.225042e-002 -1.767146e-002 5.519456e-002 1.088211e-002 8.191437e-002
<VARIANCE> 39
 1.152117e+002 1.357484e+002 1.502469e+002 1.444981e+002 1.562568e+002 1.559756e+002 1.180784e+002 9.365158e+001 1.088748e+002 7.207027e+001 5.782668e+001 4.290129e+001 2.346331e+002 5.331460e+000 7.240028e+000 6.174012e+000 8.296400e+000 1.016746e+001 8.600913e+000 7.797923e+000 5.428541e+000 7.033162e+000 4.603908e+000 4.424523e+000 2.921494e+000 7.278227e+000 7.364612e-001 1.062498e+000 9.688340e-001 1.373146e+000 1.733713e+000 1.385230e+000 1.367444e+000 9.437161e-001 1.188469e+000 8.470203e-001 7.950131e-001 5.596187e-001 1.043830e+000
<GCONST> 1.572133e+002
<MIXTURE> 2 5.389869e-001
<MEAN> 39
 -1.739777e+001 -8.551105e+000 4.118134e+000 -7.563821e+000 -4.940307e+000 2.901335e+000 -4.917436e+000 -1.087798e-001 1.594286e-001 -3.086954e+000 3.207077e+000 -2.423616e+000 4.918861e+001 1.058475e-001 7.293840e-002 -1.513312e-001 1.455790e-001 -2.476639e-001 2.087118e-001 -2.190202e-001 3.332404e-002 -1.598073e-001 -6.558079e-002 -1.171870e-001 -1.326279e-001 -3.292672e-001 -2.477366e-002 6.124017e-002 -1.375557e-002 2.380178e-002 7.072706e-002 -4.447313e-002 2.675653e-002 -2.216969e-002 -3.115297e-002 1.425206e-002 -4.570499e-002 -9.678766e-003 -7.051261e-002
<VARIANCE> 39
 1.152690e+002 1.602803e+002 2.215042e+002 1.616655e+002 8.873582e+001 8.922929e+001 6.654909e+001 5.204720e+001 6.079694e+001 4.455115e+001 4.148276e+001 2.976562e+001 5.240430e+002 1.627648e+000 2.496412e+000 1.915737e+000 2.788903e+000 3.110516e+000 3.061559e+000 3.263059e+000 2.564598e+000 3.247062e+000 2.311676e+000 2.187944e+000 1.693567e+000 1.885293e+000 2.240648e-001 3.634163e-001 2.998245e-001 4.495746e-001 5.048973e-001 4.800872e-001 5.399842e-001 4.449974e-001 5.394242e-001 4.109079e-001 3.999904e-001 3.090317e-001 2.499822e-001
<GCONST> 1.294755e+002
<TRANSP> 3
 0.000000e+000 1.000000e+000 0.000000e+000
 0.000000e+000 9.977571e-001 2.242944e-003
 0.000000e+000 0.000000e+000 0.000000e+000
<ENDHMM>
~h "DAVID"
<BEGINHMM>
<NUMSTATES> 3
<STATE> 2
<NUMMIXES> 2
<MIXTURE> 1 5.080467e-001
<MEAN> 39
 -1.191229e+001 1.186851e+000 -1.117655e+000 -2.952208e+000 -1.780514e-001 -2.038476e+000 -3.894707e-001 -2.493028e-001 -1.642961e+000 6.459844e-001 -7.490918e-001 -8.400283e-001 6.653194e+001 -2.156516e-001 6.402408e-002 -4.545089e-002 1.424413e-001 1.024138e-001 5.157011e-002 2.187581e-001 -2.709504e-002 1.692798e-001 -1.036059e-002 1.075435e-001 1.810266e-001 -1.361231e-001 1.946548e-002 2.277680e-002 5.033185e-002 1.282822e-002 -1.155427e-002 -1.711584e-002 -1.407537e-002 -1.965195e-002 -2.558556e-002 -6.398294e-003 4.377936e-003 -9.891186e-003 2.371554e-002
<VARIANCE> 39
 5.402208e+001 2.106163e+001 2.746043e+001 4.239370e+001 2.261266e+001 2.492597e+001 3.258376e+001 2.747654e+001 3.979622e+001 1.950769e+001 2.442716e+001 1.862848e+001 7.245568e+001 1.632043e+000 1.074764e+000 1.172223e+000 1.961948e+000 1.481281e+000 1.635764e+000 1.993582e+000 2.027991e+000 2.199890e+000 1.695375e+000 1.663848e+000 1.297118e+000 1.184686e+000 2.942076e-001 1.766200e-001 2.053839e-001 3.638681e-001 2.675175e-001 3.006040e-001 3.814001e-001 3.855249e-001 4.226872e-001 3.361921e-001 3.210575e-001 2.578377e-001 2.464063e-001
<GCONST> 1.060630e+002
<MIXTURE> 2 4.919529e-001
<MEAN> 39
 -9.460659e+000 2.203542e+000 2.870814e+000 -5.038341e+000 -2.312089e+000 -3.656504e+000 -3.224511e+000 -8.791832e-001 -5.894033e+000 7.689694e-001 -1.441639e+000 -3.482311e+000 7.295948e+001 2.230743e-001 -6.744596e-002 4.712754e-002 -1.462420e-001 -1.045236e-001 -5.044054e-002 -2.242072e-001 2.555190e-002 -1.776974e-001 6.724101e-003 -1.135190e-001 -1.844474e-001 1.408837e-001 -2.006522e-002 -2.377334e-002 -5.204356e-002 -1.391986e-002 1.065997e-002 1.514451e-002 1.303956e-002 2.063149e-002 2.636470e-002 7.019697e-003 -3.715745e-003 1.132721e-002 -2.476582e-002
<VARIANCE> 39
 6.150899e+001 3.216101e+001 7.163087e+001 5.317959e+001 4.701366e+001 3.595773e+001 5.319956e+001 5.081125e+001 6.481676e+001 2.800684e+001 3.102501e+001 2.762507e+001 4.870498e+001 3.826028e+000 2.167992e+000 3.167658e+000 4.300912e+000 3.114217e+000 2.867105e+000 4.021237e+000 4.098148e+000 4.906236e+000 2.577555e+000 2.456909e+000 2.072571e+000 2.993870e+000 4.684080e-001 3.612769e-001 4.312419e-001 7.065743e-001 5.296068e-001 5.296221e-001 6.862870e-001 7.553540e-001 8.241659e-001 4.916208e-001 4.590062e-001 3.719941e-001 4.383249e-001
<GCONST> 1.275821e+002
<TRANSP> 3
 0.000000e+000 1.000000e+000 0.000000e+000
 0.000000e+000 9.972219e-001 2.778121e-003
 0.000000e+000 0.000000e+000 0.000000e+000
<ENDHMM>
~h "JAN"
<BEGINHMM>
<NUMSTATES> 3
<STATE> 2
<NUMMIXES> 2
<MIXTURE> 1 5.096329e-001
<MEAN> 39
 -9.860984e+000 -5.398398e+000 -9.246596e-001 -2.224946e+000 -9.970263e+000 3.749223e+000 3.161766e+000 1.268075e-003 -5.639284e-001 1.794686e+000 -7.633005e+000 -5.670250e+000 4.715516e+001 -9.182794e-002 4.520516e-002 -1.902281e-001 4.606431e-002 1.682252e-001 9.093024e-002 2.235854e-001 1.498907e-001 7.039716e-002 -2.653537e-003 2.761482e-002 9.826362e-002 -1.375659e-001 4.783823e-003 -3.530310e-002 5.694228e-002 -2.826381e-002 -1.440551e-002 -2.141451e-003 -3.885047e-002 -5.995530e-003 1.309873e-002 2.578299e-002 -9.763101e-004 -4.692052e-003 3.866305e-002
<VARIANCE> 39
 2.168242e+001 1.880340e+001 5.712620e+001 2.266525e+001 3.052551e+001 2.460523e+001 6.987502e+001 5.485854e+001 2.206199e+001 2.089009e+001 1.526745e+001 1.473702e+001 2.613323e+001 2.773297e-001 6.829052e-001 9.678138e-001 9.919352e-001 1.111352e+000 1.168316e+000 1.589424e+000 1.513083e+000 1.305677e+000 1.294695e+000 1.153998e+000 9.578863e-001 3.250985e-001 5.496614e-002 1.215578e-001 1.730984e-001 1.868503e-001 2.040817e-001 2.156782e-001 3.160155e-001 2.983345e-001 2.563870e-001 2.581037e-001 2.322771e-001 1.862777e-001 5.738562e-002
<GCONST> 9.083652e+001
<MIXTURE> 2 4.903672e-001
<MEAN> 39
 -6.795362e+000 -7.818561e+000 6.849042e+000 -5.211404e+000 -1.524903e+001 7.731193e-001 -4.928930e+000 -5.266441e+000 -1.496030e+000 3.947489e+000 -7.247064e+000 -7.176961e+000 5.304791e+001 9.486330e-002 -4.959095e-002 1.991121e-001 -4.655841e-002 -1.717374e-001 -9.685183e-002 -2.320381e-001 -1.557081e-001 -7.246248e-002 2.586577e-003 -2.881755e-002 -9.952530e-002 1.439963e-001 -4.717161e-003 3.647928e-002 -5.883368e-002 2.905438e-002 1.522176e-002 2.783634e-003 3.976000e-002 6.281019e-003 -1.466231e-002 -2.738912e-002 4.569453e-004 5.822451e-003 -4.007111e-002
<VARIANCE> 39
 2.211512e+001 3.841147e+001 6.437531e+001 4.237402e+001 5.004102e+001 4.809158e+001 6.822237e+001 4.609527e+001 4.048606e+001 3.569447e+001 2.533853e+001 2.468328e+001 2.292532e+001 1.327999e+000 1.999444e+000 2.984113e+000 2.667196e+000 3.093780e+000 2.496489e+000 4.569184e+000 3.207880e+000 2.494070e+000 2.338044e+000 1.889562e+000 1.686549e+000 1.267557e+000 1.719792e-001 2.864635e-001 3.923492e-001 4.184278e-001 4.964730e-001 4.135957e-001 6.891097e-001 5.157126e-001 4.154744e-001 3.969253e-001 3.490745e-001 2.948212e-001 1.541578e-001
<GCONST> 1.165776e+002
<TRANSP> 3
 0.000000e+000 1.000000e+000 0.000000e+000
 0.000000e+000 9.972063e-001 2.793643e-003
 0.000000e+000 0.000000e+000 0.000000e+000
<ENDHMM>
~h "MAR"
<BEGINHMM>
<NUMSTATES> 3
<STATE> 2
<NUMMIXES> 2
<MIXTURE> 1 4.701824e-001
<MEAN> 39
 -8.704799e+000 3.177072e+000 3.140321e+000 2.313642e+000 2.721030e+000 3.699173e-003 3.184164e+000 6.866398e-001 3.269879e+000 5.137792e-001 5.147566e+000 6.856499e-001 6.391049e+001 -3.605432e-001 2.733723e-001 -5.723397e-002 2.930644e-001 3.948076e-001 1.170985e-001 3.098751e-001 1.878596e-001 8.544723e-002 2.565412e-001 -1.977091e-002 3.787815e-001 -6.233712e-001 9.415367e-002 -8.854179e-002 4.843479e-002 -7.110924e-002 -8.417200e-002 -7.274606e-003 -7.421076e-002 -4.898401e-002 -2.645059e-002 -6.432795e-002 -2.562195e-002 -7.471650e-002 1.452273e-001
<VARIANCE> 39
 8.605814e+001 3.377543e+001 4.578538e+001 3.934027e+001 5.654601e+001 4.119571e+001 4.333784e+001 3.413917e+001 2.826551e+001 3.148584e+001 2.168741e+001 3.304641e+001 1.273463e+002 2.801408e+000 1.809073e+000 1.745968e+000 2.032503e+000 2.314781e+000 2.245635e+000 2.287382e+000 2.021092e+000 2.044494e+000 2.021312e+000 1.782135e+000 1.887815e+000 3.543056e+000 4.994872e-001 3.417423e-001 3.134263e-001 4.061895e-001 4.475457e-001 4.371676e-001 4.485926e-001 3.918196e-001 3.998932e-001 3.894978e-001 3.569829e-001 3.572350e-001 7.451192e-001
<GCONST> 1.189677e+002
<MIXTURE> 2 5.298202e-001
<MEAN> 39
 -2.741582e+000 6.845738e-001 4.810164e+000 -9.166880e-001 -3.942868e+000 -1.492465e+000 -3.209246e+000 -4.137681e+000 1.597301e+000 -4.324463e+000 4.510842e+000 -5.070700e+000 7.381832e+001 3.201971e-001 -2.429482e-001 5.313182e-002 -2.591985e-001 -3.500637e-001 -1.063757e-001 -2.767308e-001 -1.685275e-001 -7.746898e-002 -2.282593e-001 1.538813e-002 -3.357329e-001 5.533264e-001 -8.349744e-002 7.894338e-002 -4.326482e-002 6.324645e-002 7.461151e-002 5.972750e-003 6.485645e-002 4.305837e-002 2.312656e-002 5.752990e-002 2.202709e-002 6.574629e-002 -1.285915e-001
<VARIANCE> 39
 5.857312e+001 5.568738e+001 7.399097e+001 6.988046e+001 6.749691e+001 6.556413e+001 5.173952e+001 5.010975e+001 4.967303e+001 5.621743e+001 3.788921e+001 3.966986e+001 4.945784e+001 5.231381e+000 3.945180e+000 3.910918e+000 5.992249e+000 6.045905e+000 5.584652e+000 4.594718e+000 4.679227e+000 3.700068e+000 4.148679e+000 3.811260e+000 3.789039e+000 5.683137e+000 6.851084e-001 6.452898e-001 5.872644e-001 1.023442e+000 1.040241e+000 1.021278e+000 8.073135e-001 8.487810e-001 6.753727e-001 7.367423e-001 7.630412e-001 6.944020e-001 8.976690e-001
<GCONST> 1.405482e+002
<TRANSP> 3
 0.000000e+000 1.000000e+000 0.000000e+000
 0.000000e+000 9.984528e-001 1.547198e-003
 0.000000e+000 0.000000e+000 0.000000e+000
<ENDHMM>
~h "MJB"
<BEGINHMM>
<NUMSTATES> 3
<STATE> 2
<NUMMIXES> 2
<MIXTURE> 1 4.650765e-001
<MEAN> 39
 -8.518714e+000 1.337348e+000 1.221925e+000 1.749093e+000 2.495185e-001 1.440662e+000 -2.486667e+000 2.232155e+000 -8.366679e-001 -3.865128e-001 -7.816847e-001 8.962743e-001 6.026201e+001 -3.574963e-001 1.663674e-001 -3.917940e-002 9.811012e-002 3.027626e-001 -7.086743e-002 3.354348e-001 5.964587e-002 8.582295e-002 1.070303e-001 1.053440e-001 1.821329e-001 -2.513318e-001 4.223737e-002 -6.294458e-002 3.808943e-002 -1.999981e-002 -8.916832e-002 1.844599e-002 -5.397722e-002 -2.544080e-002 -1.110836e-002 -6.105073e-003 -7.400319e-003 -1.159909e-002 8.703542e-002
<VARIANCE> 39
 7.650983e+001 3.339154e+001 4.072005e+001 3.052684e+001 5.756731e+001 4.510440e+001 5.483424e+001 3.808384e+001 4.244032e+001 2.660224e+001 2.856947e+001 2.573441e+001 9.093841e+001 2.201819e+000 1.532858e+000 1.297826e+000 1.540353e+000 2.263521e+000 2.110677e+000 2.037847e+000 2.041614e+000 2.043674e+000 1.737686e+000 1.591616e+000 1.282215e+000 1.474406e+000 3.975345e-001 2.738241e-001 2.387578e-001 3.013096e-001 4.334602e-001 4.083808e-001 4.199136e-001 4.054029e-001 4.099339e-001 3.463965e-001 3.178520e-001 2.603275e-001 2.976653e-001
<GCONST> 1.135539e+002
<MIXTURE> 2 5.349244e-001
<MEAN> 39
 -2.704494e+000 -1.480225e+000 3.269325e+000 5.309535e-003 -6.195514e+000 1.565270e+000 -9.300790e+000 -9.897251e-001 -4.101052e+000 -2.071279e+000 -2.864092e+000 -2.391854e+000 6.967268e+001 3.057377e-001 -1.422965e-001 2.838674e-002 -8.608001e-002 -2.616282e-001 6.437084e-002 -2.829807e-001 -4.676363e-002 -7.062660e-002 -8.621667e-002 -9.151509e-002 -1.556559e-001 2.170802e-001 -3.580842e-002 5.499582e-002 -3.357344e-002 1.696095e-002 7.686669e-002 -1.634420e-002 4.615109e-002 2.172684e-002 1.100058e-002 5.590200e-003 6.104156e-003 9.981631e-003 -7.567003e-002
<VARIANCE> 39
 7.596087e+001 5.156637e+001 6.160006e+001 5.087480e+001 7.830004e+001 6.535053e+001 4.513156e+001 5.081583e+001 4.855066e+001 3.166190e+001 3.446033e+001 2.175846e+001 3.290443e+001 4.615505e+000 3.266129e+000 2.727503e+000 3.462999e+000 5.952087e+000 4.551617e+000 3.776359e+000 3.642041e+000 3.630165e+000 2.339223e+000 2.672163e+000 1.834489e+000 2.948312e+000 6.600263e-001 5.300968e-001 4.349806e-001 5.918407e-001 9.816018e-001 7.858949e-001 6.717599e-001 6.528478e-001 6.489840e-001 4.426755e-001 4.840788e-001 3.533788e-001 4.444275e-001
<GCONST> 1.301038e+002
<TRANSP> 3
 0.000000e+000 1.000000e+000 0.000000e+000
 0.000000e+000 9.982219e-001 1.778108e-003
 0.000000e+000 0.000000e+000 0.000000e+000
<ENDHMM>
~h "MJL"
<BEGINHMM>
<NUMSTATES> 3
<STATE> 2
<NUMMIXES> 2
<MIXTURE> 1 4.501957e-001
<MEAN> 39
 -9.874416e+000 2.814105e+000 4.846146e-001 4.210127e+000 3.438761e+000 3.700824e+000 6.060798e+000 6.033959e+000 6.221764e+000 6.202993e+000 6.998138e+000 5.447258e+000 4.294298e+001 -1.445827e-001 4.697140e-002 -1.038957e-002 3.352517e-002 1.130929e-001 1.206168e-001 1.166014e-001 9.901377e-002 9.971652e-002 5.351674e-002 6.089677e-002 1.064196e-001 -1.892415e-001 7.272456e-002 -6.277023e-002 2.795717e-002 -2.900559e-002 -5.733246e-002 -1.557873e-002 -5.511351e-002 -4.243527e-002 -5.095531e-002 -3.212140e-002 -3.635093e-002 -4.684770e-002 8.224542e-002
<VARIANCE> 39
 3.774709e+001 1.754561e+001 1.635638e+001 1.827754e+001 3.581974e+001 4.106068e+001 2.580185e+001 2.694394e+001 2.336867e+001 1.484338e+001 1.307313e+001 1.804421e+001 6.620211e+001 8.553578e-001 7.054589e-001 6.893035e-001 7.708187e-001 1.099716e+000 1.161826e+000 1.304454e+000 1.407252e+000 1.298687e+000 1.185884e+000 1.119752e+000 1.054032e+000 6.693338e-001 1.579182e-001 1.388709e-001 1.315151e-001 1.574459e-001 2.214046e-001 2.308142e-001 2.605880e-001 2.815595e-001 2.568690e-001 2.430350e-001 2.260332e-001 2.102231e-001 1.350600e-001
<GCONST> 9.202127e+001
<MIXTURE> 2 5.498067e-001
<MEAN> 39
 -2.957684e-001 -2.623081e+000 2.444634e+000 8.371821e-001 -8.896483e+000 -4.049999e+000 -1.712459e+000 -2.497771e+000 -6.144636e-001 3.682293e+000 4.129493e+000 -1.516917e+000 5.974419e+001 1.138937e-001 -3.154047e-002 1.088874e-002 -2.056842e-002 -8.535920e-002 -9.126589e-002 -8.771123e-002 -7.582571e-002 -7.553776e-002 -4.011663e-002 -4.406255e-002 -8.204538e-002 1.422346e-001 -5.720712e-002 4.920015e-002 -2.348864e-002 2.115202e-002 4.408260e-002 9.449628e-003 4.049009e-002 3.192591e-002 4.075475e-002 2.455959e-002 2.736767e-002 3.622977e-002 -6.291334e-002
<VARIANCE> 39
 8.615557e+001 5.870956e+001 7.306889e+001 5.169595e+001 7.904507e+001 5.790199e+001 3.807322e+001 5.969309e+001 3.898508e+001 3.525665e+001 2.751317e+001 2.938234e+001 6.680773e+001 6.227141e+000 4.790069e+000 3.069105e+000 3.483958e+000 6.781333e+000 3.677081e+000 3.336128e+000 5.158031e+000 3.409771e+000 2.665249e+000 2.334033e+000 2.483535e+000 3.120452e+000 8.967457e-001 8.277404e-001 4.700863e-001 6.107937e-001 1.188383e+000 6.375945e-001 6.091309e-001 9.294779e-001 6.114659e-001 5.024312e-001 4.486983e-001 4.449694e-001 5.127157e-001
<GCONST> 1.338002e+002
<TRANSP> 3
 0.000000e+000 1.000000e+000 0.000000e+000
 0.000000e+000 9.983717e-001 1.628322e-003
 0.000000e+000 0.000000e+000 0.000000e+000
<ENDHMM>
~h "MKK"
<BEGINHMM>
<NUMSTATES> 3
<STATE> 2
<NUMMIXES> 2
<MIXTURE> 1 4.973786e-001
<MEAN> 39
 -4.842141e+000 -1.112551e+000 5.447196e+000 -8.208881e+000 -4.066830e-001 -3.032024e+000 -2.263917e-001 2.603327e+000 1.551731e+000 9.437522e-001 -1.867985e+000 -9.054130e-001 6.172105e+001 -2.036024e-001 4.168751e-001 5.533601e-002 6.006109e-001 2.702935e-001 2.268542e-001 4.360526e-001 -2.526926e-002 2.311558e-001 4.284867e-002 3.759294e-001 5.688030e-002 -5.352643e-001 -8.997564e-002 4.066161e-002 -2.046319e-002 1.629285e-001 4.875688e-002 1.376047e-002 1.044760e-001 -4.278641e-002 7.997672e-002 -1.953980e-002 7.688644e-002 -1.336734e-002 -1.077889e-001
<VARIANCE> 39
 7.181684e+001 3.145716e+001 5.758882e+001 8.862518e+001 3.828637e+001 4.478424e+001 4.775700e+001 3.381597e+001 5.046087e+001 3.147519e+001 3.553654e+001 1.893390e+001 8.566155e+001 2.252506e+000 1.966061e+000 2.123867e+000 4.448103e+000 2.214702e+000 2.385899e+000 2.762646e+000 2.609469e+000 3.381502e+000 2.209405e+000 2.305806e+000 1.615115e+000 2.855101e+000 4.412862e-001 3.823056e-001 4.010898e-001 8.004408e-001 4.516381e-001 4.795945e-001 5.777096e-001 5.118369e-001 6.323327e-001 4.378290e-001 4.586404e-001 3.272699e-001 4.403230e-001
<GCONST> 1.231880e+002
<MIXTURE> 2 5.026210e-001
<MEAN> 39
 -6.409885e+000 -1.517031e+000 4.640887e+000 -6.589675e+000 -2.735854e-002 -3.494503e+000 1.208656e-001 1.902874e+000 2.807579e+000 9.044806e-001 -1.106271e+000 -1.176322e+000 6.084994e+001 2.011867e-001 -4.095816e-001 -5.223098e-002 -5.899214e-001 -2.632853e-001 -2.202827e-001 -4.264762e-001 2.631973e-002 -2.256055e-001 -4.290847e-002 -3.699646e-001 -5.493359e-002 5.261690e-001 8.870329e-002 -4.034381e-002 2.055172e-002 -1.613749e-001 -4.860330e-002 -1.371902e-002 -1.031607e-001 4.243508e-002 -7.922189e-002 1.922691e-002 -7.607768e-002 1.307307e-002 1.067191e-001
<VARIANCE> 39
 6.694070e+001 3.419176e+001 4.918150e+001 7.285223e+001 3.255822e+001 3.728507e+001 4.256289e+001 3.132551e+001 4.676483e+001 2.957854e+001 3.213958e+001 1.780899e+001 9.074147e+001 3.955308e+000 2.211565e+000 2.471070e+000 4.203768e+000 2.470260e+000 2.639372e+000 3.218026e+000 2.706734e+000 3.550185e+000 2.439754e+000 2.312756e+000 1.630153e+000 3.293354e+000 4.336192e-001 4.211503e-001 3.433929e-001 7.438710e-001 4.533759e-001 4.555937e-001 5.668755e-001 5.071638e-001 6.481984e-001 4.635246e-001 4.276255e-001 3.126608e-001 6.170192e-001
<GCONST> 1.236244e+002
<TRANSP> 3
 0.000000e+000 1.000000e+000 0.000000e+000
 0.000000e+000 9.988053e-001 1.194696e-003
 0.000000e+000 0.000000e+000 0.000000e+000
<ENDHMM>
~h "MMS"
<BEGINHMM>
<NUMSTATES> 3
<STATE> 2
<NUMMIXES> 2
<MIXTURE> 1 4.560524e-001
<MEAN> 39
 -9.507501e+000 3.497315e+000 4.325270e+000 1.767756e+000 3.450931e+000 1.869625e+000 3.010703e+000 2.053186e+000 4.235251e+000 1.936404e+000 3.875195e+000 1.410836e+000 6.158711e+001 -5.725570e-001 3.118214e-001 -1.766256e-001 3.398645e-001 6.062162e-001 6.552046e-002 5.587491e-001 1.716370e-001 1.589619e-002 3.332228e-001 -8.422846e-002 3.606414e-001 -5.255102e-001 1.390098e-001 -1.327132e-001 3.291954e-002 -8.333839e-002 -1.683100e-001 1.480197e-002 -1.027472e-001 -7.870919e-002 -1.258375e-004 -7.911258e-002 7.690502e-003 -5.266506e-002 1.518999e-001
<VARIANCE> 39
 8.621565e+001 3.071398e+001 3.914118e+001 3.619561e+001 5.832915e+001 4.200814e+001 5.636839e+001 4.009612e+001 3.021927e+001 2.699180e+001 1.986801e+001 3.315651e+001 9.746359e+001 3.805400e+000 2.197621e+000 1.962569e+000 2.141991e+000 2.936844e+000 2.243885e+000 2.488463e+000 2.257252e+000 2.115089e+000 2.048003e+000 1.712222e+000 1.962445e+000 2.963106e+000 5.739973e-001 3.987877e-001 3.095325e-001 4.015790e-001 4.841227e-001 4.212815e-001 4.713334e-001 4.132542e-001 3.881677e-001 3.867122e-001 3.325318e-001 3.631347e-001 6.014460e-001
<GCONST> 1.197471e+002
<MIXTURE> 2 5.439506e-001
<MEAN> 39
 -2.374823e+000 -1.203864e-001 6.534709e+000 -2.009559e+000 -5.754856e+000 5.336649e-001 -4.609138e+000 -3.825681e+000 2.476420e+000 -2.374224e+000 3.897548e+000 -2.646914e+000 7.074770e+001 4.814862e-001 -2.603549e-001 1.484477e-001 -2.840872e-001 -5.056188e-001 -5.739439e-002 -4.688765e-001 -1.414701e-001 -1.336989e-002 -2.802000e-001 7.294353e-002 -3.035441e-001 4.381860e-001 -1.163246e-001 1.108558e-001 -2.777477e-002 6.976970e-002 1.401734e-001 -1.288240e-002 8.583665e-002 6.612828e-002 3.380247e-004 6.676305e-002 -6.651147e-003 4.401566e-002 -1.270988e-001
<VARIANCE> 39
 6.158332e+001 4.170093e+001 7.130201e+001 5.537571e+001 6.326735e+001 6.082116e+001 4.927678e+001 5.913126e+001 5.825491e+001 4.284755e+001 3.518476e+001 3.754779e+001 3.459636e+001 5.305375e+000 3.610054e+000 3.808226e+000 4.563684e+000 6.105792e+000 4.213262e+000 4.635699e+000 4.793260e+000 4.511143e+000 4.156283e+000 3.405524e+000 3.117908e+000 3.971761e+000 7.500051e-001 6.519365e-001 6.052990e-001 8.200120e-001 1.062689e+000 7.322513e-001 8.519982e-001 8.263689e-001 8.158615e-001 7.714960e-001 6.776322e-001 5.979110e-001 6.762091e-001
<GCONST> 1.376480e+002
<TRANSP> 3
 0.000000e+000 1.000000e+000 0.000000e+000
 0.000000e+000 9.980944e-001 1.905537e-003
 0.000000e+000 0.000000e+000 0.000000e+000
<ENDHMM>
~h "MOS"
<BEGINHMM>
<NUMSTATES> 3
<STATE> 2
<NUMMIXES> 2
<MIXTURE> 1 5.022532e-001
<MEAN> 39
 -9.989478e+000 -1.089322e+000 1.786964e+000 -3.460766e+000 -1.023486e+000 -4.427922e+000 1.219441e-002 4.179052e-001 3.649816e+000 5.798536e-001 2.004632e+000 -7.907976e-001 5.378595e+001 -6.156615e-001 2.377435e-001 -6.444197e-002 4.103962e-001 4.319897e-001 2.416266e-001 4.507518e-001 1.014275e-002 3.196354e-001 2.287499e-002 1.604208e-001 3.306962e-001 -4.444142e-001 3.996919e-002 -8.187572e-002 2.142329e-002 -6.978516e-002 -5.571934e-002 -2.074415e-002 -4.701037e-002 8.449415e-004 -5.055995e-002 -2.432409e-002 -2.626156e-002 -5.955983e-002 1.109952e-001
<VARIANCE> 39
 6.814382e+001 2.600978e+001 3.411031e+001 3.290731e+001 3.860486e+001 3.811802e+001 3.687651e+001 2.895748e+001 3.352728e+001 2.317961e+001 2.413840e+001 2.372906e+001 7.786718e+001 2.374031e+000 1.895633e+000 1.449870e+000 2.018081e+000 2.080540e+000 1.967876e+000 2.120872e+000 2.187952e+000 2.398742e+000 2.044230e+000 1.922995e+000 1.755439e+000 2.260448e+000 3.818668e-001 3.352601e-001 2.495716e-001 3.771224e-001 3.999468e-001 3.886755e-001 4.211439e-001 4.218323e-001 4.459197e-001 4.048083e-001 3.696173e-001 3.384962e-001 3.880178e-001
<GCONST> 1.142082e+002
<MIXTURE> 2 4.977482e-001
<MEAN> 39
 -2.789330e+000 -3.911860e+000 4.096544e+000 -8.649014e+000 -6.954154e+000 -8.046000e+000 -5.869923e+000 -3.825368e-001 1.127505e-001 -1.988696e-002 6.118636e-001 -5.737414e+000 6.334900e+001 6.215098e-001 -2.392902e-001 6.393157e-002 -4.173874e-001 -4.374143e-001 -2.466106e-001 -4.521173e-001 -1.056828e-002 -3.232660e-001 -2.575518e-002 -1.648520e-001 -3.356844e-001 4.505236e-001 -4.062846e-002 8.304482e-002 -2.105988e-002 7.029471e-002 5.617291e-002 2.077112e-002 4.700691e-002 -1.581169e-003 5.039893e-002 2.479682e-002 2.628163e-002 6.037645e-002 -1.123114e-001
<VARIANCE> 39
 5.456580e+001 4.936294e+001 6.424966e+001 5.064099e+001 5.076211e+001 4.966016e+001 4.903005e+001 5.156246e+001 5.027312e+001 4.444586e+001 4.329239e+001 3.907878e+001 4.046418e+001 3.429505e+000 3.351172e+000 3.113113e+000 3.946367e+000 4.261111e+000 3.925437e+000 3.470120e+000 4.112905e+000 3.795173e+000 3.762871e+000 3.119716e+000 3.035269e+000 2.739311e+000 5.084678e-001 5.816026e-001 4.786521e-001 7.048476e-001 7.759962e-001 7.135711e-001 6.461281e-001 7.410245e-001 6.766002e-001 7.204429e-001 5.820457e-001 5.476260e-001 4.514475e-001
<GCONST> 1.322271e+002
<TRANSP> 3
 0.000000e+000 1.000000e+000 0.000000e+000
 0.000000e+000 9.984229e-001 1.577121e-003
 0.000000e+000 0.000000e+000 0.000000e+000
<ENDHMM>
~h "MPM"
<BEGINHMM>
<NUMSTATES> 3
<STATE> 2
<NUMMIXES> 2
<MIXTURE> 1 4.884009e-001
<MEAN> 39
 -9.929338e+000 2.529454e+000 9.428371e-002 2.052419e+000 -6.307169e-001 2.281523e-001 -9.827327e-002 1.609331e+000 1.378713e+000 2.486512e+000 9.496584e-001 4.481998e-001 6.032166e+001 -9.508019e-002 8.474095e-002 -3.514734e-002 1.334724e-001 2.039662e-001 9.394844e-002 2.136046e-001 -5.025354e-002 1.223502e-001 8.960683e-003 7.030141e-002 1.493767e-001 -2.541778e-001 4.081329e-002 3.876956e-002 5.522870e-002 3.688509e-002 -1.425172e-002 -1.836101e-003 -1.038030e-003 -6.095890e-002 -2.638957e-002 -1.992960e-002 8.344952e-003 -3.811129e-003 -6.664007e-003
<VARIANCE> 39
 6.111409e+001 3.580021e+001 4.219161e+001 2.798990e+001 5.087915e+001 5.172520e+001 6.979453e+001 3.966496e+001 4.029375e+001 3.176920e+001 2.623745e+001 3.536258e+001 1.070174e+002 1.649199e+000 1.349776e+000 1.517811e+000 1.572545e+000 2.179152e+000 2.002849e+000 2.173549e+000 2.395601e+000 2.188625e+000 2.000387e+000 1.902905e+000 1.639821e+000 1.435573e+000 3.176870e-001 2.575220e-001 2.885546e-001 3.065929e-001 4.289807e-001 3.969198e-001 4.607282e-001 4.755505e-001 4.375719e-001 4.014587e-001 3.795725e-001 3.343842e-001 2.610576e-001
<GCONST> 1.153103e+002
<MIXTURE> 2 5.115991e-001
<MEAN> 39
 -6.044995e+000 4.654370e+000 5.033987e+000 1.651169e+000 -5.510125e+000 -1.619236e+000 -6.425304e+000 -1.753271e+000 -3.279361e+000 1.635135e+000 1.124670e+000 -3.182763e+000 6.812391e+001 9.304268e-002 -7.489038e-002 2.864356e-002 -1.294988e-001 -1.891440e-001 -8.376159e-002 -2.022714e-001 4.505557e-002 -1.154178e-001 -4.142468e-003 -6.437946e-002 -1.422229e-001 2.367383e-001 -3.908810e-002 -3.733468e-002 -5.304592e-002 -3.538848e-002 1.338069e-002 1.951890e-003 -1.096085e-004 5.753421e-002 2.489297e-002 1.912745e-002 -7.784973e-003 4.254679e-003 6.585563e-003
<VARIANCE> 39
 6.786765e+001 4.655365e+001 7.515822e+001 5.500514e+001 7.097734e+001 6.543631e+001 5.325979e+001 6.310165e+001 5.003870e+001 5.195288e+001 3.697471e+001 3.694374e+001 3.902621e+001 4.477137e+000 3.123016e+000 4.384766e+000 3.935640e+000 5.565489e+000 4.337110e+000 4.518280e+000 5.271852e+000 4.233768e+000 3.596202e+000 3.179034e+000 3.094746e+000 3.024324e+000 5.507038e-001 5.256454e-001 6.634299e-001 7.151952e-001 1.015469e+000 7.639750e-001 8.290619e-001 9.564388e-001 7.871901e-001 6.686352e-001 6.284574e-001 5.586978e-001 5.148664e-001
<GCONST> 1.365056e+002
<TRANSP> 3
 0.000000e+000 1.000000e+000 0.000000e+000
 0.000000e+000 9.985098e-001 1.490239e-003
 0.000000e+000 0.000000e+000 0.000000e+000
<ENDHMM>
~h "MPS"
<BEGINHMM>
<NUMSTATES> 3
<STATE> 2
<NUMMIXES> 2
<MIXTURE> 1 4.644009e-001
<MEAN> 39
 -9.245818e+000 3.190012e-001 2.157736e+000 6.515158e-001 2.032716e+000 1.351547e+000 2.605364e+000 1.775035e+000 4.032051e+000 1.869924e+000 4.166848e+000 1.636705e+000 6.025778e+001 -3.521490e-001 1.381422e-001 -1.436240e-001 1.447183e-001 2.322974e-001 8.732087e-002 2.441125e-001 1.223107e-001 1.119079e-001 7.268175e-002 1.318653e-001 1.570687e-001 -4.004229e-001 1.026579e-001 -7.582501e-002 6.339581e-002 -6.136899e-002 -7.613092e-002 -1.705607e-002 -7.456525e-002 -3.680287e-002 -4.901907e-002 -1.903075e-002 -3.455009e-002 -3.750059e-002 1.136788e-001
<VARIANCE> 39
 8.494708e+001 3.153942e+001 3.622784e+001 2.818742e+001 3.769407e+001 2.665416e+001 3.491419e+001 3.174105e+001 3.615155e+001 2.102527e+001 2.182128e+001 2.078663e+001 9.659212e+001 2.302659e+000 1.503469e+000 1.346435e+000 1.415470e+000 1.574333e+000 1.572484e+000 1.772980e+000 1.695138e+000 1.930320e+000 1.465556e+000 1.435817e+000 1.201721e+000 2.099344e+000 3.608819e-001 2.807690e-001 2.269722e-001 2.668979e-001 2.992103e-001 2.964452e-001 3.463914e-001 3.405851e-001 3.736553e-001 2.929147e-001 2.829312e-001 2.367360e-001 4.125575e-001
<GCONST> 1.085099e+002
<MIXTURE> 2 5.355980e-001
<MEAN> 39
 -1.864266e+000 -2.548368e+000 7.384959e+000 -3.750335e+000 -6.053774e+000 -5.507638e-001 -5.557087e+000 -3.443614e+000 -1.032963e+000 7.860753e-002 1.632082e+000 -2.465273e+000 7.222517e+001 3.062262e-001 -1.194055e-001 1.260884e-001 -1.260676e-001 -2.018769e-001 -7.670359e-002 -2.110437e-001 -1.065363e-001 -9.840715e-002 -6.303599e-002 -1.130056e-001 -1.360253e-001 3.459628e-001 -8.898987e-002 6.577968e-002 -5.474127e-002 5.362295e-002 6.595604e-002 1.468331e-002 6.502342e-002 3.217410e-002 4.248378e-002 1.640065e-002 2.980328e-002 3.234854e-002 -9.865963e-002
<VARIANCE> 39
 8.538587e+001 6.098391e+001 9.112518e+001 6.710213e+001 5.756999e+001 5.716311e+001 5.234557e+001 4.339574e+001 5.976263e+001 3.346741e+001 3.037837e+001 2.338472e+001 4.004903e+001 6.917797e+000 4.581010e+000 4.653998e+000 5.122693e+000 5.084561e+000 3.688895e+000 4.339666e+000 4.103253e+000 4.426987e+000 2.589584e+000 2.319703e+000 2.012828e+000 4.286018e+000 9.517370e-001 7.672746e-001 7.093462e-001 8.615165e-001 8.669008e-001 6.422456e-001 7.576906e-001 7.388390e-001 7.713925e-001 4.780487e-001 4.260006e-001 3.752130e-001 6.710836e-001
<GCONST> 1.353089e+002
<TRANSP> 3
 0.000000e+000 1.000000e+000 0.000000e+000
 0.000000e+000 9.984200e-001 1.580028e-003
 0.000000e+000 0.000000e+000 0.000000e+000
<ENDHMM>
~h "MVL"
<BEGINHMM>
<NUMSTATES> 3
<STATE> 2
<NUMMIXES> 2
<MIXTURE> 1 4.744452e-001
<MEAN> 39
 -8.298414e+000 7.482540e-001 2.371912e-002 3.699651e-001 -2.485994e+000 2.768060e+000 -6.848162e-002 1.390344e+000 2.148047e+000 1.992781e+000 -1.680745e+000 1.439995e-001 6.323877e+001 -2.186404e-001 2.590067e-001 -5.860952e-002 1.351070e-001 3.716629e-001 -4.785597e-003 3.321563e-001 1.497288e-001 3.270199e-002 -8.469093e-003 7.877148e-002 1.226500e-001 -4.806883e-001 1.005450e-002 -3.592982e-002 1.515799e-002 -2.010364e-002 -1.213087e-002 -3.755249e-002 -2.983716e-002 -3.162066e-002 -2.300441e-002 -1.900258e-003 -1.826053e-002 -1.445930e-002 7.894953e-002
<VARIANCE> 39
 6.628288e+001 3.402094e+001 4.867731e+001 2.876700e+001 8.056619e+001 4.240947e+001 6.146785e+001 5.005162e+001 3.063009e+001 2.386508e+001 2.687937e+001 2.995094e+001 1.256469e+002 1.938665e+000 1.744757e+000 1.485785e+000 1.457162e+000 2.570927e+000 2.178312e+000 2.468105e+000 2.012903e+000 2.002500e+000 1.769110e+000 1.675301e+000 1.507786e+000 2.157931e+000 3.782775e-001 3.314713e-001 2.925405e-001 2.924477e-001 5.268447e-001 4.431379e-001 5.163606e-001 4.248792e-001 4.080772e-001 3.617066e-001 3.364483e-001 3.090949e-001 4.516525e-001
<GCONST> 1.167289e+002
<MIXTURE> 2 5.255559e-001
<MEAN> 39
 -4.709851e+000 -1.477891e+000 3.597266e+000 -1.174783e+000 -1.029415e+001 7.236756e-001 -7.073105e+000 -4.720726e+000 -1.317592e-001 2.413408e+000 -3.566268e+000 -3.539409e+000 7.480793e+001 1.955132e-001 -2.323852e-001 5.352031e-002 -1.203575e-001 -3.341786e-001 3.973108e-003 -3.012517e-001 -1.391115e-001 -3.104419e-002 1.135768e-002 -7.706056e-002 -1.147532e-001 4.362177e-001 -7.593936e-003 3.150904e-002 -1.422079e-002 1.799011e-002 1.116022e-002 3.358106e-002 2.584840e-002 2.886357e-002 2.075001e-002 2.296015e-003 1.677224e-002 1.297018e-002 -7.167999e-002
<VARIANCE> 39
 7.636278e+001 5.819522e+001 8.381126e+001 5.486812e+001 9.037844e+001 6.463516e+001 6.582942e+001 5.403614e+001 5.579260e+001 3.633934e+001 3.238794e+001 3.369414e+001 4.818507e+001 6.131888e+000 4.982357e+000 5.134254e+000 4.056898e+000 9.440164e+000 5.630885e+000 6.285970e+000 5.358830e+000 5.021392e+000 3.301954e+000 3.086876e+000 3.042570e+000 4.878444e+000 8.826914e-001 8.463149e-001 7.728125e-001 6.968561e-001 1.669356e+000 1.021453e+000 1.184539e+000 9.854121e-001 9.449122e-001 6.415464e-001 5.934023e-001 5.623369e-001 8.291574e-001
<GCONST> 1.424155e+002
<TRANSP> 3
 0.000000e+000 1.000000e+000 0.000000e+000
 0.000000e+000 9.980443e-001 1.955714e-003
 0.000000e+000 0.000000e+000 0.000000e+000
<ENDHMM>
~h "ZLG"
<BEGINHMM>
<NUMSTATES> 3
<STATE> 2
<NUMMIXES> 2
<MIXTURE> 1 4.262989e-001
<MEAN> 39
 -9.964915e+000 3.214333e+000 -1.045304e+000 1.012347e+000 -1.349138e+000 -1.667095e+000 -1.217878e+000 -2.460627e+000 -1.121214e+000 -1.289157e+000 -2.150024e+000 -7.045234e-001 5.972217e+001 -4.538616e-001 -3.203901e-002 2.037953e-002 1.554831e-001 3.677498e-001 1.814792e-001 3.947853e-001 3.269117e-001 3.286724e-001 2.087293e-001 3.024558e-001 2.749181e-001 -1.941471e-001 7.003435e-002 -8.572529e-002 -1.489637e-002 -8.970879e-002 -1.221437e-001 -4.773383e-002 -1.276279e-001 -4.602359e-002 -4.756941e-002 3.367509e-003 -4.767540e-002 -6.534844e-003 1.464003e-001
<VARIANCE> 39
 5.148933e+001 3.015711e+001 3.146025e+001 2.482126e+001 4.756012e+001 3.965247e+001 4.116311e+001 4.762058e+001 3.840119e+001 2.830327e+001 3.428213e+001 3.291275e+001 6.396905e+001 2.091735e+000 1.433268e+000 1.370532e+000 1.430679e+000 2.042642e+000 1.769563e+000 2.026924e+000 1.874523e+000 1.890039e+000 1.807190e+000 1.719175e+000 1.557659e+000 1.919710e+000 3.752065e-001 2.665623e-001 2.725309e-001 2.826437e-001 4.119650e-001 3.702556e-001 4.078849e-001 3.976229e-001 3.841191e-001 3.631896e-001 3.569939e-001 3.219216e-001 3.803419e-001
<GCONST> 1.125779e+002
<MIXTURE> 2 5.736995e-001
<MEAN> 39
 -3.824580e+000 1.987402e+000 -2.785599e+000 -4.775488e+000 -8.984925e+000 -6.096651e+000 -1.120560e+001 -9.203311e+000 -7.176138e+000 -4.275781e+000 -7.847919e+000 -5.683438e+000 6.923962e+001 3.356183e-001 2.901454e-002 -1.878287e-002 -1.153626e-001 -2.677421e-001 -1.341616e-001 -2.869613e-001 -2.414948e-001 -2.406457e-001 -1.530927e-001 -2.209748e-001 -2.079174e-001 1.409119e-001 -5.123980e-002 6.345193e-002 1.123543e-002 6.661938e-002 9.034516e-002 3.564088e-002 9.441755e-002 3.399399e-002 3.383222e-002 -3.436610e-003 3.452550e-002 4.061318e-003 -1.086366e-001
<VARIANCE> 39
 4.527779e+001 4.315166e+001 6.907106e+001 3.886428e+001 5.880033e+001 4.634583e+001 4.089265e+001 4.576532e+001 4.292751e+001 4.013990e+001 3.348700e+001 3.020547e+001 2.032026e+001 3.267319e+000 2.759004e+000 3.323568e+000 3.251522e+000 4.958582e+000 3.632671e+000 3.820352e+000 3.741131e+000 3.109501e+000 3.048266e+000 2.741998e+000 2.500522e+000 2.376672e+000 5.084840e-001 4.609307e-001 5.266201e-001 5.506470e-001 8.438991e-001 6.483727e-001 6.731855e-001 6.673018e-001 5.567727e-001 5.843040e-001 5.044195e-001 4.711159e-001 3.519188e-001
<GCONST> 1.274508e+002
<TRANSP> 3
 0.000000e+000 1.000000e+000 0.000000e+000
 0.000000e+000 9.981921e-001 1.807852e-003
 0.000000e+000 0.000000e+000 0.000000e+000
<ENDHMM>
~h "ZLR"
<BEGINHMM>
<NUMSTATES> 3
<STATE> 2
<NUMMIXES> 2
<MIXTURE> 1 4.351384e-001
<MEAN> 39
 -9.089038e+000 3.496865e+000 2.423124e+000 2.011930e+000 4.259996e+000 4.601623e-001 4.225154e+000 3.922127e-001 2.366430e+000 1.670139e-001 3.083638e+000 2.487006e+000 5.972771e+001 -4.354978e-001 3.756866e-002 6.945988e-003 4.953589e-001 2.868818e-001 5.519840e-001 2.810242e-001 5.314898e-001 3.210194e-001 3.015424e-001 4.561709e-001 2.587110e-001 -4.753005e-001 8.060271e-002 -1.147971e-001 -1.735194e-002 -2.001216e-001 -8.239368e-002 -1.419768e-001 -7.899722e-002 -1.287290e-001 -5.452131e-002 -3.105241e-002 -9.926904e-002 -5.006518e-002 1.991384e-001
<VARIANCE> 39
 5.202225e+001 2.859864e+001 2.855139e+001 5.244010e+001 4.144307e+001 4.852930e+001 3.141079e+001 4.431003e+001 3.333855e+001 2.566120e+001 3.406804e+001 1.891824e+001 8.247093e+001 2.589616e+000 2.033789e+000 1.654910e+000 3.158147e+000 2.335885e+000 2.941593e+000 2.047003e+000 2.832023e+000 2.109746e+000 2.011787e+000 2.021502e+000 1.428785e+000 3.754224e+000 4.587894e-001 3.692781e-001 3.079270e-001 5.619071e-001 4.513481e-001 5.432492e-001 4.085726e-001 5.130992e-001 4.151476e-001 3.796638e-001 3.674960e-001 2.876828e-001 7.671994e-001
<GCONST> 1.187428e+002
<MIXTURE> 2 5.648611e-001
<MEAN> 39
 -3.647786e+000 1.086077e+000 1.102367e+000 -8.962670e+000 -1.866534e+000 -8.213093e+000 -2.691297e+000 -9.331140e+000 -4.142993e+000 -3.480859e+000 -5.294856e+000 -2.845950e+000 7.204264e+001 3.385892e-001 -2.993444e-002 -2.346249e-003 -3.820754e-001 -2.188538e-001 -4.272566e-001 -2.162054e-001 -4.104575e-001 -2.498180e-001 -2.305471e-001 -3.539285e-001 -1.982359e-001 3.638006e-001 -6.205910e-002 8.832303e-002 1.302367e-002 1.540263e-001 6.297834e-002 1.091895e-001 5.988382e-002 9.862477e-002 4.188919e-002 2.345179e-002 7.651003e-002 3.898727e-002 -1.529640e-001
<VARIANCE> 39
 3.972873e+001 5.571307e+001 6.647016e+001 8.688456e+001 6.098301e+001 6.140546e+001 4.819623e+001 6.573094e+001 5.161806e+001 5.372009e+001 4.689179e+001 2.933287e+001 3.605565e+001 3.698976e+000 4.165217e+000 3.493425e+000 9.485104e+000 4.636921e+000 5.848105e+000 4.332882e+000 6.896830e+000 3.900902e+000 3.827294e+000 3.840601e+000 2.704035e+000 4.602211e+000 5.968671e-001 7.002963e-001 5.820981e-001 1.614652e+000 8.189701e-001 1.084469e+000 7.959017e-001 1.323828e+000 6.910197e-001 7.322164e-001 6.684117e-001 5.171775e-001 7.319643e-001
<GCONST> 1.395160e+002
<TRANSP> 3
 0.000000e+000 1.000000e+000 0.000000e+000
 0.000000e+000 9.983712e-001 1.628753e-003
 0.000000e+000 0.000000e+000 0.000000e+000
<ENDHMM>
~h "ZNM"
<BEGINHMM>
<NUMSTATES> 3
<STATE> 2
<NUMMIXES> 2
<MIXTURE> 1 4.796320e-001
<MEAN> 39
 -1.204020e+001 -1.519878e+000 1.606041e+000 -2.908320e+000 -9.430558e-001 -6.815423e+000 4.639620e+000 -5.739188e-001 2.300861e+000 7.713833e-001 2.025237e+000 -7.739003e-001 5.717122e+001 -5.914079e-001 1.099408e-001 -7.627433e-002 5.593640e-001 3.229139e-001 8.186770e-001 7.915132e-002 5.844666e-001 5.683674e-001 1.203036e-001 3.773064e-001 3.475958e-001 -4.705082e-001 3.867039e-002 -7.681526e-002 1.304133e-002 -1.368907e-001 -3.427777e-002 -8.126435e-002 7.837774e-003 -5.906509e-002 -6.645478e-002 -1.641692e-002 -6.849684e-002 -1.278054e-003 1.628460e-001
<VARIANCE> 39
 7.047062e+001 2.929915e+001 4.112922e+001 5.152862e+001 3.941162e+001 8.516431e+001 3.249348e+001 4.778574e+001 4.929553e+001 2.719146e+001 3.260802e+001 3.018413e+001 1.059412e+002 2.511785e+000 2.164601e+000 2.354758e+000 3.405932e+000 2.319619e+000 4.321532e+000 2.219619e+000 3.060832e+000 3.186376e+000 2.361609e+000 2.375044e+000 2.068196e+000 4.866442e+000 4.117767e-001 3.775325e-001 3.948559e-001 5.832161e-001 4.396720e-001 8.305392e-001 4.231417e-001 5.939600e-001 6.211836e-001 4.767797e-001 4.461703e-001 4.027888e-001 8.450429e-001
<GCONST> 1.255594e+002
<MIXTURE> 2 5.203647e-001
<MEAN> 39
 -5.792198e+000 -3.380352e+000 3.254835e+000 -1.188489e+001 -4.099846e+000 -1.534548e+001 3.347472e+000 -6.918360e+000 -4.094489e+000 -1.150370e-001 -3.557095e+000 -4.117758e+000 6.721474e+001 5.451220e-001 -9.742183e-002 6.918495e-002 -5.141526e-001 -2.909845e-001 -7.480540e-001 -7.870975e-002 -5.437574e-001 -5.241414e-001 -1.119921e-001 -3.520710e-001 -3.201368e-001 4.275186e-001 -3.577762e-002 7.110158e-002 -1.180461e-002 1.259568e-001 3.100884e-002 7.485568e-002 -7.385596e-003 5.438048e-002 6.129482e-002 1.531221e-002 6.338039e-002 1.334993e-003 -1.499254e-001
<VARIANCE> 39
 5.084446e+001 4.548263e+001 9.957850e+001 6.862923e+001 5.717614e+001 8.149084e+001 5.179172e+001 5.696881e+001 7.014529e+001 3.417378e+001 4.981373e+001 3.998003e+001 5.154021e+001 2.955276e+000 2.249070e+000 3.182609e+000 4.112944e+000 2.697978e+000 5.106788e+000 2.893440e+000 3.580738e+000 3.788795e+000 2.608069e+000 2.552344e+000 2.200068e+000 3.278081e+000 4.174969e-001 3.766395e-001 4.721231e-001 6.345727e-001 4.587099e-001 8.257427e-001 5.145797e-001 6.411735e-001 6.438004e-001 4.767911e-001 4.393170e-001 3.787834e-001 4.652132e-001
<GCONST> 1.297663e+002
<TRANSP> 3
 0.000000e+000 1.000000e+000 0.000000e+000
 0.000000e+000 9.989600e-001 1.040048e-003
 0.000000e+000 0.000000e+000 0.000000e+000
<ENDHMM>
~h "ZSS"
<BEGINHMM>
<NUMSTATES> 3
<STATE> 2
<NUMMIXES> 2
<MIXTURE> 1 4.745800e-001
<MEAN> 39
 -9.959742e+000 4.391929e+000 3.394229e+000 1.942718e+000 3.255469e+000 2.876787e+000 4.646119e+000 3.453929e+000 2.654222e+000 3.097558e+000 4.164654e+000 3.588936e+000 4.935912e+001 -6.116458e-001 1.451666e-001 1.339844e-001 5.374262e-001 6.065289e-001 2.072278e-001 5.983620e-001 2.317672e-001 6.437055e-001 1.256127e-001 6.810045e-001 1.214700e-001 -5.573783e-001 1.055600e-001 -1.605951e-001 -4.795102e-002 -1.845380e-001 -1.299163e-001 -2.598636e-002 -1.334756e-001 -3.103256e-002 -1.171526e-001 -1.239885e-002 -1.472676e-001 -1.240105e-002 1.936513e-001
<VARIANCE> 39
 6.715112e+001 2.631017e+001 3.208276e+001 4.301553e+001 5.649516e+001 3.361074e+001 4.849092e+001 3.550378e+001 4.581170e+001 2.472106e+001 4.695969e+001 1.994294e+001 7.399187e+001 2.678210e+000 2.302789e+000 1.768022e+000 2.912264e+000 3.187290e+000 2.316035e+000 2.759280e+000 2.189228e+000 2.634020e+000 2.105925e+000 2.505053e+000 1.440115e+000 3.531796e+000 4.407150e-001 4.133537e-001 3.145153e-001 5.061449e-001 5.655538e-001 4.608487e-001 4.970018e-001 4.268921e-001 4.852456e-001 4.223522e-001 4.566632e-001 2.946393e-001 6.730730e-001
<GCONST> 1.206538e+002
<MIXTURE> 2 5.254172e-001
<MEAN> 39
 -3.042910e+000 5.053853e-001 9.463046e-001 -6.896981e+000 -5.122807e+000 -8.516484e-001 -4.997571e+000 -9.503706e-001 -5.830258e+000 1.292027e+000 -5.621135e+000 6.204599e-001 6.000103e+001 5.502350e-001 -1.265760e-001 -1.185320e-001 -4.791171e-001 -5.401227e-001 -1.869554e-001 -5.382192e-001 -2.064045e-001 -5.812557e-001 -1.151707e-001 -6.151866e-001 -1.060732e-001 4.968835e-001 -9.335423e-002 1.437370e-001 4.228442e-002 1.651505e-001 1.173400e-001 2.266193e-002 1.193557e-001 2.684747e-002 1.058308e-001 1.093011e-002 1.318342e-001 1.106633e-002 -1.741342e-001
<VARIANCE> 39
 4.855883e+001 5.087589e+001 6.862138e+001 5.769839e+001 6.970564e+001 5.370401e+001 6.405679e+001 5.134917e+001 6.658749e+001 4.544877e+001 5.681448e+001 2.870109e+001 3.386940e+001 4.553519e+000 4.078489e+000 3.618534e+000 5.519908e+000 5.990055e+000 4.610070e+000 5.381328e+000 4.572182e+000 5.609848e+000 4.067698e+000 5.229913e+000 2.387802e+000 3.973344e+000 7.365601e-001 7.080376e-001 5.863201e-001 9.491853e-001 1.105344e+000 8.298283e-001 9.656568e-001 8.366419e-001 1.012731e+000 7.861152e-001 9.674373e-001 4.459544e-001 6.576648e-001
<GCONST> 1.394786e+002
<TRANSP> 3
 0.000000e+000 1.000000e+000 0.000000e+000
 0.000000e+000 9.981949e-001 1.805054e-003
 0.000000e+000 0.000000e+000 0.000000e+000
<ENDHMM>
~h "ZTK"
<BEGINHMM>
<NUMSTATES> 3
<STATE> 2
<NUMMIXES> 2
<MIXTURE> 1 4.697013e-001
<MEAN> 39
 -1.147219e+001 -1.326235e+000 2.687793e+000 -4.197442e+000 -3.162529e-001 -3.451127e+000 1.621908e+000 2.460543e+000 2.333240e+000 -5.319591e-001 7.981634e-001 4.222122e-001 5.989205e+001 -7.164802e-001 4.327251e-001 -2.459175e-001 9.401634e-001 6.130495e-001 6.164245e-001 7.362334e-001 2.159956e-001 7.094544e-001 1.866615e-001 7.309597e-001 2.660930e-001 -5.646025e-001 1.458415e-001 -1.940347e-001 3.221908e-002 -2.803442e-001 -1.239941e-001 -1.046064e-001 -1.409332e-001 -2.910523e-002 -1.700231e-001 1.931551e-002 -1.315040e-001 -1.738365e-002 2.378958e-001
<VARIANCE> 39
 6.721606e+001 5.331249e+001 3.866172e+001 6.227163e+001 4.727769e+001 4.682222e+001 5.202150e+001 3.951859e+001 4.640582e+001 3.508116e+001 4.294078e+001 2.351441e+001 1.041572e+002 3.504326e+000 3.930808e+000 2.627368e+000 5.313224e+000 3.045943e+000 3.130692e+000 3.614570e+000 3.101137e+000 3.694979e+000 3.065414e+000 3.081907e+000 1.933270e+000 6.432855e+000 6.317543e-001 6.057538e-001 4.590752e-001 8.302510e-001 5.736072e-001 6.378701e-001 7.030013e-001 6.284858e-001 6.679481e-001 6.292200e-001 5.739270e-001 3.946970e-001 1.118615e+000
<GCONST> 1.319541e+002
<MIXTURE> 2 5.302978e-001
<MEAN> 39
 -2.617906e+000 -7.672254e+000 4.653516e+000 -1.636709e+001 -6.987197e+000 -9.965824e+000 -6.918344e+000 -3.686642e-001 -6.485831e+000 -1.401641e+000 -7.893032e+000 -3.352498e+000 6.966063e+001 6.390334e-001 -3.739324e-001 2.195278e-001 -8.264053e-001 -5.371379e-001 -5.358810e-001 -6.485338e-001 -1.932310e-001 -6.248319e-001 -1.658765e-001 -6.469247e-001 -2.377435e-001 4.890226e-001 -1.290605e-001 1.725508e-001 -2.837882e-002 2.489264e-001 1.100608e-001 9.384967e-002 1.253621e-001 2.650988e-002 1.506089e-001 -1.768891e-002 1.161095e-001 1.541104e-002 -2.114276e-001
<VARIANCE> 39
 3.795844e+001 8.046572e+001 6.980624e+001 9.173617e+001 6.294133e+001 4.827624e+001 5.813233e+001 5.840844e+001 6.204429e+001 4.014157e+001 4.830325e+001 2.719460e+001 4.879855e+001 3.121735e+000 4.899297e+000 3.018312e+000 8.124158e+000 3.926238e+000 4.002254e+000 4.338861e+000 5.077208e+000 4.186699e+000 3.422018e+000 3.687900e+000 2.214379e+000 5.212705e+000 4.707158e-001 7.913174e-001 4.987701e-001 1.372008e+000 6.851995e-001 7.104901e-001 7.555701e-001 9.299961e-001 7.233449e-001 6.474764e-001 6.990985e-001 4.105276e-001 7.868009e-001
<GCONST> 1.370049e+002
<TRANSP> 3
 0.000000e+000 1.000000e+000 0.000000e+000
 0.000000e+000 9.985837e-001 1.416295e-003
 0.000000e+000 0.000000e+000 0.000000e+000
<ENDHMM>
~h "ZTV"
<BEGINHMM>
<NUMSTATES> 3
<STATE> 2
<NUMMIXES> 2
<MIXTURE> 1 4.607762e-001
<MEAN> 39
 -9.583533e+000 2.446081e+000 1.134959e+000 -1.505191e+000 -1.614802e-001 -2.341757e+000 -7.443421e-001 -9.575135e-002 -4.290580e-001 -3.852634e-001 -1.303313e+000 -3.457653e-001 6.172831e+001 -4.459155e-001 -3.399204e-002 -1.301880e-002 3.697136e-001 4.479271e-001 2.717946e-001 6.193785e-001 2.175618e-001 4.772425e-001 7.398941e-002 5.483192e-001 9.072777e-002 -2.944273e-001 4.313143e-002 -1.137742e-001 -9.364833e-003 -1.744069e-001 -1.403347e-001 -6.333521e-002 -1.477714e-001 -2.112574e-002 -7.324132e-002 4.410078e-002 -6.767353e-002 3.361376e-002 2.082921e-001
<VARIANCE> 39
 6.568513e+001 2.498671e+001 3.705027e+001 5.505081e+001 5.878756e+001 3.645302e+001 6.343637e+001 3.672918e+001 4.738274e+001 3.130822e+001 5.614624e+001 2.294750e+001 8.890998e+001 2.159231e+000 1.859080e+000 1.571115e+000 2.636106e+000 2.499273e+000 2.095905e+000 2.673930e+000 2.049301e+000 2.334430e+000 2.287856e+000 2.283685e+000 1.721400e+000 3.696698e+000 3.770672e-001 3.382912e-001 2.964691e-001 4.912974e-001 4.889095e-001 4.245178e-001 5.084177e-001 4.240360e-001 4.671652e-001 4.633398e-001 4.659069e-001 3.494884e-001 6.791192e-001
<GCONST> 1.207703e+002
<MIXTURE> 2 5.392230e-001
<MEAN> 39
 -4.513554e+000 -5.942521e-001 1.325018e+000 -1.027364e+001 -9.390429e+000 -6.238837e+000 -1.126640e+001 -3.439079e+000 -7.707055e+000 -1.313890e+000 -8.704343e+000 -1.910676e+000 7.201918e+001 3.842292e-001 2.715885e-002 1.968988e-002 -3.109351e-001 -3.736640e-001 -2.250906e-001 -5.305160e-001 -1.886118e-001 -4.110348e-001 -6.963364e-002 -4.732093e-001 -7.914646e-002 2.431605e-001 -3.762117e-002 9.766053e-002 6.642296e-003 1.492614e-001 1.188824e-001 5.366920e-002 1.266290e-001 1.819931e-002 6.298284e-002 -3.749492e-002 5.774366e-002 -2.961950e-002 -1.773108e-001
<VARIANCE> 39
 4.157400e+001 4.193055e+001 7.538120e+001 5.699597e+001 7.786515e+001 5.890759e+001 7.054285e+001 6.055288e+001 6.023934e+001 4.897293e+001 5.216178e+001 3.785994e+001 2.905012e+001 3.542927e+000 3.006989e+000 3.333389e+000 5.788089e+000 6.789211e+000 4.571310e+000 6.337174e+000 4.738153e+000 4.595634e+000 3.960820e+000 4.806023e+000 3.076382e+000 3.836808e+000 5.367998e-001 5.018845e-001 5.103844e-001 9.161208e-001 1.135053e+000 8.000071e-001 1.062614e+000 8.495898e-001 8.120252e-001 7.301916e-001 8.938403e-001 5.578580e-001 5.447426e-001
<GCONST> 1.382501e+002
<TRANSP> 3
 0.000000e+000 1.000000e+000 0.000000e+000
 0.000000e+000 9.983172e-001 1.682794e-003
 0.000000e+000 0.000000e+000 0.000000e+000
<ENDHMM>
~h "MPCH"
<BEGINHMM>
<NUMSTATES> 3
<STATE> 2
<NUMMIXES> 2
<MIXTURE> 1 5.028760e-001
<MEAN> 39
 -1.092338e+001 -3.343708e+000 1.717635e+000 -4.993424e+000 -1.203153e+000 -3.522618e+000 1.478489e-001 1.559103e+000 2.539216e+000 2.168864e-001 1.177490e+000 -3.669740e-001 5.987387e+001 -6.781822e-001 3.994736e-001 -1.398015e-001 4.843521e-001 5.594717e-001 2.558367e-001 5.222026e-001 6.403976e-002 5.346194e-001 3.657831e-002 3.494823e-001 2.917512e-001 -6.260884e-001 9.542728e-002 -1.358284e-001 3.218229e-002 -1.268908e-001 -1.171573e-001 -9.957713e-003 -8.965397e-002 -5.011726e-005 -1.020773e-001 -3.862050e-002 -5.202816e-002 -3.613180e-002 1.925900e-001
<VARIANCE> 39
 7.223627e+001 3.652523e+001 3.488817e+001 4.534312e+001 4.129386e+001 3.485924e+001 3.888140e+001 2.969889e+001 4.610935e+001 2.402291e+001 2.835825e+001 2.169120e+001 1.212019e+002 2.674423e+000 2.688695e+000 1.846943e+000 2.631799e+000 2.468745e+000 2.101582e+000 2.490178e+000 2.178328e+000 3.105278e+000 2.040036e+000 2.144844e+000 1.643916e+000 4.780611e+000 4.282831e-001 4.414506e-001 3.046305e-001 4.838533e-001 4.359630e-001 4.242234e-001 4.691687e-001 4.316071e-001 5.734486e-001 4.045247e-001 4.164408e-001 3.442560e-001 8.181382e-001
<GCONST> 1.205674e+002
<MIXTURE> 2 4.971237e-001
<MEAN> 39
 -2.543535e+000 -9.019309e+000 3.842059e+000 -1.089393e+001 -9.288632e+000 -5.536560e+000 -5.589131e+000 3.765927e-001 -4.292627e+000 -1.532735e+000 -1.580375e+000 -3.429163e+000 7.092554e+001 6.847672e-001 -3.879262e-001 1.373273e-001 -4.739146e-001 -5.591179e-001 -2.437234e-001 -5.173081e-001 -7.168554e-002 -5.430256e-001 -3.479886e-002 -3.512950e-001 -2.993673e-001 6.078417e-001 -9.652162e-002 1.376067e-001 -3.200371e-002 1.293426e-001 1.190961e-001 1.047349e-002 9.123216e-002 5.230369e-004 1.026764e-001 3.840183e-002 5.218331e-002 3.618933e-002 -1.954194e-001
<VARIANCE> 39
 6.071962e+001 5.481012e+001 7.540317e+001 5.974452e+001 7.018969e+001 4.550362e+001 5.682034e+001 4.224651e+001 7.944730e+001 3.278900e+001 3.787599e+001 2.038826e+001 4.872816e+001 3.749818e+000 3.699047e+000 3.244754e+000 4.449996e+000 4.528154e+000 3.146034e+000 4.341334e+000 3.701090e+000 5.600860e+000 2.728995e+000 2.623392e+000 1.835686e+000 3.944369e+000 5.685311e-001 6.482402e-001 5.122236e-001 7.327498e-001 7.789941e-001 5.484522e-001 7.856596e-001 6.474750e-001 9.640697e-001 5.002546e-001 4.632995e-001 3.395028e-001 5.413066e-001
<GCONST> 1.321603e+002
<TRANSP> 3
 0.000000e+000 1.000000e+000 0.000000e+000
 0.000000e+000 9.984196e-001 1.580361e-003
 0.000000e+000 0.000000e+000 0.000000e+000
<ENDHMM>
~h "MVL2"
<BEGINHMM>
<NUMSTATES> 3
<STATE> 2
<NUMMIXES> 2
<MIXTURE> 1 4.754944e-001
<MEAN> 39
 -7.893412e+000 1.593601e+000 3.712227e-001 -3.247516e-001 -2.043683e+000 -2.803965e+000 -4.384642e+000 -1.669863e+000 4.853694e-001 2.642754e+000 1.515327e+000 1.859807e+000 6.783472e+001 -1.636117e-001 1.011644e-001 -1.384729e-002 1.360295e-001 2.072706e-001 1.043175e-002 2.526532e-001 4.818343e-002 5.007405e-003 9.776120e-002 -5.826062e-002 1.299607e-001 -1.988990e-001 9.805591e-002 4.244901e-002 8.052105e-002 2.446418e-002 -4.296771e-002 1.246106e-002 -2.871641e-002 -4.295058e-002 -2.191887e-002 -3.307543e-002 -7.180869e-004 -2.827395e-002 3.371225e-002
<VARIANCE> 39
 7.760592e+001 3.209148e+001 4.364444e+001 3.367968e+001 6.407543e+001 6.660525e+001 6.455128e+001 6.068035e+001 4.512128e+001 3.067378e+001 2.665117e+001 3.458205e+001 1.239070e+002 1.733458e+000 1.392099e+000 1.490892e+000 1.533388e+000 2.085656e+000 2.269062e+000 2.243084e+000 2.241823e+000 2.008091e+000 1.792515e+000 1.767722e+000 1.571336e+000 1.506244e+000 3.184122e-001 2.549362e-001 2.628064e-001 2.918617e-001 4.374975e-001 4.181434e-001 4.452403e-001 4.422262e-001 3.880748e-001 3.519489e-001 3.530856e-001 3.172875e-001 2.500794e-001
<GCONST> 1.159218e+002
<MIXTURE> 2 5.245071e-001
<MEAN> 39
 -2.183664e+000 1.860291e+000 4.361352e+000 -2.477184e+000 -7.964928e+000 -2.312432e+000 -9.438195e+000 -6.380365e+000 -2.247142e+000 -2.998358e-001 2.208410e+000 -1.399993e+000 7.555427e+001 1.476528e-001 -8.692272e-002 9.576837e-003 -1.219555e-001 -1.832533e-001 -4.107445e-003 -2.315288e-001 -4.736312e-002 -6.108607e-003 -8.833412e-002 5.301048e-002 -1.189190e-001 1.770094e-001 -8.847569e-002 -3.842077e-002 -7.286956e-002 -2.245027e-002 3.932114e-002 -1.094027e-002 2.552112e-002 3.851020e-002 1.912636e-002 2.897999e-002 4.344528e-005 2.571139e-002 -3.032327e-002
<VARIANCE> 39
 5.630970e+001 3.908780e+001 5.660631e+001 5.124807e+001 6.197858e+001 8.390477e+001 6.493731e+001 5.690335e+001 5.774011e+001 4.463702e+001 3.847302e+001 3.512027e+001 3.698049e+001 3.709043e+000 2.335654e+000 2.670830e+000 2.790785e+000 4.804812e+000 4.446600e+000 4.059331e+000 4.129261e+000 3.521489e+000 2.965098e+000 2.914129e+000 2.681211e+000 2.519623e+000 3.941839e-001 3.698497e-001 3.787026e-001 4.731370e-001 7.907204e-001 6.978992e-001 6.745697e-001 6.923400e-001 5.929291e-001 5.236850e-001 5.477266e-001 4.517640e-001 3.424391e-001
<GCONST> 1.295273e+002
<TRANSP> 3
 0.000000e+000 1.000000e+000 0.000000e+000
 0.000000e+000 9.984462e-001 1.553765e-003
 0.000000e+000 0.000000e+000 0.000000e+000
<ENDHMM>
~h "VACLAV"
<BEGINHMM>
<NUMSTATES> 3
<STATE> 2
<NUMMIXES> 2
<MIXTURE> 1 4.593457e-001
<MEAN> 39
 -1.257176e+001 4.705061e+000 5.693697e-001 7.675881e+000 3.690729e+000 5.834268e+000 2.505587e+000 8.002988e+000 7.471487e+000 7.385159e+000 5.055191e+000 5.378622e+000 4.046907e+001 -2.756881e-001 1.440127e-002 -5.081639e-002 1.778068e-001 1.811132e-001 9.576704e-002 2.471981e-001 1.731700e-001 2.040872e-001 1.301889e-001 8.909846e-002 1.865526e-001 -2.244277e-001 9.384405e-002 -8.496327e-002 3.197431e-002 -9.896246e-002 -7.092433e-002 -1.026246e-002 -7.498333e-002 -5.828036e-002 -7.594567e-002 -5.287833e-002 -2.739140e-002 -4.920027e-002 1.046584e-001
<VARIANCE> 39
 2.583110e+001 1.088749e+001 1.665167e+001 3.204103e+001 1.981985e+001 2.501312e+001 2.330742e+001 2.372589e+001 2.363602e+001 1.995066e+001 1.781511e+001 2.209973e+001 3.095399e+001 8.926175e-001 7.592551e-001 7.670006e-001 1.326038e+000 1.217417e+000 1.272659e+000 1.383317e+000 1.349163e+000 1.393044e+000 1.235912e+000 1.234380e+000 1.111909e+000 7.788088e-001 1.553779e-001 1.635802e-001 1.434527e-001 2.879579e-001 2.263846e-001 2.509106e-001 2.701464e-001 2.719702e-001 2.819374e-001 2.548095e-001 2.444531e-001 2.158778e-001 1.633660e-001
<GCONST> 9.325627e+001
<MIXTURE> 2 5.406551e-001
<MEAN> 39
 -3.682867e+000 -2.569717e-001 4.131655e+000 -2.957995e+000 -4.648803e+000 2.333843e+000 -7.415072e+000 1.088452e-001 -5.362788e-001 1.131256e+000 3.303928e+000 -2.664968e+000 5.289707e+001 2.344311e-001 -1.239292e-002 4.287275e-002 -1.520616e-001 -1.511951e-001 -8.324578e-002 -2.090761e-001 -1.458033e-001 -1.732230e-001 -1.081263e-001 -7.434560e-002 -1.604932e-001 1.906640e-001 -7.976135e-002 7.205267e-002 -2.631930e-002 8.411362e-002 5.985389e-002 8.424087e-003 6.388035e-002 4.970725e-002 6.392502e-002 4.569670e-002 2.281216e-002 4.166379e-002 -8.901441e-002
<VARIANCE> 39
 4.222778e+001 4.844967e+001 6.546732e+001 7.304287e+001 6.229460e+001 5.723511e+001 6.317676e+001 5.109567e+001 4.785875e+001 4.055841e+001 3.315348e+001 4.001287e+001 3.102212e+001 3.509819e+000 4.057137e+000 3.001367e+000 6.149652e+000 5.165867e+000 3.850305e+000 5.783214e+000 4.915045e+000 4.391639e+000 3.333788e+000 3.001695e+000 2.881274e+000 3.225224e+000 4.893151e-001 6.618949e-001 4.677944e-001 9.753363e-001 8.492678e-001 6.722845e-001 9.915151e-001 8.919377e-001 7.684973e-001 5.893494e-001 5.659982e-001 4.942602e-001 4.871601e-001
<GCONST> 1.347688e+002
<TRANSP> 3
 0.000000e+000 1.000000e+000 0.000000e+000
 0.000000e+000 9.975002e-001 2.499791e-003
 0.000000e+000 0.000000e+000 0.000000e+000
<ENDHMM>
~h "DUTKA"
<BEGINHMM>
<NUMSTATES> 3
<STATE> 2
<NUMMIXES> 2
<MIXTURE> 1 4.734736e-001
<MEAN> 39
 -4.005061e-001 -4.464493e+000 3.304417e-001 -1.599158e+001 -1.152962e+001 -4.148453e+000 -1.366997e+001 -2.076591e+000 -5.419299e+000 -4.373797e+000 -4.046668e+000 -4.988006e+000 6.257221e+001 3.208236e-001 -3.700314e-001 2.775783e-001 -2.506988e-001 2.487590e-002 2.250902e-001 -1.287888e-001 2.494293e-001 4.793951e-002 1.051915e-001 4.931947e-002 5.840410e-002 5.186968e-001 5.826768e-002 -1.450167e-002 2.116340e-002 -2.039549e-002 -8.417852e-003 2.504643e-002 -4.890095e-002 6.896668e-004 -3.921802e-002 1.324890e-002 -1.359221e-002 -3.471564e-002 4.314718e-002
<VARIANCE> 39
 1.110066e+002 9.883167e+001 1.275623e+002 1.091962e+002 9.575400e+001 1.135279e+002 8.145003e+001 8.838806e+001 7.230197e+001 5.165287e+001 4.954573e+001 3.792865e+001 8.055922e+001 6.202265e+000 7.059075e+000 6.109787e+000 7.048694e+000 5.997897e+000 6.738029e+000 6.426998e+000 6.454329e+000 5.587160e+000 4.106721e+000 3.856092e+000 3.108909e+000 4.747751e+000 8.261282e-001 1.151296e+000 9.560432e-001 1.250861e+000 1.093246e+000 1.138573e+000 1.198454e+000 1.170376e+000 1.045211e+000 7.959933e-001 7.394901e-001 5.906246e-001 7.161577e-001
<GCONST> 1.503315e+002
<MIXTURE> 2 5.265258e-001
<MEAN> 39
 -2.609385e+000 -5.342374e+000 -1.367671e+000 -1.377858e+001 -1.138894e+001 -3.911027e+000 -1.305056e+001 -2.486496e+000 -6.843587e+000 -4.505496e+000 -4.831077e+000 -5.890865e+000 5.866787e+001 -2.858769e-001 3.253771e-001 -2.511553e-001 2.240240e-001 -1.689303e-002 -2.082942e-001 1.126598e-001 -2.282689e-001 -4.999880e-002 -9.651936e-002 -4.813804e-002 -5.388450e-002 -4.580517e-001 -5.261689e-002 1.325863e-002 -1.909131e-002 1.813986e-002 7.539720e-003 -2.272854e-002 4.378951e-002 -1.249186e-003 3.475086e-002 -1.177087e-002 1.193080e-002 3.092235e-002 -3.906546e-002
<VARIANCE> 39
 1.478862e+002 9.128477e+001 1.149568e+002 9.460950e+001 6.938003e+001 7.091557e+001 5.915184e+001 7.184860e+001 5.102720e+001 3.571669e+001 3.497449e+001 2.901454e+001 1.696484e+002 1.302141e+000 3.225533e+000 2.890070e+000 3.530797e+000 3.259263e+000 3.293106e+000 3.213326e+000 3.591075e+000 3.182719e+000 2.527806e+000 2.332960e+000 1.998206e+000 1.709285e+000 1.981975e-001 5.013191e-001 4.526108e-001 5.842509e-001 5.693839e-001 5.601503e-001 5.855601e-001 6.383905e-001 5.909920e-001 4.789681e-001 4.453892e-001 3.729203e-001 2.361026e-001
<GCONST> 1.293727e+002
<TRANSP> 3
 0.000000e+000 1.000000e+000 0.000000e+000
 0.000000e+000 9.983122e-001 1.687827e-003
 0.000000e+000 0.000000e+000 0.000000e+000
<ENDHMM>
~h "BLAZEK"
<BEGINHMM>
<NUMSTATES> 3
<STATE> 2
<NUMMIXES> 2
<MIXTURE> 1 5.007463e-001
<MEAN> 39
 -9.627685e+000 2.585530e-002 8.688875e-001 -2.430173e+000 2.607060e-001 -2.818051e+000 5.788390e-002 -7.794781e-001 4.842674e-001 4.884839e-001 9.182345e-002 -2.944989e-001 5.615053e+001 -3.303403e-001 1.026887e-001 -5.439768e-002 1.404703e-001 3.632615e-001 -1.153903e-001 4.429023e-001 1.399446e-001 2.162418e-001 1.129165e-001 2.366194e-002 3.026915e-001 -1.047774e-001 1.264923e-001 -6.700388e-002 7.782122e-002 -4.903837e-002 -1.018498e-001 6.320258e-002 -1.062006e-001 2.285238e-002 4.105103e-003 -1.004628e-002 5.814541e-002 -4.638656e-002 8.176745e-002
<VARIANCE> 39
 6.830608e+001 3.026681e+001 4.414544e+001 4.301199e+001 3.995182e+001 5.406733e+001 4.827439e+001 3.505315e+001 2.894869e+001 2.409408e+001 2.096665e+001 2.299592e+001 8.913696e+001 2.681391e+000 2.139822e+000 2.127780e+000 2.783002e+000 2.569754e+000 2.944980e+000 3.080590e+000 2.433050e+000 2.236232e+000 1.983629e+000 1.934063e+000 1.674575e+000 3.085199e+000 4.828340e-001 3.737518e-001 3.605927e-001 5.271705e-001 5.479221e-001 5.548532e-001 6.546094e-001 4.932699e-001 4.446818e-001 4.074750e-001 3.856579e-001 3.673529e-001 4.845640e-001
<GCONST> 1.204627e+002
<MIXTURE> 2 4.992521e-001
<MEAN> 39
 -4.660810e+000 -2.721192e+000 3.174577e+000 -5.316353e+000 -3.033724e+000 -1.945922e+000 -3.662533e+000 -1.229088e+000 4.936767e-002 -1.006256e-001 1.554066e+000 -2.515111e+000 6.107144e+001 3.217694e-001 -9.589387e-002 5.322176e-002 -1.456340e-001 -3.530414e-001 1.030130e-001 -4.357567e-001 -1.416541e-001 -2.183354e-001 -1.046253e-001 -2.703409e-002 -3.049282e-001 1.082653e-001 -1.258909e-001 6.584232e-002 -7.664324e-002 5.061642e-002 1.016477e-001 -6.289986e-002 1.072499e-001 -2.236702e-002 -3.970947e-003 9.456865e-003 -5.704407e-002 4.746984e-002 -8.278838e-002
<VARIANCE> 39
 6.376305e+001 3.968679e+001 7.345811e+001 5.682144e+001 5.030713e+001 5.065839e+001 5.838467e+001 4.267918e+001 4.427317e+001 3.101127e+001 2.948001e+001 3.362549e+001 1.002024e+002 3.253054e+000 2.563547e+000 2.894510e+000 3.560103e+000 4.129647e+000 3.322621e+000 4.384791e+000 3.194419e+000 2.863085e+000 2.370461e+000 2.387397e+000 2.378060e+000 3.121261e+000 3.745440e-001 4.243897e-001 4.317508e-001 6.084961e-001 7.073770e-001 5.798246e-001 7.365528e-001 5.783893e-001 5.198147e-001 4.310478e-001 4.319711e-001 4.322490e-001 5.354042e-001
<GCONST> 1.280277e+002
<TRANSP> 3
 0.000000e+000 1.000000e+000 0.000000e+000
 0.000000e+000 9.982690e-001 1.730969e-003
 0.000000e+000 0.000000e+000 0.000000e+000
<ENDHMM>
~h "KOUNOVSKY"
<BEGINHMM>
<NUMSTATES> 3
<STATE> 2
<NUMMIXES> 2
<MIXTURE> 1 4.523666e-001
<MEAN> 39
 -1.102299e+001 -2.821778e-001 -1.191232e+000 4.080346e+000 -4.569617e+000 5.166462e+000 -1.289420e+000 -4.796874e-001 3.653598e-001 3.908488e+000 -1.972932e-001 3.327489e-001 4.997210e+001 -1.432795e-001 1.381860e-001 -3.972427e-002 9.812533e-002 1.870815e-001 -2.964730e-002 1.517390e-001 4.096472e-002 2.114878e-003 -3.314179e-004 3.954967e-002 9.977601e-002 -2.582054e-001 6.934461e-002 6.761879e-003 6.086717e-002 4.111365e-002 -1.066661e-002 1.257515e-003 -2.072034e-002 -4.180938e-002 -1.664253e-002 -1.958454e-002 -2.440700e-002 -3.557699e-002 6.266372e-003
<VARIANCE> 39
 6.637825e+001 2.873674e+001 3.090680e+001 3.004191e+001 7.989111e+001 4.143696e+001 3.645484e+001 4.253061e+001 3.465878e+001 2.576898e+001 3.162206e+001 2.402298e+001 1.422150e+002 1.195076e+000 1.135378e+000 1.097692e+000 1.338446e+000 1.938699e+000 1.663684e+000 1.870912e+000 1.681223e+000 1.840933e+000 1.579049e+000 1.560930e+000 1.324074e+000 1.437986e+000 2.406063e-001 1.872524e-001 2.116754e-001 2.371519e-001 3.271863e-001 3.094582e-001 3.476229e-001 3.258673e-001 3.425226e-001 3.058534e-001 3.039510e-001 2.563348e-001 2.401249e-001
<GCONST> 1.082691e+002
<MIXTURE> 2 5.476326e-001
<MEAN> 39
 -4.228923e+000 -4.425213e+000 5.176199e+000 4.528788e+000 -1.478542e+001 6.268764e+000 -6.933287e+000 -6.910666e+000 -3.041947e+000 1.163974e+000 -4.039034e+000 -3.566486e+000 6.356373e+001 1.127783e-001 -1.166328e-001 2.843869e-002 -8.728610e-002 -1.585858e-001 2.167920e-002 -1.298977e-001 -4.107706e-002 -9.746299e-003 -8.904184e-003 -3.782930e-002 -8.954721e-002 2.096182e-001 -5.725786e-002 -5.828693e-003 -5.001529e-002 -3.445331e-002 8.176354e-003 -1.741615e-003 1.815243e-002 3.493795e-002 1.466593e-002 1.726132e-002 2.081832e-002 3.081297e-002 -5.176162e-003
<VARIANCE> 39
 7.600814e+001 5.752906e+001 8.213808e+001 6.811676e+001 9.462612e+001 8.506779e+001 6.990205e+001 5.432675e+001 6.102182e+001 6.223900e+001 3.310310e+001 2.697586e+001 5.355718e+001 5.559262e+000 4.345536e+000 4.441206e+000 4.000963e+000 7.262374e+000 4.794657e+000 5.784135e+000 3.979970e+000 4.401820e+000 3.512273e+000 2.747273e+000 2.265398e+000 4.530099e+000 6.594949e-001 7.561829e-001 6.382713e-001 6.550553e-001 1.121293e+000 7.559927e-001 9.813773e-001 6.612355e-001 7.664927e-001 5.831004e-001 5.061360e-001 4.073094e-001 7.525225e-001
<GCONST> 1.389348e+002
<TRANSP> 3
 0.000000e+000 1.000000e+000 0.000000e+000
 0.000000e+000 9.971693e-001 2.830723e-003
 0.000000e+000 0.000000e+000 0.000000e+000
<ENDHMM>
~h "KOLAR"
<BEGINHMM>
<NUMSTATES> 3
<STATE> 2
<NUMMIXES> 2
<MIXTURE> 1 4.744927e-001
<MEAN> 39
 -8.777268e+000 3.248223e+000 -1.328961e+000 6.262860e+000 3.821552e+000 5.064712e+000 4.487659e+000 5.465911e+000 4.366397e+000 5.758677e+000 6.295005e+000 4.240716e+000 5.102661e+001 -9.442048e-002 2.634242e-003 3.054346e-002 4.107913e-003 1.257485e-001 9.922380e-002 1.066654e-001 6.489021e-002 6.526468e-002 4.636814e-002 2.206358e-002 1.021245e-001 -1.629261e-001 3.385753e-002 -1.571914e-002 -2.444939e-002 1.010254e-002 -4.518867e-002 -2.900892e-002 -3.266103e-002 -2.456904e-002 -1.953580e-002 -3.221709e-003 -5.187061e-003 -2.720533e-002 5.269177e-002
<VARIANCE> 39
 1.719376e+001 5.813001e+000 1.149042e+001 8.884840e+000 2.121805e+001 1.805454e+001 1.629222e+001 1.398956e+001 1.737565e+001 1.322207e+001 1.307885e+001 1.926991e+001 2.317165e+001 2.881138e-001 3.230990e-001 5.084577e-001 5.985616e-001 9.475808e-001 9.816982e-001 1.057299e+000 1.054123e+000 1.082396e+000 1.074884e+000 1.053204e+000 1.015361e+000 3.470636e-001 4.557892e-002 6.379776e-002 1.096407e-001 1.147868e-001 1.858824e-001 1.952614e-001 2.043821e-001 2.108128e-001 2.182229e-001 2.177997e-001 2.141850e-001 2.010372e-001 7.077175e-002
<GCONST> 7.651085e+001
<MIXTURE> 2 5.255075e-001
<MEAN> 39
 -3.867402e-001 2.978488e+000 -3.779546e+000 7.569844e+000 -7.578463e+000 -5.389946e-001 -4.104721e+000 -1.329308e-001 -1.060007e+000 2.966079e+000 3.642401e+000 -4.873885e+000 6.348787e+001 8.466966e-002 -1.509708e-003 -2.653286e-002 -1.478684e-003 -1.111304e-001 -8.915398e-002 -9.515675e-002 -5.682605e-002 -5.669163e-002 -3.783307e-002 -1.794216e-002 -9.108488e-002 1.457210e-001 -3.012424e-002 1.384770e-002 2.197408e-002 -9.145224e-003 4.045851e-002 2.496800e-002 2.909542e-002 2.133742e-002 1.689790e-002 2.295007e-003 3.557146e-003 2.435371e-002 -4.707804e-002
<VARIANCE> 39
 5.126138e+001 3.048629e+001 4.790757e+001 3.356828e+001 5.814132e+001 4.052609e+001 4.964451e+001 3.976017e+001 3.563333e+001 3.224215e+001 2.530260e+001 3.039740e+001 3.085451e+001 2.802860e+000 1.917018e+000 3.082992e+000 1.927631e+000 4.355105e+000 2.769949e+000 3.875874e+000 2.681160e+000 2.571379e+000 2.004564e+000 2.089634e+000 2.318007e+000 2.660764e+000 3.658571e-001 3.353062e-001 5.117830e-001 3.294638e-001 6.920813e-001 4.888691e-001 6.437384e-001 4.644258e-001 4.467712e-001 3.472947e-001 3.927299e-001 3.877333e-001 4.063430e-001
<GCONST> 1.205635e+002
<TRANSP> 3
 0.000000e+000 1.000000e+000 0.000000e+000
 0.000000e+000 9.984227e-001 1.577287e-003
 0.000000e+000 0.000000e+000 0.000000e+000
<ENDHMM>
~h "HALADAVETY"
<BEGINHMM>
<NUMSTATES> 3
<STATE> 2
<NUMMIXES> 2
<MIXTURE> 1 5.027584e-001
<MEAN> 39
 -1.269785e+001 1.242661e+000 -4.677830e+000 -1.182648e+000 -1.032921e+001 -8.947002e-001 -1.127601e+001 -3.358866e+000 -4.356278e+000 -4.910917e+000 -1.686273e+000 -1.407697e+000 5.062633e+001 -4.968079e-002 2.436335e-001 1.288136e-001 2.372197e-001 1.417746e-001 -1.108315e-001 2.731365e-001 1.140174e-001 2.196785e-001 2.263412e-001 8.020506e-002 1.471428e-001 -2.450014e-001 -2.852364e-002 3.555180e-003 5.504438e-003 1.812627e-002 4.879705e-002 5.275833e-003 9.670909e-002 4.262020e-002 3.312789e-002 3.218880e-002 1.749455e-002 2.347756e-002 -9.295224e-002
<VARIANCE> 39
 1.274380e+002 5.428361e+001 6.725515e+001 6.884251e+001 5.771498e+001 8.067283e+001 6.301836e+001 5.614975e+001 4.534750e+001 3.397624e+001 4.130863e+001 3.577146e+001 3.536321e+002 3.314368e+000 2.528493e+000 2.111963e+000 2.518860e+000 3.342706e+000 4.039888e+000 3.931651e+000 3.388093e+000 2.937787e+000 2.444565e+000 2.631663e+000 2.455298e+000 3.243206e+000 4.412758e-001 4.158233e-001 3.650048e-001 4.608963e-001 6.108631e-001 7.113027e-001 7.051041e-001 6.347911e-001 5.564181e-001 4.901892e-001 5.065660e-001 4.608098e-001 5.220273e-001
<GCONST> 1.315673e+002
<MIXTURE> 2 4.972419e-001
<MEAN> 39
 -8.574591e+000 -2.622880e-001 -3.536405e+000 -3.266031e+000 -1.109323e+001 -6.357803e-001 -1.261163e+001 -3.884355e+000 -6.183955e+000 -5.342418e+000 -1.497388e+000 -2.259803e+000 5.660430e+001 5.420726e-002 -2.409786e-001 -1.265957e-001 -2.406971e-001 -1.418249e-001 1.159448e-001 -2.792112e-001 -1.244018e-001 -2.290177e-001 -2.304782e-001 -8.275544e-002 -1.588865e-001 2.493265e-001 2.885079e-002 -3.799445e-003 -6.015659e-003 -1.821347e-002 -5.018641e-002 -7.487703e-003 -9.560822e-002 -3.965554e-002 -3.301743e-002 -3.543397e-002 -1.964130e-002 -1.878036e-002 9.391598e-002
<VARIANCE> 39
 1.140695e+002 7.014799e+001 8.041129e+001 7.873023e+001 6.824253e+001 8.879755e+001 6.829475e+001 7.347543e+001 6.375173e+001 4.239005e+001 4.786062e+001 4.446902e+001 2.467931e+002 3.611347e+000 3.499934e+000 3.368829e+000 3.884767e+000 4.362536e+000 4.940846e+000 4.253062e+000 4.393078e+000 3.952165e+000 2.996448e+000 3.157826e+000 2.905556e+000 5.205343e+000 5.704957e-001 5.773278e-001 5.121723e-001 6.198468e-001 7.743925e-001 8.482131e-001 8.184314e-001 7.888721e-001 7.283590e-001 5.779985e-001 5.823846e-001 5.646914e-001 7.365174e-001
<GCONST> 1.397673e+002
<TRANSP> 3
 0.000000e+000 1.000000e+000 0.000000e+000
 0.000000e+000 9.987823e-001 1.217648e-003
 0.000000e+000 0.000000e+000 0.000000e+000
<ENDHMM>
~h "HORKYVETY"
<BEGINHMM>
<NUMSTATES> 3
<STATE> 2
<NUMMIXES> 2
<MIXTURE> 1 4.889452e-001
<MEAN> 39
 -1.755350e+001 1.088432e+000 -4.350735e+000 -9.041358e-002 -6.458378e+000 -1.038534e+000 -5.177485e+000 -2.531888e+000 1.267311e-001 -2.011024e+000 2.934123e+000 -3.040393e+000 4.488904e+001 -3.367823e-001 2.587557e-001 1.700694e-001 2.235173e-001 3.944733e-001 1.750042e-001 4.108192e-001 2.218573e-001 -1.175283e-001 2.492279e-001 -2.618410e-001 2.625835e-001 -3.047362e-001 6.058457e-002 1.669343e-002 4.215648e-002 2.810735e-002 -4.164112e-002 8.806619e-003 -1.970885e-002 7.898902e-003 2.426245e-002 -2.496512e-002 4.150256e-002 1.912639e-002 -1.187900e-003
<VARIANCE> 39
 7.798112e+001 2.831070e+001 6.363487e+001 4.965100e+001 4.500347e+001 4.795156e+001 4.907993e+001 4.549984e+001 3.488354e+001 3.984928e+001 4.390359e+001 3.137015e+001 2.462967e+002 2.658692e+000 2.063993e+000 2.139011e+000 2.690918e+000 2.675968e+000 2.535884e+000 2.866943e+000 2.555967e+000 2.565478e+000 2.731105e+000 2.490478e+000 1.887868e+000 5.528953e+000 4.682159e-001 3.671683e-001 3.809839e-001 4.470731e-001 5.189310e-001 4.704890e-001 5.514445e-001 4.721921e-001 4.847332e-001 5.401078e-001 4.665860e-001 3.641580e-001 7.549584e-001
<GCONST> 1.256786e+002
<MIXTURE> 2 5.110564e-001
<MEAN> 39
 -1.472719e+001 9.137285e-002 -3.509933e+000 -7.346906e-001 -8.214236e+000 -1.758297e+000 -6.734934e+000 -3.317846e+000 8.020896e-001 -3.376542e+000 4.852789e+000 -3.781189e+000 4.781690e+001 2.938635e-001 -2.469187e-001 -1.701669e-001 -2.197208e-001 -3.728280e-001 -1.724166e-001 -3.909212e-001 -2.115792e-001 1.045533e-001 -2.328917e-001 2.427846e-001 -2.466296e-001 2.817851e-001 -4.933784e-002 -1.573185e-002 -3.828291e-002 -2.592240e-002 4.044207e-002 -8.098281e-003 1.905168e-002 -6.858856e-003 -2.361710e-002 2.270495e-002 -4.019570e-002 -1.880538e-002 5.736825e-003
<VARIANCE> 39
 7.183894e+001 3.137833e+001 6.645107e+001 5.555459e+001 4.608155e+001 5.290128e+001 5.208829e+001 5.614637e+001 4.263354e+001 4.915731e+001 5.559541e+001 3.685952e+001 2.580899e+002 3.022959e+000 1.746864e+000 2.247541e+000 2.556759e+000 3.098293e+000 2.664353e+000 3.485752e+000 3.028220e+000 3.284564e+000 3.222120e+000 3.212242e+000 2.103550e+000 4.178193e+000 3.696031e-001 3.308651e-001 3.330068e-001 4.373072e-001 5.388875e-001 4.860414e-001 5.950062e-001 5.197392e-001 5.801278e-001 5.363182e-001 5.350459e-001 3.678612e-001 7.764940e-001
<GCONST> 1.282100e+002
<TRANSP> 3
 0.000000e+000 1.000000e+000 0.000000e+000
 0.000000e+000 9.985222e-001 1.477760e-003
 0.000000e+000 0.000000e+000 0.000000e+000
<ENDHMM>
~h "CHMELIK"
<BEGINHMM>
<NUMSTATES> 3
<STATE> 2
<NUMMIXES> 2
<MIXTURE> 1 4.946380e-001
<MEAN> 39
 -7.454804e+000 -6.207893e+000 4.663768e+000 -5.617548e+000 -7.052724e+000 -3.403784e+000 -2.903463e+000 -9.793291e-001 4.822410e-001 -3.514019e-001 2.929786e-002 -5.342074e+000 6.720760e+001 -8.430474e-003 1.462339e-001 8.028473e-002 1.650747e-001 1.374793e-001 4.537149e-002 1.790883e-001 5.628582e-002 1.335991e-001 9.514341e-002 8.818375e-002 9.515752e-002 2.249357e-002 -1.231050e-001 7.038613e-002 -7.212365e-002 6.538338e-002 6.544259e-002 3.076155e-002 6.989171e-002 6.204049e-003 5.493661e-002 -1.927430e-002 2.150228e-002 4.033679e-002 -1.317702e-001
<VARIANCE> 39
 6.862245e+001 4.537782e+001 7.943407e+001 4.457004e+001 5.047761e+001 4.434958e+001 3.646370e+001 4.149620e+001 4.089183e+001 2.827185e+001 2.611888e+001 2.602391e+001 6.108205e+001 4.995959e+000 3.458025e+000 4.283997e+000 3.705495e+000 4.461455e+000 3.463260e+000 3.479923e+000 3.670093e+000 3.507161e+000 2.670927e+000 2.461624e+000 2.240146e+000 3.982247e+000 7.837127e-001 6.065463e-001 7.006903e-001 6.968235e-001 8.317882e-001 6.426302e-001 6.797971e-001 7.136180e-001 6.648229e-001 5.530985e-001 4.896421e-001 4.273942e-001 5.361879e-001
<GCONST> 1.308423e+002
<MIXTURE> 2 5.053625e-001
<MEAN> 39
 -1.258974e+001 -3.971550e+000 -7.866706e-001 -3.570878e+000 -3.621555e+000 -3.244929e+000 -9.334936e-001 -1.924312e+000 9.417823e-001 -2.046734e+000 -1.468876e-001 -3.238635e+000 5.811320e+001 6.242608e-002 -1.942868e-001 -8.877268e-002 -1.847623e-001 -9.779137e-002 -8.935499e-002 -1.800224e-001 -6.181204e-002 -1.304276e-001 -8.944042e-002 -1.028119e-001 -9.939935e-002 8.447951e-002 1.182182e-001 -6.659438e-002 7.134913e-002 -6.302707e-002 -6.549903e-002 -2.848471e-002 -6.729630e-002 -6.280933e-003 -5.441092e-002 1.878469e-002 -1.972157e-002 -3.935571e-002 1.254475e-001
<VARIANCE> 39
 4.898484e+001 2.121219e+001 3.938026e+001 1.923793e+001 2.347860e+001 2.105073e+001 1.879141e+001 2.111595e+001 2.210365e+001 1.655728e+001 1.485486e+001 1.632571e+001 8.642861e+001 2.661515e+000 1.281716e+000 1.756026e+000 1.530530e+000 1.803578e+000 1.732548e+000 1.829932e+000 1.897155e+000 1.873322e+000 1.658806e+000 1.496864e+000 1.401439e+000 1.544033e+000 3.785381e-001 2.368387e-001 2.882291e-001 2.944774e-001 3.655012e-001 3.500682e-001 3.720482e-001 3.798988e-001 3.820627e-001 3.258588e-001 3.023440e-001 2.799855e-001 3.719166e-001
<GCONST> 1.057689e+002
<TRANSP> 3
 0.000000e+000 1.000000e+000 0.000000e+000
 0.000000e+000 9.983881e-001 1.611881e-003
 0.000000e+000 0.000000e+000 0.000000e+000
<ENDHMM>
~h "VACEKVETY"
<BEGINHMM>
<NUMSTATES> 3
<STATE> 2
<NUMMIXES> 2
<MIXTURE> 1 4.877251e-001
<MEAN> 39
 -2.814268e+000 1.626190e+000 2.870704e-001 -2.585736e+000 -3.129606e+000 -5.363621e+000 -6.823161e+000 -7.069355e+000 -4.473678e+000 2.939262e+000 -4.298548e+000 -1.785605e+000 5.908997e+001 6.264796e-002 3.400479e-003 1.560538e-001 6.776100e-002 1.336384e-001 -9.003881e-002 -3.632922e-002 3.135596e-002 1.064357e-001 1.220029e-001 1.271028e-001 1.429967e-001 3.571142e-001 -4.892068e-003 1.045128e-002 1.540008e-002 2.303425e-003 -4.602118e-003 5.057089e-002 3.732892e-002 4.296839e-002 -7.304407e-003 1.464902e-002 1.781555e-002 -7.836715e-003 6.245526e-003
<VARIANCE> 39
 1.131073e+002 6.572960e+001 9.795731e+001 6.989261e+001 7.414967e+001 9.493505e+001 7.493630e+001 8.131094e+001 7.569962e+001 6.010472e+001 4.418681e+001 4.419869e+001 7.844879e+001 7.320332e+000 4.948506e+000 4.847456e+000 4.977496e+000 4.876049e+000 5.889357e+000 6.166106e+000 5.962179e+000 5.474392e+000 4.572309e+000 3.292436e+000 3.453378e+000 4.334895e+000 8.846256e-001 8.213229e-001 7.106473e-001 8.497907e-001 8.532556e-001 9.850005e-001 1.122473e+000 1.026376e+000 9.591883e-001 8.440845e-001 6.371194e-001 6.593837e-001 6.605186e-001
<GCONST> 1.458629e+002
<MIXTURE> 2 5.122746e-001
<MEAN> 39
 -1.147979e+001 1.261746e+000 -4.507867e+000 -3.629973e-001 -5.655659e+000 -5.788635e-001 -5.328892e+000 -3.388052e+000 -2.136102e+000 1.106354e+000 -2.336710e+000 -1.753727e+000 4.531779e+001 -5.746479e-002 -2.048711e-003 -1.504795e-001 -6.614270e-002 -1.251158e-001 8.944324e-002 3.420156e-002 -3.208116e-002 -1.007982e-001 -1.135975e-001 -1.200594e-001 -1.446521e-001 -3.384625e-001 5.083646e-003 -1.000137e-002 -1.530936e-002 -2.385575e-003 3.201852e-003 -5.005748e-002 -3.390824e-002 -3.762433e-002 7.901261e-003 -1.629764e-002 -1.872651e-002 1.027496e-002 -5.821436e-003
<VARIANCE> 39
 2.169196e+002 3.570185e+001 7.875083e+001 5.081964e+001 4.436956e+001 7.155625e+001 4.041462e+001 6.173133e+001 5.103876e+001 3.869670e+001 3.245136e+001 2.760272e+001 3.552654e+002 1.406359e+000 1.663184e+000 1.721838e+000 1.919244e+000 1.997938e+000 2.347950e+000 2.607169e+000 2.843917e+000 2.592548e+000 2.074850e+000 1.835652e+000 1.864697e+000 1.258330e+000 2.686362e-001 2.660324e-001 2.650481e-001 3.249668e-001 3.394120e-001 4.119331e-001 4.957923e-001 5.171410e-001 4.874139e-001 4.056388e-001 3.544059e-001 3.696836e-001 2.334397e-001
<GCONST> 1.202803e+002
<TRANSP> 3
 0.000000e+000 1.000000e+000 0.000000e+000
 0.000000e+000 9.979952e-001 2.004811e-003
 0.000000e+000 0.000000e+000 0.000000e+000
<ENDHMM>
~h "DVORSKY"
<BEGINHMM>
<NUMSTATES> 3
<STATE> 2
<NUMMIXES> 2
<MIXTURE> 1 5.098559e-001
<MEAN> 39
 -6.132137e+000 5.881192e+000 3.635952e+000 3.798698e+000 3.549687e+000 1.726186e+000 2.671023e+000 2.230959e+000 2.663979e+000 2.522998e+000 2.464945e+000 1.619670e+000 4.832874e+001 -9.523363e-002 1.213507e-001 -1.530001e-002 1.360811e-001 7.343734e-002 5.300034e-002 1.071385e-001 9.344825e-003 8.215252e-002 -9.237150e-003 6.434724e-002 7.636219e-002 -2.384526e-001 4.724269e-003 -3.920719e-002 8.547394e-003 -3.955459e-002 -1.928763e-002 -7.783426e-003 -1.650780e-002 -1.668031e-003 -1.893089e-002 1.084304e-002 -5.710462e-003 -8.360003e-003 4.985306e-002
<VARIANCE> 39
 2.376137e+001 1.208088e+001 1.683793e+001 1.931138e+001 1.521807e+001 2.214437e+001 1.829835e+001 1.677331e+001 1.793252e+001 1.470092e+001 1.629637e+001 1.533795e+001 7.194305e+001 6.810748e-001 7.019832e-001 7.592286e-001 1.098167e+000 1.087011e+000 1.150469e+000 1.369083e+000 1.375325e+000 1.521168e+000 1.413744e+000 1.415854e+000 1.290091e+000 8.611736e-001 1.159775e-001 1.315785e-001 1.428250e-001 2.084113e-001 2.039679e-001 2.256171e-001 2.603225e-001 2.711753e-001 2.962587e-001 2.857083e-001 2.835139e-001 2.570156e-001 1.315616e-001
<GCONST> 9.065182e+001
<MIXTURE> 2 4.901444e-001
<MEAN> 39
 -4.709150e+000 3.644337e-001 4.780332e+000 -1.662599e+000 6.352420e-001 -1.585849e+000 -9.666026e-001 4.528448e-001 -1.442367e+000 4.104583e+000 6.129618e-001 -1.872751e+000 6.593857e+001 9.848310e-002 -1.260887e-001 1.512359e-002 -1.434629e-001 -7.606000e-002 -5.042437e-002 -1.076050e-001 -8.953211e-003 -8.489384e-002 1.065195e-002 -6.467591e-002 -7.828059e-002 2.461548e-001 -5.200555e-003 4.032633e-002 -8.739135e-003 4.191170e-002 1.951358e-002 8.158495e-003 1.753381e-002 2.015151e-003 1.898756e-002 -1.087640e-002 6.911056e-003 8.602731e-003 -5.171697e-002
<VARIANCE> 39
 7.823145e+001 4.523046e+001 7.987230e+001 6.938630e+001 5.473636e+001 6.868632e+001 5.591779e+001 4.980515e+001 5.573107e+001 3.614731e+001 3.882211e+001 3.190580e+001 6.049953e+001 4.685882e+000 3.309173e+000 3.714084e+000 5.283253e+000 4.026308e+000 4.224436e+000 4.408769e+000 4.042017e+000 4.570301e+000 3.030007e+000 2.780668e+000 2.438923e+000 4.866226e+000 7.020949e-001 5.712631e-001 5.673643e-001 8.850968e-001 7.140235e-001 7.407061e-001 8.002261e-001 7.704076e-001 8.338766e-001 5.756598e-001 5.121604e-001 4.506321e-001 8.194089e-001
<GCONST> 1.358997e+002
<TRANSP> 3
 0.000000e+000 1.000000e+000 0.000000e+000
 0.000000e+000 9.976948e-001 2.305210e-003
 0.000000e+000 0.000000e+000 0.000000e+000
<ENDHMM>
~h "POLACEKVETY"
<BEGINHMM>
<NUMSTATES> 3
<STATE> 2
<NUMMIXES> 2
<MIXTURE> 1 5.048684e-001
<MEAN> 39
 -7.976944e+000 6.516445e-001 1.069846e+000 -1.022851e+000 -1.011708e+001 -2.224634e+000 -9.714486e+000 -7.225703e-002 -2.536749e+000 -4.390352e-001 -1.610911e+000 -4.811578e+000 5.119663e+001 -1.012604e-002 1.375977e-001 1.519669e-001 1.088031e-001 1.404303e-001 1.808726e-002 1.648507e-001 4.629776e-002 5.089330e-002 1.404749e-001 7.279148e-002 1.121120e-001 3.664470e-002 -9.252716e-005 8.524060e-002 3.823459e-002 8.405548e-002 5.999262e-002 4.776262e-002 6.200650e-002 -5.189898e-003 2.047191e-002 -1.289009e-002 5.903707e-003 3.139181e-002 -8.173253e-002
<VARIANCE> 39
 9.496542e+001 4.571070e+001 7.433931e+001 4.686394e+001 6.853458e+001 6.309983e+001 4.410711e+001 3.553222e+001 3.751740e+001 3.068255e+001 2.566173e+001 2.993771e+001 1.267839e+002 3.110806e+000 2.566155e+000 2.244972e+000 2.748641e+000 3.632020e+000 2.661725e+000 2.717108e+000 2.643663e+000 2.534171e+000 2.037357e+000 1.825618e+000 1.928068e+000 2.481366e+000 5.622217e-001 4.362126e-001 4.180913e-001 4.877000e-001 6.119215e-001 4.973348e-001 5.114490e-001 5.067317e-001 4.568677e-001 4.120836e-001 3.629206e-001 3.633493e-001 3.676949e-001
<GCONST> 1.241877e+002
<MIXTURE> 2 4.951322e-001
<MEAN> 39
 -7.912683e+000 1.594250e+000 1.209677e+000 1.223145e-001 -9.564943e+000 -1.458185e+000 -9.011808e+000 -5.786301e-002 -2.413127e+000 -9.170256e-001 -1.681349e+000 -4.790663e+000 4.967442e+001 3.789154e-002 -1.268270e-001 -1.371277e-001 -1.178060e-001 -1.308993e-001 -1.633354e-002 -1.756891e-001 -6.031245e-002 -6.329010e-002 -1.408269e-001 -8.432765e-002 -1.299491e-001 -6.068743e-004 5.851959e-004 -8.683427e-002 -3.891134e-002 -8.533821e-002 -6.258167e-002 -5.106279e-002 -6.139288e-002 9.737572e-003 -2.057628e-002 1.036805e-002 -7.886425e-003 -2.651228e-002 8.275212e-002
<VARIANCE> 39
 8.101291e+001 4.265644e+001 6.854415e+001 4.518187e+001 6.889933e+001 5.850049e+001 4.202383e+001 3.399521e+001 3.752579e+001 2.778759e+001 2.480729e+001 2.969777e+001 1.249419e+002 3.950617e+000 2.339322e+000 2.579985e+000 2.758038e+000 3.361771e+000 2.684099e+000 2.568319e+000 2.663900e+000 2.292983e+000 2.104465e+000 1.831694e+000 1.948095e+000 2.291630e+000 3.734837e-001 3.896026e-001 3.188381e-001 4.876082e-001 5.710942e-001 4.568865e-001 4.753354e-001 4.809788e-001 4.343971e-001 3.785056e-001 3.377327e-001 3.425626e-001 3.832168e-001
<GCONST> 1.222639e+002
<TRANSP> 3
 0.000000e+000 1.000000e+000 0.000000e+000
 0.000000e+000 9.987432e-001 1.256790e-003
 0.000000e+000 0.000000e+000 0.000000e+000
<ENDHMM>
