~o
<STREAMINFO> 1 39
<VECSIZE> 39<NULLD><MFCC_D_A_0><DIAGC>
~h "MJ"
<BEGINHMM>
<NUMSTATES> 3
<STATE> 2
<NUMMIXES> 2
<MIXTURE> 1 5.054733e-001
<MEAN> 39
 -7.812112e+000 -1.981176e+000 -9.043587e-001 -8.315239e+000 -7.680139e+000 -7.358967e+000 -9.647778e+000 -2.783170e+000 -1.309757e+000 3.018305e+000 -5.533930e-001 -2.994063e+000 6.459782e+001 -3.097918e-002 1.406523e-001 7.081965e-002 1.502739e-001 1.844288e-001 1.033709e-001 2.344108e-001 1.068999e-001 1.768341e-001 1.166856e-001 1.246382e-001 1.625222e-001 -4.486029e-002 1.375325e-002 2.603326e-002 3.588638e-002 4.912182e-002 1.594879e-002 3.518717e-002 4.140517e-002 9.640414e-003 3.105939e-002 1.383247e-002 3.187119e-002 1.687554e-002 -2.753933e-002
<VARIANCE> 39
 6.621926e+001 3.367301e+001 7.283845e+001 4.610772e+001 5.099389e+001 6.262917e+001 6.739169e+001 3.996080e+001 5.077787e+001 3.183188e+001 3.290461e+001 2.902486e+001 5.897090e+001 3.102956e+000 2.073477e+000 2.823949e+000 2.916264e+000 3.110763e+000 3.196770e+000 3.933632e+000 2.973879e+000 3.248021e+000 2.209441e+000 2.288619e+000 2.057379e+000 2.398565e+000 4.695573e-001 3.650672e-001 4.318861e-001 5.011923e-001 5.537453e-001 5.550265e-001 6.826642e-001 5.571824e-001 5.879771e-001 4.169672e-001 4.328439e-001 3.911141e-001 3.812927e-001
<GCONST> 1.253351e+002
<MIXTURE> 2 4.945258e-001
<MEAN> 39
 -7.737015e+000 -2.427428e+000 -1.031375e+000 -8.279353e+000 -8.548226e+000 -7.309522e+000 -9.957129e+000 -3.135438e+000 -1.779435e+000 2.409305e+000 -8.354868e-001 -3.620560e+000 6.368327e+001 3.432336e-002 -1.434338e-001 -7.177785e-002 -1.526879e-001 -1.881289e-001 -1.043417e-001 -2.362951e-001 -1.079462e-001 -1.842335e-001 -1.190975e-001 -1.313871e-001 -1.637705e-001 4.458983e-002 -1.411653e-002 -2.643028e-002 -3.631858e-002 -5.107433e-002 -1.686029e-002 -3.598940e-002 -4.323299e-002 -9.957597e-003 -3.179840e-002 -1.498242e-002 -3.270915e-002 -1.728215e-002 2.836452e-002
<VARIANCE> 39
 5.889488e+001 3.096241e+001 7.669579e+001 4.435995e+001 5.185070e+001 5.794063e+001 6.770480e+001 3.969679e+001 5.191976e+001 3.210281e+001 3.345643e+001 3.041712e+001 7.166533e+001 3.010461e+000 1.926729e+000 2.817627e+000 2.777908e+000 3.159636e+000 3.137249e+000 3.910098e+000 2.978025e+000 3.335289e+000 2.211779e+000 2.365654e+000 2.140475e+000 2.315059e+000 4.066395e-001 3.389390e-001 4.158452e-001 4.897997e-001 5.476602e-001 5.303324e-001 6.712641e-001 5.595059e-001 5.976501e-001 4.185525e-001 4.377986e-001 3.918573e-001 3.823540e-001
<GCONST> 1.249635e+002
<TRANSP> 3
 0.000000e+000 1.000000e+000 0.000000e+000
 0.000000e+000 9.983178e-001 1.682227e-003
 0.000000e+000 0.000000e+000 0.000000e+000
<ENDHMM>
~h "PB"
<BEGINHMM>
<NUMSTATES> 3
<STATE> 2
<NUMMIXES> 2
<MIXTURE> 1 5.000389e-001
<MEAN> 39
 -6.814262e+000 2.682151e+000 1.806162e+000 -1.972151e+000 -5.599111e+000 -1.501297e-001 -3.964852e+000 1.914517e+000 1.512675e+000 9.427224e-001 1.324647e+000 -2.534751e+000 6.012405e+001 -5.176502e-002 2.223299e-001 3.838400e-002 2.410316e-001 2.366606e-001 1.064873e-001 2.845127e-001 1.136178e-001 1.770021e-001 2.038933e-001 1.206636e-001 2.368499e-001 -1.250775e-001 1.258511e-002 4.494786e-002 2.732353e-002 4.574835e-002 5.601300e-002 3.071277e-002 5.902085e-002 1.536957e-002 3.413290e-002 2.517790e-002 1.478907e-002 3.789331e-002 -2.925896e-002
<VARIANCE> 39
 5.379840e+001 3.672026e+001 5.739528e+001 3.633212e+001 6.358216e+001 3.988593e+001 6.334542e+001 3.230033e+001 2.964265e+001 2.284326e+001 2.148142e+001 3.383067e+001 9.049683e+001 2.210205e+000 2.339176e+000 2.224332e+000 2.436199e+000 2.953778e+000 2.420377e+000 2.984534e+000 2.585656e+000 2.236393e+000 1.902802e+000 1.899943e+000 2.037935e+000 2.104931e+000 3.999473e-001 3.821400e-001 3.928821e-001 4.414244e-001 5.629784e-001 4.433377e-001 5.776127e-001 4.930773e-001 4.423522e-001 3.928632e-001 3.783385e-001 4.058692e-001 3.626735e-001
<GCONST> 1.199595e+002
<MIXTURE> 2 4.999601e-001
<MEAN> 39
 -5.029129e+000 2.014170e+000 2.951683e+000 -3.189820e+000 -7.455195e+000 -6.813946e-001 -6.052054e+000 1.249040e+000 9.690282e-001 2.533050e-002 8.046369e-001 -4.216278e+000 6.323283e+001 5.231702e-002 -2.219542e-001 -3.782765e-002 -2.404995e-001 -2.360826e-001 -1.081017e-001 -2.861623e-001 -1.130163e-001 -1.771035e-001 -2.062198e-001 -1.202211e-001 -2.357546e-001 1.251053e-001 -1.178798e-002 -4.508105e-002 -2.794845e-002 -4.666173e-002 -5.588944e-002 -3.073871e-002 -5.955150e-002 -1.512174e-002 -3.440875e-002 -2.510200e-002 -1.429068e-002 -3.671111e-002 2.918818e-002
<VARIANCE> 39
 5.526893e+001 4.979563e+001 6.298763e+001 4.303945e+001 7.007836e+001 4.281214e+001 6.392553e+001 3.963356e+001 3.404492e+001 2.805930e+001 2.490174e+001 4.034955e+001 8.672498e+001 3.254716e+000 2.797583e+000 3.063030e+000 2.938699e+000 3.981189e+000 2.769426e+000 3.646155e+000 3.128141e+000 2.626062e+000 2.181253e+000 2.156279e+000 2.640866e+000 2.771622e+000 4.269578e-001 4.688963e-001 4.285823e-001 5.161108e-001 6.614884e-001 4.851582e-001 6.468480e-001 5.790090e-001 4.853499e-001 4.229941e-001 4.163982e-001 4.681938e-001 4.078929e-001
<GCONST> 1.259776e+002
<TRANSP> 3
 0.000000e+000 1.000000e+000 0.000000e+000
 0.000000e+000 9.985216e-001 1.478415e-003
 0.000000e+000 0.000000e+000 0.000000e+000
<ENDHMM>
~h "TOMAS"
<BEGINHMM>
<NUMSTATES> 3
<STATE> 2
<NUMMIXES> 2
<MIXTURE> 1 5.000432e-001
<MEAN> 39
 -6.194487e+000 4.012275e+000 4.982676e+000 -5.790747e-001 -2.134097e-001 -2.651966e+000 -5.673213e-001 -1.281923e-001 4.250121e-001 1.127134e+000 2.873185e+000 2.527290e+000 6.100590e+001 -1.339622e-002 1.544960e-001 4.872851e-002 1.766449e-001 2.447425e-001 9.953983e-002 2.184356e-001 1.156276e-001 2.067478e-001 2.024585e-001 1.551249e-001 1.325315e-001 -1.476563e-001 3.998903e-003 1.039592e-002 2.917263e-002 4.185372e-002 1.942354e-002 1.862455e-002 3.390452e-002 3.285740e-002 3.732221e-002 3.560109e-002 3.559434e-002 1.566324e-002 -1.648116e-002
<VARIANCE> 39
 5.782899e+001 3.173362e+001 4.946395e+001 5.082267e+001 5.495004e+001 5.159695e+001 5.369807e+001 4.552457e+001 4.496751e+001 3.343694e+001 2.741777e+001 2.137801e+001 6.594003e+001 2.178931e+000 1.670859e+000 1.918392e+000 2.369756e+000 3.138878e+000 3.033835e+000 2.695596e+000 2.393162e+000 2.672994e+000 2.138692e+000 1.930901e+000 1.709315e+000 1.714865e+000 3.152865e-001 2.758147e-001 3.279569e-001 3.945784e-001 5.664540e-001 5.580666e-001 5.151668e-001 4.478002e-001 4.949609e-001 4.187999e-001 3.647993e-001 3.409877e-001 2.523358e-001
<GCONST> 1.189119e+002
<MIXTURE> 2 4.999560e-001
<MEAN> 39
 -5.686220e+000 3.726758e+000 5.547819e+000 -1.214598e+000 -1.771984e+000 -3.778205e+000 -2.189269e+000 -1.210056e+000 -6.383225e-001 3.909011e-001 2.592010e+000 1.741104e+000 6.320382e+001 8.093485e-003 -1.426131e-001 -4.623339e-002 -1.755373e-001 -2.420799e-001 -1.015511e-001 -2.148307e-001 -1.257165e-001 -2.204180e-001 -1.888623e-001 -1.527779e-001 -1.435322e-001 1.493277e-001 -5.322628e-003 -9.385774e-003 -3.041792e-002 -3.950550e-002 -2.434900e-002 -1.654771e-002 -3.629753e-002 -3.119529e-002 -3.817308e-002 -3.507250e-002 -3.423770e-002 -1.627290e-002 1.658895e-002
<VARIANCE> 39
 6.120327e+001 3.459637e+001 5.285991e+001 5.553801e+001 6.415939e+001 5.665485e+001 5.970858e+001 4.565611e+001 4.746546e+001 3.596371e+001 2.926665e+001 2.230386e+001 6.429980e+001 2.823184e+000 1.948591e+000 2.376227e+000 2.769975e+000 3.823791e+000 3.427800e+000 3.441048e+000 2.735077e+000 3.104724e+000 2.332142e+000 2.111659e+000 1.861157e+000 2.285813e+000 3.806616e-001 3.211123e-001 3.629859e-001 4.335597e-001 6.722898e-001 5.989647e-001 6.191540e-001 4.960924e-001 5.585002e-001 4.482960e-001 3.997068e-001 3.601468e-001 3.512637e-001
<GCONST> 1.236854e+002
<TRANSP> 3
 0.000000e+000 1.000000e+000 0.000000e+000
 0.000000e+000 9.971837e-001 2.816306e-003
 0.000000e+000 0.000000e+000 0.000000e+000
<ENDHMM>
~h "CERNY"
<BEGINHMM>
<NUMSTATES> 3
<STATE> 2
<NUMMIXES> 2
<MIXTURE> 1 5.012602e-001
<MEAN> 39
 -1.057641e+001 -1.302747e+000 -1.460342e+000 -3.787271e+000 -4.228344e+000 -2.596014e+000 -5.056665e+000 -1.928511e-001 1.149640e+000 9.823543e-001 1.678108e-002 -8.195687e-001 6.353431e+001 -3.222691e-002 6.822998e-002 4.115048e-002 1.089627e-001 1.334354e-001 1.642401e-001 1.860838e-001 1.046638e-001 1.241183e-001 1.473470e-001 1.958274e-001 1.457379e-001 -4.591075e-002 -3.198509e-003 1.743514e-002 1.455914e-002 3.256170e-002 2.972436e-002 2.214178e-002 4.686762e-002 1.959108e-002 2.042299e-002 1.921551e-002 2.963113e-002 3.007018e-002 -1.385606e-002
<VARIANCE> 39
 1.919893e+001 1.852720e+001 2.717673e+001 3.755585e+001 3.409863e+001 2.737894e+001 5.122624e+001 2.587673e+001 2.453823e+001 2.326453e+001 1.553101e+001 2.090515e+001 2.017383e+001 7.927235e-001 1.110207e+000 1.185138e+000 1.751743e+000 1.919970e+000 1.703309e+000 2.576910e+000 2.013179e+000 1.942319e+000 1.772992e+000 1.357683e+000 1.368712e+000 6.139583e-001 1.324604e-001 1.932098e-001 1.985764e-001 3.027761e-001 3.563749e-001 3.347200e-001 5.078496e-001 3.927869e-001 3.858909e-001 3.510505e-001 2.821165e-001 2.695942e-001 1.076829e-001
<GCONST> 1.014259e+002
<MIXTURE> 2 4.987397e-001
<MEAN> 39
 -1.002378e+001 -1.587843e+000 -9.770927e-001 -4.602877e+000 -5.368093e+000 -3.401305e+000 -6.439672e+000 -3.838374e-001 1.178537e+000 9.167688e-001 -5.064692e-001 -1.199790e+000 6.462386e+001 3.062611e-002 -6.814086e-002 -4.119242e-002 -1.095332e-001 -1.336799e-001 -1.667553e-001 -1.901941e-001 -1.025071e-001 -1.276453e-001 -1.480444e-001 -2.018325e-001 -1.445491e-001 4.555499e-002 3.239432e-003 -1.804434e-002 -1.423070e-002 -3.277704e-002 -3.029568e-002 -2.262616e-002 -4.797409e-002 -2.020537e-002 -2.059891e-002 -1.968358e-002 -2.900766e-002 -3.025668e-002 1.383665e-002
<VARIANCE> 39
 1.999924e+001 2.286160e+001 3.327900e+001 4.433513e+001 4.023247e+001 3.169536e+001 5.403925e+001 3.042157e+001 2.925235e+001 2.652173e+001 1.754653e+001 2.379604e+001 2.089737e+001 1.098878e+000 1.450183e+000 1.511531e+000 2.154956e+000 2.449202e+000 2.006603e+000 3.230288e+000 2.317807e+000 2.286820e+000 2.013191e+000 1.504019e+000 1.551285e+000 8.093123e-001 1.456366e-001 2.263163e-001 2.279771e-001 3.401213e-001 4.197119e-001 3.655289e-001 5.704696e-001 4.335383e-001 4.211619e-001 3.736741e-001 2.970237e-001 2.796655e-001 1.287123e-001
<GCONST> 1.071690e+002
<TRANSP> 3
 0.000000e+000 1.000000e+000 0.000000e+000
 0.000000e+000 9.985551e-001 1.444878e-003
 0.000000e+000 0.000000e+000 0.000000e+000
<ENDHMM>
~h "ZSS2"
<BEGINHMM>
<NUMSTATES> 3
<STATE> 2
<NUMMIXES> 2
<MIXTURE> 1 5.134561e-001
<MEAN> 39
 -8.022799e+000 3.043491e+000 2.271237e+000 -3.598838e-001 1.401037e+000 3.134101e-001 2.049257e+000 1.002013e+000 1.232041e+000 2.910952e+000 7.481220e-002 2.399819e+000 6.134002e+001 -4.177060e-001 1.508629e-001 1.114318e-001 4.372562e-001 4.846705e-001 2.463739e-001 4.397000e-001 2.442220e-001 4.689806e-001 1.481815e-001 5.556005e-001 8.940343e-002 -4.650407e-001 -5.592282e-002 -3.672319e-002 1.117302e-002 2.653849e-002 5.665839e-002 4.085691e-002 5.279358e-002 4.366561e-002 4.802360e-002 8.065393e-003 5.892545e-002 1.322191e-002 -2.325476e-002
<VARIANCE> 39
 6.345341e+001 3.116572e+001 3.756181e+001 5.577591e+001 7.679489e+001 4.385376e+001 5.935050e+001 3.987676e+001 5.580312e+001 2.699904e+001 6.621614e+001 2.152406e+001 7.375135e+001 3.130886e+000 2.110173e+000 1.983497e+000 3.243446e+000 3.663025e+000 2.727391e+000 2.866162e+000 2.404033e+000 3.089365e+000 2.366531e+000 3.139067e+000 1.770880e+000 2.862051e+000 5.069233e-001 3.907040e-001 3.555663e-001 5.928368e-001 6.992535e-001 5.407335e-001 5.312045e-001 4.736089e-001 5.950960e-001 4.698322e-001 6.119258e-001 3.549450e-001 5.448148e-001
<GCONST> 1.254862e+002
<MIXTURE> 2 4.865426e-001
<MEAN> 39
 -4.963679e+000 1.940804e+000 1.266443e+000 -5.081320e+000 -3.160561e+000 -2.718545e+000 -2.428773e+000 -1.607265e+000 -3.271381e+000 1.862745e+000 -5.227149e+000 6.947332e-001 6.696485e+001 4.474533e-001 -1.596130e-001 -1.177416e-001 -4.563727e-001 -5.073821e-001 -2.544515e-001 -4.649594e-001 -2.639626e-001 -4.930564e-001 -1.568667e-001 -5.869923e-001 -9.558478e-002 4.830115e-001 5.931776e-002 3.914028e-002 -1.150483e-002 -2.963316e-002 -6.058728e-002 -4.380335e-002 -5.659614e-002 -4.701345e-002 -5.189644e-002 -8.091965e-003 -6.171682e-002 -1.380499e-002 2.476145e-002
<VARIANCE> 39
 6.479146e+001 4.699430e+001 5.480880e+001 6.712620e+001 8.076308e+001 5.376528e+001 6.340982e+001 4.354201e+001 6.291525e+001 3.771302e+001 7.029830e+001 2.712674e+001 5.424032e+001 4.331272e+000 3.262136e+000 3.110133e+000 4.626398e+000 5.544904e+000 4.239223e+000 4.110674e+000 3.367172e+000 4.159457e+000 3.359515e+000 4.646520e+000 2.272380e+000 3.755301e+000 6.990554e-001 5.618182e-001 5.121108e-001 7.821367e-001 9.572520e-001 7.616137e-001 7.120135e-001 6.170542e-001 7.293269e-001 6.443737e-001 8.273942e-001 4.319372e-001 6.521821e-001
<GCONST> 1.357442e+002
<TRANSP> 3
 0.000000e+000 1.000000e+000 0.000000e+000
 0.000000e+000 9.983138e-001 1.686199e-003
 0.000000e+000 0.000000e+000 0.000000e+000
<ENDHMM>
~h "SMOLA"
<BEGINHMM>
<NUMSTATES> 3
<STATE> 2
<NUMMIXES> 2
<MIXTURE> 1 4.853064e-001
<MEAN> 39
 -7.872496e+000 1.435076e+000 5.832233e-001 -2.439474e-001 -1.422792e+000 -9.022791e-001 -3.840451e+000 4.053321e+000 -2.424096e+000 7.606443e-001 4.277520e+000 -1.980142e+000 5.541460e+001 -2.298731e-001 2.849826e-001 1.665886e-002 2.493673e-001 2.973312e-001 2.642133e-001 3.762877e-001 -1.693860e-002 2.948049e-001 1.339744e-001 9.763924e-002 2.740049e-001 -2.979940e-001 -2.206136e-002 2.482870e-002 1.515420e-002 2.684404e-002 3.953980e-002 4.829021e-002 5.106629e-002 1.482936e-003 6.858094e-002 6.211722e-003 3.342536e-004 3.783905e-002 -2.740756e-003
<VARIANCE> 39
 6.154388e+001 5.715059e+001 3.851774e+001 7.114321e+001 5.238698e+001 7.047411e+001 7.434055e+001 4.277346e+001 7.642563e+001 3.029371e+001 2.660884e+001 4.074917e+001 1.698573e+002 2.571411e+000 3.189895e+000 2.057903e+000 3.252736e+000 2.678822e+000 2.990881e+000 3.432367e+000 2.738809e+000 3.845235e+000 2.192842e+000 2.079502e+000 1.962953e+000 4.527744e+000 4.260874e-001 5.163276e-001 3.736531e-001 5.474116e-001 5.137462e-001 5.911008e-001 6.609570e-001 5.341803e-001 7.743242e-001 4.376022e-001 4.074242e-001 3.964659e-001 7.299644e-001
<GCONST> 1.287300e+002
<MIXTURE> 2 5.146922e-001
<MEAN> 39
 -5.020098e+000 -1.737446e+000 1.137084e+000 -3.854242e+000 -4.779269e+000 -3.753221e+000 -8.037893e+000 2.084017e+000 -5.816022e+000 -7.124448e-001 3.612745e+000 -5.112772e+000 6.334074e+001 2.173319e-001 -2.606761e-001 6.396729e-003 -2.600932e-001 -2.626519e-001 -2.450500e-001 -3.391145e-001 -2.903578e-002 -3.292550e-001 -1.424962e-001 -1.063558e-001 -2.674368e-001 3.093638e-001 1.785072e-002 -2.539528e-002 -1.305838e-002 -2.743498e-002 -3.464611e-002 -4.452842e-002 -4.916053e-002 -9.177246e-004 -6.472818e-002 -5.099849e-003 -3.312202e-003 -3.912405e-002 4.665724e-003
<VARIANCE> 39
 6.292456e+001 6.856987e+001 5.022478e+001 6.971078e+001 5.545204e+001 5.213232e+001 6.785865e+001 4.566549e+001 6.355402e+001 3.512438e+001 2.916901e+001 3.418765e+001 8.792226e+001 3.807147e+000 3.988219e+000 2.864228e+000 4.185910e+000 3.455335e+000 3.987572e+000 4.942969e+000 3.704151e+000 5.350342e+000 2.594353e+000 2.420598e+000 2.626539e+000 5.397906e+000 5.121030e-001 6.465691e-001 4.496888e-001 7.209209e-001 6.187468e-001 7.044842e-001 8.769004e-001 6.879241e-001 9.301681e-001 4.707834e-001 4.615096e-001 4.567239e-001 8.732678e-001
<GCONST> 1.341234e+002
<TRANSP> 3
 0.000000e+000 1.000000e+000 0.000000e+000
 0.000000e+000 9.965732e-001 3.426764e-003
 0.000000e+000 0.000000e+000 0.000000e+000
<ENDHMM>
~h "NOZICKA"
<BEGINHMM>
<NUMSTATES> 3
<STATE> 2
<NUMMIXES> 2
<MIXTURE> 1 4.887222e-001
<MEAN> 39
 -1.456797e+001 -9.458462e+000 8.129572e+000 -1.022153e+001 -2.494110e+000 1.138509e+000 -4.240035e+000 -3.563241e-001 2.033871e-001 -2.322508e+000 3.564208e+000 -2.411818e+000 5.601218e+001 2.712931e-002 1.381351e-001 1.695881e-001 1.024752e-001 2.246941e-001 4.026787e-002 2.081368e-001 1.453811e-001 1.619673e-001 2.115067e-001 1.406645e-001 1.644367e-001 6.522066e-002 4.507862e-002 1.580316e-002 6.717150e-002 3.068130e-002 8.947621e-003 3.178063e-002 4.086244e-002 3.471794e-002 2.725975e-002 2.647845e-002 3.821280e-002 3.322036e-002 4.050724e-002
<VARIANCE> 39
 1.256005e+002 1.364737e+002 1.994066e+002 1.582178e+002 1.199357e+002 1.201732e+002 9.156315e+001 7.427029e+001 7.734771e+001 5.602912e+001 4.604608e+001 3.710502e+001 4.331956e+002 3.369355e+000 4.456119e+000 4.412545e+000 5.241427e+000 6.014041e+000 5.429063e+000 5.059321e+000 3.836538e+000 4.809663e+000 3.246135e+000 3.102482e+000 2.196296e+000 5.292132e+000 4.805404e-001 6.791430e-001 6.940790e-001 8.698416e-001 1.039343e+000 9.040183e-001 8.759945e-001 6.586909e-001 8.307852e-001 6.076362e-001 5.548594e-001 4.191422e-001 7.305275e-001
<GCONST> 1.460174e+002
<MIXTURE> 2 5.112771e-001
<MEAN> 39
 -1.561589e+001 -8.850700e+000 6.717577e+000 -8.710340e+000 -3.785297e+000 1.572797e+000 -4.898835e+000 -6.710537e-001 3.846791e-001 -3.084286e+000 3.385466e+000 -2.748414e+000 5.330575e+001 -2.588139e-002 -1.362803e-001 -1.642229e-001 -1.009564e-001 -2.042775e-001 -3.734885e-002 -2.036085e-001 -1.420840e-001 -1.578001e-001 -1.931581e-001 -1.305638e-001 -1.568630e-001 -5.821549e-002 -4.443794e-002 -1.253425e-002 -5.857142e-002 -2.746416e-002 -7.491872e-003 -3.212881e-002 -4.219186e-002 -3.385564e-002 -3.028140e-002 -2.741900e-002 -3.542313e-002 -3.172466e-002 -3.975975e-002
<VARIANCE> 39
 1.200376e+002 1.374419e+002 2.243889e+002 1.577184e+002 1.060922e+002 1.001917e+002 7.943919e+001 6.300995e+001 6.920363e+001 4.847497e+001 4.482141e+001 3.248592e+001 4.951197e+002 3.117438e+000 4.088905e+000 3.483544e+000 4.696034e+000 5.466847e+000 4.994424e+000 4.906479e+000 3.410523e+000 4.436137e+000 3.054697e+000 2.814770e+000 2.092722e+000 4.135086e+000 4.010366e-001 6.087918e-001 5.397897e-001 7.697031e-001 8.978441e-001 7.694923e-001 8.100638e-001 5.963858e-001 7.464125e-001 5.568822e-001 5.184230e-001 3.814426e-001 5.588978e-001
<GCONST> 1.420563e+002
<TRANSP> 3
 0.000000e+000 1.000000e+000 0.000000e+000
 0.000000e+000 9.975101e-001 2.489944e-003
 0.000000e+000 0.000000e+000 0.000000e+000
<ENDHMM>
~h "DAVID"
<BEGINHMM>
<NUMSTATES> 3
<STATE> 2
<NUMMIXES> 2
<MIXTURE> 1 4.907514e-001
<MEAN> 39
 -1.116946e+001 1.630314e+000 4.935552e-001 -3.808398e+000 -8.427373e-001 -2.454091e+000 -1.344194e+000 -4.829611e-001 -3.219790e+000 7.790799e-001 -7.432377e-001 -1.952777e+000 6.947736e+001 -9.806213e-002 1.146841e-001 5.179984e-002 1.170254e-001 1.722716e-001 1.167920e-001 2.081571e-001 9.739548e-002 1.700258e-001 1.050559e-001 1.538502e-001 1.953815e-001 -1.701601e-002 -4.347399e-003 2.876539e-002 3.064580e-002 3.290831e-002 3.014547e-002 1.694239e-002 4.003868e-002 2.358082e-005 2.680616e-002 6.060604e-003 2.606113e-002 3.291418e-002 -3.445362e-003
<VARIANCE> 39
 6.550014e+001 2.627945e+001 4.748294e+001 4.929086e+001 3.545393e+001 3.054085e+001 4.312983e+001 3.593525e+001 5.619027e+001 2.312005e+001 2.673531e+001 2.448818e+001 7.229356e+001 2.861394e+000 1.617718e+000 1.891106e+000 3.103273e+000 2.179496e+000 2.229608e+000 2.941290e+000 2.888879e+000 3.388827e+000 2.128122e+000 2.017081e+000 1.650974e+000 1.972871e+000 4.235027e-001 2.732789e-001 3.054222e-001 5.270346e-001 3.828432e-001 4.035966e-001 5.320588e-001 5.569594e-001 6.160902e-001 4.150066e-001 3.841235e-001 3.134593e-001 3.424382e-001
<GCONST> 1.184154e+002
<MIXTURE> 2 5.092481e-001
<MEAN> 39
 -1.037625e+001 1.604011e+000 1.631403e+000 -4.215091e+000 -1.722686e+000 -2.834080e+000 -2.405554e+000 -8.467749e-001 -4.433521e+000 4.998543e-001 -9.445246e-001 -2.821942e+000 7.082689e+001 9.394216e-002 -1.132444e-001 -4.858698e-002 -1.097747e-001 -1.654757e-001 -1.084291e-001 -1.972065e-001 -9.785027e-002 -1.694068e-001 -1.101437e-001 -1.515977e-001 -1.851892e-001 1.586384e-002 4.495483e-003 -2.835703e-002 -2.958129e-002 -3.223369e-002 -3.029122e-002 -1.816214e-002 -3.873199e-002 1.877585e-003 -2.633873e-002 -6.784722e-003 -2.604570e-002 -3.030008e-002 2.949105e-003
<VARIANCE> 39
 6.405686e+001 2.873252e+001 5.728727e+001 5.055036e+001 3.991733e+001 3.149606e+001 4.696727e+001 4.170443e+001 6.073857e+001 2.430952e+001 2.752102e+001 2.664695e+001 7.019747e+001 3.194994e+000 1.757727e+000 2.400399e+000 3.319227e+000 2.448368e+000 2.368245e+000 3.289877e+000 3.338011e+000 4.036141e+000 2.232518e+000 2.096651e+000 1.811099e+000 2.323319e+000 4.092306e-001 2.971453e-001 3.362058e-001 5.673273e-001 4.198976e-001 4.444925e-001 5.774503e-001 6.268996e-001 6.901205e-001 4.391513e-001 4.040456e-001 3.282588e-001 3.616079e-001
<GCONST> 1.216699e+002
<TRANSP> 3
 0.000000e+000 1.000000e+000 0.000000e+000
 0.000000e+000 9.973117e-001 2.688353e-003
 0.000000e+000 0.000000e+000 0.000000e+000
<ENDHMM>
~h "JAN"
<BEGINHMM>
<NUMSTATES> 3
<STATE> 2
<NUMMIXES> 2
<MIXTURE> 1 4.999368e-001
<MEAN> 39
 -8.400679e+000 -6.230997e+000 1.814070e+000 -2.986338e+000 -1.168093e+001 2.446553e+000 7.904706e-002 -2.406006e+000 -1.219502e+000 3.167505e+000 -6.825020e+000 -6.041635e+000 4.945072e+001 4.069139e-002 6.123199e-002 -1.531497e-003 6.939307e-002 1.245323e-001 1.126144e-001 1.108765e-001 1.017896e-001 1.493814e-001 1.258517e-001 1.238849e-001 1.162390e-001 -3.901799e-003 -6.383164e-003 8.110768e-003 1.233489e-002 3.006686e-003 3.189940e-002 3.348655e-002 4.701800e-002 3.387102e-002 3.343855e-002 2.458782e-002 2.044616e-002 2.192696e-002 1.127850e-003
<VARIANCE> 39
 2.506227e+001 2.607003e+001 6.977042e+001 3.029310e+001 4.193144e+001 3.701326e+001 7.939133e+001 6.058713e+001 2.860383e+001 2.811057e+001 1.925540e+001 1.823409e+001 3.205190e+001 6.904044e-001 1.260066e+000 1.757411e+000 1.676236e+000 1.910466e+000 1.766187e+000 2.851702e+000 2.429819e+000 1.758109e+000 1.796642e+000 1.463636e+000 1.250437e+000 7.258989e-001 1.062761e-001 1.891887e-001 2.611624e-001 2.794869e-001 3.176926e-001 3.004568e-001 4.678028e-001 4.041611e-001 3.243687e-001 3.304380e-001 2.872403e-001 2.395966e-001 9.840102e-002
<GCONST> 1.054195e+002
<MIXTURE> 2 5.000624e-001
<MEAN> 39
 -8.186566e+000 -7.058371e+000 3.661098e+000 -3.812236e+000 -1.295632e+001 1.573180e+000 -1.195767e+000 -3.197412e+000 -2.051114e+000 3.251952e+000 -6.985898e+000 -6.672867e+000 5.067225e+001 -4.187836e-002 -6.417469e-002 1.999581e-004 -6.964318e-002 -1.212569e-001 -1.144611e-001 -1.118081e-001 -1.025516e-001 -1.498465e-001 -1.265485e-001 -1.283110e-001 -1.123154e-001 4.205814e-003 6.678387e-003 -8.575158e-003 -1.273767e-002 -2.733961e-003 -3.173926e-002 -3.293004e-002 -4.763984e-002 -3.337390e-002 -3.526548e-002 -2.613286e-002 -2.016008e-002 -2.034801e-002 -8.332036e-004
<VARIANCE> 39
 2.475548e+001 3.321273e+001 7.872157e+001 3.292548e+001 4.861710e+001 4.199054e+001 7.978227e+001 5.661785e+001 3.235163e+001 2.967716e+001 2.032684e+001 2.064600e+001 3.347894e+001 9.236260e-001 1.384958e+000 2.153728e+000 1.792016e+000 2.201859e+000 1.874006e+000 3.039782e+000 2.409801e+000 1.920765e+000 1.799567e+000 1.503936e+000 1.377810e+000 8.137125e-001 1.212317e-001 2.056961e-001 2.955784e-001 3.031597e-001 3.654206e-001 3.172945e-001 4.944982e-001 4.143949e-001 3.298456e-001 3.249377e-001 2.888790e-001 2.445017e-001 1.041366e-001
<GCONST> 1.084829e+002
<TRANSP> 3
 0.000000e+000 1.000000e+000 0.000000e+000
 0.000000e+000 9.973017e-001 2.698327e-003
 0.000000e+000 0.000000e+000 0.000000e+000
<ENDHMM>
~h "MAR"
<BEGINHMM>
<NUMSTATES> 3
<STATE> 2
<NUMMIXES> 2
<MIXTURE> 1 4.907598e-001
<MEAN> 39
 -6.628459e+000 2.404785e+000 3.739130e+000 1.283678e+000 7.092909e-001 -4.335911e-001 1.012596e+000 -7.107452e-001 2.657795e+000 -5.772489e-001 5.305837e+000 -1.001997e+000 6.652853e+001 -1.949433e-001 2.396290e-001 5.042941e-002 2.429086e-001 2.732663e-001 8.489580e-002 2.277119e-001 1.512464e-001 1.262094e-001 2.397755e-001 1.238659e-001 3.001566e-001 -4.673440e-001 -1.017292e-002 1.496966e-002 3.807228e-002 3.172118e-002 2.973325e-002 2.091653e-002 4.008178e-002 2.139030e-002 1.170302e-002 1.031615e-002 -5.403819e-003 3.027394e-002 -4.006012e-002
<VARIANCE> 39
 7.867108e+001 4.054517e+001 5.494036e+001 5.212705e+001 7.124904e+001 5.129145e+001 5.686594e+001 4.370537e+001 3.589623e+001 4.277863e+001 2.777176e+001 4.262129e+001 1.246097e+002 3.491237e+000 2.540088e+000 2.394444e+000 3.338602e+000 3.662477e+000 3.430770e+000 3.190912e+000 2.938540e+000 2.623367e+000 2.795505e+000 2.507944e+000 2.689806e+000 4.353985e+000 5.584915e-001 4.604345e-001 4.091324e-001 6.235061e-001 6.616857e-001 6.525705e-001 5.866482e-001 5.511125e-001 5.114957e-001 5.342107e-001 5.138268e-001 5.071127e-001 8.096398e-001
<GCONST> 1.298212e+002
<MIXTURE> 2 5.092390e-001
<MEAN> 39
 -4.300443e+000 1.478805e+000 4.333303e+000 1.740028e-002 -2.524183e+000 -1.656440e+000 -1.641379e+000 -2.938768e+000 1.702673e+000 -3.224984e+000 4.414011e+000 -3.911883e+000 7.197752e+001 1.890799e-001 -2.298398e-001 -4.721740e-002 -2.321802e-001 -2.639456e-001 -8.511379e-002 -2.200790e-001 -1.479572e-001 -1.236222e-001 -2.324924e-001 -1.215628e-001 -2.909420e-001 4.498541e-001 9.774415e-003 -1.420577e-002 -3.688745e-002 -3.041073e-002 -2.836282e-002 -1.952611e-002 -3.901300e-002 -2.206204e-002 -1.262891e-002 -9.807252e-003 5.056780e-003 -2.958895e-002 3.875064e-002
<VARIANCE> 39
 7.276017e+001 5.357339e+001 6.893553e+001 6.071708e+001 6.990163e+001 5.907976e+001 5.633426e+001 4.795320e+001 4.214730e+001 5.100175e+001 3.168182e+001 4.300703e+001 7.950771e+001 4.563417e+000 3.484575e+000 3.288305e+000 4.835873e+000 4.923204e+000 4.737994e+000 3.921354e+000 3.833427e+000 3.065634e+000 3.453691e+000 3.052843e+000 3.282318e+000 5.334619e+000 6.131677e-001 5.699182e-001 4.907860e-001 8.363770e-001 8.467700e-001 8.739113e-001 7.093359e-001 7.103920e-001 5.605388e-001 6.089321e-001 6.020961e-001 5.991596e-001 8.941644e-001
<GCONST> 1.363749e+002
<TRANSP> 3
 0.000000e+000 1.000000e+000 0.000000e+000
 0.000000e+000 9.984556e-001 1.544402e-003
 0.000000e+000 0.000000e+000 0.000000e+000
<ENDHMM>
~h "MJB"
<BEGINHMM>
<NUMSTATES> 3
<STATE> 2
<NUMMIXES> 2
<MIXTURE> 1 4.979130e-001
<MEAN> 39
 -6.412504e+000 6.150507e-001 2.185810e+000 1.346674e+000 -2.157505e+000 1.629431e+000 -4.915475e+000 1.046777e+000 -2.111443e+000 -7.191418e-001 -1.398224e+000 -1.531689e-001 6.316976e+001 -1.854402e-001 1.489410e-001 8.073430e-002 1.141937e-001 1.911563e-001 2.613714e-002 2.615598e-001 1.369216e-001 1.500013e-001 1.808026e-001 1.694633e-001 1.800200e-001 -9.467018e-002 -1.153663e-002 1.737191e-002 3.079787e-002 2.663149e-002 2.043927e-002 3.542936e-003 4.407458e-002 1.069749e-002 3.165694e-002 3.157452e-002 3.241003e-002 2.654566e-002 3.779668e-003
<VARIANCE> 39
 7.886989e+001 3.883893e+001 5.081065e+001 3.777956e+001 7.312725e+001 5.204634e+001 6.435850e+001 4.500310e+001 4.864135e+001 2.892895e+001 3.210718e+001 2.596536e+001 9.058604e+001 3.090250e+000 2.245239e+000 1.914068e+000 2.281399e+000 3.908863e+000 3.176869e+000 2.781362e+000 2.646006e+000 2.689349e+000 1.932097e+000 2.029317e+000 1.486568e+000 2.112303e+000 5.157332e-001 3.913706e-001 3.327320e-001 4.161323e-001 7.048610e-001 5.894863e-001 5.384203e-001 5.082803e-001 5.199463e-001 3.828117e-001 3.989616e-001 2.990422e-001 3.666797e-001
<GCONST> 1.228923e+002
<MIXTURE> 2 5.020862e-001
<MEAN> 39
 -4.250898e+000 -4.471611e-001 2.546617e+000 4.635872e-001 -4.410505e+000 1.253905e+000 -7.667489e+000 -6.331599e-001 -3.481604e+000 -1.887684e+000 -2.532354e+000 -1.580245e+000 6.728197e+001 1.775339e-001 -1.441247e-001 -8.816081e-002 -1.146937e-001 -1.871473e-001 -2.059253e-002 -2.449359e-001 -1.294699e-001 -1.448397e-001 -1.703663e-001 -1.670572e-001 -1.771234e-001 9.124704e-002 1.205350e-002 -1.709425e-002 -3.086039e-002 -2.739235e-002 -2.032697e-002 -4.063646e-003 -4.562657e-002 -1.183091e-002 -3.061434e-002 -3.075630e-002 -3.157219e-002 -2.566638e-002 -3.438108e-003
<VARIANCE> 39
 8.586058e+001 4.897362e+001 5.465054e+001 4.563974e+001 7.655219e+001 6.110726e+001 5.361668e+001 4.797584e+001 4.623790e+001 3.033776e+001 3.333535e+001 2.443401e+001 5.793465e+001 3.952273e+000 2.719792e+000 2.274698e+000 2.858571e+000 4.786038e+000 3.825032e+000 3.250334e+000 3.084560e+000 3.152076e+000 2.105838e+000 2.431373e+000 1.669270e+000 2.603415e+000 5.544574e-001 4.483932e-001 3.742988e-001 4.903206e-001 8.037264e-001 6.562381e-001 5.879909e-001 5.709154e-001 5.835565e-001 4.059818e-001 4.457428e-001 3.210007e-001 4.139468e-001
<GCONST> 1.267792e+002
<TRANSP> 3
 0.000000e+000 1.000000e+000 0.000000e+000
 0.000000e+000 9.982883e-001 1.711742e-003
 0.000000e+000 0.000000e+000 0.000000e+000
<ENDHMM>
~h "MJL"
<BEGINHMM>
<NUMSTATES> 3
<STATE> 2
<NUMMIXES> 2
<MIXTURE> 1 4.909203e-001
<MEAN> 39
 -6.606368e+000 1.734728e+000 1.247217e+000 3.441441e+000 4.699587e-001 1.868039e+000 4.016181e+000 3.714614e+000 4.385765e+000 5.727141e+000 6.437121e+000 3.723961e+000 4.847029e+001 -3.048063e-001 2.050537e-001 1.269328e-002 7.932169e-002 2.430084e-001 1.175121e-001 2.024847e-001 1.250051e-001 1.889199e-001 1.322512e-001 1.451438e-001 2.010734e-001 -2.391177e-001 -2.450806e-002 -1.665213e-002 1.071149e-002 -5.006655e-003 8.107611e-003 3.483263e-002 1.904957e-002 1.337622e-002 1.370254e-002 1.230799e-003 8.099654e-003 1.101155e-002 1.210194e-002
<VARIANCE> 39
 6.609811e+001 3.362831e+001 3.327324e+001 3.215568e+001 8.041526e+001 6.191762e+001 4.324215e+001 5.485124e+001 4.038632e+001 2.214869e+001 1.904099e+001 3.088626e+001 1.119507e+002 2.674268e+000 2.068626e+000 1.497511e+000 1.660930e+000 2.977510e+000 1.999884e+000 1.941248e+000 2.680657e+000 2.057812e+000 1.646412e+000 1.506850e+000 1.432784e+000 1.543895e+000 3.971100e-001 3.720635e-001 2.517964e-001 3.135598e-001 5.261158e-001 3.870241e-001 3.827052e-001 4.996428e-001 3.944468e-001 3.262598e-001 3.067546e-001 2.765834e-001 2.778854e-001
<GCONST> 1.155194e+002
<MIXTURE> 2 5.090798e-001
<MEAN> 39
 -1.745787e+000 -1.506836e+000 1.346021e+000 8.069167e-001 -6.818733e+000 -2.710876e+000 -3.713123e-001 -1.146175e+000 3.688922e-001 4.093831e+000 4.358485e+000 -4.213222e-001 5.641841e+001 2.892866e-001 -1.910118e-001 -9.085780e-003 -6.904232e-002 -2.260576e-001 -1.047881e-001 -1.864988e-001 -1.135484e-001 -1.761234e-001 -1.242085e-001 -1.343536e-001 -1.893954e-001 2.176479e-001 2.622374e-002 1.346201e-002 -1.087963e-002 1.847731e-003 -1.092825e-002 -3.695626e-002 -2.240724e-002 -1.522813e-002 -1.408751e-002 -3.399069e-003 -1.067895e-002 -1.331982e-002 -7.084200e-003
<VARIANCE> 39
 9.521291e+001 5.552671e+001 6.081464e+001 4.695270e+001 8.639542e+001 5.722786e+001 4.121409e+001 6.361168e+001 4.044888e+001 3.166197e+001 2.679431e+001 3.272004e+001 1.153061e+002 4.669065e+000 3.822324e+000 2.569569e+000 2.952915e+000 5.375144e+000 3.195336e+000 2.843081e+000 4.429759e+000 2.899310e+000 2.280116e+000 2.161644e+000 2.139898e+000 2.558116e+000 7.178534e-001 6.799192e-001 4.046846e-001 5.186359e-001 9.968213e-001 5.483308e-001 5.275623e-001 8.058794e-001 5.338314e-001 4.370871e-001 4.214758e-001 3.935655e-001 4.427637e-001
<GCONST> 1.301039e+002
<TRANSP> 3
 0.000000e+000 1.000000e+000 0.000000e+000
 0.000000e+000 9.984567e-001 1.543268e-003
 0.000000e+000 0.000000e+000 0.000000e+000
<ENDHMM>
~h "MKK"
<BEGINHMM>
<NUMSTATES> 3
<STATE> 2
<NUMMIXES> 2
<MIXTURE> 1 4.963824e-001
<MEAN> 39
 -5.486207e+000 -8.791901e-001 5.509856e+000 -7.064563e+000 1.143571e-001 -3.118461e+000 4.048460e-001 2.532573e+000 2.103936e+000 8.483410e-001 -1.353213e+000 -9.864264e-001 6.115483e+001 -4.007922e-002 2.661947e-001 1.523339e-001 3.619432e-001 2.341443e-001 2.100900e-001 2.799344e-001 1.018771e-001 1.807974e-001 1.250664e-001 2.557214e-001 1.226918e-001 -1.771280e-001 -1.870221e-002 4.217485e-002 2.830139e-002 8.674992e-002 4.238633e-002 4.331020e-002 6.782936e-002 9.029992e-003 4.404053e-002 1.993709e-002 5.496944e-002 1.733079e-002 -5.452485e-002
<VARIANCE> 39
 7.045270e+001 3.167877e+001 5.593849e+001 8.046684e+001 3.578824e+001 4.268460e+001 4.391793e+001 3.287426e+001 4.782096e+001 3.041059e+001 3.364653e+001 1.893192e+001 8.731624e+001 2.894228e+000 2.249377e+000 2.314603e+000 4.646574e+000 2.342799e+000 2.494165e+000 2.892771e+000 2.701105e+000 3.354486e+000 2.320502e+000 2.372245e+000 1.635907e+000 3.443519e+000 4.728214e-001 4.055842e-001 3.992965e-001 7.884369e-001 4.558296e-001 4.752350e-001 5.592969e-001 5.269313e-001 6.210875e-001 4.559556e-001 4.480292e-001 3.249058e-001 5.182002e-001
<GCONST> 1.239248e+002
<MIXTURE> 2 5.036166e-001
<MEAN> 39
 -5.868398e+000 -1.927522e+000 4.938104e+000 -7.270722e+000 -2.901582e-001 -3.895520e+000 -4.677089e-001 2.119253e+000 2.248125e+000 7.075683e-001 -1.541275e+000 -1.311945e+000 6.121679e+001 3.851465e-002 -2.600706e-001 -1.472281e-001 -3.516775e-001 -2.258181e-001 -2.034587e-001 -2.708754e-001 -9.786094e-002 -1.738700e-001 -1.213793e-001 -2.469607e-001 -1.199970e-001 1.709624e-001 1.801188e-002 -4.148611e-002 -2.695343e-002 -8.505443e-002 -4.244902e-002 -4.324525e-002 -6.689844e-002 -8.954695e-003 -4.365396e-002 -1.906726e-002 -5.399191e-002 -1.688837e-002 5.385477e-002
<VARIANCE> 39
 6.772478e+001 3.367168e+001 5.288515e+001 7.577078e+001 3.477517e+001 3.936426e+001 4.305849e+001 3.258423e+001 4.673582e+001 3.025378e+001 3.267578e+001 1.803883e+001 9.015414e+001 3.453580e+000 2.156140e+000 2.305427e+000 4.287012e+000 2.420328e+000 2.542343e+000 3.103378e+000 2.653923e+000 3.462790e+000 2.335813e+000 2.306327e+000 1.582369e+000 3.119226e+000 4.348985e-001 3.966587e-001 3.575113e-001 7.705324e-001 4.597166e-001 4.596616e-001 5.617934e-001 5.139792e-001 6.386418e-001 4.582810e-001 4.349021e-001 3.132272e-001 5.394393e-001
<GCONST> 1.233723e+002
<TRANSP> 3
 0.000000e+000 1.000000e+000 0.000000e+000
 0.000000e+000 9.987468e-001 1.253211e-003
 0.000000e+000 0.000000e+000 0.000000e+000
<ENDHMM>
~h "MMS"
<BEGINHMM>
<NUMSTATES> 3
<STATE> 2
<NUMMIXES> 2
<MIXTURE> 1 4.925795e-001
<MEAN> 39
 -6.939007e+000 2.417878e+000 5.196791e+000 5.081829e-001 4.967774e-001 1.635619e+000 5.941196e-001 8.100721e-002 3.637714e+000 5.360633e-001 4.175921e+000 1.253457e-001 6.409001e+001 -3.384774e-001 2.703417e-001 8.083688e-004 2.416408e-001 3.970259e-001 1.049280e-001 3.500672e-001 1.879614e-001 5.496950e-002 2.470528e-001 4.200803e-002 2.534243e-001 -3.814807e-001 -1.719277e-002 -2.998805e-003 6.693407e-003 3.085492e-002 2.046265e-002 3.947850e-002 5.131353e-002 6.658473e-003 1.406745e-002 1.223361e-002 1.686982e-003 3.530407e-002 -2.579091e-002
<VARIANCE> 39
 8.270526e+001 3.512734e+001 5.116916e+001 4.750849e+001 7.793676e+001 4.898511e+001 6.852167e+001 5.323199e+001 4.065039e+001 3.697600e+001 2.493012e+001 3.807059e+001 9.632642e+001 4.336137e+000 2.608566e+000 2.671154e+000 3.183847e+000 4.281633e+000 2.972175e+000 3.271841e+000 3.092232e+000 2.927043e+000 2.844959e+000 2.378407e+000 2.399038e+000 3.301761e+000 6.562870e-001 4.850884e-001 4.291774e-001 5.753263e-001 7.237120e-001 5.418229e-001 5.959830e-001 5.620502e-001 5.353686e-001 5.501598e-001 4.664207e-001 4.528043e-001 5.954144e-001
<GCONST> 1.292460e+002
<MIXTURE> 2 5.074194e-001
<MEAN> 39
 -4.330495e+000 9.692613e-001 5.763222e+000 -1.388219e+000 -3.517901e+000 7.099088e-001 -2.872406e+000 -2.842527e+000 2.989111e+000 -1.358282e+000 3.638854e+000 -1.774248e+000 6.902764e+001 3.303697e-001 -2.619648e-001 -9.562863e-004 -2.346116e-001 -3.838389e-001 -1.029134e-001 -3.385946e-001 -1.813626e-001 -5.618627e-002 -2.397262e-001 -3.803089e-002 -2.459154e-001 3.683603e-001 1.720979e-002 2.397558e-003 -6.910842e-003 -3.032497e-002 -1.939227e-002 -3.781697e-002 -4.985064e-002 -5.679531e-003 -1.379965e-002 -1.217307e-002 -2.735534e-003 -3.480710e-002 2.520524e-002
<VARIANCE> 39
 8.443695e+001 4.293793e+001 6.451452e+001 5.287394e+001 7.503704e+001 5.634565e+001 5.745269e+001 5.744230e+001 5.195081e+001 4.046466e+001 3.088476e+001 3.825628e+001 5.840876e+001 5.312959e+000 3.287183e+000 3.347146e+000 4.030821e+000 5.409813e+000 3.735829e+000 4.190598e+000 4.118774e+000 3.838457e+000 3.558360e+000 2.909287e+000 2.859480e+000 3.982519e+000 7.481564e-001 6.006744e-001 5.156147e-001 7.398170e-001 9.380593e-001 6.499529e-001 7.391311e-001 7.270445e-001 6.818524e-001 6.384552e-001 5.771531e-001 5.252806e-001 7.373782e-001
<GCONST> 1.354742e+002
<TRANSP> 3
 0.000000e+000 1.000000e+000 0.000000e+000
 0.000000e+000 9.981932e-001 1.806810e-003
 0.000000e+000 0.000000e+000 0.000000e+000
<ENDHMM>
~h "MOS"
<BEGINHMM>
<NUMSTATES> 3
<STATE> 2
<NUMMIXES> 2
<MIXTURE> 1 4.947126e-001
<MEAN> 39
 -7.760632e+000 -1.857745e+000 2.810851e+000 -5.260947e+000 -2.874903e+000 -5.767594e+000 -2.029376e+000 4.414422e-001 2.688792e+000 8.287972e-001 1.701276e+000 -2.102744e+000 5.719942e+001 -2.963253e-001 2.019113e-001 5.490216e-002 3.086506e-001 3.118626e-001 2.268165e-001 3.642963e-001 1.141631e-001 2.889614e-001 1.408177e-001 2.028697e-001 2.928618e-001 -2.414224e-001 -3.717476e-002 1.225521e-002 2.213608e-002 3.910381e-002 4.297121e-002 3.035568e-002 5.821871e-002 1.394113e-002 3.077694e-002 7.465695e-003 2.107039e-002 2.997022e-002 -9.510013e-003
<VARIANCE> 39
 7.649059e+001 3.474996e+001 4.634727e+001 4.438428e+001 5.000613e+001 4.476976e+001 4.894814e+001 3.595520e+001 4.369073e+001 3.059090e+001 3.236226e+001 3.214395e+001 8.462110e+001 3.136312e+000 2.534782e+000 2.028587e+000 2.837645e+000 2.948908e+000 2.643570e+000 2.748520e+000 2.844266e+000 3.054348e+000 2.619268e+000 2.424818e+000 2.176818e+000 2.897928e+000 4.723386e-001 4.473455e-001 3.384502e-001 5.056207e-001 5.459549e-001 4.999702e-001 5.233532e-001 5.461378e-001 5.576504e-001 5.230708e-001 4.640336e-001 4.158785e-001 4.499629e-001
<GCONST> 1.241556e+002
<MIXTURE> 2 5.052871e-001
<MEAN> 39
 -5.380535e+000 -3.095227e+000 3.568386e+000 -6.908786e+000 -5.016348e+000 -6.830940e+000 -4.327093e+000 -1.915111e-001 1.169167e+000 -2.068020e-002 1.081511e+000 -4.251588e+000 6.015805e+001 2.907218e-001 -1.967110e-001 -5.406255e-002 -3.031511e-001 -3.055218e-001 -2.244984e-001 -3.537747e-001 -1.139847e-001 -2.819512e-001 -1.395236e-001 -2.030477e-001 -2.884316e-001 2.382524e-001 3.614658e-002 -1.155509e-002 -2.113773e-002 -3.779904e-002 -4.163241e-002 -3.030983e-002 -5.806875e-002 -1.414640e-002 -3.125320e-002 -7.202637e-003 -1.960618e-002 -2.946817e-002 9.043637e-003
<VARIANCE> 39
 6.820951e+001 4.270613e+001 5.483187e+001 5.030175e+001 5.405209e+001 4.763248e+001 5.496047e+001 4.208136e+001 4.814784e+001 3.655238e+001 3.842284e+001 4.046539e+001 7.533533e+001 3.403811e+000 2.786598e+000 2.495744e+000 3.269659e+000 3.571797e+000 3.214687e+000 3.208327e+000 3.348923e+000 3.375962e+000 3.135717e+000 2.773286e+000 2.699043e+000 2.611825e+000 4.431132e-001 5.000772e-001 3.918967e-001 5.826570e-001 6.388704e-001 5.994122e-001 5.751997e-001 6.158802e-001 5.989940e-001 6.031390e-001 5.201219e-001 4.823899e-001 4.439494e-001
<GCONST> 1.286226e+002
<TRANSP> 3
 0.000000e+000 1.000000e+000 0.000000e+000
 0.000000e+000 9.984926e-001 1.507387e-003
 0.000000e+000 0.000000e+000 0.000000e+000
<ENDHMM>
~h "MPM"
<BEGINHMM>
<NUMSTATES> 3
<STATE> 2
<NUMMIXES> 2
<MIXTURE> 1 5.025104e-001
<MEAN> 39
 -8.280672e+000 3.664191e+000 2.472541e+000 2.138593e+000 -2.286234e+000 -2.744845e-001 -2.643781e+000 1.033205e-002 -7.966009e-001 1.953447e+000 1.315089e+000 -1.079140e+000 6.342368e+001 2.295138e-002 1.253906e-001 8.811544e-002 1.500221e-001 1.699504e-001 1.458563e-001 1.869289e-001 6.986097e-002 1.640384e-001 1.243840e-001 1.292529e-001 1.501723e-001 -2.728469e-002 7.900109e-003 4.561175e-002 4.218540e-002 5.148420e-002 4.048213e-002 2.543579e-002 4.644750e-002 -8.269552e-003 3.583708e-002 1.237219e-002 2.292771e-002 3.468381e-002 -2.477801e-002
<VARIANCE> 39
 6.693487e+001 4.166535e+001 6.668102e+001 3.862410e+001 6.676856e+001 6.018789e+001 7.411423e+001 5.349676e+001 4.843774e+001 4.069076e+001 2.996212e+001 3.907109e+001 9.213738e+001 2.867695e+000 2.161090e+000 2.873547e+000 2.540508e+000 3.851008e+000 3.056930e+000 3.250507e+000 3.625295e+000 3.059250e+000 2.722442e+000 2.449039e+000 2.287260e+000 2.180613e+000 4.327866e-001 3.883579e-001 4.900798e-001 4.751463e-001 7.158656e-001 5.719268e-001 6.279438e-001 6.870950e-001 5.927154e-001 5.258254e-001 4.891073e-001 4.375964e-001 3.713086e-001
<GCONST> 1.279176e+002
<MIXTURE> 2 4.974888e-001
<MEAN> 39
 -7.644356e+000 3.849151e+000 3.878198e+000 1.873378e+000 -3.650405e+000 -1.131976e+000 -4.377274e+000 -1.135724e+000 -1.989280e+000 1.335107e+000 9.235227e-001 -2.095893e+000 6.579567e+001 -2.221739e-002 -1.210825e-001 -9.169081e-002 -1.541475e-001 -1.676198e-001 -1.419826e-001 -1.873151e-001 -7.274279e-002 -1.639141e-001 -1.193037e-001 -1.278166e-001 -1.527401e-001 2.199175e-002 -8.121485e-003 -4.653228e-002 -4.270438e-002 -5.211706e-002 -4.139929e-002 -2.604250e-002 -4.812579e-002 8.253743e-003 -3.638193e-002 -1.269776e-002 -2.284143e-002 -3.383120e-002 2.521767e-002
<VARIANCE> 39
 7.402273e+001 4.813134e+001 7.140475e+001 4.328796e+001 6.891190e+001 6.153118e+001 6.569995e+001 5.919308e+001 5.012654e+001 4.458491e+001 3.264510e+001 3.909155e+001 6.806036e+001 3.425679e+000 2.473820e+000 3.457643e+000 2.951343e+000 4.335650e+000 3.484833e+000 3.679956e+000 4.138984e+000 3.393009e+000 2.946529e+000 2.629970e+000 2.547128e+000 2.471332e+000 4.407203e-001 4.260553e-001 5.358062e-001 5.473478e-001 7.933308e-001 6.255812e-001 6.958566e-001 7.654802e-001 6.440937e-001 5.558074e-001 5.256105e-001 4.716601e-001 4.251619e-001
<GCONST> 1.310947e+002
<TRANSP> 3
 0.000000e+000 1.000000e+000 0.000000e+000
 0.000000e+000 9.985227e-001 1.477323e-003
 0.000000e+000 0.000000e+000 0.000000e+000
<ENDHMM>
~h "MPS"
<BEGINHMM>
<NUMSTATES> 3
<STATE> 2
<NUMMIXES> 2
<MIXTURE> 1 4.937857e-001
<MEAN> 39
 -6.696538e+000 -4.439547e-001 4.059552e+000 -8.073883e-001 -6.614479e-001 9.590513e-001 -1.293878e-001 8.471765e-002 2.433382e+000 1.538313e+000 3.490354e+000 2.505902e-001 6.351421e+001 -2.251227e-001 2.058758e-001 -3.596162e-002 1.628653e-001 1.999167e-001 1.154312e-001 2.405791e-001 1.263627e-001 1.514341e-001 1.327395e-001 1.771206e-001 1.689075e-001 -2.515013e-001 -3.033991e-002 1.180971e-002 9.531433e-003 2.346782e-002 2.224515e-002 1.867018e-002 4.030288e-002 2.034897e-002 1.806517e-002 1.226500e-002 1.740485e-002 2.618035e-002 -1.716976e-002
<VARIANCE> 39
 8.688653e+001 3.839518e+001 6.335281e+001 4.579057e+001 6.067136e+001 3.710566e+001 5.744690e+001 4.101877e+001 4.944054e+001 2.597182e+001 2.553692e+001 2.544345e+001 1.108538e+002 3.901195e+000 2.581685e+000 2.559690e+000 2.754626e+000 2.902898e+000 2.289604e+000 2.732154e+000 2.500950e+000 2.682477e+000 1.854376e+000 1.733546e+000 1.424891e+000 2.880204e+000 5.871786e-001 4.590521e-001 4.107156e-001 4.701279e-001 5.071983e-001 4.269795e-001 5.182841e-001 4.783809e-001 4.987646e-001 3.638170e-001 3.407793e-001 2.812546e-001 4.988812e-001
<GCONST> 1.226072e+002
<MIXTURE> 2 5.062137e-001
<MEAN> 39
 -4.158804e+000 -1.855447e+000 5.523374e+000 -2.856430e+000 -4.164356e+000 1.561085e-001 -3.599874e+000 -2.095576e+000 4.511883e-001 5.504864e-001 1.986229e+000 -1.868039e+000 6.951579e+001 2.209257e-001 -2.001118e-001 3.722692e-002 -1.583703e-001 -1.937766e-001 -1.136533e-001 -2.350684e-001 -1.244635e-001 -1.501029e-001 -1.284817e-001 -1.716731e-001 -1.658035e-001 2.434510e-001 2.940753e-002 -1.126768e-002 -9.338974e-003 -2.258119e-002 -2.151813e-002 -1.821516e-002 -3.926831e-002 -2.053750e-002 -1.807982e-002 -1.128137e-002 -1.671324e-002 -2.491161e-002 1.642455e-002
<VARIANCE> 39
 1.054796e+002 5.488126e+001 8.364673e+001 6.195313e+001 6.461880e+001 4.865599e+001 5.977509e+001 4.334935e+001 5.792265e+001 3.016934e+001 2.971913e+001 2.529403e+001 7.928867e+001 5.777066e+000 3.588880e+000 3.759630e+000 3.960007e+000 4.029586e+000 3.063902e+000 3.644696e+000 3.370208e+000 3.717320e+000 2.247441e+000 2.122951e+000 1.784236e+000 3.760374e+000 7.792447e-001 6.185625e-001 5.608338e-001 6.796097e-001 6.949440e-001 5.280005e-001 6.469268e-001 6.237673e-001 6.486153e-001 4.178126e-001 3.995253e-001 3.358462e-001 6.053616e-001
<GCONST> 1.313809e+002
<TRANSP> 3
 0.000000e+000 1.000000e+000 0.000000e+000
 0.000000e+000 9.983956e-001 1.604428e-003
 0.000000e+000 0.000000e+000 0.000000e+000
<ENDHMM>
~h "MVL"
<BEGINHMM>
<NUMSTATES> 3
<STATE> 2
<NUMMIXES> 2
<MIXTURE> 1 5.037488e-001
<MEAN> 39
 -7.164723e+000 5.440721e-002 1.599998e+000 1.911121e-001 -5.341378e+000 2.269314e+000 -2.889763e+000 -5.572278e-001 1.481247e+000 2.175893e+000 -2.102149e+000 -9.879611e-001 6.728493e+001 -1.184572e-001 1.857752e-001 5.131639e-002 1.707833e-001 2.130588e-001 7.163771e-002 2.266349e-001 1.487418e-001 1.265554e-001 1.369692e-001 1.429024e-001 1.695834e-001 -1.599824e-001 -3.424355e-002 3.971606e-002 3.610720e-003 2.555727e-002 7.216905e-002 -1.824310e-002 7.501379e-002 3.926754e-002 1.415296e-002 1.220583e-002 1.840043e-002 3.231775e-002 -4.282110e-002
<VARIANCE> 39
 6.973312e+001 4.345395e+001 6.687468e+001 3.810295e+001 9.991187e+001 5.097953e+001 7.982312e+001 6.012425e+001 4.106419e+001 2.857564e+001 2.905958e+001 3.472953e+001 1.335433e+002 3.537013e+000 3.173538e+000 2.928452e+000 2.437005e+000 5.346651e+000 3.468612e+000 3.963425e+000 3.189085e+000 3.059906e+000 2.315365e+000 2.170955e+000 2.026042e+000 3.256264e+000 5.839199e-001 5.664971e-001 4.990863e-001 4.527983e-001 9.664462e-001 6.705624e-001 7.733994e-001 6.149517e-001 6.082644e-001 4.702912e-001 4.295874e-001 3.997434e-001 5.971589e-001
<GCONST> 1.305884e+002
<MIXTURE> 2 4.962508e-001
<MEAN> 39
 -6.002991e+000 -7.749636e-001 2.487071e+000 -6.869287e-001 -8.091913e+000 1.091688e+000 -5.430481e+000 -2.889298e+000 5.031936e-001 2.148709e+000 -3.183458e+000 -2.783629e+000 7.181362e+001 1.200303e-001 -1.867774e-001 -5.159347e-002 -1.706130e-001 -2.169815e-001 -7.387158e-002 -2.324724e-001 -1.562138e-001 -1.323839e-001 -1.351193e-001 -1.535167e-001 -1.760574e-001 1.646586e-001 3.705551e-002 -4.071691e-002 -4.361090e-003 -2.659062e-002 -7.332858e-002 1.807543e-002 -7.881019e-002 -3.975935e-002 -1.600634e-002 -1.213590e-002 -1.925104e-002 -3.351217e-002 4.296039e-002
<VARIANCE> 39
 8.025723e+001 5.481739e+001 7.613791e+001 4.605489e+001 9.912122e+001 5.852538e+001 7.338312e+001 5.834715e+001 4.968009e+001 3.253259e+001 3.103588e+001 3.514901e+001 9.201083e+001 4.891638e+000 4.003105e+000 4.080083e+000 3.159233e+000 7.185858e+000 4.446048e+000 5.061759e+000 4.190012e+000 4.051021e+000 2.790644e+000 2.599585e+000 2.513253e+000 4.195899e+000 7.071047e-001 6.665053e-001 6.216974e-001 5.526051e-001 1.262834e+000 8.119552e-001 9.341416e-001 7.887712e-001 7.567039e-001 5.414166e-001 5.088605e-001 4.634458e-001 7.075795e-001
<GCONST> 1.371632e+002
<TRANSP> 3
 0.000000e+000 1.000000e+000 0.000000e+000
 0.000000e+000 9.980396e-001 1.960400e-003
 0.000000e+000 0.000000e+000 0.000000e+000
<ENDHMM>
~h "ZLG"
<BEGINHMM>
<NUMSTATES> 3
<STATE> 2
<NUMMIXES> 2
<MIXTURE> 1 4.968164e-001
<MEAN> 39
 -8.145343e+000 2.691685e+000 -1.564569e+000 -5.497675e-001 -3.358264e+000 -2.774204e+000 -4.005175e+000 -4.396361e+000 -2.821692e+000 -1.758046e+000 -3.618593e+000 -1.854087e+000 6.218819e+001 -3.767649e-001 3.579522e-002 8.794712e-002 2.326026e-001 3.649524e-001 1.766260e-001 4.109451e-001 2.670650e-001 3.007587e-001 2.159033e-001 3.091095e-001 3.027793e-001 -1.509719e-001 -3.803230e-002 -3.178789e-002 2.171411e-002 6.958274e-003 2.757075e-002 2.210634e-002 3.677702e-002 5.300868e-002 5.122019e-002 4.078572e-002 4.537407e-002 4.363167e-002 2.741584e-002
<VARIANCE> 39
 5.533390e+001 3.264355e+001 4.284394e+001 3.659134e+001 6.489567e+001 4.604425e+001 6.133917e+001 5.540942e+001 4.724546e+001 3.389315e+001 4.198175e+001 3.603600e+001 7.036620e+001 2.380486e+000 1.909265e+000 2.048784e+000 2.082309e+000 2.944450e+000 2.315624e+000 2.560069e+000 2.394257e+000 2.312243e+000 2.237557e+000 1.983344e+000 1.809293e+000 2.097749e+000 4.208890e-001 3.453152e-001 3.762079e-001 4.013139e-001 5.828583e-001 4.728243e-001 5.351757e-001 4.937663e-001 4.543850e-001 4.428192e-001 4.039841e-001 3.690544e-001 3.961620e-001
<GCONST> 1.211093e+002
<MIXTURE> 2 5.031834e-001
<MEAN> 39
 -4.879632e+000 1.917231e+000 -2.905973e+000 -3.918450e+000 -7.359475e+000 -5.305744e+000 -9.714830e+000 -7.996376e+000 -6.282535e+000 -3.941790e+000 -7.105916e+000 -5.016801e+000 6.808714e+001 3.701323e-001 -2.759993e-002 -8.954680e-002 -2.265334e-001 -3.537434e-001 -1.795112e-001 -4.018015e-001 -2.651392e-001 -2.969514e-001 -2.136886e-001 -2.986867e-001 -3.062451e-001 1.456448e-001 3.861817e-002 3.155619e-002 -2.127217e-002 -7.890881e-003 -2.855625e-002 -2.278983e-002 -3.562891e-002 -5.234755e-002 -5.276579e-002 -4.275250e-002 -4.644671e-002 -4.409699e-002 -2.666926e-002
<VARIANCE> 39
 5.607920e+001 4.302153e+001 6.172320e+001 4.060227e+001 6.112127e+001 4.557207e+001 5.181130e+001 4.770382e+001 4.578982e+001 4.180426e+001 3.721856e+001 3.358384e+001 3.357518e+001 3.205306e+000 2.613145e+000 2.957691e+000 3.004237e+000 4.398309e+000 3.370471e+000 3.605665e+000 3.497893e+000 2.985828e+000 2.873369e+000 2.586692e+000 2.312451e+000 2.360677e+000 4.877412e-001 4.544022e-001 4.679481e-001 5.165891e-001 7.509764e-001 5.990196e-001 6.352615e-001 6.149879e-001 5.300310e-001 5.537073e-001 4.791792e-001 4.434969e-001 3.849574e-001
<GCONST> 1.271817e+002
<TRANSP> 3
 0.000000e+000 1.000000e+000 0.000000e+000
 0.000000e+000 9.981495e-001 1.850481e-003
 0.000000e+000 0.000000e+000 0.000000e+000
<ENDHMM>
~h "ZLR"
<BEGINHMM>
<NUMSTATES> 3
<STATE> 2
<NUMMIXES> 2
<MIXTURE> 1 4.982505e-001
<MEAN> 39
 -7.406923e+000 2.968737e+000 2.279132e+000 -1.326420e+000 2.529475e+000 -2.214832e+000 2.169262e+000 -2.489487e+000 6.512035e-001 -6.893979e-001 8.347228e-001 1.044922e+000 6.293464e+001 -3.599307e-001 1.491505e-001 1.016064e-001 5.575843e-001 2.991516e-001 5.065637e-001 2.985381e-001 4.914749e-001 3.086589e-001 3.001522e-001 4.628185e-001 2.921487e-001 -5.393583e-001 -4.244488e-002 -3.769505e-002 6.733072e-003 3.672526e-002 2.988268e-002 5.710826e-002 3.199409e-002 4.968492e-002 3.341857e-002 4.515272e-002 4.963335e-002 2.975633e-002 -1.423916e-002
<VARIANCE> 39
 5.187222e+001 3.459539e+001 4.052003e+001 9.132355e+001 5.678163e+001 7.261285e+001 4.730100e+001 6.842675e+001 4.755328e+001 3.650264e+001 5.035039e+001 2.704109e+001 1.018662e+002 2.826395e+000 2.631117e+000 2.110832e+000 5.040827e+000 2.908602e+000 3.642170e+000 2.662807e+000 3.815988e+000 2.558529e+000 2.522840e+000 2.416467e+000 1.682076e+000 3.766672e+000 4.958787e-001 4.756856e-001 3.864807e-001 9.371909e-001 5.669093e-001 7.315538e-001 5.248958e-001 7.610260e-001 4.991204e-001 4.869534e-001 4.569294e-001 3.440879e-001 7.578351e-001
<GCONST> 1.289354e+002
<MIXTURE> 2 5.017491e-001
<MEAN> 39
 -4.839698e+000 1.257520e+000 1.141004e+000 -7.214590e+000 -1.196858e+000 -6.706315e+000 -1.726957e+000 -7.575912e+000 -3.303000e+000 -3.074308e+000 -4.171461e+000 -2.331099e+000 7.060998e+001 3.618483e-001 -1.490821e-001 -9.858675e-002 -5.535195e-001 -2.943717e-001 -5.045449e-001 -2.965587e-001 -4.879533e-001 -3.091459e-001 -2.981752e-001 -4.618770e-001 -2.882367e-001 5.323331e-001 4.223427e-002 3.715355e-002 -6.448019e-003 -3.665629e-002 -3.027257e-002 -5.762989e-002 -3.359598e-002 -5.055586e-002 -3.318970e-002 -4.471345e-002 -4.936612e-002 -2.853599e-002 1.453004e-002
<VARIANCE> 39
 4.977814e+001 5.307764e+001 5.892888e+001 9.268179e+001 5.962260e+001 6.674026e+001 5.101516e+001 7.286309e+001 5.337518e+001 5.116003e+001 5.653112e+001 3.157523e+001 5.906533e+001 3.664711e+000 3.789454e+000 3.215980e+000 8.202028e+000 4.348024e+000 5.477613e+000 3.955697e+000 6.243653e+000 3.537057e+000 3.538336e+000 3.716959e+000 2.472746e+000 4.633485e+000 5.862628e-001 6.505211e-001 5.362864e-001 1.445245e+000 7.789904e-001 9.961706e-001 7.336627e-001 1.171588e+000 6.285398e-001 6.669778e-001 6.535541e-001 4.687019e-001 8.246935e-001
<GCONST> 1.388399e+002
<TRANSP> 3
 0.000000e+000 1.000000e+000 0.000000e+000
 0.000000e+000 9.984344e-001 1.565619e-003
 0.000000e+000 0.000000e+000 0.000000e+000
<ENDHMM>
~h "ZNM"
<BEGINHMM>
<NUMSTATES> 3
<STATE> 2
<NUMMIXES> 2
<MIXTURE> 1 4.878558e-001
<MEAN> 39
 -9.865251e+000 -2.021268e+000 2.272248e+000 -5.768383e+000 -2.021583e+000 -9.655410e+000 4.343448e+000 -2.473397e+000 1.218414e-001 7.943298e-001 5.384775e-001 -1.669446e+000 6.037146e+001 -2.878631e-001 1.671795e-001 5.605844e-002 4.382253e-001 2.762074e-001 5.347071e-001 1.708849e-001 4.475124e-001 4.377159e-001 2.262595e-001 3.587943e-001 3.075166e-001 -3.451659e-001 -3.005771e-002 -2.589253e-003 2.942900e-002 2.918207e-002 4.255026e-002 7.164717e-002 4.316789e-002 5.413581e-002 6.353936e-002 2.537259e-002 4.103810e-002 5.687084e-002 -7.858220e-003
<VARIANCE> 39
 7.311734e+001 3.377499e+001 6.229380e+001 7.477906e+001 4.761570e+001 1.005504e+002 3.909701e+001 5.878778e+001 6.483533e+001 2.948055e+001 4.172631e+001 3.470544e+001 1.100291e+002 2.805893e+000 2.207391e+000 2.536084e+000 3.921041e+000 2.476341e+000 4.998261e+000 2.385559e+000 3.360238e+000 3.501876e+000 2.409175e+000 2.503418e+000 2.133458e+000 4.621930e+000 4.239454e-001 3.906591e-001 4.296990e-001 6.427239e-001 4.497972e-001 8.550547e-001 4.487188e-001 6.215209e-001 6.491840e-001 4.764947e-001 4.564091e-001 3.989382e-001 7.327112e-001
<GCONST> 1.292352e+002
<MIXTURE> 2 5.121437e-001
<MEAN> 39
 -7.588725e+000 -3.024811e+000 2.823354e+000 -9.605745e+000 -3.424362e+000 -1.316468e+001 3.473232e+000 -5.105344e+000 -2.536155e+000 -1.288206e-001 -1.991824e+000 -3.383733e+000 6.437141e+001 2.743943e-001 -1.553355e-001 -5.368843e-002 -4.161709e-001 -2.550363e-001 -5.025073e-001 -1.671825e-001 -4.312081e-001 -4.162193e-001 -2.150364e-001 -3.452055e-001 -2.910879e-001 3.230634e-001 2.854750e-002 2.780359e-003 -2.763346e-002 -2.818595e-002 -4.132890e-002 -6.873298e-002 -4.154624e-002 -5.190709e-002 -6.047847e-002 -2.373721e-002 -3.857896e-002 -5.382618e-002 7.900281e-003
<VARIANCE> 39
 6.540602e+001 4.213041e+001 8.120148e+001 7.990250e+001 5.211050e+001 9.651894e+001 4.508563e+001 6.237379e+001 7.262178e+001 3.217947e+001 5.111832e+001 3.934090e+001 8.834789e+001 3.248569e+000 2.133603e+000 2.850555e+000 3.897162e+000 2.586229e+000 5.159040e+000 2.610735e+000 3.548071e+000 3.842390e+000 2.421362e+000 2.514030e+000 2.218321e+000 3.712839e+000 4.213425e-001 3.718822e-001 4.213054e-001 6.186337e-001 4.437225e-001 8.014632e-001 4.704827e-001 6.166937e-001 6.413181e-001 4.576795e-001 4.525343e-001 3.866460e-001 6.237119e-001
<GCONST> 1.301967e+002
<TRANSP> 3
 0.000000e+000 1.000000e+000 0.000000e+000
 0.000000e+000 9.989859e-001 1.014070e-003
 0.000000e+000 0.000000e+000 0.000000e+000
<ENDHMM>
~h "ZSS"
<BEGINHMM>
<NUMSTATES> 3
<STATE> 2
<NUMMIXES> 2
<MIXTURE> 1 5.043840e-001
<MEAN> 39
 -7.953825e+000 3.352163e+000 2.779731e+000 -6.296646e-001 7.768337e-001 1.931711e+000 2.018355e+000 2.525151e+000 4.681513e-001 2.868753e+000 1.520471e+000 3.036465e+000 5.218724e+001 -4.911864e-001 2.514279e-001 1.798357e-001 5.114403e-001 5.311814e-001 1.589557e-001 5.521521e-001 2.024094e-001 5.584973e-001 1.637072e-001 6.006160e-001 1.630238e-001 -5.566091e-001 -5.071099e-002 -3.366304e-002 2.585066e-002 2.803490e-002 7.062336e-002 3.676455e-002 6.205241e-002 2.158390e-002 5.258172e-002 1.207829e-003 5.908991e-002 9.709337e-003 -3.277302e-002
<VARIANCE> 39
 6.985909e+001 3.428820e+001 4.391302e+001 6.442223e+001 7.731052e+001 4.218613e+001 7.399134e+001 4.472822e+001 6.423756e+001 3.113845e+001 7.157129e+001 2.361979e+001 8.740350e+001 3.185402e+000 2.711393e+000 2.273275e+000 3.689009e+000 3.953351e+000 2.944630e+000 3.566051e+000 2.810102e+000 3.480255e+000 2.638055e+000 3.292328e+000 1.716743e+000 3.565983e+000 5.458928e-001 5.177901e-001 3.979119e-001 6.946885e-001 7.601102e-001 5.747693e-001 6.934448e-001 5.542016e-001 6.828653e-001 5.254462e-001 6.612130e-001 3.469876e-001 6.954356e-001
<GCONST> 1.301734e+002
<MIXTURE> 2 4.956160e-001
<MEAN> 39
 -4.665672e+000 1.273069e+000 1.377011e+000 -5.097698e+000 -3.440742e+000 -3.911396e-001 -3.218031e+000 -2.410331e-001 -4.191810e+000 1.439458e+000 -3.760122e+000 9.734994e-001 5.823288e+001 4.959158e-001 -2.519732e-001 -1.817150e-001 -5.134062e-001 -5.341862e-001 -1.619523e-001 -5.582913e-001 -2.061573e-001 -5.694952e-001 -1.694531e-001 -6.125279e-001 -1.610853e-001 5.623886e-001 5.410074e-002 3.303178e-002 -2.716037e-002 -3.042305e-002 -7.164494e-002 -3.753307e-002 -6.429258e-002 -2.284939e-002 -5.303687e-002 -1.289534e-003 -6.082516e-002 -9.741914e-003 3.341708e-002
<VARIANCE> 39
 6.600198e+001 5.092023e+001 6.122326e+001 6.303812e+001 7.367429e+001 5.249914e+001 7.093997e+001 5.008599e+001 7.504517e+001 4.047696e+001 6.784061e+001 2.788089e+001 5.534997e+001 4.511366e+000 3.793652e+000 3.227424e+000 4.947042e+000 5.642308e+000 4.260679e+000 4.882067e+000 4.177504e+000 5.106649e+000 3.658192e+000 4.878039e+000 2.225528e+000 4.131474e+000 7.025496e-001 6.827133e-001 5.244879e-001 8.628016e-001 9.908050e-001 7.550575e-001 8.457222e-001 7.446656e-001 8.718044e-001 7.033052e-001 8.595730e-001 4.190472e-001 7.315383e-001
<GCONST> 1.385023e+002
<TRANSP> 3
 0.000000e+000 1.000000e+000 0.000000e+000
 0.000000e+000 9.983050e-001 1.694987e-003
 0.000000e+000 0.000000e+000 0.000000e+000
<ENDHMM>
~h "ZTK"
<BEGINHMM>
<NUMSTATES> 3
<STATE> 2
<NUMMIXES> 2
<MIXTURE> 1 4.849282e-001
<MEAN> 39
 -9.077565e+000 -3.125002e+000 3.606630e+000 -7.904453e+000 -2.249416e+000 -5.322700e+000 -8.201479e-001 1.902683e+000 -1.196417e-001 -5.918130e-001 -1.723160e+000 -3.772443e-001 6.301536e+001 -4.160339e-001 3.798887e-001 -4.263293e-002 7.251502e-001 4.884141e-001 5.060474e-001 6.043007e-001 3.131950e-001 6.486279e-001 2.604341e-001 6.141597e-001 2.870102e-001 -4.384256e-001 3.164239e-003 -1.034347e-002 1.372575e-002 1.837027e-002 4.397218e-002 5.715007e-002 5.509078e-002 3.018625e-002 4.046839e-002 5.560735e-002 7.354923e-002 5.640754e-002 -6.121907e-003
<VARIANCE> 39
 7.494470e+001 6.846627e+001 5.271798e+001 1.016227e+002 6.439465e+001 5.749186e+001 6.883987e+001 4.515949e+001 6.661675e+001 3.642756e+001 6.039186e+001 2.562942e+001 1.083750e+002 3.616966e+000 4.300022e+000 2.861005e+000 6.379034e+000 3.401054e+000 3.384425e+000 3.918736e+000 3.401873e+000 4.022794e+000 3.172923e+000 3.413588e+000 1.932837e+000 6.317808e+000 6.141159e-001 7.091071e-001 4.973759e-001 1.094350e+000 6.301026e-001 6.657543e-001 7.413505e-001 6.913285e-001 7.271714e-001 6.197000e-001 6.313609e-001 3.871685e-001 1.034549e+000
<GCONST> 1.366996e+002
<MIXTURE> 2 5.150716e-001
<MEAN> 39
 -5.038719e+000 -6.076182e+000 4.005331e+000 -1.310349e+001 -5.703438e+000 -8.456294e+000 -4.873083e+000 2.115548e-001 -4.466927e+000 -1.193148e+000 -5.570098e+000 -2.525129e+000 6.679730e+001 3.988953e-001 -3.491220e-001 4.404599e-002 -6.751363e-001 -4.520725e-001 -4.648735e-001 -5.638644e-001 -2.948511e-001 -6.033297e-001 -2.428236e-001 -5.744017e-001 -2.713763e-001 4.017096e-001 -2.717803e-003 1.075299e-002 -1.262073e-002 -1.628823e-002 -4.051938e-002 -5.130501e-002 -5.122246e-002 -2.651771e-002 -3.782769e-002 -5.290085e-002 -6.965309e-002 -5.284726e-002 4.711654e-003
<VARIANCE> 39
 5.850132e+001 8.193685e+001 6.026928e+001 1.067391e+002 6.654612e+001 5.317120e+001 6.894072e+001 5.668380e+001 7.475229e+001 3.910336e+001 6.200941e+001 2.942043e+001 8.310801e+001 3.572162e+000 4.562121e+000 3.010311e+000 7.502617e+000 3.935422e+000 3.932990e+000 4.268109e+000 4.665677e+000 4.132858e+000 3.187480e+000 3.649659e+000 2.095249e+000 5.562320e+000 5.171020e-001 7.414345e-001 4.836738e-001 1.240172e+000 6.796927e-001 6.997669e-001 7.442740e-001 8.567498e-001 7.341698e-001 6.306029e-001 6.673658e-001 3.942232e-001 9.645725e-001
<GCONST> 1.384364e+002
<TRANSP> 3
 0.000000e+000 1.000000e+000 0.000000e+000
 0.000000e+000 9.985621e-001 1.437894e-003
 0.000000e+000 0.000000e+000 0.000000e+000
<ENDHMM>
~h "ZTV"
<BEGINHMM>
<NUMSTATES> 3
<STATE> 2
<NUMMIXES> 2
<MIXTURE> 1 4.949741e-001
<MEAN> 39
 -8.087556e+000 1.554356e+000 1.145136e+000 -4.269217e+000 -3.046228e+000 -3.395079e+000 -3.978423e+000 -1.083697e+000 -2.446383e+000 -2.105297e-001 -3.335762e+000 -4.837009e-001 6.452073e+001 -2.950533e-001 4.814719e-002 1.023729e-001 3.533563e-001 4.147344e-001 2.107544e-001 5.407627e-001 2.324069e-001 4.485182e-001 1.502883e-001 5.062826e-001 1.931663e-001 -2.412036e-001 -2.601347e-002 -2.353645e-002 1.606661e-002 2.351114e-002 4.782017e-002 2.957258e-002 5.441377e-002 3.791416e-002 5.406301e-002 4.155034e-002 7.409737e-002 2.439529e-002 9.116835e-003
<VARIANCE> 39
 6.044584e+001 3.125927e+001 4.955152e+001 7.584635e+001 8.909601e+001 4.601934e+001 9.210346e+001 4.824683e+001 6.192098e+001 3.712270e+001 6.996988e+001 2.814723e+001 9.571804e+001 2.463378e+000 2.231858e+000 2.158012e+000 3.728144e+000 3.831560e+000 2.827100e+000 3.800834e+000 2.832505e+000 3.071744e+000 2.866028e+000 2.975222e+000 2.163555e+000 3.733309e+000 4.105319e-001 3.977525e-001 3.842982e-001 6.889244e-001 7.536724e-001 5.607866e-001 7.374148e-001 5.684391e-001 5.960171e-001 5.641470e-001 6.075252e-001 4.350771e-001 6.650215e-001
<GCONST> 1.302606e+002
<MIXTURE> 2 5.050251e-001
<MEAN> 39
 -5.679155e+000 3.567547e-003 1.032935e+000 -8.440509e+000 -7.611716e+000 -5.263171e+000 -9.405695e+000 -2.963320e+000 -6.394488e+000 -1.442950e+000 -7.409041e+000 -1.978324e+000 7.017423e+001 2.919249e-001 -4.838553e-002 -9.073452e-002 -3.412662e-001 -3.964055e-001 -1.986335e-001 -5.306796e-001 -2.289928e-001 -4.446350e-001 -1.559383e-001 -5.023258e-001 -1.905801e-001 2.270243e-001 2.482760e-002 2.347770e-002 -1.678870e-002 -2.236609e-002 -4.703654e-002 -2.867627e-002 -5.267241e-002 -3.655595e-002 -5.184692e-002 -3.981851e-002 -7.359900e-002 -2.547736e-002 -8.489276e-003
<VARIANCE> 39
 5.388168e+001 4.214846e+001 6.706218e+001 6.520200e+001 8.689136e+001 5.544575e+001 8.516051e+001 5.768795e+001 6.495374e+001 4.571387e+001 5.938785e+001 3.369188e+001 5.350838e+001 3.368813e+000 2.718182e+000 2.908846e+000 4.927774e+000 6.091018e+000 4.007082e+000 5.713124e+000 4.215840e+000 4.003617e+000 3.577183e+000 4.275196e+000 2.703338e+000 3.855071e+000 4.874078e-001 4.679386e-001 4.512128e-001 8.209831e-001 9.800108e-001 6.952932e-001 9.292701e-001 7.488545e-001 7.036038e-001 6.719838e-001 7.688738e-001 4.934628e-001 6.250309e-001
<GCONST> 1.366519e+002
<TRANSP> 3
 0.000000e+000 1.000000e+000 0.000000e+000
 0.000000e+000 9.983748e-001 1.625203e-003
 0.000000e+000 0.000000e+000 0.000000e+000
<ENDHMM>
~h "MPCH"
<BEGINHMM>
<NUMSTATES> 3
<STATE> 2
<NUMMIXES> 2
<MIXTURE> 1 4.935028e-001
<MEAN> 39
 -8.486784e+000 -4.683772e+000 2.374761e+000 -6.767333e+000 -3.346544e+000 -3.878246e+000 -1.441369e+000 1.239634e+000 4.866588e-001 -2.868186e-002 4.615386e-001 -1.253052e+000 6.287730e+001 -3.772547e-001 3.107768e-001 1.050560e-002 3.692142e-001 4.328848e-001 2.586412e-001 4.163735e-001 1.607334e-001 4.436649e-001 1.521695e-001 3.270979e-001 2.781370e-001 -3.874604e-001 -1.033450e-002 8.409129e-003 2.093050e-002 2.669123e-002 3.131560e-002 3.193404e-002 3.989170e-002 1.648209e-002 3.539936e-002 -2.119611e-003 3.032205e-002 2.922767e-002 8.347054e-003
<VARIANCE> 39
 8.223795e+001 4.714453e+001 5.135760e+001 6.089336e+001 6.232672e+001 3.862338e+001 5.215574e+001 3.313602e+001 6.441287e+001 2.728602e+001 3.365548e+001 2.357625e+001 1.298131e+002 3.117507e+000 3.117324e+000 2.278397e+000 3.438445e+000 3.189708e+000 2.439127e+000 3.177722e+000 2.622712e+000 3.962338e+000 2.228819e+000 2.349334e+000 1.713969e+000 4.773952e+000 5.008741e-001 5.441086e-001 3.778986e-001 6.161182e-001 5.740790e-001 4.760647e-001 6.028485e-001 5.010257e-001 7.322876e-001 4.389624e-001 4.454538e-001 3.447941e-001 7.472781e-001
<GCONST> 1.273306e+002
<MIXTURE> 2 5.064964e-001
<MEAN> 39
 -5.092041e+000 -7.364923e+000 2.845028e+000 -9.183372e+000 -6.864728e+000 -5.100296e+000 -4.012039e+000 5.115826e-001 -2.087356e+000 -1.149877e+000 -9.388033e-001 -2.718554e+000 6.736184e+001 3.661069e-001 -2.873215e-001 -1.554232e-002 -3.463803e-001 -4.163636e-001 -2.365621e-001 -3.938104e-001 -1.619001e-001 -4.332301e-001 -1.464789e-001 -3.158680e-001 -2.741720e-001 3.542930e-001 9.887817e-003 -8.475658e-003 -2.023014e-002 -2.562153e-002 -3.046197e-002 -3.081978e-002 -3.752036e-002 -1.570353e-002 -3.462145e-002 2.014039e-003 -2.940313e-002 -2.874226e-002 -8.384798e-003
<VARIANCE> 39
 7.793514e+001 5.725242e+001 6.181817e+001 6.303410e+001 7.402877e+001 4.160865e+001 5.857587e+001 3.872673e+001 7.838847e+001 3.104859e+001 3.731957e+001 2.437250e+001 9.855492e+001 3.898487e+000 3.296494e+000 2.774506e+000 4.026420e+000 3.905280e+000 2.794560e+000 3.928823e+000 3.151816e+000 4.905356e+000 2.485812e+000 2.535440e+000 1.831979e+000 4.063214e+000 5.125893e-001 5.632684e-001 4.252834e-001 6.679873e-001 6.523511e-001 5.023431e-001 6.803713e-001 5.626990e-001 8.186893e-001 4.638792e-001 4.468366e-001 3.439192e-001 6.261584e-001
<GCONST> 1.307349e+002
<TRANSP> 3
 0.000000e+000 1.000000e+000 0.000000e+000
 0.000000e+000 9.984553e-001 1.544640e-003
 0.000000e+000 0.000000e+000 0.000000e+000
<ENDHMM>
~h "MVL2"
<BEGINHMM>
<NUMSTATES> 3
<STATE> 2
<NUMMIXES> 2
<MIXTURE> 1 4.962495e-001
<MEAN> 39
 -5.760167e+000 1.861768e+000 1.925320e+000 -9.247926e-001 -3.978800e+000 -2.353410e+000 -6.123528e+000 -3.387903e+000 -5.305490e-001 1.552770e+000 1.808644e+000 7.804075e-001 7.040585e+001 -2.853141e-002 1.409621e-001 1.020785e-001 1.697068e-001 1.953018e-001 8.132792e-002 2.086076e-001 7.602719e-002 7.262989e-002 1.388983e-001 5.226763e-002 1.383151e-001 -1.997557e-002 3.084839e-002 4.907416e-002 4.180861e-002 3.826460e-002 2.330310e-002 2.113889e-002 2.673165e-002 6.743138e-003 3.059258e-002 1.020921e-002 2.325289e-002 2.370819e-002 -3.310482e-003
<VARIANCE> 39
 7.585362e+001 3.444850e+001 5.213507e+001 4.339566e+001 7.254065e+001 7.423642e+001 7.265709e+001 6.551023e+001 5.028965e+001 3.855846e+001 3.249056e+001 3.813952e+001 1.079049e+002 2.501101e+000 1.816981e+000 1.973306e+000 2.073360e+000 3.275888e+000 3.285906e+000 3.092515e+000 3.073647e+000 2.608270e+000 2.293957e+000 2.258368e+000 2.043610e+000 1.887515e+000 3.737116e-001 3.106349e-001 3.216457e-001 3.687111e-001 6.051498e-001 5.589470e-001 5.556193e-001 5.601227e-001 4.692160e-001 4.322785e-001 4.413223e-001 3.812842e-001 2.800253e-001
<GCONST> 1.240198e+002
<MIXTURE> 2 5.037497e-001
<MEAN> 39
 -3.865175e+000 1.638673e+000 2.802943e+000 -2.141104e+000 -6.323379e+000 -2.507858e+000 -8.253150e+000 -4.959136e+000 -1.286366e+000 4.105180e-001 1.776650e+000 -4.766203e-001 7.394090e+001 2.772777e-002 -1.311789e-001 -1.017249e-001 -1.666587e-001 -1.889343e-001 -7.304938e-002 -2.052078e-001 -7.848756e-002 -7.595070e-002 -1.369408e-001 -5.380018e-002 -1.423841e-001 1.613574e-002 -2.991678e-002 -4.872119e-002 -4.112612e-002 -3.850192e-002 -2.321683e-002 -2.146311e-002 -2.695770e-002 -6.968295e-003 -2.990844e-002 -1.001913e-002 -2.256333e-002 -2.308425e-002 3.452000e-003
<VARIANCE> 39
 7.496413e+001 3.809315e+001 5.397184e+001 4.779155e+001 6.891035e+001 8.051041e+001 6.921052e+001 6.120066e+001 5.469909e+001 4.134129e+001 3.441159e+001 3.864215e+001 6.709846e+001 3.196365e+000 1.994582e+000 2.159194e+000 2.286216e+000 3.913960e+000 3.792118e+000 3.446491e+000 3.479221e+000 2.986112e+000 2.562905e+000 2.470554e+000 2.337204e+000 2.159362e+000 3.615763e-001 3.279049e-001 3.236607e-001 3.988394e-001 6.677834e-001 6.102577e-001 5.925315e-001 6.056954e-001 5.131649e-001 4.619818e-001 4.683467e-001 4.042699e-001 3.032324e-001
<GCONST> 1.263749e+002
<TRANSP> 3
 0.000000e+000 1.000000e+000 0.000000e+000
 0.000000e+000 9.984708e-001 1.529223e-003
 0.000000e+000 0.000000e+000 0.000000e+000
<ENDHMM>
~h "VACLAV"
<BEGINHMM>
<NUMSTATES> 3
<STATE> 2
<NUMMIXES> 2
<MIXTURE> 1 5.055985e-001
<MEAN> 39
 -1.013690e+001 3.600015e+000 1.970023e+000 5.013766e+000 1.172275e+000 5.395498e+000 -5.187363e-001 5.971509e+000 5.152728e+000 5.453155e+000 5.300241e+000 3.426540e+000 4.335551e+001 -3.036401e-001 1.926895e-001 -3.486150e-002 3.045640e-001 3.068953e-001 7.736301e-002 3.130409e-001 1.828575e-001 2.430166e-001 2.197570e-001 1.263683e-001 2.587716e-001 -3.288395e-001 -3.493774e-002 -2.654367e-002 -7.323350e-003 1.307670e-002 3.093962e-002 7.064083e-003 4.995721e-002 1.858448e-002 3.572277e-002 2.184925e-002 8.413143e-003 3.044052e-002 -3.753338e-003
<VARIANCE> 39
 4.368159e+001 2.473701e+001 3.606487e+001 6.359679e+001 4.805312e+001 3.593210e+001 5.526248e+001 4.437944e+001 4.570986e+001 3.587005e+001 2.215630e+001 3.828322e+001 5.983053e+001 1.521002e+000 1.851400e+000 1.478544e+000 2.714954e+000 2.451467e+000 1.975384e+000 2.514534e+000 2.183309e+000 2.187651e+000 1.806386e+000 1.709190e+000 1.539814e+000 1.479794e+000 2.624300e-001 3.373987e-001 2.678118e-001 5.244278e-001 4.440571e-001 3.789891e-001 4.871413e-001 4.309023e-001 4.487114e-001 3.630962e-001 3.407340e-001 2.948059e-001 2.739249e-001
<GCONST> 1.151975e+002
<MIXTURE> 2 4.944012e-001
<MEAN> 39
 -5.325359e+000 6.122966e-001 3.843109e+000 -8.517892e-001 -3.700916e+000 3.061650e+000 -5.558599e+000 1.321717e+000 1.108781e+000 1.535524e+000 3.898692e+000 -1.114330e+000 5.070058e+001 3.105748e-001 -1.975411e-001 3.427275e-002 -3.129192e-001 -3.071971e-001 -8.080716e-002 -3.175291e-001 -1.865730e-001 -2.472271e-001 -2.209993e-001 -1.310477e-001 -2.685833e-001 3.362913e-001 3.576412e-002 2.628174e-002 8.035618e-003 -1.281199e-002 -3.247802e-002 -6.610319e-003 -5.045574e-002 -1.876743e-002 -3.716531e-002 -2.216467e-002 -8.891746e-003 -3.056660e-002 4.047055e-003
<VARIANCE> 39
 5.164941e+001 4.690156e+001 5.741647e+001 7.384562e+001 6.877392e+001 4.925805e+001 6.905272e+001 5.774126e+001 5.019683e+001 4.150344e+001 2.958955e+001 4.279596e+001 5.053119e+001 2.916609e+000 3.257890e+000 2.788451e+000 4.996121e+000 4.500341e+000 3.351203e+000 5.015222e+000 4.409390e+000 3.791110e+000 3.013210e+000 2.588746e+000 2.429930e+000 2.690403e+000 4.086953e-001 5.550976e-001 4.305969e-001 8.224053e-001 7.622432e-001 5.962847e-001 8.424907e-001 8.018040e-001 6.560752e-001 5.389388e-001 4.889190e-001 4.307208e-001 4.327973e-001
<GCONST> 1.317714e+002
<TRANSP> 3
 0.000000e+000 1.000000e+000 0.000000e+000
 0.000000e+000 9.973894e-001 2.610625e-003
 0.000000e+000 0.000000e+000 0.000000e+000
<ENDHMM>
~h "DUTKA"
<BEGINHMM>
<NUMSTATES> 3
<STATE> 2
<NUMMIXES> 2
<MIXTURE> 1 4.985667e-001
<MEAN> 39
 -1.074258e+000 -5.134016e+000 7.353110e-001 -1.586462e+001 -1.095760e+001 -3.336946e+000 -1.373334e+001 -9.594489e-001 -5.408290e+000 -4.329745e+000 -4.221700e+000 -4.904700e+000 6.169645e+001 2.260933e-001 -1.225271e-002 1.957663e-001 5.217015e-002 1.518162e-001 2.059339e-001 1.251729e-001 1.984612e-001 1.854423e-001 1.147045e-001 1.188936e-001 1.719655e-001 2.194008e-001 9.234633e-002 4.967731e-002 4.033444e-002 1.912541e-002 1.125943e-002 3.637721e-002 -1.054388e-002 1.530102e-002 3.021870e-002 1.742416e-002 1.978373e-002 1.061473e-002 4.971907e-002
<VARIANCE> 39
 1.314590e+002 1.033913e+002 1.275553e+002 1.156707e+002 8.663908e+001 1.038099e+002 7.780146e+001 8.791385e+001 6.808397e+001 4.644887e+001 4.584819e+001 3.617379e+001 1.238533e+002 4.508451e+000 5.615071e+000 4.645853e+000 5.808414e+000 4.927858e+000 5.252718e+000 5.168954e+000 5.327321e+000 4.531718e+000 3.480432e+000 3.164558e+000 2.681102e+000 3.645048e+000 6.012333e-001 8.666587e-001 7.401560e-001 1.025444e+000 8.963917e-001 8.870988e-001 9.604506e-001 9.440411e-001 8.436722e-001 6.771525e-001 5.962284e-001 5.112178e-001 5.396794e-001
<GCONST> 1.446866e+002
<MIXTURE> 2 5.014325e-001
<MEAN> 39
 -2.199369e+000 -4.434137e+000 3.037134e-002 -1.463346e+001 -1.125140e+001 -4.530868e+000 -1.403828e+001 -1.875772e+000 -6.298872e+000 -5.038418e+000 -5.075646e+000 -5.557277e+000 5.958000e+001 -2.153334e-001 -4.675987e-003 -2.014553e-001 -6.180185e-002 -1.440430e-001 -2.194602e-001 -1.318490e-001 -2.032224e-001 -1.951101e-001 -1.181842e-001 -1.323661e-001 -1.749224e-001 -1.969091e-001 -9.210382e-002 -4.901502e-002 -3.996895e-002 -1.806817e-002 -1.067982e-002 -3.649464e-002 9.383490e-003 -1.533988e-002 -3.092064e-002 -1.733082e-002 -1.924868e-002 -1.016167e-002 -4.998514e-002
<VARIANCE> 39
 1.332205e+002 9.684139e+001 1.299605e+002 1.071917e+002 8.047441e+001 8.741231e+001 7.077618e+001 8.036507e+001 6.607301e+001 4.226879e+001 4.090363e+001 3.455865e+001 1.387114e+002 3.211366e+000 4.893214e+000 4.367924e+000 5.230785e+000 4.600781e+000 4.757881e+000 4.724580e+000 4.871326e+000 4.185208e+000 3.229990e+000 2.862439e+000 2.486605e+000 3.256555e+000 4.255181e-001 7.735427e-001 6.622486e-001 8.652424e-001 8.107108e-001 7.994356e-001 8.498430e-001 8.722557e-001 7.789574e-001 6.214718e-001 5.493570e-001 4.724138e-001 4.119166e-001
<GCONST> 1.408003e+002
<TRANSP> 3
 0.000000e+000 1.000000e+000 0.000000e+000
 0.000000e+000 9.982075e-001 1.792516e-003
 0.000000e+000 0.000000e+000 0.000000e+000
<ENDHMM>
~h "BLAZEK"
<BEGINHMM>
<NUMSTATES> 3
<STATE> 2
<NUMMIXES> 2
<MIXTURE> 1 4.911962e-001
<MEAN> 39
 -7.908916e+000 -9.959145e-001 1.776007e+000 -3.614899e+000 -5.476931e-001 -3.172527e+000 -3.300888e-001 -9.013575e-001 7.343769e-001 3.559959e-001 8.727465e-001 -1.219597e+000 5.869561e+001 -6.317271e-002 1.009011e-001 1.113370e-001 1.168952e-001 2.857478e-001 5.442166e-002 3.276753e-001 1.744753e-001 2.060786e-001 1.847897e-001 1.172138e-001 2.612896e-001 1.019104e-004 5.629186e-002 1.810756e-002 5.234888e-002 3.141529e-002 1.111619e-002 4.141594e-002 1.358104e-002 2.966293e-002 3.705141e-002 2.240185e-002 3.743529e-002 1.876909e-002 1.034915e-002
<VARIANCE> 39
 7.440459e+001 3.589761e+001 5.598797e+001 4.894217e+001 4.587211e+001 5.528539e+001 5.533815e+001 3.864520e+001 3.481364e+001 2.695359e+001 2.553312e+001 2.939626e+001 9.701423e+001 3.122089e+000 2.352702e+000 2.439024e+000 3.057658e+000 3.150176e+000 3.216364e+000 3.648262e+000 2.680873e+000 2.517141e+000 2.153366e+000 2.172175e+000 1.965237e+000 3.372661e+000 5.202837e-001 4.028681e-001 4.074104e-001 5.685687e-001 6.303123e-001 5.816863e-001 7.240376e-001 5.205471e-001 4.859079e-001 4.253885e-001 4.167234e-001 4.084632e-001 5.498556e-001
<GCONST> 1.250364e+002
<MIXTURE> 2 5.088031e-001
<MEAN> 39
 -6.788119e+000 -1.839894e+000 2.024890e+000 -4.249041e+000 -1.761467e+000 -2.857636e+000 -1.767218e+000 -1.263887e+000 3.045846e-001 -1.149133e-001 1.128919e+000 -2.076154e+000 5.922327e+001 5.196720e-002 -9.236629e-002 -1.079473e-001 -1.170974e-001 -2.649812e-001 -6.292724e-002 -3.057998e-001 -1.688423e-001 -2.011265e-001 -1.709667e-001 -1.143908e-001 -2.550384e-001 2.747995e-003 -5.364710e-002 -1.855620e-002 -4.924340e-002 -2.881362e-002 -1.127171e-002 -4.029466e-002 -1.271465e-002 -2.784972e-002 -3.530975e-002 -2.290107e-002 -3.573208e-002 -1.830574e-002 -1.046729e-002
<VARIANCE> 39
 7.193362e+001 3.639192e+001 6.209692e+001 4.920486e+001 4.637695e+001 5.152301e+001 5.287915e+001 3.800531e+001 3.775774e+001 2.725427e+001 2.698575e+001 3.204044e+001 1.079441e+002 3.472204e+000 2.330822e+000 2.530166e+000 3.146333e+000 3.711468e+000 3.110494e+000 4.091191e+000 2.775112e+000 2.585017e+000 2.150497e+000 2.135312e+000 2.207362e+000 3.122228e+000 4.411759e-001 3.958107e-001 3.873266e-001 5.520508e-001 6.676587e-001 5.606034e-001 7.112101e-001 5.170179e-001 4.815868e-001 4.117043e-001 4.062155e-001 4.072707e-001 5.250352e-001
<GCONST> 1.254501e+002
<TRANSP> 3
 0.000000e+000 1.000000e+000 0.000000e+000
 0.000000e+000 9.983500e-001 1.650029e-003
 0.000000e+000 0.000000e+000 0.000000e+000
<ENDHMM>
~h "KOUNOVSKY"
<BEGINHMM>
<NUMSTATES> 3
<STATE> 2
<NUMMIXES> 2
<MIXTURE> 1 4.910251e-001
<MEAN> 39
 -8.130495e+000 -1.594910e+000 1.209834e+000 4.724782e+000 -7.949767e+000 5.641659e+000 -3.347829e+000 -2.342988e+000 -1.087910e+000 2.772414e+000 -1.693102e+000 -1.218462e+000 5.444971e+001 -2.878958e-002 1.428384e-001 3.671249e-002 1.381401e-001 1.811211e-001 6.828970e-002 2.133256e-001 6.836969e-002 1.003883e-001 1.109297e-001 1.156829e-001 1.379148e-001 -6.083509e-002 -1.470822e-002 3.687479e-002 2.452105e-002 4.804761e-002 4.931248e-002 2.062359e-002 5.557392e-002 2.120961e-002 2.135737e-002 1.222982e-002 3.328830e-002 2.713461e-002 -3.730283e-002
<VARIANCE> 39
 7.410501e+001 4.136464e+001 5.683005e+001 4.376827e+001 1.033485e+002 5.690364e+001 5.655591e+001 5.347283e+001 4.968150e+001 3.962526e+001 3.739243e+001 2.999889e+001 1.466176e+002 2.787235e+000 2.474391e+000 2.201155e+000 2.364964e+000 3.927707e+000 2.838081e+000 3.453629e+000 2.500880e+000 2.946014e+000 2.261504e+000 1.999014e+000 1.640728e+000 2.776010e+000 4.014081e-001 4.139039e-001 3.720002e-001 3.855805e-001 5.929739e-001 4.740478e-001 5.958994e-001 4.475411e-001 5.277721e-001 4.155665e-001 3.756953e-001 3.028011e-001 4.258811e-001
<GCONST> 1.251949e+002
<MIXTURE> 2 5.089744e-001
<MEAN> 39
 -6.151052e+000 -3.097247e+000 3.270101e+000 4.628582e+000 -1.160114e+001 5.635684e+000 -5.538575e+000 -4.583848e+000 -2.713083e+000 1.450612e+000 -3.257167e+000 -2.922874e+000 5.939996e+001 1.824036e-002 -1.397878e-001 -3.860904e-002 -1.386274e-001 -1.769434e-001 -6.442924e-002 -2.077174e-001 -7.606514e-002 -1.117593e-001 -1.192189e-001 -1.176420e-001 -1.478341e-001 5.229153e-002 1.481158e-002 -3.564052e-002 -2.345304e-002 -4.743992e-002 -4.808631e-002 -2.025640e-002 -5.224570e-002 -2.103394e-002 -1.806290e-002 -1.176851e-002 -3.241197e-002 -2.369633e-002 3.619570e-002
<VARIANCE> 39
 8.553473e+001 5.176484e+001 7.237090e+001 5.648589e+001 1.043270e+002 6.904293e+001 6.569176e+001 5.399290e+001 5.811964e+001 4.883297e+001 3.478613e+001 2.892459e+001 1.100729e+002 3.819261e+000 3.166018e+000 3.143976e+000 2.947890e+000 4.839352e+000 3.367602e+000 4.252254e+000 3.058141e+000 3.565414e+000 2.796559e+000 2.250035e+000 1.854473e+000 3.329931e+000 4.702191e-001 5.648178e-001 4.543430e-001 4.899108e-001 7.881894e-001 5.436546e-001 7.347887e-001 5.335053e-001 6.203730e-001 4.734650e-001 4.202769e-001 3.381929e-001 5.767328e-001
<GCONST> 1.316786e+002
<TRANSP> 3
 0.000000e+000 1.000000e+000 0.000000e+000
 0.000000e+000 9.971880e-001 2.811952e-003
 0.000000e+000 0.000000e+000 0.000000e+000
<ENDHMM>
~h "KOLAR"
<BEGINHMM>
<NUMSTATES> 3
<STATE> 2
<NUMMIXES> 2
<MIXTURE> 1 5.063939e-001
<MEAN> 39
 -6.556577e+000 3.042659e+000 -1.850951e+000 6.549252e+000 7.104718e-001 3.031782e+000 2.124362e+000 3.822542e+000 2.884203e+000 5.189449e+000 5.460667e+000 1.390178e+000 5.463549e+001 -1.829938e-001 8.458704e-002 9.905750e-002 9.622911e-002 2.762802e-001 1.390265e-001 2.201480e-001 1.216797e-001 1.707654e-001 1.244608e-001 6.579040e-002 2.022614e-001 -2.464240e-001 -1.718013e-002 5.228225e-004 -5.803577e-003 1.399282e-002 4.281032e-002 2.535379e-002 5.447651e-002 2.294970e-002 2.567003e-002 1.372742e-002 -5.188871e-003 3.392179e-002 -2.482576e-002
<VARIANCE> 39
 3.982951e+001 1.371728e+001 2.340276e+001 1.735583e+001 5.443093e+001 3.310899e+001 4.231484e+001 2.879897e+001 3.065146e+001 1.989769e+001 1.939461e+001 4.160342e+001 5.392394e+001 1.084731e+000 8.226703e-001 1.213119e+000 1.036547e+000 1.972849e+000 1.498528e+000 1.934557e+000 1.555805e+000 1.504310e+000 1.320323e+000 1.365457e+000 1.436074e+000 1.035463e+000 1.620918e-001 1.527547e-001 2.382519e-001 1.868092e-001 3.389871e-001 2.875988e-001 3.592235e-001 2.999144e-001 2.954380e-001 2.594856e-001 2.740590e-001 2.723897e-001 1.762650e-001
<GCONST> 1.011133e+002
<MIXTURE> 2 4.936055e-001
<MEAN> 39
 -2.312769e+000 2.307967e+000 -3.554423e+000 6.698581e+000 -4.493538e+000 4.139228e-001 -1.843962e+000 1.296989e+000 2.887090e-002 4.288301e+000 3.544697e+000 -3.274420e+000 6.081525e+001 1.861435e-001 -8.514654e-002 -9.920171e-002 -9.606606e-002 -2.791154e-001 -1.406868e-001 -2.255002e-001 -1.224520e-001 -1.725251e-001 -1.234360e-001 -6.670159e-002 -2.069440e-001 2.488427e-001 1.813404e-002 -8.437020e-004 5.956108e-003 -1.478645e-002 -4.390866e-002 -2.735328e-002 -5.538619e-002 -2.425577e-002 -2.618733e-002 -1.433875e-002 4.059275e-003 -3.534382e-002 2.610110e-002
<VARIANCE> 39
 5.699617e+001 2.463530e+001 3.828910e+001 2.742496e+001 6.629308e+001 4.151695e+001 5.473525e+001 3.887910e+001 3.555367e+001 2.824949e+001 2.444745e+001 4.421406e+001 5.376236e+001 2.262724e+000 1.477155e+000 2.470958e+000 1.521168e+000 3.072930e+000 2.256092e+000 3.299641e+000 2.389165e+000 2.167196e+000 1.711906e+000 1.792412e+000 2.096214e+000 1.984950e+000 2.902511e-001 2.537596e-001 3.967922e-001 2.605006e-001 5.125386e-001 3.878410e-001 5.367507e-001 4.137987e-001 3.770970e-001 2.980343e-001 3.340287e-001 3.463401e-001 3.086730e-001
<GCONST> 1.156824e+002
<TRANSP> 3
 0.000000e+000 1.000000e+000 0.000000e+000
 0.000000e+000 9.982134e-001 1.786672e-003
 0.000000e+000 0.000000e+000 0.000000e+000
<ENDHMM>
~h "HALADAVETY"
<BEGINHMM>
<NUMSTATES> 3
<STATE> 2
<NUMMIXES> 2
<MIXTURE> 1 4.988495e-001
<MEAN> 39
 -1.147521e+001 5.951077e-001 -4.125638e+000 -1.857852e+000 -1.019514e+001 -1.229908e+000 -1.185602e+001 -3.297231e+000 -4.476062e+000 -4.359644e+000 -1.727476e+000 -1.596449e+000 5.328756e+001 4.450638e-002 1.849495e-001 1.520603e-001 1.891783e-001 1.792184e-001 6.118350e-002 2.353966e-001 1.899665e-001 2.387764e-001 2.333315e-001 1.738460e-001 1.650087e-001 -4.174378e-002 -7.169880e-003 2.463474e-002 3.334917e-002 4.542409e-002 5.284778e-002 3.100029e-002 9.061509e-002 6.057336e-002 5.794808e-002 4.337539e-002 4.095327e-002 3.850835e-002 -7.583088e-002
<VARIANCE> 39
 1.251782e+002 5.933963e+001 7.513026e+001 7.322369e+001 6.068224e+001 8.327105e+001 6.391138e+001 6.201499e+001 4.900149e+001 3.700801e+001 4.395288e+001 3.924056e+001 3.264204e+002 3.571966e+000 3.028182e+000 2.703068e+000 3.040592e+000 3.732224e+000 4.390165e+000 4.232724e+000 3.913437e+000 3.227412e+000 2.668785e+000 2.889626e+000 2.713968e+000 4.414315e+000 5.056259e-001 4.916946e-001 4.409169e-001 5.233942e-001 6.719584e-001 7.657431e-001 7.674457e-001 7.278199e-001 6.076236e-001 5.301493e-001 5.554581e-001 5.144494e-001 6.611542e-001
<GCONST> 1.356442e+002
<MIXTURE> 2 5.011494e-001
<MEAN> 39
 -1.015628e+001 -2.613372e-001 -3.783942e+000 -2.508899e+000 -1.066824e+001 -8.587557e-001 -1.248642e+001 -3.516037e+000 -5.373383e+000 -4.732987e+000 -1.926700e+000 -2.495942e+000 5.445295e+001 -4.017744e-002 -1.795472e-001 -1.483852e-001 -1.896381e-001 -1.762671e-001 -5.658063e-002 -2.370197e-001 -1.986932e-001 -2.447480e-001 -2.331659e-001 -1.740750e-001 -1.755433e-001 4.328104e-002 7.067450e-003 -2.483930e-002 -3.391809e-002 -4.565157e-002 -5.341447e-002 -3.318837e-002 -8.805383e-002 -5.692634e-002 -5.745108e-002 -4.623789e-002 -4.283496e-002 -3.328158e-002 7.536051e-002
<VARIANCE> 39
 1.177470e+002 6.444623e+001 7.563954e+001 7.367471e+001 6.185400e+001 8.072216e+001 6.629904e+001 6.933918e+001 5.435260e+001 3.825208e+001 4.405922e+001 3.995263e+001 3.077204e+002 3.209681e+000 2.993575e+000 2.872799e+000 3.300128e+000 3.694880e+000 4.305655e+000 3.918895e+000 4.032386e+000 3.384980e+000 2.713015e+000 2.859221e+000 2.655682e+000 4.426540e+000 4.941039e-001 4.807833e-001 4.507996e-001 5.324802e-001 6.682922e-001 7.501186e-001 7.510164e-001 7.351136e-001 6.296048e-001 5.261701e-001 5.405374e-001 5.126711e-001 6.501320e-001
<GCONST> 1.358320e+002
<TRANSP> 3
 0.000000e+000 1.000000e+000 0.000000e+000
 0.000000e+000 9.987579e-001 1.242120e-003
 0.000000e+000 0.000000e+000 0.000000e+000
<ENDHMM>
~h "HORKYVETY"
<BEGINHMM>
<NUMSTATES> 3
<STATE> 2
<NUMMIXES> 2
<MIXTURE> 1 4.907633e-001
<MEAN> 39
 -1.703128e+001 7.772587e-001 -4.100229e+000 -4.083091e-001 -6.963531e+000 -1.201920e+000 -5.528706e+000 -2.572002e+000 2.475558e-001 -2.371847e+000 3.493283e+000 -2.972376e+000 4.512780e+001 -9.938606e-002 1.764757e-001 1.910183e-001 1.801026e-001 2.880433e-001 1.823401e-001 2.957302e-001 2.042550e-001 6.325273e-002 2.024955e-001 2.376261e-004 1.989576e-001 -3.950770e-002 3.891714e-002 4.026121e-002 5.951390e-002 4.744788e-002 2.434311e-002 3.646850e-002 2.931241e-002 4.103722e-002 2.391577e-002 3.012076e-002 2.852510e-002 3.813207e-002 -3.529835e-003
<VARIANCE> 39
 7.594675e+001 2.880576e+001 6.775141e+001 5.239618e+001 4.519345e+001 4.973281e+001 4.953000e+001 5.073116e+001 3.596120e+001 4.298758e+001 4.794210e+001 3.231071e+001 2.452167e+002 2.847331e+000 1.964167e+000 2.114022e+000 2.640002e+000 2.843542e+000 2.537313e+000 3.276300e+000 2.767289e+000 2.770138e+000 2.918271e+000 2.838906e+000 1.997568e+000 4.705522e+000 4.430521e-001 3.406108e-001 3.585723e-001 4.347989e-001 5.090858e-001 4.674472e-001 5.715953e-001 4.924681e-001 5.121096e-001 5.398589e-001 5.034525e-001 3.751262e-001 7.060254e-001
<GCONST> 1.265222e+002
<MIXTURE> 2 5.092360e-001
<MEAN> 39
 -1.614672e+001 3.333322e-001 -4.041327e+000 -3.411914e-001 -7.873482e+000 -1.572459e+000 -6.331360e+000 -2.915191e+000 3.658623e-001 -2.843339e+000 3.932194e+000 -3.214472e+000 4.548415e+001 6.591891e-002 -1.687053e-001 -1.931728e-001 -1.810324e-001 -2.731821e-001 -1.825346e-001 -2.821612e-001 -1.968057e-001 -7.102449e-002 -1.880961e-001 -8.419500e-003 -1.862875e-001 2.802830e-002 -2.889874e-002 -3.867097e-002 -5.530953e-002 -4.538579e-002 -2.279474e-002 -3.393393e-002 -2.798646e-002 -3.864108e-002 -2.484259e-002 -3.072272e-002 -2.821455e-002 -3.747228e-002 8.441101e-003
<VARIANCE> 39
 6.979359e+001 2.938592e+001 6.444821e+001 5.263118e+001 4.421366e+001 5.242913e+001 4.824230e+001 5.261220e+001 3.627856e+001 4.595499e+001 4.921696e+001 3.362822e+001 2.582206e+002 2.933394e+000 1.783283e+000 2.095573e+000 2.513751e+000 2.833912e+000 2.541920e+000 3.252508e+000 2.825477e+000 2.917926e+000 2.992501e+000 2.909261e+000 2.045498e+000 4.494021e+000 3.873165e-001 3.266832e-001 3.289136e-001 4.218514e-001 5.148245e-001 4.669507e-001 5.666102e-001 4.938765e-001 5.281810e-001 5.187173e-001 5.041432e-001 3.631623e-001 7.086924e-001
<GCONST> 1.262884e+002
<TRANSP> 3
 0.000000e+000 1.000000e+000 0.000000e+000
 0.000000e+000 9.984801e-001 1.519930e-003
 0.000000e+000 0.000000e+000 0.000000e+000
<ENDHMM>
~h "CHMELIK"
<BEGINHMM>
<NUMSTATES> 3
<STATE> 2
<NUMMIXES> 2
<MIXTURE> 1 5.061662e-001
<MEAN> 39
 -9.248322e+000 -5.101216e+000 2.033225e+000 -4.630234e+000 -5.484656e+000 -3.739688e+000 -1.470999e+000 -1.361593e+000 8.964132e-001 -8.177184e-001 1.110773e-001 -4.380447e+000 6.369970e+001 4.380331e-003 1.510442e-001 1.504452e-001 1.839989e-001 1.803257e-001 1.211629e-001 2.113034e-001 1.424627e-001 1.897689e-001 1.418110e-001 1.444746e-001 1.591916e-001 6.975908e-002 -1.171573e-002 2.734811e-002 1.734261e-002 3.724581e-002 2.605592e-002 3.189368e-002 3.452861e-002 3.613020e-002 5.722619e-002 2.961219e-002 4.032590e-002 2.739969e-002 -2.818382e-002
<VARIANCE> 39
 6.810975e+001 3.808802e+001 6.628748e+001 3.360678e+001 4.020869e+001 3.284195e+001 2.910481e+001 3.186469e+001 3.224182e+001 2.368109e+001 2.097685e+001 2.238600e+001 9.431041e+001 3.835785e+000 2.649700e+000 3.056987e+000 2.695296e+000 3.137481e+000 2.686760e+000 2.722453e+000 2.808836e+000 2.840031e+000 2.221975e+000 1.996895e+000 1.845550e+000 3.013498e+000 6.294087e-001 4.719490e-001 5.115489e-001 5.152753e-001 6.025792e-001 5.103747e-001 5.377740e-001 5.507855e-001 5.488749e-001 4.607807e-001 3.918156e-001 3.566622e-001 4.683770e-001
<GCONST> 1.224008e+002
<MIXTURE> 2 4.938331e-001
<MEAN> 39
 -1.062947e+001 -5.072766e+000 5.697785e-001 -4.579365e+000 -4.814772e+000 -3.697901e+000 -1.523105e+000 -1.384263e+000 9.682327e-001 -1.402777e+000 -6.923859e-002 -4.130548e+000 6.145834e+001 5.254303e-002 -2.091038e-001 -1.666935e-001 -2.145274e-001 -1.463127e-001 -1.723969e-001 -2.209751e-001 -1.509339e-001 -1.947643e-001 -1.411482e-001 -1.655357e-001 -1.691196e-001 4.084140e-002 9.489594e-003 -2.580324e-002 -1.722122e-002 -3.688803e-002 -2.833476e-002 -3.137911e-002 -3.490559e-002 -3.685943e-002 -5.947205e-002 -3.094690e-002 -3.877318e-002 -2.692249e-002 2.504203e-002
<VARIANCE> 39
 6.229233e+001 3.248783e+001 5.781382e+001 2.887318e+001 3.502540e+001 2.871183e+001 2.573551e+001 2.899652e+001 3.025517e+001 2.194846e+001 1.951705e+001 2.158552e+001 1.038111e+002 3.675498e+000 2.178739e+000 2.652311e+000 2.257065e+000 2.740089e+000 2.325153e+000 2.422879e+000 2.484053e+000 2.545613e+000 2.056925e+000 1.796098e+000 1.682275e+000 2.454042e+000 5.377929e-001 3.848891e-001 4.509075e-001 4.331545e-001 5.255013e-001 4.556493e-001 4.914765e-001 4.957187e-001 5.093212e-001 4.145290e-001 3.643603e-001 3.331861e-001 4.640407e-001
<GCONST> 1.181169e+002
<TRANSP> 3
 0.000000e+000 1.000000e+000 0.000000e+000
 0.000000e+000 9.983341e-001 1.665884e-003
 0.000000e+000 0.000000e+000 0.000000e+000
<ENDHMM>
~h "VACEKVETY"
<BEGINHMM>
<NUMSTATES> 3
<STATE> 2
<NUMMIXES> 2
<MIXTURE> 1 4.902727e-001
<MEAN> 39
 -6.198087e+000 1.673100e+000 -8.257891e-001 -1.695672e+000 -3.415514e+000 -3.902431e+000 -6.334675e+000 -5.525675e+000 -4.109641e+000 3.411094e+000 -3.801574e+000 -2.445747e+000 5.475292e+001 1.335801e-001 2.088909e-001 1.460629e-001 1.884114e-001 1.575981e-001 1.352288e-001 1.795502e-001 1.216870e-001 1.564411e-001 1.520758e-001 2.334269e-001 2.022952e-001 6.940215e-002 2.702918e-002 3.735313e-002 4.364470e-002 4.070770e-002 2.369302e-002 6.074173e-002 3.396911e-002 4.648674e-002 2.109042e-002 4.066605e-002 3.637712e-002 2.188812e-002 9.370778e-003
<VARIANCE> 39
 1.635578e+002 5.610633e+001 1.014887e+002 6.724358e+001 6.497293e+001 9.501556e+001 6.354811e+001 8.004832e+001 7.133743e+001 5.256351e+001 4.127880e+001 3.859634e+001 2.202677e+002 5.412676e+000 3.475917e+000 3.705695e+000 3.822294e+000 3.714023e+000 4.384065e+000 4.802595e+000 4.995099e+000 4.700809e+000 3.729143e+000 2.735685e+000 2.844988e+000 3.265133e+000 6.507778e-001 5.834981e-001 5.506545e-001 6.550790e-001 6.561221e-001 7.396954e-001 8.831107e-001 8.788485e-001 8.132995e-001 6.933730e-001 5.288792e-001 5.443149e-001 4.645134e-001
<GCONST> 1.399932e+002
<MIXTURE> 2 5.097256e-001
<MEAN> 39
 -7.996749e+000 1.014891e+000 -1.940859e+000 -1.503740e+000 -4.293424e+000 -2.846030e+000 -6.368848e+000 -4.880498e+000 -3.979770e+000 2.792603e+000 -3.823560e+000 -2.752466e+000 5.178775e+001 -1.242126e-001 -1.997855e-001 -1.434319e-001 -1.839607e-001 -1.497505e-001 -1.296645e-001 -1.746778e-001 -1.207711e-001 -1.520725e-001 -1.433069e-001 -2.205334e-001 -2.021758e-001 -6.414104e-002 -2.539269e-002 -3.583288e-002 -4.302639e-002 -3.964140e-002 -2.471104e-002 -6.002720e-002 -3.010508e-002 -4.083417e-002 -1.909830e-002 -4.217623e-002 -3.633819e-002 -1.715347e-002 -8.860743e-003
<VARIANCE> 39
 1.902162e+002 4.890211e+001 9.989504e+001 6.434834e+001 5.974723e+001 8.674096e+001 5.789725e+001 7.799325e+001 7.017169e+001 5.228541e+001 3.923675e+001 3.810595e+001 2.977186e+002 3.326726e+000 3.023515e+000 3.133020e+000 3.371985e+000 3.293911e+000 3.879390e+000 4.134608e+000 4.513534e+000 4.046336e+000 3.240957e+000 2.476476e+000 2.570750e+000 2.558004e+000 4.934479e-001 4.888508e-001 4.547902e-001 5.615083e-001 5.685794e-001 6.562529e-001 7.749310e-001 7.897224e-001 7.411416e-001 6.188087e-001 4.829076e-001 4.934616e-001 4.365714e-001
<GCONST> 1.359633e+002
<TRANSP> 3
 0.000000e+000 1.000000e+000 0.000000e+000
 0.000000e+000 9.981127e-001 1.887237e-003
 0.000000e+000 0.000000e+000 0.000000e+000
<ENDHMM>
~h "DVORSKY"
<BEGINHMM>
<NUMSTATES> 3
<STATE> 2
<NUMMIXES> 2
<MIXTURE> 1 5.010075e-001
<MEAN> 39
 -5.483652e+000 3.485412e+000 4.351374e+000 1.279469e+000 2.479622e+000 -7.552300e-002 8.413713e-001 1.411191e+000 5.820532e-001 3.459371e+000 1.735398e+000 -7.847050e-003 5.642805e+001 -1.086625e-001 2.081782e-001 4.104381e-002 1.815441e-001 1.705315e-001 1.236043e-001 2.265344e-001 9.502005e-002 2.036548e-001 9.645903e-002 1.857897e-001 1.785369e-001 -2.264189e-001 -2.680651e-002 2.331469e-002 1.820362e-002 2.730253e-002 2.912088e-002 3.945524e-002 5.025078e-002 1.868911e-002 3.711682e-002 1.273244e-002 3.420640e-002 3.172577e-002 -4.874624e-002
<VARIANCE> 39
 4.980040e+001 3.339462e+001 4.631845e+001 5.136839e+001 3.485186e+001 4.747102e+001 3.980268e+001 3.286230e+001 3.974861e+001 2.680131e+001 2.782503e+001 2.550501e+001 1.431553e+002 2.516920e+000 1.898414e+000 2.107055e+000 3.072000e+000 2.432053e+000 2.552390e+000 2.760148e+000 2.704187e+000 2.927920e+000 2.207611e+000 2.047843e+000 1.846657e+000 2.743269e+000 4.096192e-001 3.496365e-001 3.472128e-001 5.522031e-001 4.469196e-001 4.756970e-001 5.194312e-001 5.187995e-001 5.730822e-001 4.364768e-001 4.016930e-001 3.618048e-001 4.509654e-001
<GCONST> 1.208630e+002
<MIXTURE> 2 4.989917e-001
<MEAN> 39
 -4.994517e+000 1.772062e+000 5.149341e+000 -2.128272e-001 1.476262e+000 -9.224798e-001 -3.032328e-001 1.094703e+000 -6.490256e-001 3.625936e+000 1.220883e+000 -1.186977e+000 6.119046e+001 1.086172e-001 -2.084761e-001 -4.164186e-002 -1.830456e-001 -1.720981e-001 -1.204817e-001 -2.260295e-001 -9.608698e-002 -2.040224e-001 -9.805527e-002 -1.883600e-001 -1.804869e-001 2.251414e-001 2.667151e-002 -2.355090e-002 -1.783539e-002 -2.725492e-002 -2.981225e-002 -3.984415e-002 -5.037805e-002 -1.763525e-002 -3.823575e-002 -1.292229e-002 -3.280741e-002 -3.163392e-002 4.904618e-002
<VARIANCE> 39
 6.405193e+001 4.186564e+001 6.571971e+001 6.136010e+001 4.461629e+001 5.611217e+001 4.776263e+001 4.202686e+001 4.874592e+001 3.138527e+001 3.331403e+001 3.025729e+001 1.237739e+002 3.580175e+000 2.507401e+000 3.021183e+000 4.096508e+000 3.064856e+000 3.353205e+000 3.467903e+000 3.371063e+000 3.781123e+000 2.610899e+000 2.355568e+000 2.144191e+000 3.523261e+000 5.226998e-001 4.358578e-001 4.520637e-001 6.782426e-001 5.479584e-001 5.856857e-001 6.292053e-001 6.457390e-001 6.818355e-001 4.881854e-001 4.383759e-001 4.034922e-001 5.959914e-001
<GCONST> 1.289901e+002
<TRANSP> 3
 0.000000e+000 1.000000e+000 0.000000e+000
 0.000000e+000 9.980264e-001 1.973652e-003
 0.000000e+000 0.000000e+000 0.000000e+000
<ENDHMM>
~h "POLACEKVETY"
<BEGINHMM>
<NUMSTATES> 3
<STATE> 2
<NUMMIXES> 2
<MIXTURE> 1 5.031479e-001
<MEAN> 39
 -7.743103e+000 4.073383e-001 7.548180e-001 -9.970911e-001 -9.533433e+000 -4.424366e-001 -9.591293e+000 -3.398888e-001 -2.095375e+000 1.568878e-001 -9.352514e-001 -4.099942e+000 5.192356e+001 5.233284e-002 1.606102e-001 1.899819e-001 1.281710e-001 2.049362e-001 1.036826e-001 1.667732e-001 1.015382e-001 1.172016e-001 1.590757e-001 1.247584e-001 1.620234e-001 9.198070e-002 2.282779e-002 4.419138e-002 5.139974e-002 4.536496e-002 4.295188e-002 4.766497e-002 4.670947e-002 2.925667e-002 3.797957e-002 1.855349e-002 2.715346e-002 3.573330e-002 -1.525792e-002
<VARIANCE> 39
 9.131187e+001 4.545170e+001 8.021195e+001 4.251723e+001 6.413837e+001 5.386501e+001 4.619283e+001 3.504945e+001 3.742677e+001 2.763752e+001 2.474525e+001 3.007611e+001 1.319496e+002 3.391533e+000 2.610512e+000 2.446740e+000 2.730613e+000 3.568951e+000 2.669233e+000 2.916431e+000 2.558611e+000 2.424200e+000 2.012193e+000 1.829152e+000 1.928403e+000 2.637831e+000 5.025638e-001 4.385825e-001 4.026558e-001 4.867228e-001 6.006079e-001 4.850172e-001 5.357020e-001 4.805398e-001 4.499238e-001 3.962635e-001 3.593806e-001 3.536251e-001 4.154544e-001
<GCONST> 1.238774e+002
<MIXTURE> 2 4.968517e-001
<MEAN> 39
 -7.709797e+000 4.455855e-001 5.908424e-001 -8.850754e-001 -9.851341e+000 -2.807703e-001 -9.630144e+000 -1.632569e-001 -1.854140e+000 -2.234526e-001 -1.044453e+000 -4.535755e+000 5.129042e+001 -2.754844e-002 -1.535741e-001 -1.777202e-001 -1.398448e-001 -1.973558e-001 -1.023209e-001 -1.765084e-001 -1.133285e-001 -1.277661e-001 -1.546413e-001 -1.329145e-001 -1.744660e-001 -5.777335e-002 -2.254497e-002 -4.482197e-002 -5.196261e-002 -4.540740e-002 -4.452686e-002 -4.995985e-002 -4.535910e-002 -2.565813e-002 -3.830681e-002 -2.094950e-002 -2.910120e-002 -3.126998e-002 1.487448e-002
<VARIANCE> 39
 8.408511e+001 4.371901e+001 7.762810e+001 4.074405e+001 6.656071e+001 5.181315e+001 4.654433e+001 3.451030e+001 3.781997e+001 2.698801e+001 2.469997e+001 3.125594e+001 1.346651e+002 3.573361e+000 2.440971e+000 2.623745e+000 2.661938e+000 3.397364e+000 2.673012e+000 2.813710e+000 2.542807e+000 2.363314e+000 2.023216e+000 1.860407e+000 1.893229e+000 2.548868e+000 4.195141e-001 4.162902e-001 3.729222e-001 4.783536e-001 5.847180e-001 4.650844e-001 5.275648e-001 4.730026e-001 4.438147e-001 3.799101e-001 3.526102e-001 3.436533e-001 4.198925e-001
<GCONST> 1.230790e+002
<TRANSP> 3
 0.000000e+000 1.000000e+000 0.000000e+000
 0.000000e+000 9.988280e-001 1.171989e-003
 0.000000e+000 0.000000e+000 0.000000e+000
<ENDHMM>
