~o
<STREAMINFO> 1 39
<VECSIZE> 39<NULLD><MFCC_D_A_0><DIAGC>
~h "MJ"
<BEGINHMM>
<NUMSTATES> 3
<STATE> 2
<NUMMIXES> 2
<MIXTURE> 1 5.067964e-001
<MEAN> 39
 -7.831438e+000 -2.693743e+000 -1.185034e+000 -8.542112e+000 -7.985221e+000 -7.217206e+000 -9.603410e+000 -2.854967e+000 -1.250787e+000 2.977396e+000 -6.454811e-001 -3.034902e+000 6.441979e+001 -4.305421e-002 1.246195e-001 7.752381e-002 1.509834e-001 1.874688e-001 1.043132e-001 2.408889e-001 1.010248e-001 1.966794e-001 1.298432e-001 1.337692e-001 1.680842e-001 -2.769311e-002 1.378492e-002 2.840035e-002 3.889222e-002 4.399970e-002 1.584501e-002 3.062907e-002 3.862792e-002 1.161143e-002 3.256852e-002 1.397364e-002 3.326663e-002 1.842652e-002 -2.272885e-002
<VARIANCE> 39
 6.835783e+001 3.466406e+001 7.443645e+001 4.694245e+001 5.106240e+001 6.191867e+001 6.791205e+001 4.088646e+001 5.292552e+001 3.084656e+001 3.586751e+001 2.917166e+001 6.308556e+001 3.105981e+000 2.114166e+000 2.697505e+000 2.930431e+000 3.020106e+000 3.170378e+000 3.973351e+000 3.021892e+000 3.274679e+000 2.218022e+000 2.341703e+000 2.070478e+000 2.407031e+000 4.545592e-001 3.653115e-001 4.103505e-001 4.985079e-001 5.362350e-001 5.399062e-001 6.870924e-001 5.614684e-001 5.884018e-001 4.229591e-001 4.404558e-001 3.919289e-001 3.803022e-001
<GCONST> 1.255353e+002
<MIXTURE> 2 4.932036e-001
<MEAN> 39
 -7.747457e+000 -3.114656e+000 -1.151123e+000 -8.706483e+000 -8.987726e+000 -7.525109e+000 -1.019685e+001 -3.281714e+000 -1.793039e+000 2.234843e+000 -1.155656e+000 -3.746244e+000 6.381646e+001 4.604887e-002 -1.282435e-001 -7.909193e-002 -1.544796e-001 -1.930473e-001 -1.050490e-001 -2.458895e-001 -1.040761e-001 -2.061207e-001 -1.348274e-001 -1.416565e-001 -1.715995e-001 2.789571e-002 -1.428645e-002 -2.895241e-002 -4.005774e-002 -4.552047e-002 -1.674446e-002 -3.140228e-002 -3.951064e-002 -1.191618e-002 -3.366719e-002 -1.465140e-002 -3.416208e-002 -1.844847e-002 2.339472e-002
<VARIANCE> 39
 6.025746e+001 3.233229e+001 7.849617e+001 4.606078e+001 5.278991e+001 5.844783e+001 7.031483e+001 4.211955e+001 5.499526e+001 3.157549e+001 3.814906e+001 3.120464e+001 7.350135e+001 2.968281e+000 1.961501e+000 2.754979e+000 2.802716e+000 3.078684e+000 3.079758e+000 4.086826e+000 3.112332e+000 3.392322e+000 2.263236e+000 2.472281e+000 2.228021e+000 2.351900e+000 4.044661e-001 3.417302e-001 3.991928e-001 4.927239e-001 5.335210e-001 5.197610e-001 7.035769e-001 5.839490e-001 6.011003e-001 4.341624e-001 4.510624e-001 4.063163e-001 3.830674e-001
<GCONST> 1.257330e+002
<TRANSP> 3
 0.000000e+000 1.000000e+000 0.000000e+000
 0.000000e+000 9.984397e-001 1.560251e-003
 0.000000e+000 0.000000e+000 0.000000e+000
<ENDHMM>
~h "PB"
<BEGINHMM>
<NUMSTATES> 3
<STATE> 2
<NUMMIXES> 2
<MIXTURE> 1 4.989081e-001
<MEAN> 39
 -6.751867e+000 2.955962e+000 2.279630e+000 -1.869399e+000 -6.042840e+000 3.967933e-002 -4.736055e+000 1.537341e+000 1.234959e+000 1.060082e+000 1.527913e+000 -2.751875e+000 6.055073e+001 -6.237149e-002 2.060729e-001 1.821204e-002 2.307803e-001 2.391853e-001 9.057880e-002 2.888563e-001 1.260765e-001 1.893298e-001 2.122612e-001 1.116806e-001 2.328911e-001 -1.360960e-001 3.525293e-003 4.053913e-002 2.278506e-002 4.237591e-002 5.590821e-002 2.738015e-002 6.221060e-002 1.092370e-002 3.212097e-002 2.863705e-002 1.060318e-002 4.448260e-002 -3.075378e-002
<VARIANCE> 39
 5.636399e+001 3.962941e+001 5.785067e+001 4.070551e+001 6.903960e+001 4.192542e+001 6.623721e+001 3.352287e+001 3.192986e+001 2.569806e+001 2.389545e+001 3.619809e+001 8.644493e+001 2.305266e+000 2.461506e+000 2.288069e+000 2.675886e+000 3.154584e+000 2.551100e+000 3.150261e+000 2.691207e+000 2.333400e+000 2.055565e+000 2.044708e+000 2.129003e+000 2.108704e+000 4.119973e-001 4.029153e-001 4.005028e-001 4.756062e-001 5.911238e-001 4.687062e-001 6.059630e-001 5.132167e-001 4.613489e-001 4.148747e-001 4.059597e-001 4.252811e-001 3.668016e-001
<GCONST> 1.219984e+002
<MIXTURE> 2 5.010912e-001
<MEAN> 39
 -5.203437e+000 2.279480e+000 3.245611e+000 -3.029961e+000 -7.808413e+000 -3.308441e-001 -6.680733e+000 8.443946e-001 6.527418e-001 1.597275e-001 1.029654e+000 -4.321439e+000 6.331792e+001 6.163109e-002 -2.049913e-001 -1.773316e-002 -2.297756e-001 -2.381571e-001 -9.108610e-002 -2.884537e-001 -1.259702e-001 -1.882511e-001 -2.113293e-001 -1.101180e-001 -2.298745e-001 1.357170e-001 -3.093177e-003 -4.042946e-002 -2.271557e-002 -4.232220e-002 -5.483399e-002 -2.685113e-002 -6.181362e-002 -1.092311e-002 -3.219685e-002 -2.884475e-002 -1.022883e-002 -4.313904e-002 3.046865e-002
<VARIANCE> 39
 5.664237e+001 5.226901e+001 6.377938e+001 4.700845e+001 7.362766e+001 4.541806e+001 6.580124e+001 3.970559e+001 3.616590e+001 3.050286e+001 2.732738e+001 4.120168e+001 8.064307e+001 3.304580e+000 2.950865e+000 3.089800e+000 3.156755e+000 4.266290e+000 2.902092e+000 3.831102e+000 3.219740e+000 2.686807e+000 2.344687e+000 2.320497e+000 2.784073e+000 2.788070e+000 4.349233e-001 4.797608e-001 4.430576e-001 5.516562e-001 6.997099e-001 5.066199e-001 6.730493e-001 5.960962e-001 4.991275e-001 4.485539e-001 4.475533e-001 4.836452e-001 4.127103e-001
<GCONST> 1.275585e+002
<TRANSP> 3
 0.000000e+000 1.000000e+000 0.000000e+000
 0.000000e+000 9.985553e-001 1.444716e-003
 0.000000e+000 0.000000e+000 0.000000e+000
<ENDHMM>
~h "TOMAS"
<BEGINHMM>
<NUMSTATES> 3
<STATE> 2
<NUMMIXES> 2
<MIXTURE> 1 5.004510e-001
<MEAN> 39
 -5.922511e+000 4.194413e+000 5.047786e+000 -8.760399e-001 -1.590333e-001 -2.619356e+000 -6.323112e-001 4.881307e-002 9.840661e-001 1.676069e+000 2.390269e+000 2.535218e+000 6.093767e+001 -7.954919e-003 1.472370e-001 6.067191e-002 1.692749e-001 2.302318e-001 1.002385e-001 2.176613e-001 1.251910e-001 1.974062e-001 1.827345e-001 1.567323e-001 1.274215e-001 -1.347801e-001 1.676753e-003 1.110704e-002 2.558989e-002 3.884302e-002 1.499298e-002 2.231870e-002 3.236042e-002 2.804185e-002 3.499325e-002 3.365673e-002 3.656185e-002 1.688579e-002 -1.093690e-002
<VARIANCE> 39
 5.813752e+001 3.239747e+001 5.150530e+001 5.247981e+001 5.447300e+001 5.047792e+001 5.198605e+001 4.585615e+001 4.500226e+001 3.295079e+001 2.874558e+001 2.075780e+001 6.340525e+001 2.181484e+000 1.704726e+000 1.994485e+000 2.503201e+000 3.096786e+000 2.950681e+000 2.640449e+000 2.443017e+000 2.682949e+000 2.060236e+000 1.966577e+000 1.665903e+000 1.687838e+000 3.142772e-001 2.800757e-001 3.339604e-001 4.161462e-001 5.491978e-001 5.460738e-001 4.997750e-001 4.621209e-001 4.955716e-001 4.059667e-001 3.726817e-001 3.289176e-001 2.523837e-001
<GCONST> 1.189237e+002
<MIXTURE> 2 4.995486e-001
<MEAN> 39
 -5.468849e+000 3.879169e+000 5.623939e+000 -1.476854e+000 -1.741447e+000 -3.643282e+000 -2.234371e+000 -1.018867e+000 8.500104e-002 9.165131e-001 2.093880e+000 1.846143e+000 6.309246e+001 3.082354e-003 -1.365346e-001 -6.169162e-002 -1.708429e-001 -2.285403e-001 -9.989994e-002 -2.156248e-001 -1.279792e-001 -2.037944e-001 -1.677357e-001 -1.531343e-001 -1.377948e-001 1.355910e-001 -3.343919e-003 -9.886195e-003 -2.697223e-002 -3.732779e-002 -1.867008e-002 -2.011308e-002 -3.516676e-002 -2.761619e-002 -3.608837e-002 -3.315982e-002 -3.694484e-002 -1.809051e-002 1.230849e-002
<VARIANCE> 39
 6.122039e+001 3.636354e+001 5.637175e+001 5.643101e+001 6.409991e+001 5.447901e+001 5.766555e+001 4.540685e+001 4.928650e+001 3.487106e+001 3.113682e+001 2.202943e+001 6.177795e+001 2.740126e+000 1.986821e+000 2.524271e+000 2.780282e+000 3.701108e+000 3.328240e+000 3.311378e+000 2.774946e+000 3.075958e+000 2.266834e+000 2.138324e+000 1.797249e+000 2.191310e+000 3.726692e-001 3.197996e-001 3.752055e-001 4.470086e-001 6.420762e-001 5.838330e-001 5.973716e-001 5.038090e-001 5.541511e-001 4.224801e-001 4.004871e-001 3.452816e-001 3.346172e-001
<GCONST> 1.234076e+002
<TRANSP> 3
 0.000000e+000 1.000000e+000 0.000000e+000
 0.000000e+000 9.973280e-001 2.671971e-003
 0.000000e+000 0.000000e+000 0.000000e+000
<ENDHMM>
~h "CERNY"
<BEGINHMM>
<NUMSTATES> 3
<STATE> 2
<NUMMIXES> 2
<MIXTURE> 1 5.008783e-001
<MEAN> 39
 -1.051627e+001 -1.154542e+000 -1.390626e+000 -3.719731e+000 -4.088489e+000 -2.718974e+000 -4.968946e+000 -2.909954e-001 8.716041e-001 1.219038e+000 1.603104e-001 -1.097396e+000 6.357548e+001 -3.654814e-002 7.880102e-002 3.506660e-002 1.163024e-001 1.395780e-001 1.719650e-001 1.966761e-001 1.071036e-001 1.256773e-001 1.436030e-001 1.925951e-001 1.444981e-001 -4.858063e-002 -4.926294e-003 1.871818e-002 1.543371e-002 3.310696e-002 2.987530e-002 2.484844e-002 4.709980e-002 1.845704e-002 1.945197e-002 1.703572e-002 2.898731e-002 3.173586e-002 -1.397373e-002
<VARIANCE> 39
 1.889549e+001 1.856723e+001 2.591971e+001 3.849733e+001 3.274420e+001 2.782622e+001 4.944199e+001 2.550458e+001 2.309830e+001 2.287316e+001 1.526190e+001 2.188474e+001 1.939838e+001 8.251999e-001 1.098801e+000 1.158680e+000 1.829020e+000 1.870914e+000 1.699133e+000 2.519960e+000 2.045633e+000 1.857581e+000 1.776472e+000 1.364194e+000 1.401719e+000 5.917379e-001 1.360548e-001 1.886794e-001 1.939891e-001 3.160861e-001 3.493363e-001 3.338253e-001 4.969425e-001 4.029926e-001 3.712644e-001 3.560958e-001 2.827525e-001 2.758553e-001 1.040181e-001
<GCONST> 1.011620e+002
<MIXTURE> 2 4.991208e-001
<MEAN> 39
 -1.000738e+001 -1.436605e+000 -9.240343e-001 -4.489154e+000 -5.146308e+000 -3.518402e+000 -6.330931e+000 -4.958051e-001 7.921007e-001 1.193509e+000 -2.782219e-001 -1.568498e+000 6.463428e+001 3.603707e-002 -7.728053e-002 -3.514879e-002 -1.158722e-001 -1.396119e-001 -1.727407e-001 -1.987147e-001 -1.066695e-001 -1.295906e-001 -1.424974e-001 -1.957645e-001 -1.437045e-001 4.802757e-002 5.007059e-003 -1.917499e-002 -1.507113e-002 -3.358125e-002 -3.030231e-002 -2.504770e-002 -4.746012e-002 -1.885207e-002 -1.943498e-002 -1.780125e-002 -2.863426e-002 -3.199504e-002 1.394081e-002
<VARIANCE> 39
 2.026403e+001 2.255231e+001 3.201480e+001 4.550103e+001 3.863455e+001 3.246524e+001 5.265836e+001 3.005306e+001 2.732676e+001 2.590255e+001 1.704984e+001 2.499571e+001 2.017023e+001 1.133085e+000 1.407830e+000 1.495877e+000 2.228102e+000 2.387759e+000 2.049203e+000 3.173796e+000 2.402820e+000 2.182530e+000 2.022072e+000 1.488808e+000 1.613270e+000 7.773848e-001 1.527747e-001 2.188035e-001 2.269514e-001 3.563220e-001 4.139150e-001 3.733881e-001 5.581829e-001 4.543712e-001 4.030674e-001 3.784011e-001 2.963561e-001 2.920592e-001 1.265459e-001
<GCONST> 1.070604e+002
<TRANSP> 3
 0.000000e+000 1.000000e+000 0.000000e+000
 0.000000e+000 9.986002e-001 1.399776e-003
 0.000000e+000 0.000000e+000 0.000000e+000
<ENDHMM>
~h "ZSS2"
<BEGINHMM>
<NUMSTATES> 3
<STATE> 2
<NUMMIXES> 2
<MIXTURE> 1 5.131552e-001
<MEAN> 39
 -7.747537e+000 3.111080e+000 2.230698e+000 -4.328542e-001 1.280003e+000 2.361508e-001 2.009474e+000 1.062681e+000 1.187700e+000 2.917865e+000 -7.051039e-002 2.295105e+000 6.122628e+001 -4.100311e-001 1.549759e-001 1.188458e-001 4.495449e-001 4.867327e-001 2.426925e-001 4.345506e-001 2.416275e-001 4.603021e-001 1.437455e-001 5.541108e-001 9.003065e-002 -4.734275e-001 -5.705412e-002 -3.668770e-002 1.215584e-002 2.796936e-002 5.815028e-002 4.182537e-002 5.601900e-002 3.653516e-002 4.838679e-002 9.795335e-003 6.005729e-002 8.919092e-003 -2.290029e-002
<VARIANCE> 39
 6.180184e+001 3.073146e+001 3.634919e+001 5.580980e+001 7.780309e+001 4.483491e+001 5.867820e+001 3.905813e+001 5.546579e+001 2.779082e+001 6.782330e+001 2.194555e+001 7.514562e+001 3.037007e+000 2.106322e+000 1.960365e+000 3.158210e+000 3.612546e+000 2.770579e+000 2.825757e+000 2.356084e+000 3.019719e+000 2.389488e+000 3.142229e+000 1.806618e+000 2.815852e+000 4.987824e-001 3.901587e-001 3.478633e-001 5.835088e-001 6.935937e-001 5.476031e-001 5.296016e-001 4.585224e-001 5.849284e-001 4.798596e-001 6.049661e-001 3.616102e-001 5.446765e-001
<GCONST> 1.253145e+002
<MIXTURE> 2 4.868435e-001
<MEAN> 39
 -4.611798e+000 1.919517e+000 9.847530e-001 -5.195817e+000 -3.501042e+000 -2.835020e+000 -2.587599e+000 -1.571668e+000 -3.337857e+000 1.755251e+000 -5.577140e+000 5.733936e-001 6.710039e+001 4.369406e-001 -1.645534e-001 -1.250151e-001 -4.685320e-001 -5.097431e-001 -2.509376e-001 -4.588294e-001 -2.595296e-001 -4.817599e-001 -1.525813e-001 -5.822812e-001 -9.399374e-002 4.920162e-001 6.046702e-002 3.900103e-002 -1.284933e-002 -3.045051e-002 -6.176370e-002 -4.393150e-002 -5.899914e-002 -3.948423e-002 -5.187730e-002 -1.000388e-002 -6.277150e-002 -9.676641e-003 2.417854e-002
<VARIANCE> 39
 6.498933e+001 4.701165e+001 5.425253e+001 6.600639e+001 8.124369e+001 5.384423e+001 6.321790e+001 4.353208e+001 6.296675e+001 3.893063e+001 7.151293e+001 2.768109e+001 5.392733e+001 4.301134e+000 3.241686e+000 3.133472e+000 4.600013e+000 5.547175e+000 4.406363e+000 4.139124e+000 3.371885e+000 4.139790e+000 3.496874e+000 4.699933e+000 2.352271e+000 3.795571e+000 6.959119e-001 5.571330e-001 5.156740e-001 7.802669e-001 9.640480e-001 7.964326e-001 7.176690e-001 6.160672e-001 7.230495e-001 6.640887e-001 8.262630e-001 4.446509e-001 6.628304e-001
<GCONST> 1.360318e+002
<TRANSP> 3
 0.000000e+000 1.000000e+000 0.000000e+000
 0.000000e+000 9.982025e-001 1.797483e-003
 0.000000e+000 0.000000e+000 0.000000e+000
<ENDHMM>
~h "SMOLA"
<BEGINHMM>
<NUMSTATES> 3
<STATE> 2
<NUMMIXES> 2
<MIXTURE> 1 4.853745e-001
<MEAN> 39
 -8.242775e+000 1.880302e+000 1.000589e+000 2.603432e-001 -1.175263e+000 -8.143679e-001 -3.665431e+000 3.836931e+000 -2.690113e+000 6.116616e-001 4.108860e+000 -1.716840e+000 5.504353e+001 -2.399357e-001 2.823814e-001 -1.095164e-002 2.444509e-001 3.084099e-001 2.611004e-001 3.889403e-001 -6.760051e-003 3.182883e-001 1.450164e-001 9.775551e-002 2.782578e-001 -2.936679e-001 -1.724979e-002 2.501234e-002 1.012874e-002 1.761356e-002 3.508541e-002 5.081137e-002 5.346712e-002 3.386689e-004 6.272398e-002 9.361528e-003 3.476998e-003 3.299739e-002 -4.023276e-003
<VARIANCE> 39
 6.044032e+001 5.579632e+001 4.120882e+001 6.814290e+001 5.153623e+001 7.215299e+001 7.719657e+001 4.054424e+001 7.781055e+001 3.132084e+001 2.558607e+001 3.855104e+001 1.687993e+002 2.689514e+000 3.166419e+000 2.166474e+000 3.286763e+000 2.671418e+000 3.005419e+000 3.576635e+000 2.700467e+000 3.970756e+000 2.137995e+000 2.039103e+000 1.933072e+000 4.686348e+000 4.430709e-001 5.170192e-001 3.901678e-001 5.639707e-001 4.972662e-001 5.885549e-001 6.920198e-001 5.248772e-001 7.876564e-001 4.235465e-001 3.994689e-001 3.813861e-001 7.647142e-001
<GCONST> 1.288662e+002
<MIXTURE> 2 5.146251e-001
<MEAN> 39
 -5.293311e+000 -1.358199e+000 1.562217e+000 -3.411064e+000 -4.598131e+000 -3.799190e+000 -8.024871e+000 2.030416e+000 -6.211326e+000 -9.890725e-001 3.581676e+000 -4.840200e+000 6.308130e+001 2.263216e-001 -2.641440e-001 3.189952e-002 -2.522605e-001 -2.745673e-001 -2.372086e-001 -3.507578e-001 -2.612387e-002 -3.444715e-001 -1.502743e-001 -1.020003e-001 -2.747821e-001 3.015106e-001 1.460141e-002 -2.456802e-002 -8.836788e-003 -1.858548e-002 -2.960502e-002 -4.623663e-002 -5.118755e-002 -7.630981e-004 -5.883750e-002 -7.365167e-003 -5.991383e-003 -3.294944e-002 4.606229e-003
<VARIANCE> 39
 6.251101e+001 6.874666e+001 5.407271e+001 6.602091e+001 5.642173e+001 5.384275e+001 6.932287e+001 4.488769e+001 6.443185e+001 3.619510e+001 2.832175e+001 3.279476e+001 8.930818e+001 3.778825e+000 3.891204e+000 3.084089e+000 4.283480e+000 3.475337e+000 4.001194e+000 5.033143e+000 3.660066e+000 5.559418e+000 2.675110e+000 2.394526e+000 2.485225e+000 5.531674e+000 5.274122e-001 6.403919e-001 4.841614e-001 7.440003e-001 6.321454e-001 7.121561e-001 9.139611e-001 6.781326e-001 9.704813e-001 4.901707e-001 4.590649e-001 4.374105e-001 9.053011e-001
<GCONST> 1.345433e+002
<TRANSP> 3
 0.000000e+000 1.000000e+000 0.000000e+000
 0.000000e+000 9.966092e-001 3.390863e-003
 0.000000e+000 0.000000e+000 0.000000e+000
<ENDHMM>
~h "NOZICKA"
<BEGINHMM>
<NUMSTATES> 3
<STATE> 2
<NUMMIXES> 2
<MIXTURE> 1 4.912028e-001
<MEAN> 39
 -1.540987e+001 -1.013501e+001 8.307162e+000 -1.068438e+001 -2.197997e+000 1.497765e+000 -3.964308e+000 -8.011984e-001 -6.198146e-001 -2.940112e+000 3.395554e+000 -2.779316e+000 5.550972e+001 7.556668e-003 1.169426e-001 1.650217e-001 9.410822e-002 2.455432e-001 3.566678e-002 2.515905e-001 1.554935e-001 1.656818e-001 1.932985e-001 1.709915e-001 1.915426e-001 1.015029e-001 4.409858e-002 8.685870e-003 6.072060e-002 2.466578e-002 1.450890e-002 3.136033e-002 3.842600e-002 3.337214e-002 3.199042e-002 2.519762e-002 4.534270e-002 3.702955e-002 5.494029e-002
<VARIANCE> 39
 1.219067e+002 1.500621e+002 1.928166e+002 1.593140e+002 1.299234e+002 1.290124e+002 9.566808e+001 7.655951e+001 8.671262e+001 5.979701e+001 4.939907e+001 3.738060e+001 3.946371e+002 3.523574e+000 4.837966e+000 4.345077e+000 5.654443e+000 6.734634e+000 5.927512e+000 5.492912e+000 4.030899e+000 5.225103e+000 3.455362e+000 3.344090e+000 2.307281e+000 5.034720e+000 5.027527e-001 7.267948e-001 6.746488e-001 9.291255e-001 1.146255e+000 9.607283e-001 9.667860e-001 7.066002e-001 8.786443e-001 6.351042e-001 5.970546e-001 4.407894e-001 7.124383e-001
<GCONST> 1.478615e+002
<MIXTURE> 2 5.087959e-001
<MEAN> 39
 -1.607216e+001 -9.707367e+000 7.211813e+000 -9.566236e+000 -3.578806e+000 2.040102e+000 -4.688061e+000 -1.073969e+000 -5.245468e-001 -3.520394e+000 3.349308e+000 -3.043969e+000 5.341413e+001 -8.359633e-003 -1.194797e-001 -1.569052e-001 -1.002573e-001 -2.276585e-001 -3.199339e-002 -2.502816e-001 -1.507735e-001 -1.648522e-001 -1.772669e-001 -1.624619e-001 -1.878211e-001 -9.209356e-002 -4.436069e-002 -7.030509e-003 -5.318577e-002 -2.426135e-002 -1.304115e-002 -3.161696e-002 -3.955606e-002 -3.084707e-002 -3.466277e-002 -2.524097e-002 -4.217987e-002 -3.614238e-002 -5.351567e-002
<VARIANCE> 39
 1.148566e+002 1.521180e+002 2.143544e+002 1.627284e+002 1.187766e+002 1.140771e+002 8.565637e+001 6.763082e+001 8.056224e+001 5.465228e+001 4.871072e+001 3.483435e+001 4.480434e+002 3.179182e+000 4.519892e+000 3.431366e+000 5.046118e+000 6.042383e+000 5.410512e+000 5.201993e+000 3.700510e+000 4.771101e+000 3.228442e+000 3.076005e+000 2.182516e+000 3.966707e+000 4.167604e-001 6.543421e-001 5.383983e-001 8.235915e-001 1.010098e+000 8.386636e-001 8.765106e-001 6.435044e-001 7.998056e-001 5.888682e-001 5.688798e-001 4.064623e-001 5.283958e-001
<GCONST> 1.442868e+002
<TRANSP> 3
 0.000000e+000 1.000000e+000 0.000000e+000
 0.000000e+000 9.977571e-001 2.242944e-003
 0.000000e+000 0.000000e+000 0.000000e+000
<ENDHMM>
~h "DAVID"
<BEGINHMM>
<NUMSTATES> 3
<STATE> 2
<NUMMIXES> 2
<MIXTURE> 1 4.920571e-001
<MEAN> 39
 -1.105959e+001 1.694130e+000 2.756366e-001 -3.755085e+000 -8.214136e-001 -2.628755e+000 -1.245075e+000 -4.517454e-001 -3.158278e+000 8.213971e-001 -9.821159e-001 -1.704414e+000 6.898923e+001 -7.420085e-002 1.103562e-001 5.496218e-002 1.104659e-001 1.550750e-001 1.153130e-001 2.005063e-001 8.611586e-002 1.580426e-001 1.126083e-001 1.537357e-001 1.881943e-001 -1.839379e-002 -4.814897e-003 2.473953e-002 3.069340e-002 3.047370e-002 2.871480e-002 1.692679e-002 3.664717e-002 5.708821e-003 2.539858e-002 1.066971e-002 2.893982e-002 3.100575e-002 -1.917125e-003
<VARIANCE> 39
 5.917867e+001 2.548069e+001 4.796357e+001 4.779142e+001 3.314199e+001 3.025147e+001 4.256305e+001 3.610086e+001 5.436837e+001 2.313150e+001 2.733890e+001 2.336978e+001 7.131109e+001 2.591682e+000 1.528789e+000 1.909012e+000 2.998660e+000 2.137807e+000 2.157887e+000 2.841582e+000 2.828175e+000 3.274319e+000 2.061811e+000 1.989097e+000 1.602081e+000 1.857604e+000 3.859968e-001 2.522309e-001 3.036494e-001 5.105269e-001 3.750831e-001 3.934166e-001 5.102348e-001 5.326861e-001 5.911518e-001 4.028093e-001 3.774506e-001 3.048455e-001 3.276828e-001
<GCONST> 1.171442e+002
<MIXTURE> 2 5.079429e-001
<MEAN> 39
 -1.036387e+001 1.680113e+000 1.395529e+000 -4.194911e+000 -1.621666e+000 -3.033757e+000 -2.306422e+000 -6.632485e-001 -4.292295e+000 5.951667e-001 -1.194106e+000 -2.561783e+000 7.037669e+001 7.223729e-002 -1.081920e-001 -5.306172e-002 -1.061815e-001 -1.490251e-001 -1.089805e-001 -1.925834e-001 -8.577850e-002 -1.558914e-001 -1.129382e-001 -1.513094e-001 -1.798877e-001 1.811369e-002 4.699528e-003 -2.420903e-002 -2.979708e-002 -3.017209e-002 -2.904970e-002 -1.884956e-002 -3.695031e-002 -5.203859e-003 -2.466079e-002 -9.937688e-003 -2.725419e-002 -2.895893e-002 1.590360e-003
<VARIANCE> 39
 5.899663e+001 2.803947e+001 5.758874e+001 4.965747e+001 3.797125e+001 3.165917e+001 4.628442e+001 4.189520e+001 5.817149e+001 2.421120e+001 2.821045e+001 2.582241e+001 6.994189e+001 2.911476e+000 1.678774e+000 2.389590e+000 3.240928e+000 2.402383e+000 2.302925e+000 3.156429e+000 3.244622e+000 3.790958e+000 2.169918e+000 2.095131e+000 1.751804e+000 2.322182e+000 3.747303e-001 2.821050e-001 3.322960e-001 5.522535e-001 4.157559e-001 4.323821e-001 5.495828e-001 6.018921e-001 6.484331e-001 4.220774e-001 3.985137e-001 3.213173e-001 3.547025e-001
<GCONST> 1.205659e+002
<TRANSP> 3
 0.000000e+000 1.000000e+000 0.000000e+000
 0.000000e+000 9.972219e-001 2.778121e-003
 0.000000e+000 0.000000e+000 0.000000e+000
<ENDHMM>
~h "JAN"
<BEGINHMM>
<NUMSTATES> 3
<STATE> 2
<NUMMIXES> 2
<MIXTURE> 1 5.006301e-001
<MEAN> 39
 -8.531157e+000 -6.197966e+000 1.872746e+000 -3.233043e+000 -1.185613e+001 2.759440e+000 2.568199e-002 -2.044162e+000 -6.257729e-001 2.856580e+000 -7.302380e+000 -6.088420e+000 4.936496e+001 2.937278e-002 6.527041e-002 -5.841181e-003 7.849925e-002 1.189393e-001 1.040322e-001 1.300818e-001 1.067797e-001 1.467584e-001 1.253623e-001 1.270626e-001 1.237504e-001 -1.485315e-002 -4.629194e-003 8.859682e-003 1.243357e-002 6.589168e-003 3.166549e-002 3.036202e-002 4.620903e-002 3.243138e-002 3.192192e-002 2.333518e-002 1.760453e-002 2.317558e-002 1.028609e-003
<VARIANCE> 39
 2.424465e+001 2.592327e+001 7.129492e+001 3.245356e+001 4.306808e+001 3.556276e+001 8.447887e+001 5.905675e+001 2.908434e+001 2.819488e+001 1.934829e+001 1.864952e+001 3.238200e+001 6.689087e-001 1.244931e+000 1.750688e+000 1.733926e+000 1.901073e+000 1.729985e+000 2.888403e+000 2.291344e+000 1.778361e+000 1.755822e+000 1.449048e+000 1.239980e+000 7.387866e-001 1.042309e-001 1.930895e-001 2.653573e-001 2.890044e-001 3.174842e-001 2.992681e-001 4.751008e-001 3.924526e-001 3.251026e-001 3.253157e-001 2.830268e-001 2.339813e-001 1.022515e-001
<GCONST> 1.054726e+002
<MIXTURE> 2 4.993691e-001
<MEAN> 39
 -8.183803e+000 -6.973335e+000 3.904446e+000 -4.146925e+000 -1.326323e+001 1.819064e+000 -1.639047e+000 -3.120862e+000 -1.417218e+000 2.844113e+000 -7.585474e+000 -6.730569e+000 5.072631e+001 -3.000686e-002 -6.799493e-002 7.241128e-003 -7.740377e-002 -1.161955e-001 -1.065999e-001 -1.300834e-001 -1.069776e-001 -1.464395e-001 -1.258454e-001 -1.274975e-001 -1.215093e-001 1.589946e-002 4.891397e-003 -9.088805e-003 -1.212469e-002 -6.919444e-003 -3.149911e-002 -2.988995e-002 -4.693059e-002 -3.246357e-002 -3.303271e-002 -2.397591e-002 -1.819559e-002 -2.230451e-002 -9.216425e-004
<VARIANCE> 39
 2.418140e+001 3.355046e+001 7.821645e+001 3.625116e+001 5.006873e+001 4.067285e+001 8.498287e+001 5.535096e+001 3.323544e+001 3.042368e+001 2.110027e+001 2.151114e+001 3.316854e+001 9.321766e-001 1.407887e+000 2.238706e+000 1.885275e+000 2.296512e+000 1.904918e+000 3.283216e+000 2.420985e+000 1.965970e+000 1.825363e+000 1.549667e+000 1.380063e+000 8.750479e-001 1.204799e-001 2.141969e-001 3.023138e-001 3.133965e-001 3.759591e-001 3.244212e-001 5.216493e-001 4.154095e-001 3.419893e-001 3.273378e-001 2.954530e-001 2.440623e-001 1.105363e-001
<GCONST> 1.094356e+002
<TRANSP> 3
 0.000000e+000 1.000000e+000 0.000000e+000
 0.000000e+000 9.972063e-001 2.793643e-003
 0.000000e+000 0.000000e+000 0.000000e+000
<ENDHMM>
~h "MAR"
<BEGINHMM>
<NUMSTATES> 3
<STATE> 2
<NUMMIXES> 2
<MIXTURE> 1 4.914027e-001
<MEAN> 39
 -6.781144e+000 2.368818e+000 3.784741e+000 1.279643e+000 8.189152e-001 -2.248140e-001 1.230057e+000 -6.504223e-001 2.864299e+000 -6.512277e-001 5.313401e+000 -8.543126e-001 6.629494e+001 -2.025750e-001 2.290239e-001 4.911403e-002 2.398576e-001 2.870596e-001 8.879142e-002 2.345153e-001 1.660112e-001 1.282850e-001 2.495212e-001 1.147948e-001 3.009766e-001 -4.635023e-001 -1.134963e-002 1.541407e-002 3.792279e-002 3.286964e-002 3.350767e-002 1.988959e-002 4.045385e-002 1.996978e-002 1.018336e-002 1.580893e-002 -1.016712e-002 3.128296e-002 -3.747414e-002
<VARIANCE> 39
 8.134712e+001 3.968606e+001 5.411740e+001 5.292305e+001 7.103277e+001 5.003181e+001 5.606462e+001 4.443595e+001 3.639134e+001 4.305027e+001 2.777790e+001 4.239318e+001 1.258668e+002 3.558460e+000 2.496131e+000 2.429984e+000 3.353686e+000 3.667253e+000 3.335969e+000 3.142725e+000 2.956585e+000 2.667684e+000 2.783172e+000 2.538079e+000 2.608078e+000 4.306094e+000 5.761403e-001 4.541472e-001 4.114056e-001 6.241162e-001 6.654374e-001 6.324792e-001 5.752641e-001 5.501401e-001 5.179626e-001 5.342085e-001 5.204481e-001 4.911857e-001 8.037570e-001
<GCONST> 1.297631e+002
<MIXTURE> 2 5.085966e-001
<MEAN> 39
 -4.351375e+000 1.361516e+000 4.257206e+000 -5.243647e-002 -2.383087e+000 -1.334097e+000 -1.587957e+000 -3.047105e+000 1.919397e+000 -3.400692e+000 4.324060e+000 -3.822956e+000 7.192786e+001 1.959709e-001 -2.216381e-001 -4.501320e-002 -2.308313e-001 -2.770337e-001 -8.834887e-002 -2.283902e-001 -1.622846e-001 -1.256534e-001 -2.417013e-001 -1.131596e-001 -2.903667e-001 4.479499e-001 1.102805e-002 -1.450825e-002 -3.693353e-002 -3.160896e-002 -3.246371e-002 -1.972077e-002 -4.012707e-002 -1.972282e-002 -1.020096e-002 -1.481129e-002 9.083214e-003 -3.080814e-002 3.650650e-002
<VARIANCE> 39
 7.649576e+001 5.343805e+001 6.837532e+001 6.227309e+001 7.067036e+001 5.853751e+001 5.591282e+001 4.940555e+001 4.364869e+001 5.382755e+001 3.239996e+001 4.281568e+001 8.012614e+001 4.750323e+000 3.401357e+000 3.342073e+000 4.921644e+000 5.010441e+000 4.679682e+000 3.927996e+000 3.895687e+000 3.148474e+000 3.497987e+000 3.140764e+000 3.250824e+000 5.305314e+000 6.340203e-001 5.626732e-001 5.054079e-001 8.454611e-001 8.646871e-001 8.562881e-001 7.061967e-001 7.182909e-001 5.738209e-001 6.182529e-001 6.229987e-001 5.868409e-001 8.814508e-001
<GCONST> 1.368093e+002
<TRANSP> 3
 0.000000e+000 1.000000e+000 0.000000e+000
 0.000000e+000 9.984528e-001 1.547198e-003
 0.000000e+000 0.000000e+000 0.000000e+000
<ENDHMM>
~h "MJB"
<BEGINHMM>
<NUMSTATES> 3
<STATE> 2
<NUMMIXES> 2
<MIXTURE> 1 4.976870e-001
<MEAN> 39
 -6.587371e+000 4.941242e-001 2.135650e+000 1.295890e+000 -1.901387e+000 1.717892e+000 -4.689380e+000 1.336476e+000 -1.865950e+000 -6.905020e-001 -1.288594e+000 -1.198685e-001 6.305732e+001 -2.058757e-001 1.534904e-001 8.493692e-002 9.706495e-002 1.952072e-001 2.511756e-002 2.612050e-001 1.327323e-001 1.438886e-001 1.758044e-001 1.649178e-001 1.865336e-001 -8.480925e-002 -1.385959e-002 1.579069e-002 2.929182e-002 2.658190e-002 1.719661e-002 3.472836e-003 4.309646e-002 1.264221e-002 3.042376e-002 2.931262e-002 3.096616e-002 2.857308e-002 7.269729e-003
<VARIANCE> 39
 7.973466e+001 3.939295e+001 5.060688e+001 3.815473e+001 7.478129e+001 5.155420e+001 6.442136e+001 4.484154e+001 4.871544e+001 2.861505e+001 3.159644e+001 2.670772e+001 9.369878e+001 3.144389e+000 2.223233e+000 1.867378e+000 2.277933e+000 3.770580e+000 3.085071e+000 2.742878e+000 2.655330e+000 2.649776e+000 1.959753e+000 1.963000e+000 1.490666e+000 2.045362e+000 5.189061e-001 3.833345e-001 3.219900e-001 4.211858e-001 6.717943e-001 5.709968e-001 5.316124e-001 5.085976e-001 5.064991e-001 3.844059e-001 3.825165e-001 2.986887e-001 3.601448e-001
<GCONST> 1.226015e+002
<MIXTURE> 2 5.023120e-001
<MEAN> 39
 -4.240567e+000 -8.276793e-001 2.496955e+000 3.411312e-001 -4.482828e+000 1.298681e+000 -7.560744e+000 -3.114664e-001 -3.293176e+000 -1.879468e+000 -2.497045e+000 -1.598534e+000 6.751408e+001 1.985735e-001 -1.495763e-001 -9.019823e-002 -9.700103e-002 -1.917024e-001 -2.195342e-002 -2.495819e-001 -1.260840e-001 -1.383135e-001 -1.669021e-001 -1.633202e-001 -1.819443e-001 8.249968e-002 1.470581e-002 -1.535706e-002 -2.950927e-002 -2.679188e-002 -1.773971e-002 -3.767748e-003 -4.352785e-002 -1.294178e-002 -2.871312e-002 -2.874203e-002 -3.103241e-002 -2.841871e-002 -7.201696e-003
<VARIANCE> 39
 8.673233e+001 4.986313e+001 5.517162e+001 4.569163e+001 7.984766e+001 6.019576e+001 5.389623e+001 4.873713e+001 4.699436e+001 3.069878e+001 3.326510e+001 2.480278e+001 6.037717e+001 3.974834e+000 2.696178e+000 2.243066e+000 2.855154e+000 4.781742e+000 3.752712e+000 3.250305e+000 3.110189e+000 3.105189e+000 2.118327e+000 2.339974e+000 1.652767e+000 2.573092e+000 5.594410e-001 4.446448e-001 3.660865e-001 4.912034e-001 7.941136e-001 6.498708e-001 5.786790e-001 5.674564e-001 5.673357e-001 4.096659e-001 4.289810e-001 3.200320e-001 4.050670e-001
<GCONST> 1.267034e+002
<TRANSP> 3
 0.000000e+000 1.000000e+000 0.000000e+000
 0.000000e+000 9.982219e-001 1.778108e-003
 0.000000e+000 0.000000e+000 0.000000e+000
<ENDHMM>
~h "MJL"
<BEGINHMM>
<NUMSTATES> 3
<STATE> 2
<NUMMIXES> 2
<MIXTURE> 1 4.909676e-001
<MEAN> 39
 -6.920095e+000 1.520352e+000 1.393576e+000 3.585410e+000 3.778825e-001 1.767659e+000 3.968114e+000 3.721824e+000 4.477368e+000 5.639584e+000 6.431867e+000 3.729500e+000 4.820967e+001 -3.121951e-001 2.025726e-001 1.430481e-002 7.165194e-002 2.433269e-001 1.225192e-001 2.083136e-001 1.254026e-001 1.920952e-001 1.331591e-001 1.516292e-001 2.029079e-001 -2.312958e-001 -3.042270e-002 -1.285287e-002 1.074275e-002 -6.770387e-003 1.058121e-002 3.224469e-002 2.251159e-002 1.662977e-002 1.526079e-002 2.725491e-003 9.087617e-003 1.310352e-002 1.131723e-002
<VARIANCE> 39
 6.519650e+001 3.357306e+001 3.382732e+001 3.024741e+001 8.061185e+001 6.209219e+001 4.363114e+001 5.287713e+001 3.911911e+001 2.234069e+001 1.852643e+001 3.081904e+001 1.162561e+002 2.676291e+000 2.063378e+000 1.437768e+000 1.625086e+000 2.935295e+000 1.924438e+000 1.947877e+000 2.567692e+000 1.987767e+000 1.631839e+000 1.469807e+000 1.437873e+000 1.515185e+000 4.018546e-001 3.641212e-001 2.425656e-001 3.065382e-001 5.185348e-001 3.701083e-001 3.829617e-001 4.864974e-001 3.811309e-001 3.272415e-001 2.987666e-001 2.796449e-001 2.677702e-001
<GCONST> 1.149428e+002
<MIXTURE> 2 5.090318e-001
<MEAN> 39
 -2.378074e+000 -1.810723e+000 1.724919e+000 1.169593e+000 -6.932209e+000 -2.806216e+000 -3.166271e-001 -9.510283e-001 5.204981e-001 4.023817e+000 4.445914e+000 -4.179015e-001 5.601009e+001 2.962606e-001 -1.879051e-001 -1.122107e-002 -6.167234e-002 -2.268641e-001 -1.100693e-001 -1.925304e-001 -1.152795e-001 -1.786735e-001 -1.244294e-001 -1.399791e-001 -1.902024e-001 2.093498e-001 3.187142e-002 1.002548e-002 -1.100506e-002 3.724274e-003 -1.329478e-002 -3.467110e-002 -2.672162e-002 -1.908532e-002 -1.576367e-002 -4.508765e-003 -1.135347e-002 -1.493806e-002 -6.128416e-003
<VARIANCE> 39
 9.804628e+001 5.547621e+001 6.257488e+001 4.549563e+001 8.705952e+001 5.790878e+001 4.222897e+001 6.198006e+001 4.008330e+001 3.146920e+001 2.547593e+001 3.310820e+001 1.259690e+002 4.751809e+000 3.735651e+000 2.537756e+000 2.870031e+000 5.376661e+000 3.138324e+000 2.819753e+000 4.325766e+000 2.861720e+000 2.325372e+000 2.057320e+000 2.169298e+000 2.459041e+000 7.269387e-001 6.714981e-001 3.911550e-001 5.044799e-001 9.839820e-001 5.339469e-001 5.222887e-001 7.857899e-001 5.236478e-001 4.435385e-001 3.981637e-001 3.997943e-001 4.250634e-001
<GCONST> 1.297941e+002
<TRANSP> 3
 0.000000e+000 1.000000e+000 0.000000e+000
 0.000000e+000 9.983717e-001 1.628322e-003
 0.000000e+000 0.000000e+000 0.000000e+000
<ENDHMM>
~h "MKK"
<BEGINHMM>
<NUMSTATES> 3
<STATE> 2
<NUMMIXES> 2
<MIXTURE> 1 4.964688e-001
<MEAN> 39
 -5.502884e+000 -8.190480e-001 5.302445e+000 -7.249423e+000 5.825832e-003 -2.892988e+000 3.945087e-001 2.502819e+000 2.114337e+000 9.976544e-001 -1.378351e+000 -8.611153e-001 6.124811e+001 -2.573041e-002 2.586646e-001 1.526892e-001 3.397454e-001 2.336938e-001 2.118211e-001 2.709723e-001 9.451830e-002 1.782727e-001 1.240876e-001 2.502091e-001 1.222567e-001 -1.755462e-001 -1.488640e-002 4.394645e-002 2.911472e-002 8.581550e-002 4.354889e-002 3.970436e-002 7.005923e-002 7.639108e-003 4.459417e-002 1.957930e-002 5.361879e-002 1.439090e-002 -5.610888e-002
<VARIANCE> 39
 7.183238e+001 3.142721e+001 5.458591e+001 8.363017e+001 3.590903e+001 4.227535e+001 4.555470e+001 3.285078e+001 4.934047e+001 3.027464e+001 3.458225e+001 1.862256e+001 8.677561e+001 2.860303e+000 2.220603e+000 2.253037e+000 4.727107e+000 2.319251e+000 2.502478e+000 3.013119e+000 2.669003e+000 3.427194e+000 2.296427e+000 2.425555e+000 1.627823e+000 3.474194e+000 4.659744e-001 4.031975e-001 3.907001e-001 7.994314e-001 4.524232e-001 4.754849e-001 5.805557e-001 5.189269e-001 6.349375e-001 4.497924e-001 4.560308e-001 3.247014e-001 5.243695e-001
<GCONST> 1.240601e+002
<MIXTURE> 2 5.035312e-001
<MEAN> 39
 -5.755601e+000 -1.805690e+000 4.785059e+000 -7.538613e+000 -4.347683e-001 -3.630761e+000 -4.919662e-001 2.003225e+000 2.250575e+000 8.514069e-001 -1.590426e+000 -1.219519e+000 6.131779e+001 2.507675e-002 -2.520953e-001 -1.480265e-001 -3.305593e-001 -2.262356e-001 -2.046524e-001 -2.621520e-001 -9.188277e-002 -1.726390e-001 -1.228550e-001 -2.446612e-001 -1.191906e-001 1.695730e-001 1.434294e-002 -4.343663e-002 -2.840624e-002 -8.475813e-002 -4.329280e-002 -3.924949e-002 -6.885199e-002 -7.437482e-003 -4.404737e-002 -1.941448e-002 -5.286080e-002 -1.434406e-002 5.537482e-002
<VARIANCE> 39
 6.812143e+001 3.381454e+001 5.234781e+001 7.906528e+001 3.488731e+001 3.960767e+001 4.441310e+001 3.240137e+001 4.865026e+001 3.075614e+001 3.335240e+001 1.809086e+001 9.000806e+001 3.433004e+000 2.169734e+000 2.303952e+000 4.409802e+000 2.403022e+000 2.537135e+000 3.198514e+000 2.631892e+000 3.547238e+000 2.326935e+000 2.349308e+000 1.594849e+000 3.182388e+000 4.247126e-001 3.999461e-001 3.529338e-001 7.827371e-001 4.535574e-001 4.569704e-001 5.759163e-001 5.036709e-001 6.542814e-001 4.516777e-001 4.362450e-001 3.151582e-001 5.505118e-001
<GCONST> 1.236468e+002
<TRANSP> 3
 0.000000e+000 1.000000e+000 0.000000e+000
 0.000000e+000 9.988053e-001 1.194696e-003
 0.000000e+000 0.000000e+000 0.000000e+000
<ENDHMM>
~h "MMS"
<BEGINHMM>
<NUMSTATES> 3
<STATE> 2
<NUMMIXES> 2
<MIXTURE> 1 4.928180e-001
<MEAN> 39
 -7.024867e+000 2.337157e+000 5.269437e+000 6.878725e-001 5.419010e-001 1.694559e+000 6.869384e-001 3.329939e-001 3.626109e+000 5.891594e-001 4.172426e+000 2.143565e-001 6.398603e+001 -3.369630e-001 2.644141e-001 4.021300e-003 2.456971e-001 3.921096e-001 1.108245e-001 3.543794e-001 1.793200e-001 7.255543e-002 2.406628e-001 4.917071e-002 2.498561e-001 -3.804588e-001 -1.419866e-002 -3.028063e-003 7.330271e-003 3.032197e-002 2.126497e-002 3.751166e-002 5.196848e-002 6.832629e-003 1.515668e-002 1.127449e-002 4.955804e-004 3.621149e-002 -2.707299e-002
<VARIANCE> 39
 8.278648e+001 3.548286e+001 5.131573e+001 4.610721e+001 7.899283e+001 4.844901e+001 6.932041e+001 5.367441e+001 4.078358e+001 3.717699e+001 2.496430e+001 3.820396e+001 9.705056e+001 4.290228e+000 2.616304e+000 2.625777e+000 3.075737e+000 4.208555e+000 2.917106e+000 3.304520e+000 3.102953e+000 2.942981e+000 2.845656e+000 2.339548e+000 2.386207e+000 3.277033e+000 6.451010e-001 4.938560e-001 4.292675e-001 5.578078e-001 7.103035e-001 5.360543e-001 6.080348e-001 5.611321e-001 5.471189e-001 5.483438e-001 4.600661e-001 4.511547e-001 5.937043e-001
<GCONST> 1.291250e+002
<MIXTURE> 2 5.071819e-001
<MEAN> 39
 -4.270065e+000 7.446397e-001 5.777464e+000 -1.234099e+000 -3.595578e+000 6.069273e-001 -2.903589e+000 -2.580404e+000 2.940803e+000 -1.377636e+000 3.610361e+000 -1.778491e+000 6.908085e+001 3.289797e-001 -2.557710e-001 -3.515751e-003 -2.378209e-001 -3.781803e-001 -1.103234e-001 -3.447939e-001 -1.716351e-001 -7.054531e-002 -2.347329e-001 -4.528158e-002 -2.440468e-001 3.671099e-001 1.403558e-002 2.500643e-003 -7.309737e-003 -2.957182e-002 -2.166890e-002 -3.695640e-002 -5.082665e-002 -6.491156e-003 -1.447810e-002 -1.048902e-002 -6.986767e-004 -3.533523e-002 2.657952e-002
<VARIANCE> 39
 8.427589e+001 4.301667e+001 6.406604e+001 5.229520e+001 7.656133e+001 5.621884e+001 5.822330e+001 6.004059e+001 5.130549e+001 4.128362e+001 3.118892e+001 3.905874e+001 5.869222e+001 5.267955e+000 3.332442e+000 3.349356e+000 3.907271e+000 5.412166e+000 3.685289e+000 4.274123e+000 4.142726e+000 3.870844e+000 3.606835e+000 2.926479e+000 2.885561e+000 3.918744e+000 7.251822e-001 6.069244e-001 5.121024e-001 7.082605e-001 9.305121e-001 6.409371e-001 7.589801e-001 7.228234e-001 6.920075e-001 6.525333e-001 5.788445e-001 5.314640e-001 7.258211e-001
<GCONST> 1.355451e+002
<TRANSP> 3
 0.000000e+000 1.000000e+000 0.000000e+000
 0.000000e+000 9.980944e-001 1.905537e-003
 0.000000e+000 0.000000e+000 0.000000e+000
<ENDHMM>
~h "MOS"
<BEGINHMM>
<NUMSTATES> 3
<STATE> 2
<NUMMIXES> 2
<MIXTURE> 1 4.938718e-001
<MEAN> 39
 -7.688061e+000 -1.871454e+000 2.626388e+000 -5.197981e+000 -2.886456e+000 -5.657968e+000 -1.783796e+000 3.276501e-001 2.662721e+000 7.108308e-001 1.696227e+000 -2.134227e+000 5.697363e+001 -2.816754e-001 1.917220e-001 6.485033e-002 2.945402e-001 3.070647e-001 2.192395e-001 3.410560e-001 1.224916e-001 2.818534e-001 1.417079e-001 1.989311e-001 2.827533e-001 -2.176882e-001 -3.514004e-002 1.203131e-002 2.290355e-002 3.783896e-002 4.266757e-002 3.158488e-002 5.655544e-002 1.699157e-002 2.914914e-002 9.573669e-003 2.233570e-002 2.879098e-002 -9.128035e-003
<VARIANCE> 39
 7.690042e+001 3.509516e+001 4.618594e+001 4.517227e+001 5.017872e+001 4.466907e+001 4.719906e+001 3.683927e+001 4.220467e+001 3.023092e+001 3.054730e+001 3.190852e+001 8.388914e+001 3.092433e+000 2.512149e+000 2.028908e+000 2.864404e+000 2.938088e+000 2.645579e+000 2.684311e+000 2.862566e+000 2.953319e+000 2.586106e+000 2.338508e+000 2.162277e+000 2.794372e+000 4.609095e-001 4.437552e-001 3.352794e-001 5.097902e-001 5.448371e-001 4.989772e-001 5.115294e-001 5.418050e-001 5.419244e-001 5.171503e-001 4.458698e-001 4.127664e-001 4.436502e-001
<GCONST> 1.237243e+002
<MIXTURE> 2 5.061272e-001
<MEAN> 39
 -5.154263e+000 -3.101937e+000 3.239203e+000 -6.867975e+000 -5.038114e+000 -6.785841e+000 -4.020034e+000 -2.812253e-001 1.134511e+000 -1.377688e-001 9.358519e-001 -4.344615e+000 6.008018e+001 2.751202e-001 -1.864854e-001 -6.435516e-002 -2.906315e-001 -3.011191e-001 -2.166814e-001 -3.301281e-001 -1.198527e-001 -2.757545e-001 -1.409069e-001 -1.970428e-001 -2.778680e-001 2.144696e-001 3.399531e-002 -1.131860e-002 -2.180120e-002 -3.704272e-002 -4.168402e-002 -3.097895e-002 -5.560838e-002 -1.729699e-002 -2.905143e-002 -9.093658e-003 -2.200901e-002 -2.782249e-002 8.599372e-003
<VARIANCE> 39
 6.868298e+001 4.329893e+001 5.441658e+001 5.029778e+001 5.435424e+001 4.891464e+001 5.337654e+001 4.363127e+001 4.655534e+001 3.703588e+001 3.739441e+001 4.051701e+001 7.561167e+001 3.313975e+000 2.767316e+000 2.520511e+000 3.258020e+000 3.578922e+000 3.255639e+000 3.078192e+000 3.394006e+000 3.281503e+000 3.167403e+000 2.669323e+000 2.681266e+000 2.513819e+000 4.301115e-001 4.848341e-001 3.911347e-001 5.769004e-001 6.310731e-001 5.994902e-001 5.523694e-001 6.181046e-001 5.824737e-001 6.066197e-001 5.045183e-001 4.772193e-001 4.206056e-001
<GCONST> 1.282507e+002
<TRANSP> 3
 0.000000e+000 1.000000e+000 0.000000e+000
 0.000000e+000 9.984229e-001 1.577121e-003
 0.000000e+000 0.000000e+000 0.000000e+000
<ENDHMM>
~h "MPM"
<BEGINHMM>
<NUMSTATES> 3
<STATE> 2
<NUMMIXES> 2
<MIXTURE> 1 5.025195e-001
<MEAN> 39
 -8.325182e+000 3.547123e+000 1.950408e+000 2.013072e+000 -2.405426e+000 -2.383982e-001 -2.404966e+000 4.636962e-001 -3.662793e-001 2.323789e+000 1.275417e+000 -8.467524e-001 6.297865e+001 2.022556e-002 1.260976e-001 8.962362e-002 1.573692e-001 1.724184e-001 1.416968e-001 1.875658e-001 6.712890e-002 1.550975e-001 1.284683e-001 1.283778e-001 1.606161e-001 -3.341934e-002 7.019860e-003 4.532170e-002 3.909267e-002 5.147469e-002 3.753087e-002 2.322173e-002 4.912147e-002 -8.445051e-003 3.650809e-002 1.379768e-002 2.700294e-002 3.590328e-002 -2.586199e-002
<VARIANCE> 39
 6.436532e+001 3.916737e+001 6.233955e+001 3.880566e+001 6.562980e+001 5.826043e+001 7.574919e+001 5.117891e+001 4.937036e+001 3.996284e+001 3.045728e+001 3.886073e+001 9.844567e+001 2.770346e+000 2.082587e+000 2.668488e+000 2.528545e+000 3.649853e+000 2.971931e+000 3.161152e+000 3.564901e+000 3.028580e+000 2.665274e+000 2.443048e+000 2.224620e+000 2.135143e+000 4.298347e-001 3.737850e-001 4.563830e-001 4.740945e-001 6.817753e-001 5.559313e-001 6.132999e-001 6.800986e-001 5.862274e-001 5.190143e-001 4.876124e-001 4.275563e-001 3.606182e-001
<GCONST> 1.270916e+002
<MIXTURE> 2 4.974801e-001
<MEAN> 39
 -7.555160e+000 3.686706e+000 3.299266e+000 1.679541e+000 -3.855889e+000 -1.200368e+000 -4.274788e+000 -6.914500e-001 -1.648872e+000 1.775353e+000 8.005787e-001 -1.977735e+000 6.566140e+001 -1.809219e-002 -1.211969e-001 -9.557644e-002 -1.610981e-001 -1.684281e-001 -1.370331e-001 -1.877688e-001 -7.080398e-002 -1.552421e-001 -1.252296e-001 -1.268648e-001 -1.618496e-001 2.767740e-002 -7.217825e-003 -4.611156e-002 -3.981808e-002 -5.217559e-002 -3.814098e-002 -2.325173e-002 -5.074992e-002 7.851758e-003 -3.718514e-002 -1.383167e-002 -2.708740e-002 -3.563249e-002 2.635472e-002
<VARIANCE> 39
 7.205560e+001 4.571628e+001 6.708359e+001 4.487254e+001 6.754873e+001 6.047360e+001 6.512465e+001 5.714502e+001 5.121794e+001 4.446339e+001 3.291955e+001 3.943427e+001 7.271436e+001 3.442056e+000 2.415232e+000 3.288669e+000 3.020830e+000 4.195283e+000 3.401296e+000 3.603341e+000 4.167453e+000 3.423378e+000 2.937617e+000 2.646046e+000 2.535779e+000 2.482021e+000 4.471497e-001 4.145300e-001 5.073135e-001 5.548236e-001 7.742835e-001 6.127099e-001 6.803945e-001 7.703890e-001 6.455511e-001 5.578620e-001 5.250549e-001 4.684114e-001 4.202283e-001
<GCONST> 1.307761e+002
<TRANSP> 3
 0.000000e+000 1.000000e+000 0.000000e+000
 0.000000e+000 9.985098e-001 1.490239e-003
 0.000000e+000 0.000000e+000 0.000000e+000
<ENDHMM>
~h "MPS"
<BEGINHMM>
<NUMSTATES> 3
<STATE> 2
<NUMMIXES> 2
<MIXTURE> 1 4.928137e-001
<MEAN> 39
 -6.673702e+000 -4.394666e-001 4.160617e+000 -6.899585e-001 -4.813140e-001 8.366384e-001 -3.448243e-002 1.008968e-001 2.353051e+000 1.432005e+000 3.589779e+000 5.062355e-001 6.366268e+001 -2.217263e-001 2.045001e-001 -3.924564e-002 1.622469e-001 2.082971e-001 1.183832e-001 2.446901e-001 1.281295e-001 1.558397e-001 1.379299e-001 1.723009e-001 1.696572e-001 -2.674374e-001 -2.818775e-002 1.162534e-002 9.852051e-003 2.270525e-002 2.141723e-002 2.162834e-002 4.526489e-002 2.167981e-002 1.661617e-002 1.093873e-002 1.831967e-002 2.331023e-002 -2.381687e-002
<VARIANCE> 39
 8.866885e+001 3.989863e+001 6.201867e+001 4.543328e+001 5.953316e+001 3.814139e+001 5.706115e+001 4.214781e+001 4.999534e+001 2.613920e+001 2.544238e+001 2.513624e+001 1.095038e+002 3.936396e+000 2.595238e+000 2.540148e+000 2.772169e+000 2.869227e+000 2.319612e+000 2.680259e+000 2.538534e+000 2.742447e+000 1.856926e+000 1.703802e+000 1.455860e+000 2.889030e+000 5.860392e-001 4.621576e-001 4.107227e-001 4.823753e-001 5.101697e-001 4.287198e-001 5.055782e-001 4.792325e-001 5.154027e-001 3.645962e-001 3.325630e-001 2.835498e-001 5.045626e-001
<GCONST> 1.227434e+002
<MIXTURE> 2 5.071859e-001
<MEAN> 39
 -3.949933e+000 -1.972033e+000 5.731671e+000 -2.693481e+000 -4.064031e+000 -1.570176e-001 -3.449343e+000 -2.109306e+000 3.146921e-001 4.037631e-001 2.050790e+000 -1.596655e+000 6.958730e+001 2.163882e-001 -1.983146e-001 3.978385e-002 -1.582697e-001 -2.028819e-001 -1.160732e-001 -2.371058e-001 -1.250103e-001 -1.528769e-001 -1.340379e-001 -1.660148e-001 -1.646781e-001 2.585688e-001 2.741279e-002 -1.125735e-002 -9.332100e-003 -2.162468e-002 -2.086817e-002 -2.112601e-002 -4.359021e-002 -2.078606e-002 -1.616413e-002 -1.073365e-002 -1.796357e-002 -2.282569e-002 2.304500e-002
<VARIANCE> 39
 1.048644e+002 5.738855e+001 8.132788e+001 6.005236e+001 6.320792e+001 4.900103e+001 5.873153e+001 4.488728e+001 5.816949e+001 3.024960e+001 2.932419e+001 2.537735e+001 7.727444e+001 5.706972e+000 3.645247e+000 3.712120e+000 3.997609e+000 4.032320e+000 3.067716e+000 3.589218e+000 3.412896e+000 3.752591e+000 2.244971e+000 2.081891e+000 1.798457e+000 3.778125e+000 7.825567e-001 6.278694e-001 5.645106e-001 6.910018e-001 7.027729e-001 5.327033e-001 6.317502e-001 6.279000e-001 6.595501e-001 4.191653e-001 3.871895e-001 3.388403e-001 6.172140e-001
<GCONST> 1.313966e+002
<TRANSP> 3
 0.000000e+000 1.000000e+000 0.000000e+000
 0.000000e+000 9.984200e-001 1.580028e-003
 0.000000e+000 0.000000e+000 0.000000e+000
<ENDHMM>
~h "MVL"
<BEGINHMM>
<NUMSTATES> 3
<STATE> 2
<NUMMIXES> 2
<MIXTURE> 1 5.041708e-001
<MEAN> 39
 -6.969513e+000 -1.981431e-002 1.498253e+000 3.789490e-003 -5.186044e+000 2.288870e+000 -2.498406e+000 -6.544296e-001 1.469658e+000 2.209844e+000 -2.123865e+000 -9.040406e-001 6.703113e+001 -1.086620e-001 1.742429e-001 5.596706e-002 1.715555e-001 2.078854e-001 7.381917e-002 2.202016e-001 1.615822e-001 1.248039e-001 1.342025e-001 1.523802e-001 1.713797e-001 -1.593241e-001 -3.680811e-002 4.172603e-002 3.562866e-003 3.269883e-002 7.181297e-002 -1.607271e-002 7.475623e-002 3.359650e-002 1.445508e-002 1.162663e-002 2.231709e-002 3.064565e-002 -4.226300e-002
<VARIANCE> 39
 6.879823e+001 4.189630e+001 6.538641e+001 3.894940e+001 9.893033e+001 5.097340e+001 7.650440e+001 6.157248e+001 4.096937e+001 2.859480e+001 2.951718e+001 3.388640e+001 1.335682e+002 3.484897e+000 3.077199e+000 2.833672e+000 2.425093e+000 5.379093e+000 3.499045e+000 3.965974e+000 3.258437e+000 3.078130e+000 2.328753e+000 2.177903e+000 2.029336e+000 3.249750e+000 5.795404e-001 5.487568e-001 4.827116e-001 4.502936e-001 9.782351e-001 6.766478e-001 7.780370e-001 6.327326e-001 6.110321e-001 4.708421e-001 4.346939e-001 4.050076e-001 6.002052e-001
<GCONST> 1.304799e+002
<MIXTURE> 2 4.958288e-001
<MEAN> 39
 -5.845973e+000 -8.303545e-001 2.312167e+000 -8.950437e-001 -8.016756e+000 1.088382e+000 -5.022220e+000 -3.007888e+000 4.213649e-001 2.217913e+000 -3.228716e+000 -2.694551e+000 7.164532e+001 1.085116e-001 -1.756515e-001 -5.626109e-002 -1.727307e-001 -2.099570e-001 -7.542516e-002 -2.253820e-001 -1.684775e-001 -1.285161e-001 -1.325230e-001 -1.612463e-001 -1.785325e-001 1.644141e-001 3.899912e-002 -4.340845e-002 -4.190729e-003 -3.341526e-002 -7.279751e-002 1.600492e-002 -7.716376e-002 -3.382331e-002 -1.471577e-002 -1.120555e-002 -2.238635e-002 -3.124802e-002 4.254300e-002
<VARIANCE> 39
 8.025141e+001 5.379913e+001 7.501683e+001 4.687342e+001 9.891472e+001 5.863574e+001 7.226480e+001 5.854863e+001 4.884917e+001 3.236773e+001 3.120877e+001 3.512394e+001 9.206236e+001 4.873676e+000 3.881399e+000 3.982511e+000 3.201757e+000 7.159352e+000 4.483865e+000 5.093585e+000 4.280088e+000 4.078463e+000 2.789209e+000 2.623109e+000 2.570942e+000 4.301400e+000 7.055710e-001 6.548969e-001 6.086591e-001 5.591432e-001 1.268658e+000 8.207393e-001 9.484701e-001 8.072479e-001 7.712927e-001 5.471085e-001 5.085299e-001 4.784465e-001 7.085431e-001
<GCONST> 1.372548e+002
<TRANSP> 3
 0.000000e+000 1.000000e+000 0.000000e+000
 0.000000e+000 9.980443e-001 1.955714e-003
 0.000000e+000 0.000000e+000 0.000000e+000
<ENDHMM>
~h "ZLG"
<BEGINHMM>
<NUMSTATES> 3
<STATE> 2
<NUMMIXES> 2
<MIXTURE> 1 4.946319e-001
<MEAN> 39
 -8.032939e+000 2.880668e+000 -1.435041e+000 -6.437760e-001 -3.678350e+000 -2.874319e+000 -4.052515e+000 -4.405732e+000 -2.807474e+000 -1.937946e+000 -3.639601e+000 -2.027064e+000 6.215538e+001 -3.739855e-001 3.860006e-002 9.715620e-002 2.253639e-001 3.610114e-001 1.854900e-001 4.025196e-001 2.712906e-001 3.003561e-001 2.133399e-001 3.007494e-001 2.921808e-001 -1.489096e-001 -4.242408e-002 -3.066723e-002 2.416555e-002 1.214044e-002 3.102984e-002 2.493859e-002 3.760432e-002 5.171800e-002 4.915048e-002 3.628594e-002 4.374497e-002 4.947454e-002 2.685373e-002
<VARIANCE> 39
 5.371513e+001 3.343844e+001 4.363633e+001 3.631325e+001 6.655658e+001 4.709889e+001 6.295770e+001 5.877374e+001 4.826699e+001 3.333370e+001 4.113615e+001 3.719027e+001 7.153331e+001 2.381719e+000 1.855631e+000 1.977243e+000 1.989919e+000 2.940959e+000 2.283582e+000 2.508298e+000 2.422256e+000 2.270776e+000 2.206043e+000 1.968718e+000 1.801803e+000 2.040103e+000 4.150125e-001 3.335030e-001 3.664964e-001 3.842163e-001 5.795669e-001 4.674045e-001 5.170128e-001 4.910474e-001 4.487932e-001 4.363387e-001 4.044617e-001 3.642175e-001 3.787298e-001
<GCONST> 1.208152e+002
<MIXTURE> 2 5.053671e-001
<MEAN> 39
 -4.885264e+000 2.148078e+000 -2.639450e+000 -3.937143e+000 -7.737642e+000 -5.514000e+000 -9.781656e+000 -8.211226e+000 -6.344408e+000 -4.044601e+000 -7.160410e+000 -5.062196e+000 6.814498e+001 3.641925e-001 -3.186703e-002 -9.922439e-002 -2.203829e-001 -3.470763e-001 -1.807669e-001 -3.867154e-001 -2.639132e-001 -2.899119e-001 -2.065279e-001 -2.900808e-001 -2.901006e-001 1.419425e-001 4.243197e-002 2.973557e-002 -2.346322e-002 -1.192813e-002 -3.084259e-002 -2.421348e-002 -3.727965e-002 -5.085173e-002 -4.982600e-002 -3.657581e-002 -4.383718e-002 -4.932578e-002 -2.611338e-002
<VARIANCE> 39
 5.560533e+001 4.216035e+001 6.298737e+001 4.036226e+001 6.179424e+001 4.601236e+001 5.156530e+001 4.943764e+001 4.543845e+001 3.893895e+001 3.625174e+001 3.309309e+001 3.310583e+001 3.174513e+000 2.524230e+000 2.975506e+000 2.887604e+000 4.421056e+000 3.363369e+000 3.508551e+000 3.472136e+000 2.886293e+000 2.801897e+000 2.596020e+000 2.334205e+000 2.333133e+000 4.911038e-001 4.306607e-001 4.682189e-001 4.990134e-001 7.582210e-001 5.930716e-001 6.233482e-001 6.102262e-001 5.151850e-001 5.400102e-001 4.773737e-001 4.451188e-001 3.797479e-001
<GCONST> 1.267425e+002
<TRANSP> 3
 0.000000e+000 1.000000e+000 0.000000e+000
 0.000000e+000 9.981921e-001 1.807852e-003
 0.000000e+000 0.000000e+000 0.000000e+000
<ENDHMM>
~h "ZLR"
<BEGINHMM>
<NUMSTATES> 3
<STATE> 2
<NUMMIXES> 2
<MIXTURE> 1 4.978395e-001
<MEAN> 39
 -7.337581e+000 2.997119e+000 2.264669e+000 -1.219293e+000 2.545528e+000 -2.170362e+000 2.277095e+000 -2.452767e+000 6.049618e-001 -6.708756e-001 8.100808e-001 1.108239e+000 6.287744e+001 -3.583714e-001 1.517303e-001 9.108850e-002 5.529394e-001 2.931813e-001 5.003197e-001 2.914253e-001 4.944329e-001 3.168723e-001 2.878941e-001 4.564316e-001 2.835212e-001 -5.279433e-001 -4.100307e-002 -3.865351e-002 9.101458e-003 3.325322e-002 3.071539e-002 5.932728e-002 3.271961e-002 4.830985e-002 3.750554e-002 4.202891e-002 4.938494e-002 3.067864e-002 -1.607841e-002
<VARIANCE> 39
 5.167283e+001 3.597520e+001 4.085601e+001 9.117244e+001 5.636077e+001 7.181585e+001 4.735092e+001 7.088892e+001 4.820891e+001 3.564431e+001 4.998512e+001 2.683397e+001 9.970280e+001 2.833199e+000 2.636024e+000 2.153517e+000 5.055136e+000 2.934687e+000 3.651620e+000 2.663570e+000 3.847525e+000 2.649214e+000 2.520731e+000 2.416438e+000 1.722994e+000 3.716619e+000 4.966737e-001 4.764697e-001 3.914707e-001 9.360847e-001 5.621557e-001 7.309494e-001 5.264832e-001 7.638408e-001 5.141275e-001 4.903820e-001 4.566627e-001 3.553785e-001 7.417890e-001
<GCONST> 1.290998e+002
<MIXTURE> 2 5.021605e-001
<MEAN> 39
 -4.704781e+000 1.280506e+000 1.094552e+000 -7.129519e+000 -9.317541e-001 -6.688116e+000 -1.623582e+000 -7.724682e+000 -3.209437e+000 -3.105652e+000 -4.086991e+000 -2.144913e+000 7.045762e+001 3.587910e-001 -1.515429e-001 -8.692469e-002 -5.487227e-001 -2.882471e-001 -4.983109e-001 -2.886037e-001 -4.913360e-001 -3.169847e-001 -2.834559e-001 -4.553404e-001 -2.798891e-001 5.207670e-001 4.068594e-002 3.819684e-002 -9.409709e-003 -3.312163e-002 -3.100548e-002 -5.902070e-002 -3.353144e-002 -4.850227e-002 -3.730627e-002 -4.219467e-002 -4.891612e-002 -2.994187e-002 1.643649e-002
<VARIANCE> 39
 4.958149e+001 5.316452e+001 5.917951e+001 9.435186e+001 6.098730e+001 6.658879e+001 5.033122e+001 7.449711e+001 5.265704e+001 5.089005e+001 5.513553e+001 3.143853e+001 5.880364e+001 3.633269e+000 3.790787e+000 3.212982e+000 8.167214e+000 4.287560e+000 5.480065e+000 3.960648e+000 6.348181e+000 3.549270e+000 3.525613e+000 3.583642e+000 2.515835e+000 4.542543e+000 5.832022e-001 6.526194e-001 5.337961e-001 1.434352e+000 7.634792e-001 9.898868e-001 7.346432e-001 1.197141e+000 6.291116e-001 6.644158e-001 6.279159e-001 4.807835e-001 8.129368e-001
<GCONST> 1.387381e+002
<TRANSP> 3
 0.000000e+000 1.000000e+000 0.000000e+000
 0.000000e+000 9.983712e-001 1.628753e-003
 0.000000e+000 0.000000e+000 0.000000e+000
<ENDHMM>
~h "ZNM"
<BEGINHMM>
<NUMSTATES> 3
<STATE> 2
<NUMMIXES> 2
<MIXTURE> 1 4.872449e-001
<MEAN> 39
 -1.005696e+001 -1.952351e+000 2.177267e+000 -5.541153e+000 -1.861477e+000 -9.409607e+000 4.470630e+000 -2.490545e+000 3.981549e-001 7.773752e-001 4.649166e-001 -1.625484e+000 6.036770e+001 -2.729456e-001 1.652508e-001 5.372419e-002 4.287482e-001 2.698496e-001 5.282819e-001 1.749083e-001 4.461881e-001 4.329834e-001 2.332884e-001 3.595507e-001 3.037514e-001 -3.447859e-001 -2.612448e-002 -2.051495e-003 2.908318e-002 2.806398e-002 4.455790e-002 7.357723e-002 4.424228e-002 5.695076e-002 6.183014e-002 2.273084e-002 3.962906e-002 5.662444e-002 -8.835945e-003
<VARIANCE> 39
 7.292419e+001 3.406247e+001 6.184875e+001 7.391706e+001 4.785902e+001 1.003276e+002 3.912133e+001 5.928871e+001 6.431285e+001 2.928235e+001 4.272839e+001 3.522949e+001 1.094347e+002 2.810912e+000 2.209273e+000 2.622377e+000 3.815893e+000 2.476852e+000 5.005494e+000 2.426678e+000 3.351688e+000 3.447964e+000 2.406987e+000 2.448696e+000 2.127210e+000 4.577799e+000 4.191465e-001 3.904881e-001 4.364025e-001 6.312353e-001 4.485130e-001 8.560019e-001 4.548709e-001 6.189756e-001 6.433032e-001 4.813718e-001 4.466108e-001 3.926617e-001 7.179762e-001
<GCONST> 1.291634e+002
<MIXTURE> 2 5.127561e-001
<MEAN> 39
 -7.584005e+000 -2.997018e+000 2.736516e+000 -9.516298e+000 -3.274000e+000 -1.300697e+001 3.488871e+000 -5.191273e+000 -2.381381e+000 -1.338930e-001 -2.157284e+000 -3.358181e+000 6.432639e+001 2.593774e-001 -1.530608e-001 -5.218893e-002 -4.059749e-001 -2.496764e-001 -4.953696e-001 -1.720495e-001 -4.291109e-001 -4.117162e-001 -2.228079e-001 -3.460304e-001 -2.883891e-001 3.213813e-001 2.468943e-002 2.251412e-003 -2.741787e-002 -2.688896e-002 -4.293613e-002 -6.996506e-002 -4.220541e-002 -5.418012e-002 -5.871191e-002 -2.141721e-002 -3.740793e-002 -5.364836e-002 8.572267e-003
<VARIANCE> 39
 6.424364e+001 4.235065e+001 8.192950e+001 7.912951e+001 5.329210e+001 9.613918e+001 4.612404e+001 6.221320e+001 7.232964e+001 3.226888e+001 5.227084e+001 3.931118e+001 8.887746e+001 3.168304e+000 2.179491e+000 2.945530e+000 3.955450e+000 2.606151e+000 5.152835e+000 2.660192e+000 3.558343e+000 3.782538e+000 2.493549e+000 2.501424e+000 2.192153e+000 3.705236e+000 4.120303e-001 3.749607e-001 4.325429e-001 6.218693e-001 4.489465e-001 8.033164e-001 4.822589e-001 6.183637e-001 6.239964e-001 4.719776e-001 4.443749e-001 3.821336e-001 6.278246e-001
<GCONST> 1.303537e+002
<TRANSP> 3
 0.000000e+000 1.000000e+000 0.000000e+000
 0.000000e+000 9.989600e-001 1.040048e-003
 0.000000e+000 0.000000e+000 0.000000e+000
<ENDHMM>
~h "ZSS"
<BEGINHMM>
<NUMSTATES> 3
<STATE> 2
<NUMMIXES> 2
<MIXTURE> 1 5.055650e-001
<MEAN> 39
 -7.954545e+000 3.368984e+000 2.850224e+000 -3.762141e-001 1.082635e+000 2.056774e+000 2.256108e+000 2.557086e+000 5.293857e-001 2.921207e+000 1.675586e+000 3.098258e+000 5.183978e+001 -4.792916e-001 2.424895e-001 1.788930e-001 4.999489e-001 5.103881e-001 1.582160e-001 5.383665e-001 1.981785e-001 5.440833e-001 1.602209e-001 5.915852e-001 1.603556e-001 -5.397463e-001 -4.742543e-002 -3.109915e-002 2.289486e-002 3.110489e-002 6.495675e-002 3.201567e-002 5.627362e-002 2.052785e-002 5.446131e-002 1.896982e-003 5.793052e-002 1.108071e-002 -3.080770e-002
<VARIANCE> 39
 6.835258e+001 3.412278e+001 4.283038e+001 6.399126e+001 7.742588e+001 4.126425e+001 7.269604e+001 4.397674e+001 6.419302e+001 3.083153e+001 7.028371e+001 2.342644e+001 8.668385e+001 3.128345e+000 2.686224e+000 2.232666e+000 3.624631e+000 3.844648e+000 2.890160e+000 3.475891e+000 2.764881e+000 3.463936e+000 2.620707e+000 3.208363e+000 1.675497e+000 3.472801e+000 5.264813e-001 5.137073e-001 3.956344e-001 6.832328e-001 7.375426e-001 5.610436e-001 6.756948e-001 5.405242e-001 6.720598e-001 5.264177e-001 6.418484e-001 3.380426e-001 6.764052e-001
<GCONST> 1.295058e+002
<MIXTURE> 2 4.944349e-001
<MEAN> 39
 -4.659815e+000 1.307787e+000 1.349133e+000 -5.079800e+000 -3.426107e+000 -2.468413e-001 -3.158117e+000 -3.093694e-001 -4.189315e+000 1.359177e+000 -3.689283e+000 9.361408e-001 5.813142e+001 4.877237e-001 -2.431288e-001 -1.802849e-001 -5.045183e-001 -5.136936e-001 -1.615503e-001 -5.481188e-001 -1.995262e-001 -5.561738e-001 -1.656530e-001 -6.050037e-001 -1.601010e-001 5.449314e-001 5.061022e-002 3.039539e-002 -2.450347e-002 -3.343699e-002 -6.642842e-002 -3.359990e-002 -5.882529e-002 -2.224921e-002 -5.567694e-002 -2.227848e-003 -6.049724e-002 -1.147488e-002 3.233057e-002
<VARIANCE> 39
 6.480624e+001 4.989754e+001 6.180646e+001 6.539626e+001 7.425853e+001 5.146730e+001 7.236658e+001 4.930884e+001 7.414405e+001 4.091153e+001 6.732828e+001 2.776967e+001 5.547967e+001 4.418897e+000 3.715777e+000 3.226418e+000 4.966079e+000 5.626502e+000 4.193552e+000 4.867712e+000 4.149846e+000 5.092551e+000 3.639902e+000 4.805092e+000 2.180737e+000 4.027185e+000 6.825137e-001 6.687029e-001 5.233858e-001 8.554491e-001 9.854463e-001 7.495385e-001 8.378658e-001 7.469143e-001 8.737227e-001 7.027955e-001 8.423084e-001 4.110893e-001 7.195106e-001
<GCONST> 1.382227e+002
<TRANSP> 3
 0.000000e+000 1.000000e+000 0.000000e+000
 0.000000e+000 9.981949e-001 1.805054e-003
 0.000000e+000 0.000000e+000 0.000000e+000
<ENDHMM>
~h "ZTK"
<BEGINHMM>
<NUMSTATES> 3
<STATE> 2
<NUMMIXES> 2
<MIXTURE> 1 4.839827e-001
<MEAN> 39
 -8.887899e+000 -3.116786e+000 3.486153e+000 -7.892569e+000 -2.159394e+000 -5.263598e+000 -7.212169e-001 1.857522e+000 -1.267692e-001 -6.520024e-001 -1.792489e+000 -4.577630e-001 6.313313e+001 -4.222382e-001 3.760978e-001 -3.905000e-002 7.223248e-001 4.759075e-001 5.038645e-001 6.015849e-001 3.156037e-001 6.338569e-001 2.488486e-001 6.141108e-001 2.919870e-001 -4.282577e-001 6.506633e-003 -1.359910e-002 1.800714e-002 1.566152e-002 3.697506e-002 4.881299e-002 4.672114e-002 2.765861e-002 3.818647e-002 5.294997e-002 6.987097e-002 5.448391e-002 -2.272257e-003
<VARIANCE> 39
 7.613095e+001 6.896039e+001 5.197862e+001 1.054610e+002 6.310469e+001 5.713301e+001 6.931913e+001 4.541803e+001 6.576496e+001 3.658072e+001 6.021405e+001 2.634344e+001 1.083575e+002 3.620384e+000 4.308441e+000 2.796503e+000 6.500183e+000 3.421612e+000 3.414493e+000 3.965815e+000 3.495095e+000 3.955344e+000 3.207200e+000 3.401242e+000 1.979679e+000 6.175980e+000 6.147928e-001 7.093853e-001 4.886009e-001 1.101392e+000 6.287087e-001 6.702079e-001 7.515430e-001 7.031885e-001 7.128456e-001 6.297358e-001 6.279906e-001 3.948435e-001 1.021018e+000
<GCONST> 1.368141e+002
<MIXTURE> 2 5.160165e-001
<MEAN> 39
 -4.796691e+000 -6.168506e+000 3.959121e+000 -1.323822e+001 -5.443121e+000 -8.446203e+000 -4.957063e+000 1.186075e-001 -4.422639e+000 -1.313136e+000 -5.703779e+000 -2.631642e+000 6.689117e+001 4.005846e-001 -3.431520e-001 3.838098e-002 -6.709962e-001 -4.403500e-001 -4.622087e-001 -5.605805e-001 -2.979856e-001 -5.908663e-001 -2.339639e-001 -5.754729e-001 -2.759791e-001 3.903198e-001 -5.982066e-003 1.346409e-002 -1.672637e-002 -1.405726e-002 -3.443875e-002 -4.455306e-002 -4.327339e-002 -2.519226e-002 -3.580054e-002 -5.026043e-002 -6.591368e-002 -5.108743e-002 1.395942e-003
<VARIANCE> 39
 5.852900e+001 8.147578e+001 5.993697e+001 1.097027e+002 6.479487e+001 5.423149e+001 6.860096e+001 5.580033e+001 7.293281e+001 3.902982e+001 6.130981e+001 2.923443e+001 8.255493e+001 3.561670e+000 4.635839e+000 2.972308e+000 7.655786e+000 3.830643e+000 3.949598e+000 4.301565e+000 4.661246e+000 4.089650e+000 3.246218e+000 3.636808e+000 2.145134e+000 5.631643e+000 5.185909e-001 7.637948e-001 4.733806e-001 1.267533e+000 6.606113e-001 6.969970e-001 7.418458e-001 8.684449e-001 7.297673e-001 6.430334e-001 6.725569e-001 4.059661e-001 9.666635e-001
<GCONST> 1.384830e+002
<TRANSP> 3
 0.000000e+000 1.000000e+000 0.000000e+000
 0.000000e+000 9.985837e-001 1.416295e-003
 0.000000e+000 0.000000e+000 0.000000e+000
<ENDHMM>
~h "ZTV"
<BEGINHMM>
<NUMSTATES> 3
<STATE> 2
<NUMMIXES> 2
<MIXTURE> 1 4.948834e-001
<MEAN> 39
 -8.042986e+000 1.560094e+000 1.302303e+000 -4.080584e+000 -2.792265e+000 -3.437438e+000 -3.638256e+000 -9.218937e-001 -2.370051e+000 -2.688587e-001 -3.321902e+000 -4.090888e-001 6.439225e+001 -3.048311e-001 6.411652e-002 9.953256e-002 3.601764e-001 4.153337e-001 2.277541e-001 5.332124e-001 2.215172e-001 4.447021e-001 1.491994e-001 5.036910e-001 1.717790e-001 -2.418372e-001 -3.116784e-002 -2.420448e-002 1.150988e-002 2.193504e-002 4.582539e-002 2.739064e-002 5.676728e-002 3.942810e-002 5.924032e-002 3.761676e-002 8.401906e-002 2.353699e-002 9.922540e-003
<VARIANCE> 39
 5.953113e+001 3.043786e+001 4.920927e+001 7.603238e+001 8.650272e+001 4.682033e+001 8.973875e+001 4.667421e+001 6.232066e+001 3.667380e+001 6.876054e+001 2.744768e+001 9.651691e+001 2.483141e+000 2.209217e+000 2.117848e+000 3.674582e+000 3.712997e+000 2.785865e+000 3.669521e+000 2.794827e+000 3.074878e+000 2.809707e+000 2.989673e+000 2.142111e+000 3.666610e+000 4.171987e-001 4.003671e-001 3.763316e-001 6.834526e-001 7.375820e-001 5.578785e-001 7.210062e-001 5.602610e-001 6.007222e-001 5.539734e-001 6.130818e-001 4.261707e-001 6.590236e-001
<GCONST> 1.298297e+002
<MIXTURE> 2 5.051161e-001
<MEAN> 39
 -5.680575e+000 6.848595e-002 1.173886e+000 -8.342491e+000 -7.436087e+000 -5.428507e+000 -9.141611e+000 -2.855441e+000 -6.296834e+000 -1.490651e+000 -7.226394e+000 -1.954314e+000 7.010410e+001 3.020641e-001 -6.483664e-002 -8.837794e-002 -3.475602e-001 -3.972177e-001 -2.154988e-001 -5.237519e-001 -2.199180e-001 -4.391420e-001 -1.530207e-001 -4.984733e-001 -1.700307e-001 2.279338e-001 2.972011e-002 2.418095e-002 -1.272976e-002 -2.124917e-002 -4.600715e-002 -2.731930e-002 -5.524155e-002 -3.847370e-002 -5.761891e-002 -3.665406e-002 -8.240914e-002 -2.401841e-002 -8.996107e-003
<VARIANCE> 39
 5.585841e+001 4.118041e+001 6.606787e+001 6.540310e+001 8.322626e+001 5.577667e+001 8.472634e+001 5.606801e+001 6.489882e+001 4.459579e+001 5.893599e+001 3.448201e+001 5.350282e+001 3.475778e+000 2.735147e+000 2.899844e+000 4.963588e+000 5.895159e+000 4.086787e+000 5.706771e+000 4.174104e+000 4.024476e+000 3.527528e+000 4.301043e+000 2.712150e+000 3.908758e+000 5.096488e-001 4.729441e-001 4.464320e-001 8.071703e-001 9.639394e-001 6.999734e-001 9.226035e-001 7.426319e-001 7.068461e-001 6.599813e-001 7.725952e-001 4.976508e-001 6.283377e-001
<GCONST> 1.366112e+002
<TRANSP> 3
 0.000000e+000 1.000000e+000 0.000000e+000
 0.000000e+000 9.983172e-001 1.682794e-003
 0.000000e+000 0.000000e+000 0.000000e+000
<ENDHMM>
~h "MPCH"
<BEGINHMM>
<NUMSTATES> 3
<STATE> 2
<NUMMIXES> 2
<MIXTURE> 1 4.932598e-001
<MEAN> 39
 -8.493236e+000 -4.845673e+000 2.485447e+000 -6.769253e+000 -3.448056e+000 -3.966512e+000 -1.437828e+000 1.400896e+000 5.038850e-001 -1.027055e-001 4.905494e-001 -1.211089e+000 6.319394e+001 -3.748959e-001 3.210848e-001 9.634677e-003 3.619163e-001 4.410626e-001 2.553371e-001 4.086769e-001 1.483733e-001 4.442358e-001 1.498339e-001 3.248085e-001 2.711384e-001 -3.979398e-001 -8.539421e-003 1.282793e-002 2.211287e-002 2.362920e-002 3.052557e-002 3.721687e-002 4.388299e-002 1.379045e-002 3.387812e-002 -2.005879e-004 2.976095e-002 3.078362e-002 4.997056e-003
<VARIANCE> 39
 8.408698e+001 4.723943e+001 5.106275e+001 5.823245e+001 6.302657e+001 3.965463e+001 5.110654e+001 3.380821e+001 6.554243e+001 2.729188e+001 3.277853e+001 2.299764e+001 1.263801e+002 3.159173e+000 3.164072e+000 2.318852e+000 3.363993e+000 3.247230e+000 2.444843e+000 3.144622e+000 2.639820e+000 3.953057e+000 2.236046e+000 2.319955e+000 1.699186e+000 5.013597e+000 5.056233e-001 5.514398e-001 3.883871e-001 5.987722e-001 5.804438e-001 4.743157e-001 5.921969e-001 5.070220e-001 7.315680e-001 4.422759e-001 4.427649e-001 3.454473e-001 7.872353e-001
<GCONST> 1.274275e+002
<MIXTURE> 2 5.067399e-001
<MEAN> 39
 -5.068103e+000 -7.449577e+000 3.054356e+000 -9.053346e+000 -6.950006e+000 -5.066255e+000 -3.936751e+000 5.530305e-001 -2.181785e+000 -1.188430e+000 -8.593684e-001 -2.549392e+000 6.748407e+001 3.636816e-001 -2.966780e-001 -1.339129e-002 -3.365476e-001 -4.226276e-001 -2.337542e-001 -3.870723e-001 -1.511993e-001 -4.345916e-001 -1.436882e-001 -3.139760e-001 -2.680824e-001 3.623444e-001 8.319791e-003 -1.228439e-002 -2.098406e-002 -2.203514e-002 -2.914062e-002 -3.583333e-002 -4.218327e-002 -1.296015e-002 -3.354697e-002 -4.579533e-004 -2.940699e-002 -3.031762e-002 -5.453934e-003
<VARIANCE> 39
 7.825809e+001 5.658101e+001 6.095812e+001 6.152747e+001 7.468958e+001 4.203905e+001 5.773629e+001 3.834455e+001 7.936864e+001 3.036974e+001 3.624655e+001 2.288423e+001 9.624053e+001 3.904965e+000 3.334839e+000 2.796557e+000 3.915264e+000 3.980698e+000 2.797295e+000 3.889944e+000 3.187859e+000 4.920358e+000 2.485203e+000 2.484885e+000 1.807232e+000 4.199563e+000 5.086365e-001 5.738419e-001 4.278793e-001 6.475400e-001 6.576424e-001 4.949252e-001 6.723912e-001 5.696287e-001 8.212049e-001 4.646221e-001 4.404208e-001 3.391793e-001 6.508935e-001
<GCONST> 1.305695e+002
<TRANSP> 3
 0.000000e+000 1.000000e+000 0.000000e+000
 0.000000e+000 9.984196e-001 1.580361e-003
 0.000000e+000 0.000000e+000 0.000000e+000
<ENDHMM>
~h "MVL2"
<BEGINHMM>
<NUMSTATES> 3
<STATE> 2
<NUMMIXES> 2
<MIXTURE> 1 4.968307e-001
<MEAN> 39
 -5.830732e+000 1.819503e+000 1.945342e+000 -8.938663e-001 -3.927822e+000 -2.389877e+000 -5.968908e+000 -3.383066e+000 -5.581736e-001 1.673610e+000 1.923716e+000 7.985553e-001 7.002419e+001 -3.985109e-002 1.436920e-001 1.004140e-001 1.778041e-001 2.025382e-001 7.952169e-002 2.078277e-001 7.465661e-002 8.022635e-002 1.364599e-001 5.164571e-002 1.426210e-001 -2.415825e-002 3.235241e-002 4.958968e-002 4.313563e-002 3.609817e-002 2.137474e-002 1.911076e-002 2.600655e-002 1.009609e-002 2.941718e-002 1.145940e-002 2.111911e-002 1.988230e-002 -8.820495e-004
<VARIANCE> 39
 7.385192e+001 3.379673e+001 5.305473e+001 4.164879e+001 7.147973e+001 7.273542e+001 7.124696e+001 6.615837e+001 5.150248e+001 3.807680e+001 3.181868e+001 3.688956e+001 1.094780e+002 2.449703e+000 1.786684e+000 1.987521e+000 2.063264e+000 3.174383e+000 3.150391e+000 3.016201e+000 3.013011e+000 2.591491e+000 2.247167e+000 2.248776e+000 1.996776e+000 1.942765e+000 3.727832e-001 3.057249e-001 3.241953e-001 3.688894e-001 5.945216e-001 5.380760e-001 5.466152e-001 5.494478e-001 4.722752e-001 4.264494e-001 4.391101e-001 3.767903e-001 2.872649e-001
<GCONST> 1.235977e+002
<MIXTURE> 2 5.031682e-001
<MEAN> 39
 -3.978228e+000 1.648554e+000 2.976263e+000 -2.006513e+000 -6.355619e+000 -2.700445e+000 -8.088182e+000 -4.888488e+000 -1.332622e+000 5.323246e-001 1.834550e+000 -4.903542e-001 7.371976e+001 3.865495e-002 -1.368912e-001 -1.022513e-001 -1.741441e-001 -1.951421e-001 -7.294519e-002 -2.078002e-001 -7.755146e-002 -8.085079e-002 -1.344347e-001 -5.079285e-002 -1.419733e-001 2.041051e-002 -3.150880e-002 -4.890016e-002 -4.246009e-002 -3.592740e-002 -2.072093e-002 -1.849869e-002 -2.621245e-002 -1.041446e-002 -2.982179e-002 -1.236258e-002 -2.148535e-002 -1.954756e-002 1.120304e-003
<VARIANCE> 39
 7.356775e+001 3.772181e+001 5.522757e+001 4.580614e+001 6.902837e+001 7.865781e+001 6.876864e+001 6.120588e+001 5.537683e+001 4.156410e+001 3.410644e+001 3.730597e+001 7.029222e+001 3.130612e+000 1.964516e+000 2.210402e+000 2.292409e+000 3.842187e+000 3.657339e+000 3.403355e+000 3.440887e+000 2.996774e+000 2.546628e+000 2.488695e+000 2.298704e+000 2.200682e+000 3.589434e-001 3.230003e-001 3.310245e-001 4.032862e-001 6.531409e-001 5.909212e-001 5.843036e-001 6.001623e-001 5.175713e-001 4.590349e-001 4.701418e-001 3.993896e-001 3.116765e-001
<GCONST> 1.261927e+002
<TRANSP> 3
 0.000000e+000 1.000000e+000 0.000000e+000
 0.000000e+000 9.984462e-001 1.553765e-003
 0.000000e+000 0.000000e+000 0.000000e+000
<ENDHMM>
~h "VACLAV"
<BEGINHMM>
<NUMSTATES> 3
<STATE> 2
<NUMMIXES> 2
<MIXTURE> 1 5.072941e-001
<MEAN> 39
 -1.008788e+001 3.451726e+000 1.652084e+000 4.879136e+000 1.413330e+000 5.020856e+000 -3.357856e-001 5.956654e+000 5.193313e+000 5.802307e+000 4.704466e+000 3.340601e+000 4.358665e+001 -3.217434e-001 1.823045e-001 -1.964417e-002 3.076473e-001 3.044809e-001 7.027636e-002 3.203068e-001 1.826555e-001 2.478974e-001 2.106136e-001 1.383633e-001 2.560721e-001 -3.154254e-001 -3.863608e-002 -1.978230e-002 -1.460151e-003 1.864197e-002 2.797045e-002 1.231156e-002 5.454498e-002 1.339857e-002 3.757253e-002 1.777604e-002 9.226566e-003 2.887969e-002 -8.171043e-003
<VARIANCE> 39
 4.459644e+001 2.393115e+001 3.428220e+001 6.826038e+001 4.506312e+001 3.717021e+001 5.694713e+001 4.285485e+001 4.597699e+001 3.408434e+001 2.239106e+001 3.924829e+001 6.064238e+001 1.525057e+000 1.814804e+000 1.401338e+000 2.747147e+000 2.337325e+000 2.018942e+000 2.493377e+000 2.163200e+000 2.186293e+000 1.790589e+000 1.726009e+000 1.546813e+000 1.458451e+000 2.660980e-001 3.321758e-001 2.482785e-001 5.192233e-001 4.237458e-001 3.831868e-001 4.880600e-001 4.286073e-001 4.440934e-001 3.594549e-001 3.438880e-001 2.959641e-001 2.671214e-001
<GCONST> 1.149021e+002
<MIXTURE> 2 4.927047e-001
<MEAN> 39
 -5.375287e+000 5.505936e-001 3.363542e+000 -1.113269e+000 -3.115534e+000 2.830707e+000 -5.455005e+000 1.447561e+000 1.030070e+000 2.152386e+000 3.494617e+000 -1.349354e+000 5.089661e+001 3.314893e-001 -1.878728e-001 1.989381e-002 -3.178451e-001 -3.105521e-001 -7.442074e-002 -3.287483e-001 -1.866095e-001 -2.550472e-001 -2.141225e-001 -1.409749e-001 -2.658423e-001 3.247428e-001 3.974617e-002 2.022243e-002 2.432318e-003 -1.915652e-002 -2.924262e-002 -1.300104e-002 -5.596813e-002 -1.358488e-002 -3.934237e-002 -1.745628e-002 -1.000387e-002 -2.988562e-002 8.309223e-003
<VARIANCE> 39
 5.306228e+001 4.681700e+001 5.697626e+001 7.852332e+001 6.508865e+001 5.159754e+001 6.873540e+001 5.516161e+001 5.074333e+001 4.096829e+001 3.073857e+001 4.555352e+001 5.120711e+001 3.028078e+000 3.222148e+000 2.569350e+000 5.012303e+000 4.260873e+000 3.338332e+000 4.959717e+000 4.406106e+000 3.810152e+000 2.904009e+000 2.641417e+000 2.528240e+000 2.642483e+000 4.198934e-001 5.484188e-001 3.931363e-001 8.202924e-001 7.136474e-001 5.769518e-001 8.408883e-001 7.965173e-001 6.557617e-001 5.184341e-001 4.959982e-001 4.413105e-001 4.306183e-001
<GCONST> 1.315987e+002
<TRANSP> 3
 0.000000e+000 1.000000e+000 0.000000e+000
 0.000000e+000 9.975002e-001 2.499791e-003
 0.000000e+000 0.000000e+000 0.000000e+000
<ENDHMM>
~h "DUTKA"
<BEGINHMM>
<NUMSTATES> 3
<STATE> 2
<NUMMIXES> 2
<MIXTURE> 1 4.966208e-001
<MEAN> 39
 -9.962645e-001 -5.215479e+000 -1.531462e-001 -1.536977e+001 -1.140078e+001 -3.534473e+000 -1.325232e+001 -1.857720e+000 -5.761192e+000 -4.102593e+000 -4.084530e+000 -5.209577e+000 6.159028e+001 2.270433e-001 -1.334002e-002 1.744264e-001 4.982620e-002 1.645065e-001 2.221091e-001 1.556468e-001 2.064751e-001 1.791233e-001 1.445933e-001 1.268489e-001 1.761387e-001 1.965449e-001 1.014526e-001 4.284437e-002 4.358013e-002 1.354634e-002 1.285148e-002 3.863759e-002 -5.427218e-003 1.817888e-002 2.307352e-002 2.352335e-002 1.824642e-002 1.219802e-002 5.730725e-002
<VARIANCE> 39
 1.276267e+002 9.783731e+001 1.226351e+002 1.045632e+002 8.410731e+001 9.736063e+001 7.282066e+001 8.332693e+001 6.353508e+001 4.501837e+001 4.405875e+001 3.439315e+001 1.197134e+002 4.320321e+000 5.530879e+000 4.647340e+000 5.520819e+000 4.716524e+000 5.223143e+000 4.942888e+000 5.208990e+000 4.484184e+000 3.409374e+000 3.215773e+000 2.592399e+000 3.539432e+000 5.777665e-001 8.674576e-001 7.359233e-001 9.749380e-001 8.621730e-001 8.827816e-001 9.393087e-001 9.398040e-001 8.502615e-001 6.560212e-001 6.138278e-001 4.982840e-001 5.309482e-001
<GCONST> 1.435178e+002
<MIXTURE> 2 5.033785e-001
<MEAN> 39
 -2.123186e+000 -4.641829e+000 -9.686474e-001 -1.429025e+001 -1.150958e+001 -4.505852e+000 -1.343412e+001 -2.721278e+000 -6.571765e+000 -4.779110e+000 -4.829785e+000 -5.713782e+000 5.945708e+001 -2.212554e-001 5.453620e-003 -1.736999e-001 -5.063420e-002 -1.565690e-001 -2.252834e-001 -1.568539e-001 -2.078584e-001 -1.839269e-001 -1.446675e-001 -1.291100e-001 -1.752026e-001 -1.851370e-001 -1.003216e-001 -4.204102e-002 -4.305690e-002 -1.357441e-002 -1.270903e-002 -3.833282e-002 5.163239e-003 -1.859253e-002 -2.330264e-002 -2.305721e-002 -1.830593e-002 -1.234152e-002 -5.681610e-002
<VARIANCE> 39
 1.349695e+002 9.213739e+001 1.203363e+002 1.003555e+002 7.966187e+001 8.446687e+001 6.681327e+001 7.579420e+001 5.937656e+001 4.131063e+001 3.974662e+001 3.237007e+001 1.404062e+002 3.016050e+000 4.796347e+000 4.263121e+000 4.983046e+000 4.347183e+000 4.622938e+000 4.510175e+000 4.715854e+000 4.099590e+000 3.121825e+000 2.866801e+000 2.401635e+000 3.161855e+000 4.002311e-001 7.482696e-001 6.436937e-001 8.261969e-001 7.730742e-001 7.841004e-001 8.172418e-001 8.407374e-001 7.640841e-001 6.017201e-001 5.554996e-001 4.558478e-001 3.936460e-001
<GCONST> 1.393775e+002
<TRANSP> 3
 0.000000e+000 1.000000e+000 0.000000e+000
 0.000000e+000 9.983122e-001 1.687827e-003
 0.000000e+000 0.000000e+000 0.000000e+000
<ENDHMM>
~h "BLAZEK"
<BEGINHMM>
<NUMSTATES> 3
<STATE> 2
<NUMMIXES> 2
<MIXTURE> 1 4.896851e-001
<MEAN> 39
 -7.716752e+000 -8.444741e-001 1.916035e+000 -3.418087e+000 -6.925029e-001 -2.465920e+000 -1.012384e+000 -7.575319e-001 5.218590e-001 4.734642e-001 7.532322e-001 -9.196746e-001 5.820092e+001 -6.754028e-002 9.956599e-002 9.801746e-002 1.193729e-001 2.666873e-001 5.858029e-002 3.144651e-001 1.701126e-001 2.068855e-001 1.846257e-001 1.194160e-001 2.519104e-001 -8.025173e-003 5.145255e-002 1.711017e-002 4.893396e-002 2.533914e-002 7.425480e-003 4.163798e-002 1.608411e-002 2.991047e-002 3.546916e-002 2.187500e-002 3.582061e-002 1.769739e-002 1.186945e-002
<VARIANCE> 39
 7.232462e+001 3.615265e+001 5.653748e+001 5.241507e+001 4.763445e+001 5.451724e+001 5.681625e+001 3.893938e+001 3.498767e+001 2.709353e+001 2.498178e+001 2.823635e+001 9.533724e+001 2.894855e+000 2.345165e+000 2.413203e+000 3.149330e+000 3.196912e+000 3.138475e+000 3.630894e+000 2.744220e+000 2.515455e+000 2.134959e+000 2.139628e+000 1.930927e+000 3.193870e+000 4.783589e-001 4.045441e-001 4.046345e-001 5.724190e-001 6.263993e-001 5.743042e-001 7.112693e-001 5.323203e-001 4.824495e-001 4.235404e-001 4.142451e-001 4.011413e-001 5.200412e-001
<GCONST> 1.247485e+002
<MIXTURE> 2 5.103143e-001
<MEAN> 39
 -6.602132e+000 -1.826496e+000 2.119773e+000 -4.305795e+000 -2.047626e+000 -2.302727e+000 -2.554876e+000 -1.240399e+000 2.273297e-002 -7.344078e-002 8.876952e-001 -1.867064e+000 5.899727e+001 5.545954e-002 -8.859032e-002 -9.536356e-002 -1.191852e-001 -2.448413e-001 -6.865758e-002 -2.934621e-001 -1.644966e-001 -1.999350e-001 -1.687179e-001 -1.178166e-001 -2.430263e-001 1.080881e-002 -4.841255e-002 -1.775105e-002 -4.557503e-002 -2.291414e-002 -7.622064e-003 -3.947220e-002 -1.471804e-002 -2.815893e-002 -3.389099e-002 -2.159699e-002 -3.312363e-002 -1.605772e-002 -1.214889e-002
<VARIANCE> 39
 7.148249e+001 3.705909e+001 6.351492e+001 5.119379e+001 4.712826e+001 5.065954e+001 5.558456e+001 3.876932e+001 3.811687e+001 2.800648e+001 2.648123e+001 3.034282e+001 1.055656e+002 3.236772e+000 2.359309e+000 2.591385e+000 3.203945e+000 3.617307e+000 3.144172e+000 4.025686e+000 2.863350e+000 2.593044e+000 2.178900e+000 2.154026e+000 2.177736e+000 3.038377e+000 4.075035e-001 4.017925e-001 3.952593e-001 5.670414e-001 6.487883e-001 5.651920e-001 7.022606e-001 5.384223e-001 4.796248e-001 4.143850e-001 4.077107e-001 4.021721e-001 5.132549e-001
<GCONST> 1.254635e+002
<TRANSP> 3
 0.000000e+000 1.000000e+000 0.000000e+000
 0.000000e+000 9.982690e-001 1.730969e-003
 0.000000e+000 0.000000e+000 0.000000e+000
<ENDHMM>
~h "KOUNOVSKY"
<BEGINHMM>
<NUMSTATES> 3
<STATE> 2
<NUMMIXES> 2
<MIXTURE> 1 4.927714e-001
<MEAN> 39
 -8.272088e+000 -1.812721e+000 1.283246e+000 4.370180e+000 -8.358791e+000 5.742716e+000 -3.334087e+000 -2.844034e+000 -7.782841e-001 2.988663e+000 -1.528601e+000 -9.651154e-001 5.490684e+001 -4.330819e-002 1.674116e-001 4.094434e-002 1.534916e-001 2.047649e-001 5.984252e-002 2.262969e-001 8.314252e-002 1.095596e-001 1.165059e-001 1.128694e-001 1.428179e-001 -7.970168e-002 -1.835104e-002 3.864023e-002 2.212599e-002 5.293788e-002 5.961549e-002 1.638855e-002 5.566258e-002 2.316596e-002 2.529442e-002 1.693601e-002 3.295160e-002 2.248753e-002 -3.866383e-002
<VARIANCE> 39
 7.615635e+001 4.285167e+001 6.030103e+001 4.512322e+001 1.107006e+002 5.932383e+001 5.684296e+001 5.807468e+001 4.695057e+001 4.236416e+001 3.657276e+001 2.876531e+001 1.538540e+002 3.006611e+000 2.554147e+000 2.395869e+000 2.472136e+000 4.365690e+000 3.036246e+000 3.561281e+000 2.607545e+000 2.921065e+000 2.350543e+000 2.063175e+000 1.703228e+000 2.868667e+000 4.360720e-001 4.234120e-001 3.992744e-001 4.101486e-001 6.569309e-001 5.231646e-001 6.176704e-001 4.649916e-001 5.218241e-001 4.250391e-001 3.904332e-001 3.212987e-001 4.403118e-001
<GCONST> 1.268093e+002
<MIXTURE> 2 5.072275e-001
<MEAN> 39
 -6.360236e+000 -3.268326e+000 3.279486e+000 4.282928e+000 -1.191804e+001 5.796731e+000 -5.396491e+000 -5.125990e+000 -2.202325e+000 1.838954e+000 -3.051700e+000 -2.616223e+000 5.985229e+001 3.605326e-002 -1.653240e-001 -4.450110e-002 -1.558444e-001 -2.033023e-001 -6.117191e-002 -2.247680e-001 -8.858787e-002 -1.150738e-001 -1.230955e-001 -1.152252e-001 -1.464435e-001 7.346827e-002 1.785308e-002 -3.780165e-002 -2.121166e-002 -5.196007e-002 -5.860255e-002 -1.668022e-002 -5.295720e-002 -2.207216e-002 -2.358208e-002 -1.528346e-002 -3.130244e-002 -2.030915e-002 3.756189e-002
<VARIANCE> 39
 8.801891e+001 5.344935e+001 7.550056e+001 5.659395e+001 1.105968e+002 7.175954e+001 6.622029e+001 5.779825e+001 5.585196e+001 5.205008e+001 3.447680e+001 2.868653e+001 1.133596e+002 4.176017e+000 3.200173e+000 3.445088e+000 3.081340e+000 5.305061e+000 3.704747e+000 4.392225e+000 3.251946e+000 3.531733e+000 2.888543e+000 2.331147e+000 1.948320e+000 3.481928e+000 5.101615e-001 5.692891e-001 4.950911e-001 5.176558e-001 8.575121e-001 5.834232e-001 7.644449e-001 5.546669e-001 6.253852e-001 4.895597e-001 4.371936e-001 3.574769e-001 5.960702e-001
<GCONST> 1.332951e+002
<TRANSP> 3
 0.000000e+000 1.000000e+000 0.000000e+000
 0.000000e+000 9.971693e-001 2.830723e-003
 0.000000e+000 0.000000e+000 0.000000e+000
<ENDHMM>
~h "KOLAR"
<BEGINHMM>
<NUMSTATES> 3
<STATE> 2
<NUMMIXES> 2
<MIXTURE> 1 5.062473e-001
<MEAN> 39
 -6.522345e+000 3.327671e+000 -1.746224e+000 6.812148e+000 5.262895e-001 3.401153e+000 1.965097e+000 3.797842e+000 2.826031e+000 4.937473e+000 5.713776e+000 1.680382e+000 5.446374e+001 -1.574358e-001 7.445329e-002 1.011838e-001 8.084010e-002 2.584538e-001 1.292783e-001 1.933676e-001 1.139882e-001 1.523673e-001 1.290253e-001 6.916095e-002 1.822494e-001 -2.272303e-001 -1.542326e-002 1.618438e-003 -2.403397e-003 1.272291e-002 3.990268e-002 2.100222e-002 4.858996e-002 2.567182e-002 2.281536e-002 1.325982e-002 -3.450301e-003 3.338158e-002 -2.344989e-002
<VARIANCE> 39
 3.953767e+001 1.327234e+001 2.374310e+001 1.702273e+001 5.910841e+001 3.158297e+001 4.190348e+001 2.826431e+001 2.925415e+001 2.057587e+001 1.810346e+001 3.925835e+001 5.512825e+001 1.027226e+000 8.130707e-001 1.211391e+000 1.016376e+000 2.049995e+000 1.520762e+000 1.880748e+000 1.491015e+000 1.492563e+000 1.341240e+000 1.373353e+000 1.384946e+000 1.030338e+000 1.536161e-001 1.523985e-001 2.359734e-001 1.870224e-001 3.590769e-001 2.957920e-001 3.476340e-001 2.903051e-001 2.934928e-001 2.639681e-001 2.765153e-001 2.628116e-001 1.795073e-001
<GCONST> 1.007820e+002
<MIXTURE> 2 4.937522e-001
<MEAN> 39
 -2.159099e+000 2.879666e+000 -3.509378e+000 7.090693e+000 -4.932992e+000 8.062997e-001 -2.070937e+000 1.217252e+000 1.703584e-001 3.628427e+000 4.067720e+000 -2.834945e+000 6.076516e+001 1.608044e-001 -7.541886e-002 -1.026384e-001 -8.051755e-002 -2.624470e-001 -1.320949e-001 -1.970466e-001 -1.150032e-001 -1.538520e-001 -1.280059e-001 -6.880753e-002 -1.856755e-001 2.315150e-001 1.628806e-002 -2.027268e-003 2.355187e-003 -1.307079e-002 -4.128006e-002 -2.283953e-002 -5.024345e-002 -2.722439e-002 -2.418367e-002 -1.425068e-002 2.337833e-003 -3.445322e-002 2.457431e-002
<VARIANCE> 39
 5.646131e+001 2.436039e+001 3.914673e+001 2.763589e+001 7.221370e+001 4.055135e+001 5.457069e+001 3.924252e+001 3.593018e+001 2.899747e+001 2.312022e+001 4.225350e+001 5.690326e+001 2.171701e+000 1.505814e+000 2.508478e+000 1.571596e+000 3.334956e+000 2.315662e+000 3.156367e+000 2.318893e+000 2.206726e+000 1.761480e+000 1.819301e+000 1.973267e+000 2.050558e+000 2.772441e-001 2.623621e-001 4.092016e-001 2.690659e-001 5.474396e-001 4.051868e-001 5.221201e-001 3.988965e-001 3.838669e-001 3.079338e-001 3.403432e-001 3.354319e-001 3.202970e-001
<GCONST> 1.160153e+002
<TRANSP> 3
 0.000000e+000 1.000000e+000 0.000000e+000
 0.000000e+000 9.984227e-001 1.577287e-003
 0.000000e+000 0.000000e+000 0.000000e+000
<ENDHMM>
~h "HALADAVETY"
<BEGINHMM>
<NUMSTATES> 3
<STATE> 2
<NUMMIXES> 2
<MIXTURE> 1 4.996396e-001
<MEAN> 39
 -1.138228e+001 9.227198e-001 -4.255674e+000 -1.785356e+000 -1.041653e+001 -9.322851e-001 -1.161630e+001 -3.456758e+000 -4.766186e+000 -4.900856e+000 -1.487807e+000 -1.380588e+000 5.295686e+001 4.071265e-002 1.971431e-001 1.659176e-001 1.920922e-001 1.632357e-001 5.581185e-002 2.351725e-001 1.723764e-001 2.327703e-001 2.315739e-001 1.702366e-001 1.734492e-001 -3.877665e-002 -9.907028e-003 2.430503e-002 3.335790e-002 4.132427e-002 5.111739e-002 2.872615e-002 9.058231e-002 5.955565e-002 6.137970e-002 4.569704e-002 3.873320e-002 4.164630e-002 -7.076149e-002
<VARIANCE> 39
 1.271419e+002 5.970513e+001 7.345810e+001 7.325320e+001 6.205602e+001 8.494128e+001 6.486755e+001 6.167348e+001 5.144290e+001 3.714731e+001 4.432211e+001 3.892941e+001 3.212427e+002 3.651435e+000 3.020164e+000 2.619868e+000 3.106966e+000 3.852974e+000 4.558728e+000 4.269279e+000 3.812550e+000 3.328328e+000 2.686586e+000 2.876663e+000 2.677329e+000 4.242256e+000 5.081008e-001 4.926367e-001 4.293797e-001 5.336016e-001 6.958740e-001 7.860146e-001 7.689224e-001 7.020572e-001 6.247538e-001 5.317698e-001 5.439788e-001 5.075595e-001 6.304354e-001
<GCONST> 1.357489e+002
<MIXTURE> 2 5.003598e-001
<MEAN> 39
 -9.913973e+000 6.657688e-002 -3.965045e+000 -2.651218e+000 -1.100127e+001 -5.998381e-001 -1.226349e+001 -3.783332e+000 -5.763232e+000 -5.349770e+000 -1.696739e+000 -2.281552e+000 5.423985e+001 -3.670073e-002 -1.915326e-001 -1.620522e-001 -1.926562e-001 -1.614875e-001 -5.187187e-002 -2.378566e-001 -1.811881e-001 -2.392916e-001 -2.328545e-001 -1.716399e-001 -1.832467e-001 4.032181e-002 9.904534e-003 -2.447386e-002 -3.375608e-002 -4.115019e-002 -5.188751e-002 -3.082250e-002 -8.829119e-002 -5.605348e-002 -6.081581e-002 -4.850158e-002 -4.061704e-002 -3.665871e-002 7.059296e-002
<VARIANCE> 39
 1.218641e+002 6.540028e+001 7.474346e+001 7.605765e+001 6.396183e+001 8.446202e+001 6.709709e+001 6.793567e+001 5.872200e+001 3.916276e+001 4.480632e+001 4.121796e+001 2.968260e+002 3.275343e+000 3.044738e+000 2.832632e+000 3.329159e+000 3.834148e+000 4.437038e+000 3.954496e+000 3.928932e+000 3.545094e+000 2.747779e+000 2.864815e+000 2.664258e+000 4.314669e+000 5.044176e-001 4.984605e-001 4.447905e-001 5.435130e-001 6.880790e-001 7.710567e-001 7.564875e-001 7.174454e-001 6.537740e-001 5.337757e-001 5.420868e-001 5.151825e-001 6.343967e-001
<GCONST> 1.363433e+002
<TRANSP> 3
 0.000000e+000 1.000000e+000 0.000000e+000
 0.000000e+000 9.987823e-001 1.217648e-003
 0.000000e+000 0.000000e+000 0.000000e+000
<ENDHMM>
~h "HORKYVETY"
<BEGINHMM>
<NUMSTATES> 3
<STATE> 2
<NUMMIXES> 2
<MIXTURE> 1 4.893933e-001
<MEAN> 39
 -1.662658e+001 8.673688e-001 -3.895096e+000 -3.599134e-001 -6.845157e+000 -1.215832e+000 -5.525868e+000 -2.776423e+000 3.535354e-001 -2.436749e+000 3.663092e+000 -3.255382e+000 4.623800e+001 -9.435281e-002 1.952670e-001 1.912173e-001 1.927727e-001 2.921151e-001 1.810719e-001 2.846345e-001 2.037320e-001 4.649157e-002 1.963294e-001 -6.584865e-003 2.027136e-001 -5.946795e-002 3.958854e-002 4.181901e-002 5.764223e-002 4.817732e-002 2.288876e-002 3.726990e-002 3.023319e-002 4.147806e-002 2.370664e-002 2.228293e-002 3.237005e-002 3.983276e-002 -1.362533e-002
<VARIANCE> 39
 8.000526e+001 2.969168e+001 6.616791e+001 5.237039e+001 4.698765e+001 4.920873e+001 5.211100e+001 4.963647e+001 3.820742e+001 4.417705e+001 5.001654e+001 3.334020e+001 2.466711e+002 2.885762e+000 2.040229e+000 2.203303e+000 2.714649e+000 2.947090e+000 2.587180e+000 3.241935e+000 2.742399e+000 2.831355e+000 2.957536e+000 2.873741e+000 2.006876e+000 5.154617e+000 4.500951e-001 3.556153e-001 3.684282e-001 4.456394e-001 5.268747e-001 4.775061e-001 5.706603e-001 4.868183e-001 5.208672e-001 5.501994e-001 5.021181e-001 3.691338e-001 7.701795e-001
<GCONST> 1.273621e+002
<MIXTURE> 2 5.106055e-001
<MEAN> 39
 -1.561309e+001 3.023754e-001 -3.945886e+000 -4.769473e-001 -7.845068e+000 -1.588991e+000 -6.402383e+000 -3.084156e+000 5.853157e-001 -2.969693e+000 4.155802e+000 -3.575771e+000 4.652660e+001 6.206134e-002 -1.865105e-001 -1.907344e-001 -1.906406e-001 -2.753941e-001 -1.785355e-001 -2.706804e-001 -1.945862e-001 -5.245409e-002 -1.826123e-001 -1.421386e-003 -1.896909e-001 4.723249e-002 -2.931005e-002 -3.984053e-002 -5.319494e-002 -4.520491e-002 -2.133427e-002 -3.539312e-002 -2.878004e-002 -3.905528e-002 -2.312564e-002 -2.253723e-002 -3.151348e-002 -3.868363e-002 1.766712e-002
<VARIANCE> 39
 7.329951e+001 3.038781e+001 6.437104e+001 5.314929e+001 4.519981e+001 5.188589e+001 4.999659e+001 5.244751e+001 3.965143e+001 4.579084e+001 5.142962e+001 3.519447e+001 2.618968e+002 2.988246e+000 1.823169e+000 2.171272e+000 2.558086e+000 2.969331e+000 2.611079e+000 3.290521e+000 2.864213e+000 3.049693e+000 3.049035e+000 2.970147e+000 2.041190e+000 4.698491e+000 3.904750e-001 3.391560e-001 3.421526e-001 4.358414e-001 5.336289e-001 4.768898e-001 5.756555e-001 5.026982e-001 5.456274e-001 5.267682e-001 5.023155e-001 3.607850e-001 7.614725e-001
<GCONST> 1.272488e+002
<TRANSP> 3
 0.000000e+000 1.000000e+000 0.000000e+000
 0.000000e+000 9.985222e-001 1.477760e-003
 0.000000e+000 0.000000e+000 0.000000e+000
<ENDHMM>
~h "CHMELIK"
<BEGINHMM>
<NUMSTATES> 3
<STATE> 2
<NUMMIXES> 2
<MIXTURE> 1 5.063002e-001
<MEAN> 39
 -9.370293e+000 -5.094953e+000 2.620000e+000 -4.623429e+000 -5.665807e+000 -3.279754e+000 -1.936544e+000 -1.403413e+000 6.616589e-001 -9.344497e-001 2.908807e-002 -4.426167e+000 6.371430e+001 1.686142e-002 1.500377e-001 1.512235e-001 1.743189e-001 1.839210e-001 1.199009e-001 2.148940e-001 1.381321e-001 1.807630e-001 1.517180e-001 1.559871e-001 1.606740e-001 7.669060e-002 -1.274016e-002 3.047616e-002 2.051553e-002 4.294179e-002 2.828385e-002 3.371260e-002 3.777681e-002 3.014747e-002 5.574059e-002 2.887663e-002 3.993672e-002 2.949657e-002 -3.370283e-002
<VARIANCE> 39
 6.733710e+001 3.704433e+001 6.997298e+001 3.557486e+001 4.179760e+001 3.493697e+001 3.021519e+001 3.273285e+001 3.254921e+001 2.404538e+001 2.126058e+001 2.285350e+001 8.890638e+001 3.918547e+000 2.583198e+000 3.208192e+000 2.841205e+000 3.359953e+000 2.758862e+000 2.795756e+000 2.914680e+000 2.790082e+000 2.226604e+000 2.055378e+000 1.875919e+000 3.031990e+000 6.366341e-001 4.631088e-001 5.345558e-001 5.425156e-001 6.449331e-001 5.229882e-001 5.522756e-001 5.736087e-001 5.415825e-001 4.600749e-001 4.098653e-001 3.654240e-001 4.722299e-001
<GCONST> 1.232387e+002
<MIXTURE> 2 4.936993e-001
<MEAN> 39
 -1.074668e+001 -5.060060e+000 1.180491e+000 -4.542032e+000 -4.962828e+000 -3.368381e+000 -1.878565e+000 -1.511738e+000 7.686289e-001 -1.488865e+000 -1.508458e-001 -4.128229e+000 6.148080e+001 3.815738e-002 -2.062360e-001 -1.655177e-001 -2.025120e-001 -1.509800e-001 -1.689745e-001 -2.252305e-001 -1.485412e-001 -1.850374e-001 -1.518228e-001 -1.768618e-001 -1.711877e-001 3.036071e-002 1.073670e-002 -2.890408e-002 -2.026623e-002 -4.304729e-002 -3.048688e-002 -3.291294e-002 -3.760316e-002 -3.113233e-002 -5.782042e-002 -2.969764e-002 -3.960150e-002 -3.012361e-002 3.095221e-002
<VARIANCE> 39
 6.223044e+001 3.171916e+001 6.212923e+001 2.998182e+001 3.745287e+001 3.016187e+001 2.674509e+001 3.006764e+001 3.031677e+001 2.191456e+001 1.957050e+001 2.154314e+001 9.784356e+001 3.713717e+000 2.121915e+000 2.763278e+000 2.355613e+000 2.841691e+000 2.381037e+000 2.459837e+000 2.595380e+000 2.537688e+000 2.061171e+000 1.853089e+000 1.718559e+000 2.461970e+000 5.490255e-001 3.829210e-001 4.584457e-001 4.478303e-001 5.530570e-001 4.653812e-001 5.022100e-001 5.137866e-001 5.012916e-001 4.148856e-001 3.773894e-001 3.414680e-001 4.650283e-001
<GCONST> 1.188181e+002
<TRANSP> 3
 0.000000e+000 1.000000e+000 0.000000e+000
 0.000000e+000 9.983881e-001 1.611881e-003
 0.000000e+000 0.000000e+000 0.000000e+000
<ENDHMM>
~h "VACEKVETY"
<BEGINHMM>
<NUMSTATES> 3
<STATE> 2
<NUMMIXES> 2
<MIXTURE> 1 4.891375e-001
<MEAN> 39
 -6.298935e+000 1.708569e+000 -1.770814e+000 -1.574491e+000 -3.988734e+000 -3.446233e+000 -5.957194e+000 -5.550491e+000 -3.332629e+000 2.307576e+000 -3.297182e+000 -1.608641e+000 5.348841e+001 1.474544e-001 1.947840e-001 1.519846e-001 1.789812e-001 1.551612e-001 1.243584e-001 1.648170e-001 1.325954e-001 1.746396e-001 1.810904e-001 2.315264e-001 1.949720e-001 8.262788e-002 2.354437e-002 3.881815e-002 4.814171e-002 3.322821e-002 3.048715e-002 5.635896e-002 2.774802e-002 4.916218e-002 2.472300e-002 3.750028e-002 3.573538e-002 2.706512e-002 1.802118e-002
<VARIANCE> 39
 1.704127e+002 5.390207e+001 9.359983e+001 6.222253e+001 6.376041e+001 9.116389e+001 6.037017e+001 7.507468e+001 6.592877e+001 5.102783e+001 4.043700e+001 3.641256e+001 2.293418e+002 5.390437e+000 3.515442e+000 3.517057e+000 3.610474e+000 3.614039e+000 4.331432e+000 4.629179e+000 4.642607e+000 4.278296e+000 3.548605e+000 2.624393e+000 2.766337e+000 3.286592e+000 6.624491e-001 5.945536e-001 5.259839e-001 6.305861e-001 6.338140e-001 7.357456e-001 8.560637e-001 8.072180e-001 7.562157e-001 6.580185e-001 5.127603e-001 5.342114e-001 4.662038e-001
<GCONST> 1.386801e+002
<MIXTURE> 2 5.108617e-001
<MEAN> 39
 -8.167310e+000 1.181846e+000 -2.550761e+000 -1.325100e+000 -4.840056e+000 -2.401495e+000 -6.153910e+000 -4.832146e+000 -3.222178e+000 1.706109e+000 -3.290067e+000 -1.923073e+000 5.064311e+001 -1.389992e-001 -1.853115e-001 -1.474319e-001 -1.730070e-001 -1.464398e-001 -1.153444e-001 -1.581955e-001 -1.291935e-001 -1.666751e-001 -1.708247e-001 -2.207275e-001 -1.952139e-001 -7.757317e-002 -2.211655e-002 -3.721884e-002 -4.674358e-002 -3.200875e-002 -3.037432e-002 -5.587880e-002 -2.493262e-002 -4.377824e-002 -2.272345e-002 -3.826264e-002 -3.598541e-002 -2.309354e-002 -1.712989e-002
<VARIANCE> 39
 1.973566e+002 4.687403e+001 9.381743e+001 6.049687e+001 5.700092e+001 8.576553e+001 5.533872e+001 7.402349e+001 6.299253e+001 4.879530e+001 3.789147e+001 3.496432e+001 3.003582e+002 3.204990e+000 2.955661e+000 2.989195e+000 3.167882e+000 3.186623e+000 3.817557e+000 4.020353e+000 4.067233e+000 3.693860e+000 3.014745e+000 2.401101e+000 2.484160e+000 2.477802e+000 4.787118e-001 4.790170e-001 4.366955e-001 5.313435e-001 5.463291e-001 6.478112e-001 7.502784e-001 7.245352e-001 6.794739e-001 5.802519e-001 4.708318e-001 4.876663e-001 4.177995e-001
<GCONST> 1.342271e+002
<TRANSP> 3
 0.000000e+000 1.000000e+000 0.000000e+000
 0.000000e+000 9.979952e-001 2.004811e-003
 0.000000e+000 0.000000e+000 0.000000e+000
<ENDHMM>
~h "DVORSKY"
<BEGINHMM>
<NUMSTATES> 3
<STATE> 2
<NUMMIXES> 2
<MIXTURE> 1 5.029979e-001
<MEAN> 39
 -5.705943e+000 4.115806e+000 3.928007e+000 2.007466e+000 2.660572e+000 5.037259e-001 1.495398e+000 1.604782e+000 1.276239e+000 3.177102e+000 1.899586e+000 5.298883e-001 5.424275e+001 -9.931064e-002 1.970186e-001 4.992105e-002 1.984953e-001 1.753382e-001 1.243862e-001 2.319649e-001 1.059781e-001 2.200442e-001 1.051047e-001 1.917696e-001 1.766809e-001 -2.246721e-001 -1.748661e-002 1.645707e-002 1.607519e-002 2.170882e-002 2.554969e-002 4.268753e-002 4.321623e-002 2.435326e-002 3.822470e-002 1.712390e-002 3.373420e-002 3.216561e-002 -4.075627e-002
<VARIANCE> 39
 4.245417e+001 2.903484e+001 3.776583e+001 4.363160e+001 3.028422e+001 4.145372e+001 3.453899e+001 2.887454e+001 3.488371e+001 2.325771e+001 2.487495e+001 2.328686e+001 1.370230e+002 2.098629e+000 1.616229e+000 1.767364e+000 2.637164e+000 2.133220e+000 2.191531e+000 2.463099e+000 2.323628e+000 2.576288e+000 2.000927e+000 1.898065e+000 1.669540e+000 2.377160e+000 3.390582e-001 2.956098e-001 2.975174e-001 4.757764e-001 3.925053e-001 4.158396e-001 4.653836e-001 4.502424e-001 5.021099e-001 3.979400e-001 3.722381e-001 3.291001e-001 3.839926e-001
<GCONST> 1.156307e+002
<MIXTURE> 2 4.970011e-001
<MEAN> 39
 -5.160121e+000 2.227247e+000 4.468962e+000 2.256028e-001 1.575299e+000 -3.029401e-001 2.733958e-001 1.111124e+000 1.877815e-002 3.420769e+000 1.210707e+000 -7.216253e-001 5.971020e+001 9.993678e-002 -1.992518e-001 -5.130354e-002 -2.027711e-001 -1.771255e-001 -1.212421e-001 -2.309714e-001 -1.064967e-001 -2.221414e-001 -1.053402e-001 -1.918518e-001 -1.776733e-001 2.255200e-001 1.741470e-002 -1.710584e-002 -1.611858e-002 -2.121508e-002 -2.639850e-002 -4.314051e-002 -4.337933e-002 -2.437042e-002 -3.937962e-002 -1.693295e-002 -3.318261e-002 -3.264451e-002 4.138753e-002
<VARIANCE> 39
 5.943328e+001 4.112362e+001 5.833744e+001 5.748339e+001 4.262311e+001 5.369247e+001 4.486562e+001 3.857042e+001 4.573837e+001 2.842025e+001 3.131588e+001 2.897815e+001 1.356839e+002 3.195115e+000 2.299844e+000 2.648446e+000 3.626452e+000 2.875821e+000 3.103594e+000 3.175157e+000 3.023062e+000 3.376186e+000 2.391441e+000 2.208212e+000 1.987941e+000 3.293127e+000 4.677126e-001 4.018227e-001 4.045982e-001 6.076092e-001 5.155926e-001 5.375317e-001 5.820693e-001 5.811263e-001 6.158395e-001 4.577379e-001 4.170522e-001 3.730479e-001 5.562640e-001
<GCONST> 1.259910e+002
<TRANSP> 3
 0.000000e+000 1.000000e+000 0.000000e+000
 0.000000e+000 9.976948e-001 2.305210e-003
 0.000000e+000 0.000000e+000 0.000000e+000
<ENDHMM>
~h "POLACEKVETY"
<BEGINHMM>
<NUMSTATES> 3
<STATE> 2
<NUMMIXES> 2
<MIXTURE> 1 5.052427e-001
<MEAN> 39
 -8.036782e+000 1.080319e+000 1.125528e+000 -4.937465e-001 -9.798989e+000 -1.875659e+000 -9.333705e+000 -8.173349e-002 -2.465691e+000 -4.491046e-001 -1.575899e+000 -4.579110e+000 5.067619e+001 7.378316e-002 1.470473e-001 1.915860e-001 1.286506e-001 1.843643e-001 9.545146e-002 1.790479e-001 1.107649e-001 1.137516e-001 1.646848e-001 1.204208e-001 1.379398e-001 1.003690e-001 2.187959e-002 4.944632e-002 5.223729e-002 4.771047e-002 4.748780e-002 4.987257e-002 4.573079e-002 2.184040e-002 3.697212e-002 1.784269e-002 3.006164e-002 3.687801e-002 -1.559966e-002
<VARIANCE> 39
 9.109365e+001 4.467253e+001 7.288554e+001 4.612591e+001 6.747750e+001 6.114312e+001 4.320539e+001 3.465211e+001 3.680501e+001 2.952138e+001 2.510367e+001 2.895271e+001 1.274799e+002 3.343593e+000 2.513607e+000 2.317435e+000 2.735852e+000 3.542932e+000 2.643165e+000 2.679664e+000 2.608957e+000 2.454113e+000 2.031009e+000 1.803754e+000 1.912023e+000 2.403723e+000 5.060357e-001 4.250036e-001 3.833119e-001 4.859524e-001 5.951157e-001 4.815963e-001 4.981057e-001 4.925532e-001 4.470570e-001 3.979897e-001 3.519561e-001 3.530944e-001 3.786265e-001
<GCONST> 1.233960e+002
<MIXTURE> 2 4.947570e-001
<MEAN> 39
 -7.851519e+000 1.157205e+000 1.152931e+000 -4.171409e-001 -9.889349e+000 -1.813956e+000 -9.400112e+000 -4.816895e-002 -2.485584e+000 -9.070961e-001 -1.717152e+000 -5.028038e+000 5.020476e+001 -4.775424e-002 -1.366718e-001 -1.778018e-001 -1.382421e-001 -1.759671e-001 -9.535904e-002 -1.904421e-001 -1.262236e-001 -1.275641e-001 -1.657594e-001 -1.330823e-001 -1.565035e-001 -6.570882e-002 -2.185160e-002 -5.040989e-002 -5.326702e-002 -4.834956e-002 -4.990326e-002 -5.329166e-002 -4.486500e-002 -1.785326e-002 -3.745631e-002 -2.099784e-002 -3.256600e-002 -3.215690e-002 1.534280e-002
<VARIANCE> 39
 8.494192e+001 4.415982e+001 7.003233e+001 4.659428e+001 7.012787e+001 6.078946e+001 4.318938e+001 3.489143e+001 3.826052e+001 2.898070e+001 2.536888e+001 3.060218e+001 1.252886e+002 3.707309e+000 2.387497e+000 2.479520e+000 2.761032e+000 3.424103e+000 2.685261e+000 2.596024e+000 2.676698e+000 2.351726e+000 2.095810e+000 1.834036e+000 1.950295e+000 2.357591e+000 4.297546e-001 4.109344e-001 3.516599e-001 4.992261e-001 5.910161e-001 4.724877e-001 4.924755e-001 4.947565e-001 4.424494e-001 3.923825e-001 3.470285e-001 3.523018e-001 3.852597e-001
<GCONST> 1.231902e+002
<TRANSP> 3
 0.000000e+000 1.000000e+000 0.000000e+000
 0.000000e+000 9.987432e-001 1.256790e-003
 0.000000e+000 0.000000e+000 0.000000e+000
<ENDHMM>
