~o
<STREAMINFO> 1 39
<VECSIZE> 39<NULLD><MFCC_D_A_0><DIAGC>
~h "a"
<BEGINHMM>
<NUMSTATES> 5
<STATE> 2
<MEAN> 39
 3.170455e+000 -5.371355e+000 -3.785809e+000 -6.725338e+000 8.052494e-001 -6.114896e+000 -9.302936e+000 -7.101994e+000 -3.354281e-001 8.204410e+000 -5.891487e+000 -3.808474e+000 6.532233e+001 1.106604e+000 -7.284009e-001 -1.616037e-001 -1.513496e+000 9.849543e-001 1.379180e-001 3.262667e-001 4.410252e-001 2.462032e-001 8.649330e-001 -7.864587e-001 -9.265983e-001 1.150987e+000 -3.862522e-001 3.975618e-001 1.252895e-001 3.318708e-001 -3.327023e-001 1.180879e-001 4.268694e-001 9.533007e-002 -2.637727e-001 -4.124912e-001 1.240387e-001 7.678954e-002 -4.823575e-001
<VARIANCE> 39
 2.260804e+001 3.369366e+001 3.747167e+001 4.616509e+001 4.059232e+001 7.147801e+001 6.374694e+001 7.428625e+001 4.630818e+001 4.173411e+001 4.079884e+001 3.967432e+001 2.086652e+001 3.662126e+000 3.490711e+000 3.385737e+000 3.792786e+000 3.586395e+000 4.654182e+000 4.184509e+000 6.365838e+000 4.382694e+000 3.599518e+000 2.532940e+000 2.724207e+000 2.357899e+000 4.741212e-001 5.781268e-001 4.628345e-001 6.980934e-001 6.277695e-001 7.085255e-001 1.039848e+000 9.979619e-001 8.316560e-001 7.762218e-001 5.356129e-001 6.539479e-001 4.564450e-001
<GCONST> 1.314763e+002
<STATE> 3
<MEAN> 39
 4.099472e+000 -7.019802e+000 -2.665077e+000 -9.812100e+000 1.769662e+000 -5.685554e+000 -8.855089e+000 -4.963681e+000 -1.315538e+000 8.207009e+000 -7.935808e+000 -5.893510e+000 6.687676e+001 2.584602e-001 5.908198e-001 -2.111274e-001 -8.531898e-003 -4.791790e-001 5.291636e-001 1.059570e+000 3.501181e-001 -3.289120e-001 -1.787616e-001 3.586795e-001 -2.704189e-001 -6.823339e-001 -2.226629e-001 5.923817e-001 -8.053834e-002 5.690576e-001 -4.570273e-001 1.873252e-001 3.407353e-001 -2.226409e-001 -1.756283e-001 -2.328616e-001 3.791127e-001 2.261603e-001 -5.753369e-001
<VARIANCE> 39
 1.206853e+001 3.008869e+001 2.457306e+001 4.094925e+001 3.517257e+001 6.699265e+001 4.694416e+001 7.652812e+001 4.579383e+001 4.494832e+001 3.599161e+001 3.362616e+001 1.266095e+001 8.271611e-001 1.921789e+000 2.076630e+000 2.355958e+000 2.840805e+000 3.416226e+000 3.270326e+000 3.781594e+000 3.269234e+000 2.397425e+000 2.381577e+000 2.295640e+000 1.088728e+000 3.191765e-001 2.830472e-001 3.671097e-001 3.609692e-001 4.669405e-001 5.397393e-001 5.762021e-001 7.322564e-001 6.408981e-001 5.863742e-001 4.488190e-001 4.405574e-001 1.481958e-001
<GCONST> 1.172107e+002
<STATE> 4
<MEAN> 39
 4.745712e+000 -1.557265e+000 -5.982531e+000 -6.284834e+000 -1.705185e+000 -1.020623e+000 -3.587621e+000 -4.515155e+000 -1.091950e+000 6.716856e+000 -4.221150e+000 -5.625884e+000 6.037091e+001 -2.353478e-001 1.577937e+000 -7.332565e-001 9.224301e-001 -8.177935e-001 9.781700e-001 1.271672e+000 2.018128e-001 -1.908549e-001 -5.242264e-001 4.256464e-001 -7.592062e-002 -1.755100e+000 -4.095385e-001 -4.713774e-003 1.108661e-001 1.649888e-002 1.239661e-001 -2.101834e-001 -3.375971e-001 -1.417609e-001 3.377019e-002 -1.505043e-001 -1.813581e-001 1.798948e-001 1.008218e-001
<VARIANCE> 39
 2.428321e+001 3.152029e+001 3.594065e+001 4.507664e+001 3.754551e+001 7.739283e+001 4.592370e+001 8.042988e+001 5.092300e+001 3.706803e+001 3.248716e+001 3.397061e+001 3.916909e+001 1.404388e+000 1.416757e+000 2.510260e+000 2.061114e+000 2.447711e+000 3.583185e+000 3.572396e+000 3.797904e+000 3.998544e+000 2.519322e+000 2.407830e+000 2.561653e+000 1.282484e+000 3.169257e-001 3.110065e-001 3.264045e-001 3.951901e-001 4.679852e-001 6.011612e-001 6.037582e-001 7.657179e-001 6.361260e-001 4.513076e-001 5.223487e-001 4.817038e-001 2.122010e-001
<GCONST> 1.210200e+002
<TRANSP> 5
 0.000000e+000 1.000000e+000 0.000000e+000 0.000000e+000 0.000000e+000
 0.000000e+000 4.108451e-001 5.891549e-001 0.000000e+000 0.000000e+000
 0.000000e+000 0.000000e+000 5.535396e-001 4.464604e-001 0.000000e+000
 0.000000e+000 0.000000e+000 0.000000e+000 4.923244e-001 5.076756e-001
 0.000000e+000 0.000000e+000 0.000000e+000 0.000000e+000 0.000000e+000
<ENDHMM>
~h "b"
<BEGINHMM>
<NUMSTATES> 5
<STATE> 2
<MEAN> 39
 6.677463e+000 1.002425e+001 -2.995715e+000 9.259930e-001 -5.327425e+000 -3.453080e-001 -6.156203e+000 -9.807286e+000 -7.733541e+000 2.031092e-001 -1.924964e+000 -3.363879e+000 5.286691e+001 4.937999e-001 1.901514e+000 -6.567273e-001 9.021295e-001 -8.565097e-002 7.437673e-001 9.153991e-001 2.290832e-001 -4.141461e-002 -8.369792e-001 -5.154647e-002 -1.783137e-001 -1.547004e+000 -4.828692e-001 -5.561430e-001 3.819673e-001 -1.154071e-001 2.417296e-001 -2.607912e-001 -3.971283e-001 1.376372e-001 4.657988e-001 1.808474e-001 -2.440974e-001 2.442051e-001 3.830549e-001
<VARIANCE> 39
 2.119032e+001 3.766570e+001 3.676269e+001 4.917546e+001 5.477085e+001 5.859636e+001 4.533669e+001 3.699319e+001 3.444029e+001 2.917626e+001 2.367091e+001 2.805014e+001 1.485058e+001 2.192911e+000 1.156623e+000 2.020217e+000 2.086085e+000 2.732459e+000 2.580256e+000 2.893673e+000 2.690224e+000 3.238030e+000 2.916906e+000 2.038390e+000 2.608012e+000 2.286440e+000 3.165433e-001 3.471261e-001 3.551919e-001 3.553590e-001 5.856156e-001 3.915790e-001 7.180114e-001 6.158754e-001 5.013937e-001 5.173811e-001 4.428845e-001 4.647107e-001 2.441393e-001
<GCONST> 1.176778e+002
<STATE> 3
<MEAN> 39
 6.884562e+000 1.416320e+001 -3.261430e+000 1.620060e+000 -6.224121e+000 1.260187e+000 -2.771323e+000 -7.230862e+000 -6.995484e+000 -1.617856e+000 -3.362499e+000 -3.539669e+000 4.965021e+001 -9.495755e-001 -1.028659e+000 4.809809e-001 1.063199e+000 1.078363e+000 -6.221164e-001 -1.370972e+000 -7.561568e-004 1.431251e+000 -2.069673e-001 -4.491087e-001 4.780226e-001 2.063754e-001 -2.272895e-001 -1.368865e+000 4.987988e-001 -1.877719e-001 1.691693e-001 -7.228563e-001 -1.225497e+000 -5.130686e-001 1.819234e-001 4.871928e-001 9.645359e-002 3.561675e-001 1.132785e+000
<VARIANCE> 39
 1.524834e+001 2.485764e+001 3.528712e+001 4.399166e+001 3.991479e+001 5.590216e+001 4.786641e+001 3.866175e+001 3.573061e+001 3.667952e+001 2.622465e+001 2.802017e+001 8.805003e+000 1.598382e+000 4.730046e+000 2.232153e+000 2.635566e+000 4.662907e+000 4.623336e+000 6.015192e+000 4.299963e+000 4.334604e+000 3.710522e+000 2.451988e+000 2.732415e+000 1.838597e+000 2.750129e-001 3.219617e-001 7.270609e-001 6.182336e-001 8.725358e-001 1.008570e+000 8.133747e-001 7.174541e-001 9.844978e-001 8.474776e-001 5.845083e-001 5.786381e-001 1.566699e-001
<GCONST> 1.245476e+002
<STATE> 4
<MEAN> 39
 2.749442e+000 4.499683e+000 -8.695952e-001 4.735722e+000 -7.392827e-001 -4.257621e+000 -1.293958e+001 -1.004120e+001 -1.231590e+000 1.134845e-001 -4.359835e+000 -8.097524e-001 5.522247e+001 -2.971714e-001 -2.992680e+000 1.737795e+000 -7.181050e-001 -1.452856e-001 -1.826388e+000 -3.014461e+000 -1.066545e+000 2.327400e-001 1.248902e+000 1.989714e-001 1.135015e+000 2.863597e+000 3.931763e-001 2.342922e-001 3.532740e-001 -7.187012e-001 -7.584125e-001 1.410497e-001 6.033382e-001 6.310178e-002 -8.057036e-001 3.548718e-001 7.647096e-002 -2.001349e-001 2.401692e-001
<VARIANCE> 39
 2.743862e+001 4.453266e+001 3.727382e+001 6.046850e+001 4.732139e+001 7.713879e+001 7.154156e+001 6.402942e+001 6.179891e+001 4.857122e+001 3.573043e+001 3.877306e+001 2.704554e+001 3.357900e+000 4.657566e+000 7.895969e+000 7.406319e+000 7.487320e+000 8.748027e+000 6.836316e+000 7.089613e+000 8.449085e+000 7.011691e+000 4.090576e+000 4.355213e+000 1.854504e+000 4.489306e-001 1.065115e+000 8.482864e-001 9.081024e-001 1.102977e+000 1.235737e+000 1.483726e+000 1.334927e+000 1.428866e+000 8.794102e-001 7.800848e-001 7.211558e-001 5.255398e-001
<GCONST> 1.431411e+002
<TRANSP> 5
 0.000000e+000 1.000000e+000 0.000000e+000 0.000000e+000 0.000000e+000
 0.000000e+000 5.523664e-001 4.476335e-001 0.000000e+000 0.000000e+000
 0.000000e+000 0.000000e+000 5.571575e-001 4.428426e-001 0.000000e+000
 0.000000e+000 0.000000e+000 0.000000e+000 5.776039e-001 4.223962e-001
 0.000000e+000 0.000000e+000 0.000000e+000 0.000000e+000 0.000000e+000
<ENDHMM>
~h "c"
<BEGINHMM>
<NUMSTATES> 5
<STATE> 2
<MEAN> 39
 -6.432669e+000 9.158852e+000 -4.136546e+000 -2.209350e-001 1.447834e-001 -5.485193e+000 -1.384705e+000 -4.265238e+000 -3.456712e+000 6.086055e-001 -2.841248e+000 -2.393231e+000 5.412128e+001 -3.972300e+000 6.374660e-001 -1.310383e+000 2.324174e-001 1.335587e+000 -9.410862e-001 -3.420967e-001 4.337598e-001 8.973254e-001 -1.103139e+000 -5.232073e-001 1.051604e+000 1.084797e+000 -8.124545e-001 -6.366736e-001 3.357185e-001 -2.266589e-001 6.874106e-002 -5.843759e-001 -5.011398e-001 -6.047126e-002 1.369384e-002 4.123913e-002 -3.235243e-001 1.724490e-001 1.075463e+000
<VARIANCE> 39
 7.951827e+001 5.250122e+001 7.561856e+001 5.099511e+001 6.483568e+001 5.555994e+001 4.515179e+001 5.274068e+001 4.423465e+001 4.990779e+001 2.535290e+001 3.432425e+001 3.745218e+001 6.229981e+000 6.018427e+000 4.711476e+000 3.370948e+000 3.472622e+000 5.408718e+000 5.439149e+000 5.253384e+000 2.903337e+000 4.171852e+000 3.426090e+000 3.047805e+000 5.131292e+000 8.985629e-001 7.137051e-001 6.699207e-001 5.399379e-001 7.766749e-001 6.513482e-001 1.001505e+000 8.372714e-001 6.338817e-001 7.852447e-001 5.102549e-001 5.886466e-001 6.488875e-001
<GCONST> 1.368263e+002
<STATE> 3
<MEAN> 39
 -2.362254e+001 5.525599e+000 -5.245423e+000 -1.413091e-002 2.815955e+000 -1.168036e+001 -3.898932e+000 -3.611753e+000 -1.891797e+000 -1.624776e+000 -6.028587e+000 1.733931e+000 6.424536e+001 -1.631652e+000 -2.112184e+000 -1.589472e-002 1.635789e-001 -7.357340e-001 -1.228819e+000 -3.389589e-001 1.596207e-001 3.444197e-002 -1.624316e-001 -6.021756e-001 9.531692e-002 1.030711e+000 1.359806e+000 -2.315728e-001 1.589150e-001 6.340364e-002 -3.859457e-001 3.211681e-001 2.050972e-001 -9.105120e-002 -1.523326e-001 2.425043e-001 1.410939e-001 -4.646613e-001 -7.562435e-001
<VARIANCE> 39
 2.735327e+001 5.156822e+001 3.784036e+001 4.348676e+001 4.699231e+001 4.243335e+001 4.536290e+001 4.123561e+001 3.746667e+001 5.030771e+001 2.826529e+001 3.527394e+001 1.298448e+001 6.455497e+000 4.137113e+000 3.535156e+000 3.231915e+000 3.279972e+000 3.228504e+000 3.771894e+000 3.865343e+000 2.800383e+000 3.556239e+000 2.420219e+000 2.918706e+000 3.186010e+000 4.007589e-001 1.107747e+000 6.331269e-001 6.092249e-001 6.614079e-001 6.772821e-001 7.568253e-001 8.221800e-001 5.030022e-001 6.239611e-001 5.146716e-001 5.377197e-001 3.202210e-001
<GCONST> 1.280249e+002
<STATE> 4
<MEAN> 39
 -1.908697e+001 -2.855817e+000 -6.289765e+000 2.459061e-001 -8.242379e-001 -1.179248e+001 -3.150277e+000 -3.412141e+000 -1.101086e+000 -4.465379e-001 -7.069052e+000 -1.842364e+000 6.028172e+001 3.128386e+000 5.404802e-001 6.087749e-001 1.571772e-001 -1.946355e-001 3.844224e-001 -3.179931e-001 -3.629876e-001 -5.058101e-002 1.043895e+000 4.620636e-001 -7.538814e-001 -1.045757e+000 7.319763e-001 8.426115e-001 3.680608e-001 -1.945433e-001 1.735341e-001 1.402088e-001 -3.381773e-001 -1.450427e-001 -9.225052e-002 3.505203e-001 2.215803e-001 1.343224e-001 3.062328e-001
<VARIANCE> 39
 2.901394e+001 2.969596e+001 5.402378e+001 2.837564e+001 4.193339e+001 4.765635e+001 5.663464e+001 3.874231e+001 3.895214e+001 4.831498e+001 3.322001e+001 2.941944e+001 2.053452e+001 3.634431e+000 4.096769e+000 4.010975e+000 2.294590e+000 3.033895e+000 3.204456e+000 5.156821e+000 3.403996e+000 2.477977e+000 3.321932e+000 2.841528e+000 2.691133e+000 2.901631e+000 4.163127e-001 5.250849e-001 5.109249e-001 4.707389e-001 4.739143e-001 5.744758e-001 7.148811e-001 6.805997e-001 5.515411e-001 6.300196e-001 5.457729e-001 4.640229e-001 4.961557e-001
<GCONST> 1.256808e+002
<TRANSP> 5
 0.000000e+000 1.000000e+000 0.000000e+000 0.000000e+000 0.000000e+000
 0.000000e+000 7.043934e-001 2.956066e-001 0.000000e+000 0.000000e+000
 0.000000e+000 0.000000e+000 7.741148e-001 2.258852e-001 0.000000e+000
 0.000000e+000 0.000000e+000 0.000000e+000 7.218390e-001 2.781610e-001
 0.000000e+000 0.000000e+000 0.000000e+000 0.000000e+000 0.000000e+000
<ENDHMM>
~h "d"
<BEGINHMM>
<NUMSTATES> 5
<STATE> 2
<MEAN> 39
 4.285153e+000 5.602730e+000 5.010735e-001 3.414479e+000 -6.720425e+000 -4.976857e+000 -8.274968e+000 -7.107403e+000 -2.853641e+000 -1.444383e+000 -6.067868e+000 -2.441330e+000 5.573287e+001 -5.372699e-001 -9.177030e-001 9.789968e-001 9.127604e-001 -2.582327e-001 3.083034e-001 -8.028477e-001 -4.548234e-001 1.065670e+000 -1.002823e+000 -3.807361e-001 7.976090e-001 2.005433e-001 -2.487726e-001 -8.371309e-001 5.304086e-001 -5.292098e-001 2.326757e-002 -2.660691e-001 -8.029634e-001 -1.586221e-001 7.923473e-002 2.960367e-001 2.615817e-001 2.745599e-001 8.706260e-001
<VARIANCE> 39
 2.669009e+001 4.632972e+001 5.294085e+001 4.990312e+001 4.864893e+001 6.120471e+001 4.986602e+001 5.940041e+001 5.091301e+001 3.383962e+001 3.429327e+001 3.606143e+001 2.150225e+001 3.237469e+000 5.736062e+000 4.115891e+000 4.996807e+000 6.084097e+000 7.232897e+000 6.468138e+000 6.472842e+000 4.296592e+000 4.904674e+000 4.043259e+000 3.396139e+000 3.063984e+000 3.257553e-001 6.270466e-001 5.787786e-001 5.631431e-001 8.109686e-001 1.166347e+000 8.887352e-001 9.908589e-001 8.834918e-001 6.353641e-001 7.117688e-001 7.847047e-001 3.632866e-001
<GCONST> 1.354960e+002
<STATE> 3
<MEAN> 39
 2.507884e-001 -3.359663e+000 5.631000e+000 4.418611e+000 -7.378835e+000 -4.830344e+000 -1.426046e+001 -9.564414e+000 1.852315e+000 -4.204776e+000 -6.203373e+000 2.113831e+000 6.132838e+001 -3.606573e-001 -1.658266e+000 1.444586e+000 -3.881901e-001 -4.679778e-001 -1.000279e+000 -2.089198e+000 -3.282342e-001 3.803223e-001 1.652170e-001 7.797634e-001 6.086439e-001 1.722350e+000 5.857314e-001 6.467099e-001 -3.942544e-001 -6.160843e-001 2.261142e-001 -1.802707e-001 2.847044e-001 1.940372e-001 -8.641685e-001 9.765047e-001 2.758776e-001 -6.159851e-001 -9.670492e-002
<VARIANCE> 39
 3.599293e+001 5.036736e+001 6.995338e+001 6.846058e+001 8.261818e+001 7.856187e+001 7.705730e+001 9.060880e+001 7.454769e+001 5.968325e+001 5.105055e+001 4.341681e+001 2.017652e+001 2.347902e+000 4.633681e+000 4.872237e+000 4.710802e+000 5.522043e+000 7.456864e+000 6.085092e+000 8.089699e+000 5.866775e+000 5.184038e+000 4.402771e+000 4.422312e+000 2.493954e+000 4.038218e-001 8.358385e-001 7.641700e-001 9.346620e-001 1.548623e+000 1.501263e+000 1.277013e+000 1.446596e+000 1.157091e+000 1.171330e+000 9.695929e-001 6.800494e-001 3.893441e-001
<GCONST> 1.438032e+002
<STATE> 4
<MEAN> 39
 3.630714e+000 -2.336651e+000 5.670785e+000 2.141442e+000 -8.543955e+000 -7.362150e+000 -1.727910e+001 -9.482408e+000 -9.183806e-001 -4.834364e-002 -2.801980e+000 -6.674871e-001 6.257977e+001 8.630111e-001 5.470551e-001 -2.811108e-001 -1.227736e+000 5.655547e-001 -3.225057e-001 -3.497974e-001 3.043838e-001 -1.413615e+000 1.894935e+000 6.333740e-001 -9.344215e-001 2.325952e-001 1.108208e-001 4.434427e-001 -5.516012e-001 -2.545701e-001 2.912675e-001 3.653199e-001 8.411223e-001 1.436121e-001 -3.848622e-001 2.924873e-001 -3.605597e-001 -2.787691e-001 -4.284531e-001
<VARIANCE> 39
 2.195518e+001 3.648707e+001 4.237071e+001 4.216532e+001 4.797656e+001 6.779797e+001 7.585386e+001 8.593938e+001 6.872989e+001 3.935909e+001 3.904819e+001 2.953008e+001 1.441832e+001 1.541917e+000 2.793057e+000 4.143703e+000 3.611470e+000 4.821209e+000 6.010020e+000 4.203660e+000 7.035436e+000 6.786799e+000 4.648789e+000 4.258132e+000 3.359185e+000 1.518811e+000 2.958194e-001 5.665904e-001 6.043744e-001 6.860726e-001 8.529578e-001 9.886302e-001 1.264668e+000 1.144484e+000 9.885062e-001 6.943495e-001 7.603259e-001 6.463458e-001 3.079928e-001
<GCONST> 1.330602e+002
<TRANSP> 5
 0.000000e+000 1.000000e+000 0.000000e+000 0.000000e+000 0.000000e+000
 0.000000e+000 5.174730e-001 4.825270e-001 0.000000e+000 0.000000e+000
 0.000000e+000 0.000000e+000 3.531336e-001 6.468665e-001 0.000000e+000
 0.000000e+000 0.000000e+000 0.000000e+000 4.021412e-001 5.978588e-001
 0.000000e+000 0.000000e+000 0.000000e+000 0.000000e+000 0.000000e+000
<ENDHMM>
~h "e"
<BEGINHMM>
<NUMSTATES> 5
<STATE> 2
<MEAN> 39
 -2.103513e+000 -2.977880e-001 1.293899e+000 -1.881659e+000 -4.162612e+000 -8.690385e+000 -8.241368e+000 -1.958370e+000 -6.573338e-001 2.441150e+000 -5.949961e+000 -2.085143e+000 5.869780e+001 8.884552e-001 -9.076019e-002 3.215581e-001 -4.697691e-001 -2.020104e-002 -2.967009e-001 -8.751515e-002 1.015829e+000 -1.451458e-001 4.397734e-001 -9.697327e-002 -2.336269e-001 2.506077e-001 -2.844836e-001 1.471226e-001 -1.678323e-001 -1.971577e-003 -3.013646e-002 4.662857e-001 3.965395e-001 -1.840582e-001 -1.677182e-001 -5.618765e-002 7.221844e-002 -3.139368e-002 -3.006434e-001
<VARIANCE> 39
 6.109688e+001 3.273535e+001 8.459730e+001 3.890040e+001 5.075303e+001 1.051009e+002 7.065882e+001 6.107884e+001 5.703213e+001 5.140534e+001 3.200806e+001 4.367592e+001 1.613057e+002 6.132413e+000 2.965701e+000 3.607048e+000 3.799618e+000 2.950403e+000 5.019084e+000 4.062936e+000 5.494462e+000 4.192377e+000 4.422540e+000 2.853547e+000 2.888125e+000 2.907043e+000 3.824103e-001 4.680598e-001 4.047036e-001 5.060983e-001 5.582657e-001 7.601781e-001 7.900270e-001 7.821239e-001 6.718452e-001 7.011787e-001 4.624630e-001 5.164984e-001 2.548486e-001
<GCONST> 1.338577e+002
<STATE> 3
<MEAN> 39
 1.302068e+000 -3.631929e+000 5.461839e+000 -5.412537e+000 -3.742537e+000 -1.353127e+001 -1.037641e+001 -3.372943e-001 -2.954346e+000 3.696306e+000 -7.458726e+000 -1.309045e+000 6.583387e+001 4.554046e-001 2.467817e-001 -8.678454e-002 -3.552256e-001 -1.698130e-001 7.387576e-001 9.022099e-001 4.589604e-001 -4.181851e-001 1.404076e-001 1.569985e-002 -3.306634e-001 -3.995071e-001 -3.437702e-001 4.746842e-001 -3.805180e-001 3.899164e-001 -1.121394e-001 6.815161e-001 3.873291e-001 -6.135886e-001 -7.195037e-003 -1.620660e-001 2.586999e-001 -5.066152e-002 -5.937595e-001
<VARIANCE> 39
 1.885208e+001 2.761840e+001 5.099184e+001 3.213596e+001 4.296370e+001 5.732928e+001 4.570030e+001 6.197023e+001 5.857953e+001 4.968617e+001 3.225671e+001 3.569615e+001 3.024545e+001 1.961070e+000 1.782816e+000 3.394167e+000 2.879638e+000 2.687519e+000 3.940898e+000 3.543649e+000 4.138349e+000 3.994540e+000 3.309860e+000 2.475930e+000 2.447788e+000 1.464306e+000 4.782562e-001 4.404106e-001 4.431877e-001 4.886979e-001 5.316560e-001 6.404765e-001 6.412797e-001 9.343956e-001 8.134822e-001 7.674342e-001 5.548134e-001 4.822891e-001 2.418315e-001
<GCONST> 1.249821e+002
<STATE> 4
<MEAN> 39
 2.330427e+000 -2.823198e-001 3.099487e+000 -3.452205e+000 -5.084547e+000 -8.614896e+000 -6.620292e+000 -9.869959e-001 -3.319208e+000 3.658032e+000 -5.273179e+000 -2.546154e+000 6.129231e+001 1.325284e-002 1.431316e+000 -1.011673e+000 7.355182e-001 -3.170444e-001 1.616601e+000 1.463539e+000 -3.946146e-001 -8.970843e-002 -1.235881e-001 5.851380e-001 -2.111361e-001 -1.664797e+000 -3.884159e-001 6.978595e-002 -9.858185e-002 1.024235e-001 8.808322e-002 -2.145958e-003 -1.264376e-001 -3.392510e-001 1.100363e-001 -1.188994e-001 -3.843405e-002 9.976304e-002 -2.716048e-002
<VARIANCE> 39
 2.381762e+001 3.138604e+001 5.194336e+001 3.781705e+001 4.419949e+001 5.416243e+001 5.396365e+001 6.012598e+001 6.634472e+001 4.359838e+001 3.543977e+001 3.156371e+001 3.795092e+001 1.996586e+000 1.728007e+000 2.816500e+000 2.428028e+000 2.972211e+000 3.464420e+000 3.608978e+000 5.118187e+000 4.657870e+000 2.995620e+000 2.689056e+000 2.441295e+000 1.649566e+000 3.805982e-001 4.045304e-001 3.923702e-001 4.776871e-001 5.658317e-001 5.583953e-001 6.679707e-001 7.493486e-001 7.084735e-001 6.254638e-001 5.719232e-001 4.635007e-001 2.566581e-001
<GCONST> 1.249042e+002
<TRANSP> 5
 0.000000e+000 1.000000e+000 0.000000e+000 0.000000e+000 0.000000e+000
 0.000000e+000 3.746967e-001 6.253033e-001 0.000000e+000 0.000000e+000
 0.000000e+000 0.000000e+000 4.528981e-001 5.471019e-001 0.000000e+000
 0.000000e+000 0.000000e+000 0.000000e+000 4.012364e-001 5.987636e-001
 0.000000e+000 0.000000e+000 0.000000e+000 0.000000e+000 0.000000e+000
<ENDHMM>
~h "f"
<BEGINHMM>
<NUMSTATES> 5
<STATE> 2
<MEAN> 39
 -3.114318e+000 1.293203e+000 -2.532716e+000 2.507331e+000 -9.077333e-001 9.675565e-001 -3.394477e+000 -1.009914e+000 1.010846e+000 9.280588e-002 -2.823726e+000 6.950898e-001 5.983474e+001 -3.236680e+000 -7.535695e-001 -4.581729e-001 2.094896e+000 1.040872e+000 -3.738474e-001 -2.384923e-001 8.376270e-001 1.225790e+000 -9.096538e-001 5.774739e-001 1.879729e-001 6.802341e-001 -1.024577e-001 -2.101780e-001 8.799215e-002 -4.189861e-001 -8.944374e-002 -2.606267e-001 -2.249390e-001 -6.172729e-001 -4.296369e-001 4.037479e-001 -1.193137e-001 -1.582391e-001 1.418810e-001
<VARIANCE> 39
 5.272889e+001 4.959922e+001 3.876442e+001 5.355036e+001 3.450639e+001 6.102351e+001 3.850164e+001 4.279818e+001 6.082093e+001 3.671353e+001 5.347922e+001 3.146039e+001 3.200732e+001 2.108478e+000 3.435195e+000 1.633550e+000 3.874497e+000 4.143275e+000 4.667795e+000 4.095272e+000 4.376956e+000 3.119072e+000 4.199728e+000 1.861110e+000 3.177814e+000 1.813714e+000 5.849305e-001 5.404617e-001 2.464041e-001 4.129124e-001 5.485902e-001 5.408063e-001 6.550348e-001 6.978500e-001 4.146402e-001 6.172141e-001 3.573592e-001 5.852639e-001 3.061231e-001
<GCONST> 1.259218e+002
<STATE> 3
<MEAN> 39
 -1.287463e+001 -3.813517e+000 -3.757699e+000 6.026242e+000 8.601798e-001 -1.798036e+000 -6.302760e+000 -3.156750e+000 2.897046e+000 2.885764e+000 -2.813996e+000 -1.115531e+000 6.214785e+001 -1.067299e+000 -9.263149e-001 -3.805781e-002 2.499834e-001 -2.680188e-001 -6.507800e-001 -3.686880e-001 -7.685369e-001 -3.538363e-001 1.972010e-001 2.722499e-001 -3.288541e-001 -2.061121e-001 7.666478e-001 2.071505e-001 1.816913e-001 -4.402456e-001 -3.321833e-001 -8.342675e-002 7.371660e-002 -6.186799e-002 -3.019781e-001 -5.156442e-003 1.048365e-001 1.028359e-001 -2.647452e-001
<VARIANCE> 39
 2.060714e+001 2.785689e+001 4.058728e+001 2.978169e+001 2.123874e+001 4.209977e+001 3.248212e+001 4.870557e+001 3.004050e+001 3.384731e+001 4.728198e+001 3.708011e+001 2.514685e+001 3.382766e+000 1.232139e+000 1.393160e+000 1.919783e+000 2.512733e+000 3.184746e+000 2.471277e+000 2.874882e+000 1.959721e+000 2.053509e+000 2.159822e+000 2.045006e+000 1.219813e+000 3.998201e-001 4.975880e-001 2.976505e-001 4.826106e-001 5.533032e-001 4.858776e-001 4.872630e-001 5.508850e-001 5.209033e-001 4.756671e-001 3.311421e-001 5.532194e-001 5.052918e-001
<GCONST> 1.164772e+002
<STATE> 4
<MEAN> 39
 -1.104373e+001 -4.029865e+000 -4.065619e+000 4.051279e+000 -5.625750e-001 -3.352304e+000 -6.592518e+000 -4.874915e+000 -8.713393e-001 1.841927e+000 -8.286770e-001 -1.435025e+000 5.611476e+001 1.387064e+000 8.437986e-001 2.370579e-001 -1.165104e+000 -9.473180e-001 3.058642e-001 8.916592e-001 -7.688354e-002 -9.299868e-001 7.645187e-003 5.920693e-001 2.693095e-001 -9.274414e-001 3.445267e-001 2.111354e-001 2.716957e-001 -2.539994e-001 -8.433226e-002 6.551773e-002 4.339482e-002 3.124848e-002 -1.105407e-001 1.796747e-001 -2.077782e-001 2.672825e-002 3.410560e-001
<VARIANCE> 39
 4.416211e+001 5.001221e+001 6.164910e+001 3.595150e+001 4.176503e+001 5.688416e+001 4.855904e+001 3.922652e+001 4.377391e+001 4.195823e+001 2.163059e+001 2.391715e+001 5.878846e+001 6.628625e+000 2.659796e+000 4.548886e+000 3.526580e+000 4.017642e+000 5.007244e+000 4.094149e+000 3.305758e+000 4.612948e+000 4.620845e+000 2.273573e+000 2.593207e+000 6.276046e+000 6.054486e-001 5.533318e-001 5.075092e-001 5.978057e-001 9.782043e-001 8.159999e-001 1.112450e+000 6.798551e-001 7.733854e-001 8.520474e-001 3.750711e-001 4.298578e-001 8.433093e-001
<GCONST> 1.329632e+002
<TRANSP> 5
 0.000000e+000 1.000000e+000 0.000000e+000 0.000000e+000 0.000000e+000
 0.000000e+000 5.833216e-001 4.166783e-001 0.000000e+000 0.000000e+000
 0.000000e+000 0.000000e+000 6.941133e-001 3.058867e-001 0.000000e+000
 0.000000e+000 0.000000e+000 0.000000e+000 6.194555e-001 3.805446e-001
 0.000000e+000 0.000000e+000 0.000000e+000 0.000000e+000 0.000000e+000
<ENDHMM>
~h "g"
<BEGINHMM>
<NUMSTATES> 5
<STATE> 2
<MEAN> 39
 3.243861e+000 1.323902e+000 5.546281e+000 -7.515260e+000 -7.692698e+000 -1.110786e+001 -1.899244e+000 -4.723474e+000 -1.438432e+001 6.482850e+000 -5.041998e+000 -6.829972e+000 6.187849e+001 3.707799e-001 1.332657e+000 -1.653010e-003 1.211917e+000 -6.017066e-001 1.895908e-002 4.212592e-001 -6.307551e-002 -1.311017e+000 -2.368171e-001 6.911163e-001 -8.725629e-001 -1.267939e+000 -1.220350e-001 2.176890e-002 -2.027274e-001 3.727028e-001 1.076174e-001 1.554712e-001 -1.748617e-001 -2.302824e-001 4.766175e-001 -2.902260e-001 4.899484e-002 3.043244e-001 -6.101170e-002
<VARIANCE> 39
 1.949157e+001 2.608078e+001 6.592242e+001 4.991108e+001 3.611846e+001 9.162737e+001 7.584398e+001 1.275016e+002 5.343987e+001 4.576432e+001 4.105474e+001 5.709267e+001 2.666202e+001 7.290722e-001 1.768240e+000 3.858260e+000 1.458216e+000 1.640507e+000 3.679893e+000 3.237008e+000 3.053290e+000 4.246084e+000 3.215553e+000 3.491348e+000 2.100068e+000 2.704592e+000 1.045671e-001 2.177043e-001 4.496353e-001 3.832181e-001 2.900192e-001 5.337210e-001 5.592192e-001 5.479087e-001 7.630474e-001 4.972036e-001 6.389628e-001 5.373232e-001 1.263263e-001
<GCONST> 1.211081e+002
<STATE> 3
<MEAN> 39
 2.534349e+000 7.710997e+000 7.091743e+000 1.464275e+000 -1.020497e+001 -1.151933e+001 -1.165916e+000 -5.168804e+000 -1.600789e+001 3.423646e+000 6.922467e-001 -6.168731e+000 5.649185e+001 -1.606801e-001 9.743225e-001 -6.408953e-001 1.093895e+000 6.824089e-001 2.955661e-001 -4.618610e-001 -4.255709e-001 4.178983e-001 -4.404554e-001 1.732385e-003 4.396350e-001 -8.670379e-001 -3.240414e-001 -3.758150e-001 1.846942e-001 -7.056642e-002 5.009965e-001 -1.716113e-001 -5.349498e-001 -6.725309e-002 4.124027e-001 -1.942538e-002 -3.482926e-001 4.704352e-001 5.491765e-001
<VARIANCE> 39
 2.207144e+001 3.775051e+001 6.617771e+001 4.919311e+001 3.408400e+001 1.110836e+002 5.462186e+001 5.287021e+001 6.079358e+001 5.190862e+001 4.289577e+001 2.815684e+001 1.534263e+001 1.219746e+000 1.279233e+000 3.880703e+000 2.842786e+000 3.154385e+000 2.885280e+000 4.741632e+000 2.855572e+000 2.362087e+000 2.532443e+000 3.469915e+000 2.937746e+000 2.517374e+000 2.969054e-001 4.847620e-001 7.356295e-001 5.229092e-001 6.944401e-001 7.595978e-001 1.020594e+000 6.394778e-001 8.128750e-001 7.228644e-001 8.140469e-001 5.304418e-001 4.286048e-001
<GCONST> 1.270968e+002
<STATE> 4
<MEAN> 39
 1.843978e+000 5.858297e+000 1.698437e+000 3.748347e+000 -2.682415e+000 -8.892645e+000 -9.481730e+000 -6.869499e+000 -1.379885e+001 1.827202e+000 -2.718138e+000 -2.651970e+000 5.679303e+001 -6.573685e-001 -9.359854e-001 1.510822e-001 1.331594e+000 1.484609e+000 -1.054035e+000 -2.135467e+000 -6.393620e-001 1.118817e+000 -8.964972e-002 -5.566601e-001 1.659871e+000 1.310730e+000 1.268273e-001 -3.308644e-001 3.976647e-001 -5.560270e-001 -7.070840e-001 6.306435e-002 4.710948e-002 6.750820e-002 3.016955e-001 9.282660e-002 1.775314e-001 -1.291079e-002 2.569494e-001
<VARIANCE> 39
 2.926613e+001 4.219870e+001 7.079871e+001 6.267562e+001 7.684474e+001 1.080436e+002 8.216827e+001 9.255058e+001 5.220983e+001 4.974677e+001 7.357861e+001 3.576787e+001 2.332153e+001 3.761501e+000 5.825409e+000 7.714981e+000 5.109259e+000 1.092773e+001 1.008951e+001 8.758036e+000 8.331252e+000 6.071872e+000 5.722038e+000 4.368374e+000 2.276928e+000 2.422924e+000 5.987718e-001 8.862639e-001 9.779651e-001 6.198961e-001 1.627999e+000 1.575593e+000 1.840488e+000 1.404061e+000 9.342936e-001 6.956429e-001 7.629859e-001 4.643407e-001 9.251571e-001
<GCONST> 1.457369e+002
<TRANSP> 5
 0.000000e+000 1.000000e+000 0.000000e+000 0.000000e+000 0.000000e+000
 0.000000e+000 5.991396e-001 4.008604e-001 0.000000e+000 0.000000e+000
 0.000000e+000 0.000000e+000 6.267979e-001 3.732021e-001 0.000000e+000
 0.000000e+000 0.000000e+000 0.000000e+000 6.061350e-001 3.938650e-001
 0.000000e+000 0.000000e+000 0.000000e+000 0.000000e+000 0.000000e+000
<ENDHMM>
~h "h"
<BEGINHMM>
<NUMSTATES> 5
<STATE> 2
<MEAN> 39
 1.423245e+000 -4.918389e+000 -2.129865e+000 -3.886941e+000 7.582447e-001 -1.823081e+000 -2.833712e+000 -1.324480e+000 4.528305e+000 6.117566e+000 -6.974267e+000 -2.643042e+000 6.341128e+001 -2.381147e-001 3.840017e-001 -5.286653e-001 2.588252e-001 9.758559e-001 9.669462e-001 7.936293e-001 -3.853298e-001 8.393795e-001 -6.932300e-002 9.766348e-002 2.311839e-002 -6.712310e-001 1.647673e-001 1.395499e-001 1.848383e-001 -1.847621e-001 -1.225625e-001 -1.354463e-001 -5.631900e-001 -6.786677e-001 -7.684590e-001 -1.325253e-001 -1.241498e-001 1.136281e-001 9.496205e-002
<VARIANCE> 39
 2.188372e+001 2.193176e+001 2.824178e+001 3.786879e+001 3.420191e+001 8.766972e+001 5.826262e+001 7.171071e+001 6.181537e+001 4.283971e+001 4.297768e+001 2.351354e+001 1.475697e+001 1.134481e+000 1.439252e+000 2.813014e+000 1.915002e+000 3.098163e+000 4.394109e+000 4.477065e+000 4.381026e+000 6.054999e+000 3.327409e+000 3.264333e+000 2.315868e+000 1.024416e+000 1.340723e-001 1.653537e-001 1.976642e-001 3.536879e-001 3.636544e-001 4.272149e-001 6.975726e-001 7.440196e-001 6.033468e-001 6.351610e-001 5.182994e-001 4.511329e-001 1.048290e-001
<GCONST> 1.178173e+002
<STATE> 3
<MEAN> 39
 1.364473e+000 -3.042077e+000 -3.124183e+000 -4.091967e+000 3.629798e+000 2.623065e+000 -3.211932e+000 -5.792338e+000 2.745551e+000 4.938920e+000 -7.573457e+000 -2.188410e+000 6.108497e+001 5.093973e-001 8.404452e-001 1.595544e-003 -4.602676e-001 3.033704e-001 7.998987e-001 -5.822343e-001 -1.943162e+000 -9.659446e-001 -1.000178e-001 3.098827e-001 9.494746e-001 -3.421752e-001 4.010430e-001 2.428428e-001 2.923691e-001 -2.019394e-001 -5.534833e-001 -4.046373e-001 -3.485032e-001 -2.050757e-001 -5.383183e-001 1.897196e-001 2.630842e-001 2.359162e-001 2.397025e-001
<VARIANCE> 39
 1.969922e+001 2.565787e+001 3.567010e+001 4.627801e+001 5.284249e+001 6.797384e+001 5.435635e+001 5.156361e+001 5.534858e+001 6.141829e+001 4.782575e+001 2.262200e+001 1.447368e+001 1.227976e+000 1.352412e+000 2.693131e+000 2.365772e+000 2.133250e+000 3.145796e+000 3.800750e+000 3.337440e+000 5.221992e+000 2.505390e+000 4.018786e+000 3.136547e+000 9.432982e-001 1.528639e-001 2.626675e-001 3.330013e-001 3.918556e-001 5.074910e-001 4.588579e-001 6.492901e-001 6.501122e-001 7.559073e-001 8.705239e-001 5.732239e-001 5.490069e-001 1.072148e-001
<GCONST> 1.196980e+002
<STATE> 4
<MEAN> 39
 4.618907e+000 3.900882e-003 -2.907905e+000 -5.769621e+000 1.330407e+000 3.210935e+000 -4.674396e+000 -9.982113e+000 -2.102298e+000 7.772074e+000 -4.059754e+000 2.222080e-001 6.107652e+001 1.284005e+000 1.022691e+000 3.026353e-001 -5.982910e-001 -9.459125e-001 -1.842279e-001 -1.133003e+000 -1.474895e+000 -1.531362e+000 3.534269e-001 5.082251e-001 5.553114e-001 2.492330e-001 5.224551e-002 -1.622930e-001 5.486665e-002 -9.782203e-002 -4.391616e-001 -1.815849e-001 -1.230252e-001 2.842176e-001 -1.078244e-001 -5.032947e-002 -4.226087e-002 -3.771715e-001 1.373012e-001
<VARIANCE> 39
 1.993951e+001 3.009406e+001 3.303674e+001 4.174384e+001 6.500196e+001 8.413788e+001 4.680652e+001 4.876516e+001 6.603519e+001 6.558221e+001 3.927724e+001 4.699535e+001 1.292296e+001 1.345207e+000 2.238818e+000 2.141684e+000 3.831222e+000 2.506839e+000 3.187699e+000 2.903142e+000 4.701445e+000 4.619630e+000 3.651903e+000 3.635795e+000 3.434765e+000 7.592500e-001 1.971591e-001 3.225529e-001 3.395404e-001 4.196018e-001 4.992745e-001 7.009590e-001 6.935663e-001 6.101208e-001 7.816370e-001 6.654701e-001 5.894083e-001 6.795658e-001 1.780066e-001
<GCONST> 1.231624e+002
<TRANSP> 5
 0.000000e+000 1.000000e+000 0.000000e+000 0.000000e+000 0.000000e+000
 0.000000e+000 5.049065e-001 4.950935e-001 0.000000e+000 0.000000e+000
 0.000000e+000 0.000000e+000 3.955339e-001 6.044662e-001 0.000000e+000
 0.000000e+000 0.000000e+000 0.000000e+000 3.794253e-001 6.205747e-001
 0.000000e+000 0.000000e+000 0.000000e+000 0.000000e+000 0.000000e+000
<ENDHMM>
~h "i"
<BEGINHMM>
<NUMSTATES> 5
<STATE> 2
<MEAN> 39
 -4.693008e-001 1.224227e+000 1.080501e+001 5.342013e-001 -8.015270e+000 -1.473918e+001 -1.151982e+001 -6.020861e+000 -7.146265e+000 1.345365e+000 -3.450606e+000 6.237290e-001 6.281359e+001 1.316030e+000 1.949007e-001 2.011067e+000 -5.326051e-001 -1.007822e+000 -1.438434e+000 2.821994e-001 8.845658e-001 -1.267873e+000 2.411791e-001 3.512520e-001 2.652752e-001 1.056704e+000 -3.623625e-001 9.744687e-002 -6.859432e-001 -8.510073e-002 2.676962e-001 7.785828e-001 7.158611e-001 -4.364870e-002 1.676824e-001 -1.051798e-002 -1.274848e-001 -1.905013e-001 -3.911061e-001
<VARIANCE> 39
 3.046743e+001 3.610986e+001 5.095372e+001 5.091537e+001 4.078959e+001 7.721764e+001 7.394804e+001 6.800708e+001 6.505944e+001 4.646157e+001 3.687174e+001 3.477114e+001 1.685574e+001 5.864041e+000 3.608098e+000 5.796236e+000 4.143041e+000 4.437615e+000 5.275011e+000 6.085156e+000 6.522436e+000 6.023448e+000 4.364796e+000 3.433465e+000 3.674893e+000 2.173863e+000 5.495778e-001 6.294801e-001 6.534755e-001 7.488331e-001 6.893956e-001 8.618594e-001 9.829899e-001 1.188543e+000 1.013252e+000 7.755689e-001 6.008614e-001 5.788716e-001 3.290905e-001
<GCONST> 1.362104e+002
<STATE> 3
<MEAN> 39
 1.212602e+000 1.275426e-001 1.258430e+001 -2.119832e+000 -8.677659e+000 -1.454757e+001 -8.294400e+000 -3.313077e+000 -8.998467e+000 1.472977e+000 -3.909024e+000 7.842860e-001 6.335303e+001 1.206577e-001 6.636368e-001 -4.552461e-001 2.356605e-001 -6.624158e-002 6.838013e-001 1.570824e+000 3.229208e-001 -7.158611e-002 -7.829078e-002 1.303932e-001 -2.613152e-001 -6.634209e-001 -3.103787e-001 2.560599e-001 -8.270897e-001 3.804204e-001 3.049565e-001 6.219197e-001 7.389311e-002 -3.235920e-001 4.465996e-001 -2.296986e-002 -4.690431e-002 -2.178655e-001 -4.843690e-001
<VARIANCE> 39
 1.540434e+001 3.127349e+001 4.849854e+001 4.627307e+001 3.722671e+001 6.716370e+001 7.400471e+001 7.586841e+001 6.209699e+001 4.361890e+001 3.686666e+001 3.216710e+001 1.275321e+001 1.665004e+000 1.840287e+000 3.079914e+000 3.058230e+000 2.691163e+000 3.873411e+000 3.787806e+000 4.227700e+000 3.627787e+000 3.193514e+000 2.315015e+000 2.939640e+000 1.500036e+000 4.950248e-001 4.026997e-001 4.761059e-001 5.265468e-001 5.991299e-001 6.470216e-001 8.066996e-001 1.149418e+000 9.332216e-001 7.352744e-001 5.303134e-001 5.311947e-001 2.332682e-001
<GCONST> 1.256907e+002
<STATE> 4
<MEAN> 39
 -5.214978e+000 3.935332e+000 1.862045e+000 1.868273e+000 -8.308457e+000 -3.746171e+000 -3.409518e+000 -1.914869e+000 -4.833959e+000 3.428750e-001 -2.347821e+000 -1.942972e+000 4.869581e+001 -8.145475e-001 5.300992e-001 -1.203839e+000 4.797155e-001 3.137330e-001 9.273252e-001 3.953688e-001 -2.551375e-001 4.337201e-001 -8.448866e-002 2.602271e-002 -2.364840e-001 -1.267045e+000 -2.562185e-001 -8.618302e-002 -1.207986e-001 -4.889644e-002 1.673913e-001 -2.217739e-002 -2.123099e-001 -1.564027e-001 1.521156e-001 7.394261e-003 -1.178046e-001 9.019230e-002 7.357604e-002
<VARIANCE> 39
 1.099072e+002 2.821448e+001 1.145281e+002 3.788437e+001 2.834889e+001 1.077340e+002 6.256324e+001 5.340117e+001 4.943956e+001 3.353095e+001 2.610394e+001 2.515120e+001 2.087199e+002 2.226611e+000 2.065518e+000 2.486269e+000 2.799021e+000 2.964445e+000 3.599521e+000 3.584896e+000 3.830854e+000 3.774707e+000 2.651272e+000 2.455044e+000 2.625900e+000 1.598718e+000 3.117899e-001 2.571584e-001 3.714615e-001 4.538510e-001 4.651310e-001 4.417508e-001 5.101735e-001 5.966787e-001 5.943995e-001 4.568588e-001 4.153666e-001 3.852065e-001 1.393934e-001
<GCONST> 1.243787e+002
<TRANSP> 5
 0.000000e+000 1.000000e+000 0.000000e+000 0.000000e+000 0.000000e+000
 0.000000e+000 3.681097e-001 6.318903e-001 0.000000e+000 0.000000e+000
 0.000000e+000 0.000000e+000 5.399218e-001 4.600782e-001 0.000000e+000
 0.000000e+000 0.000000e+000 0.000000e+000 5.427863e-001 4.572137e-001
 0.000000e+000 0.000000e+000 0.000000e+000 0.000000e+000 0.000000e+000
<ENDHMM>
~h "j"
<BEGINHMM>
<NUMSTATES> 5
<STATE> 2
<MEAN> 39
 -3.502476e+000 -1.050373e+000 8.101647e+000 -4.114701e+000 -9.293356e+000 -9.211598e+000 -8.331934e+000 -4.642401e+000 -7.655802e+000 1.664018e+000 -5.218764e+000 -6.505520e-001 5.704916e+001 4.216941e-001 -2.997786e-001 1.867059e+000 -7.692405e-001 -2.778076e-001 -1.485308e+000 4.699702e-001 9.576590e-002 -7.338082e-001 -1.122445e-001 -3.070115e-001 4.354413e-001 1.561813e+000 -1.164013e-001 2.088429e-001 -3.685938e-001 8.165105e-002 8.283076e-002 2.897101e-001 2.371745e-001 -1.326522e-001 1.672670e-001 -5.822681e-002 1.092553e-001 -4.170860e-002 -2.305929e-001
<VARIANCE> 39
 1.043684e+002 3.305851e+001 1.422785e+002 4.403844e+001 5.563703e+001 1.047374e+002 7.690767e+001 6.518246e+001 5.516152e+001 4.206118e+001 3.530357e+001 3.255418e+001 1.756247e+002 4.598367e+000 2.713211e+000 5.787769e+000 3.697422e+000 4.063154e+000 6.011568e+000 3.619229e+000 4.918530e+000 3.879159e+000 2.871780e+000 2.662467e+000 2.825954e+000 5.705770e+000 5.172505e-001 4.063253e-001 7.670252e-001 6.227985e-001 7.203689e-001 9.243205e-001 9.165056e-001 7.720137e-001 6.814232e-001 5.212688e-001 5.177076e-001 4.509447e-001 4.604936e-001
<GCONST> 1.372368e+002
<STATE> 3
<MEAN> 39
 1.674351e+000 -3.805945e+000 1.001746e+001 -5.128482e+000 -8.262137e+000 -1.599656e+001 -8.042381e+000 -1.211383e+000 -7.376041e+000 1.259983e+000 -6.901695e+000 2.199381e+000 6.536423e+001 -4.031596e-001 9.276057e-002 5.019848e-001 -4.690649e-001 -4.825480e-001 -2.373764e-001 1.182473e+000 -2.196349e-003 -2.494903e-001 -2.777323e-001 -1.879288e-001 8.427817e-002 1.529448e-001 -2.434176e-002 2.726328e-001 -3.339653e-001 1.291262e-001 1.097048e-001 5.443410e-001 -4.167226e-002 -2.354497e-001 2.002984e-001 1.030538e-001 5.794134e-002 -2.380327e-001 -2.226198e-001
<VARIANCE> 39
 1.713619e+001 3.090170e+001 5.458909e+001 3.668370e+001 4.591320e+001 5.338969e+001 5.719812e+001 8.124763e+001 5.450756e+001 3.619024e+001 5.208774e+001 5.116436e+001 1.846085e+001 8.407037e-001 1.583276e+000 3.325572e+000 1.992411e+000 2.572632e+000 3.447741e+000 3.115530e+000 3.714634e+000 3.574946e+000 2.248524e+000 2.089690e+000 2.035689e+000 5.341663e-001 1.130571e-001 2.064599e-001 3.774599e-001 4.037156e-001 3.293545e-001 5.137579e-001 5.200264e-001 6.276161e-001 4.546496e-001 3.901517e-001 4.375359e-001 4.335394e-001 1.393872e-001
<GCONST> 1.160063e+002
<STATE> 4
<MEAN> 39
 -5.105555e-002 7.297470e-001 1.475203e+001 -7.247041e+000 -1.240685e+001 -1.106237e+001 -4.280230e+000 -6.109636e+000 -1.091284e+001 1.916636e+000 -6.328217e+000 -5.260729e-001 6.379390e+001 -3.453439e-001 8.367101e-001 -2.006429e-001 1.384620e-001 1.503763e-001 5.974946e-001 3.858045e-001 -4.693979e-001 5.486282e-001 -5.453224e-003 -1.782862e-001 -2.017415e-001 -4.615711e-001 -3.973148e-002 1.012384e-001 -4.531467e-001 3.280744e-001 3.420489e-001 8.588852e-002 -1.698429e-001 1.701523e-001 3.157655e-001 -8.786220e-003 1.081792e-001 2.800704e-002 -1.607836e-001
<VARIANCE> 39
 2.265827e+001 3.203574e+001 6.600083e+001 5.069692e+001 5.763473e+001 8.066869e+001 3.825451e+001 7.764976e+001 5.874187e+001 3.356776e+001 4.423071e+001 3.000852e+001 1.969236e+001 1.236857e+000 1.562741e+000 3.111927e+000 2.690809e+000 3.016158e+000 4.172842e+000 2.916338e+000 4.724663e+000 3.576778e+000 2.511738e+000 2.256947e+000 2.244240e+000 7.052003e-001 2.096523e-001 2.159086e-001 3.222322e-001 5.187390e-001 4.210357e-001 8.709080e-001 4.045869e-001 6.253499e-001 5.778071e-001 4.421324e-001 4.098792e-001 4.132854e-001 1.710473e-001
<GCONST> 1.198196e+002
<TRANSP> 5
 0.000000e+000 1.000000e+000 0.000000e+000 0.000000e+000 0.000000e+000
 0.000000e+000 3.603119e-001 6.396881e-001 0.000000e+000 0.000000e+000
 0.000000e+000 0.000000e+000 5.570138e-001 4.429863e-001 0.000000e+000
 0.000000e+000 0.000000e+000 0.000000e+000 4.920561e-001 5.079439e-001
 0.000000e+000 0.000000e+000 0.000000e+000 0.000000e+000 0.000000e+000
<ENDHMM>
~h "k"
<BEGINHMM>
<NUMSTATES> 5
<STATE> 2
<MEAN> 39
 -9.589933e-001 5.886171e+000 -4.186702e+000 9.542465e-001 -3.914706e+000 -9.241841e-001 -6.676995e-001 -2.465539e+000 -5.908094e+000 2.215333e+000 -3.451000e+000 -5.207177e+000 5.022965e+001 -1.364538e+000 -1.591331e+000 -2.036691e+000 1.265244e-002 2.156914e+000 -1.949021e-001 -1.943687e+000 1.174271e-001 5.250200e-002 6.678350e-002 -1.182651e-001 3.265764e-001 3.468673e-001 -4.010060e-001 -1.001867e+000 -1.544176e-001 -4.560365e-001 5.336851e-001 -5.787365e-001 -9.285273e-001 -1.782950e-001 -2.184060e-001 2.477979e-001 5.177841e-002 2.968889e-001 1.267611e+000
<VARIANCE> 39
 5.696874e+001 4.630701e+001 7.202162e+001 4.280831e+001 5.177505e+001 9.526080e+001 5.469388e+001 7.103685e+001 5.469785e+001 4.650276e+001 3.052375e+001 3.849982e+001 2.515106e+001 3.689817e+000 6.911029e+000 5.259361e+000 7.333203e+000 8.525392e+000 8.098877e+000 8.340985e+000 7.573139e+000 6.254802e+000 4.743570e+000 4.211889e+000 3.830157e+000 6.258701e+000 3.947901e-001 6.017588e-001 7.977743e-001 6.659752e-001 9.847942e-001 1.128036e+000 1.180860e+000 8.930246e-001 9.423290e-001 7.804447e-001 6.651552e-001 6.790522e-001 4.922128e-001
<GCONST> 1.420468e+002
<STATE> 3
<MEAN> 39
 -6.475372e+000 -5.089607e+000 -1.170387e+001 -1.183702e+000 6.499406e+000 -4.965849e+000 -1.231036e+001 -2.335579e+000 -8.208146e+000 4.389627e+000 -2.652842e+000 -2.374708e+000 5.926608e+001 -9.540243e-001 -2.043770e+000 -1.374456e+000 -1.149204e+000 7.813501e-001 -8.080031e-001 -1.612100e+000 -2.926812e-001 -1.289569e-001 1.252246e-001 2.787323e-001 7.791346e-001 1.971832e+000 6.276481e-001 9.231810e-001 1.032336e+000 1.298944e-001 -1.151203e+000 2.770056e-001 1.028346e+000 -1.895919e-001 1.099472e-001 -2.554365e-001 4.162529e-002 -8.083128e-002 -5.648150e-001
<VARIANCE> 39
 4.536197e+001 5.182076e+001 9.869543e+001 1.291725e+002 8.132653e+001 1.268774e+002 8.927671e+001 7.561246e+001 7.918457e+001 5.463653e+001 4.558870e+001 5.337463e+001 4.333102e+001 4.254337e+000 5.542821e+000 6.776475e+000 8.636594e+000 8.445230e+000 9.371827e+000 9.272718e+000 7.225403e+000 6.139351e+000 5.039589e+000 4.118251e+000 3.777491e+000 5.853398e+000 5.939276e-001 8.430564e-001 1.065257e+000 1.958603e+000 1.471451e+000 1.320614e+000 1.490894e+000 1.488698e+000 1.119945e+000 8.481567e-001 7.557050e-001 8.516138e-001 8.371545e-001
<GCONST> 1.514752e+002
<STATE> 4
<MEAN> 39
 -7.714978e+000 -4.456977e+000 -9.207314e+000 -2.141963e+000 7.460024e-001 -4.703452e+000 -6.461740e+000 -3.538801e+000 -6.249697e+000 2.248207e+000 -3.099883e+000 -1.267884e+000 5.630821e+001 1.533786e+000 1.378031e+000 1.951258e+000 1.361553e-001 -9.858484e-001 4.143787e-001 5.410979e-001 -3.541774e-001 -1.476740e-001 -2.761158e-001 2.649553e-001 -6.517617e-002 -2.083841e-001 7.288184e-001 5.784529e-001 6.559519e-001 1.697676e-001 -1.932635e-001 -2.401845e-002 -1.008272e-001 8.987569e-002 -8.509992e-002 1.686071e-001 -5.104979e-005 -2.067398e-001 5.921702e-002
<VARIANCE> 39
 4.950231e+001 4.599968e+001 8.893481e+001 7.437248e+001 6.672256e+001 1.050487e+002 7.465649e+001 7.047500e+001 6.321827e+001 4.853039e+001 4.325838e+001 3.799629e+001 5.732741e+001 4.390343e+000 3.205127e+000 5.267239e+000 4.450649e+000 4.329811e+000 4.700786e+000 6.084678e+000 5.088956e+000 4.292232e+000 3.701860e+000 3.119759e+000 3.171422e+000 3.731323e+000 4.898081e-001 7.244083e-001 8.038048e-001 1.098243e+000 8.004321e-001 1.083116e+000 1.243909e+000 8.041630e-001 8.292983e-001 7.461412e-001 6.484933e-001 6.323908e-001 8.599063e-001
<GCONST> 1.409038e+002
<TRANSP> 5
 0.000000e+000 1.000000e+000 0.000000e+000 0.000000e+000 0.000000e+000
 0.000000e+000 6.018524e-001 3.981475e-001 0.000000e+000 0.000000e+000
 0.000000e+000 0.000000e+000 5.556778e-001 4.443222e-001 0.000000e+000
 0.000000e+000 0.000000e+000 0.000000e+000 6.181955e-001 3.818044e-001
 0.000000e+000 0.000000e+000 0.000000e+000 0.000000e+000 0.000000e+000
<ENDHMM>
~h "l"
<BEGINHMM>
<NUMSTATES> 5
<STATE> 2
<MEAN> 39
 4.212284e+000 -6.132176e-001 -1.564788e+000 -3.767164e+000 -6.408055e+000 2.173449e-001 -9.560213e+000 -1.534791e+001 -2.907869e+000 5.511415e+000 -2.805378e+000 -7.510715e-001 6.210019e+001 1.365165e+000 1.223144e-001 1.108496e-001 -9.273247e-001 -8.545087e-001 1.565986e+000 -4.678262e-001 -1.881287e+000 4.851298e-002 7.367768e-001 9.548829e-002 -1.506413e-001 1.206006e-001 -2.816033e-001 -5.087017e-002 1.483496e-001 -4.247368e-001 3.002762e-001 -1.430898e-001 -8.008209e-002 5.024548e-001 4.933994e-002 2.680312e-002 -2.614063e-001 -1.280107e-001 7.440771e-002
<VARIANCE> 39
 3.671679e+001 3.698808e+001 3.891832e+001 7.716199e+001 5.637800e+001 6.262097e+001 7.294659e+001 5.500661e+001 6.337896e+001 5.447441e+001 4.450712e+001 3.971297e+001 1.508542e+001 2.937839e+000 2.602883e+000 3.025573e+000 3.963571e+000 4.023790e+000 5.720524e+000 5.911203e+000 5.639894e+000 4.513945e+000 5.693258e+000 2.841114e+000 3.238834e+000 2.437190e+000 3.608058e-001 5.201342e-001 5.064991e-001 8.860716e-001 8.197114e-001 1.136782e+000 9.337720e-001 9.240767e-001 1.037653e+000 7.408966e-001 6.361651e-001 5.980648e-001 2.764624e-001
<GCONST> 1.340136e+002
<STATE> 3
<MEAN> 39
 7.344896e+000 -1.221263e+000 -1.791524e+000 -7.771610e+000 -1.005753e+001 6.100091e+000 -9.843369e+000 -1.953420e+001 -2.349996e+000 7.445295e+000 -3.014421e+000 -1.116408e+000 6.185938e+001 2.454481e-001 3.954841e-004 3.353106e-001 -1.272216e+000 7.566336e-001 3.782993e-001 -9.661318e-001 4.056628e-001 2.124033e-001 1.380814e-001 -2.051476e-001 -3.138907e-001 1.915535e-001 -4.752122e-001 -8.342283e-002 5.287602e-002 -1.183261e-001 7.811599e-001 -7.657307e-001 -7.101912e-002 1.006171e+000 2.569328e-002 -1.451611e-001 -2.486050e-001 -1.078304e-001 1.531553e-001
<VARIANCE> 39
 1.914583e+001 2.997263e+001 2.582375e+001 6.794305e+001 5.394917e+001 7.075694e+001 6.678706e+001 5.466842e+001 5.128818e+001 5.193670e+001 3.991958e+001 3.527787e+001 1.133004e+001 2.014450e+000 1.868761e+000 2.583063e+000 4.440740e+000 5.020607e+000 5.548808e+000 5.605588e+000 5.105247e+000 4.795570e+000 4.619970e+000 2.735149e+000 2.868263e+000 1.632640e+000 1.965591e-001 3.701224e-001 3.867189e-001 5.837759e-001 8.973030e-001 7.996117e-001 9.621817e-001 8.736948e-001 7.832947e-001 7.475730e-001 6.135267e-001 5.204285e-001 2.343303e-001
<GCONST> 1.278670e+002
<STATE> 4
<MEAN> 39
 4.793108e+000 -2.954220e+000 -1.635005e-001 -1.124949e+001 -1.917848e+000 1.498989e+000 -1.409613e+001 -1.342858e+001 1.894442e-001 8.003512e+000 -5.894208e+000 -3.941980e+000 6.429882e+001 -5.819846e-001 -9.533603e-002 3.550346e-001 -5.886402e-001 1.324437e+000 -1.888814e+000 2.859519e-001 1.935916e+000 1.820151e-001 -3.379776e-001 -1.038518e+000 -4.694825e-002 4.369637e-001 -9.987900e-002 2.362292e-001 -2.624708e-002 4.883095e-001 -4.459403e-001 -2.698173e-001 7.784549e-001 1.072642e-001 -3.867315e-001 -3.189727e-001 7.396393e-002 3.105629e-001 -2.609943e-001
<VARIANCE> 39
 1.669275e+001 2.703060e+001 3.243851e+001 6.401323e+001 5.165804e+001 8.164054e+001 5.391859e+001 6.981525e+001 7.333434e+001 6.582793e+001 5.096557e+001 3.781977e+001 1.646835e+001 1.464880e+000 2.289381e+000 3.256986e+000 4.809171e+000 5.819525e+000 6.126519e+000 4.901266e+000 5.277163e+000 5.719053e+000 4.870387e+000 3.572996e+000 3.358379e+000 1.331400e+000 3.001758e-001 2.662000e-001 3.299608e-001 5.031228e-001 7.660454e-001 9.714683e-001 8.016440e-001 9.005814e-001 7.689930e-001 8.844041e-001 5.999600e-001 5.276073e-001 2.403551e-001
<GCONST> 1.298362e+002
<TRANSP> 5
 0.000000e+000 1.000000e+000 0.000000e+000 0.000000e+000 0.000000e+000
 0.000000e+000 2.805240e-001 7.194760e-001 0.000000e+000 0.000000e+000
 0.000000e+000 0.000000e+000 5.039635e-001 4.960365e-001 0.000000e+000
 0.000000e+000 0.000000e+000 0.000000e+000 4.793839e-001 5.206161e-001
 0.000000e+000 0.000000e+000 0.000000e+000 0.000000e+000 0.000000e+000
<ENDHMM>
~h "m"
<BEGINHMM>
<NUMSTATES> 5
<STATE> 2
<MEAN> 39
 2.643255e+000 3.404785e+000 -1.167863e+000 -1.326909e+000 -4.105892e+000 6.571215e-001 -3.045084e+000 -1.180110e+001 -1.063762e+001 6.166951e+000 -2.541503e+000 -5.146678e+000 5.467472e+001 1.300059e+000 4.480990e-001 4.443192e-001 2.943394e-001 3.440088e-001 2.545090e-001 5.163115e-001 -1.531547e+000 -1.419137e+000 6.847488e-001 -1.684246e-001 -5.034285e-001 6.491768e-001 -3.159699e-001 -1.177507e-001 1.136975e-001 -1.056668e-001 -5.464455e-002 -1.132186e-001 -1.884232e-001 3.260996e-001 2.796347e-001 -1.624496e-001 -1.047225e-001 1.928696e-001 -7.004852e-003
<VARIANCE> 39
 6.427708e+001 3.081911e+001 4.601414e+001 5.345844e+001 5.384197e+001 4.968775e+001 5.017209e+001 6.277657e+001 4.542083e+001 3.804988e+001 3.354818e+001 3.454981e+001 9.256869e+001 5.707108e+000 2.457386e+000 3.866441e+000 3.442340e+000 3.466695e+000 3.187834e+000 4.261757e+000 6.233122e+000 4.803805e+000 3.794613e+000 2.651469e+000 3.007782e+000 7.800152e+000 4.781747e-001 3.927929e-001 4.558041e-001 4.785512e-001 5.663053e-001 4.743547e-001 7.042578e-001 7.961099e-001 7.480940e-001 4.691208e-001 5.040305e-001 5.232140e-001 6.233267e-001
<GCONST> 1.320656e+002
<STATE> 3
<MEAN> 39
 7.144356e+000 3.815233e+000 1.666368e+000 -3.577646e+000 -4.840044e+000 1.120206e+000 -7.738466e-001 -1.564627e+001 -1.485096e+001 8.231155e+000 -5.761036e+000 -7.658177e+000 5.926505e+001 2.169408e-001 4.746301e-001 -8.800641e-002 5.745015e-002 -1.036563e-001 2.860576e-001 2.151359e-001 -5.195522e-001 -5.203459e-001 1.149882e-003 -1.658874e-001 -1.026043e-001 -3.432117e-001 -1.647626e-001 -1.166705e-001 -6.528371e-002 -1.731023e-001 -2.045608e-002 -1.607974e-001 -3.381525e-001 4.627946e-001 4.797051e-001 -1.571091e-001 1.287808e-001 2.743573e-001 5.598678e-002
<VARIANCE> 39
 1.171200e+001 2.197382e+001 2.518689e+001 4.175487e+001 4.828600e+001 4.615827e+001 4.575484e+001 5.998467e+001 4.170778e+001 4.949191e+001 4.747829e+001 3.733456e+001 1.559145e+001 5.276291e-001 1.311422e+000 1.847920e+000 1.871042e+000 2.132237e+000 2.609162e+000 2.856787e+000 3.295722e+000 3.029315e+000 2.522552e+000 2.947838e+000 2.581297e+000 6.339745e-001 9.903709e-002 2.057166e-001 3.269198e-001 3.464745e-001 4.438935e-001 4.640130e-001 4.536461e-001 5.011415e-001 6.614684e-001 5.519933e-001 5.849304e-001 4.585826e-001 8.862215e-002
<GCONST> 1.122303e+002
<STATE> 4
<MEAN> 39
 7.796613e+000 4.937374e+000 -4.601496e-001 -2.550727e+000 -4.349483e+000 1.368785e-001 -3.808244e+000 -1.351153e+001 -1.361965e+001 6.435041e+000 -3.591114e+000 -5.941692e+000 5.794367e+001 -3.459891e-001 -7.244171e-001 3.218455e-002 -5.641870e-001 1.248647e-002 -4.212789e-001 -1.450630e+000 1.363832e+000 2.140012e+000 -5.226691e-001 -2.058816e-001 1.064159e+000 3.420947e-001 -3.771992e-001 -3.681316e-001 2.333289e-001 -2.123005e-001 -2.101122e-002 -3.785809e-002 -1.285677e-001 4.691249e-001 5.621203e-001 -1.769698e-001 -2.149077e-001 1.997037e-001 2.392523e-001
<VARIANCE> 39
 1.875849e+001 3.509202e+001 2.899089e+001 5.372799e+001 5.010521e+001 4.904718e+001 6.146617e+001 5.002413e+001 6.060519e+001 5.063403e+001 3.914288e+001 6.183863e+001 2.801338e+001 1.115281e+000 3.082644e+000 2.909986e+000 3.351127e+000 3.900203e+000 4.959352e+000 3.864190e+000 4.701340e+000 6.356179e+000 3.899297e+000 3.903018e+000 3.401955e+000 1.234793e+000 2.630434e-001 4.299400e-001 4.211041e-001 6.205400e-001 6.760378e-001 8.233430e-001 9.265979e-001 9.810862e-001 1.081407e+000 7.726564e-001 5.852470e-001 7.198794e-001 1.853768e-001
<GCONST> 1.289583e+002
<TRANSP> 5
 0.000000e+000 1.000000e+000 0.000000e+000 0.000000e+000 0.000000e+000
 0.000000e+000 3.966951e-001 6.033049e-001 0.000000e+000 0.000000e+000
 0.000000e+000 0.000000e+000 7.079049e-001 2.920950e-001 0.000000e+000
 0.000000e+000 0.000000e+000 0.000000e+000 4.728578e-001 5.271422e-001
 0.000000e+000 0.000000e+000 0.000000e+000 0.000000e+000 0.000000e+000
<ENDHMM>
~h "n"
<BEGINHMM>
<NUMSTATES> 5
<STATE> 2
<MEAN> 39
 3.719552e+000 2.436099e+000 2.541729e+000 -2.759444e+000 -4.255109e+000 -3.586437e+000 -2.716181e+000 -1.035856e+001 -1.044235e+001 7.476584e+000 -7.858646e+000 -6.883580e+000 5.959095e+001 1.005370e+000 7.669282e-001 5.970997e-001 5.124721e-001 -1.847430e-002 8.223189e-002 1.017958e-001 -2.015644e+000 -1.237582e+000 1.530861e+000 -6.650897e-001 -7.685354e-001 -1.235637e-001 -1.733337e-001 -3.701045e-001 3.107037e-002 -1.281161e-001 7.039486e-002 -1.423417e-001 -6.415337e-001 4.687276e-001 6.384853e-001 -3.437257e-001 1.889402e-001 3.716882e-001 2.816821e-001
<VARIANCE> 39
 2.701828e+001 2.536943e+001 3.418473e+001 3.388121e+001 4.060440e+001 4.737947e+001 3.760498e+001 7.181434e+001 4.553727e+001 5.757463e+001 3.150920e+001 3.297443e+001 3.198458e+001 2.990377e+000 2.079118e+000 3.077290e+000 2.286485e+000 2.735027e+000 3.434914e+000 3.868770e+000 4.395839e+000 4.572495e+000 3.625651e+000 2.783507e+000 2.765536e+000 3.526948e+000 2.063990e-001 3.644029e-001 3.812535e-001 3.511372e-001 4.825486e-001 4.817890e-001 5.699663e-001 7.503322e-001 6.778201e-001 7.685784e-001 5.014318e-001 5.533477e-001 1.966555e-001
<GCONST> 1.235026e+002
<STATE> 3
<MEAN> 39
 5.164986e+000 3.543015e+000 3.571730e+000 -2.329269e+000 -3.464239e+000 -3.040281e+000 -3.443761e+000 -1.388698e+001 -1.256831e+001 1.130622e+001 -8.508370e+000 -8.455344e+000 5.990857e+001 3.935141e-001 -9.703279e-001 4.612371e-001 -3.380864e-002 2.568364e-001 -4.453883e-001 -1.998716e+000 7.127830e-001 1.140520e+000 -3.684638e-001 -9.493870e-002 2.810994e-001 7.008002e-001 -4.170275e-001 -6.310290e-001 -1.648363e-001 -3.686540e-001 5.140810e-002 -7.975043e-002 -5.705447e-001 1.274948e+000 9.370077e-001 -9.215816e-001 2.116412e-001 5.377820e-001 2.503821e-001
<VARIANCE> 39
 1.362358e+001 2.794914e+001 3.374050e+001 3.896291e+001 4.450854e+001 4.091870e+001 4.410393e+001 7.884813e+001 5.669354e+001 5.284484e+001 3.572750e+001 4.109288e+001 1.765793e+001 2.291270e+000 2.778513e+000 2.657351e+000 2.971515e+000 3.404832e+000 3.932249e+000 4.206910e+000 5.847230e+000 5.363307e+000 5.343801e+000 2.729607e+000 3.579888e+000 2.293600e+000 2.945156e-001 3.548093e-001 4.536460e-001 4.772911e-001 5.660267e-001 6.375730e-001 7.909250e-001 8.704082e-001 9.461746e-001 6.840619e-001 6.097863e-001 6.871386e-001 3.286965e-001
<GCONST> 1.272109e+002
<STATE> 4
<MEAN> 39
 5.157606e+000 -1.492110e+000 3.566438e+000 -2.958415e+000 -2.912761e+000 -4.435863e+000 -1.155341e+001 -7.226825e+000 -4.632905e+000 6.012120e+000 -8.575878e+000 -5.125864e+000 6.230536e+001 -1.464259e-001 -1.512237e+000 -8.729094e-002 -9.560187e-001 1.959888e-001 -3.122769e-001 -1.564502e+000 2.479523e+000 1.823474e+000 -1.406293e+000 1.351607e-001 9.508100e-001 9.169879e-001 -2.219121e-001 2.221590e-001 -1.958977e-001 -2.985624e-001 -3.515601e-002 1.520638e-001 8.243704e-001 8.871016e-002 -3.607076e-001 3.524745e-002 6.622480e-002 -9.992351e-005 -1.149825e-001
<VARIANCE> 39
 1.364243e+001 3.351577e+001 4.476767e+001 3.514249e+001 4.753683e+001 4.453580e+001 5.073540e+001 7.501939e+001 8.214598e+001 5.921550e+001 4.620039e+001 5.315966e+001 2.090033e+001 1.785217e+000 3.124161e+000 3.382229e+000 2.944848e+000 4.071517e+000 4.354117e+000 5.152491e+000 6.845920e+000 5.076372e+000 6.019785e+000 3.807605e+000 4.475564e+000 1.245078e+000 2.423332e-001 3.678331e-001 4.380015e-001 4.267252e-001 6.391560e-001 6.741930e-001 8.580506e-001 1.010620e+000 1.086873e+000 8.535211e-001 6.821111e-001 6.460341e-001 2.136163e-001
<GCONST> 1.298140e+002
<TRANSP> 5
 0.000000e+000 1.000000e+000 0.000000e+000 0.000000e+000 0.000000e+000
 0.000000e+000 4.410408e-001 5.589592e-001 0.000000e+000 0.000000e+000
 0.000000e+000 0.000000e+000 4.282764e-001 5.717237e-001 0.000000e+000
 0.000000e+000 0.000000e+000 0.000000e+000 4.285440e-001 5.714560e-001
 0.000000e+000 0.000000e+000 0.000000e+000 0.000000e+000 0.000000e+000
<ENDHMM>
~h "o"
<BEGINHMM>
<NUMSTATES> 5
<STATE> 2
<MEAN> 39
 4.395791e+000 1.202149e+000 -3.795693e+000 -7.595241e+000 -1.676191e+000 1.072863e-002 -1.150124e+001 -1.282765e+001 -5.455236e+000 7.291130e+000 -1.371925e+000 -2.812605e-001 6.165954e+001 2.139211e+000 7.586895e-001 7.025282e-001 -2.202461e+000 -2.847337e-001 9.039591e-001 6.485971e-002 -6.159753e-001 -1.214655e+000 1.347207e+000 5.102397e-001 -3.314527e-001 1.078642e+000 -5.439360e-001 -2.559699e-002 9.542176e-003 4.278788e-001 -3.687884e-003 -9.543381e-002 3.917969e-001 3.364595e-001 2.727219e-002 -2.869642e-001 -1.799814e-001 -1.970543e-001 -4.024138e-001
<VARIANCE> 39
 3.256709e+001 3.244929e+001 3.445576e+001 7.210793e+001 5.735610e+001 7.579829e+001 5.723772e+001 5.673265e+001 6.790753e+001 4.831945e+001 4.684981e+001 4.648645e+001 2.344542e+001 5.308497e+000 4.142769e+000 4.792144e+000 5.573044e+000 5.825623e+000 4.675799e+000 5.856937e+000 6.137467e+000 5.725249e+000 4.647415e+000 3.306133e+000 3.683974e+000 4.070929e+000 5.761770e-001 5.584396e-001 4.639120e-001 1.148195e+000 7.659654e-001 8.419288e-001 9.928491e-001 9.114646e-001 1.004932e+000 7.920964e-001 6.256899e-001 6.038298e-001 6.169896e-001
<GCONST> 1.383180e+002
<STATE> 3
<MEAN> 39
 6.785502e+000 5.867663e-001 -2.277836e+000 -1.141812e+001 -1.113451e+000 1.537704e+000 -1.133927e+001 -1.303469e+001 -8.032645e+000 1.070098e+001 -1.186034e+000 -2.812216e+000 6.335493e+001 3.773896e-001 4.975892e-001 1.523589e-001 9.157640e-002 -4.058263e-002 3.010711e-001 6.613872e-001 2.435697e-001 -4.250146e-001 -1.481595e-001 -1.869837e-002 -4.722465e-001 -3.229249e-001 -5.826063e-001 7.383633e-002 -2.268196e-001 9.099069e-001 -3.587284e-002 -2.838058e-001 3.887638e-001 2.879051e-001 4.018033e-001 -7.361873e-001 -2.046196e-001 1.451358e-001 -4.469530e-001
<VARIANCE> 39
 1.195357e+001 2.940539e+001 2.562818e+001 6.022733e+001 5.390887e+001 5.346913e+001 5.996806e+001 5.913451e+001 8.135186e+001 5.675201e+001 4.549806e+001 4.991380e+001 1.179642e+001 1.825011e+000 2.616741e+000 2.779832e+000 4.424202e+000 3.927005e+000 4.199737e+000 5.047346e+000 3.568531e+000 4.973349e+000 3.882908e+000 2.713770e+000 2.483985e+000 1.428410e+000 3.905850e-001 4.426509e-001 4.781010e-001 6.633219e-001 7.376951e-001 6.249689e-001 8.916347e-001 8.296441e-001 9.693410e-001 7.457183e-001 5.756827e-001 5.508426e-001 2.555977e-001
<GCONST> 1.278304e+002
<STATE> 4
<MEAN> 39
 5.770387e+000 4.314909e+000 -4.839180e+000 -7.632021e+000 -2.805245e+000 3.144232e+000 -6.569647e+000 -1.133822e+001 -5.948696e+000 6.332411e+000 -9.683847e-001 -1.732030e+000 5.832104e+001 -5.496764e-001 8.381722e-001 -5.106260e-001 1.233206e+000 -7.302214e-002 -2.126911e-001 1.099362e+000 8.446454e-001 2.242470e-001 -1.169195e+000 -9.284932e-002 -3.423440e-002 -1.089833e+000 -4.729465e-001 -1.741593e-001 5.470507e-002 2.063161e-001 8.131951e-002 -2.786331e-001 -1.558263e-001 1.236190e-001 2.309646e-001 -1.911214e-001 -1.379222e-001 1.346236e-001 6.433933e-002
<VARIANCE> 39
 3.845505e+001 4.883232e+001 3.411248e+001 5.519741e+001 6.637809e+001 5.591115e+001 6.467562e+001 5.279562e+001 6.091903e+001 4.358008e+001 4.008371e+001 4.104370e+001 4.634055e+001 2.427460e+000 2.592022e+000 2.643475e+000 3.536995e+000 3.242309e+000 4.308927e+000 4.264170e+000 4.210757e+000 4.558156e+000 3.365859e+000 2.833609e+000 2.434948e+000 1.505513e+000 4.210779e-001 4.228471e-001 4.166671e-001 5.760673e-001 5.066405e-001 6.479549e-001 7.706053e-001 6.252317e-001 6.990843e-001 5.613353e-001 4.678240e-001 4.875451e-001 2.360457e-001
<GCONST> 1.280531e+002
<TRANSP> 5
 0.000000e+000 1.000000e+000 0.000000e+000 0.000000e+000 0.000000e+000
 0.000000e+000 3.408561e-001 6.591439e-001 0.000000e+000 0.000000e+000
 0.000000e+000 0.000000e+000 4.564294e-001 5.435705e-001 0.000000e+000
 0.000000e+000 0.000000e+000 0.000000e+000 4.521520e-001 5.478480e-001
 0.000000e+000 0.000000e+000 0.000000e+000 0.000000e+000 0.000000e+000
<ENDHMM>
~h "p"
<BEGINHMM>
<NUMSTATES> 5
<STATE> 2
<MEAN> 39
 -8.746397e-001 8.153840e+000 -7.294711e+000 -1.222960e+000 -5.901762e+000 2.639596e+000 -1.827369e+000 -3.808012e+000 -3.493319e+000 1.058108e+000 -1.505538e+000 -2.256615e+000 4.570927e+001 -1.008946e+000 -4.632671e-001 -1.936091e-001 5.323420e-001 4.193679e-002 -6.843258e-002 -5.303839e-001 -1.228682e-001 4.400975e-001 -3.867152e-001 -2.862490e-001 2.242885e-002 -8.550054e-001 -2.192826e-001 -1.001118e+000 3.850037e-001 8.061610e-002 3.157516e-001 -6.354849e-001 -8.742633e-001 -4.660585e-001 6.845143e-002 1.208593e-001 -3.991164e-002 1.644900e-001 1.082154e+000
<VARIANCE> 39
 7.788695e+001 4.927083e+001 4.703617e+001 4.893428e+001 4.622270e+001 5.484287e+001 4.242800e+001 4.192936e+001 3.694772e+001 4.071855e+001 3.088472e+001 3.338577e+001 3.987897e+001 3.556213e+000 3.781050e+000 2.323326e+000 2.599478e+000 2.805745e+000 4.013210e+000 3.964833e+000 3.974352e+000 3.671046e+000 2.844525e+000 2.222756e+000 2.360516e+000 4.387784e+000 5.881017e-001 6.141840e-001 4.824094e-001 5.405434e-001 5.631069e-001 7.495476e-001 8.017569e-001 8.499370e-001 7.635514e-001 6.434790e-001 5.088847e-001 6.141716e-001 6.554704e-001
<GCONST> 1.300867e+002
<STATE> 3
<MEAN> 39
 -3.807736e+000 5.222409e+000 -5.433276e+000 1.549271e+000 -3.999382e+000 9.991489e-001 -5.258536e+000 -5.579607e+000 -2.874732e+000 1.165249e-001 -3.188271e+000 -1.742138e+000 4.556797e+001 -8.074433e-001 -3.604275e+000 4.626433e-001 4.433441e-001 1.122107e+000 -1.841258e+000 -3.496672e+000 -1.949387e+000 7.717333e-001 2.334467e-001 7.499273e-002 8.516375e-001 3.210572e+000 5.153363e-001 -3.751030e-001 1.839185e-001 -4.063427e-001 1.744412e-001 -8.928354e-002 -1.693450e-001 -2.149605e-001 -2.046555e-001 4.003514e-001 3.063574e-001 1.151320e-001 1.297769e+000
<VARIANCE> 39
 4.745747e+001 4.585085e+001 4.110082e+001 4.063257e+001 4.069311e+001 4.314613e+001 4.652066e+001 3.557172e+001 3.912708e+001 3.208011e+001 3.177511e+001 2.877475e+001 3.558125e+001 1.150851e+001 4.954401e+000 6.245562e+000 7.865141e+000 6.611143e+000 7.222499e+000 6.392435e+000 6.779984e+000 7.391654e+000 5.982475e+000 4.469996e+000 4.990417e+000 6.086813e+000 6.198116e-001 7.023316e-001 6.319972e-001 7.165179e-001 7.389074e-001 7.662703e-001 1.012327e+000 8.733689e-001 8.773410e-001 6.590523e-001 5.365146e-001 5.681509e-001 5.239457e-001
<GCONST> 1.387651e+002
<STATE> 4
<MEAN> 39
 -5.092999e+000 -4.525695e+000 -5.483531e+000 2.139179e+000 -2.684442e-001 -2.943873e+000 -1.251478e+001 -1.046738e+001 -1.424630e+000 1.223887e+000 -7.847475e-001 4.555427e-001 5.568150e+001 1.404583e+000 -1.380133e+000 5.152359e-001 -7.793177e-001 3.116298e-001 -2.918920e-001 -1.002857e+000 -7.360390e-001 -4.609718e-001 7.701224e-001 5.419227e-001 5.368908e-001 3.286882e+000 8.670642e-001 1.166343e+000 2.712500e-001 -5.572287e-001 -5.262784e-001 5.707772e-001 9.457788e-001 5.192676e-001 -4.552703e-001 2.000996e-001 -3.647094e-002 -1.964569e-001 -2.685457e-001
<VARIANCE> 39
 3.133891e+001 3.458286e+001 4.023968e+001 4.315583e+001 6.066809e+001 6.225467e+001 6.239362e+001 5.342122e+001 5.240948e+001 5.426312e+001 4.462715e+001 4.678564e+001 4.250081e+001 1.004478e+001 8.528436e+000 5.572474e+000 7.514058e+000 5.522415e+000 7.082698e+000 7.687178e+000 6.184548e+000 6.702543e+000 5.354692e+000 3.759492e+000 4.180215e+000 7.119592e+000 9.707883e-001 8.986940e-001 8.708335e-001 1.441733e+000 1.172494e+000 1.224135e+000 1.565226e+000 1.262662e+000 1.104768e+000 1.155836e+000 7.912840e-001 9.113576e-001 8.174481e-001
<GCONST> 1.466806e+002
<TRANSP> 5
 0.000000e+000 1.000000e+000 0.000000e+000 0.000000e+000 0.000000e+000
 0.000000e+000 6.263822e-001 3.736177e-001 0.000000e+000 0.000000e+000
 0.000000e+000 0.000000e+000 3.167801e-001 6.832199e-001 0.000000e+000
 0.000000e+000 0.000000e+000 0.000000e+000 5.526296e-001 4.473703e-001
 0.000000e+000 0.000000e+000 0.000000e+000 0.000000e+000 0.000000e+000
<ENDHMM>
~h "r"
<BEGINHMM>
<NUMSTATES> 5
<STATE> 2
<MEAN> 39
 8.228797e-001 -4.326049e+000 -4.345473e-001 3.479426e-001 -3.122665e+000 -7.044045e+000 -1.315719e+001 -5.990232e+000 1.093063e+000 3.488313e+000 -4.566586e+000 -1.247907e+000 6.462656e+001 1.527846e+000 -1.215375e+000 9.123948e-001 1.201269e+000 -1.915492e+000 6.221583e-001 -5.801822e-001 1.145026e-001 9.483619e-001 -5.399938e-001 3.776543e-002 3.770878e-001 5.628032e-001 -4.074362e-002 1.804392e-002 -9.599873e-002 -9.873652e-002 -1.422907e-001 1.296495e-001 2.768640e-001 -6.060358e-002 -3.664543e-001 -6.067178e-002 1.364301e-001 1.651518e-003 -4.540441e-001
<VARIANCE> 39
 2.833816e+001 2.140969e+001 4.897139e+001 4.551542e+001 3.415699e+001 5.877802e+001 4.660641e+001 5.353105e+001 3.230896e+001 3.348499e+001 2.704492e+001 3.593629e+001 3.425456e+001 3.487784e+000 2.594502e+000 3.504686e+000 4.083381e+000 4.397944e+000 4.487544e+000 3.874030e+000 4.393943e+000 3.294094e+000 4.139826e+000 2.923857e+000 3.184771e+000 2.487965e+000 4.806246e-001 5.563877e-001 5.508662e-001 8.215591e-001 6.760828e-001 8.673536e-001 1.012077e+000 8.349304e-001 7.766810e-001 6.939302e-001 4.999342e-001 5.949114e-001 5.566062e-001
<GCONST> 1.298265e+002
<STATE> 3
<MEAN> 39
 3.495196e+000 -7.330730e+000 1.009311e+000 3.193608e+000 -7.919971e+000 -5.406159e+000 -1.304981e+001 -6.774234e+000 3.843377e+000 1.730419e+000 -5.116251e+000 1.014672e+000 6.467644e+001 8.430353e-001 -9.397206e-001 5.710782e-001 1.821868e-001 -1.126913e+000 3.977077e-001 -4.144332e-001 1.358557e-001 -1.100072e-001 -6.182366e-001 3.469872e-001 -1.015133e-001 3.111800e-003 -2.135167e-001 4.136422e-001 -2.035366e-001 -7.130175e-001 7.453197e-001 -1.362016e-001 7.028092e-002 2.171876e-001 -7.656356e-001 2.988913e-001 1.610601e-001 -5.219903e-001 -1.202019e-001
<VARIANCE> 39
 2.496141e+001 1.905033e+001 4.417469e+001 4.597615e+001 2.652633e+001 4.338639e+001 3.939029e+001 5.731031e+001 3.586182e+001 3.119761e+001 2.522124e+001 3.639606e+001 1.463059e+001 2.252068e+000 1.936790e+000 3.141264e+000 3.480179e+000 3.071594e+000 3.209031e+000 4.017376e+000 4.185686e+000 3.009889e+000 3.313565e+000 2.190351e+000 2.631602e+000 1.036670e+000 3.744923e-001 4.450399e-001 4.217171e-001 6.392080e-001 5.585534e-001 7.293177e-001 7.339798e-001 8.468015e-001 7.282020e-001 6.512936e-001 5.354131e-001 5.304121e-001 2.379972e-001
<GCONST> 1.218995e+002
<STATE> 4
<MEAN> 39
 4.776730e+000 -7.921345e+000 1.315391e+000 1.205191e+000 -7.175667e+000 -4.739805e+000 -1.333902e+001 -4.685601e+000 7.575999e-001 1.132055e+000 -2.484952e+000 -2.620500e+000 6.440788e+001 4.454517e-001 5.634253e-001 -2.849985e-002 -7.921576e-001 6.181272e-001 6.320958e-002 1.890583e-001 5.650479e-001 -1.446647e+000 4.351284e-001 2.883144e-001 -1.002208e+000 -4.433900e-001 -3.030736e-001 5.246477e-001 -2.629126e-001 -2.198558e-001 4.798783e-001 -1.968878e-001 4.353154e-001 -1.055102e-002 -2.739012e-001 2.710188e-001 -2.351314e-001 -5.711744e-002 -1.804928e-001
<VARIANCE> 39
 2.378953e+001 2.218142e+001 5.210583e+001 3.717783e+001 2.921154e+001 4.300092e+001 5.546276e+001 6.497409e+001 4.019255e+001 4.797875e+001 2.728209e+001 3.609773e+001 1.848001e+001 2.032290e+000 2.975492e+000 2.577215e+000 3.438000e+000 3.007529e+000 3.760300e+000 4.434953e+000 3.957508e+000 3.964066e+000 3.139329e+000 3.063422e+000 2.992421e+000 1.535890e+000 3.306186e-001 2.860535e-001 3.745513e-001 5.054528e-001 5.666375e-001 5.261909e-001 7.015644e-001 6.951293e-001 6.290466e-001 6.762753e-001 4.499536e-001 5.170199e-001 1.670748e-001
<GCONST> 1.225985e+002
<TRANSP> 5
 0.000000e+000 1.000000e+000 0.000000e+000 0.000000e+000 0.000000e+000
 0.000000e+000 3.553386e-001 6.446614e-001 0.000000e+000 0.000000e+000
 0.000000e+000 0.000000e+000 4.500379e-001 5.499622e-001 0.000000e+000
 0.000000e+000 0.000000e+000 0.000000e+000 4.580373e-001 5.419627e-001
 0.000000e+000 0.000000e+000 0.000000e+000 0.000000e+000 0.000000e+000
<ENDHMM>
~h "s"
<BEGINHMM>
<NUMSTATES> 5
<STATE> 2
<MEAN> 39
 -1.102169e+001 3.292779e+000 -5.745357e-001 1.120776e+000 5.021375e+000 -9.863373e+000 -2.537625e+000 -3.257576e+000 2.994791e-001 3.209597e+000 -3.587418e+000 -9.639653e-001 6.455383e+001 -4.835210e+000 1.161878e+000 -7.828138e-001 1.607943e+000 1.979326e+000 -1.173495e+000 1.333037e+000 1.697080e+000 8.329663e-001 -6.525527e-001 -2.409428e-001 3.493515e-001 1.479924e+000 9.819529e-002 4.298211e-002 -8.264015e-002 -3.135113e-001 -3.961857e-001 3.184508e-001 -3.063337e-001 -1.454346e-001 -4.865396e-001 -1.309120e-002 -9.024684e-002 -1.225931e-001 -2.604207e-001
<VARIANCE> 39
 8.194818e+001 3.728916e+001 5.562387e+001 5.268730e+001 7.486712e+001 6.005712e+001 6.447081e+001 5.576266e+001 4.719298e+001 4.525006e+001 4.096991e+001 3.732991e+001 2.967834e+001 3.666767e+000 4.853457e+000 2.927844e+000 4.199498e+000 4.261653e+000 4.987515e+000 4.599658e+000 5.003233e+000 4.415495e+000 3.873630e+000 3.489937e+000 3.001083e+000 1.994073e+000 1.126093e+000 5.676058e-001 3.583177e-001 6.761909e-001 8.177227e-001 6.353575e-001 8.410503e-001 8.443193e-001 5.909483e-001 7.112225e-001 6.944052e-001 4.935554e-001 3.709419e-001
<GCONST> 1.343404e+002
<STATE> 3
<MEAN> 39
 -2.373208e+001 5.915448e+000 -3.441129e+000 3.302986e+000 7.037868e+000 -1.122777e+001 -3.840573e-001 -6.470981e-001 -5.105953e-001 1.030608e+000 -5.656196e+000 -5.709894e-001 6.621001e+001 -1.043001e+000 -3.585519e-001 -6.051766e-001 -2.543001e-001 -4.092559e-002 7.245295e-002 -3.554575e-001 -2.563586e-001 -2.630590e-001 -2.182934e-001 -8.484624e-002 -1.631264e-002 -7.352114e-001 9.564458e-001 -3.300346e-001 1.404898e-001 -2.833678e-001 -3.806753e-001 1.032563e-001 -2.561154e-001 -3.640412e-001 -6.707965e-002 1.294483e-001 9.429672e-002 -4.365417e-002 -4.557923e-001
<VARIANCE> 39
 1.941985e+001 3.418061e+001 2.836113e+001 2.754959e+001 4.663526e+001 3.900127e+001 4.782079e+001 3.998350e+001 3.738137e+001 3.627453e+001 3.277735e+001 3.179294e+001 9.241077e+000 2.308098e+000 2.671250e+000 1.788610e+000 1.679053e+000 2.418028e+000 2.190208e+000 2.914137e+000 2.962111e+000 2.397618e+000 2.477665e+000 2.166267e+000 1.892152e+000 8.459516e-001 2.634401e-001 4.064648e-001 2.359751e-001 3.236101e-001 3.730949e-001 4.501023e-001 5.550504e-001 6.143153e-001 4.522246e-001 4.084965e-001 4.185238e-001 3.692931e-001 1.776071e-001
<GCONST> 1.130984e+002
<STATE> 4
<MEAN> 39
 -1.930230e+001 2.123363e+000 -4.968636e+000 8.713491e-003 4.009611e+000 -1.015271e+001 -3.091549e+000 -4.224095e+000 -1.702415e+000 1.802235e+000 -4.299886e+000 -8.142945e-001 5.831192e+001 2.414068e+000 3.250662e-001 -2.013713e-001 -4.584033e-001 -8.755961e-001 3.788518e-001 -6.657668e-002 -9.316641e-001 -5.131136e-001 3.374751e-001 2.786652e-001 -6.340622e-002 -1.868034e+000 5.327756e-001 2.916424e-001 1.652332e-001 -2.155580e-002 -4.724854e-002 7.933245e-002 -2.370210e-002 -1.099188e-001 -8.166090e-002 1.313159e-001 3.461220e-002 6.525287e-003 2.509894e-001
<VARIANCE> 39
 3.406527e+001 4.951731e+001 4.127389e+001 3.585172e+001 4.905078e+001 4.725080e+001 5.553162e+001 4.122824e+001 3.814987e+001 3.681753e+001 3.757759e+001 2.887333e+001 3.310120e+001 3.606492e+000 3.626750e+000 2.707487e+000 2.096046e+000 2.480796e+000 2.814822e+000 4.295856e+000 4.000647e+000 2.928007e+000 2.778867e+000 2.714729e+000 2.271779e+000 3.047263e+000 4.568644e-001 7.632746e-001 4.844932e-001 5.060787e-001 4.835679e-001 5.093484e-001 9.132075e-001 7.577406e-001 6.528589e-001 5.786195e-001 5.437846e-001 4.682655e-001 5.243911e-001
<GCONST> 1.265373e+002
<TRANSP> 5
 0.000000e+000 1.000000e+000 0.000000e+000 0.000000e+000 0.000000e+000
 0.000000e+000 6.322929e-001 3.677070e-001 0.000000e+000 0.000000e+000
 0.000000e+000 0.000000e+000 7.788360e-001 2.211641e-001 0.000000e+000
 0.000000e+000 0.000000e+000 0.000000e+000 7.422444e-001 2.577556e-001
 0.000000e+000 0.000000e+000 0.000000e+000 0.000000e+000 0.000000e+000
<ENDHMM>
~h "t"
<BEGINHMM>
<NUMSTATES> 5
<STATE> 2
<MEAN> 39
 -2.578226e+000 8.595260e+000 -4.581284e+000 1.551666e-002 -3.735571e+000 -2.746485e+000 4.497003e-002 -3.208715e+000 -2.671638e+000 1.016227e+000 -2.812404e+000 -1.522589e+000 4.959048e+001 -1.389498e+000 -5.138162e-001 -6.342098e-001 -1.618543e-002 1.929387e-001 2.157507e-001 -4.512769e-001 -3.035834e-001 5.134102e-001 -7.418399e-001 -1.211527e-001 3.466081e-001 -7.535785e-001 -7.523900e-001 -1.130992e+000 3.513793e-001 -2.551877e-001 5.046700e-001 -9.060091e-001 -8.779833e-001 -4.990481e-001 2.871286e-001 2.161592e-002 -2.594943e-001 1.598567e-001 1.421615e+000
<VARIANCE> 39
 7.587238e+001 2.972229e+001 5.837386e+001 4.828767e+001 6.015364e+001 6.931181e+001 5.126388e+001 5.935612e+001 5.459029e+001 4.236744e+001 3.428072e+001 3.539626e+001 3.299388e+001 4.237633e+000 4.005543e+000 3.018039e+000 3.067862e+000 4.979374e+000 5.175225e+000 4.542290e+000 5.421678e+000 4.124102e+000 3.751278e+000 2.828348e+000 3.198211e+000 4.456756e+000 3.671910e-001 4.040510e-001 4.392433e-001 5.020263e-001 6.798521e-001 9.067350e-001 7.868042e-001 7.687782e-001 7.801530e-001 7.505532e-001 6.344374e-001 7.311125e-001 4.020409e-001
<GCONST> 1.333669e+002
<STATE> 3
<MEAN> 39
 -1.166063e+001 2.262288e+000 -7.949942e+000 -6.026253e-001 -2.619223e+000 -2.836108e+000 -3.785059e+000 -4.784440e+000 -1.082970e+000 -6.296400e-001 -3.785036e+000 -1.748414e+000 4.538102e+001 -1.730411e+000 -1.733070e+000 1.581446e-002 -1.928698e-001 4.009947e-001 -1.156767e+000 -1.438319e+000 -7.961183e-001 5.440426e-001 -3.676658e-001 -2.102213e-001 4.961834e-001 1.233701e+000 1.756136e-001 -1.465092e-001 2.147937e-001 -1.918032e-002 -2.094510e-003 -2.597408e-001 -8.338082e-002 5.606140e-002 -7.104140e-002 2.211000e-001 2.339937e-002 -6.278145e-002 5.671774e-001
<VARIANCE> 39
 5.363219e+001 4.077627e+001 4.663142e+001 3.670728e+001 4.224942e+001 6.541412e+001 3.532766e+001 3.485947e+001 4.268661e+001 3.944038e+001 2.818585e+001 3.476287e+001 1.053433e+002 5.741759e+000 6.354290e+000 3.518326e+000 3.803480e+000 4.809057e+000 8.596962e+000 6.950864e+000 5.971354e+000 4.898694e+000 4.162138e+000 3.253704e+000 4.136817e+000 7.474186e+000 4.138912e-001 4.567508e-001 3.666837e-001 4.623149e-001 5.453293e-001 1.018518e+000 6.670338e-001 8.389687e-001 7.212579e-001 6.159821e-001 4.640614e-001 5.834295e-001 8.641516e-001
<GCONST> 1.352181e+002
<STATE> 4
<MEAN> 39
 -1.276708e+001 -2.663923e+000 -4.446075e+000 -1.184453e+000 8.178337e-001 -1.025550e+001 -7.993252e+000 -7.757957e+000 4.430931e-001 -2.462692e-001 -4.372202e+000 8.701339e-001 5.904316e+001 9.866024e-001 -5.741245e-001 6.288285e-001 -1.143194e-001 2.942379e-001 -7.113222e-001 -7.164971e-001 -2.094194e-001 -1.309258e-001 1.045187e+000 8.740664e-002 -3.903200e-001 1.680107e+000 1.268868e+000 8.646521e-001 3.092993e-001 -1.146020e-001 -2.412333e-001 6.398557e-001 3.050302e-001 1.654172e-001 -4.443995e-001 5.064363e-001 2.018444e-001 -2.942312e-001 -3.900255e-001
<VARIANCE> 39
 3.712906e+001 3.796210e+001 4.480179e+001 4.169090e+001 6.608649e+001 5.434453e+001 6.344152e+001 4.803641e+001 4.514883e+001 5.297312e+001 4.093111e+001 4.234366e+001 4.360728e+001 9.095485e+000 6.118819e+000 4.000950e+000 3.996613e+000 4.898290e+000 7.198166e+000 5.645218e+000 4.684218e+000 5.196677e+000 4.655070e+000 3.261016e+000 3.767274e+000 5.939188e+000 7.606707e-001 8.919048e-001 6.591257e-001 9.260598e-001 1.054533e+000 1.092266e+000 1.286397e+000 1.048541e+000 9.009218e-001 9.705754e-001 6.767047e-001 7.836875e-001 7.629639e-001
<GCONST> 1.413066e+002
<TRANSP> 5
 0.000000e+000 1.000000e+000 0.000000e+000 0.000000e+000 0.000000e+000
 0.000000e+000 5.257865e-001 4.742135e-001 0.000000e+000 0.000000e+000
 0.000000e+000 0.000000e+000 5.186039e-001 4.813962e-001 0.000000e+000
 0.000000e+000 0.000000e+000 0.000000e+000 6.881101e-001 3.118900e-001
 0.000000e+000 0.000000e+000 0.000000e+000 0.000000e+000 0.000000e+000
<ENDHMM>
~h "u"
<BEGINHMM>
<NUMSTATES> 5
<STATE> 2
<MEAN> 39
 7.195355e+000 7.281885e+000 -2.605823e+000 -6.090853e+000 -3.731101e+000 3.316987e-001 -9.183146e+000 -1.393474e+001 -1.298142e+001 4.271885e+000 4.682200e-001 -1.978497e+000 5.821524e+001 1.362894e+000 1.259153e+000 6.953529e-001 5.736737e-002 -8.804455e-001 1.541124e-001 5.361385e-001 -6.125066e-001 -6.559633e-001 3.138646e-001 -1.779919e-001 6.091584e-002 -1.050506e-001 -5.528359e-001 -3.634869e-001 -6.204627e-002 3.539107e-001 4.913333e-002 8.497147e-003 2.420510e-001 4.768613e-001 6.878343e-001 -1.434483e-001 -3.493844e-001 -1.660702e-001 -2.191308e-001
<VARIANCE> 39
 1.939372e+001 3.543324e+001 4.444503e+001 6.597864e+001 7.194071e+001 6.470382e+001 1.098798e+002 6.414319e+001 6.432714e+001 8.526279e+001 5.403978e+001 4.968772e+001 1.475198e+001 3.139485e+000 5.222005e+000 4.481521e+000 5.788888e+000 3.783985e+000 4.445729e+000 6.796295e+000 6.853492e+000 7.492214e+000 5.762473e+000 3.990269e+000 3.492558e+000 2.179157e+000 3.823409e-001 5.160975e-001 5.584969e-001 1.014383e+000 7.051536e-001 7.808811e-001 1.145794e+000 1.209565e+000 1.080775e+000 8.383781e-001 6.492984e-001 7.106948e-001 2.310044e-001
<GCONST> 1.377928e+002
<STATE> 3
<MEAN> 39
 9.803522e+000 1.128095e+001 -3.894683e+000 -7.145540e+000 -9.218379e+000 2.996311e+000 -4.604239e+000 -1.042003e+001 -1.098651e+001 4.864023e-001 -2.399495e+000 -2.560995e+000 5.517103e+001 -2.395241e-001 2.514574e-001 -1.296786e-002 1.011648e+000 1.326278e-001 1.896496e-001 3.733399e-001 5.053715e-001 7.815592e-001 -3.709581e-001 -3.439257e-001 -8.640809e-003 -6.970914e-001 -4.739182e-001 -4.164690e-001 2.838282e-002 1.842934e-001 4.041842e-001 -6.408699e-002 -1.384811e-001 1.252687e-001 2.685863e-001 1.385214e-001 7.688348e-002 3.996100e-002 7.329325e-002
<VARIANCE> 39
 1.321744e+001 3.842882e+001 3.567129e+001 4.826598e+001 6.660065e+001 4.575902e+001 7.307919e+001 5.191298e+001 5.371479e+001 6.362846e+001 4.600549e+001 5.200482e+001 1.614487e+001 9.267856e-001 2.501243e+000 2.079375e+000 3.027336e+000 4.110048e+000 3.663814e+000 4.540260e+000 4.085420e+000 3.836288e+000 3.633703e+000 2.947413e+000 2.806465e+000 1.264510e+000 2.467640e-001 3.768386e-001 3.658243e-001 4.393305e-001 6.021933e-001 7.082716e-001 7.367283e-001 7.022933e-001 8.036049e-001 8.161659e-001 6.179567e-001 5.257504e-001 1.594941e-001
<GCONST> 1.245192e+002
<STATE> 4
<MEAN> 39
 -2.783836e+000 7.399844e+000 -4.679157e+000 6.306989e-001 -6.111179e+000 4.393709e+000 -3.982239e+000 -6.478651e+000 -5.178874e+000 7.591833e-001 -2.090674e+000 -2.994760e+000 4.467945e+001 -1.485060e+000 -5.474299e-001 -9.692842e-002 6.844738e-001 3.308163e-001 -1.939740e-001 -1.101634e-001 6.023801e-001 6.173252e-001 -1.889434e-001 1.019647e-001 -2.084266e-002 -9.270461e-001 -2.282628e-001 -1.987470e-001 5.965985e-002 -1.215411e-001 -5.339181e-002 -1.540463e-001 -5.978767e-002 -5.946987e-002 4.431088e-002 -2.093246e-002 -5.028648e-002 3.686393e-002 1.764518e-001
<VARIANCE> 39
 1.410909e+002 3.614161e+001 4.257330e+001 3.181148e+001 4.609028e+001 3.828215e+001 6.895462e+001 5.479069e+001 4.280088e+001 4.817933e+001 3.414173e+001 2.937942e+001 1.499846e+002 1.147569e+000 2.110973e+000 2.123303e+000 2.678856e+000 3.687546e+000 2.953121e+000 3.751540e+000 3.902009e+000 3.913704e+000 3.403823e+000 2.951975e+000 2.383089e+000 1.773093e+000 3.402497e-001 4.103106e-001 3.465362e-001 3.707289e-001 6.408291e-001 4.357177e-001 7.541073e-001 6.141320e-001 5.873168e-001 6.854489e-001 4.644312e-001 4.722928e-001 1.859044e-001
<GCONST> 1.253221e+002
<TRANSP> 5
 0.000000e+000 1.000000e+000 0.000000e+000 0.000000e+000 0.000000e+000
 0.000000e+000 4.348522e-001 5.651479e-001 0.000000e+000 0.000000e+000
 0.000000e+000 0.000000e+000 6.307393e-001 3.692606e-001 0.000000e+000
 0.000000e+000 0.000000e+000 0.000000e+000 5.874128e-001 4.125872e-001
 0.000000e+000 0.000000e+000 0.000000e+000 0.000000e+000 0.000000e+000
<ENDHMM>
~h "v"
<BEGINHMM>
<NUMSTATES> 5
<STATE> 2
<MEAN> 39
 3.521515e+000 3.390866e+000 -4.000939e+000 -2.772708e-001 -4.198547e+000 -3.288170e+000 -8.638761e+000 -9.778782e+000 -6.500874e+000 3.561433e+000 -2.097462e+000 -1.321344e+000 5.647775e+001 6.410890e-001 5.781412e-001 -4.278330e-001 3.066206e-001 -4.049018e-003 1.616915e-001 -4.223453e-001 -5.013791e-001 -3.231365e-001 -4.435489e-001 3.320492e-001 3.303449e-001 -4.039189e-001 -1.328782e-002 -2.733621e-001 4.536762e-001 -4.476730e-001 -1.964551e-002 -1.724785e-001 -2.203177e-001 2.066718e-002 4.567982e-002 3.266778e-001 -2.200491e-001 -5.026486e-002 5.039032e-001
<VARIANCE> 39
 5.736823e+001 3.067302e+001 5.479754e+001 6.856818e+001 4.821329e+001 5.305946e+001 3.716933e+001 3.502662e+001 5.100307e+001 3.920222e+001 4.303773e+001 3.797656e+001 3.428122e+001 3.099017e+000 2.299450e+000 3.776997e+000 3.470146e+000 3.620192e+000 3.958517e+000 3.141069e+000 3.514191e+000 3.766030e+000 2.782527e+000 3.063154e+000 2.852372e+000 2.513288e+000 2.982344e-001 3.338234e-001 4.701249e-001 4.539563e-001 5.821172e-001 7.267532e-001 5.036367e-001 6.020346e-001 6.326997e-001 5.955436e-001 5.362536e-001 5.245182e-001 2.473917e-001
<GCONST> 1.264273e+002
<STATE> 3
<MEAN> 39
 6.085942e+000 4.859547e+000 -4.936285e+000 -2.798358e+000 -4.876840e+000 -2.721702e+000 -9.754932e+000 -1.078497e+001 -7.807218e+000 2.740359e+000 -1.433729e+000 -3.646509e-001 5.667752e+001 5.125653e-001 -5.659727e-001 5.107081e-001 -7.775294e-001 2.017714e-001 -1.668304e-001 -8.979543e-001 -1.325878e-001 -9.710116e-002 1.021977e+000 -1.102129e-001 -1.227174e-001 9.222416e-001 -2.380899e-001 -5.949047e-001 6.385156e-001 -4.044277e-001 8.028322e-002 -1.407000e-001 -6.434712e-003 1.886584e-001 1.304271e-001 5.719984e-001 -3.689200e-001 -2.788436e-001 5.895268e-001
<VARIANCE> 39
 3.542295e+001 3.367991e+001 5.505885e+001 7.833238e+001 4.982554e+001 6.235947e+001 4.563847e+001 3.329580e+001 5.735077e+001 4.413519e+001 4.198043e+001 3.944699e+001 2.045024e+001 3.436859e+000 2.855961e+000 4.570064e+000 4.963427e+000 4.624063e+000 5.984199e+000 4.173355e+000 3.762137e+000 4.748621e+000 4.069269e+000 3.804129e+000 3.256219e+000 2.819990e+000 2.397945e-001 3.730552e-001 6.093793e-001 7.626706e-001 6.052440e-001 7.929605e-001 7.033833e-001 8.539627e-001 8.499040e-001 6.060601e-001 5.592179e-001 6.278267e-001 2.017004e-001
<GCONST> 1.310243e+002
<STATE> 4
<MEAN> 39
 6.051229e+000 1.741327e+000 -3.074692e+000 -3.826254e+000 -3.548033e+000 -3.564644e+000 -1.277931e+001 -1.064182e+001 -6.762084e+000 7.368065e+000 -2.239153e+000 -2.538038e+000 5.983556e+001 5.215875e-002 -1.377442e+000 1.581359e+000 -9.743137e-001 -2.052485e-002 -6.261482e-001 -1.754213e-001 3.723283e-001 3.476625e-001 1.134067e+000 -1.041838e+000 -3.869438e-001 1.495232e+000 -2.736330e-001 -1.634390e-001 3.882703e-001 -1.835404e-001 -1.850228e-001 -1.286728e-002 5.771747e-001 1.827341e-001 -7.134446e-003 -2.567650e-001 -2.196201e-001 2.642412e-002 4.842569e-002
<VARIANCE> 39
 2.584962e+001 3.118619e+001 6.220708e+001 7.870298e+001 5.626807e+001 8.309791e+001 5.719500e+001 5.219780e+001 6.780192e+001 6.511407e+001 5.105917e+001 4.307133e+001 1.706145e+001 2.308485e+000 3.104004e+000 5.516903e+000 6.157854e+000 4.725935e+000 7.084760e+000 5.048100e+000 5.767522e+000 5.621501e+000 4.206292e+000 3.121235e+000 3.466419e+000 2.145427e+000 3.586217e-001 3.898133e-001 4.941500e-001 9.220947e-001 8.676643e-001 8.447459e-001 7.606568e-001 7.647842e-001 8.123491e-001 7.725694e-001 6.638478e-001 6.396790e-001 2.492964e-001
<GCONST> 1.346102e+002
<TRANSP> 5
 0.000000e+000 1.000000e+000 0.000000e+000 0.000000e+000 0.000000e+000
 0.000000e+000 3.978330e-001 6.021670e-001 0.000000e+000 0.000000e+000
 0.000000e+000 0.000000e+000 3.101014e-001 6.898985e-001 0.000000e+000
 0.000000e+000 0.000000e+000 0.000000e+000 3.186039e-001 6.813961e-001
 0.000000e+000 0.000000e+000 0.000000e+000 0.000000e+000 0.000000e+000
<ENDHMM>
~h "x"
<BEGINHMM>
<NUMSTATES> 5
<STATE> 2
<MEAN> 39
 -1.101860e+001 2.408377e+000 1.333111e+001 2.809009e+000 -2.292598e+000 -6.367513e+000 -2.339911e+000 -7.562040e+000 -4.307828e+000 3.656550e+000 -8.681103e+000 1.971021e+000 6.206581e+001 -1.987064e+000 -2.844440e+000 -2.157253e+000 3.224751e+000 2.276386e+000 -1.350156e+000 -1.120261e+000 1.179116e+000 4.060477e-001 1.577484e-001 2.386015e-002 5.705054e-002 7.068732e-001 6.358643e-001 -2.320853e-001 -4.417790e-001 -4.897183e-001 -2.473754e-001 1.027340e-001 -4.180655e-001 -1.695702e-001 -5.445162e-001 -9.549144e-002 4.315822e-001 -3.818451e-001 -1.548926e-001
<VARIANCE> 39
 5.035634e+001 5.889322e+001 9.695107e+001 6.752058e+001 4.818303e+001 9.577386e+001 6.014123e+001 9.780453e+001 3.749815e+001 4.915849e+001 4.124303e+001 3.934307e+001 1.431934e+001 2.549254e+000 5.253347e+000 3.803453e+000 6.019352e+000 4.839268e+000 5.843832e+000 5.218930e+000 4.699295e+000 4.253685e+000 4.424350e+000 3.644440e+000 3.520896e+000 1.250486e+000 4.609430e-001 7.789854e-001 3.884256e-001 9.293807e-001 5.674199e-001 1.071545e+000 1.329687e+000 9.725766e-001 6.717949e-001 6.521234e-001 6.892314e-001 6.410101e-001 2.415487e-001
<GCONST> 1.357794e+002
<STATE> 3
<MEAN> 39
 -1.130301e+001 -9.156528e+000 5.416691e-001 7.362792e+000 5.454756e+000 -8.804717e+000 -9.361673e+000 -4.935310e+000 -4.514077e+000 5.354518e+000 -5.284086e+000 -1.569903e-001 6.228222e+001 2.956203e-001 -1.044295e+000 -2.202204e+000 -3.527578e-001 4.444953e-001 8.278755e-003 -1.128879e+000 -3.595649e-001 -2.192207e-001 -1.937455e-001 6.858475e-001 -4.901467e-001 -6.346604e-001 4.454806e-001 7.374672e-001 3.282596e-001 -5.788255e-001 -5.986363e-001 4.221184e-001 4.712865e-001 -2.770622e-001 -2.038820e-001 -1.521640e-001 -1.459647e-002 -7.732824e-002 -3.967281e-001
<VARIANCE> 39
 4.251525e+001 5.035768e+001 8.532796e+001 5.603652e+001 8.398258e+001 9.549535e+001 7.453871e+001 8.402695e+001 3.488101e+001 5.780608e+001 4.120339e+001 3.588794e+001 2.424597e+001 2.167663e+000 2.632971e+000 3.188619e+000 2.830810e+000 4.469653e+000 5.245015e+000 6.385168e+000 5.055859e+000 4.075545e+000 2.642103e+000 2.970567e+000 2.895495e+000 1.557667e+000 2.574627e-001 5.624275e-001 2.821917e-001 7.767522e-001 8.087409e-001 8.118955e-001 1.021098e+000 9.097121e-001 8.243940e-001 6.684049e-001 5.612246e-001 6.259767e-001 2.147565e-001
<GCONST> 1.320648e+002
<STATE> 4
<MEAN> 39
 -8.941436e+000 -5.600294e+000 -7.297269e+000 2.114081e+000 8.608171e-001 -1.470840e+000 -7.116799e+000 -5.430418e+000 -7.154975e+000 8.942401e-001 -2.401211e+000 -2.259520e+000 5.121939e+001 6.919375e-001 1.597660e+000 -2.965159e-001 -2.456920e-001 -8.676098e-001 8.467706e-001 7.958629e-001 -2.681145e-001 -8.400805e-002 -4.573393e-001 1.364017e-001 -5.810978e-002 -1.647497e+000 1.769547e-001 3.746873e-001 4.875275e-001 -9.067681e-002 -1.258296e-001 -1.425661e-002 -1.335797e-001 -8.366573e-002 1.981009e-001 2.254790e-001 -8.598171e-002 9.959999e-002 3.015890e-001
<VARIANCE> 39
 4.951166e+001 5.390776e+001 1.062658e+002 7.467725e+001 6.682843e+001 9.011401e+001 6.659476e+001 4.986226e+001 4.334250e+001 4.585299e+001 3.758128e+001 3.015329e+001 1.244264e+002 2.940339e+000 2.863142e+000 4.085076e+000 2.502813e+000 2.618095e+000 3.685456e+000 2.692655e+000 4.540306e+000 3.322897e+000 2.992885e+000 3.020841e+000 2.946122e+000 2.291011e+000 3.829125e-001 4.686354e-001 5.068780e-001 5.296118e-001 4.963350e-001 7.070683e-001 6.881028e-001 7.555637e-001 7.467573e-001 5.270041e-001 6.460013e-001 6.414769e-001 4.256805e-001
<GCONST> 1.319439e+002
<TRANSP> 5
 0.000000e+000 1.000000e+000 0.000000e+000 0.000000e+000 0.000000e+000
 0.000000e+000 5.757719e-001 4.242281e-001 0.000000e+000 0.000000e+000
 0.000000e+000 0.000000e+000 6.888942e-001 3.111058e-001 0.000000e+000
 0.000000e+000 0.000000e+000 0.000000e+000 7.014418e-001 2.985582e-001
 0.000000e+000 0.000000e+000 0.000000e+000 0.000000e+000 0.000000e+000
<ENDHMM>
~h "z"
<BEGINHMM>
<NUMSTATES> 5
<STATE> 2
<MEAN> 39
 -5.878130e+000 8.807523e+000 -2.372234e+000 -1.633074e+000 3.130885e+000 -1.457843e+001 -7.258501e+000 -7.510411e+000 -4.115136e+000 2.365984e+000 -3.263700e+000 -2.920304e+000 6.257809e+001 -2.674993e+000 2.213215e+000 -7.568464e-001 8.338149e-001 7.161900e-001 -1.550586e+000 8.357841e-001 1.685714e-001 6.228318e-001 -5.351691e-001 -2.843805e-001 1.110794e+000 1.064636e+000 4.295381e-002 -3.505833e-001 2.714865e-001 -8.356315e-002 -4.225046e-001 5.344269e-001 -8.754756e-002 1.486740e-001 4.711160e-002 1.609503e-001 -1.430351e-001 1.788900e-001 -2.086911e-001
<VARIANCE> 39
 4.064285e+001 4.672626e+001 5.530844e+001 8.798431e+001 7.147349e+001 6.651416e+001 5.700097e+001 5.558376e+001 4.995856e+001 4.245909e+001 5.000662e+001 5.238310e+001 5.038708e+001 7.853128e+000 3.761578e+000 4.653674e+000 2.501132e+000 3.398412e+000 5.474344e+000 4.056288e+000 6.584127e+000 5.082083e+000 3.105945e+000 2.989756e+000 2.877626e+000 4.660955e+000 8.961852e-001 7.999701e-001 7.937746e-001 6.244679e-001 5.335684e-001 9.692765e-001 1.020820e+000 9.495271e-001 7.631720e-001 5.422977e-001 6.913075e-001 6.947581e-001 3.035980e-001
<GCONST> 1.376604e+002
<STATE> 3
<MEAN> 39
 -1.345426e+001 1.238662e+001 -1.255569e+000 1.212528e+000 1.989197e+000 -1.718598e+001 -4.424135e+000 -4.162635e+000 -2.719238e+000 2.718239e-001 -6.203841e+000 7.854222e-001 6.453091e+001 -3.374613e-001 -1.611744e-001 5.710449e-001 6.570041e-001 -1.520521e-001 2.354129e-001 -5.002425e-001 -2.368921e-001 4.296310e-001 -1.304812e-001 2.603652e-002 4.718912e-001 -1.568811e-001 1.221036e+000 -6.657563e-001 3.856103e-001 -2.562028e-001 -2.219502e-001 2.433797e-001 -5.285220e-001 -4.664668e-001 -1.905993e-001 3.098015e-001 2.537689e-001 -3.658164e-001 -5.582507e-002
<VARIANCE> 39
 2.508890e+001 2.193873e+001 4.339269e+001 4.907481e+001 6.041006e+001 6.625975e+001 5.041201e+001 5.588877e+001 3.461567e+001 4.976688e+001 3.103479e+001 3.876235e+001 7.307125e+000 4.399050e+000 2.283360e+000 2.975132e+000 2.173255e+000 3.160816e+000 4.204243e+000 4.126714e+000 5.047174e+000 4.060364e+000 2.816853e+000 2.460099e+000 2.889805e+000 5.887657e-001 3.590677e-001 3.854642e-001 5.193926e-001 4.472167e-001 5.498223e-001 9.276418e-001 7.162611e-001 1.120972e+000 7.575921e-001 6.338748e-001 4.325813e-001 5.745872e-001 1.033375e-001
<GCONST> 1.233628e+002
<STATE> 4
<MEAN> 39
 -6.305674e+000 8.226907e+000 1.533830e+000 2.077181e+000 3.205967e-001 -1.624966e+001 -1.072984e+001 -9.904276e+000 -1.928379e+000 2.499322e+000 -3.366808e+000 4.002664e-001 6.416595e+001 2.778204e+000 -1.407241e+000 -8.573011e-002 -1.123646e+000 -5.100797e-001 6.081097e-001 -1.297737e+000 -7.643306e-001 -3.927231e-002 1.237678e+000 5.648245e-001 -1.050199e+000 2.047879e-002 1.055510e-001 -5.206871e-002 -3.068112e-001 -5.904483e-001 1.652470e-001 3.596393e-001 4.422711e-001 3.630149e-001 -2.146792e-001 1.505440e-001 -2.089830e-001 -3.517725e-001 -2.214775e-002
<VARIANCE> 39
 2.740848e+001 2.705313e+001 3.684319e+001 3.867960e+001 4.775394e+001 5.406083e+001 3.968290e+001 4.469146e+001 4.177411e+001 3.474056e+001 2.918309e+001 2.843949e+001 1.219649e+001 1.751080e+000 2.399460e+000 3.324853e+000 3.455847e+000 3.420413e+000 4.201377e+000 4.984805e+000 6.585992e+000 3.503043e+000 3.521000e+000 2.874409e+000 3.104665e+000 1.085735e+000 4.596075e-001 2.877958e-001 4.233056e-001 4.226578e-001 4.885082e-001 7.098016e-001 7.906259e-001 8.310964e-001 5.736803e-001 5.191531e-001 4.693885e-001 5.306161e-001 9.980296e-002
<GCONST> 1.220756e+002
<TRANSP> 5
 0.000000e+000 1.000000e+000 0.000000e+000 0.000000e+000 0.000000e+000
 0.000000e+000 5.362232e-001 4.637767e-001 0.000000e+000 0.000000e+000
 0.000000e+000 0.000000e+000 7.003712e-001 2.996288e-001 0.000000e+000
 0.000000e+000 0.000000e+000 0.000000e+000 5.899628e-001 4.100372e-001
 0.000000e+000 0.000000e+000 0.000000e+000 0.000000e+000 0.000000e+000
<ENDHMM>
~h "aa"
<BEGINHMM>
<NUMSTATES> 5
<STATE> 2
<MEAN> 39
 5.518925e+000 -6.330839e+000 -6.066538e+000 -8.364143e+000 2.157111e+000 -2.116119e+000 -7.187782e+000 -4.591137e+000 -2.660695e+000 7.640658e+000 -6.105822e+000 -6.678125e+000 6.672321e+001 4.559502e-001 -9.911473e-001 -8.593396e-001 -1.554596e+000 8.579074e-001 7.691042e-001 1.103298e+000 1.992317e-001 -1.387052e-001 2.371232e-001 -7.583103e-001 -6.071475e-001 5.598606e-001 -3.477477e-001 2.003158e-001 1.602085e-001 2.705164e-001 -1.955821e-001 -1.283139e-001 5.378057e-002 -3.121036e-001 -1.542098e-001 -2.793157e-001 4.372490e-002 2.193521e-001 -3.420275e-001
<VARIANCE> 39
 1.379173e+001 1.998994e+001 2.641816e+001 3.498251e+001 3.912565e+001 6.317550e+001 4.155110e+001 6.795387e+001 3.640556e+001 3.821318e+001 4.653794e+001 3.924327e+001 8.961845e+000 1.746226e+000 1.516287e+000 2.098592e+000 2.840271e+000 2.376209e+000 2.598579e+000 3.092927e+000 3.428193e+000 2.949064e+000 2.835896e+000 2.859828e+000 2.622903e+000 9.228182e-001 2.633753e-001 2.726453e-001 2.817762e-001 3.925007e-001 3.889934e-001 4.211154e-001 6.095994e-001 6.902677e-001 5.162532e-001 5.801619e-001 5.972229e-001 4.524770e-001 1.499642e-001
<GCONST> 1.159021e+002
<STATE> 3
<MEAN> 39
 4.794047e+000 -8.488552e+000 -7.371059e+000 -1.335236e+001 4.164248e+000 -8.576306e-001 -3.787208e+000 -7.604341e+000 -3.347896e+000 7.483534e+000 -9.175704e+000 -6.966204e+000 6.741773e+001 6.976222e-002 2.386322e-001 1.331328e-001 -1.518093e-001 -3.631956e-001 2.875528e-002 2.753395e-001 4.304202e-002 2.355673e-001 -4.772009e-002 -1.473555e-001 9.085584e-002 -2.470318e-001 2.200398e-002 2.871600e-001 1.064638e-001 2.578204e-001 -2.725052e-001 -4.974563e-003 -6.134585e-002 5.311715e-002 5.828818e-002 -1.654611e-002 1.920001e-001 9.323736e-002 -1.735297e-001
<VARIANCE> 39
 8.703857e+000 1.432564e+001 1.225604e+001 3.408176e+001 2.670597e+001 5.013817e+001 4.067288e+001 4.993346e+001 3.715231e+001 3.570704e+001 3.110339e+001 3.431662e+001 6.809626e+000 3.742536e-001 9.628661e-001 1.026662e+000 1.461849e+000 2.043819e+000 2.083546e+000 2.732469e+000 3.140493e+000 1.871194e+000 1.796018e+000 1.758820e+000 2.148854e+000 3.463117e-001 7.065148e-002 1.104813e-001 1.837342e-001 2.475851e-001 3.114654e-001 3.443058e-001 4.127515e-001 4.252434e-001 4.047382e-001 3.264510e-001 3.213398e-001 3.775145e-001 6.099309e-002
<GCONST> 9.905426e+001
<STATE> 4
<MEAN> 39
 2.374795e+000 -1.275671e+000 -9.344349e+000 -8.456095e+000 -1.622706e+000 3.640315e+000 -1.611454e-001 -5.160404e+000 -6.992407e-001 5.318369e+000 -5.774474e+000 -6.527011e+000 5.597481e+001 -3.807882e-001 1.128318e+000 -2.163824e-001 8.781768e-001 -8.645713e-001 4.252848e-001 3.389658e-001 5.346105e-001 -1.103667e-002 -5.483961e-001 4.676542e-001 -2.872324e-002 -1.523284e+000 -2.075862e-001 3.748201e-003 2.525783e-002 1.259259e-001 1.469569e-001 -5.095289e-002 -1.252057e-001 4.058439e-002 -3.748854e-002 -1.423082e-001 -6.135442e-002 -9.436242e-003 -3.618136e-004
<VARIANCE> 39
 8.264890e+001 2.387446e+001 2.953912e+001 5.373064e+001 4.772624e+001 6.973417e+001 6.067402e+001 7.320305e+001 5.004514e+001 4.222382e+001 3.598897e+001 3.330467e+001 1.396866e+002 1.088043e+000 1.210003e+000 1.778094e+000 1.692335e+000 2.614971e+000 3.203705e+000 3.174593e+000 3.784338e+000 3.440896e+000 2.454172e+000 2.102969e+000 2.369183e+000 8.211423e-001 1.921554e-001 1.748664e-001 2.417275e-001 3.283291e-001 4.298655e-001 5.795951e-001 6.226609e-001 7.034804e-001 5.945295e-001 4.851257e-001 4.172975e-001 4.737617e-001 1.258804e-001
<GCONST> 1.192793e+002
<TRANSP> 5
 0.000000e+000 1.000000e+000 0.000000e+000 0.000000e+000 0.000000e+000
 0.000000e+000 6.824142e-001 3.175859e-001 0.000000e+000 0.000000e+000
 0.000000e+000 0.000000e+000 8.392778e-001 1.607222e-001 0.000000e+000
 0.000000e+000 0.000000e+000 0.000000e+000 7.141532e-001 2.858469e-001
 0.000000e+000 0.000000e+000 0.000000e+000 0.000000e+000 0.000000e+000
<ENDHMM>
~h "ch"
<BEGINHMM>
<NUMSTATES> 5
<STATE> 2
<MEAN> 39
 -5.744208e+000 4.032799e+000 7.619521e+000 -3.832052e+000 -5.262636e+000 3.262058e+000 -7.897266e+000 -5.990696e+000 -3.141562e-001 -9.693422e-001 -3.567311e+000 -1.077105e-001 5.607576e+001 -3.871667e+000 -1.266993e+000 1.397290e+000 1.113747e-001 -5.219450e-001 8.869151e-001 -1.445370e-001 -2.830620e-001 1.940151e+000 -5.267708e-001 -4.777407e-001 8.430346e-002 1.124223e+000 -7.879005e-001 -7.057248e-001 1.277441e-001 3.360466e-001 -1.322471e-001 -7.906343e-001 -4.689164e-002 -3.116228e-001 -2.020826e-001 2.718139e-001 -5.377377e-002 -1.836726e-001 9.408629e-001
<VARIANCE> 39
 7.082893e+001 4.372134e+001 6.024313e+001 6.522653e+001 5.844637e+001 7.826475e+001 4.597193e+001 7.308759e+001 6.682021e+001 3.976823e+001 3.446000e+001 3.378014e+001 2.613918e+001 5.177842e+000 5.005131e+000 3.702240e+000 4.780125e+000 5.010015e+000 5.561983e+000 5.922751e+000 5.662044e+000 5.523290e+000 4.346548e+000 4.406775e+000 4.405928e+000 5.169483e+000 6.610721e-001 7.382957e-001 6.259215e-001 8.283910e-001 9.148797e-001 1.041853e+000 1.184883e+000 1.080115e+000 1.089641e+000 9.552261e-001 7.494786e-001 7.992198e-001 5.259758e-001
<GCONST> 1.412128e+002
<STATE> 3
<MEAN> 39
 -2.368536e+001 -4.157692e+000 1.240309e+001 4.035294e-001 -7.776569e+000 -1.183076e+000 -7.194038e+000 -8.740213e+000 2.681663e+000 3.152153e-001 -4.856776e+000 -8.435761e-001 6.624710e+001 -2.485845e+000 -1.888265e+000 -4.138913e-001 1.607810e+000 -4.936438e-001 -2.224097e+000 3.446458e-001 -4.703590e-001 -4.142131e-001 7.768804e-001 7.585498e-002 -1.434375e-001 1.550570e+000 1.573493e+000 4.613233e-001 -7.054559e-001 -1.727455e-001 3.047366e-001 -1.245469e-001 -8.675423e-003 1.906986e-001 -5.716458e-001 -3.428266e-002 1.270371e-001 9.328249e-003 -9.067675e-001
<VARIANCE> 39
 2.312234e+001 2.739782e+001 2.034553e+001 4.302291e+001 3.653587e+001 3.382092e+001 2.528723e+001 4.175460e+001 2.920074e+001 5.195176e+001 3.615022e+001 3.147654e+001 1.287366e+001 5.898849e+000 2.200672e+000 2.598335e+000 2.672497e+000 3.031934e+000 5.010077e+000 3.117025e+000 3.804583e+000 2.123281e+000 3.283545e+000 2.123360e+000 2.266208e+000 3.161490e+000 5.509152e-001 3.531865e-001 4.201778e-001 6.009316e-001 4.934471e-001 8.898102e-001 6.156691e-001 7.269713e-001 5.942422e-001 7.495037e-001 5.850010e-001 6.108847e-001 3.204030e-001
<GCONST> 1.226441e+002
<STATE> 4
<MEAN> 39
 -2.019126e+001 -7.423860e+000 5.713286e+000 2.645583e+000 -6.581474e+000 -6.399023e+000 -6.592088e+000 -9.544079e+000 -1.390315e+000 8.370579e-001 -3.625132e+000 -1.321547e+000 6.294474e+001 2.993582e+000 8.103949e-001 -1.066460e+000 -4.880606e-001 5.608271e-001 -6.310360e-001 4.328203e-002 1.382914e-001 -9.370846e-001 2.560672e-001 1.724347e-001 -8.678468e-002 -1.176856e+000 8.598206e-001 6.081010e-001 1.487101e-001 -3.695852e-001 5.237047e-002 2.476757e-001 -1.196135e-001 1.154305e-001 2.841339e-002 1.256899e-001 1.571939e-002 1.862760e-002 7.114133e-002
<VARIANCE> 39
 4.042932e+001 3.886412e+001 4.400300e+001 5.810416e+001 3.410431e+001 3.655178e+001 3.431623e+001 3.638781e+001 3.743333e+001 3.967588e+001 3.276751e+001 2.681928e+001 2.161801e+001 4.010177e+000 3.051213e+000 3.092643e+000 2.440760e+000 2.551414e+000 3.615217e+000 3.941385e+000 3.466836e+000 3.549678e+000 3.591410e+000 3.050452e+000 2.266239e+000 2.144190e+000 5.500302e-001 4.080353e-001 4.406117e-001 5.348427e-001 4.024320e-001 6.857058e-001 7.911428e-001 6.109103e-001 7.067294e-001 6.699532e-001 4.651717e-001 4.327057e-001 6.186394e-001
<GCONST> 1.251154e+002
<TRANSP> 5
 0.000000e+000 1.000000e+000 0.000000e+000 0.000000e+000 0.000000e+000
 0.000000e+000 7.299678e-001 2.700321e-001 0.000000e+000 0.000000e+000
 0.000000e+000 0.000000e+000 6.989102e-001 3.010897e-001 0.000000e+000
 0.000000e+000 0.000000e+000 0.000000e+000 7.801119e-001 2.198881e-001
 0.000000e+000 0.000000e+000 0.000000e+000 0.000000e+000 0.000000e+000
<ENDHMM>
~h "dg"
<BEGINHMM>
<NUMSTATES> 5
<STATE> 2
<MEAN> 39
 2.865345e+000 -4.983684e+000 2.804726e+000 -7.067133e+000 -3.303321e+000 -1.791735e+000 -8.444842e+000 -9.379411e+000 5.771199e-001 -2.266067e-001 -6.647302e+000 -6.732077e+000 6.322647e+001 1.434642e-001 5.252016e-001 -3.729998e-001 -6.892233e-002 3.835724e-001 7.292268e-001 2.450352e-001 -5.197614e-001 -2.069000e-001 1.749722e-001 -2.423446e-002 -2.841671e-001 -5.886753e-001 -5.589563e-002 1.256767e-001 8.917543e-002 8.833960e-002 -4.844696e-002 -3.234704e-002 1.247703e-002 -9.386795e-002 5.450210e-003 2.203878e-002 2.276774e-002 7.544859e-002 -3.559279e-002
<VARIANCE> 39
 2.056744e+001 4.802040e+001 2.182895e+001 2.634751e+001 2.885899e+001 4.302005e+001 1.667500e+001 4.459771e+001 4.952507e+001 2.630328e+001 1.646586e+001 1.939806e+001 1.335020e+001 5.327142e-001 3.072539e+000 1.281575e+000 9.448885e-001 1.420100e+000 2.582529e+000 1.256404e+000 1.578317e+000 3.638453e+000 1.357751e+000 1.458077e+000 1.354877e+000 1.300754e+000 4.417876e-002 4.317560e-001 1.572504e-001 1.837484e-001 2.826837e-001 3.609465e-001 1.914999e-001 3.929082e-001 4.823178e-001 2.876044e-001 4.504327e-001 2.344001e-001 9.392931e-002
<GCONST> 1.004406e+002
<STATE> 3
<MEAN> 39
 -5.922742e+000 1.305499e+001 -8.484499e-001 -2.058952e+000 6.223183e+000 -7.819903e+000 -1.144693e+001 -1.127993e+001 -6.133622e+000 5.949428e+000 -2.849807e+000 -7.424674e+000 5.806487e+001 3.033705e-001 7.979174e-001 -3.330193e-002 4.052202e-001 -2.455086e-001 4.946483e-001 -9.626035e-002 3.811209e-001 -2.441401e-002 -2.004571e-001 -1.903486e-002 4.621914e-001 -1.635926e+000 3.342965e-002 -5.482816e-001 3.799201e-001 5.189228e-002 -4.728747e-001 2.883054e-001 -3.480581e-002 -4.462929e-001 9.670154e-001 -9.474400e-002 3.644525e-002 1.275622e-001 -3.824814e-002
