~o
<STREAMINFO> 1 39
<VECSIZE> 39<NULLD><MFCC_D_A_0><DIAGC>
~h "a"
<BEGINHMM>
<NUMSTATES> 5
<STATE> 2
<MEAN> 39
 -1.567442e+000 -8.830293e+000 -3.443400e+000 -1.108841e+001 -5.828465e+000 1.153503e+000 -1.055724e+001 1.118018e+000 1.310734e+000 2.979534e+000 -1.610659e+000 -7.866338e+000 6.737177e+001 8.387902e-001 -1.462881e+000 -3.980200e-001 -1.499078e+000 3.555183e-001 9.914717e-001 -7.338744e-001 8.012086e-001 1.588899e-001 5.369488e-001 -4.108056e-001 -1.268035e+000 1.474230e+000 -3.350542e-001 4.902089e-001 2.078930e-001 5.293598e-001 1.162764e-001 -2.189128e-001 4.183334e-001 -2.757001e-001 -1.973887e-001 -1.338030e-001 5.183399e-002 3.544642e-001 -4.870329e-001
<VARIANCE> 39
 3.639262e+001 5.545346e+001 4.427092e+001 8.060171e+001 5.901271e+001 8.120154e+001 6.446210e+001 5.924252e+001 5.302595e+001 4.718075e+001 6.015693e+001 3.805939e+001 8.970274e+001 2.210174e+000 3.108231e+000 2.613620e+000 3.741081e+000 3.590011e+000 4.221090e+000 3.457405e+000 3.957349e+000 3.670518e+000 2.886952e+000 3.124583e+000 2.828106e+000 3.271599e+000 4.726399e-001 6.277840e-001 4.107881e-001 7.719361e-001 6.401530e-001 7.310267e-001 7.482908e-001 7.113134e-001 6.751952e-001 5.577478e-001 6.267828e-001 5.780421e-001 6.709166e-001
<GCONST> 1.333686e+002
<STATE> 3
<MEAN> 39
 -1.622165e-001 -1.064244e+001 -3.564651e+000 -1.356620e+001 -4.974684e+000 2.346478e+000 -1.163996e+001 1.968681e+000 8.010978e-001 3.677226e+000 -2.610486e+000 -9.780534e+000 7.064942e+001 1.150561e-002 6.476319e-001 1.335041e-001 3.829753e-001 2.588333e-001 -1.872235e-001 2.749212e-001 -2.894050e-001 -2.432393e-001 1.134508e-001 1.982783e-002 3.129618e-001 -5.359000e-001 -1.817213e-001 6.593760e-001 1.824038e-001 6.279348e-001 -9.734485e-002 -2.591869e-001 3.109128e-001 -3.828340e-001 -1.157248e-001 -1.743128e-001 1.702029e-001 4.441828e-001 -6.219254e-001
<VARIANCE> 39
 2.084605e+001 4.508349e+001 4.048387e+001 6.731701e+001 5.197966e+001 7.126725e+001 5.437297e+001 5.067471e+001 5.063859e+001 4.489573e+001 5.857718e+001 3.473808e+001 3.844984e+001 5.360501e-001 1.838053e+000 1.463768e+000 2.291123e+000 2.231395e+000 2.799942e+000 2.255909e+000 2.718128e+000 2.250900e+000 1.892651e+000 2.406758e+000 1.773697e+000 1.214482e+000 2.078991e-001 2.866366e-001 2.675475e-001 3.793128e-001 4.268850e-001 4.453569e-001 5.079767e-001 4.867163e-001 5.197033e-001 4.002432e-001 4.257472e-001 3.744994e-001 2.214440e-001
<GCONST> 1.164249e+002
<STATE> 4
<MEAN> 39
 -1.485147e+000 -4.019795e+000 -4.247664e+000 -8.343233e+000 -3.832047e+000 8.112331e-001 -8.056238e+000 -5.083742e-001 5.776033e-001 3.565607e+000 -2.086979e+000 -5.961857e+000 6.261003e+001 -5.519466e-001 1.577379e+000 2.082051e-001 1.525104e+000 1.413448e-002 -3.350573e-001 1.048388e+000 -5.921183e-001 -1.534271e-001 -4.832032e-001 3.110985e-001 8.080430e-001 -1.954960e+000 -2.317422e-001 -5.194559e-002 3.577068e-002 3.714523e-002 -5.674085e-002 7.076396e-003 7.459436e-002 2.123563e-002 2.419153e-003 -1.198476e-001 2.888467e-003 4.391362e-003 -2.217817e-002
<VARIANCE> 39
 3.553432e+001 4.208484e+001 4.832176e+001 6.691682e+001 6.386042e+001 7.574393e+001 6.740527e+001 5.809850e+001 4.750418e+001 4.470327e+001 5.272855e+001 3.438079e+001 9.220164e+001 1.440909e+000 2.252430e+000 2.420552e+000 3.126673e+000 3.276690e+000 3.115177e+000 3.295006e+000 3.326946e+000 3.795633e+000 2.567046e+000 2.670906e+000 2.396867e+000 2.093233e+000 2.679436e-001 3.354042e-001 3.761240e-001 4.812032e-001 4.993530e-001 5.676813e-001 5.764146e-001 5.843817e-001 6.059142e-001 4.734973e-001 5.248001e-001 4.191253e-001 3.659821e-001
<GCONST> 1.260683e+002
<TRANSP> 5
 0.000000e+000 1.000000e+000 0.000000e+000 0.000000e+000 0.000000e+000
 0.000000e+000 5.176122e-001 4.823877e-001 0.000000e+000 0.000000e+000
 0.000000e+000 0.000000e+000 6.563719e-001 3.436280e-001 0.000000e+000
 0.000000e+000 0.000000e+000 0.000000e+000 5.952485e-001 4.047515e-001
 0.000000e+000 0.000000e+000 0.000000e+000 0.000000e+000 0.000000e+000
<ENDHMM>
~h "b"
<BEGINHMM>
<NUMSTATES> 5
<STATE> 2
<MEAN> 39
 5.680666e-001 6.274604e+000 2.290968e+000 1.556867e+000 -4.437191e+000 1.993172e-001 -6.009898e+000 -5.137311e+000 -5.401367e+000 -1.601343e+000 -2.549703e-001 -4.378309e+000 5.496290e+001 -1.076193e-001 1.472558e+000 2.274426e-001 1.179245e+000 8.047267e-001 -3.821207e-002 8.130602e-001 -5.431261e-002 -3.044683e-001 -3.530024e-001 -5.249184e-001 -1.793137e-002 -1.425364e+000 -2.281539e-001 -5.181730e-001 -1.161744e-002 -4.076199e-001 -2.332557e-001 -1.755880e-001 -2.411474e-001 1.140397e-001 2.384874e-001 1.150815e-001 5.149794e-002 8.469750e-002 5.962070e-001
<VARIANCE> 39
 2.969849e+001 3.140287e+001 3.255989e+001 4.855684e+001 4.133784e+001 4.300336e+001 4.194093e+001 2.981541e+001 4.009813e+001 2.862508e+001 3.717176e+001 2.471833e+001 4.502497e+001 9.535381e-001 1.931577e+000 1.421050e+000 2.703301e+000 2.197722e+000 1.890716e+000 2.421945e+000 2.180595e+000 2.616750e+000 2.123005e+000 1.909539e+000 1.691516e+000 1.806089e+000 1.686097e-001 3.638501e-001 2.962088e-001 4.225666e-001 4.325420e-001 3.833118e-001 4.985442e-001 4.457598e-001 5.008748e-001 4.281455e-001 4.191976e-001 3.361975e-001 2.572527e-001
<GCONST> 1.136677e+002
<STATE> 3
<MEAN> 39
 -3.903744e-001 8.645544e+000 2.920576e+000 3.316427e+000 -2.846946e+000 2.295987e-002 -4.792605e+000 -4.948967e+000 -5.392294e+000 -2.384084e+000 -1.279671e+000 -4.022178e+000 5.260185e+001 -9.395471e-001 -1.389524e+000 -1.752206e-001 -3.046550e-001 -2.337519e-002 -9.320840e-001 -2.867719e-001 6.118878e-002 9.273897e-001 2.135503e-001 -1.300308e-001 4.329566e-001 1.332006e+000 7.936508e-002 -1.155567e+000 -1.451194e-002 -7.746152e-001 -7.339783e-001 -2.331406e-001 -6.651770e-001 1.085651e-002 1.928304e-001 2.795539e-001 3.666659e-001 1.836639e-002 1.267344e+000
<VARIANCE> 39
 2.606346e+001 2.806514e+001 2.976315e+001 4.254515e+001 3.865762e+001 3.857733e+001 3.762446e+001 3.022427e+001 3.901406e+001 2.569296e+001 3.203323e+001 2.124045e+001 4.894122e+001 1.578214e+000 3.425238e+000 2.332902e+000 3.607762e+000 3.465307e+000 3.138148e+000 3.824017e+000 2.668028e+000 3.108040e+000 2.605901e+000 2.475525e+000 1.916694e+000 2.804528e+000 3.045582e-001 5.131328e-001 6.570653e-001 6.296669e-001 7.134228e-001 6.430975e-001 6.789393e-001 6.426530e-001 8.021276e-001 6.544119e-001 5.128520e-001 4.534778e-001 3.085525e-001
<GCONST> 1.226639e+002
<STATE> 4
<MEAN> 39
 -2.607359e+000 -3.241055e-002 1.702334e+000 -6.469678e-001 -4.735205e+000 -4.061088e+000 -7.995700e+000 -5.568766e+000 -2.099676e+000 -1.151024e+000 -8.514172e-001 -2.781703e+000 6.092659e+001 2.204276e-001 -3.082736e+000 3.659662e-001 -1.947896e+000 -2.132017e+000 -6.522373e-001 -1.909824e+000 1.147079e-001 5.112439e-001 5.996404e-001 1.074365e+000 2.869720e-002 3.516036e+000 3.896826e-001 1.958842e-001 2.813489e-001 -2.790313e-001 -5.568270e-001 4.841022e-001 -2.000525e-001 1.232536e-001 -3.895175e-001 -2.052768e-002 1.533068e-001 -2.359793e-001 -9.117514e-002
<VARIANCE> 39
 3.988722e+001 5.896443e+001 5.481687e+001 7.793542e+001 5.555030e+001 5.814814e+001 6.836305e+001 4.699611e+001 4.464091e+001 4.132642e+001 4.174064e+001 2.715007e+001 6.235175e+001 3.241215e+000 5.640204e+000 7.254268e+000 7.448918e+000 7.407962e+000 7.367962e+000 6.248947e+000 6.050471e+000 6.705833e+000 5.920939e+000 4.378590e+000 3.779383e+000 3.235728e+000 4.937882e-001 1.093737e+000 6.410313e-001 1.053513e+000 1.044695e+000 8.943624e-001 1.100509e+000 7.783213e-001 8.863063e-001 7.299693e-001 8.525943e-001 5.234253e-001 7.748809e-001
<GCONST> 1.421022e+002
<TRANSP> 5
 0.000000e+000 1.000000e+000 0.000000e+000 0.000000e+000 0.000000e+000
 0.000000e+000 7.072558e-001 2.927442e-001 0.000000e+000 0.000000e+000
 0.000000e+000 0.000000e+000 5.254644e-001 4.745356e-001 0.000000e+000
 0.000000e+000 0.000000e+000 0.000000e+000 5.317127e-001 4.682873e-001
 0.000000e+000 0.000000e+000 0.000000e+000 0.000000e+000 0.000000e+000
<ENDHMM>
~h "d"
<BEGINHMM>
<NUMSTATES> 5
<STATE> 2
<MEAN> 39
 -2.248755e+000 3.365790e+000 4.028977e+000 3.091777e+000 -5.754586e+000 -2.605050e+000 -8.492682e+000 -4.230604e+000 8.841489e-002 -2.147472e-001 -2.517327e+000 -4.999441e+000 5.544778e+001 -1.878846e-001 1.072024e+000 5.801329e-002 1.042613e+000 8.306241e-001 -2.540639e-002 1.036634e+000 6.801687e-002 -2.229261e-001 -2.869674e-001 -6.387148e-001 2.021231e-001 -1.418326e+000 -2.775502e-001 -6.942648e-001 4.982398e-003 -6.346170e-001 -3.169755e-001 -9.801681e-002 -1.489151e-001 1.087204e-001 -1.021561e-001 -4.772273e-002 3.014629e-001 2.313226e-001 9.140432e-001
<VARIANCE> 39
 5.097815e+001 4.820320e+001 5.831159e+001 5.014125e+001 5.730022e+001 4.701867e+001 6.443634e+001 5.155270e+001 3.992117e+001 3.603669e+001 3.865176e+001 3.285887e+001 7.185889e+001 1.916977e+000 3.664701e+000 2.767649e+000 3.398783e+000 4.017670e+000 3.607254e+000 4.027261e+000 3.561336e+000 3.305670e+000 3.117494e+000 2.662800e+000 2.302628e+000 3.646294e+000 3.634420e-001 7.993261e-001 5.380262e-001 7.591923e-001 9.113993e-001 6.945723e-001 8.956043e-001 7.467582e-001 7.228529e-001 6.675823e-001 5.165482e-001 4.830268e-001 8.109546e-001
<GCONST> 1.318149e+002
<STATE> 3
<MEAN> 39
 -4.104891e+000 2.872977e+000 4.433478e+000 2.909564e+000 -4.556152e+000 -3.303499e+000 -5.680507e+000 -3.975601e+000 -1.459780e+000 -1.847303e+000 -3.040872e+000 -2.889162e+000 5.638196e+001 -9.647136e-001 -2.006800e+000 3.519931e-001 -9.610293e-001 -6.020222e-001 -7.770161e-001 -2.399618e-001 5.579671e-003 1.396356e-001 -4.644875e-001 4.052428e-001 8.749044e-001 2.339535e+000 2.558163e-001 -6.340427e-001 9.164915e-002 -6.022357e-001 -7.843581e-001 -1.383536e-001 -9.566419e-001 5.876397e-002 1.207157e-001 1.990580e-001 4.527182e-001 -2.226367e-001 9.918998e-001
<VARIANCE> 39
 4.778012e+001 5.793025e+001 5.292130e+001 6.081890e+001 6.142096e+001 5.065955e+001 5.277671e+001 4.326902e+001 3.772403e+001 3.211711e+001 3.203985e+001 2.796363e+001 6.582965e+001 3.274038e+000 5.055356e+000 4.095721e+000 4.927100e+000 5.679343e+000 5.205145e+000 6.346272e+000 5.038209e+000 4.504017e+000 3.671454e+000 2.963647e+000 2.850134e+000 4.119785e+000 5.724584e-001 1.031335e+000 6.695504e-001 9.320205e-001 1.101220e+000 1.066670e+000 1.005463e+000 9.585753e-001 8.800704e-001 7.427193e-001 6.741546e-001 5.754382e-001 7.584854e-001
<GCONST> 1.380355e+002
<STATE> 4
<MEAN> 39
 -4.303493e+000 -4.945435e+000 5.923836e+000 -1.555553e+000 -9.459829e+000 -6.077205e+000 -1.182137e+001 -4.216586e+000 1.008911e+000 -2.072505e+000 -4.929270e-001 -2.395891e+000 6.617303e+001 7.391282e-001 -1.192705e+000 -1.031870e-001 -1.288347e+000 -1.456819e+000 -1.742875e-001 -2.336962e+000 2.973045e-001 2.190214e-001 6.454581e-001 1.105343e+000 -7.878563e-001 2.014395e+000 3.970677e-001 5.637341e-001 -2.518834e-001 -1.259512e-002 1.757170e-001 4.775610e-001 9.535898e-002 6.914435e-002 -2.912010e-001 2.833034e-001 1.442856e-002 -4.117361e-001 -5.927539e-001
<VARIANCE> 39
 4.703206e+001 5.757558e+001 6.131826e+001 6.680693e+001 8.046192e+001 5.518255e+001 9.188737e+001 6.608257e+001 4.540960e+001 4.423919e+001 3.559636e+001 3.397557e+001 4.290427e+001 2.621949e+000 4.855468e+000 4.224024e+000 4.544479e+000 6.182185e+000 5.652796e+000 6.480941e+000 6.354496e+000 5.464623e+000 4.422578e+000 3.961130e+000 3.325400e+000 3.655012e+000 4.717578e-001 7.244636e-001 6.036496e-001 9.116071e-001 1.136715e+000 9.876620e-001 1.477751e+000 8.538910e-001 8.392943e-001 7.347346e-001 6.482542e-001 6.407579e-001 5.631863e-001
<GCONST> 1.400421e+002
<TRANSP> 5
 0.000000e+000 1.000000e+000 0.000000e+000 0.000000e+000 0.000000e+000
 0.000000e+000 5.618202e-001 4.381798e-001 0.000000e+000 0.000000e+000
 0.000000e+000 0.000000e+000 4.698356e-001 5.301643e-001 0.000000e+000
 0.000000e+000 0.000000e+000 0.000000e+000 5.168682e-001 4.831318e-001
 0.000000e+000 0.000000e+000 0.000000e+000 0.000000e+000 0.000000e+000
<ENDHMM>
~h "e"
<BEGINHMM>
<NUMSTATES> 5
<STATE> 2
<MEAN> 39
 -2.822175e+000 -7.412323e+000 5.908146e+000 -6.429732e+000 -1.204341e+001 -8.310802e+000 -1.300655e+001 3.184907e+000 1.307678e-001 -1.774511e-001 -1.610858e+000 -4.153437e+000 6.971401e+001 9.865491e-001 -1.138717e+000 3.016198e-001 -5.567340e-001 -7.284468e-001 -3.040740e-001 -1.209721e+000 1.331522e+000 4.351764e-002 3.037666e-001 -1.922074e-001 -4.397344e-001 8.651434e-001 -5.752147e-001 5.857641e-001 -2.157437e-001 3.384832e-001 5.246090e-001 3.243589e-001 7.398832e-001 -4.927670e-001 -8.983739e-002 9.114571e-004 7.976185e-002 1.567799e-001 -6.840774e-001
<VARIANCE> 39
 2.637381e+001 4.757349e+001 6.412465e+001 5.680820e+001 6.322445e+001 4.810472e+001 5.874279e+001 4.880699e+001 5.784389e+001 4.556094e+001 4.759596e+001 3.012352e+001 4.782877e+001 2.820114e+000 2.835002e+000 3.156931e+000 2.730865e+000 4.365851e+000 3.229118e+000 5.214565e+000 3.766515e+000 3.847215e+000 2.777085e+000 2.900373e+000 2.352211e+000 2.209919e+000 6.147608e-001 4.711193e-001 4.244674e-001 4.460078e-001 6.709206e-001 5.676546e-001 7.968845e-001 7.269822e-001 7.229139e-001 5.272775e-001 5.171931e-001 4.445290e-001 3.089178e-001
<GCONST> 1.289205e+002
<STATE> 3
<MEAN> 39
 -2.384140e+000 -8.477500e+000 5.790617e+000 -7.071446e+000 -1.211967e+001 -8.204744e+000 -1.333050e+001 5.281396e+000 -2.082987e-001 -9.949593e-002 -2.490344e+000 -4.551065e+000 7.004745e+001 7.835943e-002 8.134723e-001 -1.893498e-001 6.342191e-001 5.994327e-001 1.635276e-001 4.397093e-001 -5.198584e-001 -7.108210e-002 9.494668e-002 -9.853194e-002 -4.054141e-002 -9.445313e-001 -2.592944e-001 6.607975e-001 -1.597883e-001 4.204357e-001 3.954039e-001 2.485370e-001 5.289681e-001 -6.784612e-001 -3.716259e-002 -4.618883e-002 1.113662e-001 1.049832e-001 -6.411896e-001
<VARIANCE> 39
 2.231095e+001 4.631749e+001 5.677268e+001 5.740821e+001 5.788437e+001 4.619186e+001 5.629104e+001 4.792842e+001 6.135993e+001 4.504432e+001 4.935204e+001 2.906666e+001 3.910825e+001 7.842007e-001 1.857411e+000 2.034701e+000 1.933514e+000 2.792184e+000 2.252434e+000 2.732963e+000 2.781539e+000 2.744357e+000 2.114765e+000 2.142194e+000 1.793211e+000 1.468724e+000 3.563666e-001 3.177587e-001 3.427003e-001 3.553815e-001 5.455322e-001 4.856395e-001 7.219988e-001 5.851077e-001 6.866001e-001 4.552507e-001 4.494801e-001 3.767320e-001 2.183706e-001
<GCONST> 1.195255e+002
<STATE> 4
<MEAN> 39
 -3.023770e+000 -2.927604e+000 3.902493e+000 -2.981327e+000 -9.172397e+000 -7.198452e+000 -9.704074e+000 1.833457e+000 3.981263e-001 3.472252e-001 -2.311996e+000 -3.790741e+000 6.286743e+001 -4.066614e-001 1.514165e+000 -5.759742e-001 1.037245e+000 9.071984e-001 6.201540e-001 1.251689e+000 -1.134479e+000 -5.061483e-002 -4.724836e-002 1.816133e-001 1.967094e-001 -1.933623e+000 -2.650283e-001 -2.637416e-002 -5.344651e-002 -1.003396e-001 -1.794040e-002 1.017908e-001 1.347099e-001 -5.470764e-002 -8.213671e-002 -5.362632e-002 9.177794e-002 8.321065e-002 4.597541e-002
<VARIANCE> 39
 2.720712e+001 4.056289e+001 5.923495e+001 5.006649e+001 6.472974e+001 5.031102e+001 6.758912e+001 5.008303e+001 5.545160e+001 4.399196e+001 4.668128e+001 3.196593e+001 6.805843e+001 1.724263e+000 2.215569e+000 2.274326e+000 2.531726e+000 3.492806e+000 2.996774e+000 3.584728e+000 3.621951e+000 3.991178e+000 2.656761e+000 2.538685e+000 2.225043e+000 2.011053e+000 3.043599e-001 3.447836e-001 3.812870e-001 3.942051e-001 4.959291e-001 4.800722e-001 6.162922e-001 5.576591e-001 6.219134e-001 4.604412e-001 4.587499e-001 3.765592e-001 3.046748e-001
<GCONST> 1.241683e+002
<TRANSP> 5
 0.000000e+000 1.000000e+000 0.000000e+000 0.000000e+000 0.000000e+000
 0.000000e+000 3.811361e-001 6.188639e-001 0.000000e+000 0.000000e+000
 0.000000e+000 0.000000e+000 5.049046e-001 4.950954e-001 0.000000e+000
 0.000000e+000 0.000000e+000 0.000000e+000 4.938526e-001 5.061473e-001
 0.000000e+000 0.000000e+000 0.000000e+000 0.000000e+000 0.000000e+000
<ENDHMM>
~h "f"
<BEGINHMM>
<NUMSTATES> 5
<STATE> 2
<MEAN> 39
 -1.053218e+001 -1.957010e-002 -1.276781e+000 9.698227e-001 -1.923765e+000 -2.605817e+000 -1.718478e+000 -1.680138e-001 2.127174e+000 1.247019e+000 -9.862354e-001 -1.025087e+000 6.003884e+001 -2.796550e+000 -3.824035e-001 -6.179703e-001 7.616926e-001 5.974969e-001 -5.451648e-001 5.467918e-001 2.169303e-001 7.972270e-001 -1.408713e-002 -3.009664e-002 5.924554e-001 -3.771805e-001 2.067233e-001 -3.826198e-001 -1.115063e-003 -4.244999e-001 -4.754569e-001 -4.220528e-002 -4.617598e-001 -9.372334e-002 -2.949972e-001 4.056520e-002 6.230234e-002 -1.717253e-001 2.807656e-001
<VARIANCE> 39
 4.055540e+001 2.757648e+001 4.032499e+001 5.152623e+001 4.411762e+001 4.849594e+001 4.618308e+001 3.031319e+001 2.731458e+001 2.821371e+001 2.623071e+001 2.080633e+001 5.798140e+001 2.881255e+000 2.507709e+000 2.597701e+000 2.955273e+000 3.009646e+000 3.492900e+000 3.350058e+000 3.011319e+000 2.946647e+000 2.610604e+000 2.376858e+000 2.075765e+000 1.375405e+000 4.759364e-001 3.900743e-001 3.582256e-001 4.320190e-001 5.278043e-001 5.195028e-001 5.669890e-001 4.998179e-001 5.238584e-001 4.453474e-001 4.138450e-001 3.605315e-001 2.360381e-001
<GCONST> 1.199865e+002
<STATE> 3
<MEAN> 39
 -1.570729e+001 -2.906978e+000 -3.241808e+000 7.211616e-001 -2.351544e+000 -3.297173e+000 -1.473348e+000 2.769674e-001 2.681339e+000 1.707438e+000 -5.612097e-001 1.901938e-001 5.849716e+001 -3.182605e-001 -2.661925e-001 -2.362197e-001 -9.432007e-002 1.067245e-002 5.438169e-002 2.586760e-003 -3.983891e-003 -4.254082e-002 4.565210e-002 7.064592e-002 6.003131e-002 -2.276506e-001 4.523045e-001 1.187386e-001 1.722987e-001 -8.159301e-002 -6.201299e-002 7.405344e-002 -1.852467e-002 -6.801387e-003 -1.231940e-001 -1.882262e-002 2.642635e-003 -9.677697e-002 -6.164693e-003
<VARIANCE> 39
 2.429794e+001 2.918336e+001 3.214988e+001 3.998479e+001 3.892915e+001 3.665279e+001 4.087624e+001 2.720384e+001 2.366527e+001 2.684536e+001 2.501198e+001 2.004969e+001 5.889083e+001 1.637146e+000 1.118183e+000 1.212456e+000 1.265577e+000 1.512274e+000 1.741027e+000 1.756816e+000 1.747567e+000 1.760308e+000 1.605017e+000 1.478207e+000 1.339025e+000 1.278353e+000 3.638017e-001 2.630120e-001 2.685859e-001 2.747032e-001 3.421541e-001 3.712325e-001 3.980144e-001 3.799127e-001 4.016160e-001 3.414251e-001 3.102058e-001 2.985035e-001 2.547074e-001
<GCONST> 1.068743e+002
<STATE> 4
<MEAN> 39
 -1.428804e+001 -3.032281e+000 -3.113165e+000 -8.165209e-001 -2.912323e+000 -2.943654e+000 -3.037073e+000 -6.308566e-001 1.247123e+000 8.707664e-001 -8.237443e-001 -8.591740e-001 5.585767e+001 1.602807e+000 2.290942e-001 4.878530e-001 -6.549328e-001 -6.736844e-001 1.954547e-001 -3.797430e-001 -1.709214e-001 -6.649659e-001 -1.258438e-001 1.474084e-001 -3.870565e-001 1.837916e-001 3.130227e-001 2.364047e-003 1.567347e-001 -2.059985e-001 -2.941260e-001 7.353119e-002 -2.030899e-001 -2.419813e-002 -1.566211e-001 1.531681e-003 9.645168e-002 -7.615609e-002 2.825166e-001
<VARIANCE> 39
 5.390372e+001 3.771394e+001 5.505007e+001 5.622772e+001 5.515527e+001 4.795163e+001 5.068225e+001 4.079109e+001 3.524571e+001 3.840371e+001 3.027067e+001 2.562275e+001 9.502506e+001 6.613606e+000 3.575061e+000 3.311601e+000 3.935862e+000 3.982324e+000 3.776904e+000 3.839590e+000 3.423636e+000 3.610596e+000 2.890310e+000 2.497856e+000 2.348314e+000 6.093083e+000 7.444274e-001 5.838671e-001 4.958127e-001 6.648347e-001 6.957288e-001 5.826752e-001 7.173890e-001 6.308560e-001 6.454574e-001 5.286186e-001 4.609820e-001 4.163845e-001 8.558829e-001
<GCONST> 1.316836e+002
<TRANSP> 5
 0.000000e+000 1.000000e+000 0.000000e+000 0.000000e+000 0.000000e+000
 0.000000e+000 5.741692e-001 4.258309e-001 0.000000e+000 0.000000e+000
 0.000000e+000 0.000000e+000 7.807896e-001 2.192104e-001 0.000000e+000
 0.000000e+000 0.000000e+000 0.000000e+000 6.348525e-001 3.651475e-001
 0.000000e+000 0.000000e+000 0.000000e+000 0.000000e+000 0.000000e+000
<ENDHMM>
~h "g"
<BEGINHMM>
<NUMSTATES> 5
<STATE> 2
<MEAN> 39
 -5.382300e+000 1.147971e+000 4.959784e+000 1.796841e+000 -8.278609e+000 -5.360365e+000 -5.246655e+000 1.209448e+000 -5.865583e+000 -1.560338e-001 1.675901e+000 -4.583755e+000 5.521805e+001 1.907022e-001 1.151663e+000 -2.248190e-001 9.912312e-001 5.521880e-001 3.130931e-001 6.329535e-001 -2.546204e-001 -2.189508e-002 -7.413486e-002 -3.061813e-001 -7.349906e-002 -1.477408e+000 -1.228499e-001 -2.728326e-001 -1.316030e-001 -2.296410e-001 9.109997e-002 5.638193e-005 -1.300019e-001 -1.627333e-002 2.566683e-001 5.442477e-002 -9.681951e-002 1.466431e-001 3.473944e-001
<VARIANCE> 39
 4.784468e+001 4.145882e+001 7.083690e+001 3.881004e+001 8.288620e+001 6.668944e+001 5.294893e+001 5.276458e+001 6.869735e+001 4.684035e+001 3.968944e+001 3.449830e+001 9.595995e+001 1.589259e+000 2.292799e+000 2.601913e+000 2.189906e+000 2.829025e+000 2.796986e+000 3.027865e+000 2.596897e+000 3.922166e+000 2.615596e+000 2.174907e+000 2.145256e+000 3.188839e+000 3.160867e-001 5.340369e-001 5.230052e-001 4.554781e-001 5.668256e-001 5.885099e-001 6.767835e-001 5.848193e-001 8.083549e-001 5.917524e-001 4.856535e-001 4.368972e-001 5.718989e-001
<GCONST> 1.277110e+002
<STATE> 3
<MEAN> 39
 -3.040468e+000 5.509210e+000 5.314304e+000 4.441607e+000 -6.242388e+000 -4.492268e+000 -3.795914e+000 -1.039819e+000 -5.350901e+000 3.366863e-001 6.400789e-001 -4.849451e+000 5.394686e+001 -5.983105e-001 -6.373329e-001 -5.185827e-001 -3.723691e-002 9.599268e-001 -4.301763e-001 -5.526529e-002 -9.422805e-002 1.739107e-001 1.528227e-001 -3.938631e-001 6.621708e-001 6.769108e-001 -2.428922e-001 -7.506857e-001 9.393598e-002 -5.763828e-001 -2.907639e-001 -3.215286e-001 -3.870964e-001 3.644801e-002 -1.084735e-001 9.623573e-003 1.861976e-001 1.084826e-001 1.078747e+000
<VARIANCE> 39
 3.036673e+001 3.440915e+001 4.539766e+001 3.858395e+001 7.114427e+001 5.197236e+001 4.587885e+001 4.147730e+001 4.711865e+001 3.367126e+001 3.080370e+001 2.567636e+001 5.299566e+001 2.612879e+000 4.803832e+000 3.496681e+000 3.202625e+000 5.372792e+000 4.534071e+000 3.832404e+000 3.929406e+000 3.950194e+000 3.323150e+000 2.823734e+000 2.732307e+000 4.162853e+000 4.923869e-001 6.482032e-001 6.385264e-001 5.492212e-001 9.202231e-001 7.395196e-001 6.999468e-001 6.449102e-001 7.577339e-001 6.720922e-001 5.058519e-001 5.146520e-001 5.803176e-001
<GCONST> 1.308362e+002
<STATE> 4
<MEAN> 39
 -5.740119e+000 -1.376027e+000 4.343885e+000 8.171594e-001 -6.098838e+000 -8.497138e+000 -6.530190e+000 -5.526763e-001 -5.919012e+000 -2.155021e-001 1.325286e+000 -2.728898e+000 6.187867e+001 4.087034e-002 -6.077324e-001 3.655817e-001 -7.098934e-001 -8.291025e-001 -4.667171e-001 -8.811814e-001 -2.236476e-001 2.464917e-001 -2.948244e-001 4.732051e-001 6.725507e-002 1.639600e+000 3.110892e-001 3.959529e-001 2.555187e-001 1.387962e-003 -3.978421e-001 3.279642e-001 -8.431896e-003 -6.534171e-002 1.287934e-001 -8.255126e-002 6.286028e-002 -2.297647e-001 -3.221742e-001
<VARIANCE> 39
 3.154158e+001 5.982856e+001 9.025677e+001 5.555578e+001 1.005423e+002 7.453887e+001 6.165779e+001 5.284369e+001 4.910835e+001 4.907074e+001 4.609597e+001 2.903985e+001 6.691643e+001 3.604778e+000 5.411965e+000 5.800806e+000 4.018030e+000 8.852021e+000 5.880712e+000 4.910182e+000 4.701015e+000 4.795584e+000 4.822825e+000 4.260478e+000 2.971435e+000 5.373094e+000 6.130132e-001 9.913394e-001 9.644846e-001 6.998987e-001 1.910289e+000 1.080155e+000 1.022175e+000 8.167666e-001 8.084024e-001 9.375356e-001 9.842189e-001 6.228334e-001 1.030246e+000
<GCONST> 1.434290e+002
<TRANSP> 5
 0.000000e+000 1.000000e+000 0.000000e+000 0.000000e+000 0.000000e+000
 0.000000e+000 6.065889e-001 3.934111e-001 0.000000e+000 0.000000e+000
 0.000000e+000 0.000000e+000 5.189519e-001 4.810482e-001 0.000000e+000
 0.000000e+000 0.000000e+000 0.000000e+000 6.521729e-001 3.478271e-001
 0.000000e+000 0.000000e+000 0.000000e+000 0.000000e+000 0.000000e+000
<ENDHMM>
~h "h"
<BEGINHMM>
<NUMSTATES> 5
<STATE> 2
<MEAN> 39
 -2.603098e+000 -2.594160e+000 -2.916584e-002 -3.968619e+000 -9.760280e-001 2.965414e-001 -4.046185e+000 2.027379e+000 4.191111e-001 3.135508e+000 -3.563102e+000 -3.925597e+000 6.469836e+001 -7.709581e-002 6.012809e-001 -5.853914e-001 4.956723e-002 1.486320e+000 1.139371e+000 8.805953e-001 -7.848880e-001 4.119107e-002 5.395862e-001 9.157359e-003 1.103635e-001 -6.354510e-001 1.014711e-001 -7.679398e-002 1.343691e-001 -3.672546e-001 -5.712095e-001 2.123112e-002 -2.241468e-001 -1.988375e-001 -3.669806e-001 -1.810292e-001 3.373135e-001 2.562523e-002 1.430235e-001
<VARIANCE> 39
 2.707277e+001 4.931908e+001 5.019645e+001 8.606154e+001 6.174277e+001 6.145591e+001 7.205399e+001 4.545658e+001 5.436464e+001 4.342686e+001 5.301191e+001 3.167829e+001 4.750725e+001 9.500324e-001 1.492164e+000 2.477739e+000 2.492534e+000 3.166613e+000 3.212166e+000 3.227058e+000 3.128778e+000 3.417432e+000 2.915362e+000 2.838412e+000 2.279453e+000 6.795284e-001 1.230331e-001 2.232802e-001 2.506722e-001 3.711207e-001 5.138621e-001 4.030610e-001 5.852032e-001 5.062504e-001 6.302032e-001 4.944772e-001 4.641809e-001 3.876510e-001 9.614845e-002
<GCONST> 1.192321e+002
<STATE> 3
<MEAN> 39
 -2.688199e+000 2.666049e-001 -1.571990e+000 -3.941183e+000 7.964972e-001 3.790044e+000 -1.315865e+000 -6.068371e-001 -1.028866e+000 3.704076e+000 -1.541740e+000 -3.004310e+000 6.255401e+001 4.113512e-001 3.221150e-001 -2.355350e-001 -7.250324e-001 -4.154839e-001 3.347161e-001 -8.759880e-003 -5.385473e-001 -5.983351e-001 -1.027085e-001 3.333154e-001 1.731077e-001 -4.584840e-002 1.853776e-001 -1.677264e-001 2.842658e-002 -2.982990e-001 -6.252860e-001 -2.358707e-001 -4.055181e-001 4.298368e-002 -1.055016e-001 -1.188048e-001 7.151303e-002 -8.415905e-002 2.411387e-001
<VARIANCE> 39
 2.756683e+001 3.704254e+001 3.720674e+001 7.701933e+001 5.467084e+001 5.719674e+001 5.299966e+001 4.077449e+001 4.201991e+001 3.853830e+001 4.445697e+001 3.138564e+001 5.100029e+001 7.460133e-001 1.104625e+000 1.392793e+000 2.365544e+000 2.383520e+000 2.455703e+000 2.149529e+000 2.334283e+000 2.542009e+000 2.227458e+000 2.067964e+000 1.814855e+000 4.942765e-001 1.189208e-001 2.010347e-001 2.574834e-001 3.085470e-001 4.329029e-001 3.762597e-001 4.282027e-001 4.222653e-001 4.206364e-001 4.364797e-001 3.642923e-001 3.230894e-001 8.329585e-002
<GCONST> 1.114743e+002
<STATE> 4
<MEAN> 39
 -2.234390e-001 9.231644e-001 -3.510141e+000 -9.066545e+000 -4.621743e+000 3.802459e+000 -3.434079e+000 -2.830500e+000 -3.829249e+000 2.383610e+000 4.764012e-001 -2.856478e+000 6.313989e+001 4.444368e-001 -3.362684e-001 -9.001038e-002 -9.311703e-001 -1.287390e+000 -1.538646e-002 -8.694706e-001 -4.848041e-001 -3.135586e-001 -2.661902e-001 4.458810e-001 -9.847394e-002 4.444905e-001 -9.825151e-002 -1.826081e-001 1.545123e-001 2.137915e-001 -5.371078e-002 -7.933741e-002 -2.077359e-001 4.581304e-002 1.631712e-001 -2.217556e-002 4.563908e-002 -9.012319e-002 2.114327e-002
<VARIANCE> 39
 2.926457e+001 3.812414e+001 4.099863e+001 8.786861e+001 5.827247e+001 5.099840e+001 5.056962e+001 4.698214e+001 4.340976e+001 4.399285e+001 5.075333e+001 3.189032e+001 5.623307e+001 6.753651e-001 1.482564e+000 1.355429e+000 2.656452e+000 2.690735e+000 2.089761e+000 2.350788e+000 2.174665e+000 2.368091e+000 2.141227e+000 2.030244e+000 1.710663e+000 8.376698e-001 9.789342e-002 2.251335e-001 2.346541e-001 3.510446e-001 4.291305e-001 3.336852e-001 3.506114e-001 3.617725e-001 3.784634e-001 3.555786e-001 3.305048e-001 3.187403e-001 1.297959e-001
<GCONST> 1.123419e+002
<TRANSP> 5
 0.000000e+000 1.000000e+000 0.000000e+000 0.000000e+000 0.000000e+000
 0.000000e+000 5.130087e-001 4.869913e-001 0.000000e+000 0.000000e+000
 0.000000e+000 0.000000e+000 6.074774e-001 3.925227e-001 0.000000e+000
 0.000000e+000 0.000000e+000 0.000000e+000 6.040980e-001 3.959020e-001
 0.000000e+000 0.000000e+000 0.000000e+000 0.000000e+000 0.000000e+000
<ENDHMM>
~h "i"
<BEGINHMM>
<NUMSTATES> 5
<STATE> 2
<MEAN> 39
 -4.494882e+000 -4.333697e+000 1.173384e+001 -2.687305e+000 -1.526895e+001 -9.176998e+000 -1.207648e+001 -1.774775e-001 -5.269503e+000 -3.130969e+000 1.429867e+000 -2.952921e+000 6.708418e+001 7.577444e-001 -6.402839e-001 1.593214e+000 -3.153284e-001 -1.897082e+000 -5.062147e-001 -8.112614e-001 7.572342e-001 -1.226099e+000 -2.482765e-001 8.162990e-001 -1.773057e-001 9.376119e-001 -3.596201e-001 3.780820e-001 -5.851213e-001 8.389249e-002 7.013777e-001 3.927859e-001 6.002029e-001 -2.400054e-001 2.206423e-001 2.686843e-001 -1.117475e-001 8.147568e-003 -5.473008e-001
<VARIANCE> 39
 3.244032e+001 5.463232e+001 7.056311e+001 6.005049e+001 6.360931e+001 4.981932e+001 6.703774e+001 4.771439e+001 6.433092e+001 4.629581e+001 3.839576e+001 2.740775e+001 4.987658e+001 3.418032e+000 2.826909e+000 4.241601e+000 2.981112e+000 4.716324e+000 3.763815e+000 5.897016e+000 3.695942e+000 4.613249e+000 3.158028e+000 2.789496e+000 2.620222e+000 2.337524e+000 5.539159e-001 5.681926e-001 6.814591e-001 4.902395e-001 8.978672e-001 6.460556e-001 8.841180e-001 7.462052e-001 9.199959e-001 5.711588e-001 5.020380e-001 4.694764e-001 4.092494e-001
<GCONST> 1.325937e+002
<STATE> 3
<MEAN> 39
 -3.934803e+000 -4.302076e+000 1.328609e+001 -3.192144e+000 -1.760965e+001 -9.116166e+000 -1.179794e+001 1.097109e+000 -7.494379e+000 -2.512294e+000 2.623335e+000 -3.399364e+000 6.722270e+001 3.577414e-002 8.639328e-001 -5.233980e-001 5.253716e-001 8.003891e-001 8.001021e-002 8.464711e-001 -2.546479e-001 2.141203e-001 2.256006e-001 -2.730941e-001 2.590312e-002 -9.900402e-001 -2.284294e-001 4.057090e-001 -6.454456e-001 2.515117e-001 8.013144e-001 2.349006e-001 4.051384e-001 -3.302719e-001 4.645511e-001 1.121972e-001 -2.853678e-001 7.717048e-002 -5.514140e-001
<VARIANCE> 39
 2.357214e+001 4.818805e+001 5.507317e+001 5.947034e+001 5.456830e+001 4.630281e+001 5.951879e+001 4.616586e+001 6.233438e+001 5.122776e+001 3.759405e+001 2.807931e+001 4.234453e+001 1.103788e+000 1.912172e+000 2.498667e+000 2.184057e+000 3.370309e+000 2.467139e+000 3.202016e+000 2.534605e+000 3.137125e+000 2.297547e+000 1.937026e+000 1.697608e+000 1.758052e+000 3.434082e-001 3.503296e-001 4.266456e-001 3.979323e-001 6.525555e-001 5.660139e-001 6.957042e-001 5.863094e-001 6.999657e-001 5.179963e-001 4.001587e-001 4.071179e-001 2.366711e-001
<GCONST> 1.216679e+002
<STATE> 4
<MEAN> 39
 -5.364192e+000 1.049404e+000 7.570731e+000 7.789755e-001 -1.123457e+001 -7.351121e+000 -6.434881e+000 -1.255036e+000 -4.159075e+000 -1.513146e+000 2.987995e-001 -2.111276e+000 5.823591e+001 -5.319421e-001 8.858662e-001 -1.542837e+000 4.862283e-001 1.582793e+000 7.096532e-001 8.479614e-001 -5.805759e-001 6.852272e-001 2.814512e-001 -3.796623e-001 1.395798e-001 -1.613277e+000 -2.318469e-001 -2.024663e-001 -7.885079e-002 -2.256026e-001 -1.678042e-002 1.357937e-001 -1.072126e-001 -3.945455e-003 -3.293336e-002 4.841262e-003 5.990714e-002 9.671128e-003 2.108905e-001
<VARIANCE> 39
 3.238582e+001 4.480619e+001 5.571734e+001 4.796543e+001 5.786758e+001 5.983630e+001 7.325874e+001 4.376777e+001 4.507747e+001 4.016597e+001 3.280819e+001 2.802610e+001 9.296428e+001 1.918067e+000 2.518072e+000 2.574300e+000 2.488141e+000 3.867714e+000 3.335886e+000 4.056149e+000 3.232387e+000 3.699252e+000 2.892212e+000 2.284650e+000 2.371940e+000 2.260342e+000 2.945561e-001 3.783163e-001 4.273590e-001 4.146404e-001 6.168419e-001 5.774533e-001 6.520775e-001 5.432173e-001 5.916119e-001 4.802983e-001 3.991237e-001 3.760713e-001 3.434035e-001
<GCONST> 1.251481e+002
<TRANSP> 5
 0.000000e+000 1.000000e+000 0.000000e+000 0.000000e+000 0.000000e+000
 0.000000e+000 4.775750e-001 5.224250e-001 0.000000e+000 0.000000e+000
 0.000000e+000 0.000000e+000 5.847402e-001 4.152598e-001 0.000000e+000
 0.000000e+000 0.000000e+000 0.000000e+000 5.818052e-001 4.181947e-001
 0.000000e+000 0.000000e+000 0.000000e+000 0.000000e+000 0.000000e+000
<ENDHMM>
~h "j"
<BEGINHMM>
<NUMSTATES> 5
<STATE> 2
<MEAN> 39
 -5.960031e+000 -4.794452e+000 8.286740e+000 -2.397443e+000 -1.405622e+001 -6.077069e+000 -1.053718e+001 2.129412e+000 -4.341987e+000 -1.772722e+000 1.438202e+000 -2.985992e+000 6.207107e+001 -1.019778e-001 -1.536959e-001 1.866005e+000 -3.760486e-001 -1.582679e+000 -4.912584e-001 -2.333475e-002 3.155630e-001 -1.016285e+000 -3.624235e-001 5.420591e-001 2.345627e-001 8.017615e-001 -5.212988e-002 1.871771e-001 -1.951405e-001 -1.650628e-001 2.196295e-001 3.027074e-001 1.443453e-001 -2.681355e-001 2.724464e-002 1.676967e-001 -2.949878e-002 -6.207196e-002 -1.269626e-001
<VARIANCE> 39
 6.240833e+001 7.288955e+001 1.038088e+002 6.401477e+001 7.124116e+001 6.265910e+001 7.675057e+001 5.059703e+001 5.854664e+001 4.953948e+001 4.128357e+001 3.092497e+001 1.892983e+002 1.559781e+000 2.397702e+000 4.142606e+000 2.409622e+000 3.745922e+000 3.239354e+000 3.975330e+000 3.818625e+000 3.108765e+000 2.826859e+000 2.399900e+000 1.835942e+000 2.653836e+000 2.146751e-001 3.713335e-001 6.570200e-001 4.156443e-001 6.584187e-001 5.885839e-001 6.724519e-001 5.547330e-001 5.816022e-001 4.430743e-001 4.082272e-001 3.278909e-001 3.001584e-001
<GCONST> 1.290742e+002
<STATE> 3
<MEAN> 39
 -4.910684e+000 -5.540538e+000 1.434495e+001 -5.861716e+000 -1.987943e+001 -6.544544e+000 -1.201532e+001 8.257577e-001 -7.202364e+000 -1.835394e+000 2.790111e+000 -4.206789e+000 6.821339e+001 -1.250823e-001 1.204030e-001 2.441199e-001 -2.110696e-001 -1.881191e-001 6.895080e-002 1.405453e-001 -6.333713e-003 -1.075609e-001 1.021089e-001 -1.389157e-002 -5.468755e-002 4.688209e-003 5.131944e-002 5.335761e-002 -3.092701e-001 1.098457e-001 3.181952e-001 -4.934782e-003 3.683900e-002 7.806824e-003 1.880850e-001 2.475012e-002 -1.646683e-001 -3.079987e-002 -1.109398e-001
<VARIANCE> 39
 2.659625e+001 6.345365e+001 6.098339e+001 6.299422e+001 5.223259e+001 4.453986e+001 4.399388e+001 5.747060e+001 5.922896e+001 4.813249e+001 4.173472e+001 2.963357e+001 4.081804e+001 3.014362e-001 1.060922e+000 1.551473e+000 9.391861e-001 1.259670e+000 1.410164e+000 1.354638e+000 1.817189e+000 1.572419e+000 1.168260e+000 1.124788e+000 9.482383e-001 4.670459e-001 6.071134e-002 1.423969e-001 2.252293e-001 1.710592e-001 2.845830e-001 2.478403e-001 2.783990e-001 2.810017e-001 2.850066e-001 2.286923e-001 2.201553e-001 1.717630e-001 7.392719e-002
<GCONST> 1.005398e+002
<STATE> 4
<MEAN> 39
 -4.265895e+000 -5.398411e+000 1.247378e+001 -5.429255e+000 -1.797416e+001 -7.708641e+000 -1.089200e+001 2.394855e+000 -6.820605e+000 -1.507995e+000 1.798078e+000 -3.732971e+000 6.815958e+001 1.333074e-001 3.123980e-001 -1.110667e+000 4.204015e-001 1.149037e+000 -1.626872e-001 4.345886e-001 1.532858e-001 7.041455e-001 9.734660e-002 -7.617702e-001 -1.097093e-001 -4.751151e-001 -8.000938e-003 2.132259e-001 -2.970049e-001 2.102049e-001 4.324465e-001 8.793284e-002 7.353111e-002 -1.953521e-001 1.926226e-001 3.910873e-002 -1.355908e-001 -1.898384e-002 -2.756689e-001
<VARIANCE> 39
 2.796316e+001 5.999646e+001 7.067244e+001 6.070456e+001 5.857884e+001 5.158986e+001 5.500283e+001 6.300236e+001 6.431573e+001 4.569020e+001 4.277886e+001 3.146270e+001 4.942072e+001 7.102982e-001 1.919343e+000 2.498090e+000 1.920617e+000 2.376072e+000 2.352961e+000 2.488334e+000 2.992249e+000 2.520963e+000 2.094283e+000 1.905677e+000 1.659916e+000 1.163665e+000 1.536703e-001 2.647995e-001 3.820230e-001 3.320720e-001 4.662847e-001 4.223748e-001 4.687528e-001 4.859871e-001 4.888700e-001 3.502173e-001 3.588684e-001 3.062145e-001 1.780645e-001
<GCONST> 1.172263e+002
<TRANSP> 5
 0.000000e+000 1.000000e+000 0.000000e+000 0.000000e+000 0.000000e+000
 0.000000e+000 5.767864e-001 4.232137e-001 0.000000e+000 0.000000e+000
 0.000000e+000 0.000000e+000 7.579748e-001 2.420252e-001 0.000000e+000
 0.000000e+000 0.000000e+000 0.000000e+000 4.771076e-001 5.228925e-001
 0.000000e+000 0.000000e+000 0.000000e+000 0.000000e+000 0.000000e+000
<ENDHMM>
~h "k"
<BEGINHMM>
<NUMSTATES> 5
<STATE> 2
<MEAN> 39
 -1.070990e+001 6.335239e-001 -1.690276e+000 1.565968e+000 -3.100625e+000 -2.679598e+000 -2.663875e+000 1.520311e+000 -3.567789e-001 1.444117e+000 6.462778e-001 -1.321690e+000 4.909320e+001 -5.220132e-001 -3.350178e-001 -8.900656e-001 -1.822707e-002 2.646824e-001 2.548434e-001 1.270836e-001 3.381837e-002 1.831010e-001 1.301516e-001 -1.573388e-001 3.138896e-001 -8.165259e-001 5.144189e-003 -4.601387e-001 -1.155040e-001 -4.306929e-001 -4.752778e-002 -1.249006e-001 -2.044638e-001 -1.724277e-002 -2.549835e-001 7.873893e-002 -1.568859e-002 -6.876427e-002 9.232679e-001
<VARIANCE> 39
 5.883883e+001 4.190340e+001 4.873029e+001 4.761921e+001 7.139285e+001 7.597784e+001 5.258044e+001 4.986749e+001 4.810194e+001 3.724384e+001 3.530482e+001 2.899420e+001 1.018233e+002 1.912071e+000 3.113091e+000 3.226725e+000 2.786518e+000 4.033703e+000 4.034620e+000 3.265027e+000 3.254076e+000 3.633151e+000 2.813276e+000 2.399819e+000 2.059080e+000 5.597190e+000 3.369429e-001 5.687199e-001 6.449540e-001 5.875157e-001 8.558018e-001 8.203434e-001 7.187905e-001 6.388392e-001 7.416349e-001 6.082082e-001 4.760872e-001 4.320529e-001 9.580747e-001
<GCONST> 1.313546e+002
<STATE> 3
<MEAN> 39
 -1.154186e+001 -4.252605e+000 -5.317355e+000 -1.157593e+000 -1.694967e+000 -4.680540e+000 -4.299980e+000 3.884405e-001 -2.339035e+000 2.057125e+000 -9.856393e-001 -8.095609e-001 5.455768e+001 -2.234783e-001 -1.888010e+000 -1.231480e+000 -1.669366e+000 5.628196e-001 -2.426701e-001 -6.153776e-001 -1.036484e-002 -7.955880e-001 6.369101e-001 -6.598556e-002 1.273192e-002 2.888154e+000 5.027828e-001 4.602786e-001 6.704837e-001 -1.802763e-001 -4.030235e-001 1.493790e-002 -2.071829e-001 -7.963124e-002 -1.694414e-001 -1.470137e-001 2.215434e-001 -3.048642e-001 3.642901e-001
<VARIANCE> 39
 4.306120e+001 6.141840e+001 6.695516e+001 6.769606e+001 7.828393e+001 8.725597e+001 6.158657e+001 4.930742e+001 4.873352e+001 3.939479e+001 3.485645e+001 2.594518e+001 9.271386e+001 4.394366e+000 5.947075e+000 9.108612e+000 6.924942e+000 9.783140e+000 8.559031e+000 6.595290e+000 5.982373e+000 5.792662e+000 4.826914e+000 3.815317e+000 3.373588e+000 6.474291e+000 4.904621e-001 9.895647e-001 9.288447e-001 9.969174e-001 1.245296e+000 1.057380e+000 9.384279e-001 8.666396e-001 8.066670e-001 7.192576e-001 5.944042e-001 5.264740e-001 1.240078e+000
<GCONST> 1.447628e+002
<STATE> 4
<MEAN> 39
 -8.785995e+000 -5.674676e+000 -3.204039e+000 -7.037498e+000 -2.788446e+000 -3.703130e+000 -6.226993e+000 -4.170857e-001 -4.935695e+000 1.703549e+000 8.466586e-001 -2.651567e+000 6.173296e+001 1.706468e+000 6.355842e-001 1.679379e+000 -5.093478e-001 -1.487833e+000 6.103388e-002 -8.677555e-001 -2.540820e-001 -5.523425e-001 -5.919344e-001 6.493514e-001 -7.936236e-001 1.410178e+000 3.449530e-001 2.825740e-001 4.725091e-001 2.888286e-001 -4.648486e-001 1.429134e-001 -5.775141e-002 -9.781679e-003 1.680185e-001 -2.326795e-001 1.052336e-001 -1.259540e-001 -3.816435e-001
<VARIANCE> 39
 5.671147e+001 7.470077e+001 1.513169e+002 1.141490e+002 1.073604e+002 1.032297e+002 8.023768e+001 6.574764e+001 6.444312e+001 6.118227e+001 4.741735e+001 3.475233e+001 6.361946e+001 4.022913e+000 4.649303e+000 6.790020e+000 5.929630e+000 8.332093e+000 5.108293e+000 6.026086e+000 5.385791e+000 5.806282e+000 4.947599e+000 4.162519e+000 3.491750e+000 4.431828e+000 6.751207e-001 1.048214e+000 1.698913e+000 1.216933e+000 1.805494e+000 1.061940e+000 1.214776e+000 9.566896e-001 1.020171e+000 1.010860e+000 8.131936e-001 6.626393e-001 7.925608e-001
<GCONST> 1.492492e+002
<TRANSP> 5
 0.000000e+000 1.000000e+000 0.000000e+000 0.000000e+000 0.000000e+000
 0.000000e+000 7.313153e-001 2.686847e-001 0.000000e+000 0.000000e+000
 0.000000e+000 0.000000e+000 5.167990e-001 4.832011e-001 0.000000e+000
 0.000000e+000 0.000000e+000 0.000000e+000 6.668230e-001 3.331770e-001
 0.000000e+000 0.000000e+000 0.000000e+000 0.000000e+000 0.000000e+000
<ENDHMM>
~h "l"
<BEGINHMM>
<NUMSTATES> 5
<STATE> 2
<MEAN> 39
 6.185061e-001 -5.274933e+000 -2.019170e-001 -9.548899e+000 -9.570066e+000 2.749743e+000 -1.144059e+001 -8.963210e+000 -4.882873e-001 3.046927e+000 1.428711e+000 -4.585743e+000 6.638197e+001 8.359734e-001 -2.501923e-001 1.741894e-001 -9.497418e-001 -6.853781e-001 1.321294e+000 -7.659292e-001 -1.223869e+000 -7.745233e-002 5.881309e-001 3.760446e-001 -4.027110e-002 2.140632e-001 -3.090125e-001 5.733212e-002 5.786679e-002 4.187878e-002 1.533114e-001 -2.025155e-001 9.532818e-002 5.178477e-001 -1.274699e-002 -1.492183e-001 -1.168736e-001 5.525377e-002 -6.193383e-002
<VARIANCE> 39
 3.634015e+001 5.793451e+001 4.903384e+001 9.881744e+001 6.500678e+001 7.304691e+001 8.731351e+001 7.937135e+001 5.504803e+001 5.122860e+001 6.302232e+001 3.502374e+001 4.954391e+001 1.816653e+000 2.281513e+000 2.200707e+000 4.355791e+000 3.796513e+000 4.289218e+000 4.941218e+000 4.545977e+000 3.901426e+000 3.596949e+000 3.088558e+000 2.844053e+000 1.679292e+000 3.344018e-001 4.088698e-001 3.558144e-001 5.969657e-001 7.149241e-001 6.529054e-001 7.778095e-001 9.109548e-001 7.898659e-001 6.537076e-001 5.960371e-001 5.154485e-001 1.997080e-001
<GCONST> 1.314907e+002
<STATE> 3
<MEAN> 39
 1.840391e+000 -5.553567e+000 -2.098873e-001 -1.292335e+001 -1.231758e+001 7.372160e+000 -1.185342e+001 -1.083428e+001 -8.390437e-001 3.619931e+000 2.142642e+000 -3.386725e+000 6.664191e+001 -9.908339e-002 6.617035e-002 -6.804333e-003 -2.704386e-001 3.766224e-001 -3.911284e-002 -4.415049e-001 5.001797e-001 8.450442e-002 1.054901e-001 -1.971365e-001 -2.177085e-001 3.902898e-002 -2.351352e-001 5.196950e-002 -6.424811e-002 2.081174e-001 2.982691e-001 -4.450692e-001 1.053177e-001 5.501019e-001 5.821167e-002 -1.312205e-001 -1.889679e-001 -1.352267e-001 8.037104e-003
<VARIANCE> 39
 3.007302e+001 4.711223e+001 4.438118e+001 1.008993e+002 6.915018e+001 7.701685e+001 8.054465e+001 6.599714e+001 4.409936e+001 5.117643e+001 5.911245e+001 3.617213e+001 3.645577e+001 5.470814e-001 1.661846e+000 1.388274e+000 3.291256e+000 2.454445e+000 2.810492e+000 3.318985e+000 3.683082e+000 3.031817e+000 2.503806e+000 2.138931e+000 2.259597e+000 8.457513e-001 1.391132e-001 2.844304e-001 2.333376e-001 4.748362e-001 4.933863e-001 4.766138e-001 6.114974e-001 6.731868e-001 5.569215e-001 5.183934e-001 4.499744e-001 4.069856e-001 1.473590e-001
<GCONST> 1.201586e+002
<STATE> 4
<MEAN> 39
 -1.989422e-001 -4.875482e+000 -3.932087e-001 -1.040069e+001 -7.471045e+000 1.604163e+000 -1.391242e+001 -4.815491e+000 6.869947e-001 3.412518e+000 -4.880864e-001 -5.816853e+000 6.632928e+001 -6.088750e-001 2.227062e-001 1.555143e-001 6.101480e-001 4.836703e-001 -1.346090e+000 3.035256e-001 1.647719e+000 4.874676e-002 -5.652217e-001 -6.446921e-001 -4.311395e-002 -1.158595e-001 -1.019609e-001 1.452458e-001 1.357317e-001 1.897097e-001 -1.476621e-001 -7.048099e-002 3.763573e-001 -5.836094e-002 -2.637914e-001 -1.737176e-001 1.115253e-001 2.343565e-001 -1.643385e-001
<VARIANCE> 39
 2.971917e+001 5.817904e+001 5.570605e+001 9.632558e+001 5.580614e+001 7.523859e+001 8.753809e+001 6.506445e+001 5.534374e+001 4.995167e+001 5.717324e+001 3.931588e+001 6.378944e+001 7.925533e-001 2.246895e+000 2.124037e+000 3.607167e+000 3.803223e+000 3.884973e+000 3.682936e+000 4.353831e+000 3.945014e+000 3.080610e+000 2.802070e+000 2.627205e+000 1.615342e+000 1.714169e-001 2.991211e-001 3.026116e-001 5.878738e-001 5.407023e-001 5.641381e-001 7.115842e-001 6.754930e-001 6.879563e-001 5.479727e-001 4.951246e-001 4.415526e-001 2.010234e-001
<GCONST> 1.268454e+002
<TRANSP> 5
 0.000000e+000 1.000000e+000 0.000000e+000 0.000000e+000 0.000000e+000
 0.000000e+000 4.529326e-001 5.470674e-001 0.000000e+000 0.000000e+000
 0.000000e+000 0.000000e+000 6.364746e-001 3.635254e-001 0.000000e+000
 0.000000e+000 0.000000e+000 0.000000e+000 5.314533e-001 4.685467e-001
 0.000000e+000 0.000000e+000 0.000000e+000 0.000000e+000 0.000000e+000
<ENDHMM>
~h "m"
<BEGINHMM>
<NUMSTATES> 5
<STATE> 2
<MEAN> 39
 -3.464195e-001 -7.776273e-001 1.356708e+000 1.804171e-002 -7.157850e+000 -7.570160e-001 -7.936887e+000 -4.417648e+000 -6.953278e+000 -1.104754e+000 1.914738e+000 -7.066714e+000 5.915839e+001 1.990067e-001 8.722972e-001 5.164739e-001 1.527451e+000 3.974392e-001 -2.954524e-001 6.659944e-001 -1.229471e+000 -1.919634e+000 6.866144e-002 3.190154e-001 -7.890429e-001 -8.061796e-001 -1.807664e-001 -2.060913e-001 1.489803e-001 -3.750522e-001 -1.553200e-001 4.277866e-002 -9.842758e-002 2.510569e-001 2.374977e-001 -3.113709e-003 -1.928306e-001 1.295921e-001 2.884878e-001
<VARIANCE> 39
 5.359440e+001 4.037215e+001 4.252424e+001 6.150992e+001 4.914762e+001 5.295494e+001 5.704829e+001 4.020226e+001 6.564576e+001 4.583205e+001 4.806437e+001 3.514831e+001 9.778188e+001 9.928294e-001 1.802779e+000 2.487407e+000 2.684776e+000 2.544502e+000 2.664604e+000 3.231061e+000 3.132375e+000 3.963476e+000 2.928448e+000 3.195600e+000 2.421724e+000 1.225137e+000 1.430958e-001 2.282701e-001 3.358122e-001 3.470041e-001 3.767465e-001 3.812744e-001 4.185738e-001 4.676039e-001 6.273699e-001 4.048899e-001 4.496034e-001 3.915034e-001 1.196425e-001
<GCONST> 1.198895e+002
<STATE> 3
<MEAN> 39
 4.686641e-001 6.872843e-001 3.905940e+000 1.740226e+000 -7.516674e+000 -1.166072e+000 -6.887854e+000 -6.076243e+000 -8.742796e+000 -1.053533e+000 1.719676e+000 -8.146477e+000 6.041349e+001 -9.976662e-003 1.957420e-001 -2.153396e-002 -2.938883e-003 -1.686048e-002 2.580735e-002 2.116535e-001 -3.814537e-002 -7.647072e-003 -9.147484e-002 -2.439319e-001 1.542568e-001 -1.182656e-001 -5.584212e-002 -1.545035e-001 -1.729344e-001 -4.914771e-001 -1.277431e-001 7.963476e-002 -1.298703e-001 3.515496e-001 5.432000e-001 -2.375401e-002 -9.990078e-002 2.968006e-001 1.918976e-001
<VARIANCE> 39
 2.008664e+001 3.003770e+001 2.804349e+001 5.039297e+001 5.086856e+001 5.292252e+001 5.076160e+001 3.899231e+001 5.536166e+001 4.869529e+001 5.741913e+001 3.571473e+001 4.029016e+001 3.216580e-001 8.891054e-001 1.007350e+000 1.377880e+000 1.378601e+000 1.499891e+000 1.627408e+000 1.598941e+000 2.123560e+000 1.596747e+000 1.817372e+000 1.549387e+000 4.706105e-001 1.137361e-001 1.851555e-001 3.144782e-001 3.680916e-001 3.248348e-001 3.546764e-001 3.930866e-001 4.536489e-001 6.130899e-001 4.056146e-001 4.828030e-001 3.760423e-001 1.110504e-001
<GCONST> 1.071075e+002
<STATE> 4
<MEAN> 39
 9.722425e-001 2.103922e-001 1.266481e+000 -1.598308e+000 -7.256011e+000 -6.673169e-001 -6.898435e+000 -5.149282e+000 -7.638318e+000 -1.854068e+000 7.709171e-001 -6.293980e+000 6.056814e+001 -1.689983e-001 -6.073994e-001 -5.855591e-001 -1.744339e+000 -3.223522e-001 4.833743e-001 -5.461102e-001 1.211320e+000 1.914106e+000 -1.756769e-001 -5.387958e-001 9.230204e-001 7.123634e-001 -2.035058e-001 -2.038276e-001 1.514551e-001 -2.866148e-001 -7.057873e-003 1.412728e-001 -1.451580e-001 2.676077e-001 1.993197e-001 4.044457e-002 -1.278793e-002 5.011196e-002 1.784363e-001
<VARIANCE> 39
 2.809457e+001 4.565810e+001 4.239823e+001 7.811518e+001 5.806134e+001 6.032799e+001 6.280783e+001 4.617715e+001 8.091833e+001 5.390549e+001 5.775094e+001 3.956645e+001 5.746471e+001 1.200955e+000 2.727115e+000 3.379836e+000 4.605480e+000 3.431093e+000 3.695676e+000 3.775174e+000 4.055130e+000 5.551479e+000 3.310104e+000 3.804758e+000 3.018481e+000 2.098521e+000 2.137681e-001 3.118428e-001 4.859552e-001 6.630996e-001 6.025164e-001 5.991324e-001 6.124345e-001 6.520338e-001 9.991048e-001 5.232637e-001 6.170258e-001 4.775831e-001 2.035646e-001
<GCONST> 1.292926e+002
<TRANSP> 5
 0.000000e+000 1.000000e+000 0.000000e+000 0.000000e+000 0.000000e+000
 0.000000e+000 5.010166e-001 4.989834e-001 0.000000e+000 0.000000e+000
 0.000000e+000 0.000000e+000 7.114624e-001 2.885376e-001 0.000000e+000
 0.000000e+000 0.000000e+000 0.000000e+000 5.253116e-001 4.746884e-001
 0.000000e+000 0.000000e+000 0.000000e+000 0.000000e+000 0.000000e+000
<ENDHMM>
~h "n"
<BEGINHMM>
<NUMSTATES> 5
<STATE> 2
<MEAN> 39
 -1.171509e+000 8.843082e-001 3.526158e+000 6.805822e-001 -9.039430e+000 -1.533077e+000 -6.250136e+000 -5.368080e+000 -4.867091e+000 6.478656e-002 -2.282442e+000 -5.955425e+000 5.879147e+001 7.968245e-001 5.366372e-001 4.883273e-001 8.547638e-001 -5.289254e-001 -8.700274e-002 2.684352e-001 -1.247306e+000 -8.871464e-001 3.851831e-001 -4.261578e-001 -4.625719e-001 -1.426103e-001 -1.955065e-001 -4.531936e-001 -8.374109e-002 -5.479441e-001 5.944018e-002 -3.034724e-002 -3.382914e-001 5.695375e-001 4.076299e-001 -6.921726e-002 5.460773e-002 1.288918e-001 4.779049e-001
<VARIANCE> 39
 4.044059e+001 4.218767e+001 3.924659e+001 5.389896e+001 5.970184e+001 4.533500e+001 6.018150e+001 5.064233e+001 5.404617e+001 4.449531e+001 4.132272e+001 2.890490e+001 7.468282e+001 2.275714e+000 2.739617e+000 2.884132e+000 2.937402e+000 3.391689e+000 3.397533e+000 4.042779e+000 3.938785e+000 4.142758e+000 2.739845e+000 2.566895e+000 2.171830e+000 3.070913e+000 3.699225e-001 5.252957e-001 4.939902e-001 5.779983e-001 6.487643e-001 6.197636e-001 6.660358e-001 8.348224e-001 8.822853e-001 5.474896e-001 4.986039e-001 3.990774e-001 3.313905e-001
<GCONST> 1.284978e+002
<STATE> 3
<MEAN> 39
 7.116494e-001 4.035202e-002 4.662653e+000 1.480160e+000 -1.062828e+001 -1.878102e+000 -6.948020e+000 -6.782445e+000 -5.546925e+000 1.073151e+000 -2.739912e+000 -6.988976e+000 6.122422e+001 -8.487070e-002 -1.051461e+000 -2.408550e-001 -8.611527e-001 3.421723e-001 -1.120506e-001 -1.056827e+000 1.026778e+000 1.014489e+000 -1.865582e-001 -1.938107e-001 1.347676e-001 9.730030e-001 -2.915996e-001 -4.799947e-001 -2.583373e-001 -7.494084e-001 2.730332e-001 1.042428e-001 -3.551337e-001 9.340583e-001 5.800817e-001 -2.177038e-001 1.163776e-001 1.854714e-001 4.378281e-001
<VARIANCE> 39
 1.996419e+001 3.683034e+001 3.413186e+001 5.284577e+001 5.362551e+001 4.534256e+001 5.530624e+001 4.465803e+001 5.354533e+001 4.462270e+001 4.203762e+001 2.818897e+001 3.726426e+001 8.965667e-001 2.844926e+000 2.121138e+000 2.795977e+000 2.989253e+000 3.341629e+000 3.658890e+000 4.155297e+000 3.970652e+000 2.640662e+000 2.243594e+000 2.000075e+000 1.918925e+000 2.325075e-001 4.365007e-001 4.978116e-001 5.312876e-001 7.014723e-001 7.201849e-001 6.786900e-001 8.101695e-001 8.541899e-001 5.819597e-001 5.571123e-001 4.362745e-001 2.920016e-001
<GCONST> 1.238569e+002
<STATE> 4
<MEAN> 39
 -4.229519e-001 -4.560164e+000 2.691473e+000 -3.948048e+000 -7.803197e+000 -2.185444e+000 -1.183530e+001 -9.997430e-001 -2.218137e-001 -9.004084e-001 -3.202532e+000 -5.547028e+000 6.501604e+001 -3.616253e-001 -1.377394e+000 -7.312799e-001 -1.895180e+000 6.442935e-001 4.024462e-001 -1.062082e+000 2.217155e+000 1.305016e+000 -3.987620e-001 6.262390e-002 2.169403e-001 1.318460e+000 -1.099240e-001 2.137092e-001 -2.372096e-002 -3.666635e-002 -6.927963e-002 1.806321e-001 4.235829e-001 -6.820223e-002 -3.206197e-001 6.833444e-002 1.326815e-001 -3.328586e-002 -1.786392e-001
<VARIANCE> 39
 2.581856e+001 5.317450e+001 4.867975e+001 6.092741e+001 5.801276e+001 5.258676e+001 6.046844e+001 6.135078e+001 6.154026e+001 4.347756e+001 4.484518e+001 3.227795e+001 5.220315e+001 1.173866e+000 3.633928e+000 3.322074e+000 3.434926e+000 4.248933e+000 4.477736e+000 4.427805e+000 5.243603e+000 5.537515e+000 3.416651e+000 3.532080e+000 2.702188e+000 2.350871e+000 2.231617e-001 4.315850e-001 3.900923e-001 5.316353e-001 6.584256e-001 6.434970e-001 6.342059e-001 7.915858e-001 8.371713e-001 5.383722e-001 4.879135e-001 4.288373e-001 2.498491e-001
<GCONST> 1.290809e+002
<TRANSP> 5
 0.000000e+000 1.000000e+000 0.000000e+000 0.000000e+000 0.000000e+000
 0.000000e+000 4.883015e-001 5.116985e-001 0.000000e+000 0.000000e+000
 0.000000e+000 0.000000e+000 4.776552e-001 5.223448e-001 0.000000e+000
 0.000000e+000 0.000000e+000 0.000000e+000 3.908400e-001 6.091599e-001
 0.000000e+000 0.000000e+000 0.000000e+000 0.000000e+000 0.000000e+000
<ENDHMM>
~h "o"
<BEGINHMM>
<NUMSTATES> 5
<STATE> 2
<MEAN> 39
 -3.917320e-002 -1.548724e+000 -2.896818e+000 -1.181378e+001 -8.769191e+000 2.872190e+000 -1.133801e+001 -5.516153e+000 -3.796405e+000 2.083127e+000 3.088305e+000 -3.585565e+000 6.400104e+001 1.621227e+000 -9.646280e-003 1.437675e-001 -2.136934e+000 -1.275268e+000 1.698396e+000 -1.077302e+000 -5.248993e-001 -1.025794e+000 1.845884e-001 1.109713e+000 -2.137631e-001 1.113003e+000 -4.301767e-001 3.007940e-002 1.424613e-001 4.733339e-001 2.921370e-001 -2.017016e-001 3.745600e-001 1.608266e-001 3.194585e-002 -1.038880e-001 -1.613608e-001 1.404218e-001 -3.525788e-001
<VARIANCE> 39
 4.290727e+001 4.780077e+001 4.703867e+001 1.092941e+002 6.591389e+001 6.057058e+001 8.481374e+001 5.392483e+001 5.504852e+001 5.831337e+001 5.052011e+001 4.040907e+001 7.150756e+001 3.212534e+000 2.832260e+000 3.472407e+000 5.532655e+000 6.016535e+000 4.879368e+000 5.043606e+000 4.350166e+000 4.468229e+000 4.235460e+000 3.774186e+000 3.060508e+000 2.948859e+000 5.617442e-001 5.362378e-001 4.869367e-001 1.152516e+000 9.136094e-001 7.898610e-001 1.056681e+000 7.440023e-001 8.408062e-001 7.550344e-001 6.251754e-001 5.981382e-001 6.305730e-001
<GCONST> 1.383904e+002
<STATE> 3
<MEAN> 39
 1.934685e+000 -2.702003e+000 -2.150275e+000 -1.548823e+001 -1.090636e+001 6.425231e+000 -1.352606e+001 -5.855345e+000 -5.765057e+000 1.878863e+000 5.525038e+000 -3.764643e+000 6.723321e+001 1.192489e-001 3.338709e-001 2.640043e-001 2.595538e-001 2.847268e-001 9.922477e-002 5.779479e-002 -1.128894e-001 -3.124707e-001 -1.675593e-002 2.748163e-002 6.012384e-002 -3.255552e-001 -4.436123e-001 2.762946e-001 3.906013e-002 9.494906e-001 5.350143e-001 -6.299889e-001 5.657008e-001 9.002859e-002 3.028951e-001 -1.515962e-001 -4.941795e-001 8.776063e-002 -5.745827e-001
<VARIANCE> 39
 2.429617e+001 4.257926e+001 4.356303e+001 1.027599e+002 6.151797e+001 5.772709e+001 6.912622e+001 5.314260e+001 5.121264e+001 6.553513e+001 5.317070e+001 3.717075e+001 3.240594e+001 7.608039e-001 2.172190e+000 1.441729e+000 4.245199e+000 3.383215e+000 2.886696e+000 3.728331e+000 2.495111e+000 3.289956e+000 3.095680e+000 2.404332e+000 2.242403e+000 1.549803e+000 3.122319e-001 3.198113e-001 3.594255e-001 6.092297e-001 7.029697e-001 5.630757e-001 7.276563e-001 6.265061e-001 6.683084e-001 6.575084e-001 5.591340e-001 4.868696e-001 2.505054e-001
<GCONST> 1.248196e+002
<STATE> 4
<MEAN> 39
 1.463234e+000 5.661873e-001 -2.311983e+000 -1.072342e+001 -7.763223e+000 3.252241e+000 -1.109923e+001 -6.230807e+000 -5.031902e+000 1.767212e+000 2.909473e+000 -3.025321e+000 6.248178e+001 -7.643782e-001 9.428169e-001 2.236867e-001 1.970240e+000 9.198989e-001 -1.132860e+000 1.237055e+000 2.050497e-001 4.289364e-001 -4.285608e-001 -8.070956e-001 2.571520e-001 -1.591853e+000 -3.816212e-001 -3.755697e-002 1.770121e-002 1.644659e-001 2.234287e-002 -1.649343e-001 2.146384e-001 1.403430e-001 1.491276e-001 -1.144284e-001 -1.040144e-001 5.931234e-002 -7.400494e-002
<VARIANCE> 39
 2.755686e+001 4.935863e+001 4.790396e+001 9.294618e+001 6.766184e+001 6.039374e+001 7.796391e+001 5.409430e+001 5.052201e+001 5.530283e+001 4.666626e+001 3.633284e+001 5.539230e+001 1.792078e+000 2.442507e+000 2.405910e+000 4.298876e+000 4.406155e+000 3.764601e+000 3.952389e+000 3.656100e+000 3.980909e+000 3.360546e+000 3.095778e+000 2.440547e+000 2.209123e+000 3.008738e-001 4.179888e-001 3.998528e-001 6.944170e-001 7.005050e-001 6.421965e-001 8.064500e-001 6.146027e-001 6.831037e-001 6.349648e-001 5.215268e-001 4.947050e-001 3.564508e-001
<GCONST> 1.299650e+002
<TRANSP> 5
 0.000000e+000 1.000000e+000 0.000000e+000 0.000000e+000 0.000000e+000
 0.000000e+000 4.452615e-001 5.547385e-001 0.000000e+000 0.000000e+000
 0.000000e+000 0.000000e+000 5.642814e-001 4.357186e-001 0.000000e+000
 0.000000e+000 0.000000e+000 0.000000e+000 4.874555e-001 5.125445e-001
 0.000000e+000 0.000000e+000 0.000000e+000 0.000000e+000 0.000000e+000
<ENDHMM>
~h "p"
<BEGINHMM>
<NUMSTATES> 5
<STATE> 2
<MEAN> 39
 -8.385404e+000 3.272092e+000 -1.363326e+000 7.304279e-001 -3.533970e+000 -2.500981e-001 -2.934625e+000 -4.776390e-001 -2.455922e-001 1.087934e+000 9.443312e-001 -8.986331e-001 4.846766e+001 -8.626410e-001 -2.427688e-001 -5.021876e-001 1.923553e-001 1.747139e-001 -1.897583e-001 3.722256e-001 1.764884e-001 3.798645e-001 1.016067e-001 -8.660562e-002 3.125296e-001 -6.264822e-001 1.161682e-001 -4.014961e-001 7.001422e-002 -2.798657e-001 -1.293106e-001 -1.356463e-001 -1.741281e-001 -9.062481e-002 -1.846869e-002 -1.368914e-003 -3.764861e-003 -6.347286e-002 9.585264e-001
<VARIANCE> 39
 4.364644e+001 2.613746e+001 3.480198e+001 4.356275e+001 4.418783e+001 4.390160e+001 4.091181e+001 3.286776e+001 3.529023e+001 2.906257e+001 2.650530e+001 2.436289e+001 7.167815e+001 1.540244e+000 1.918926e+000 1.869105e+000 2.059231e+000 2.189019e+000 2.368707e+000 2.241799e+000 2.091573e+000 2.346604e+000 1.989144e+000 1.761141e+000 1.689335e+000 4.169046e+000 3.172850e-001 3.793066e-001 4.397451e-001 4.796725e-001 5.392019e-001 5.081984e-001 4.965322e-001 4.885112e-001 4.858074e-001 4.309708e-001 3.679977e-001 3.619373e-001 5.639178e-001
<GCONST> 1.176346e+002
<STATE> 3
<MEAN> 39
 -1.075935e+001 -1.736537e-001 -2.663964e+000 1.517355e-001 -3.594703e+000 -2.628399e+000 -3.063716e+000 -1.416012e+000 5.050921e-001 8.326936e-001 -2.376079e-001 -3.792297e-001 5.160363e+001 6.560764e-001 -1.721880e+000 6.448204e-002 -1.000634e+000 -2.702277e-002 -5.600072e-001 -3.733637e-001 -6.219569e-001 1.618412e-001 9.095430e-002 -7.740968e-003 -1.272118e-001 4.004564e+000 8.876602e-001 -1.468269e-002 2.789217e-001 -6.136516e-001 -5.641524e-001 3.675984e-001 -4.789230e-001 -1.957913e-001 -3.546682e-001 -8.004220e-002 2.474000e-001 -2.774238e-001 7.990103e-001
<VARIANCE> 39
 3.033705e+001 3.257003e+001 3.863705e+001 4.063358e+001 4.546004e+001 4.392559e+001 4.454917e+001 3.233126e+001 3.116071e+001 2.816339e+001 2.548585e+001 2.012121e+001 9.935477e+001 6.781671e+000 4.736823e+000 5.985669e+000 5.530738e+000 6.169851e+000 5.940991e+000 5.982098e+000 5.113053e+000 4.877192e+000 3.877642e+000 3.069234e+000 3.335034e+000 5.519798e+000 6.211101e-001 7.657288e-001 6.443727e-001 8.041742e-001 8.956680e-001 8.385307e-001 8.043460e-001 7.348482e-001 7.299228e-001 6.366128e-001 5.005758e-001 4.678107e-001 1.210292e+000
<GCONST> 1.351450e+002
<STATE> 4
<MEAN> 39
 -5.970214e+000 -4.772766e+000 -1.358759e+000 -5.007400e+000 -5.089056e+000 -2.820293e+000 -5.835554e+000 -4.003685e+000 -8.104818e-001 7.877598e-002 8.146759e-001 -1.713767e+000 6.230977e+001 2.083330e+000 -9.038184e-001 4.988485e-001 -2.004137e+000 -1.645838e+000 9.687105e-001 -1.236561e+000 -5.650972e-001 -6.014076e-001 -1.045182e-001 5.938091e-001 -5.971928e-001 3.319584e+000 2.769644e-002 4.359810e-001 1.807046e-001 -2.556057e-002 -3.479066e-001 3.898908e-001 -1.532990e-001 1.472386e-001 -1.384723e-001 -8.631300e-003 4.516019e-002 -6.362963e-002 -7.638975e-001
<VARIANCE> 39
 5.818380e+001 6.406847e+001 8.595666e+001 8.750906e+001 7.851064e+001 6.503082e+001 7.517710e+001 5.238227e+001 4.464778e+001 5.032182e+001 4.261925e+001 3.187668e+001 5.582475e+001 8.104820e+000 6.587231e+000 5.332842e+000 8.702720e+000 8.515342e+000 7.751203e+000 7.064080e+000 6.341259e+000 6.195730e+000 5.408209e+000 4.270204e+000 3.898298e+000 7.016741e+000 9.302779e-001 1.014912e+000 9.245434e-001 1.253551e+000 1.406580e+000 1.170200e+000 1.256441e+000 9.467174e-001 8.959509e-001 8.057483e-001 7.575905e-001 6.131257e-001 9.704086e-001
<GCONST> 1.483150e+002
<TRANSP> 5
 0.000000e+000 1.000000e+000 0.000000e+000 0.000000e+000 0.000000e+000
 0.000000e+000 7.691863e-001 2.308137e-001 0.000000e+000 0.000000e+000
 0.000000e+000 0.000000e+000 4.541326e-001 5.458674e-001 0.000000e+000
 0.000000e+000 0.000000e+000 0.000000e+000 4.518020e-001 5.481980e-001
 0.000000e+000 0.000000e+000 0.000000e+000 0.000000e+000 0.000000e+000
<ENDHMM>
~h "r"
<BEGINHMM>
<NUMSTATES> 5
<STATE> 2
<MEAN> 39
 -1.798897e+000 -7.473053e+000 4.333403e-001 -2.468239e+000 -1.026568e+001 -5.033112e+000 -1.108023e+001 -1.552393e+000 2.949005e+000 2.045361e+000 -1.156826e+000 -5.466509e+000 6.745934e+001 6.868280e-001 -7.786626e-001 5.046223e-001 1.164036e+000 -1.297037e+000 2.323291e-001 -4.634374e-001 -4.885467e-001 9.453696e-001 -1.385662e-001 -2.859118e-001 2.247239e-001 2.255569e-002 -2.463151e-001 1.736324e-001 -1.149005e-002 -2.524938e-002 2.406157e-001 1.717073e-001 2.861906e-001 6.305466e-002 -2.876866e-001 -1.189629e-001 6.171285e-003 2.562494e-001 -4.122410e-001
<VARIANCE> 39
 3.212539e+001 4.527232e+001 4.469725e+001 6.139508e+001 5.913357e+001 4.664989e+001 7.385742e+001 6.686182e+001 4.173774e+001 5.324570e+001 5.041560e+001 3.214498e+001 5.949027e+001 2.433555e+000 2.482647e+000 2.684489e+000 3.841975e+000 4.058720e+000 3.715339e+000 4.737073e+000 4.326974e+000 3.427436e+000 3.231844e+000 3.011691e+000 2.896430e+000 2.860461e+000 5.160631e-001 5.430911e-001 5.258201e-001 8.548710e-001 7.664881e-001 7.822158e-001 1.087038e+000 9.329413e-001 7.131405e-001 7.101982e-001 6.027647e-001 5.754787e-001 7.219977e-001
<GCONST> 1.333404e+002
<STATE> 3
<MEAN> 39
 -1.467209e+000 -7.765028e+000 1.503943e+000 1.161766e+000 -1.248859e+001 -4.850110e+000 -1.035952e+001 -3.168867e+000 4.673152e+000 1.454195e+000 -2.361469e+000 -3.320172e+000 6.588531e+001 3.330045e-001 -3.986976e-001 2.550785e-001 1.237259e-001 -3.278950e-001 4.221171e-001 -4.215122e-001 1.430458e-001 -1.524520e-001 -1.289545e-001 -2.495857e-002 2.793432e-001 -2.120845e-001 -1.827514e-002 6.601153e-002 -1.446661e-001 -7.094728e-001 3.124113e-001 1.613862e-001 -1.757343e-001 4.365356e-001 -5.805040e-001 5.804035e-002 2.409850e-001 -2.858073e-001 2.148212e-001
<VARIANCE> 39
 2.890575e+001 3.747521e+001 3.733909e+001 4.713480e+001 5.668872e+001 3.555680e+001 6.114054e+001 5.816188e+001 3.481639e+001 4.757708e+001 3.714843e+001 2.926729e+001 4.224664e+001 1.498485e+000 2.211780e+000 2.392941e+000 2.834459e+000 2.731188e+000 3.287827e+000 3.937183e+000 4.002056e+000 2.604619e+000 2.674542e+000 2.357337e+000 2.256678e+000 1.667028e+000 3.252362e-001 4.339867e-001 4.129132e-001 5.807769e-001 6.781467e-001 6.522819e-001 7.912951e-001 8.093096e-001 6.189641e-001 5.465078e-001 5.380371e-001 4.733633e-001 3.766654e-001
<GCONST> 1.241836e+002
<STATE> 4
<MEAN> 39
 -1.846349e-001 -9.609189e+000 1.586849e+000 -1.979998e+000 -1.221294e+001 -3.217280e+000 -1.331261e+001 -1.096945e+000 2.578073e+000 1.095084e+000 -1.040325e+000 -4.346389e+000 6.666064e+001 3.119360e-001 5.701790e-002 -1.175003e-001 -1.133731e+000 3.798678e-001 7.320096e-001 -5.104260e-001 7.020366e-001 -1.264892e+000 6.560154e-002 5.562696e-001 -5.145520e-001 1.563593e-001 -1.463731e-001 3.255568e-001 -9.466793e-002 -2.596163e-001 3.073316e-001 -6.041841e-003 2.962109e-001 8.258261e-003 -2.994519e-001 2.709881e-002 8.059454e-002 -9.274703e-002 -4.495895e-002
<VARIANCE> 39
 3.724200e+001 5.820198e+001 5.213592e+001 5.431472e+001 5.752163e+001 4.347435e+001 6.700474e+001 6.914595e+001 4.056166e+001 4.567000e+001 4.437357e+001 3.136401e+001 5.006399e+001 1.742862e+000 3.344688e+000 2.732785e+000 2.835411e+000 3.790664e+000 3.745469e+000 4.208492e+000 4.818638e+000 3.258646e+000 2.681418e+000 3.022158e+000 2.487416e+000 2.105025e+000 2.816295e-001 3.890611e-001 3.721501e-001 5.664722e-001 6.415471e-001 6.133397e-001 6.964872e-001 6.852729e-001 5.864783e-001 4.998568e-001 5.105070e-001 3.964155e-001 3.232651e-001
<GCONST> 1.272564e+002
<TRANSP> 5
 0.000000e+000 1.000000e+000 0.000000e+000 0.000000e+000 0.000000e+000
 0.000000e+000 4.614625e-001 5.385374e-001 0.000000e+000 0.000000e+000
 0.000000e+000 0.000000e+000 4.728907e-001 5.271093e-001 0.000000e+000
 0.000000e+000 0.000000e+000 0.000000e+000 3.851904e-001 6.148095e-001
 0.000000e+000 0.000000e+000 0.000000e+000 0.000000e+000 0.000000e+000
<ENDHMM>
~h "s"
<BEGINHMM>
<NUMSTATES> 5
<STATE> 2
<MEAN> 39
 -1.389175e+001 4.241050e+000 1.617791e+000 -3.670115e+000 1.195266e+000 -7.098167e+000 -2.508363e+000 -1.448499e+000 8.806283e-001 4.909448e-001 -1.563442e+000 -9.437997e-001 6.439541e+001 -4.207519e+000 1.212089e+000 -1.365018e+000 7.067768e-001 1.699364e+000 -9.882144e-001 2.090524e+000 5.929849e-001 9.078846e-001 -5.095881e-001 2.735712e-001 8.538120e-001 1.853030e-001 2.367126e-002 -3.723133e-001 -1.870230e-001 -3.236806e-001 -5.299786e-001 2.106617e-001 -4.532045e-001 1.209277e-002 -2.850290e-001 -4.407110e-002 1.374796e-001 -1.452587e-001 7.448924e-002
<VARIANCE> 39
 6.306790e+001 4.219437e+001 5.728593e+001 7.652389e+001 6.268133e+001 6.817339e+001 7.900944e+001 4.633898e+001 4.423901e+001 4.061249e+001 3.823682e+001 3.018911e+001 4.924114e+001 3.041790e+000 3.603810e+000 3.630643e+000 4.146997e+000 4.572883e+000 5.006889e+000 5.146411e+000 5.041176e+000 4.247177e+000 3.320037e+000 3.552603e+000 2.713646e+000 1.321932e+000 8.571599e-001 4.754596e-001 3.995169e-001 5.459265e-001 6.500880e-001 6.305507e-001 8.419710e-001 6.910717e-001 6.606300e-001 5.648191e-001 5.423955e-001 4.305079e-001 2.050762e-001
<GCONST> 1.317627e+002
<STATE> 3
<MEAN> 39
 -2.465074e+001 5.323061e+000 -4.438204e+000 -2.175102e+000 2.082286e+000 -8.002328e+000 1.224398e+000 -9.551784e-002 1.503757e+000 1.180153e-001 -2.139437e-001 1.244835e+000 6.482498e+001 -4.850792e-001 -2.241990e-001 -3.501920e-001 1.070555e-002 8.709755e-003 7.904711e-002 6.113700e-002 4.786396e-002 1.086551e-001 3.865371e-002 -2.574210e-002 1.083726e-001 -4.287845e-001 7.772342e-001 -1.873948e-001 3.361571e-001 -1.484491e-002 -1.916936e-001 1.105866e-001 -2.758338e-001 -9.816788e-002 -3.902768e-002 7.659940e-002 -6.995445e-002 -1.505413e-001 -1.755135e-001
<VARIANCE> 39
 2.481838e+001 3.178005e+001 3.574365e+001 4.262381e+001 4.428318e+001 4.201434e+001 5.843880e+001 3.385107e+001 2.944698e+001 3.241560e+001 2.629491e+001 2.133418e+001 3.679842e+001 2.588494e+000 1.533329e+000 1.806763e+000 1.388494e+000 1.683979e+000 2.020878e+000 1.979467e+000 1.922773e+000 1.882123e+000 1.702965e+000 1.585058e+000 1.420668e+000 8.529059e-001 3.180995e-001 2.758503e-001 2.684435e-001 3.021635e-001 3.601519e-001 4.222473e-001 4.770297e-001 4.396494e-001 4.050460e-001 3.601444e-001 3.445317e-001 3.072984e-001 1.484007e-001
<GCONST> 1.097994e+002
<STATE> 4
<MEAN> 39
 -1.879263e+001 2.012800e+000 -1.765665e+000 -3.641076e+000 1.128593e+000 -7.364428e+000 -1.809703e+000 -1.358552e+000 1.808272e+000 2.105291e-001 -1.519621e+000 -4.672913e-001 6.038836e+001 3.015232e+000 -4.390437e-001 7.457622e-001 -1.341269e-001 -9.682510e-001 4.862170e-001 -1.359680e+000 -7.156807e-001 -4.243398e-001 2.073574e-001 -1.142371e-001 -8.044193e-001 -7.937855e-001 2.767414e-001 1.199900e-003 1.852059e-002 -1.467917e-001 -2.405300e-001 7.188166e-002 -2.102855e-001 -5.250923e-002 -1.829220e-001 -8.206472e-003 1.208425e-001 -8.723021e-002 1.979032e-001
<VARIANCE> 39
 6.407757e+001 4.278795e+001 5.440207e+001 7.081881e+001 6.082846e+001 5.867737e+001 7.167611e+001 4.528972e+001 4.005191e+001 3.845484e+001 3.475360e+001 2.773022e+001 6.301580e+001 4.938516e+000 3.326599e+000 3.297318e+000 3.816494e+000 3.608999e+000 4.081734e+000 5.689855e+000 4.182719e+000 3.583112e+000 2.947852e+000 2.810499e+000 2.601591e+000 4.821629e+000 8.218465e-001 5.997107e-001 4.967835e-001 6.187506e-001 6.029738e-001 6.759922e-001 9.096368e-001 7.238618e-001 6.332389e-001 5.424361e-001 4.907380e-001 4.529262e-001 5.908222e-001
<GCONST> 1.332790e+002
<TRANSP> 5
 0.000000e+000 1.000000e+000 0.000000e+000 0.000000e+000 0.000000e+000
 0.000000e+000 6.476084e-001 3.523916e-001 0.000000e+000 0.000000e+000
 0.000000e+000 0.000000e+000 8.328896e-001 1.671104e-001 0.000000e+000
 0.000000e+000 0.000000e+000 0.000000e+000 6.824563e-001 3.175436e-001
 0.000000e+000 0.000000e+000 0.000000e+000 0.000000e+000 0.000000e+000
<ENDHMM>
~h "t"
<BEGINHMM>
<NUMSTATES> 5
<STATE> 2
<MEAN> 39
 -1.127828e+001 3.012903e+000 -2.208397e+000 -2.737476e-001 -2.879397e+000 -1.407658e+000 -2.563339e+000 -5.368427e-001 6.399572e-001 1.577351e+000 1.304802e-001 -1.176439e+000 4.909925e+001 -4.825912e-001 -2.810448e-001 -4.681621e-001 1.522602e-001 3.970012e-002 1.742821e-001 4.114220e-001 2.647048e-001 1.362479e-001 -1.190451e-001 1.245983e-001 3.063506e-001 -1.037523e+000 -1.180006e-001 -3.925957e-001 2.373238e-002 -3.285204e-001 -7.122238e-002 -2.457356e-001 -1.293883e-001 -4.055505e-002 -2.438283e-003 -4.366997e-002 -5.807928e-002 1.763430e-002 8.526542e-001
<VARIANCE> 39
 6.380781e+001 2.790928e+001 4.101741e+001 4.210881e+001 4.808270e+001 4.920234e+001 4.553895e+001 3.638345e+001 3.433566e+001 2.944039e+001 3.004557e+001 2.465354e+001 1.090286e+002 1.962197e+000 1.759519e+000 1.963730e+000 2.059534e+000 2.296233e+000 2.780213e+000 2.538307e+000 2.299801e+000 2.170507e+000 1.975734e+000 1.779507e+000 1.744404e+000 4.197572e+000 2.958128e-001 4.128401e-001 4.051811e-001 4.388136e-001 5.024092e-001 6.057308e-001 5.490742e-001 4.804493e-001 4.710040e-001 4.244578e-001 3.782380e-001 3.568980e-001 8.443555e-001
<GCONST> 1.201598e+002
<STATE> 3
<MEAN> 39
 -1.292596e+001 4.171446e-001 -3.131714e+000 -2.588347e+000 -2.934371e+000 -3.738061e+000 -2.034315e+000 -1.314975e+000 4.169279e-001 4.616886e-001 -6.807853e-002 1.557308e-002 5.244729e+001 -9.767922e-001 -1.711340e+000 -7.251967e-002 -1.089393e+000 1.354013e-001 -1.357186e+000 5.642755e-002 -1.053378e-001 3.630456e-001 -3.486753e-001 -3.348436e-001 4.532528e-001 3.050422e+000 5.989676e-001 1.017800e-002 4.393832e-001 -1.362079e-001 -1.857319e-001 -1.428718e-001 -6.439790e-001 -1.006398e-001 2.616752e-002 1.257624e-001 -1.397269e-001 -3.933732e-001 9.189412e-001
<VARIANCE> 39
 4.394086e+001 3.670385e+001 3.852582e+001 4.420208e+001 4.603481e+001 4.945841e+001 4.787098e+001 3.328213e+001 3.403852e+001 2.887595e+001 2.673442e+001 2.321294e+001 9.683812e+001 4.817660e+000 4.090462e+000 4.477894e+000 3.963482e+000 4.521148e+000 5.298731e+000 5.268723e+000 4.090561e+000 3.769391e+000 3.212236e+000 2.788677e+000 2.950564e+000 6.053265e+000 6.779458e-001 6.685994e-001 6.596014e-001 6.736320e-001 7.536726e-001 8.180207e-001 8.447338e-001 7.627059e-001 6.236427e-001 5.673273e-001 4.934290e-001 5.476958e-001 1.294063e+000
<GCONST> 1.333919e+002
<STATE> 4
<MEAN> 39
 -1.188977e+001 -3.081908e+000 -1.383281e+000 -5.852360e+000 -2.912124e+000 -7.686571e+000 -5.646862e+000 -2.535029e+000 1.524613e+000 2.757735e-002 -1.856421e+000 -1.090508e+000 6.225198e+001 2.096068e+000 -4.570911e-001 9.541122e-001 -5.697699e-001 -8.180841e-001 3.120251e-003 -2.202231e+000 -3.318702e-001 4.788671e-002 4.692354e-001 -1.225173e-001 -1.329919e+000 2.509346e+000 6.604095e-001 2.830013e-001 1.632726e-001 1.162013e-001 -3.856831e-001 6.520160e-001 -3.443136e-001 3.348029e-002 -2.750042e-001 1.523744e-001 2.218187e-001 -2.979768e-001 -6.227179e-001
<VARIANCE> 39
 5.320240e+001 4.826458e+001 5.737508e+001 6.301594e+001 5.947266e+001 5.202392e+001 7.953866e+001 4.674504e+001 3.981769e+001 3.914985e+001 3.767288e+001 3.443776e+001 6.413474e+001 6.322373e+000 5.117231e+000 4.859035e+000 4.966169e+000 5.708163e+000 6.618695e+000 6.990602e+000 6.574737e+000 5.085362e+000 4.185843e+000 4.012201e+000 3.871462e+000 7.033738e+000 9.920418e-001 1.011632e+000 8.371075e-001 8.225066e-001 9.473710e-001 1.041763e+000 1.358835e+000 1.071373e+000 8.034368e-001 7.260998e-001 6.610574e-001 7.096103e-001 9.079393e-001
<GCONST> 1.431319e+002
<TRANSP> 5
 0.000000e+000 1.000000e+000 0.000000e+000 0.000000e+000 0.000000e+000
 0.000000e+000 7.440987e-001 2.559013e-001 0.000000e+000 0.000000e+000
 0.000000e+000 0.000000e+000 4.906624e-001 5.093376e-001 0.000000e+000
 0.000000e+000 0.000000e+000 0.000000e+000 6.015345e-001 3.984655e-001
 0.000000e+000 0.000000e+000 0.000000e+000 0.000000e+000 0.000000e+000
<ENDHMM>
~h "u"
<BEGINHMM>
<NUMSTATES> 5
<STATE> 2
<MEAN> 39
 1.766707e+000 3.059281e+000 -1.318779e+000 -1.070271e+001 -1.117668e+001 3.880475e+000 -1.093002e+001 -7.712212e+000 -8.143912e+000 -4.118046e+000 3.280243e+000 -3.932632e+000 6.189056e+001 8.704033e-001 8.323075e-001 2.409916e-001 -6.692731e-001 -8.161132e-001 7.554886e-001 -1.994340e-001 -3.194909e-001 -1.016133e+000 -6.551985e-001 4.929862e-001 -5.604000e-002 2.846323e-004 -3.724977e-001 -2.260936e-001 1.861474e-002 4.472257e-001 3.627187e-001 -2.690838e-001 2.651318e-001 2.509821e-001 3.474633e-001 2.364289e-001 -1.860464e-001 4.325696e-002 -1.824903e-001
<VARIANCE> 39
 3.356839e+001 5.365670e+001 6.299137e+001 1.080852e+002 7.584887e+001 7.106426e+001 7.920495e+001 7.068255e+001 5.336416e+001 7.065344e+001 6.112855e+001 3.590154e+001 4.328181e+001 1.946180e+000 2.572115e+000 2.694862e+000 4.152244e+000 4.370490e+000 4.115316e+000 4.808180e+000 4.609231e+000 4.050369e+000 3.574162e+000 4.091336e+000 2.723060e+000 2.061200e+000 3.350320e-001 4.123435e-001 4.626206e-001 7.666676e-001 7.737784e-001 7.693370e-001 8.814719e-001 8.597952e-001 7.834291e-001 7.734789e-001 7.354937e-001 5.645881e-001 2.882391e-001
<GCONST> 1.343027e+002
<STATE> 3
<MEAN> 39
 2.534887e+000 5.361620e+000 -1.346768e+000 -9.721979e+000 -1.143031e+001 3.166125e+000 -8.919348e+000 -5.995980e+000 -8.683586e+000 -3.858163e+000 3.116754e+000 -3.210065e+000 6.064521e+001 -3.348808e-001 8.054791e-002 1.657940e-001 1.212973e+000 8.723882e-001 -4.401322e-001 2.363594e-001 -5.089981e-003 4.607243e-001 4.574356e-001 -1.649818e-001 7.204576e-002 -6.245798e-001 -3.937281e-001 -2.155530e-001 2.654328e-002 4.586422e-001 3.897881e-001 -2.435292e-001 1.156465e-001 7.991936e-002 4.192007e-001 2.433875e-001 -1.927078e-001 3.849641e-002 -1.063230e-001
<VARIANCE> 39
 2.262229e+001 3.840694e+001 3.726072e+001 6.621289e+001 5.214770e+001 5.143175e+001 6.702008e+001 5.969976e+001 4.584938e+001 4.495155e+001 6.019324e+001 3.306233e+001 4.159163e+001 7.541042e-001 1.815148e+000 1.468757e+000 3.041450e+000 3.218441e+000 2.440732e+000 3.714586e+000 2.942923e+000 2.963838e+000 2.816218e+000 2.615509e+000 2.180981e+000 1.420133e+000 2.252827e-001 2.746161e-001 2.920881e-001 4.471440e-001 5.214193e-001 6.315072e-001 6.484460e-001 6.471518e-001 6.342823e-001 4.917334e-001 6.406779e-001 4.482093e-001 1.789655e-001
<GCONST> 1.209452e+002
<STATE> 4
<MEAN> 39
 -7.023333e+000 3.357556e+000 -2.313336e+000 -1.463408e+000 -5.041752e+000 1.639262e+000 -6.355651e+000 -4.003721e+000 -3.749012e+000 -5.425942e-001 1.047805e+000 -1.773794e+000 4.970429e+001 -1.131375e+000 -3.617750e-001 1.644736e-001 1.210935e+000 7.972227e-001 -6.178401e-001 3.375185e-001 3.646232e-001 9.466315e-001 3.378760e-001 -4.938774e-001 5.953574e-002 -6.279554e-001 -1.741941e-001 -8.070675e-002 2.382900e-002 -2.098824e-001 -1.488127e-001 -5.710742e-002 6.271621e-002 1.492638e-001 -1.242612e-002 -1.351489e-001 -6.280164e-002 1.577172e-002 1.166402e-001
<VARIANCE> 39
 1.179312e+002 4.274263e+001 5.301355e+001 6.380663e+001 6.504175e+001 5.636897e+001 9.201889e+001 6.732056e+001 4.822118e+001 4.031897e+001 4.272478e+001 3.513315e+001 2.055126e+002 1.898380e+000 2.121025e+000 2.142419e+000 3.662071e+000 4.195864e+000 4.212429e+000 3.642630e+000 3.469835e+000 4.096967e+000 3.036855e+000 3.021388e+000 2.405418e+000 1.756251e+000 3.172469e-001 3.661529e-001 3.559412e-001 4.622681e-001 5.996317e-001 5.735312e-001 7.540607e-001 6.242340e-001 5.649866e-001 5.407201e-001 5.118313e-001 4.362734e-001 2.208484e-001
<GCONST> 1.294353e+002
<TRANSP> 5
 0.000000e+000 1.000000e+000 0.000000e+000 0.000000e+000 0.000000e+000
 0.000000e+000 5.841382e-001 4.158618e-001 0.000000e+000 0.000000e+000
 0.000000e+000 0.000000e+000 6.607643e-001 3.392357e-001 0.000000e+000
 0.000000e+000 0.000000e+000 0.000000e+000 6.350878e-001 3.649122e-001
 0.000000e+000 0.000000e+000 0.000000e+000 0.000000e+000 0.000000e+000
<ENDHMM>
~h "v"
<BEGINHMM>
<NUMSTATES> 5
<STATE> 2
<MEAN> 39
 -1.782568e+000 -1.065421e-001 -1.004480e+000 -2.885186e+000 -5.700794e+000 -5.447356e-001 -9.000203e+000 -5.142605e+000 -3.290223e+000 6.651796e-001 1.952439e+000 -3.366876e+000 5.948812e+001 2.047618e-001 7.786050e-001 -1.611534e-001 5.081648e-001 4.528412e-001 1.402791e-001 3.461587e-001 -5.399018e-001 -4.273131e-001 -2.858650e-001 2.447828e-002 1.230897e-001 -6.512673e-001 -9.828828e-002 -3.228248e-001 1.746722e-001 -2.766314e-001 -2.659747e-001 -1.308521e-001 -7.210726e-002 3.073418e-001 9.913593e-002 2.678647e-002 -8.910561e-002 -9.190455e-002 4.077032e-001
<VARIANCE> 39
 5.658688e+001 4.807719e+001 4.658781e+001 7.421064e+001 4.662932e+001 5.002593e+001 5.973446e+001 4.189293e+001 4.156696e+001 3.864424e+001 4.012811e+001 2.626492e+001 7.558326e+001 2.386328e+000 2.141878e+000 1.992213e+000 3.048654e+000 2.712614e+000 2.786391e+000 3.251394e+000 2.370697e+000 2.533079e+000 2.484454e+000 2.163333e+000 1.930218e+000 2.184643e+000 3.347038e-001 3.910308e-001 3.346657e-001 4.353199e-001 5.114912e-001 4.461918e-001 5.769727e-001 5.102896e-001 5.259426e-001 4.688442e-001 4.383622e-001 3.841113e-001 3.301062e-001
<GCONST> 1.225818e+002
<STATE> 3
<MEAN> 39
 -4.035877e-001 1.063287e+000 -1.278585e+000 -3.237899e+000 -5.952725e+000 -9.080994e-002 -8.249992e+000 -5.955933e+000 -4.050778e+000 5.617609e-001 2.331759e+000 -3.011952e+000 6.057937e+001 9.042391e-003 -3.864213e-001 8.404166e-002 -3.371094e-001 -3.240228e-001 -2.029331e-001 -1.291828e-001 3.079248e-001 1.948653e-001 8.916805e-002 -1.693736e-002 -2.334248e-001 4.676784e-001 1.490784e-002 -5.274292e-001 2.183679e-001 -4.144592e-001 -4.352382e-001 -9.611735e-002 -2.677346e-001 3.479536e-001 1.621164e-001 1.289276e-001 -1.265451e-002 -1.947349e-001 5.756127e-001
<VARIANCE> 39
 3.761397e+001 4.286899e+001 4.394737e+001 7.665530e+001 4.268669e+001 4.740469e+001 4.925788e+001 3.516419e+001 3.478861e+001 3.635630e+001 4.045567e+001 2.390360e+001 4.580792e+001 1.272499e+000 1.745364e+000 1.544567e+000 3.090980e+000 2.084239e+000 2.577333e+000 2.685507e+000 1.957906e+000 2.120355e+000 2.287474e+000 1.849765e+000 1.684996e+000 1.343402e+000 2.822332e-001 3.493887e-001 3.799179e-001 4.579914e-001 5.334739e-001 4.386688e-001 5.191162e-001 4.789040e-001 4.871251e-001 4.799210e-001 4.337399e-001 3.644308e-001 2.645859e-001
<GCONST> 1.172720e+002
<STATE> 4
<MEAN> 39
 -7.046528e-001 -2.097052e+000 -3.106058e-001 -4.479310e+000 -7.131868e+000 -1.679456e+000 -1.058007e+001 -4.181609e+000 -2.677326e+000 1.093372e+000 1.762686e+000 -4.575629e+000 6.289637e+001 6.852918e-002 -1.418991e+000 8.466271e-001 -8.692590e-001 -1.244621e+000 -5.199208e-001 -5.904250e-001 1.065970e+000 3.186992e-001 4.140025e-002 -1.425417e-001 -4.756799e-001 1.565173e+000 -3.651320e-002 -1.305107e-001 3.181122e-001 -1.774730e-001 -2.402062e-001 7.498482e-002 3.815920e-004 1.309528e-001 -1.158278e-001 -6.263120e-002 -4.962613e-002 -1.623654e-002 1.982461e-001
<VARIANCE> 39
 4.350809e+001 5.958624e+001 5.580462e+001 1.046124e+002 4.986074e+001 6.747422e+001 6.775409e+001 3.950896e+001 4.306371e+001 4.505146e+001 4.435640e+001 3.034402e+001 5.416559e+001 1.833269e+000 2.732050e+000 3.484197e+000 4.112005e+000 3.394716e+000 4.202780e+000 3.476491e+000 3.460759e+000 3.587852e+000 3.455242e+000 2.713715e+000 2.576761e+000 1.792086e+000 3.258346e-001 3.876157e-001 4.121668e-001 5.529599e-001 6.775999e-001 5.078653e-001 6.360865e-001 5.139478e-001 5.148510e-001 4.753899e-001 4.984449e-001 3.840635e-001 3.132596e-001
<GCONST> 1.275008e+002
<TRANSP> 5
 0.000000e+000 1.000000e+000 0.000000e+000 0.000000e+000 0.000000e+000
 0.000000e+000 4.084346e-001 5.915654e-001 0.000000e+000 0.000000e+000
 0.000000e+000 0.000000e+000 4.853784e-001 5.146216e-001 0.000000e+000
 0.000000e+000 0.000000e+000 0.000000e+000 3.372490e-001 6.627510e-001
 0.000000e+000 0.000000e+000 0.000000e+000 0.000000e+000 0.000000e+000
<ENDHMM>
~h "x"
<BEGINHMM>
<NUMSTATES> 5
<STATE> 2
<MEAN> 39
 -1.238894e+001 1.484159e+000 1.091360e+001 -4.092559e+000 -3.895747e+000 -4.981617e+000 -1.347927e+000 -3.099792e+000 -4.800559e+000 1.858332e+000 -2.853137e+000 -3.278078e-001 6.134687e+001 -1.858645e+000 -1.366511e+000 -1.877537e+000 9.221328e-001 1.897953e+000 -8.360597e-001 7.617373e-001 4.307278e-001 8.760775e-001 3.014745e-001 -1.009657e-001 8.196641e-001 -1.743176e-001 2.350758e-001 -4.605143e-001 -2.977444e-001 -1.520296e-001 -5.068083e-001 5.505633e-002 -5.689924e-001 1.477924e-001 -1.302555e-001 -2.267498e-001 3.272086e-001 -2.597885e-001 1.876279e-001
<VARIANCE> 39
 5.036858e+001 8.021929e+001 1.385788e+002 9.981458e+001 8.753657e+001 8.573770e+001 8.356451e+001 9.003548e+001 5.373322e+001 4.168567e+001 4.528210e+001 3.124130e+001 4.175285e+001 2.646089e+000 3.970925e+000 4.598816e+000 4.637506e+000 5.891000e+000 5.567226e+000 5.747483e+000 4.317046e+000 5.064991e+000 4.132618e+000 3.706627e+000 2.885672e+000 1.250605e+000 3.997960e-001 6.191839e-001 5.761941e-001 7.107467e-001 8.976428e-001 8.367926e-001 8.977478e-001 8.246004e-001 8.656924e-001 6.537997e-001 6.530371e-001 5.167437e-001 2.138488e-001
<GCONST> 1.377406e+002
<STATE> 3
<MEAN> 39
 -1.491883e+001 -4.773345e+000 1.579604e+000 -2.037416e+000 -1.614354e+000 -6.182451e+000 -5.798597e-001 7.671897e-001 -2.069942e+000 3.207912e+000 -6.125011e-001 3.999627e-001 6.160642e+001 -1.774045e-001 -6.868705e-001 -1.156646e+000 2.160225e-001 3.023729e-001 -2.568365e-001 -3.224022e-001 4.216138e-001 4.912257e-001 -2.173381e-002 2.153295e-001 1.346814e-001 -2.375057e-001 4.590628e-001 3.516654e-001 2.815652e-001 -3.004516e-002 -2.233170e-001 1.990676e-001 -1.315829e-001 -1.542479e-001 -7.677465e-002 -7.739066e-002 -2.088835e-002 -1.644098e-001 -9.623993e-002
<VARIANCE> 39
 3.449260e+001 3.642909e+001 9.665143e+001 5.868309e+001 7.154563e+001 6.766639e+001 6.469894e+001 5.712279e+001 3.972668e+001 3.886383e+001 3.504517e+001 2.481887e+001 4.431473e+001 1.820699e+000 1.656007e+000 2.897391e+000 2.322159e+000 2.661418e+000 3.142356e+000 3.343965e+000 3.466763e+000 3.195024e+000 2.646907e+000 2.270984e+000 1.872012e+000 7.798392e-001 2.589171e-001 3.099655e-001 3.761362e-001 4.678433e-001 5.475186e-001 6.440017e-001 6.422990e-001 6.308002e-001 6.265045e-001 5.434554e-001 4.439462e-001 3.980725e-001 1.699475e-001
<GCONST> 1.221871e+002
<STATE> 4
<MEAN> 39
 -1.189168e+001 -3.857653e+000 -2.089623e+000 8.144209e-002 -8.305939e-001 -3.335774e+000 -2.790448e+000 6.679531e-001 -6.024248e-001 2.582000e+000 -2.508388e-001 -9.013732e-001 5.673734e+001 1.366478e+000 7.746044e-001 1.050142e-001 -1.148724e-001 -6.271761e-001 6.951215e-001 -3.243414e-001 -5.342105e-001 -3.468114e-001 -4.108528e-001 7.337688e-002 -6.120151e-001 -3.824224e-001 2.529015e-001 1.122313e-001 2.557429e-001 -2.048674e-001 -3.644197e-001 1.827339e-002 -1.195524e-001 -1.117629e-001 -2.062968e-001 -5.594879e-002 -6.520328e-003 -1.244418e-001 2.197966e-001
<VARIANCE> 39
 4.430307e+001 4.133949e+001 8.062878e+001 5.500670e+001 6.695826e+001 6.374371e+001 6.464777e+001 4.920702e+001 5.083344e+001 4.576764e+001 3.902184e+001 3.106318e+001 9.442603e+001 3.942411e+000 2.665791e+000 3.936166e+000 3.253252e+000 3.959616e+000 4.246762e+000 4.103304e+000 3.781043e+000 3.699510e+000 3.190431e+000 2.927842e+000 2.884817e+000 3.627402e+000 5.183759e-001 4.969853e-001 5.550399e-001 5.381120e-001 6.593166e-001 6.827606e-001 7.883741e-001 6.351341e-001 7.060595e-001 5.874290e-001 5.415910e-001 5.022112e-001 4.969798e-001
<GCONST> 1.328325e+002
<TRANSP> 5
 0.000000e+000 1.000000e+000 0.000000e+000 0.000000e+000 0.000000e+000
 0.000000e+000 5.861031e-001 4.138969e-001 0.000000e+000 0.000000e+000
 0.000000e+000 0.000000e+000 7.415332e-001 2.584668e-001 0.000000e+000
 0.000000e+000 0.000000e+000 0.000000e+000 7.211644e-001 2.788356e-001
 0.000000e+000 0.000000e+000 0.000000e+000 0.000000e+000 0.000000e+000
<ENDHMM>
~h "z"
<BEGINHMM>
<NUMSTATES> 5
<STATE> 2
<MEAN> 39
 -9.055649e+000 7.047731e+000 1.237491e+000 -3.695423e+000 6.742789e-001 -8.283448e+000 -7.520114e+000 -5.307630e+000 1.299186e-001 1.479158e+000 -1.687510e+000 -2.549812e+000 6.231868e+001 -2.511028e+000 2.501526e+000 -6.542640e-001 9.503615e-001 1.682026e+000 -1.377967e+000 1.744694e+000 -2.258841e-001 5.579437e-001 -3.770472e-001 -1.663734e-001 7.080114e-001 -4.388389e-002 -1.106859e-001 -3.422462e-001 2.578177e-002 -2.233478e-002 -3.003729e-001 3.872827e-001 -3.652820e-003 3.010806e-001 -6.163318e-002 -8.587666e-002 1.270729e-001 -4.297269e-002 3.635568e-002
<VARIANCE> 39
 4.734272e+001 5.128446e+001 5.550092e+001 8.955392e+001 6.245444e+001 7.409658e+001 7.394514e+001 5.363708e+001 3.968270e+001 4.096610e+001 4.161049e+001 3.368707e+001 8.674249e+001 3.860374e+000 3.609368e+000 2.716017e+000 3.450928e+000 4.074243e+000 4.777414e+000 5.084637e+000 4.715213e+000 3.459573e+000 2.944015e+000 3.182062e+000 2.676281e+000 2.286690e+000 5.402798e-001 6.030453e-001 3.789605e-001 4.600334e-001 6.116311e-001 7.173884e-001 7.917409e-001 7.026629e-001 5.813423e-001 4.738446e-001 4.824460e-001 4.277249e-001 2.254752e-001
<GCONST> 1.314830e+002
<STATE> 3
<MEAN> 39
 -1.782853e+001 1.143471e+001 -4.327436e-001 4.437205e-001 2.636989e+000 -9.387437e+000 -1.674899e+000 -3.736109e+000 1.141643e+000 -7.363968e-002 -1.207359e+000 -6.343569e-002 6.387361e+001 -3.420618e-001 -3.176518e-001 2.577704e-002 2.328747e-001 -1.369492e-001 1.136195e-001 1.749069e-001 1.271730e-001 1.065179e-001 -1.285418e-001 -5.846638e-002 1.029219e-001 -8.162630e-002 1.084484e+000 -7.285005e-001 2.792440e-001 -3.847758e-001 -5.381136e-001 1.070635e-001 -6.852107e-001 -1.405002e-001 -1.232842e-001 1.805806e-001 -4.900721e-002 -2.886952e-001 1.361631e-001
<VARIANCE> 39
 4.220530e+001 3.917928e+001 4.330231e+001 5.531861e+001 4.745337e+001 4.726515e+001 5.792670e+001 3.740405e+001 3.018009e+001 3.100646e+001 2.783882e+001 2.279274e+001 3.959242e+001 4.299459e+000 2.091407e+000 1.916000e+000 1.920700e+000 2.274176e+000 2.696776e+000 3.193110e+000 2.595616e+000 2.210020e+000 1.913927e+000 1.637630e+000 1.501230e+000 8.515117e-001 4.091522e-001 4.713016e-001 3.572598e-001 4.388929e-001 4.707628e-001 6.193178e-001 5.956843e-001 6.230528e-001 4.832142e-001 4.411563e-001 3.885964e-001 3.409574e-001 1.609442e-001
<GCONST> 1.177313e+002
<STATE> 4
<MEAN> 39
 -9.727008e+000 5.922711e+000 1.094823e+000 -2.896320e+000 -1.074596e+000 -9.577767e+000 -7.650420e+000 -5.981265e+000 1.387357e+000 1.076597e+000 -2.426757e+000 -2.336816e+000 6.477376e+001 3.114435e+000 -2.414999e+000 4.174179e-001 -1.278335e+000 -1.650298e+000 8.455457e-001 -2.017792e+000 -1.309387e-002 -1.091120e-001 6.524237e-001 -1.576429e-003 -1.115331e+000 6.785414e-001 -3.097672e-002 -1.961387e-001 -2.718269e-002 -1.559373e-001 -5.297130e-002 3.818192e-001 8.337954e-002 3.217061e-001 -1.348245e-001 -3.288990e-002 1.313030e-001 -1.368416e-001 5.642196e-002
<VARIANCE> 39
 5.497049e+001 4.719098e+001 5.279003e+001 7.096484e+001 5.157281e+001 5.476396e+001 7.081089e+001 4.711469e+001 4.026345e+001 3.809469e+001 3.541898e+001 2.908842e+001 5.091758e+001 2.834035e+000 4.094718e+000 2.907971e+000 4.367299e+000 3.563657e+000 4.759038e+000 4.566166e+000 5.207928e+000 3.719450e+000 3.312902e+000 3.028842e+000 2.462737e+000 2.279497e+000 6.924801e-001 5.247222e-001 3.632721e-001 5.329451e-001 4.983885e-001 6.678459e-001 7.952513e-001 7.395230e-001 5.204713e-001 4.976589e-001 4.293423e-001 4.096837e-001 2.440268e-001
<GCONST> 1.295817e+002
<TRANSP> 5
 0.000000e+000 1.000000e+000 0.000000e+000 0.000000e+000 0.000000e+000
 0.000000e+000 6.456196e-001 3.543804e-001 0.000000e+000 0.000000e+000
 0.000000e+000 0.000000e+000 7.532834e-001 2.467166e-001 0.000000e+000
 0.000000e+000 0.000000e+000 0.000000e+000 6.187996e-001 3.812004e-001
 0.000000e+000 0.000000e+000 0.000000e+000 0.000000e+000 0.000000e+000
<ENDHMM>
~h "aa"
<BEGINHMM>
<NUMSTATES> 5
<STATE> 2
<MEAN> 39
 -2.845716e-002 -1.258449e+001 -4.391577e+000 -1.181024e+001 -5.633268e+000 1.271245e+000 -9.989913e+000 4.177505e+000 2.115819e+000 8.820277e-001 -3.724018e+000 -9.914990e+000 7.180409e+001 1.047174e-001 -1.027958e+000 -9.403985e-001 -1.022725e+000 1.238726e+000 1.358779e+000 4.711153e-001 3.098554e-002 -1.200330e-001 -1.098272e-001 -4.066491e-001 -8.885379e-001 4.342925e-001 -1.950248e-001 4.412912e-001 1.949999e-001 3.792478e-001 1.008892e-001 -1.642254e-001 2.001043e-001 -5.307229e-001 -2.380714e-001 -2.641146e-002 1.765632e-001 3.437524e-001 -3.790735e-001
<VARIANCE> 39
 2.194590e+001 4.563988e+001 3.904565e+001 5.774757e+001 5.633044e+001 6.056760e+001 5.377176e+001 5.253777e+001 5.305817e+001 4.694115e+001 5.673727e+001 3.235584e+001 3.303119e+001 4.798785e-001 1.352614e+000 1.268874e+000 1.587876e+000 1.967308e+000 1.965008e+000 2.246134e+000 2.805285e+000 2.358783e+000 1.941836e+000 2.091417e+000 1.812005e+000 5.297554e-001 1.660632e-001 2.126942e-001 2.195330e-001 3.233352e-001 4.315022e-001 3.889917e-001 4.724994e-001 4.462415e-001 4.253601e-001 3.670661e-001 3.626942e-001 3.213918e-001 1.038312e-001
<GCONST> 1.113003e+002
<STATE> 3
<MEAN> 39
 9.917128e-002 -1.229385e+001 -6.691075e+000 -1.369907e+001 -1.628656e+000 5.600811e+000 -8.200126e+000 2.382783e-001 5.228755e-001 1.644127e+000 -3.535496e+000 -1.015295e+001 7.056013e+001 2.372452e-002 2.014200e-001 -2.932224e-002 -1.105488e-001 1.708595e-001 7.592045e-002 3.090435e-002 -1.998365e-001 -9.393490e-002 1.448590e-001 -2.662689e-002 1.074407e-001 -1.708716e-001 -2.759984e-003 1.972854e-001 1.330359e-001 1.471068e-001 -1.903803e-001 -2.329888e-001 -6.971347e-002 6.421319e-002 2.644084e-002 6.742696e-002 1.197742e-002 1.108450e-001 -9.418342e-002
<VARIANCE> 39
 2.087568e+001 4.882655e+001 3.380725e+001 6.055328e+001 4.685998e+001 4.600660e+001 5.822916e+001 4.171095e+001 4.664864e+001 4.241614e+001 5.731288e+001 3.587028e+001 3.635144e+001 1.787127e-001 5.668470e-001 5.666951e-001 8.259802e-001 1.053449e+000 1.338071e+000 1.073952e+000 1.314202e+000 1.049829e+000 9.878758e-001 1.035735e+000 8.576372e-001 1.579892e-001 3.219502e-002 9.339439e-002 9.239732e-002 1.329584e-001 1.630689e-001 1.789325e-001 1.886063e-001 2.069607e-001 1.935605e-001 1.730091e-001 1.726264e-001 1.535590e-001 3.429994e-002
<GCONST> 8.883967e+001
<STATE> 4
<MEAN> 39
 7.228897e-002 -8.094798e+000 -5.534208e+000 -1.207566e+001 -2.093098e+000 2.324701e+000 -8.289704e+000 6.123092e-001 4.257498e-001 3.017620e+000 -3.957310e+000 -8.055797e+000 6.723085e+001 -2.747838e-001 1.658335e+000 5.410739e-001 1.364649e+000 -3.519941e-001 -8.520136e-001 3.527779e-001 -3.112133e-001 -1.963911e-001 9.199887e-002 2.146442e-001 7.964776e-001 -1.496989e+000 -1.998673e-001 1.705529e-001 2.455255e-002 3.101886e-001 5.707833e-002 6.193880e-002 2.237377e-001 -1.502112e-001 -3.531506e-002 -1.902346e-001 8.922111e-002 6.113942e-002 -2.734297e-001
<VARIANCE> 39
 2.476023e+001 5.251909e+001 4.058120e+001 6.233467e+001 5.112347e+001 6.030917e+001 6.322154e+001 5.152993e+001 4.575762e+001 4.733327e+001 5.967727e+001 4.002975e+001 5.690732e+001 8.638021e-001 1.848123e+000 1.952250e+000 2.499111e+000 2.602806e+000 2.719241e+000 3.001983e+000 3.137303e+000 3.129194e+000 2.645181e+000 2.511706e+000 2.110933e+000 1.375332e+000 1.774462e-001 3.274026e-001 3.136448e-001 4.431340e-001 3.899471e-001 5.163730e-001 5.085176e-001 5.273725e-001 5.398896e-001 4.409897e-001 4.658912e-001 3.796122e-001 2.446550e-001
<GCONST> 1.203459e+002
<TRANSP> 5
 0.000000e+000 1.000000e+000 0.000000e+000 0.000000e+000 0.000000e+000
 0.000000e+000 6.814701e-001 3.185299e-001 0.000000e+000 0.000000e+000
 0.000000e+000 0.000000e+000 8.566914e-001 1.433086e-001 0.000000e+000
 0.000000e+000 0.000000e+000 0.000000e+000 7.463634e-001 2.536366e-001
 0.000000e+000 0.000000e+000 0.000000e+000 0.000000e+000 0.000000e+000
<ENDHMM>
~h "ch"
<BEGINHMM>
<NUMSTATES> 5
<STATE> 2
<MEAN> 39
 -1.041393e+001 -4.469574e-001 5.220603e+000 -1.614968e+000 -7.212574e+000 -1.572287e+000 -7.029044e+000 -2.567533e+000 9.395807e-001 -1.162200e+000 -5.301589e-001 -7.540038e-001 5.516869e+001 -2.790489e+000 -8.175994e-001 3.363717e-001 -7.234775e-001 -2.418407e-001 9.008399e-001 9.342756e-001 -5.768276e-001 8.763092e-001 -2.804922e-003 1.462829e-001 4.726523e-001 5.650726e-001 -4.655494e-001 -3.395998e-001 2.479229e-001 -1.363421e-001 -2.791640e-001 -1.408224e-001 1.504583e-001 -3.956570e-002 -4.623357e-002 1.860350e-002 8.980031e-002 -1.063168e-001 8.935774e-001
<VARIANCE> 39
 5.708047e+001 5.129122e+001 6.021624e+001 7.567603e+001 6.956350e+001 5.155587e+001 6.215303e+001 4.835759e+001 4.132290e+001 3.593963e+001 3.033464e+001 2.242816e+001 6.821787e+001 4.525393e+000 4.759076e+000 5.596290e+000 4.413144e+000 4.846011e+000 4.579663e+000 4.737988e+000 3.889038e+000 3.660400e+000 2.949995e+000 2.569307e+000 2.268768e+000 8.568578e+000 6.226971e-001 8.773828e-001 9.313469e-001 1.030298e+000 8.475519e-001 8.839386e-001 8.649375e-001 7.750404e-001 6.824270e-001 5.850090e-001 4.914632e-001 4.252489e-001 9.497889e-001
<GCONST> 1.370360e+002
<STATE> 3
<MEAN> 39
 -2.605300e+001 -4.357378e+000 9.285525e+000 -2.643840e+000 -9.549137e+000 -6.536750e-001 2.214698e-001 -4.243891e+000 3.546849e+000 -8.534803e-001 1.088574e+000 2.486945e-001 6.622043e+001 -1.008931e+000 -4.640975e-001 2.478604e-001 6.165221e-001 -2.925690e-001 -8.449377e-001 1.003224e+000 3.918956e-001 -5.258663e-002 1.718121e-002 1.163324e-001 -4.110873e-002 8.981550e-001 1.194603e+000 2.420923e-001 -2.667679e-001 1.509959e-001 2.050684e-001 -2.216626e-001 -4.283213e-001 2.096174e-001 -2.527591e-001 -6.620654e-002 -1.150139e-001 -1.162943e-001 -6.444888e-001
<VARIANCE> 39
 2.459316e+001 2.880963e+001 3.944582e+001 6.144161e+001 4.399714e+001 4.218605e+001 4.568781e+001 2.898536e+001 2.144736e+001 2.700894e+001 2.216286e+001 1.714120e+001 3.700267e+001 5.772609e+000 1.724919e+000 2.264555e+000 2.391310e+000 2.374926e+000 3.257195e+000 2.856520e+000 2.376897e+000 1.950451e+000 1.840590e+000 1.626873e+000 1.391970e+000 3.116889e+000 4.827301e-001 3.234811e-001 4.570426e-001 5.515143e-001 4.557930e-001 6.468890e-001 5.614391e-001 4.580128e-001 4.053574e-001 3.953518e-001 3.362281e-001 3.222727e-001 3.148179e-001
<GCONST> 1.168186e+002
<STATE> 4
<MEAN> 39
 -1.742620e+001 -5.368229e+000 7.966365e+000 -1.030742e+000 -8.582590e+000 -5.605098e+000 -8.434916e-001 -1.846994e+000 1.663219e+000 -2.693615e+000 -6.384322e-002 -1.218093e+000 6.411368e+001 3.799892e+000 6.033466e-001 -2.879035e-001 -7.473939e-002 -1.098946e-001 -4.116759e-001 -1.763825e+000 3.023933e-001 -9.807436e-001 -2.950750e-001 -3.168980e-001 -7.472936e-001 -3.797585e-001 3.368786e-001 7.354856e-003 1.257092e-001 -3.145453e-001 -2.435929e-001 2.605663e-001 -4.799908e-001 -1.250616e-001 -1.660156e-001 8.720762e-002 1.234593e-001 -1.420595e-001 2.226514e-001
<VARIANCE> 39
 7.393528e+001 4.421009e+001 5.894345e+001 7.130630e+001 6.343394e+001 6.224020e+001 5.606900e+001 3.992520e+001 3.907928e+001 3.936234e+001 3.078181e+001 2.318231e+001 4.477175e+001 4.831211e+000 2.982362e+000 3.823349e+000 3.040414e+000 4.009924e+000 5.344199e+000 4.782093e+000 3.467098e+000 4.436368e+000 3.438210e+000 2.671231e+000 2.326980e+000 2.666672e+000 1.120452e+000 5.282241e-001 5.236660e-001 5.297342e-001 6.111668e-001 8.858887e-001 8.372790e-001 5.195697e-001 6.812031e-001 6.315201e-001 4.974222e-001 3.849924e-001 5.047648e-001
<GCONST> 1.319117e+002
<TRANSP> 5
 0.000000e+000 1.000000e+000 0.000000e+000 0.000000e+000 0.000000e+000
 0.000000e+000 7.828671e-001 2.171329e-001 0.000000e+000 0.000000e+000
 0.000000e+000 0.000000e+000 7.956531e-001 2.043469e-001 0.000000e+000
 0.000000e+000 0.000000e+000 0.000000e+000 7.295431e-001 2.704569e-001
 0.000000e+000 0.000000e+000 0.000000e+000 0.000000e+000 0.000000e+000
<ENDHMM>
~h "dg"
<BEGINHMM>
<NUMSTATES> 5
<STATE> 2
<MEAN> 39
 -1.172142e+001 1.634300e+000 9.171822e+000 -1.762129e+000 -5.465193e+000 -3.564569e-001 -3.758791e+000 -4.079428e+000 1.571678e+000 -2.919512e+000 -3.915997e-001 -2.359973e+000 5.873035e+001 -2.891408e+000 -7.096187e-001 8.456672e-001 -1.320100e-001 -1.973886e-001 1.996000e-001 1.400530e+000 -8.227319e-001 5.671783e-001 -2.757830e-001 2.166294e-001 3.198058e-001 1.289648e+000 -8.217318e-002 -1.179173e-001 6.931952e-002 2.034234e-001 -1.391678e-001 -5.062530e-001 7.478888e-002 1.116780e-001 -1.979094e-001 -2.315996e-002 7.086289e-002 -7.117510e-002 3.707117e-001
<VARIANCE> 39
 9.212438e+001 5.170563e+001 7.509038e+001 5.616286e+001 4.789327e+001 3.148764e+001 6.959119e+001 3.458212e+001 3.466613e+001 3.108569e+001 2.964296e+001 2.394183e+001 9.309090e+001 6.820488e+000 4.850173e+000 4.079537e+000 5.428530e+000 3.731066e+000 5.029094e+000 4.696637e+000 3.410595e+000 3.452173e+000 2.399652e+000 2.750433e+000 2.474990e+000 4.741270e+000 1.727585e+000 8.892198e-001 6.487516e-001 1.072034e+000 7.128250e-001 8.036938e-001 9.036148e-001 7.732226e-001 6.714718e-001 4.812581e-001 5.976688e-001 4.438591e-001 9.330291e-001
<GCONST> 1.361939e+002
<STATE> 3
<MEAN> 39
 -2.133460e+001 -1.280950e+000 1.298322e+001 1.635606e+000 -6.878177e+000 -7.052890e+000 9.915599e-001 -5.166315e+000 2.072377e+000 -4.282461e+000 1.566665e+000 -1.466847e+000 6.759713e+001 2.099114e+000 2.326310e-002 -2.593046e-001 8.281919e-001 -1.593391e-001 -1.946793e+000 -1.175509e+000 2.716585e-001 -5.037250e-001 -2.559642e-001 -4.244090e-002 2.049020e-001 1.998570e-001 1.235835e+000 1.043625e-001 -4.280080e-001 -4.098169e-001 9.867187e-002 4.024726e-001 -7.023042e-001 -5.482767e-003 -1.861070e-001 7.389393e-002 -1.295703e-001 -5.406544e-002 -3.968103e-001
<VARIANCE> 39
 6.229499e+001 2.644537e+001 5.105346e+001 6.709527e+001 3.835430e+001 6.548586e+001 6.170915e+001 2.772442e+001 2.241561e+001 3.330108e+001 1.959732e+001 1.500711e+001 4.001061e+001 8.131911e+000 2.524828e+000 2.629768e+000 2.560266e+000 3.271338e+000 5.120598e+000 6.555243e+000 2.811566e+000 2.773389e+000 2.028996e+000 2.154932e+000 1.625072e+000 1.406114e+000 1.358064e+000 4.804654e-001 4.635572e-001 5.103890e-001 5.340711e-001 1.157170e+000 1.251278e+000 5.404032e-001 5.693617e-001 4.755078e-001 4.448997e-001 4.007743e-001 2.454444e-001
<GCONST> 1.252918e+002
<STATE> 4
<MEAN> 39
 -1.184601e+001 -2.087164e+000 3.141167e+000 -1.296300e+000 -8.772076e+000 -8.362564e+000 -5.555912e+000 -3.770358e+000 -2.186541e+000 -4.057453e+000 -2.591338e+000 -2.866315e+000 5.778114e+001 1.666411e+000 -1.833383e-001 -5.877090e-001 -4.937501e-001 -1.693407e-001 1.794804e-001 -8.631127e-001 1.953121e-002 -6.325587e-001 1.289799e-001 2.832088e-002 -1.945683e-001 -1.821774e-001 -3.275254e-001 -1.092650e-001 -2.595037e-002 -2.331432e-001 3.351650e-002 4.141030e-001 1.242985e-001 5.650630e-002 1.967405e-002 1.357880e-001 7.621059e-002 -1.377678e-001 1.497816e-002
<VARIANCE> 39
 4.949480e+001 2.721580e+001 1.335807e+002 4.422134e+001 3.331454e+001 4.031201e+001 3.483823e+001 3.494016e+001 2.744467e+001 2.216941e+001 2.745335e+001 1.982862e+001 1.695884e+002 4.173253e+000 2.274257e+000 2.205261e+000 1.658409e+000 2.302457e+000 3.939383e+000 4.849002e+000 3.010373e+000 3.286364e+000 2.042668e+000 2.313740e+000 1.617660e+000 1.202249e+000 4.931513e-001 2.786382e-001 2.511232e-001 2.122197e-001 3.435798e-001 6.268982e-001 6.831624e-001 3.724971e-001 4.685614e-001 3.691129e-001 3.104357e-001 2.246825e-001 9.653732e-002
<GCONST> 1.169827e+002
<TRANSP> 5
 0.000000e+000 1.000000e+000 0.000000e+000 0.000000e+000 0.000000e+000
 0.000000e+000 8.192281e-001 1.807719e-001 0.000000e+000 0.000000e+000
 0.000000e+000 0.000000e+000 7.492698e-001 2.507302e-001 0.000000e+000
 0.000000e+000 0.000000e+000 0.000000e+000 6.070486e-001 3.929514e-001
 0.000000e+000 0.000000e+000 0.000000e+000 0.000000e+000 0.000000e+000
<ENDHMM>
~h "dj"
<BEGINHMM>
<NUMSTATES> 5
<STATE> 2
<MEAN> 39
 -4.538919e+000 3.137117e+000 9.040051e+000 1.049010e+000 -6.908570e+000 -4.648086e+000 -7.135979e+000 -5.192830e-001 -1.902083e+000 -2.751719e+000 -1.753788e+000 -2.864579e+000 5.695302e+001 -7.896323e-001 1.241854e+000 2.372522e-001 -2.563491e-001 1.256456e+000 3.291132e-001 7.930197e-001 -1.746860e-001 -1.173280e-001 -1.883405e-002 -4.213553e-001 1.964244e-001 -8.842890e-001 -2.312026e-001 -2.713843e-001 6.706312e-002 -4.694379e-001 -9.600160e-002 5.862338e-002 -2.578156e-001 -1.131473e-001 -1.074276e-001 2.787505e-002 1.551187e-001 2.500674e-002 5.949876e-001
<VARIANCE> 39
 4.412725e+001 6.509394e+001 7.033436e+001 6.363565e+001 7.628246e+001 4.869679e+001 6.549589e+001 3.653888e+001 3.661909e+001 3.669538e+001 3.665372e+001 2.267428e+001 6.737506e+001 2.805186e+000 3.275266e+000 4.297151e+000 4.382605e+000 4.639550e+000 3.183244e+000 3.576482e+000 3.040624e+000 3.169017e+000 3.214905e+000 2.289891e+000 2.109741e+000 4.614232e+000 5.141757e-001 6.450745e-001 9.842066e-001 7.236076e-001 1.075474e+000 7.500007e-001 7.694619e-001 6.322924e-001 6.820046e-001 6.928189e-001 4.802583e-001 4.430653e-001 7.885050e-001
<GCONST> 1.329279e+002
<STATE> 3
<MEAN> 39
