~o
<STREAMINFO> 1 39
<VECSIZE> 39<NULLD><MFCC_D_A_0><DIAGC>
~h "MJ"
<BEGINHMM>
<NUMSTATES> 3
<STATE> 2
<MEAN> 39
 -7.790006e+000 -2.901337e+000 -1.168305e+000 -8.623178e+000 -8.479654e+000 -7.369056e+000 -9.896090e+000 -3.065437e+000 -1.518225e+000 2.611172e+000 -8.970971e-001 -3.385734e+000 6.412222e+001 8.919389e-004 -9.213561e-005 2.813819e-004 3.294231e-004 -2.011933e-004 1.057381e-003 8.106667e-004 -1.299967e-004 -1.981239e-003 -6.911396e-004 -2.070967e-003 5.520201e-004 -2.755258e-004 -6.026706e-005 1.144667e-004 -4.584299e-005 -1.514009e-004 -2.274271e-004 3.577217e-005 9.004841e-005 7.984031e-006 -9.856435e-005 -1.436041e-004 1.124094e-005 2.407512e-004 1.968410e-005
<VARIANCE> 39
 6.436474e+001 3.355825e+001 7.643975e+001 4.651428e+001 5.216581e+001 6.023087e+001 6.918532e+001 4.154018e+001 5.401957e+001 3.134403e+001 3.705787e+001 3.030079e+001 6.831348e+001 3.040054e+000 2.054848e+000 2.731988e+000 2.890763e+000 3.085217e+000 3.136661e+000 4.088551e+000 3.077023e+000 3.373267e+000 2.257855e+000 2.425076e+000 2.177014e+000 2.380622e+000 4.300539e-001 3.545057e-001 4.064058e-001 4.976587e-001 5.351674e-001 5.309317e-001 6.967467e-001 5.726990e-001 5.957656e-001 4.286883e-001 4.468243e-001 3.993673e-001 3.821956e-001
<GCONST> 1.257852e+002
<TRANSP> 3
 0.000000e+000 1.000000e+000 0.000000e+000
 0.000000e+000 9.984397e-001 1.560251e-003
 0.000000e+000 0.000000e+000 0.000000e+000
<ENDHMM>
~h "PB"
<BEGINHMM>
<NUMSTATES> 3
<STATE> 2
<MEAN> 39
 -5.975980e+000 2.616979e+000 2.763670e+000 -2.450950e+000 -6.927561e+000 -1.459924e-001 -5.710526e+000 1.190107e+000 9.432108e-001 6.089168e-001 1.278234e+000 -3.538374e+000 6.193733e+001 -2.377420e-004 9.102499e-005 1.986473e-004 -1.546475e-006 -8.666694e-006 -4.538677e-004 -4.303835e-004 -2.228508e-004 1.263042e-004 2.688707e-006 5.374608e-004 1.001931e-003 1.051286e-004 2.082693e-004 -3.416132e-005 -1.521790e-005 -6.634880e-005 4.151888e-004 2.048744e-004 6.216305e-005 -2.418511e-005 -1.085392e-004 -1.673789e-004 1.639132e-004 5.754809e-004 -7.673688e-005
<VARIANCE> 39
 5.710303e+001 4.607710e+001 6.105448e+001 4.420074e+001 7.211775e+001 4.371009e+001 6.696453e+001 3.674138e+001 3.413740e+001 2.830846e+001 2.567729e+001 3.932125e+001 8.545258e+001 2.809857e+000 2.748946e+000 2.690156e+000 2.969859e+000 3.768609e+000 2.735238e+000 3.574757e+000 2.971942e+000 2.546119e+000 2.245302e+000 2.195217e+000 2.510781e+000 2.467567e+000 4.234977e-001 4.430599e-001 4.223462e-001 5.155094e-001 6.486088e-001 4.884417e-001 6.434230e-001 5.548702e-001 4.813127e-001 4.325834e-001 4.269115e-001 4.564457e-001 3.907429e-001
<GCONST> 1.252061e+002
<TRANSP> 3
 0.000000e+000 1.000000e+000 0.000000e+000
 0.000000e+000 9.985553e-001 1.444716e-003
 0.000000e+000 0.000000e+000 0.000000e+000
<ENDHMM>
~h "TOMAS"
<BEGINHMM>
<NUMSTATES> 3
<STATE> 2
<MEAN> 39
 -5.695891e+000 4.036931e+000 5.335603e+000 -1.176176e+000 -9.495314e-001 -3.130864e+000 -1.432622e+000 -4.845525e-001 5.349349e-001 1.296631e+000 2.242205e+000 2.190988e+000 6.201408e+001 -2.442396e-003 5.478164e-003 -4.559968e-004 -6.316188e-004 1.051719e-003 2.581309e-004 1.212385e-003 -1.281118e-003 -3.014035e-003 7.656266e-003 1.938248e-003 -5.068225e-003 2.827457e-004 -8.313265e-004 6.197186e-004 -6.678772e-004 7.916302e-004 -1.823834e-003 1.121461e-003 -1.373091e-003 2.373212e-004 -5.157823e-004 2.783884e-004 -1.587619e-004 -5.869402e-004 6.751263e-004
<VARIANCE> 39
 5.972921e+001 3.440372e+001 5.401955e+001 5.454368e+001 5.990793e+001 5.273852e+001 5.546512e+001 4.591676e+001 4.734441e+001 3.405450e+001 2.996222e+001 2.151169e+001 6.375271e+001 2.460594e+000 1.865783e+000 2.262890e+000 2.670528e+000 3.451294e+000 3.149307e+000 3.022566e+000 2.624859e+000 2.919523e+000 2.194155e+000 2.076375e+000 1.749104e+000 1.957634e+000 3.434503e-001 3.000317e-001 3.552559e-001 4.330151e-001 5.958773e-001 5.653866e-001 5.496653e-001 4.837194e-001 5.260998e-001 4.153311e-001 3.879240e-001 3.373997e-001 2.935979e-001
<GCONST> 1.214649e+002
<TRANSP> 3
 0.000000e+000 1.000000e+000 0.000000e+000
 0.000000e+000 9.973280e-001 2.671971e-003
 0.000000e+000 0.000000e+000 0.000000e+000
<ENDHMM>
~h "CERNY"
<BEGINHMM>
<NUMSTATES> 3
<STATE> 2
<MEAN> 39
 -1.026227e+001 -1.295327e+000 -1.157737e+000 -4.103771e+000 -4.616468e+000 -3.117987e+000 -5.648743e+000 -3.932239e-001 8.319246e-001 1.206298e+000 -5.857065e-002 -1.332536e+000 6.410395e+001 -3.188384e-004 8.974845e-004 1.988221e-005 4.181922e-004 2.286665e-004 -8.476585e-005 -6.725370e-004 4.049557e-004 -1.732751e-003 8.040110e-004 -1.243556e-003 6.504324e-004 -3.614681e-004 3.154396e-005 -1.948106e-004 2.079346e-004 -1.784768e-004 -1.608771e-004 -5.583411e-005 -9.711658e-005 -1.648921e-004 4.259458e-005 -3.519646e-004 2.271142e-004 -7.397730e-005 -4.111351e-005
<VARIANCE> 39
 1.964336e+001 2.057628e+001 2.901612e+001 4.214115e+001 3.596424e+001 3.030166e+001 5.151109e+001 2.778539e+001 2.521030e+001 2.438539e+001 1.620238e+001 2.349302e+001 2.006407e+001 9.801930e-001 1.259133e+000 1.328225e+000 2.041706e+000 2.148376e+000 1.903568e+000 2.885388e+000 2.235324e+000 2.036060e+000 1.919518e+000 1.464098e+000 1.528086e+000 6.867328e-001 1.444248e-001 2.040740e-001 2.106737e-001 3.372799e-001 3.824752e-001 3.541937e-001 5.297450e-001 4.289865e-001 3.875164e-001 3.675342e-001 2.903732e-001 2.849583e-001 1.154566e-001
<GCONST> 1.044341e+002
<TRANSP> 3
 0.000000e+000 1.000000e+000 0.000000e+000
 0.000000e+000 9.986002e-001 1.399776e-003
 0.000000e+000 0.000000e+000 0.000000e+000
<ENDHMM>
~h "ZSS2"
<BEGINHMM>
<NUMSTATES> 3
<STATE> 2
<MEAN> 39
 -6.220913e+000 2.530976e+000 1.624120e+000 -2.751675e+000 -1.047617e+000 -1.259027e+000 -2.285815e-001 -2.198334e-001 -1.015537e+000 2.351857e+000 -2.751376e+000 1.456902e+000 6.408607e+001 2.308878e-003 -5.843922e-004 1.234434e-004 2.585725e-003 1.605271e-003 2.371712e-003 -3.851618e-004 -2.357332e-003 1.665770e-003 -5.190584e-004 8.657497e-004 4.404950e-004 -3.403970e-003 1.599012e-004 1.607681e-004 -1.789600e-005 -4.720023e-004 -2.284979e-004 7.559885e-005 2.332832e-005 -4.741155e-004 -4.260767e-004 1.564988e-004 2.592853e-004 -1.336908e-004 1.977844e-005
<VARIANCE> 39
 6.581062e+001 3.901217e+001 4.545362e+001 6.644148e+001 8.518867e+001 5.157755e+001 6.616813e+001 4.297002e+001 6.423454e+001 3.355183e+001 7.719534e+001 2.547839e+001 7.343651e+001 3.831680e+000 2.684596e+000 2.546344e+000 4.070734e+000 4.802497e+000 3.627845e+000 3.664551e+000 2.913374e+000 3.786752e+000 2.950565e+000 4.223234e+000 2.080736e+000 3.525668e+000 5.982058e-001 4.728822e-001 4.297164e-001 6.801491e-001 8.288559e-001 6.705835e-001 6.244655e-001 5.366682e-001 6.546866e-001 5.696508e-001 7.164770e-001 4.021260e-001 6.027525e-001
<GCONST> 1.322694e+002
<TRANSP> 3
 0.000000e+000 1.000000e+000 0.000000e+000
 0.000000e+000 9.982025e-001 1.797483e-003
 0.000000e+000 0.000000e+000 0.000000e+000
<ENDHMM>
~h "SMOLA"
<BEGINHMM>
<NUMSTATES> 3
<STATE> 2
<MEAN> 39
 -6.724901e+000 2.136897e-001 1.289621e+000 -1.629053e+000 -2.936755e+000 -2.350430e+000 -5.908906e+000 2.907255e+000 -4.502215e+000 -2.121150e-001 3.837558e+000 -3.324198e+000 5.917997e+001 1.197500e-005 1.126168e-003 1.110019e-002 -1.116891e-002 8.395574e-003 4.658392e-003 8.273714e-003 -1.672417e-002 -2.278399e-002 -6.947509e-003 -5.044058e-003 -6.350032e-003 1.262605e-002 -8.583816e-004 -5.029830e-004 3.687991e-004 -1.015074e-003 1.794565e-003 8.684461e-004 -3.907306e-004 -2.282376e-004 1.650752e-004 7.536181e-004 -1.395763e-003 -9.404377e-004 4.176346e-004
<VARIANCE> 39
 6.367906e+001 6.508096e+001 4.790777e+001 7.041777e+001 5.697699e+001 6.495542e+001 7.789153e+001 4.359460e+001 7.402284e+001 3.446931e+001 2.706331e+001 3.802541e+001 1.440287e+002 3.304405e+000 3.614038e+000 2.639164e+000 3.861326e+000 3.170030e+000 3.579908e+000 4.462872e+000 3.194414e+000 4.898048e+000 2.436193e+000 2.231982e+000 2.293626e+000 5.209859e+000 4.867293e-001 5.811232e-001 4.386280e-001 6.569462e-001 5.677235e-001 6.545179e-001 8.089757e-001 6.037471e-001 8.854363e-001 4.579020e-001 4.301626e-001 4.113072e-001 8.370835e-001
<GCONST> 1.328524e+002
<TRANSP> 3
 0.000000e+000 1.000000e+000 0.000000e+000
 0.000000e+000 9.966092e-001 3.390863e-003
 0.000000e+000 0.000000e+000 0.000000e+000
<ENDHMM>
~h "NOZICKA"
<BEGINHMM>
<NUMSTATES> 3
<STATE> 2
<MEAN> 39
 -1.574684e+001 -9.917432e+000 7.749853e+000 -1.011547e+001 -2.900551e+000 1.773707e+000 -4.332554e+000 -9.399850e-001 -5.713428e-001 -3.235361e+000 3.372019e+000 -2.913973e+000 5.444348e+001 -5.419439e-004 -3.347994e-003 1.225591e-003 -4.784294e-003 4.779258e-003 1.241039e-003 -3.761368e-003 -3.343695e-004 -2.492644e-003 4.755569e-003 1.330769e-003 -1.476688e-003 3.001151e-003 -9.094439e-004 6.892249e-004 2.765342e-003 -2.279664e-004 4.910339e-004 -6.823327e-004 -1.251112e-003 6.974099e-004 -1.923172e-003 -4.651681e-004 8.109492e-004 -2.000149e-004 -2.418807e-004
<VARIANCE> 39
 1.184298e+002 1.511539e+002 2.040751e+002 1.613638e+002 1.247284e+002 1.214878e+002 9.070490e+001 7.203521e+001 8.358608e+001 5.726395e+001 4.904925e+001 3.610233e+001 4.229086e+002 3.348405e+000 4.690112e+000 3.906079e+000 5.354401e+000 6.438407e+000 5.665624e+000 5.407864e+000 3.886244e+000 5.021420e+000 3.374227e+000 3.235481e+000 2.279762e+000 4.500592e+000 4.609521e-001 6.899914e-001 6.085698e-001 8.760314e-001 1.077167e+000 8.996154e-001 9.223711e-001 6.755296e-001 8.396398e-001 6.122105e-001 5.846307e-001 4.246611e-001 6.217328e-001
<GCONST> 1.462383e+002
<TRANSP> 3
 0.000000e+000 1.000000e+000 0.000000e+000
 0.000000e+000 9.977571e-001 2.242944e-003
 0.000000e+000 0.000000e+000 0.000000e+000
<ENDHMM>
~h "DAVID"
<BEGINHMM>
<NUMSTATES> 3
<STATE> 2
<MEAN> 39
 -1.070620e+001 1.687016e+000 8.444862e-001 -3.978488e+000 -1.227895e+000 -2.834470e+000 -1.784177e+000 -5.591743e-001 -3.734290e+000 7.064872e-001 -1.089793e+000 -2.139907e+000 6.969398e+001 1.809958e-004 -6.530214e-004 9.338488e-005 4.226209e-004 6.103519e-004 1.385888e-003 8.399491e-004 -1.195468e-003 -1.416546e-003 -1.955464e-003 -1.208839e-003 1.230632e-003 1.511531e-004 1.820435e-005 -1.236669e-004 -3.201476e-005 -3.305267e-004 -6.258733e-004 -1.245372e-003 -7.361488e-004 1.655896e-004 -2.840068e-005 2.027475e-004 3.962425e-004 5.473336e-004 -1.349264e-004
<VARIANCE> 39
 5.920746e+001 2.678050e+001 5.316615e+001 4.878764e+001 3.575499e+001 3.100750e+001 4.473487e+001 3.905518e+001 5.662185e+001 2.369257e+001 2.779304e+001 2.479944e+001 7.109738e+001 2.759504e+000 1.616910e+000 2.156034e+000 3.133423e+000 2.295316e+000 2.244130e+000 3.040141e+000 3.047090e+000 3.561366e+000 2.129447e+000 2.066211e+000 1.711996e+000 2.093914e+000 3.802966e-001 2.680040e-001 3.191143e-001 5.326417e-001 3.965771e-001 4.135316e-001 5.315737e-001 5.678691e-001 6.208692e-001 4.127016e-001 3.889401e-001 3.141092e-001 3.414087e-001
<GCONST> 1.190843e+002
<TRANSP> 3
 0.000000e+000 1.000000e+000 0.000000e+000
 0.000000e+000 9.972219e-001 2.778121e-003
 0.000000e+000 0.000000e+000 0.000000e+000
<ENDHMM>
~h "JAN"
<BEGINHMM>
<NUMSTATES> 3
<STATE> 2
<MEAN> 39
 -8.357702e+000 -6.585167e+000 2.887308e+000 -3.689407e+000 -1.255879e+001 2.289841e+000 -8.056392e-001 -2.581841e+000 -1.021002e+000 2.850349e+000 -7.443754e+000 -6.409091e+000 5.004477e+001 -2.804013e-004 -1.279671e-003 6.916064e-004 6.453043e-004 1.518656e-003 -1.151960e-003 1.627026e-004 3.496182e-005 3.434845e-004 -8.406417e-005 -5.796671e-005 1.274477e-003 5.027340e-004 1.248528e-004 -1.034789e-004 1.696229e-004 -1.568933e-004 1.226208e-004 2.736096e-004 -3.022360e-004 2.447818e-005 -5.143791e-004 -2.908513e-004 -2.734905e-004 4.639244e-004 5.455072e-005
<VARIANCE> 39
 2.424329e+001 2.988235e+001 7.578333e+001 3.455883e+001 4.705912e+001 3.833565e+001 8.542300e+001 5.749594e+001 3.131379e+001 2.930783e+001 2.024332e+001 2.018173e+001 3.323808e+001 8.012618e-001 1.330745e+000 1.994432e+000 1.815576e+000 2.112365e+000 1.828425e+000 3.102491e+000 2.367520e+000 1.893539e+000 1.806326e+000 1.515490e+000 1.324978e+000 8.070661e-001 1.123683e-001 2.037106e-001 2.839610e-001 3.012309e-001 3.476822e-001 3.127364e-001 5.005152e-001 4.049711e-001 3.345916e-001 3.268857e-001 2.895540e-001 2.395325e-001 1.063898e-001
<GCONST> 1.077044e+002
<TRANSP> 3
 0.000000e+000 1.000000e+000 0.000000e+000
 0.000000e+000 9.972063e-001 2.793643e-003
 0.000000e+000 0.000000e+000 0.000000e+000
<ENDHMM>
~h "MAR"
<BEGINHMM>
<NUMSTATES> 3
<STATE> 2
<MEAN> 39
 -5.545377e+000 1.856506e+000 4.025031e+000 6.021557e-001 -8.096133e-001 -7.889907e-001 -2.031773e-001 -1.869368e+000 2.383721e+000 -2.049596e+000 4.810223e+000 -2.364155e+000 6.915982e+001 1.243818e-004 -1.817189e-004 1.240809e-003 4.675223e-004 1.632495e-004 -1.301406e-003 -9.173190e-004 -9.593758e-004 -8.676061e-004 -3.126958e-004 -1.142001e-003 2.211604e-004 6.117898e-005 3.064857e-005 1.953859e-004 -1.490356e-004 7.568784e-005 -4.466787e-005 -2.556519e-004 -5.293810e-004 -2.178767e-004 -1.834781e-004 2.347698e-004 -3.766466e-004 -2.957247e-004 1.515863e-004
<VARIANCE> 39
 8.035585e+001 4.693397e+001 6.142458e+001 5.812211e+001 7.341073e+001 5.466496e+001 5.797246e+001 4.839909e+001 4.030555e+001 5.042112e+001 3.037331e+001 4.481084e+001 1.105338e+002 4.204361e+000 3.007275e+000 2.896081e+000 4.206509e+000 4.429920e+000 4.027221e+000 3.595671e+000 3.461152e+000 2.928335e+000 3.207061e+000 2.857585e+000 3.022364e+000 5.021848e+000 6.057006e-001 5.095668e-001 4.606153e-001 7.377291e-001 7.678687e-001 7.466989e-001 6.434807e-001 6.360561e-001 5.464743e-001 5.771893e-001 5.726974e-001 5.407988e-001 8.446300e-001
<GCONST> 1.341180e+002
<TRANSP> 3
 0.000000e+000 1.000000e+000 0.000000e+000
 0.000000e+000 9.984528e-001 1.547198e-003
 0.000000e+000 0.000000e+000 0.000000e+000
<ENDHMM>
~h "MJB"
<BEGINHMM>
<NUMSTATES> 3
<STATE> 2
<MEAN> 39
 -5.408545e+000 -1.698371e-001 2.317130e+000 8.163022e-001 -3.198075e+000 1.507320e+000 -6.131701e+000 5.086968e-001 -2.582861e+000 -1.287732e+000 -1.895613e+000 -8.626211e-001 6.529600e+001 -2.716856e-003 1.256368e-003 -3.036102e-003 -4.171767e-004 8.571689e-004 1.474881e-003 4.630620e-003 2.725482e-003 2.134850e-003 3.658223e-003 4.007466e-005 1.442475e-003 -7.675406e-004 4.885888e-004 1.447175e-004 -2.446111e-004 -2.286702e-004 -3.521959e-004 -1.640956e-004 -4.158750e-004 -2.095994e-004 7.183066e-004 1.509618e-004 -1.764892e-004 -5.493580e-005 5.974539e-007
<VARIANCE> 39
 8.462670e+001 4.508920e+001 5.293253e+001 4.216859e+001 7.899226e+001 5.593864e+001 6.119561e+001 4.747735e+001 4.836011e+001 3.001520e+001 3.279953e+001 2.629727e+001 8.192670e+001 3.602426e+000 2.483771e+000 2.063760e+000 2.577311e+000 4.315945e+000 3.420975e+000 3.062973e+000 2.900554e+000 2.898452e+000 2.068762e+000 2.179292e+000 1.606042e+000 2.317439e+000 5.394716e-001 4.143800e-001 3.450061e-001 4.570675e-001 7.335442e-001 6.106316e-001 5.571328e-001 5.383250e-001 5.379345e-001 3.979365e-001 4.068186e-001 3.102225e-001 3.827615e-001
<GCONST> 1.251481e+002
<TRANSP> 3
 0.000000e+000 1.000000e+000 0.000000e+000
 0.000000e+000 9.982219e-001 1.778108e-003
 0.000000e+000 0.000000e+000 0.000000e+000
<ENDHMM>
~h "MJL"
<BEGINHMM>
<NUMSTATES> 3
<STATE> 2
<MEAN> 39
 -4.608065e+000 -1.752794e-001 1.562241e+000 2.355678e+000 -3.343194e+000 -5.605962e-001 1.787037e+000 1.343187e+000 2.463188e+000 4.817103e+000 5.420949e+000 1.618335e+000 5.218034e+001 -2.472816e-003 3.805785e-003 1.309578e-003 3.784269e-003 3.982714e-003 4.122549e-003 4.269782e-003 2.885801e-003 3.360759e-003 2.036521e-003 3.190111e-003 2.800971e-003 -6.994468e-003 1.286940e-003 -1.208097e-003 -3.281093e-004 -1.428525e-003 -1.573687e-003 -1.817972e-003 -2.550056e-003 -1.551040e-003 -5.322137e-004 -9.577274e-004 -1.318032e-003 -1.171152e-003 2.436060e-003
<VARIANCE> 39
 8.707344e+001 4.749564e+001 4.848839e+001 3.946780e+001 9.724905e+001 6.519180e+001 4.750561e+001 6.296773e+001 4.352259e+001 2.763987e+001 2.304972e+001 3.628295e+001 1.364077e+002 3.825318e+000 2.952754e+000 1.997868e+000 2.263283e+000 4.233315e+000 2.555861e+000 2.431858e+000 3.477095e+000 2.467011e+000 2.001456e+000 1.790129e+000 1.848812e+000 2.044167e+000 5.683106e-001 5.207236e-001 3.183251e-001 4.073268e-001 7.556095e-001 4.546286e-001 4.544924e-001 6.391646e-001 4.539202e-001 3.864561e-001 3.494676e-001 3.410013e-001 3.479135e-001
<GCONST> 1.245262e+002
<TRANSP> 3
 0.000000e+000 1.000000e+000 0.000000e+000
 0.000000e+000 9.983717e-001 1.628322e-003
 0.000000e+000 0.000000e+000 0.000000e+000
<ENDHMM>
~h "MKK"
<BEGINHMM>
<NUMSTATES> 3
<STATE> 2
<MEAN> 39
 -5.630123e+000 -1.315849e+000 5.041930e+000 -7.395034e+000 -2.160247e-001 -3.264474e+000 -5.185051e-002 2.251266e+000 2.182945e+000 9.240141e-001 -1.485132e+000 -1.041577e+000 6.128321e+001 -1.467190e-004 1.482306e-003 1.271199e-003 2.227916e-003 2.106707e-003 2.114813e-003 2.529210e-003 6.610859e-004 1.578638e-003 -2.539762e-004 1.028047e-003 6.808035e-004 -1.766584e-003 -1.682743e-004 -5.320709e-005 1.517661e-004 -7.288696e-005 -1.781651e-004 -5.109077e-005 1.138380e-004 4.768090e-005 -3.967898e-005 -5.483480e-005 3.647662e-006 -7.782820e-005 2.684705e-005
<VARIANCE> 39
 6.998012e+001 3.287259e+001 5.352624e+001 8.135348e+001 3.544313e+001 4.106845e+001 4.517650e+001 3.268712e+001 4.899776e+001 3.052260e+001 3.397444e+001 1.838687e+001 8.840408e+001 3.149302e+000 2.260201e+000 2.301291e+000 4.679633e+000 2.414346e+000 2.563289e+000 3.177520e+000 2.659011e+000 3.518429e+000 2.327047e+000 2.448388e+000 1.625781e+000 3.357020e+000 4.454133e-001 4.034688e-001 3.725111e-001 7.983077e-001 4.548841e-001 4.677200e-001 5.830440e-001 5.113052e-001 6.466409e-001 4.511203e-001 4.489068e-001 3.201053e-001 5.406352e-001
<GCONST> 1.241243e+002
<TRANSP> 3
 0.000000e+000 1.000000e+000 0.000000e+000
 0.000000e+000 9.988053e-001 1.194696e-003
 0.000000e+000 0.000000e+000 0.000000e+000
<ENDHMM>
~h "MMS"
<BEGINHMM>
<NUMSTATES> 3
<STATE> 2
<MEAN> 39
 -5.627669e+000 1.529463e+000 5.527094e+000 -2.869159e-001 -1.556552e+000 1.142928e+000 -1.134112e+000 -1.144629e+000 3.278535e+000 -4.083648e-001 3.887353e+000 -7.963795e-001 6.657002e+001 7.900646e-004 5.855726e-004 1.987012e-004 4.655105e-004 1.432674e-003 -1.339210e-003 -2.285322e-004 1.322109e-003 -2.316833e-005 -4.492142e-004 1.265376e-003 -6.425239e-004 -1.306784e-003 1.208091e-004 -2.236546e-004 -9.509922e-005 -5.537231e-005 -5.106171e-004 -2.569653e-004 -1.675887e-004 7.499576e-005 1.264987e-004 2.363297e-004 -1.105868e-004 -7.544674e-005 1.384053e-004
<VARIANCE> 39
 8.543913e+001 3.993795e+001 5.784713e+001 5.016892e+001 8.203834e+001 5.268514e+001 6.691421e+001 5.902454e+001 4.623744e+001 4.022669e+001 2.820041e+001 3.963034e+001 8.408402e+001 4.896943e+000 3.047147e+000 2.992775e+000 3.555887e+000 4.967315e+000 3.318948e+000 3.918489e+000 3.661101e+000 3.418693e+000 3.288202e+000 2.639487e+000 2.700438e+000 3.742171e+000 6.859210e-001 5.512115e-001 4.713368e-001 6.350141e-001 8.224552e-001 5.906343e-001 6.872370e-001 6.431853e-001 6.208232e-001 6.013094e-001 5.203087e-001 4.931694e-001 6.614293e-001
<GCONST> 1.331781e+002
<TRANSP> 3
 0.000000e+000 1.000000e+000 0.000000e+000
 0.000000e+000 9.980944e-001 1.905537e-003
 0.000000e+000 0.000000e+000 0.000000e+000
<ENDHMM>
~h "MOS"
<BEGINHMM>
<NUMSTATES> 3
<STATE> 2
<MEAN> 39
 -6.405628e+000 -2.494233e+000 2.936554e+000 -6.043209e+000 -3.975467e+000 -6.228808e+000 -2.915616e+000 1.948876e-002 1.889252e+000 2.813362e-001 1.311386e+000 -3.252961e+000 5.854595e+001 1.360077e-004 3.017980e-004 -5.444415e-004 -1.630220e-003 -7.529077e-004 -1.391309e-003 1.352202e-003 -1.653167e-004 -3.663701e-004 -1.329969e-003 -1.481960e-003 -9.917954e-004 1.039210e-003 -1.483558e-004 2.134121e-004 2.774818e-004 -6.059635e-005 -2.476531e-005 -7.994860e-005 -2.133315e-004 -3.625589e-004 -3.075413e-004 1.258028e-004 -1.081538e-004 1.382299e-004 -1.552559e-004
<VARIANCE> 39
 7.434586e+001 3.962571e+001 5.044593e+001 4.846335e+001 5.344961e+001 4.713550e+001 5.157571e+001 4.036969e+001 4.499044e+001 3.385517e+001 3.415758e+001 3.748666e+001 8.211252e+001 3.282061e+000 2.677044e+000 2.281913e+000 3.149191e+000 3.354896e+000 3.001888e+000 2.996270e+000 3.146220e+000 3.197155e+000 2.900296e+000 2.545128e+000 2.503521e+000 2.699069e+000 4.465155e-001 4.646814e-001 3.640516e-001 5.451563e-001 5.902620e-001 5.508316e-001 5.353450e-001 5.807191e-001 5.632938e-001 5.625212e-001 4.760454e-001 4.461868e-001 4.320642e-001
<GCONST> 1.265826e+002
<TRANSP> 3
 0.000000e+000 1.000000e+000 0.000000e+000
 0.000000e+000 9.984229e-001 1.577121e-003
 0.000000e+000 0.000000e+000 0.000000e+000
<ENDHMM>
~h "MPM"
<BEGINHMM>
<NUMSTATES> 3
<STATE> 2
<MEAN> 39
 -7.942114e+000 3.616560e+000 2.621425e+000 1.847140e+000 -3.127010e+000 -7.169696e-001 -3.335174e+000 -1.109707e-001 -1.004349e+000 2.050948e+000 1.039193e+000 -1.409397e+000 6.431327e+001 1.162457e-003 3.073767e-003 -2.511812e-003 -1.063296e-003 2.851509e-003 3.032110e-003 8.427824e-004 -1.493279e-003 7.082456e-004 2.256977e-003 1.398607e-003 1.946953e-004 -3.025648e-003 -6.409865e-005 -1.653021e-004 -1.644590e-004 -9.000520e-005 -1.150114e-004 1.018439e-004 -5.630332e-004 -3.381187e-004 -1.535827e-004 5.183934e-005 9.302246e-005 3.152318e-004 1.145410e-004
<VARIANCE> 39
 6.833994e+001 4.243059e+001 6.515498e+001 4.185136e+001 6.711037e+001 5.959240e+001 7.133787e+001 5.448069e+001 5.070069e+001 4.227693e+001 3.173851e+001 3.946585e+001 8.744447e+001 3.104887e+000 2.263356e+000 2.985601e+000 2.798788e+000 3.950282e+000 3.204970e+000 3.416343e+000 3.869419e+000 3.249044e+000 2.816858e+000 2.560340e+000 2.405416e+000 2.308631e+000 4.384973e-001 3.961437e-001 4.832777e-001 5.169418e-001 7.292278e-001 5.847169e-001 6.491719e-001 7.250869e-001 6.170974e-001 5.385320e-001 5.069692e-001 4.491615e-001 3.909555e-001
<GCONST> 1.291915e+002
<TRANSP> 3
 0.000000e+000 1.000000e+000 0.000000e+000
 0.000000e+000 9.985098e-001 1.490239e-003
 0.000000e+000 0.000000e+000 0.000000e+000
<ENDHMM>
~h "MPS"
<BEGINHMM>
<NUMSTATES> 3
<STATE> 2
<MEAN> 39
 -5.292259e+000 -1.216768e+000 4.957430e+000 -1.706121e+000 -2.298422e+000 3.326658e-001 -1.766457e+000 -1.020090e+000 1.319221e+000 9.104933e-001 2.809223e+000 -5.603242e-001 6.666755e+001 4.781645e-004 1.974637e-004 8.346632e-004 -3.160250e-004 -2.481283e-004 -5.313650e-004 3.286459e-004 -2.607190e-004 -7.379104e-004 -9.456879e-006 7.113003e-004 8.642711e-005 -6.568971e-004 1.130410e-005 1.869344e-005 1.214748e-004 2.207530e-004 -2.958251e-005 -5.661153e-005 1.983744e-004 1.410488e-004 -1.005295e-005 -5.366762e-005 -8.279366e-005 -8.951190e-005 -4.939034e-005
<VARIANCE> 39
 9.873820e+001 4.935600e+001 7.242935e+001 5.385116e+001 6.460520e+001 4.389598e+001 6.082308e+001 4.475804e+001 5.517945e+001 2.848819e+001 2.800305e+001 2.636388e+001 1.019311e+002 4.882366e+000 3.168334e+000 3.136127e+000 3.419378e+000 3.501388e+000 2.712791e+000 3.199296e+000 2.998025e+000 3.278612e+000 2.072230e+000 1.924179e+000 1.657552e+000 3.409078e+000 6.864821e-001 5.463363e-001 4.888134e-001 5.886827e-001 6.083034e-001 4.819190e-001 5.715501e-001 5.550895e-001 5.887823e-001 3.923952e-001 3.605978e-001 3.121231e-001 5.622424e-001
<GCONST> 1.279845e+002
<TRANSP> 3
 0.000000e+000 1.000000e+000 0.000000e+000
 0.000000e+000 9.984200e-001 1.580028e-003
 0.000000e+000 0.000000e+000 0.000000e+000
<ENDHMM>
~h "MVL"
<BEGINHMM>
<NUMSTATES> 3
<STATE> 2
<MEAN> 39
 -6.412432e+000 -4.217038e-001 1.901809e+000 -4.418807e-001 -6.589596e+000 1.693629e+000 -3.749789e+000 -1.821345e+000 9.498859e-001 2.213843e+000 -2.671685e+000 -1.791828e+000 6.931896e+001 -9.810333e-004 7.547454e-004 3.213400e-004 8.478723e-004 7.062890e-004 -1.817716e-004 -7.324390e-004 -2.071178e-003 -7.993162e-004 1.951553e-003 -3.125399e-003 -2.117069e-003 1.194603e-003 7.788758e-004 -4.868368e-004 -2.821241e-004 -8.305106e-005 1.108684e-004 -1.680700e-004 -5.707000e-004 1.671511e-004 -8.987261e-006 3.051347e-004 1.513922e-004 -4.329682e-005 -2.147682e-004
<VARIANCE> 39
 7.479309e+001 4.796209e+001 7.032716e+001 4.308023e+001 1.009260e+002 5.513326e+001 7.599490e+001 6.145822e+001 4.515081e+001 3.046556e+001 3.066126e+001 3.530163e+001 1.183111e+002 4.185239e+000 3.506548e+000 3.406454e+000 2.839815e+000 6.305446e+000 3.992922e+000 4.574711e+000 3.792241e+000 3.590167e+000 2.574851e+000 2.423248e+000 2.328503e+000 3.797382e+000 6.434634e-001 6.032002e-001 5.451764e-001 5.053584e-001 1.127461e+000 7.483544e-001 8.683101e-001 7.203982e-001 6.907102e-001 5.087844e-001 4.718038e-001 4.423824e-001 6.557190e-001
<GCONST> 1.343531e+002
<TRANSP> 3
 0.000000e+000 1.000000e+000 0.000000e+000
 0.000000e+000 9.980443e-001 1.955714e-003
 0.000000e+000 0.000000e+000 0.000000e+000
<ENDHMM>
~h "ZLG"
<BEGINHMM>
<NUMSTATES> 3
<STATE> 2
<MEAN> 39
 -6.442204e+000 2.510439e+000 -2.043713e+000 -2.308139e+000 -5.729788e+000 -4.208331e+000 -6.947841e+000 -6.328908e+000 -4.594928e+000 -3.002584e+000 -5.418906e+000 -3.560924e+000 6.518233e+001 -9.347304e-004 2.987200e-003 -2.088701e-003 9.741641e-005 3.166197e-003 3.953334e-004 3.665066e-003 8.155467e-004 2.053133e-003 1.151270e-003 2.162363e-003 -2.085911e-003 -1.922767e-003 4.592219e-004 -1.421416e-004 9.538456e-005 -2.306516e-005 -2.389412e-004 9.811405e-005 -2.400081e-004 -1.176990e-004 -8.693137e-004 -5.361149e-004 -5.166804e-004 -4.560740e-004 8.549216e-005
<VARIANCE> 39
 5.714745e+001 3.798048e+001 5.377825e+001 4.107080e+001 6.826897e+001 4.829155e+001 6.540517e+001 5.767576e+001 4.996476e+001 3.727586e+001 4.176639e+001 3.742265e+001 6.108162e+001 2.918620e+000 2.194767e+000 2.491376e+000 2.493251e+000 3.814309e+000 2.862809e+000 3.169503e+000 3.024444e+000 2.668945e+000 2.551245e+000 2.372997e+000 2.155619e+000 2.209331e+000 4.552717e-001 3.835158e-001 4.184721e-001 4.423770e-001 6.708129e-001 5.315182e-001 5.721554e-001 5.539080e-001 4.847952e-001 4.900607e-001 4.432255e-001 4.075435e-001 3.799465e-001
<GCONST> 1.253415e+002
<TRANSP> 3
 0.000000e+000 1.000000e+000 0.000000e+000
 0.000000e+000 9.981921e-001 1.807852e-003
 0.000000e+000 0.000000e+000 0.000000e+000
<ENDHMM>
~h "ZLR"
<BEGINHMM>
<NUMSTATES> 3
<STATE> 2
<MEAN> 39
 -6.015487e+000 2.135105e+000 1.677081e+000 -4.187175e+000 7.993740e-001 -4.438998e+000 3.183309e-001 -5.100115e+000 -1.310478e+000 -1.893525e+000 -1.649034e+000 -5.253655e-001 6.668392e+001 1.756139e-003 -5.615655e-004 1.697411e-003 -2.719628e-004 1.210349e-003 -1.153270e-003 1.573916e-004 -5.816246e-004 -1.425827e-003 9.845112e-004 -1.424644e-003 5.987291e-004 -1.323966e-003 1.837827e-005 -6.251557e-005 -1.940001e-004 -7.744296e-005 -2.788996e-004 -1.021230e-004 -5.487092e-004 -3.055214e-004 -6.264922e-005 -2.650402e-004 2.178577e-005 2.371536e-004 2.490546e-004
<VARIANCE> 39
 5.235644e+001 4.534352e+001 5.039973e+001 1.015021e+002 6.170742e+001 7.429391e+001 5.265109e+001 7.964966e+001 5.407989e+001 4.478205e+001 5.856673e+001 3.179228e+001 9.353046e+001 3.363586e+000 3.238873e+000 2.693471e+000 6.921359e+000 3.698588e+000 4.819149e+000 3.399023e+000 5.346215e+000 3.201631e+000 3.106937e+000 3.210405e+000 2.200502e+000 4.406314e+000 5.417944e-001 5.664079e-001 4.630293e-001 1.187404e+000 6.642076e-001 8.644814e-001 6.321113e-001 9.837735e-001 5.732711e-001 5.795452e-001 5.450776e-001 4.192719e-001 7.777846e-001
<GCONST> 1.358122e+002
<TRANSP> 3
 0.000000e+000 1.000000e+000 0.000000e+000
 0.000000e+000 9.983712e-001 1.628753e-003
 0.000000e+000 0.000000e+000 0.000000e+000
<ENDHMM>
~h "ZNM"
<BEGINHMM>
<NUMSTATES> 3
<STATE> 2
<MEAN> 39
 -8.788948e+000 -2.488009e+000 2.464017e+000 -7.579432e+000 -2.585754e+000 -1.125418e+001 3.967226e+000 -3.875357e+000 -1.027071e+000 3.101166e-001 -8.796304e-001 -2.513936e+000 6.239754e+001 5.160668e-006 2.034882e-003 -5.835969e-004 7.392779e-004 3.459596e-003 3.398292e-003 -2.995903e-003 -2.626549e-003 -1.411990e-004 -5.780666e-004 -2.239942e-003 1.280115e-004 -3.202154e-003 -6.922935e-005 1.554802e-004 1.120930e-004 -1.143863e-004 -3.054722e-004 -2.491764e-005 -8.433467e-005 -3.293162e-005 2.120033e-005 9.355073e-005 1.277538e-004 8.125814e-005 9.065703e-005
<VARIANCE> 39
 7.000156e+001 3.858505e+001 7.222417e+001 8.053847e+001 5.114348e+001 1.014142e+002 4.295306e+001 6.261081e+001 7.035389e+001 3.102138e+001 4.933928e+001 3.807262e+001 1.028102e+002 3.065001e+000 2.219327e+000 2.790892e+000 4.061548e+000 2.610598e+000 5.342859e+000 2.576492e+000 3.649083e+000 3.797830e+000 2.503335e+000 2.600126e+000 2.248126e+000 4.241238e+000 4.161468e-001 3.825361e-001 4.352241e-001 6.271954e-001 4.506535e-001 8.341413e-001 4.707859e-001 6.217575e-001 6.370431e-001 4.770457e-001 4.469479e-001 3.903072e-001 6.718212e-001
<GCONST> 1.305633e+002
<TRANSP> 3
 0.000000e+000 1.000000e+000 0.000000e+000
 0.000000e+000 9.989600e-001 1.040048e-003
 0.000000e+000 0.000000e+000 0.000000e+000
<ENDHMM>
~h "ZSS"
<BEGINHMM>
<NUMSTATES> 3
<STATE> 2
<MEAN> 39
 -6.325509e+000 2.349863e+000 2.108041e+000 -2.701822e+000 -1.146636e+000 9.177929e-001 -4.208651e-001 1.139818e+000 -1.803693e+000 2.148892e+000 -9.769821e-001 2.029237e+000 5.495060e+001 -1.164965e-003 2.384926e-003 1.304534e-003 3.307812e-003 4.049100e-003 1.146874e-004 1.172661e-003 1.541301e-003 7.980457e-005 -9.013795e-004 -4.753051e-005 1.912669e-003 -3.441683e-003 1.047151e-003 -6.932454e-004 -5.401726e-004 -8.060173e-004 -3.468261e-006 -4.261399e-004 -6.344527e-004 -6.215340e-004 5.404609e-006 -1.412679e-004 -6.234430e-004 -7.092307e-005 4.111004e-004
<VARIANCE> 39
 6.931342e+001 4.298469e+001 5.277618e+001 7.021590e+001 8.094151e+001 4.763534e+001 7.986073e+001 4.866700e+001 7.467938e+001 3.642542e+001 7.601701e+001 2.674274e+001 8.115088e+001 4.000211e+000 3.254229e+000 2.756265e+000 4.540112e+000 4.987854e+000 3.560176e+000 4.459144e+000 3.489195e+000 4.571774e+000 3.151182e+000 4.355746e+000 1.950996e+000 4.041015e+000 6.060340e-001 5.912884e-001 4.593630e-001 7.694335e-001 8.644328e-001 6.553220e-001 7.591952e-001 6.430289e-001 7.748090e-001 6.136289e-001 7.444678e-001 3.742908e-001 6.987156e-001
<GCONST> 1.355260e+002
<TRANSP> 3
 0.000000e+000 1.000000e+000 0.000000e+000
 0.000000e+000 9.981949e-001 1.805054e-003
 0.000000e+000 0.000000e+000 0.000000e+000
<ENDHMM>
~h "ZTK"
<BEGINHMM>
<NUMSTATES> 3
<STATE> 2
<MEAN> 39
 -6.776761e+000 -4.691525e+000 3.730212e+000 -1.065102e+001 -3.853852e+000 -6.905876e+000 -2.906983e+000 9.602132e-001 -2.343510e+000 -9.931529e-001 -3.810780e+000 -1.579521e+000 6.507235e+001 2.350670e-003 4.952735e-003 9.074760e-004 3.348173e-003 3.103012e-003 5.354550e-003 1.888448e-003 -1.018993e-003 1.878959e-003 -2.904650e-004 2.647729e-004 -1.093015e-003 -5.863111e-003 6.160629e-005 3.653008e-004 8.390643e-005 3.256486e-004 1.239766e-004 6.347070e-004 2.824278e-004 3.873074e-004 8.051771e-006 -3.081768e-004 -1.966899e-004 7.234979e-006 -3.795201e-004
<VARIANCE> 39
 7.122913e+001 7.774460e+001 5.614157e+001 1.147878e+002 6.667015e+001 5.816518e+001 7.343006e+001 5.153094e+001 7.407253e+001 3.795403e+001 6.460020e+001 2.901550e+001 9.857145e+001 3.759173e+000 4.606596e+000 2.888742e+000 7.581376e+000 3.842350e+000 3.923695e+000 4.476375e+000 4.190912e+000 4.399261e+000 3.285555e+000 3.876262e+000 2.145619e+000 6.062458e+000 5.651901e-001 7.376503e-001 4.810516e-001 1.187346e+000 6.464469e-001 6.862053e-001 7.485638e-001 7.891676e-001 7.229452e-001 6.392618e-001 6.555963e-001 4.033677e-001 9.929668e-001
<GCONST> 1.389286e+002
<TRANSP> 3
 0.000000e+000 1.000000e+000 0.000000e+000
 0.000000e+000 9.985837e-001 1.416295e-003
 0.000000e+000 0.000000e+000 0.000000e+000
<ENDHMM>
~h "ZTV"
<BEGINHMM>
<NUMSTATES> 3
<STATE> 2
<MEAN> 39
 -6.849685e+000 8.066620e-001 1.237443e+000 -6.233336e+000 -5.137928e+000 -4.443155e+000 -6.418084e+000 -1.898556e+000 -4.353526e+000 -8.860035e-001 -5.294118e+000 -1.189605e+000 6.727740e+001 1.720953e-003 -1.018366e-003 4.617592e-003 2.688618e-003 4.902149e-003 3.860838e-003 -6.762972e-004 -1.458210e-003 -1.740786e-003 -3.456003e-003 -2.517144e-003 -8.734296e-004 -4.545393e-003 -4.120456e-004 2.362412e-004 -7.334668e-004 1.222296e-004 -5.596950e-004 -2.438148e-004 1.904701e-004 7.904426e-005 2.134806e-004 1.022429e-004 -4.610785e-005 -4.831978e-004 3.663878e-004
<VARIANCE> 39
 5.907151e+001 3.642034e+001 5.772902e+001 7.520393e+001 9.023836e+001 5.233554e+001 9.477776e+001 5.235367e+001 6.747749e+001 4.104865e+001 6.760887e+001 3.159781e+001 8.294510e+001 3.076620e+000 2.479032e+000 2.521689e+000 4.450927e+000 4.980323e+000 3.492093e+000 4.977864e+000 3.540233e+000 3.749823e+000 3.195122e+000 3.903123e+000 2.459275e+000 3.844075e+000 4.648249e-001 4.376162e-001 4.118861e-001 7.464098e-001 8.540378e-001 6.303987e-001 8.259776e-001 6.538972e-001 6.577433e-001 6.089005e-001 7.005804e-001 4.628453e-001 6.436127e-001
<GCONST> 1.344857e+002
<TRANSP> 3
 0.000000e+000 1.000000e+000 0.000000e+000
 0.000000e+000 9.983172e-001 1.682794e-003
 0.000000e+000 0.000000e+000 0.000000e+000
<ENDHMM>
~h "MPCH"
<BEGINHMM>
<NUMSTATES> 3
<STATE> 2
<MEAN> 39
 -6.757583e+000 -6.165177e+000 2.773734e+000 -7.926695e+000 -5.222636e+000 -4.523794e+000 -2.704134e+000 9.712506e-001 -8.570529e-001 -6.528895e-001 -1.935091e-001 -1.889262e+000 6.536791e+001 -6.279909e-004 8.039330e-003 -2.033918e-003 7.976439e-003 3.395956e-003 7.494481e-003 5.438659e-003 -3.432019e-003 -1.101609e-003 1.095116e-003 1.110632e-003 -2.106637e-003 -1.267381e-002 4.190748e-006 1.025374e-004 2.739739e-004 4.889304e-004 2.901369e-004 1.993508e-004 2.691306e-004 2.349123e-004 -2.894903e-004 -3.308820e-004 -2.218937e-004 -1.789955e-004 -2.992222e-004
<VARIANCE> 39
 8.406625e+001 5.366788e+001 5.615846e+001 6.120603e+001 7.200269e+001 4.116517e+001 5.602709e+001 3.628699e+001 7.435116e+001 2.914648e+001 3.499152e+001 2.338800e+001 1.157078e+002 3.673465e+000 3.346002e+000 2.561067e+000 3.765257e+000 3.805347e+000 2.683249e+000 3.680602e+000 2.939976e+000 4.636287e+000 2.383843e+000 2.505552e+000 1.826619e+000 4.745567e+000 5.072225e-001 5.629498e-001 4.088626e-001 6.240070e-001 6.204575e-001 4.860922e-001 6.346931e-001 5.389256e-001 7.781280e-001 4.535983e-001 4.424580e-001 3.432057e-001 7.181665e-001
<GCONST> 1.297979e+002
<TRANSP> 3
 0.000000e+000 1.000000e+000 0.000000e+000
 0.000000e+000 9.984196e-001 1.580361e-003
 0.000000e+000 0.000000e+000 0.000000e+000
<ENDHMM>
~h "MVL2"
<BEGINHMM>
<NUMSTATES> 3
<STATE> 2
<MEAN> 39
 -4.898614e+000 1.733482e+000 2.464076e+000 -1.453718e+000 -5.149415e+000 -2.546152e+000 -7.035265e+000 -4.140554e+000 -9.478507e-001 1.099349e+000 1.878852e+000 1.500154e-001 7.188367e+001 -3.510808e-004 2.511357e-003 -1.561336e-003 7.142599e-004 2.437925e-003 2.805707e-003 -1.303822e-003 -1.931377e-003 -8.232985e-004 1.527734e-004 1.017241e-004 -5.785358e-004 -1.732735e-003 2.186580e-004 3.223364e-005 6.654796e-005 -1.428046e-004 1.932911e-004 1.868716e-004 -2.683774e-004 -2.239815e-004 -3.903108e-004 -5.269226e-004 -3.185574e-004 4.179605e-005 1.251068e-004
<VARIANCE> 39
 7.456745e+001 3.577907e+001 5.441372e+001 4.405037e+001 7.172014e+001 7.573988e+001 7.112298e+001 6.423319e+001 5.360189e+001 4.015741e+001 3.297189e+001 3.751475e+001 9.317599e+001 2.793852e+000 1.895851e+000 2.109942e+000 2.209515e+000 3.549924e+000 3.411270e+000 3.254183e+000 3.234112e+000 2.801923e+000 2.416188e+000 2.372099e+000 2.168949e+000 2.073035e+000 3.668375e-001 3.168432e-001 3.294644e-001 3.874923e-001 6.244600e-001 5.650206e-001 5.662643e-001 5.750759e-001 4.959405e-001 4.429865e-001 4.551771e-001 3.885505e-001 2.995478e-001
<GCONST> 1.252106e+002
<TRANSP> 3
 0.000000e+000 1.000000e+000 0.000000e+000
 0.000000e+000 9.984462e-001 1.553765e-003
 0.000000e+000 0.000000e+000 0.000000e+000
<ENDHMM>
~h "VACLAV"
<BEGINHMM>
<NUMSTATES> 3
<STATE> 2
<MEAN> 39
 -7.765949e+000 2.022324e+000 2.495327e+000 1.926652e+000 -8.180639e-001 3.941759e+000 -2.858048e+000 3.735001e+000 3.142065e+000 4.003975e+000 4.108366e+000 1.029838e+000 4.718830e+001 1.077955e-004 -8.314462e-005 -1.630919e-004 -5.357324e-004 1.451170e-003 -1.016550e-003 5.142318e-004 7.167688e-004 9.412393e-005 1.344106e-003 7.321330e-004 -1.077634e-003 -8.692240e-006 -1.663912e-005 -7.182259e-005 4.576924e-004 1.878215e-005 -2.181703e-004 -1.596207e-004 9.451975e-005 1.036441e-004 -3.235918e-004 4.168228e-004 -2.485706e-004 -7.411098e-005 -5.156705e-005
<VARIANCE> 39
 5.431883e+001 3.731060e+001 4.619614e+001 8.229247e+001 6.005628e+001 4.547725e+001 6.930562e+001 5.400026e+001 5.265766e+001 4.080587e+001 2.686988e+001 4.785271e+001 6.934963e+001 2.372254e+000 2.542452e+000 1.977210e+000 3.961004e+000 3.379623e+000 2.674246e+000 3.813865e+000 3.302355e+000 3.049608e+000 2.384274e+000 2.196543e+000 2.098435e+000 2.144248e+000 3.434093e-001 4.391221e-001 3.196546e-001 6.679183e-001 5.674006e-001 4.788167e-001 6.649553e-001 6.100601e-001 5.498615e-001 4.380966e-001 4.189271e-001 3.684401e-001 3.477425e-001
<GCONST> 1.256206e+002
<TRANSP> 3
 0.000000e+000 1.000000e+000 0.000000e+000
 0.000000e+000 9.975002e-001 2.499791e-003
 0.000000e+000 0.000000e+000 0.000000e+000
<ENDHMM>
~h "DUTKA"
<BEGINHMM>
<NUMSTATES> 3
<STATE> 2
<MEAN> 39
 -1.563540e+000 -4.926716e+000 -5.636639e-001 -1.482637e+001 -1.145555e+001 -4.023448e+000 -1.334383e+001 -2.292418e+000 -6.169223e+000 -4.443141e+000 -4.459682e+000 -5.463386e+000 6.051646e+001 1.379118e-003 -3.880310e-003 -8.146681e-004 -7.449752e-004 2.882749e-003 -3.099083e-003 -1.660101e-003 -2.092197e-003 -3.628556e-003 -1.015370e-003 -1.995144e-003 -7.194784e-004 4.412905e-003 -1.165858e-004 1.144871e-004 -3.182765e-005 -1.055526e-004 -1.590879e-005 -1.085574e-004 -9.713812e-005 -3.312374e-004 -2.717265e-004 7.524709e-005 -1.537381e-004 -1.556222e-004 -1.402450e-004
<VARIANCE> 39
 1.316405e+002 9.505080e+001 1.216452e+002 1.027371e+002 8.187229e+001 9.110527e+001 6.980478e+001 7.972218e+001 6.160602e+001 4.326645e+001 4.202695e+001 3.343835e+001 1.312671e+002 3.714018e+000 5.161216e+000 4.484210e+000 5.252653e+000 4.556368e+000 4.971067e+000 4.749480e+000 5.003670e+000 4.323574e+000 3.285536e+000 3.056491e+000 2.527251e+000 3.385767e+000 4.985740e-001 8.092647e-001 6.913785e-001 9.002492e-001 8.174918e-001 8.345894e-001 8.778911e-001 8.902748e-001 8.074228e-001 6.292273e-001 5.848022e-001 4.770723e-001 4.650868e-001
<GCONST> 1.416885e+002
<TRANSP> 3
 0.000000e+000 1.000000e+000 0.000000e+000
 0.000000e+000 9.983122e-001 1.687827e-003
 0.000000e+000 0.000000e+000 0.000000e+000
<ENDHMM>
~h "BLAZEK"
<BEGINHMM>
<NUMSTATES> 3
<STATE> 2
<MEAN> 39
 -7.147953e+000 -1.345614e+000 2.020008e+000 -3.871101e+000 -1.384045e+000 -2.382639e+000 -1.799544e+000 -1.003948e+000 2.671434e-001 1.943701e-001 8.218496e-001 -1.403143e+000 5.860730e+001 -4.771911e-003 3.546103e-003 -6.683296e-004 -2.367642e-003 5.646809e-003 -6.352291e-003 4.230374e-003 -6.438072e-004 -7.213637e-004 4.308661e-003 -1.648130e-003 -6.632202e-004 1.584967e-003 4.898484e-004 -6.800311e-004 7.045542e-004 7.144905e-004 -2.534380e-004 2.457219e-004 3.653328e-004 2.765751e-004 7.324431e-005 -3.092566e-004 6.370040e-004 4.715863e-004 -3.873430e-004
<VARIANCE> 39
 7.220542e+001 3.685651e+001 6.010862e+001 5.198887e+001 4.783484e+001 5.255536e+001 5.678242e+001 3.891125e+001 3.664688e+001 2.763439e+001 2.575153e+001 2.953565e+001 1.007150e+002 3.073112e+000 2.361218e+000 2.513473e+000 3.191435e+000 3.476821e+000 3.145414e+000 3.924724e+000 2.833016e+000 2.596418e+000 2.188587e+000 2.161054e+000 2.118086e+000 3.114552e+000 4.446907e-001 4.034436e-001 4.020829e-001 5.702556e-001 6.378826e-001 5.712988e-001 7.069091e-001 5.362805e-001 4.822106e-001 4.193431e-001 4.120990e-001 4.019527e-001 5.167177e-001
<GCONST> 1.253403e+002
<TRANSP> 3
 0.000000e+000 1.000000e+000 0.000000e+000
 0.000000e+000 9.982690e-001 1.730969e-003
 0.000000e+000 0.000000e+000 0.000000e+000
<ENDHMM>
~h "KOUNOVSKY"
<BEGINHMM>
<NUMSTATES> 3
<STATE> 2
<MEAN> 39
 -7.302338e+000 -2.551042e+000 2.295788e+000 4.325928e+000 -1.016414e+001 5.770119e+000 -4.380193e+000 -4.001504e+000 -1.500594e+000 2.405501e+000 -2.301158e+000 -1.802602e+000 5.741532e+001 -3.053763e-003 -1.361350e-003 -2.396113e-003 -3.412073e-003 -2.217632e-003 -1.539175e-003 -2.495068e-003 -3.964119e-003 -4.380493e-003 -5.026254e-003 -2.825764e-003 -3.903558e-003 -2.009049e-003 1.301967e-005 -1.332109e-004 1.442820e-004 -2.693295e-004 -3.476596e-004 -3.849165e-004 5.678259e-004 2.198924e-004 5.030899e-004 5.934642e-004 3.599291e-004 7.801843e-004 1.116407e-007
<VARIANCE> 39
 8.308690e+001 4.875666e+001 6.900699e+001 5.094372e+001 1.138137e+002 6.563242e+001 6.266273e+001 5.923619e+001 5.197257e+001 4.760759e+001 3.608940e+001 2.940674e+001 1.394265e+002 3.601347e+000 2.909514e+000 2.929878e+000 2.805057e+000 4.883789e+000 3.378987e+000 4.033618e+000 2.941775e+000 3.243423e+000 2.637777e+000 2.212100e+000 1.848454e+000 3.185565e+000 4.739788e-001 4.988634e-001 4.483468e-001 4.674288e-001 7.621650e-001 5.540026e-001 6.950670e-001 5.109922e-001 5.749503e-001 4.580234e-001 4.151832e-001 3.401081e-001 5.207683e-001
<GCONST> 1.306053e+002
<TRANSP> 3
 0.000000e+000 1.000000e+000 0.000000e+000
 0.000000e+000 9.971693e-001 2.830723e-003
 0.000000e+000 0.000000e+000 0.000000e+000
<ENDHMM>
~h "KOLAR"
<BEGINHMM>
<NUMSTATES> 3
<STATE> 2
<MEAN> 39
 -4.367982e+000 3.106467e+000 -2.616784e+000 6.949685e+000 -2.169241e+000 2.119941e+000 -2.769971e-002 2.523672e+000 1.514788e+000 4.291131e+000 4.901034e+000 -5.490636e-001 5.757509e+001 -3.027153e-004 4.541827e-004 5.458361e-004 1.169516e-003 1.258898e-003 2.255064e-004 5.997914e-004 9.239609e-004 1.171310e-003 2.116075e-003 1.038670e-003 5.859399e-004 -7.238011e-004 2.346079e-004 -1.815219e-004 -5.345815e-005 -1.272949e-005 -1.814244e-004 -6.442497e-004 -2.086672e-004 -4.454407e-004 -3.902731e-004 -3.230656e-004 -5.919717e-004 -1.118794e-004 2.620580e-004
<VARIANCE> 39
 5.265254e+001 1.879730e+001 3.212584e+001 2.228244e+001 7.302882e+001 3.769424e+001 5.222967e+001 3.534954e+001 3.431333e+001 2.516243e+001 2.125758e+001 4.583348e+001 6.592991e+001 1.617631e+000 1.160733e+000 1.862218e+000 1.297023e+000 2.752283e+000 1.930313e+000 2.548683e+000 1.912894e+000 1.868631e+000 1.565249e+000 1.598305e+000 1.709268e+000 1.586673e+000 2.149091e-001 2.066980e-001 3.215088e-001 2.277004e-001 4.537323e-001 3.502868e-001 4.362278e-001 3.446237e-001 3.386682e-001 2.858659e-001 3.080390e-001 2.998185e-001 2.495995e-001
<GCONST> 1.101591e+002
<TRANSP> 3
 0.000000e+000 1.000000e+000 0.000000e+000
 0.000000e+000 9.984227e-001 1.577287e-003
 0.000000e+000 0.000000e+000 0.000000e+000
<ENDHMM>
~h "HALADAVETY"
<BEGINHMM>
<NUMSTATES> 3
<STATE> 2
<MEAN> 39
 -1.064760e+001 4.943389e-001 -4.110265e+000 -2.218596e+000 -1.070911e+001 -7.659546e-001 -1.194014e+001 -3.620161e+000 -5.265075e+000 -5.125476e+000 -1.592348e+000 -1.831399e+000 5.359884e+001 1.977246e-003 2.664070e-003 1.813602e-003 -4.206067e-004 7.572108e-004 1.931051e-003 -1.513699e-003 -4.534457e-003 -3.431706e-003 -8.082454e-004 -8.251633e-004 -5.027460e-003 7.984728e-004 5.334226e-006 -1.017496e-004 -2.236921e-004 5.666343e-005 -4.216323e-004 -1.070721e-003 1.080939e-003 1.709424e-003 2.378117e-004 -1.435971e-003 -9.709031e-004 2.465179e-003 -3.364879e-005
<VARIANCE> 39
 1.250408e+002 6.273855e+001 7.412195e+001 7.484405e+001 6.309547e+001 8.472951e+001 6.608813e+001 6.483375e+001 5.533370e+001 3.820645e+001 4.457526e+001 4.027774e+001 3.094409e+002 3.464758e+000 3.070247e+000 2.753231e+000 3.255142e+000 3.869918e+000 4.500710e+000 4.167727e+000 3.902022e+000 3.492507e+000 2.771132e+000 2.899943e+000 2.702603e+000 4.279956e+000 5.063551e-001 4.961453e-001 4.382172e-001 5.402713e-001 6.946234e-001 7.794172e-001 7.706991e-001 7.131017e-001 6.430071e-001 5.349950e-001 5.446142e-001 5.129060e-001 6.374015e-001
<GCONST> 1.362564e+002
<TRANSP> 3
 0.000000e+000 1.000000e+000 0.000000e+000
 0.000000e+000 9.987823e-001 1.217648e-003
 0.000000e+000 0.000000e+000 0.000000e+000
<ENDHMM>
~h "HORKYVETY"
<BEGINHMM>
<NUMSTATES> 3
<STATE> 2
<MEAN> 39
 -1.610910e+001 5.788795e-001 -3.921038e+000 -4.196749e-001 -7.355718e+000 -1.406373e+000 -5.973426e+000 -2.933558e+000 4.718774e-001 -2.708880e+000 3.914669e+000 -3.418980e+000 4.638534e+001 -1.448734e-002 3.286387e-004 -3.809667e-003 -3.001430e-003 2.340588e-003 -2.546588e-003 1.086205e-003 3.478294e-004 -4.031879e-003 2.838701e-003 -3.948865e-003 2.348072e-003 -4.990016e-003 4.408219e-003 1.225060e-004 1.047750e-003 4.953686e-004 3.082756e-004 1.673347e-004 1.002275e-004 3.569639e-004 -2.065872e-004 -6.028757e-004 -2.496857e-004 -2.587732e-004 2.350916e-003
<VARIANCE> 39
 7.683839e+001 3.012696e+001 6.525113e+001 5.277189e+001 4.632488e+001 5.061089e+001 5.122355e+001 5.109537e+001 3.895830e+001 4.507237e+001 5.079871e+001 3.431293e+001 2.544659e+002 2.944243e+000 1.965811e+000 2.223394e+000 2.671455e+000 3.038915e+000 2.631687e+000 3.343807e+000 2.844256e+000 2.945294e+000 3.040151e+000 2.922979e+000 2.062876e+000 4.924592e+000 4.208389e-001 3.488765e-001 3.580830e-001 4.428130e-001 5.308134e-001 4.785118e-001 5.740824e-001 4.965435e-001 5.340593e-001 5.387414e-001 5.032424e-001 3.664126e-001 7.659727e-001
<GCONST> 1.275350e+002
<TRANSP> 3
 0.000000e+000 1.000000e+000 0.000000e+000
 0.000000e+000 9.985222e-001 1.477760e-003
 0.000000e+000 0.000000e+000 0.000000e+000
<ENDHMM>
~h "CHMELIK"
<BEGINHMM>
<NUMSTATES> 3
<STATE> 2
<MEAN> 39
 -1.004981e+001 -5.077723e+000 1.909322e+000 -4.583238e+000 -5.318744e+000 -3.323505e+000 -1.907916e+000 -1.456887e+000 7.144760e-001 -1.208158e+000 -5.973972e-002 -4.279074e+000 6.261163e+001 2.737772e-002 -2.585291e-002 -5.150720e-003 -1.172023e-002 1.858207e-002 -2.271458e-002 -2.393399e-003 -3.396806e-003 1.694332e-004 1.861427e-003 -8.338899e-003 -3.164591e-003 5.381900e-002 -1.149478e-003 1.161153e-003 3.821688e-004 4.895052e-004 -7.304151e-004 8.206601e-004 5.620303e-004 -1.053697e-004 -3.236248e-004 -4.084199e-005 6.692131e-004 6.315025e-005 -1.782088e-003
<VARIANCE> 39
 6.528941e+001 3.441578e+001 6.661843e+001 3.281543e+001 3.977644e+001 3.258151e+001 2.850283e+001 3.142017e+001 3.144992e+001 2.307017e+001 2.043426e+001 2.222890e+001 9.456496e+001 3.817502e+000 2.387198e+000 3.013620e+000 2.636969e+000 3.132142e+000 2.593185e+000 2.678344e+000 2.777616e+000 2.698913e+000 2.167960e+000 1.983199e+000 1.825759e+000 2.751060e+000 5.935243e-001 4.244019e-001 4.973963e-001 4.976164e-001 6.004387e-001 4.956589e-001 5.289786e-001 5.450139e-001 5.249167e-001 4.386230e-001 3.954145e-001 3.544871e-001 4.697154e-001
<GCONST> 1.213330e+002
<TRANSP> 3
 0.000000e+000 1.000000e+000 0.000000e+000
 0.000000e+000 9.983881e-001 1.611881e-003
 0.000000e+000 0.000000e+000 0.000000e+000
<ENDHMM>
~h "VACEKVETY"
<BEGINHMM>
<NUMSTATES> 3
<STATE> 2
<MEAN> 39
 -7.253403e+000 1.439495e+000 -2.169256e+000 -1.447082e+000 -4.423641e+000 -2.912512e+000 -6.057685e+000 -5.183512e+000 -3.276197e+000 2.000313e+000 -3.293550e+000 -1.769271e+000 5.203486e+001 1.117354e-003 6.087839e-004 -9.754234e-004 -8.348885e-004 1.085154e-003 1.905184e-003 -1.979251e-004 -1.141435e-003 2.750822e-004 1.310650e-003 4.875256e-004 -4.358586e-003 7.876551e-004 2.182393e-004 -2.604042e-005 -3.317478e-004 -9.855315e-005 -6.044197e-004 -9.785020e-004 8.359114e-004 1.682804e-003 4.850356e-004 -1.204111e-003 -9.040171e-004 1.441420e-003 6.387172e-005
<VARIANCE> 39
 1.850497e+002 5.038111e+001 9.386243e+001 6.135643e+001 6.048824e+001 8.867898e+001 5.780973e+001 7.466709e+001 6.443207e+001 4.997780e+001 3.913672e+001 3.569734e+001 2.676453e+002 4.294422e+000 3.265555e+000 3.269804e+000 3.415336e+000 3.418428e+000 4.083239e+000 4.344216e+000 4.365787e+000 4.008854e+000 3.306814e+000 2.561433e+000 2.660216e+000 2.879790e+000 5.691024e-001 5.369701e-001 4.826199e-001 5.809504e-001 5.900466e-001 6.939676e-001 8.027164e-001 7.671384e-001 7.175726e-001 6.197290e-001 4.926279e-001 5.110601e-001 4.417795e-001
<GCONST> 1.366949e+002
<TRANSP> 3
 0.000000e+000 1.000000e+000 0.000000e+000
 0.000000e+000 9.979952e-001 2.004811e-003
 0.000000e+000 0.000000e+000 0.000000e+000
<ENDHMM>
~h "DVORSKY"
<BEGINHMM>
<NUMSTATES> 3
<STATE> 2
<MEAN> 39
 -5.434670e+000 3.177185e+000 4.196864e+000 1.121875e+000 2.121190e+000 1.028105e-001 8.880599e-001 1.359429e+000 6.512750e-001 3.298204e+000 1.557210e+000 -9.211873e-002 5.696009e+001 -2.847737e-004 7.100816e-005 -3.877004e-004 -9.347418e-004 1.631844e-004 2.307950e-003 1.884527e-003 3.771954e-004 2.770152e-004 5.124641e-004 1.108964e-003 5.661271e-004 -9.258878e-004 -1.404704e-004 -2.239592e-004 7.462503e-005 3.759159e-004 -2.691807e-004 3.080259e-005 1.780386e-004 1.374718e-004 -3.450256e-004 1.975597e-004 4.760965e-004 -4.549707e-005 6.870314e-005
<VARIANCE> 39
 5.096730e+001 3.593482e+001 4.806328e+001 5.130971e+001 3.671116e+001 4.769912e+001 4.004445e+001 3.375438e+001 4.067364e+001 2.583832e+001 2.819492e+001 2.650700e+001 1.438310e+002 2.653492e+000 1.995235e+000 2.207831e+000 3.169094e+000 2.533340e+000 2.659925e+000 2.870574e+000 2.682540e+000 3.022710e+000 2.206083e+000 2.088995e+000 1.859194e+000 2.883016e+000 4.033048e-001 3.486797e-001 3.509957e-001 5.417562e-001 4.543552e-001 4.781611e-001 5.252482e-001 5.158860e-001 5.601376e-001 4.279508e-001 3.956304e-001 3.519908e-001 4.712961e-001
<GCONST> 1.214884e+002
<TRANSP> 3
 0.000000e+000 1.000000e+000 0.000000e+000
 0.000000e+000 9.976948e-001 2.305210e-003
 0.000000e+000 0.000000e+000 0.000000e+000
<ENDHMM>
~h "POLACEKVETY"
<BEGINHMM>
<NUMSTATES> 3
<STATE> 2
<MEAN> 39
 -7.945127e+000 1.118359e+000 1.139081e+000 -4.558439e-001 -9.843700e+000 -1.845145e+000 -9.366567e+000 -6.512973e-002 -2.475539e+000 -6.757022e-001 -1.645788e+000 -4.801223e+000 5.044294e+001 1.364919e-002 6.673183e-003 8.827827e-003 -3.397666e-003 6.087090e-003 1.044781e-003 -3.760679e-003 -6.487776e-003 -5.642278e-003 1.193916e-003 -5.002888e-003 -7.739480e-003 1.820024e-002 2.431638e-004 4.113053e-005 3.744742e-005 1.834743e-004 -6.976008e-004 -1.168768e-003 9.077745e-004 2.201109e-003 1.477660e-004 -1.374352e-003 -9.242145e-004 2.721812e-003 -2.908361e-004
<VARIANCE> 39
 8.805804e+001 4.442083e+001 7.147450e+001 4.635900e+001 6.879070e+001 6.096970e+001 4.319879e+001 3.477113e+001 3.752533e+001 2.930647e+001 2.523991e+001 2.981918e+001 1.264506e+002 3.527221e+000 2.471325e+000 2.431755e+000 2.766129e+000 3.516609e+000 2.673095e+000 2.672408e+000 2.656508e+000 2.418025e+000 2.090360e+000 1.834807e+000 1.952626e+000 2.387769e+000 4.687752e-001 4.205378e-001 3.704359e-001 4.948281e-001 5.954590e-001 4.797476e-001 4.973725e-001 4.940364e-001 4.461617e-001 3.955916e-001 3.504947e-001 3.538959e-001 3.821434e-001
<GCONST> 1.234553e+002
<TRANSP> 3
 0.000000e+000 1.000000e+000 0.000000e+000
 0.000000e+000 9.987432e-001 1.256790e-003
 0.000000e+000 0.000000e+000 0.000000e+000
<ENDHMM>
