~o
<STREAMINFO> 1 39
<VECSIZE> 39<NULLD><MFCC_D_A_0><DIAGC>
~h "MJ"
<BEGINHMM>
<NUMSTATES> 3
<STATE> 2
<NUMMIXES> 2
<MIXTURE> 1 5.000000e-001
<MEAN> 39
 -6.192590e+000 -1.063748e+000 7.619902e-001 -6.952226e+000 -6.672684e+000 -5.781310e+000 -8.156738e+000 -1.694660e+000 -1.081822e-001 3.849544e+000 4.594444e-001 -2.211883e+000 6.576367e+001 3.510743e-001 2.844947e-001 3.365101e-001 3.393200e-001 3.562582e-001 3.571980e-001 4.005021e-001 3.463393e-001 3.629004e-001 2.983793e-001 3.041714e-001 2.927155e-001 3.065724e-001 1.324305e-001 1.188888e-001 1.306024e-001 1.407204e-001 1.481829e-001 1.475123e-001 1.643306e-001 1.494046e-001 1.540849e-001 1.288827e-001 1.320462e-001 1.251670e-001 1.238158e-001
<VARIANCE> 39
 6.259853e+001 3.238228e+001 7.474997e+001 4.524374e+001 5.160593e+001 6.031120e+001 6.757026e+001 3.986115e+001 5.139763e+001 3.205854e+001 3.319735e+001 2.981154e+001 6.545738e+001 3.058268e+000 2.021090e+000 2.825907e+000 2.870791e+000 3.169629e+000 3.178122e+000 3.977381e+000 2.987473e+000 3.323763e+000 2.224494e+000 2.343103e+000 2.125087e+000 2.359263e+000 4.386385e-001 3.528348e-001 4.252576e-001 4.980694e-001 5.510017e-001 5.440798e-001 6.788200e-001 5.584283e-001 5.937471e-001 4.179601e-001 4.363376e-001 3.917725e-001 3.826004e-001
<GCONST> 1.252961e+002
<MIXTURE> 2 5.000000e-001
<MEAN> 39
 -9.357360e+000 -3.339966e+000 -2.696332e+000 -9.642764e+000 -9.546175e+000 -8.887722e+000 -1.144478e+001 -4.220088e+000 -2.975868e+000 1.584734e+000 -1.845241e+000 -4.395881e+000 6.252744e+001 -3.484419e-001 -2.841655e-001 -3.359073e-001 -3.384164e-001 -3.558799e-001 -3.558936e-001 -3.972328e-001 -3.450331e-001 -3.663472e-001 -2.982102e-001 -3.081165e-001 -2.903917e-001 -3.078232e-001 -1.324887e-001 -1.187108e-001 -1.302447e-001 -1.415758e-001 -1.487350e-001 -1.475348e-001 -1.652315e-001 -1.495077e-001 -1.541350e-001 -1.297166e-001 -1.321773e-001 -1.251999e-001 -1.236030e-001
<VARIANCE> 39
 6.259853e+001 3.238228e+001 7.474997e+001 4.524374e+001 5.160593e+001 6.031120e+001 6.757026e+001 3.986115e+001 5.139763e+001 3.205854e+001 3.319735e+001 2.981154e+001 6.545738e+001 3.058268e+000 2.021090e+000 2.825907e+000 2.870791e+000 3.169629e+000 3.178122e+000 3.977381e+000 2.987473e+000 3.323763e+000 2.224494e+000 2.343103e+000 2.125087e+000 2.359263e+000 4.386385e-001 3.528348e-001 4.252576e-001 4.980694e-001 5.510017e-001 5.440798e-001 6.788200e-001 5.584283e-001 5.937471e-001 4.179601e-001 4.363376e-001 3.917725e-001 3.826004e-001
<GCONST> 1.252961e+002
<TRANSP> 3
 0.000000e+000 1.000000e+000 0.000000e+000
 0.000000e+000 9.983178e-001 1.682227e-003
 0.000000e+000 0.000000e+000 0.000000e+000
<ENDHMM>
~h "PB"
<BEGINHMM>
<NUMSTATES> 3
<STATE> 2
<NUMMIXES> 2
<MIXTURE> 1 5.000000e-001
<MEAN> 39
 -4.434081e+000 3.665283e+000 3.934762e+000 -1.315136e+000 -4.881588e+000 8.714181e-001 -3.399340e+000 2.783094e+000 2.370781e+000 1.497205e+000 2.029217e+000 -2.145869e+000 6.358648e+001 3.310352e-001 3.237918e-001 3.255567e-001 3.316692e-001 3.757167e-001 3.220882e-001 3.678027e-001 3.391140e-001 3.138139e-001 2.875786e-001 2.860698e-001 3.100962e-001 3.133018e-001 1.290230e-001 1.307100e-001 1.279853e-001 1.382407e-001 1.569559e-001 1.363988e-001 1.566781e-001 1.465864e-001 1.362500e-001 1.278771e-001 1.263577e-001 1.330204e-001 1.242414e-001
<VARIANCE> 39
 5.533038e+001 4.336874e+001 6.051944e+001 4.005635e+001 6.769115e+001 4.141943e+001 6.472466e+001 3.607750e+001 3.191737e+001 2.566146e+001 2.325911e+001 3.779660e+001 9.102745e+001 2.735123e+000 2.617708e+000 2.645104e+000 2.745388e+000 3.523304e+000 2.606403e+000 3.396740e+000 2.869718e+000 2.462561e+000 2.084064e+000 2.042602e+000 2.395222e+000 2.453887e+000 4.136010e-001 4.275400e-001 4.114953e-001 4.808996e-001 6.153606e-001 4.651904e-001 6.157452e-001 5.362723e-001 4.650237e-001 4.085588e-001 3.975774e-001 4.384196e-001 3.861361e-001
<GCONST> 1.234418e+002
<MIXTURE> 2 5.000000e-001
<MEAN> 39
 -7.409457e+000 1.031085e+000 8.229921e-001 -3.846740e+000 -8.172573e+000 -1.702899e+000 -6.617406e+000 3.805120e-001 1.109629e-001 -5.290809e-001 1.001090e-001 -4.605027e+000 5.977015e+001 -3.304931e-001 -3.233815e-001 -3.249943e-001 -3.310993e-001 -3.751019e-001 -3.236862e-001 -3.694072e-001 -3.384957e-001 -3.138880e-001 -2.898730e-001 -2.856087e-001 -3.089640e-001 -3.132937e-001 -1.282243e-001 -1.308362e-001 -1.286062e-001 -1.391470e-001 -1.568238e-001 -1.364207e-001 -1.571997e-001 -1.463361e-001 -1.365206e-001 -1.277974e-001 -1.258572e-001 -1.318327e-001 -1.243180e-001
<VARIANCE> 39
 5.533038e+001 4.336874e+001 6.051944e+001 4.005635e+001 6.769115e+001 4.141943e+001 6.472466e+001 3.607750e+001 3.191737e+001 2.566146e+001 2.325911e+001 3.779660e+001 9.102745e+001 2.735123e+000 2.617708e+000 2.645104e+000 2.745388e+000 3.523304e+000 2.606403e+000 3.396740e+000 2.869718e+000 2.462561e+000 2.084064e+000 2.042602e+000 2.395222e+000 2.453887e+000 4.136010e-001 4.275400e-001 4.114953e-001 4.808996e-001 6.153606e-001 4.651904e-001 6.157452e-001 5.362723e-001 4.650237e-001 4.085588e-001 3.975774e-001 4.384196e-001 3.861361e-001
<GCONST> 1.234418e+002
<TRANSP> 3
 0.000000e+000 1.000000e+000 0.000000e+000
 0.000000e+000 9.985216e-001 1.478415e-003
 0.000000e+000 0.000000e+000 0.000000e+000
<ENDHMM>
~h "TOMAS"
<BEGINHMM>
<NUMSTATES> 3
<STATE> 2
<NUMMIXES> 2
<MIXTURE> 1 5.000000e-001
<MEAN> 39
 -4.396615e+000 5.021657e+000 6.696882e+000 5.630638e-001 5.586454e-001 -1.739335e+000 1.365081e-001 6.856610e-001 1.257192e+000 1.939482e+000 3.797724e+000 3.072214e+000 6.373359e+001 3.136466e-001 2.766403e-001 2.944767e-001 3.231112e-001 3.776784e-001 3.590527e-001 3.548202e-001 3.161295e-001 3.357878e-001 3.083894e-001 2.871916e-001 2.631584e-001 2.852408e-001 1.173199e-001 1.097867e-001 1.170841e-001 1.301306e-001 1.550000e-001 1.532007e-001 1.495891e-001 1.383789e-001 1.449258e-001 1.321449e-001 1.245310e-001 1.181564e-001 1.099736e-001
<VARIANCE> 39
 5.958044e+001 3.318526e+001 5.124155e+001 5.328092e+001 6.016149e+001 5.444263e+001 5.736087e+001 4.588310e+001 4.649902e+001 3.483575e+001 2.836202e+001 2.199534e+001 6.632785e+001 2.501133e+000 1.831780e+000 2.149539e+000 2.600849e+000 3.540546e+000 3.240902e+000 3.115222e+000 2.578662e+000 2.934460e+000 2.273690e+000 2.044974e+000 1.804287e+000 2.022359e+000 3.479926e-001 2.985597e-001 3.463582e-001 4.157231e-001 6.198496e-001 5.788245e-001 5.683882e-001 4.729686e-001 5.281537e-001 4.347947e-001 3.834711e-001 3.508211e-001 3.020686e-001
<GCONST> 1.216282e+002
<MIXTURE> 2 5.000000e-001
<MEAN> 39
 -7.484149e+000 2.717391e+000 3.833554e+000 -2.356687e+000 -2.543908e+000 -4.690745e+000 -2.892970e+000 -2.023822e+000 -1.470416e+000 -4.213907e-001 1.667484e+000 1.196246e+000 6.047591e+001 -3.189522e-001 -2.647328e-001 -2.919755e-001 -3.219748e-001 -3.749752e-001 -3.610475e-001 -3.511795e-001 -3.261990e-001 -3.494228e-001 -2.947610e-001 -2.848188e-001 -2.741366e-001 -2.835979e-001 -1.186437e-001 -1.087758e-001 -1.183247e-001 -1.277758e-001 -1.599222e-001 -1.511213e-001 -1.519770e-001 -1.367120e-001 -1.457709e-001 -1.316110e-001 -1.231692e-001 -1.187642e-001 -1.098695e-001
<VARIANCE> 39
 5.958044e+001 3.318526e+001 5.124155e+001 5.328092e+001 6.016149e+001 5.444263e+001 5.736087e+001 4.588310e+001 4.649902e+001 3.483575e+001 2.836202e+001 2.199534e+001 6.632785e+001 2.501133e+000 1.831780e+000 2.149539e+000 2.600849e+000 3.540546e+000 3.240902e+000 3.115222e+000 2.578662e+000 2.934460e+000 2.273690e+000 2.044974e+000 1.804287e+000 2.022359e+000 3.479926e-001 2.985597e-001 3.463582e-001 4.157231e-001 6.198496e-001 5.788245e-001 5.683882e-001 4.729686e-001 5.281537e-001 4.347947e-001 3.834711e-001 3.508211e-001 3.020686e-001
<GCONST> 1.216282e+002
<TRANSP> 3
 0.000000e+000 1.000000e+000 0.000000e+000
 0.000000e+000 9.971837e-001 2.816306e-003
 0.000000e+000 0.000000e+000 0.000000e+000
<ENDHMM>
~h "CERNY"
<BEGINHMM>
<NUMSTATES> 3
<STATE> 2
<NUMMIXES> 2
<MIXTURE> 1 5.000000e-001
<MEAN> 39
 -9.413673e+000 -5.347881e-001 -1.188074e-001 -2.911805e+000 -3.572323e+000 -1.907803e+000 -4.288929e+000 7.730744e-001 2.201159e+000 1.947442e+000 5.707917e-001 -6.298107e-002 6.499054e+001 1.936866e-001 2.268806e-001 2.324291e-001 2.803304e-001 2.969813e-001 2.735295e-001 3.412405e-001 2.963549e-001 2.904430e-001 2.767625e-001 2.400024e-001 2.443398e-001 1.686430e-001 7.458919e-002 9.139982e-002 9.260128e-002 1.135475e-001 1.245082e-001 1.182351e-001 1.467170e-001 1.283521e-001 1.270704e-001 1.202664e-001 1.081656e-001 1.049639e-001 6.876286e-002
<VARIANCE> 39
 1.967439e+001 2.070932e+001 3.027858e+001 4.110341e+001 3.748241e+001 2.969386e+001 5.310734e+001 2.815256e+001 2.688961e+001 2.489009e+001 1.660468e+001 2.238321e+001 2.083143e+001 9.464037e-001 1.284422e+000 1.349622e+000 1.964764e+000 2.201767e+000 1.881974e+000 2.938168e+000 2.175846e+000 2.129986e+000 1.914611e+000 1.470203e+000 1.480838e+000 7.134823e-001 1.390425e-001 2.100371e-001 2.134472e-001 3.224696e-001 3.888654e-001 3.505875e-001 5.413342e-001 4.135078e-001 4.039029e-001 3.627131e-001 2.904124e-001 2.755255e-001 1.183619e-001
<GCONST> 1.046131e+002
<MIXTURE> 2 5.000000e-001
<MEAN> 39
 -1.118791e+001 -2.355088e+000 -2.319847e+000 -5.476283e+000 -6.021239e+000 -4.087486e+000 -7.203920e+000 -1.349285e+000 1.269511e-001 -4.815638e-002 -1.059162e+000 -1.955417e+000 6.316488e+001 -1.954465e-001 -2.264488e-001 -2.322638e-001 -2.803498e-001 -2.965528e-001 -2.752107e-001 -3.444029e-001 -2.936751e-001 -2.933358e-001 -2.767154e-001 -2.450053e-001 -2.424190e-001 -1.692285e-001 -7.456442e-002 -9.191941e-002 -9.220011e-002 -1.135982e-001 -1.249281e-001 -1.186066e-001 -1.475847e-001 -1.288662e-001 -1.271431e-001 -1.206363e-001 -1.073941e-001 -1.049982e-001 -6.885219e-002
<VARIANCE> 39
 1.967439e+001 2.070932e+001 3.027858e+001 4.110341e+001 3.748241e+001 2.969386e+001 5.310734e+001 2.815256e+001 2.688961e+001 2.489009e+001 1.660468e+001 2.238321e+001 2.083143e+001 9.464037e-001 1.284422e+000 1.349622e+000 1.964764e+000 2.201767e+000 1.881974e+000 2.938168e+000 2.175846e+000 2.129986e+000 1.914611e+000 1.470203e+000 1.480838e+000 7.134823e-001 1.390425e-001 2.100371e-001 2.134472e-001 3.224696e-001 3.888654e-001 3.505875e-001 5.413342e-001 4.135078e-001 4.039029e-001 3.627131e-001 2.904124e-001 2.755255e-001 1.183619e-001
<GCONST> 1.046131e+002
<TRANSP> 3
 0.000000e+000 1.000000e+000 0.000000e+000
 0.000000e+000 9.985551e-001 1.444878e-003
 0.000000e+000 0.000000e+000 0.000000e+000
<ENDHMM>
~h "ZSS2"
<BEGINHMM>
<NUMSTATES> 3
<STATE> 2
<NUMMIXES> 2
<MIXTURE> 1 5.000000e-001
<MEAN> 39
 -4.904150e+000 3.758720e+000 3.141856e+000 -1.021613e+000 1.013828e+000 2.661395e-001 1.499436e+000 1.049469e+000 6.450598e-001 3.540893e+000 -7.701726e-001 2.569750e+000 6.577570e+001 3.982978e-001 3.281168e-001 3.189781e-001 4.082175e-001 4.412921e-001 3.782351e-001 3.830099e-001 3.397324e-001 3.928907e-001 3.387558e-001 4.094947e-001 2.838940e-001 3.715242e-001 1.555462e-001 1.380862e-001 1.315719e-001 1.648262e-001 1.816263e-001 1.609107e-001 1.573264e-001 1.472566e-001 1.622458e-001 1.491766e-001 1.699806e-001 1.253859e-001 1.547206e-001
<VARIANCE> 39
 6.644250e+001 3.917064e+001 4.620548e+001 6.686732e+001 8.392387e+001 5.097257e+001 6.633517e+001 4.336080e+001 6.433011e+001 3.248640e+001 7.522469e+001 2.497631e+001 7.216251e+001 3.901889e+000 2.694729e+000 2.544788e+000 4.115805e+000 4.824536e+000 3.525625e+000 3.676121e+000 2.937163e+000 3.841235e+000 2.872897e+000 4.198671e+000 2.023430e+000 3.521184e+000 6.037229e-001 4.753977e-001 4.318603e-001 6.857268e-001 8.282157e-001 6.499922e-001 6.221687e-001 5.454526e-001 6.629010e-001 5.548183e-001 7.203966e-001 3.925864e-001 5.976322e-001
<GCONST> 1.321360e+002
<MIXTURE> 2 5.000000e-001
<MEAN> 39
 -8.164640e+000 1.255262e+000 4.228717e-001 -4.292511e+000 -2.650571e+000 -2.589664e+000 -1.758420e+000 -1.584488e+000 -2.563182e+000 1.261019e+000 -4.239460e+000 5.706979e-001 6.237777e+001 -3.918301e-001 -3.285084e-001 -3.191176e-001 -4.032804e-001 -4.373010e-001 -3.728308e-001 -3.839186e-001 -3.457937e-001 -3.910721e-001 -3.392291e-001 -4.101316e-001 -2.850953e-001 -3.790685e-001 -1.552522e-001 -1.377102e-001 -1.312925e-001 -1.664083e-001 -1.823991e-001 -1.615777e-001 -1.581842e-001 -1.481625e-001 -1.634291e-001 -1.487679e-001 -1.695242e-001 -1.252410e-001 -1.545061e-001
<VARIANCE> 39
 6.644250e+001 3.917064e+001 4.620548e+001 6.686732e+001 8.392387e+001 5.097257e+001 6.633517e+001 4.336080e+001 6.433011e+001 3.248640e+001 7.522469e+001 2.497631e+001 7.216251e+001 3.901889e+000 2.694729e+000 2.544788e+000 4.115805e+000 4.824536e+000 3.525625e+000 3.676121e+000 2.937163e+000 3.841235e+000 2.872897e+000 4.198671e+000 2.023430e+000 3.521184e+000 6.037229e-001 4.753977e-001 4.318603e-001 6.857268e-001 8.282157e-001 6.499922e-001 6.221687e-001 5.454526e-001 6.629010e-001 5.548183e-001 7.203966e-001 3.925864e-001 5.976322e-001
<GCONST> 1.321360e+002
<TRANSP> 3
 0.000000e+000 1.000000e+000 0.000000e+000
 0.000000e+000 9.983138e-001 1.686199e-003
 0.000000e+000 0.000000e+000 0.000000e+000
<ENDHMM>
~h "SMOLA"
<BEGINHMM>
<NUMSTATES> 3
<STATE> 2
<NUMMIXES> 2
<MIXTURE> 1 5.000000e-001
<MEAN> 39
 -4.800809e+000 1.421365e+000 2.204254e+000 -3.856117e-001 -1.643313e+000 -7.813791e-001 -4.264120e+000 4.384809e+000 -2.464907e+000 1.156963e+000 4.994367e+000 -2.330368e+000 6.188894e+001 3.612643e-001 3.875499e-001 3.258891e-001 3.769145e-001 3.644609e-001 3.799173e-001 4.246186e-001 3.365956e-001 4.079874e-001 3.027141e-001 2.936742e-001 3.037266e-001 4.648415e-001 1.357049e-001 1.518178e-001 1.291615e-001 1.585884e-001 1.522430e-001 1.619623e-001 1.755047e-001 1.568762e-001 1.853298e-001 1.352550e-001 1.304070e-001 1.292167e-001 1.803740e-001
<VARIANCE> 39
 6.428670e+001 6.554195e+001 4.461981e+001 7.366148e+001 5.677856e+001 6.306400e+001 7.540512e+001 4.523048e+001 7.267435e+001 3.332201e+001 2.803692e+001 3.982323e+001 1.433784e+002 3.257380e+000 3.675143e+000 2.472943e+000 3.797863e+000 3.156809e+000 3.568649e+000 4.337691e+000 3.235690e+000 4.717173e+000 2.418594e+000 2.265459e+000 2.377720e+000 5.067763e+000 4.707565e-001 5.839933e-001 4.129869e-001 6.374512e-001 5.691631e-001 6.516110e-001 7.746120e-001 6.133127e-001 8.589735e-001 4.547135e-001 4.352643e-001 4.289587e-001 8.037342e-001
<GCONST> 1.325426e+002
<MIXTURE> 2 5.000000e-001
<MEAN> 39
 -8.007969e+000 -1.816955e+000 -4.676687e-001 -3.818663e+000 -4.657375e+000 -3.957893e+000 -7.737565e+000 1.694664e+000 -5.874877e+000 -1.152045e+000 2.876371e+000 -4.854594e+000 5.709932e+001 -3.606642e-001 -3.792766e-001 -3.031347e-001 -4.026098e-001 -3.462356e-001 -3.757174e-001 -4.084663e-001 -3.829254e-001 -4.607748e-001 -3.193590e-001 -3.083835e-001 -3.130677e-001 -4.356262e-001 -1.387418e-001 -1.538600e-001 -1.278947e-001 -1.607737e-001 -1.495286e-001 -1.609274e-001 -1.765435e-001 -1.563810e-001 -1.853935e-001 -1.344748e-001 -1.334912e-001 -1.327631e-001 -1.782309e-001
<VARIANCE> 39
 6.428670e+001 6.554195e+001 4.461981e+001 7.366148e+001 5.677856e+001 6.306400e+001 7.540512e+001 4.523048e+001 7.267435e+001 3.332201e+001 2.803692e+001 3.982323e+001 1.433784e+002 3.257380e+000 3.675143e+000 2.472943e+000 3.797863e+000 3.156809e+000 3.568649e+000 4.337691e+000 3.235690e+000 4.717173e+000 2.418594e+000 2.265459e+000 2.377720e+000 5.067763e+000 4.707565e-001 5.839933e-001 4.129869e-001 6.374512e-001 5.691631e-001 6.516110e-001 7.746120e-001 6.133127e-001 8.589735e-001 4.547135e-001 4.352643e-001 4.289587e-001 8.037342e-001
<GCONST> 1.325426e+002
<TRANSP> 3
 0.000000e+000 1.000000e+000 0.000000e+000
 0.000000e+000 9.965732e-001 3.426764e-003
 0.000000e+000 0.000000e+000 0.000000e+000
<ENDHMM>
~h "NOZICKA"
<BEGINHMM>
<NUMSTATES> 3
<STATE> 2
<NUMMIXES> 2
<MIXTURE> 1 5.000000e-001
<MEAN> 39
 -1.288537e+001 -6.806252e+000 1.032435e+001 -6.930692e+000 -1.025651e+000 3.458209e+000 -2.727829e+000 1.138514e+000 2.007122e+000 -1.265450e+000 4.820823e+000 -1.404560e+000 5.894904e+001 3.600966e-001 4.119424e-001 3.971849e-001 4.444660e-001 4.862138e-001 4.570198e-001 4.458861e-001 3.799507e-001 4.294870e-001 3.617749e-001 3.468837e-001 2.947236e-001 4.359007e-001 1.322609e-001 1.617365e-001 1.602539e-001 1.820040e-001 1.972219e-001 1.819991e-001 1.821386e-001 1.581519e-001 1.754322e-001 1.515538e-001 1.472048e-001 1.266521e-001 1.600160e-001
<VARIANCE> 39
 1.230303e+002 1.370615e+002 2.126775e+002 1.585329e+002 1.132748e+002 1.100037e+002 8.547289e+001 6.853798e+001 7.319193e+001 5.231178e+001 4.542799e+001 3.477185e+001 4.666883e+002 3.241273e+000 4.287175e+000 3.965416e+000 4.972924e+000 5.780254e+000 5.208331e+000 5.023542e+000 3.639389e+000 4.644225e+000 3.189161e+000 2.973767e+000 2.169142e+000 4.704339e+000 4.418929e-001 6.433765e-001 6.191470e-001 8.194902e-001 9.670659e-001 8.362551e-001 8.440113e-001 6.280099e-001 7.884743e-001 5.824131e-001 5.375869e-001 4.009200e-001 6.443852e-001
<GCONST> 1.441989e+002
<MIXTURE> 2 5.000000e-001
<MEAN> 39
 -1.732213e+001 -1.148918e+001 4.490959e+000 -1.196709e+001 -5.282877e+000 -7.370969e-001 -6.425891e+000 -2.172993e+000 -1.414969e+000 -4.158525e+000 2.124811e+000 -3.763266e+000 5.030785e+001 -3.600448e-001 -4.162774e-001 -3.993492e-001 -4.475361e-001 -4.754725e-001 -4.558510e-001 -4.506443e-001 -3.831366e-001 -4.325316e-001 -3.525540e-001 -3.429009e-001 -2.943968e-001 -4.316789e-001 -1.336392e-001 -1.591066e-001 -1.544897e-001 -1.800988e-001 -1.961361e-001 -1.837889e-001 -1.853418e-001 -1.588364e-001 -1.797521e-001 -1.537102e-001 -1.460765e-001 -1.266208e-001 -1.610785e-001
<VARIANCE> 39
 1.230303e+002 1.370615e+002 2.126775e+002 1.585329e+002 1.132748e+002 1.100037e+002 8.547289e+001 6.853798e+001 7.319193e+001 5.231178e+001 4.542799e+001 3.477185e+001 4.666883e+002 3.241273e+000 4.287175e+000 3.965416e+000 4.972924e+000 5.780254e+000 5.208331e+000 5.023542e+000 3.639389e+000 4.644225e+000 3.189161e+000 2.973767e+000 2.169142e+000 4.704339e+000 4.418929e-001 6.433765e-001 6.191470e-001 8.194902e-001 9.670659e-001 8.362551e-001 8.440113e-001 6.280099e-001 7.884743e-001 5.824131e-001 5.375869e-001 4.009200e-001 6.443852e-001
<GCONST> 1.441989e+002
<TRANSP> 3
 0.000000e+000 1.000000e+000 0.000000e+000
 0.000000e+000 9.975101e-001 2.489944e-003
 0.000000e+000 0.000000e+000 0.000000e+000
<ENDHMM>
~h "DAVID"
<BEGINHMM>
<NUMSTATES> 3
<STATE> 2
<NUMMIXES> 2
<MIXTURE> 1 5.000000e-001
<MEAN> 39
 -9.154019e+000 2.666283e+000 2.526267e+000 -2.601666e+000 -5.925858e-002 -1.532905e+000 -5.376093e-001 5.792639e-001 -2.303280e+000 1.611468e+000 1.962835e-001 -1.379986e+000 7.185789e+001 3.484554e-001 2.595338e-001 2.941391e-001 3.607549e-001 3.065383e-001 3.062620e-001 3.572471e-001 3.516407e-001 3.843291e-001 2.916332e-001 2.868098e-001 2.675631e-001 2.930957e-001 1.291916e-001 1.066806e-001 1.134666e-001 1.478722e-001 1.262739e-001 1.294083e-001 1.491529e-001 1.549261e-001 1.615443e-001 1.302624e-001 1.252155e-001 1.142116e-001 1.185059e-001
<VARIANCE> 39
 6.492249e+001 2.752896e+001 5.279937e+001 4.997344e+001 3.792037e+001 3.106343e+001 4.536552e+001 3.890622e+001 5.887480e+001 2.374533e+001 2.714554e+001 2.577643e+001 7.168145e+001 3.040479e+000 1.702001e+000 2.152986e+000 3.226101e+000 2.344933e+000 2.312883e+000 3.159863e+000 3.127115e+000 3.747283e+000 2.192872e+000 2.080925e+000 1.768717e+000 2.151606e+000 4.162541e-001 2.862487e-001 3.220056e-001 5.486165e-001 4.026263e-001 4.247314e-001 5.567243e-001 5.925779e-001 6.544954e-001 4.273440e-001 3.949473e-001 3.219939e-001 3.522094e-001
<GCONST> 1.202799e+002
<MIXTURE> 2 5.000000e-001
<MEAN> 39
 -1.237700e+001 5.675610e-001 -3.802605e-001 -5.429342e+000 -2.522439e+000 -3.762289e+000 -3.231767e+000 -1.915730e+000 -5.372477e+000 -3.376994e-001 -1.887772e+000 -3.410806e+000 6.847130e+001 -3.490233e-001 -2.623092e-001 -2.927832e-001 -3.576991e-001 -3.059886e-001 -3.020647e-001 -3.537931e-001 -3.557053e-001 -3.899870e-001 -3.007008e-001 -2.902067e-001 -2.644094e-001 -2.936385e-001 -1.288794e-001 -1.073283e-001 -1.135155e-001 -1.484024e-001 -1.275375e-001 -1.312774e-001 -1.493029e-001 -1.529902e-001 -1.620593e-001 -1.312238e-001 -1.261638e-001 -1.127664e-001 -1.188830e-001
<VARIANCE> 39
 6.492249e+001 2.752896e+001 5.279937e+001 4.997344e+001 3.792037e+001 3.106343e+001 4.536552e+001 3.890622e+001 5.887480e+001 2.374533e+001 2.714554e+001 2.577643e+001 7.168145e+001 3.040479e+000 1.702001e+000 2.152986e+000 3.226101e+000 2.344933e+000 2.312883e+000 3.159863e+000 3.127115e+000 3.747283e+000 2.192872e+000 2.080925e+000 1.768717e+000 2.151606e+000 4.162541e-001 2.862487e-001 3.220056e-001 5.486165e-001 4.026263e-001 4.247314e-001 5.567243e-001 5.925779e-001 6.544954e-001 4.273440e-001 3.949473e-001 3.219939e-001 3.522094e-001
<GCONST> 1.202799e+002
<TRANSP> 3
 0.000000e+000 1.000000e+000 0.000000e+000
 0.000000e+000 9.973116e-001 2.688353e-003
 0.000000e+000 0.000000e+000 0.000000e+000
<ENDHMM>
~h "JAN"
<BEGINHMM>
<NUMSTATES> 3
<STATE> 2
<NUMMIXES> 2
<MIXTURE> 1 5.000000e-001
<MEAN> 39
 -7.295203e+000 -5.552711e+000 4.470894e+000 -2.271865e+000 -1.096695e+001 3.269856e+000 1.230340e+000 -1.268671e+000 -5.280967e-001 4.284828e+000 -6.015578e+000 -5.473216e+000 5.121288e+001 1.792607e-001 2.288637e-001 2.790189e-001 2.636058e-001 2.894612e-001 2.698389e-001 3.435061e-001 3.113912e-001 2.726471e-001 2.690077e-001 2.426943e-001 2.323550e-001 1.756318e-001 6.761593e-002 8.865151e-002 1.053486e-001 1.080866e-001 1.171352e-001 1.116254e-001 1.387358e-001 1.283704e-001 1.136747e-001 1.138247e-001 1.075595e-001 9.927478e-002 6.379307e-002
<VARIANCE> 39
 2.492031e+001 2.981296e+001 7.509938e+001 3.177991e+001 4.568127e+001 3.969292e+001 7.999337e+001 5.875882e+001 3.065080e+001 2.889578e+001 1.979770e+001 1.953973e+001 3.313855e+001 8.087367e-001 1.326451e+000 1.955595e+000 1.738969e+000 2.071287e+000 1.832998e+000 2.958161e+000 2.430257e+000 1.861839e+000 1.814031e+000 1.499687e+000 1.327191e+000 7.698268e-001 1.137970e-001 1.975129e-001 2.785289e-001 2.913334e-001 3.425712e-001 3.099788e-001 4.833916e-001 4.104088e-001 3.282867e-001 3.283314e-001 2.884718e-001 2.424971e-001 1.012700e-001
<GCONST> 1.071692e+002
<MIXTURE> 2 5.000000e-001
<MEAN> 39
 -9.292012e+000 -7.736761e+000 1.004498e+000 -4.526813e+000 -1.367047e+001 7.497636e-001 -2.347221e+000 -4.334843e+000 -2.742623e+000 2.134636e+000 -7.795362e+000 -7.241366e+000 4.891024e+001 -1.804585e-001 -2.318230e-001 -2.803515e-001 -2.638741e-001 -2.862174e-001 -2.717141e-001 -3.444661e-001 -3.121801e-001 -2.731498e-001 -2.697361e-001 -2.471526e-001 -2.284601e-001 -1.753273e-001 -6.731932e-002 -8.911818e-002 -1.057547e-001 -1.078146e-001 -1.169831e-001 -1.110776e-001 -1.393697e-001 -1.278822e-001 -1.155105e-001 -1.153761e-001 -1.072788e-001 -9.770120e-002 -6.349873e-002
<VARIANCE> 39
 2.492031e+001 2.981296e+001 7.509938e+001 3.177991e+001 4.568127e+001 3.969292e+001 7.999337e+001 5.875882e+001 3.065080e+001 2.889578e+001 1.979770e+001 1.953973e+001 3.313855e+001 8.087367e-001 1.326451e+000 1.955595e+000 1.738969e+000 2.071287e+000 1.832998e+000 2.958161e+000 2.430257e+000 1.861839e+000 1.814031e+000 1.499687e+000 1.327191e+000 7.698268e-001 1.137970e-001 1.975129e-001 2.785289e-001 2.913334e-001 3.425712e-001 3.099788e-001 4.833916e-001 4.104088e-001 3.282867e-001 3.283314e-001 2.884718e-001 2.424971e-001 1.012700e-001
<GCONST> 1.071692e+002
<TRANSP> 3
 0.000000e+000 1.000000e+000 0.000000e+000
 0.000000e+000 9.973017e-001 2.698327e-003
 0.000000e+000 0.000000e+000 0.000000e+000
<ENDHMM>
~h "MAR"
<BEGINHMM>
<NUMSTATES> 3
<STATE> 2
<NUMMIXES> 2
<MIXTURE> 1 5.000000e-001
<MEAN> 39
 -3.687768e+000 3.310102e+000 5.618479e+000 2.147511e+000 7.735359e-001 4.354119e-001 1.188904e+000 -4.726204e-001 3.425322e+000 -5.296159e-001 5.946432e+000 -1.143171e+000 7.139205e+001 4.043044e-001 3.513362e-001 3.384617e-001 4.087732e-001 4.181042e-001 4.034729e-001 3.798368e-001 3.685631e-001 3.374630e-001 3.562890e-001 3.335770e-001 3.500793e-001 4.497769e-001 1.531434e-001 1.438345e-001 1.343794e-001 1.712973e-001 1.741347e-001 1.753297e-001 1.611339e-001 1.583474e-001 1.458208e-001 1.513783e-001 1.494297e-001 1.487697e-001 1.849228e-001
<VARIANCE> 39
 7.701540e+001 4.739375e+001 6.215529e+001 5.690216e+001 7.317577e+001 5.563130e+001 5.835563e+001 4.710912e+001 3.930737e+001 4.871782e+001 2.996174e+001 4.493380e+001 1.090623e+002 4.074092e+000 3.076146e+000 2.852008e+000 4.157485e+000 4.376615e+000 4.103705e+000 3.612993e+000 3.416625e+000 2.864182e+000 3.186415e+000 2.800481e+000 3.078857e+000 5.063587e+000 5.864377e-001 5.164021e-001 4.521187e-001 7.328721e-001 7.567804e-001 7.656949e-001 6.506880e-001 6.326995e-001 5.366198e-001 5.723622e-001 5.588046e-001 5.548815e-001 8.542364e-001
<GCONST> 1.338847e+002
<MIXTURE> 2 5.000000e-001
<MEAN> 39
 -7.198105e+000 5.563776e-001 2.464933e+000 -8.698295e-001 -2.648178e+000 -2.548044e+000 -1.866730e+000 -3.218064e+000 9.174982e-001 -3.321542e+000 3.756940e+000 -3.824479e+000 6.721473e+001 -4.030708e-001 -3.502217e-001 -3.370539e-001 -4.068232e-001 -4.187103e-001 -4.068313e-001 -3.804782e-001 -3.708016e-001 -3.394928e-001 -3.577323e-001 -3.358086e-001 -3.517875e-001 -4.503198e-001 -1.531735e-001 -1.436100e-001 -1.345797e-001 -1.711345e-001 -1.738378e-001 -1.746863e-001 -1.615270e-001 -1.598222e-001 -1.471966e-001 -1.512402e-001 -1.495833e-001 -1.491917e-001 -1.847768e-001
<VARIANCE> 39
 7.701540e+001 4.739375e+001 6.215529e+001 5.690216e+001 7.317577e+001 5.563130e+001 5.835563e+001 4.710912e+001 3.930737e+001 4.871782e+001 2.996174e+001 4.493380e+001 1.090623e+002 4.074092e+000 3.076146e+000 2.852008e+000 4.157485e+000 4.376615e+000 4.103705e+000 3.612993e+000 3.416625e+000 2.864182e+000 3.186415e+000 2.800481e+000 3.078857e+000 5.063587e+000 5.864377e-001 5.164021e-001 4.521187e-001 7.328721e-001 7.567804e-001 7.656949e-001 6.506880e-001 6.326995e-001 5.366198e-001 5.723622e-001 5.588046e-001 5.548815e-001 8.542364e-001
<GCONST> 1.338847e+002
<TRANSP> 3
 0.000000e+000 1.000000e+000 0.000000e+000
 0.000000e+000 9.984556e-001 1.544402e-003
 0.000000e+000 0.000000e+000 0.000000e+000
<ENDHMM>
~h "MJB"
<BEGINHMM>
<NUMSTATES> 3
<STATE> 2
<NUMMIXES> 2
<MIXTURE> 1 5.000000e-001
<MEAN> 39
 -3.499102e+000 1.411529e+000 3.819839e+000 2.198212e+000 -1.543826e+000 2.945947e+000 -4.736986e+000 1.577366e+000 -1.415133e+000 -2.108154e-001 -8.179570e-001 1.443267e-001 6.700555e+001 3.739513e-001 3.183389e-001 2.859178e-001 3.207866e-001 4.200247e-001 3.769915e-001 3.583068e-001 3.428130e-001 3.450920e-001 2.908525e-001 3.011321e-001 2.544885e-001 3.064107e-001 1.466380e-001 1.297274e-001 1.189286e-001 1.342818e-001 1.737423e-001 1.575859e-001 1.494121e-001 1.463350e-001 1.490989e-001 1.260432e-001 1.304348e-001 1.118203e-001 1.251233e-001
<VARIANCE> 39
 8.354837e+001 4.420956e+001 5.277100e+001 4.192092e+001 7.611556e+001 5.663073e+001 6.085888e+001 4.720140e+001 4.790395e+001 2.997779e+001 3.304531e+001 2.570562e+001 7.841981e+001 3.555987e+000 2.504988e+000 2.102275e+000 2.584292e+000 4.385056e+000 3.502846e+000 3.080955e+000 2.883946e+000 2.943410e+000 2.050165e+000 2.259492e+000 1.610186e+000 2.367531e+000 5.353146e-001 4.202979e-001 3.545536e-001 4.541122e-001 7.549206e-001 6.230149e-001 5.653206e-001 5.398543e-001 5.528541e-001 3.954177e-001 4.234736e-001 3.107498e-001 3.904249e-001
<GCONST> 1.252997e+002
<MIXTURE> 2 5.000000e-001
<MEAN> 39
 -7.155294e+000 -1.248081e+000 9.140930e-001 -3.916426e-001 -5.033596e+000 -6.418884e-002 -7.857470e+000 -1.170765e+000 -4.183640e+000 -2.400895e+000 -3.117359e+000 -1.883702e+000 6.346334e+001 -3.803416e-001 -3.147472e-001 -2.940511e-001 -3.222427e-001 -4.175964e-001 -3.716441e-001 -3.437992e-001 -3.364744e-001 -3.411627e-001 -2.818834e-001 -3.001322e-001 -2.530839e-001 -3.090607e-001 -1.460228e-001 -1.295942e-001 -1.192490e-001 -1.352696e-001 -1.738024e-001 -1.581393e-001 -1.513391e-001 -1.475641e-001 -1.483177e-001 -1.254858e-001 -1.298646e-001 -1.111595e-001 -1.248127e-001
<VARIANCE> 39
 8.354837e+001 4.420956e+001 5.277100e+001 4.192092e+001 7.611556e+001 5.663073e+001 6.085888e+001 4.720140e+001 4.790395e+001 2.997779e+001 3.304531e+001 2.570562e+001 7.841981e+001 3.555987e+000 2.504988e+000 2.102275e+000 2.584292e+000 4.385056e+000 3.502846e+000 3.080955e+000 2.883946e+000 2.943410e+000 2.050165e+000 2.259492e+000 1.610186e+000 2.367531e+000 5.353146e-001 4.202979e-001 3.545536e-001 4.541122e-001 7.549206e-001 6.230149e-001 5.653206e-001 5.398543e-001 5.528541e-001 3.954177e-001 4.234736e-001 3.107498e-001 3.904249e-001
<GCONST> 1.252997e+002
<TRANSP> 3
 0.000000e+000 1.000000e+000 0.000000e+000
 0.000000e+000 9.982883e-001 1.711742e-003
 0.000000e+000 0.000000e+000 0.000000e+000
<ENDHMM>
~h "MJL"
<BEGINHMM>
<NUMSTATES> 3
<STATE> 2
<NUMMIXES> 2
<MIXTURE> 1 5.000000e-001
<MEAN> 39
 -2.268360e+000 1.461509e+000 2.672966e+000 3.387478e+000 -1.273462e+000 1.146610e+000 3.154037e+000 2.855218e+000 3.674285e+000 5.947482e+000 6.360111e+000 2.815591e+000 5.479201e+001 3.863747e-001 3.498697e-001 2.875010e-001 3.086972e-001 4.166766e-001 3.281223e-001 3.167543e-001 3.822625e-001 3.205443e-001 2.835060e-001 2.756016e-001 2.729135e-001 2.840920e-001 1.511237e-001 1.441451e-001 1.145674e-001 1.277845e-001 1.734416e-001 1.354624e-001 1.331306e-001 1.607710e-001 1.360251e-001 1.225972e-001 1.194111e-001 1.146053e-001 1.226535e-001
<VARIANCE> 39
 8.682420e+001 4.740262e+001 4.729645e+001 4.142311e+001 9.673687e+001 6.477026e+001 4.702069e+001 6.521600e+001 4.445055e+001 2.765836e+001 2.406780e+001 3.611438e+001 1.294473e+002 3.778004e+000 3.000596e+000 2.043400e+000 2.324158e+000 4.253077e+000 2.620815e+000 2.438165e+000 3.585327e+000 2.519517e+000 1.985460e+000 1.859723e+000 1.830867e+000 2.112356e+000 5.610372e-001 5.290136e-001 3.297476e-001 4.179724e-001 7.658386e-001 4.704319e-001 4.568783e-001 6.557462e-001 4.655970e-001 3.826846e-001 3.652449e-001 3.362846e-001 3.619149e-001
<GCONST> 1.249835e+002
<MIXTURE> 2 5.000000e-001
<MEAN> 39
 -5.995540e+000 -1.292473e+000 -7.793033e-002 8.130461e-001 -5.207658e+000 -2.072588e+000 4.111713e-001 -3.750385e-001 1.007435e+000 3.843834e+000 4.397753e+000 4.117811e-001 5.024101e+001 -3.911089e-001 -3.430195e-001 -2.842892e-001 -3.011104e-001 -4.082430e-001 -3.194350e-001 -3.078307e-001 -3.751359e-001 -3.143752e-001 -2.801194e-001 -2.698850e-001 -2.683247e-001 -2.972659e-001 -1.484860e-001 -1.467882e-001 -1.151272e-001 -1.308187e-001 -1.766072e-001 -1.388898e-001 -1.372405e-001 -1.631416e-001 -1.369136e-001 -1.248489e-001 -1.223309e-001 -1.173549e-001 -1.179839e-001
<VARIANCE> 39
 8.682420e+001 4.740262e+001 4.729645e+001 4.142311e+001 9.673687e+001 6.477026e+001 4.702069e+001 6.521600e+001 4.445055e+001 2.765836e+001 2.406780e+001 3.611438e+001 1.294473e+002 3.778004e+000 3.000596e+000 2.043400e+000 2.324158e+000 4.253077e+000 2.620815e+000 2.438165e+000 3.585327e+000 2.519517e+000 1.985460e+000 1.859723e+000 1.830867e+000 2.112356e+000 5.610372e-001 5.290136e-001 3.297476e-001 4.179724e-001 7.658386e-001 4.704319e-001 4.568783e-001 6.557462e-001 4.655970e-001 3.826846e-001 3.652449e-001 3.362846e-001 3.619149e-001
<GCONST> 1.249835e+002
<TRANSP> 3
 0.000000e+000 1.000000e+000 0.000000e+000
 0.000000e+000 9.984567e-001 1.543268e-003
 0.000000e+000 0.000000e+000 0.000000e+000
<ENDHMM>
~h "MKK"
<BEGINHMM>
<NUMSTATES> 3
<STATE> 2
<NUMMIXES> 2
<MIXTURE> 1 5.000000e-001
<MEAN> 39
 -4.015976e+000 -2.589829e-001 6.698149e+000 -5.400771e+000 1.099228e+000 -2.226631e+000 1.287166e+000 3.469335e+000 3.551751e+000 1.879016e+000 -2.961209e-001 -2.899304e-001 6.307014e+001 3.560104e-001 3.025978e-001 3.069147e-001 4.311673e-001 3.145718e-001 3.218932e-001 3.532321e-001 3.291474e-001 3.731510e-001 3.071149e-001 3.125430e-001 2.553143e-001 3.620708e-001 1.345558e-001 1.269807e-001 1.236022e-001 1.776292e-001 1.352474e-001 1.367248e-001 1.503230e-001 1.442622e-001 1.588535e-001 1.355723e-001 1.334189e-001 1.131129e-001 1.459103e-001
<VARIANCE> 39
 6.911532e+001 3.295725e+001 5.448232e+001 7.811217e+001 3.531894e+001 4.116342e+001 4.367591e+001 3.277094e+001 4.727962e+001 3.033650e+001 3.316643e+001 1.850865e+001 8.874679e+001 3.177479e+000 2.271651e+000 2.332428e+000 4.592806e+000 2.434741e+000 2.561189e+000 3.074687e+000 2.687342e+000 3.440484e+000 2.343399e+000 2.402215e+000 1.623655e+000 3.310479e+000 4.540637e-001 4.028391e-001 3.790148e-001 7.868001e-001 4.595883e-001 4.692652e-001 5.650951e-001 5.204884e-001 6.318511e-001 4.575078e-001 4.443858e-001 3.193157e-001 5.318322e-001
<GCONST> 1.239304e+002
<MIXTURE> 2 5.000000e-001
<MEAN> 39
 -7.341402e+000 -2.555319e+000 3.745663e+000 -8.936015e+000 -1.277962e+000 -4.792980e+000 -1.356345e+000 1.179499e+000 8.013434e-001 -3.241278e-001 -2.599733e+000 -2.010798e+000 5.930192e+001 -3.570090e-001 -3.002821e-001 -3.039768e-001 -4.260660e-001 -3.095745e-001 -3.182553e-001 -3.481593e-001 -3.265772e-001 -3.687907e-001 -3.052118e-001 -3.074202e-001 -2.543766e-001 -3.657180e-001 -1.349812e-001 -1.268978e-001 -1.226545e-001 -1.771778e-001 -1.359244e-001 -1.372870e-001 -1.503682e-001 -1.443173e-001 -1.591028e-001 -1.349850e-001 -1.332302e-001 -1.129192e-001 -1.457970e-001
<VARIANCE> 39
 6.911532e+001 3.295725e+001 5.448232e+001 7.811217e+001 3.531894e+001 4.116342e+001 4.367591e+001 3.277094e+001 4.727962e+001 3.033650e+001 3.316643e+001 1.850865e+001 8.874679e+001 3.177479e+000 2.271651e+000 2.332428e+000 4.592806e+000 2.434741e+000 2.561189e+000 3.074687e+000 2.687342e+000 3.440484e+000 2.343399e+000 2.402215e+000 1.623655e+000 3.310479e+000 4.540637e-001 4.028391e-001 3.790148e-001 7.868001e-001 4.595883e-001 4.692652e-001 5.650951e-001 5.204884e-001 6.318511e-001 4.575078e-001 4.443858e-001 3.193157e-001 5.318322e-001
<GCONST> 1.239304e+002
<TRANSP> 3
 0.000000e+000 1.000000e+000 0.000000e+000
 0.000000e+000 9.987468e-001 1.253211e-003
 0.000000e+000 0.000000e+000 0.000000e+000
<ENDHMM>
~h "MMS"
<BEGINHMM>
<NUMSTATES> 3
<STATE> 2
<NUMMIXES> 2
<MIXTURE> 1 5.000000e-001
<MEAN> 39
 -3.768396e+000 2.941636e+000 7.007644e+000 9.760195e-001 2.540219e-001 2.621018e+000 4.588261e-001 1.141905e-001 4.672270e+000 8.340992e-001 4.962154e+000 4.115261e-001 6.841953e+001 4.455940e-001 3.480173e-001 3.471412e-001 3.831425e-001 4.483051e-001 3.666435e-001 3.933905e-001 3.825139e-001 3.669489e-001 3.615047e-001 3.269338e-001 3.283795e-001 3.882473e-001 1.679783e-001 1.472179e-001 1.373533e-001 1.622582e-001 1.827639e-001 1.549426e-001 1.638322e-001 1.611228e-001 1.561193e-001 1.541365e-001 1.440269e-001 1.398440e-001 1.635606e-001
<VARIANCE> 39
 8.528456e+001 3.961507e+001 5.802119e+001 5.112996e+001 8.049372e+001 5.293431e+001 6.590883e+001 5.750473e+001 4.648962e+001 3.964331e+001 2.802361e+001 3.906669e+001 8.318009e+001 4.943611e+000 3.023726e+000 3.014175e+000 3.670298e+000 5.006496e+000 3.370468e+000 3.856563e+000 3.647211e+000 3.392620e+000 3.266188e+000 2.649381e+000 2.694998e+000 3.787715e+000 7.031977e-001 5.437453e-001 4.730850e-001 6.597248e-001 8.328743e-001 5.981858e-001 6.711777e-001 6.458070e-001 6.098939e-001 5.951108e-001 5.226113e-001 4.908080e-001 6.680983e-001
<GCONST> 1.331779e+002
<MIXTURE> 2 5.000000e-001
<MEAN> 39
 -7.462382e+000 4.240160e-001 3.960778e+000 -1.884189e+000 -3.334710e+000 -2.892203e-001 -2.788544e+000 -2.919085e+000 1.944938e+000 -1.684418e+000 2.844661e+000 -2.088608e+000 6.477140e+001 -4.437753e-001 -3.475372e-001 -3.473140e-001 -3.831784e-001 -4.467029e-001 -3.677099e-001 -3.921348e-001 -3.813930e-001 -3.698138e-001 -3.613992e-001 -3.241430e-001 -3.282785e-001 -3.902349e-001 -1.674492e-001 -1.477385e-001 -1.377714e-001 -1.626356e-001 -1.822839e-001 -1.544273e-001 -1.638695e-001 -1.603257e-001 -1.562635e-001 -1.544372e-001 -1.451406e-001 -1.403867e-001 -1.633886e-001
<VARIANCE> 39
 8.528456e+001 3.961507e+001 5.802119e+001 5.112996e+001 8.049372e+001 5.293431e+001 6.590883e+001 5.750473e+001 4.648962e+001 3.964331e+001 2.802361e+001 3.906669e+001 8.318009e+001 4.943611e+000 3.023726e+000 3.014175e+000 3.670298e+000 5.006496e+000 3.370468e+000 3.856563e+000 3.647211e+000 3.392620e+000 3.266188e+000 2.649381e+000 2.694998e+000 3.787715e+000 7.031977e-001 5.437453e-001 4.730850e-001 6.597248e-001 8.328743e-001 5.981858e-001 6.711777e-001 6.458070e-001 6.098939e-001 5.951108e-001 5.226113e-001 4.908080e-001 6.680983e-001
<GCONST> 1.331779e+002
<TRANSP> 3
 0.000000e+000 1.000000e+000 0.000000e+000
 0.000000e+000 9.981932e-001 1.806810e-003
 0.000000e+000 0.000000e+000 0.000000e+000
<ENDHMM>
~h "MOS"
<BEGINHMM>
<NUMSTATES> 3
<STATE> 2
<NUMMIXES> 2
<MIXTURE> 1 5.000000e-001
<MEAN> 39
 -4.840765e+000 -1.231584e+000 4.618791e+000 -4.707174e+000 -2.498226e+000 -4.941092e+000 -1.730170e+000 1.373029e+000 3.285055e+000 1.562036e+000 2.580097e+000 -1.963739e+000 6.050676e+001 3.667769e-001 3.292310e-001 3.010158e-001 3.544502e-001 3.664536e-001 3.442031e-001 3.541531e-001 3.517140e-001 3.637117e-001 3.397448e-001 3.228535e-001 3.169562e-001 3.362632e-001 1.353593e-001 1.379385e-001 1.212537e-001 1.480331e-001 1.544544e-001 1.481794e-001 1.481788e-001 1.522705e-001 1.516837e-001 1.501976e-001 1.409148e-001 1.341556e-001 1.335818e-001
<VARIANCE> 39
 7.372244e+001 3.915300e+001 5.077795e+001 4.805310e+001 5.319707e+001 4.649886e+001 5.330580e+001 3.915084e+001 4.652008e+001 3.378357e+001 3.552074e+001 3.750281e+001 8.211742e+001 3.357626e+000 2.701738e+000 2.267619e+000 3.149487e+000 3.358942e+000 2.983068e+000 3.109749e+000 3.112266e+000 3.298321e+000 2.899882e+000 2.642080e+000 2.525162e+000 2.810878e+000 4.589152e-001 4.741330e-001 3.659254e-001 5.460281e-001 5.946926e-001 5.511398e-001 5.529323e-001 5.815760e-001 5.795038e-001 5.635816e-001 4.927892e-001 4.503685e-001 4.470094e-001
<GCONST> 1.269841e+002
<MIXTURE> 2 5.000000e-001
<MEAN> 39
 -8.275236e+000 -3.734478e+000 1.768445e+000 -7.479988e+000 -5.415679e+000 -7.668694e+000 -4.650603e+000 -1.129796e+000 5.568293e-001 -7.629092e-001 1.961254e-001 -4.413321e+000 5.688201e+001 -3.661762e-001 -3.282476e-001 -3.013288e-001 -3.554216e-001 -3.666430e-001 -3.466593e-001 -3.512261e-001 -3.539506e-001 -3.627396e-001 -3.414169e-001 -3.273256e-001 -3.186741e-001 -3.343637e-001 -1.356138e-001 -1.374908e-001 -1.207134e-001 -1.475418e-001 -1.540108e-001 -1.487758e-001 -1.492589e-001 -1.527741e-001 -1.528169e-001 -1.500907e-001 -1.398810e-001 -1.342824e-001 -1.338532e-001
<VARIANCE> 39
 7.372244e+001 3.915300e+001 5.077795e+001 4.805310e+001 5.319707e+001 4.649886e+001 5.330580e+001 3.915084e+001 4.652008e+001 3.378357e+001 3.552074e+001 3.750281e+001 8.211742e+001 3.357626e+000 2.701738e+000 2.267619e+000 3.149487e+000 3.358942e+000 2.983068e+000 3.109749e+000 3.112266e+000 3.298321e+000 2.899882e+000 2.642080e+000 2.525162e+000 2.810878e+000 4.589152e-001 4.741330e-001 3.659254e-001 5.460281e-001 5.946926e-001 5.511398e-001 5.529323e-001 5.815760e-001 5.795038e-001 5.635816e-001 4.927892e-001 4.503685e-001 4.470094e-001
<GCONST> 1.269841e+002
<TRANSP> 3
 0.000000e+000 1.000000e+000 0.000000e+000
 0.000000e+000 9.984926e-001 1.507387e-003
 0.000000e+000 0.000000e+000 0.000000e+000
<ENDHMM>
~h "MPM"
<BEGINHMM>
<NUMSTATES> 3
<STATE> 2
<NUMMIXES> 2
<MIXTURE> 1 5.000000e-001
<MEAN> 39
 -6.284084e+000 5.096219e+000 4.839477e+000 3.286680e+000 -1.312011e+000 8.614848e-001 -1.824749e+000 9.456272e-001 1.908112e-002 2.953094e+000 2.239847e+000 -3.305368e-001 6.640999e+001 3.552084e-001 3.081820e-001 3.548786e-001 3.314482e-001 4.079988e-001 3.654565e-001 3.748682e-001 3.931723e-001 3.615624e-001 3.407170e-001 3.210885e-001 3.118534e-001 3.022432e-001 1.321109e-001 1.277141e-001 1.434294e-001 1.432964e-001 1.736532e-001 1.546527e-001 1.623670e-001 1.703810e-001 1.573361e-001 1.469924e-001 1.426773e-001 1.356118e-001 1.263829e-001
<VARIANCE> 39
 7.056241e+001 4.489064e+001 6.952486e+001 4.096201e+001 6.830037e+001 6.103991e+001 7.067934e+001 5.665903e+001 4.963372e+001 4.272359e+001 3.133512e+001 3.933969e+001 8.156615e+001 3.145791e+000 2.331859e+000 3.172212e+000 2.768010e+000 4.120620e+000 3.290529e+000 3.499164e+000 3.885916e+000 3.252192e+000 2.848757e+000 2.555587e+000 2.439477e+000 2.325841e+000 4.367970e-001 4.092346e-001 5.146315e-001 5.137485e-001 7.560798e-001 5.992821e-001 6.639650e-001 7.261594e-001 6.195818e-001 5.408998e-001 5.077912e-001 4.557166e-001 3.987221e-001
<GCONST> 1.297338e+002
<MIXTURE> 2 5.000000e-001
<MEAN> 39
 -9.644142e+000 2.416199e+000 1.504214e+000 7.266176e-001 -4.617773e+000 -2.263637e+000 -5.187589e+000 -2.065261e+000 -2.798967e+000 3.385623e-001 7.354021e-004 -2.839391e+000 6.279743e+001 -3.542467e-001 -3.026351e-001 -3.575496e-001 -3.340453e-001 -4.039736e-001 -3.601361e-001 -3.733740e-001 -3.953367e-001 -3.597910e-001 -3.344135e-001 -3.183596e-001 -3.128996e-001 -3.077851e-001 -1.322516e-001 -1.281717e-001 -1.435219e-001 -1.434086e-001 -1.741582e-001 -1.550006e-001 -1.635692e-001 -1.704789e-001 -1.575180e-001 -1.471912e-001 -1.423606e-001 -1.344154e-001 -1.261949e-001
<VARIANCE> 39
 7.056241e+001 4.489064e+001 6.952486e+001 4.096201e+001 6.830037e+001 6.103991e+001 7.067934e+001 5.665903e+001 4.963372e+001 4.272359e+001 3.133512e+001 3.933969e+001 8.156615e+001 3.145791e+000 2.331859e+000 3.172212e+000 2.768010e+000 4.120620e+000 3.290529e+000 3.499164e+000 3.885916e+000 3.252192e+000 2.848757e+000 2.555587e+000 2.439477e+000 2.325841e+000 4.367970e-001 4.092346e-001 5.146315e-001 5.137485e-001 7.560798e-001 5.992821e-001 6.639650e-001 7.261594e-001 6.195818e-001 5.408998e-001 5.077912e-001 4.557166e-001 3.987221e-001
<GCONST> 1.297338e+002
<TRANSP> 3
 0.000000e+000 1.000000e+000 0.000000e+000
 0.000000e+000 9.985227e-001 1.477323e-003
 0.000000e+000 0.000000e+000 0.000000e+000
<ENDHMM>
~h "MPS"
<BEGINHMM>
<NUMSTATES> 3
<STATE> 2
<NUMMIXES> 2
<MIXTURE> 1 5.000000e-001
<MEAN> 39
 -3.432919e+000 2.161399e-001 6.522901e+000 -3.611053e-001 -8.131049e-001 1.865816e+000 -3.160239e-001 2.983963e-001 2.909379e+000 2.102981e+000 3.791386e+000 2.074776e-001 6.859072e+001 4.434145e-001 3.543507e-001 3.570914e-001 3.685241e-001 3.754308e-001 3.277754e-001 3.603906e-001 3.432928e-001 3.581833e-001 2.882845e-001 2.806341e-001 2.551914e-001 3.671258e-001 1.654702e-001 1.470881e-001 1.395202e-001 1.520387e-001 1.553615e-001 1.383397e-001 1.529922e-001 1.482988e-001 1.514199e-001 1.254522e-001 1.219223e-001 1.115899e-001 1.485725e-001
<VARIANCE> 39
 9.790855e+001 4.723888e+001 7.416166e+001 5.502188e+001 6.573660e+001 4.311380e+001 6.163585e+001 4.338668e+001 5.471631e+001 2.834049e+001 2.821948e+001 2.648986e+001 1.038791e+002 4.900486e+000 3.132744e+000 3.168468e+000 3.390610e+000 3.511999e+000 2.694691e+000 3.250640e+000 2.956714e+000 3.229052e+000 2.070415e+000 1.961081e+000 1.634806e+000 3.386981e+000 6.852952e-001 5.399359e-001 4.867948e-001 5.767003e-001 6.027162e-001 4.784591e-001 5.849884e-001 5.523965e-001 5.749529e-001 3.912920e-001 3.708100e-001 3.095421e-001 5.530613e-001
<GCONST> 1.278921e+002
<MIXTURE> 2 5.000000e-001
<MEAN> 39
 -7.390869e+000 -2.533082e+000 3.078214e+000 -3.328175e+000 -4.056230e+000 -7.606280e-001 -3.456364e+000 -2.336346e+000 -4.943943e-002 -2.645075e-002 1.666506e+000 -1.851254e+000 6.451388e+001 -4.420671e-001 -3.536317e-001 -3.549162e-001 -3.680203e-001 -3.741823e-001 -3.288452e-001 -3.607906e-001 -3.445112e-001 -3.605993e-001 -2.872729e-001 -2.795203e-001 -2.562467e-001 -3.690242e-001 -1.656601e-001 -1.468332e-001 -1.395625e-001 -1.517245e-001 -1.551777e-001 -1.383433e-001 -1.529460e-001 -1.489947e-001 -1.518827e-001 -1.247612e-001 -1.216543e-001 -1.109561e-001 -1.488998e-001
<VARIANCE> 39
 9.790855e+001 4.723888e+001 7.416166e+001 5.502188e+001 6.573660e+001 4.311380e+001 6.163585e+001 4.338668e+001 5.471631e+001 2.834049e+001 2.821948e+001 2.648986e+001 1.038791e+002 4.900486e+000 3.132744e+000 3.168468e+000 3.390610e+000 3.511999e+000 2.694691e+000 3.250640e+000 2.956714e+000 3.229052e+000 2.070415e+000 1.961081e+000 1.634806e+000 3.386981e+000 6.852952e-001 5.399359e-001 4.867948e-001 5.767003e-001 6.027162e-001 4.784591e-001 5.849884e-001 5.523965e-001 5.749529e-001 3.912920e-001 3.708100e-001 3.095421e-001 5.530613e-001
<GCONST> 1.278921e+002
<TRANSP> 3
 0.000000e+000 1.000000e+000 0.000000e+000
 0.000000e+000 9.983956e-001 1.604428e-003
 0.000000e+000 0.000000e+000 0.000000e+000
<ENDHMM>
~h "MVL"
<BEGINHMM>
<NUMSTATES> 3
<STATE> 2
<NUMMIXES> 2
<MIXTURE> 1 5.000000e-001
<MEAN> 39
 -4.852789e+000 1.046609e+000 3.733345e+000 1.055249e+000 -4.692284e+000 3.169103e+000 -2.381531e+000 -1.575832e-001 2.346124e+000 3.267649e+000 -1.537253e+000 -6.833488e-001 7.170538e+001 4.109113e-001 3.814144e-001 3.745497e-001 3.374914e-001 5.018665e-001 3.973678e-001 4.259379e-001 3.825823e-001 3.758657e-001 3.225510e-001 3.060044e-001 3.012201e-001 3.883609e-001 1.619260e-001 1.569937e-001 1.493131e-001 1.415237e-001 2.115128e-001 1.719489e-001 1.840508e-001 1.677120e-001 1.643709e-001 1.423554e-001 1.367234e-001 1.311692e-001 1.614628e-001
<VARIANCE> 39
 7.529291e+001 4.926520e+001 7.166843e+001 4.224171e+001 1.014111e+002 5.507095e+001 7.824075e+001 6.060185e+001 4.557900e+001 3.053950e+001 3.033273e+001 3.574367e+001 1.180596e+002 4.223462e+000 3.619908e+000 3.502607e+000 2.824549e+000 6.305604e+000 3.958946e+000 4.561165e+000 3.709033e+000 3.568521e+000 2.569731e+000 2.405629e+000 2.297691e+000 3.748906e+000 6.463224e-001 6.177456e-001 5.599477e-001 5.030066e-001 1.118820e+000 7.410592e-001 8.590797e-001 7.027667e-001 6.821558e-001 5.057358e-001 4.692827e-001 4.324395e-001 6.537955e-001
<GCONST> 1.343520e+002
<MIXTURE> 2 5.000000e-001
<MEAN> 39
 -8.323648e+000 -1.760958e+000 3.470567e-001 -1.544496e+000 -8.720407e+000 2.007109e-001 -5.919683e+000 -3.271471e+000 -3.543652e-001 1.057147e+000 -3.740259e+000 -3.074789e+000 6.735918e+001 -4.111312e-001 -3.796279e-001 -3.740604e-001 -3.347645e-001 -5.025721e-001 -3.985162e-001 -4.283375e-001 -3.877718e-001 -3.797555e-001 -3.186642e-001 -3.143992e-001 -3.051054e-001 -3.861228e-001 -1.596507e-001 -1.573935e-001 -1.500055e-001 -1.421681e-001 -2.115844e-001 -1.723903e-001 -1.866955e-001 -1.676127e-001 -1.660000e-001 -1.421050e-001 -1.372934e-001 -1.318714e-001 -1.619677e-001
<VARIANCE> 39
 7.529291e+001 4.926520e+001 7.166843e+001 4.224171e+001 1.014111e+002 5.507095e+001 7.824075e+001 6.060185e+001 4.557900e+001 3.053950e+001 3.033273e+001 3.574367e+001 1.180596e+002 4.223462e+000 3.619908e+000 3.502607e+000 2.824549e+000 6.305604e+000 3.958946e+000 4.561165e+000 3.709033e+000 3.568521e+000 2.569731e+000 2.405629e+000 2.297691e+000 3.748906e+000 6.463224e-001 6.177456e-001 5.599477e-001 5.030066e-001 1.118820e+000 7.410592e-001 8.590797e-001 7.027667e-001 6.821558e-001 5.057358e-001 4.692827e-001 4.324395e-001 6.537955e-001
<GCONST> 1.343520e+002
<TRANSP> 3
 0.000000e+000 1.000000e+000 0.000000e+000
 0.000000e+000 9.980396e-001 1.960400e-003
 0.000000e+000 0.000000e+000 0.000000e+000
<ENDHMM>
~h "ZLG"
<BEGINHMM>
<NUMSTATES> 3
<STATE> 2
<NUMMIXES> 2
<MIXTURE> 1 5.000000e-001
<MEAN> 39
 -4.974025e+000 3.535129e+000 -7.863581e-001 -9.572500e-001 -3.734546e+000 -2.670947e+000 -5.269513e+000 -4.727666e+000 -3.155900e+000 -1.606810e+000 -4.067592e+000 -2.223990e+000 6.671276e+001 3.416982e-001 3.048592e-001 3.157481e-001 3.239963e-001 3.934520e-001 3.367237e-001 3.626138e-001 3.468550e-001 3.310902e-001 3.224556e-001 3.117762e-001 2.899409e-001 2.984173e-001 1.355926e-001 1.267684e-001 1.301355e-001 1.350409e-001 1.628206e-001 1.460524e-001 1.535559e-001 1.493326e-001 1.396301e-001 1.402236e-001 1.324278e-001 1.273062e-001 1.253020e-001
<VARIANCE> 39
 5.837500e+001 3.801554e+001 5.279351e+001 4.144655e+001 6.699892e+001 4.740889e+001 6.469492e+001 5.477182e+001 4.950726e+001 3.906605e+001 4.262528e+001 3.730268e+001 6.055260e+001 2.934990e+000 2.264454e+000 2.514007e+000 2.598912e+000 3.805127e+000 2.878106e+000 3.251324e+000 3.020398e+000 2.740494e+000 2.603627e+000 2.379292e+000 2.155200e+000 2.252052e+000 4.559993e-001 4.012092e-001 4.228329e-001 4.593736e-001 6.682388e-001 5.368274e-001 5.868486e-001 5.575402e-001 4.951507e-001 5.003617e-001 4.439304e-001 4.084366e-001 3.912546e-001
<GCONST> 1.256913e+002
<MIXTURE> 2 5.000000e-001
<MEAN> 39
 -8.030166e+000 1.068859e+000 -3.692724e+000 -3.532410e+000 -7.008660e+000 -5.425111e+000 -8.486839e+000 -7.687986e+000 -5.970356e+000 -4.106924e+000 -6.679114e+000 -4.667027e+000 6.360014e+001 -3.435743e-001 -2.970649e-001 -3.184768e-001 -3.208494e-001 -3.868174e-001 -3.418756e-001 -3.586434e-001 -3.483167e-001 -3.310873e-001 -3.229747e-001 -3.052219e-001 -2.972831e-001 -3.018562e-001 -1.345182e-001 -1.265959e-001 -1.299670e-001 -1.360675e-001 -1.641629e-001 -1.470216e-001 -1.528683e-001 -1.493419e-001 -1.418377e-001 -1.427214e-001 -1.340846e-001 -1.283299e-001 -1.248994e-001
<VARIANCE> 39
 5.837500e+001 3.801554e+001 5.279351e+001 4.144655e+001 6.699892e+001 4.740889e+001 6.469492e+001 5.477182e+001 4.950726e+001 3.906605e+001 4.262528e+001 3.730268e+001 6.055260e+001 2.934990e+000 2.264454e+000 2.514007e+000 2.598912e+000 3.805127e+000 2.878106e+000 3.251324e+000 3.020398e+000 2.740494e+000 2.603627e+000 2.379292e+000 2.155200e+000 2.252052e+000 4.559993e-001 4.012092e-001 4.228329e-001 4.593736e-001 6.682388e-001 5.368274e-001 5.868486e-001 5.575402e-001 4.951507e-001 5.003617e-001 4.439304e-001 4.084366e-001 3.912546e-001
<GCONST> 1.256913e+002
<TRANSP> 3
 0.000000e+000 1.000000e+000 0.000000e+000
 0.000000e+000 9.981495e-001 1.850481e-003
 0.000000e+000 0.000000e+000 0.000000e+000
<ENDHMM>
~h "ZLR"
<BEGINHMM>
<NUMSTATES> 3
<STATE> 2
<NUMMIXES> 2
<MIXTURE> 1 5.000000e-001
<MEAN> 39
 -4.670110e+000 3.445812e+000 3.123423e+000 -2.274093e+000 2.230502e+000 -2.739733e+000 1.669803e+000 -3.285235e+000 1.420861e-001 -5.402321e-001 -1.315936e-001 4.852931e-001 6.873631e+001 3.697653e-001 3.592079e-001 3.282894e-001 5.267984e-001 3.870397e-001 4.382709e-001 3.687321e-001 4.593448e-001 3.533542e-001 3.533174e-001 3.612195e-001 2.950839e-001 4.220928e-001 1.474225e-001 1.501677e-001 1.360147e-001 2.183968e-001 1.639217e-001 1.858297e-001 1.579197e-001 1.963195e-001 1.503525e-001 1.522854e-001 1.493641e-001 1.281735e-001 1.781378e-001
<VARIANCE> 39
 5.246930e+001 4.460105e+001 5.008031e+001 1.006726e+002 6.167855e+001 7.471001e+001 5.295967e+001 7.712037e+001 5.438356e+001 4.527910e+001 5.971722e+001 3.216532e+001 9.511885e+001 3.377254e+000 3.234539e+000 2.675363e+000 6.935599e+000 3.718896e+000 4.818700e+000 3.400043e+000 5.273869e+000 3.144932e+000 3.121870e+000 3.282741e+000 2.163014e+000 4.488736e+000 5.430238e-001 5.648108e-001 4.616902e-001 1.193459e+000 6.742249e-001 8.676163e-001 6.307196e-001 9.695427e-001 5.651643e-001 5.792999e-001 5.580382e-001 4.074628e-001 7.915900e-001
<GCONST> 1.358285e+002
<MIXTURE> 2 5.000000e-001
<MEAN> 39
 -7.567538e+000 7.744516e-001 2.927251e-001 -6.287523e+000 -9.109262e-001 -6.197131e+000 -1.241133e+000 -6.797963e+000 -2.807722e+000 -3.231822e+000 -3.222671e+000 -1.783286e+000 6.483515e+001 -3.653270e-001 -3.601851e-001 -3.259721e-001 -5.266227e-001 -3.843378e-001 -4.397906e-001 -3.688362e-001 -4.592515e-001 -3.560041e-001 -3.534352e-001 -3.635140e-001 -2.932036e-001 -4.253727e-001 -1.473381e-001 -1.504479e-001 -1.357765e-001 -2.185854e-001 -1.645231e-001 -1.867540e-001 -1.597518e-001 -1.975419e-001 -1.503572e-001 -1.521616e-001 -1.494437e-001 -1.271577e-001 -1.777476e-001
<VARIANCE> 39
 5.246930e+001 4.460105e+001 5.008031e+001 1.006726e+002 6.167855e+001 7.471001e+001 5.295967e+001 7.712037e+001 5.438356e+001 4.527910e+001 5.971722e+001 3.216532e+001 9.511885e+001 3.377254e+000 3.234539e+000 2.675363e+000 6.935599e+000 3.718896e+000 4.818700e+000 3.400043e+000 5.273869e+000 3.144932e+000 3.121870e+000 3.282741e+000 2.163014e+000 4.488736e+000 5.430238e-001 5.648108e-001 4.616902e-001 1.193459e+000 6.742249e-001 8.676163e-001 6.307196e-001 9.695427e-001 5.651643e-001 5.792999e-001 5.580382e-001 4.074628e-001 7.915900e-001
<GCONST> 1.358285e+002
<TRANSP> 3
 0.000000e+000 1.000000e+000 0.000000e+000
 0.000000e+000 9.984344e-001 1.565619e-003
 0.000000e+000 0.000000e+000 0.000000e+000
<ENDHMM>
~h "ZNM"
<BEGINHMM>
<NUMSTATES> 3
<STATE> 2
<NUMMIXES> 2
<MIXTURE> 1 5.000000e-001
<MEAN> 39
 -7.020497e+000 -1.297391e+000 4.252188e+000 -5.932752e+000 -1.320022e+000 -9.437105e+000 5.199356e+000 -2.242032e+000 4.409058e-001 1.436455e+000 6.302011e-001 -1.317549e+000 6.444901e+001 3.528879e-001 2.983557e-001 3.284957e-001 4.051854e-001 3.268180e-001 4.660798e-001 3.158292e-001 3.795469e-001 3.932367e-001 3.141997e-001 3.227559e-001 3.020390e-001 4.102425e-001 1.301059e-001 1.236197e-001 1.307748e-001 1.586985e-001 1.335234e-001 1.822386e-001 1.356722e-001 1.575428e-001 1.611450e-001 1.369643e-001 1.353195e-001 1.259882e-001 1.647656e-001
<VARIANCE> 39
 7.046311e+001 3.830590e+001 7.205347e+001 8.108237e+001 5.040924e+001 1.015625e+002 4.235340e+001 6.235503e+001 7.058897e+001 3.107578e+001 4.813615e+001 3.781394e+001 1.029228e+002 3.111618e+000 2.195593e+000 2.700170e+000 4.091206e+000 2.603127e+000 5.349422e+000 2.529435e+000 3.649367e+000 3.858459e+000 2.464080e+000 2.632690e+000 2.266447e+000 4.267910e+000 4.234710e-001 3.810523e-001 4.262154e-001 6.312103e-001 4.484415e-001 8.325360e-001 4.616562e-001 6.218628e-001 6.489992e-001 4.674656e-001 4.560092e-001 3.957062e-001 6.769491e-001
<GCONST> 1.305085e+002
<MIXTURE> 2 5.000000e-001
<MEAN> 39
 -1.037819e+001 -3.773061e+000 8.568157e-001 -9.534582e+000 -4.160000e+000 -1.346824e+001 2.596176e+000 -5.400640e+000 -2.919784e+000 -7.933710e-001 -2.145008e+000 -3.777271e+000 6.039098e+001 -3.527033e-001 -2.943457e-001 -3.287921e-001 -4.038838e-001 -3.185504e-001 -4.590729e-001 -3.203387e-001 -3.845858e-001 -3.924817e-001 -3.136958e-001 -3.262667e-001 -3.001499e-001 -4.161144e-001 -1.301927e-001 -1.232980e-001 -1.303659e-001 -1.590965e-001 -1.343397e-001 -1.827350e-001 -1.361089e-001 -1.578903e-001 -1.610970e-001 -1.365215e-001 -1.347943e-001 -1.256325e-001 -1.643421e-001
<VARIANCE> 39
 7.046311e+001 3.830590e+001 7.205347e+001 8.108237e+001 5.040924e+001 1.015625e+002 4.235340e+001 6.235503e+001 7.058897e+001 3.107578e+001 4.813615e+001 3.781394e+001 1.029228e+002 3.111618e+000 2.195593e+000 2.700170e+000 4.091206e+000 2.603127e+000 5.349422e+000 2.529435e+000 3.649367e+000 3.858459e+000 2.464080e+000 2.632690e+000 2.266447e+000 4.267910e+000 4.234710e-001 3.810523e-001 4.262154e-001 6.312103e-001 4.484415e-001 8.325360e-001 4.616562e-001 6.218628e-001 6.489992e-001 4.674656e-001 4.560092e-001 3.957062e-001 6.769491e-001
<GCONST> 1.305085e+002
<TRANSP> 3
 0.000000e+000 1.000000e+000 0.000000e+000
 0.000000e+000 9.989859e-001 1.014070e-003
 0.000000e+000 0.000000e+000 0.000000e+000
<ENDHMM>
~h "ZSS"
<BEGINHMM>
<NUMSTATES> 3
<STATE> 2
<NUMMIXES> 2
<MIXTURE> 1 5.000000e-001
<MEAN> 39
 -4.643100e+000 3.642519e+000 3.540325e+000 -1.186059e+000 4.748864e-001 2.175405e+000 1.204509e+000 2.558414e+000 -1.090883e-001 3.364992e+000 6.548136e-001 3.049309e+000 5.697971e+001 4.023204e-001 3.658642e-001 3.340426e-001 4.312982e-001 4.536856e-001 3.805716e-001 4.273128e-001 3.756576e-001 4.286032e-001 3.547553e-001 4.210805e-001 2.848904e-001 4.058708e-001 1.595110e-001 1.543936e-001 1.354226e-001 1.755691e-001 1.876765e-001 1.630984e-001 1.752640e-001 1.606949e-001 1.767908e-001 1.566348e-001 1.743712e-001 1.238096e-001 1.690793e-001
<VARIANCE> 39
 7.065038e+001 4.361210e+001 5.298433e+001 6.872715e+001 7.995510e+001 4.864620e+001 7.933373e+001 4.929649e+001 7.502268e+001 3.627765e+001 7.669308e+001 2.679535e+001 8.065470e+001 4.086133e+000 3.311132e+000 2.778844e+000 4.575076e+000 5.074157e+000 3.622631e+000 4.526563e+000 3.529536e+000 4.604401e+000 3.171398e+000 4.446156e+000 1.995162e+000 4.159281e+000 6.262823e-001 6.006422e-001 4.613483e-001 7.788698e-001 8.795048e-001 6.655078e-001 7.729084e-001 6.490943e-001 7.792975e-001 6.135944e-001 7.631193e-001 3.827952e-001 7.144241e-001
<GCONST> 1.359633e+002
<MIXTURE> 2 5.000000e-001
<MEAN> 39
 -8.005252e+000 1.000941e+000 6.287112e-001 -4.502133e+000 -3.101818e+000 -6.144686e-001 -2.358271e+000 -2.500441e-001 -3.573714e+000 9.557544e-001 -2.848170e+000 9.787405e-001 5.338739e+001 -4.062471e-001 -3.619964e-001 -3.327520e-001 -4.242789e-001 -4.473500e-001 -3.807568e-001 -4.237161e-001 -3.758247e-001 -4.297116e-001 -3.575814e-001 -4.223559e-001 -2.801105e-001 -4.099018e-001 -1.570410e-001 -1.556108e-001 -1.362679e-001 -1.774454e-001 -1.874512e-001 -1.632162e-001 -1.763968e-001 -1.615707e-001 -1.763205e-001 -1.566942e-001 -1.750556e-001 -1.236722e-001 -1.690151e-001
<VARIANCE> 39
 7.065038e+001 4.361210e+001 5.298433e+001 6.872715e+001 7.995510e+001 4.864620e+001 7.933373e+001 4.929649e+001 7.502268e+001 3.627765e+001 7.669308e+001 2.679535e+001 8.065470e+001 4.086133e+000 3.311132e+000 2.778844e+000 4.575076e+000 5.074157e+000 3.622631e+000 4.526563e+000 3.529536e+000 4.604401e+000 3.171398e+000 4.446156e+000 1.995162e+000 4.159281e+000 6.262823e-001 6.006422e-001 4.613483e-001 7.788698e-001 8.795048e-001 6.655078e-001 7.729084e-001 6.490943e-001 7.792975e-001 6.135944e-001 7.631193e-001 3.827952e-001 7.144241e-001
<GCONST> 1.359633e+002
<TRANSP> 3
 0.000000e+000 1.000000e+000 0.000000e+000
 0.000000e+000 9.983050e-001 1.694987e-003
 0.000000e+000 0.000000e+000 0.000000e+000
<ENDHMM>
~h "ZTK"
<BEGINHMM>
<NUMSTATES> 3
<STATE> 2
<NUMMIXES> 2
<MIXTURE> 1 5.000000e-001
<MEAN> 39
 -5.317397e+000 -2.883478e+000 5.317276e+000 -8.475106e+000 -2.373397e+000 -5.417260e+000 -1.198959e+000 2.471211e+000 -6.206700e-001 3.296558e-001 -2.093132e+000 -4.114691e-001 6.695262e+001 3.915144e-001 4.318422e-001 3.449293e-001 5.497050e-001 3.988240e-001 4.010448e-001 4.240169e-001 4.072014e-001 4.266739e-001 3.614236e-001 3.963279e-001 2.888400e-001 4.884701e-001 1.503551e-001 1.709183e-001 1.402261e-001 2.168306e-001 1.626169e-001 1.669635e-001 1.730368e-001 1.773131e-001 1.712905e-001 1.582436e-001 1.616575e-001 1.256378e-001 1.993109e-001
<VARIANCE> 39
 7.054965e+001 7.758012e+001 5.664741e+001 1.110098e+002 6.848283e+001 5.771931e+001 7.299480e+001 5.180972e+001 7.552791e+001 3.789636e+001 6.492130e+001 2.873437e+001 9.893304e+001 3.759766e+000 4.567754e+000 2.939775e+000 7.447506e+000 3.897221e+000 3.902421e+000 4.439544e+000 4.145162e+000 4.470977e+000 3.243658e+000 3.888031e+000 2.094369e+000 6.104994e+000 5.641544e-001 7.258677e-001 4.904939e-001 1.169765e+000 6.574268e-001 6.862083e-001 7.456775e-001 7.773362e-001 7.323066e-001 6.282573e-001 6.550291e-001 3.937835e-001 9.985275e-001
<GCONST> 1.388585e+002
<MIXTURE> 2 5.000000e-001
<MEAN> 39
 -8.677151e+000 -6.406661e+000 2.306697e+000 -1.268955e+001 -5.683571e+000 -8.456188e+000 -4.616439e+000 -4.079474e-001 -4.096942e+000 -2.132745e+000 -5.316082e+000 -2.555647e+000 6.297401e+001 -3.840903e-001 -4.230500e-001 -3.409016e-001 -5.418998e-001 -3.908312e-001 -3.891371e-001 -4.187921e-001 -4.071854e-001 -4.191135e-001 -3.589828e-001 -3.923958e-001 -2.900374e-001 -4.998613e-001 -1.500857e-001 -1.698732e-001 -1.399150e-001 -2.157921e-001 -1.617106e-001 -1.643873e-001 -1.723737e-001 -1.753536e-001 -1.710092e-001 -1.588071e-001 -1.620780e-001 -1.253708e-001 -2.003946e-001
<VARIANCE> 39
 7.054965e+001 7.758012e+001 5.664741e+001 1.110098e+002 6.848283e+001 5.771931e+001 7.299480e+001 5.180972e+001 7.552791e+001 3.789636e+001 6.492130e+001 2.873437e+001 9.893304e+001 3.759766e+000 4.567754e+000 2.939775e+000 7.447506e+000 3.897221e+000 3.902421e+000 4.439544e+000 4.145162e+000 4.470977e+000 3.243658e+000 3.888031e+000 2.094369e+000 6.104994e+000 5.641544e-001 7.258677e-001 4.904939e-001 1.169765e+000 6.574268e-001 6.862083e-001 7.456775e-001 7.773362e-001 7.323066e-001 6.282573e-001 6.550291e-001 3.937835e-001 9.985275e-001
<GCONST> 1.388585e+002
<TRANSP> 3
 0.000000e+000 1.000000e+000 0.000000e+000
 0.000000e+000 9.985621e-001 1.437894e-003
 0.000000e+000 0.000000e+000 0.000000e+000
<ENDHMM>
~h "ZTV"
<BEGINHMM>
<NUMSTATES> 3
<STATE> 2
<NUMMIXES> 2
<MIXTURE> 1 5.000000e-001
<MEAN> 39
 -5.340479e+000 1.993624e+000 2.616850e+000 -4.645842e+000 -3.421175e+000 -2.901117e+000 -4.760134e+000 -5.646380e-001 -2.798934e+000 4.607686e-001 -3.734267e+000 -1.159164e-001 6.919129e+001 3.481874e-001 3.143449e-001 3.240070e-001 4.246762e-001 4.583956e-001 3.762912e-001 4.492615e-001 3.780388e-001 3.843286e-001 3.561167e-001 3.911723e-001 3.138798e-001 3.876738e-001 1.338274e-001 1.319271e-001 1.288366e-001 1.742563e-001 1.864881e-001 1.588462e-001 1.833281e-001 1.629022e-001 1.622122e-001 1.579713e-001 1.661769e-001 1.356180e-001 1.608379e-001
<VARIANCE> 39
 5.858081e+001 3.735952e+001 5.839800e+001 7.482007e+001 9.319270e+001 5.165218e+001 9.596034e+001 5.389813e+001 6.734920e+001 4.184104e+001 6.877316e+001 3.150586e+001 8.239091e+001 3.006769e+000 2.479798e+000 2.546517e+000 4.454617e+000 5.137129e+000 3.464914e+000 5.053542e+000 3.584360e+000 3.741771e+000 3.248627e+000 3.886029e+000 2.472963e+000 3.849594e+000 4.500009e-001 4.337528e-001 4.183633e-001 7.561442e-001 8.702299e-001 6.295657e-001 8.371751e-001 6.609402e-001 6.531534e-001 6.202618e-001 6.944641e-001 4.651844e-001 6.449019e-001
<GCONST> 1.346888e+002
<MIXTURE> 2 5.000000e-001
<MEAN> 39
 -8.402003e+000 -4.512736e-001 -4.398937e-001 -8.105785e+000 -7.282630e+000 -5.775895e+000 -8.678508e+000 -3.501252e+000 -6.081596e+000 -2.126617e+000 -7.051451e+000 -2.361120e+000 6.556051e+001 -3.454141e-001 -3.155501e-001 -3.143054e-001 -4.195624e-001 -4.482138e-001 -3.682801e-001 -4.499419e-001 -3.792575e-001 -3.894177e-001 -3.648412e-001 -3.973482e-001 -3.151465e-001 -3.971415e-001 -1.345010e-001 -1.315125e-001 -1.298874e-001 -1.735699e-001 -1.866564e-001 -1.585345e-001 -1.826610e-001 -1.622907e-001 -1.610595e-001 -1.570555e-001 -1.671612e-001 -1.371997e-001 -1.603853e-001
<VARIANCE> 39
 5.858081e+001 3.735952e+001 5.839800e+001 7.482007e+001 9.319270e+001 5.165218e+001 9.596034e+001 5.389813e+001 6.734920e+001 4.184104e+001 6.877316e+001 3.150586e+001 8.239091e+001 3.006769e+000 2.479798e+000 2.546517e+000 4.454617e+000 5.137129e+000 3.464914e+000 5.053542e+000 3.584360e+000 3.741771e+000 3.248627e+000 3.886029e+000 2.472963e+000 3.849594e+000 4.500009e-001 4.337528e-001 4.183633e-001 7.561442e-001 8.702299e-001 6.295657e-001 8.371751e-001 6.609402e-001 6.531534e-001 6.202618e-001 6.944641e-001 4.651844e-001 6.449019e-001
<GCONST> 1.346888e+002
<TRANSP> 3
 0.000000e+000 1.000000e+000 0.000000e+000
 0.000000e+000 9.983748e-001 1.625203e-003
 0.000000e+000 0.000000e+000 0.000000e+000
<ENDHMM>
~h "MPCH"
<BEGINHMM>
<NUMSTATES> 3
<STATE> 2
<NUMMIXES> 2
<MIXTURE> 1 5.000000e-001
<MEAN> 39
 -4.945941e+000 -4.571245e+000 4.119081e+000 -6.398107e+000 -3.439146e+000 -3.224283e+000 -1.232653e+000 2.072545e+000 8.934574e-001 4.898242e-001 9.522954e-001 -1.005044e+000 6.733053e+001 3.814155e-001 3.710208e-001 3.154217e-001 3.999214e-001 3.891318e-001 3.352635e-001 3.918795e-001 3.388868e-001 4.299710e-001 3.095318e-001 3.206196e-001 2.704231e-001 4.149202e-001 1.423032e-001 1.487037e-001 1.269408e-001 1.605779e-001 1.568281e-001 1.402005e-001 1.611337e-001 1.461281e-001 1.762598e-001 1.343744e-001 1.337945e-001 1.173719e-001 1.655226e-001
<VARIANCE> 39
 8.293944e+001 5.406085e+001 5.671104e+001 6.343670e+001 7.134738e+001 4.050857e+001 5.705937e+001 3.610009e+001 7.314780e+001 2.950604e+001 3.600159e+001 2.451639e+001 1.190077e+002 3.651188e+000 3.297475e+000 2.529841e+000 3.864247e+000 3.732405e+000 2.680447e+000 3.722232e+000 2.916701e+000 4.632196e+000 2.381275e+000 2.546930e+000 1.849994e+000 4.551503e+000 5.069095e-001 5.538876e-001 4.023241e-001 6.430708e-001 6.146798e-001 4.903590e-001 6.436127e-001 5.325224e-001 7.772698e-001 4.515865e-001 4.470474e-001 3.451929e-001 6.859996e-001
<GCONST> 1.298494e+002
<MIXTURE> 2 5.000000e-001
<MEAN> 39
 -8.588785e+000 -7.512289e+000 1.106812e+000 -9.583993e+000 -6.817842e+000 -5.770137e+000 -4.254159e+000 -3.307891e-001 -2.527602e+000 -1.682954e+000 -1.447758e+000 -2.985605e+000 6.296690e+001 -3.829077e-001 -3.553373e-001 -3.207973e-001 -3.863861e-001 -3.836456e-001 -3.196193e-001 -3.798440e-001 -3.442473e-001 -4.309305e-001 -3.077234e-001 -3.177446e-001 -2.736349e-001 -4.384499e-001 -1.424871e-001 -1.489908e-001 -1.267753e-001 -1.601889e-001 -1.567780e-001 -1.399021e-001 -1.597682e-001 -1.457684e-001 -1.763918e-001 -1.344263e-001 -1.336519e-001 -1.176406e-001 -1.657778e-001
<VARIANCE> 39
 8.293944e+001 5.406085e+001 5.671104e+001 6.343670e+001 7.134738e+001 4.050857e+001 5.705937e+001 3.610009e+001 7.314780e+001 2.950604e+001 3.600159e+001 2.451639e+001 1.190077e+002 3.651188e+000 3.297475e+000 2.529841e+000 3.864247e+000 3.732405e+000 2.680447e+000 3.722232e+000 2.916701e+000 4.632196e+000 2.381275e+000 2.546930e+000 1.849994e+000 4.551503e+000 5.069095e-001 5.538876e-001 4.023241e-001 6.430708e-001 6.146798e-001 4.903590e-001 6.436127e-001 5.325224e-001 7.772698e-001 4.515865e-001 4.470474e-001 3.451929e-001 6.859996e-001
<GCONST> 1.298494e+002
<TRANSP> 3
 0.000000e+000 1.000000e+000 0.000000e+000
 0.000000e+000 9.984553e-001 1.544640e-003
 0.000000e+000 0.000000e+000 0.000000e+000
<ENDHMM>
~h "MVL2"
<BEGINHMM>
<NUMSTATES> 3
<STATE> 2
<NUMMIXES> 2
<MIXTURE> 1 5.000000e-001
<MEAN> 39
 -3.058527e+000 2.954318e+000 3.826915e+000 -1.813415e-001 -3.461814e+000 -6.716421e-001 -5.498629e+000 -2.579960e+000 5.399618e-001 2.246793e+000 2.949391e+000 1.392776e+000 7.408897e+001 3.375743e-001 2.813564e-001 2.876704e-001 2.975078e-001 3.830154e-001 3.802238e-001 3.642153e-001 3.606224e-001 3.326920e-001 3.128951e-001 3.066068e-001 2.943148e-001 2.828050e-001 1.216500e-001 1.132514e-001 1.139390e-001 1.237482e-001 1.595235e-001 1.526808e-001 1.513341e-001 1.525620e-001 1.404392e-001 1.337863e-001 1.351486e-001 1.255812e-001 1.081194e-001
<VARIANCE> 39
 7.630334e+001 3.629685e+001 5.325284e+001 4.597989e+001 7.208601e+001 7.740279e+001 7.205462e+001 6.395622e+001 5.265356e+001 4.028658e+001 3.345840e+001 3.878767e+001 9.047298e+001 2.852128e+000 1.924954e+000 2.077323e+000 2.208873e+000 3.634225e+000 3.546886e+000 3.313636e+000 3.283945e+000 2.804124e+000 2.448464e+000 2.368068e+000 2.211207e+000 2.024785e+000 3.685229e-001 3.217263e-001 3.243806e-001 3.853623e-001 6.372444e-001 5.852500e-001 5.749339e-001 5.831307e-001 4.922725e-001 4.473431e-001 4.554621e-001 3.934111e-001 2.917264e-001
<GCONST> 1.255050e+002
<MIXTURE> 2 5.000000e-001
<MEAN> 39
 -6.552598e+000 5.444436e-001 9.079331e-001 -2.893681e+000 -6.857954e+000 -4.190796e+000 -8.894029e+000 -5.778865e+000 -2.362549e+000 -2.920757e-001 6.356612e-001 -1.098414e+000 7.028428e+001 -3.379554e-001 -2.736145e-001 -2.888465e-001 -2.969834e-001 -3.795304e-001 -3.731033e-001 -3.639205e-001 -3.642439e-001 -3.371288e-001 -3.130076e-001 -3.089344e-001 -3.004903e-001 -2.863748e-001 -1.211743e-001 -1.136323e-001 -1.138787e-001 -1.245620e-001 -1.597869e-001 -1.533257e-001 -1.519634e-001 -1.528900e-001 -1.402093e-001 -1.337486e-001 -1.348032e-001 -1.253088e-001 -1.079274e-001
<VARIANCE> 39
 7.630334e+001 3.629685e+001 5.325284e+001 4.597989e+001 7.208601e+001 7.740279e+001 7.205462e+001 6.395622e+001 5.265356e+001 4.028658e+001 3.345840e+001 3.878767e+001 9.047298e+001 2.852128e+000 1.924954e+000 2.077323e+000 2.208873e+000 3.634225e+000 3.546886e+000 3.313636e+000 3.283945e+000 2.804124e+000 2.448464e+000 2.368068e+000 2.211207e+000 2.024785e+000 3.685229e-001 3.217263e-001 3.243806e-001 3.853623e-001 6.372444e-001 5.852500e-001 5.749339e-001 5.831307e-001 4.922725e-001 4.473431e-001 4.554621e-001 3.934111e-001 2.917264e-001
<GCONST> 1.255050e+002
<TRANSP> 3
 0.000000e+000 1.000000e+000 0.000000e+000
 0.000000e+000 9.984708e-001 1.529223e-003
 0.000000e+000 0.000000e+000 0.000000e+000
<ENDHMM>
~h "VACLAV"
<BEGINHMM>
<NUMSTATES> 3
<STATE> 2
<NUMMIXES> 2
<MIXTURE> 1 5.000000e-001
<MEAN> 39
 -6.296457e+000 3.354573e+000 4.274452e+000 3.871825e+000 3.658811e-001 5.566512e+000 -1.356010e+000 5.174510e+000 4.595840e+000 4.819988e+000 5.633417e+000 2.533096e+000 4.864484e+001 3.036917e-001 3.213071e-001 2.910267e-001 3.961704e-001 3.805775e-001 3.254664e-001 3.937272e-001 3.645177e-001 3.493786e-001 3.149974e-001 2.930810e-001 2.843615e-001 2.958997e-001 1.159473e-001 1.330989e-001 1.183128e-001 1.642178e-001 1.548111e-001 1.397973e-001 1.634501e-001 1.569137e-001 1.483553e-001 1.343297e-001 1.285540e-001 1.207664e-001 1.188441e-001
<VARIANCE> 39
 5.340786e+001 3.792661e+001 4.749817e+001 7.726401e+001 6.423382e+001 4.388210e+001 6.842957e+001 5.638996e+001 5.201621e+001 4.249184e+001 2.632236e+001 4.566847e+001 6.871889e+001 2.305293e+000 2.584836e+000 2.127359e+000 3.938073e+000 3.558708e+000 2.661850e+000 3.850259e+000 3.317994e+000 3.040483e+000 2.451596e+000 2.160605e+000 2.049411e+000 2.188902e+000 3.359941e-001 4.457267e-001 3.483530e-001 6.719154e-001 6.023752e-001 4.864673e-001 6.653461e-001 6.146280e-001 5.525593e-001 4.505173e-001 4.140718e-001 3.629338e-001 3.524859e-001
<GCONST> 1.259090e+002
<MIXTURE> 2 5.000000e-001
<MEAN> 39
 -9.219685e+000 8.911892e-001 1.517696e+000 3.558271e-001 -2.839959e+000 2.916770e+000 -4.664896e+000 2.170780e+000 1.710949e+000 2.212558e+000 3.581204e+000 -1.700420e-001 4.532896e+001 -3.036360e-001 -3.217900e-001 -2.923920e-001 -3.976128e-001 -3.740040e-001 -3.271407e-001 -3.911559e-001 -3.640968e-001 -3.481006e-001 -3.113056e-001 -2.948789e-001 -2.882690e-001 -2.958978e-001 -1.159127e-001 -1.339521e-001 -1.177730e-001 -1.636640e-001 -1.556403e-001 -1.391915e-001 -1.628249e-001 -1.566791e-001 -1.489820e-001 -1.341526e-001 -1.288397e-001 -1.202095e-001 -1.186380e-001
<VARIANCE> 39
 5.340786e+001 3.792661e+001 4.749817e+001 7.726401e+001 6.423382e+001 4.388210e+001 6.842957e+001 5.638996e+001 5.201621e+001 4.249184e+001 2.632236e+001 4.566847e+001 6.871889e+001 2.305293e+000 2.584836e+000 2.127359e+000 3.938073e+000 3.558708e+000 2.661850e+000 3.850259e+000 3.317994e+000 3.040483e+000 2.451596e+000 2.160605e+000 2.049411e+000 2.188902e+000 3.359941e-001 4.457267e-001 3.483530e-001 6.719154e-001 6.023752e-001 4.864673e-001 6.653461e-001 6.146280e-001 5.525593e-001 4.505173e-001 4.140718e-001 3.629338e-001 3.524859e-001
<GCONST> 1.259090e+002
<TRANSP> 3
 0.000000e+000 1.000000e+000 0.000000e+000
 0.000000e+000 9.973894e-001 2.610625e-003
 0.000000e+000 0.000000e+000 0.000000e+000
<ENDHMM>
~h "DUTKA"
<BEGINHMM>
<NUMSTATES> 3
<STATE> 2
<NUMMIXES> 2
<MIXTURE> 1 5.000000e-001
<MEAN> 39
 6.651136e-001 -2.780779e+000 2.652382e+000 -1.313259e+001 -9.276605e+000 -1.976600e+000 -1.216228e+001 4.178011e-001 -4.214446e+000 -3.351258e+000 -3.330038e+000 -4.040784e+000 6.293670e+001 4.000581e-001 4.499394e-001 4.230110e-001 4.650005e-001 4.409887e-001 4.420635e-001 4.418327e-001 4.504313e-001 4.138664e-001 3.649909e-001 3.409745e-001 3.213610e-001 3.844700e-001 1.443049e-001 1.815626e-001 1.677217e-001 1.949446e-001 1.850331e-001 1.836264e-001 1.897206e-001 1.905442e-001 1.798006e-001 1.611836e-001 1.516187e-001 1.404637e-001 1.380137e-001
<VARIANCE> 39
 1.326583e+002 1.002299e+002 1.288859e+002 1.117981e+002 8.356934e+001 9.594360e+001 7.430173e+001 8.433871e+001 6.727387e+001 4.447838e+001 4.355090e+001 3.547042e+001 1.324238e+002 3.906770e+000 5.253108e+000 4.545961e+000 5.522032e+000 4.785740e+000 5.049815e+000 4.962644e+000 5.139006e+000 4.394177e+000 3.368410e+000 3.028846e+000 2.613672e+000 3.493550e+000 5.216312e-001 8.224053e-001 7.027016e-001 9.454619e-001 8.535472e-001 8.444681e-001 9.050891e-001 9.082822e-001 8.121566e-001 6.495335e-001 5.731060e-001 4.918711e-001 4.781006e-001
<GCONST> 1.429735e+002
<MIXTURE> 2 5.000000e-001
<MEAN> 39
 -3.941982e+000 -6.785375e+000 -1.888735e+000 -1.736197e+001 -1.293326e+001 -5.894632e+000 -1.561022e+001 -3.255643e+000 -7.495272e+000 -6.018942e+000 -5.969762e+000 -6.423066e+000 5.833368e+001 -3.905639e-001 -4.668470e-001 -4.298394e-001 -4.749597e-001 -4.340646e-001 -4.568083e-001 -4.492470e-001 -4.563438e-001 -4.246253e-001 -3.691383e-001 -3.551688e-001 -3.253132e-001 -3.631717e-001 -1.445913e-001 -1.811837e-001 -1.675875e-001 -1.939948e-001 -1.845174e-001 -1.839534e-001 -1.908241e-001 -1.906711e-001 -1.806783e-001 -1.611910e-001 -1.511964e-001 -1.400704e-001 -1.385656e-001
<VARIANCE> 39
 1.326583e+002 1.002299e+002 1.288859e+002 1.117981e+002 8.356934e+001 9.594360e+001 7.430173e+001 8.433871e+001 6.727387e+001 4.447838e+001 4.355090e+001 3.547042e+001 1.324238e+002 3.906770e+000 5.253108e+000 4.545961e+000 5.522032e+000 4.785740e+000 5.049815e+000 4.962644e+000 5.139006e+000 4.394177e+000 3.368410e+000 3.028846e+000 2.613672e+000 3.493550e+000 5.216312e-001 8.224053e-001 7.027016e-001 9.454619e-001 8.535472e-001 8.444681e-001 9.050891e-001 9.082822e-001 8.121566e-001 6.495335e-001 5.731060e-001 4.918711e-001 4.781006e-001
<GCONST> 1.429735e+002
<TRANSP> 3
 0.000000e+000 1.000000e+000 0.000000e+000
 0.000000e+000 9.982075e-001 1.792516e-003
 0.000000e+000 0.000000e+000 0.000000e+000
<ENDHMM>
~h "BLAZEK"
<BEGINHMM>
<NUMSTATES> 3
<STATE> 2
<NUMMIXES> 2
<MIXTURE> 1 5.000000e-001
<MEAN> 39
 -5.624468e+000 -2.198962e-001 3.440314e+000 -2.535046e+000 1.985067e-001 -1.550861e+000 4.165667e-001 1.527721e-001 1.721641e+000 1.158732e+000 2.028534e+000 -5.432129e-001 6.099035e+001 3.589219e-001 3.092186e-001 3.158284e-001 3.509067e-001 3.803172e-001 3.505750e-001 4.040540e-001 3.319537e-001 3.209537e-001 2.993154e-001 2.937747e-001 2.921818e-001 3.617364e-001 1.393584e-001 1.258822e-001 1.271124e-001 1.505794e-001 1.608995e-001 1.511853e-001 1.696337e-001 1.445629e-001 1.395198e-001 1.288017e-001 1.286931e-001 1.276856e-001 1.463634e-001
<VARIANCE> 39
 7.346130e+001 3.632713e+001 5.911161e+001 4.917608e+001 4.649717e+001 5.339630e+001 5.460321e+001 3.835269e+001 3.635785e+001 2.716198e+001 2.628868e+001 3.092511e+001 1.026449e+002 3.303520e+000 2.350914e+000 2.497431e+000 3.116444e+000 3.511569e+000 3.165953e+000 3.973938e+000 2.758273e+000 2.593127e+000 2.183551e+000 2.166829e+000 2.155063e+000 3.245221e+000 4.830546e-001 3.996139e-001 3.997703e-001 5.610721e-001 6.494341e-001 5.726282e-001 7.176855e-001 5.195774e-001 4.850184e-001 4.189378e-001 4.127163e-001 4.081993e-001 5.373344e-001
<GCONST> 1.254783e+002
<MIXTURE> 2 5.000000e-001
<MEAN> 39
 -9.052851e+000 -2.630776e+000 3.649504e-001 -5.340072e+000 -2.529047e+000 -4.473773e+000 -2.539193e+000 -2.324410e+000 -6.902581e-001 -9.259543e-001 -2.236581e-002 -2.767627e+000 5.693779e+001 -3.681016e-001 -3.040891e-001 -3.163021e-001 -3.552314e-001 -3.692501e-001 -3.611500e-001 -3.933356e-001 -3.323683e-001 -3.231739e-001 -2.917583e-001 -2.950315e-001 -2.950235e-001 -3.588435e-001 -1.386502e-001 -1.269779e-001 -1.257971e-001 -1.490396e-001 -1.614504e-001 -1.515035e-001 -1.692316e-001 -1.437639e-001 -1.390533e-001 -1.300999e-001 -1.282790e-001 -1.278764e-001 -1.468490e-001
<VARIANCE> 39
 7.346130e+001 3.632713e+001 5.911161e+001 4.917608e+001 4.649717e+001 5.339630e+001 5.460321e+001 3.835269e+001 3.635785e+001 2.716198e+001 2.628868e+001 3.092511e+001 1.026449e+002 3.303520e+000 2.350914e+000 2.497431e+000 3.116444e+000 3.511569e+000 3.165953e+000 3.973938e+000 2.758273e+000 2.593127e+000 2.183551e+000 2.166829e+000 2.155063e+000 3.245221e+000 4.830546e-001 3.996139e-001 3.997703e-001 5.610721e-001 6.494341e-001 5.726282e-001 7.176855e-001 5.195774e-001 4.850184e-001 4.189378e-001 4.127163e-001 4.081993e-001 5.373344e-001
<GCONST> 1.254783e+002
<TRANSP> 3
 0.000000e+000 1.000000e+000 0.000000e+000
 0.000000e+000 9.983500e-001 1.650029e-003
 0.000000e+000 0.000000e+000 0.000000e+000
<ENDHMM>
~h "KOUNOVSKY"
<BEGINHMM>
<NUMSTATES> 3
<STATE> 2
<NUMMIXES> 2
<MIXTURE> 1 5.000000e-001
<MEAN> 39
 -5.324096e+000 -9.851930e-001 3.880807e+000 6.093472e+000 -7.737677e+000 7.227106e+000 -2.882922e+000 -2.000384e+000 -4.367517e-001 3.437538e+000 -1.277935e+000 -9.872720e-001 5.928565e+001 3.591847e-001 3.364134e-001 3.259401e-001 3.247360e-001 4.195306e-001 3.535559e-001 3.942172e-001 3.289059e-001 3.542134e-001 3.129816e-001 2.895272e-001 2.585534e-001 3.466651e-001 1.324760e-001 1.402559e-001 1.288650e-001 1.322568e-001 1.664372e-001 1.426300e-001 1.643421e-001 1.399573e-001 1.529895e-001 1.334590e-001 1.262552e-001 1.146579e-001 1.420940e-001
<VARIANCE> 39
 8.090182e+001 4.722212e+001 6.580033e+001 5.024347e+001 1.071789e+002 6.308217e+001 6.240520e+001 5.499272e+001 5.463644e+001 4.474847e+001 3.667719e+001 3.017805e+001 1.341417e+002 3.313068e+000 2.846378e+000 2.682454e+000 2.680812e+000 4.423759e+000 3.111994e+000 3.904399e+000 2.789726e+000 3.272521e+000 2.547078e+000 2.140376e+000 1.769928e+000 3.061132e+000 4.366502e-001 4.920293e-001 4.144874e-001 4.409609e-001 6.947060e-001 5.098916e-001 6.694954e-001 4.917410e-001 5.752904e-001 4.451792e-001 3.994645e-001 3.214600e-001 5.040111e-001
<GCONST> 1.290108e+002
<MIXTURE> 2 5.000000e-001
<MEAN> 39
 -8.921914e+000 -3.733927e+000 6.361110e-001 3.258166e+000 -1.187877e+001 4.050134e+000 -6.042800e+000 -4.966668e+000 -3.393410e+000 7.617661e-001 -3.700403e+000 -3.184654e+000 5.465287e+001 -3.688888e-001 -3.384351e-001 -3.291879e-001 -3.301915e-001 -4.217788e-001 -3.520779e-001 -3.961649e-001 -3.391930e-001 -3.693910e-001 -3.254010e-001 -2.956738e-001 -2.736012e-001 -3.531786e-001 -1.318420e-001 -1.403233e-001 -1.286578e-001 -1.333627e-001 -1.669589e-001 -1.429968e-001 -1.629487e-001 -1.405397e-001 -1.504021e-001 -1.334280e-001 -1.265576e-001 -1.121319e-001 -1.418810e-001
<VARIANCE> 39
 8.090182e+001 4.722212e+001 6.580033e+001 5.024347e+001 1.071789e+002 6.308217e+001 6.240520e+001 5.499272e+001 5.463644e+001 4.474847e+001 3.667719e+001 3.017805e+001 1.341417e+002 3.313068e+000 2.846378e+000 2.682454e+000 2.680812e+000 4.423759e+000 3.111994e+000 3.904399e+000 2.789726e+000 3.272521e+000 2.547078e+000 2.140376e+000 1.769928e+000 3.061132e+000 4.366502e-001 4.920293e-001 4.144874e-001 4.409609e-001 6.947060e-001 5.098916e-001 6.694954e-001 4.917410e-001 5.752904e-001 4.451792e-001 3.994645e-001 3.214600e-001 5.040111e-001
<GCONST> 1.290108e+002
<TRANSP> 3
 0.000000e+000 1.000000e+000 0.000000e+000
 0.000000e+000 9.971880e-001 2.811952e-003
 0.000000e+000 0.000000e+000 0.000000e+000
<ENDHMM>
~h "KOLAR"
<BEGINHMM>
<NUMSTATES> 3
<STATE> 2
<NUMMIXES> 2
<MIXTURE> 1 5.000000e-001
<MEAN> 39
 -3.008484e+000 3.557313e+000 -1.569723e+000 7.568087e+000 -2.205017e-001 2.988147e+000 1.613083e+000 3.765347e+000 2.659853e+000 5.728977e+000 5.470053e+000 4.781126e-001 5.927821e+001 2.600017e-001 2.155548e-001 2.727707e-001 2.280273e-001 3.241873e-001 2.760601e-001 3.262420e-001 2.827460e-001 2.741510e-001 2.494002e-001 2.518344e-001 2.688848e-001 2.482767e-001 9.525933e-002 8.987328e-002 1.125250e-001 9.431592e-002 1.306244e-001 1.155738e-001 1.343923e-001 1.190950e-001 1.160762e-001 1.054595e-001 1.095908e-001 1.111038e-001 9.875423e-002
<VARIANCE> 39
 5.280483e+001 1.924144e+001 3.147605e+001 2.233156e+001 6.705582e+001 3.897218e+001 5.238186e+001 3.536879e+001 3.510903e+001 2.422306e+001 2.280632e+001 4.833083e+001 6.339008e+001 1.700254e+000 1.152929e+000 1.843824e+000 1.285005e+000 2.592958e+000 1.892024e+000 2.658013e+000 1.982060e+000 1.860980e+000 1.528966e+000 1.580587e+000 1.803774e+000 1.565439e+000 2.256642e-001 2.026133e-001 3.165421e-001 2.233920e-001 4.265334e-001 3.377733e-001 4.498684e-001 3.566867e-001 3.364184e-001 2.787090e-001 3.036826e-001 3.100920e-001 2.422707e-001
<GCONST> 1.101296e+002
<MIXTURE> 2 5.000000e-001
<MEAN> 39
 -5.915162e+000 1.802711e+000 -3.813863e+000 5.677835e+000 -3.496006e+000 4.910389e-001 -1.281930e+000 1.386481e+000 2.897375e-001 3.760299e+000 3.559815e+000 -2.302702e+000 5.609349e+001 -2.615734e-001 -2.139433e-001 -2.703793e-001 -2.254049e-001 -3.199193e-001 -2.741434e-001 -3.258945e-001 -2.803966e-001 -2.715200e-001 -2.452052e-001 -2.510512e-001 -2.683338e-001 -2.521933e-001 -9.475718e-002 -9.017707e-002 -1.125233e-001 -9.474154e-002 -1.306137e-001 -1.168993e-001 -1.338966e-001 -1.197980e-001 -1.159302e-001 -1.057121e-001 -1.108389e-001 -1.116398e-001 -9.812978e-002
<VARIANCE> 39
 5.280483e+001 1.924144e+001 3.147605e+001 2.233156e+001 6.705582e+001 3.897218e+001 5.238186e+001 3.536879e+001 3.510903e+001 2.422306e+001 2.280632e+001 4.833083e+001 6.339008e+001 1.700254e+000 1.152929e+000 1.843824e+000 1.285005e+000 2.592958e+000 1.892024e+000 2.658013e+000 1.982060e+000 1.860980e+000 1.528966e+000 1.580587e+000 1.803774e+000 1.565439e+000 2.256642e-001 2.026133e-001 3.165421e-001 2.233920e-001 4.265334e-001 3.377733e-001 4.498684e-001 3.566867e-001 3.364184e-001 2.787090e-001 3.036826e-001 3.100920e-001 2.422707e-001
<GCONST> 1.101296e+002
<TRANSP> 3
 0.000000e+000 1.000000e+000 0.000000e+000
 0.000000e+000 9.982133e-001 1.786672e-003
 0.000000e+000 0.000000e+000 0.000000e+000
<ENDHMM>
~h "HALADAVETY"
<BEGINHMM>
<NUMSTATES> 3
<STATE> 2
<NUMMIXES> 2
<MIXTURE> 1 5.000000e-001
<MEAN> 39
 -8.606155e+000 1.741752e+000 -2.217568e+000 -4.688209e-001 -8.866018e+000 7.674872e-001 -1.055692e+001 -1.785805e+000 -3.485139e+000 -3.319283e+000 -5.004216e-001 -7.854890e-001 5.743468e+001 3.704256e-001 3.512267e-001 3.367936e-001 3.574711e-001 3.881134e-001 4.193607e-001 4.051558e-001 3.957299e-001 3.633276e-001 3.309292e-001 3.403476e-001 3.238116e-001 4.214500e-001 1.413726e-001 1.393883e-001 1.333543e-001 1.453873e-001 1.636610e-001 1.730672e-001 1.762541e-001 1.731439e-001 1.578468e-001 1.440905e-001 1.472518e-001 1.460369e-001 1.625837e-001
<VARIANCE> 39
 1.218888e+002 6.208237e+001 7.541422e+001 7.355634e+001 6.132547e+001 8.202844e+001 6.520683e+001 6.569730e+001 5.188424e+001 3.766641e+001 4.401595e+001 3.979970e+001 3.173886e+002 3.392189e+000 3.044051e+000 2.810677e+000 3.206528e+000 3.745107e+000 4.351294e+000 4.131252e+000 4.010805e+000 3.364819e+000 2.745350e+000 2.904649e+000 2.713763e+000 4.422217e+000 4.999003e-001 4.868381e-001 4.469994e-001 5.300213e-001 6.729437e-001 7.589458e-001 7.671899e-001 7.349256e-001 6.219717e-001 5.301633e-001 5.497386e-001 5.148462e-001 6.613414e-001
<GCONST> 1.359452e+002
<MIXTURE> 2 5.000000e-001
<MEAN> 39
 -1.302229e+001 -1.409943e+000 -5.691222e+000 -3.899421e+000 -1.199844e+001 -2.855295e+000 -1.378695e+001 -5.027961e+000 -6.366367e+000 -5.774202e+000 -3.154202e+000 -3.308969e+000 5.030852e+001 -3.662903e-001 -3.466617e-001 -3.338093e-001 -3.588001e-001 -3.859778e-001 -4.150295e-001 -4.078635e-001 -4.053499e-001 -3.704101e-001 -3.318347e-001 -3.413737e-001 -3.351286e-001 -4.197128e-001 -1.414419e-001 -1.397069e-001 -1.340777e-001 -1.458230e-001 -1.644716e-001 -1.754028e-001 -1.741034e-001 -1.697673e-001 -1.576140e-001 -1.471587e-001 -1.493257e-001 -1.409743e-001 -1.627079e-001
<VARIANCE> 39
 1.218888e+002 6.208237e+001 7.541422e+001 7.355634e+001 6.132547e+001 8.202844e+001 6.520683e+001 6.569730e+001 5.188424e+001 3.766641e+001 4.401595e+001 3.979970e+001 3.173886e+002 3.392189e+000 3.044051e+000 2.810677e+000 3.206528e+000 3.745107e+000 4.351294e+000 4.131252e+000 4.010805e+000 3.364819e+000 2.745350e+000 2.904649e+000 2.713763e+000 4.422217e+000 4.999003e-001 4.868381e-001 4.469994e-001 5.300213e-001 6.729437e-001 7.589458e-001 7.671899e-001 7.349256e-001 6.219717e-001 5.301633e-001 5.497386e-001 5.148462e-001 6.613414e-001
<GCONST> 1.359452e+002
<TRANSP> 3
 0.000000e+000 1.000000e+000 0.000000e+000
 0.000000e+000 9.987579e-001 1.242120e-003
 0.000000e+000 0.000000e+000 0.000000e+000
<ENDHMM>
~h "HORKYVETY"
<BEGINHMM>
<NUMSTATES> 3
<STATE> 2
<NUMMIXES> 2
<MIXTURE> 1 5.000000e-001
<MEAN> 39
 -1.487193e+001 1.631014e+000 -2.444573e+000 1.075227e+000 -6.086751e+000 3.962564e-002 -4.536954e+000 -1.308460e+000 1.509902e+000 -1.276977e+000 5.111622e+000 -1.946817e+000 4.848334e+001 3.252628e-001 2.765095e-001 2.880513e-001 3.192033e-001 3.438511e-001 3.173378e-001 3.673772e-001 3.368941e-001 3.325059e-001 3.496663e-001 3.349304e-001 2.897644e-001 4.237862e-001 1.333499e-001 1.158369e-001 1.188144e-001 1.313763e-001 1.435253e-001 1.375010e-001 1.511130e-001 1.411416e-001 1.434306e-001 1.447408e-001 1.417022e-001 1.213619e-001 1.707811e-001
<VARIANCE> 39
 7.300903e+001 2.915045e+001 6.607005e+001 5.251663e+001 4.490133e+001 5.114021e+001 4.903522e+001 5.171858e+001 3.612634e+001 4.455436e+001 4.863944e+001 3.299630e+001 2.518712e+002 2.898002e+000 1.901833e+000 2.141515e+000 2.608309e+000 2.917360e+000 2.572920e+000 3.347655e+000 2.837126e+000 2.849914e+000 2.994215e+000 2.874760e+000 2.059066e+000 4.598953e+000 4.158173e-001 3.350753e-001 3.467636e-001 4.303584e-001 5.125628e-001 4.684350e-001 5.698742e-001 4.947726e-001 5.208886e-001 5.300173e-001 5.046090e-001 3.704613e-001 7.074176e-001
<GCONST> 1.266288e+002
<MIXTURE> 2 5.000000e-001
<MEAN> 39
 -1.828975e+001 -5.286328e-001 -5.695912e+000 -1.823507e+000 -8.767089e+000 -2.820870e+000 -7.337960e+000 -4.185086e+000 -8.943059e-001 -3.946939e+000 2.321942e+000 -4.244513e+000 4.213516e+001 -3.556780e-001 -2.751184e-001 -2.973054e-001 -3.268071e-001 -3.393601e-001 -3.242752e-001 -3.644868e-001 -3.368567e-001 -3.427616e-001 -3.424858e-001 -3.432743e-001 -2.842134e-001 -4.340206e-001 -1.245857e-001 -1.157059e-001 -1.167322e-001 -1.310305e-001 -1.428486e-001 -1.362682e-001 -1.508471e-001 -1.402187e-001 -1.452598e-001 -1.464683e-001 -1.424412e-001 -1.221002e-001 -1.656514e-001
<VARIANCE> 39
 7.300903e+001 2.915045e+001 6.607005e+001 5.251663e+001 4.490133e+001 5.114021e+001 4.903522e+001 5.171858e+001 3.612634e+001 4.455436e+001 4.863944e+001 3.299630e+001 2.518712e+002 2.898002e+000 1.901833e+000 2.141515e+000 2.608309e+000 2.917360e+000 2.572920e+000 3.347655e+000 2.837126e+000 2.849914e+000 2.994215e+000 2.874760e+000 2.059066e+000 4.598953e+000 4.158173e-001 3.350753e-001 3.467636e-001 4.303584e-001 5.125628e-001 4.684350e-001 5.698742e-001 4.947726e-001 5.208886e-001 5.300173e-001 5.046090e-001 3.704613e-001 7.074176e-001
<GCONST> 1.266288e+002
<TRANSP> 3
 0.000000e+000 1.000000e+000 0.000000e+000
 0.000000e+000 9.984801e-001 1.519930e-003
 0.000000e+000 0.000000e+000 0.000000e+000
<ENDHMM>
~h "CHMELIK"
<BEGINHMM>
<NUMSTATES> 3
<STATE> 2
<NUMMIXES> 2
<MIXTURE> 1 5.000000e-001
<MEAN> 39
 -8.309106e+000 -3.898512e+000 2.893415e+000 -3.486722e+000 -3.924848e+000 -2.609046e+000 -4.490387e-001 -2.691929e-001 2.050128e+000 -1.493306e-001 9.223449e-001 -3.318817e+000 6.459541e+001 4.158352e-001 2.862117e-001 3.333763e-001 3.045936e-001 3.635728e-001 2.942951e-001 3.216332e-001 3.243738e-001 3.304249e-001 2.960474e-001 2.686366e-001 2.647815e-001 3.863814e-001 1.516327e-001 1.321976e-001 1.391123e-001 1.386355e-001 1.495629e-001 1.398377e-001 1.439222e-001 1.449886e-001 1.455750e-001 1.321986e-001 1.245231e-001 1.181843e-001 1.347674e-001
<VARIANCE> 39
 6.571331e+001 3.532263e+001 6.263862e+001 3.126987e+001 3.776124e+001 3.080282e+001 2.744158e+001 3.044822e+001 3.126200e+001 2.291103e+001 2.026414e+001 2.200653e+001 1.002576e+002 3.757214e+000 2.449544e+000 2.882276e+000 2.518578e+000 2.967907e+000 2.529725e+000 2.621217e+000 2.669967e+000 2.731612e+000 2.160475e+000 1.921768e+000 1.791862e+000 2.737431e+000 5.842812e-001 4.296623e-001 4.819037e-001 4.760968e-001 5.652574e-001 4.843495e-001 5.161171e-001 5.249233e-001 5.327425e-001 4.388582e-001 3.798204e-001 3.458073e-001 4.669438e-001
<GCONST> 1.205579e+002
<MIXTURE> 2 5.000000e-001
<MEAN> 39
 -1.155166e+001 -6.275826e+000 -2.723672e-001 -5.723500e+000 -6.382854e+000 -4.829058e+000 -2.544427e+000 -2.476389e+000 -1.863693e-001 -2.063949e+000 -8.782834e-001 -5.195261e+000 6.059026e+001 -3.595062e-001 -3.398290e-001 -3.457144e-001 -3.302076e-001 -3.255318e-001 -3.419093e-001 -3.259737e-001 -3.292275e-001 -3.306787e-001 -2.918948e-001 -2.858748e-001 -2.706603e-001 -2.754259e-001 -1.541205e-001 -1.299969e-001 -1.385648e-001 -1.373635e-001 -1.511715e-001 -1.385432e-001 -1.434430e-001 -1.448178e-001 -1.463818e-001 -1.327869e-001 -1.219952e-001 -1.170372e-001 -1.385657e-001
<VARIANCE> 39
 6.571331e+001 3.532263e+001 6.263862e+001 3.126987e+001 3.776124e+001 3.080282e+001 2.744158e+001 3.044822e+001 3.126200e+001 2.291103e+001 2.026414e+001 2.200653e+001 1.002576e+002 3.757214e+000 2.449544e+000 2.882276e+000 2.518578e+000 2.967907e+000 2.529725e+000 2.621217e+000 2.669967e+000 2.731612e+000 2.160475e+000 1.921768e+000 1.791862e+000 2.737431e+000 5.842812e-001 4.296623e-001 4.819037e-001 4.760968e-001 5.652574e-001 4.843495e-001 5.161171e-001 5.249233e-001 5.327425e-001 4.388582e-001 3.798204e-001 3.458073e-001 4.669438e-001
<GCONST> 1.205579e+002
<TRANSP> 3
 0.000000e+000 1.000000e+000 0.000000e+000
 0.000000e+000 9.983341e-001 1.665884e-003
 0.000000e+000 0.000000e+000 0.000000e+000
<ENDHMM>
~h "VACEKVETY"
<BEGINHMM>
<NUMSTATES> 3
<STATE> 2
<NUMMIXES> 2
<MIXTURE> 1 5.000000e-001
<MEAN> 39
 -4.446923e+000 2.787313e+000 6.156768e-001 2.421975e-002 -2.281850e+000 -1.455279e+000 -4.794302e+000 -3.418003e+000 -2.361209e+000 4.545205e+000 -2.544110e+000 -1.363223e+000 5.647842e+001 4.200750e-001 3.631815e-001 3.691587e-001 3.795169e-001 3.763530e-001 4.073595e-001 4.229458e-001 4.346444e-001 4.182770e-001 3.757881e-001 3.279181e-001 3.275512e-001 3.424560e-001 1.514731e-001 1.465527e-001 1.414048e-001 1.558278e-001 1.554912e-001 1.666106e-001 1.834065e-001 1.847683e-001 1.768911e-001 1.605590e-001 1.416871e-001 1.460397e-001 1.342942e-001
<VARIANCE> 39
 1.779546e+002 5.254233e+001 1.009875e+002 6.577703e+001 6.250175e+001 9.107674e+001 6.066801e+001 7.910477e+001 7.074769e+001 5.251716e+001 4.023806e+001 3.836978e+001 2.619439e+002 4.365997e+000 3.287050e+000 3.434712e+000 3.627386e+000 3.523493e+000 4.144362e+000 4.493463e+000 4.764318e+000 4.390997e+000 3.502091e+000 2.655063e+000 2.746081e+000 2.909145e+000 5.712697e-001 5.365909e-001 5.036674e-001 6.089970e-001 6.120842e-001 7.008073e-001 8.289933e-001 8.353224e-001 7.769222e-001 6.570770e-001 5.067670e-001 5.187764e-001 4.503531e-001
<GCONST> 1.382097e+002
<MIXTURE> 2 5.000000e-001
<MEAN> 39
 -9.782908e+000 -1.121308e-001 -3.404025e+000 -3.219902e+000 -5.444172e+000 -5.272645e+000 -7.909890e+000 -6.975637e+000 -5.725675e+000 1.646456e+000 -5.081450e+000 -3.840957e+000 5.000455e+001 -4.157237e-001 -3.620274e-001 -3.721604e-001 -3.823110e-001 -3.744859e-001 -4.069487e-001 -4.249658e-001 -4.384483e-001 -4.199113e-001 -3.727669e-001 -3.238565e-001 -3.353010e-001 -3.397927e-001 -1.508565e-001 -1.464568e-001 -1.424733e-001 -1.563253e-001 -1.574521e-001 -1.682463e-001 -1.807898e-001 -1.808156e-001 -1.756817e-001 -1.636821e-001 -1.430632e-001 -1.420648e-001 -1.341392e-001
<VARIANCE> 39
 1.779546e+002 5.254233e+001 1.009875e+002 6.577703e+001 6.250175e+001 9.107674e+001 6.066801e+001 7.910477e+001 7.074769e+001 5.251716e+001 4.023806e+001 3.836978e+001 2.619439e+002 4.365997e+000 3.287050e+000 3.434712e+000 3.627386e+000 3.523493e+000 4.144362e+000 4.493463e+000 4.764318e+000 4.390997e+000 3.502091e+000 2.655063e+000 2.746081e+000 2.909145e+000 5.712697e-001 5.365909e-001 5.036674e-001 6.089970e-001 6.120842e-001 7.008073e-001 8.289933e-001 8.353224e-001 7.769222e-001 6.570770e-001 5.067670e-001 5.187764e-001 4.503531e-001
<GCONST> 1.382097e+002
<TRANSP> 3
 0.000000e+000 1.000000e+000 0.000000e+000
 0.000000e+000 9.981127e-001 1.887237e-003
 0.000000e+000 0.000000e+000 0.000000e+000
<ENDHMM>
~h "DVORSKY"
<BEGINHMM>
<NUMSTATES> 3
<STATE> 2
<NUMMIXES> 2
<MIXTURE> 1 5.000000e-001
<MEAN> 39
 -3.729989e+000 3.869096e+000 6.248339e+000 2.043611e+000 3.243486e+000 9.435487e-001 1.598411e+000 2.477367e+000 1.303672e+000 4.621296e+000 2.585550e+000 4.663002e-001 6.116373e+001 3.495735e-001 2.999841e-001 3.200900e-001 3.799554e-001 3.328575e-001 3.462999e-001 3.564905e-001 3.487201e-001 3.687494e-001 3.104157e-001 2.981826e-001 2.841558e-001 3.557499e-001 1.365181e-001 1.253419e-001 1.266888e-001 1.570300e-001 1.408802e-001 1.457832e-001 1.519246e-001 1.532031e-001 1.581060e-001 1.359368e-001 1.305545e-001 1.239823e-001 1.450651e-001
<VARIANCE> 39
 5.697140e+001 3.835532e+001 5.615876e+001 5.691096e+001 3.997599e+001 5.196206e+001 4.410213e+001 3.746053e+001 4.461707e+001 2.909573e+001 3.063030e+001 2.822395e+001 1.391544e+002 3.059269e+000 2.245700e+000 2.564901e+000 3.616452e+000 2.777153e+000 2.966885e+000 3.164520e+000 3.046086e+000 3.395221e+000 2.418309e+000 2.236387e+000 2.027337e+000 3.183449e+000 4.667592e-001 3.932084e-001 3.998573e-001 6.158404e-001 4.982020e-001 5.321538e-001 5.767403e-001 5.824715e-001 6.287675e-001 4.624412e-001 4.211207e-001 3.836102e-001 5.257221e-001
<GCONST> 1.254394e+002
<MIXTURE> 2 5.000000e-001
<MEAN> 39
 -6.749165e+000 1.391829e+000 3.250773e+000 -9.739631e-001 7.144237e-001 -1.939840e+000 -1.057967e+000 2.916694e-002 -1.368168e+000 2.463678e+000 3.717641e-001 -1.658748e+000 5.644518e+001 -3.500572e-001 -2.994423e-001 -3.205223e-001 -3.807234e-001 -3.337342e-001 -3.426860e-001 -3.550735e-001 -3.494015e-001 -3.682956e-001 -3.116208e-001 -2.999996e-001 -2.853825e-001 -3.579390e-001 -1.367610e-001 -1.254835e-001 -1.262483e-001 -1.568720e-001 -1.414535e-001 -1.460122e-001 -1.518491e-001 -1.520762e-001 -1.590734e-001 -1.360753e-001 -1.290208e-001 -1.237628e-001 -1.449617e-001
<VARIANCE> 39
 5.697140e+001 3.835532e+001 5.615876e+001 5.691096e+001 3.997599e+001 5.196206e+001 4.410213e+001 3.746053e+001 4.461707e+001 2.909573e+001 3.063030e+001 2.822395e+001 1.391544e+002 3.059269e+000 2.245700e+000 2.564901e+000 3.616452e+000 2.777153e+000 2.966885e+000 3.164520e+000 3.046086e+000 3.395221e+000 2.418309e+000 2.236387e+000 2.027337e+000 3.183449e+000 4.667592e-001 3.932084e-001 3.998573e-001 6.158404e-001 4.982020e-001 5.321538e-001 5.767403e-001 5.824715e-001 6.287675e-001 4.624412e-001 4.211207e-001 3.836102e-001 5.257221e-001
<GCONST> 1.254394e+002
<TRANSP> 3
 0.000000e+000 1.000000e+000 0.000000e+000
 0.000000e+000 9.980264e-001 1.973652e-003
 0.000000e+000 0.000000e+000 0.000000e+000
<ENDHMM>
~h "POLACEKVETY"
<BEGINHMM>
<NUMSTATES> 3
<STATE> 2
<NUMMIXES> 2
<MIXTURE> 1 5.000000e-001
<MEAN> 39
 -5.853363e+000 1.761875e+000 2.450256e+000 3.491396e-001 -8.074381e+000 1.091875e+000 -8.248721e+000 9.275176e-001 -7.485340e-001 1.013882e+000 4.995763e-003 -3.208148e+000 5.391897e+001 3.859254e-001 3.239419e-001 3.278191e-001 3.245181e-001 3.805114e-001 3.288502e-001 3.364978e-001 3.149265e-001 3.059062e-001 2.890218e-001 2.695914e-001 2.733510e-001 3.400181e-001 1.361981e-001 1.310357e-001 1.250327e-001 1.394949e-001 1.537120e-001 1.373622e-001 1.470858e-001 1.401822e-001 1.339937e-001 1.235909e-001 1.186700e-001 1.207295e-001 1.290018e-001
<VARIANCE> 39
 8.772120e+001 4.459118e+001 7.893509e+001 4.163935e+001 6.536729e+001 5.285200e+001 4.636790e+001 3.478933e+001 3.763694e+001 2.735100e+001 2.472566e+001 3.070973e+001 1.333998e+002 3.483480e+000 2.550960e+000 2.568494e+000 2.714435e+000 3.524151e+000 2.681734e+000 2.894843e+000 2.562306e+000 2.408960e+000 2.042278e+000 1.861288e+000 1.939234e+000 2.599242e+000 4.618146e-001 4.294870e-001 3.905534e-001 4.846258e-001 5.946248e-001 4.774951e-001 5.337812e-001 4.775492e-001 4.483453e-001 3.885307e-001 3.568088e-001 3.497938e-001 4.178846e-001
<GCONST> 1.236416e+002
<MIXTURE> 2 5.000000e-001
<MEAN> 39
 -9.599747e+000 -9.091898e-001 -1.103561e+000 -2.232003e+000 -1.130838e+001 -1.816100e+000 -1.097248e+001 -1.431782e+000 -3.202492e+000 -1.078045e+000 -1.984000e+000 -5.424802e+000 4.929901e+001 -3.606379e-001 -3.149272e-001 -3.132418e-001 -3.345036e-001 -3.703975e-001 -3.261898e-001 -3.440717e-001 -3.253617e-001 -3.149268e-001 -2.826113e-001 -2.761247e-001 -2.836745e-001 -3.048685e-001 -1.356297e-001 -1.311053e-001 -1.249444e-001 -1.389654e-001 -1.547357e-001 -1.390419e-001 -1.451555e-001 -1.362375e-001 -1.338406e-001 -1.257380e-001 -1.202639e-001 -1.158440e-001 -1.295742e-001
<VARIANCE> 39
 8.772120e+001 4.459118e+001 7.893509e+001 4.163935e+001 6.536729e+001 5.285200e+001 4.636790e+001 3.478933e+001 3.763694e+001 2.735100e+001 2.472566e+001 3.070973e+001 1.333998e+002 3.483480e+000 2.550960e+000 2.568494e+000 2.714435e+000 3.524151e+000 2.681734e+000 2.894843e+000 2.562306e+000 2.408960e+000 2.042278e+000 1.861288e+000 1.939234e+000 2.599242e+000 4.618146e-001 4.294870e-001 3.905534e-001 4.846258e-001 5.946248e-001 4.774951e-001 5.337812e-001 4.775492e-001 4.483453e-001 3.885307e-001 3.568088e-001 3.497938e-001 4.178846e-001
<GCONST> 1.236416e+002
<TRANSP> 3
 0.000000e+000 1.000000e+000 0.000000e+000
 0.000000e+000 9.988280e-001 1.171989e-003
 0.000000e+000 0.000000e+000 0.000000e+000
<ENDHMM>
