~o
<STREAMINFO> 1 39
<VECSIZE> 39<NULLD><MFCC_D_A_0><DIAGC>
~h "MJ"
<BEGINHMM>
<NUMSTATES> 3
<STATE> 2
<MEAN> 39
 -7.774971e+000 -2.201854e+000 -9.671772e-001 -8.297502e+000 -8.109420e+000 -7.334513e+000 -9.800787e+000 -2.957373e+000 -1.542026e+000 2.717142e+000 -6.928990e-001 -3.303879e+000 6.414555e+001 1.316213e-003 1.646030e-004 3.014193e-004 4.518114e-004 1.891814e-004 6.522407e-004 1.634650e-003 6.530609e-004 -1.723398e-003 8.458786e-005 -1.972581e-003 1.161883e-003 -6.254208e-004 -2.908270e-005 8.896196e-005 1.788414e-004 -4.276967e-004 -2.760350e-004 -1.122348e-005 -4.504612e-004 -5.153279e-005 -2.507757e-005 -4.169724e-004 -6.554565e-005 -1.644166e-005 1.064014e-004
<VARIANCE> 39
 6.259862e+001 3.238240e+001 7.475003e+001 4.524378e+001 5.160582e+001 6.031103e+001 6.756979e+001 3.986133e+001 5.139749e+001 3.205851e+001 3.319730e+001 2.981159e+001 6.545749e+001 3.058270e+000 2.021078e+000 2.825908e+000 2.870788e+000 3.169631e+000 3.178122e+000 3.977348e+000 2.987474e+000 3.323746e+000 2.224492e+000 2.343097e+000 2.125089e+000 2.359265e+000 4.386364e-001 3.528346e-001 4.252567e-001 4.980683e-001 5.510042e-001 5.440785e-001 6.788208e-001 5.584255e-001 5.937485e-001 4.179605e-001 4.363366e-001 3.917755e-001 3.826005e-001
<GCONST> 1.252960e+002
<TRANSP> 3
 0.000000e+000 1.000000e+000 0.000000e+000
 0.000000e+000 9.983178e-001 1.682227e-003
 0.000000e+000 0.000000e+000 0.000000e+000
<ENDHMM>
~h "PB"
<BEGINHMM>
<NUMSTATES> 3
<STATE> 2
<MEAN> 39
 -5.921769e+000 2.348191e+000 2.378877e+000 -2.580936e+000 -6.527084e+000 -4.157469e-001 -5.008376e+000 1.581808e+000 1.240874e+000 4.840611e-001 1.064663e+000 -3.375448e+000 6.167831e+001 2.710932e-004 2.051275e-004 2.812433e-004 2.849382e-004 3.073892e-004 -7.989872e-004 -8.022945e-004 3.091629e-004 -3.703488e-005 -1.147191e-003 2.305261e-004 5.660711e-004 4.097460e-006 3.993388e-004 -6.312846e-005 -3.104442e-004 -4.531391e-004 6.602277e-005 -1.096317e-005 -2.608191e-004 1.251256e-004 -1.352759e-004 3.983992e-005 2.502438e-004 5.938723e-004 -3.827063e-005
<VARIANCE> 39
 5.533044e+001 4.336887e+001 6.051918e+001 4.005616e+001 6.769116e+001 4.141940e+001 6.472443e+001 3.607727e+001 3.191739e+001 2.566142e+001 2.325900e+001 3.779654e+001 9.102728e+001 2.735127e+000 2.617700e+000 2.645096e+000 2.745383e+000 3.523327e+000 2.606391e+000 3.396738e+000 2.869727e+000 2.462569e+000 2.084074e+000 2.042597e+000 2.395216e+000 2.453885e+000 4.136008e-001 4.275401e-001 4.114942e-001 4.809018e-001 6.153606e-001 4.651916e-001 6.157449e-001 5.362723e-001 4.650244e-001 4.085589e-001 3.975788e-001 4.384215e-001 3.861346e-001
<GCONST> 1.234418e+002
<TRANSP> 3
 0.000000e+000 1.000000e+000 0.000000e+000
 0.000000e+000 9.985216e-001 1.478415e-003
 0.000000e+000 0.000000e+000 0.000000e+000
<ENDHMM>
~h "TOMAS"
<BEGINHMM>
<NUMSTATES> 3
<STATE> 2
<MEAN> 39
 -5.940384e+000 3.869515e+000 5.265212e+000 -8.968083e-001 -9.926335e-001 -3.215040e+000 -1.378232e+000 -6.690796e-001 -1.066140e-001 7.590446e-001 2.732604e+000 2.134240e+000 6.210475e+001 -2.652725e-003 5.953741e-003 1.250612e-003 5.682331e-004 1.351582e-003 -9.973475e-004 1.820351e-003 -5.034734e-003 -6.817480e-003 6.814197e-003 1.186420e-003 -5.489154e-003 8.214655e-004 -6.618617e-004 5.054727e-004 -6.203216e-004 1.177391e-003 -2.461112e-003 1.039688e-003 -1.193987e-003 8.334495e-004 -4.225480e-004 2.669407e-004 6.809453e-004 -3.039062e-004 5.201927e-005
<VARIANCE> 39
 5.958051e+001 3.318547e+001 5.124164e+001 5.328108e+001 6.016138e+001 5.444284e+001 5.736085e+001 4.588315e+001 4.649897e+001 3.483583e+001 2.836200e+001 2.199534e+001 6.632787e+001 2.501137e+000 1.831775e+000 2.149543e+000 2.600851e+000 3.540553e+000 3.240912e+000 3.115230e+000 2.578665e+000 2.934459e+000 2.273691e+000 2.044971e+000 1.804286e+000 2.022361e+000 3.479931e-001 2.985582e-001 3.463596e-001 4.157230e-001 6.198474e-001 5.788239e-001 5.683873e-001 4.729689e-001 5.281532e-001 4.347941e-001 3.834702e-001 3.508218e-001 3.020679e-001
<GCONST> 1.216282e+002
<TRANSP> 3
 0.000000e+000 1.000000e+000 0.000000e+000
 0.000000e+000 9.971837e-001 2.816306e-003
 0.000000e+000 0.000000e+000 0.000000e+000
<ENDHMM>
~h "CERNY"
<BEGINHMM>
<NUMSTATES> 3
<STATE> 2
<MEAN> 39
 -1.030080e+001 -1.444933e+000 -1.219333e+000 -4.194049e+000 -4.796782e+000 -2.997644e+000 -5.746426e+000 -2.881052e-001 1.164048e+000 9.496422e-001 -2.441847e-001 -1.009198e+000 6.407771e+001 -8.799102e-004 2.159146e-004 8.265785e-005 -9.686702e-006 2.142213e-004 -8.405878e-004 -1.581226e-003 1.339874e-003 -1.446395e-003 2.357093e-005 -2.501454e-003 9.603772e-004 -2.927188e-004 1.237963e-005 -2.598001e-004 2.005842e-004 -2.535651e-005 -2.099668e-004 -1.857715e-004 -4.339052e-004 -2.570913e-004 -3.635321e-005 -1.849280e-004 3.857084e-004 -1.718655e-005 -4.466925e-005
<VARIANCE> 39
 1.967444e+001 2.070933e+001 3.027858e+001 4.110316e+001 3.748243e+001 2.969394e+001 5.310762e+001 2.815257e+001 2.688962e+001 2.489017e+001 1.660460e+001 2.238321e+001 2.083137e+001 9.464058e-001 1.284421e+000 1.349624e+000 1.964771e+000 2.201753e+000 1.881966e+000 2.938170e+000 2.175839e+000 2.129988e+000 1.914603e+000 1.470205e+000 1.480841e+000 7.134782e-001 1.390421e-001 2.100360e-001 2.134477e-001 3.224691e-001 3.888653e-001 3.505867e-001 5.413309e-001 4.135080e-001 4.039031e-001 3.627122e-001 2.904106e-001 2.755273e-001 1.183627e-001
<GCONST> 1.046130e+002
<TRANSP> 3
 0.000000e+000 1.000000e+000 0.000000e+000
 0.000000e+000 9.985551e-001 1.444878e-003
 0.000000e+000 0.000000e+000 0.000000e+000
<ENDHMM>
~h "ZSS2"
<BEGINHMM>
<NUMSTATES> 3
<STATE> 2
<MEAN> 39
 -6.534394e+000 2.506983e+000 1.782365e+000 -2.657061e+000 -8.183734e-001 -1.161757e+000 -1.294738e-001 -2.675081e-001 -9.590615e-001 2.400954e+000 -2.504812e+000 1.570227e+000 6.407675e+001 3.233893e-003 -1.958462e-004 -6.971047e-005 2.468569e-003 1.995544e-003 2.702202e-003 -4.544005e-004 -3.030650e-003 9.093044e-004 -2.366179e-004 -3.184607e-004 -6.006103e-004 -3.772146e-003 1.469742e-004 1.880197e-004 1.397000e-004 -7.910210e-004 -3.864116e-004 -3.334986e-004 -4.288960e-004 -4.529468e-004 -5.916590e-004 2.043777e-004 2.282055e-004 7.247235e-005 1.072439e-004
<VARIANCE> 39
 6.644233e+001 3.917074e+001 4.620528e+001 6.686698e+001 8.392397e+001 5.097267e+001 6.633514e+001 4.336074e+001 6.432980e+001 3.248625e+001 7.522500e+001 2.497625e+001 7.216279e+001 3.901909e+000 2.694735e+000 2.544793e+000 4.115807e+000 4.824497e+000 3.525636e+000 3.676136e+000 2.937163e+000 3.841215e+000 2.872908e+000 4.198651e+000 2.023442e+000 3.521180e+000 6.037217e-001 4.753980e-001 4.318600e-001 6.857287e-001 8.282154e-001 6.499911e-001 6.221688e-001 5.454530e-001 6.628959e-001 5.548197e-001 7.203981e-001 3.925865e-001 5.976320e-001
<GCONST> 1.321360e+002
<TRANSP> 3
 0.000000e+000 1.000000e+000 0.000000e+000
 0.000000e+000 9.983138e-001 1.686199e-003
 0.000000e+000 0.000000e+000 0.000000e+000
<ENDHMM>
~h "SMOLA"
<BEGINHMM>
<NUMSTATES> 3
<STATE> 2
<MEAN> 39
 -6.404390e+000 -1.977952e-001 8.682926e-001 -2.102137e+000 -3.150344e+000 -2.369636e+000 -6.000844e+000 3.039742e+000 -4.169894e+000 2.458388e-003 3.935374e+000 -3.592483e+000 5.949413e+001 3.001206e-004 4.136587e-003 1.137721e-002 -1.284767e-002 9.112582e-003 2.099994e-003 8.076160e-003 -2.316494e-002 -2.639367e-002 -8.322434e-003 -7.354697e-003 -4.670586e-003 1.460747e-002 -1.518445e-003 -1.021121e-003 6.334240e-004 -1.092640e-003 1.357178e-003 5.174409e-004 -5.193921e-004 2.476007e-004 -3.181220e-005 3.900869e-004 -1.542078e-003 -1.773208e-003 1.071555e-003
<VARIANCE> 39
 6.428666e+001 6.554183e+001 4.461993e+001 7.366154e+001 5.677859e+001 6.306382e+001 7.540482e+001 4.523059e+001 7.267435e+001 3.332198e+001 2.803681e+001 3.982333e+001 1.433783e+002 3.257391e+000 3.675147e+000 2.472937e+000 3.797866e+000 3.156804e+000 3.568652e+000 4.337688e+000 3.235690e+000 4.717187e+000 2.418594e+000 2.265459e+000 2.377724e+000 5.067755e+000 4.707566e-001 5.839906e-001 4.129877e-001 6.374512e-001 5.691649e-001 6.516105e-001 7.746127e-001 6.133121e-001 8.589726e-001 4.547132e-001 4.352657e-001 4.289600e-001 8.037345e-001
<GCONST> 1.325426e+002
<TRANSP> 3
 0.000000e+000 1.000000e+000 0.000000e+000
 0.000000e+000 9.965732e-001 3.426764e-003
 0.000000e+000 0.000000e+000 0.000000e+000
<ENDHMM>
~h "NOZICKA"
<BEGINHMM>
<NUMSTATES> 3
<STATE> 2
<MEAN> 39
 -1.510374e+001 -9.147704e+000 7.407661e+000 -9.448911e+000 -3.154266e+000 1.360557e+000 -4.576862e+000 -5.172409e-001 2.960751e-001 -2.711989e+000 3.472814e+000 -2.583915e+000 5.462843e+001 2.594638e-005 -2.167597e-003 -1.082135e-003 -1.535061e-003 5.370615e-003 5.844273e-004 -2.379060e-003 -1.592945e-003 -1.522326e-003 4.610460e-003 1.991413e-003 1.634096e-004 2.110996e-003 -6.891338e-004 1.314937e-003 2.882073e-003 9.526289e-004 5.429097e-004 -8.948993e-004 -1.601584e-003 -3.422557e-004 -2.159974e-003 -1.078235e-003 5.641206e-004 1.563898e-005 -5.312379e-004
<VARIANCE> 39
 1.230302e+002 1.370605e+002 2.126775e+002 1.585332e+002 1.132745e+002 1.100041e+002 8.547274e+001 6.853796e+001 7.319186e+001 5.231174e+001 4.542790e+001 3.477176e+001 4.666865e+002 3.241254e+000 4.287182e+000 3.965415e+000 4.972907e+000 5.780253e+000 5.208309e+000 5.023546e+000 3.639380e+000 4.644234e+000 3.189174e+000 2.973763e+000 2.169142e+000 4.704352e+000 4.418946e-001 6.433748e-001 6.191466e-001 8.194910e-001 9.670643e-001 8.362583e-001 8.440096e-001 6.280076e-001 7.884749e-001 5.824122e-001 5.375853e-001 4.009220e-001 6.443856e-001
<GCONST> 1.441989e+002
<TRANSP> 3
 0.000000e+000 1.000000e+000 0.000000e+000
 0.000000e+000 9.975101e-001 2.489944e-003
 0.000000e+000 0.000000e+000 0.000000e+000
<ENDHMM>
~h "DAVID"
<BEGINHMM>
<NUMSTATES> 3
<STATE> 2
<MEAN> 39
 -1.076552e+001 1.616918e+000 1.073005e+000 -4.015504e+000 -1.290851e+000 -2.647596e+000 -1.884684e+000 -6.682337e-001 -3.837871e+000 6.368845e-001 -8.457446e-001 -2.395395e+000 7.016457e+001 -2.839416e-004 -1.387717e-003 6.780009e-004 1.527890e-003 2.748912e-004 2.098619e-003 1.726946e-003 -2.032296e-003 -2.828974e-003 -4.533801e-003 -1.698470e-003 1.576886e-003 -2.713688e-004 1.561034e-004 -3.238396e-004 -2.446821e-005 -2.650722e-004 -6.318213e-004 -9.345487e-004 -7.498985e-005 9.679390e-004 -2.575121e-004 -4.806739e-004 -4.741451e-004 7.225798e-004 -1.885820e-004
<VARIANCE> 39
 6.492235e+001 2.752888e+001 5.279932e+001 4.997365e+001 3.792054e+001 3.106339e+001 4.536549e+001 3.890626e+001 5.887457e+001 2.374527e+001 2.714561e+001 2.577634e+001 7.168126e+001 3.040493e+000 1.702003e+000 2.152985e+000 3.226103e+000 2.344926e+000 2.312878e+000 3.159874e+000 3.127124e+000 3.747284e+000 2.192862e+000 2.080917e+000 1.768717e+000 2.151603e+000 4.162543e-001 2.862481e-001 3.220048e-001 5.486154e-001 4.026254e-001 4.247316e-001 5.567246e-001 5.925776e-001 6.544954e-001 4.273431e-001 3.949474e-001 3.219945e-001 3.522099e-001
<GCONST> 1.202799e+002
<TRANSP> 3
 0.000000e+000 1.000000e+000 0.000000e+000
 0.000000e+000 9.973117e-001 2.688353e-003
 0.000000e+000 0.000000e+000 0.000000e+000
<ENDHMM>
~h "JAN"
<BEGINHMM>
<NUMSTATES> 3
<STATE> 2
<MEAN> 39
 -8.293610e+000 -6.644726e+000 2.737695e+000 -3.399338e+000 -1.231869e+001 2.009818e+000 -5.584357e-001 -2.801757e+000 -1.635362e+000 3.209729e+000 -6.905478e+000 -6.357306e+000 5.006155e+001 -5.988810e-004 -1.479647e-003 -6.663096e-004 -1.340937e-004 1.621876e-003 -9.376165e-004 -4.800632e-004 -3.944179e-004 -2.513792e-004 -3.641491e-004 -2.229153e-003 1.947487e-003 1.522050e-004 1.483077e-004 -2.333391e-004 -2.030502e-004 1.360075e-004 7.602471e-005 2.739075e-004 -3.169294e-004 2.441139e-004 -9.179171e-004 -7.757143e-004 1.403720e-004 7.867882e-004 1.471658e-004
<VARIANCE> 39
 2.492030e+001 2.981288e+001 7.509936e+001 3.177994e+001 4.568131e+001 3.969272e+001 7.999287e+001 5.875899e+001 3.065078e+001 2.889575e+001 1.979757e+001 1.953966e+001 3.313794e+001 8.087357e-001 1.326451e+000 1.955594e+000 1.738967e+000 2.071281e+000 1.832996e+000 2.958145e+000 2.430245e+000 1.861831e+000 1.814034e+000 1.499689e+000 1.327192e+000 7.698289e-001 1.137972e-001 1.975132e-001 2.785294e-001 2.913338e-001 3.425727e-001 3.099799e-001 4.833920e-001 4.104086e-001 3.282874e-001 3.283307e-001 2.884724e-001 2.424963e-001 1.012701e-001
<GCONST> 1.071691e+002
<TRANSP> 3
 0.000000e+000 1.000000e+000 0.000000e+000
 0.000000e+000 9.973017e-001 2.698327e-003
 0.000000e+000 0.000000e+000 0.000000e+000
<ENDHMM>
~h "MAR"
<BEGINHMM>
<NUMSTATES> 3
<STATE> 2
<MEAN> 39
 -5.442928e+000 1.933241e+000 4.041708e+000 6.388364e-001 -9.373177e-001 -1.056317e+000 -3.389193e-001 -1.845344e+000 2.171407e+000 -1.925576e+000 4.851687e+000 -2.483822e+000 6.930337e+001 6.168370e-004 5.572192e-004 7.039366e-004 9.750199e-004 -3.030600e-004 -1.679181e-003 -3.207055e-004 -1.119255e-003 -1.014928e-003 -7.216163e-004 -1.115803e-003 -8.541105e-004 -2.713297e-004 -1.506822e-005 1.121988e-004 -1.001129e-004 8.140573e-005 1.484841e-004 3.217382e-004 -1.965559e-004 -7.373964e-004 -6.879408e-004 6.903485e-005 -7.677217e-005 -2.109949e-004 7.300740e-005
<VARIANCE> 39
 7.701522e+001 4.739395e+001 6.215534e+001 5.690213e+001 7.317590e+001 5.563113e+001 5.835587e+001 4.710909e+001 3.930731e+001 4.871814e+001 2.996155e+001 4.493381e+001 1.090630e+002 4.074098e+000 3.076143e+000 2.852017e+000 4.157494e+000 4.376616e+000 4.103686e+000 3.613009e+000 3.416617e+000 2.864182e+000 3.186423e+000 2.800478e+000 3.078857e+000 5.063587e+000 5.864360e-001 5.164001e-001 4.521177e-001 7.328708e-001 7.567824e-001 7.656962e-001 6.506892e-001 6.326948e-001 5.366199e-001 5.723629e-001 5.588037e-001 5.548832e-001 8.542375e-001
<GCONST> 1.338848e+002
<TRANSP> 3
 0.000000e+000 1.000000e+000 0.000000e+000
 0.000000e+000 9.984556e-001 1.544402e-003
 0.000000e+000 0.000000e+000 0.000000e+000
<ENDHMM>
~h "MJB"
<BEGINHMM>
<NUMSTATES> 3
<STATE> 2
<MEAN> 39
 -5.327196e+000 8.172362e-002 2.366966e+000 9.032799e-001 -3.288711e+000 1.440882e+000 -6.297228e+000 2.032989e-001 -2.799388e+000 -1.305853e+000 -1.967659e+000 -8.696907e-001 6.523443e+001 -3.195172e-003 1.795813e-003 -4.066577e-003 -7.280572e-004 1.214105e-003 2.673687e-003 7.253745e-003 3.169318e-003 1.964639e-003 4.484481e-003 4.999495e-004 7.022791e-004 -1.325006e-003 3.076280e-004 6.658286e-005 -1.602018e-004 -4.939134e-004 -3.004861e-005 -2.766754e-004 -9.634646e-004 -6.145161e-004 3.906188e-004 2.786756e-004 2.850778e-004 3.304017e-004 1.552802e-004
<VARIANCE> 39
 8.354802e+001 4.420932e+001 5.277102e+001 4.192094e+001 7.611540e+001 5.663052e+001 6.085857e+001 4.720133e+001 4.790410e+001 2.997767e+001 3.304540e+001 2.570553e+001 7.841997e+001 3.555992e+000 2.504978e+000 2.102279e+000 2.584307e+000 4.385063e+000 3.502850e+000 3.080958e+000 2.883938e+000 2.943420e+000 2.050154e+000 2.259492e+000 1.610192e+000 2.367522e+000 5.353153e-001 4.202980e-001 3.545528e-001 4.541112e-001 7.549188e-001 6.230158e-001 5.653219e-001 5.398560e-001 5.528544e-001 3.954185e-001 4.234752e-001 3.107502e-001 3.904240e-001
<GCONST> 1.252996e+002
<TRANSP> 3
 0.000000e+000 1.000000e+000 0.000000e+000
 0.000000e+000 9.982883e-001 1.711742e-003
 0.000000e+000 0.000000e+000 0.000000e+000
<ENDHMM>
~h "MJL"
<BEGINHMM>
<NUMSTATES> 3
<STATE> 2
<MEAN> 39
 -4.131944e+000 8.451789e-002 1.297518e+000 2.100276e+000 -3.240563e+000 -4.629922e-001 1.782596e+000 1.240097e+000 2.340856e+000 4.895666e+000 5.378949e+000 1.613678e+000 5.251648e+001 -2.367101e-003 3.425070e-003 1.605893e-003 3.793441e-003 4.216768e-003 4.343666e-003 4.461749e-003 3.563315e-003 3.084579e-003 1.693328e-003 2.858279e-003 2.294393e-003 -6.586957e-003 1.318861e-003 -1.321543e-003 -2.799382e-004 -1.517096e-003 -1.582776e-003 -1.713715e-003 -2.054948e-003 -1.185287e-003 -4.442561e-004 -1.125825e-003 -1.459932e-003 -1.374766e-003 2.334807e-003
<VARIANCE> 39
 8.682426e+001 4.740270e+001 4.729663e+001 4.142317e+001 9.673649e+001 6.477030e+001 4.702060e+001 6.521576e+001 4.445071e+001 2.765820e+001 2.406759e+001 3.611423e+001 1.294462e+002 3.777999e+000 3.000621e+000 2.043406e+000 2.324164e+000 4.253088e+000 2.620821e+000 2.438172e+000 3.585325e+000 2.519501e+000 1.985447e+000 1.859717e+000 1.830860e+000 2.112363e+000 5.610375e-001 5.290148e-001 3.297469e-001 4.179722e-001 7.658324e-001 4.704324e-001 4.568786e-001 6.557471e-001 4.655986e-001 3.826853e-001 3.652442e-001 3.362853e-001 3.619144e-001
<GCONST> 1.249834e+002
<TRANSP> 3
 0.000000e+000 1.000000e+000 0.000000e+000
 0.000000e+000 9.984567e-001 1.543268e-003
 0.000000e+000 0.000000e+000 0.000000e+000
<ENDHMM>
~h "MKK"
<BEGINHMM>
<NUMSTATES> 3
<STATE> 2
<MEAN> 39
 -5.678687e+000 -1.407151e+000 5.221904e+000 -7.168370e+000 -8.937272e-002 -3.509805e+000 -3.458404e-002 2.324418e+000 2.176543e+000 7.774436e-001 -1.447928e+000 -1.150366e+000 6.118603e+001 -4.992722e-004 1.157886e-003 1.468926e-003 2.550675e-003 2.498681e-003 1.818944e-003 2.536374e-003 1.285099e-003 2.180132e-003 9.515535e-004 2.561391e-003 4.688714e-004 -1.823521e-003 -2.127496e-004 4.145899e-005 4.738330e-004 2.257247e-004 -3.385275e-004 -2.810994e-004 -2.261326e-005 -2.756725e-005 -1.246311e-004 2.936183e-004 9.432623e-005 9.687187e-005 5.663252e-005
<VARIANCE> 39
 6.911524e+001 3.295731e+001 5.448241e+001 7.811230e+001 3.531896e+001 4.116356e+001 4.367586e+001 3.277079e+001 4.727976e+001 3.033674e+001 3.316638e+001 1.850860e+001 8.874657e+001 3.177482e+000 2.271665e+000 2.332419e+000 4.592799e+000 2.434736e+000 2.561183e+000 3.074677e+000 2.687319e+000 3.440473e+000 2.343395e+000 2.402227e+000 1.623654e+000 3.310481e+000 4.540617e-001 4.028390e-001 3.790146e-001 7.868004e-001 4.595876e-001 4.692639e-001 5.650993e-001 5.204869e-001 6.318524e-001 4.575067e-001 4.443859e-001 3.193168e-001 5.318323e-001
<GCONST> 1.239304e+002
<TRANSP> 3
 0.000000e+000 1.000000e+000 0.000000e+000
 0.000000e+000 9.987468e-001 1.253211e-003
 0.000000e+000 0.000000e+000 0.000000e+000
<ENDHMM>
~h "MMS"
<BEGINHMM>
<NUMSTATES> 3
<STATE> 2
<MEAN> 39
 -5.615384e+000 1.682823e+000 5.484205e+000 -4.540924e-001 -1.540332e+000 1.165904e+000 -1.164863e+000 -1.402446e+000 3.308597e+000 -4.251593e-001 3.903417e+000 -8.385413e-001 6.659547e+001 9.093630e-004 2.400460e-004 -8.633245e-005 -1.790072e-005 8.010666e-004 -5.332305e-004 6.278302e-004 5.604933e-004 -1.432421e-003 5.274640e-005 1.395388e-003 5.052659e-005 -9.937150e-004 2.645491e-004 -2.602898e-004 -2.090417e-004 -1.886747e-004 2.400144e-004 2.576996e-004 -1.863829e-005 3.985436e-004 -7.205593e-005 -1.503565e-004 -5.568567e-004 -2.713297e-004 8.600974e-005
<VARIANCE> 39
 8.528441e+001 3.961519e+001 5.802110e+001 5.112983e+001 8.049358e+001 5.293409e+001 6.590878e+001 5.750482e+001 4.648948e+001 3.964332e+001 2.802358e+001 3.906671e+001 8.317983e+001 4.943610e+000 3.023734e+000 3.014166e+000 3.670311e+000 5.006498e+000 3.370459e+000 3.856566e+000 3.647230e+000 3.392610e+000 3.266170e+000 2.649386e+000 2.694999e+000 3.787731e+000 7.031972e-001 5.437441e-001 4.730847e-001 6.597276e-001 8.328731e-001 5.981817e-001 6.711758e-001 6.458077e-001 6.098923e-001 5.951101e-001 5.226120e-001 4.908115e-001 6.680989e-001
<GCONST> 1.331779e+002
<TRANSP> 3
 0.000000e+000 1.000000e+000 0.000000e+000
 0.000000e+000 9.981932e-001 1.806810e-003
 0.000000e+000 0.000000e+000 0.000000e+000
<ENDHMM>
~h "MOS"
<BEGINHMM>
<NUMSTATES> 3
<STATE> 2
<MEAN> 39
 -6.558000e+000 -2.483033e+000 3.193616e+000 -6.093580e+000 -3.956952e+000 -6.304904e+000 -3.190388e+000 1.216185e-001 1.920943e+000 3.995637e-001 1.388110e+000 -3.188535e+000 5.869438e+001 3.003943e-004 4.916785e-004 -1.565180e-004 -4.857111e-004 -9.470221e-005 -1.228113e-003 1.463474e-003 -1.118325e-003 4.860830e-004 -8.360350e-004 -2.236005e-003 -8.589653e-004 9.498549e-004 -1.272422e-004 2.238534e-004 2.701819e-004 2.456723e-004 2.217847e-004 -2.981856e-004 -5.400444e-004 -2.518138e-004 -5.666409e-004 5.347853e-005 5.169492e-004 -6.342695e-005 -1.356848e-004
<VARIANCE> 39
 7.372176e+001 3.915297e+001 5.077792e+001 4.805314e+001 5.319691e+001 4.649880e+001 5.330608e+001 3.915090e+001 4.652012e+001 3.378355e+001 3.552061e+001 3.750301e+001 8.211726e+001 3.357630e+000 2.701737e+000 2.267617e+000 3.149505e+000 3.358928e+000 2.983060e+000 3.109754e+000 3.112262e+000 3.298326e+000 2.899879e+000 2.642082e+000 2.525164e+000 2.810881e+000 4.589141e-001 4.741319e-001 3.659260e-001 5.460243e-001 5.946961e-001 5.511373e-001 5.529333e-001 5.815765e-001 5.795022e-001 5.635818e-001 4.927873e-001 4.503685e-001 4.470106e-001
<GCONST> 1.269841e+002
<TRANSP> 3
 0.000000e+000 1.000000e+000 0.000000e+000
 0.000000e+000 9.984926e-001 1.507387e-003
 0.000000e+000 0.000000e+000 0.000000e+000
<ENDHMM>
~h "MPM"
<BEGINHMM>
<NUMSTATES> 3
<STATE> 2
<MEAN> 39
 -7.964110e+000 3.756207e+000 3.171848e+000 2.006653e+000 -2.964893e+000 -7.010719e-001 -3.506169e+000 -5.598155e-001 -1.389944e+000 1.645831e+000 1.120292e+000 -1.584963e+000 6.460371e+001 4.808880e-004 2.773468e-003 -1.335528e-003 -1.298574e-003 2.012555e-003 2.660223e-003 7.471085e-004 -1.082195e-003 8.857161e-004 3.151758e-003 1.364434e-003 -5.230776e-004 -2.770961e-003 -7.034934e-005 -2.287748e-004 -4.628317e-005 -5.611414e-005 -2.524916e-004 -1.739499e-004 -6.011339e-004 -4.894636e-005 -9.099056e-005 -9.936142e-005 1.583643e-004 5.982306e-004 9.401771e-005
<VARIANCE> 39
 7.056218e+001 4.489065e+001 6.952517e+001 4.096189e+001 6.830020e+001 6.103976e+001 7.067924e+001 5.665877e+001 4.963360e+001 4.272345e+001 3.133524e+001 3.933977e+001 8.156558e+001 3.145795e+000 2.331865e+000 3.172223e+000 2.768018e+000 4.120604e+000 3.290516e+000 3.499151e+000 3.885918e+000 3.252173e+000 2.848758e+000 2.555578e+000 2.439479e+000 2.325846e+000 4.367954e-001 4.092348e-001 5.146307e-001 5.137488e-001 7.560806e-001 5.992823e-001 6.639639e-001 7.261605e-001 6.195807e-001 5.409002e-001 5.077899e-001 4.557186e-001 3.987216e-001
<GCONST> 1.297338e+002
<TRANSP> 3
 0.000000e+000 1.000000e+000 0.000000e+000
 0.000000e+000 9.985227e-001 1.477323e-003
 0.000000e+000 0.000000e+000 0.000000e+000
<ENDHMM>
~h "MPS"
<BEGINHMM>
<NUMSTATES> 3
<STATE> 2
<MEAN> 39
 -5.411889e+000 -1.158470e+000 4.800555e+000 -1.844637e+000 -2.434661e+000 5.525860e-001 -1.886188e+000 -1.018975e+000 1.429976e+000 1.038265e+000 2.728948e+000 -8.218881e-001 6.655228e+001 6.737628e-004 3.595249e-004 1.087563e-003 2.519113e-004 6.242312e-004 -5.349210e-004 -2.000275e-004 -6.091676e-004 -1.208027e-003 5.058235e-004 5.568990e-004 -5.276575e-004 -9.491566e-004 -9.497136e-005 1.274691e-004 -2.120634e-005 1.571092e-004 9.191417e-005 -1.784611e-006 2.308946e-005 -3.479318e-004 -2.314223e-004 3.454889e-004 1.340047e-004 3.168669e-004 -1.636226e-004
<VARIANCE> 39
 9.790816e+001 4.723882e+001 7.416154e+001 5.502162e+001 6.573634e+001 4.311351e+001 6.163580e+001 4.338685e+001 5.471650e+001 2.834049e+001 2.821961e+001 2.648992e+001 1.038786e+002 4.900506e+000 3.132735e+000 3.168466e+000 3.390606e+000 3.511984e+000 2.694690e+000 3.250635e+000 2.956700e+000 3.229046e+000 2.070413e+000 1.961080e+000 1.634811e+000 3.386978e+000 6.852979e-001 5.399355e-001 4.867959e-001 5.767023e-001 6.027161e-001 4.784588e-001 5.849890e-001 5.523969e-001 5.749509e-001 3.912907e-001 3.708093e-001 3.095420e-001 5.530636e-001
<GCONST> 1.278921e+002
<TRANSP> 3
 0.000000e+000 1.000000e+000 0.000000e+000
 0.000000e+000 9.983956e-001 1.604428e-003
 0.000000e+000 0.000000e+000 0.000000e+000
<ENDHMM>
~h "MVL"
<BEGINHMM>
<NUMSTATES> 3
<STATE> 2
<MEAN> 39
 -6.588220e+000 -3.571745e-001 2.040202e+000 -2.446141e-001 -6.706347e+000 1.684897e+000 -4.150607e+000 -1.714527e+000 9.958703e-001 2.162395e+000 -2.638755e+000 -1.879069e+000 6.953230e+001 -1.099052e-004 8.931878e-004 2.446689e-004 1.363460e-003 -3.528003e-004 -5.741491e-004 -1.199819e-003 -2.594754e-003 -1.944895e-003 1.943393e-003 -4.197410e-003 -1.942709e-003 1.119186e-003 1.137668e-003 -1.999192e-004 -3.461876e-004 -3.222160e-004 -3.584151e-005 -2.207570e-004 -1.322326e-003 4.965505e-005 -8.145572e-004 1.252101e-004 -2.849797e-004 -3.510909e-004 -2.524128e-004
<VARIANCE> 39
 7.529306e+001 4.926511e+001 7.166800e+001 4.224189e+001 1.014108e+002 5.507084e+001 7.824068e+001 6.060185e+001 4.557906e+001 3.053961e+001 3.033262e+001 3.574387e+001 1.180594e+002 4.223471e+000 3.619909e+000 3.502595e+000 2.824548e+000 6.305603e+000 3.958953e+000 4.561176e+000 3.709054e+000 3.568509e+000 2.569725e+000 2.405644e+000 2.297684e+000 3.748904e+000 6.463225e-001 6.177455e-001 5.599490e-001 5.030090e-001 1.118822e+000 7.410594e-001 8.590811e-001 7.027689e-001 6.821574e-001 5.057364e-001 4.692827e-001 4.324395e-001 6.537955e-001
<GCONST> 1.343521e+002
<TRANSP> 3
 0.000000e+000 1.000000e+000 0.000000e+000
 0.000000e+000 9.980396e-001 1.960400e-003
 0.000000e+000 0.000000e+000 0.000000e+000
<ENDHMM>
~h "ZLG"
<BEGINHMM>
<NUMSTATES> 3
<STATE> 2
<MEAN> 39
 -6.502096e+000 2.301999e+000 -2.239545e+000 -2.244828e+000 -5.371601e+000 -4.048025e+000 -6.878175e+000 -6.207825e+000 -4.563142e+000 -2.856875e+000 -5.373363e+000 -3.445512e+000 6.515646e+001 -9.380599e-004 3.897121e-003 -1.364336e-003 1.573487e-003 3.317324e-003 -2.575963e-003 1.985193e-003 -7.307823e-004 1.502272e-006 -2.595065e-004 3.277124e-003 -3.671141e-003 -1.719423e-003 5.371896e-004 8.624428e-005 8.425146e-005 -5.132706e-004 -6.711447e-004 -4.845671e-004 3.437956e-004 -4.664783e-006 -1.103787e-003 -1.248909e-003 -8.283944e-004 -5.118571e-004 2.012704e-004
<VARIANCE> 39
 5.837488e+001 3.801556e+001 5.279352e+001 4.144646e+001 6.699866e+001 4.740874e+001 6.469486e+001 5.477196e+001 4.950704e+001 3.906621e+001 4.262520e+001 3.730266e+001 6.055259e+001 2.934988e+000 2.264452e+000 2.514003e+000 2.598912e+000 3.805135e+000 2.878128e+000 3.251325e+000 3.020404e+000 2.740492e+000 2.603635e+000 2.379284e+000 2.155196e+000 2.252045e+000 4.559981e-001 4.012084e-001 4.228332e-001 4.593724e-001 6.682389e-001 5.368264e-001 5.868494e-001 5.575399e-001 4.951527e-001 5.003610e-001 4.439285e-001 4.084384e-001 3.912553e-001
<GCONST> 1.256913e+002
<TRANSP> 3
 0.000000e+000 1.000000e+000 0.000000e+000
 0.000000e+000 9.981495e-001 1.850481e-003
 0.000000e+000 0.000000e+000 0.000000e+000
<ENDHMM>
~h "ZLR"
<BEGINHMM>
<NUMSTATES> 3
<STATE> 2
<MEAN> 39
 -6.118823e+000 2.110132e+000 1.708075e+000 -4.280806e+000 6.597884e-001 -4.468430e+000 2.143354e-001 -5.041606e+000 -1.332817e+000 -1.886023e+000 -1.677140e+000 -6.489973e-001 6.678573e+001 2.219199e-003 -4.885979e-004 1.158703e-003 8.785286e-005 1.350923e-003 -7.598673e-004 -5.207895e-005 4.670565e-005 -1.324966e-003 -5.890966e-005 -1.147278e-003 9.401528e-004 -1.639930e-003 4.218005e-005 -1.401439e-004 1.190744e-004 -9.432658e-005 -3.007394e-004 -4.621308e-004 -9.160378e-004 -6.111969e-004 -2.349533e-006 6.193516e-005 -3.979948e-005 5.078649e-004 1.951188e-004
<VARIANCE> 39
 5.246926e+001 4.460122e+001 5.008040e+001 1.006724e+002 6.167842e+001 7.471013e+001 5.295976e+001 7.712023e+001 5.438338e+001 4.527880e+001 5.971702e+001 3.216524e+001 9.511880e+001 3.377245e+000 3.234554e+000 2.675361e+000 6.935598e+000 3.718904e+000 4.818695e+000 3.400043e+000 5.273884e+000 3.144936e+000 3.121867e+000 3.282737e+000 2.163014e+000 4.488720e+000 5.430216e-001 5.648097e-001 4.616903e-001 1.193457e+000 6.742256e-001 8.676164e-001 6.307222e-001 9.695374e-001 5.651671e-001 5.792989e-001 5.580396e-001 4.074639e-001 7.915906e-001
<GCONST> 1.358285e+002
<TRANSP> 3
 0.000000e+000 1.000000e+000 0.000000e+000
 0.000000e+000 9.984344e-001 1.565619e-003
 0.000000e+000 0.000000e+000 0.000000e+000
<ENDHMM>
~h "ZNM"
<BEGINHMM>
<NUMSTATES> 3
<STATE> 2
<MEAN> 39
 -8.699347e+000 -2.535221e+000 2.554497e+000 -7.733680e+000 -2.740010e+000 -1.145262e+001 3.897772e+000 -3.821330e+000 -1.239438e+000 3.215420e-001 -7.574056e-001 -2.547410e+000 6.242001e+001 9.231473e-005 2.005010e-003 -1.482022e-004 6.508423e-004 4.133738e-003 3.503456e-003 -2.254770e-003 -2.519491e-003 3.774755e-004 2.519565e-004 -1.755419e-003 9.445455e-004 -2.935967e-003 -4.343913e-005 1.608149e-004 2.044687e-004 -1.990188e-004 -4.081704e-004 -2.482095e-004 -2.183595e-004 -1.737216e-004 2.397801e-005 2.213952e-004 2.626207e-004 1.778520e-004 2.117581e-004
<VARIANCE> 39
 7.046287e+001 3.830582e+001 7.205312e+001 8.108271e+001 5.040956e+001 1.015626e+002 4.235339e+001 6.235499e+001 7.058834e+001 3.107574e+001 4.813601e+001 3.781389e+001 1.029233e+002 3.111612e+000 2.195599e+000 2.700158e+000 4.091221e+000 2.603118e+000 5.349395e+000 2.529438e+000 3.649380e+000 3.858452e+000 2.464073e+000 2.632677e+000 2.266459e+000 4.267909e+000 4.234688e-001 3.810513e-001 4.262164e-001 6.312110e-001 4.484455e-001 8.325352e-001 4.616569e-001 6.218609e-001 6.489979e-001 4.674621e-001 4.560094e-001 3.957060e-001 6.769501e-001
<GCONST> 1.305084e+002
<TRANSP> 3
 0.000000e+000 1.000000e+000 0.000000e+000
 0.000000e+000 9.989859e-001 1.014070e-003
 0.000000e+000 0.000000e+000 0.000000e+000
<ENDHMM>
~h "ZSS"
<BEGINHMM>
<NUMSTATES> 3
<STATE> 2
<MEAN> 39
 -6.324173e+000 2.321723e+000 2.084518e+000 -2.844096e+000 -1.313455e+000 7.804635e-001 -5.768777e-001 1.154191e+000 -1.841400e+000 2.160367e+000 -1.096675e+000 2.014018e+000 5.518355e+001 -1.963323e-003 1.933901e-003 6.453319e-004 3.509691e-003 3.167809e-003 -9.260697e-005 1.798327e-003 -8.352651e-005 -5.541846e-004 -1.413063e-003 -6.376888e-004 2.389916e-003 -2.015517e-003 1.235003e-003 -6.085991e-004 -4.226759e-004 -9.381467e-004 1.126362e-004 -5.891807e-005 -5.664121e-004 -4.378934e-004 2.351419e-004 -2.970112e-005 -3.422074e-004 6.874114e-005 3.209904e-005
<VARIANCE> 39
 7.065047e+001 4.361202e+001 5.298414e+001 6.872665e+001 7.995505e+001 4.864634e+001 7.933344e+001 4.929617e+001 7.502271e+001 3.627755e+001 7.669299e+001 2.679562e+001 8.065465e+001 4.086139e+000 3.311133e+000 2.778851e+000 4.575081e+000 5.074158e+000 3.622636e+000 4.526546e+000 3.529546e+000 4.604407e+000 3.171393e+000 4.446145e+000 1.995166e+000 4.159273e+000 6.262817e-001 6.006396e-001 4.613493e-001 7.788637e-001 8.795104e-001 6.655080e-001 7.729101e-001 6.490949e-001 7.792988e-001 6.135967e-001 7.631174e-001 3.827946e-001 7.144262e-001
<GCONST> 1.359633e+002
<TRANSP> 3
 0.000000e+000 1.000000e+000 0.000000e+000
 0.000000e+000 9.983050e-001 1.694987e-003
 0.000000e+000 0.000000e+000 0.000000e+000
<ENDHMM>
~h "ZTK"
<BEGINHMM>
<NUMSTATES> 3
<STATE> 2
<MEAN> 39
 -6.997274e+000 -4.645081e+000 3.811986e+000 -1.058235e+001 -4.028483e+000 -6.936718e+000 -2.907697e+000 1.031633e+000 -2.358804e+000 -9.015417e-001 -3.704619e+000 -1.483556e+000 6.496332e+001 3.712133e-003 4.396032e-003 2.013801e-003 3.902644e-003 3.996404e-003 5.953830e-003 2.612405e-003 8.050552e-006 3.780288e-003 1.220390e-003 1.966015e-003 -5.986675e-004 -5.695665e-003 1.346811e-004 5.225050e-004 1.555371e-004 5.192321e-004 4.531465e-004 1.288137e-003 3.315974e-004 9.797700e-004 1.406729e-004 -2.817940e-004 -2.102424e-004 1.335127e-004 -5.418599e-004
<VARIANCE> 39
 7.054971e+001 7.757984e+001 5.664712e+001 1.110093e+002 6.848262e+001 5.771902e+001 7.299475e+001 5.181002e+001 7.552750e+001 3.789630e+001 6.492126e+001 2.873430e+001 9.893326e+001 3.759767e+000 4.567771e+000 2.939784e+000 7.447492e+000 3.897230e+000 3.902416e+000 4.439536e+000 4.145187e+000 4.470981e+000 3.243689e+000 3.888031e+000 2.094371e+000 6.105017e+000 5.641559e-001 7.258695e-001 4.904945e-001 1.169769e+000 6.574274e-001 6.862116e-001 7.456777e-001 7.773346e-001 7.323047e-001 6.282570e-001 6.550295e-001 3.937835e-001 9.985280e-001
<GCONST> 1.388585e+002
<TRANSP> 3
 0.000000e+000 1.000000e+000 0.000000e+000
 0.000000e+000 9.985621e-001 1.437894e-003
 0.000000e+000 0.000000e+000 0.000000e+000
<ENDHMM>
~h "ZTV"
<BEGINHMM>
<NUMSTATES> 3
<STATE> 2
<MEAN> 39
 -6.871241e+000 7.711722e-001 1.088477e+000 -6.375809e+000 -5.351904e+000 -4.338505e+000 -6.719327e+000 -2.032943e+000 -4.440259e+000 -8.329245e-001 -5.392869e+000 -1.238519e+000 6.737588e+001 1.386681e-003 -6.026463e-004 4.850767e-003 2.556897e-003 5.090886e-003 4.005584e-003 -3.401295e-004 -6.093776e-004 -2.544507e-003 -4.362221e-003 -3.087970e-003 -6.333995e-004 -4.733921e-003 -3.368311e-004 2.072934e-004 -5.253984e-004 3.431719e-004 -8.414194e-005 1.559042e-004 3.335645e-004 3.057510e-004 5.763488e-004 4.579122e-004 -4.921312e-004 -7.908697e-004 2.263102e-004
<VARIANCE> 39
 5.858062e+001 3.735950e+001 5.839783e+001 7.481996e+001 9.319316e+001 5.165240e+001 9.596018e+001 5.389805e+001 6.734913e+001 4.184121e+001 6.877303e+001 3.150592e+001 8.239168e+001 3.006783e+000 2.479805e+000 2.546514e+000 4.454604e+000 5.137115e+000 3.464907e+000 5.053543e+000 3.584349e+000 3.741754e+000 3.248631e+000 3.886028e+000 2.472973e+000 3.849599e+000 4.500040e-001 4.337531e-001 4.183641e-001 7.561451e-001 8.702293e-001 6.295631e-001 8.371758e-001 6.609415e-001 6.531559e-001 6.202620e-001 6.944628e-001 4.651849e-001 6.449018e-001
<GCONST> 1.346888e+002
<TRANSP> 3
 0.000000e+000 1.000000e+000 0.000000e+000
 0.000000e+000 9.983748e-001 1.625203e-003
 0.000000e+000 0.000000e+000 0.000000e+000
<ENDHMM>
~h "MPCH"
<BEGINHMM>
<NUMSTATES> 3
<STATE> 2
<MEAN> 39
 -6.767361e+000 -6.041781e+000 2.612947e+000 -7.991037e+000 -5.128495e+000 -4.497211e+000 -2.743404e+000 8.708830e-001 -8.170721e-001 -5.965672e-001 -2.477324e-001 -1.995326e+000 6.514871e+001 -7.460750e-004 7.841728e-003 -2.687804e-003 6.767665e-003 2.743078e-003 7.822093e-003 6.017711e-003 -2.680257e-003 -4.797494e-004 9.042553e-004 1.437512e-003 -1.605865e-003 -1.176492e-002 -9.198101e-005 -1.435621e-004 8.273226e-005 1.945270e-004 2.505900e-005 1.492377e-004 6.827251e-004 1.798880e-004 -6.604114e-005 -2.595821e-005 7.134381e-005 -1.343253e-004 -1.275853e-004
<VARIANCE> 39
 8.293932e+001 5.406084e+001 5.671099e+001 6.343665e+001 7.134779e+001 4.050864e+001 5.705931e+001 3.610024e+001 7.314763e+001 2.950586e+001 3.600144e+001 2.451645e+001 1.190083e+002 3.651206e+000 3.297487e+000 2.529847e+000 3.864249e+000 3.732404e+000 2.680447e+000 3.722228e+000 2.916709e+000 4.632188e+000 2.381263e+000 2.546936e+000 1.849998e+000 4.551492e+000 5.069074e-001 5.538844e-001 4.023238e-001 6.430742e-001 6.146801e-001 4.903583e-001 6.436101e-001 5.325226e-001 7.772719e-001 4.515875e-001 4.470456e-001 3.451928e-001 6.860004e-001
<GCONST> 1.298493e+002
<TRANSP> 3
 0.000000e+000 1.000000e+000 0.000000e+000
 0.000000e+000 9.984553e-001 1.544640e-003
 0.000000e+000 0.000000e+000 0.000000e+000
<ENDHMM>
~h "MVL2"
<BEGINHMM>
<NUMSTATES> 3
<STATE> 2
<MEAN> 39
 -4.805572e+000 1.749387e+000 2.367424e+000 -1.537507e+000 -5.159884e+000 -2.431219e+000 -7.196319e+000 -4.179410e+000 -9.112940e-001 9.773566e-001 1.792524e+000 1.471831e-001 7.218660e+001 -1.905469e-004 3.870927e-003 -5.880238e-004 2.622180e-004 1.742447e-003 3.560275e-003 1.474030e-004 -1.810749e-003 -2.218399e-003 -5.623473e-005 -1.163805e-003 -3.087741e-003 -1.784955e-003 2.378292e-004 -1.904775e-004 3.010669e-005 -4.069099e-004 -1.316875e-004 -3.224589e-004 -3.146502e-004 -1.639478e-004 1.149138e-004 1.885651e-005 1.727136e-004 1.361709e-004 9.601422e-005
<VARIANCE> 39
 7.630341e+001 3.629681e+001 5.325317e+001 4.598010e+001 7.208611e+001 7.740298e+001 7.205462e+001 6.395614e+001 5.265390e+001 4.028641e+001 3.345863e+001 3.878762e+001 9.047291e+001 2.852138e+000 1.924967e+000 2.077322e+000 2.208864e+000 3.634221e+000 3.546884e+000 3.313645e+000 3.283935e+000 2.804130e+000 2.448458e+000 2.368073e+000 2.211207e+000 2.024782e+000 3.685238e-001 3.217241e-001 3.243799e-001 3.853612e-001 6.372465e-001 5.852509e-001 5.749337e-001 5.831268e-001 4.922697e-001 4.473448e-001 4.554620e-001 3.934110e-001 2.917266e-001
<GCONST> 1.255050e+002
<TRANSP> 3
 0.000000e+000 1.000000e+000 0.000000e+000
 0.000000e+000 9.984708e-001 1.529223e-003
 0.000000e+000 0.000000e+000 0.000000e+000
<ENDHMM>
~h "VACLAV"
<BEGINHMM>
<NUMSTATES> 3
<STATE> 2
<MEAN> 39
 -7.758071e+000 2.122885e+000 2.896079e+000 2.113816e+000 -1.237040e+000 4.241622e+000 -3.010451e+000 3.672632e+000 3.153399e+000 3.516274e+000 4.607323e+000 1.181533e+000 4.698690e+001 2.783941e-005 -2.414858e-004 -6.826825e-004 -7.211785e-004 3.286708e-003 -8.371239e-004 1.285610e-003 2.104807e-004 6.389952e-004 1.845914e-003 -8.989573e-004 -1.953750e-003 9.907108e-007 1.731937e-005 -4.266000e-004 2.698908e-004 2.769354e-004 -4.146007e-004 3.029208e-004 3.126317e-004 1.173253e-004 -3.133632e-004 8.854654e-005 -1.428495e-004 2.784474e-004 1.030108e-004
<VARIANCE> 39
 5.340780e+001 3.792660e+001 4.749846e+001 7.726404e+001 6.423380e+001 4.388216e+001 6.842951e+001 5.639004e+001 5.201623e+001 4.249187e+001 2.632227e+001 4.566838e+001 6.871782e+001 2.305299e+000 2.584836e+000 2.127362e+000 3.938066e+000 3.558695e+000 2.661848e+000 3.850263e+000 3.317997e+000 3.040476e+000 2.451595e+000 2.160602e+000 2.049410e+000 2.188903e+000 3.359932e-001 4.457275e-001 3.483509e-001 6.719117e-001 6.023749e-001 4.864688e-001 6.653445e-001 6.146278e-001 5.525610e-001 4.505177e-001 4.140720e-001 3.629345e-001 3.524857e-001
<GCONST> 1.259089e+002
<TRANSP> 3
 0.000000e+000 1.000000e+000 0.000000e+000
 0.000000e+000 9.973894e-001 2.610625e-003
 0.000000e+000 0.000000e+000 0.000000e+000
<ENDHMM>
~h "DUTKA"
<BEGINHMM>
<NUMSTATES> 3
<STATE> 2
<MEAN> 39
 -1.638433e+000 -4.783074e+000 3.818251e-001 -1.524729e+001 -1.110492e+001 -3.935616e+000 -1.388625e+001 -1.418924e+000 -5.854868e+000 -4.685110e+000 -4.649908e+000 -5.231915e+000 6.063519e+001 4.747105e-003 -8.453864e-003 -3.414180e-003 -4.979546e-003 3.462008e-003 -7.372341e-003 -3.707183e-003 -2.956261e-003 -5.379444e-003 -2.073688e-003 -7.097195e-003 -1.976153e-003 1.064911e-002 -1.431878e-004 1.894433e-004 6.713811e-005 4.749307e-004 2.578355e-004 -1.635409e-004 -5.517107e-004 -6.344459e-005 -4.388582e-004 -3.720762e-006 2.111892e-004 1.966912e-004 -2.759713e-004
<VARIANCE> 39
 1.326584e+002 1.002297e+002 1.288862e+002 1.117977e+002 8.356909e+001 9.594390e+001 7.430128e+001 8.433872e+001 6.727409e+001 4.447822e+001 4.355139e+001 3.547058e+001 1.324237e+002 3.906755e+000 5.253121e+000 4.545961e+000 5.522028e+000 4.785731e+000 5.049825e+000 4.962653e+000 5.138999e+000 4.394183e+000 3.368409e+000 3.028852e+000 2.613652e+000 3.493562e+000 5.216291e-001 8.224058e-001 7.027001e-001 9.454622e-001 8.535482e-001 8.444681e-001 9.050870e-001 9.082767e-001 8.121545e-001 6.495354e-001 5.731047e-001 4.918702e-001 4.781005e-001
<GCONST> 1.429735e+002
<TRANSP> 3
 0.000000e+000 1.000000e+000 0.000000e+000
 0.000000e+000 9.982075e-001 1.792516e-003
 0.000000e+000 0.000000e+000 0.000000e+000
<ENDHMM>
~h "BLAZEK"
<BEGINHMM>
<NUMSTATES> 3
<STATE> 2
<MEAN> 39
 -7.338661e+000 -1.425333e+000 1.902633e+000 -3.937560e+000 -1.165273e+000 -3.012315e+000 -1.061314e+000 -1.085819e+000 5.156870e-001 1.163904e-001 1.003081e+000 -1.655420e+000 5.896408e+001 -4.589828e-003 2.564743e-003 -2.368843e-004 -2.162320e-003 5.533567e-003 -5.287501e-003 5.359187e-003 -2.073201e-004 -1.110081e-003 3.778543e-003 -6.284385e-004 -1.420924e-003 1.446503e-003 3.540856e-004 -5.478708e-004 6.576556e-004 7.698957e-004 -2.754699e-004 -1.590657e-004 2.010075e-004 3.994847e-004 2.332638e-004 -6.490615e-004 2.070718e-004 -9.538831e-005 -2.428090e-004
<VARIANCE> 39
 7.346106e+001 3.632715e+001 5.911158e+001 4.917632e+001 4.649685e+001 5.339627e+001 5.460295e+001 3.835264e+001 3.635793e+001 2.716189e+001 2.628856e+001 3.092513e+001 1.026451e+002 3.303532e+000 2.350908e+000 2.497421e+000 3.116465e+000 3.511556e+000 3.165941e+000 3.973907e+000 2.758273e+000 2.593127e+000 2.183549e+000 2.166823e+000 2.155057e+000 3.245228e+000 4.830529e-001 3.996124e-001 3.997690e-001 5.610728e-001 6.494371e-001 5.726284e-001 7.176867e-001 5.195783e-001 4.850160e-001 4.189383e-001 4.127158e-001 4.082010e-001 5.373307e-001
<GCONST> 1.254783e+002
<TRANSP> 3
 0.000000e+000 1.000000e+000 0.000000e+000
 0.000000e+000 9.983500e-001 1.650029e-003
 0.000000e+000 0.000000e+000 0.000000e+000
<ENDHMM>
~h "KOUNOVSKY"
<BEGINHMM>
<NUMSTATES> 3
<STATE> 2
<MEAN> 39
 -7.123005e+000 -2.359559e+000 2.258459e+000 4.675836e+000 -9.808225e+000 5.638599e+000 -4.462861e+000 -3.483519e+000 -1.915082e+000 2.099654e+000 -2.489174e+000 -2.085963e+000 5.696927e+001 -4.852037e-003 -1.010890e-003 -1.623878e-003 -2.727731e-003 -1.124086e-003 7.390777e-004 -9.738466e-004 -5.143581e-003 -7.588805e-003 -6.209688e-003 -3.073327e-003 -7.523905e-003 -3.256753e-003 3.169820e-004 -3.367212e-005 1.035734e-004 -5.529596e-004 -2.608793e-004 -1.833414e-004 6.967178e-004 -2.911726e-004 1.293670e-003 1.550263e-005 -1.512258e-004 1.262975e-003 1.064816e-004
<VARIANCE> 39
 8.090172e+001 4.722210e+001 6.580064e+001 5.024354e+001 1.071784e+002 6.308273e+001 6.240520e+001 5.499274e+001 5.463627e+001 4.474848e+001 3.667723e+001 3.017789e+001 1.341415e+002 3.313065e+000 2.846375e+000 2.682447e+000 2.680814e+000 4.423753e+000 3.112007e+000 3.904406e+000 2.789726e+000 3.272518e+000 2.547076e+000 2.140383e+000 1.769925e+000 3.061137e+000 4.366494e-001 4.920293e-001 4.144865e-001 4.409612e-001 6.947064e-001 5.098917e-001 6.694946e-001 4.917418e-001 5.752931e-001 4.451798e-001 3.994655e-001 3.214596e-001 5.040113e-001
<GCONST> 1.290108e+002
<TRANSP> 3
 0.000000e+000 1.000000e+000 0.000000e+000
 0.000000e+000 9.971880e-001 2.811952e-003
 0.000000e+000 0.000000e+000 0.000000e+000
<ENDHMM>
~h "KOLAR"
<BEGINHMM>
<NUMSTATES> 3
<STATE> 2
<MEAN> 39
 -4.461822e+000 2.680000e+000 -2.691789e+000 6.622977e+000 -1.858264e+000 1.739602e+000 1.655544e-001 2.575917e+000 1.474789e+000 4.744632e+000 4.514924e+000 -9.122948e-001 5.768586e+001 -7.858258e-004 8.057479e-004 1.195690e-003 1.311206e-003 2.133990e-003 9.583478e-004 1.737350e-004 1.174723e-003 1.315513e-003 2.097532e-003 3.915720e-004 2.754737e-004 -1.958293e-003 2.510739e-004 -1.518953e-004 8.587788e-007 -2.128041e-004 5.321441e-006 -6.627800e-004 2.478466e-004 -3.514522e-004 7.297537e-005 -1.262658e-004 -6.240442e-004 -2.679706e-004 3.122189e-004
<VARIANCE> 39
 5.280513e+001 1.924160e+001 3.147592e+001 2.233157e+001 6.705578e+001 3.897206e+001 5.238218e+001 3.536890e+001 3.510914e+001 2.422322e+001 2.280641e+001 4.833073e+001 6.338994e+001 1.700250e+000 1.152931e+000 1.843827e+000 1.284999e+000 2.592957e+000 1.892021e+000 2.658013e+000 1.982068e+000 1.860982e+000 1.528969e+000 1.580593e+000 1.803780e+000 1.565443e+000 2.256635e-001 2.026128e-001 3.165430e-001 2.233920e-001 4.265332e-001 3.377724e-001 4.498698e-001 3.566866e-001 3.364176e-001 2.787097e-001 3.036821e-001 3.100916e-001 2.422705e-001
<GCONST> 1.101297e+002
<TRANSP> 3
 0.000000e+000 1.000000e+000 0.000000e+000
 0.000000e+000 9.982134e-001 1.786672e-003
 0.000000e+000 0.000000e+000 0.000000e+000
<ENDHMM>
~h "HALADAVETY"
<BEGINHMM>
<NUMSTATES> 3
<STATE> 2
<MEAN> 39
 -1.081423e+001 1.659052e-001 -3.954394e+000 -2.184119e+000 -1.043225e+001 -1.043899e+000 -1.217192e+001 -3.406882e+000 -4.925741e+000 -4.546751e+000 -1.827320e+000 -2.047228e+000 5.387159e+001 2.067612e-003 2.282533e-003 1.492134e-003 -6.644953e-004 1.067751e-003 2.165581e-003 -1.353825e-003 -4.809950e-003 -3.541291e-003 -4.527388e-004 -5.130568e-004 -5.658522e-003 8.687297e-004 -3.468508e-005 -1.593067e-004 -3.617025e-004 -2.178670e-004 -4.053240e-004 -1.167839e-003 1.075343e-003 1.688299e-003 1.163881e-004 -1.534061e-003 -1.036938e-003 2.531314e-003 -6.208922e-005
<VARIANCE> 39
 1.218890e+002 6.208197e+001 7.541451e+001 7.355591e+001 6.132500e+001 8.202827e+001 6.520698e+001 6.569711e+001 5.188461e+001 3.766597e+001 4.401611e+001 3.979976e+001 3.173864e+002 3.392203e+000 3.044049e+000 2.810671e+000 3.206547e+000 3.745103e+000 4.351275e+000 4.131253e+000 4.010814e+000 3.364813e+000 2.745365e+000 2.904647e+000 2.713757e+000 4.422235e+000 4.998996e-001 4.868387e-001 4.470000e-001 5.300226e-001 6.729454e-001 7.589447e-001 7.671925e-001 7.349297e-001 6.219700e-001 5.301644e-001 5.497360e-001 5.148439e-001 6.613408e-001
<GCONST> 1.359451e+002
<TRANSP> 3
 0.000000e+000 1.000000e+000 0.000000e+000
 0.000000e+000 9.987579e-001 1.242120e-003
 0.000000e+000 0.000000e+000 0.000000e+000
<ENDHMM>
~h "HORKYVETY"
<BEGINHMM>
<NUMSTATES> 3
<STATE> 2
<MEAN> 39
 -1.658084e+001 5.511885e-001 -4.070259e+000 -3.741259e-001 -7.426915e+000 -1.390620e+000 -5.937468e+000 -2.746777e+000 3.077965e-001 -2.611965e+000 3.716769e+000 -3.095665e+000 4.530924e+001 -1.520755e-002 6.955928e-004 -4.627043e-003 -3.801905e-003 2.245474e-003 -3.468707e-003 1.445168e-003 1.872824e-005 -5.127845e-003 3.590253e-003 -4.171981e-003 2.775514e-003 -5.117234e-003 4.382082e-003 6.549316e-005 1.041099e-003 1.729125e-004 3.383571e-004 6.163939e-004 1.329481e-004 4.614569e-004 -9.146199e-004 -8.637395e-004 -3.694706e-004 -3.691484e-004 2.564827e-003
<VARIANCE> 39
 7.300882e+001 2.915044e+001 6.607000e+001 5.251674e+001 4.490151e+001 5.114026e+001 4.903503e+001 5.171834e+001 3.612629e+001 4.455444e+001 4.863954e+001 3.299617e+001 2.518676e+002 2.897979e+000 1.901831e+000 2.141515e+000 2.608304e+000 2.917351e+000 2.572924e+000 3.347647e+000 2.837130e+000 2.849904e+000 2.994184e+000 2.874742e+000 2.059069e+000 4.598945e+000 4.158185e-001 3.350760e-001 3.467649e-001 4.303589e-001 5.125641e-001 4.684325e-001 5.698753e-001 4.947743e-001 5.208884e-001 5.300189e-001 5.046095e-001 3.704623e-001 7.074193e-001
<GCONST> 1.266288e+002
<TRANSP> 3
 0.000000e+000 1.000000e+000 0.000000e+000
 0.000000e+000 9.984801e-001 1.519930e-003
 0.000000e+000 0.000000e+000 0.000000e+000
<ENDHMM>
~h "CHMELIK"
<BEGINHMM>
<NUMSTATES> 3
<STATE> 2
<MEAN> 39
 -9.930375e+000 -5.087166e+000 1.310526e+000 -4.605112e+000 -5.153852e+000 -3.719050e+000 -1.496736e+000 -1.372791e+000 9.318764e-001 -1.106638e+000 2.203079e-002 -4.257033e+000 6.259284e+001 2.816460e-002 -2.680881e-002 -6.169099e-003 -1.280698e-002 1.902049e-002 -2.380690e-002 -2.170211e-003 -2.426851e-003 -1.268649e-004 2.076316e-003 -8.619112e-003 -2.939444e-003 5.547803e-002 -1.243928e-003 1.100348e-003 2.737239e-004 6.360195e-004 -8.042922e-004 6.472921e-004 2.395745e-004 8.539084e-005 -4.034038e-004 -2.940989e-004 1.263960e-003 5.735420e-004 -1.899187e-003
<VARIANCE> 39
 6.571367e+001 3.532285e+001 6.263844e+001 3.126981e+001 3.776114e+001 3.080278e+001 2.744147e+001 3.044837e+001 3.126214e+001 2.291096e+001 2.026413e+001 2.200649e+001 1.002582e+002 3.757205e+000 2.449552e+000 2.882293e+000 2.518584e+000 2.967899e+000 2.529730e+000 2.621220e+000 2.669970e+000 2.731592e+000 2.160470e+000 1.921763e+000 1.791860e+000 2.737423e+000 5.842808e-001 4.296619e-001 4.819036e-001 4.760949e-001 5.652549e-001 4.843521e-001 5.161160e-001 5.249223e-001 5.327460e-001 4.388579e-001 3.798208e-001 3.458073e-001 4.669437e-001
<GCONST> 1.205579e+002
<TRANSP> 3
 0.000000e+000 1.000000e+000 0.000000e+000
 0.000000e+000 9.983341e-001 1.665884e-003
 0.000000e+000 0.000000e+000 0.000000e+000
<ENDHMM>
~h "VACEKVETY"
<BEGINHMM>
<NUMSTATES> 3
<STATE> 2
<MEAN> 39
 -7.114917e+000 1.337589e+000 -1.394174e+000 -1.597841e+000 -3.863012e+000 -3.363962e+000 -6.352092e+000 -5.196830e+000 -4.043462e+000 3.095828e+000 -3.812768e+000 -2.602090e+000 5.324148e+001 2.175695e-003 5.770035e-004 -1.500847e-003 -1.397093e-003 9.335561e-004 2.053853e-004 -1.010019e-003 -1.901931e-003 -8.171198e-004 1.510599e-003 2.030784e-003 -3.874869e-003 1.331543e-003 3.083014e-004 4.795696e-005 -5.342761e-004 -2.487296e-004 -9.804628e-004 -8.178824e-004 1.308343e-003 1.976351e-003 6.047121e-004 -1.561534e-003 -6.880463e-004 1.987457e-003 7.748238e-005
<VARIANCE> 39
 1.779551e+002 5.254245e+001 1.009865e+002 6.577681e+001 6.250168e+001 9.107658e+001 6.066809e+001 7.910452e+001 7.074744e+001 5.251748e+001 4.023823e+001 3.836971e+001 2.619424e+002 4.366011e+000 3.287051e+000 3.434722e+000 3.627413e+000 3.523492e+000 4.144352e+000 4.493458e+000 4.764319e+000 4.390996e+000 3.502093e+000 2.655061e+000 2.746091e+000 2.909132e+000 5.712697e-001 5.365894e-001 5.036653e-001 6.089966e-001 6.120849e-001 7.008062e-001 8.289933e-001 8.353254e-001 7.769207e-001 6.570784e-001 5.067680e-001 5.187747e-001 4.503524e-001
<GCONST> 1.382097e+002
<TRANSP> 3
 0.000000e+000 1.000000e+000 0.000000e+000
 0.000000e+000 9.981127e-001 1.887237e-003
 0.000000e+000 0.000000e+000 0.000000e+000
<ENDHMM>
~h "DVORSKY"
<BEGINHMM>
<NUMSTATES> 3
<STATE> 2
<MEAN> 39
 -5.239572e+000 2.630471e+000 4.749557e+000 5.348166e-001 1.978953e+000 -4.981468e-001 2.702192e-001 1.253259e+000 -3.224933e-002 3.542487e+000 1.478655e+000 -5.962235e-001 5.880445e+001 -2.418263e-004 2.709040e-004 -2.161398e-004 -3.839825e-004 -4.383131e-004 1.806961e-003 7.085286e-004 -3.406684e-004 2.269290e-004 -6.025585e-004 -9.084559e-004 -6.133832e-004 -1.094554e-003 -1.214546e-004 -7.079429e-005 2.202909e-004 7.898888e-005 -2.866216e-004 -1.145055e-004 3.774379e-005 5.634034e-004 -4.836964e-004 -6.923485e-005 7.668876e-004 1.096946e-004 5.173752e-005
<VARIANCE> 39
 5.697154e+001 3.835542e+001 5.615862e+001 5.691090e+001 3.997559e+001 5.196216e+001 4.410217e+001 3.746053e+001 4.461718e+001 2.909569e+001 3.063030e+001 2.822403e+001 1.391539e+002 3.059283e+000 2.245708e+000 2.564902e+000 3.616449e+000 2.777163e+000 2.966879e+000 3.164521e+000 3.046078e+000 3.395211e+000 2.418304e+000 2.236388e+000 2.027334e+000 3.183443e+000 4.667600e-001 3.932086e-001 3.998581e-001 6.158405e-001 4.982050e-001 5.321542e-001 5.767427e-001 5.824716e-001 6.287690e-001 4.624434e-001 4.211186e-001 3.836091e-001 5.257217e-001
<GCONST> 1.254394e+002
<TRANSP> 3
 0.000000e+000 1.000000e+000 0.000000e+000
 0.000000e+000 9.980264e-001 1.973652e-003
 0.000000e+000 0.000000e+000 0.000000e+000
<ENDHMM>
~h "POLACEKVETY"
<BEGINHMM>
<NUMSTATES> 3
<STATE> 2
<MEAN> 39
 -7.726554e+000 4.263435e-001 6.733439e-001 -9.414341e-001 -9.691383e+000 -3.621199e-001 -9.610595e+000 -2.521296e-001 -1.975524e+000 -3.208108e-002 -9.895039e-001 -4.316487e+000 5.160899e+001 1.264372e-002 4.507321e-003 7.288674e-003 -4.992710e-003 5.056953e-003 1.330205e-003 -3.786999e-003 -5.217566e-003 -4.510296e-003 3.205291e-003 -3.266660e-003 -5.161749e-003 1.757472e-002 2.841647e-004 -3.477572e-005 4.418527e-005 2.647533e-004 -5.118086e-004 -8.398657e-004 9.652009e-004 1.972354e-003 7.654410e-005 -1.073517e-003 -7.969502e-004 2.442746e-003 -2.862274e-004
<VARIANCE> 39
 8.772130e+001 4.459123e+001 7.893480e+001 4.163970e+001 6.536717e+001 5.285196e+001 4.636742e+001 3.478942e+001 3.763667e+001 2.735106e+001 2.472576e+001 3.070965e+001 1.333982e+002 3.483463e+000 2.550963e+000 2.568489e+000 2.714449e+000 3.524166e+000 2.681724e+000 2.894839e+000 2.562315e+000 2.408961e+000 2.042272e+000 1.861284e+000 1.939239e+000 2.599232e+000 4.618157e-001 4.294871e-001 3.905537e-001 4.846251e-001 5.946272e-001 4.774993e-001 5.337813e-001 4.775496e-001 4.483447e-001 3.885277e-001 3.568096e-001 3.497923e-001 4.178858e-001
<GCONST> 1.236416e+002
<TRANSP> 3
 0.000000e+000 1.000000e+000 0.000000e+000
 0.000000e+000 9.988280e-001 1.171989e-003
 0.000000e+000 0.000000e+000 0.000000e+000
<ENDHMM>
