~o
<STREAMINFO> 1 39
<VECSIZE> 39<NULLD><MFCC_D_A_0><DIAGC>
~h "proto-1s-39f"
<BEGINHMM>
<NUMSTATES> 3
<STATE> 2
<MEAN> 39
 -7.255579e+000 -3.988654e-001 1.724128e+000 -3.097023e+000 -4.211649e+000 -2.197034e+000 -3.607599e+000 -1.015058e+000 -7.148411e-001 3.415149e-001 -5.899474e-002 -1.752650e+000 6.093890e+001 8.970459e-004 5.392303e-004 1.810706e-004 -2.493558e-004 2.633957e-003 1.508366e-004 6.196049e-004 -1.312567e-003 -1.289356e-003 5.271680e-004 -9.785426e-004 -9.180018e-004 1.016368e-003 2.179068e-004 -3.364268e-005 8.888822e-005 -6.292156e-005 -2.141416e-004 -1.765057e-004 -1.496845e-004 1.468675e-004 -1.712577e-004 -2.501771e-004 -9.450621e-005 2.571030e-004 1.005384e-004
<VARIANCE> 39
 8.296069e+001 5.335656e+001 7.090385e+001 7.815878e+001 7.634907e+001 6.908517e+001 7.681411e+001 5.531947e+001 5.683988e+001 3.992342e+001 4.627103e+001 3.578301e+001 1.571893e+002 3.296914e+000 2.692092e+000 2.625921e+000 3.506865e+000 3.701428e+000 3.327155e+000 3.549908e+000 3.289122e+000 3.286541e+000 2.562646e+000 2.549867e+000 2.123773e+000 3.248851e+000 4.742379e-001 4.556784e-001 4.192317e-001 5.971220e-001 6.455882e-001 5.880365e-001 6.332635e-001 6.034592e-001 5.895921e-001 4.854650e-001 4.720335e-001 3.934212e-001 5.243360e-001
<GCONST> 1.317570e+002
<TRANSP> 3
 0.000000e+000 1.000000e+000 0.000000e+000
 0.000000e+000 6.000000e-001 4.000000e-001
 0.000000e+000 0.000000e+000 0.000000e+000
<ENDHMM>
