\data\
ngram 1=10002
ngram 2=13

\1-grams:
-99.999	SENT-START	-0.3010
-4.0000	A
-4.0000	ABOLICNI
-4.0000	ABSOLUTNE
-4.0000	ABSOLUTNI
-4.0000	ABSOLVOVAL
-4.0000	ABSURDNI
-4.0000	ABY
-4.0000	ABYCH
-4.0000	ABYCHOM
-4.0000	ABYSME
-4.0000	ABYSTE
-4.0000	AC
-4.0000	ACKOLIV
-4.0000	AD
-4.0000	ADAM
-4.0000	ADEKVATNI
-4.0000	ADMINISTRATIVA
-4.0000	ADMINISTRATIVNI
-4.0000	ADRESE
-4.0000	ADRESU
-4.0000	ADVOKATKA
-4.0000	ADVOKATNI
-4.0000	AFERA
-4.0000	AFERE
-4.0000	AFGHANISTANU
-4.0000	AFRICE
-4.0000	AFRIKA
-4.0000	AFRIKY
-4.0000	AGENDU
-4.0000	AGENTUR
-4.0000	AGENTURA
-4.0000	AGENTURY
-4.0000	AGRESIVNI
-4.0000	AHA
-4.0000	AHOJ
-4.0000	AIR
-4.0000	AJ
-4.0000	AKADEMICKE
-4.0000	AKADEMIE
-4.0000	AKADEMII
-4.0000	AKCE
-4.0000	AKCEPTOVAT
-4.0000	AKCI
-4.0000	AKCICH
-4.0000	AKCIE
-4.0000	AKORAT
-4.0000	AKREDITACE
-4.0000	AKREDITACI
-4.0000	AKT
-4.0000	AKTIVIT
-4.0000	AKTIVITA
-4.0000	AKTIVITU
-4.0000	AKTIVITY
-4.0000	AKTIVNE
-4.0000	AKTIVNEJSI
-4.0000	AKTIVNI
-4.0000	AKTIVNIM
-4.0000	AKTU
-4.0000	AKTUALNE
-4.0000	AKTUALNI
-4.0000	AKTUALNICH
-4.0000	ALE	-0.3010
-4.0000	ALENA
-4.0000	ALERGIE
-4.0000	ALES
-4.0000	ALESPON
-4.0000	ALEXANDRA
-4.0000	ALIANCE
-4.0000	ALICE
-4.0000	ALKAJDA
-4.0000	ALKOHOL
-4.0000	ALKOHOLEM
-4.0000	ALKOHOLU
-4.0000	ALTERNATIVA
-4.0000	ALTERNATIVNI
-4.0000	ALTERNATIVY
-4.0000	AMBICE
-4.0000	AMBICI
-4.0000	AMERICANE
-4.0000	AMERICANI
-4.0000	AMERICANU
-4.0000	AMERICANY
-4.0000	AMERICE
-4.0000	AMERICKA
-4.0000	AMERICKE
-4.0000	AMERICKEHO
-4.0000	AMERICKOU
-4.0000	AMERICKY
-4.0000	AMERICKYCH
-4.0000	AMERICKYM
-4.0000	AMERICTI
-4.0000	AMERIKA
-4.0000	AMERIKU
-4.0000	AMERIKY
-4.0000	AMNESTIE
-4.0000	AMNESTII
-4.0000	ANALYTIK
-4.0000	ANALYTIKA
-4.0000	ANALYZ
-4.0000	ANALYZA
-4.0000	ANALYZOVAT
-4.0000	ANALYZU
-4.0000	ANDREA
-4.0000	ANDREJ
-4.0000	ANDREJE
-4.0000	ANDREJEM
-4.0000	ANEBO
-4.0000	ANGAZMA
-4.0000	ANGAZOVAT
-4.0000	ANGELA
-4.0000	ANGELY
-4.0000	ANGLICKY
-4.0000	ANGLICTINE
-4.0000	ANGLIE
-4.0000	ANGLII
-4.0000	ANI
-4.0000	ANIZ
-4.0000	ANNA
-4.0000	ANNY
-4.0000	ANO
-4.0000	ANTIBIOTICKE
-4.0000	ANTIBIOTIKA
-4.0000	ANTONIN
-4.0000	APEL
-4.0000	APELOVAL
-4.0000	APLIKACE
-4.0000	APLIKOVAT
-4.0000	APPLE
-4.0000	ARABIE
-4.0000	ARABII
-4.0000	ARABSKE
-4.0000	ARABSKYCH
-4.0000	ARCHITEKT
-4.0000	ARCHITEKTURY
-4.0000	ARCHIVECH
-4.0000	ARCHIVU
-4.0000	AREAL
-4.0000	AREALU
-4.0000	ARGUMENT
-4.0000	ARGUMENTU
-4.0000	ARGUMENTUJE
-4.0000	ARGUMENTY
-4.0000	ARMADA
-4.0000	ARMADE
-4.0000	ARMADU
-4.0000	ARMADY
-4.0000	ARNOST
-4.0000	ASAD
-4.0000	ASADA
-4.0000	ASI
-4.0000	ASIE
-4.0000	ASII
-4.0000	ASOCIACE
-4.0000	ASOCIACI
-4.0000	ASOCIACNI
-4.0000	ASPEKT
-4.0000	ASPEKTY
-4.0000	ASPON
-4.0000	ASTEROID
-4.0000	ASTEROIDU
-4.0000	AT
-4.0000	ATENTAT
-4.0000	ATENTATU
-4.0000	ATMOSFERA
-4.0000	ATMOSFERE
-4.0000	ATMOSFERU
-4.0000	ATMOSFERY
-4.0000	ATOMOVE
-4.0000	ATRAKTIVNI
-4.0000	AUDIT
-4.0000	AUKCE
-4.0000	AUT
-4.0000	AUTA
-4.0000	AUTE
-4.0000	AUTEM
-4.0000	AUTO
-4.0000	AUTOBUSY
-4.0000	AUTOMATICKY
-4.0000	AUTOMOBILKA
-4.0000	AUTOR
-4.0000	AUTORA
-4.0000	AUTOREM
-4.0000	AUTORU
-4.0000	AVIZOVAL
-4.0000	AZ
-4.0000	AZERBAJDZAN
-4.0000	AZYL
-4.0000	B
-4.0000	BABICKA
-4.0000	BABICKOU
-4.0000	BABICKY
-4.0000	BABIS
-4.0000	BABISE
-4.0000	BABISEM
-4.0000	BAJECNE
-4.0000	BAKALA
-4.0000	BAKTERIE
-4.0000	BAL
-4.0000	BALENI
-4.0000	BALETNI
-4.0000	BALIK
-4.0000	BALONY
-4.0000	BALVIN
-4.0000	BANCE
-4.0000	BANIK
-4.0000	BANIKU
-4.0000	BANK
-4.0000	BANKA
-4.0000	BANKOVEK
-4.0000	BANKOVKY
-4.0000	BANKOVNI
-4.0000	BANKOVNICTVI
-4.0000	BANKOVNIHO
-4.0000	BANKROT
-4.0000	BANKU
-4.0000	BANKY
-4.0000	BARACK
-4.0000	BARACKA
-4.0000	BARBORA
-4.0000	BARIERY
-4.0000	BARRANDOV
-4.0000	BARTA
-4.0000	BARVU
-4.0000	BARVY
-4.0000	BASARA
-4.0000	BAT
-4.0000	BAVI
-4.0000	BAVIL
-4.0000	BAVILA
-4.0000	BAVILI
-4.0000	BAVILO
-4.0000	BAVIME
-4.0000	BAVIT
-4.0000	BAVITE
-4.0000	BAVORSKU
-4.0000	BAZEN
-4.0000	BBC
-4.0000	BEDLIVE
-4.0000	BEHA
-4.0000	BEHEM
-4.0000	BEHU
-4.0000	BEJT
-4.0000	BELLUM
-4.0000	BENEDIKT
-4.0000	BENESOVA
-4.0000	BERE
-4.0000	BEREME
-4.0000	BERETE
-4.0000	BERLINA
-4.0000	BERLINE
-4.0000	BERLUSCONI
-4.0000	BERLUSCONIHO
-4.0000	BEROU
-4.0000	BEROUNKA
-4.0000	BERU
-4.0000	BEZ
-4.0000	BEZDOMOVCE
-4.0000	BEZDOMOVEC
-4.0000	BEZESPORU
-4.0000	BEZI
-4.0000	BEZMALA
-4.0000	BEZNA
-4.0000	BEZNE
-4.0000	BEZNEHO
-4.0000	BEZNEM
-4.0000	BEZNOU
-4.0000	BEZNY
-4.0000	BEZNYCH
-4.0000	BEZPECI
-4.0000	BEZPECNA
-4.0000	BEZPECNE
-4.0000	BEZPECNEJSI
-4.0000	BEZPECNOST
-4.0000	BEZPECNOSTI
-4.0000	BEZPECNOSTNI
-4.0000	BEZPECNOSTNICH
-4.0000	BEZPOCHYBY
-4.0000	BEZPROSTREDNE
-4.0000	BEZPROSTREDNI
-4.0000	BILE
-4.0000	BILEHO
-4.0000	BILKOVIN
-4.0000	BILKOVINY
-4.0000	BILOU
-4.0000	BILY
-4.0000	BIS
-4.0000	BITVA
-4.0000	BLAHA
-4.0000	BLANKA
-4.0000	BLAZEN
-4.0000	BLBOST
-4.0000	BLESKY
-4.0000	BLIZ
-4.0000	BLIZI
-4.0000	BLIZICI
-4.0000	BLIZKA
-4.0000	BLIZKE
-4.0000	BLIZKEHO
-4.0000	BLIZKEM
-4.0000	BLIZKO
-4.0000	BLIZKOST
-4.0000	BLIZKOSTI
-4.0000	BLIZKOVYCHODNI
-4.0000	BLIZSI
-4.0000	BLOK
-4.0000	BLOKU
-4.0000	BOD
-4.0000	BODECH
-4.0000	BODU
-4.0000	BODY
-4.0000	BOHATA
-4.0000	BOHATE
-4.0000	BOHATI
-4.0000	BOHATSTVI
-4.0000	BOHATY
-4.0000	BOHOSLUZBY
-4.0000	BOHUSLAV
-4.0000	BOHUSLAVA
-4.0000	BOHUZEL
-4.0000	BOJ
-4.0000	BOJE
-4.0000	BOJI
-4.0000	BOJIM
-4.0000	BOJOVALI
-4.0000	BOJOVAT
-4.0000	BOJS
-4.0000	BOJUJE
-4.0000	BOKEM
-4.0000	BOKU
-4.0000	BOLESLAVI
-4.0000	BOLEST
-4.0000	BOLESTI
-4.0000	BOLI
-4.0000	BOMBA
-4.0000	BOOM
-4.0000	BOSAKOVA
-4.0000	BOTY
-4.0000	BOURANI
-4.0000	BOURI
-4.0000	BOURKA
-4.0000	BRADACOVA
-4.0000	BRAL
-4.0000	BRALA
-4.0000	BRALI
-4.0000	BRALO
-4.0000	BRAMBORY
-4.0000	BRANI
-4.0000	BRANIT
-4.0000	BRANO
-4.0000	BRAT
-4.0000	BRATR
-4.0000	BRATRI
-4.0000	BRATRSTVA
-4.0000	BRATRSTVO
-4.0000	BREHU
-4.0000	BREHULE
-4.0000	BREZNA
-4.0000	BREZNU
-4.0000	BRISNI
-4.0000	BRITANIE
-4.0000	BRITANII
-4.0000	BRITOVE
-4.0000	BRITSKA
-4.0000	BRITSKE
-4.0000	BRITSKEHO
-4.0000	BRITSKY
-4.0000	BRITSKYCH
-4.0000	BRNA
-4.0000	BRNE
-4.0000	BRNENSKE
-4.0000	BRNO
-4.0000	BRONISLAV
-4.0000	BRUNTALSKU
-4.0000	BRUSEL
-4.0000	BRUSELU
-4.0000	BRYLE
-4.0000	BRZO
-4.0000	BRZY
-4.0000	BUD
-4.0000	BUDE
-4.0000	BUDEJOVIC
-4.0000	BUDEJOVICE
-4.0000	BUDEJOVICICH
-4.0000	BUDELI
-4.0000	BUDEM
-4.0000	BUDEME
-4.0000	BUDETE
-4.0000	BUDI
-4.0000	BUDOU
-4.0000	BUDOUCI
-4.0000	BUDOUCICH
-4.0000	BUDOUCIM
-4.0000	BUDOUCNA
-4.0000	BUDOUCNOST
-4.0000	BUDOUCNOSTI
-4.0000	BUDOUCNU
-4.0000	BUDOV
-4.0000	BUDOVA
-4.0000	BUDOVE
-4.0000	BUDOVOU
-4.0000	BUDOVU
-4.0000	BUDOVY
-4.0000	BUDTE
-4.0000	BUDTO
-4.0000	BUDU
-4.0000	BUDUJE
-4.0000	BUH
-4.0000	BUNEK
-4.0000	BUNKY
-4.0000	BUSH
-4.0000	BY
-4.0000	BYCH
-4.0000	BYCHOM
-4.0000	BYDLEL
-4.0000	BYDLELI
-4.0000	BYDLENI
-4.0000	BYDLET
-4.0000	BYDLI
-4.0000	BYL
-4.0000	BYLA
-4.0000	BYLI
-4.0000	BYLO
-4.0000	BYLY
-4.0000	BYS
-4.0000	BYSME
-4.0000	BYSTE
-4.0000	BYT
-4.0000	BYTE
-4.0000	BYTECH
-4.0000	BYTI
-4.0000	BYTU
-4.0000	BYTY
-4.0000	BYVA
-4.0000	BYVAJI
-4.0000	BYVAL
-4.0000	BYVALA
-4.0000	BYVALE
-4.0000	BYVALEHO
-4.0000	BYVALI
-4.0000	BYVALO
-4.0000	BYVALY
-4.0000	BYVALYM
-4.0000	BYVALYMI
-4.0000	BYZNYS
-4.0000	BYZNYSU
-4.0000	C
-4.0000	CAIS
-4.0000	CAJ
-4.0000	CAJE
-4.0000	CAJTHAMLOVOU
-4.0000	CAMERON
-4.0000	CANNES
-4.0000	CANOVA
-4.0000	CAS
-4.0000	CASE
-4.0000	CASEM
-4.0000	CASOPISU
-4.0000	CASOVE
-4.0000	CASOVEM
-4.0000	CASOVY
-4.0000	CAST
-4.0000	CASTE
-4.0000	CASTECH
-4.0000	CASTECNE
-4.0000	CASTEJI
-4.0000	CASTI
-4.0000	CASTIC
-4.0000	CASTICE
-4.0000	CASTKA
-4.0000	CASTKU
-4.0000	CASTKY
-4.0000	CASTO
-4.0000	CASU
-4.0000	CASY
-4.0000	CD
-4.0000	CDU
-4.0000	CECH
-4.0000	CECHA
-4.0000	CECHACH
-4.0000	CECHU
-4.0000	CECHY
-4.0000	CEDULE
-4.0000	CEHO
-4.0000	CEKA
-4.0000	CEKAJI
-4.0000	CEKAL
-4.0000	CEKALI
-4.0000	CEKALO
-4.0000	CEKAM
-4.0000	CEKAME
-4.0000	CEKAT
-4.0000	CEKATE
-4.0000	CELA
-4.0000	CELE
-4.0000	CELEHO
-4.0000	CELEJ
-4.0000	CELEK
-4.0000	CELEM
-4.0000	CELEMU
-4.0000	CELIT
-4.0000	CELKEM
-4.0000	CELKOVE
-4.0000	CELKOVOU
-4.0000	CELKOVY
-4.0000	CELOSTATNI
-4.0000	CELOSVETOVE
-4.0000	CELOU
-4.0000	CELOZIVOTNI
-4.0000	CELY
-4.0000	CELYM
-4.0000	CEM
-4.0000	CEMKOLIV
-4.0000	CEMU
-4.0000	CEN
-4.0000	CENA
-4.0000	CENACH
-4.0000	CENE
-4.0000	CENNE
-4.0000	CENOU
-4.0000	CENTER
-4.0000	CENTIMETRU
-4.0000	CENTRA
-4.0000	CENTRALNI
-4.0000	CENTRALNIHO
-4.0000	CENTREM
-4.0000	CENTRU
-4.0000	CENTRUM
-4.0000	CENU
-4.0000	CENY
-4.0000	CERNA
-4.0000	CERNE
-4.0000	CERNOU
-4.0000	CERNY
-4.0000	CERNYCH
-4.0000	CERPANI
-4.0000	CERPAT
-4.0000	CERSTVE
-4.0000	CERVENA
-4.0000	CERVENCE
-4.0000	CERVENCI
-4.0000	CERVENE
-4.0000	CERVENYCH
-4.0000	CERVNA
-4.0000	CERVNU
-4.0000	CESI
-4.0000	CESKA
-4.0000	CESKE
-4.0000	CESKEHO
-4.0000	CESKEM
-4.0000	CESKEMU
-4.0000	CESKO
-4.0000	CESKOSLOVENSKA
-4.0000	CESKOSLOVENSKE
-4.0000	CESKOSLOVENSKO
-4.0000	CESKOSLOVENSKU
-4.0000	CESKOU
-4.0000	CESKU
-4.0000	CESKY
-4.0000	CESKYCH
-4.0000	CESKYM
-4.0000	CESKYMI
-4.0000	CEST
-4.0000	CESTA
-4.0000	CESTACH
-4.0000	CESTE
-4.0000	CESTI
-4.0000	CESTINA
-4.0000	CESTINE
-4.0000	CESTOU
-4.0000	CESTOVANI
-4.0000	CESTOVNI
-4.0000	CESTU
-4.0000	CESTY
-4.0000	CETL
-4.0000	CETLA
-4.0000	CETLI
-4.0000	CETNOST
-4.0000	CEV
-4.0000	CEVNI
-4.0000	CEZ
-4.0000	CEZU
-4.0000	CHALUPE
-4.0000	CHALUPU
-4.0000	CHALUPY
-4.0000	CHAOS
-4.0000	CHAPAT
-4.0000	CHAPE
-4.0000	CHAPETE
-4.0000	CHAPOU
-4.0000	CHAPU
-4.0000	CHARAKTER
-4.0000	CHARITY
-4.0000	CHATU
-4.0000	CHCE
-4.0000	CHCEME
-4.0000	CHCETE
-4.0000	CHCI
-4.0000	CHEMICKE
-4.0000	CHEMICKYCH
-4.0000	CHEMIE
-4.0000	CHEMII
-4.0000	CHIRURG
-4.0000	CHLADNE
-4.0000	CHLAPCE
-4.0000	CHLAPCI
-4.0000	CHLAPEC
-4.0000	CHLAPI
-4.0000	CHLEBA
-4.0000	CHODI
-4.0000	CHODIL
-4.0000	CHODILA
-4.0000	CHODILI
-4.0000	CHODILO
-4.0000	CHODILY
-4.0000	CHODIM
-4.0000	CHODIT
-4.0000	CHODNIKU
-4.0000	CHODNIKY
-4.0000	CHODORKOVSKEHO
-4.0000	CHODORKOVSKIJ
-4.0000	CHOROB
-4.0000	CHOROBOU
-4.0000	CHOROBY
-4.0000	CHOVA
-4.0000	CHOVAJI
-4.0000	CHOVAL
-4.0000	CHOVALA
-4.0000	CHOVANEC
-4.0000	CHOVANI
-4.0000	CHOVAT
-4.0000	CHRANENI
-4.0000	CHRANI
-4.0000	CHRANIT
-4.0000	CHRIPKA
-4.0000	CHROMOSOMY
-4.0000	CHTEJI
-4.0000	CHTEL
-4.0000	CHTELA
-4.0000	CHTELI
-4.0000	CHTELO
-4.0000	CHTELY
-4.0000	CHTIT
-4.0000	CHUDOBY
-4.0000	CHUT
-4.0000	CHUTNALO
-4.0000	CHVILE
-4.0000	CHVILI	-0.3010
-4.0000	CHVILICH
-4.0000	CHVILICKOU
-4.0000	CHVILICKU
-4.0000	CHVILKOU
-4.0000	CHVILKU
-4.0000	CHYB
-4.0000	CHYBA
-4.0000	CHYBEJICI
-4.0000	CHYBI
-4.0000	CHYBU
-4.0000	CHYBY
-4.0000	CHYSTA
-4.0000	CHYSTAJI
-4.0000	CHYSTATE
-4.0000	CI
-4.0000	CIBULE
-4.0000	CIGARETU
-4.0000	CIGARETY
-4.0000	CIL
-4.0000	CILE
-4.0000	CILEM
-4.0000	CILENE
-4.0000	CILI
-4.0000	CIM
-4.0000	CIMZ
-4.0000	CIN
-4.0000	CINA
-4.0000	CINE
-4.0000	CINI
-4.0000	CINIT
-4.0000	CINNOST
-4.0000	CINNOSTI
-4.0000	CINOU
-4.0000	CINSKA
-4.0000	CINSKE
-4.0000	CINSKY
-4.0000	CINU
-4.0000	CINY
-4.0000	CIRKEV
-4.0000	CIRKEVNI
-4.0000	CIRKEVNICH
-4.0000	CIRKVE
-4.0000	CIRKVEMI
-4.0000	CIRKVI
-4.0000	CISEL
-4.0000	CISLA
-4.0000	CISLE
-4.0000	CISLECH
-4.0000	CISLO
-4.0000	CIST
-4.0000	CISTA
-4.0000	CISTE
-4.0000	CISTEHO
-4.0000	CISTENI
-4.0000	CISTY
-4.0000	CISTYM
-4.0000	CITACE
-4.0000	CITI
-4.0000	CITIL
-4.0000	CITIM
-4.0000	CITIT
-4.0000	CITITE
-4.0000	CITLIVA
-4.0000	CITLIVE
-4.0000	CITOVAL
-4.0000	CITOVAT
-4.0000	CITOVE
-4.0000	CITUJI
-4.0000	CIVILNI
-4.0000	CIZI
-4.0000	CIZIHO
-4.0000	CIZINCI
-4.0000	CIZINE
-4.0000	CLANEK
-4.0000	CLANKU
-4.0000	CLEN
-4.0000	CLENA
-4.0000	CLENEM
-4.0000	CLENKA
-4.0000	CLENOVE
-4.0000	CLENSKE
-4.0000	CLENSTVI
-4.0000	CLENU
-4.0000	CLENUM
-4.0000	CLENY
-4.0000	CLOVEK
-4.0000	CLOVEKA
-4.0000	CLOVEKEM
-4.0000	CLOVEKU
-4.0000	CO
-4.0000	COBY
-4.0000	COKOLI
-4.0000	COKOLIV
-4.0000	COM
-4.0000	COSI
-4.0000	COZ
-4.0000	CR
-4.0000	CSSD
-4.0000	CTE
-4.0000	CTEME
-4.0000	CTENARI
-4.0000	CTENARU
-4.0000	CTENI
-4.0000	CTETE
-4.0000	CTOU
-4.0000	CTRNACT
-4.0000	CTRNACTEHO
-4.0000	CTRNACTI
-4.0000	CTU
-4.0000	CTVRT
-4.0000	CTVRTE
-4.0000	CTVRTEK
-4.0000	CTVRTFINALE
-4.0000	CTVRTI
-4.0000	CTVRTLETI
-4.0000	CTVRTY
-4.0000	CTYR
-4.0000	CTYRECH
-4.0000	CTYRI
-4.0000	CTYRIADVACET
-4.0000	CTYRICET
-4.0000	CTYRICETI
-4.0000	CTYRIKRAT
-4.0000	CTYRMI
-4.0000	CUKR
-4.0000	CUKROVKA
-4.0000	CUKRU
-4.0000	CVICENI
-4.0000	CVICIT
-4.0000	CYKLISTE
-4.0000	CYKLU
-4.0000	CYKLUS
-4.0000	CYRIL
-4.0000	CYSTY
-4.0000	CZ
-4.0000	D
-4.0000	DA
-4.0000	DABING
-4.0000	DAGESTANU
-4.0000	DAGMAR
-4.0000	DAJI
-4.0000	DAL
-4.0000	DALA
-4.0000	DALE
-4.0000	DALEKO
-4.0000	DALI
-4.0000	DALIBOR
-4.0000	DALKU
-4.0000	DALNIC
-4.0000	DALNICE
-4.0000	DALO
-4.0000	DALSI
-4.0000	DALSICH
-4.0000	DALSIHO
-4.0000	DALSIM
-4.0000	DALSIMI
-4.0000	DALSIMU
-4.0000	DAM
-4.0000	DAMA
-4.0000	DAMASKU
-4.0000	DAME
-4.0000	DAMY
-4.0000	DAN
-4.0000	DANA
-4.0000	DANE
-4.0000	DANEHO
-4.0000	DANI
-4.0000	DANIEL
-4.0000	DANIELA
-4.0000	DANKOVA
-4.0000	DANO
-4.0000	DANOU
-4.0000	DANOVE
-4.0000	DANOVEHO
-4.0000	DANOVY
-4.0000	DANOVYCH
-4.0000	DANY
-4.0000	DAR
-4.0000	DARCE
-4.0000	DARCU
-4.0000	DAREK
-4.0000	DARI
-4.0000	DARILO
-4.0000	DARKY
-4.0000	DAROVAT
-4.0000	DAT
-4.0000	DATA
-4.0000	DATE
-4.0000	DATUM
-4.0000	DAVA
-4.0000	DAVAJI
-4.0000	DAVAL
-4.0000	DAVALI
-4.0000	DAVAM
-4.0000	DAVAME
-4.0000	DAVAT
-4.0000	DAVATE
-4.0000	DAVEK
-4.0000	DAVID
-4.0000	DAVIDA
-4.0000	DAVIDEM
-4.0000	DAVKU
-4.0000	DAVKY
-4.0000	DAVNO
-4.0000	DCERA
-4.0000	DCEROU
-4.0000	DCERU
-4.0000	DE
-4.0000	DEBATA
-4.0000	DEBATE
-4.0000	DEBATOVAT
-4.0000	DEBATU
-4.0000	DEBATY
-4.0000	DECINA
-4.0000	DECINE
-4.0000	DECKA
-4.0000	DEDA
-4.0000	DEFICIT
-4.0000	DEFINICE
-4.0000	DEFINITIVNE
-4.0000	DEFINITIVNI
-4.0000	DEJ
-4.0000	DEJE
-4.0000	DEJEPISU
-4.0000	DEJI
-4.0000	DEJIN
-4.0000	DEJINACH
-4.0000	DEJINY
-4.0000	DEJME
-4.0000	DEJTE
-4.0000	DEKUJE
-4.0000	DEKUJEME
-4.0000	DEKUJI
-4.0000	DEKUJU
-4.0000	DEL
-4.0000	DELA
-4.0000	DELAJI
-4.0000	DELAL
-4.0000	DELALA
-4.0000	DELALI
-4.0000	DELALO
-4.0000	DELALY
-4.0000	DELAM
-4.0000	DELAME
-4.0000	DELAT
-4.0000	DELATE
-4.0000	DELE
-4.0000	DELEJTE
-4.0000	DELO
-4.0000	DELSI
-4.0000	DELY
-4.0000	DEMISI
-4.0000	DEMOKRACIE
-4.0000	DEMOKRACII
-4.0000	DEMOKRATE
-4.0000	DEMOKRATICKA
-4.0000	DEMOKRATICKE
-4.0000	DEMOKRATICKY
-4.0000	DEMOKRATICKYCH
-4.0000	DEMOKRATU
-4.0000	DEMOKRATY
-4.0000	DEMONSTRACE
-4.0000	DEMONSTRACI
-4.0000	DEMONSTRANTI
-4.0000	DEMONSTRANTU
-4.0000	DEMONSTRANTUM
-4.0000	DEN
-4.0000	DENI
-4.0000	DENIK
-4.0000	DENIKU
-4.0000	DENIKY
-4.0000	DENNE
-4.0000	DESATE
-4.0000	DESATEHO
-4.0000	DESATY
-4.0000	DESET
-4.0000	DESETI
-4.0000	DESETILETI
-4.0000	DESETINU
-4.0000	DESETITISICE
-4.0000	DESITEK
-4.0000	DESITKY
-4.0000	DESKA
-4.0000	DESKU
-4.0000	DESKY
-4.0000	DEST
-4.0000	DESTE
-4.0000	DETAILNE
-4.0000	DETAILNI
-4.0000	DETAILY
-4.0000	DETECH
-4.0000	DETEM
-4.0000	DETI
-4.0000	DETMI
-4.0000	DETSKE
-4.0000	DETSKY
-4.0000	DETSTVI
-4.0000	DEVADESAT
-4.0000	DEVADESATI
-4.0000	DEVADESATYCH
-4.0000	DEVATE
-4.0000	DEVATENACT
-4.0000	DEVATENACTEHO
-4.0000	DEVATENACTOU
-4.0000	DEVET
-4.0000	DEVITI
-4.0000	DIALOG
-4.0000	DIALOGU
-4.0000	DIALYZA
-4.0000	DIETY
-4.0000	DIGITALNI
-4.0000	DIKY
-4.0000	DIL
-4.0000	DILA
-4.0000	DILECH
-4.0000	DILEM
-4.0000	DILO
-4.0000	DILU
-4.0000	DINOSAURI
-4.0000	DIPLOMACIE
-4.0000	DIPLOMAT
-4.0000	DIPLOMATICKE
-4.0000	DIPLOMATICKOU
-4.0000	DIRA
-4.0000	DISCIPLINA
-4.0000	DISKRIMINACI
-4.0000	DISKUSE
-4.0000	DISKUSI
-4.0000	DISKUTOVALI
-4.0000	DISKUTOVAT
-4.0000	DISKUTUJE
-4.0000	DISKUTUJEME
-4.0000	DISKUTUJI
-4.0000	DISKUZE
-4.0000	DISPONUJE
-4.0000	DISPOZICI
-4.0000	DIT
-4.0000	DITE
-4.0000	DITETE
-4.0000	DITETEM
-4.0000	DITETI
-4.0000	DIVA
-4.0000	DIVACI
-4.0000	DIVADEL
-4.0000	DIVADELNI
-4.0000	DIVADLA
-4.0000	DIVADLE
-4.0000	DIVADLECH
-4.0000	DIVADLEM
-4.0000	DIVADLO
-4.0000	DIVAK
-4.0000	DIVAKU
-4.0000	DIVAKUM
-4.0000	DIVAKY
-4.0000	DIVAL
-4.0000	DIVALA
-4.0000	DIVALI
-4.0000	DIVAM
-4.0000	DIVAME
-4.0000	DIVAT
-4.0000	DIVATE
-4.0000	DIVIM
-4.0000	DIVIT
-4.0000	DIVKA
-4.0000	DIVKY
-4.0000	DIVNE
-4.0000	DLE
-4.0000	DLOUHA
-4.0000	DLOUHE
-4.0000	DLOUHEHO
-4.0000	DLOUHO
-4.0000	DLOUHODOBA
-4.0000	DLOUHODOBE
-4.0000	DLOUHODOBEJSI
-4.0000	DLOUHODOBOU
-4.0000	DLOUHODOBY
-4.0000	DLOUHOLETY
-4.0000	DLOUHOU
-4.0000	DLOUHY
-4.0000	DLUH
-4.0000	DLUHOPISY
-4.0000	DLUHU
-4.0000	DLUHY
-4.0000	DLUZNO
-4.0000	DNA
-4.0000	DNE
-4.0000	DNECH
-4.0000	DNEM
-4.0000	DNES
-4.0000	DNESEK
-4.0000	DNESKA
-4.0000	DNESKEM
-4.0000	DNESNI
-4.0000	DNESNICH
-4.0000	DNESNIHO
-4.0000	DNESNIM
-4.0000	DNESNIMU
-4.0000	DNI
-4.0000	DNU
-4.0000	DNY
-4.0000	DO
-4.0000	DOB
-4.0000	DOBA
-4.0000	DOBACH
-4.0000	DOBE
-4.0000	DOBES
-4.0000	DOBOU
-4.0000	DOBRA
-4.0000	DOBRAT
-4.0000	DOBRE
-4.0000	DOBREHO
-4.0000	DOBREJ
-4.0000	DOBREM
-4.0000	DOBRI
-4.0000	DOBRODRUZSTVI
-4.0000	DOBROU
-4.0000	DOBROVOLNA
-4.0000	DOBROVOLNE
-4.0000	DOBROVOLNICI
-4.0000	DOBROVOLNIKU
-4.0000	DOBROVOLNIKY
-4.0000	DOBRY
-4.0000	DOBRYCH
-4.0000	DOBRYM
-4.0000	DOBU
-4.0000	DOBY
-4.0000	DOCASNE
-4.0000	DOCELA
-4.0000	DOCENT
-4.0000	DOCENTE
-4.0000	DOCETL
-4.0000	DOCETLA
-4.0000	DOCHAZELO
-4.0000	DOCHAZET
-4.0000	DOCHAZI
-4.0000	DOCKAT
-4.0000	DODAL
-4.0000	DODALA
-4.0000	DODAM
-4.0000	DODAT
-4.0000	DODATECNE
-4.0000	DODAVA
-4.0000	DODAVATELI
-4.0000	DODAVATELU
-4.0000	DODNES
-4.0000	DODRZET
-4.0000	DODRZOVAT
-4.0000	DOHLED
-4.0000	DOHLEDNE
-4.0000	DOHLIDNOUT
-4.0000	DOHLIZET
-4.0000	DOHLIZI
-4.0000	DOHODA
-4.0000	DOHODE
-4.0000	DOHODL
-4.0000	DOHODLI
-4.0000	DOHODNOU
-4.0000	DOHODNOUT
-4.0000	DOHODU
-4.0000	DOHODY
-4.0000	DOHROMADY
-4.0000	DOJDE
-4.0000	DOJDOU
-4.0000	DOJEM
-4.0000	DOJIT
-4.0000	DOJMEM
-4.0000	DOKAZAL
-4.0000	DOKAZALA
-4.0000	DOKAZALI
-4.0000	DOKAZAT
-4.0000	DOKAZE
-4.0000	DOKAZEME
-4.0000	DOKAZETE
-4.0000	DOKAZI
-4.0000	DOKAZOU
-4.0000	DOKAZU
-4.0000	DOKAZUJE
-4.0000	DOKAZUJI
-4.0000	DOKLADY
-4.0000	DOKONALE
-4.0000	DOKONALY
-4.0000	DOKONCE
-4.0000	DOKONCENI
-4.0000	DOKONCIT
-4.0000	DOKOUPIL
-4.0000	DOKTOR
-4.0000	DOKTORA
-4.0000	DOKTORE
-4.0000	DOKTOREM
-4.0000	DOKTORKA
-4.0000	DOKTORKO
-4.0000	DOKTORKOU
-4.0000	DOKTORKU
-4.0000	DOKTORKY
-4.0000	DOKUD
-4.0000	DOKUMENT
-4.0000	DOKUMENTACE
-4.0000	DOKUMENTU
-4.0000	DOKUMENTY
-4.0000	DOLAR
-4.0000	DOLARU
-4.0000	DOLE
-4.0000	DOLNI
-4.0000	DOLNICH
-4.0000	DOLNIM
-4.0000	DOLU
-4.0000	DOMA
-4.0000	DOMACI
-4.0000	DOMACICH
-4.0000	DOMACIHO
-4.0000	DOMACIM
-4.0000	DOMACNOST
-4.0000	DOMACNOSTI
-4.0000	DOME
-4.0000	DOMECEK
-4.0000	DOMECH
-4.0000	DOMEK
-4.0000	DOMEM
-4.0000	DOMINANTNI
-4.0000	DOMLUVIL
-4.0000	DOMLUVILI
-4.0000	DOMLUVIT
-4.0000	DOMNENKA
-4.0000	DOMNIVAM
-4.0000	DOMNIVAME
-4.0000	DOMOV
-4.0000	DOMOVA
-4.0000	DOMOVU
-4.0000	DOMOVY
-4.0000	DOMU
-4.0000	DOMY
-4.0000	DONEDAVNA
-4.0000	DOOPRAVDY
-4.0000	DOPAD
-4.0000	DOPADL
-4.0000	DOPADLO
-4.0000	DOPADLY
-4.0000	DOPADNE
-4.0000	DOPADNOU
-4.0000	DOPADNOUT
-4.0000	DOPADY
-4.0000	DOPIS
-4.0000	DOPLNIL
-4.0000	DOPLNIM
-4.0000	DOPLNIT
-4.0000	DOPLNOVAT
-4.0000	DOPOLEDNE
-4.0000	DOPOLEDNI
-4.0000	DOPOLEDNIHO
-4.0000	DOPOLEDNIM
-4.0000	DOPORUCENI
-4.0000	DOPORUCIL
-4.0000	DOPORUCILA
-4.0000	DOPORUCIT
-4.0000	DOPORUCOVAL
-4.0000	DOPORUCUJE
-4.0000	DOPORUCUJI
-4.0000	DOPORUCUJU
-4.0000	DOPOSUD
-4.0000	DOPRAVA
-4.0000	DOPRAVE
-4.0000	DOPRAVNI
-4.0000	DOPRAVNICH
-4.0000	DOPRAVNIHO
-4.0000	DOPRAVNIM
-4.0000	DOPRAVOU
-4.0000	DOPRAVU
-4.0000	DOPRAVY
-4.0000	DOPREDU
-4.0000	DOPROVODNY
-4.0000	DOPUSTIL
-4.0000	DORAZI
-4.0000	DORAZIN
-4.0000	DOSAH
-4.0000	DOSAHLA
-4.0000	DOSAHLI
-4.0000	DOSAHNE
-4.0000	DOSAHNOUT
-4.0000	DOSAHUJE
-4.0000	DOSAVADNI
-4.0000	DOSAVADNICH
-4.0000	DOSLA
-4.0000	DOSLI
-4.0000	DOSLO
-4.0000	DOSLOVA
-4.0000	DOSPEL
-4.0000	DOSPELE
-4.0000	DOSPELEHO
-4.0000	DOSPELI
-4.0000	DOST
-4.0000	DOSTAL
-4.0000	DOSTALA
-4.0000	DOSTALI
-4.0000	DOSTALO
-4.0000	DOSTALY
-4.0000	DOSTANE
-4.0000	DOSTANEME
-4.0000	DOSTANETE
-4.0000	DOSTANOU
-4.0000	DOSTANU
-4.0000	DOSTAT
-4.0000	DOSTATECNA
-4.0000	DOSTATECNE
-4.0000	DOSTATECNY
-4.0000	DOSTATEK
-4.0000	DOSTAVA
-4.0000	DOSTAVAJI
-4.0000	DOSTAVAM
-4.0000	DOSTAVAME
-4.0000	DOSTAVAT
-4.0000	DOSTAVATE
-4.0000	DOSTI
-4.0000	DOSTUPNE
-4.0000	DOSTUPNOST
-4.0000	DOSUD
-4.0000	DOTACE
-4.0000	DOTACI
-4.0000	DOTAHNOUT
-4.0000	DOTAZ
-4.0000	DOTAZU
-4.0000	DOTAZY
-4.0000	DOTED
-4.0000	DOTKLO
-4.0000	DOTKNE
-4.0000	DOTYCNY
-4.0000	DOUFA
-4.0000	DOUFAM
-4.0000	DOUFAME
-4.0000	DOUFEJME
-4.0000	DOVAZET
-4.0000	DOVEDE
-4.0000	DOVEDNOSTI
-4.0000	DOVEDU
-4.0000	DOVNITR
-4.0000	DOVOLENA
-4.0000	DOVOLENE
-4.0000	DOVOLENIM
-4.0000	DOVOLENOU
-4.0000	DOVOLIL
-4.0000	DOVOLIT
-4.0000	DOVOLITE
-4.0000	DOVOZU
-4.0000	DOZORCI
-4.0000	DOZOROVE
-4.0000	DOZVEDEL
-4.0000	DOZVEDELA
-4.0000	DOZVEDELI
-4.0000	DOZVEDET
-4.0000	DOZVI
-4.0000	DOZVIME
-4.0000	DOZVITE
-4.0000	DPH
-4.0000	DRABEK
-4.0000	DRAH
-4.0000	DRAHA
-4.0000	DRAHE
-4.0000	DRAHU
-4.0000	DRAHY
-4.0000	DRAHYCH
-4.0000	DRAMATICKY
-4.0000	DRAMATURG
-4.0000	DRAZBE
-4.0000	DRAZE
-4.0000	DRAZSI
-4.0000	DREVENE
-4.0000	DREVO
-4.0000	DRIV
-4.0000	DRIVE
-4.0000	DROBNE
-4.0000	DROBNOU
-4.0000	DROBNYCH
-4.0000	DROG
-4.0000	DROGY
-4.0000	DRTIVA
-4.0000	DRUH
-4.0000	DRUHA
-4.0000	DRUHE
-4.0000	DRUHEHO
-4.0000	DRUHEJ
-4.0000	DRUHEM
-4.0000	DRUHEMU
-4.0000	DRUHOHOR
-4.0000	DRUHOU
-4.0000	DRUHU
-4.0000	DRUHY
-4.0000	DRUHYCH
-4.0000	DRUHYM
-4.0000	DRZEL
-4.0000	DRZELI
-4.0000	DRZENI
-4.0000	DRZET
-4.0000	DRZI
-4.0000	DRZIM
-4.0000	DUBNA
-4.0000	DUBNU
-4.0000	DUCHOD
-4.0000	DUCHODCE
-4.0000	DUCHODCU
-4.0000	DUCHODKYNE
-4.0000	DUCHODOVE
-4.0000	DUCHODU
-4.0000	DUCHOVNI
-4.0000	DUCHU
-4.0000	DUKAZ
-4.0000	DUKAZEM
-4.0000	DUKAZU
-4.0000	DUKAZY
-4.0000	DUKLADNE
-4.0000	DUL
-4.0000	DULEZITA
-4.0000	DULEZITE
-4.0000	DULEZITEJSI
-4.0000	DULEZITI
-4.0000	DULEZITOU
-4.0000	DULEZITY
-4.0000	DULEZITYCH
-4.0000	DULEZITYM
-4.0000	DUM
-4.0000	DURAZ
-4.0000	DUSAN
-4.0000	DUSE
-4.0000	DUSEVNI
-4.0000	DUSI
-4.0000	DUSLEDKEM
-4.0000	DUSLEDKU
-4.0000	DUSLEDKY
-4.0000	DUTINY
-4.0000	DUVERA
-4.0000	DUVERE
-4.0000	DUVERU
-4.0000	DUVERY
-4.0000	DUVERYHODNOSTI
-4.0000	DUVOD
-4.0000	DUVODEM
-4.0000	DUVODU
-4.0000	DUVODY
-4.0000	DVA
-4.0000	DVAA
-4.0000	DVAADVACATEHO
-4.0000	DVACATE
-4.0000	DVACATEHO
-4.0000	DVACET
-4.0000	DVACETI
-4.0000	DVAKRAT
-4.0000	DVANACT
-4.0000	DVANACTEHO
-4.0000	DVANACTI
-4.0000	DVATISICE
-4.0000	DVATISICECTRNACT
-4.0000	DVATISICECTYRI
-4.0000	DVATISICEDESET
-4.0000	DVATISICEDEVET
-4.0000	DVATISICEDVA
-4.0000	DVATISICEDVACET
-4.0000	DVATISICEDVANACT
-4.0000	DVATISICEJEDENACT
-4.0000	DVATISICEOSM
-4.0000	DVATISICEPATNACT
-4.0000	DVATISICEPET
-4.0000	DVATISICESEDM
-4.0000	DVATISICESEST
-4.0000	DVATISICETRI
-4.0000	DVATISICETRINACT
-4.0000	DVATISICICTRNACT
-4.0000	DVATISICIJEDENACT
-4.0000	DVATISICJEDENACT
-4.0000	DVATRI
-4.0000	DVE
-4.0000	DVEMA
-4.0000	DVEMI
-4.0000	DVERE
-4.0000	DVERI
-4.0000	DVOJCE
-4.0000	DVOJKA
-4.0000	DVOJKY
-4.0000	DVORAK
-4.0000	DVORAKA
-4.0000	DVOU
-4.0000	DYL
-4.0000	E
-4.0000	EDUARD
-4.0000	EDWARD
-4.0000	EFEKT
-4.0000	EFEKTIVNE
-4.0000	EFEKTIVNI
-4.0000	EFEKTU
-4.0000	EGYPT
-4.0000	EGYPTA
-4.0000	EGYPTANE
-4.0000	EGYPTE
-4.0000	EGYPTSKE
-4.0000	EKONOM
-4.0000	EKONOMICE
-4.0000	EKONOMICKA
-4.0000	EKONOMICKE
-4.0000	EKONOMICKEHO
-4.0000	EKONOMICKOU
-4.0000	EKONOMICKY
-4.0000	EKONOMICKYCH
-4.0000	EKONOMIE
-4.0000	EKONOMII
-4.0000	EKONOMIKA
-4.0000	EKONOMIKOU
-4.0000	EKONOMIKU
-4.0000	EKONOMIKY
-4.0000	EKONOMOVE
-4.0000	ELEKTRAREN
-4.0000	ELEKTRARNY
-4.0000	ELEKTRICKE
-4.0000	ELEKTRICKOU
-4.0000	ELEKTRINA
-4.0000	ELEKTRINOU
-4.0000	ELEKTRINU
-4.0000	ELEKTRINY
-4.0000	ELEKTRONICKE
-4.0000	ELISKA
-4.0000	ELITNI
-4.0000	EMAIL
-4.0000	EMOCE
-4.0000	EMOCI
-4.0000	EMOTIVNE
-4.0000	ENCEFALITIDY
-4.0000	ENERGETICKE
-4.0000	ENERGETICKEHO
-4.0000	ENERGETICKOU
-4.0000	ENERGETICKY
-4.0000	ENERGETIKA
-4.0000	ENERGETIKY
-4.0000	ENERGIE
-4.0000	ENERGII
-4.0000	EPIDEMIE
-4.0000	ERA
-4.0000	ERDOGAN
-4.0000	ERY
-4.0000	ETAPA
-4.0000	ETAPY
-4.0000	EUR
-4.0000	EURA
-4.0000	EURO
-4.0000	EUROPOSLANCI
-4.0000	EUROZONA
-4.0000	EUROZONE
-4.0000	EUROZONY
-4.0000	EVA
-4.0000	EVENTUALNE
-4.0000	EVENTUELNE
-4.0000	EVIDENCE
-4.0000	EVIDENTNE
-4.0000	EVIDENTNI
-4.0000	EVROPA
-4.0000	EVROPE
-4.0000	EVROPOU
-4.0000	EVROPSKA
-4.0000	EVROPSKE
-4.0000	EVROPSKEHO
-4.0000	EVROPSKEM
-4.0000	EVROPSKOU
-4.0000	EVROPSKY
-4.0000	EVROPSKYCH
-4.0000	EVROPSKYM
-4.0000	EVROPSTI
-4.0000	EVROPU
-4.0000	EVROPY
-4.0000	EX
-4.0000	EXCELENTNI
-4.0000	EXEKUCI
-4.0000	EXEKUCNI
-4.0000	EXISTENCE
-4.0000	EXISTOVALA
-4.0000	EXISTOVALY
-4.0000	EXISTOVAT
-4.0000	EXISTUJE
-4.0000	EXISTUJI
-4.0000	EXPEDICE
-4.0000	EXPERT
-4.0000	EXPERTI
-4.0000	EXPERTU
-4.0000	EXTRA
-4.0000	EXTRALIGY
-4.0000	EXTREMISTU
-4.0000	EXTREMNE
-4.0000	EXTREMNI
-4.0000	EXTREMNICH
-4.0000	FACEBOOK
-4.0000	FACEBOOKOVEM
-4.0000	FACEBOOKU
-4.0000	FACTO
-4.0000	FAJN
-4.0000	FAKT
-4.0000	FAKTA
-4.0000	FAKTEM
-4.0000	FAKTICKY
-4.0000	FAKTOR
-4.0000	FAKTORU
-4.0000	FAKTORY
-4.0000	FAKTURY
-4.0000	FAKULTNI
-4.0000	FAKULTY
-4.0000	FAMU
-4.0000	FANOUSCI
-4.0000	FANOUSKY
-4.0000	FARMACEUTICKE
-4.0000	FARNOSTI
-4.0000	FASCINUJE
-4.0000	FAZE
-4.0000	FAZI
-4.0000	FAZICH
-4.0000	FED
-4.0000	FEDERALNI
-4.0000	FENOMEN
-4.0000	FESTIVAL
-4.0000	FESTIVALU
-4.0000	FICA
-4.0000	FICO
-4.0000	FILHARMONIE
-4.0000	FILIPA
-4.0000	FILIPINY
-4.0000	FILM
-4.0000	FILMECH
-4.0000	FILMEM
-4.0000	FILMOVEHO
-4.0000	FILMOVOU
-4.0000	FILMOVY
-4.0000	FILMU
-4.0000	FILMY
-4.0000	FINALE
-4.0000	FINALNI
-4.0000	FINANCE
-4.0000	FINANCI
-4.0000	FINANCNE
-4.0000	FINANCNI
-4.0000	FINANCNICH
-4.0000	FINANCNICTVI
-4.0000	FINANCNIHO
-4.0000	FINANCNIM
-4.0000	FINANCOVANI
-4.0000	FINANCOVAT
-4.0000	FINGERLAND
-4.0000	FIREM
-4.0000	FIRMA
-4.0000	FIRMACH
-4.0000	FIRMAM
-4.0000	FIRME
-4.0000	FIRMOU
-4.0000	FIRMU
-4.0000	FIRMY
-4.0000	FISCHER
-4.0000	FISCHERA
-4.0000	FISKALNI
-4.0000	FOND
-4.0000	FONDU
-4.0000	FONDY
-4.0000	FOREM
-4.0000	FORMA
-4.0000	FORMALNI
-4.0000	FORMAT
-4.0000	FORME
-4.0000	FORMOU
-4.0000	FORMU
-4.0000	FORMULAR
-4.0000	FORMY
-4.0000	FOTBAL
-4.0000	FOTBALE
-4.0000	FOTBALISTE
-4.0000	FOTBALISTY
-4.0000	FOTBALOVE
-4.0000	FOTBALOVEHO
-4.0000	FOTBALOVY
-4.0000	FOTBALU
-4.0000	FOTIL
-4.0000	FOTKY
-4.0000	FOTOGRAF
-4.0000	FOTOGRAFIE
-4.0000	FOTOGRAFII
-4.0000	FRANCE
-4.0000	FRANCIE
-4.0000	FRANCII
-4.0000	FRANCOUZSKA
-4.0000	FRANCOUZSKE
-4.0000	FRANCOUZSKY
-4.0000	FRANTISEK
-4.0000	FRANTISKA
-4.0000	FRANTISKEM
-4.0000	FREKVENCE
-4.0000	FRENSTAT
-4.0000	FRONTY
-4.0000	FRUSTRACE
-4.0000	FRYDECKOMISTECKU
-4.0000	FRYDKUMISTKU
-4.0000	FUNGOVALA
-4.0000	FUNGOVALO
-4.0000	FUNGOVANI
-4.0000	FUNGOVAT
-4.0000	FUNGUJE
-4.0000	FUNGUJI
-4.0000	FUNGUJICI
-4.0000	FUNKCE
-4.0000	FUNKCI
-4.0000	FUNKCIONARI
-4.0000	FUNKCNI
-4.0000	FURT
-4.0000	FYZICKE
-4.0000	FYZICKY
-4.0000	GABRIEL
-4.0000	GABRIELA
-4.0000	GALERIE
-4.0000	GALERII
-4.0000	GARANCE
-4.0000	GARANTEM
-4.0000	GARNITURA
-4.0000	GAUCK
-4.0000	GAZDIK
-4.0000	GENERACE
-4.0000	GENERACI
-4.0000	GENERAL
-4.0000	GENERALNI
-4.0000	GENERALNIHO
-4.0000	GENETICKY
-4.0000	GENY
-4.0000	GEORGE
-4.0000	GLOBALNI
-4.0000	GOL
-4.0000	GRAF
-4.0000	GRAMU
-4.0000	GUVERNER
-4.0000	GYMNAZIUM
-4.0000	HAJE
-4.0000	HAJEK
-4.0000	HAJIT
-4.0000	HALE
-4.0000	HALO
-4.0000	HANA
-4.0000	HANAKOVA
-4.0000	HANKA
-4.0000	HARTMAN
-4.0000	HARVANKU
-4.0000	HASEK
-4.0000	HASICI
-4.0000	HASICU
-4.0000	HASKA
-4.0000	HAVEL
-4.0000	HAVLA
-4.0000	HAVLEM
-4.0000	HAVLICKOVA
-4.0000	HDP
-4.0000	HEJTMAN
-4.0000	HEJTMANA
-4.0000	HEJTMANEM
-4.0000	HEKTARU
-4.0000	HELE
-4.0000	HELENA
-4.0000	HEMODIALYZA
-4.0000	HER
-4.0000	HERCE
-4.0000	HERCEM
-4.0000	HERCI
-4.0000	HERCU
-4.0000	HEREC
-4.0000	HERECKA
-4.0000	HERECKE
-4.0000	HERECTVI
-4.0000	HERNY
-4.0000	HESLA
-4.0000	HEYDRICHA
-4.0000	HEZKA
-4.0000	HEZKE	-0.3010
-4.0000	HEZKOU
-4.0000	HEZKY
-4.0000	HEZKYCH
-4.0000	HIEROGLYFY
-4.0000	HISTORICKA
-4.0000	HISTORICKE
-4.0000	HISTORICKEHO
-4.0000	HISTORICKY
-4.0000	HISTORICKYCH
-4.0000	HISTORIE
-4.0000	HISTORII
-4.0000	HISTORIK
-4.0000	HISTORIKA
-4.0000	HIT
-4.0000	HITLER
-4.0000	HIV
-4.0000	HLADINA
-4.0000	HLADINE
-4.0000	HLADINOU
-4.0000	HLADINY
-4.0000	HLAS
-4.0000	HLASI
-4.0000	HLASIT
-4.0000	HLASOVAL
-4.0000	HLASOVALI
-4.0000	HLASOVANI
-4.0000	HLASOVAT
-4.0000	HLASU
-4.0000	HLASY
-4.0000	HLAVA
-4.0000	HLAVE
-4.0000	HLAVNE
-4.0000	HLAVNI
-4.0000	HLAVNICH
-4.0000	HLAVNIHO
-4.0000	HLAVNIM
-4.0000	HLAVNIMI
-4.0000	HLAVOU
-4.0000	HLAVU
-4.0000	HLAVY
-4.0000	HLEDA
-4.0000	HLEDAJI
-4.0000	HLEDAL
-4.0000	HLEDALI
-4.0000	HLEDAME
-4.0000	HLEDANI
-4.0000	HLEDAT
-4.0000	HLEDISKA
-4.0000	HLIDAT
-4.0000	HLOUBEJI
-4.0000	HLOUBKA
-4.0000	HLOUBKY
-4.0000	HLOUPY
-4.0000	HLUBOCE
-4.0000	HLUBOKA
-4.0000	HLUBOKE
-4.0000	HLUBOKO
-4.0000	HLUBOKY
-4.0000	HLUBSI
-4.0000	HLUK
-4.0000	HLUKU
-4.0000	HM
-4.0000	HMOTY
-4.0000	HNED
-4.0000	HNEDEHO
-4.0000	HNIZDA
-4.0000	HNIZDENI
-4.0000	HNUTI
-4.0000	HNUTIM
-4.0000	HO
-4.0000	HODI
-4.0000	HODIN
-4.0000	HODINA
-4.0000	HODINACH
-4.0000	HODINE
-4.0000	HODINOU
-4.0000	HODINU
-4.0000	HODINY
-4.0000	HODNE
-4.0000	HODNI
-4.0000	HODNOCENI
-4.0000	HODNOTA
-4.0000	HODNOTI
-4.0000	HODNOTIT
-4.0000	HODNOTITE
-4.0000	HODNOTU
-4.0000	HODNOTY
-4.0000	HOKEJ
-4.0000	HOKEJI
-4.0000	HOLKY
-4.0000	HOLLAND
-4.0000	HOLOCAUSTU
-4.0000	HOLT
-4.0000	HOLUB
-4.0000	HOMOSEXUALNI
-4.0000	HONZA
-4.0000	HONZO
-4.0000	HOR
-4.0000	HORACH
-4.0000	HORIZONTU
-4.0000	HORNI
-4.0000	HORNICH
-4.0000	HORNIHO
-4.0000	HORSI
-4.0000	HORY
-4.0000	HOSEK
-4.0000	HOSPITALIZACE
-4.0000	HOSPODARENI
-4.0000	HOSPODARI
-4.0000	HOSPODARIT
-4.0000	HOSPODARSKE
-4.0000	HOSPODARSKY
-4.0000	HOSPODARSKYCH
-4.0000	HOSPODARSTVI
-4.0000	HOST
-4.0000	HOSTA
-4.0000	HOSTE
-4.0000	HOSTEM
-4.0000	HOSTI
-4.0000	HOSTU
-4.0000	HOSTY
-4.0000	HOTOVE
-4.0000	HOTOVO
-4.0000	HOTOVY
-4.0000	HOUBY
-4.0000	HOUSKA
-4.0000	HOUSLE
-4.0000	HOVOR
-4.0000	HOVORI
-4.0000	HOVORIL
-4.0000	HOVORILA
-4.0000	HOVORILI
-4.0000	HOVORILO
-4.0000	HOVORIME
-4.0000	HOVORIT
-4.0000	HRA
-4.0000	HRAC
-4.0000	HRACE
-4.0000	HRACEM
-4.0000	HRACH
-4.0000	HRACI
-4.0000	HRACKY
-4.0000	HRACU
-4.0000	HRAD
-4.0000	HRADE
-4.0000	HRADEM
-4.0000	HRADNI
-4.0000	HRADU
-4.0000	HRAJE
-4.0000	HRAJEME
-4.0000	HRAJETE
-4.0000	HRAJI
-4.0000	HRAJOU
-4.0000	HRAJU
-4.0000	HRAL
-4.0000	HRALA
-4.0000	HRALI
-4.0000	HRALO
-4.0000	HRANE
-4.0000	HRANI
-4.0000	HRANIC
-4.0000	HRANICE
-4.0000	HRANICI
-4.0000	HRANICNI
-4.0000	HRAT
-4.0000	HRAZE
-4.0000	HRBITOV
-4.0000	HRE
-4.0000	HRISTE
-4.0000	HROMADNOU
-4.0000	HROZBA
-4.0000	HROZBU
-4.0000	HROZI
-4.0000	HROZILO
-4.0000	HROZNA
-4.0000	HROZNE
-4.0000	HROZNY
-4.0000	HRU
-4.0000	HRUBE
-4.0000	HRUBY
-4.0000	HRY
-4.0000	HUBNETE
-4.0000	HUBNUTI
-4.0000	HUDBA
-4.0000	HUDBE
-4.0000	HUDBU
-4.0000	HUDBY
-4.0000	HUDEBNI
-4.0000	HUDEBNIHO
-4.0000	HUMANITARNI
-4.0000	HUMANITARNICH
-4.0000	HUMOR
-4.0000	HUMOREM
-4.0000	HUMORU
-4.0000	HUR
-4.0000	HURE
-4.0000	HUSITSKE
-4.0000	HUTI
-4.0000	HVEZDA
-4.0000	HVEZDARNA
-4.0000	HVEZDARNY
-4.0000	HVEZDY
-4.0000	HYBAT
-4.0000	HYDROMETEOROLOGICKEHO
-4.0000	HYGIENICI
-4.0000	HYGIENICKE
-4.0000	HYNEK
-4.0000	HYPOTETICKY
-4.0000	I
-4.0000	IDEALNE
-4.0000	IDEALNI
-4.0000	IDEOVE
-4.0000	IHNED
-4.0000	II
-4.0000	III
-4.0000	ILUZE
-4.0000	IMAGE
-4.0000	IMIGRANTU
-4.0000	IMPLIKACE
-4.0000	IMPULS
-4.0000	IMUNITA
-4.0000	IMUNITU
-4.0000	IN
-4.0000	INDICIE
-4.0000	INDII
-4.0000	INDIVIDUALNE
-4.0000	INDIVIDUALNI
-4.0000	INFEKCE
-4.0000	INFLACE
-4.0000	INFORMACE
-4.0000	INFORMACI
-4.0000	INFORMACIM
-4.0000	INFORMACNI
-4.0000	INFORMATIKY
-4.0000	INFORMOVAL
-4.0000	INFORMOVALI
-4.0000	INFORMOVAT
-4.0000	INFORMUJE
-4.0000	INFRASTRUKTURY
-4.0000	INICIATIVA
-4.0000	INICIATIVOU
-4.0000	INICIATIVU
-4.0000	INICIATIVY
-4.0000	INSCENACI
-4.0000	INSPEKCE
-4.0000	INSPEKTORI
-4.0000	INSPEKTORU
-4.0000	INSPIRACE
-4.0000	INSPIRACI
-4.0000	INSPIRATIVNI
-4.0000	INSPIROVAT
-4.0000	INSTALACE
-4.0000	INSTITUCE
-4.0000	INSTITUCI
-4.0000	INSTITUCIONALNI
-4.0000	INSTITUT
-4.0000	INSTITUTU
-4.0000	INTEGRACE
-4.0000	INTEGROVANEHO
-4.0000	INTENZIVNE
-4.0000	INTENZIVNI
-4.0000	INTERNET
-4.0000	INTERNETOVE
-4.0000	INTERNETU
-4.0000	INTERNI
-4.0000	INTERPRETACE
-4.0000	INTERVAL
-4.0000	INTERVALY
-4.0000	INTERVENCE
-4.0000	INTERVENCI
-4.0000	INTERVIEW
-4.0000	INTIMNI
-4.0000	INVESTIC
-4.0000	INVESTICE
-4.0000	INVESTICI
-4.0000	INVESTICNICH
-4.0000	INVESTOR
-4.0000	INVESTORI
-4.0000	INVESTORU
-4.0000	INVESTORY
-4.0000	INVESTOVAT
-4.0000	INVESTUJE
-4.0000	INVESTUJI
-4.0000	INZENYR
-4.0000	INZENYRA
-4.0000	IRAK
-4.0000	IRAKU
-4.0000	IRAN
-4.0000	IRANU
-4.0000	IRENA
-4.0000	IRSKA
-4.0000	IRSKU
-4.0000	ISLAM
-4.0000	ISLAMSKYCH
-4.0000	ISLAMU
-4.0000	ISTVAN
-4.0000	IT
-4.0000	ITALIE
-4.0000	ITALII
-4.0000	ITALSKE
-4.0000	ITALSKEHO
-4.0000	ITALSKOU
-4.0000	ITALSKY
-4.0000	IVA
-4.0000	IVAN
-4.0000	IVANA
-4.0000	IVANE
-4.0000	IVO
-4.0000	IZOLACE
-4.0000	IZRAEL
-4.0000	IZRAELCI
-4.0000	IZRAELE
-4.0000	IZRAELEM
-4.0000	IZRAELI
-4.0000	IZRAELSKE
-4.0000	J
-4.0000	JA
-4.0000	JACI
-4.0000	JADERNA
-4.0000	JADERNE
-4.0000	JADERNOU
-4.0000	JADERNY
-4.0000	JADERNYCH
-4.0000	JADRO
-4.0000	JAGRA
-4.0000	JAK
-4.0000	JAKA
-4.0000	JAKAKOLIV
-4.0000	JAKASI
-4.0000	JAKE
-4.0000	JAKEHO
-4.0000	JAKEHOSI
-4.0000	JAKEKOLI
-4.0000	JAKEKOLIV
-4.0000	JAKEM
-4.0000	JAKESI
-4.0000	JAKKOLIV
-4.0000	JAKMILE
-4.0000	JAKO
-4.0000	JAKOBY
-4.0000	JAKOU
-4.0000	JAKOUKOLIV
-4.0000	JAKOUSI
-4.0000	JAKOZE
-4.0000	JAKOZTO
-4.0000	JAKSI
-4.0000	JAKUB
-4.0000	JAKY
-4.0000	JAKYCH
-4.0000	JAKYCHKOLIV
-4.0000	JAKYCHSI
-4.0000	JAKYKOLI
-4.0000	JAKYKOLIV
-4.0000	JAKYM
-4.0000	JAKYMI
-4.0000	JAKYMKOLIV
-4.0000	JAKYMSI
-4.0000	JAKYSI
-4.0000	JAN
-4.0000	JANA
-4.0000	JANALIK
-4.0000	JANEM
-4.0000	JANICEK
-4.0000	JANOUSKA
-4.0000	JANU
-4.0000	JANUKOVYC
-4.0000	JANUKOVYCEM
-4.0000	JANY
-4.0000	JAPONSKO
-4.0000	JARA
-4.0000	JARDA
-4.0000	JARE
-4.0000	JARMILA
-4.0000	JARO
-4.0000	JAROMIR
-4.0000	JAROMIRA
-4.0000	JAROSLAV
-4.0000	JAROSLAVA
-4.0000	JASNA
-4.0000	JASNE
-4.0000	JASNO
-4.0000	JASNOU
-4.0000	JASNY
-4.0000	JASNYCH
-4.0000	JAZYCE
-4.0000	JAZYK
-4.0000	JAZYKA
-4.0000	JAZYKEM
-4.0000	JDE
-4.0000	JDEME
-4.0000	JDETE
-4.0000	JDOU
-4.0000	JDU
-4.0000	JE
-4.0000	JECKELOVA
-4.0000	JEDE
-4.0000	JEDEME
-4.0000	JEDEN
-4.0000	JEDENA
-4.0000	JEDENACT
-4.0000	JEDENACTE
-4.0000	JEDENACTEHO
-4.0000	JEDENACTI
-4.0000	JEDENADVACATEHO
-4.0000	JEDETE
-4.0000	JEDINA
-4.0000	JEDINE
-4.0000	JEDINEHO
-4.0000	JEDINEJ
-4.0000	JEDINI
-4.0000	JEDINOU
-4.0000	JEDINY
-4.0000	JEDINYM
-4.0000	JEDL
-4.0000	JEDNA
-4.0000	JEDNACI
-4.0000	JEDNAJI
-4.0000	JEDNAK
-4.0000	JEDNAL
-4.0000	JEDNALA
-4.0000	JEDNALI
-4.0000	JEDNALO
-4.0000	JEDNAME
-4.0000	JEDNANI
-4.0000	JEDNANICH
-4.0000	JEDNANIM
-4.0000	JEDNAPET
-4.0000	JEDNAT
-4.0000	JEDNE
-4.0000	JEDNICKA
-4.0000	JEDNIM
-4.0000	JEDNO
-4.0000	JEDNODUCHA
-4.0000	JEDNODUCHE
-4.0000	JEDNODUCHY
-4.0000	JEDNODUCHYCH
-4.0000	JEDNODUSE
-4.0000	JEDNODUSSI
-4.0000	JEDNOHO
-4.0000	JEDNOM
-4.0000	JEDNOMU
-4.0000	JEDNOTEK
-4.0000	JEDNOTKA
-4.0000	JEDNOTKU
-4.0000	JEDNOTKY
-4.0000	JEDNOTLIVA
-4.0000	JEDNOTLIVE
-4.0000	JEDNOTLIVYCH
-4.0000	JEDNOTLIVYMI
-4.0000	JEDNOTNY
-4.0000	JEDNOU
-4.0000	JEDNOZNACNA
-4.0000	JEDNOZNACNE
-4.0000	JEDNOZNACNY
-4.0000	JEDNU
-4.0000	JEDNY
-4.0000	JEDOU
-4.0000	JEDU
-4.0000	JEHO
-4.0000	JEHOZ
-4.0000	JEJ
-4.0000	JEJI
-4.0000	JEJICH
-4.0000	JEJICHZ
-4.0000	JEJIHO
-4.0000	JEJIM
-4.0000	JEJIMZ
-4.0000	JEJIZ
-4.0000	JEL
-4.0000	JELI
-4.0000	JELIKOZ
-4.0000	JELINEK
-4.0000	JELINKA
-4.0000	JEMNE
-4.0000	JEMU
-4.0000	JEN
-4.0000	JENOM
-4.0000	JENOMZE
-4.0000	JENZE
-4.0000	JERONYM
-4.0000	JERUZALEMA
-4.0000	JERUZALEME
-4.0000	JESLE
-4.0000	JEST
-4.0000	JESTE
-4.0000	JESTLI
-4.0000	JESTLIPAK
-4.0000	JESTLIZE
-4.0000	JET
-4.0000	JEV
-4.0000	JEVI
-4.0000	JEVISTI
-4.0000	JEVY
-4.0000	JEZ
-4.0000	JEZDI
-4.0000	JEZDIL
-4.0000	JEZDILI
-4.0000	JEZDIM
-4.0000	JEZDIME
-4.0000	JEZDIT
-4.0000	JEZDITE
-4.0000	JEZEK
-4.0000	JI
-4.0000	JICH
-4.0000	JIDELNICEK
-4.0000	JIDELNICKU
-4.0000	JIDELNY
-4.0000	JIDLA
-4.0000	JIDLE
-4.0000	JIDLO
-4.0000	JIDLU
-4.0000	JIH
-4.0000	JIHOAFRICKE
-4.0000	JIHOCESKEHO
-4.0000	JIHU
-4.0000	JIM
-4.0000	JIMI
-4.0000	JINA
-4.0000	JINAK
-4.0000	JINAM
-4.0000	JINDE
-4.0000	JINDRICH
-4.0000	JINDY
-4.0000	JINE
-4.0000	JINEHO
-4.0000	JINEJ
-4.0000	JINEM
-4.0000	JINEMU
-4.0000	JINI
-4.0000	JINOU
-4.0000	JINY
-4.0000	JINYCH
-4.0000	JINYHO
-4.0000	JINYM
-4.0000	JINYMI
-4.0000	JIRI
-4.0000	JIRIHO
-4.0000	JIRIM
-4.0000	JIRIMU
-4.0000	JIRKA
-4.0000	JIST
-4.0000	JISTA
-4.0000	JISTE
-4.0000	JISTEM
-4.0000	JISTI
-4.0000	JISTOTA
-4.0000	JISTOTU
-4.0000	JISTOTY
-4.0000	JISTOU
-4.0000	JISTY
-4.0000	JIT
-4.0000	JITKA
-4.0000	JIZ
-4.0000	JIZDU
-4.0000	JIZERSKYCH
-4.0000	JIZNI
-4.0000	JIZNIM
-4.0000	JMEN
-4.0000	JMENA
-4.0000	JMENEM
-4.0000	JMENO
-4.0000	JMENOVAL
-4.0000	JMENOVALA
-4.0000	JMENOVANI
-4.0000	JMENOVANIM
-4.0000	JMENOVAT
-4.0000	JMENUJE
-4.0000	JMENY
-4.0000	JO
-4.0000	JOGURT
-4.0000	JOHN
-4.0000	JOSEF
-4.0000	JOSEFA
-4.0000	JSEM
-4.0000	JSI
-4.0000	JSME
-4.0000	JSOU
-4.0000	JSTE
-4.0000	K
-4.0000	KABINET
-4.0000	KABINETU
-4.0000	KACENI
-4.0000	KAFKA
-4.0000	KAHIRE
-4.0000	KAHIRY
-4.0000	KAJNAR
-4.0000	KALENDARE
-4.0000	KALOUSEK
-4.0000	KALOUSKA
-4.0000	KAM
-4.0000	KAMARAD
-4.0000	KAMARADA
-4.0000	KAMARADI
-4.0000	KAMARADKU
-4.0000	KAMARADU
-4.0000	KAMARADY
-4.0000	KAMEN
-4.0000	KAMENEM
-4.0000	KAMENY
-4.0000	KAMERA
-4.0000	KAMEROU
-4.0000	KAMERU
-4.0000	KAMERY
-4.0000	KAMIONY
-4.0000	KAMKOLIV
-4.0000	KAMPAN
-4.0000	KAMPANE
-4.0000	KAMPANI
-4.0000	KANALIZACE
-4.0000	KANCELAR
-4.0000	KANCELARE
-4.0000	KANCELARI
-4.0000	KANCLER
-4.0000	KANCLERE
-4.0000	KANCLEREM
-4.0000	KANCLERKY
-4.0000	KANDIDAT
-4.0000	KANDIDATA
-4.0000	KANDIDATCE
-4.0000	KANDIDATEM
-4.0000	KANDIDATI
-4.0000	KANDIDATKY
-4.0000	KANDIDATU
-4.0000	KANDIDATY
-4.0000	KANDIDOVAT
-4.0000	KAPACITA
-4.0000	KAPACITU
-4.0000	KAPACITY
-4.0000	KAPELA
-4.0000	KAPELOU
-4.0000	KAPELU
-4.0000	KAPELY
-4.0000	KAPITAN
-4.0000	KAPITOLA
-4.0000	KAPLE
-4.0000	KAPRA
-4.0000	KAPSY
-4.0000	KAREL
-4.0000	KARET
-4.0000	KARIERNI
-4.0000	KARIERU
-4.0000	KARIERY
-4.0000	KARLA
-4.0000	KARLEM
-4.0000	KARLOVY
-4.0000	KAROLINU
-4.0000	KARTA
-4.0000	KARTU
-4.0000	KARTY
-4.0000	KARVINA
-4.0000	KARVINE
-4.0000	KARVINSKU
-4.0000	KASY
-4.0000	KATALOGU
-4.0000	KATASTROFA
-4.0000	KATASTROFY
-4.0000	KATEDRY
-4.0000	KATEGORIE
-4.0000	KATEGORII
-4.0000	KATERINA
-4.0000	KATERINOU
-4.0000	KATETR
-4.0000	KATOLICKA
-4.0000	KATOLICKE
-4.0000	KAUZ
-4.0000	KAUZA
-4.0000	KAUZE
-4.0000	KAUZU
-4.0000	KAUZY
-4.0000	KAVU
-4.0000	KAVY
-4.0000	KAZDA
-4.0000	KAZDE
-4.0000	KAZDEHO
-4.0000	KAZDEJ
-4.0000	KAZDEM
-4.0000	KAZDEMU
-4.0000	KAZDOPADNE
-4.0000	KAZDOROCNE
-4.0000	KAZDOU
-4.0000	KAZDY
-4.0000	KAZDYCH
-4.0000	KAZDYM
-4.0000	KDE
-4.0000	KDEZTO
-4.0000	KDO
-4.0000	KDOKOLI
-4.0000	KDOKOLIV
-4.0000	KDUCSL
-4.0000	KDY
-4.0000	KDYBY
-4.0000	KDYBYCH
-4.0000	KDYBYCHOM
-4.0000	KDYBYSME
-4.0000	KDYBYSTE
-4.0000	KDYKOLI
-4.0000	KDYKOLIV
-4.0000	KDYSI
-4.0000	KDYZ
-4.0000	KE
-4.0000	KENNEDYHO
-4.0000	KERRY
-4.0000	KILO
-4.0000	KILOJOULU
-4.0000	KILOMETR
-4.0000	KILOMETRU
-4.0000	KILOMETRY
-4.0000	KIM
-4.0000	KIN
-4.0000	KINA
-4.0000	KINDLOVA
-4.0000	KINE
-4.0000	KINECH
-4.0000	KINEMATOGRAFIE
-4.0000	KLADE
-4.0000	KLADNE
-4.0000	KLADNO
-4.0000	KLARA
-4.0000	KLARO
-4.0000	KLASICKA
-4.0000	KLASICKE
-4.0000	KLASICKOU
-4.0000	KLASICKY
-4.0000	KLASIKA
-4.0000	KLASIKY
-4.0000	KLAST
-4.0000	KLAUS
-4.0000	KLAUSE
-4.0000	KLAUSEM
-4.0000	KLAUSOVA
-4.0000	KLAVIRNI
-4.0000	KLEMENTA
-4.0000	KLENOTY
-4.0000	KLESA
-4.0000	KLESAJI
-4.0000	KLESAT
-4.0000	KLESNOU
-4.0000	KLICE
-4.0000	KLICOVE
-4.0000	KLICOVOU
-4.0000	KLICOVY
-4.0000	KLID
-4.0000	KLIDNA
-4.0000	KLIDNE
-4.0000	KLIDNY
-4.0000	KLIDU
-4.0000	KLIENT
-4.0000	KLIENTA
-4.0000	KLIENTI
-4.0000	KLIENTU
-4.0000	KLIENTY
-4.0000	KLIMA
-4.0000	KLIMATICKE
-4.0000	KLIMATU
-4.0000	KLINICE
-4.0000	KLINIKY
-4.0000	KLISE
-4.0000	KLOUBU
-4.0000	KLOUBY
-4.0000	KLUB
-4.0000	KLUBU
-4.0000	KLUBY
-4.0000	KLUCI
-4.0000	KLUKUM
-4.0000	KLUKY
-4.0000	KMOTR
-4.0000	KNEZ
-4.0000	KNIH
-4.0000	KNIHA
-4.0000	KNIHACH
-4.0000	KNIHOVEN
-4.0000	KNIHOVNA
-4.0000	KNIHOVNE
-4.0000	KNIHOVNY
-4.0000	KNIHU
-4.0000	KNIHY
-4.0000	KNITL
-4.0000	KNIZKU
-4.0000	KNIZKY
-4.0000	KNOWHOW
-4.0000	KOALICE
-4.0000	KOALICI
-4.0000	KOALICNI
-4.0000	KOALICNICH
-4.0000	KOCEK
-4.0000	KOCKA
-4.0000	KOCKY
-4.0000	KOD
-4.0000	KODU
-4.0000	KOHO
-4.0000	KOHOKOLIV
-4.0000	KOL
-4.0000	KOLA
-4.0000	KOLAPS
-4.0000	KOLE
-4.0000	KOLECH
-4.0000	KOLEGA
-4.0000	KOLEGOU
-4.0000	KOLEGOVE
-4.0000	KOLEGU
-4.0000	KOLEGY
-4.0000	KOLEGYNE
-4.0000	KOLEJE
-4.0000	KOLEJI
-4.0000	KOLEKTIV
-4.0000	KOLEKTIVNI
-4.0000	KOLEKTIVU
-4.0000	KOLEM
-4.0000	KOLENA
-4.0000	KOLIK
-4.0000	KOLIKA
-4.0000	KOLIKRAT
-4.0000	KOLO
-4.0000	KOLONY
-4.0000	KOMBINACE
-4.0000	KOMBINACI
-4.0000	KOMENTAR
-4.0000	KOMENTARE
-4.0000	KOMENTARU
-4.0000	KOMENTATOR
-4.0000	KOMENTATORA
-4.0000	KOMENTATOREM
-4.0000	KOMENTOVAT
-4.0000	KOMERCNI
-4.0000	KOMIKS
-4.0000	KOMISAR
-4.0000	KOMISE
-4.0000	KOMISI
-4.0000	KOMORA
-4.0000	KOMORE
-4.0000	KOMORNI
-4.0000	KOMORY
-4.0000	KOMPENZACE
-4.0000	KOMPETENCE
-4.0000	KOMPLETNE
-4.0000	KOMPLETNI
-4.0000	KOMPLEX
-4.0000	KOMPLEXNI
-4.0000	KOMPLIKACE
-4.0000	KOMPLIKOVANA
-4.0000	KOMPLIKOVANE
-4.0000	KOMPLIKOVANEJSI
-4.0000	KOMPLIKUJE
-4.0000	KOMPROMIS
-4.0000	KOMU
-4.0000	KOMUNALNI
-4.0000	KOMUNIKACE
-4.0000	KOMUNIKACI
-4.0000	KOMUNIKOVAT
-4.0000	KOMUNISMU
-4.0000	KOMUNISTE
-4.0000	KOMUNISTICKE
-4.0000	KOMUNISTICKEHO
-4.0000	KOMUNISTU
-4.0000	KOMUNISTY
-4.0000	KOMUNIT
-4.0000	KOMUNITA
-4.0000	KOMUNITE
-4.0000	KOMUNITNI
-4.0000	KOMUNITY
-4.0000	KONA
-4.0000	KONALA
-4.0000	KONALO
-4.0000	KONANI
-4.0000	KONAT
-4.0000	KONCE
-4.0000	KONCEM
-4.0000	KONCENTRACE
-4.0000	KONCEPCE
-4.0000	KONCEPCI
-4.0000	KONCEPT
-4.0000	KONCERT
-4.0000	KONCERTU
-4.0000	KONCERTY
-4.0000	KONCI
-4.0000	KONCIT
-4.0000	KONCU
-4.0000	KONDICI
-4.0000	KONE
-4.0000	KONEC
-4.0000	KONECKONCU
-4.0000	KONECNA
-4.0000	KONECNE
-4.0000	KONECNIKU
-4.0000	KONFERENCE
-4.0000	KONFERENCI
-4.0000	KONFLIKT
-4.0000	KONFLIKTU
-4.0000	KONFLIKTY
-4.0000	KONGRES
-4.0000	KONGRESU
-4.0000	KONI
-4.0000	KONKRETNE
-4.0000	KONKRETNEJSI
-4.0000	KONKRETNI
-4.0000	KONKRETNICH
-4.0000	KONKRETNIHO
-4.0000	KONKRETNIM
-4.0000	KONKRETNIMI
-4.0000	KONKRETNIMU
-4.0000	KONKURENCESCHOPNOSTI
-4.0000	KONKURENCI
-4.0000	KONKUROVAT
-4.0000	KONOPI
-4.0000	KONSENSU
-4.0000	KONSTATOVAT
-4.0000	KONSTRUKCE
-4.0000	KONTAKT
-4.0000	KONTAKTOVAT
-4.0000	KONTAKTU
-4.0000	KONTAKTY
-4.0000	KONTEXT
-4.0000	KONTEXTU
-4.0000	KONTINENTU
-4.0000	KONTO
-4.0000	KONTROLA
-4.0000	KONTROLE
-4.0000	KONTROLNI
-4.0000	KONTROLNIHO
-4.0000	KONTROLOU
-4.0000	KONTROLOVAT
-4.0000	KONTROLU
-4.0000	KONTROLUJE
-4.0000	KONTROLUJI
-4.0000	KONTROLY
-4.0000	KONTROVERZNI
-4.0000	KONZERVATIVNI
-4.0000	KOORDINOVAT
-4.0000	KOPEC
-4.0000	KOPRIVNICI
-4.0000	KOREA
-4.0000	KOREJI
-4.0000	KOREKTNI
-4.0000	KORENY
-4.0000	KORUN
-4.0000	KORUNA
-4.0000	KORUNU
-4.0000	KORUNY
-4.0000	KORUPCE
-4.0000	KORUPCI
-4.0000	KORUPCNI
-4.0000	KORYTA
-4.0000	KOSMICKA
-4.0000	KOSMICKE
-4.0000	KOSTEL
-4.0000	KOSTELA
-4.0000	KOSTELE
-4.0000	KOSTI
-4.0000	KOTEL
-4.0000	KOTLU
-4.0000	KOUKA
-4.0000	KOUKAT
-4.0000	KOUPAT
-4.0000	KOUPI
-4.0000	KOUPIL
-4.0000	KOUPILA
-4.0000	KOUPILI
-4.0000	KOUPIT
-4.0000	KOURENI
-4.0000	KOURI
-4.0000	KOURIT
-4.0000	KOUSEK
-4.0000	KOUSICEK
-4.0000	KOUZLO
-4.0000	KOZAK
-4.0000	KOZNI
-4.0000	KRABICI
-4.0000	KRABICKY
-4.0000	KRADE
-4.0000	KRADEZE
-4.0000	KRAJ
-4.0000	KRAJANE
-4.0000	KRAJE
-4.0000	KRAJI
-4.0000	KRAJICH
-4.0000	KRAJINA
-4.0000	KRAJINE
-4.0000	KRAJINU
-4.0000	KRAJSKE
-4.0000	KRAJSKEHO
-4.0000	KRAJSKEM
-4.0000	KRAJSKY
-4.0000	KRAJSKYCH
-4.0000	KRAJU
-4.0000	KRALE
-4.0000	KRALIK
-4.0000	KRALOVSKE
-4.0000	KRALOVSTVI
-4.0000	KRALU
-4.0000	KRASA
-4.0000	KRASNA
-4.0000	KRASNE
-4.0000	KRASNOU
-4.0000	KRASNY
-4.0000	KRAT
-4.0000	KRATCE
-4.0000	KRATKE
-4.0000	KRATKEM
-4.0000	KRATKOSTI
-4.0000	KRATKOU
-4.0000	KRATKY
-4.0000	KRATSI
-4.0000	KRAUS
-4.0000	KRAUSOVA
-4.0000	KRCNI
-4.0000	KREATIVITU
-4.0000	KRECEK
-4.0000	KRESLO
-4.0000	KRESTANSKE
-4.0000	KRESTANSKYCH
-4.0000	KRESTANSTVI
-4.0000	KRESTANU
-4.0000	KREV
-4.0000	KREVNI
-4.0000	KREVNIHO
-4.0000	KRIDLO
-4.0000	KRIMINALISTE
-4.0000	KRITERIA
-4.0000	KRITERII
-4.0000	KRITICI
-4.0000	KRITICKA
-4.0000	KRITICKE
-4.0000	KRITICKY
-4.0000	KRITIKA
-4.0000	KRITIKU
-4.0000	KRITIKY
-4.0000	KRITIZOVAL
-4.0000	KRITIZOVAT
-4.0000	KRIZE
-4.0000	KRIZI
-4.0000	KRIZOVATKY
-4.0000	KRIZOVEHO
-4.0000	KRKU
-4.0000	KROC
-4.0000	KROK
-4.0000	KROKEM
-4.0000	KROKU
-4.0000	KROKY
-4.0000	KROM
-4.0000	KROME
-4.0000	KROUPA
-4.0000	KROUZKU
-4.0000	KRUHU
-4.0000	KRVE
-4.0000	KSC
-4.0000	KSCM
-4.0000	KTERA
-4.0000	KTERE
-4.0000	KTEREHO
-4.0000	KTEREJ
-4.0000	KTEREM
-4.0000	KTEREMU
-4.0000	KTERI
-4.0000	KTEROU
-4.0000	KTERY
-4.0000	KTERYCH
-4.0000	KTERYHO
-4.0000	KTERYM
-4.0000	KTERYMI
-4.0000	KU
-4.0000	KUBA
-4.0000	KUBE
-4.0000	KUBICKO
-4.0000	KUBIKU
-4.0000	KUCHYNE
-4.0000	KULATY
-4.0000	KULMINACE
-4.0000	KULMINOVAT
-4.0000	KULTURA
-4.0000	KULTURE
-4.0000	KULTURNI
-4.0000	KULTURNICH
-4.0000	KULTURNIM
-4.0000	KULTURU
-4.0000	KULTURY
-4.0000	KUN
-4.0000	KUPNI
-4.0000	KUPODIVU
-4.0000	KUPOVALI
-4.0000	KUPOVAT
-4.0000	KUPREDU
-4.0000	KUPUJE
-4.0000	KUPUJETE
-4.0000	KUPUJI
-4.0000	KURE
-4.0000	KURZ
-4.0000	KURZU
-4.0000	KURZY
-4.0000	KUS
-4.0000	KUSU
-4.0000	KUZE
-4.0000	KUZI
-4.0000	KVALIFIKACI
-4.0000	KVALITA
-4.0000	KVALITE
-4.0000	KVALITNE
-4.0000	KVALITNEJSI
-4.0000	KVALITNI
-4.0000	KVALITNICH
-4.0000	KVALITOU
-4.0000	KVALITU
-4.0000	KVALITY
-4.0000	KVETNA
-4.0000	KVETNU
-4.0000	KVULI
-4.0000	KYJEVA
-4.0000	KYJEVE
-4.0000	KYM
-4.0000	KYPR
-4.0000	KYPRU
-4.0000	KYTARA
-4.0000	KYTARU
-4.0000	LABE
-4.0000	LABEM
-4.0000	LADISLAV
-4.0000	LADY
-4.0000	LAICKY
-4.0000	LAKA
-4.0000	LAKAJI
-4.0000	LASKA
-4.0000	LASKOU
-4.0000	LASKU
-4.0000	LASKY
-4.0000	LATEK
-4.0000	LATINA
-4.0000	LATINSKE
-4.0000	LATKA
-4.0000	LATKU
-4.0000	LATKY
-4.0000	LAZENSKE
-4.0000	LAZNE
-4.0000	LAZNI
-4.0000	LAZNICH
-4.0000	LECBA
-4.0000	LECBE
-4.0000	LECBU
-4.0000	LECBY
-4.0000	LECCOS
-4.0000	LECEBNE
-4.0000	LECEBNYCH
-4.0000	LECI
-4.0000	LECIT
-4.0000	LEDACOS
-4.0000	LEDNA
-4.0000	LEDNU
-4.0000	LEDU
-4.0000	LEDVIN
-4.0000	LEDVINU
-4.0000	LEDVINY
-4.0000	LEGALNI
-4.0000	LEGISLATIVA
-4.0000	LEGISLATIVNI
-4.0000	LEGISLATIVY
-4.0000	LEGITIMNI
-4.0000	LEGRACE
-4.0000	LEGRACI
-4.0000	LEHCE
-4.0000	LEHCI
-4.0000	LEHKE
-4.0000	LEK
-4.0000	LEKAR
-4.0000	LEKARE
-4.0000	LEKAREM
-4.0000	LEKARI
-4.0000	LEKARKA
-4.0000	LEKARSKA
-4.0000	LEKARSKE
-4.0000	LEKARSKOU
-4.0000	LEKARU
-4.0000	LEKU
-4.0000	LEKY
-4.0000	LENKA
-4.0000	LEPE
-4.0000	LEPSI
-4.0000	LEPSIHO
-4.0000	LEPSIM
-4.0000	LES
-4.0000	LESA
-4.0000	LESE
-4.0000	LESNI
-4.0000	LET
-4.0000	LETA
-4.0000	LETADLA
-4.0000	LETADLE
-4.0000	LETADLO
-4.0000	LETE
-4.0000	LETECH
-4.0000	LETECKE
-4.0000	LETECTVI
-4.0000	LETECTVO
-4.0000	LETEHO
-4.0000	LETEL
-4.0000	LETELI
-4.0000	LETET
-4.0000	LETI
-4.0000	LETISTE
-4.0000	LETISTI
-4.0000	LETNI
-4.0000	LETNICH
-4.0000	LETO
-4.0000	LETOS
-4.0000	LETOSNI
-4.0000	LETOSNIHO
-4.0000	LETOSNIM
-4.0000	LETU
-4.0000	LETY
-4.0000	LEV
-4.0000	LEVICE
-4.0000	LEVICI
-4.0000	LEVICOVY
-4.0000	LEVNE
-4.0000	LEVNEJSI
-4.0000	LEZ
-4.0000	LEZET
-4.0000	LEZI
-4.0000	LHUTU
-4.0000	LIBANONU
-4.0000	LIBERALNI
-4.0000	LIBI
-4.0000	LIBIL
-4.0000	LIBILA
-4.0000	LIBILO
-4.0000	LIBIT
-4.0000	LIBOR
-4.0000	LIBORE
-4.0000	LIBOVE
-4.0000	LIBYE
-4.0000	LIBYI
-4.0000	LID
-4.0000	LIDE
-4.0000	LIDECH
-4.0000	LIDEM
-4.0000	LIDI
-4.0000	LIDMA
-4.0000	LIDMI
-4.0000	LIDOVCI
-4.0000	LIDOVCUM
-4.0000	LIDOVE
-4.0000	LIDOVYCH
-4.0000	LIDR
-4.0000	LIDREM
-4.0000	LIDSKA
-4.0000	LIDSKE
-4.0000	LIDSKOU
-4.0000	LIDSKY
-4.0000	LIDSKYCH
-4.0000	LIDSTVO
-4.0000	LIDU
-4.0000	LIGA
-4.0000	LIGU
-4.0000	LIGY
-4.0000	LIHU
-4.0000	LIMITY
-4.0000	LINCE
-4.0000	LINII
-4.0000	LINKACH
-4.0000	LINKU
-4.0000	LINKY
-4.0000	LIP
-4.0000	LISI
-4.0000	LIST
-4.0000	LISTEK
-4.0000	LISTI
-4.0000	LISTOPADU
-4.0000	LISTU
-4.0000	LISTY
-4.0000	LITERARNI
-4.0000	LITERATURA
-4.0000	LITERATURU
-4.0000	LITERATURY
-4.0000	LITO
-4.0000	LITRU
-4.0000	LITRY
-4.0000	LIVIA
-4.0000	LIZE
-4.0000	LOD
-4.0000	LODE
-4.0000	LODI
-4.0000	LOGICKE
-4.0000	LOGICKY
-4.0000	LOGIKU
-4.0000	LOKALIT
-4.0000	LOKALITE
-4.0000	LOKALITU
-4.0000	LOKALITY
-4.0000	LOKALNI
-4.0000	LONDYNA
-4.0000	LONDYNE
-4.0000	LONI
-4.0000	LONSKE
-4.0000	LONSKEHO
-4.0000	LONSKEM
-4.0000	LONSKY
-4.0000	LOUCI
-4.0000	LOUZE
-4.0000	LUBOMIR
-4.0000	LUBOMIRA
-4.0000	LUBOS
-4.0000	LUCIE
-4.0000	LUDMILA
-4.0000	LUKAS
-4.0000	LUKASE
-4.0000	LUSTRACNI
-4.0000	LUXUSNI
-4.0000	LYZOVANI
-4.0000	LZE
-4.0000	MA
-4.0000	MACHACEK
-4.0000	MADARSKU
-4.0000	MAFRA
-4.0000	MAGISTRAT
-4.0000	MAGISTRATU
-4.0000	MAGNETICKE
-4.0000	MAJ
-4.0000	MAJETEK
-4.0000	MAJETKEM
-4.0000	MAJETKOVA
-4.0000	MAJETKU
-4.0000	MAJETKY
-4.0000	MAJI
-4.0000	MAJITEL
-4.0000	MAJITELE
-4.0000	MAJITELEM
-4.0000	MAJITELI
-4.0000	MALA
-4.0000	MALE
-4.0000	MALEHO
-4.0000	MALEJ
-4.0000	MALEM
-4.0000	MALI
-4.0000	MALICKA
-4.0000	MALICKOST
-4.0000	MALINKO
-4.0000	MALO
-4.0000	MALOKDO
-4.0000	MALOKDY
-4.0000	MALOU
-4.0000	MALY
-4.0000	MALYCH
-4.0000	MALYM
-4.0000	MAM
-4.0000	MAMA
-4.0000	MAME
-4.0000	MAMINKA
-4.0000	MAMINKOU
-4.0000	MAMINKY
-4.0000	MANAGEMENT
-4.0000	MANAZER
-4.0000	MANAZERA
-4.0000	MANAZERI
-4.0000	MANDAT
-4.0000	MANDATU
-4.0000	MANDELA
-4.0000	MANEVRY
-4.0000	MANIPULACI
-4.0000	MANTINELY
-4.0000	MANZEL
-4.0000	MANZELA
-4.0000	MANZELE
-4.0000	MANZELEM
-4.0000	MANZELKA
-4.0000	MANZELKY
-4.0000	MANZELSTVI
-4.0000	MANZELU
-4.0000	MAPA
-4.0000	MAPUJE
-4.0000	MAREK
-4.0000	MARGARET
-4.0000	MARIE
-4.0000	MARKA
-4.0000	MARKEM
-4.0000	MARKETA
-4.0000	MARKETING
-4.0000	MARKETINGU
-4.0000	MARS
-4.0000	MARSU
-4.0000	MARTIN
-4.0000	MARTINA
-4.0000	MARTINE
-4.0000	MARTINEM
-4.0000	MARVANOVA
-4.0000	MAS
-4.0000	MASA
-4.0000	MASARYK
-4.0000	MASARYKOVY
-4.0000	MASIVNI
-4.0000	MASKY
-4.0000	MASO
-4.0000	MATE
-4.0000	MATEMATIKA
-4.0000	MATEMATIKU
-4.0000	MATEMATIKY
-4.0000	MATERIAL
-4.0000	MATERIALU
-4.0000	MATERIALUM
-4.0000	MATERIALY
-4.0000	MATERSKE
-4.0000	MATERSKYCH
-4.0000	MATKA
-4.0000	MATKOU
-4.0000	MATKU
-4.0000	MATKY
-4.0000	MAXIMALNE
-4.0000	MAXIMUM
-4.0000	ME
-4.0000	MECHANISMU
-4.0000	MECHANISMUS
-4.0000	MECHANISMY
-4.0000	MEDAILE
-4.0000	MEDAILI
-4.0000	MEDIA
-4.0000	MEDIALNE
-4.0000	MEDIALNI
-4.0000	MEDIALNIM
-4.0000	MEDICINA
-4.0000	MEDICINE
-4.0000	MEDICINU
-4.0000	MEDICINY
-4.0000	MEDII
-4.0000	MEDIICH
-4.0000	MEDIIM
-4.0000	MEHO
-4.0000	MEJTE
-4.0000	MEL
-4.0000	MELA
-4.0000	MELI
-4.0000	MELNIKU
-4.0000	MELO
-4.0000	MELY
-4.0000	MEM
-4.0000	MENA
-4.0000	MENE
-4.0000	MENI
-4.0000	MENIT
-4.0000	MENOVE
-4.0000	MENOVEHO
-4.0000	MENSI
-4.0000	MENSICH
-4.0000	MENSIM
-4.0000	MENSIN
-4.0000	MENSINA
-4.0000	MENSINOVE
-4.0000	MENSINY
-4.0000	MENTALNE
-4.0000	MERENI
-4.0000	MERI
-4.0000	MERIT
-4.0000	MERITKU
-4.0000	MERKELOVA
-4.0000	MERKELOVE
-4.0000	MESIC
-4.0000	MESICE
-4.0000	MESICEM
-4.0000	MESICI
-4.0000	MESICICH
-4.0000	MESICNE
-4.0000	MESICNI
-4.0000	MESICU
-4.0000	MESITACH
-4.0000	MEST
-4.0000	MESTA
-4.0000	MESTE
-4.0000	MESTECH
-4.0000	MESTECKA
-4.0000	MESTEM
-4.0000	MESTO
-4.0000	MESTSKA
-4.0000	MESTSKE
-4.0000	MESTSKEHO
-4.0000	MESTSKOU
-4.0000	MESTSKYCH
-4.0000	MESTU
-4.0000	METAL
-4.0000	METEORITY
-4.0000	METODA
-4.0000	METODIKU
-4.0000	METODOU
-4.0000	METODU
-4.0000	METODY
-4.0000	METR
-4.0000	METRA
-4.0000	METRO
-4.0000	METROPOLE
-4.0000	METRU
-4.0000	MEZ
-4.0000	MEZD
-4.0000	MEZI
-4.0000	MEZINARODNI
-4.0000	MEZINARODNICH
-4.0000	MEZINARODNIHO
-4.0000	MEZINARODNIM
-4.0000	MEZITIM
-4.0000	MI
-4.0000	MICHAEL
-4.0000	MICHAELA
-4.0000	MICHAIL
-4.0000	MICHAL
-4.0000	MICHALA
-4.0000	MICHALE
-4.0000	MICHALEM
-4.0000	MIKROFONEM
-4.0000	MIKROFONU
-4.0000	MIKULAS
-4.0000	MILAN
-4.0000	MILANA
-4.0000	MILANE
-4.0000	MILANEM
-4.0000	MILE
-4.0000	MILENA
-4.0000	MILI
-4.0000	MILIARD
-4.0000	MILIARDA
-4.0000	MILIARDU
-4.0000	MILIARDY
-4.0000	MILIMETRU
-4.0000	MILION
-4.0000	MILIONU
-4.0000	MILIONY
-4.0000	MILOS
-4.0000	MILOSE
-4.0000	MILOSEM
-4.0000	MILOSI
-4.0000	MILOST
-4.0000	MILUJU
-4.0000	MIMO
-4.0000	MIMOCHODEM
-4.0000	MIMORADNA
-4.0000	MIMORADNE
-4.0000	MIN
-4.0000	MINCE
-4.0000	MINENI
-4.0000	MINERALNICH
-4.0000	MINIMALNE
-4.0000	MINIMALNI
-4.0000	MINIMUM
-4.0000	MINISTERSTEV
-4.0000	MINISTERSTVA
-4.0000	MINISTERSTVEM
-4.0000	MINISTERSTVO
-4.0000	MINISTERSTVU
-4.0000	MINISTR
-4.0000	MINISTRA
-4.0000	MINISTRE
-4.0000	MINISTREM
-4.0000	MINISTRI
-4.0000	MINISTRU
-4.0000	MINISTRY
-4.0000	MINISTRYNE
-4.0000	MINISTRYNI
-4.0000	MINULA
-4.0000	MINULE
-4.0000	MINULEHO
-4.0000	MINULEM
-4.0000	MINULOSTI
-4.0000	MINULOU
-4.0000	MINULY
-4.0000	MINULYCH
-4.0000	MINULYM
-4.0000	MINUS
-4.0000	MINUT
-4.0000	MINUTACH
-4.0000	MINUTE
-4.0000	MINUTU
-4.0000	MINUTY
-4.0000	MIR
-4.0000	MIRA
-4.0000	MIRE
-4.0000	MIREK
-4.0000	MIRI
-4.0000	MIRKU
-4.0000	MIRNE
-4.0000	MIROSLAV
-4.0000	MIROSLAVA
-4.0000	MIROVE
-4.0000	MIRU
-4.0000	MIRY
-4.0000	MISE
-4.0000	MIST
-4.0000	MISTA
-4.0000	MISTE
-4.0000	MISTECH
-4.0000	MISTEM
-4.0000	MISTNI
-4.0000	MISTNICH
-4.0000	MISTNIHO
-4.0000	MISTNIM
-4.0000	MISTNOSTI
-4.0000	MISTO
-4.0000	MISTOPREDSEDA
-4.0000	MISTOPREDSEDKYNE
-4.0000	MISTOPREDSEDO
-4.0000	MISTOPREDSEDOU
-4.0000	MISTOPREDSEDU
-4.0000	MISTOPREDSEDY
-4.0000	MISTOSTAROSTA
-4.0000	MISTR
-4.0000	MISTRI
-4.0000	MISTROVSTVI
-4.0000	MISTRU
-4.0000	MISTY
-4.0000	MIT
-4.0000	MIVAJI
-4.0000	MLADA
-4.0000	MLADE
-4.0000	MLADEK
-4.0000	MLADEZ
-4.0000	MLADEZE
-4.0000	MLADI
-4.0000	MLADKU
-4.0000	MLADOU
-4.0000	MLADSI
-4.0000	MLADY
-4.0000	MLADYCH
-4.0000	MLADYM
-4.0000	MLADYMI
-4.0000	MLCKY
-4.0000	MLEKO
-4.0000	MLUVCI
-4.0000	MLUVI
-4.0000	MLUVIL
-4.0000	MLUVILA
-4.0000	MLUVILI
-4.0000	MLUVILO
-4.0000	MLUVILY
-4.0000	MLUVIM
-4.0000	MLUVIME
-4.0000	MLUVIT
-4.0000	MLUVITE
-4.0000	MNE
-4.0000	MNICHOVU
-4.0000	MNOHA
-4.0000	MNOHDY
-4.0000	MNOHE
-4.0000	MNOHEM
-4.0000	MNOHO
-4.0000	MNOHOKRAT
-4.0000	MNOU
-4.0000	MNOZI
-4.0000	MNOZSTVI
-4.0000	MOBILNI
-4.0000	MOBILNICH
-4.0000	MOBILY
-4.0000	MOC
-4.0000	MOCI
-4.0000	MOCKRAT
-4.0000	MOCT
-4.0000	MODA
-4.0000	MODEL
-4.0000	MODELU
-4.0000	MODELY
-4.0000	MODERATOR
-4.0000	MODERNI
-4.0000	MODERNICH
-4.0000	MODERNIM
-4.0000	MODERNIZACI
-4.0000	MOHL
-4.0000	MOHLA
-4.0000	MOHLI
-4.0000	MOHLO
-4.0000	MOHLY
-4.0000	MOHOU
-4.0000	MOHU
-4.0000	MOJE
-4.0000	MOJI
-4.0000	MOMENT
-4.0000	MOMENTALNE
-4.0000	MOMENTE
-4.0000	MOMENTU
-4.0000	MOMENTY
-4.0000	MONARCHIE
-4.0000	MORAVA
-4.0000	MORAVCE
-4.0000	MORAVE
-4.0000	MORAVSKE
-4.0000	MORAVSKOSLEZSKEHO
-4.0000	MORAVSKOSLEZSKEM
-4.0000	MORAVY
-4.0000	MORE
-4.0000	MOREM
-4.0000	MORI
-4.0000	MOSKVA
-4.0000	MOSKVE
-4.0000	MOSKVY
-4.0000	MOST
-4.0000	MOSTE
-4.0000	MOSTECKE
-4.0000	MOSTU
-4.0000	MOSTY
-4.0000	MOTIV
-4.0000	MOTIVACE
-4.0000	MOTIVACI
-4.0000	MOTIVEM
-4.0000	MOTIVY
-4.0000	MOTOL
-4.0000	MOTORY
-4.0000	MOZKOVE
-4.0000	MOZKU
-4.0000	MOZNA
-4.0000	MOZNE
-4.0000	MOZNEHO
-4.0000	MOZNO
-4.0000	MOZNOST
-4.0000	MOZNOSTI
-4.0000	MOZNY
-4.0000	MOZNYCH
-4.0000	MRAZ
-4.0000	MRKEV
-4.0000	MRTVYCH
-4.0000	MRZI
-4.0000	MSE
-4.0000	MU
-4.0000	MUHAMAD
-4.0000	MUJ
-4.0000	MURSI
-4.0000	MURSIHO
-4.0000	MUSEJI
-4.0000	MUSEL
-4.0000	MUSELA
-4.0000	MUSELI
-4.0000	MUSELO
-4.0000	MUSELY
-4.0000	MUSET
-4.0000	MUSI
-4.0000	MUSIM
-4.0000	MUSIME
-4.0000	MUSIS
-4.0000	MUSITE
-4.0000	MUSLIMSKE
-4.0000	MUSLIMSKEHO
-4.0000	MUZ
-4.0000	MUZE
-4.0000	MUZEA
-4.0000	MUZEME
-4.0000	MUZES
-4.0000	MUZETE
-4.0000	MUZEU
-4.0000	MUZEUM
-4.0000	MUZI
-4.0000	MUZICE
-4.0000	MUZIKA
-4.0000	MUZIKAL
-4.0000	MUZIKANT
-4.0000	MUZIKU
-4.0000	MUZOU
-4.0000	MUZSKE
-4.0000	MUZU
-4.0000	MY
-4.0000	MYCH
-4.0000	MYHO
-4.0000	MYLIM
-4.0000	MYM
-4.0000	MYNAR
-4.0000	MYSLEL
-4.0000	MYSLELA
-4.0000	MYSLELI
-4.0000	MYSLENI
-4.0000	MYSLENKA
-4.0000	MYSLENKAMI
-4.0000	MYSLENKOU
-4.0000	MYSLENKU
-4.0000	MYSLENKY
-4.0000	MYSLENO
-4.0000	MYSLET
-4.0000	MYSLI
-4.0000	MYSLIM
-4.0000	MYSLIME
-4.0000	MYSLIS
-4.0000	MYSLITE
-4.0000	MYTY
-4.0000	MZDA
-4.0000	MZDU
-4.0000	MZDY
-4.0000	NA
-4.0000	NABIDKA
-4.0000	NABIDKOU
-4.0000	NABIDKU
-4.0000	NABIDKY
-4.0000	NABIDL
-4.0000	NABIDLI
-4.0000	NABIDLO
-4.0000	NABIDNE
-4.0000	NABIDNOUT
-4.0000	NABIZEJI
-4.0000	NABIZEL
-4.0000	NABIZET
-4.0000	NABIZI
-4.0000	NABIZIME
-4.0000	NABOZENSKE
-4.0000	NABOZENSTVI
-4.0000	NABREZI
-4.0000	NACHAZI
-4.0000	NAD
-4.0000	NADA
-4.0000	NADACE
-4.0000	NADACNI
-4.0000	NADALE
-4.0000	NADEJE
-4.0000	NADEJI
-4.0000	NADHERNA
-4.0000	NADHERNE
-4.0000	NADHERNY
-4.0000	NADNARODNI
-4.0000	NADOBI
-4.0000	NADOBY
-4.0000	NADRAZI
-4.0000	NADRZE
-4.0000	NADSAZKOU
-4.0000	NADSENI
-4.0000	NADSTANDARDNI
-4.0000	NAGYOVOU
-4.0000	NAHLAS
-4.0000	NAHLE
-4.0000	NAHLEDNOUT
-4.0000	NAHLIZET
-4.0000	NAHODA
-4.0000	NAHODOU
-4.0000	NAHORE
-4.0000	NAHORU
-4.0000	NAHRAD
-4.0000	NAHRADI
-4.0000	NAHRADIT
-4.0000	NAHRADNI
-4.0000	NAHRADU
-4.0000	NAHRADY
-4.0000	NAIVNI
-4.0000	NAJDE
-4.0000	NAJDEME
-4.0000	NAJDETE
-4.0000	NAJDOU
-4.0000	NAJEDNOU
-4.0000	NAJEM
-4.0000	NAJEVO
-4.0000	NAJIT
-4.0000	NAKAZY
-4.0000	NAKLAD
-4.0000	NAKLADATELSTVI
-4.0000	NAKLADNE
-4.0000	NAKLADNI
-4.0000	NAKLADU
-4.0000	NAKLADY
-4.0000	NAKOLIK
-4.0000	NAKONEC
-4.0000	NAKUP
-4.0000	NAKUPOVAT
-4.0000	NAKUPU
-4.0000	NAKUPUJI
-4.0000	NAKUPY
-4.0000	NALAD
-4.0000	NALADA
-4.0000	NALADILI
-4.0000	NALADU
-4.0000	NALADY
-4.0000	NALEHAVE
-4.0000	NALEZ
-4.0000	NALEZL
-4.0000	NALEZT
-4.0000	NALEZY
-4.0000	NAM
-4.0000	NAMA
-4.0000	NAMESTEK
-4.0000	NAMESTI
-4.0000	NAMESTKA
-4.0000	NAMESTKEM
-4.0000	NAMESTKU
-4.0000	NAMESTKYNE
-4.0000	NAMET
-4.0000	NAMI
-4.0000	NAMITKAMI
-4.0000	NAMORNI
-4.0000	NAOPAK
-4.0000	NAPAD
-4.0000	NAPADA
-4.0000	NAPADAJI
-4.0000	NAPADLO
-4.0000	NAPADNE
-4.0000	NAPADY
-4.0000	NAPETI
-4.0000	NAPISE
-4.0000	NAPLANOVANO
-4.0000	NAPLNIT
-4.0000	NAPLNO
-4.0000	NAPLNOVAT
-4.0000	NAPLNUJE
-4.0000	NAPOR
-4.0000	NAPOSLED
-4.0000	NAPOSLEDY
-4.0000	NAPRAVU
-4.0000	NAPRED
-4.0000	NAPRIC
-4.0000	NAPRIKLAD
-4.0000	NAPROSTA
-4.0000	NAPROSTE
-4.0000	NAPROSTO
-4.0000	NAPROSTOU
-4.0000	NAPROSTY
-4.0000	NAPSAL
-4.0000	NAPSALA
-4.0000	NAPSALY
-4.0000	NAPSANO
-4.0000	NAPSANY
-4.0000	NAPSAT
-4.0000	NARADI
-4.0000	NARAZ
-4.0000	NARAZIL
-4.0000	NARAZILA
-4.0000	NARAZIME
-4.0000	NARIDI
-4.0000	NARIZENI
-4.0000	NAROCNA
-4.0000	NAROCNE
-4.0000	NAROCNOST
-4.0000	NAROCNY
-4.0000	NAROD
-4.0000	NARODA
-4.0000	NARODIL
-4.0000	NARODILA
-4.0000	NARODILI
-4.0000	NARODNI
-4.0000	NARODNICH
-4.0000	NARODNIHO
-4.0000	NARODNIM
-4.0000	NARODNOSTNI
-4.0000	NARODU
-4.0000	NAROK
-4.0000	NAROKY
-4.0000	NAROVINU
-4.0000	NAROZENI
-4.0000	NARUST
-4.0000	NARUSTU
-4.0000	NARYCHLO
-4.0000	NAS
-4.0000	NASADIT
-4.0000	NASAZENI
-4.0000	NASE
-4.0000	NASEHO
-4.0000	NASEL
-4.0000	NASEM
-4.0000	NASEMU
-4.0000	NASHLEDANOU
-4.0000	NASI
-4.0000	NASICH
-4.0000	NASILI
-4.0000	NASIM
-4.0000	NASIMI
-4.0000	NASLA
-4.0000	NASLEDKY
-4.0000	NASLEDNE
-4.0000	NASLEDOVAT
-4.0000	NASLEDUJE
-4.0000	NASLEDUJICI
-4.0000	NASLEDUJICICH
-4.0000	NASLI
-4.0000	NASLO
-4.0000	NASLY
-4.0000	NASNADE
-4.0000	NASTAL
-4.0000	NASTALA
-4.0000	NASTANE
-4.0000	NASTAT
-4.0000	NASTAVA
-4.0000	NASTAVEN
-4.0000	NASTAVENA
-4.0000	NASTAVENE
-4.0000	NASTAVENI
-4.0000	NASTAVENY
-4.0000	NASTAVIT
-4.0000	NASTESTI
-4.0000	NASTOUPI
-4.0000	NASTOUPIL
-4.0000	NASTOUPIT
-4.0000	NASTROJ
-4.0000	NASTROJE
-4.0000	NASTROJEM
-4.0000	NASTROJU
-4.0000	NASTUP
-4.0000	NASTUPCE
-4.0000	NASTUPEM
-4.0000	NASTUPUJE
-4.0000	NATACENI
-4.0000	NATER
-4.0000	NATO
-4.0000	NATOCEN
-4.0000	NATOCIL
-4.0000	NATOCILA
-4.0000	NATOLIK
-4.0000	NATVRDO
-4.0000	NAUCI
-4.0000	NAUCIL
-4.0000	NAUCILA
-4.0000	NAUCILI
-4.0000	NAUCIT
-4.0000	NAVAZAT
-4.0000	NAVAZUJE
-4.0000	NAVIC
-4.0000	NAVOD
-4.0000	NAVRAT
-4.0000	NAVRATU
-4.0000	NAVRH
-4.0000	NAVRHEM
-4.0000	NAVRHL
-4.0000	NAVRHOVAL
-4.0000	NAVRHU
-4.0000	NAVRHUJE
-4.0000	NAVRHUM
-4.0000	NAVRHY
-4.0000	NAVRZENE
-4.0000	NAVSTEVA
-4.0000	NAVSTEVE
-4.0000	NAVSTEVNICI
-4.0000	NAVSTEVNIKU
-4.0000	NAVSTEVNIKY
-4.0000	NAVSTEVOVAT
-4.0000	NAVSTEVU
-4.0000	NAVSTEVY
-4.0000	NAVSTIVIL
-4.0000	NAVSTIVIT
-4.0000	NAVYKY
-4.0000	NAVYSENI
-4.0000	NAVYSIT
-4.0000	NAVZDORY
-4.0000	NAZEV
-4.0000	NAZNACIL
-4.0000	NAZNACILA
-4.0000	NAZNACUJE
-4.0000	NAZNACUJETE
-4.0000	NAZOR
-4.0000	NAZOREM
-4.0000	NAZORU
-4.0000	NAZORY
-4.0000	NAZVAL
-4.0000	NAZVANE
-4.0000	NAZVAT
-4.0000	NAZVEM
-4.0000	NAZVEME
-4.0000	NAZVU
-4.0000	NE
-4.0000	NEB
-4.0000	NEBAVI
-4.0000	NEBE
-4.0000	NEBEROU
-4.0000	NEBEZPECI
-4.0000	NEBEZPECNA
-4.0000	NEBEZPECNE
-4.0000	NEBEZPECNY
-4.0000	NEBO
-4.0000	NEBOLI
-4.0000	NEBOT
-4.0000	NEBUDE
-4.0000	NEBUDEME
-4.0000	NEBUDETE
-4.0000	NEBUDOU
-4.0000	NEBUDU
-4.0000	NEBYL
-4.0000	NEBYLA
-4.0000	NEBYLI
-4.0000	NEBYLO
-4.0000	NEBYLY
-4.0000	NECAS
-4.0000	NECASE
-4.0000	NECASOVA
-4.0000	NECASOVY
-4.0000	NECEHO
-4.0000	NECEKA
-4.0000	NECEKAL
-4.0000	NECEKAM
-4.0000	NECEKANE
-4.0000	NECELE
-4.0000	NECELYCH
-4.0000	NECEM
-4.0000	NECEMU
-4.0000	NECHA
-4.0000	NECHAJI
-4.0000	NECHAL
-4.0000	NECHALA
-4.0000	NECHALI
-4.0000	NECHAM
-4.0000	NECHAME
-4.0000	NECHAPU
-4.0000	NECHAT
-4.0000	NECHATE
-4.0000	NECHAVA
-4.0000	NECHAVAT
-4.0000	NECHCE
-4.0000	NECHCEME
-4.0000	NECHCETE
-4.0000	NECHCI
-4.0000	NECHME
-4.0000	NECHODI
-4.0000	NECHOVA
-4.0000	NECHT
-4.0000	NECHTE
-4.0000	NECHTEJI
-4.0000	NECHTEL
-4.0000	NECHTELA
-4.0000	NECHTELI
-4.0000	NECIM
-4.0000	NECITI
-4.0000	NECITIM
-4.0000	NECO
-4.0000	NEDA
-4.0000	NEDAJI
-4.0000	NEDALEKO
-4.0000	NEDALI
-4.0000	NEDALO
-4.0000	NEDARI
-4.0000	NEDARILO
-4.0000	NEDAVA
-4.0000	NEDAVNO
-4.0000	NEDEJE
-4.0000	NEDELA
-4.0000	NEDELAJI
-4.0000	NEDELAL
-4.0000	NEDELALI
-4.0000	NEDELAM
-4.0000	NEDELAME
-4.0000	NEDELE
-4.0000	NEDELI
-4.0000	NEDOCHAZELO
-4.0000	NEDOCHAZI
-4.0000	NEDOJDE
-4.0000	NEDOKAZAL
-4.0000	NEDOKAZE
-4.0000	NEDOKAZEME
-4.0000	NEDOKAZOU
-4.0000	NEDOKAZU
-4.0000	NEDOSLO
-4.0000	NEDOSTAL
-4.0000	NEDOSTALA
-4.0000	NEDOSTALI
-4.0000	NEDOSTALO
-4.0000	NEDOSTANE
-4.0000	NEDOSTANETE
-4.0000	NEDOSTATECNE
-4.0000	NEDOSTATEK
-4.0000	NEDOSTATKEM
-4.0000	NEDOVEDU
-4.0000	NEEXISTUJE
-4.0000	NEFUNGUJE
-4.0000	NEFUNGUJI
-4.0000	NEGATIVNE
-4.0000	NEGATIVNI
-4.0000	NEGATIVNIM
-4.0000	NEHO
-4.0000	NEHOD
-4.0000	NEHODE
-4.0000	NEHODU
-4.0000	NEHODY
-4.0000	NEHRAJE
-4.0000	NEHRAL
-4.0000	NEHROZI
-4.0000	NEHTY
-4.0000	NEJ
-4.0000	NEJACI
-4.0000	NEJAK
-4.0000	NEJAKA
-4.0000	NEJAKE
-4.0000	NEJAKEHO
-4.0000	NEJAKEJ
-4.0000	NEJAKEJCH
-4.0000	NEJAKEM
-4.0000	NEJAKEMU
-4.0000	NEJAKOU
-4.0000	NEJAKY
-4.0000	NEJAKYCH
-4.0000	NEJAKYHO
-4.0000	NEJAKYM
-4.0000	NEJAKYMI
-4.0000	NEJBLIZSI
-4.0000	NEJBLIZSICH
-4.0000	NEJCASTEJI
-4.0000	NEJCASTEJSI
-4.0000	NEJDE
-4.0000	NEJDOU
-4.0000	NEJDRAZSI
-4.0000	NEJDRIV
-4.0000	NEJDRIVE
-4.0000	NEJDULEZITEJSI
-4.0000	NEJEDNA
-4.0000	NEJEN	-0.3010
-4.0000	NEJENOM
-4.0000	NEJHEZCI
-4.0000	NEJHORSI
-4.0000	NEJHUR
-4.0000	NEJJEDNODUSSI
-4.0000	NEJKRASNEJSI
-4.0000	NEJLEPE
-4.0000	NEJLEPSI
-4.0000	NEJLEPSICH
-4.0000	NEJLEPSIM
-4.0000	NEJLIP
-4.0000	NEJMENE
-4.0000	NEJMENSI
-4.0000	NEJMIN
-4.0000	NEJMLADSI
-4.0000	NEJNIZSI
-4.0000	NEJNOVEJSI
-4.0000	NEJPOZDEJI
-4.0000	NEJPRAVDEPODOBNEJSI
-4.0000	NEJPRVE
-4.0000	NEJRADSI
-4.0000	NEJRUZNEJSI
-4.0000	NEJRUZNEJSICH
-4.0000	NEJRYCHLEJSI
-4.0000	NEJSEM
-4.0000	NEJSILNEJSI
-4.0000	NEJSME
-4.0000	NEJSOU
-4.0000	NEJSPIS
-4.0000	NEJSTARSI
-4.0000	NEJSTARSIHO
-4.0000	NEJSTE
-4.0000	NEJTEZSI
-4.0000	NEJVETSI
-4.0000	NEJVETSICH
-4.0000	NEJVETSIHO
-4.0000	NEJVETSIM
-4.0000	NEJVHODNEJSI
-4.0000	NEJVIC
-4.0000	NEJVICE
-4.0000	NEJVYSSI
-4.0000	NEJVYSSICH
-4.0000	NEJVYSSIHO
-4.0000	NEJVYSSIM
-4.0000	NEJZNAMEJSI
-4.0000	NEKAM
-4.0000	NEKDE
-4.0000	NEKDEJSI
-4.0000	NEKDO
-4.0000	NEKDY
-4.0000	NEKOHO
-4.0000	NEKOLIK
-4.0000	NEKOLIKA
-4.0000	NEKOLIKRAT
-4.0000	NEKOMU
-4.0000	NEKONCI
-4.0000	NEKONECNE
-4.0000	NEKTERA
-4.0000	NEKTERE
-4.0000	NEKTERI
-4.0000	NEKTEROU
-4.0000	NEKTERY
-4.0000	NEKTERYCH
-4.0000	NEKTERYM
-4.0000	NEKTERYMI
-4.0000	NEKVALITNI
-4.0000	NEKYM
-4.0000	NELIBI
-4.0000	NELIBILO
-4.0000	NELZE
-4.0000	NEM
-4.0000	NEMA
-4.0000	NEMAJI
-4.0000	NEMAM
-4.0000	NEMAME
-4.0000	NEMATE
-4.0000	NEMCI
-4.0000	NEMCOVA
-4.0000	NEMCOVE
-4.0000	NEMCOVOU
-4.0000	NEMCU
-4.0000	NEMECKA
-4.0000	NEMECKE
-4.0000	NEMECKEHO
-4.0000	NEMECKEM
-4.0000	NEMECKO
-4.0000	NEMECKU
-4.0000	NEMECKY
-4.0000	NEMECKYCH
-4.0000	NEMECTI
-4.0000	NEMEL
-4.0000	NEMELA
-4.0000	NEMELI
-4.0000	NEMELO
-4.0000	NEMELY
-4.0000	NEMENI
-4.0000	NEMLUVI
-4.0000	NEMLUVIL
-4.0000	NEMLUVIM
-4.0000	NEMOC
-4.0000	NEMOCI
-4.0000	NEMOCNA
-4.0000	NEMOCNE
-4.0000	NEMOCNIC
-4.0000	NEMOCNICE
-4.0000	NEMOCNICI
-4.0000	NEMOCNICICH
-4.0000	NEMOCNOU
-4.0000	NEMOCNY
-4.0000	NEMOCNYCH
-4.0000	NEMOHL
-4.0000	NEMOHLA
-4.0000	NEMOHLI
-4.0000	NEMOHLO
-4.0000	NEMOHLY
-4.0000	NEMOHOU
-4.0000	NEMOHU
-4.0000	NEMOVITOST
-4.0000	NEMOVITOSTI
-4.0000	NEMOZNE
-4.0000	NEMOZNY
-4.0000	NEMU
-4.0000	NEMUSEL
-4.0000	NEMUSELA
-4.0000	NEMUSELI
-4.0000	NEMUSELY
-4.0000	NEMUSI
-4.0000	NEMUSIM
-4.0000	NEMUSIME
-4.0000	NEMUSITE
-4.0000	NEMUZE
-4.0000	NEMUZEME
-4.0000	NEMUZETE
-4.0000	NEMUZOU
-4.0000	NEMUZU
-4.0000	NEMYSLEL
-4.0000	NEMYSLIM
-4.0000	NEMYSLITE
-4.0000	NEMZ
-4.0000	NENAPADLO
-4.0000	NENASEL
-4.0000	NENASLI
-4.0000	NENI
-4.0000	NEODPOVIDA
-4.0000	NEOZYVA
-4.0000	NEPAMATUJU
-4.0000	NEPATRI
-4.0000	NEPLATI
-4.0000	NEPLETU
-4.0000	NEPOCHYBNE
-4.0000	NEPODARI
-4.0000	NEPODARILO
-4.0000	NEPODPORI
-4.0000	NEPOKOJE
-4.0000	NEPOMOHLO
-4.0000	NEPOMUZE
-4.0000	NEPOTREBUJE
-4.0000	NEPOTREBUJEME
-4.0000	NEPOTREBUJETE
-4.0000	NEPOVEDLO
-4.0000	NEPREDPOKLADAL
-4.0000	NEPRIJATELNA
-4.0000	NEPRIJATELNE
-4.0000	NEPRIJDE
-4.0000	NEPRIJEMNE
-4.0000	NEPRIJEMNY
-4.0000	NEPRILIS
-4.0000	NEPRISEL
-4.0000	NEPRITELE
-4.0000	NEPRITELEM
-4.0000	NEPUJDE
-4.0000	NEPUJDU
-4.0000	NEPUSTIL
-4.0000	NERAD
-4.0000	NERADA
-4.0000	NERADI
-4.0000	NEREKL
-4.0000	NEREKLA
-4.0000	NEREKLI
-4.0000	NEREKNE
-4.0000	NEREKNU
-4.0000	NERESI
-4.0000	NERESILO
-4.0000	NERIKA
-4.0000	NERIKAJI
-4.0000	NERIKAL
-4.0000	NERIKAM
-4.0000	NERIKEJTE
-4.0000	NEROZUMI
-4.0000	NEROZUMIM
-4.0000	NEROZUMIME
-4.0000	NERVOZITA
-4.0000	NERVOZNI
-4.0000	NESCHOPNOSTI
-4.0000	NESE
-4.0000	NESEL
-4.0000	NESETE
-4.0000	NESKUTECNE
-4.0000	NESKUTECNY
-4.0000	NESLO
-4.0000	NESLYSEL
-4.0000	NESLYSELI
-4.0000	NESMI
-4.0000	NESMIM
-4.0000	NESMIME
-4.0000	NESMIRNE
-4.0000	NESMYSL
-4.0000	NESMYSLNE
-4.0000	NESMYSLY
-4.0000	NESOUHLASI
-4.0000	NESOUHLASIM
-4.0000	NESOUVISI
-4.0000	NESTACI
-4.0000	NESTALO
-4.0000	NESTANDARDNI
-4.0000	NESTANE
-4.0000	NESTASTNE
-4.0000	NESTASTNY
-4.0000	NESTESTI
-4.0000	NESTOJI
-4.0000	NETRADICNI
-4.0000	NETUSIL
-4.0000	NETUSIM
-4.0000	NETYKA
-4.0000	NEUDELA
-4.0000	NEUDELAL
-4.0000	NEUMELA
-4.0000	NEUMI
-4.0000	NEUMIM
-4.0000	NEUMIME
-4.0000	NEUSTALE
-4.0000	NEUVERITELNE
-4.0000	NEUVERITELNY
-4.0000	NEVADI
-4.0000	NEVADILO
-4.0000	NEVEDE
-4.0000	NEVEDEL
-4.0000	NEVEDELA
-4.0000	NEVEDELI
-4.0000	NEVEDI
-4.0000	NEVERI
-4.0000	NEVERIL
-4.0000	NEVERIM
-4.0000	NEVI
-4.0000	NEVIDEL
-4.0000	NEVIDELA
-4.0000	NEVIDELI
-4.0000	NEVIDI
-4.0000	NEVIDIM
-4.0000	NEVIDIME
-4.0000	NEVIM
-4.0000	NEVIME
-4.0000	NEVITE
-4.0000	NEVLADNI
-4.0000	NEVYDRZI
-4.0000	NEVYPADA
-4.0000	NEVYPLATI
-4.0000	NEVYRESI
-4.0000	NEVYSLO
-4.0000	NEW
-4.0000	NEZ
-4.0000	NEZAJIMA
-4.0000	NEZAJIMAVE
-4.0000	NEZALEZI
-4.0000	NEZAMESTNANI
-4.0000	NEZAMESTNANOST
-4.0000	NEZAMESTNANOSTI
-4.0000	NEZAMESTNANYCH
-4.0000	NEZAPLATI
-4.0000	NEZAPOMNELI
-4.0000	NEZAVISLE
-4.0000	NEZAVISLOST
-4.0000	NEZAVISLOSTI
-4.0000	NEZAVISLY
-4.0000	NEZAZIL
-4.0000	NEZAZILA
-4.0000	NEZBYTNE
-4.0000	NEZBYVA
-4.0000	NEZDA
-4.0000	NEZISKA
-4.0000	NEZISKOVE
-4.0000	NEZLI
-4.0000	NEZLOBTE
-4.0000	NEZMENI
-4.0000	NEZNAJI
-4.0000	NEZNAM
-4.0000	NEZNAMA
-4.0000	NEZNAME
-4.0000	NEZNAMENA
-4.0000	NEZNAMYCH
-4.0000	NEZVLADNE
-4.0000	NHL
-4.0000	NI
-4.0000	NIC
-4.0000	NICEHO
-4.0000	NICEM
-4.0000	NICEMU
-4.0000	NICH
-4.0000	NICHZ
-4.0000	NICI
-4.0000	NICIM
-4.0000	NICMENE
-4.0000	NIJAK
-4.0000	NIKAM
-4.0000	NIKDE
-4.0000	NIKDO
-4.0000	NIKDY
-4.0000	NIKOHO
-4.0000	NIKOLI
-4.0000	NIKOLIV
-4.0000	NIKOMU
-4.0000	NIM
-4.0000	NIMA
-4.0000	NIMI
-4.0000	NIZ
-4.0000	NIZE
-4.0000	NIZKE
-4.0000	NIZKOU
-4.0000	NIZKY
-4.0000	NIZSI
-4.0000	NIZSICH
-4.0000	NO
-4.0000	NOC
-4.0000	NOCI
-4.0000	NOCNI
-4.0000	NOHU
-4.0000	NOHY
-4.0000	NOMINACE
-4.0000	NORMA
-4.0000	NORMALNE
-4.0000	NORMALNI
-4.0000	NORMALNICH
-4.0000	NORMALNIHO
-4.0000	NORMALNIM
-4.0000	NORMALU
-4.0000	NORMY
-4.0000	NOSNI
-4.0000	NOUZE
-4.0000	NOVA
-4.0000	NOVACEK
-4.0000	NOVACKA
-4.0000	NOVAK
-4.0000	NOVE
-4.0000	NOVEHO
-4.0000	NOVELA
-4.0000	NOVELU
-4.0000	NOVELY
-4.0000	NOVEM
-4.0000	NOVEMU
-4.0000	NOVI
-4.0000	NOVIN
-4.0000	NOVINACH
-4.0000	NOVINAR
-4.0000	NOVINARE
-4.0000	NOVINARI
-4.0000	NOVINARKOU
-4.0000	NOVINARSKA
-4.0000	NOVINARU
-4.0000	NOVINARUM
-4.0000	NOVINKA
-4.0000	NOVINKOU
-4.0000	NOVINKY
-4.0000	NOVINY
-4.0000	NOVOJICINSKE
-4.0000	NOVOJICINSKU
-4.0000	NOVOU
-4.0000	NOVY
-4.0000	NOVYCH
-4.0000	NOVYHO
-4.0000	NOVYM
-4.0000	NOVYMI
-4.0000	NULA
-4.0000	NULADEVET
-4.0000	NULEDEVET
-4.0000	NULODEVET
-4.0000	NULOVA
-4.0000	NUTI
-4.0000	NUTNE
-4.0000	NUTNO
-4.0000	NUTNOST
-4.0000	NUTNY
-4.0000	NYMBURK
-4.0000	NYNI
-4.0000	O
-4.0000	OBA
-4.0000	OBALY
-4.0000	OBAMA
-4.0000	OBAMY
-4.0000	OBAVA
-4.0000	OBAVAJI
-4.0000	OBAVAM
-4.0000	OBAVU
-4.0000	OBAVY
-4.0000	OBCAN
-4.0000	OBCANA
-4.0000	OBCANE
-4.0000	OBCANSKA
-4.0000	OBCANSKE
-4.0000	OBCANSKEHO
-4.0000	OBCANSKOU
-4.0000	OBCANSKY
-4.0000	OBCANSKYCH
-4.0000	OBCANSTVI
-4.0000	OBCANU
-4.0000	OBCANUM
-4.0000	OBCANY
-4.0000	OBCAS
-4.0000	OBCE
-4.0000	OBCHOD
-4.0000	OBCHODE
-4.0000	OBCHODECH
-4.0000	OBCHODNI
-4.0000	OBCHODNICH
-4.0000	OBCHODNICI
-4.0000	OBCHODNIKU
-4.0000	OBCHODNIM
-4.0000	OBCHODU
-4.0000	OBCHODUJE
-4.0000	OBCHODY
-4.0000	OBCI
-4.0000	OBCICH
-4.0000	OBCIM
-4.0000	OBDIV
-4.0000	OBDOBI
-4.0000	OBE
-4.0000	OBEC
-4.0000	OBECNA
-4.0000	OBECNE
-4.0000	OBECNEHO
-4.0000	OBECNI
-4.0000	OBED
-4.0000	OBEHU
-4.0000	OBEJIT
-4.0000	OBEMA
-4.0000	OBETI
-4.0000	OBEZITE
-4.0000	OBEZNI
-4.0000	OBHAJCE
-4.0000	OBJEDNAVKU
-4.0000	OBJEKT
-4.0000	OBJEKTIVNE
-4.0000	OBJEKTIVNI
-4.0000	OBJEKTU
-4.0000	OBJEKTY
-4.0000	OBJEM
-4.0000	OBJEMU
-4.0000	OBJEV
-4.0000	OBJEVI
-4.0000	OBJEVIL
-4.0000	OBJEVILA
-4.0000	OBJEVILI
-4.0000	OBJEVILO
-4.0000	OBJEVILY
-4.0000	OBJEVIT
-4.0000	OBJEVOVAT
-4.0000	OBJEVUJE
-4.0000	OBJEVUJI
-4.0000	OBLAST
-4.0000	OBLASTECH
-4.0000	OBLASTI
-4.0000	OBLECENI
-4.0000	OBLIBENE
-4.0000	OBLIBENOU
-4.0000	OBNOVE
-4.0000	OBNOVIT
-4.0000	OBNOVITELNE
-4.0000	OBNOVITELNYCH
-4.0000	OBNOVY
-4.0000	OBOJE
-4.0000	OBOJI
-4.0000	OBOR
-4.0000	OBORECH
-4.0000	OBORU
-4.0000	OBORY
-4.0000	OBOU
-4.0000	OBRACENE
-4.0000	OBRACI
-4.0000	OBRACIM
-4.0000	OBRANA
-4.0000	OBRANU
-4.0000	OBRANY
-4.0000	OBRAT
-4.0000	OBRATI
-4.0000	OBRATIL
-4.0000	OBRATIM
-4.0000	OBRATIT
-4.0000	OBRAZ
-4.0000	OBRAZEK
-4.0000	OBRAZKY
-4.0000	OBRAZU
-4.0000	OBRI
-4.0000	OBROVSKA
-4.0000	OBROVSKE
-4.0000	OBROVSKEM
-4.0000	OBROVSKOU
-4.0000	OBROVSKY
-4.0000	OBROVSKYM
-4.0000	OBSADI
-4.0000	OBSADIT
-4.0000	OBSAH
-4.0000	OBSAHU
-4.0000	OBSAHUJE
-4.0000	OBSAHUJI
-4.0000	OBSAZENI
-4.0000	OBTIZNE
-4.0000	OBTIZNEJSI
-4.0000	OBVINEN
-4.0000	OBVINENI
-4.0000	OBVINENIM
-4.0000	OBVINENY
-4.0000	OBVODNI
-4.0000	OBVODU
-4.0000	OBVYKLE
-4.0000	OBYCEJNE
-4.0000	OBYCEJNY
-4.0000	OBYDLI
-4.0000	OBYVATEL
-4.0000	OBYVATELE
-4.0000	OBYVATELSTVA
-4.0000	OBYVATELSTVO
-4.0000	OBYVATELSTVU
-4.0000	OBZALOBY
-4.0000	OBZALOVANYCH
-4.0000	OBZVLAST
-4.0000	OCEKAVA
-4.0000	OCEKAVAJI
-4.0000	OCEKAVAL
-4.0000	OCEKAVALO
-4.0000	OCEKAVAME
-4.0000	OCEKAVANI
-4.0000	OCEKAVAT
-4.0000	OCEKAVATE
-4.0000	OCENENI
-4.0000	OCENUJI
-4.0000	OCHOTEN
-4.0000	OCHOTNA
-4.0000	OCHOTNI
-4.0000	OCHRANA
-4.0000	OCHRANE
-4.0000	OCHRANOU
-4.0000	OCHRANU
-4.0000	OCHRANY
-4.0000	OCI
-4.0000	OCICH
-4.0000	OCIMA
-4.0000	OCKOVANI
-4.0000	OCKOVAT
-4.0000	OD
-4.0000	ODBORARI
-4.0000	ODBORNA
-4.0000	ODBORNE
-4.0000	ODBORNICI
-4.0000	ODBORNIK
-4.0000	ODBORNIKA
-4.0000	ODBORNIKU
-4.0000	ODBORNIKY
-4.0000	ODBORNOU
-4.0000	ODBORNY
-4.0000	ODBORU
-4.0000	ODBORY
-4.0000	ODCHAZEJI
-4.0000	ODCHAZEJICI
-4.0000	ODCHAZELA
-4.0000	ODCHAZI
-4.0000	ODCHOD
-4.0000	ODCHODU
-4.0000	ODDELENI
-4.0000	ODDELIT
-4.0000	ODE
-4.0000	ODEHRAVA
-4.0000	ODEJDE
-4.0000	ODEJDOU
-4.0000	ODEJIT
-4.0000	ODESEL
-4.0000	ODESLA
-4.0000	ODESLI
-4.0000	ODHAD
-4.0000	ODHADNOUT
-4.0000	ODHADU
-4.0000	ODHADUJE
-4.0000	ODHADY
-4.0000	ODHALI
-4.0000	ODHALIT
-4.0000	ODJET
-4.0000	ODKAZ
-4.0000	ODKUD
-4.0000	ODLISNA
-4.0000	ODLISNE
-4.0000	ODLISNY
-4.0000	ODLOZIT
-4.0000	ODMALICKA
-4.0000	ODMITA
-4.0000	ODMITAJI
-4.0000	ODMITAM
-4.0000	ODMITL
-4.0000	ODMITLA
-4.0000	ODMITLI
-4.0000	ODMITNE
-4.0000	ODMITNOUT
-4.0000	ODMITNUTI
-4.0000	ODNEKUD
-4.0000	ODNETI
-4.0000	ODPAD
-4.0000	ODPADNICH
-4.0000	ODPOCINKU
-4.0000	ODPOLEDNE	-0.3010
-4.0000	ODPOLEDNI
-4.0000	ODPOR
-4.0000	ODPOSLECHY
-4.0000	ODPOVED
-4.0000	ODPOVEDEL
-4.0000	ODPOVEDELA
-4.0000	ODPOVEDET
-4.0000	ODPOVEDI
-4.0000	ODPOVEDNE
-4.0000	ODPOVEDNOST
-4.0000	ODPOVEDNOSTI
-4.0000	ODPOVI
-4.0000	ODPOVIDA
-4.0000	ODPOVIDAJI
-4.0000	ODPOVIDAM
-4.0000	ODPOVIDAT
-4.0000	ODPOVIM
-4.0000	ODPURCI
-4.0000	ODRAZI
-4.0000	ODRUDY
-4.0000	ODRY
-4.0000	ODS
-4.0000	ODSOUZEN
-4.0000	ODSOUZENI
-4.0000	ODSTARTOVALA
-4.0000	ODSTOUPENI
-4.0000	ODSTOUPIT
-4.0000	ODSTRANENI
-4.0000	ODSTRANENY
-4.0000	ODSTRANI
-4.0000	ODSTRANIT
-4.0000	ODSTRANOVAT
-4.0000	ODSTRIHNOUT
-4.0000	ODSTUPEM
-4.0000	ODSUD
-4.0000	ODTAMTUD
-4.0000	ODTUD
-4.0000	ODVAHA
-4.0000	ODVAHU
-4.0000	ODVETVI
-4.0000	ODVEZLI
-4.0000	ODVIJI
-4.0000	ODVODIT
-4.0000	ODVOLACI
-4.0000	ODVOLAN
-4.0000	ODVOLANI
-4.0000	ODVOLAVAT
-4.0000	ODVRATIT
-4.0000	OECD
-4.0000	OF
-4.0000	OFICIALNE
-4.0000	OFICIALNI
-4.0000	OFICIALNICH
-4.0000	OFICIALNIM
-4.0000	OHEN
-4.0000	OHLAS
-4.0000	OHLASY
-4.0000	OHLEDECH
-4.0000	OHLEDEM
-4.0000	OHLEDNE
-4.0000	OHLEDU
-4.0000	OHROMNE
-4.0000	OHROMNY
-4.0000	OHROZENI
-4.0000	OHROZUJE
-4.0000	OJEDINELY
-4.0000	OKAMURA
-4.0000	OKAMURY
-4.0000	OKAMZIK
-4.0000	OKAMZIKU
-4.0000	OKAMZIKY
-4.0000	OKAMZITE
-4.0000	OKAMZITY
-4.0000	OKD
-4.0000	OKEM
-4.0000	OKEN
-4.0000	OKENKO
-4.0000	OKNA
-4.0000	OKO
-4.0000	OKOLI
-4.0000	OKOLNI
-4.0000	OKOLNOSTI
-4.0000	OKOLO
-4.0000	OKRAJI
-4.0000	OKRESNI
-4.0000	OKRUH
-4.0000	OKRUHU
-4.0000	OLDRICH
-4.0000	OLEJ
-4.0000	OLEJE
-4.0000	OLGA
-4.0000	OLOMOUCI
-4.0000	OLYMPIADA
-4.0000	OLYMPIADU
-4.0000	OLYMPIADY
-4.0000	OLYMPIJSKE
-4.0000	OLYMPIJSKY
-4.0000	OLYMPIJSKYCH
-4.0000	OMEZENE
-4.0000	OMEZENI
-4.0000	OMEZENOU
-4.0000	OMEZENY
-4.0000	OMEZI
-4.0000	OMEZIT
-4.0000	OMEZOVAT
-4.0000	OMEZUJE
-4.0000	OMLOUVAM
-4.0000	OMYL
-4.0000	ON
-4.0000	ONA
-4.0000	ONDREJ
-4.0000	ONDREJE
-4.0000	ONDREJI
-4.0000	ONE
-4.0000	ONEMOCNENI
-4.0000	ONEN
-4.0000	ONI
-4.0000	ONLINE
-4.0000	ONO
-4.0000	ONOHO
-4.0000	ONU
-4.0000	ONY
-4.0000	OPACNA
-4.0000	OPACNEM
-4.0000	OPACNY
-4.0000	OPADNE
-4.0000	OPAK
-4.0000	OPAKOVANE
-4.0000	OPAKOVAT
-4.0000	OPAKUJE
-4.0000	OPAKUJI
-4.0000	OPATRENI
-4.0000	OPATRENICH
-4.0000	OPATRENIM
-4.0000	OPATRIT
-4.0000	OPATRNA
-4.0000	OPATRNE
-4.0000	OPATRNY
-4.0000	OPAVA
-4.0000	OPAVE
-4.0000	OPAVY
-4.0000	OPENCARD
-4.0000	OPERACE
-4.0000	OPERACI
-4.0000	OPERACNI
-4.0000	OPERATOR
-4.0000	OPERE
-4.0000	OPERY
-4.0000	OPET
-4.0000	OPODSTATNENI
-4.0000	OPOZICE
-4.0000	OPOZICI
-4.0000	OPOZICNI
-4.0000	OPOZICNIM
-4.0000	OPRAV
-4.0000	OPRAVA
-4.0000	OPRAVDOVE
-4.0000	OPRAVDU
-4.0000	OPRAVI
-4.0000	OPRAVIT
-4.0000	OPRAVNENE
-4.0000	OPRAVU
-4.0000	OPRAVY
-4.0000	OPROTI
-4.0000	OPTIMALNI
-4.0000	OPTIMISMU
-4.0000	OPTIMISTICKE
-4.0000	OPTIMISTICKY
-4.0000	OPUSTI
-4.0000	OPUSTIL
-4.0000	OPUSTILA
-4.0000	OPUSTIT
-4.0000	ORCHESTR
-4.0000	ORDINACE
-4.0000	ORECHY
-4.0000	ORGAN
-4.0000	ORGANISMU
-4.0000	ORGANISMUS
-4.0000	ORGANIZACE
-4.0000	ORGANIZACEMI
-4.0000	ORGANIZACI
-4.0000	ORGANIZACNI
-4.0000	ORGANIZOVANA
-4.0000	ORGANIZUJE
-4.0000	ORGANU
-4.0000	ORGANY
-4.0000	ORIGINAL
-4.0000	ORISKY
-4.0000	ORL
-4.0000	OSAMENI
-4.0000	OSLOVIL
-4.0000	OSLOVILA
-4.0000	OSLOVIT
-4.0000	OSM
-4.0000	OSMDESAT
-4.0000	OSMDESATE
-4.0000	OSMDESATI
-4.0000	OSMDESATYCH
-4.0000	OSME
-4.0000	OSMEHO
-4.0000	OSMI
-4.0000	OSMNACT
-4.0000	OSMNACTE
-4.0000	OSMNACTEHO
-4.0000	OSMNACTI
-4.0000	OSN
-4.0000	OSOB
-4.0000	OSOBA
-4.0000	OSOBNE
-4.0000	OSOBNI
-4.0000	OSOBNICH
-4.0000	OSOBNIM
-4.0000	OSOBNOST
-4.0000	OSOBNOSTI
-4.0000	OSOBU
-4.0000	OSOBY
-4.0000	OSTATNE
-4.0000	OSTATNI
-4.0000	OSTATNICH
-4.0000	OSTATNIM
-4.0000	OSTATNIMI
-4.0000	OSTRAVA
-4.0000	OSTRAVE
-4.0000	OSTRAVSKA
-4.0000	OSTRAVSKE
-4.0000	OSTRAVSKEHO
-4.0000	OSTRAVSKEM
-4.0000	OSTRAVSKU
-4.0000	OSTRAVSKY
-4.0000	OSTRAVSKYCH
-4.0000	OSTRAVSTI
-4.0000	OSTRAVY
-4.0000	OSTRE
-4.0000	OSTROU
-4.0000	OSTROV
-4.0000	OSTROVE
-4.0000	OSTROVECH
-4.0000	OSTROVU
-4.0000	OSTROVY
-4.0000	OSUD
-4.0000	OSUDU
-4.0000	OSUDY
-4.0000	OSVEDCENI
-4.0000	OSVETA
-4.0000	OSVOBOZENI
-4.0000	OTA
-4.0000	OTAKARA
-4.0000	OTAZCE
-4.0000	OTAZEK
-4.0000	OTAZKA
-4.0000	OTAZKACH
-4.0000	OTAZKAMI
-4.0000	OTAZKOU
-4.0000	OTAZKU
-4.0000	OTAZKY
-4.0000	OTEC
-4.0000	OTEVIRA
-4.0000	OTEVIRAJI
-4.0000	OTEVRE
-4.0000	OTEVREN
-4.0000	OTEVRENA
-4.0000	OTEVRENE
-4.0000	OTEVRENI
-4.0000	OTEVRENY
-4.0000	OTEVRENYCH
-4.0000	OTEVRIT
-4.0000	OTEVROU
-4.0000	OTEVRU
-4.0000	OTEZE
-4.0000	OTVIRA
-4.0000	OUT
-4.0000	OVERIT
-4.0000	OVLADAJI
-4.0000	OVLADAT
-4.0000	OVLADNOUT
-4.0000	OVLIVNI
-4.0000	OVLIVNIL
-4.0000	OVLIVNIT
-4.0000	OVLIVNOVAT
-4.0000	OVLIVNUJE
-4.0000	OVLIVNUJI
-4.0000	OVOCE
-4.0000	OVSEM
-4.0000	OVZDUSI
-4.0000	OZNACENI
-4.0000	OZNACIL
-4.0000	OZNACIT
-4.0000	OZNAMENI
-4.0000	OZNAMIL
-4.0000	OZNAMILA
-4.0000	OZNAMILI
-4.0000	OZYVAJI
-4.0000	PACHATELU
-4.0000	PACIENT
-4.0000	PACIENTA
-4.0000	PACIENTEM
-4.0000	PACIENTI
-4.0000	PACIENTKY
-4.0000	PACIENTOVI
-4.0000	PACIENTU
-4.0000	PACIENTUM
-4.0000	PACIENTY
-4.0000	PAD
-4.0000	PADA
-4.0000	PADAT
-4.0000	PADEM
-4.0000	PADESAT
-4.0000	PADESATCE
-4.0000	PADESATI
-4.0000	PADL
-4.0000	PADLA
-4.0000	PADLO
-4.0000	PADLY
-4.0000	PADNE
-4.0000	PADNI
-4.0000	PADNOUT
-4.0000	PADU
-4.0000	PAK
-4.0000	PAKLIZE
-4.0000	PALCE
-4.0000	PALI
-4.0000	PALIVA
-4.0000	PAMATEK
-4.0000	PAMATKA
-4.0000	PAMATKOVE
-4.0000	PAMATKOVEHO
-4.0000	PAMATKU
-4.0000	PAMATKY
-4.0000	PAMATUJE
-4.0000	PAMATUJETE
-4.0000	PAMATUJI
-4.0000	PAMATUJU
-4.0000	PAMET
-4.0000	PAMETI
-4.0000	PAMETNIKA
-4.0000	PAMETNIKU
-4.0000	PAN
-4.0000	PANA
-4.0000	PANBUH
-4.0000	PANCIR
-4.0000	PANE
-4.0000	PANELAKU
-4.0000	PANEM
-4.0000	PANI
-4.0000	PANOVE
-4.0000	PANU
-4.0000	PANUJE
-4.0000	PANUJI
-4.0000	PAPEZ
-4.0000	PAPEZE
-4.0000	PAPEZEM
-4.0000	PAPIR
-4.0000	PAPIRE
-4.0000	PAR
-4.0000	PARADOX
-4.0000	PARADOXNE
-4.0000	PARADOXNI
-4.0000	PARAGRAF
-4.0000	PARAMETRY
-4.0000	PARDON
-4.0000	PARDUBICICH
-4.0000	PARIZE
-4.0000	PARIZI
-4.0000	PARK
-4.0000	PARKOVACI
-4.0000	PARKOVACICH
-4.0000	PARKOVANI
-4.0000	PARKOVANIM
-4.0000	PARKOVISTE
-4.0000	PARKU
-4.0000	PARLAMENT
-4.0000	PARLAMENTNI
-4.0000	PARLAMENTNICH
-4.0000	PARLAMENTU
-4.0000	PARTNER
-4.0000	PARTNERA
-4.0000	PARTNEREM
-4.0000	PARTNERI
-4.0000	PARTNERSTVI
-4.0000	PARTNERU
-4.0000	PARTNERY
-4.0000	PARU
-4.0000	PARY
-4.0000	PASKOV
-4.0000	PASMA
-4.0000	PASU
-4.0000	PATE
-4.0000	PATEK
-4.0000	PATER
-4.0000	PATERE
-4.0000	PATKU
-4.0000	PATNACT
-4.0000	PATNACTEHO
-4.0000	PATNACTI
-4.0000	PATRA
-4.0000	PATRANI
-4.0000	PATRAT
-4.0000	PATRE
-4.0000	PATRI
-4.0000	PATRIK
-4.0000	PATRIKU
-4.0000	PATRIL
-4.0000	PATRILA
-4.0000	PATRNE
-4.0000	PAVEL
-4.0000	PAVLA
-4.0000	PAVLE
-4.0000	PAVLEM
-4.0000	PAVLU
-4.0000	PEAKE
-4.0000	PECE
-4.0000	PECI
-4.0000	PECINA
-4.0000	PECLIVE
-4.0000	PEDAGOG
-4.0000	PEJSEK
-4.0000	PEJSKA
-4.0000	PEKNA
-4.0000	PEKNE
-4.0000	PEKNY
-4.0000	PELTA
-4.0000	PENEZ
-4.0000	PENEZI
-4.0000	PENEZICH
-4.0000	PENIZE
-4.0000	PERFEKTNE
-4.0000	PERFEKTNI
-4.0000	PERITONEALNI
-4.0000	PERSONALNI
-4.0000	PERSONALNICH
-4.0000	PES
-4.0000	PESKY
-4.0000	PESTUJE
-4.0000	PET
-4.0000	PETACTYRICETI
-4.0000	PETADVACET
-4.0000	PETADVACETI
-4.0000	PETASEDMDESAT
-4.0000	PETATRICET
-4.0000	PETATRICETI
-4.0000	PETI
-4.0000	PETICE
-4.0000	PETICI
-4.0000	PETILETY
-4.0000	PETKA
-4.0000	PETR
-4.0000	PETRA
-4.0000	PETRE
-4.0000	PETREM
-4.0000	PETRU
-4.0000	PEVNE
-4.0000	PICKA
-4.0000	PIETNI
-4.0000	PIJE
-4.0000	PIJI
-4.0000	PIKANTNI
-4.0000	PIL
-4.0000	PILIR
-4.0000	PILIRE
-4.0000	PILOTI
-4.0000	PILOTU
-4.0000	PIRATU
-4.0000	PISE
-4.0000	PISEN
-4.0000	PISETE
-4.0000	PISI
-4.0000	PISKU
-4.0000	PISMA
-4.0000	PISMO
-4.0000	PISMU
-4.0000	PISNE
-4.0000	PISNICCE
-4.0000	PISNICKA
-4.0000	PISNICKOU
-4.0000	PISNICKU
-4.0000	PISNICKY
-4.0000	PISOU
-4.0000	PIT
-4.0000	PITI
-4.0000	PIVA
-4.0000	PIVNI
-4.0000	PIVO
-4.0000	PLAN
-4.0000	PLANECH
-4.0000	PLANETARIA
-4.0000	PLANETARIUM
-4.0000	PLANETY
-4.0000	PLANOVANE
-4.0000	PLANOVAT
-4.0000	PLANU
-4.0000	PLANUJE
-4.0000	PLANY
-4.0000	PLAT
-4.0000	PLATBU
-4.0000	PLATBY
-4.0000	PLATEBNI
-4.0000	PLATI
-4.0000	PLATIL
-4.0000	PLATILI
-4.0000	PLATIME
-4.0000	PLATIT
-4.0000	PLATNA
-4.0000	PLATNE
-4.0000	PLATNOST
-4.0000	PLATY
-4.0000	PLNE
-4.0000	PLNEM
-4.0000	PLNENI
-4.0000	PLNI
-4.0000	PLNIT
-4.0000	PLNO
-4.0000	PLNOU
-4.0000	PLNY
-4.0000	PLOCHA
-4.0000	PLOCHU
-4.0000	PLOCHY
-4.0000	PLODY
-4.0000	PLOSNE
-4.0000	PLUKOVNIK
-4.0000	PLUKOVNIKA
-4.0000	PLUS
-4.0000	PLYN
-4.0000	PLYNE
-4.0000	PLYNOVE
-4.0000	PLYNU
-4.0000	PLZENSKEM
-4.0000	PLZNE
-4.0000	PLZNI
-4.0000	PO
-4.0000	POBLIZ
-4.0000	POBREZI
-4.0000	POBYT
-4.0000	POBYTU
-4.0000	POBYTY
-4.0000	POCASI
-4.0000	POCATKU
-4.0000	POCET
-4.0000	POCHAZEJI
-4.0000	POCHAZI
-4.0000	POCHAZIM
-4.0000	POCHOPENI
-4.0000	POCHOPIL
-4.0000	POCHOPILA
-4.0000	POCHOPILI
-4.0000	POCHOPIT
-4.0000	POCHOPITELNE
-4.0000	POCHYBENI
-4.0000	POCHYBNE
-4.0000	POCHYBNOSTI
-4.0000	POCINAJE
-4.0000	POCINAT
-4.0000	POCIT
-4.0000	POCITA
-4.0000	POCITAC
-4.0000	POCITACE
-4.0000	POCITACI
-4.0000	POCITAL
-4.0000	POCITALI
-4.0000	POCITAM
-4.0000	POCITAME
-4.0000	POCITAT
-4.0000	POCITY
-4.0000	POCKA
-4.0000	POCKAME
-4.0000	POCKAT
-4.0000	POCKEJTE
-4.0000	POCTIVE
-4.0000	POCTU
-4.0000	POCTY
-4.0000	POD
-4.0000	PODAL
-4.0000	PODANI
-4.0000	PODARI
-4.0000	PODARILO
-4.0000	PODAT
-4.0000	PODAVA
-4.0000	PODAVAJI
-4.0000	PODEKOVAT
-4.0000	PODEL
-4.0000	PODEPSAL
-4.0000	PODEPSALA
-4.0000	PODEPSALI
-4.0000	PODEPSANA
-4.0000	PODEPSAT
-4.0000	PODEZRELI
-4.0000	PODEZRENI
-4.0000	PODIL
-4.0000	PODILEJI
-4.0000	PODILELI
-4.0000	PODILET
-4.0000	PODILI
-4.0000	PODILU
-4.0000	PODIVA
-4.0000	PODIVAJI
-4.0000	PODIVAL
-4.0000	PODIVALI
-4.0000	PODIVAM
-4.0000	PODIVAME
-4.0000	PODIVAT
-4.0000	PODIVATE
-4.0000	PODIVEJTE
-4.0000	PODKLADY
-4.0000	PODLE
-4.0000	PODLEHA
-4.0000	PODMINEK
-4.0000	PODMINKA
-4.0000	PODMINKACH
-4.0000	PODMINKOU
-4.0000	PODMINKU
-4.0000	PODMINKY
-4.0000	PODNETU
-4.0000	PODNETY
-4.0000	PODNIK
-4.0000	PODNIKAJI
-4.0000	PODNIKANI
-4.0000	PODNIKAT
-4.0000	PODNIKATEL
-4.0000	PODNIKATELE
-4.0000	PODNIKATELSKE
-4.0000	PODNIKATELU
-4.0000	PODNIKATELUM
-4.0000	PODNIKU
-4.0000	PODNIKY
-4.0000	PODOBE
-4.0000	PODOBNA
-4.0000	PODOBNE
-4.0000	PODOBNEHO
-4.0000	PODOBNOU
-4.0000	PODOBNY
-4.0000	PODOBNYCH
-4.0000	PODOBNYM
-4.0000	PODOBU
-4.0000	PODOBY
-4.0000	PODOTKNOUT
-4.0000	PODOTYKAM
-4.0000	PODPIS
-4.0000	PODPISU
-4.0000	PODPISY
-4.0000	PODPORA
-4.0000	PODPORE
-4.0000	PODPORI
-4.0000	PODPORILI
-4.0000	PODPORIT
-4.0000	PODPOROU
-4.0000	PODPOROVAL
-4.0000	PODPOROVALA
-4.0000	PODPOROVAT
-4.0000	PODPORU
-4.0000	PODPORUJE
-4.0000	PODPORUJEME
-4.0000	PODPORUJI
-4.0000	PODPORY
-4.0000	PODROBNE
-4.0000	PODROBNEJSI
-4.0000	PODROBNOSTI
-4.0000	PODRUHE
-4.0000	PODSTATE
-4.0000	PODSTATNA
-4.0000	PODSTATNE
-4.0000	PODSTATNOU
-4.0000	PODSTATOU
-4.0000	PODSTATU
-4.0000	PODSTATY
-4.0000	PODSTOUPIT
-4.0000	PODVECER
-4.0000	PODVEDOMI
-4.0000	PODVOD
-4.0000	PODVODU
-4.0000	PODZEMI
-4.0000	PODZEMNICH
-4.0000	PODZIM
-4.0000	PODZIMNI
-4.0000	PODZIMU
-4.0000	POEZIE
-4.0000	POHADKU
-4.0000	POHADKY
-4.0000	POHANKA
-4.0000	POHARU
-4.0000	POHLAVI
-4.0000	POHLED
-4.0000	POHLEDAVKY
-4.0000	POHLEDEM
-4.0000	POHLEDU
-4.0000	POHODE
-4.0000	POHRANICI
-4.0000	POHRANICNI
-4.0000	POHREB
-4.0000	POHROMADE
-4.0000	POHYB
-4.0000	POHYBOVAL
-4.0000	POHYBOVAT
-4.0000	POHYBOVE
-4.0000	POHYBU
-4.0000	POHYBUJE
-4.0000	POHYBUJEME
-4.0000	POHYBUJI
-4.0000	POJDME
-4.0000	POJDTE
-4.0000	POJEDE
-4.0000	POJEDEME
-4.0000	POJEM
-4.0000	POJETI
-4.0000	POJISTENCE
-4.0000	POJISTENI
-4.0000	POJISTOVEN
-4.0000	POJISTOVNA
-4.0000	POJISTOVNAMI
-4.0000	POJISTOVNY
-4.0000	POKAZDE
-4.0000	POKLAD
-4.0000	POKLADAM
-4.0000	POKLADNY
-4.0000	POKLES
-4.0000	POKLESU
-4.0000	POKOJE
-4.0000	POKOJI
-4.0000	POKOUSET
-4.0000	POKOUSI
-4.0000	POKRACOVAL
-4.0000	POKRACOVANI
-4.0000	POKRACOVAT
-4.0000	POKRACUJE
-4.0000	POKRACUJEME
-4.0000	POKRACUJI
-4.0000	POKROK
-4.0000	POKRYT
-4.0000	POKUD
-4.0000	POKUS
-4.0000	POKUSI
-4.0000	POKUSIM
-4.0000	POKUSIME
-4.0000	POKUSIT
-4.0000	POKUSU
-4.0000	POKUSY
-4.0000	POKUTU
-4.0000	POKUTY
-4.0000	POLACI
-4.0000	POLE
-4.0000	POLEVKU
-4.0000	POLI
-4.0000	POLICEJNI
-4.0000	POLICEJNICH
-4.0000	POLICEJNIM
-4.0000	POLICIE
-4.0000	POLICII
-4.0000	POLICISTE
-4.0000	POLICISTU
-4.0000	POLICISTY
-4.0000	POLITICE
-4.0000	POLITICI
-4.0000	POLITICKA
-4.0000	POLITICKE
-4.0000	POLITICKEHO
-4.0000	POLITICKEM
-4.0000	POLITICKOU
-4.0000	POLITICKY
-4.0000	POLITICKYCH
-4.0000	POLITICKYM
-4.0000	POLITICKYMI
-4.0000	POLITIK
-4.0000	POLITIKA
-4.0000	POLITIKOU
-4.0000	POLITIKU
-4.0000	POLITIKUM
-4.0000	POLITIKY
-4.0000	POLITOLOG
-4.0000	POLOVINA
-4.0000	POLOVINE
-4.0000	POLOVINU
-4.0000	POLOVINY
-4.0000	POLOZENE
-4.0000	POLOZILI
-4.0000	POLOZIT
-4.0000	POLSKA
-4.0000	POLSKE
-4.0000	POLSKO
-4.0000	POLSKU
-4.0000	POLSKYCH
-4.0000	POMAHA
-4.0000	POMAHAJI
-4.0000	POMAHAL
-4.0000	POMAHALI
-4.0000	POMAHAT
-4.0000	POMALEJI
-4.0000	POMALU
-4.0000	POMER
-4.0000	POMERNE
-4.0000	POMERU
-4.0000	POMERY
-4.0000	POMEZI
-4.0000	POMINEME
-4.0000	POMNIK
-4.0000	POMOC
-4.0000	POMOCI
-4.0000	POMOCT
-4.0000	POMOHL
-4.0000	POMOHLA
-4.0000	POMOHLI
-4.0000	POMOHLO
-4.0000	POMOHOU
-4.0000	POMUCKY
-4.0000	POMUZE
-4.0000	PONDELI
-4.0000	PONEKUD
-4.0000	PONEVADZ
-4.0000	PONICILA
-4.0000	POPELNICE
-4.0000	POPIS
-4.0000	POPISOVAL
-4.0000	POPISU
-4.0000	POPISUJE
-4.0000	POPLATEK
-4.0000	POPLATKU
-4.0000	POPLATKY
-4.0000	POPLATNIKU
-4.0000	POPOVIDAT
-4.0000	POPRAVDE
-4.0000	POPRIPADE
-4.0000	POPROSIM
-4.0000	POPRVE
-4.0000	POPSAL
-4.0000	POPSALA
-4.0000	POPSAT
-4.0000	POPTAVKA
-4.0000	POPTAVKU
-4.0000	POPTAVKY
-4.0000	POPULACE
-4.0000	POPULACI
-4.0000	POPULARITA
-4.0000	POPULARNI
-4.0000	PORAD
-4.0000	PORADA
-4.0000	PORADAME
-4.0000	PORADCE
-4.0000	PORADCEM
-4.0000	PORADCI
-4.0000	PORADCU
-4.0000	PORADEK
-4.0000	PORADENSTVI
-4.0000	PORADI
-4.0000	PORADIL
-4.0000	PORADIT
-4.0000	PORADKU
-4.0000	PORADNA
-4.0000	PORADNE
-4.0000	PORADNU
-4.0000	PORADNY
-4.0000	PORADU
-4.0000	PORADY
-4.0000	PORCE
-4.0000	PORCELAN
-4.0000	PORIDIT
-4.0000	PORODNI
-4.0000	PORODU
-4.0000	POROVNANI
-4.0000	POROVNAT
-4.0000	POROVNATE
-4.0000	PORTALU
-4.0000	PORTFOLIO
-4.0000	PORUCHA
-4.0000	PORUCHY
-4.0000	PORUSENI
-4.0000	POSELSTVI
-4.0000	POSILA
-4.0000	POSILAJI
-4.0000	POSILAL
-4.0000	POSILAT
-4.0000	POSILILO
-4.0000	POSILIT
-4.0000	POSILOVAT
-4.0000	POSKOZENEHO
-4.0000	POSKOZENI
-4.0000	POSKYTNOUT
-4.0000	POSKYTOVANI
-4.0000	POSKYTUJE
-4.0000	POSLAL
-4.0000	POSLALA
-4.0000	POSLALI
-4.0000	POSLANCE
-4.0000	POSLANCEM
-4.0000	POSLANCI
-4.0000	POSLANCU
-4.0000	POSLANCUM
-4.0000	POSLANEC
-4.0000	POSLANECKA
-4.0000	POSLANECKE
-4.0000	POSLANECKEHO
-4.0000	POSLANECKOU
-4.0000	POSLANECKYCH
-4.0000	POSLANI
-4.0000	POSLANKYNE
-4.0000	POSLAT
-4.0000	POSLE
-4.0000	POSLECH
-4.0000	POSLECHNEME
-4.0000	POSLECHNOUT
-4.0000	POSLECHU
-4.0000	POSLEDNI
-4.0000	POSLEDNICH
-4.0000	POSLEDNIHO
-4.0000	POSLEDNIM
-4.0000	POSLETE
-4.0000	POSLEZE
-4.0000	POSLOUCHA
-4.0000	POSLOUCHAJI
-4.0000	POSLOUCHAL
-4.0000	POSLOUCHALI
-4.0000	POSLOUCHAM
-4.0000	POSLOUCHAME
-4.0000	POSLOUCHAT
-4.0000	POSLOUCHATE
-4.0000	POSLOUCHEJTE
-4.0000	POSLUCHAC
-4.0000	POSLUCHACE
-4.0000	POSLUCHACI
-4.0000	POSLUCHACKA
-4.0000	POSLUCHACKY
-4.0000	POSLUCHACU
-4.0000	POSLUCHACUM
-4.0000	POSOUDIT
-4.0000	POSOUVA
-4.0000	POSOUZENI
-4.0000	POST
-4.0000	POSTA
-4.0000	POSTARA
-4.0000	POSTARAT
-4.0000	POSTAVA
-4.0000	POSTAVENA
-4.0000	POSTAVENI
-4.0000	POSTAVI
-4.0000	POSTAVIL
-4.0000	POSTAVILA
-4.0000	POSTAVILI
-4.0000	POSTAVIT
-4.0000	POSTAVU
-4.0000	POSTAVY
-4.0000	POSTE
-4.0000	POSTIZENE
-4.0000	POSTIZENI
-4.0000	POSTIZENIM
-4.0000	POSTIZENY
-4.0000	POSTIZENYCH
-4.0000	POSTOJ
-4.0000	POSTOJE
-4.0000	POSTOVNI
-4.0000	POSTREH
-4.0000	POSTREHY
-4.0000	POSTU
-4.0000	POSTUP
-4.0000	POSTUPEM
-4.0000	POSTUPNE
-4.0000	POSTUPOVAL
-4.0000	POSTUPOVAT
-4.0000	POSTUPU
-4.0000	POSTUPUJE
-4.0000	POSTUPUJI
-4.0000	POSTUPY
-4.0000	POSTY
-4.0000	POSUDEK
-4.0000	POSUDKU
-4.0000	POSUDKY
-4.0000	POSUN
-4.0000	POSUNOUT
-4.0000	POSUNU
-4.0000	POSUNUL
-4.0000	POSUZOVAT
-4.0000	POTAZ
-4.0000	POTAZMO
-4.0000	POTE
-4.0000	POTENCIAL
-4.0000	POTENCIALNE
-4.0000	POTENCIALNI
-4.0000	POTENCIALNICH
-4.0000	POTESI
-4.0000	POTESILO
-4.0000	POTICHU
-4.0000	POTIZ
-4.0000	POTIZE
-4.0000	POTKAL
-4.0000	POTKALA
-4.0000	POTKALI
-4.0000	POTKAT
-4.0000	POTKAVA
-4.0000	POTOM
-4.0000	POTRAVIN
-4.0000	POTRAVINARSKE
-4.0000	POTRAVINY
-4.0000	POTRAVU
-4.0000	POTREBA
-4.0000	POTREBNA
-4.0000	POTREBNE
-4.0000	POTREBNYCH
-4.0000	POTREBOVAL
-4.0000	POTREBOVALA
-4.0000	POTREBOVALI
-4.0000	POTREBU
-4.0000	POTREBUJE
-4.0000	POTREBUJEME
-4.0000	POTREBUJETE
-4.0000	POTREBUJI
-4.0000	POTREBUJU
-4.0000	POTREBY
-4.0000	POTRETI
-4.0000	POTRUBI
-4.0000	POTRVA
-4.0000	POTVRDI
-4.0000	POTVRDIL
-4.0000	POTVRDILA
-4.0000	POTVRDILO
-4.0000	POTVRDIT
-4.0000	POTVRZENI
-4.0000	POTVRZUJE
-4.0000	POTYKAJI
-4.0000	POUCENI
-4.0000	POUSTET
-4.0000	POUZE
-4.0000	POUZIL
-4.0000	POUZILA
-4.0000	POUZILI
-4.0000	POUZIT
-4.0000	POUZITE
-4.0000	POUZITI
-4.0000	POUZIVA
-4.0000	POUZIVAJI
-4.0000	POUZIVALA
-4.0000	POUZIVAM
-4.0000	POUZIVAME
-4.0000	POUZIVANI
-4.0000	POUZIVAT
-4.0000	POVAZOVAL
-4.0000	POVAZOVANO
-4.0000	POVAZOVAT
-4.0000	POVAZUJE
-4.0000	POVAZUJEME
-4.0000	POVAZUJETE
-4.0000	POVAZUJI
-4.0000	POVAZUJU
-4.0000	POVEDE
-4.0000	POVEDLO
-4.0000	POVEDOMI
-4.0000	POVEDOU
-4.0000	POVEREN
-4.0000	POVEST
-4.0000	POVIDALI
-4.0000	POVIDAME
-4.0000	POVIDANI
-4.0000	POVIDAT
-4.0000	POVINNA
-4.0000	POVINNE
-4.0000	POVINNOST
-4.0000	POVINNOSTI
-4.0000	POVODEN
-4.0000	POVODI
-4.0000	POVODNE
-4.0000	POVODNEMI
-4.0000	POVODNI
-4.0000	POVODNICH
-4.0000	POVODNOVA
-4.0000	POVODNOVE
-4.0000	POVOLANI
-4.0000	POVOLENI
-4.0000	POVRCH
-4.0000	POVRCHU
-4.0000	POVSTALCI
-4.0000	POZADAL
-4.0000	POZADALI
-4.0000	POZADAM
-4.0000	POZADAT
-4.0000	POZADAVEK
-4.0000	POZADAVKU
-4.0000	POZADAVKY
-4.0000	POZADI
-4.0000	POZADOVAT
-4.0000	POZADUJE
-4.0000	POZADUJI
-4.0000	POZARU
-4.0000	POZDE
-4.0000	POZDEJI
-4.0000	POZDEJSI
-4.0000	POZDNI
-4.0000	POZEMEK
-4.0000	POZEMKU
-4.0000	POZEMKY
-4.0000	POZICE
-4.0000	POZICI
-4.0000	POZICICH
-4.0000	POZITIVA
-4.0000	POZITIVNE
-4.0000	POZITIVNI
-4.0000	POZITIVNIM
-4.0000	POZNAL
-4.0000	POZNALA
-4.0000	POZNAMENAT
-4.0000	POZNAMKA
-4.0000	POZNAMKU
-4.0000	POZNAMKY
-4.0000	POZNANI
-4.0000	POZNAT
-4.0000	POZNATE
-4.0000	POZOR
-4.0000	POZORNOST
-4.0000	POZORNOSTI
-4.0000	POZOROVANI
-4.0000	POZOROVAT
-4.0000	POZVAL
-4.0000	POZVANI
-4.0000	POZVAT
-4.0000	PPF
-4.0000	PR
-4.0000	PRACE
-4.0000	PRACHU
-4.0000	PRACI
-4.0000	PRACOVAL
-4.0000	PRACOVALA
-4.0000	PRACOVALI
-4.0000	PRACOVALO
-4.0000	PRACOVALY
-4.0000	PRACOVAT
-4.0000	PRACOVIST
-4.0000	PRACOVISTE
-4.0000	PRACOVNE
-4.0000	PRACOVNI
-4.0000	PRACOVNICH
-4.0000	PRACOVNICI
-4.0000	PRACOVNIK
-4.0000	PRACOVNIKA
-4.0000	PRACOVNIKU
-4.0000	PRACOVNIM
-4.0000	PRACUJE
-4.0000	PRACUJEME
-4.0000	PRACUJETE
-4.0000	PRACUJI
-4.0000	PRACUJU
-4.0000	PRAHA
-4.0000	PRAHOU
-4.0000	PRAHU
-4.0000	PRAHY
-4.0000	PRAKTICKE
-4.0000	PRAKTICKY
-4.0000	PRAKTIKY
-4.0000	PRAL
-4.0000	PRALA
-4.0000	PRANI
-4.0000	PRASKY
-4.0000	PRATEL
-4.0000	PRATELE
-4.0000	PRATELSTVI
-4.0000	PRAV
-4.0000	PRAVA
-4.0000	PRAVDA
-4.0000	PRAVDE
-4.0000	PRAVDEPODOBNE
-4.0000	PRAVDEPODOBNOST
-4.0000	PRAVDEPODOBNOSTI
-4.0000	PRAVDOU
-4.0000	PRAVDU
-4.0000	PRAVDY
-4.0000	PRAVE
-4.0000	PRAVEM
-4.0000	PRAVICE
-4.0000	PRAVICOVE
-4.0000	PRAVICOVOU
-4.0000	PRAVICOVYCH
-4.0000	PRAVIDEL
-4.0000	PRAVIDELNE
-4.0000	PRAVIDLA
-4.0000	PRAVIDLO
-4.0000	PRAVNI
-4.0000	PRAVNICI
-4.0000	PRAVNIHO
-4.0000	PRAVNIK
-4.0000	PRAVNIKU
-4.0000	PRAVNIKY
-4.0000	PRAVNIM
-4.0000	PRAVO
-4.0000	PRAVOMOC
-4.0000	PRAVOMOCI
-4.0000	PRAVOU
-4.0000	PRAVU
-4.0000	PRAVY
-4.0000	PRAXE
-4.0000	PRAXI
-4.0000	PRAZDNIN
-4.0000	PRAZDNINY
-4.0000	PRAZE
-4.0000	PRAZSKE
-4.0000	PRAZSKEHO
-4.0000	PRAZSKEM
-4.0000	PRAZSKY
-4.0000	PRAZSKYCH
-4.0000	PRECE
-4.0000	PRECETL
-4.0000	PRECETLA
-4.0000	PRECHOD
-4.0000	PRECI
-4.0000	PRECIST
-4.0000	PRECTE
-4.0000	PRED
-4.0000	PREDAT
-4.0000	PREDBEZNE
-4.0000	PREDCASNE
-4.0000	PREDCASNYCH
-4.0000	PREDCASNYM
-4.0000	PREDCHAZEJICI
-4.0000	PREDCHOZI
-4.0000	PREDCHOZICH
-4.0000	PREDCHOZIHO
-4.0000	PREDCHOZIM
-4.0000	PREDCHUDCE
-4.0000	PREDCI
-4.0000	PREDE
-4.0000	PREDEJIT
-4.0000	PREDELAT
-4.0000	PREDEM
-4.0000	PREDEVSIM
-4.0000	PREDLOZILI
-4.0000	PREDLOZIT
-4.0000	PREDMET
-4.0000	PREDMETU
-4.0000	PREDMETY
-4.0000	PREDNADRAZI
-4.0000	PREDNASKY
-4.0000	PREDNE
-4.0000	PREDNI
-4.0000	PREDNOST
-4.0000	PREDNOSTA
-4.0000	PREDPISY
-4.0000	PREDPOKLADA
-4.0000	PREDPOKLADALO
-4.0000	PREDPOKLADAM
-4.0000	PREDPOKLADAT
-4.0000	PREDPOKLADU
-4.0000	PREDPOVED
-4.0000	PREDPOVEDET
-4.0000	PREDPOVEDI
-4.0000	PREDSEDA
-4.0000	PREDSEDKYNE
-4.0000	PREDSEDNICTVA
-4.0000	PREDSEDO
-4.0000	PREDSEDOU
-4.0000	PREDSEDU
-4.0000	PREDSEDY
-4.0000	PREDSTAVA
-4.0000	PREDSTAVENI
-4.0000	PREDSTAVI
-4.0000	PREDSTAVIL
-4.0000	PREDSTAVIT
-4.0000	PREDSTAVITE
-4.0000	PREDSTAVITEL
-4.0000	PREDSTAVITELE
-4.0000	PREDSTAVITELI
-4.0000	PREDSTAVITELU
-4.0000	PREDSTAVOVAL
-4.0000	PREDSTAVOVALA
-4.0000	PREDSTAVOVALI
-4.0000	PREDSTAVTE
-4.0000	PREDSTAVU
-4.0000	PREDSTAVUJE
-4.0000	PREDSTAVUJI
-4.0000	PREDSTAVY
-4.0000	PREDSTIHEM
-4.0000	PREDTIM
-4.0000	PREDVADECI
-4.0000	PREDVADECICH
-4.0000	PREDVOLEBNI
-4.0000	PREFERENCE
-4.0000	PREFERENCI
-4.0000	PREHLED
-4.0000	PREHLIDKA
-4.0000	PREHNANY
-4.0000	PREHRADY
-4.0000	PREJDE
-4.0000	PREJE	-0.3010
-4.0000	PREJEME
-4.0000	PREJI
-4.0000	PREJIT
-4.0000	PREJU
-4.0000	PREKAZKU
-4.0000	PREKAZKY
-4.0000	PREKRACUJE
-4.0000	PREKVAPEN
-4.0000	PREKVAPENEJ
-4.0000	PREKVAPENI
-4.0000	PREKVAPENIM
-4.0000	PREKVAPI
-4.0000	PREKVAPIL
-4.0000	PREKVAPILA
-4.0000	PREKVAPILO
-4.0000	PREKVAPIT
-4.0000	PREKVAPIVE
-4.0000	PREKVAPUJE
-4.0000	PRELICENI
-4.0000	PRELOMU
-4.0000	PREMIER
-4.0000	PREMIERA
-4.0000	PREMIEREM
-4.0000	PREMIERU
-4.0000	PREMYSLA
-4.0000	PREMYSLEJI
-4.0000	PREMYSLET
-4.0000	PREMYSLI
-4.0000	PRENEST
-4.0000	PRENOS
-4.0000	PRENOSU
-4.0000	PREOCKOVANI
-4.0000	PREPADENI
-4.0000	PREPOCTU
-4.0000	PRERUSENA
-4.0000	PRES
-4.0000	PRESAHUJE
-4.0000	PRESNE
-4.0000	PRESNEJI
-4.0000	PRESNY
-4.0000	PRESOUVA
-4.0000	PRESTAL
-4.0000	PRESTALA
-4.0000	PRESTALO
-4.0000	PRESTANE
-4.0000	PRESTAT
-4.0000	PRESTAVA
-4.0000	PRESTIZ
-4.0000	PRESTIZNI
-4.0000	PRESTO
-4.0000	PRESTOZE
-4.0000	PRESVEDCEN
-4.0000	PRESVEDCENA
-4.0000	PRESVEDCENI
-4.0000	PRESVEDCENY
-4.0000	PRESVEDCIL
-4.0000	PRESVEDCIT
-4.0000	PREVAHU
-4.0000	PREVAZNE
-4.0000	PREVAZUJE
-4.0000	PREVENCE
-4.0000	PREVENCI
-4.0000	PREVENTIVNE
-4.0000	PREVENTIVNI
-4.0000	PREVZAL
-4.0000	PREVZALI
-4.0000	PREZENTACE
-4.0000	PREZENTOVAT
-4.0000	PREZIDENT
-4.0000	PREZIDENTA
-4.0000	PREZIDENTEM
-4.0000	PREZIDENTI
-4.0000	PREZIDENTOVI
-4.0000	PREZIDENTSKA
-4.0000	PREZIDENTSKE
-4.0000	PREZIDENTSKEHO
-4.0000	PREZIDENTSKOU
-4.0000	PREZIDENTSKY
-4.0000	PREZIDENTSKYCH
-4.0000	PREZIDENTU
-4.0000	PREZIDENTY
-4.0000	PREZIL
-4.0000	PREZILA
-4.0000	PREZIT
-4.0000	PREZITI
-4.0000	PRI
-4.0000	PRIBEH
-4.0000	PRIBEHU
-4.0000	PRIBEHY
-4.0000	PRIBLIZENI
-4.0000	PRIBLIZI
-4.0000	PRIBLIZIT
-4.0000	PRIBLIZNE
-4.0000	PRIBRAMI
-4.0000	PRIBUZNI
-4.0000	PRIBYL
-4.0000	PRIBYVA
-4.0000	PRIBYVAT
-4.0000	PRICEMZ
-4.0000	PRICHAZEJI
-4.0000	PRICHAZELO
-4.0000	PRICHAZELY
-4.0000	PRICHAZET
-4.0000	PRICHAZI
-4.0000	PRICIN
-4.0000	PRICINA
-4.0000	PRICINOU
-4.0000	PRICINU
-4.0000	PRICINY
-4.0000	PRIDALA
-4.0000	PRIDANE
-4.0000	PRIDANOU
-4.0000	PRIDAT
-4.0000	PRIDAVA
-4.0000	PRIDAVAJI
-4.0000	PRIDAVAT
-4.0000	PRIHLASIL
-4.0000	PRIHLASILA
-4.0000	PRIJAL
-4.0000	PRIJALA
-4.0000	PRIJALI
-4.0000	PRIJAT
-4.0000	PRIJATELNE
-4.0000	PRIJATO
-4.0000	PRIJDE
-4.0000	PRIJDETE
-4.0000	PRIJDOU
-4.0000	PRIJDTE
-4.0000	PRIJDU
-4.0000	PRIJEDE
-4.0000	PRIJEDOU
-4.0000	PRIJEL
-4.0000	PRIJELI
-4.0000	PRIJEM
-4.0000	PRIJEMNE
-4.0000	PRIJEMNY
-4.0000	PRIJETI
-4.0000	PRIJEZD
-4.0000	PRIJIMAT
-4.0000	PRIJIT
-4.0000	PRIJMEME
-4.0000	PRIJMOUT
-4.0000	PRIJMU
-4.0000	PRIJMY
-4.0000	PRIKAZ
-4.0000	PRIKLAD
-4.0000	PRIKLADEM
-4.0000	PRIKLADU
-4.0000	PRIKLADY
-4.0000	PRILEZITOST
-4.0000	PRILEZITOSTECH
-4.0000	PRILEZITOSTI
-4.0000	PRILIS
-4.0000	PRIMA
-4.0000	PRIMARNE
-4.0000	PRIMARNI
-4.0000	PRIMATOR
-4.0000	PRIMATORA
-4.0000	PRIMATORE
-4.0000	PRIME
-4.0000	PRIMEM
-4.0000	PRIMO
-4.0000	PRIMOU
-4.0000	PRIMY
-4.0000	PRINASET
-4.0000	PRINASI
-4.0000	PRINCIP
-4.0000	PRINCIPECH
-4.0000	PRINCIPIALNE
-4.0000	PRINCIPU
-4.0000	PRINCIPY
-4.0000	PRINEJMENSIM
-4.0000	PRINESE
-4.0000	PRINESL
-4.0000	PRINESLA
-4.0000	PRINESLO
-4.0000	PRINESOU
-4.0000	PRINEST
-4.0000	PRINOS
-4.0000	PRIORITY
-4.0000	PRIPAD
-4.0000	PRIPADA
-4.0000	PRIPADALO
-4.0000	PRIPADAT
-4.0000	PRIPADE
-4.0000	PRIPADECH
-4.0000	PRIPADEM
-4.0000	PRIPADNA
-4.0000	PRIPADNE
-4.0000	PRIPADNEM
-4.0000	PRIPADU
-4.0000	PRIPADY
-4.0000	PRIPOJIL
-4.0000	PRIPOMENEME
-4.0000	PRIPOMENME
-4.0000	PRIPOMENOUT
-4.0000	PRIPOMENU
-4.0000	PRIPOMINA
-4.0000	PRIPOMINAJI
-4.0000	PRIPOMINAM
-4.0000	PRIPOMINAME
-4.0000	PRIPOMINAT
-4.0000	PRIPOMNEL
-4.0000	PRIPOMNELA
-4.0000	PRIPOMNELI
-4.0000	PRIPOUSTI
-4.0000	PRIPRAVA
-4.0000	PRIPRAVE
-4.0000	PRIPRAVEN
-4.0000	PRIPRAVENA
-4.0000	PRIPRAVENI
-4.0000	PRIPRAVENO
-4.0000	PRIPRAVENY
-4.0000	PRIPRAVI
-4.0000	PRIPRAVIL
-4.0000	PRIPRAVILA
-4.0000	PRIPRAVILI
-4.0000	PRIPRAVIT
-4.0000	PRIPRAVOVALA
-4.0000	PRIPRAVOVALI
-4.0000	PRIPRAVOVAT
-4.0000	PRIPRAVU
-4.0000	PRIPRAVUJE
-4.0000	PRIPRAVUJEME
-4.0000	PRIPRAVUJI
-4.0000	PRIPRAVY
-4.0000	PRIRODA
-4.0000	PRIRODE
-4.0000	PRIRODNI
-4.0000	PRIRODU
-4.0000	PRIRODY
-4.0000	PRIROVNAT
-4.0000	PRIROZENA
-4.0000	PRIROZENE
-4.0000	PRISEL
-4.0000	PRISLA
-4.0000	PRISLI
-4.0000	PRISLO
-4.0000	PRISLUSI
-4.0000	PRISLUSNE
-4.0000	PRISLUSNEHO
-4.0000	PRISLUSNIKU
-4.0000	PRISLY
-4.0000	PRISNE
-4.0000	PRISNEJSI
-4.0000	PRISPEJE
-4.0000	PRISPELI
-4.0000	PRISPELY
-4.0000	PRISPET
-4.0000	PRISPEVEK
-4.0000	PRISPEVKU
-4.0000	PRISPEVKY
-4.0000	PRISPIVA
-4.0000	PRISPIVAJI
-4.0000	PRISTANI
-4.0000	PRISTE
-4.0000	PRISTI
-4.0000	PRISTICH
-4.0000	PRISTIHO
-4.0000	PRISTIM
-4.0000	PRISTOUPI
-4.0000	PRISTOUPILI
-4.0000	PRISTOUPIT
-4.0000	PRISTROJ
-4.0000	PRISTROJE
-4.0000	PRISTROJU
-4.0000	PRISTUP
-4.0000	PRISTUPOVAT
-4.0000	PRISTUPU
-4.0000	PRITAHUJE
-4.0000	PRITEL
-4.0000	PRITOM
-4.0000	PRITOMNOST
-4.0000	PRITOMNOSTI
-4.0000	PRIVATIZACI
-4.0000	PRIVEDL
-4.0000	PRIVEDLO
-4.0000	PRIZNAK
-4.0000	PRIZNAKY
-4.0000	PRIZNAL
-4.0000	PRIZNAM
-4.0000	PRIZNANI
-4.0000	PRIZNAT
-4.0000	PRIZNAVAM
-4.0000	PRIZNIVCEM
-4.0000	PRIZNIVCI
-4.0000	PRIZPUSOBIT
-4.0000	PRO
-4.0000	PROBEHLA
-4.0000	PROBEHLO
-4.0000	PROBEHLY
-4.0000	PROBEHNE
-4.0000	PROBEHNOUT
-4.0000	PROBIHA
-4.0000	PROBIHAJI
-4.0000	PROBIHALA
-4.0000	PROBIHALO
-4.0000	PROBIHALY
-4.0000	PROBIHAT
-4.0000	PROBLEM
-4.0000	PROBLEMATICKE
-4.0000	PROBLEMATIKA
-4.0000	PROBLEMATIKU
-4.0000	PROBLEMECH
-4.0000	PROBLEMEM
-4.0000	PROBLEMU
-4.0000	PROBLEMUM
-4.0000	PROBLEMY
-4.0000	PROBOHA
-4.0000	PROC
-4.0000	PROCEDURY
-4.0000	PROCENT
-4.0000	PROCENTA
-4.0000	PROCENTECH
-4.0000	PROCENTNI
-4.0000	PROCENTO
-4.0000	PROCES
-4.0000	PROCESU
-4.0000	PROCESY
-4.0000	PROCHAZET
-4.0000	PROCHAZI
-4.0000	PROCHAZKA
-4.0000	PROCHAZKU
-4.0000	PRODA
-4.0000	PRODAT
-4.0000	PRODAVA
-4.0000	PRODAVAJI
-4.0000	PRODAVAT
-4.0000	PRODEJ
-4.0000	PRODEJCE
-4.0000	PRODEJCI
-4.0000	PRODEJCU
-4.0000	PRODEJE
-4.0000	PRODUCENT
-4.0000	PRODUKCE
-4.0000	PRODUKT
-4.0000	PRODUKTU
-4.0000	PRODUKTY
-4.0000	PROFESE
-4.0000	PROFESI
-4.0000	PROFESIONALNI
-4.0000	PROFESIONALNICH
-4.0000	PROFESIONALOVE
-4.0000	PROFESNE
-4.0000	PROFESNI
-4.0000	PROFESOR
-4.0000	PROFESORA
-4.0000	PROFESORE
-4.0000	PROFESOREM
-4.0000	PROFIL
-4.0000	PROFILU
-4.0000	PROGRAM
-4.0000	PROGRAMECH
-4.0000	PROGRAMEM
-4.0000	PROGRAMOVE
-4.0000	PROGRAMU
-4.0000	PROGRAMY
-4.0000	PROGRESIVNI
-4.0000	PROHLASENI
-4.0000	PROHLASIL
-4.0000	PROHLIDKY
-4.0000	PROHRALI
-4.0000	PROHRU
-4.0000	PROJDE
-4.0000	PROJEDNAVAT
-4.0000	PROJEKT
-4.0000	PROJEKTEM
-4.0000	PROJEKTU
-4.0000	PROJEKTY
-4.0000	PROJEV
-4.0000	PROJEVI
-4.0000	PROJEVIL
-4.0000	PROJEVILO
-4.0000	PROJEVIT
-4.0000	PROJEVOVAT
-4.0000	PROJEVU
-4.0000	PROJEVUJE
-4.0000	PROJEVY
-4.0000	PROJIT
-4.0000	PROKAZAL
-4.0000	PROKAZAT
-4.0000	PROMINTE
-4.0000	PROMLUVIL
-4.0000	PROMLUVIT
-4.0000	PRONAJMU
-4.0000	PRONASLEDOVANI
-4.0000	PRONIKNOUT
-4.0000	PROPAD
-4.0000	PROPAGACNI
-4.0000	PROPOJENI
-4.0000	PROPOUSTENI
-4.0000	PROPOUSTET
-4.0000	PROPUSTENI
-4.0000	PROSADI
-4.0000	PROSADILA
-4.0000	PROSADIT
-4.0000	PROSAZOVAT
-4.0000	PROSAZUJE
-4.0000	PROSEL
-4.0000	PROSIM
-4.0000	PROSINCE
-4.0000	PROSINCI
-4.0000	PROSLA
-4.0000	PROSLI
-4.0000	PROSLO
-4.0000	PROSLY
-4.0000	PROSPECH
-4.0000	PROSPERUJICI
-4.0000	PROSPESNE
-4.0000	PROSTE
-4.0000	PROSTITUCE
-4.0000	PROSTOR
-4.0000	PROSTORACH
-4.0000	PROSTORU
-4.0000	PROSTORY
-4.0000	PROSTREDEK
-4.0000	PROSTREDI
-4.0000	PROSTREDKU
-4.0000	PROSTREDKY
-4.0000	PROSTREDNICTVIM
-4.0000	PROTEST
-4.0000	PROTESTNI
-4.0000	PROTESTU
-4.0000	PROTESTUJE
-4.0000	PROTESTY
-4.0000	PROTI
-4.0000	PROTIKORUPCNI
-4.0000	PROTIPOVODNOVYCH
-4.0000	PROTO
-4.0000	PROTOZE
-4.0000	PROUD
-4.0000	PROUDI
-4.0000	PROUDU
-4.0000	PROVADET
-4.0000	PROVADI
-4.0000	PROVADIME
-4.0000	PROVAZET
-4.0000	PROVAZI
-4.0000	PROVEDEN
-4.0000	PROVEDENI
-4.0000	PROVEDLA
-4.0000	PROVEDLI
-4.0000	PROVERIT
-4.0000	PROVEST
-4.0000	PROVOZ
