~o
<STREAMINFO> 1 39
<VECSIZE> 39<NULLD><MFCC_D_A_0><DIAGC>
~h "proto-3s-39f"
<BEGINHMM>
<NUMSTATES> 5
<STATE> 2
<MEAN> 39
 -7.302170e+000 -3.422617e-001 1.343018e+000 -3.710002e+000 -4.428652e+000 -2.500084e+000 -3.544107e+000 -1.205299e+000 -1.046029e+000 -3.697108e-002 -8.572652e-001 -1.622748e+000 6.132270e+001 4.566771e-004 8.889338e-004 2.097137e-004 7.378953e-005 2.193069e-003 6.137776e-004 4.283723e-004 -1.083649e-003 -6.645292e-004 6.289387e-004 -4.971707e-004 -6.201348e-004 3.275631e-004 2.468748e-004 -5.149274e-005 2.643117e-005 -7.873446e-005 -1.849197e-004 -1.496299e-004 -1.539695e-004 5.281026e-005 -1.115362e-004 -1.764283e-004 -1.999460e-004 8.264473e-005 1.239042e-004
<VARIANCE> 39
 7.870065e+001 5.375242e+001 6.852900e+001 8.083426e+001 7.911603e+001 6.775379e+001 7.607882e+001 5.678325e+001 5.897159e+001 4.160630e+001 5.354991e+001 3.677850e+001 1.550570e+002 3.284318e+000 2.736809e+000 2.648505e+000 3.772221e+000 3.825540e+000 3.368117e+000 3.652905e+000 3.395583e+000 3.382875e+000 2.687176e+000 2.800027e+000 2.177418e+000 3.414871e+000 4.803982e-001 4.648893e-001 4.250456e-001 6.428810e-001 6.676348e-001 6.008912e-001 6.535714e-001 6.233003e-001 6.066648e-001 5.096955e-001 5.104679e-001 4.050865e-001 5.562680e-001
<GCONST> 1.329100e+002
<STATE> 3
<MEAN> 39
 -7.302170e+000 -3.422617e-001 1.343018e+000 -3.710002e+000 -4.428652e+000 -2.500084e+000 -3.544107e+000 -1.205299e+000 -1.046029e+000 -3.697108e-002 -8.572652e-001 -1.622748e+000 6.132270e+001 4.566771e-004 8.889338e-004 2.097137e-004 7.378953e-005 2.193069e-003 6.137776e-004 4.283723e-004 -1.083649e-003 -6.645292e-004 6.289387e-004 -4.971707e-004 -6.201348e-004 3.275631e-004 2.468748e-004 -5.149274e-005 2.643117e-005 -7.873446e-005 -1.849197e-004 -1.496299e-004 -1.539695e-004 5.281026e-005 -1.115362e-004 -1.764283e-004 -1.999460e-004 8.264473e-005 1.239042e-004
<VARIANCE> 39
 7.870065e+001 5.375242e+001 6.852900e+001 8.083426e+001 7.911603e+001 6.775379e+001 7.607882e+001 5.678325e+001 5.897159e+001 4.160630e+001 5.354991e+001 3.677850e+001 1.550570e+002 3.284318e+000 2.736809e+000 2.648505e+000 3.772221e+000 3.825540e+000 3.368117e+000 3.652905e+000 3.395583e+000 3.382875e+000 2.687176e+000 2.800027e+000 2.177418e+000 3.414871e+000 4.803982e-001 4.648893e-001 4.250456e-001 6.428810e-001 6.676348e-001 6.008912e-001 6.535714e-001 6.233003e-001 6.066648e-001 5.096955e-001 5.104679e-001 4.050865e-001 5.562680e-001
<GCONST> 1.329100e+002
<STATE> 4
<MEAN> 39
 -7.302170e+000 -3.422617e-001 1.343018e+000 -3.710002e+000 -4.428652e+000 -2.500084e+000 -3.544107e+000 -1.205299e+000 -1.046029e+000 -3.697108e-002 -8.572652e-001 -1.622748e+000 6.132270e+001 4.566771e-004 8.889338e-004 2.097137e-004 7.378953e-005 2.193069e-003 6.137776e-004 4.283723e-004 -1.083649e-003 -6.645292e-004 6.289387e-004 -4.971707e-004 -6.201348e-004 3.275631e-004 2.468748e-004 -5.149274e-005 2.643117e-005 -7.873446e-005 -1.849197e-004 -1.496299e-004 -1.539695e-004 5.281026e-005 -1.115362e-004 -1.764283e-004 -1.999460e-004 8.264473e-005 1.239042e-004
<VARIANCE> 39
 7.870065e+001 5.375242e+001 6.852900e+001 8.083426e+001 7.911603e+001 6.775379e+001 7.607882e+001 5.678325e+001 5.897159e+001 4.160630e+001 5.354991e+001 3.677850e+001 1.550570e+002 3.284318e+000 2.736809e+000 2.648505e+000 3.772221e+000 3.825540e+000 3.368117e+000 3.652905e+000 3.395583e+000 3.382875e+000 2.687176e+000 2.800027e+000 2.177418e+000 3.414871e+000 4.803982e-001 4.648893e-001 4.250456e-001 6.428810e-001 6.676348e-001 6.008912e-001 6.535714e-001 6.233003e-001 6.066648e-001 5.096955e-001 5.104679e-001 4.050865e-001 5.562680e-001
<GCONST> 1.329100e+002
<TRANSP> 5
 0.000000e+000 1.000000e+000 0.000000e+000 0.000000e+000 0.000000e+000
 0.000000e+000 6.000000e-001 4.000000e-001 0.000000e+000 0.000000e+000
 0.000000e+000 0.000000e+000 6.000000e-001 4.000000e-001 0.000000e+000
 0.000000e+000 0.000000e+000 0.000000e+000 6.000000e-001 4.000000e-001
 0.000000e+000 0.000000e+000 0.000000e+000 0.000000e+000 0.000000e+000
<ENDHMM>
