~o
<STREAMINFO> 1 39
<VECSIZE> 39<NULLD><MFCC_D_A_0><DIAGC>
~h "proto-3s-39f"
<BEGINHMM>
<NUMSTATES> 5
<STATE> 2
<MEAN> 39
 -7.302171e+000 -3.422616e-001 1.343018e+000 -3.710003e+000 -4.428652e+000 -2.500084e+000 -3.544107e+000 -1.205299e+000 -1.046030e+000 -3.697117e-002 -8.572654e-001 -1.622748e+000 6.132270e+001 4.566776e-004 8.889350e-004 2.097119e-004 7.378971e-005 2.193064e-003 6.137794e-004 4.283707e-004 -1.083648e-003 -6.645268e-004 6.289388e-004 -4.971675e-004 -6.201369e-004 3.275674e-004 2.468745e-004 -5.149307e-005 2.643109e-005 -7.873405e-005 -1.849187e-004 -1.496294e-004 -1.539686e-004 5.281135e-005 -1.115360e-004 -1.764287e-004 -1.999459e-004 8.264393e-005 1.239040e-004
<VARIANCE> 39
 7.870065e+001 5.375242e+001 6.852900e+001 8.083426e+001 7.911603e+001 6.775379e+001 7.607882e+001 5.678326e+001 5.897160e+001 4.160630e+001 5.354992e+001 3.677851e+001 1.550570e+002 3.284318e+000 2.736809e+000 2.648505e+000 3.772222e+000 3.825540e+000 3.368117e+000 3.652905e+000 3.395583e+000 3.382875e+000 2.687176e+000 2.800027e+000 2.177418e+000 3.414870e+000 4.803982e-001 4.648893e-001 4.250456e-001 6.428810e-001 6.676348e-001 6.008912e-001 6.535713e-001 6.233003e-001 6.066650e-001 5.096956e-001 5.104679e-001 4.050865e-001 5.562680e-001
<GCONST> 1.329100e+002
<STATE> 3
<MEAN> 39
 -7.302171e+000 -3.422616e-001 1.343018e+000 -3.710003e+000 -4.428652e+000 -2.500084e+000 -3.544107e+000 -1.205299e+000 -1.046030e+000 -3.697117e-002 -8.572654e-001 -1.622748e+000 6.132270e+001 4.566776e-004 8.889350e-004 2.097119e-004 7.378971e-005 2.193064e-003 6.137794e-004 4.283707e-004 -1.083648e-003 -6.645268e-004 6.289388e-004 -4.971675e-004 -6.201369e-004 3.275674e-004 2.468745e-004 -5.149307e-005 2.643109e-005 -7.873405e-005 -1.849187e-004 -1.496294e-004 -1.539686e-004 5.281135e-005 -1.115360e-004 -1.764287e-004 -1.999459e-004 8.264393e-005 1.239040e-004
<VARIANCE> 39
 7.870065e+001 5.375242e+001 6.852900e+001 8.083426e+001 7.911603e+001 6.775379e+001 7.607882e+001 5.678326e+001 5.897160e+001 4.160630e+001 5.354992e+001 3.677851e+001 1.550570e+002 3.284318e+000 2.736809e+000 2.648505e+000 3.772222e+000 3.825540e+000 3.368117e+000 3.652905e+000 3.395583e+000 3.382875e+000 2.687176e+000 2.800027e+000 2.177418e+000 3.414870e+000 4.803982e-001 4.648893e-001 4.250456e-001 6.428810e-001 6.676348e-001 6.008912e-001 6.535713e-001 6.233003e-001 6.066650e-001 5.096956e-001 5.104679e-001 4.050865e-001 5.562680e-001
<GCONST> 1.329100e+002
<STATE> 4
<MEAN> 39
 -7.302171e+000 -3.422616e-001 1.343018e+000 -3.710003e+000 -4.428652e+000 -2.500084e+000 -3.544107e+000 -1.205299e+000 -1.046030e+000 -3.697117e-002 -8.572654e-001 -1.622748e+000 6.132270e+001 4.566776e-004 8.889350e-004 2.097119e-004 7.378971e-005 2.193064e-003 6.137794e-004 4.283707e-004 -1.083648e-003 -6.645268e-004 6.289388e-004 -4.971675e-004 -6.201369e-004 3.275674e-004 2.468745e-004 -5.149307e-005 2.643109e-005 -7.873405e-005 -1.849187e-004 -1.496294e-004 -1.539686e-004 5.281135e-005 -1.115360e-004 -1.764287e-004 -1.999459e-004 8.264393e-005 1.239040e-004
<VARIANCE> 39
 7.870065e+001 5.375242e+001 6.852900e+001 8.083426e+001 7.911603e+001 6.775379e+001 7.607882e+001 5.678326e+001 5.897160e+001 4.160630e+001 5.354992e+001 3.677851e+001 1.550570e+002 3.284318e+000 2.736809e+000 2.648505e+000 3.772222e+000 3.825540e+000 3.368117e+000 3.652905e+000 3.395583e+000 3.382875e+000 2.687176e+000 2.800027e+000 2.177418e+000 3.414870e+000 4.803982e-001 4.648893e-001 4.250456e-001 6.428810e-001 6.676348e-001 6.008912e-001 6.535713e-001 6.233003e-001 6.066650e-001 5.096956e-001 5.104679e-001 4.050865e-001 5.562680e-001
<GCONST> 1.329100e+002
<TRANSP> 5
 0.000000e+000 1.000000e+000 0.000000e+000 0.000000e+000 0.000000e+000
 0.000000e+000 6.000000e-001 4.000000e-001 0.000000e+000 0.000000e+000
 0.000000e+000 0.000000e+000 6.000000e-001 4.000000e-001 0.000000e+000
 0.000000e+000 0.000000e+000 0.000000e+000 6.000000e-001 4.000000e-001
 0.000000e+000 0.000000e+000 0.000000e+000 0.000000e+000 0.000000e+000
<ENDHMM>
