~o
<STREAMINFO> 1 39
<VECSIZE> 39<NULLD><MFCC_D_A_0><DIAGC>
~h "MJ"
<BEGINHMM>
<NUMSTATES> 3
<STATE> 2
<MEAN> 39
 -7.790006e+000 -2.901337e+000 -1.168305e+000 -8.623177e+000 -8.479654e+000 -7.369056e+000 -9.896090e+000 -3.065437e+000 -1.518225e+000 2.611172e+000 -8.970972e-001 -3.385734e+000 6.412222e+001 8.919367e-004 -9.213560e-005 2.813861e-004 3.294192e-004 -2.011806e-004 1.057380e-003 8.106864e-004 -1.300015e-004 -1.981235e-003 -6.911256e-004 -2.070946e-003 5.520401e-004 -2.755187e-004 -6.026737e-005 1.144696e-004 -4.584457e-005 -1.514006e-004 -2.274179e-004 3.577082e-005 9.004143e-005 7.982955e-006 -9.856039e-005 -1.436008e-004 1.123088e-005 2.407529e-004 1.968730e-005
<VARIANCE> 39
 6.436475e+001 3.355825e+001 7.643975e+001 4.651430e+001 5.216582e+001 6.023087e+001 6.918533e+001 4.154020e+001 5.401958e+001 3.134402e+001 3.705787e+001 3.030079e+001 6.831348e+001 3.040054e+000 2.054848e+000 2.731988e+000 2.890763e+000 3.085217e+000 3.136661e+000 4.088551e+000 3.077023e+000 3.373267e+000 2.257855e+000 2.425076e+000 2.177014e+000 2.380622e+000 4.300539e-001 3.545057e-001 4.064058e-001 4.976587e-001 5.351674e-001 5.309317e-001 6.967467e-001 5.726990e-001 5.957656e-001 4.286883e-001 4.468243e-001 3.993673e-001 3.821956e-001
<GCONST> 1.257852e+002
<TRANSP> 3
 0.000000e+000 1.000000e+000 0.000000e+000
 0.000000e+000 9.984397e-001 1.560251e-003
 0.000000e+000 0.000000e+000 0.000000e+000
<ENDHMM>
~h "PB"
<BEGINHMM>
<NUMSTATES> 3
<STATE> 2
<MEAN> 39
 -5.975980e+000 2.616979e+000 2.763670e+000 -2.450950e+000 -6.927561e+000 -1.459924e-001 -5.710526e+000 1.190106e+000 9.432110e-001 6.089169e-001 1.278234e+000 -3.538374e+000 6.193733e+001 -2.377423e-004 9.101787e-005 1.986511e-004 -1.558619e-006 -8.662218e-006 -4.538617e-004 -4.304006e-004 -2.228477e-004 1.262907e-004 2.676279e-006 5.374599e-004 1.001943e-003 1.051253e-004 2.082704e-004 -3.415109e-005 -1.521778e-005 -6.634715e-005 4.151861e-004 2.048863e-004 6.217630e-005 -2.418363e-005 -1.085491e-004 -1.673789e-004 1.639151e-004 5.754835e-004 -7.673702e-005
<VARIANCE> 39
 5.710303e+001 4.607711e+001 6.105447e+001 4.420074e+001 7.211774e+001 4.371009e+001 6.696455e+001 3.674136e+001 3.413740e+001 2.830846e+001 2.567730e+001 3.932126e+001 8.545258e+001 2.809857e+000 2.748946e+000 2.690156e+000 2.969859e+000 3.768609e+000 2.735238e+000 3.574757e+000 2.971942e+000 2.546119e+000 2.245302e+000 2.195217e+000 2.510781e+000 2.467567e+000 4.234977e-001 4.430599e-001 4.223462e-001 5.155094e-001 6.486088e-001 4.884417e-001 6.434230e-001 5.548702e-001 4.813126e-001 4.325834e-001 4.269115e-001 4.564457e-001 3.907429e-001
<GCONST> 1.252061e+002
<TRANSP> 3
 0.000000e+000 1.000000e+000 0.000000e+000
 0.000000e+000 9.985553e-001 1.444716e-003
 0.000000e+000 0.000000e+000 0.000000e+000
<ENDHMM>
~h "TOMAS"
<BEGINHMM>
<NUMSTATES> 3
<STATE> 2
<MEAN> 39
 -5.695891e+000 4.036931e+000 5.335603e+000 -1.176176e+000 -9.495308e-001 -3.130864e+000 -1.432622e+000 -4.845524e-001 5.349354e-001 1.296630e+000 2.242205e+000 2.190988e+000 6.201408e+001 -2.442396e-003 5.478162e-003 -4.560055e-004 -6.316195e-004 1.051718e-003 2.581524e-004 1.212393e-003 -1.281142e-003 -3.014022e-003 7.656267e-003 1.938249e-003 -5.068223e-003 2.827559e-004 -8.313273e-004 6.197210e-004 -6.678746e-004 7.916391e-004 -1.823837e-003 1.121470e-003 -1.373096e-003 2.373192e-004 -5.157888e-004 2.783827e-004 -1.587591e-004 -5.869436e-004 6.751286e-004
<VARIANCE> 39
 5.972921e+001 3.440372e+001 5.401954e+001 5.454368e+001 5.990792e+001 5.273852e+001 5.546510e+001 4.591676e+001 4.734441e+001 3.405450e+001 2.996223e+001 2.151168e+001 6.375271e+001 2.460594e+000 1.865783e+000 2.262890e+000 2.670528e+000 3.451294e+000 3.149307e+000 3.022566e+000 2.624858e+000 2.919523e+000 2.194155e+000 2.076375e+000 1.749104e+000 1.957634e+000 3.434503e-001 3.000317e-001 3.552558e-001 4.330151e-001 5.958773e-001 5.653867e-001 5.496653e-001 4.837194e-001 5.260998e-001 4.153311e-001 3.879240e-001 3.373997e-001 2.935979e-001
<GCONST> 1.214649e+002
<TRANSP> 3
 0.000000e+000 1.000000e+000 0.000000e+000
 0.000000e+000 9.973280e-001 2.671971e-003
 0.000000e+000 0.000000e+000 0.000000e+000
<ENDHMM>
~h "CERNY"
<BEGINHMM>
<NUMSTATES> 3
<STATE> 2
<MEAN> 39
 -1.026227e+001 -1.295327e+000 -1.157737e+000 -4.103771e+000 -4.616468e+000 -3.117987e+000 -5.648743e+000 -3.932239e-001 8.319247e-001 1.206298e+000 -5.857057e-002 -1.332536e+000 6.410395e+001 -3.188375e-004 8.974839e-004 1.988326e-005 4.181922e-004 2.286614e-004 -8.475031e-005 -6.725291e-004 4.049318e-004 -1.732755e-003 8.039895e-004 -1.243551e-003 6.504425e-004 -3.614947e-004 3.154394e-005 -1.948094e-004 2.079334e-004 -1.784757e-004 -1.608722e-004 -5.582864e-005 -9.711547e-005 -1.648953e-004 4.259745e-005 -3.519642e-004 2.271182e-004 -7.397996e-005 -4.111293e-005
<VARIANCE> 39
 1.964336e+001 2.057627e+001 2.901611e+001 4.214114e+001 3.596424e+001 3.030165e+001 5.151111e+001 2.778539e+001 2.521030e+001 2.438537e+001 1.620238e+001 2.349303e+001 2.006407e+001 9.801930e-001 1.259133e+000 1.328225e+000 2.041706e+000 2.148376e+000 1.903568e+000 2.885388e+000 2.235325e+000 2.036060e+000 1.919517e+000 1.464098e+000 1.528086e+000 6.867328e-001 1.444248e-001 2.040740e-001 2.106737e-001 3.372799e-001 3.824752e-001 3.541937e-001 5.297450e-001 4.289865e-001 3.875164e-001 3.675342e-001 2.903732e-001 2.849583e-001 1.154566e-001
<GCONST> 1.044341e+002
<TRANSP> 3
 0.000000e+000 1.000000e+000 0.000000e+000
 0.000000e+000 9.986002e-001 1.399776e-003
 0.000000e+000 0.000000e+000 0.000000e+000
<ENDHMM>
~h "ZSS2"
<BEGINHMM>
<NUMSTATES> 3
<STATE> 2
<MEAN> 39
 -6.220913e+000 2.530976e+000 1.624120e+000 -2.751675e+000 -1.047617e+000 -1.259027e+000 -2.285815e-001 -2.198332e-001 -1.015537e+000 2.351857e+000 -2.751376e+000 1.456902e+000 6.408607e+001 2.308889e-003 -5.844042e-004 1.234381e-004 2.585751e-003 1.605292e-003 2.371721e-003 -3.852124e-004 -2.357338e-003 1.665797e-003 -5.190540e-004 8.657458e-004 4.404935e-004 -3.403960e-003 1.599039e-004 1.607700e-004 -1.790165e-005 -4.720172e-004 -2.284958e-004 7.560791e-005 2.332871e-005 -4.741181e-004 -4.260752e-004 1.564993e-004 2.592867e-004 -1.336996e-004 1.977697e-005
<VARIANCE> 39
 6.581062e+001 3.901216e+001 4.545362e+001 6.644147e+001 8.518867e+001 5.157756e+001 6.616812e+001 4.297000e+001 6.423455e+001 3.355183e+001 7.719531e+001 2.547840e+001 7.343651e+001 3.831680e+000 2.684596e+000 2.546344e+000 4.070734e+000 4.802496e+000 3.627845e+000 3.664551e+000 2.913374e+000 3.786752e+000 2.950565e+000 4.223234e+000 2.080736e+000 3.525668e+000 5.982058e-001 4.728822e-001 4.297164e-001 6.801491e-001 8.288559e-001 6.705835e-001 6.244655e-001 5.366682e-001 6.546866e-001 5.696508e-001 7.164770e-001 4.021261e-001 6.027525e-001
<GCONST> 1.322694e+002
<TRANSP> 3
 0.000000e+000 1.000000e+000 0.000000e+000
 0.000000e+000 9.982025e-001 1.797483e-003
 0.000000e+000 0.000000e+000 0.000000e+000
<ENDHMM>
~h "SMOLA"
<BEGINHMM>
<NUMSTATES> 3
<STATE> 2
<MEAN> 39
 -6.724901e+000 2.136896e-001 1.289621e+000 -1.629053e+000 -2.936755e+000 -2.350430e+000 -5.908906e+000 2.907255e+000 -4.502216e+000 -2.121152e-001 3.837558e+000 -3.324198e+000 5.917997e+001 1.198555e-005 1.126172e-003 1.110018e-002 -1.116891e-002 8.395585e-003 4.658390e-003 8.273725e-003 -1.672419e-002 -2.278402e-002 -6.947490e-003 -5.044046e-003 -6.350047e-003 1.262608e-002 -8.583788e-004 -5.029757e-004 3.688067e-004 -1.015075e-003 1.794556e-003 8.684422e-004 -3.907302e-004 -2.282392e-004 1.650692e-004 7.536190e-004 -1.395751e-003 -9.404395e-004 4.176387e-004
<VARIANCE> 39
 6.367906e+001 6.508096e+001 4.790777e+001 7.041777e+001 5.697699e+001 6.495542e+001 7.789153e+001 4.359462e+001 7.402283e+001 3.446930e+001 2.706331e+001 3.802541e+001 1.440287e+002 3.304405e+000 3.614038e+000 2.639164e+000 3.861326e+000 3.170030e+000 3.579908e+000 4.462872e+000 3.194414e+000 4.898049e+000 2.436193e+000 2.231982e+000 2.293626e+000 5.209859e+000 4.867293e-001 5.811232e-001 4.386279e-001 6.569462e-001 5.677235e-001 6.545179e-001 8.089757e-001 6.037471e-001 8.854363e-001 4.579020e-001 4.301625e-001 4.113072e-001 8.370835e-001
<GCONST> 1.328524e+002
<TRANSP> 3
 0.000000e+000 1.000000e+000 0.000000e+000
 0.000000e+000 9.966092e-001 3.390863e-003
 0.000000e+000 0.000000e+000 0.000000e+000
<ENDHMM>
~h "NOZICKA"
<BEGINHMM>
<NUMSTATES> 3
<STATE> 2
<MEAN> 39
 -1.574684e+001 -9.917432e+000 7.749853e+000 -1.011547e+001 -2.900551e+000 1.773707e+000 -4.332554e+000 -9.399849e-001 -5.713426e-001 -3.235361e+000 3.372019e+000 -2.913973e+000 5.444348e+001 -5.419409e-004 -3.347960e-003 1.225566e-003 -4.784273e-003 4.779258e-003 1.241039e-003 -3.761389e-003 -3.344084e-004 -2.492648e-003 4.755571e-003 1.330775e-003 -1.476709e-003 3.001094e-003 -9.094448e-004 6.892299e-004 2.765352e-003 -2.279677e-004 4.910313e-004 -6.823239e-004 -1.251110e-003 6.974100e-004 -1.923182e-003 -4.651720e-004 8.109523e-004 -2.000183e-004 -2.418792e-004
<VARIANCE> 39
 1.184298e+002 1.511539e+002 2.040752e+002 1.613637e+002 1.247284e+002 1.214878e+002 9.070489e+001 7.203521e+001 8.358607e+001 5.726394e+001 4.904927e+001 3.610233e+001 4.229086e+002 3.348405e+000 4.690112e+000 3.906080e+000 5.354401e+000 6.438407e+000 5.665624e+000 5.407864e+000 3.886244e+000 5.021420e+000 3.374227e+000 3.235481e+000 2.279762e+000 4.500592e+000 4.609521e-001 6.899915e-001 6.085697e-001 8.760314e-001 1.077167e+000 8.996154e-001 9.223711e-001 6.755296e-001 8.396398e-001 6.122105e-001 5.846307e-001 4.246611e-001 6.217328e-001
<GCONST> 1.462383e+002
<TRANSP> 3
 0.000000e+000 1.000000e+000 0.000000e+000
 0.000000e+000 9.977571e-001 2.242944e-003
 0.000000e+000 0.000000e+000 0.000000e+000
<ENDHMM>
~h "DAVID"
<BEGINHMM>
<NUMSTATES> 3
<STATE> 2
<MEAN> 39
 -1.070620e+001 1.687016e+000 8.444862e-001 -3.978488e+000 -1.227895e+000 -2.834470e+000 -1.784177e+000 -5.591743e-001 -3.734289e+000 7.064872e-001 -1.089793e+000 -2.139907e+000 6.969398e+001 1.809992e-004 -6.530253e-004 9.338943e-005 4.226195e-004 6.103445e-004 1.385883e-003 8.399513e-004 -1.195469e-003 -1.416578e-003 -1.955451e-003 -1.208847e-003 1.230642e-003 1.511653e-004 1.820878e-005 -1.236631e-004 -3.201522e-005 -3.305235e-004 -6.258776e-004 -1.245374e-003 -7.361386e-004 1.655906e-004 -2.841373e-005 2.027450e-004 3.962409e-004 5.473378e-004 -1.349272e-004
<VARIANCE> 39
 5.920746e+001 2.678050e+001 5.316615e+001 4.878764e+001 3.575499e+001 3.100750e+001 4.473487e+001 3.905518e+001 5.662183e+001 2.369257e+001 2.779306e+001 2.479944e+001 7.109743e+001 2.759504e+000 1.616910e+000 2.156034e+000 3.133423e+000 2.295316e+000 2.244130e+000 3.040141e+000 3.047090e+000 3.561366e+000 2.129447e+000 2.066211e+000 1.711996e+000 2.093914e+000 3.802966e-001 2.680040e-001 3.191143e-001 5.326417e-001 3.965771e-001 4.135317e-001 5.315737e-001 5.678691e-001 6.208692e-001 4.127016e-001 3.889401e-001 3.141092e-001 3.414087e-001
<GCONST> 1.190843e+002
<TRANSP> 3
 0.000000e+000 1.000000e+000 0.000000e+000
 0.000000e+000 9.972219e-001 2.778121e-003
 0.000000e+000 0.000000e+000 0.000000e+000
<ENDHMM>
~h "JAN"
<BEGINHMM>
<NUMSTATES> 3
<STATE> 2
<MEAN> 39
 -8.357702e+000 -6.585167e+000 2.887308e+000 -3.689408e+000 -1.255879e+001 2.289842e+000 -8.056391e-001 -2.581842e+000 -1.021002e+000 2.850349e+000 -7.443754e+000 -6.409091e+000 5.004477e+001 -2.804032e-004 -1.279659e-003 6.915909e-004 6.453150e-004 1.518665e-003 -1.151966e-003 1.627082e-004 3.494934e-005 3.435088e-004 -8.405869e-005 -5.796035e-005 1.274472e-003 5.027413e-004 1.248536e-004 -1.034808e-004 1.696203e-004 -1.568982e-004 1.226245e-004 2.736184e-004 -3.022305e-004 2.447762e-005 -5.143741e-004 -2.908513e-004 -2.734920e-004 4.639244e-004 5.455092e-005
<VARIANCE> 39
 2.424329e+001 2.988236e+001 7.578333e+001 3.455883e+001 4.705912e+001 3.833567e+001 8.542300e+001 5.749593e+001 3.131378e+001 2.930783e+001 2.024331e+001 2.018172e+001 3.323808e+001 8.012618e-001 1.330745e+000 1.994432e+000 1.815576e+000 2.112365e+000 1.828425e+000 3.102491e+000 2.367520e+000 1.893539e+000 1.806326e+000 1.515490e+000 1.324978e+000 8.070661e-001 1.123683e-001 2.037106e-001 2.839610e-001 3.012309e-001 3.476822e-001 3.127364e-001 5.005151e-001 4.049711e-001 3.345916e-001 3.268857e-001 2.895540e-001 2.395325e-001 1.063898e-001
<GCONST> 1.077044e+002
<TRANSP> 3
 0.000000e+000 1.000000e+000 0.000000e+000
 0.000000e+000 9.972063e-001 2.793643e-003
 0.000000e+000 0.000000e+000 0.000000e+000
<ENDHMM>
~h "MAR"
<BEGINHMM>
<NUMSTATES> 3
<STATE> 2
<MEAN> 39
 -5.545377e+000 1.856505e+000 4.025032e+000 6.021554e-001 -8.096138e-001 -7.889907e-001 -2.031770e-001 -1.869368e+000 2.383721e+000 -2.049596e+000 4.810224e+000 -2.364155e+000 6.915982e+001 1.243774e-004 -1.817291e-004 1.240801e-003 4.675210e-004 1.632638e-004 -1.301410e-003 -9.173168e-004 -9.593711e-004 -8.676003e-004 -3.126993e-004 -1.141995e-003 2.211628e-004 6.119488e-005 3.065148e-005 1.953836e-004 -1.490354e-004 7.568863e-005 -4.467084e-005 -2.556412e-004 -5.293679e-004 -2.178875e-004 -1.834727e-004 2.347714e-004 -3.766340e-004 -2.957359e-004 1.515897e-004
<VARIANCE> 39
 8.035582e+001 4.693398e+001 6.142456e+001 5.812206e+001 7.341074e+001 5.466494e+001 5.797247e+001 4.839909e+001 4.030555e+001 5.042109e+001 3.037331e+001 4.481084e+001 1.105339e+002 4.204361e+000 3.007275e+000 2.896081e+000 4.206509e+000 4.429919e+000 4.027221e+000 3.595671e+000 3.461152e+000 2.928334e+000 3.207061e+000 2.857585e+000 3.022364e+000 5.021848e+000 6.057006e-001 5.095668e-001 4.606153e-001 7.377291e-001 7.678687e-001 7.466989e-001 6.434807e-001 6.360561e-001 5.464743e-001 5.771893e-001 5.726974e-001 5.407988e-001 8.446300e-001
<GCONST> 1.341180e+002
<TRANSP> 3
 0.000000e+000 1.000000e+000 0.000000e+000
 0.000000e+000 9.984528e-001 1.547198e-003
 0.000000e+000 0.000000e+000 0.000000e+000
<ENDHMM>
~h "MJB"
<BEGINHMM>
<NUMSTATES> 3
<STATE> 2
<MEAN> 39
 -5.408545e+000 -1.698372e-001 2.317130e+000 8.163021e-001 -3.198075e+000 1.507320e+000 -6.131701e+000 5.086970e-001 -2.582861e+000 -1.287733e+000 -1.895613e+000 -8.626211e-001 6.529600e+001 -2.716869e-003 1.256366e-003 -3.036108e-003 -4.171494e-004 8.571814e-004 1.474881e-003 4.630637e-003 2.725468e-003 2.134869e-003 3.658218e-003 4.007943e-005 1.442477e-003 -7.675677e-004 4.885860e-004 1.447147e-004 -2.446108e-004 -2.286716e-004 -3.522013e-004 -1.640844e-004 -4.158734e-004 -2.096068e-004 7.183097e-004 1.509650e-004 -1.765004e-004 -5.493917e-005 5.973773e-007
<VARIANCE> 39
 8.462669e+001 4.508920e+001 5.293253e+001 4.216860e+001 7.899224e+001 5.593862e+001 6.119561e+001 4.747735e+001 4.836010e+001 3.001520e+001 3.279954e+001 2.629727e+001 8.192671e+001 3.602426e+000 2.483772e+000 2.063760e+000 2.577311e+000 4.315945e+000 3.420975e+000 3.062973e+000 2.900554e+000 2.898452e+000 2.068762e+000 2.179292e+000 1.606042e+000 2.317439e+000 5.394716e-001 4.143800e-001 3.450061e-001 4.570675e-001 7.335442e-001 6.106315e-001 5.571328e-001 5.383250e-001 5.379345e-001 3.979365e-001 4.068186e-001 3.102225e-001 3.827615e-001
<GCONST> 1.251481e+002
<TRANSP> 3
 0.000000e+000 1.000000e+000 0.000000e+000
 0.000000e+000 9.982219e-001 1.778108e-003
 0.000000e+000 0.000000e+000 0.000000e+000
<ENDHMM>
~h "MJL"
<BEGINHMM>
<NUMSTATES> 3
<STATE> 2
<MEAN> 39
 -4.608065e+000 -1.752790e-001 1.562241e+000 2.355678e+000 -3.343194e+000 -5.605959e-001 1.787037e+000 1.343187e+000 2.463188e+000 4.817103e+000 5.420949e+000 1.618335e+000 5.218034e+001 -2.472816e-003 3.805784e-003 1.309578e-003 3.784267e-003 3.982723e-003 4.122566e-003 4.269761e-003 2.885808e-003 3.360766e-003 2.036515e-003 3.190104e-003 2.800974e-003 -6.994459e-003 1.286944e-003 -1.208087e-003 -3.281047e-004 -1.428525e-003 -1.573686e-003 -1.817963e-003 -2.550059e-003 -1.551042e-003 -5.322074e-004 -9.577255e-004 -1.318037e-003 -1.171152e-003 2.436061e-003
<VARIANCE> 39
 8.707343e+001 4.749564e+001 4.848838e+001 3.946780e+001 9.724904e+001 6.519180e+001 4.750563e+001 6.296777e+001 4.352259e+001 2.763990e+001 2.304973e+001 3.628292e+001 1.364078e+002 3.825318e+000 2.952754e+000 1.997868e+000 2.263283e+000 4.233315e+000 2.555861e+000 2.431858e+000 3.477095e+000 2.467011e+000 2.001456e+000 1.790129e+000 1.848812e+000 2.044167e+000 5.683106e-001 5.207236e-001 3.183251e-001 4.073268e-001 7.556096e-001 4.546286e-001 4.544924e-001 6.391647e-001 4.539202e-001 3.864561e-001 3.494676e-001 3.410013e-001 3.479135e-001
<GCONST> 1.245262e+002
<TRANSP> 3
 0.000000e+000 1.000000e+000 0.000000e+000
 0.000000e+000 9.983717e-001 1.628322e-003
 0.000000e+000 0.000000e+000 0.000000e+000
<ENDHMM>
~h "MKK"
<BEGINHMM>
<NUMSTATES> 3
<STATE> 2
<MEAN> 39
 -5.630123e+000 -1.315849e+000 5.041930e+000 -7.395033e+000 -2.160247e-001 -3.264474e+000 -5.185079e-002 2.251266e+000 2.182945e+000 9.240140e-001 -1.485132e+000 -1.041577e+000 6.128321e+001 -1.467346e-004 1.482308e-003 1.271198e-003 2.227887e-003 2.106704e-003 2.114813e-003 2.529204e-003 6.610436e-004 1.578635e-003 -2.539730e-004 1.028038e-003 6.808225e-004 -1.766592e-003 -1.682750e-004 -5.320697e-005 1.517674e-004 -7.290018e-005 -1.781675e-004 -5.109447e-005 1.138329e-004 4.767878e-005 -3.967751e-005 -5.483093e-005 3.642984e-006 -7.783335e-005 2.684872e-005
<VARIANCE> 39
 6.998012e+001 3.287259e+001 5.352624e+001 8.135352e+001 3.544313e+001 4.106845e+001 4.517652e+001 3.268712e+001 4.899775e+001 3.052259e+001 3.397444e+001 1.838688e+001 8.840408e+001 3.149302e+000 2.260201e+000 2.301291e+000 4.679633e+000 2.414346e+000 2.563289e+000 3.177520e+000 2.659011e+000 3.518429e+000 2.327047e+000 2.448388e+000 1.625781e+000 3.357020e+000 4.454133e-001 4.034688e-001 3.725111e-001 7.983077e-001 4.548841e-001 4.677200e-001 5.830440e-001 5.113052e-001 6.466409e-001 4.511203e-001 4.489068e-001 3.201053e-001 5.406352e-001
<GCONST> 1.241243e+002
<TRANSP> 3
 0.000000e+000 1.000000e+000 0.000000e+000
 0.000000e+000 9.988053e-001 1.194696e-003
 0.000000e+000 0.000000e+000 0.000000e+000
<ENDHMM>
~h "MMS"
<BEGINHMM>
<NUMSTATES> 3
<STATE> 2
<MEAN> 39
 -5.627668e+000 1.529463e+000 5.527094e+000 -2.869158e-001 -1.556552e+000 1.142928e+000 -1.134112e+000 -1.144629e+000 3.278535e+000 -4.083647e-001 3.887353e+000 -7.963795e-001 6.657002e+001 7.900574e-004 5.855725e-004 1.987049e-004 4.655229e-004 1.432685e-003 -1.339219e-003 -2.285141e-004 1.322113e-003 -2.317378e-005 -4.492081e-004 1.265388e-003 -6.425316e-004 -1.306685e-003 1.208215e-004 -2.236562e-004 -9.508651e-005 -5.538709e-005 -5.106218e-004 -2.569669e-004 -1.675901e-004 7.499746e-005 1.264991e-004 2.363364e-004 -1.105865e-004 -7.544411e-005 1.384012e-004
<VARIANCE> 39
 8.543913e+001 3.993795e+001 5.784713e+001 5.016893e+001 8.203833e+001 5.268513e+001 6.691422e+001 5.902455e+001 4.623747e+001 4.022669e+001 2.820041e+001 3.963034e+001 8.408399e+001 4.896943e+000 3.047147e+000 2.992775e+000 3.555887e+000 4.967315e+000 3.318948e+000 3.918489e+000 3.661101e+000 3.418693e+000 3.288202e+000 2.639487e+000 2.700438e+000 3.742171e+000 6.859210e-001 5.512115e-001 4.713368e-001 6.350141e-001 8.224552e-001 5.906343e-001 6.872370e-001 6.431853e-001 6.208232e-001 6.013094e-001 5.203087e-001 4.931694e-001 6.614293e-001
<GCONST> 1.331781e+002
<TRANSP> 3
 0.000000e+000 1.000000e+000 0.000000e+000
 0.000000e+000 9.980944e-001 1.905537e-003
 0.000000e+000 0.000000e+000 0.000000e+000
<ENDHMM>
~h "MOS"
<BEGINHMM>
<NUMSTATES> 3
<STATE> 2
<MEAN> 39
 -6.405628e+000 -2.494233e+000 2.936554e+000 -6.043209e+000 -3.975467e+000 -6.228808e+000 -2.915616e+000 1.948859e-002 1.889252e+000 2.813361e-001 1.311386e+000 -3.252961e+000 5.854595e+001 1.360170e-004 3.017937e-004 -5.444341e-004 -1.630213e-003 -7.529015e-004 -1.391310e-003 1.352205e-003 -1.653050e-004 -3.663372e-004 -1.329963e-003 -1.481956e-003 -9.917956e-004 1.039205e-003 -1.483702e-004 2.134232e-004 2.774830e-004 -6.059369e-005 -2.477879e-005 -7.994763e-005 -2.133348e-004 -3.625519e-004 -3.075373e-004 1.258082e-004 -1.081417e-004 1.382281e-004 -1.552539e-004
<VARIANCE> 39
 7.434586e+001 3.962571e+001 5.044595e+001 4.846338e+001 5.344961e+001 4.713550e+001 5.157570e+001 4.036969e+001 4.499044e+001 3.385517e+001 3.415758e+001 3.748666e+001 8.211250e+001 3.282061e+000 2.677044e+000 2.281913e+000 3.149191e+000 3.354896e+000 3.001888e+000 2.996270e+000 3.146220e+000 3.197155e+000 2.900296e+000 2.545128e+000 2.503521e+000 2.699069e+000 4.465155e-001 4.646814e-001 3.640516e-001 5.451563e-001 5.902620e-001 5.508315e-001 5.353450e-001 5.807191e-001 5.632938e-001 5.625212e-001 4.760454e-001 4.461868e-001 4.320642e-001
<GCONST> 1.265826e+002
<TRANSP> 3
 0.000000e+000 1.000000e+000 0.000000e+000
 0.000000e+000 9.984229e-001 1.577121e-003
 0.000000e+000 0.000000e+000 0.000000e+000
<ENDHMM>
~h "MPM"
<BEGINHMM>
<NUMSTATES> 3
<STATE> 2
<MEAN> 39
 -7.942114e+000 3.616560e+000 2.621425e+000 1.847140e+000 -3.127010e+000 -7.169695e-001 -3.335174e+000 -1.109707e-001 -1.004349e+000 2.050948e+000 1.039193e+000 -1.409397e+000 6.431327e+001 1.162453e-003 3.073763e-003 -2.511813e-003 -1.063275e-003 2.851505e-003 3.032113e-003 8.427546e-004 -1.493272e-003 7.082454e-004 2.256980e-003 1.398610e-003 1.946997e-004 -3.025650e-003 -6.409971e-005 -1.653036e-004 -1.644502e-004 -9.000328e-005 -1.150092e-004 1.018457e-004 -5.630364e-004 -3.381221e-004 -1.535822e-004 5.184076e-005 9.302251e-005 3.152366e-004 1.145403e-004
<VARIANCE> 39
 6.833995e+001 4.243060e+001 6.515498e+001 4.185135e+001 6.711038e+001 5.959239e+001 7.133787e+001 5.448069e+001 5.070069e+001 4.227692e+001 3.173851e+001 3.946585e+001 8.744449e+001 3.104887e+000 2.263356e+000 2.985601e+000 2.798788e+000 3.950282e+000 3.204970e+000 3.416343e+000 3.869419e+000 3.249044e+000 2.816858e+000 2.560340e+000 2.405416e+000 2.308631e+000 4.384973e-001 3.961437e-001 4.832778e-001 5.169418e-001 7.292278e-001 5.847169e-001 6.491719e-001 7.250869e-001 6.170974e-001 5.385320e-001 5.069692e-001 4.491615e-001 3.909555e-001
<GCONST> 1.291915e+002
<TRANSP> 3
 0.000000e+000 1.000000e+000 0.000000e+000
 0.000000e+000 9.985098e-001 1.490239e-003
 0.000000e+000 0.000000e+000 0.000000e+000
<ENDHMM>
~h "MPS"
<BEGINHMM>
<NUMSTATES> 3
<STATE> 2
<MEAN> 39
 -5.292260e+000 -1.216768e+000 4.957430e+000 -1.706122e+000 -2.298423e+000 3.326658e-001 -1.766457e+000 -1.020090e+000 1.319221e+000 9.104934e-001 2.809223e+000 -5.603242e-001 6.666755e+001 4.781616e-004 1.974697e-004 8.346655e-004 -3.160150e-004 -2.481341e-004 -5.313701e-004 3.286527e-004 -2.607114e-004 -7.379084e-004 -9.447794e-006 7.112969e-004 8.641753e-005 -6.569327e-004 1.130426e-005 1.869428e-005 1.214739e-004 2.207523e-004 -2.958485e-005 -5.661315e-005 1.983722e-004 1.410614e-004 -1.004098e-005 -5.367678e-005 -8.279287e-005 -8.951076e-005 -4.938883e-005
<VARIANCE> 39
 9.873818e+001 4.935600e+001 7.242937e+001 5.385117e+001 6.460520e+001 4.389598e+001 6.082308e+001 4.475805e+001 5.517942e+001 2.848819e+001 2.800303e+001 2.636388e+001 1.019312e+002 4.882366e+000 3.168334e+000 3.136127e+000 3.419378e+000 3.501388e+000 2.712791e+000 3.199296e+000 2.998025e+000 3.278612e+000 2.072230e+000 1.924179e+000 1.657552e+000 3.409078e+000 6.864821e-001 5.463363e-001 4.888134e-001 5.886827e-001 6.083034e-001 4.819190e-001 5.715501e-001 5.550896e-001 5.887823e-001 3.923952e-001 3.605978e-001 3.121231e-001 5.622424e-001
<GCONST> 1.279845e+002
<TRANSP> 3
 0.000000e+000 1.000000e+000 0.000000e+000
 0.000000e+000 9.984200e-001 1.580028e-003
 0.000000e+000 0.000000e+000 0.000000e+000
<ENDHMM>
~h "MVL"
<BEGINHMM>
<NUMSTATES> 3
<STATE> 2
<MEAN> 39
 -6.412432e+000 -4.217038e-001 1.901809e+000 -4.418808e-001 -6.589596e+000 1.693629e+000 -3.749789e+000 -1.821345e+000 9.498859e-001 2.213843e+000 -2.671685e+000 -1.791828e+000 6.931896e+001 -9.810271e-004 7.547360e-004 3.213213e-004 8.478995e-004 7.063172e-004 -1.817652e-004 -7.324287e-004 -2.071191e-003 -7.992983e-004 1.951526e-003 -3.125405e-003 -2.117046e-003 1.194574e-003 7.788733e-004 -4.868355e-004 -2.821122e-004 -8.305896e-005 1.108676e-004 -1.680726e-004 -5.706919e-004 1.671504e-004 -8.984248e-006 3.051380e-004 1.513902e-004 -4.330101e-005 -2.147681e-004
<VARIANCE> 39
 7.479310e+001 4.796209e+001 7.032717e+001 4.308022e+001 1.009260e+002 5.513323e+001 7.599490e+001 6.145821e+001 4.515081e+001 3.046555e+001 3.066125e+001 3.530162e+001 1.183110e+002 4.185239e+000 3.506548e+000 3.406454e+000 2.839815e+000 6.305446e+000 3.992922e+000 4.574711e+000 3.792241e+000 3.590167e+000 2.574851e+000 2.423248e+000 2.328503e+000 3.797382e+000 6.434634e-001 6.032002e-001 5.451764e-001 5.053584e-001 1.127461e+000 7.483544e-001 8.683101e-001 7.203982e-001 6.907102e-001 5.087844e-001 4.718038e-001 4.423824e-001 6.557190e-001
<GCONST> 1.343531e+002
<TRANSP> 3
 0.000000e+000 1.000000e+000 0.000000e+000
 0.000000e+000 9.980443e-001 1.955714e-003
 0.000000e+000 0.000000e+000 0.000000e+000
<ENDHMM>
~h "ZLG"
<BEGINHMM>
<NUMSTATES> 3
<STATE> 2
<MEAN> 39
 -6.442204e+000 2.510439e+000 -2.043713e+000 -2.308139e+000 -5.729788e+000 -4.208331e+000 -6.947841e+000 -6.328908e+000 -4.594928e+000 -3.002584e+000 -5.418906e+000 -3.560924e+000 6.518233e+001 -9.347029e-004 2.987221e-003 -2.088711e-003 9.742619e-005 3.166185e-003 3.953327e-004 3.665068e-003 8.155482e-004 2.053158e-003 1.151249e-003 2.162363e-003 -2.085895e-003 -1.922748e-003 4.592238e-004 -1.421334e-004 9.538655e-005 -2.306353e-005 -2.389400e-004 9.811213e-005 -2.399991e-004 -1.176999e-004 -8.693140e-004 -5.361103e-004 -5.166935e-004 -4.560638e-004 8.548958e-005
<VARIANCE> 39
 5.714746e+001 3.798048e+001 5.377826e+001 4.107080e+001 6.826897e+001 4.829154e+001 6.540518e+001 5.767575e+001 4.996473e+001 3.727585e+001 4.176642e+001 3.742266e+001 6.108161e+001 2.918620e+000 2.194767e+000 2.491376e+000 2.493251e+000 3.814309e+000 2.862809e+000 3.169503e+000 3.024444e+000 2.668945e+000 2.551245e+000 2.372997e+000 2.155618e+000 2.209331e+000 4.552717e-001 3.835158e-001 4.184721e-001 4.423770e-001 6.708130e-001 5.315182e-001 5.721554e-001 5.539080e-001 4.847952e-001 4.900607e-001 4.432255e-001 4.075435e-001 3.799465e-001
<GCONST> 1.253415e+002
<TRANSP> 3
 0.000000e+000 1.000000e+000 0.000000e+000
 0.000000e+000 9.981921e-001 1.807852e-003
 0.000000e+000 0.000000e+000 0.000000e+000
<ENDHMM>
~h "ZLR"
<BEGINHMM>
<NUMSTATES> 3
<STATE> 2
<MEAN> 39
 -6.015487e+000 2.135105e+000 1.677081e+000 -4.187175e+000 7.993737e-001 -4.438998e+000 3.183308e-001 -5.100115e+000 -1.310478e+000 -1.893525e+000 -1.649033e+000 -5.253655e-001 6.668392e+001 1.756125e-003 -5.615526e-004 1.697446e-003 -2.719696e-004 1.210359e-003 -1.153265e-003 1.574119e-004 -5.815735e-004 -1.425821e-003 9.845012e-004 -1.424638e-003 5.987188e-004 -1.323888e-003 1.837874e-005 -6.251443e-005 -1.939960e-004 -7.744651e-005 -2.788995e-004 -1.021099e-004 -5.487073e-004 -3.055226e-004 -6.264715e-005 -2.650410e-004 2.176785e-005 2.371565e-004 2.490573e-004
<VARIANCE> 39
 5.235644e+001 4.534352e+001 5.039973e+001 1.015021e+002 6.170741e+001 7.429390e+001 5.265110e+001 7.964964e+001 5.407989e+001 4.478205e+001 5.856676e+001 3.179229e+001 9.353050e+001 3.363586e+000 3.238873e+000 2.693471e+000 6.921359e+000 3.698588e+000 4.819149e+000 3.399023e+000 5.346215e+000 3.201630e+000 3.106937e+000 3.210405e+000 2.200502e+000 4.406315e+000 5.417944e-001 5.664079e-001 4.630294e-001 1.187404e+000 6.642076e-001 8.644814e-001 6.321113e-001 9.837735e-001 5.732711e-001 5.795452e-001 5.450776e-001 4.192719e-001 7.777846e-001
<GCONST> 1.358122e+002
<TRANSP> 3
 0.000000e+000 1.000000e+000 0.000000e+000
 0.000000e+000 9.983712e-001 1.628753e-003
 0.000000e+000 0.000000e+000 0.000000e+000
<ENDHMM>
~h "ZNM"
<BEGINHMM>
<NUMSTATES> 3
<STATE> 2
<MEAN> 39
 -8.788948e+000 -2.488009e+000 2.464017e+000 -7.579432e+000 -2.585754e+000 -1.125418e+001 3.967226e+000 -3.875357e+000 -1.027071e+000 3.101165e-001 -8.796305e-001 -2.513936e+000 6.239754e+001 5.159267e-006 2.034873e-003 -5.835847e-004 7.392736e-004 3.459623e-003 3.398290e-003 -2.995908e-003 -2.626537e-003 -1.412076e-004 -5.780642e-004 -2.239947e-003 1.280016e-004 -3.202164e-003 -6.923082e-005 1.554777e-004 1.120840e-004 -1.143860e-004 -3.054769e-004 -2.491554e-005 -8.433380e-005 -3.291832e-005 2.120325e-005 9.353618e-005 1.277650e-004 8.126662e-005 9.066137e-005
<VARIANCE> 39
 7.000160e+001 3.858504e+001 7.222417e+001 8.053847e+001 5.114348e+001 1.014142e+002 4.295308e+001 6.261082e+001 7.035388e+001 3.102138e+001 4.933928e+001 3.807262e+001 1.028102e+002 3.065001e+000 2.219327e+000 2.790892e+000 4.061548e+000 2.610598e+000 5.342859e+000 2.576492e+000 3.649083e+000 3.797830e+000 2.503335e+000 2.600126e+000 2.248126e+000 4.241238e+000 4.161468e-001 3.825361e-001 4.352241e-001 6.271954e-001 4.506535e-001 8.341413e-001 4.707859e-001 6.217575e-001 6.370431e-001 4.770458e-001 4.469479e-001 3.903072e-001 6.718212e-001
<GCONST> 1.305633e+002
<TRANSP> 3
 0.000000e+000 1.000000e+000 0.000000e+000
 0.000000e+000 9.989600e-001 1.040048e-003
 0.000000e+000 0.000000e+000 0.000000e+000
<ENDHMM>
~h "ZSS"
<BEGINHMM>
<NUMSTATES> 3
<STATE> 2
<MEAN> 39
 -6.325509e+000 2.349863e+000 2.108042e+000 -2.701822e+000 -1.146636e+000 9.177931e-001 -4.208650e-001 1.139818e+000 -1.803693e+000 2.148892e+000 -9.769821e-001 2.029237e+000 5.495060e+001 -1.164969e-003 2.384942e-003 1.304543e-003 3.307807e-003 4.049086e-003 1.146768e-004 1.172689e-003 1.541308e-003 7.980524e-005 -9.013705e-004 -4.753492e-005 1.912678e-003 -3.441693e-003 1.047148e-003 -6.932488e-004 -5.401754e-004 -8.060111e-004 -3.466944e-006 -4.261404e-004 -6.344595e-004 -6.215223e-004 5.404976e-006 -1.412658e-004 -6.234397e-004 -7.092294e-005 4.111008e-004
<VARIANCE> 39
 6.931341e+001 4.298468e+001 5.277617e+001 7.021591e+001 8.094144e+001 4.763535e+001 7.986075e+001 4.866699e+001 7.467937e+001 3.642543e+001 7.601701e+001 2.674275e+001 8.115085e+001 4.000211e+000 3.254229e+000 2.756265e+000 4.540112e+000 4.987854e+000 3.560176e+000 4.459144e+000 3.489195e+000 4.571774e+000 3.151182e+000 4.355746e+000 1.950996e+000 4.041015e+000 6.060340e-001 5.912884e-001 4.593630e-001 7.694335e-001 8.644328e-001 6.553220e-001 7.591952e-001 6.430288e-001 7.748090e-001 6.136289e-001 7.444678e-001 3.742908e-001 6.987156e-001
<GCONST> 1.355260e+002
<TRANSP> 3
 0.000000e+000 1.000000e+000 0.000000e+000
 0.000000e+000 9.981949e-001 1.805054e-003
 0.000000e+000 0.000000e+000 0.000000e+000
<ENDHMM>
~h "ZTK"
<BEGINHMM>
<NUMSTATES> 3
<STATE> 2
<MEAN> 39
 -6.776761e+000 -4.691525e+000 3.730212e+000 -1.065102e+001 -3.853852e+000 -6.905876e+000 -2.906983e+000 9.602133e-001 -2.343510e+000 -9.931527e-001 -3.810780e+000 -1.579521e+000 6.507235e+001 2.350667e-003 4.952720e-003 9.074896e-004 3.348164e-003 3.103015e-003 5.354576e-003 1.888462e-003 -1.018985e-003 1.878951e-003 -2.904614e-004 2.647593e-004 -1.093020e-003 -5.863122e-003 6.160502e-005 3.653010e-004 8.390587e-005 3.256517e-004 1.239711e-004 6.347083e-004 2.824267e-004 3.873050e-004 8.050577e-006 -3.081755e-004 -1.966882e-004 7.232376e-006 -3.795194e-004
<VARIANCE> 39
 7.122913e+001 7.774460e+001 5.614158e+001 1.147878e+002 6.667015e+001 5.816517e+001 7.343007e+001 5.153095e+001 7.407253e+001 3.795403e+001 6.460018e+001 2.901550e+001 9.857149e+001 3.759173e+000 4.606596e+000 2.888742e+000 7.581376e+000 3.842350e+000 3.923695e+000 4.476375e+000 4.190912e+000 4.399261e+000 3.285555e+000 3.876262e+000 2.145619e+000 6.062458e+000 5.651901e-001 7.376503e-001 4.810516e-001 1.187346e+000 6.464469e-001 6.862052e-001 7.485638e-001 7.891676e-001 7.229452e-001 6.392618e-001 6.555963e-001 4.033677e-001 9.929668e-001
<GCONST> 1.389286e+002
<TRANSP> 3
 0.000000e+000 1.000000e+000 0.000000e+000
 0.000000e+000 9.985837e-001 1.416295e-003
 0.000000e+000 0.000000e+000 0.000000e+000
<ENDHMM>
~h "ZTV"
<BEGINHMM>
<NUMSTATES> 3
<STATE> 2
<MEAN> 39
 -6.849685e+000 8.066620e-001 1.237443e+000 -6.233336e+000 -5.137928e+000 -4.443155e+000 -6.418084e+000 -1.898556e+000 -4.353526e+000 -8.860035e-001 -5.294117e+000 -1.189605e+000 6.727740e+001 1.720954e-003 -1.018359e-003 4.617575e-003 2.688619e-003 4.902159e-003 3.860821e-003 -6.763087e-004 -1.458217e-003 -1.740780e-003 -3.455988e-003 -2.517142e-003 -8.734101e-004 -4.545392e-003 -4.120502e-004 2.362503e-004 -7.334647e-004 1.222319e-004 -5.596993e-004 -2.438073e-004 1.904630e-004 7.904447e-005 2.134684e-004 1.022436e-004 -4.610555e-005 -4.832002e-004 3.663912e-004
<VARIANCE> 39
 5.907151e+001 3.642035e+001 5.772902e+001 7.520395e+001 9.023837e+001 5.233553e+001 9.477779e+001 5.235367e+001 6.747753e+001 4.104865e+001 6.760892e+001 3.159781e+001 8.294510e+001 3.076620e+000 2.479032e+000 2.521689e+000 4.450927e+000 4.980324e+000 3.492093e+000 4.977864e+000 3.540233e+000 3.749823e+000 3.195122e+000 3.903123e+000 2.459275e+000 3.844075e+000 4.648249e-001 4.376162e-001 4.118861e-001 7.464098e-001 8.540378e-001 6.303986e-001 8.259776e-001 6.538972e-001 6.577433e-001 6.089005e-001 7.005804e-001 4.628453e-001 6.436127e-001
<GCONST> 1.344857e+002
<TRANSP> 3
 0.000000e+000 1.000000e+000 0.000000e+000
 0.000000e+000 9.983172e-001 1.682794e-003
 0.000000e+000 0.000000e+000 0.000000e+000
<ENDHMM>
~h "MPCH"
<BEGINHMM>
<NUMSTATES> 3
<STATE> 2
<MEAN> 39
 -6.757583e+000 -6.165177e+000 2.773733e+000 -7.926695e+000 -5.222636e+000 -4.523794e+000 -2.704134e+000 9.712507e-001 -8.570529e-001 -6.528895e-001 -1.935090e-001 -1.889262e+000 6.536791e+001 -6.279819e-004 8.039325e-003 -2.033914e-003 7.976444e-003 3.395959e-003 7.494485e-003 5.438640e-003 -3.432018e-003 -1.101627e-003 1.095129e-003 1.110635e-003 -2.106634e-003 -1.267380e-002 4.191774e-006 1.025389e-004 2.739729e-004 4.889434e-004 2.901325e-004 1.993369e-004 2.691316e-004 2.349175e-004 -2.894921e-004 -3.308858e-004 -2.218919e-004 -1.789966e-004 -2.992219e-004
<VARIANCE> 39
 8.406622e+001 5.366786e+001 5.615847e+001 6.120603e+001 7.200269e+001 4.116518e+001 5.602708e+001 3.628699e+001 7.435116e+001 2.914648e+001 3.499152e+001 2.338799e+001 1.157077e+002 3.673465e+000 3.346002e+000 2.561067e+000 3.765257e+000 3.805347e+000 2.683249e+000 3.680602e+000 2.939976e+000 4.636287e+000 2.383843e+000 2.505552e+000 1.826619e+000 4.745567e+000 5.072225e-001 5.629498e-001 4.088626e-001 6.240070e-001 6.204575e-001 4.860922e-001 6.346931e-001 5.389256e-001 7.781280e-001 4.535983e-001 4.424580e-001 3.432057e-001 7.181665e-001
<GCONST> 1.297979e+002
<TRANSP> 3
 0.000000e+000 1.000000e+000 0.000000e+000
 0.000000e+000 9.984196e-001 1.580361e-003
 0.000000e+000 0.000000e+000 0.000000e+000
<ENDHMM>
~h "MVL2"
<BEGINHMM>
<NUMSTATES> 3
<STATE> 2
<MEAN> 39
 -4.898614e+000 1.733482e+000 2.464076e+000 -1.453718e+000 -5.149415e+000 -2.546152e+000 -7.035265e+000 -4.140554e+000 -9.478506e-001 1.099350e+000 1.878852e+000 1.500151e-001 7.188367e+001 -3.510759e-004 2.511362e-003 -1.561352e-003 7.142530e-004 2.437912e-003 2.805696e-003 -1.303830e-003 -1.931369e-003 -8.233067e-004 1.527763e-004 1.017457e-004 -5.785236e-004 -1.732757e-003 2.186667e-004 3.222847e-005 6.655960e-005 -1.428004e-004 1.932892e-004 1.868692e-004 -2.683699e-004 -2.239811e-004 -3.903112e-004 -5.269226e-004 -3.185478e-004 4.179997e-005 1.251075e-004
<VARIANCE> 39
 7.456745e+001 3.577906e+001 5.441372e+001 4.405039e+001 7.172014e+001 7.573987e+001 7.112299e+001 6.423319e+001 5.360189e+001 4.015742e+001 3.297189e+001 3.751477e+001 9.317582e+001 2.793852e+000 1.895850e+000 2.109942e+000 2.209515e+000 3.549924e+000 3.411270e+000 3.254182e+000 3.234112e+000 2.801923e+000 2.416188e+000 2.372099e+000 2.168949e+000 2.073035e+000 3.668375e-001 3.168432e-001 3.294645e-001 3.874923e-001 6.244600e-001 5.650206e-001 5.662643e-001 5.750759e-001 4.959405e-001 4.429865e-001 4.551771e-001 3.885505e-001 2.995478e-001
<GCONST> 1.252106e+002
<TRANSP> 3
 0.000000e+000 1.000000e+000 0.000000e+000
 0.000000e+000 9.984462e-001 1.553765e-003
 0.000000e+000 0.000000e+000 0.000000e+000
<ENDHMM>
~h "VACLAV"
<BEGINHMM>
<NUMSTATES> 3
<STATE> 2
<MEAN> 39
 -7.765949e+000 2.022324e+000 2.495327e+000 1.926652e+000 -8.180643e-001 3.941759e+000 -2.858048e+000 3.735001e+000 3.142065e+000 4.003975e+000 4.108366e+000 1.029838e+000 4.718830e+001 1.077961e-004 -8.316235e-005 -1.630948e-004 -5.357310e-004 1.451164e-003 -1.016557e-003 5.142195e-004 7.167759e-004 9.411656e-005 1.344113e-003 7.321274e-004 -1.077638e-003 -8.699915e-006 -1.662990e-005 -7.182706e-005 4.576902e-004 1.877181e-005 -2.181703e-004 -1.596251e-004 9.451283e-005 1.036442e-004 -3.235933e-004 4.168237e-004 -2.485733e-004 -7.410532e-005 -5.156911e-005
<VARIANCE> 39
 5.431883e+001 3.731062e+001 4.619615e+001 8.229249e+001 6.005634e+001 4.547725e+001 6.930562e+001 5.400027e+001 5.265767e+001 4.080587e+001 2.686988e+001 4.785270e+001 6.934962e+001 2.372254e+000 2.542452e+000 1.977210e+000 3.961004e+000 3.379623e+000 2.674246e+000 3.813865e+000 3.302355e+000 3.049608e+000 2.384274e+000 2.196543e+000 2.098435e+000 2.144248e+000 3.434093e-001 4.391221e-001 3.196546e-001 6.679183e-001 5.674006e-001 4.788167e-001 6.649553e-001 6.100601e-001 5.498615e-001 4.380966e-001 4.189271e-001 3.684401e-001 3.477425e-001
<GCONST> 1.256206e+002
<TRANSP> 3
 0.000000e+000 1.000000e+000 0.000000e+000
 0.000000e+000 9.975002e-001 2.499791e-003
 0.000000e+000 0.000000e+000 0.000000e+000
<ENDHMM>
~h "DUTKA"
<BEGINHMM>
<NUMSTATES> 3
<STATE> 2
<MEAN> 39
 -1.563540e+000 -4.926716e+000 -5.636646e-001 -1.482637e+001 -1.145555e+001 -4.023448e+000 -1.334383e+001 -2.292419e+000 -6.169223e+000 -4.443141e+000 -4.459682e+000 -5.463385e+000 6.051646e+001 1.379121e-003 -3.880312e-003 -8.146736e-004 -7.449557e-004 2.882736e-003 -3.099109e-003 -1.660108e-003 -2.092232e-003 -3.628533e-003 -1.015353e-003 -1.995163e-003 -7.194786e-004 4.412887e-003 -1.165862e-004 1.144850e-004 -3.183151e-005 -1.055514e-004 -1.591238e-005 -1.085455e-004 -9.714212e-005 -3.312423e-004 -2.717264e-004 7.525160e-005 -1.537467e-004 -1.556228e-004 -1.402445e-004
<VARIANCE> 39
 1.316405e+002 9.505078e+001 1.216452e+002 1.027371e+002 8.187225e+001 9.110526e+001 6.980478e+001 7.972217e+001 6.160605e+001 4.326645e+001 4.202694e+001 3.343835e+001 1.312671e+002 3.714018e+000 5.161216e+000 4.484210e+000 5.252653e+000 4.556368e+000 4.971067e+000 4.749480e+000 5.003670e+000 4.323575e+000 3.285536e+000 3.056490e+000 2.527251e+000 3.385767e+000 4.985740e-001 8.092647e-001 6.913785e-001 9.002492e-001 8.174918e-001 8.345894e-001 8.778911e-001 8.902748e-001 8.074228e-001 6.292273e-001 5.848022e-001 4.770723e-001 4.650868e-001
<GCONST> 1.416885e+002
<TRANSP> 3
 0.000000e+000 1.000000e+000 0.000000e+000
 0.000000e+000 9.983122e-001 1.687827e-003
 0.000000e+000 0.000000e+000 0.000000e+000
<ENDHMM>
~h "BLAZEK"
<BEGINHMM>
<NUMSTATES> 3
<STATE> 2
<MEAN> 39
 -7.147953e+000 -1.345614e+000 2.020008e+000 -3.871101e+000 -1.384045e+000 -2.382639e+000 -1.799544e+000 -1.003948e+000 2.671434e-001 1.943701e-001 8.218497e-001 -1.403143e+000 5.860730e+001 -4.771908e-003 3.546120e-003 -6.683507e-004 -2.367656e-003 5.646823e-003 -6.352283e-003 4.230414e-003 -6.438061e-004 -7.213623e-004 4.308664e-003 -1.648100e-003 -6.632478e-004 1.584942e-003 4.898487e-004 -6.800234e-004 7.045562e-004 7.144894e-004 -2.534397e-004 2.457223e-004 3.653267e-004 2.765763e-004 7.324807e-005 -3.092596e-004 6.370039e-004 4.715819e-004 -3.873407e-004
<VARIANCE> 39
 7.220542e+001 3.685651e+001 6.010861e+001 5.198887e+001 4.783487e+001 5.255536e+001 5.678241e+001 3.891125e+001 3.664690e+001 2.763439e+001 2.575154e+001 2.953565e+001 1.007150e+002 3.073112e+000 2.361219e+000 2.513473e+000 3.191435e+000 3.476821e+000 3.145414e+000 3.924723e+000 2.833016e+000 2.596418e+000 2.188587e+000 2.161054e+000 2.118086e+000 3.114552e+000 4.446907e-001 4.034436e-001 4.020829e-001 5.702556e-001 6.378826e-001 5.712988e-001 7.069091e-001 5.362805e-001 4.822106e-001 4.193431e-001 4.120990e-001 4.019527e-001 5.167177e-001
<GCONST> 1.253403e+002
<TRANSP> 3
 0.000000e+000 1.000000e+000 0.000000e+000
 0.000000e+000 9.982690e-001 1.730969e-003
 0.000000e+000 0.000000e+000 0.000000e+000
<ENDHMM>
~h "KOUNOVSKY"
<BEGINHMM>
<NUMSTATES> 3
<STATE> 2
<MEAN> 39
 -7.302338e+000 -2.551042e+000 2.295788e+000 4.325928e+000 -1.016414e+001 5.770120e+000 -4.380193e+000 -4.001504e+000 -1.500594e+000 2.405501e+000 -2.301158e+000 -1.802602e+000 5.741532e+001 -3.053778e-003 -1.361351e-003 -2.396108e-003 -3.412050e-003 -2.217637e-003 -1.539158e-003 -2.495071e-003 -3.964140e-003 -4.380502e-003 -5.026253e-003 -2.825770e-003 -3.903562e-003 -2.009017e-003 1.302006e-005 -1.332126e-004 1.442818e-004 -2.693296e-004 -3.476590e-004 -3.849177e-004 5.678250e-004 2.198919e-004 5.030973e-004 5.934660e-004 3.599294e-004 7.801821e-004 1.124403e-007
<VARIANCE> 39
 8.308690e+001 4.875666e+001 6.900697e+001 5.094372e+001 1.138137e+002 6.563242e+001 6.266273e+001 5.923621e+001 5.197257e+001 4.760760e+001 3.608937e+001 2.940674e+001 1.394265e+002 3.601347e+000 2.909514e+000 2.929878e+000 2.805057e+000 4.883789e+000 3.378987e+000 4.033618e+000 2.941775e+000 3.243423e+000 2.637777e+000 2.212100e+000 1.848454e+000 3.185565e+000 4.739788e-001 4.988634e-001 4.483468e-001 4.674288e-001 7.621650e-001 5.540026e-001 6.950670e-001 5.109922e-001 5.749503e-001 4.580234e-001 4.151832e-001 3.401081e-001 5.207683e-001
<GCONST> 1.306053e+002
<TRANSP> 3
 0.000000e+000 1.000000e+000 0.000000e+000
 0.000000e+000 9.971693e-001 2.830723e-003
 0.000000e+000 0.000000e+000 0.000000e+000
<ENDHMM>
~h "KOLAR"
<BEGINHMM>
<NUMSTATES> 3
<STATE> 2
<MEAN> 39
 -4.367982e+000 3.106467e+000 -2.616784e+000 6.949686e+000 -2.169241e+000 2.119941e+000 -2.769966e-002 2.523671e+000 1.514788e+000 4.291131e+000 4.901034e+000 -5.490634e-001 5.757509e+001 -3.027102e-004 4.541792e-004 5.458390e-004 1.169505e-003 1.258913e-003 2.255028e-004 5.997965e-004 9.239683e-004 1.171303e-003 2.116087e-003 1.038689e-003 5.859387e-004 -7.237850e-004 2.346073e-004 -1.815234e-004 -5.345308e-005 -1.272654e-005 -1.814240e-004 -6.442516e-004 -2.086680e-004 -4.454407e-004 -3.902716e-004 -3.230652e-004 -5.919732e-004 -1.118776e-004 2.620583e-004
<VARIANCE> 39
 5.265254e+001 1.879731e+001 3.212584e+001 2.228246e+001 7.302880e+001 3.769424e+001 5.222964e+001 3.534955e+001 3.431334e+001 2.516244e+001 2.125760e+001 4.583349e+001 6.592988e+001 1.617631e+000 1.160733e+000 1.862218e+000 1.297023e+000 2.752283e+000 1.930313e+000 2.548683e+000 1.912894e+000 1.868631e+000 1.565249e+000 1.598305e+000 1.709268e+000 1.586673e+000 2.149091e-001 2.066979e-001 3.215088e-001 2.277004e-001 4.537323e-001 3.502868e-001 4.362278e-001 3.446237e-001 3.386682e-001 2.858659e-001 3.080390e-001 2.998185e-001 2.495995e-001
<GCONST> 1.101591e+002
<TRANSP> 3
 0.000000e+000 1.000000e+000 0.000000e+000
 0.000000e+000 9.984227e-001 1.577287e-003
 0.000000e+000 0.000000e+000 0.000000e+000
<ENDHMM>
~h "HALADAVETY"
<BEGINHMM>
<NUMSTATES> 3
<STATE> 2
<MEAN> 39
 -1.064760e+001 4.943387e-001 -4.110265e+000 -2.218596e+000 -1.070911e+001 -7.659545e-001 -1.194014e+001 -3.620161e+000 -5.265074e+000 -5.125476e+000 -1.592348e+000 -1.831399e+000 5.359884e+001 1.977243e-003 2.664061e-003 1.813591e-003 -4.206077e-004 7.571997e-004 1.931071e-003 -1.513697e-003 -4.534438e-003 -3.431709e-003 -8.082410e-004 -8.251705e-004 -5.027442e-003 7.984690e-004 5.334019e-006 -1.017486e-004 -2.236961e-004 5.666484e-005 -4.216291e-004 -1.070722e-003 1.080946e-003 1.709432e-003 2.378115e-004 -1.435968e-003 -9.708990e-004 2.465177e-003 -3.363933e-005
<VARIANCE> 39
 1.250407e+002 6.273855e+001 7.412191e+001 7.484405e+001 6.309544e+001 8.472953e+001 6.608813e+001 6.483376e+001 5.533369e+001 3.820644e+001 4.457527e+001 4.027774e+001 3.094409e+002 3.464757e+000 3.070247e+000 2.753231e+000 3.255142e+000 3.869918e+000 4.500710e+000 4.167727e+000 3.902022e+000 3.492507e+000 2.771132e+000 2.899943e+000 2.702603e+000 4.279956e+000 5.063551e-001 4.961453e-001 4.382172e-001 5.402713e-001 6.946234e-001 7.794172e-001 7.706991e-001 7.131017e-001 6.430071e-001 5.349950e-001 5.446142e-001 5.129060e-001 6.374015e-001
<GCONST> 1.362564e+002
<TRANSP> 3
 0.000000e+000 1.000000e+000 0.000000e+000
 0.000000e+000 9.987823e-001 1.217648e-003
 0.000000e+000 0.000000e+000 0.000000e+000
<ENDHMM>
~h "HORKYVETY"
<BEGINHMM>
<NUMSTATES> 3
<STATE> 2
<MEAN> 39
 -1.610909e+001 5.788796e-001 -3.921038e+000 -4.196748e-001 -7.355718e+000 -1.406373e+000 -5.973426e+000 -2.933558e+000 4.718773e-001 -2.708880e+000 3.914668e+000 -3.418980e+000 4.638534e+001 -1.448733e-002 3.286397e-004 -3.809665e-003 -3.001417e-003 2.340581e-003 -2.546595e-003 1.086200e-003 3.478270e-004 -4.031880e-003 2.838691e-003 -3.948898e-003 2.348064e-003 -4.989977e-003 4.408216e-003 1.225042e-004 1.047748e-003 4.953655e-004 3.082699e-004 1.673376e-004 1.002226e-004 3.569637e-004 -2.065848e-004 -6.028730e-004 -2.496848e-004 -2.587865e-004 2.350917e-003
<VARIANCE> 39
 7.683847e+001 3.012696e+001 6.525114e+001 5.277189e+001 4.632486e+001 5.061089e+001 5.122356e+001 5.109539e+001 3.895829e+001 4.507236e+001 5.079871e+001 3.431294e+001 2.544660e+002 2.944243e+000 1.965811e+000 2.223394e+000 2.671455e+000 3.038915e+000 2.631687e+000 3.343807e+000 2.844256e+000 2.945294e+000 3.040150e+000 2.922979e+000 2.062876e+000 4.924592e+000 4.208388e-001 3.488765e-001 3.580830e-001 4.428130e-001 5.308134e-001 4.785118e-001 5.740823e-001 4.965435e-001 5.340593e-001 5.387414e-001 5.032424e-001 3.664126e-001 7.659727e-001
<GCONST> 1.275350e+002
<TRANSP> 3
 0.000000e+000 1.000000e+000 0.000000e+000
 0.000000e+000 9.985222e-001 1.477760e-003
 0.000000e+000 0.000000e+000 0.000000e+000
<ENDHMM>
~h "CHMELIK"
<BEGINHMM>
<NUMSTATES> 3
<STATE> 2
<MEAN> 39
 -1.004981e+001 -5.077723e+000 1.909322e+000 -4.583238e+000 -5.318744e+000 -3.323505e+000 -1.907915e+000 -1.456887e+000 7.144760e-001 -1.208158e+000 -5.973971e-002 -4.279074e+000 6.261163e+001 2.737776e-002 -2.585292e-002 -5.150730e-003 -1.172023e-002 1.858207e-002 -2.271458e-002 -2.393408e-003 -3.396828e-003 1.694321e-004 1.861427e-003 -8.338877e-003 -3.164568e-003 5.381902e-002 -1.149467e-003 1.161152e-003 3.821698e-004 4.894973e-004 -7.304180e-004 8.206595e-004 5.620264e-004 -1.053674e-004 -3.236188e-004 -4.084018e-005 6.692026e-004 6.315899e-005 -1.782093e-003
<VARIANCE> 39
 6.528944e+001 3.441578e+001 6.661843e+001 3.281542e+001 3.977644e+001 3.258151e+001 2.850283e+001 3.142017e+001 3.144992e+001 2.307017e+001 2.043426e+001 2.222890e+001 9.456496e+001 3.817502e+000 2.387198e+000 3.013620e+000 2.636969e+000 3.132142e+000 2.593185e+000 2.678344e+000 2.777616e+000 2.698913e+000 2.167960e+000 1.983200e+000 1.825759e+000 2.751060e+000 5.935243e-001 4.244019e-001 4.973963e-001 4.976165e-001 6.004387e-001 4.956589e-001 5.289786e-001 5.450139e-001 5.249167e-001 4.386230e-001 3.954146e-001 3.544871e-001 4.697154e-001
<GCONST> 1.213330e+002
<TRANSP> 3
 0.000000e+000 1.000000e+000 0.000000e+000
 0.000000e+000 9.983881e-001 1.611881e-003
 0.000000e+000 0.000000e+000 0.000000e+000
<ENDHMM>
~h "VACEKVETY"
<BEGINHMM>
<NUMSTATES> 3
<STATE> 2
<MEAN> 39
 -7.253404e+000 1.439495e+000 -2.169256e+000 -1.447082e+000 -4.423641e+000 -2.912512e+000 -6.057685e+000 -5.183512e+000 -3.276198e+000 2.000312e+000 -3.293550e+000 -1.769272e+000 5.203486e+001 1.117330e-003 6.088066e-004 -9.754394e-004 -8.348804e-004 1.085148e-003 1.905188e-003 -1.979345e-004 -1.141418e-003 2.750708e-004 1.310632e-003 4.875200e-004 -4.358596e-003 7.876928e-004 2.182445e-004 -2.604117e-005 -3.317470e-004 -9.856075e-005 -6.044255e-004 -9.784969e-004 8.359085e-004 1.682792e-003 4.850266e-004 -1.204107e-003 -9.040277e-004 1.441416e-003 6.387100e-005
<VARIANCE> 39
 1.850497e+002 5.038111e+001 9.386243e+001 6.135643e+001 6.048824e+001 8.867899e+001 5.780974e+001 7.466705e+001 6.443209e+001 4.997780e+001 3.913670e+001 3.569733e+001 2.676453e+002 4.294422e+000 3.265555e+000 3.269804e+000 3.415336e+000 3.418428e+000 4.083239e+000 4.344216e+000 4.365787e+000 4.008854e+000 3.306814e+000 2.561433e+000 2.660216e+000 2.879790e+000 5.691024e-001 5.369701e-001 4.826199e-001 5.809504e-001 5.900466e-001 6.939677e-001 8.027164e-001 7.671384e-001 7.175726e-001 6.197290e-001 4.926280e-001 5.110601e-001 4.417796e-001
<GCONST> 1.366949e+002
<TRANSP> 3
 0.000000e+000 1.000000e+000 0.000000e+000
 0.000000e+000 9.979952e-001 2.004811e-003
 0.000000e+000 0.000000e+000 0.000000e+000
<ENDHMM>
~h "DVORSKY"
<BEGINHMM>
<NUMSTATES> 3
<STATE> 2
<MEAN> 39
 -5.434670e+000 3.177185e+000 4.196864e+000 1.121876e+000 2.121190e+000 1.028104e-001 8.880599e-001 1.359428e+000 6.512752e-001 3.298204e+000 1.557210e+000 -9.211881e-002 5.696009e+001 -2.847755e-004 7.099957e-005 -3.876987e-004 -9.347206e-004 1.631987e-004 2.307956e-003 1.884517e-003 3.772044e-004 2.770011e-004 5.124640e-004 1.108962e-003 5.660977e-004 -9.259021e-004 -1.404726e-004 -2.239582e-004 7.462415e-005 3.759175e-004 -2.691843e-004 3.079992e-005 1.780505e-004 1.374722e-004 -3.450155e-004 1.975481e-004 4.760930e-004 -4.549418e-005 6.870370e-005
<VARIANCE> 39
 5.096732e+001 3.593482e+001 4.806327e+001 5.130972e+001 3.671114e+001 4.769911e+001 4.004444e+001 3.375442e+001 4.067366e+001 2.583833e+001 2.819492e+001 2.650700e+001 1.438310e+002 2.653492e+000 1.995235e+000 2.207831e+000 3.169094e+000 2.533340e+000 2.659925e+000 2.870574e+000 2.682540e+000 3.022710e+000 2.206083e+000 2.088995e+000 1.859195e+000 2.883016e+000 4.033048e-001 3.486797e-001 3.509957e-001 5.417562e-001 4.543552e-001 4.781611e-001 5.252482e-001 5.158860e-001 5.601377e-001 4.279508e-001 3.956304e-001 3.519908e-001 4.712961e-001
<GCONST> 1.214884e+002
<TRANSP> 3
 0.000000e+000 1.000000e+000 0.000000e+000
 0.000000e+000 9.976948e-001 2.305210e-003
 0.000000e+000 0.000000e+000 0.000000e+000
<ENDHMM>
~h "POLACEKVETY"
<BEGINHMM>
<NUMSTATES> 3
<STATE> 2
<MEAN> 39
 -7.945127e+000 1.118359e+000 1.139081e+000 -4.558436e-001 -9.843700e+000 -1.845145e+000 -9.366567e+000 -6.512977e-002 -2.475539e+000 -6.757023e-001 -1.645787e+000 -4.801222e+000 5.044294e+001 1.364919e-002 6.673191e-003 8.827813e-003 -3.397663e-003 6.087085e-003 1.044779e-003 -3.760672e-003 -6.487771e-003 -5.642251e-003 1.193914e-003 -5.002888e-003 -7.739484e-003 1.820020e-002 2.431655e-004 4.113039e-005 3.744793e-005 1.834760e-004 -6.975987e-004 -1.168772e-003 9.077718e-004 2.201123e-003 1.477684e-004 -1.374347e-003 -9.242158e-004 2.721817e-003 -2.908416e-004
<VARIANCE> 39
 8.805804e+001 4.442082e+001 7.147452e+001 4.635900e+001 6.879066e+001 6.096970e+001 4.319879e+001 3.477113e+001 3.752531e+001 2.930647e+001 2.523991e+001 2.981918e+001 1.264509e+002 3.527221e+000 2.471325e+000 2.431755e+000 2.766129e+000 3.516609e+000 2.673095e+000 2.672408e+000 2.656508e+000 2.418025e+000 2.090360e+000 1.834807e+000 1.952626e+000 2.387769e+000 4.687752e-001 4.205378e-001 3.704359e-001 4.948281e-001 5.954590e-001 4.797476e-001 4.973725e-001 4.940365e-001 4.461617e-001 3.955916e-001 3.504947e-001 3.538959e-001 3.821434e-001
<GCONST> 1.234553e+002
<TRANSP> 3
 0.000000e+000 1.000000e+000 0.000000e+000
 0.000000e+000 9.987432e-001 1.256790e-003
 0.000000e+000 0.000000e+000 0.000000e+000
<ENDHMM>
