~o
<STREAMINFO> 1 39
<VECSIZE> 39<NULLD><MFCC_D_A_0><DIAGC>
~h "MJ"
<BEGINHMM>
<NUMSTATES> 3
<STATE> 2
<NUMMIXES> 64
<MIXTURE> 1 7.516225e-003
<MEAN> 39
 -5.605649e+000 3.313845e+000 4.403092e+000 -9.341789e+000 -5.320552e+000 -8.801234e+000 -1.227967e+001 -3.548389e+000 -9.736657e-003 6.009052e+000 -2.312276e+000 -6.111860e-001 6.863852e+001 -2.336991e+000 2.212811e+000 1.379218e-001 2.391582e+000 1.858103e+000 -8.131874e-001 3.620233e+000 -5.753027e-001 2.471608e+000 -1.309470e+000 1.223078e+000 7.674260e-001 -5.747766e-001 -8.897468e-001 -3.119628e-001 -2.828496e-001 3.732902e-001 2.189054e-001 2.664751e-001 7.406996e-001 3.738255e-001 4.179559e-001 -8.031939e-002 5.569453e-001 6.992071e-002 2.887321e-001
<VARIANCE> 39
 1.063982e+001 1.717697e+001 6.428279e+001 3.205545e+001 5.687977e+001 6.935606e+001 4.956924e+001 3.481619e+001 4.910347e+001 2.898729e+001 3.735598e+001 3.004799e+001 7.018850e+000 1.260797e+000 2.027985e+000 2.680461e+000 1.941017e+000 3.182567e+000 3.362265e+000 3.179868e+000 3.724103e+000 2.955505e+000 2.208351e+000 2.895188e+000 2.879175e+000 4.523624e-001 1.645041e-001 2.231776e-001 2.734461e-001 4.361675e-001 4.324296e-001 5.607654e-001 6.141049e-001 4.433255e-001 5.328212e-001 4.063961e-001 4.892498e-001 3.355314e-001 6.224659e-002
<GCONST> 1.128532e+002
<MIXTURE> 2 1.556945e-002
<MEAN> 39
 1.672060e+000 4.425425e+000 -3.038923e+000 -1.088470e+001 -7.678149e+000 -5.785249e-001 -9.947407e+000 -3.175304e+000 -5.760197e+000 1.989298e-001 1.405337e-001 -2.445505e+000 6.247036e+001 -5.139814e-002 4.703721e-001 3.929428e-001 9.827292e-001 5.751923e-001 -5.692291e-002 6.244516e-001 6.930610e-001 5.158834e-001 -8.304453e-002 3.444458e-001 -1.197644e-001 -3.906882e-001 -1.176061e-001 -2.720085e-001 4.612283e-002 1.940865e-001 1.447901e-001 1.420033e-001 -4.957348e-002 -1.086746e-002 3.470328e-001 4.440824e-001 2.735689e-001 1.617259e-001 2.385108e-001
<VARIANCE> 39
 6.879381e+000 1.156170e+001 1.646200e+001 3.995344e+001 2.335444e+001 3.115638e+001 2.577207e+001 3.220000e+001 3.641687e+001 3.365681e+001 2.149399e+001 2.948775e+001 1.778361e+001 5.232233e-001 8.968565e-001 8.365389e-001 2.673173e+000 1.673420e+000 1.858516e+000 1.950968e+000 2.302002e+000 2.195556e+000 1.764144e+000 1.823655e+000 2.107034e+000 9.193676e-001 8.953449e-002 1.152135e-001 1.448943e-001 3.816922e-001 2.706809e-001 2.558478e-001 3.152397e-001 4.211869e-001 3.942114e-001 3.106593e-001 3.120222e-001 3.386635e-001 8.793108e-002
<GCONST> 9.865901e+001
<MIXTURE> 3 1.242954e-002
<MEAN> 39
 -3.141895e+000 -6.417073e+000 2.104041e+000 -1.143304e+001 -7.769526e+000 -1.206552e+001 -1.493725e+001 4.052512e+000 -7.857668e-002 8.225603e+000 -5.193158e+000 -4.954993e-001 7.317616e+001 2.614388e-001 1.508320e+000 4.298103e-001 9.875037e-001 9.528240e-001 1.221120e-001 8.193164e-001 -3.104685e-001 3.423535e-001 1.328731e-001 5.537232e-001 3.426197e-001 -9.273771e-001 -1.866682e-001 6.508850e-001 -4.791054e-002 7.414975e-001 1.993314e-001 4.984551e-001 7.951569e-001 -4.951290e-001 5.259106e-001 -3.411890e-001 6.470365e-001 -9.130776e-002 -5.587991e-001
<VARIANCE> 39
 5.981130e+000 1.893188e+001 2.909608e+001 2.275054e+001 2.474361e+001 6.324266e+001 5.926034e+001 3.995397e+001 3.232356e+001 2.881161e+001 2.335654e+001 2.543103e+001 7.759631e+000 7.226199e-001 1.757165e+000 1.790000e+000 1.831256e+000 2.033554e+000 2.649902e+000 2.895049e+000 2.597635e+000 3.289935e+000 2.148069e+000 1.801545e+000 1.785252e+000 1.297138e+000 3.392675e-001 2.650439e-001 3.032356e-001 2.880572e-001 4.224051e-001 5.785099e-001 9.462250e-001 6.064302e-001 4.773146e-001 3.675281e-001 3.556935e-001 4.060266e-001 1.846130e-001
<GCONST> 1.096350e+002
<MIXTURE> 4 1.403945e-002
<MEAN> 39
 -2.276654e+000 1.494460e+000 7.195641e+000 -4.456436e+000 -1.083471e+001 -7.964196e+000 -9.931780e+000 -1.345125e+000 -6.085173e+000 4.694902e+000 3.474601e+000 -6.953426e+000 6.371154e+001 5.642654e-001 9.145080e-001 -1.390283e+000 1.494334e+000 1.700742e+000 8.275812e-001 1.476688e+000 1.248271e-001 1.734389e+000 -2.662458e-001 -1.712172e-001 6.163335e-001 -1.752164e+000 -3.154674e-001 -1.678422e-001 5.275619e-002 -1.057540e-001 7.879494e-002 2.222281e-001 1.481257e-001 6.509116e-002 3.564298e-001 5.221733e-002 2.146952e-003 4.505493e-001 2.708509e-001
<VARIANCE> 39
 9.609910e+000 1.829423e+001 3.144990e+001 2.712974e+001 3.679216e+001 4.239545e+001 4.599350e+001 3.030313e+001 3.109843e+001 2.825646e+001 2.367069e+001 2.894978e+001 1.302707e+001 1.034129e+000 1.226221e+000 2.234960e+000 1.991217e+000 2.923934e+000 3.015587e+000 3.179704e+000 2.571016e+000 2.507406e+000 2.159466e+000 2.064291e+000 2.387157e+000 1.485636e+000 1.368579e-001 2.236193e-001 4.081213e-001 2.962348e-001 4.736946e-001 4.299614e-001 4.384077e-001 4.268021e-001 5.380985e-001 4.081734e-001 3.364792e-001 3.596171e-001 1.473601e-001
<GCONST> 1.093418e+002
<MIXTURE> 5 1.045282e-002
<MEAN> 39
 -9.255819e+000 -2.692518e+000 -5.534131e+000 -4.639579e+000 -4.836639e+000 -2.519148e+000 -2.628519e+000 -4.911566e-002 1.103292e+000 7.503245e-001 -9.584296e-001 -1.649605e+000 5.064595e+001 1.722313e-003 5.116553e-002 -1.510850e-002 6.819638e-002 1.156856e-001 2.984184e-001 2.946619e-001 2.304052e-001 3.012930e-001 3.539402e-001 3.963976e-001 2.661725e-001 -8.488334e-002 1.378832e-001 1.584797e-001 1.554515e-001 9.964885e-002 7.903309e-002 -3.296345e-002 2.264342e-002 9.132610e-002 1.142115e-001 1.541188e-001 1.460786e-001 1.381577e-001 1.750412e-001
<VARIANCE> 39
 5.806282e+000 7.757157e+000 1.471103e+001 1.115423e+001 1.012990e+001 1.220009e+001 1.229683e+001 1.406853e+001 1.596205e+001 1.526540e+001 1.419852e+001 1.097339e+001 3.247102e+000 3.453167e-001 4.447412e-001 6.733253e-001 7.639125e-001 9.131761e-001 1.385134e+000 1.325620e+000 1.548668e+000 1.777465e+000 1.690843e+000 1.464609e+000 1.212254e+000 1.853774e-001 9.513459e-002 1.318613e-001 1.728191e-001 2.010172e-001 1.951948e-001 2.716799e-001 2.486073e-001 2.733278e-001 3.413185e-001 3.261752e-001 3.064293e-001 2.572052e-001 7.037865e-002
<GCONST> 7.992860e+001
<MIXTURE> 6 2.230971e-002
<MEAN> 39
 1.437108e+000 -1.140019e-001 -4.833755e+000 -1.702257e+001 -7.403184e+000 4.192778e+000 -1.326658e+001 -7.903819e+000 -5.791807e+000 6.287019e+000 2.105639e+000 1.611123e+000 6.850385e+001 6.712551e-001 5.327997e-001 3.859481e-001 -3.866720e-001 3.747740e-001 1.068144e+000 -3.210267e-001 3.920714e-001 1.862997e-001 7.253752e-001 4.846937e-001 3.942688e-001 4.421647e-001 -3.521288e-001 -6.860065e-002 2.042817e-001 9.161690e-001 4.737597e-001 -4.441531e-001 3.281943e-001 4.708911e-001 7.251670e-001 1.029428e-001 8.279847e-002 -3.156086e-001 -1.427148e-001
<VARIANCE> 39
 5.866084e+000 1.489223e+001 1.712654e+001 3.918690e+001 3.609102e+001 2.860360e+001 4.080405e+001 3.228506e+001 4.174516e+001 4.692745e+001 2.637637e+001 2.712623e+001 1.007952e+001 1.437876e+000 2.280181e+000 1.868410e+000 5.592590e+000 3.972443e+000 3.475896e+000 4.289474e+000 3.205801e+000 4.026216e+000 3.817329e+000 2.711237e+000 3.054935e+000 1.746791e+000 2.396456e-001 2.685071e-001 3.376212e-001 6.206990e-001 5.528424e-001 4.976539e-001 7.002338e-001 5.230704e-001 6.465409e-001 5.752200e-001 4.771995e-001 4.244243e-001 1.969089e-001
<GCONST> 1.166153e+002
<MIXTURE> 7 2.111262e-002
<MEAN> 39
 -2.480308e+001 3.785907e+000 -4.167847e+000 -6.255830e+000 -1.057608e+000 -1.255001e+001 9.758353e-002 -1.811278e+000 4.762196e+000 3.833897e-001 2.512037e+000 2.310614e+000 6.948890e+001 -4.342249e-001 -2.825552e-001 -1.636569e-001 1.306660e-001 3.404527e-001 6.241629e-002 7.124075e-001 7.604647e-001 3.567361e-001 2.889110e-001 1.694854e-001 5.888720e-001 2.374644e-001 1.143312e+000 -1.325030e-002 5.293468e-001 1.845867e-001 -1.301723e-001 3.076791e-001 -3.556767e-001 1.495204e-002 -9.468707e-002 3.268359e-001 -1.731054e-001 -1.037507e-001 -2.079412e-001
<VARIANCE> 39
 9.664151e+000 2.061784e+001 2.765897e+001 2.355346e+001 2.514554e+001 2.451867e+001 3.686108e+001 2.445984e+001 2.626030e+001 2.094647e+001 1.347498e+001 1.894042e+001 4.724974e+000 2.885186e+000 1.260812e+000 2.572983e+000 1.713795e+000 1.937273e+000 2.434976e+000 2.159807e+000 2.049793e+000 2.021889e+000 1.810061e+000 1.681839e+000 1.731866e+000 7.408742e-001 2.634093e-001 2.533305e-001 3.229670e-001 3.860019e-001 4.126667e-001 4.489312e-001 5.047885e-001 4.321573e-001 4.000994e-001 3.434246e-001 3.218060e-001 3.420388e-001 1.506922e-001
<GCONST> 1.038832e+002
<MIXTURE> 8 1.010984e-002
<MEAN> 39
 -2.919760e+000 -1.245513e+000 6.482455e+000 -3.606436e+000 -8.725674e+000 -1.283096e+001 -1.066257e+001 -6.796241e-003 -4.860858e+000 2.065131e+000 2.217378e+000 -3.548476e+000 6.738011e+001 -8.352196e-001 -5.849023e-001 2.768569e+000 -1.007850e+000 -1.219943e+000 -8.651641e-002 7.901797e-001 1.063898e+000 -1.444212e+000 6.903359e-001 1.006896e+000 6.252639e-001 1.468513e+000 -3.598224e-002 1.488385e-001 2.900784e-001 -1.447086e-001 -3.547884e-001 7.120293e-001 1.441387e-001 -6.171939e-002 3.108084e-003 4.238408e-001 2.362812e-001 -1.771596e-002 1.594990e-001
<VARIANCE> 39
 8.363212e+000 2.454807e+001 2.707851e+001 3.666919e+001 2.131212e+001 2.402373e+001 4.378192e+001 2.698245e+001 3.614353e+001 2.077461e+001 2.213362e+001 2.454420e+001 1.021314e+001 1.046677e+000 1.616248e+000 2.116484e+000 3.163133e+000 3.623100e+000 3.930849e+000 3.511470e+000 4.570113e+000 3.380859e+000 2.087755e+000 2.379753e+000 2.502358e+000 9.063323e-001 2.108975e-001 2.445133e-001 3.335744e-001 5.072199e-001 4.612266e-001 5.013523e-001 7.623073e-001 5.306824e-001 5.415214e-001 3.298068e-001 3.633540e-001 3.882919e-001 1.654555e-001
<GCONST> 1.113656e+002
<MIXTURE> 9 2.367191e-002
<MEAN> 39
 -9.414411e+000 -2.976862e+000 -7.863604e+000 -4.738820e+000 -4.928822e+000 -2.115983e+000 -1.919745e+000 5.277381e-001 1.080389e+000 6.445873e-001 -5.209301e-001 -1.028650e+000 4.877476e+001 6.917880e-002 1.322732e-001 1.624538e-001 1.958990e-001 2.498318e-001 3.319872e-001 2.933147e-001 3.293678e-001 3.122663e-001 4.107279e-001 3.684137e-001 3.143381e-001 1.571015e-002 5.013119e-002 7.554016e-002 9.120022e-002 5.033673e-002 2.365268e-002 -6.867275e-002 -1.230372e-001 -1.067635e-001 -3.283682e-002 2.020206e-002 2.518500e-002 4.203757e-002 3.742032e-002
<VARIANCE> 39
 1.017090e+000 2.781634e+000 4.210753e+000 4.669210e+000 7.400462e+000 8.701016e+000 7.713724e+000 9.873487e+000 1.006902e+001 1.015270e+001 1.025517e+001 8.710834e+000 6.119187e-001 9.445429e-002 2.217892e-001 4.284739e-001 5.533449e-001 7.859859e-001 9.387966e-001 1.062880e+000 1.100581e+000 1.187088e+000 1.117521e+000 1.067605e+000 9.377330e-001 2.994713e-002 1.902381e-002 3.786710e-002 7.377944e-002 1.005830e-001 1.532307e-001 1.593125e-001 1.852884e-001 1.993130e-001 2.255033e-001 2.226156e-001 2.083659e-001 1.987973e-001 6.030442e-003
<GCONST> 5.370815e+001
<MIXTURE> 10 1.977892e-002
<MEAN> 39
 -1.233845e+000 -7.338134e+000 -1.011423e+001 -1.798577e+001 4.277807e-001 4.137132e+000 -1.487235e+001 2.418169e+000 4.182647e+000 7.095875e+000 -6.607072e+000 -4.381699e+000 7.311858e+001 1.569953e-001 2.805864e-001 1.319994e-001 8.688828e-002 5.281790e-001 4.794552e-001 1.979635e-001 2.869551e-001 1.680110e-001 2.805176e-001 1.293444e-001 4.089911e-001 -9.404889e-002 3.495975e-002 2.327921e-001 3.021770e-001 3.538574e-001 -1.829071e-001 -1.237616e-001 1.294340e-001 -4.986447e-002 2.787016e-003 6.298076e-002 2.723931e-001 1.899055e-001 -1.268430e-001
<VARIANCE> 39
 3.748044e+000 1.919292e+001 1.294457e+001 2.612247e+001 3.135761e+001 4.626037e+001 3.573869e+001 3.524835e+001 2.309029e+001 2.605944e+001 3.771420e+001 2.226466e+001 9.912070e+000 2.047920e-001 6.374676e-001 8.429128e-001 1.152604e+000 1.694434e+000 1.959418e+000 1.550584e+000 1.637486e+000 1.433065e+000 1.226472e+000 1.519383e+000 1.100130e+000 2.065021e-001 3.750105e-002 1.022017e-001 1.351531e-001 1.801051e-001 2.025586e-001 2.131755e-001 2.495655e-001 2.783070e-001 2.791702e-001 2.109941e-001 2.449459e-001 2.112853e-001 5.592522e-002
<GCONST> 8.742255e+001
<MIXTURE> 11 1.835313e-002
<MEAN> 39
 -4.626021e+000 -6.092849e+000 1.054746e+001 -7.038861e+000 -1.608253e+001 -1.524263e+001 -1.267791e+001 2.990692e+000 -7.525311e+000 4.554587e+000 3.662772e+000 -1.301514e+000 7.229140e+001 4.107156e-001 4.147935e-001 3.006605e-001 2.711335e-001 3.651660e-001 1.930642e-001 5.847123e-001 6.776614e-001 3.753808e-001 7.628394e-001 1.756835e-001 1.291583e-001 -5.497673e-002 -3.408089e-003 6.452374e-001 -4.484365e-001 4.284710e-001 7.950869e-001 6.701361e-001 5.649266e-001 -4.022653e-001 7.865978e-001 3.508365e-002 -1.803897e-001 -8.219325e-002 -5.422009e-001
<VARIANCE> 39
 4.920751e+000 1.541714e+001 2.683236e+001 2.399328e+001 2.057775e+001 2.623181e+001 4.318739e+001 2.413999e+001 4.195124e+001 2.182404e+001 2.372863e+001 1.888381e+001 8.765281e+000 1.007532e+000 2.300030e+000 3.908370e+000 2.101615e+000 3.869975e+000 2.106407e+000 3.854469e+000 3.371547e+000 4.319817e+000 2.449818e+000 2.360005e+000 1.904049e+000 1.647635e+000 2.926372e-001 2.472288e-001 3.694808e-001 3.910092e-001 3.631620e-001 4.606164e-001 7.451106e-001 5.317423e-001 5.940707e-001 4.138816e-001 3.273793e-001 3.233585e-001 1.485223e-001
<GCONST> 1.099493e+002
<MIXTURE> 12 1.657682e-002
<MEAN> 39
 -2.678140e+000 -4.653082e+000 5.185141e+000 -7.786093e+000 -1.292527e+001 -8.544243e+000 -9.861234e+000 3.321112e+000 -3.824575e+000 4.813757e+000 -1.445915e-001 -2.214952e+000 7.013427e+001 1.525445e-001 2.422539e-001 1.282713e-001 1.903320e-001 3.857757e-001 1.946960e-001 4.795589e-001 4.044623e-001 2.894139e-001 3.604937e-001 -1.299300e-001 3.631853e-001 -1.104163e-001 5.007050e-002 2.381896e-001 -3.799810e-002 1.290656e-001 3.469047e-001 1.011585e-001 -4.828828e-002 -9.049008e-002 2.297034e-001 9.527409e-002 6.472241e-002 4.056657e-002 -8.950570e-002
<VARIANCE> 39
 8.516410e+000 2.077598e+001 2.878365e+001 3.549537e+001 2.691458e+001 5.748198e+001 4.229916e+001 5.437948e+001 4.142106e+001 2.081900e+001 3.684542e+001 3.210035e+001 2.409438e+001 1.754597e-001 6.188018e-001 1.332712e+000 8.359577e-001 1.606919e+000 9.933125e-001 1.348896e+000 1.265029e+000 1.497893e+000 1.159454e+000 1.376348e+000 1.084562e+000 2.064187e-001 3.950544e-002 8.712391e-002 1.720951e-001 1.807625e-001 2.475946e-001 1.803129e-001 2.342116e-001 2.728616e-001 2.321065e-001 2.019842e-001 1.888646e-001 2.177436e-001 4.657072e-002
<GCONST> 8.982941e+001
<MIXTURE> 13 2.111250e-002
<MEAN> 39
 -1.572299e+001 -5.897566e+000 -2.453091e+000 -8.444565e+000 -4.727516e+000 -8.526494e+000 -3.371574e+000 -3.728881e+000 2.050135e+000 3.877961e+000 1.808083e+000 9.420081e-001 6.691844e+001 -4.086542e-001 1.975639e-001 9.718273e-001 1.734760e-001 2.597721e-001 -3.785241e-002 4.327699e-001 3.360495e-002 5.471809e-001 2.220524e-001 3.019422e-001 5.306330e-001 2.213507e+000 1.095582e+000 8.531967e-001 6.697711e-001 4.606198e-001 -6.336798e-002 3.615172e-001 -2.480863e-001 3.911586e-001 -6.661510e-002 1.045013e-001 2.028783e-002 -2.199538e-001 -4.175038e-001
<VARIANCE> 39
 4.057555e+001 2.285374e+001 6.197632e+001 3.122009e+001 5.095468e+001 4.921941e+001 3.227769e+001 3.305839e+001 3.253350e+001 2.717136e+001 1.920932e+001 1.641011e+001 1.770731e+001 6.241118e+000 2.771628e+000 3.374599e+000 3.310910e+000 3.686851e+000 4.395442e+000 4.025635e+000 3.445533e+000 3.463079e+000 2.387916e+000 2.121297e+000 2.074857e+000 4.424024e+000 5.392946e-001 4.462799e-001 9.216444e-001 6.374617e-001 1.012486e+000 9.149559e-001 7.258670e-001 8.036982e-001 6.043671e-001 5.142000e-001 5.087792e-001 4.235183e-001 4.422927e-001
<GCONST> 1.259587e+002
<MIXTURE> 14 2.352257e-002
<MEAN> 39
 -8.767529e+000 2.936713e+000 -2.207121e+000 -3.756958e+000 -3.962027e+000 -5.717566e+000 -3.077778e+000 -7.774743e-001 2.006500e+000 2.159727e+000 2.091470e-001 -1.603999e+000 5.678048e+001 4.559841e-001 8.180885e-002 -1.504090e-001 3.623371e-001 2.597045e-001 5.640011e-001 6.198146e-001 3.259939e-001 3.801909e-001 6.418049e-003 2.445948e-001 3.411986e-001 -2.377485e-001 -2.440787e-001 -3.567943e-001 2.440807e-001 -1.776155e-001 -3.354684e-002 -2.557346e-001 -1.029241e-001 -1.103277e-001 5.659812e-002 2.001760e-001 1.376117e-001 1.983291e-001 1.087864e+000
<VARIANCE> 39
 4.308558e+001 2.439948e+001 3.500243e+001 2.079334e+001 2.090252e+001 3.168579e+001 2.467878e+001 1.984122e+001 2.539606e+001 1.802514e+001 1.617945e+001 1.389776e+001 1.271944e+001 3.508349e+000 2.149960e+000 1.751300e+000 1.430035e+000 1.625579e+000 2.537298e+000 2.162440e+000 1.724002e+000 2.348572e+000 1.534559e+000 1.407580e+000 1.327197e+000 3.377419e+000 3.417780e-001 3.750045e-001 3.163365e-001 2.974323e-001 3.591884e-001 4.612111e-001 4.085604e-001 3.395115e-001 4.255959e-001 3.512329e-001 3.200645e-001 2.627211e-001 2.986699e-001
<GCONST> 1.070190e+002
<MIXTURE> 15 7.706015e-003
<MEAN> 39
 -8.509903e+000 3.084100e+000 1.087736e+001 -4.540274e+000 -1.209877e+001 -1.415305e+001 -5.132941e+000 -4.052629e+000 -3.668654e+000 3.126445e+000 1.819748e+000 -1.771626e+000 6.668385e+001 2.032102e-001 1.000570e+000 -1.033500e+000 1.199282e+000 1.702464e+000 1.164128e+000 1.512133e+000 5.068422e-001 1.454199e+000 -9.417063e-002 -2.018583e-001 3.698716e-001 -1.328862e+000 1.947764e-001 -1.949437e-001 -2.528978e-001 9.951524e-002 2.807639e-001 7.234800e-001 -9.065640e-002 3.780133e-001 2.256192e-001 1.067011e-001 8.568338e-002 -2.537917e-002 -1.151939e-001
<VARIANCE> 39
 1.902200e+001 3.419916e+001 3.618540e+001 2.184035e+001 3.317453e+001 3.129370e+001 5.269452e+001 3.579440e+001 2.783736e+001 2.631137e+001 1.945093e+001 2.141698e+001 1.526055e+001 1.639556e+000 1.822099e+000 2.126225e+000 1.503225e+000 1.862038e+000 2.468593e+000 3.627253e+000 2.412211e+000 2.254802e+000 1.758232e+000 1.733181e+000 2.021879e+000 1.965317e+000 1.709622e-001 2.244836e-001 3.303595e-001 3.016099e-001 4.502045e-001 3.794295e-001 6.091279e-001 4.953538e-001 4.548884e-001 3.648621e-001 3.313902e-001 2.832492e-001 1.540191e-001
<GCONST> 1.093621e+002
<MIXTURE> 16 1.218534e-002
<MEAN> 39
 -8.201628e+000 2.102992e+000 7.961413e-001 -4.607993e+000 -4.905368e+000 -1.243559e+001 -9.095375e+000 -3.757093e+000 3.134778e+000 1.208741e+000 -2.781298e+000 -1.273200e+000 6.884214e+001 3.955472e+000 7.675484e-002 1.051122e+000 -7.824963e-001 -6.388232e-001 1.787063e-001 -3.117191e+000 5.997325e-001 -2.200291e-001 1.463882e+000 -6.062812e-001 -7.007174e-001 1.254730e+000 -1.699462e-001 -3.435297e-001 -1.453225e-001 -2.462790e-001 2.816565e-002 5.418115e-001 2.959152e-001 4.720502e-001 3.623372e-002 3.991684e-001 3.975307e-001 1.390769e-001 6.517099e-002
<VARIANCE> 39
 2.689244e+001 2.242653e+001 2.746669e+001 2.380875e+001 2.590580e+001 2.743286e+001 3.928504e+001 2.371519e+001 2.494256e+001 1.934338e+001 1.595611e+001 1.539180e+001 1.421824e+001 2.095420e+000 2.977518e+000 3.372570e+000 3.336700e+000 2.684439e+000 4.083124e+000 3.640647e+000 4.172257e+000 3.256109e+000 2.197141e+000 2.850961e+000 2.112316e+000 1.246077e+000 6.031146e-001 2.464337e-001 2.491632e-001 3.573879e-001 3.444118e-001 4.755627e-001 6.475883e-001 4.541753e-001 4.222284e-001 3.304653e-001 3.306383e-001 2.864566e-001 3.210139e-001
<GCONST> 1.128317e+002
<MIXTURE> 17 1.590463e-002
<MEAN> 39
 -9.952025e-001 -5.162542e+000 -6.282447e+000 -1.446004e+001 -3.640659e+000 2.645134e-001 -1.674096e+001 -1.062503e-001 3.178084e+000 9.129598e+000 -4.340154e+000 -3.725418e+000 7.143932e+001 4.646617e-001 1.427126e+000 9.907424e-001 1.844036e+000 -2.765847e-001 1.032239e-001 9.935578e-001 -9.786069e-001 -3.057135e-001 2.491945e-002 1.558655e+000 4.737362e-001 -1.314173e+000 -6.306779e-002 2.593308e-001 3.608646e-001 5.521790e-001 -7.136221e-002 -9.898905e-002 5.151153e-001 3.530434e-002 5.158097e-002 -2.133034e-001 4.747556e-001 5.210622e-002 -2.346783e-001
<VARIANCE> 39
 5.793755e+000 1.509442e+001 2.511816e+001 3.332996e+001 3.895778e+001 7.037023e+001 4.822546e+001 4.494574e+001 4.316319e+001 3.589045e+001 4.443810e+001 2.360205e+001 1.080375e+001 5.598983e-001 1.178666e+000 1.533361e+000 2.290093e+000 2.716257e+000 3.643195e+000 2.932790e+000 3.387608e+000 3.320948e+000 2.475129e+000 2.720524e+000 2.370756e+000 9.654057e-001 1.016682e-001 2.316735e-001 2.900971e-001 3.761221e-001 4.799080e-001 5.542641e-001 4.146657e-001 5.739096e-001 6.458048e-001 4.657423e-001 5.731224e-001 3.720942e-001 2.179744e-001
<GCONST> 1.115270e+002
<MIXTURE> 18 2.097560e-002
<MEAN> 39
 -2.268877e+000 -7.813775e+000 -4.136762e+000 -1.152499e+001 -7.215530e+000 -4.296817e+000 -1.701136e+001 2.525833e+000 5.485109e+000 7.270836e+000 -5.557607e+000 -4.785628e+000 7.362730e+001 3.182389e-001 -4.304018e-001 -4.553165e-001 -9.940476e-001 1.057895e+000 9.142097e-001 4.495630e-002 1.884563e+000 6.350639e-001 8.518865e-001 -7.673805e-001 3.100690e-001 9.771599e-001 -5.398101e-002 5.525986e-001 3.278309e-001 4.339383e-001 2.422532e-001 7.628557e-002 6.566285e-001 -2.870470e-001 -3.515287e-001 2.519652e-003 5.489930e-001 2.785663e-001 -4.003488e-001
<VARIANCE> 39
 6.148629e+000 1.744999e+001 2.560699e+001 3.127281e+001 3.442959e+001 5.480436e+001 4.556723e+001 4.482528e+001 3.042799e+001 3.367394e+001 3.365895e+001 1.967814e+001 1.007630e+001 8.549557e-001 1.575552e+000 2.416527e+000 2.182081e+000 3.233637e+000 5.033034e+000 3.776716e+000 4.553234e+000 3.933055e+000 2.428172e+000 2.746170e+000 2.623522e+000 1.081015e+000 1.742966e-001 1.887968e-001 3.028170e-001 4.509446e-001 4.929321e-001 5.876141e-001 5.511655e-001 6.869329e-001 5.389087e-001 4.753989e-001 4.647631e-001 3.902683e-001 1.702722e-001
<GCONST> 1.133904e+002
<MIXTURE> 19 1.927851e-002
<MEAN> 39
 -5.879910e+000 -2.068764e-001 -2.604775e+000 -5.776412e+000 -7.141118e+000 -5.693529e+000 -5.679646e+000 -1.226919e+000 8.252252e-001 3.051118e+000 1.313141e+000 -1.408755e+000 5.496495e+001 -1.363313e+000 -1.401024e+000 -2.970401e-001 -3.104465e-001 1.190351e+000 -2.008417e-001 7.374400e-001 -3.068691e-001 6.024823e-001 3.101013e-001 1.494270e-001 9.231622e-001 2.243670e+000 -1.334454e-001 -8.411980e-002 4.156529e-001 -1.475495e-001 2.743034e-001 -2.043638e-002 -6.287138e-002 -1.236051e-001 4.767223e-002 3.053492e-001 5.619684e-002 4.011967e-002 1.381469e+000
<VARIANCE> 39
 1.923986e+001 1.327067e+001 3.375813e+001 2.549658e+001 2.823275e+001 3.256574e+001 3.212245e+001 2.371839e+001 3.278596e+001 2.186432e+001 1.962773e+001 1.776491e+001 9.883678e+000 2.820546e+000 2.266741e+000 4.131692e+000 3.151993e+000 4.183570e+000 4.476125e+000 3.248236e+000 3.018666e+000 3.309244e+000 2.688668e+000 2.668948e+000 2.156881e+000 3.819002e+000 4.709114e-001 3.009680e-001 4.408284e-001 4.688674e-001 6.337132e-001 6.176288e-001 6.048338e-001 4.733759e-001 6.449426e-001 4.557414e-001 4.236997e-001 3.622337e-001 2.649443e-001
<GCONST> 1.169220e+002
<MIXTURE> 20 2.219862e-002
<MEAN> 39
 -2.277941e+001 -6.805134e-002 2.621431e+000 -4.032291e+000 -4.222945e+000 -7.983144e+000 -5.586256e-001 -2.487809e+000 4.411363e+000 1.989028e+000 7.472988e-001 1.508290e-002 6.764337e+001 9.846331e-001 1.329177e-001 2.462615e-001 4.330342e-001 -2.379119e-002 5.616909e-001 1.861509e-001 3.375036e-001 -2.714619e-002 2.675070e-001 -9.594262e-004 9.922075e-002 -4.629077e-001 9.505763e-001 3.006558e-001 1.693330e-001 5.182466e-002 2.409578e-002 -1.847103e-003 -2.833024e-001 1.701444e-002 -1.492211e-001 9.121122e-002 1.315328e-001 3.277760e-002 -1.427495e-001
<VARIANCE> 39
 1.538839e+001 4.037526e+001 7.211160e+001 2.835346e+001 6.026459e+001 3.229285e+001 3.106521e+001 2.317785e+001 2.299145e+001 1.883290e+001 1.530444e+001 1.394241e+001 1.247491e+001 3.610817e+000 1.288688e+000 1.493979e+000 1.374781e+000 1.602412e+000 2.254816e+000 2.172175e+000 1.589525e+000 1.782312e+000 1.424207e+000 1.430771e+000 1.225268e+000 1.524842e+000 2.786489e-001 2.731486e-001 2.745891e-001 2.567523e-001 3.315494e-001 4.508854e-001 4.661482e-001 3.362640e-001 3.594528e-001 2.771229e-001 2.971200e-001 2.734928e-001 1.458128e-001
<GCONST> 1.048149e+002
<MIXTURE> 21 1.426442e-002
<MEAN> 39
 -7.413041e+000 2.747637e+000 1.635145e+001 -9.705303e+000 -1.770994e+001 -5.855823e+000 -1.355082e+001 -3.192215e+000 -9.762634e+000 3.910201e+000 5.114627e+000 -9.930669e+000 6.877310e+001 2.797997e-002 4.647767e-001 3.063101e-001 9.062935e-002 -1.571517e-001 6.381775e-001 3.377131e-001 -9.948829e-002 4.303457e-001 1.573903e-001 8.157188e-002 9.335622e-002 -4.308553e-002 1.600455e-001 -1.894934e-002 -2.435773e-001 3.969519e-001 3.192564e-001 -2.127337e-001 4.197930e-001 1.351721e-001 2.621213e-001 3.483160e-002 -1.205447e-002 3.671206e-001 -6.887564e-002
<VARIANCE> 39
 9.853552e+000 1.985686e+001 3.897330e+001 2.041351e+001 2.957139e+001 2.269223e+001 2.286959e+001 2.217932e+001 2.387472e+001 3.022108e+001 2.258412e+001 2.932770e+001 8.848360e+000 2.872717e-001 7.692761e-001 1.161133e+000 1.150423e+000 1.468745e+000 1.359035e+000 1.493392e+000 1.125719e+000 1.135134e+000 1.003808e+000 1.266930e+000 1.430872e+000 2.823964e-001 6.470401e-002 9.599001e-002 2.001773e-001 2.429533e-001 2.424193e-001 2.714267e-001 2.783975e-001 2.722259e-001 2.732467e-001 2.089589e-001 2.296069e-001 2.091099e-001 4.258374e-002
<GCONST> 8.861795e+001
<MIXTURE> 22 1.718285e-002
<MEAN> 39
 -1.280060e+001 -4.246058e+000 -6.174861e-001 -3.667390e+000 -3.003151e+000 -7.767644e+000 -2.495776e+000 -3.344255e+000 2.278611e+000 2.355199e+000 -2.887011e-003 -1.175753e-001 6.589194e+001 2.021497e+000 5.105805e-001 1.580798e+000 -2.224841e-001 -3.207292e-001 4.298410e-001 -1.434320e+000 -7.322626e-001 -7.109398e-001 6.329081e-001 1.956246e-001 -2.296691e-001 2.117155e+000 9.798443e-001 6.410688e-001 4.411372e-001 -3.937508e-001 -4.868347e-001 3.871746e-001 -7.901622e-001 2.332766e-001 -3.022339e-001 4.603852e-001 3.511992e-001 -2.155781e-001 1.345516e-001
<VARIANCE> 39
 5.324044e+001 2.678214e+001 5.026802e+001 3.585495e+001 4.431992e+001 4.337889e+001 4.082383e+001 3.544147e+001 3.159076e+001 2.749093e+001 2.048895e+001 2.059080e+001 2.006599e+001 6.792955e+000 5.027516e+000 6.111091e+000 4.575050e+000 5.381553e+000 5.626577e+000 5.013989e+000 3.488889e+000 4.246097e+000 3.049464e+000 3.123572e+000 3.006815e+000 3.981569e+000 3.523196e-001 4.455439e-001 5.856560e-001 6.547247e-001 7.914889e-001 9.809345e-001 8.213210e-001 6.955565e-001 6.647031e-001 5.448626e-001 5.030786e-001 5.446079e-001 4.295498e-001
<GCONST> 1.296234e+002
<MIXTURE> 23 1.370659e-002
<MEAN> 39
 -8.596012e+000 -1.896023e+000 -6.967679e+000 -4.204280e+000 -5.710946e+000 -4.027563e+000 -4.132553e+000 -1.928611e+000 -3.457534e-001 2.430030e-001 -7.381968e-001 -1.016658e+000 4.914449e+001 7.751585e-002 5.977048e-002 2.360622e-002 6.066546e-002 4.986940e-002 -6.038378e-002 -1.172630e-001 -1.729317e-001 -1.661261e-001 -2.183308e-001 -1.801062e-001 -4.030438e-002 1.817943e-002 -4.244953e-002 -7.662216e-002 -6.592897e-002 -5.960181e-002 6.019006e-002 1.359710e-001 1.707736e-001 1.880439e-001 1.322939e-001 1.016103e-002 1.693929e-002 4.319403e-002 1.217325e-002
<VARIANCE> 39
 1.240877e+000 2.799338e+000 3.583824e+000 4.574482e+000 6.264838e+000 8.370194e+000 8.861224e+000 7.971584e+000 1.018866e+001 1.024873e+001 9.647272e+000 9.177596e+000 6.378247e-001 1.136572e-001 2.201259e-001 3.446233e-001 5.230776e-001 7.333216e-001 8.043373e-001 1.008064e+000 1.027716e+000 1.121501e+000 1.071082e+000 1.032774e+000 1.039302e+000 3.422350e-002 2.037675e-002 3.953683e-002 6.149888e-002 9.619579e-002 1.353536e-001 1.608803e-001 1.876235e-001 1.862826e-001 2.177596e-001 2.232799e-001 2.134850e-001 1.933397e-001 5.720820e-003
<GCONST> 5.279444e+001
<MIXTURE> 24 2.313229e-002
<MEAN> 39
 -2.034146e-001 -3.879506e+000 -1.007033e+000 -7.060444e+000 -7.911300e+000 -2.138247e+000 -1.970605e+001 -9.016024e+000 -8.445733e-001 8.216955e+000 3.974303e+000 -6.658347e+000 6.929395e+001 4.911494e-001 -1.834445e-001 6.757098e-001 6.010193e-001 1.301660e-001 5.131992e-001 -4.381329e-001 8.580709e-001 8.426237e-001 6.972993e-001 1.859467e-001 1.640523e-001 6.306652e-001 -2.368520e-001 2.404749e-001 1.171376e-001 -1.028003e-002 2.625982e-001 -5.840261e-002 9.331825e-001 8.958051e-001 1.948810e-001 -2.576008e-001 -2.278738e-001 6.304923e-001 6.647840e-003
<VARIANCE> 39
 7.478115e+000 2.230697e+001 2.690908e+001 5.083622e+001 4.304729e+001 4.140382e+001 4.682272e+001 4.609369e+001 5.786750e+001 3.664904e+001 4.205632e+001 2.912380e+001 1.342709e+001 2.217781e+000 2.166320e+000 2.873873e+000 6.699785e+000 4.628462e+000 7.053946e+000 5.549675e+000 5.683914e+000 6.107524e+000 3.762880e+000 4.198699e+000 3.190196e+000 1.778959e+000 2.400091e-001 3.276567e-001 4.241019e-001 8.473154e-001 8.590776e-001 6.867087e-001 9.282014e-001 7.559601e-001 9.483517e-001 6.298881e-001 8.355284e-001 5.340059e-001 3.173696e-001
<GCONST> 1.273970e+002
<MIXTURE> 25 2.076007e-002
<MEAN> 39
 -5.447641e-002 7.298220e-001 2.482190e+000 -1.523860e+000 -9.007575e+000 -7.357931e+000 -1.134072e+001 -2.806213e+000 -1.712074e+000 3.924392e+000 1.012311e+000 -6.736161e+000 6.284024e+001 -6.972387e-002 1.414431e-001 1.665065e-001 4.810221e-001 5.580193e-001 3.838519e-001 8.106824e-001 3.760902e-001 6.420989e-001 -9.878474e-002 3.912345e-001 6.071067e-001 -5.605724e-002 -4.217463e-001 -4.096878e-001 3.102374e-001 -6.131443e-001 9.806658e-002 -1.789223e-002 4.861981e-002 4.602563e-001 3.344223e-003 2.486041e-001 1.511323e-001 4.822914e-001 8.451399e-001
<VARIANCE> 39
 6.046091e+000 1.548970e+001 2.107004e+001 1.990429e+001 2.601230e+001 2.418681e+001 2.931925e+001 2.775716e+001 3.407178e+001 2.534900e+001 2.970362e+001 2.350734e+001 1.040439e+001 1.010380e+000 1.513449e+000 2.354377e+000 2.520200e+000 2.375066e+000 2.862643e+000 3.049441e+000 3.005222e+000 3.077603e+000 1.828099e+000 2.231152e+000 2.334596e+000 2.262259e+000 2.133784e-001 2.615753e-001 4.915889e-001 3.314569e-001 5.798107e-001 4.524834e-001 5.761183e-001 7.436559e-001 6.489955e-001 4.324147e-001 5.067997e-001 3.558408e-001 2.447784e-001
<GCONST> 1.103085e+002
<MIXTURE> 26 1.533767e-002
<MEAN> 39
 -8.691569e+000 -2.786808e+000 -7.971520e+000 -6.047554e+000 -6.866819e+000 -5.834401e+000 -6.300568e+000 -3.292221e+000 -1.730608e+000 -1.629509e+000 -2.011510e+000 -1.666956e+000 4.955170e+001 2.149781e-002 6.464712e-002 6.665926e-002 1.325816e-001 1.792736e-001 2.646744e-001 3.865140e-001 3.302718e-001 2.542942e-001 2.003884e-001 2.351329e-001 2.478292e-001 -1.630765e-002 3.095647e-002 7.556544e-002 1.386829e-001 2.007771e-001 2.132901e-001 3.181782e-001 3.507332e-001 3.298638e-001 2.960368e-001 3.056149e-001 2.461597e-001 1.776348e-001 2.860162e-002
<VARIANCE> 39
 2.143472e+000 4.522730e+000 6.414788e+000 5.444446e+000 7.963680e+000 8.650055e+000 7.708014e+000 9.629294e+000 1.133550e+001 1.075977e+001 1.281321e+001 1.011033e+001 1.232167e+000 1.337216e-001 2.621480e-001 3.871218e-001 6.005834e-001 7.476821e-001 9.996541e-001 1.067919e+000 1.167841e+000 1.221049e+000 1.300196e+000 1.177137e+000 9.051853e-001 5.101689e-002 2.085161e-002 4.963487e-002 6.716756e-002 1.096434e-001 1.572471e-001 1.752187e-001 1.584510e-001 2.113913e-001 2.519745e-001 2.267414e-001 2.197204e-001 2.001676e-001 7.518917e-003
<GCONST> 5.893898e+001
<MIXTURE> 27 1.147345e-002
<MEAN> 39
 -8.016157e+000 1.416414e+000 1.780211e+001 -7.447120e+000 -2.110409e+001 -7.820340e+000 -1.179472e+001 -4.416092e+000 -1.119948e+001 3.791224e+000 5.731014e+000 -1.036173e+001 6.947198e+001 6.202973e-001 3.607896e-001 -1.426329e-001 6.044840e-001 3.544746e-001 2.981145e-001 6.132789e-001 5.681517e-001 4.049053e-001 4.384029e-001 3.716893e-001 1.994307e-001 -7.274541e-002 5.998556e-002 1.559562e-001 -1.001988e+000 5.352150e-001 1.388127e+000 -8.274387e-002 6.949068e-001 2.045127e-001 1.005621e+000 -4.325488e-002 -2.774723e-001 7.344537e-001 -3.658765e-001
<VARIANCE> 39
 8.117614e+000 1.765705e+001 2.539750e+001 2.668992e+001 2.456944e+001 3.320085e+001 3.016807e+001 2.382293e+001 3.133020e+001 2.921141e+001 2.677614e+001 2.151362e+001 7.827601e+000 1.310924e+000 2.029902e+000 3.791239e+000 3.328234e+000 4.886299e+000 3.832068e+000 4.074331e+000 2.504869e+000 2.675481e+000 2.079355e+000 2.227821e+000 2.817634e+000 9.644172e-001 3.397600e-001 2.621014e-001 4.321317e-001 4.019603e-001 4.772217e-001 5.587744e-001 9.540868e-001 4.108457e-001 5.848702e-001 4.399166e-001 4.236365e-001 4.766380e-001 1.231837e-001
<GCONST> 1.124806e+002
<MIXTURE> 28 1.587836e-002
<MEAN> 39
 -3.440250e+000 -1.233227e+000 -3.496350e+000 -5.730232e+000 -3.999774e+000 -3.295465e+000 -7.685171e+000 -1.517700e+000 3.012400e+000 5.765289e+000 8.600414e-002 -1.934304e+000 6.004236e+001 1.557104e-001 5.142779e-001 8.451280e-002 6.748775e-001 -5.000550e-002 3.372453e-001 6.442690e-001 -4.197061e-003 2.700689e-002 -1.498366e-001 6.038747e-001 1.915256e-001 -9.054600e-001 -2.096175e-002 -9.854010e-002 1.503189e-001 -1.172691e-001 1.950975e-002 1.252093e-002 9.962050e-002 2.346248e-001 -2.136403e-002 2.429665e-002 -7.960971e-002 9.329752e-002 4.175571e-001
<VARIANCE> 39
 2.642551e+001 1.378557e+001 2.576855e+001 2.896467e+001 2.338913e+001 4.098314e+001 4.768345e+001 4.118941e+001 3.650098e+001 2.960341e+001 2.697552e+001 1.820228e+001 2.979242e+001 6.958682e-001 9.514028e-001 1.462710e+000 1.846701e+000 1.586543e+000 1.630721e+000 2.076336e+000 2.038231e+000 2.484977e+000 1.914893e+000 2.006135e+000 1.630253e+000 9.904426e-001 9.857205e-002 1.270933e-001 1.823247e-001 2.359184e-001 2.838457e-001 2.509099e-001 3.463975e-001 3.325045e-001 3.855793e-001 3.419913e-001 3.342845e-001 2.660278e-001 1.523052e-001
<GCONST> 1.022673e+002
<MIXTURE> 29 7.863255e-003
<MEAN> 39
 -6.971674e+000 -1.766191e-001 1.402244e+001 -4.117510e+000 -1.470999e+001 -1.518842e+001 -9.292928e+000 -3.173303e+000 -8.240346e+000 2.646336e+000 4.424292e+000 -2.736285e+000 6.965345e+001 1.669089e+000 -4.746622e-001 2.149754e+000 -5.933186e-001 -1.880352e+000 1.726823e-001 -1.719755e+000 1.034608e+000 -1.423692e+000 9.428132e-001 1.353166e+000 -5.583244e-001 1.299678e+000 -3.774225e-001 2.698581e-002 -7.840563e-001 1.354925e-003 7.218236e-001 7.374487e-001 5.627097e-001 3.408011e-001 9.214026e-001 1.513176e-001 -2.467934e-001 1.702222e-001 -2.796541e-001
<VARIANCE> 39
 7.152476e+000 2.064943e+001 3.159375e+001 2.271339e+001 2.265058e+001 2.080741e+001 3.120634e+001 1.820147e+001 2.687763e+001 1.428699e+001 1.547530e+001 2.086327e+001 1.095867e+001 3.231899e+000 2.127915e+000 3.668054e+000 2.111195e+000 3.143826e+000 3.822084e+000 3.477829e+000 3.205867e+000 3.238281e+000 1.509167e+000 1.749278e+000 1.954070e+000 1.036357e+000 5.543056e-001 4.091841e-001 4.204739e-001 3.847890e-001 4.790086e-001 3.730105e-001 6.476207e-001 4.537587e-001 4.515260e-001 2.615622e-001 3.285297e-001 2.521205e-001 1.408003e-001
<GCONST> 1.087526e+002
<MIXTURE> 30 6.249325e-003
<MEAN> 39
 -1.131158e+001 5.143645e+000 1.235069e+001 -4.064592e+000 -9.434247e+000 -9.087200e+000 -4.893241e+000 -8.119421e+000 -4.825905e+000 5.836627e-001 4.319574e-001 -2.527203e+000 6.643761e+001 3.713298e+000 1.567258e+000 3.199873e+000 2.394783e-001 -2.509256e+000 -7.480186e-001 -2.799777e+000 -8.094767e-002 -2.297865e+000 1.261035e-001 1.216094e+000 -1.358264e+000 1.030999e+000 -7.437758e-002 -5.780813e-001 -5.061969e-001 -2.118069e-001 3.963777e-002 1.418614e-001 5.946369e-002 7.202897e-001 4.226412e-001 3.542342e-001 3.873048e-001 8.130239e-002 1.508663e-001
<VARIANCE> 39
 2.917202e+001 1.538432e+001 4.813804e+001 2.060106e+001 4.472619e+001 2.780982e+001 3.135837e+001 1.620219e+001 2.127341e+001 1.532527e+001 1.508348e+001 2.479795e+001 1.317566e+001 2.000887e+000 2.920502e+000 3.972546e+000 3.016297e+000 3.829085e+000 3.037585e+000 2.634590e+000 2.564047e+000 3.026974e+000 1.758420e+000 2.044580e+000 3.297472e+000 1.163539e+000 5.216293e-001 2.994858e-001 4.300252e-001 3.837210e-001 6.073589e-001 4.107722e-001 6.835453e-001 3.950353e-001 4.256985e-001 2.647296e-001 3.120892e-001 3.499289e-001 1.602525e-001
<GCONST> 1.120896e+002
<MIXTURE> 31 1.086580e-002
<MEAN> 39
 -1.352792e+001 6.014753e+000 5.230862e+000 -2.863981e+000 -3.051371e+000 -1.138821e+001 -3.611528e+000 -5.426650e+000 3.273204e+000 8.664987e-001 1.144141e+000 -3.654824e-001 6.796362e+001 -3.644064e+000 3.320043e-001 -8.135092e-001 1.366595e+000 1.704579e+000 4.286857e-001 3.035154e+000 6.527321e-001 2.035090e+000 -6.249577e-001 1.076985e+000 9.581821e-001 4.996234e-001 1.399339e-001 -5.203114e-001 -1.112887e-001 -4.554784e-001 -3.095697e-001 4.553370e-001 -4.356579e-001 5.322285e-001 -3.648660e-001 4.762591e-001 1.758011e-002 1.820900e-002 2.772479e-001
<VARIANCE> 39
 2.013083e+001 2.509958e+001 5.521643e+001 2.867954e+001 4.504176e+001 4.165085e+001 4.805194e+001 2.880087e+001 3.740187e+001 2.394605e+001 1.689081e+001 1.900609e+001 8.050984e+000 1.424507e+000 2.417348e+000 3.792596e+000 2.480789e+000 3.469727e+000 4.350491e+000 2.816112e+000 3.084597e+000 2.765584e+000 2.148844e+000 3.077771e+000 2.909342e+000 5.507053e-001 3.113895e-001 2.579020e-001 2.825571e-001 3.342814e-001 4.230404e-001 5.377997e-001 6.322704e-001 4.286665e-001 4.617585e-001 3.793737e-001 4.065281e-001 3.733418e-001 6.581012e-002
<GCONST> 1.124103e+002
<MIXTURE> 32 8.471675e-003
<MEAN> 39
 -9.106525e+000 -1.132989e+000 -1.838737e+000 -4.257560e+000 -1.080066e+000 -1.004144e+001 -7.934996e+000 -4.505813e-002 6.780788e+000 6.158699e+000 -1.495826e+000 -1.984131e+000 6.534809e+001 2.605447e-002 3.855287e-001 -5.749263e-001 5.037529e-001 7.107362e-001 9.609065e-001 7.579931e-001 3.188399e-001 7.723966e-001 2.912136e-001 6.685342e-001 5.390298e-002 -4.470421e-001 3.822640e-001 5.882382e-004 1.032779e-001 -2.935351e-001 -3.353713e-001 7.146901e-001 1.092144e-001 1.177474e-001 -5.219610e-001 5.986442e-002 2.811912e-001 2.282780e-001 1.644398e-001
<VARIANCE> 39
 3.749388e+001 3.248860e+001 3.236451e+001 4.542461e+001 4.879126e+001 5.195792e+001 4.514701e+001 5.470303e+001 3.746684e+001 3.615368e+001 5.347535e+001 2.834401e+001 1.954278e+001 4.735733e+000 1.966714e+000 2.347343e+000 2.546242e+000 3.391159e+000 4.173672e+000 2.975201e+000 3.853807e+000 3.583451e+000 2.311352e+000 3.346858e+000 1.844487e+000 3.168186e+000 2.614658e-001 4.688109e-001 4.114909e-001 6.095093e-001 5.804037e-001 5.651032e-001 7.029037e-001 7.531589e-001 6.721771e-001 5.098168e-001 6.844174e-001 4.717139e-001 2.988677e-001
<GCONST> 1.247868e+002
<MIXTURE> 33 2.367191e-002
<MEAN> 39
 -9.817815e+000 -3.643991e+000 -8.684408e+000 -5.603154e+000 -6.016974e+000 -3.295883e+000 -3.030689e+000 -7.291461e-001 -1.888797e-001 -6.299448e-001 -1.801878e+000 -2.209214e+000 4.846186e+001 -5.375487e-002 -5.610485e-002 -9.937787e-002 -1.016497e-001 -1.047916e-001 -5.557883e-002 -1.190696e-001 -9.026657e-002 -1.235480e-001 -1.212354e-002 -4.488614e-002 -7.300834e-002 -5.351081e-002 -5.039545e-003 -2.297733e-003 -1.744926e-002 -7.652257e-002 -1.329261e-001 -2.283286e-001 -2.952178e-001 -2.853415e-001 -2.227856e-001 -1.685266e-001 -1.574035e-001 -1.363092e-001 6.357957e-003
<VARIANCE> 39
 1.017090e+000 2.781634e+000 4.210753e+000 4.669210e+000 7.400462e+000 8.701016e+000 7.713724e+000 9.873487e+000 1.006902e+001 1.015270e+001 1.025517e+001 8.710834e+000 6.119187e-001 9.445429e-002 2.217892e-001 4.284739e-001 5.533449e-001 7.859859e-001 9.387966e-001 1.062880e+000 1.100581e+000 1.187088e+000 1.117521e+000 1.067605e+000 9.377330e-001 2.994713e-002 1.902381e-002 3.786710e-002 7.377944e-002 1.005830e-001 1.532307e-001 1.593125e-001 1.852884e-001 1.993130e-001 2.255033e-001 2.226156e-001 2.083659e-001 1.987973e-001 6.030442e-003
<GCONST> 5.370815e+001
<MIXTURE> 34 2.352257e-002
<MEAN> 39
 -1.139311e+001 9.608794e-001 -4.573635e+000 -5.580947e+000 -5.790798e+000 -7.969172e+000 -5.064888e+000 -2.559214e+000 -9.280086e-003 4.614855e-001 -1.399801e+000 -3.095187e+000 5.535390e+001 -2.932394e-001 -5.047008e-001 -6.797558e-001 -1.159993e-001 -2.502883e-001 -7.315488e-002 3.160515e-002 -1.992111e-001 -2.328112e-001 -4.890912e-001 -2.299711e-001 -1.196176e-001 -9.728587e-001 -4.779259e-001 -6.017447e-001 1.910549e-002 -3.957649e-001 -2.732762e-001 -5.273846e-001 -3.585991e-001 -3.433982e-001 -2.043527e-001 -3.688360e-002 -8.868526e-002 -6.696247e-003 8.692607e-001
<VARIANCE> 39
 4.308558e+001 2.439948e+001 3.500243e+001 2.079334e+001 2.090252e+001 3.168579e+001 2.467878e+001 1.984122e+001 2.539606e+001 1.802514e+001 1.617945e+001 1.389776e+001 1.271944e+001 3.508349e+000 2.149960e+000 1.751300e+000 1.430035e+000 1.625579e+000 2.537298e+000 2.162440e+000 1.724002e+000 2.348572e+000 1.534559e+000 1.407580e+000 1.327197e+000 3.377419e+000 3.417780e-001 3.750045e-001 3.163365e-001 2.974323e-001 3.591884e-001 4.612111e-001 4.085604e-001 3.395115e-001 4.255959e-001 3.512329e-001 3.200645e-001 2.627211e-001 2.986699e-001
<GCONST> 1.070190e+002
<MIXTURE> 35 2.313229e-002
<MEAN> 39
 -1.297260e+000 -5.768716e+000 -3.081991e+000 -9.912425e+000 -1.053572e+001 -4.712079e+000 -2.244313e+001 -1.173172e+001 -3.887401e+000 5.795417e+000 1.380269e+000 -8.817005e+000 6.782824e+001 -1.045392e-001 -7.721815e-001 -2.390236e-003 -4.343384e-001 -7.303884e-001 -5.491715e-001 -1.380443e+000 -9.556752e-002 -1.459125e-001 -7.862651e-002 -6.336824e-001 -5.503925e-001 9.715474e-002 -4.328149e-001 1.150969e-002 -1.433548e-001 -3.784789e-001 -1.081475e-001 -3.898742e-001 5.478097e-001 5.480213e-001 -1.946524e-001 -5.750628e-001 -5.935028e-001 3.381895e-001 -2.186944e-001
<VARIANCE> 39
 7.478115e+000 2.230697e+001 2.690908e+001 5.083622e+001 4.304729e+001 4.140382e+001 4.682272e+001 4.609369e+001 5.786750e+001 3.664904e+001 4.205632e+001 2.912380e+001 1.342709e+001 2.217781e+000 2.166320e+000 2.873873e+000 6.699785e+000 4.628462e+000 7.053946e+000 5.549675e+000 5.683914e+000 6.107524e+000 3.762880e+000 4.198699e+000 3.190196e+000 1.778959e+000 2.400091e-001 3.276567e-001 4.241019e-001 8.473154e-001 8.590776e-001 6.867087e-001 9.282014e-001 7.559601e-001 9.483517e-001 6.298881e-001 8.355284e-001 5.340059e-001 3.173696e-001
<GCONST> 1.273970e+002
<MIXTURE> 36 2.230971e-002
<MEAN> 39
 4.683081e-001 -1.657620e+000 -6.489124e+000 -1.952655e+001 -9.806216e+000 2.053484e+000 -1.582170e+001 -1.017662e+001 -8.376226e+000 3.546875e+000 5.132139e-002 -4.721913e-001 6.723392e+001 1.916092e-001 -7.121105e-002 -1.608111e-001 -1.332618e+000 -4.224655e-001 3.223937e-001 -1.149469e+000 -3.241186e-001 -6.163176e-001 -5.614424e-002 -1.739397e-001 -3.048661e-001 -8.650024e-002 -5.479432e-001 -2.758713e-001 -2.813900e-002 6.010313e-001 1.763461e-001 -7.263315e-001 -6.525651e-003 1.815967e-001 4.035360e-001 -2.004302e-001 -1.935201e-001 -5.762000e-001 -3.202124e-001
<VARIANCE> 39
 5.866084e+000 1.489223e+001 1.712654e+001 3.918690e+001 3.609102e+001 2.860360e+001 4.080405e+001 3.228506e+001 4.174516e+001 4.692745e+001 2.637637e+001 2.712623e+001 1.007952e+001 1.437876e+000 2.280181e+000 1.868410e+000 5.592590e+000 3.972443e+000 3.475896e+000 4.289474e+000 3.205801e+000 4.026216e+000 3.817329e+000 2.711237e+000 3.054935e+000 1.746791e+000 2.396456e-001 2.685071e-001 3.376212e-001 6.206990e-001 5.528424e-001 4.976539e-001 7.002338e-001 5.230704e-001 6.465409e-001 5.752200e-001 4.771995e-001 4.244243e-001 1.969089e-001
<GCONST> 1.166153e+002
<MIXTURE> 37 2.219862e-002
<MEAN> 39
 -2.434853e+001 -2.609713e+000 -7.753112e-001 -6.162210e+000 -7.328156e+000 -1.025622e+001 -2.788073e+000 -4.413545e+000 2.493387e+000 2.531523e-001 -8.175368e-001 -1.478499e+000 6.623058e+001 2.245471e-001 -3.211639e-001 -2.426523e-001 -3.597002e-002 -5.301368e-001 -3.895089e-002 -4.033811e-001 -1.668019e-001 -5.611593e-001 -2.098536e-001 -4.794188e-001 -3.435465e-001 -9.568457e-001 7.394274e-001 9.160136e-002 -4.027203e-002 -1.508583e-001 -2.062255e-001 -2.704391e-001 -5.564026e-001 -2.149387e-001 -3.890387e-001 -1.193586e-001 -8.650203e-002 -1.764086e-001 -2.954913e-001
<VARIANCE> 39
 1.538839e+001 4.037526e+001 7.211160e+001 2.835346e+001 6.026459e+001 3.229285e+001 3.106521e+001 2.317785e+001 2.299145e+001 1.883290e+001 1.530444e+001 1.394241e+001 1.247491e+001 3.610817e+000 1.288688e+000 1.493979e+000 1.374781e+000 1.602412e+000 2.254816e+000 2.172175e+000 1.589525e+000 1.782312e+000 1.424207e+000 1.430771e+000 1.225268e+000 1.524842e+000 2.786489e-001 2.731486e-001 2.745891e-001 2.567523e-001 3.315494e-001 4.508854e-001 4.661482e-001 3.362640e-001 3.594528e-001 2.771229e-001 2.971200e-001 2.734928e-001 1.458128e-001
<GCONST> 1.048149e+002
<MIXTURE> 38 2.111262e-002
<MEAN> 39
 -2.604656e+001 1.969633e+000 -6.271519e+000 -8.197106e+000 -3.063421e+000 -1.453067e+001 -2.330950e+000 -3.789554e+000 2.712404e+000 -1.447303e+000 1.043705e+000 5.697901e-001 6.861942e+001 -1.113658e+000 -7.316988e-001 -8.052777e-001 -3.929820e-001 -2.162912e-001 -5.617601e-001 1.245562e-001 1.877807e-001 -2.120364e-001 -2.492430e-001 -3.492576e-001 6.247044e-002 -1.068318e-001 9.380182e-001 -2.145781e-001 3.020260e-001 -6.392951e-002 -3.871289e-001 3.966975e-002 -6.398705e-001 -2.480026e-001 -3.477007e-001 9.242611e-002 -4.000172e-001 -3.376871e-001 -3.632176e-001
<VARIANCE> 39
 9.664151e+000 2.061784e+001 2.765897e+001 2.355346e+001 2.514554e+001 2.451867e+001 3.686108e+001 2.445984e+001 2.626030e+001 2.094647e+001 1.347498e+001 1.894042e+001 4.724974e+000 2.885186e+000 1.260812e+000 2.572983e+000 1.713795e+000 1.937273e+000 2.434976e+000 2.159807e+000 2.049793e+000 2.021889e+000 1.810061e+000 1.681839e+000 1.731866e+000 7.408742e-001 2.634093e-001 2.533305e-001 3.229670e-001 3.860019e-001 4.126667e-001 4.489312e-001 5.047885e-001 4.321573e-001 4.000994e-001 3.434246e-001 3.218060e-001 3.420388e-001 1.506922e-001
<GCONST> 1.038832e+002
<MIXTURE> 39 2.111250e-002
<MEAN> 39
 -1.827095e+001 -7.809790e+000 -5.602093e+000 -1.067956e+001 -7.582818e+000 -1.133276e+001 -5.644112e+000 -6.028738e+000 -2.313907e-001 1.792915e+000 5.494529e-002 -6.783677e-001 6.523524e+001 -1.407943e+000 -4.683644e-001 2.370240e-001 -5.543602e-001 -5.082749e-001 -8.764648e-001 -3.697895e-001 -7.088809e-001 -1.971931e-001 -3.960630e-001 -2.806447e-001 -4.554158e-002 1.372173e+000 8.018351e-001 5.859801e-001 2.857619e-001 1.412550e-001 -4.658574e-001 -2.109617e-002 -5.888777e-001 3.256176e-002 -3.775793e-001 -1.823296e-001 -2.650272e-001 -4.802670e-001 -6.835241e-001
<VARIANCE> 39
 4.057555e+001 2.285374e+001 6.197632e+001 3.122009e+001 5.095468e+001 4.921941e+001 3.227769e+001 3.305839e+001 3.253350e+001 2.717136e+001 1.920932e+001 1.641011e+001 1.770731e+001 6.241118e+000 2.771628e+000 3.374599e+000 3.310910e+000 3.686851e+000 4.395442e+000 4.025635e+000 3.445533e+000 3.463079e+000 2.387916e+000 2.121297e+000 2.074857e+000 4.424024e+000 5.392946e-001 4.462799e-001 9.216444e-001 6.374617e-001 1.012486e+000 9.149559e-001 7.258670e-001 8.036982e-001 6.043671e-001 5.142000e-001 5.087792e-001 4.235183e-001 4.422927e-001
<GCONST> 1.259587e+002
<MIXTURE> 40 2.097560e-002
<MEAN> 39
 -3.260734e+000 -9.484702e+000 -6.160896e+000 -1.376187e+001 -9.562599e+000 -7.258016e+000 -1.971150e+001 -1.522347e-001 3.278646e+000 4.949666e+000 -7.878260e+000 -6.560030e+000 7.235757e+001 -5.161633e-002 -9.324858e-001 -1.077124e+000 -1.584922e+000 3.386026e-001 1.683271e-002 -7.323947e-001 1.031031e+000 -1.582133e-001 2.285828e-001 -1.430243e+000 -3.378227e-001 5.612724e-001 -2.209764e-001 3.787956e-001 1.077157e-001 1.653287e-001 -3.858335e-002 -2.303384e-001 3.596664e-001 -6.185727e-001 -6.451703e-001 -2.732770e-001 2.762988e-001 2.868049e-002 -5.654050e-001
<VARIANCE> 39
 6.148629e+000 1.744999e+001 2.560699e+001 3.127281e+001 3.442959e+001 5.480436e+001 4.556723e+001 4.482528e+001 3.042799e+001 3.367394e+001 3.365895e+001 1.967814e+001 1.007630e+001 8.549557e-001 1.575552e+000 2.416527e+000 2.182081e+000 3.233637e+000 5.033034e+000 3.776716e+000 4.553234e+000 3.933055e+000 2.428172e+000 2.746170e+000 2.623522e+000 1.081015e+000 1.742966e-001 1.887968e-001 3.028170e-001 4.509446e-001 4.929321e-001 5.876141e-001 5.511655e-001 6.869329e-001 5.389087e-001 4.753989e-001 4.647631e-001 3.902683e-001 1.702722e-001
<GCONST> 1.133904e+002
<MIXTURE> 41 2.076007e-002
<MEAN> 39
 -1.038028e+000 -8.444563e-001 6.461056e-001 -3.308428e+000 -1.104767e+001 -9.325134e+000 -1.350661e+001 -4.913615e+000 -4.046916e+000 1.910480e+000 -1.167730e+000 -8.675535e+000 6.155001e+001 -4.717945e-001 -3.506461e-001 -4.472527e-001 -1.539835e-001 -5.843067e-002 -2.929220e-001 1.121764e-001 -3.173329e-001 -5.962506e-002 -6.396136e-001 -2.062472e-001 -4.068702e-003 -6.576896e-001 -6.065179e-001 -6.142656e-001 2.978380e-002 -8.434335e-001 -2.065146e-001 -2.869598e-001 -2.549900e-001 1.153143e-001 -3.188968e-001 -1.442890e-002 -1.336271e-001 2.436818e-001 6.472396e-001
<VARIANCE> 39
 6.046091e+000 1.548970e+001 2.107004e+001 1.990429e+001 2.601230e+001 2.418681e+001 2.931925e+001 2.775716e+001 3.407178e+001 2.534900e+001 2.970362e+001 2.350734e+001 1.040439e+001 1.010380e+000 1.513449e+000 2.354377e+000 2.520200e+000 2.375066e+000 2.862643e+000 3.049441e+000 3.005222e+000 3.077603e+000 1.828099e+000 2.231152e+000 2.334596e+000 2.262259e+000 2.133784e-001 2.615753e-001 4.915889e-001 3.314569e-001 5.798107e-001 4.524834e-001 5.761183e-001 7.436559e-001 6.489955e-001 4.324147e-001 5.067997e-001 3.558408e-001 2.447784e-001
<GCONST> 1.103085e+002
<MIXTURE> 42 1.977892e-002
<MEAN> 39
 -2.008239e+000 -9.090524e+000 -1.155337e+001 -2.003017e+001 -1.812134e+000 1.416533e+000 -1.726363e+001 4.335654e-002 2.260553e+000 5.053937e+000 -9.063548e+000 -6.269117e+000 7.185924e+001 -2.402047e-002 -3.877984e-002 -2.352417e-001 -3.425493e-001 7.497340e-003 -8.046162e-002 -3.001263e-001 -2.249021e-001 -3.108318e-001 -1.624672e-001 -3.637086e-001 -1.055726e-002 -2.758189e-001 -4.250100e-002 1.049161e-001 1.551242e-001 1.841022e-001 -3.629331e-001 -3.084454e-001 -7.039209e-002 -2.608837e-001 -2.085592e-001 -1.207556e-001 7.442509e-002 6.042384e-003 -2.214370e-001
<VARIANCE> 39
 3.748044e+000 1.919292e+001 1.294457e+001 2.612247e+001 3.135761e+001 4.626037e+001 3.573869e+001 3.524835e+001 2.309029e+001 2.605944e+001 3.771420e+001 2.226466e+001 9.912070e+000 2.047920e-001 6.374676e-001 8.429128e-001 1.152604e+000 1.694434e+000 1.959418e+000 1.550584e+000 1.637486e+000 1.433065e+000 1.226472e+000 1.519383e+000 1.100130e+000 2.065021e-001 3.750105e-002 1.022017e-001 1.351531e-001 1.801051e-001 2.025586e-001 2.131755e-001 2.495655e-001 2.783070e-001 2.791702e-001 2.109941e-001 2.449459e-001 2.112853e-001 5.592522e-002
<GCONST> 8.742255e+001
<MIXTURE> 43 1.927851e-002
<MEAN> 39
 -7.634440e+000 -1.664034e+000 -4.928845e+000 -7.796178e+000 -9.266498e+000 -7.976185e+000 -7.946713e+000 -3.174981e+000 -1.465136e+000 1.180746e+000 -4.589866e-001 -3.094693e+000 5.370742e+001 -2.035093e+000 -2.003252e+000 -1.110103e+000 -1.020601e+000 3.721995e-001 -1.047116e+000 1.652542e-002 -1.001841e+000 -1.251707e-001 -3.457850e-001 -5.040496e-001 3.357093e-001 1.461980e+000 -4.079373e-001 -3.035620e-001 1.500733e-001 -4.214451e-001 -4.412102e-002 -3.347938e-001 -3.739556e-001 -3.988144e-001 -2.735610e-001 3.531475e-002 -2.041720e-001 -2.006238e-001 1.175579e+000
<VARIANCE> 39
 1.923986e+001 1.327067e+001 3.375813e+001 2.549658e+001 2.823275e+001 3.256574e+001 3.212245e+001 2.371839e+001 3.278596e+001 2.186432e+001 1.962773e+001 1.776491e+001 9.883678e+000 2.820546e+000 2.266741e+000 4.131692e+000 3.151993e+000 4.183570e+000 4.476125e+000 3.248236e+000 3.018666e+000 3.309244e+000 2.688668e+000 2.668948e+000 2.156881e+000 3.819002e+000 4.709114e-001 3.009680e-001 4.408284e-001 4.688674e-001 6.337132e-001 6.176288e-001 6.048338e-001 4.733759e-001 6.449426e-001 4.557414e-001 4.236997e-001 3.622337e-001 2.649443e-001
<GCONST> 1.169220e+002
<MIXTURE> 44 1.835313e-002
<MEAN> 39
 -5.513332e+000 -7.663435e+000 8.475459e+000 -8.998178e+000 -1.789703e+001 -1.729131e+001 -1.530659e+001 1.025394e+000 -1.011610e+001 2.685939e+000 1.714290e+000 -3.039734e+000 7.110715e+001 9.212002e-003 -1.918405e-001 -4.901235e-001 -3.087444e-001 -4.217241e-001 -3.874744e-001 -2.005997e-001 -5.680946e-002 -4.559860e-001 1.367636e-001 -4.388087e-001 -4.227909e-001 -5.684177e-001 -2.197919e-001 4.463490e-001 -6.915762e-001 1.783480e-001 5.540352e-001 3.986612e-001 2.196474e-001 -6.939480e-001 4.782939e-001 -2.222509e-001 -4.092579e-001 -3.096517e-001 -6.963553e-001
<VARIANCE> 39
 4.920751e+000 1.541714e+001 2.683236e+001 2.399328e+001 2.057775e+001 2.623181e+001 4.318739e+001 2.413999e+001 4.195124e+001 2.182404e+001 2.372863e+001 1.888381e+001 8.765281e+000 1.007532e+000 2.300030e+000 3.908370e+000 2.101615e+000 3.869975e+000 2.106407e+000 3.854469e+000 3.371547e+000 4.319817e+000 2.449818e+000 2.360005e+000 1.904049e+000 1.647635e+000 2.926372e-001 2.472288e-001 3.694808e-001 3.910092e-001 3.631620e-001 4.606164e-001 7.451106e-001 5.317423e-001 5.940707e-001 4.138816e-001 3.273793e-001 3.233585e-001 1.485223e-001
<GCONST> 1.099493e+002
<MIXTURE> 45 1.718285e-002
<MEAN> 39
 -1.571924e+001 -6.316117e+000 -3.453484e+000 -6.062551e+000 -5.666080e+000 -1.040215e+001 -5.051517e+000 -5.725565e+000 3.038478e-002 2.579271e-001 -1.813476e+000 -1.932659e+000 6.410013e+001 9.789650e-001 -3.863044e-001 5.919735e-001 -1.078059e+000 -1.248656e+000 -5.189753e-001 -2.329998e+000 -1.479405e+000 -1.535182e+000 -6.560051e-002 -5.113206e-001 -9.232759e-001 1.319001e+000 7.424183e-001 3.740725e-001 1.350246e-001 -7.174111e-001 -8.426973e-001 -8.993983e-003 -1.152669e+000 -1.003236e-001 -6.283512e-001 1.651260e-001 6.748703e-002 -5.107683e-001 -1.276086e-001
<VARIANCE> 39
 5.324044e+001 2.678214e+001 5.026802e+001 3.585495e+001 4.431992e+001 4.337889e+001 4.082383e+001 3.544147e+001 3.159076e+001 2.749093e+001 2.048895e+001 2.059080e+001 2.006599e+001 6.792955e+000 5.027516e+000 6.111091e+000 4.575050e+000 5.381553e+000 5.626577e+000 5.013989e+000 3.488889e+000 4.246097e+000 3.049464e+000 3.123572e+000 3.006815e+000 3.981569e+000 3.523196e-001 4.455439e-001 5.856560e-001 6.547247e-001 7.914889e-001 9.809345e-001 8.213210e-001 6.955565e-001 6.647031e-001 5.448626e-001 5.030786e-001 5.446079e-001 4.295498e-001
<GCONST> 1.296234e+002
<MIXTURE> 46 1.657682e-002
<MEAN> 39
 -3.845456e+000 -6.476309e+000 3.039125e+000 -1.016921e+001 -1.500045e+001 -1.157692e+001 -1.246275e+001 3.714142e-001 -6.398943e+000 2.988643e+000 -2.572608e+000 -4.481239e+000 6.817083e+001 -1.500714e-002 -7.240190e-002 -3.335013e-001 -1.753909e-001 -1.212815e-001 -2.039643e-001 1.499103e-002 -4.543172e-002 -2.001398e-001 -7.021809e-002 -5.992014e-001 -5.338392e-002 -2.921495e-001 -2.943340e-002 1.201226e-001 -2.039355e-001 -4.099911e-002 1.478691e-001 -6.869456e-002 -2.418699e-001 -2.994347e-001 3.699363e-002 -8.449651e-002 -1.091118e-001 -1.460854e-001 -1.758267e-001
<VARIANCE> 39
 8.516410e+000 2.077598e+001 2.878365e+001 3.549537e+001 2.691458e+001 5.748198e+001 4.229916e+001 5.437948e+001 4.142106e+001 2.081900e+001 3.684542e+001 3.210035e+001 2.409438e+001 1.754597e-001 6.188018e-001 1.332712e+000 8.359577e-001 1.606919e+000 9.933125e-001 1.348896e+000 1.265029e+000 1.497893e+000 1.159454e+000 1.376348e+000 1.084562e+000 2.064187e-001 3.950544e-002 8.712391e-002 1.720951e-001 1.807625e-001 2.475946e-001 1.803129e-001 2.342116e-001 2.728616e-001 2.321065e-001 2.019842e-001 1.888646e-001 2.177436e-001 4.657072e-002
<GCONST> 8.982941e+001
<MIXTURE> 47 1.590463e-002
<MEAN> 39
 -1.958011e+000 -6.716604e+000 -8.287168e+000 -1.676932e+001 -6.137306e+000 -3.090965e+000 -1.951874e+001 -2.787914e+000 5.501360e-001 6.733253e+000 -7.006630e+000 -5.668695e+000 7.012456e+001 1.653563e-001 9.928602e-001 4.954266e-001 1.238714e+000 -9.358276e-001 -6.602623e-001 3.085422e-001 -1.714825e+000 -1.034652e+000 -6.043823e-001 8.988948e-001 -1.421542e-001 -1.707193e+000 -1.906096e-001 6.680095e-002 1.454220e-001 3.068638e-001 -3.484638e-001 -3.967847e-001 2.575371e-001 -2.677229e-001 -2.698670e-001 -4.862846e-001 1.719362e-001 -1.918919e-001 -4.214293e-001
<VARIANCE> 39
 5.793755e+000 1.509442e+001 2.511816e+001 3.332996e+001 3.895778e+001 7.037023e+001 4.822546e+001 4.494574e+001 4.316319e+001 3.589045e+001 4.443810e+001 2.360205e+001 1.080375e+001 5.598983e-001 1.178666e+000 1.533361e+000 2.290093e+000 2.716257e+000 3.643195e+000 2.932790e+000 3.387608e+000 3.320948e+000 2.475129e+000 2.720524e+000 2.370756e+000 9.654057e-001 1.016682e-001 2.316735e-001 2.900971e-001 3.761221e-001 4.799080e-001 5.542641e-001 4.146657e-001 5.739096e-001 6.458048e-001 4.657423e-001 5.731224e-001 3.720942e-001 2.179744e-001
<GCONST> 1.115270e+002
<MIXTURE> 48 1.587836e-002
<MEAN> 39
 -5.496480e+000 -2.718385e+000 -5.526859e+000 -7.882986e+000 -5.934266e+000 -5.856189e+000 -1.044730e+001 -4.084860e+000 5.957582e-001 3.588928e+000 -1.991514e+000 -3.640870e+000 5.785906e+001 -1.779645e-001 1.241183e-001 -3.992574e-001 1.313041e-001 -5.538377e-001 -1.735535e-001 6.788915e-002 -5.752636e-001 -6.035455e-001 -7.033552e-001 3.732231e-002 -3.191999e-001 -1.303544e+000 -1.465465e-001 -2.411407e-001 -2.047913e-002 -3.115549e-001 -1.935989e-001 -1.878427e-001 -1.358017e-001 3.971986e-003 -2.697442e-001 -2.096235e-001 -3.108791e-001 -1.130140e-001 2.614519e-001
<VARIANCE> 39
 2.642551e+001 1.378557e+001 2.576855e+001 2.896467e+001 2.338913e+001 4.098314e+001 4.768345e+001 4.118941e+001 3.650098e+001 2.960341e+001 2.697552e+001 1.820228e+001 2.979242e+001 6.958682e-001 9.514028e-001 1.462710e+000 1.846701e+000 1.586543e+000 1.630721e+000 2.076336e+000 2.038231e+000 2.484977e+000 1.914893e+000 2.006135e+000 1.630253e+000 9.904426e-001 9.857205e-002 1.270933e-001 1.823247e-001 2.359184e-001 2.838457e-001 2.509099e-001 3.463975e-001 3.325045e-001 3.855793e-001 3.419913e-001 3.342845e-001 2.660278e-001 1.523052e-001
<GCONST> 1.022673e+002
<MIXTURE> 49 1.556945e-002
<MEAN> 39
 6.229165e-001 3.065325e+000 -4.661859e+000 -1.341304e+001 -9.611207e+000 -2.811241e+000 -1.197805e+001 -5.445106e+000 -8.174053e+000 -2.121650e+000 -1.713931e+000 -4.617610e+000 6.078354e+001 -3.407348e-001 9.156206e-002 2.709280e-002 3.287356e-001 5.774942e-002 -6.022325e-001 6.574339e-002 8.616698e-002 -7.681298e-002 -6.143289e-001 -1.957253e-001 -7.003894e-001 -7.742229e-001 -2.372953e-001 -4.077809e-001 -1.061371e-001 -5.303849e-002 -6.331789e-002 -6.032233e-002 -2.741583e-001 -2.704631e-001 9.588778e-002 2.211352e-001 5.013311e-002 -7.105330e-002 1.198981e-001
<VARIANCE> 39
 6.879381e+000 1.156170e+001 1.646200e+001 3.995344e+001 2.335444e+001 3.115638e+001 2.577207e+001 3.220000e+001 3.641687e+001 3.365681e+001 2.149399e+001 2.948775e+001 1.778361e+001 5.232233e-001 8.968565e-001 8.365389e-001 2.673173e+000 1.673420e+000 1.858516e+000 1.950968e+000 2.302002e+000 2.195556e+000 1.764144e+000 1.823655e+000 2.107034e+000 9.193676e-001 8.953449e-002 1.152135e-001 1.448943e-001 3.816922e-001 2.706809e-001 2.558478e-001 3.152397e-001 4.211869e-001 3.942114e-001 3.106593e-001 3.120222e-001 3.386635e-001 8.793108e-002
<GCONST> 9.865901e+001
<MIXTURE> 50 1.533767e-002
<MEAN> 39
 -9.277194e+000 -3.637476e+000 -8.984618e+000 -6.980887e+000 -7.995619e+000 -7.010840e+000 -7.411100e+000 -4.533465e+000 -3.077338e+000 -2.941593e+000 -3.443332e+000 -2.938826e+000 4.910768e+001 -1.247740e-001 -1.401544e-001 -1.822172e-001 -1.774077e-001 -1.666009e-001 -1.352564e-001 -2.684665e-002 -1.019950e-001 -1.877101e-001 -2.557162e-001 -1.988509e-001 -1.327357e-001 -1.066553e-001 -2.680387e-002 -1.355010e-002 3.501610e-002 6.832731e-002 5.467252e-002 1.507416e-001 1.915096e-001 1.459546e-001 9.524857e-002 1.151455e-001 5.866231e-002 -1.325622e-003 -6.083058e-003
<VARIANCE> 39
 2.143472e+000 4.522730e+000 6.414788e+000 5.444446e+000 7.963680e+000 8.650055e+000 7.708014e+000 9.629294e+000 1.133550e+001 1.075977e+001 1.281321e+001 1.011033e+001 1.232167e+000 1.337216e-001 2.621480e-001 3.871218e-001 6.005834e-001 7.476821e-001 9.996541e-001 1.067919e+000 1.167841e+000 1.221049e+000 1.300196e+000 1.177137e+000 9.051853e-001 5.101689e-002 2.085161e-002 4.963487e-002 6.716756e-002 1.096434e-001 1.572471e-001 1.752187e-001 1.584510e-001 2.113913e-001 2.519745e-001 2.267414e-001 2.197204e-001 2.001676e-001 7.518917e-003
<GCONST> 5.893898e+001
<MIXTURE> 51 1.426442e-002
<MEAN> 39
 -8.668656e+000 9.651952e-001 1.385431e+001 -1.151256e+001 -1.988512e+001 -7.761277e+000 -1.546370e+001 -5.076012e+000 -1.171711e+001 1.711253e+000 3.213717e+000 -1.209687e+001 6.758325e+001 -1.864110e-001 1.139431e-001 -1.247134e-001 -3.384017e-001 -6.419189e-001 1.718668e-001 -1.511046e-001 -5.238879e-001 4.175067e-003 -2.433705e-001 -3.686601e-001 -3.851200e-001 -2.556494e-001 5.829754e-002 -1.428784e-001 -4.225421e-001 1.997907e-001 1.223120e-001 -4.211283e-001 2.087394e-001 -7.352896e-002 5.302928e-002 -1.480165e-001 -2.037237e-001 1.842064e-001 -1.514190e-001
<VARIANCE> 39
 9.853552e+000 1.985686e+001 3.897330e+001 2.041351e+001 2.957139e+001 2.269223e+001 2.286959e+001 2.217932e+001 2.387472e+001 3.022108e+001 2.258412e+001 2.932770e+001 8.848360e+000 2.872717e-001 7.692761e-001 1.161133e+000 1.150423e+000 1.468745e+000 1.359035e+000 1.493392e+000 1.125719e+000 1.135134e+000 1.003808e+000 1.266930e+000 1.430872e+000 2.823964e-001 6.470401e-002 9.599001e-002 2.001773e-001 2.429533e-001 2.424193e-001 2.714267e-001 2.783975e-001 2.722259e-001 2.732467e-001 2.089589e-001 2.296069e-001 2.091099e-001 4.258374e-002
<GCONST> 8.861795e+001
<MIXTURE> 52 1.403945e-002
<MEAN> 39
 -3.516648e+000 -2.164101e-001 4.952432e+000 -6.539884e+000 -1.326097e+001 -1.056867e+001 -1.264452e+001 -3.547057e+000 -8.315811e+000 2.568630e+000 1.528499e+000 -9.105626e+000 6.226782e+001 1.574968e-001 4.715685e-001 -1.988275e+000 9.298921e-001 1.016762e+000 1.329633e-001 7.634186e-001 -5.165485e-001 1.100997e+000 -8.540506e-001 -7.459228e-001 -1.683533e-003 -2.239710e+000 -4.634446e-001 -3.569958e-001 -2.027813e-001 -3.234638e-001 -1.965070e-001 -4.005765e-002 -1.167237e-001 -1.962292e-001 6.300901e-002 -2.033365e-001 -2.298804e-001 2.106769e-001 1.173009e-001
<VARIANCE> 39
 9.609910e+000 1.829423e+001 3.144990e+001 2.712974e+001 3.679216e+001 4.239545e+001 4.599350e+001 3.030313e+001 3.109843e+001 2.825646e+001 2.367069e+001 2.894978e+001 1.302707e+001 1.034129e+000 1.226221e+000 2.234960e+000 1.991217e+000 2.923934e+000 3.015587e+000 3.179704e+000 2.571016e+000 2.507406e+000 2.159466e+000 2.064291e+000 2.387157e+000 1.485636e+000 1.368579e-001 2.236193e-001 4.081213e-001 2.962348e-001 4.736946e-001 4.299614e-001 4.384077e-001 4.268021e-001 5.380985e-001 4.081734e-001 3.364792e-001 3.596171e-001 1.473601e-001
<GCONST> 1.093418e+002
<MIXTURE> 53 1.370659e-002
<MEAN> 39
 -9.041592e+000 -2.565272e+000 -7.724918e+000 -5.059802e+000 -6.712132e+000 -5.184814e+000 -5.323265e+000 -3.057971e+000 -1.622541e+000 -1.037542e+000 -1.980599e+000 -2.228440e+000 4.882503e+001 -5.733649e-002 -1.278998e-001 -2.112123e-001 -2.286310e-001 -2.926674e-001 -4.191232e-001 -5.188726e-001 -5.784371e-001 -5.897299e-001 -6.323032e-001 -5.866082e-001 -4.480890e-001 -5.581895e-002 -9.954839e-002 -1.561576e-001 -1.651248e-001 -1.836636e-001 -8.697168e-002 -2.446859e-002 -2.488509e-003 1.540206e-002 -5.436501e-002 -1.788490e-001 -1.678784e-001 -1.326876e-001 -1.808119e-002
<VARIANCE> 39
 1.240877e+000 2.799338e+000 3.583824e+000 4.574482e+000 6.264838e+000 8.370194e+000 8.861224e+000 7.971584e+000 1.018866e+001 1.024873e+001 9.647272e+000 9.177596e+000 6.378247e-001 1.136572e-001 2.201259e-001 3.446233e-001 5.230776e-001 7.333216e-001 8.043373e-001 1.008064e+000 1.027716e+000 1.121501e+000 1.071082e+000 1.032774e+000 1.039302e+000 3.422350e-002 2.037675e-002 3.953683e-002 6.149888e-002 9.619579e-002 1.353536e-001 1.608803e-001 1.876235e-001 1.862826e-001 2.177596e-001 2.232799e-001 2.134850e-001 1.933397e-001 5.720820e-003
<GCONST> 5.279444e+001
<MIXTURE> 54 1.242954e-002
<MEAN> 39
 -4.120149e+000 -8.157505e+000 -5.359066e-002 -1.334094e+001 -9.759244e+000 -1.524652e+001 -1.801649e+001 1.524146e+000 -2.352729e+000 6.078545e+000 -7.126302e+000 -2.512667e+000 7.206192e+001 -7.858942e-002 9.780878e-001 -1.053532e-001 4.462081e-001 3.824130e-001 -5.290288e-001 1.387226e-001 -9.551557e-001 -3.831737e-001 -4.533786e-001 1.683661e-002 -1.918336e-001 -1.382945e+000 -4.196549e-001 4.449554e-001 -2.681779e-001 5.268136e-001 -6.063937e-002 1.942157e-001 4.060605e-001 -8.066235e-001 2.495588e-001 -5.836854e-001 4.084763e-001 -3.461886e-001 -7.306655e-001
<VARIANCE> 39
 5.981130e+000 1.893188e+001 2.909608e+001 2.275054e+001 2.474361e+001 6.324266e+001 5.926034e+001 3.995397e+001 3.232356e+001 2.881161e+001 2.335654e+001 2.543103e+001 7.759631e+000 7.226199e-001 1.757165e+000 1.790000e+000 1.831256e+000 2.033554e+000 2.649902e+000 2.895049e+000 2.597635e+000 3.289935e+000 2.148069e+000 1.801545e+000 1.785252e+000 1.297138e+000 3.392675e-001 2.650439e-001 3.032356e-001 2.880572e-001 4.224051e-001 5.785099e-001 9.462250e-001 6.064302e-001 4.773146e-001 3.675281e-001 3.556935e-001 4.060266e-001 1.846130e-001
<GCONST> 1.096350e+002
<MIXTURE> 55 1.218534e-002
<MEAN> 39
 -1.027594e+001 2.087258e-001 -1.300205e+000 -6.559762e+000 -6.941278e+000 -1.453065e+001 -1.160249e+001 -5.705023e+000 1.137077e+000 -5.505035e-001 -4.379102e+000 -2.842496e+000 6.733385e+001 3.376449e+000 -6.134646e-001 3.165392e-001 -1.513162e+000 -1.294194e+000 -6.295633e-001 -3.880411e+000 -2.173117e-001 -9.418167e-001 8.709718e-001 -1.281673e+000 -1.282070e+000 8.082184e-001 -4.805880e-001 -5.420981e-001 -3.449875e-001 -4.854068e-001 -2.065808e-001 2.659673e-001 -2.597624e-002 2.024800e-001 -2.236827e-001 1.692240e-001 1.675261e-001 -7.500970e-002 -1.614614e-001
<VARIANCE> 39
 2.689244e+001 2.242653e+001 2.746669e+001 2.380875e+001 2.590580e+001 2.743286e+001 3.928504e+001 2.371519e+001 2.494256e+001 1.934338e+001 1.595611e+001 1.539180e+001 1.421824e+001 2.095420e+000 2.977518e+000 3.372570e+000 3.336700e+000 2.684439e+000 4.083124e+000 3.640647e+000 4.172257e+000 3.256109e+000 2.197141e+000 2.850961e+000 2.112316e+000 1.246077e+000 6.031146e-001 2.464337e-001 2.491632e-001 3.573879e-001 3.444118e-001 4.755627e-001 6.475883e-001 4.541753e-001 4.222284e-001 3.304653e-001 3.306383e-001 2.864566e-001 3.210139e-001
<GCONST> 1.128317e+002
<MIXTURE> 56 1.147345e-002
<MEAN> 39
 -9.155815e+000 -2.643974e-001 1.578627e+001 -9.513612e+000 -2.308679e+001 -1.012515e+001 -1.399174e+001 -6.368442e+000 -1.343842e+001 1.629320e+000 3.661188e+000 -1.221704e+001 6.835287e+001 1.623149e-001 -2.091090e-001 -9.214771e-001 -1.252540e-001 -5.297244e-001 -4.849122e-001 -1.941199e-001 -6.491947e-002 -2.493707e-001 -1.383959e-001 -2.253462e-001 -4.720017e-001 -4.655644e-001 -1.731702e-001 -4.882715e-002 -1.264934e+000 2.816136e-001 1.111802e+000 -3.817487e-001 3.041974e-001 -5.187631e-002 6.997133e-001 -3.085597e-001 -5.378218e-001 4.582978e-001 -5.062667e-001
<VARIANCE> 39
 8.117614e+000 1.765705e+001 2.539750e+001 2.668992e+001 2.456944e+001 3.320085e+001 3.016807e+001 2.382293e+001 3.133020e+001 2.921141e+001 2.677614e+001 2.151362e+001 7.827601e+000 1.310924e+000 2.029902e+000 3.791239e+000 3.328234e+000 4.886299e+000 3.832068e+000 4.074331e+000 2.504869e+000 2.675481e+000 2.079355e+000 2.227821e+000 2.817634e+000 9.644172e-001 3.397600e-001 2.621014e-001 4.321317e-001 4.019603e-001 4.772217e-001 5.587744e-001 9.540868e-001 4.108457e-001 5.848702e-001 4.399166e-001 4.236365e-001 4.766380e-001 1.231837e-001
<GCONST> 1.124806e+002
<MIXTURE> 57 1.086580e-002
<MEAN> 39
 -1.532262e+001 4.010775e+000 2.258552e+000 -5.006113e+000 -5.735897e+000 -1.396971e+001 -6.384308e+000 -7.573308e+000 8.269215e-001 -1.090889e+000 -4.997959e-001 -2.109322e+000 6.682865e+001 -4.121475e+000 -2.899086e-001 -1.592493e+000 7.365745e-001 9.594909e-001 -4.056275e-001 2.363904e+000 -4.978871e-002 1.369888e+000 -1.211315e+000 3.752421e-001 2.759103e-001 2.027853e-001 -8.327529e-002 -7.234476e-001 -3.239131e-001 -6.867467e-001 -5.697359e-001 1.619977e-001 -7.537196e-001 2.703379e-001 -6.366772e-001 2.298858e-001 -2.374581e-001 -2.261978e-001 1.746339e-001
<VARIANCE> 39
 2.013083e+001 2.509958e+001 5.521643e+001 2.867954e+001 4.504176e+001 4.165085e+001 4.805194e+001 2.880087e+001 3.740187e+001 2.394605e+001 1.689081e+001 1.900609e+001 8.050984e+000 1.424507e+000 2.417348e+000 3.792596e+000 2.480789e+000 3.469727e+000 4.350491e+000 2.816112e+000 3.084597e+000 2.765584e+000 2.148844e+000 3.077771e+000 2.909342e+000 5.507053e-001 3.113895e-001 2.579020e-001 2.825571e-001 3.342814e-001 4.230404e-001 5.377997e-001 6.322704e-001 4.286665e-001 4.617585e-001 3.793737e-001 4.065281e-001 3.733418e-001 6.581012e-002
<GCONST> 1.124103e+002
<MIXTURE> 58 1.045282e-002
<MEAN> 39
 -1.021967e+001 -3.806586e+000 -7.068329e+000 -5.975497e+000 -6.109739e+000 -3.916294e+000 -4.031193e+000 -1.549437e+000 -4.948092e-001 -8.125139e-001 -2.465667e+000 -2.974649e+000 4.992517e+001 -2.333323e-001 -2.155901e-001 -3.433341e-001 -2.814120e-001 -2.665554e-001 -1.723485e-001 -1.658804e-001 -2.673768e-001 -2.319933e-001 -1.661895e-001 -8.768657e-002 -1.742372e-001 -2.571053e-001 1.450763e-002 1.322886e-002 -1.083453e-002 -7.969092e-002 -9.769033e-002 -2.414551e-001 -1.767987e-001 -1.177970e-001 -1.194784e-001 -7.432824e-002 -7.534562e-002 -6.470396e-002 6.892535e-002
<VARIANCE> 39
 5.806282e+000 7.757157e+000 1.471103e+001 1.115423e+001 1.012990e+001 1.220009e+001 1.229683e+001 1.406853e+001 1.596205e+001 1.526540e+001 1.419852e+001 1.097339e+001 3.247102e+000 3.453167e-001 4.447412e-001 6.733253e-001 7.639125e-001 9.131761e-001 1.385134e+000 1.325620e+000 1.548668e+000 1.777465e+000 1.690843e+000 1.464609e+000 1.212254e+000 1.853774e-001 9.513459e-002 1.318613e-001 1.728191e-001 2.010172e-001 1.951948e-001 2.716799e-001 2.486073e-001 2.733278e-001 3.413185e-001 3.261752e-001 3.064293e-001 2.572052e-001 7.037865e-002
<GCONST> 7.992860e+001
<MIXTURE> 59 1.010984e-002
<MEAN> 39
 -4.076528e+000 -3.227353e+000 4.400974e+000 -6.028640e+000 -1.057228e+001 -1.479152e+001 -1.330929e+001 -2.084582e+000 -7.265638e+000 2.419645e-001 3.355224e-001 -5.530160e+000 6.610179e+001 -1.244449e+000 -1.093429e+000 2.186643e+000 -1.719258e+000 -1.981321e+000 -8.795712e-001 4.062307e-002 2.087848e-001 -2.179696e+000 1.123733e-001 3.898382e-001 -7.489860e-003 1.087707e+000 -2.196766e-001 -4.895470e-002 5.905479e-002 -4.295861e-001 -6.264430e-001 4.288043e-001 -2.051021e-001 -3.531112e-001 -2.912445e-001 1.941256e-001 -4.834205e-003 -2.669683e-001 -3.205866e-003
<VARIANCE> 39
 8.363212e+000 2.454807e+001 2.707851e+001 3.666919e+001 2.131212e+001 2.402373e+001 4.378192e+001 2.698245e+001 3.614353e+001 2.077461e+001 2.213362e+001 2.454420e+001 1.021314e+001 1.046677e+000 1.616248e+000 2.116484e+000 3.163133e+000 3.623100e+000 3.930849e+000 3.511470e+000 4.570113e+000 3.380859e+000 2.087755e+000 2.379753e+000 2.502358e+000 9.063323e-001 2.108975e-001 2.445133e-001 3.335744e-001 5.072199e-001 4.612266e-001 5.013523e-001 7.623073e-001 5.306824e-001 5.415214e-001 3.298068e-001 3.633540e-001 3.882919e-001 1.654555e-001
<GCONST> 1.113656e+002
<MIXTURE> 60 8.471675e-003
<MEAN> 39
 -1.155581e+001 -3.412940e+000 -4.114329e+000 -6.953472e+000 -3.874096e+000 -1.292472e+001 -1.062266e+001 -3.003518e+000 4.332382e+000 3.753582e+000 -4.420900e+000 -4.113695e+000 6.357980e+001 -8.444151e-001 -1.754297e-001 -1.187768e+000 -1.345250e-001 -2.586782e-002 1.437238e-001 6.804228e-002 -4.664047e-001 1.519638e-002 -3.169117e-001 -6.324270e-002 -4.893446e-001 -1.159018e+000 1.777292e-001 -2.732908e-001 -1.533123e-001 -6.058195e-001 -6.401082e-001 4.139967e-001 -2.261429e-001 -2.293915e-001 -8.499066e-001 -2.257414e-001 -4.972695e-002 -4.644772e-002 -5.423538e-002
<VARIANCE> 39
 3.749388e+001 3.248860e+001 3.236451e+001 4.542461e+001 4.879126e+001 5.195792e+001 4.514701e+001 5.470303e+001 3.746684e+001 3.615368e+001 5.347535e+001 2.834401e+001 1.954278e+001 4.735733e+000 1.966714e+000 2.347343e+000 2.546242e+000 3.391159e+000 4.173672e+000 2.975201e+000 3.853807e+000 3.583451e+000 2.311352e+000 3.346858e+000 1.844487e+000 3.168186e+000 2.614658e-001 4.688109e-001 4.114909e-001 6.095093e-001 5.804037e-001 5.651032e-001 7.029037e-001 7.531589e-001 6.721771e-001 5.098168e-001 6.844174e-001 4.717139e-001 2.988677e-001
<GCONST> 1.247868e+002
<MIXTURE> 61 7.863255e-003
<MEAN> 39
 -8.041438e+000 -1.994285e+000 1.177410e+001 -6.023852e+000 -1.661369e+001 -1.701302e+001 -1.152743e+001 -4.879830e+000 -1.031409e+001 1.134410e+000 2.850746e+000 -4.563339e+000 6.832929e+001 9.499893e-001 -1.058157e+000 1.383668e+000 -1.174517e+000 -2.589586e+000 -6.093237e-001 -2.465713e+000 3.184110e-001 -2.143501e+000 4.514206e-001 8.241245e-001 -1.117477e+000 8.924718e-001 -6.752293e-001 -2.288842e-001 -1.043432e+000 -2.467705e-001 4.449818e-001 4.931504e-001 2.408101e-001 7.135467e-002 6.526198e-001 -5.325504e-002 -4.760634e-001 -3.062419e-002 -4.297475e-001
<VARIANCE> 39
 7.152476e+000 2.064943e+001 3.159375e+001 2.271339e+001 2.265058e+001 2.080741e+001 3.120634e+001 1.820147e+001 2.687763e+001 1.428699e+001 1.547530e+001 2.086327e+001 1.095867e+001 3.231899e+000 2.127915e+000 3.668054e+000 2.111195e+000 3.143826e+000 3.822084e+000 3.477829e+000 3.205867e+000 3.238281e+000 1.509167e+000 1.749278e+000 1.954070e+000 1.036357e+000 5.543056e-001 4.091841e-001 4.204739e-001 3.847890e-001 4.790086e-001 3.730105e-001 6.476207e-001 4.537587e-001 4.515260e-001 2.615622e-001 3.285297e-001 2.521205e-001 1.408003e-001
<GCONST> 1.087526e+002
<MIXTURE> 62 7.706015e-003
<MEAN> 39
 -1.025447e+001 7.448981e-001 8.471186e+000 -6.409620e+000 -1.440267e+001 -1.639069e+001 -8.036581e+000 -6.445765e+000 -5.779099e+000 1.074661e+000 5.561936e-002 -3.622766e+000 6.512126e+001 -3.089705e-001 4.606296e-001 -1.616764e+000 7.088574e-001 1.156638e+000 5.356575e-001 7.503190e-001 -1.144096e-001 8.535591e-001 -6.245640e-001 -7.284596e-001 -1.988995e-001 -1.889621e+000 2.938615e-002 -3.844625e-001 -4.828054e-001 -1.201609e-001 1.237473e-002 4.770886e-001 -4.028430e-001 9.648776e-002 -4.416247e-002 -1.349142e-001 -1.445826e-001 -2.382638e-001 -2.721749e-001
<VARIANCE> 39
 1.902200e+001 3.419916e+001 3.618540e+001 2.184035e+001 3.317453e+001 3.129370e+001 5.269452e+001 3.579440e+001 2.783736e+001 2.631137e+001 1.945093e+001 2.141698e+001 1.526055e+001 1.639556e+000 1.822099e+000 2.126225e+000 1.503225e+000 1.862038e+000 2.468593e+000 3.627253e+000 2.412211e+000 2.254802e+000 1.758232e+000 1.733181e+000 2.021879e+000 1.965317e+000 1.709622e-001 2.244836e-001 3.303595e-001 3.016099e-001 4.502045e-001 3.794295e-001 6.091279e-001 4.953538e-001 4.548884e-001 3.648621e-001 3.313902e-001 2.832492e-001 1.540191e-001
<GCONST> 1.093621e+002
<MIXTURE> 63 7.516225e-003
<MEAN> 39
 -6.910399e+000 1.656041e+000 1.196030e+000 -1.160649e+001 -8.337299e+000 -1.213245e+001 -1.509589e+001 -5.908599e+000 -2.812691e+000 3.855458e+000 -4.757058e+000 -2.803828e+000 6.757880e+001 -2.786132e+000 1.643181e+000 -5.169628e-001 1.834300e+000 1.144513e+000 -1.546647e+000 2.906945e+000 -1.347220e+000 1.783944e+000 -1.903890e+000 5.424682e-001 8.870074e-002 -8.438082e-001 -1.051983e+000 -5.009295e-001 -4.920179e-001 1.091182e-001 -4.413217e-002 -3.306205e-002 4.272402e-001 1.074947e-001 1.259775e-001 -3.353162e-001 2.771597e-001 -1.617796e-001 1.889351e-001
<VARIANCE> 39
 1.063982e+001 1.717697e+001 6.428279e+001 3.205545e+001 5.687977e+001 6.935606e+001 4.956924e+001 3.481619e+001 4.910347e+001 2.898729e+001 3.735598e+001 3.004799e+001 7.018850e+000 1.260797e+000 2.027985e+000 2.680461e+000 1.941017e+000 3.182567e+000 3.362265e+000 3.179868e+000 3.724103e+000 2.955505e+000 2.208351e+000 2.895188e+000 2.879175e+000 4.523624e-001 1.645041e-001 2.231776e-001 2.734461e-001 4.361675e-001 4.324296e-001 5.607654e-001 6.141049e-001 4.433255e-001 5.328212e-001 4.063961e-001 4.892498e-001 3.355314e-001 6.224659e-002
<GCONST> 1.128532e+002
<MIXTURE> 64 6.249325e-003
<MEAN> 39
 -1.347202e+001 3.574731e+000 9.575429e+000 -5.880128e+000 -1.210935e+001 -1.119660e+001 -7.133183e+000 -9.729500e+000 -6.670829e+000 -9.822373e-001 -1.121541e+000 -4.519105e+000 6.498567e+001 3.147488e+000 8.836795e-001 2.402623e+000 -4.552213e-001 -3.291978e+000 -1.445165e+000 -3.449033e+000 -7.214533e-001 -2.993793e+000 -4.043183e-001 6.441385e-001 -2.084622e+000 5.995290e-001 -3.632732e-001 -7.969824e-001 -7.685021e-001 -4.595877e-001 -2.720952e-001 -1.145046e-001 -2.712435e-001 4.688824e-001 1.616588e-001 1.484267e-001 1.638450e-001 -1.553168e-001 -9.259857e-003
<VARIANCE> 39
 2.917202e+001 1.538432e+001 4.813804e+001 2.060106e+001 4.472619e+001 2.780982e+001 3.135837e+001 1.620219e+001 2.127341e+001 1.532527e+001 1.508348e+001 2.479795e+001 1.317566e+001 2.000887e+000 2.920502e+000 3.972546e+000 3.016297e+000 3.829085e+000 3.037585e+000 2.634590e+000 2.564047e+000 3.026974e+000 1.758420e+000 2.044580e+000 3.297472e+000 1.163539e+000 5.216293e-001 2.994858e-001 4.300252e-001 3.837210e-001 6.073589e-001 4.107722e-001 6.835453e-001 3.950353e-001 4.256985e-001 2.647296e-001 3.120892e-001 3.499289e-001 1.602525e-001
<GCONST> 1.120896e+002
<TRANSP> 3
 0.000000e+000 1.000000e+000 0.000000e+000
 0.000000e+000 9.983178e-001 1.682227e-003
 0.000000e+000 0.000000e+000 0.000000e+000
<ENDHMM>
~h "PB"
<BEGINHMM>
<NUMSTATES> 3
<STATE> 2
<NUMMIXES> 64
<MIXTURE> 1 6.677440e-003
<MEAN> 39
 -9.114831e+000 4.350273e+000 5.835271e-001 2.891165e+000 1.607642e+000 4.077263e+000 4.061040e+000 5.203539e+000 5.411801e+000 4.640544e+000 3.948393e+000 3.037839e+000 5.015921e+001 1.227928e-001 1.725900e-001 3.134116e-001 3.749920e-001 4.553867e-001 5.162322e-001 4.014608e-001 4.338201e-001 5.337202e-001 6.158531e-001 6.338450e-001 4.410708e-001 6.118909e-002 -6.335120e-002 -1.109146e-001 -1.549359e-001 -7.519025e-002 -3.092153e-002 3.923115e-002 -1.716008e-002 2.906571e-002 -9.880123e-002 -1.184152e-001 -1.062693e-001 -1.137109e-001 4.454616e-002
<VARIANCE> 39
 9.341302e-001 1.724988e+000 3.704401e+000 6.307003e+000 8.019269e+000 9.634017e+000 9.213972e+000 1.307767e+001 1.180465e+001 9.255157e+000 9.317171e+000 8.437510e+000 5.124964e-001 1.348140e-001 1.959846e-001 4.305052e-001 5.702319e-001 6.787217e-001 8.421873e-001 1.197268e+000 1.395853e+000 1.278549e+000 1.007212e+000 1.379076e+000 1.265706e+000 5.738248e-002 2.687468e-002 3.827599e-002 7.955334e-002 1.286257e-001 1.729278e-001 2.068959e-001 1.753751e-001 2.665058e-001 2.515733e-001 2.108841e-001 2.657652e-001 2.250697e-001 1.238292e-002
<GCONST> 5.770242e+001
<MIXTURE> 2 1.310126e-002
<MEAN> 39
 -2.597387e-001 -1.920781e+000 1.280004e+001 -3.220752e+000 -1.816611e+001 -9.145414e+000 -1.044841e+001 7.747034e+000 1.478672e-003 -1.840826e+000 3.816804e+000 -2.771746e+000 7.325279e+001 2.068686e-001 2.370477e+000 -5.792528e-002 1.654859e+000 1.550824e+000 2.033780e-001 1.554047e+000 -4.923217e-001 5.815806e-001 5.167735e-001 -3.081214e-002 1.048472e+000 -1.466613e+000 -1.580289e-001 7.406308e-001 -4.465763e-001 4.091542e-001 1.029281e+000 7.471173e-001 6.561649e-001 -3.565182e-001 4.829347e-001 2.638324e-001 -7.593936e-002 6.947473e-002 -5.773603e-001
<VARIANCE> 39
 5.727962e+000 2.150104e+001 2.659630e+001 1.531601e+001 2.675200e+001 1.616177e+001 2.904861e+001 2.853356e+001 3.160900e+001 1.739273e+001 2.640934e+001 1.656762e+001 8.130329e+000 1.074085e+000 2.449884e+000 2.876309e+000 1.375071e+000 3.037239e+000 2.087579e+000 3.315454e+000 2.355758e+000 3.202811e+000 1.902744e+000 2.104830e+000 2.170744e+000 1.566592e+000 4.167500e-001 4.829534e-001 4.709613e-001 3.579206e-001 4.855981e-001 3.734145e-001 6.140670e-001 5.945001e-001 5.598813e-001 4.173363e-001 4.211883e-001 5.018656e-001 2.462687e-001
<GCONST> 1.092884e+002
<MIXTURE> 3 5.531615e-003
<MEAN> 39
 -9.501384e+000 2.795711e+000 -2.593387e+000 6.130049e-001 -1.495913e-001 1.930294e+000 -5.146785e-001 2.386007e+000 1.687655e+000 1.800160e+000 4.814890e-001 -1.413770e-001 5.504437e+001 -5.372122e-002 1.540283e-001 2.455315e-001 7.068474e-001 4.686781e-001 8.599911e-001 9.842872e-001 6.269144e-001 3.500818e-001 2.598028e-001 7.925072e-001 4.239952e-001 -1.764310e-001 1.992429e-001 2.216792e-001 2.568116e-001 1.209364e-001 1.676153e-001 1.233747e-001 2.370946e-001 2.849071e-001 4.361740e-001 3.196004e-001 2.753882e-001 1.307421e-001 1.929923e-001
<VARIANCE> 39
 1.612569e+001 1.254166e+001 7.975000e+000 1.520088e+001 2.153975e+001 2.756841e+001 1.810245e+001 2.784867e+001 1.716726e+001 1.857896e+001 1.931289e+001 1.845394e+001 8.957130e+000 1.009892e+000 6.616196e-001 8.057044e-001 9.993144e-001 1.506654e+000 2.031088e+000 1.552940e+000 1.759420e+000 1.406270e+000 1.374208e+000 1.763651e+000 1.491866e+000 7.144748e-001 1.589227e-001 1.212173e-001 1.354725e-001 2.421811e-001 2.846131e-001 4.317207e-001 3.314107e-001 3.104511e-001 3.068782e-001 3.222998e-001 3.489120e-001 2.885561e-001 1.393089e-001
<GCONST> 9.270322e+001
<MIXTURE> 4 2.369042e-002
<MEAN> 39
 -1.601592e+001 8.013448e+000 -2.286653e+000 2.182231e+000 -1.399540e+000 -5.689094e+000 1.262856e+000 3.350104e+000 4.039056e+000 3.086565e+000 2.307909e+000 2.539649e+000 6.689000e+001 -2.919612e-001 2.708201e-001 1.836836e-001 4.808386e-001 7.704061e-001 3.793880e-001 7.213499e-001 8.785731e-001 8.528112e-001 5.761789e-001 6.350856e-001 7.496255e-001 8.534335e-001 1.052333e+000 2.144425e-001 8.379407e-001 -4.188617e-002 -9.315631e-002 5.523157e-001 -2.884130e-001 9.719233e-002 4.797820e-002 3.819147e-002 6.082923e-002 -2.895641e-001 -3.112756e-001
<VARIANCE> 39
 3.523312e+001 7.723334e+001 3.787228e+001 3.868788e+001 4.040806e+001 4.049619e+001 4.020839e+001 4.685717e+001 3.615372e+001 3.258784e+001 2.316110e+001 2.050487e+001 1.362582e+001 5.277102e+000 3.191077e+000 4.021333e+000 3.183630e+000 3.524810e+000 3.208150e+000 3.578453e+000 3.664109e+000 3.124282e+000 2.599923e+000 2.183013e+000 2.195278e+000 4.242842e+000 4.632494e-001 9.002067e-001 6.227640e-001 5.876989e-001 7.443323e-001 5.729385e-001 7.836083e-001 7.436797e-001 6.250230e-001 6.949596e-001 4.759901e-001 5.214139e-001 4.038638e-001
<GCONST> 1.267372e+002
<MIXTURE> 5 1.709655e-002
<MEAN> 39
 2.103543e+000 -6.886168e+000 2.425911e+000 -8.124870e+000 -7.687251e+000 -7.132480e-001 -1.298269e+001 6.203707e+000 6.602060e+000 1.040078e+000 -1.003137e+000 -1.020673e+001 7.497194e+001 3.351707e-001 1.873594e+000 7.002249e-001 1.238559e+000 4.330861e-001 6.219709e-002 2.879093e-001 -4.071090e-001 -4.515615e-002 1.048164e+000 6.131483e-001 1.391379e+000 -1.047076e+000 -1.621180e-001 9.455795e-001 1.198040e-001 7.029043e-001 3.202351e-001 5.840336e-002 8.173903e-001 -2.411474e-001 -1.690213e-001 2.255524e-001 2.254159e-001 6.470454e-001 -5.838537e-001
<VARIANCE> 39
 5.434110e+000 1.969826e+001 2.694967e+001 2.643573e+001 4.893050e+001 3.080688e+001 3.632095e+001 3.951298e+001 1.841735e+001 3.497248e+001 2.515511e+001 2.232019e+001 5.346988e+000 6.789076e-001 2.947905e+000 2.255231e+000 2.480587e+000 3.052713e+000 2.828180e+000 2.383245e+000 3.456909e+000 2.241463e+000 2.170961e+000 2.787151e+000 2.667240e+000 1.240956e+000 1.705458e-001 4.116741e-001 3.133925e-001 3.938834e-001 4.654986e-001 3.607276e-001 4.092242e-001 6.437302e-001 3.964287e-001 4.520578e-001 4.393339e-001 4.190894e-001 2.471586e-001
<GCONST> 1.097899e+002
<MIXTURE> 6 2.006671e-002
<MEAN> 39
 4.403799e+000 1.285796e+000 1.838271e+000 -9.619939e+000 -9.203422e+000 6.066637e+000 -1.481458e+001 -5.160663e+000 2.485251e-002 4.078283e+000 5.823420e+000 -5.300869e+000 7.068815e+001 6.965547e-001 -3.266567e-001 6.476301e-001 3.019455e-001 1.222066e-001 5.709306e-001 -6.303859e-001 -4.048699e-002 6.658900e-001 7.860041e-001 6.846674e-001 -2.758492e-001 9.009158e-001 -4.864715e-001 3.671028e-001 1.277906e-001 8.727732e-001 5.972884e-001 -3.493336e-001 9.819312e-001 8.470807e-001 4.275436e-001 -9.982224e-002 -3.705155e-001 3.831309e-001 -3.085456e-001
<VARIANCE> 39
 6.565611e+000 3.070408e+001 2.188321e+001 5.042001e+001 3.450788e+001 3.115670e+001 5.076502e+001 3.648540e+001 3.608588e+001 4.336325e+001 2.048967e+001 3.167511e+001 1.008525e+001 2.085849e+000 3.423449e+000 2.394180e+000 7.626814e+000 3.819595e+000 4.653940e+000 5.125426e+000 4.237126e+000 5.080231e+000 3.705554e+000 3.702371e+000 3.209326e+000 2.120861e+000 3.157898e-001 4.807447e-001 4.373983e-001 9.881429e-001 6.693950e-001 6.062078e-001 1.142952e+000 7.822084e-001 7.866400e-001 8.222050e-001 5.231823e-001 7.163092e-001 3.409781e-001
<GCONST> 1.253934e+002
<MIXTURE> 7 2.405853e-002
<MEAN> 39
 -9.589248e+000 3.025814e+000 -1.599723e+000 3.606454e-001 -7.438025e-001 1.372741e+000 1.542880e+000 2.684753e+000 2.761864e+000 2.876835e+000 2.311522e+000 1.438000e+000 4.978611e+001 1.168201e-001 1.973700e-001 2.727018e-001 3.532597e-001 4.286109e-001 4.568887e-001 4.597383e-001 4.503218e-001 4.157003e-001 3.765968e-001 2.983919e-001 2.687228e-001 4.275419e-002 -2.450354e-002 -1.308508e-004 4.565411e-002 1.055357e-001 1.493753e-001 2.369391e-001 2.738949e-001 2.653618e-001 1.299503e-001 1.141182e-002 9.492412e-004 2.039333e-002 4.787893e-003
<VARIANCE> 39
 4.800644e-001 1.181024e+000 2.147038e+000 2.957802e+000 4.179027e+000 5.003590e+000 6.693266e+000 7.025660e+000 6.838160e+000 7.500704e+000 7.406281e+000 7.747822e+000 1.718399e-001 7.263058e-002 1.712345e-001 3.285456e-001 4.769395e-001 5.857074e-001 7.218221e-001 8.630482e-001 1.004985e+000 1.063505e+000 1.001581e+000 1.021096e+000 9.738225e-001 2.345000e-002 1.076079e-002 2.832075e-002 5.148732e-002 7.138161e-002 9.348293e-002 1.134246e-001 1.571816e-001 1.688535e-001 1.654429e-001 1.697828e-001 1.724140e-001 1.806568e-001 4.190586e-003
<GCONST> 4.074200e+001
<MIXTURE> 8 1.889161e-002
<MEAN> 39
 3.787434e-002 1.053937e+001 7.824095e+000 8.004910e-001 -5.269472e+000 -2.690893e-001 -2.707911e+000 1.841717e+000 1.503144e+000 6.343946e-001 7.053399e-002 -2.864457e+000 6.227097e+001 -9.528942e-001 1.107020e+000 -8.325924e-001 1.772589e+000 2.219275e+000 1.775741e-001 2.012220e+000 1.850693e-001 7.938338e-001 1.843288e-001 -4.224718e-002 1.147573e+000 -1.470469e+000 -4.237750e-001 -5.977110e-001 -6.337870e-002 -3.602726e-001 -2.103851e-001 7.993297e-002 -4.041653e-001 5.985345e-002 -8.715465e-002 2.900044e-002 3.247503e-001 -2.932708e-002 5.785168e-001
<VARIANCE> 39
 2.191114e+001 2.699049e+001 4.650266e+001 2.632457e+001 4.450298e+001 3.525406e+001 2.414065e+001 2.926282e+001 2.518810e+001 2.125486e+001 1.862265e+001 1.949837e+001 1.168451e+001 3.760453e+000 2.712158e+000 2.919906e+000 2.316045e+000 3.711717e+000 2.889692e+000 2.736936e+000 2.319644e+000 2.313348e+000 1.904267e+000 1.767435e+000 2.319947e+000 2.151509e+000 2.733728e-001 2.605133e-001 3.291041e-001 3.202704e-001 3.809556e-001 3.376429e-001 4.213348e-001 3.544531e-001 3.733256e-001 3.169240e-001 2.869545e-001 2.758798e-001 1.757919e-001
<GCONST> 1.105852e+002
<MIXTURE> 9 2.192667e-002
<MEAN> 39
 3.521583e+000 4.858120e+000 4.519424e+000 -6.016122e+000 -8.302976e+000 4.453673e+000 -1.091128e+001 -2.947756e+000 -9.343851e-001 -2.025800e-001 5.273552e+000 -7.612798e+000 6.741145e+001 1.307262e-001 5.236353e-001 2.953201e-001 3.639519e-001 1.935544e-001 3.993805e-001 4.286088e-001 1.054174e-001 1.043912e-001 2.260767e-001 3.629598e-001 3.246168e-001 -5.701919e-002 -8.335023e-002 3.949971e-002 1.120398e-001 2.444941e-001 1.409766e-001 -7.175294e-002 2.003769e-001 3.474930e-001 2.533063e-001 1.947887e-001 -7.988271e-002 2.967514e-001 8.930010e-002
<VARIANCE> 39
 5.615685e+000 2.394381e+001 3.583510e+001 5.955863e+001 2.315643e+001 2.497668e+001 2.318260e+001 2.644016e+001 2.281270e+001 3.525076e+001 2.119418e+001 3.002555e+001 7.897186e+000 3.421693e-001 1.106785e+000 1.194874e+000 2.082165e+000 1.203603e+000 1.358274e+000 1.652652e+000 1.747951e+000 1.523194e+000 1.823400e+000 1.911515e+000 1.832705e+000 5.340044e-001 8.185486e-002 1.750490e-001 2.773795e-001 3.659696e-001 2.883159e-001 2.802626e-001 3.048158e-001 4.207441e-001 3.362194e-001 3.350024e-001 3.747245e-001 3.757669e-001 1.026306e-001
<GCONST> 9.785246e+001
<MIXTURE> 10 1.063572e-002
<MEAN> 39
 1.537071e-001 8.399901e+000 1.200101e+001 -6.808445e+000 -1.328660e+001 4.218614e+000 -8.668811e+000 -3.473812e-001 -5.042115e+000 1.486168e+000 4.330182e+000 -4.452034e+000 6.712081e+001 4.255985e-001 1.210343e+000 -1.082029e+000 2.356190e+000 2.749193e+000 -7.142193e-001 2.247542e+000 4.701611e-002 1.474620e+000 3.447572e-001 -2.877264e-001 1.176927e+000 -1.449123e+000 -2.018482e-001 -1.208747e-001 -1.136940e-001 5.623354e-001 5.756288e-001 -6.719860e-002 1.792009e-001 1.283092e-001 5.360471e-001 1.195374e-001 -8.627817e-002 1.069803e-001 -5.897564e-002
<VARIANCE> 39
 2.762152e+001 2.627552e+001 8.211105e+001 4.549234e+001 4.639183e+001 4.599865e+001 3.421092e+001 2.852915e+001 2.169318e+001 3.582301e+001 2.477636e+001 3.284401e+001 8.275136e+000 1.533316e+000 2.142473e+000 2.411050e+000 2.209965e+000 3.365146e+000 3.158789e+000 3.365384e+000 3.081440e+000 2.567836e+000 2.576344e+000 1.736959e+000 3.272317e+000 1.272028e+000 2.660565e-001 3.445578e-001 3.999597e-001 5.818344e-001 6.483879e-001 5.788074e-001 5.815061e-001 4.016238e-001 4.447614e-001 5.063475e-001 3.808126e-001 4.876045e-001 1.717135e-001
<GCONST> 1.167242e+002
<MIXTURE> 11 1.928607e-002
<MEAN> 39
 -1.037531e+001 1.825779e+000 -3.203357e+000 -1.170551e+000 -1.851586e+000 1.054999e+000 2.270942e+000 3.933704e+000 3.557200e+000 2.938494e+000 2.269603e+000 1.642116e+000 4.949110e+001 4.667683e-002 5.620970e-002 1.181282e-001 1.096988e-001 1.251809e-001 6.967440e-002 6.073087e-002 1.093778e-001 1.971012e-001 2.542282e-001 2.112239e-001 1.808842e-001 1.720853e-002 8.819845e-002 1.703620e-001 2.720687e-001 3.488935e-001 3.395375e-001 3.140468e-001 1.912949e-001 9.708091e-002 4.735298e-002 6.245396e-002 3.964347e-002 9.671971e-003 5.280030e-002
<VARIANCE> 39
 5.113139e-001 1.348713e+000 2.225459e+000 3.473911e+000 4.899856e+000 7.153008e+000 8.721389e+000 9.065900e+000 1.038912e+001 1.048838e+001 1.023307e+001 8.443381e+000 1.818423e-001 6.900670e-002 1.695971e-001 3.236043e-001 5.218365e-001 6.899342e-001 7.469729e-001 9.534837e-001 1.049155e+000 1.089095e+000 1.149563e+000 1.041934e+000 9.467967e-001 2.267246e-002 1.288169e-002 2.830900e-002 5.139368e-002 9.010960e-002 1.218955e-001 1.737065e-001 2.118378e-001 2.148550e-001 2.459598e-001 2.597193e-001 2.359366e-001 1.953354e-001 5.027135e-003
<GCONST> 4.690168e+001
<MIXTURE> 12 2.009297e-002
<MEAN> 39
 -8.340427e+000 5.497790e+000 2.285444e-001 1.303013e+000 -4.633672e-001 1.194836e+000 -1.624315e-001 2.074346e+000 2.405182e+000 1.712732e+000 1.762326e+000 -1.158070e-001 5.721800e+001 5.365391e-001 -1.997705e-001 1.881429e-001 -4.775985e-001 -2.291560e-003 5.791771e-001 3.704143e-002 4.530424e-001 -3.889945e-002 3.334380e-001 1.886676e-001 3.881286e-001 1.723513e+000 2.601760e-001 1.262484e-001 3.858253e-001 -1.639991e-001 -3.772315e-001 -1.133601e-001 -2.155978e-001 1.634203e-001 1.327846e-001 1.884420e-001 1.203459e-001 6.615497e-003 9.273555e-001
<VARIANCE> 39
 2.126430e+001 2.214540e+001 2.650978e+001 3.349844e+001 2.513392e+001 3.031952e+001 2.657833e+001 2.570048e+001 2.529024e+001 1.843833e+001 1.836748e+001 1.779718e+001 1.463073e+001 6.028373e+000 3.825639e+000 4.120026e+000 4.231935e+000 3.533987e+000 4.057821e+000 3.375569e+000 3.589839e+000 3.396609e+000 2.920228e+000 2.319397e+000 2.496361e+000 6.484812e+000 5.479133e-001 4.374312e-001 4.504236e-001 6.098121e-001 5.023633e-001 5.174156e-001 5.793923e-001 5.015776e-001 5.364065e-001 4.317009e-001 3.466452e-001 4.152848e-001 4.363546e-001
<GCONST> 1.199414e+002
<MIXTURE> 13 1.538812e-002
<MEAN> 39
 -8.143260e-001 -1.356378e+000 1.295149e+001 -2.673707e+000 -1.783160e+001 -8.439109e+000 -1.004784e+001 6.582624e+000 -1.186821e-001 -2.117218e+000 3.820311e+000 -2.662540e+000 7.322678e+001 1.015115e+000 -1.142707e+000 1.729119e+000 -7.967526e-001 -1.839534e+000 -2.767564e-001 -5.242541e-001 1.485089e+000 -3.570182e-001 1.966813e-001 1.009794e+000 -2.490273e-001 1.625867e+000 -2.518203e-001 7.155159e-001 -3.907357e-001 3.198690e-001 9.963065e-001 8.484407e-001 5.590476e-001 -3.392844e-001 3.457420e-001 3.918341e-001 -2.548924e-002 4.344975e-002 -4.929972e-001
<VARIANCE> 39
 5.549627e+000 2.631392e+001 3.397393e+001 1.901987e+001 2.775636e+001 1.649742e+001 2.932072e+001 2.449117e+001 3.205376e+001 1.501187e+001 2.372825e+001 1.887285e+001 9.905812e+000 3.007610e+000 3.009008e+000 4.485585e+000 1.918632e+000 4.747967e+000 3.244286e+000 4.873411e+000 3.411217e+000 4.850067e+000 2.889889e+000 2.693825e+000 2.701619e+000 1.627600e+000 6.237655e-001 4.892386e-001 4.018425e-001 4.123261e-001 7.010126e-001 4.383196e-001 6.930271e-001 5.554856e-001 4.853240e-001 3.708022e-001 4.641674e-001 5.919760e-001 3.113624e-001
<GCONST> 1.161292e+002
<MIXTURE> 14 1.178050e-002
<MEAN> 39
 -1.035521e+001 2.368605e+000 -2.359549e+000 7.959837e-002 -6.117841e-001 2.459464e+000 2.474709e+000 2.765845e+000 1.196083e+000 -1.002268e-001 -5.169364e-001 -5.838769e-001 4.989878e+001 1.100796e-001 1.161753e-001 2.314468e-001 4.115154e-001 5.434229e-001 6.509600e-001 6.727904e-001 6.859764e-001 5.784771e-001 4.474658e-001 2.956831e-001 1.663686e-001 4.457638e-002 3.979365e-002 9.364334e-002 1.231035e-001 2.073829e-001 1.426161e-001 1.816762e-001 3.024131e-002 1.540412e-001 4.128087e-001 4.861022e-001 5.136795e-001 3.663216e-001 1.134268e-001
<VARIANCE> 39
 9.449373e-001 2.268200e+000 2.582777e+000 3.969713e+000 6.089221e+000 7.954258e+000 7.882302e+000 8.892042e+000 9.225594e+000 9.173223e+000 8.562899e+000 8.452805e+000 6.637642e-001 1.711193e-001 2.788139e-001 4.046410e-001 5.939841e-001 6.630176e-001 1.126914e+000 1.222466e+000 1.132285e+000 1.169946e+000 1.258932e+000 1.302527e+000 1.161565e+000 1.140035e-001 3.936643e-002 4.976439e-002 7.608713e-002 1.041676e-001 1.434354e-001 1.864617e-001 2.024738e-001 2.200431e-001 2.257636e-001 2.107785e-001 2.132981e-001 2.101572e-001 1.487712e-002
<GCONST> 5.723912e+001
<MIXTURE> 15 8.577900e-003
<MEAN> 39
 -1.024277e+001 3.345607e+000 -1.091796e+000 2.327930e+000 8.118386e-001 4.468399e+000 3.824153e+000 5.450940e+000 5.167500e+000 4.083133e+000 3.879619e+000 1.736537e+000 5.177471e+001 2.769700e-001 1.150310e-001 1.948897e-001 2.857203e-001 2.663461e-001 4.729493e-001 2.871740e-001 2.157536e-001 5.776345e-001 3.425482e-001 3.494329e-001 2.320068e-001 -6.490993e-002 1.255264e-002 2.454850e-002 5.607277e-002 -2.045549e-002 -3.477307e-002 -7.383751e-002 -2.008134e-001 -2.347833e-001 -1.350757e-001 -1.167258e-001 -6.940851e-002 1.247181e-002 2.384456e-001
<VARIANCE> 39
 4.672657e+000 6.858983e+000 8.466573e+000 9.003519e+000 1.158185e+001 1.602116e+001 1.314268e+001 1.297876e+001 1.308759e+001 1.103710e+001 1.412360e+001 1.165575e+001 2.152824e+000 7.855787e-001 6.541007e-001 8.252369e-001 8.192002e-001 9.950328e-001 1.998571e+000 1.424407e+000 1.572983e+000 1.457085e+000 1.456582e+000 1.768920e+000 1.376506e+000 6.046972e-001 1.161522e-001 1.054248e-001 1.689122e-001 1.556232e-001 1.863616e-001 2.401808e-001 2.985195e-001 2.232245e-001 3.001680e-001 2.967123e-001 3.266945e-001 2.859924e-001 1.233084e-001
<GCONST> 8.152215e+001
<MIXTURE> 16 1.154596e-002
<MEAN> 39
 -3.856528e+000 3.887500e+000 -1.947325e-001 -1.424759e+000 -6.485411e+000 -5.380309e+000 -4.701685e+000 2.861076e+000 5.214949e+000 4.690932e+000 1.867887e+000 -1.558182e+000 5.687946e+001 -1.047416e+000 -1.275225e-001 -6.675192e-001 1.571048e-001 1.003565e+000 7.784836e-001 9.969964e-001 3.873018e-001 2.166505e-001 3.145247e-001 2.944154e-001 8.267376e-001 1.038828e-001 -6.828634e-002 -3.541412e-002 3.375292e-001 -3.421529e-002 2.765606e-001 4.544498e-001 1.063286e-001 2.796150e-001 -1.731934e-001 -1.060067e-001 9.660235e-002 1.111538e-001 1.183584e+000
<VARIANCE> 39
 9.134197e+000 1.362359e+001 2.462782e+001 1.674205e+001 2.904187e+001 2.575299e+001 2.395043e+001 3.181524e+001 2.495660e+001 1.997157e+001 3.016658e+001 2.284912e+001 8.026363e+000 2.040351e+000 1.782783e+000 2.664886e+000 2.091954e+000 2.306492e+000 2.871947e+000 2.139785e+000 2.858338e+000 2.497985e+000 2.369169e+000 2.260241e+000 1.765816e+000 4.169616e+000 3.321370e-001 3.154326e-001 4.405614e-001 3.818555e-001 3.793740e-001 4.067788e-001 4.480187e-001 4.524785e-001 4.404871e-001 4.822956e-001 4.112271e-001 3.950451e-001 3.064504e-001
<GCONST> 1.098548e+002
<MIXTURE> 17 2.460871e-002
<MEAN> 39
 1.044736e+000 -9.368966e+000 6.424399e-001 -8.954000e+000 -5.044988e+000 6.301792e-001 -7.449965e+000 6.960348e+000 5.579269e+000 -2.567063e+000 -1.936477e+000 -1.168188e+001 7.649637e+001 7.620867e-002 1.212597e-001 1.082117e-001 9.473496e-002 5.340208e-001 3.732871e-001 2.073073e-001 2.467078e-001 2.839050e-001 1.082552e-001 1.799852e-001 4.876259e-002 1.496601e-001 7.948159e-002 5.802571e-001 2.606813e-001 3.009308e-001 -4.109866e-002 -4.142579e-002 -3.045937e-002 -9.410857e-002 8.083902e-003 3.616499e-001 2.239455e-001 4.760897e-001 -2.817549e-001
<VARIANCE> 39
 5.326040e+000 1.774193e+001 3.745058e+001 2.043376e+001 6.138982e+001 3.576319e+001 2.180057e+001 3.733644e+001 1.911626e+001 3.065654e+001 2.731767e+001 2.562459e+001 3.866341e+000 2.946250e-001 1.225303e+000 1.116888e+000 7.219945e-001 1.849544e+000 1.461975e+000 1.265387e+000 1.605944e+000 1.096651e+000 1.544391e+000 1.367946e+000 1.544180e+000 3.373178e-001 6.670481e-002 2.323113e-001 1.608780e-001 1.550193e-001 2.184330e-001 1.797964e-001 1.782496e-001 3.223902e-001 2.168651e-001 2.388717e-001 2.404080e-001 2.754688e-001 1.032695e-001
<GCONST> 9.029886e+001
<MIXTURE> 18 9.074465e-003
<MEAN> 39
 -4.697791e+000 7.698755e+000 1.967219e+001 -8.113552e+000 -1.947882e+001 5.833451e+000 -1.375689e+001 1.806169e+000 -5.795522e+000 -1.067961e-001 3.632778e+000 -9.356295e+000 7.055314e+001 5.626936e-002 4.429749e-001 1.373098e-001 2.003749e-001 2.452257e-001 4.038197e-001 2.706062e-001 2.225157e-001 3.695794e-001 2.001001e-001 2.208177e-001 2.273979e-001 9.406596e-003 2.223184e-001 -1.267423e-002 -1.549879e-001 3.956512e-001 2.615438e-001 -2.371721e-001 4.484085e-001 -6.217852e-003 2.096323e-001 1.288685e-001 3.097844e-002 2.811402e-001 -7.123427e-002
<VARIANCE> 39
 8.305578e+000 5.039294e+001 3.976667e+001 1.746039e+001 3.577045e+001 5.586957e+001 3.242910e+001 3.584121e+001 2.039498e+001 3.420202e+001 2.122915e+001 2.336201e+001 1.115279e+001 2.625980e-001 9.368684e-001 1.059721e+000 8.651193e-001 1.185632e+000 1.226219e+000 1.169413e+000 1.003720e+000 1.033945e+000 1.036685e+000 9.048529e-001 9.234655e-001 2.815783e-001 5.720980e-002 1.800720e-001 1.754566e-001 1.961928e-001 3.196665e-001 2.604721e-001 3.303227e-001 2.165206e-001 1.872876e-001 1.997432e-001 2.099810e-001 1.937184e-001 6.507251e-002
<GCONST> 8.946053e+001
<MIXTURE> 19 2.681130e-002
<MEAN> 39
 -1.711646e+001 8.051834e+000 5.842432e+000 -2.080635e-001 -3.437882e+000 6.321563e-001 -1.818621e+000 3.141373e+000 2.924930e+000 5.496733e-001 2.095432e+000 1.429371e+000 6.698495e+001 6.776786e-002 1.698567e-001 5.704365e-001 4.203711e-001 4.041654e-001 5.324195e-001 5.980107e-001 1.904404e-001 8.345424e-002 -2.195472e-002 2.445949e-001 2.204537e-001 3.797084e-003 1.267410e+000 -4.791731e-002 3.432732e-001 1.496699e-001 -2.851807e-001 -6.770861e-002 -1.914494e-001 3.934522e-002 2.282859e-002 1.668744e-001 7.575017e-002 -2.142061e-001 -1.136331e-002
<VARIANCE> 39
 5.856972e+001 4.599415e+001 8.445660e+001 5.169930e+001 5.600649e+001 4.435930e+001 3.319456e+001 4.016517e+001 2.816569e+001 2.314542e+001 2.349904e+001 1.817671e+001 1.020558e+001 8.462861e+000 2.041239e+000 3.991646e+000 2.169295e+000 3.461154e+000 3.387591e+000 2.676195e+000 2.483142e+000 2.248373e+000 1.917917e+000 1.876343e+000 1.681114e+000 1.726890e+000 5.978814e-001 5.256808e-001 6.795802e-001 7.490782e-001 7.823452e-001 7.082720e-001 6.502976e-001 6.586761e-001 5.186347e-001 4.309070e-001 4.328369e-001 4.314355e-001 2.555428e-001
<GCONST> 1.225391e+002
<MIXTURE> 20 2.422198e-002
<MEAN> 39
 -9.575709e+000 3.377406e+000 -6.723425e-001 1.937862e+000 1.109525e+000 3.136362e+000 2.918558e+000 3.306719e+000 1.906665e+000 1.136830e+000 8.548197e-001 6.282733e-001 4.979634e+001 5.572471e-002 6.038061e-002 2.761013e-002 -2.563559e-002 1.742040e-002 1.778932e-002 7.404175e-002 7.930425e-002 2.154170e-002 1.024759e-001 1.174197e-001 1.407074e-001 7.569723e-003 -2.856506e-002 -4.896170e-002 -1.004293e-001 -1.255247e-001 -1.133612e-001 -1.931582e-002 7.068489e-002 1.643049e-001 3.035935e-001 3.091506e-001 2.244541e-001 1.567858e-001 4.091561e-003
<VARIANCE> 39
