~o
<STREAMINFO> 1 39
<VECSIZE> 39<NULLD><MFCC_D_A_0><DIAGC>
~h "a"
<BEGINHMM>
<NUMSTATES> 5
<STATE> 2
<MEAN> 39
 2.908146e+000 -4.986457e+000 -3.264911e+000 -6.429507e+000 5.798462e-001 -6.376582e+000 -9.753415e+000 -7.702044e+000 -1.006889e+000 8.299024e+000 -5.258821e+000 -3.689343e+000 6.504690e+001 1.229396e+000 -9.256551e-001 -1.777138e-001 -1.667384e+000 1.009019e+000 4.117917e-002 1.639741e-001 6.357229e-001 3.920231e-001 9.068092e-001 -8.247744e-001 -8.995212e-001 1.331259e+000 -3.945696e-001 3.831714e-001 5.612108e-002 3.322719e-001 -3.353957e-001 1.634645e-001 4.690250e-001 1.704056e-001 -1.819962e-001 -4.730261e-001 5.585573e-002 4.496762e-002 -5.107629e-001
<VARIANCE> 39
 2.860570e+001 3.222647e+001 4.160681e+001 4.514154e+001 4.287439e+001 7.215181e+001 6.222521e+001 7.820930e+001 5.045862e+001 4.340255e+001 3.703617e+001 4.131235e+001 2.573618e+001 3.664444e+000 3.356249e+000 3.380318e+000 3.880041e+000 3.458252e+000 4.683503e+000 4.102483e+000 6.462384e+000 4.645814e+000 3.822704e+000 2.914757e+000 2.959305e+000 2.635819e+000 5.132070e-001 4.927353e-001 5.027249e-001 6.798351e-001 6.416503e-001 6.876495e-001 9.882622e-001 9.680751e-001 8.670632e-001 7.517619e-001 5.224509e-001 6.632393e-001 4.322728e-001
<GCONST> 1.323506e+002
<STATE> 3
<MEAN> 39
 3.951351e+000 -7.237072e+000 -2.759148e+000 -9.609180e+000 1.918396e+000 -5.626992e+000 -8.872306e+000 -4.696948e+000 -1.240846e+000 8.191499e+000 -8.083227e+000 -5.845688e+000 6.681716e+001 2.391949e-001 4.428441e-001 -2.824439e-001 -1.030713e-001 -3.623388e-001 5.739953e-001 9.660603e-001 3.723707e-001 -2.503805e-001 -1.990243e-001 2.516452e-001 -3.228597e-001 -5.658037e-001 -2.167277e-001 5.878433e-001 -4.751140e-002 5.483119e-001 -4.252957e-001 1.650101e-001 3.452559e-001 -2.407972e-001 -1.871076e-001 -2.336142e-001 3.847460e-001 2.134578e-001 -5.429777e-001
<VARIANCE> 39
 1.314155e+001 2.948042e+001 2.566775e+001 3.873716e+001 3.371100e+001 6.439418e+001 5.002133e+001 7.863136e+001 4.420413e+001 4.241738e+001 3.627667e+001 3.160706e+001 1.295937e+001 8.649235e-001 2.104738e+000 2.037232e+000 2.420129e+000 2.978126e+000 3.465300e+000 3.548496e+000 3.913285e+000 3.376840e+000 2.515249e+000 2.488449e+000 2.276147e+000 1.198263e+000 3.058716e-001 3.100309e-001 3.738509e-001 3.831648e-001 4.895928e-001 5.333553e-001 6.424464e-001 7.590951e-001 6.599417e-001 5.950074e-001 4.475797e-001 4.384535e-001 1.806636e-001
<GCONST> 1.182214e+002
<STATE> 4
<MEAN> 39
 4.471270e+000 -1.441125e+000 -6.065386e+000 -6.284029e+000 -1.655665e+000 -9.869459e-001 -3.404178e+000 -4.329206e+000 -9.407986e-001 6.470315e+000 -4.244037e+000 -5.701041e+000 6.032202e+001 -2.885023e-001 1.561136e+000 -6.850677e-001 9.115595e-001 -7.503700e-001 9.320918e-001 1.255928e+000 1.770905e-001 -1.646895e-001 -5.641239e-001 4.061847e-001 -3.387750e-002 -1.703786e+000 -3.901064e-001 -1.511485e-002 1.308989e-001 2.864778e-002 1.223070e-001 -2.157865e-001 -3.622226e-001 -1.470301e-001 1.072708e-002 -1.382820e-001 -1.728964e-001 2.043805e-001 1.061956e-001
<VARIANCE> 39
 2.578823e+001 3.326838e+001 3.629038e+001 4.679031e+001 4.119679e+001 7.857516e+001 4.747441e+001 8.067913e+001 4.953942e+001 4.060666e+001 3.245694e+001 3.420304e+001 3.950580e+001 1.560795e+000 1.503406e+000 2.571405e+000 2.075164e+000 2.688211e+000 3.656600e+000 3.725598e+000 3.946328e+000 3.996669e+000 2.549280e+000 2.340017e+000 2.535634e+000 1.309843e+000 3.357337e-001 3.326151e-001 3.402618e-001 4.018988e-001 4.823750e-001 6.248724e-001 6.511424e-001 7.547516e-001 6.373230e-001 4.629286e-001 5.162877e-001 4.934050e-001 2.301190e-001
<GCONST> 1.222213e+002
<TRANSP> 5
 0.000000e+000 1.000000e+000 0.000000e+000 0.000000e+000 0.000000e+000
 0.000000e+000 3.741070e-001 6.258929e-001 0.000000e+000 0.000000e+000
 0.000000e+000 0.000000e+000 6.008782e-001 3.991218e-001 0.000000e+000
 0.000000e+000 0.000000e+000 0.000000e+000 5.231400e-001 4.768600e-001
 0.000000e+000 0.000000e+000 0.000000e+000 0.000000e+000 0.000000e+000
<ENDHMM>
~h "b"
<BEGINHMM>
<NUMSTATES> 5
<STATE> 2
<MEAN> 39
 4.579904e+000 9.448515e+000 -2.898428e+000 9.556426e-001 -4.189747e+000 -7.195725e-001 -6.331501e+000 -9.440975e+000 -6.694578e+000 2.204606e-001 -2.019378e+000 -2.878543e+000 5.250520e+001 1.165842e+000 2.006323e+000 -6.308056e-001 1.085335e+000 -1.559744e-001 6.335331e-001 7.666229e-001 -2.214346e-001 -6.171900e-001 -8.410814e-001 2.473274e-003 -3.761898e-001 -1.292363e+000 -3.549343e-001 -3.334372e-001 2.625404e-001 -1.343678e-001 1.217575e-001 -1.680490e-001 -2.900515e-001 1.078984e-001 3.813392e-001 1.570594e-001 -1.997633e-001 1.861079e-001 2.586881e-001
<VARIANCE> 39
 5.759140e+001 4.148899e+001 3.409987e+001 4.959117e+001 7.304958e+001 6.464296e+001 4.402404e+001 4.039484e+001 3.809454e+001 2.974703e+001 2.419607e+001 3.175488e+001 4.973399e+001 5.111692e+000 1.464208e+000 2.614259e+000 2.243944e+000 2.818312e+000 2.780315e+000 4.136846e+000 3.721662e+000 3.287021e+000 3.148608e+000 2.039798e+000 2.388075e+000 4.986357e+000 6.849447e-001 4.791772e-001 3.348351e-001 3.333636e-001 7.336674e-001 3.967912e-001 6.945558e-001 6.701467e-001 6.311166e-001 4.492239e-001 4.839202e-001 4.493907e-001 3.558402e-001
<GCONST> 1.253931e+002
<STATE> 3
<MEAN> 39
 7.437487e+000 1.329261e+001 -3.552057e+000 8.989643e-001 -6.881363e+000 1.059543e+000 -3.283957e+000 -7.954500e+000 -8.179663e+000 -1.353611e+000 -2.740097e+000 -3.474732e+000 5.048953e+001 -5.695500e-001 2.950219e-001 1.458304e-001 1.011718e+000 6.813846e-001 4.445422e-002 -3.103795e-001 3.949704e-001 1.082009e+000 -4.703180e-001 -4.102247e-001 2.612826e-001 -6.769025e-001 -3.589599e-001 -1.210718e+000 5.059377e-001 -8.102388e-002 3.570399e-001 -6.118789e-001 -1.056972e+000 -3.312015e-001 3.995238e-001 3.857362e-001 -4.307545e-002 3.239186e-001 9.411126e-001
<VARIANCE> 39
 1.400931e+001 2.980288e+001 3.732557e+001 4.530701e+001 3.945558e+001 5.342628e+001 4.806673e+001 3.547518e+001 3.468778e+001 3.630823e+001 2.558691e+001 2.636806e+001 8.760896e+000 1.077860e+000 3.466129e+000 1.870863e+000 2.097496e+000 4.029877e+000 3.262660e+000 4.238413e+000 3.149882e+000 3.547042e+000 3.283144e+000 2.088080e+000 2.432159e+000 1.164020e+000 2.218883e-001 3.688836e-001 5.654476e-001 4.946236e-001 6.659895e-001 7.981042e-001 9.184023e-001 6.569385e-001 7.607158e-001 7.567589e-001 5.460342e-001 5.840333e-001 1.783288e-001
<GCONST> 1.198139e+002
<STATE> 4
<MEAN> 39
 3.673773e+000 7.619936e+000 -2.026260e+000 4.939784e+000 -1.404253e+000 -1.797644e+000 -9.109320e+000 -8.408218e+000 -2.191926e+000 -1.282029e+000 -4.811355e+000 -1.891743e+000 5.248391e+001 -7.429899e-001 -3.183593e+000 1.370708e+000 1.814802e-002 6.365532e-001 -1.809124e+000 -3.328104e+000 -1.240668e+000 9.753045e-001 8.277951e-001 1.120140e-001 1.234999e+000 2.569573e+000 3.007500e-001 -2.714371e-001 4.944490e-001 -7.095183e-001 -6.927294e-001 -2.078928e-001 -2.820340e-002 -2.349164e-001 -6.670649e-001 5.712124e-001 2.057829e-001 2.086412e-002 6.624461e-001
<VARIANCE> 39
 2.311518e+001 5.172008e+001 3.060118e+001 5.456477e+001 4.384259e+001 7.051618e+001 7.143202e+001 5.834381e+001 5.900251e+001 4.279255e+001 3.105799e+001 3.511493e+001 2.356851e+001 3.558657e+000 4.484160e+000 6.390365e+000 6.494299e+000 7.179245e+000 8.072590e+000 7.024065e+000 5.627190e+000 7.851415e+000 6.596799e+000 4.044380e+000 3.964383e+000 1.738571e+000 3.946373e-001 1.151011e+000 8.801887e-001 7.679241e-001 1.053447e+000 1.294737e+000 1.449060e+000 1.316956e+000 1.412557e+000 8.584360e-001 6.357709e-001 6.132368e-001 4.941336e-001
<GCONST> 1.403728e+002
<TRANSP> 5
 0.000000e+000 1.000000e+000 0.000000e+000 0.000000e+000 0.000000e+000
 0.000000e+000 4.267587e-001 5.732414e-001 0.000000e+000 0.000000e+000
 0.000000e+000 0.000000e+000 5.964528e-001 4.035472e-001 0.000000e+000
 0.000000e+000 0.000000e+000 0.000000e+000 5.591140e-001 4.408860e-001
 0.000000e+000 0.000000e+000 0.000000e+000 0.000000e+000 0.000000e+000
<ENDHMM>
~h "c"
<BEGINHMM>
<NUMSTATES> 5
<STATE> 2
<MEAN> 39
 -6.953877e+000 9.337631e+000 -4.305693e+000 7.125282e-002 6.842477e-001 -5.797554e+000 -1.427606e+000 -3.986953e+000 -2.997679e+000 3.141529e-001 -3.147745e+000 -2.383806e+000 5.455161e+001 -4.347477e+000 5.784450e-001 -1.236628e+000 2.048061e-001 1.439649e+000 -1.102986e+000 -4.542820e-001 4.047136e-001 8.794334e-001 -1.104930e+000 -6.121367e-001 1.094942e+000 1.393898e+000 -7.039268e-001 -6.939117e-001 3.510808e-001 -2.424519e-001 -2.038879e-002 -5.615743e-001 -4.978181e-001 -8.300298e-002 -3.010151e-002 1.136323e-001 -2.684023e-001 1.558895e-001 1.024675e+000
<VARIANCE> 39
 7.765417e+001 5.502411e+001 7.154485e+001 5.032732e+001 6.529571e+001 5.380812e+001 4.190702e+001 5.281129e+001 4.381133e+001 4.788982e+001 2.598441e+001 3.378868e+001 3.937867e+001 5.671284e+000 6.195736e+000 4.931517e+000 3.244739e+000 3.558713e+000 5.234955e+000 5.315946e+000 5.455074e+000 3.035393e+000 4.037826e+000 3.439315e+000 3.178100e+000 4.765818e+000 1.048185e+000 8.040682e-001 6.798448e-001 5.310126e-001 8.372433e-001 6.427659e-001 1.050797e+000 8.671966e-001 6.473110e-001 7.893120e-001 5.447941e-001 6.036342e-001 6.689550e-001
<GCONST> 1.371872e+002
<STATE> 3
<MEAN> 39
 -2.358747e+001 5.631755e+000 -5.181373e+000 9.318364e-002 2.924699e+000 -1.172144e+001 -4.116893e+000 -3.818050e+000 -1.827196e+000 -1.786785e+000 -6.034420e+000 1.958627e+000 6.427573e+001 -1.712629e+000 -2.123526e+000 -4.034252e-002 1.717184e-001 -7.717429e-001 -1.275192e+000 -3.041741e-001 1.914854e-001 1.710904e-003 -1.687356e-001 -5.971833e-001 1.497820e-001 1.104648e+000 1.384451e+000 -2.555128e-001 1.431080e-001 4.482558e-002 -4.007232e-001 3.389019e-001 2.481390e-001 -5.314908e-002 -1.617263e-001 2.558232e-001 1.438181e-001 -4.972263e-001 -7.821155e-001
<VARIANCE> 39
 2.656496e+001 4.824977e+001 3.739627e+001 4.250687e+001 4.538107e+001 3.971511e+001 4.261693e+001 4.145835e+001 3.761765e+001 4.945531e+001 2.771507e+001 3.486028e+001 1.256060e+001 5.715532e+000 4.374894e+000 3.604237e+000 3.364986e+000 3.164681e+000 3.300870e+000 3.825582e+000 3.928769e+000 2.767471e+000 3.645841e+000 2.403023e+000 2.848180e+000 2.960932e+000 4.058017e-001 9.935886e-001 6.257685e-001 5.930403e-001 6.140403e-001 6.686660e-001 7.313806e-001 8.144385e-001 5.168719e-001 6.204400e-001 4.848606e-001 5.284148e-001 3.027549e-001
<GCONST> 1.272002e+002
<STATE> 4
<MEAN> 39
 -1.741494e+001 -1.369343e+000 -6.208245e+000 4.336678e-001 -9.942775e-001 -9.654936e+000 -2.359409e+000 -2.786824e+000 -9.929810e-001 4.511767e-001 -7.088086e+000 -2.988189e+000 5.845276e+001 2.314270e+000 2.667101e-001 3.737157e-001 7.230557e-002 -2.782144e-001 4.777571e-001 -1.649138e-001 -2.734623e-001 -8.338472e-002 7.438091e-001 3.287538e-001 -5.611826e-001 -1.125250e+000 6.021116e-001 6.741866e-001 2.908775e-001 -1.234686e-001 1.475234e-001 1.185851e-001 -2.865411e-001 -1.498597e-001 -6.846070e-002 2.581821e-001 1.754004e-001 1.011554e-001 1.855384e-001
<VARIANCE> 39
 7.159998e+001 3.541843e+001 4.763989e+001 3.030823e+001 4.082526e+001 7.825881e+001 5.455212e+001 4.029230e+001 3.405180e+001 5.413368e+001 3.151847e+001 3.943144e+001 6.661311e+001 5.181210e+000 3.964727e+000 3.272855e+000 2.404902e+000 2.606173e+000 3.014005e+000 4.544347e+000 3.247688e+000 2.366303e+000 3.478706e+000 2.716385e+000 2.701336e+000 2.385378e+000 5.087516e-001 6.246523e-001 4.542883e-001 4.786943e-001 4.330513e-001 5.416592e-001 6.811966e-001 6.142684e-001 4.839717e-001 6.255806e-001 5.471017e-001 4.515909e-001 4.881545e-001
<GCONST> 1.279043e+002
<TRANSP> 5
 0.000000e+000 1.000000e+000 0.000000e+000 0.000000e+000 0.000000e+000
 0.000000e+000 6.884415e-001 3.115585e-001 0.000000e+000 0.000000e+000
 0.000000e+000 0.000000e+000 7.522702e-001 2.477298e-001 0.000000e+000
 0.000000e+000 0.000000e+000 0.000000e+000 7.843540e-001 2.156460e-001
 0.000000e+000 0.000000e+000 0.000000e+000 0.000000e+000 0.000000e+000
<ENDHMM>
~h "d"
<BEGINHMM>
<NUMSTATES> 5
<STATE> 2
<MEAN> 39
 2.876936e+000 4.978664e+000 2.594576e-001 3.368064e+000 -6.634706e+000 -5.598692e+000 -7.546908e+000 -7.479023e+000 -2.893386e+000 -1.246841e+000 -6.076565e+000 -2.166582e+000 5.569027e+001 -3.148631e-001 -8.396537e-001 1.243535e+000 8.844820e-001 -2.321510e-001 2.686798e-001 -9.843487e-001 -7.160480e-001 9.746459e-001 -9.116693e-001 -2.467445e-001 7.967085e-001 6.054033e-001 -1.336540e-001 -6.906211e-001 4.588158e-001 -5.306976e-001 2.815500e-002 -1.894498e-001 -7.874902e-001 -3.609134e-002 6.382148e-002 2.880413e-001 2.867526e-001 1.973705e-001 7.124687e-001
<VARIANCE> 39
 3.526709e+001 4.883008e+001 6.534190e+001 4.950775e+001 4.826727e+001 7.646055e+001 5.011965e+001 6.482207e+001 5.554246e+001 3.809947e+001 4.308337e+001 3.932995e+001 3.292929e+001 4.040971e+000 6.605098e+000 4.202217e+000 4.796651e+000 5.764313e+000 7.779138e+000 6.690955e+000 7.076182e+000 4.705484e+000 5.078175e+000 4.021153e+000 3.651058e+000 3.895911e+000 4.351010e-001 8.856747e-001 7.543097e-001 5.647815e-001 9.438139e-001 1.448748e+000 1.083291e+000 1.167916e+000 9.334528e-001 7.535531e-001 7.925355e-001 8.134054e-001 6.298479e-001
<GCONST> 1.407535e+002
<STATE> 3
<MEAN> 39
 1.097216e+000 -3.537769e+000 5.491302e+000 4.373669e+000 -8.000587e+000 -4.576245e+000 -1.542383e+001 -1.044529e+001 1.873889e+000 -3.906895e+000 -5.773865e+000 2.055843e+000 6.144169e+001 -1.332793e-001 -1.596553e+000 1.430243e+000 -4.129819e-001 -4.572439e-001 -1.012454e+000 -2.375549e+000 -9.496937e-002 4.600606e-001 3.059944e-001 8.995612e-001 4.515571e-001 1.650134e+000 5.048292e-001 6.357661e-001 -4.645353e-001 -6.183774e-001 3.097475e-001 -1.536317e-001 4.427491e-001 3.260862e-001 -8.409064e-001 9.272546e-001 2.151302e-001 -6.234167e-001 -1.409840e-001
<VARIANCE> 39
 3.449970e+001 4.678923e+001 6.873661e+001 6.816653e+001 7.857552e+001 7.612411e+001 6.757636e+001 9.849003e+001 7.560648e+001 6.142382e+001 4.577984e+001 4.553458e+001 1.838574e+001 2.362771e+000 4.298977e+000 4.860267e+000 4.891294e+000 5.425249e+000 7.374358e+000 5.328026e+000 9.051699e+000 5.907279e+000 5.357930e+000 4.234993e+000 4.501672e+000 2.144255e+000 4.344146e-001 8.579455e-001 7.646595e-001 9.231656e-001 1.522720e+000 1.458530e+000 1.093461e+000 1.644707e+000 1.179721e+000 1.203153e+000 9.521071e-001 7.434355e-001 4.043291e-001
<GCONST> 1.433788e+002
<STATE> 4
<MEAN> 39
 4.023830e+000 -2.534153e+000 5.515580e+000 1.546464e+000 -8.181405e+000 -6.904968e+000 -1.790983e+001 -9.216592e+000 -1.095869e+000 3.695090e-001 -2.674735e+000 -1.193352e+000 6.273433e+001 7.753121e-001 5.444198e-001 -3.781402e-001 -1.302711e+000 7.639468e-001 -3.049261e-001 -1.288834e-001 5.325118e-001 -1.450836e+000 1.760426e+000 4.784590e-001 -8.614318e-001 1.738265e-001 4.363622e-002 4.309743e-001 -5.543915e-001 -1.528701e-001 2.219187e-001 3.468196e-001 9.454316e-001 4.747830e-002 -3.331314e-001 2.026912e-001 -4.107220e-001 -1.884873e-001 -4.290142e-001
<VARIANCE> 39
 2.066896e+001 3.269736e+001 4.152940e+001 4.209644e+001 4.425388e+001 6.461687e+001 6.406500e+001 8.788958e+001 6.872287e+001 3.956660e+001 4.068341e+001 3.092476e+001 1.320456e+001 1.472003e+000 2.945641e+000 3.992091e+000 3.596598e+000 4.466288e+000 5.628100e+000 4.436855e+000 6.763214e+000 6.761927e+000 4.812032e+000 4.451079e+000 3.409895e+000 1.578274e+000 2.809053e-001 5.115582e-001 5.084317e-001 6.813352e-001 7.386535e-001 9.211388e-001 9.816712e-001 1.150306e+000 1.015048e+000 6.297721e-001 7.722104e-001 6.214647e-001 2.782608e-001
<GCONST> 1.315710e+002
<TRANSP> 5
 0.000000e+000 1.000000e+000 0.000000e+000 0.000000e+000 0.000000e+000
 0.000000e+000 5.432396e-001 4.567604e-001 0.000000e+000 0.000000e+000
 0.000000e+000 0.000000e+000 3.850603e-001 6.149397e-001 0.000000e+000
 0.000000e+000 0.000000e+000 0.000000e+000 4.307930e-001 5.692070e-001
 0.000000e+000 0.000000e+000 0.000000e+000 0.000000e+000 0.000000e+000
<ENDHMM>
~h "e"
<BEGINHMM>
<NUMSTATES> 5
<STATE> 2
<MEAN> 39
 -2.708787e+000 -4.072838e-001 1.681952e+000 -1.940935e+000 -4.412372e+000 -8.696317e+000 -8.629386e+000 -2.465903e+000 -9.868559e-001 2.245117e+000 -5.783287e+000 -1.312933e+000 5.893819e+001 9.654218e-001 -1.690308e-001 4.514832e-001 -3.691002e-001 1.821594e-002 -6.318275e-001 -2.329031e-001 1.156751e+000 -3.392015e-002 4.081128e-001 -1.122774e-001 -1.864799e-001 5.154309e-001 -1.843419e-001 1.667007e-001 -1.201824e-001 -7.141346e-002 -2.600285e-002 4.174429e-001 4.078920e-001 -1.075877e-001 -1.898542e-001 -1.371401e-002 9.985305e-002 -5.517123e-002 -2.287970e-001
<VARIANCE> 39
 7.121706e+001 3.721592e+001 8.248602e+001 4.601952e+001 5.220398e+001 9.457890e+001 7.405963e+001 6.510098e+001 6.269106e+001 4.806736e+001 3.536556e+001 3.943462e+001 1.380445e+002 6.759086e+000 3.837883e+000 4.225896e+000 4.147300e+000 3.611167e+000 5.500273e+000 4.713904e+000 5.916686e+000 4.763076e+000 4.956906e+000 3.160214e+000 3.159418e+000 3.718145e+000 5.276505e-001 5.092692e-001 4.516932e-001 6.339701e-001 6.221435e-001 8.000236e-001 9.424628e-001 8.005555e-001 7.831966e-001 6.966373e-001 5.220323e-001 5.332702e-001 3.154983e-001
<GCONST> 1.375959e+002
<STATE> 3
<MEAN> 39
 1.190101e+000 -3.209340e+000 5.263899e+000 -4.691245e+000 -3.450992e+000 -1.372067e+001 -1.072237e+001 -4.676886e-001 -2.810198e+000 3.714132e+000 -7.200026e+000 -1.225006e+000 6.561249e+001 6.371587e-001 4.177860e-003 1.869060e-001 -5.652651e-001 -7.915927e-002 3.413879e-001 7.283069e-001 8.331442e-001 -3.596189e-001 1.812770e-001 -6.045290e-002 -2.322518e-001 2.596615e-002 -4.336584e-001 4.255996e-001 -3.691895e-001 3.069741e-001 -1.274914e-001 7.739560e-001 4.821046e-001 -6.331504e-001 -6.738629e-002 -1.611078e-001 2.220504e-001 -7.440356e-002 -6.058289e-001
<VARIANCE> 39
 2.115289e+001 2.863902e+001 5.094878e+001 3.237720e+001 4.361615e+001 5.783984e+001 4.598971e+001 6.021974e+001 5.980577e+001 5.073170e+001 3.298860e+001 3.523749e+001 3.375686e+001 2.913697e+000 2.233696e+000 3.665474e+000 3.116671e+000 2.742356e+000 4.086188e+000 4.040034e+000 4.210005e+000 4.365364e+000 3.727337e+000 2.468243e+000 2.684583e+000 1.950463e+000 5.119471e-001 5.105683e-001 4.190142e-001 5.186188e-001 5.512841e-001 6.521406e-001 6.861631e-001 1.006957e+000 8.522474e-001 8.790267e-001 5.653338e-001 4.823737e-001 2.696142e-001
<GCONST> 1.275942e+002
<STATE> 4
<MEAN> 39
 2.146977e+000 -1.083791e+000 3.478703e+000 -3.729965e+000 -4.726633e+000 -9.804790e+000 -7.279654e+000 -2.523234e-001 -3.206185e+000 3.600123e+000 -5.822770e+000 -2.418604e+000 6.219795e+001 1.907871e-003 1.287582e+000 -9.127480e-001 5.872495e-001 -2.978291e-001 1.615154e+000 1.455285e+000 -3.996978e-001 9.652067e-004 -7.670338e-002 5.445984e-001 -2.822739e-001 -1.487655e+000 -3.853301e-001 1.572473e-001 -1.683875e-001 1.593859e-001 3.510435e-002 1.472859e-001 -3.950550e-002 -4.247533e-001 1.061413e-001 -1.153253e-001 1.325121e-002 7.619974e-002 -1.366723e-001
<VARIANCE> 39
 2.217087e+001 3.455406e+001 5.044201e+001 3.495659e+001 4.360646e+001 5.369063e+001 5.380664e+001 5.763209e+001 6.254519e+001 4.290754e+001 3.630436e+001 3.186477e+001 3.775708e+001 2.216419e+000 1.799774e+000 2.913731e+000 2.704255e+000 2.900145e+000 3.371550e+000 3.546319e+000 4.645681e+000 4.675633e+000 3.067087e+000 2.596341e+000 2.391855e+000 1.767291e+000 3.854087e-001 4.500271e-001 4.123383e-001 4.661134e-001 5.864482e-001 5.764039e-001 6.914534e-001 7.807230e-001 7.355371e-001 6.250775e-001 5.682772e-001 4.720701e-001 2.986310e-001
<GCONST> 1.253558e+002
<TRANSP> 5
 0.000000e+000 1.000000e+000 0.000000e+000 0.000000e+000 0.000000e+000
 0.000000e+000 3.265649e-001 6.734352e-001 0.000000e+000 0.000000e+000
 0.000000e+000 0.000000e+000 3.820023e-001 6.179978e-001 0.000000e+000
 0.000000e+000 0.000000e+000 0.000000e+000 4.562606e-001 5.437394e-001
 0.000000e+000 0.000000e+000 0.000000e+000 0.000000e+000 0.000000e+000
<ENDHMM>
~h "f"
<BEGINHMM>
<NUMSTATES> 5
<STATE> 2
<MEAN> 39
 -4.820230e+000 7.300535e-001 -2.518625e+000 3.478610e+000 -3.748340e-001 4.283564e-001 -3.347121e+000 -4.704882e-001 1.985061e+000 3.671390e-001 -2.408622e+000 7.509731e-001 6.049580e+001 -3.119931e+000 -6.071265e-001 -4.697711e-001 1.711809e+000 7.794207e-001 -1.102265e-001 -7.829440e-002 6.035912e-001 8.969489e-001 -7.441275e-001 4.696431e-001 -9.293264e-002 5.161349e-001 9.769380e-002 -2.165646e-001 1.204670e-001 -4.328844e-001 -1.704121e-001 -2.171318e-001 -2.632279e-001 -6.112259e-001 -4.757325e-001 3.264021e-001 -1.441912e-001 -1.758612e-001 5.304366e-002
<VARIANCE> 39
 4.782286e+001 4.428695e+001 3.688536e+001 3.647217e+001 3.021363e+001 5.100269e+001 3.661944e+001 4.376855e+001 5.488729e+001 3.602575e+001 5.976849e+001 2.507472e+001 4.342098e+001 2.095355e+000 2.936732e+000 1.647486e+000 3.087405e+000 3.992410e+000 4.089827e+000 3.611105e+000 3.283225e+000 2.587095e+000 3.472550e+000 1.915404e+000 2.873712e+000 1.315149e+000 5.270924e-001 5.063908e-001 2.506770e-001 4.006529e-001 5.255767e-001 5.435771e-001 6.183513e-001 6.712604e-001 4.014684e-001 6.330201e-001 3.257008e-001 5.315443e-001 3.183132e-001
<GCONST> 1.227969e+002
<STATE> 3
<MEAN> 39
 -1.235850e+001 -3.305981e+000 -3.360882e+000 6.662893e+000 1.043711e+000 -7.431372e-001 -6.312233e+000 -3.645735e+000 2.386521e+000 2.436616e+000 -2.823189e+000 -1.169918e+000 6.122698e+001 -8.790051e-001 -9.437175e-001 -2.013870e-001 2.876078e-001 -2.199323e-001 -7.835068e-001 -6.194710e-001 -8.050427e-001 -3.400082e-001 2.355600e-002 1.138512e-001 -3.125140e-001 -3.670589e-001 6.953810e-001 1.944371e-001 8.190676e-002 -4.869654e-001 -3.061647e-001 -2.067473e-001 1.145539e-001 -1.259861e-002 -2.642692e-001 4.658200e-002 1.249483e-001 1.356918e-001 -2.312861e-001
<VARIANCE> 39
 3.031035e+001 2.746761e+001 3.820146e+001 3.234581e+001 2.091681e+001 4.052465e+001 3.101518e+001 4.453931e+001 3.382832e+001 3.584459e+001 3.626522e+001 3.611847e+001 4.340650e+001 2.964888e+000 1.867352e+000 1.535886e+000 1.856205e+000 2.382525e+000 3.043210e+000 2.331787e+000 3.208356e+000 1.703417e+000 2.328454e+000 2.013867e+000 1.792002e+000 1.993599e+000 5.332708e-001 4.800345e-001 3.413649e-001 4.998133e-001 5.069988e-001 3.826452e-001 4.928182e-001 6.012977e-001 4.843742e-001 5.358614e-001 2.947430e-001 4.599663e-001 5.039711e-001
<GCONST> 1.176274e+002
<STATE> 4
<MEAN> 39
 -1.207980e+001 -4.976985e+000 -4.995207e+000 3.628997e+000 -8.822342e-001 -4.534291e+000 -7.156920e+000 -5.111186e+000 -5.863244e-001 2.597052e+000 -1.282152e+000 -1.726424e+000 5.699617e+001 1.335579e+000 4.966896e-001 3.438279e-001 -1.278992e+000 -7.713078e-001 3.974812e-002 7.822682e-001 -2.752131e-001 -9.597473e-001 3.892828e-001 7.729230e-001 3.195563e-001 -5.505419e-001 4.049147e-001 2.967995e-001 3.549945e-001 -2.531008e-001 -1.069496e-001 1.490614e-001 1.057510e-001 6.563039e-002 -1.331850e-001 1.187808e-001 -1.543110e-001 6.376292e-002 2.568625e-001
<VARIANCE> 39
 4.650991e+001 5.241650e+001 5.969287e+001 3.843734e+001 3.935164e+001 5.165237e+001 4.667779e+001 3.811858e+001 4.384674e+001 4.366614e+001 2.515144e+001 3.043501e+001 5.657806e+001 6.284222e+000 3.144617e+000 3.666362e+000 3.311213e+000 4.304969e+000 5.361737e+000 4.308697e+000 3.238203e+000 4.216796e+000 5.058097e+000 2.114438e+000 2.858396e+000 6.946371e+000 6.098804e-001 5.469994e-001 3.886737e-001 5.563129e-001 9.870800e-001 8.238729e-001 9.295857e-001 5.638047e-001 7.729368e-001 7.769816e-001 4.505042e-001 5.524581e-001 9.428523e-001
<GCONST> 1.331595e+002
<TRANSP> 5
 0.000000e+000 1.000000e+000 0.000000e+000 0.000000e+000 0.000000e+000
 0.000000e+000 6.280664e-001 3.719336e-001 0.000000e+000 0.000000e+000
 0.000000e+000 0.000000e+000 6.302196e-001 3.697804e-001 0.000000e+000
 0.000000e+000 0.000000e+000 0.000000e+000 6.421770e-001 3.578230e-001
 0.000000e+000 0.000000e+000 0.000000e+000 0.000000e+000 0.000000e+000
<ENDHMM>
~h "g"
<BEGINHMM>
<NUMSTATES> 5
<STATE> 2
<MEAN> 39
 2.138860e+000 -1.602373e-002 7.287497e+000 -6.977232e+000 -7.068990e+000 -1.381442e+001 -3.313218e+000 -2.241154e+000 -1.433889e+001 5.890054e+000 -4.209547e+000 -5.986319e+000 6.290147e+001 3.140486e-001 1.318484e+000 1.782026e-001 9.645535e-001 -8.162817e-001 1.443393e-001 7.233717e-001 -2.190502e-001 -1.699897e+000 -1.138573e-001 4.416321e-001 -9.455793e-001 -1.375709e+000 -7.866266e-002 5.745472e-002 -3.409469e-001 3.664566e-001 7.170974e-002 2.724918e-001 -8.029594e-002 -3.269795e-001 4.359937e-001 -2.861465e-001 -7.392278e-002 2.005012e-001 -1.829326e-001
<VARIANCE> 39
 2.400015e+001 2.027710e+001 6.994401e+001 4.703532e+001 3.778097e+001 8.006991e+001 6.692856e+001 1.093345e+002 5.773506e+001 4.724207e+001 4.223985e+001 5.879321e+001 3.979481e+001 4.757263e-001 1.433955e+000 2.928217e+000 1.383433e+000 1.708036e+000 2.566500e+000 2.399227e+000 3.025744e+000 4.193233e+000 3.432091e+000 3.702475e+000 2.518934e+000 1.169938e+000 1.389366e-001 2.321179e-001 5.574632e-001 3.732462e-001 3.793723e-001 4.982181e-001 4.721921e-001 5.726210e-001 8.149870e-001 4.306419e-001 7.476597e-001 5.971876e-001 2.274729e-001
<GCONST> 1.205094e+002
<STATE> 3
<MEAN> 39
 2.113235e+000 7.146274e+000 8.175969e+000 1.517267e+000 -1.004328e+001 -1.168414e+001 8.157266e-003 -5.437246e+000 -1.577124e+001 4.245427e+000 1.140113e-001 -6.338023e+000 5.703250e+001 -7.700054e-002 1.016337e+000 -6.736217e-001 1.075080e+000 3.334508e-001 4.217663e-001 -1.178832e-001 -4.242995e-001 5.526007e-001 -4.440511e-001 -7.206576e-002 3.807544e-001 -1.026957e+000 -3.282117e-001 -2.982021e-001 1.398041e-001 -5.179435e-002 3.801907e-001 -1.788496e-001 -4.924351e-001 -6.178980e-002 4.078031e-001 -7.084819e-002 -2.823901e-001 3.546007e-001 4.865444e-001
<VARIANCE> 39
 3.019914e+001 2.876106e+001 4.985629e+001 4.856067e+001 3.274458e+001 1.052424e+002 5.300021e+001 6.297750e+001 6.425954e+001 4.258662e+001 4.636134e+001 2.359838e+001 3.017320e+001 9.967595e-001 1.363547e+000 2.885387e+000 2.948505e+000 2.552602e+000 2.642390e+000 4.394039e+000 3.052707e+000 2.497661e+000 2.162814e+000 2.995865e+000 2.355498e+000 1.495141e+000 3.179086e-001 3.246149e-001 6.657698e-001 5.541418e-001 6.345752e-001 5.560445e-001 7.840107e-001 6.140515e-001 7.994539e-001 6.558222e-001 8.978418e-001 5.479670e-001 3.713843e-001
<GCONST> 1.244225e+002
<STATE> 4
<MEAN> 39
 2.510388e+000 7.384988e+000 2.187217e+000 2.161528e+000 -5.186028e+000 -7.000713e+000 -5.680957e+000 -6.045154e+000 -1.443123e+001 2.678895e+000 -1.338779e+000 -4.312732e+000 5.409502e+001 -1.261937e+000 -9.458092e-001 -5.987906e-001 1.586916e+000 2.602934e+000 -7.514636e-001 -2.255249e+000 -8.048097e-001 8.232696e-001 2.787925e-002 -7.311608e-001 1.527277e+000 1.200852e+000 -1.314169e-001 -6.431112e-001 4.482656e-001 -2.871358e-001 -1.142793e-001 -4.808904e-001 -6.489745e-001 8.972397e-002 3.746163e-001 8.318234e-002 7.027318e-002 1.965088e-001 8.704922e-001
<VARIANCE> 39
 2.878868e+001 3.363002e+001 5.879948e+001 5.834217e+001 7.329469e+001 1.019273e+002 5.687567e+001 7.415852e+001 6.411684e+001 4.932072e+001 4.925664e+001 3.261051e+001 3.838098e+001 2.684900e+000 5.533264e+000 7.559078e+000 4.224967e+000 9.186449e+000 1.031700e+001 9.179889e+000 7.716673e+000 5.432979e+000 6.704705e+000 5.137153e+000 2.803435e+000 2.944605e+000 3.928512e-001 5.843892e-001 8.583902e-001 6.945688e-001 1.549784e+000 8.976023e-001 1.439801e+000 1.154307e+000 8.191591e-001 7.056723e-001 4.791490e-001 5.665383e-001 4.323084e-001
<GCONST> 1.415226e+002
<TRANSP> 5
 0.000000e+000 1.000000e+000 0.000000e+000 0.000000e+000 0.000000e+000
 0.000000e+000 6.250944e-001 3.749057e-001 0.000000e+000 0.000000e+000
 0.000000e+000 0.000000e+000 6.116308e-001 3.883692e-001 0.000000e+000
 0.000000e+000 0.000000e+000 0.000000e+000 4.645380e-001 5.354620e-001
 0.000000e+000 0.000000e+000 0.000000e+000 0.000000e+000 0.000000e+000
<ENDHMM>
~h "h"
<BEGINHMM>
<NUMSTATES> 5
<STATE> 2
<MEAN> 39
 1.402170e+000 -4.245577e+000 -3.044811e+000 -2.036164e+000 1.200409e+000 -3.321525e-001 -3.199464e+000 -2.646420e+000 4.512148e+000 5.904543e+000 -5.943232e+000 -2.224019e+000 6.164611e+001 -1.594497e-001 4.406902e-001 -4.539438e-001 -1.537730e-002 1.192916e+000 1.004174e+000 2.693469e-001 -8.305640e-001 6.115418e-001 -2.656321e-002 -2.735782e-002 1.836224e-001 -6.057321e-001 2.475894e-001 1.835702e-001 2.886778e-001 -3.230925e-001 -2.512645e-001 -2.152357e-001 -5.236613e-001 -6.437616e-001 -7.834226e-001 -5.689358e-002 -1.328366e-001 1.408177e-001 2.040647e-001
<VARIANCE> 39
 2.196249e+001 2.439170e+001 3.427274e+001 4.300444e+001 4.828656e+001 8.451324e+001 7.285303e+001 7.788901e+001 7.003544e+001 5.040702e+001 4.995173e+001 2.547663e+001 1.720621e+001 1.261546e+000 1.525773e+000 3.225378e+000 2.227684e+000 3.278235e+000 4.218462e+000 4.938940e+000 4.161558e+000 7.558538e+000 3.695895e+000 3.913143e+000 2.709886e+000 9.887543e-001 1.540809e-001 2.576500e-001 2.119870e-001 3.997208e-001 4.367537e-001 4.313555e-001 6.890546e-001 7.555938e-001 9.667526e-001 8.633758e-001 6.772162e-001 5.570254e-001 1.157202e-001
<GCONST> 1.230052e+002
<STATE> 3
<MEAN> 39
 2.034071e+000 -2.728992e+000 -2.748416e+000 -4.307865e+000 2.876754e+000 1.798066e+000 -3.175907e+000 -5.455518e+000 1.449990e+000 6.630754e+000 -6.539474e+000 -2.373503e+000 6.169167e+001 5.895695e-001 7.413543e-001 1.107845e-001 -4.604192e-001 3.305734e-002 5.500880e-001 -4.727604e-001 -1.804843e+000 -8.098921e-001 4.735965e-002 -2.978482e-002 5.228649e-001 -1.434768e-001 3.092142e-001 1.573720e-001 2.507271e-001 -1.683847e-001 -6.127452e-001 -3.239422e-001 -3.139428e-001 -2.850180e-001 -5.931215e-001 -5.121637e-002 1.373712e-001 2.330145e-001 1.823893e-001
<VARIANCE> 39
 2.167991e+001 2.534262e+001 3.753300e+001 3.812429e+001 5.630950e+001 7.209975e+001 4.665609e+001 5.923569e+001 6.579712e+001 6.659779e+001 5.454163e+001 2.836152e+001 1.264319e+001 1.288657e+000 1.799420e+000 3.051836e+000 3.248725e+000 2.517748e+000 4.312616e+000 4.532836e+000 4.085624e+000 4.824084e+000 3.081107e+000 3.384860e+000 3.428833e+000 1.087696e+000 1.483496e-001 2.713329e-001 3.269018e-001 4.191432e-001 5.812736e-001 4.217075e-001 6.181790e-001 7.426601e-001 7.261829e-001 7.870875e-001 7.269537e-001 5.654377e-001 1.196885e-001
<GCONST> 1.224691e+002
<STATE> 4
<MEAN> 39
 3.630949e+000 -9.122047e-001 -2.119615e+000 -6.406272e+000 1.114463e+000 3.735239e+000 -4.760163e+000 -9.473068e+000 -3.311302e-001 6.184237e+000 -6.095532e+000 -1.047864e-001 6.162088e+001 1.105912e+000 9.650315e-001 3.180569e-001 -5.509456e-001 -9.110479e-001 1.462331e-002 -8.486315e-001 -1.437738e+000 -1.434018e+000 -2.445338e-003 4.900813e-001 8.046345e-001 3.086632e-002 1.513097e-001 -3.016232e-002 1.159350e-002 -5.494476e-002 -3.662978e-001 -2.704632e-001 -1.595275e-001 2.816672e-001 -2.286089e-001 4.246826e-002 1.771782e-001 -2.561553e-001 1.073115e-001
<VARIANCE> 39
 2.152385e+001 2.361484e+001 3.416355e+001 4.967672e+001 5.786464e+001 8.726946e+001 4.197057e+001 5.728225e+001 6.131849e+001 5.448207e+001 3.874310e+001 3.833670e+001 1.113575e+001 1.102022e+000 2.043880e+000 2.466557e+000 3.603556e+000 2.541030e+000 2.976690e+000 3.392494e+000 4.236192e+000 4.478160e+000 3.382043e+000 4.170521e+000 3.533469e+000 8.973796e-001 2.042810e-001 2.849275e-001 3.507035e-001 4.045676e-001 4.344922e-001 6.803262e-001 6.701643e-001 6.784340e-001 5.456720e-001 6.309342e-001 4.657904e-001 6.535929e-001 1.551231e-001
<GCONST> 1.215469e+002
<TRANSP> 5
 0.000000e+000 1.000000e+000 0.000000e+000 0.000000e+000 0.000000e+000
 0.000000e+000 4.257872e-001 5.742128e-001 0.000000e+000 0.000000e+000
 0.000000e+000 0.000000e+000 1.976997e-001 8.023003e-001 0.000000e+000
 0.000000e+000 0.000000e+000 0.000000e+000 3.975939e-001 6.024061e-001
 0.000000e+000 0.000000e+000 0.000000e+000 0.000000e+000 0.000000e+000
<ENDHMM>
~h "i"
<BEGINHMM>
<NUMSTATES> 5
<STATE> 2
<MEAN> 39
 -2.691997e+000 6.061893e-001 9.473596e+000 6.384595e-001 -6.807392e+000 -1.302582e+001 -1.139674e+001 -5.770909e+000 -5.445933e+000 8.888547e-001 -4.103814e+000 8.196582e-001 6.155912e+001 1.328403e+000 1.343219e-001 2.187489e+000 -1.819994e-001 -1.123893e+000 -1.778176e+000 8.382291e-002 7.764290e-001 -1.186021e+000 2.080244e-001 3.769587e-001 4.651119e-001 1.185962e+000 -6.534905e-002 2.424347e-001 -4.915803e-001 -1.205423e-001 1.431792e-001 5.970745e-001 6.834004e-001 -3.718892e-002 -1.025098e-001 3.881069e-002 -3.223494e-002 -2.191363e-001 -2.672981e-001
<VARIANCE> 39
 7.407887e+001 3.527175e+001 5.045812e+001 5.065185e+001 4.563285e+001 8.477177e+001 7.732240e+001 6.668747e+001 7.352966e+001 4.616996e+001 3.894574e+001 3.998172e+001 2.432841e+001 6.955970e+000 4.609278e+000 5.992790e+000 4.627603e+000 4.468543e+000 5.552910e+000 6.435528e+000 7.361351e+000 6.869499e+000 4.825916e+000 3.419425e+000 3.934741e+000 2.681767e+000 8.908995e-001 6.838168e-001 7.203992e-001 8.250021e-001 7.785779e-001 1.028821e+000 1.062586e+000 1.098825e+000 1.162090e+000 7.588282e-001 6.046315e-001 6.328037e-001 4.066836e-001
<GCONST> 1.407499e+002
<STATE> 3
<MEAN> 39
 1.041049e+000 4.980854e-001 1.292760e+001 -1.857746e+000 -8.863256e+000 -1.486134e+001 -8.173626e+000 -3.451312e+000 -9.172438e+000 1.373013e+000 -3.780566e+000 8.945833e-001 6.319030e+001 1.596928e-001 6.700644e-001 -3.027391e-001 2.277762e-001 -1.363846e-001 5.474275e-001 1.512884e+000 4.257998e-001 -1.204643e-001 -9.511245e-002 1.615774e-001 -1.770951e-001 -5.552089e-001 -3.514382e-001 2.176095e-001 -8.740201e-001 3.693597e-001 3.447696e-001 6.590000e-001 1.127583e-001 -3.027456e-001 4.603014e-001 -2.625721e-002 -7.617145e-002 -2.295632e-001 -4.769981e-001
<VARIANCE> 39
 1.526644e+001 3.238137e+001 4.830206e+001 4.505700e+001 3.819546e+001 6.733160e+001 7.529714e+001 7.449641e+001 6.223192e+001 4.339001e+001 3.631776e+001 3.210536e+001 1.317324e+001 2.169722e+000 1.899054e+000 3.554421e+000 3.374717e+000 2.818853e+000 4.045579e+000 3.927623e+000 4.266357e+000 3.975991e+000 3.249887e+000 2.306279e+000 2.917305e+000 1.784528e+000 5.113885e-001 4.350989e-001 4.815825e-001 5.307722e-001 6.191527e-001 6.557257e-001 8.321597e-001 1.167524e+000 9.282707e-001 7.389689e-001 5.354273e-001 5.362721e-001 2.546255e-001
<GCONST> 1.269987e+002
<STATE> 4
<MEAN> 39
 -3.852598e+000 4.185773e+000 2.856415e+000 2.189290e+000 -8.260990e+000 -4.752120e+000 -3.548272e+000 -2.172650e+000 -5.049469e+000 2.665437e-001 -2.389383e+000 -1.796549e+000 5.077407e+001 -8.740288e-001 5.536608e-001 -1.311532e+000 5.176426e-001 3.767699e-001 1.017631e+000 3.801394e-001 -3.325884e-001 4.804142e-001 -4.016372e-002 9.794076e-003 -2.536319e-001 -1.285570e+000 -2.813082e-001 -1.326564e-001 -1.067228e-001 -7.603510e-002 1.946368e-001 -1.200604e-002 -2.355298e-001 -1.978773e-001 1.493440e-001 1.883496e-002 -1.469141e-001 7.269038e-002 1.078865e-001
<VARIANCE> 39
 8.495563e+001 3.140486e+001 1.042281e+002 4.022053e+001 3.097049e+001 1.075603e+002 6.812420e+001 5.391097e+001 4.872615e+001 3.594436e+001 2.733706e+001 2.645316e+001 1.750017e+002 2.786517e+000 2.282879e+000 2.588269e+000 3.141970e+000 3.164839e+000 3.878406e+000 3.788036e+000 3.885160e+000 4.082940e+000 2.700813e+000 2.640757e+000 2.727671e+000 1.837060e+000 3.698482e-001 3.536258e-001 3.993559e-001 4.852257e-001 5.174060e-001 4.804294e-001 5.738346e-001 6.645520e-001 6.320248e-001 5.035949e-001 4.610438e-001 4.228466e-001 2.143334e-001
<GCONST> 1.272179e+002
<TRANSP> 5
 0.000000e+000 1.000000e+000 0.000000e+000 0.000000e+000 0.000000e+000
 0.000000e+000 4.205347e-001 5.794653e-001 0.000000e+000 0.000000e+000
 0.000000e+000 0.000000e+000 5.667036e-001 4.332964e-001 0.000000e+000
 0.000000e+000 0.000000e+000 0.000000e+000 5.342299e-001 4.657702e-001
 0.000000e+000 0.000000e+000 0.000000e+000 0.000000e+000 0.000000e+000
<ENDHMM>
~h "j"
<BEGINHMM>
<NUMSTATES> 5
<STATE> 2
<MEAN> 39
 -3.589890e+000 -1.061356e+000 6.562638e+000 -2.961253e+000 -8.900832e+000 -8.634868e+000 -9.039732e+000 -4.091327e+000 -6.643415e+000 1.564973e+000 -4.805901e+000 -4.177584e-001 5.564525e+001 3.431781e-001 -4.361607e-001 2.136260e+000 -9.227247e-001 -5.096205e-001 -1.568250e+000 4.279511e-001 1.098846e-001 -8.832597e-001 -8.648040e-003 -4.047330e-001 5.201167e-001 1.593102e+000 -6.264039e-002 2.146823e-001 -2.415370e-001 -6.747188e-002 5.463612e-002 2.780130e-001 3.114389e-001 -1.773497e-001 2.400582e-002 -2.109124e-002 9.927060e-002 -8.583749e-002 -1.146898e-001
<VARIANCE> 39
 1.208078e+002 3.161572e+001 1.322630e+002 4.512164e+001 5.343093e+001 1.108639e+002 8.770496e+001 5.990096e+001 5.588882e+001 4.256508e+001 3.629987e+001 3.576642e+001 1.987009e+002 4.470897e+000 2.862388e+000 6.406911e+000 3.625940e+000 4.192824e+000 6.248393e+000 4.254192e+000 5.274235e+000 3.756221e+000 2.918349e+000 2.945696e+000 2.909370e+000 5.710887e+000 4.808068e-001 3.741718e-001 9.089543e-001 6.622167e-001 6.980169e-001 9.516238e-001 9.436754e-001 7.372681e-001 7.553375e-001 5.059478e-001 4.842770e-001 4.912758e-001 5.642317e-001
<GCONST> 1.384989e+002
<STATE> 3
<MEAN> 39
 1.301344e+000 -3.755819e+000 1.107254e+001 -5.552377e+000 -8.826597e+000 -1.558884e+001 -7.556354e+000 -1.148093e+000 -8.582705e+000 1.511799e+000 -7.113184e+000 1.881487e+000 6.555196e+001 -3.678540e-001 1.664374e-001 5.736615e-001 -5.882386e-001 -5.617492e-001 -5.402773e-002 1.137610e+000 -1.349793e-001 -3.138177e-001 -2.588764e-001 -1.756655e-001 8.884023e-003 1.180080e-001 -2.153956e-002 2.687414e-001 -4.013467e-001 1.891713e-001 1.522204e-001 4.922474e-001 -8.570221e-002 -1.680496e-001 2.988969e-001 4.866388e-002 5.309872e-002 -2.098047e-001 -2.397459e-001
<VARIANCE> 39
 1.731701e+001 2.950248e+001 5.387638e+001 3.478703e+001 4.559080e+001 5.545372e+001 4.888720e+001 7.951205e+001 5.436061e+001 3.411439e+001 5.112088e+001 5.121153e+001 1.843210e+001 8.065236e-001 1.639201e+000 2.994061e+000 1.818300e+000 2.448211e+000 3.267276e+000 2.951720e+000 3.746035e+000 3.116816e+000 2.056003e+000 1.928948e+000 1.878115e+000 7.329961e-001 1.255022e-001 2.038539e-001 3.582064e-001 3.730414e-001 3.076968e-001 5.131010e-001 4.844460e-001 5.907146e-001 4.198016e-001 4.047524e-001 4.290191e-001 4.198569e-001 1.366152e-001
<GCONST> 1.148972e+002
<STATE> 4
<MEAN> 39
 7.837267e-002 6.500759e-001 1.410560e+001 -7.132418e+000 -1.210799e+001 -1.160030e+001 -4.085690e+000 -5.767879e+000 -9.987436e+000 1.637822e+000 -6.303565e+000 -2.006325e-001 6.361221e+001 -3.019607e-001 8.313264e-001 -3.999268e-001 3.482386e-001 3.142513e-001 4.899710e-001 2.977105e-001 -2.231745e-001 6.041683e-001 5.462311e-002 -8.728243e-002 -2.368270e-001 -4.754186e-001 -6.378728e-002 9.087595e-002 -4.492759e-001 3.296028e-001 3.300259e-001 1.100492e-001 -1.501381e-001 1.553809e-001 2.809461e-001 3.481656e-005 1.121232e-001 5.526441e-002 -1.708750e-001
<VARIANCE> 39
 2.379825e+001 3.246933e+001 6.433242e+001 4.809869e+001 5.674981e+001 8.167300e+001 4.197632e+001 7.780621e+001 6.215397e+001 3.377620e+001 4.155408e+001 3.058047e+001 2.118989e+001 1.252042e+000 1.671519e+000 3.163164e+000 2.757164e+000 2.967868e+000 4.248592e+000 2.999773e+000 4.852678e+000 3.549617e+000 2.663299e+000 2.297879e+000 2.449943e+000 9.096218e-001 2.202360e-001 2.203772e-001 3.547327e-001 5.548533e-001 4.508761e-001 8.605163e-001 4.332246e-001 6.756673e-001 5.924780e-001 4.670352e-001 4.449992e-001 4.044977e-001 1.990300e-001
<GCONST> 1.213037e+002
<TRANSP> 5
 0.000000e+000 1.000000e+000 0.000000e+000 0.000000e+000 0.000000e+000
 0.000000e+000 4.534523e-001 5.465477e-001 0.000000e+000 0.000000e+000
 0.000000e+000 0.000000e+000 5.707643e-001 4.292357e-001 0.000000e+000
 0.000000e+000 0.000000e+000 0.000000e+000 4.925944e-001 5.074056e-001
 0.000000e+000 0.000000e+000 0.000000e+000 0.000000e+000 0.000000e+000
<ENDHMM>
~h "k"
<BEGINHMM>
<NUMSTATES> 5
<STATE> 2
<MEAN> 39
 -1.363021e+000 5.761542e+000 -4.452860e+000 9.609130e-001 -4.243198e+000 -1.197731e+000 -7.530029e-001 -2.104947e+000 -5.582129e+000 2.082142e+000 -3.566497e+000 -5.155940e+000 4.979300e+001 -1.311446e+000 -1.571371e+000 -2.050034e+000 4.246910e-002 2.236277e+000 -1.675699e-001 -1.910718e+000 9.668522e-002 3.380940e-002 4.569462e-002 -1.451041e-001 3.572791e-001 3.483853e-001 -3.930001e-001 -1.002941e+000 -1.334649e-001 -4.579850e-001 5.539534e-001 -5.883216e-001 -9.617090e-001 -2.154938e-001 -2.343648e-001 2.372201e-001 6.030870e-002 3.015265e-001 1.300136e+000
<VARIANCE> 39
 6.528672e+001 4.645678e+001 6.908125e+001 4.167480e+001 5.162799e+001 8.900646e+001 5.283866e+001 7.216250e+001 5.376773e+001 4.297356e+001 3.134893e+001 3.759455e+001 3.799802e+001 3.857961e+000 6.892119e+000 5.266078e+000 7.730263e+000 8.410254e+000 7.893925e+000 8.441959e+000 7.487594e+000 6.199505e+000 4.653117e+000 4.483222e+000 3.758931e+000 5.862042e+000 4.523548e-001 6.328403e-001 8.292056e-001 8.016276e-001 9.670486e-001 1.159333e+000 1.131614e+000 8.884867e-001 9.378657e-001 7.368965e-001 7.057892e-001 6.838659e-001 5.334007e-001
<GCONST> 1.428115e+002
<STATE> 3
<MEAN> 39
 -6.355775e+000 -4.522648e+000 -1.165770e+001 -8.249103e-001 6.852307e+000 -4.108878e+000 -1.202912e+001 -2.440100e+000 -8.211188e+000 4.214594e+000 -2.703049e+000 -2.607135e+000 5.825545e+001 -1.131935e+000 -2.410974e+000 -1.708097e+000 -1.294544e+000 1.225905e+000 -9.442989e-001 -2.206727e+000 -3.704222e-001 -2.903672e-001 2.032572e-001 3.145943e-001 8.682037e-001 2.386531e+000 5.812621e-001 8.433332e-001 9.990473e-001 5.277502e-002 -1.226366e+000 1.669387e-001 9.802791e-001 -2.165961e-001 1.173929e-001 -2.283664e-001 5.647136e-002 -5.125048e-002 -3.995831e-001
<VARIANCE> 39
 4.707191e+001 5.205881e+001 9.295526e+001 1.268268e+002 8.301241e+001 1.235558e+002 8.910590e+001 7.419635e+001 8.195908e+001 5.589115e+001 4.598868e+001 5.188396e+001 5.062441e+001 4.853875e+000 5.899146e+000 6.477417e+000 8.647157e+000 8.348264e+000 1.033221e+001 8.672745e+000 7.420708e+000 6.406015e+000 5.286210e+000 4.430464e+000 4.007940e+000 6.058229e+000 5.569069e-001 8.102737e-001 1.015257e+000 1.879301e+000 1.379995e+000 1.298839e+000 1.528570e+000 1.448986e+000 1.160596e+000 8.740210e-001 7.780413e-001 8.104800e-001 8.497756e-001
<GCONST> 1.518418e+002
<STATE> 4
<MEAN> 39
 -7.452217e+000 -5.176695e+000 -1.072153e+001 -2.955948e+000 1.858270e+000 -5.168879e+000 -8.092814e+000 -3.474831e+000 -6.435935e+000 2.557575e+000 -2.898856e+000 -1.274707e+000 5.741291e+001 1.202045e+000 1.073283e+000 1.574187e+000 5.019403e-002 -9.456342e-001 3.243307e-001 7.276429e-001 -3.673227e-001 5.505339e-002 -2.673809e-001 1.783881e-001 -3.520439e-002 -8.542766e-002 7.322397e-001 6.961983e-001 7.699034e-001 2.440954e-001 -2.868084e-001 1.246343e-001 1.367156e-001 5.583794e-002 -5.663016e-002 1.069164e-001 -7.275413e-003 -2.196330e-001 -1.545415e-001
<VARIANCE> 39
 4.964959e+001 4.696257e+001 7.892630e+001 8.175558e+001 6.874442e+001 1.093772e+002 7.968437e+001 7.417287e+001 6.371104e+001 5.376080e+001 4.181797e+001 4.069847e+001 5.831115e+001 4.455103e+000 3.476267e+000 5.200530e+000 4.999635e+000 4.242953e+000 4.622120e+000 5.630523e+000 5.473586e+000 4.209155e+000 3.487645e+000 2.982360e+000 3.017725e+000 3.617960e+000 5.853599e-001 8.659713e-001 8.833563e-001 1.237506e+000 9.769838e-001 1.188061e+000 1.444673e+000 9.764502e-001 8.327714e-001 8.119100e-001 6.483933e-001 6.852071e-001 1.025958e+000
<GCONST> 1.427554e+002
<TRANSP> 5
 0.000000e+000 1.000000e+000 0.000000e+000 0.000000e+000 0.000000e+000
 0.000000e+000 5.887327e-001 4.112673e-001 0.000000e+000 0.000000e+000
 0.000000e+000 0.000000e+000 4.785800e-001 5.214199e-001 0.000000e+000
 0.000000e+000 0.000000e+000 0.000000e+000 6.327384e-001 3.672615e-001
 0.000000e+000 0.000000e+000 0.000000e+000 0.000000e+000 0.000000e+000
<ENDHMM>
~h "l"
<BEGINHMM>
<NUMSTATES> 5
<STATE> 2
<MEAN> 39
 3.934242e+000 -6.436116e-001 -1.491868e+000 -3.796972e+000 -5.807653e+000 2.181289e-002 -1.014972e+001 -1.501491e+001 -2.482463e+000 5.801292e+000 -2.903425e+000 -1.362097e+000 6.221327e+001 1.423131e+000 4.672336e-002 1.020120e-001 -9.175899e-001 -8.864484e-001 1.581970e+000 -4.556362e-001 -1.959641e+000 1.288266e-001 7.588951e-001 8.526923e-002 -1.637060e-001 1.904790e-001 -2.900337e-001 -6.423197e-002 1.054867e-001 -3.766896e-001 2.381787e-001 -1.278487e-001 -1.344410e-002 4.623459e-001 2.976074e-002 -3.512099e-002 -2.430367e-001 -4.965887e-002 1.540229e-002
<VARIANCE> 39
 3.791901e+001 3.712135e+001 3.794350e+001 7.626160e+001 5.676756e+001 6.190390e+001 7.047408e+001 5.798678e+001 6.158043e+001 5.445586e+001 4.281087e+001 3.884085e+001 1.530690e+001 2.978575e+000 2.921536e+000 3.149500e+000 3.911282e+000 4.184268e+000 5.930008e+000 5.662848e+000 5.630477e+000 4.667891e+000 5.547971e+000 2.978996e+000 3.427826e+000 2.728278e+000 4.210100e-001 5.173497e-001 4.969592e-001 9.476012e-001 8.495898e-001 1.103956e+000 9.399248e-001 9.437977e-001 1.045413e+000 8.487288e-001 6.212003e-001 6.125306e-001 3.254295e-001
<GCONST> 1.348994e+002
<STATE> 3
<MEAN> 39
 7.307193e+000 -1.275011e+000 -1.774931e+000 -7.873516e+000 -1.009111e+001 5.894322e+000 -9.852194e+000 -1.969317e+001 -2.219012e+000 7.560678e+000 -2.921807e+000 -1.122007e+000 6.204454e+001 2.664260e-001 -2.788709e-002 2.732208e-001 -1.297524e+000 6.537390e-001 4.516176e-001 -8.068889e-001 3.132117e-001 1.606730e-001 1.425211e-001 -2.261411e-001 -2.651061e-001 1.629087e-001 -4.584641e-001 -5.471205e-002 3.872748e-002 -9.075320e-002 7.596752e-001 -7.299867e-001 -5.094192e-002 9.982956e-001 -9.336463e-005 -1.634091e-001 -2.272300e-001 -8.500583e-002 1.173109e-001
<VARIANCE> 39
 1.761504e+001 2.896389e+001 2.502959e+001 6.323582e+001 5.348265e+001 7.025723e+001 6.780381e+001 5.453408e+001 4.922249e+001 5.158892e+001 3.908406e+001 3.525407e+001 1.104377e+001 1.945186e+000 1.867475e+000 2.492048e+000 4.466538e+000 5.346906e+000 5.657239e+000 5.628479e+000 5.271267e+000 4.773834e+000 4.189542e+000 2.749166e+000 2.850140e+000 1.588185e+000 1.954078e-001 3.641019e-001 3.864833e-001 5.919688e-001 8.726984e-001 8.763217e-001 9.953505e-001 8.341289e-001 8.077091e-001 7.730622e-001 6.092110e-001 5.203763e-001 2.418291e-001
<GCONST> 1.276005e+002
<STATE> 4
<MEAN> 39
 4.826757e+000 -2.887702e+000 -4.874997e-001 -1.184313e+001 -1.501068e+000 1.670831e+000 -1.366940e+001 -1.341179e+001 1.320108e-001 8.251711e+000 -6.179471e+000 -3.915448e+000 6.441737e+001 -5.387922e-001 -3.432139e-002 2.321041e-001 -4.470745e-001 1.273609e+000 -1.801685e+000 4.111961e-001 1.871225e+000 1.191099e-001 -4.230120e-001 -9.813523e-001 -3.938789e-003 3.126071e-001 -8.860572e-002 2.373198e-001 -1.279058e-002 5.262225e-001 -4.838399e-001 -2.305658e-001 7.139675e-001 9.010161e-002 -3.523058e-001 -3.304201e-001 1.172440e-001 2.978360e-001 -2.829392e-001
<VARIANCE> 39
 1.612403e+001 2.744713e+001 3.105901e+001 6.611703e+001 5.063805e+001 7.799636e+001 5.279531e+001 6.817618e+001 7.460801e+001 6.068239e+001 5.047434e+001 3.685038e+001 1.645294e+001 1.381074e+000 2.203344e+000 3.068033e+000 4.403257e+000 5.527552e+000 5.932858e+000 4.885205e+000 5.084241e+000 5.466113e+000 4.603752e+000 3.590201e+000 3.187093e+000 1.327946e+000 2.901430e-001 2.691134e-001 3.261135e-001 5.269092e-001 7.299778e-001 9.534728e-001 7.911723e-001 8.788583e-001 7.604954e-001 7.972564e-001 6.120999e-001 5.225218e-001 2.438972e-001
<GCONST> 1.288906e+002
<TRANSP> 5
 0.000000e+000 1.000000e+000 0.000000e+000 0.000000e+000 0.000000e+000
 0.000000e+000 2.966402e-001 7.033598e-001 0.000000e+000 0.000000e+000
 0.000000e+000 0.000000e+000 5.407376e-001 4.592623e-001 0.000000e+000
 0.000000e+000 0.000000e+000 0.000000e+000 4.997041e-001 5.002959e-001
 0.000000e+000 0.000000e+000 0.000000e+000 0.000000e+000 0.000000e+000
<ENDHMM>
~h "m"
<BEGINHMM>
<NUMSTATES> 5
<STATE> 2
<MEAN> 39
 2.141632e+000 3.979970e+000 -2.430394e+000 -7.736867e-001 -5.083778e+000 6.042430e-001 -3.413924e+000 -9.639701e+000 -9.046697e+000 4.558048e+000 -2.681365e+000 -5.227964e+000 5.272622e+001 5.654820e-001 7.916104e-001 8.827675e-003 5.891019e-001 2.026683e-002 5.181453e-001 6.978784e-001 -1.473721e+000 -1.370388e+000 3.794359e-001 -5.319821e-002 -6.227425e-001 -4.293248e-001 -1.019529e-001 -9.981807e-002 2.322723e-001 -9.203770e-002 9.067652e-002 -1.180053e-001 -2.129289e-001 5.961758e-002 1.006106e-001 4.602152e-002 -1.380157e-001 1.168198e-001 2.147273e-001
<VARIANCE> 39
 1.023954e+002 3.047915e+001 5.102885e+001 5.153313e+001 4.476897e+001 4.840632e+001 3.756295e+001 5.622677e+001 4.003112e+001 4.317466e+001 2.667342e+001 3.091625e+001 1.354737e+002 3.234950e+000 2.398298e+000 3.136055e+000 2.402903e+000 2.617874e+000 2.631320e+000 3.251787e+000 4.832898e+000 3.911078e+000 3.006806e+000 2.545426e+000 2.737559e+000 2.691608e+000 2.990740e-001 2.891472e-001 3.584340e-001 3.236529e-001 3.729790e-001 4.065105e-001 5.163363e-001 5.757933e-001 5.319242e-001 4.190130e-001 4.513715e-001 4.926969e-001 3.215946e-001
<GCONST> 1.243218e+002
<STATE> 3
<MEAN> 39
 6.529495e+000 3.942444e+000 1.669853e+000 -3.229648e+000 -4.951070e+000 1.602702e+000 -2.675666e-002 -1.613469e+001 -1.479120e+001 8.344201e+000 -6.056769e+000 -7.658095e+000 5.871663e+001 3.575307e-001 4.560169e-001 7.034546e-003 6.944375e-002 -1.876521e-002 2.924374e-001 2.603363e-001 -6.590304e-001 -6.470976e-001 1.064127e-001 -2.570033e-001 -1.943165e-001 -1.778101e-001 -1.493047e-001 -9.985334e-002 -7.356102e-002 -2.134292e-001 -1.839799e-003 -2.058712e-001 -3.846120e-001 5.216584e-001 4.492492e-001 -1.545461e-001 1.859037e-001 2.961667e-001 8.602022e-002
<VARIANCE> 39
 2.134785e+001 2.098132e+001 2.656135e+001 4.416224e+001 4.857838e+001 4.284016e+001 4.349775e+001 5.642847e+001 4.247347e+001 4.935454e+001 5.088076e+001 3.586753e+001 2.783078e+001 1.782869e+000 1.223004e+000 1.979155e+000 1.885996e+000 2.280902e+000 2.658396e+000 3.026831e+000 3.698082e+000 3.068926e+000 2.947578e+000 2.925703e+000 2.553884e+000 1.904452e+000 1.392756e-001 2.216412e-001 3.353320e-001 3.457530e-001 4.594554e-001 4.656876e-001 4.783879e-001 4.604099e-001 6.504698e-001 5.479512e-001 5.874479e-001 4.142869e-001 1.393747e-001
<GCONST> 1.168478e+002
<STATE> 4
<MEAN> 39
 7.202232e+000 5.129373e+000 -2.835502e-001 -2.231687e+000 -4.098910e+000 8.863044e-001 -2.939962e+000 -1.431010e+001 -1.462475e+001 7.116986e+000 -3.596949e+000 -6.797848e+000 5.749366e+001 6.014819e-003 -5.332295e-001 4.834598e-002 -5.904754e-001 1.484357e-001 -5.276702e-001 -1.416875e+000 1.027162e+000 1.696100e+000 -4.006256e-001 -8.299863e-002 9.858409e-001 6.179588e-001 -4.017840e-001 -4.171340e-001 1.380757e-001 -2.206187e-001 -7.401910e-002 -1.120426e-001 -2.031237e-001 5.718291e-001 7.234323e-001 -2.507139e-001 -1.870157e-001 3.060161e-001 2.140737e-001
<VARIANCE> 39
 2.261558e+001 3.193760e+001 2.734829e+001 5.179851e+001 4.957409e+001 4.751192e+001 5.562967e+001 4.920661e+001 5.606031e+001 5.210774e+001 3.900303e+001 5.909494e+001 3.035479e+001 3.263976e+000 2.505420e+000 3.128265e+000 3.096132e+000 3.976306e+000 4.360190e+000 4.100955e+000 4.835616e+000 6.615441e+000 4.174783e+000 3.693055e+000 3.372790e+000 3.133073e+000 3.291141e-001 4.303724e-001 4.664769e-001 6.106779e-001 6.543974e-001 7.974637e-001 8.299661e-001 9.850212e-001 9.712839e-001 8.075667e-001 5.877434e-001 7.057233e-001 2.995605e-001
<GCONST> 1.311349e+002
<TRANSP> 5
 0.000000e+000 1.000000e+000 0.000000e+000 0.000000e+000 0.000000e+000
 0.000000e+000 4.857208e-001 5.142792e-001 0.000000e+000 0.000000e+000
 0.000000e+000 0.000000e+000 6.541936e-001 3.458064e-001 0.000000e+000
 0.000000e+000 0.000000e+000 0.000000e+000 4.909014e-001 5.090986e-001
 0.000000e+000 0.000000e+000 0.000000e+000 0.000000e+000 0.000000e+000
<ENDHMM>
~h "n"
<BEGINHMM>
<NUMSTATES> 5
<STATE> 2
<MEAN> 39
 3.664564e+000 1.665465e+000 2.201423e+000 -3.561186e+000 -3.988002e+000 -3.375384e+000 -3.714082e+000 -1.007139e+001 -9.931452e+000 7.769214e+000 -7.332498e+000 -6.793386e+000 6.001297e+001 7.722033e-001 8.692724e-001 4.148398e-001 5.101721e-001 -8.255232e-002 2.480370e-001 4.470513e-001 -1.976523e+000 -1.248657e+000 1.458957e+000 -7.017993e-001 -8.277041e-001 -4.961225e-001 -1.144374e-001 -2.369779e-001 5.009987e-002 -4.553574e-002 5.629911e-002 -1.378487e-001 -4.654840e-001 3.228630e-001 4.499139e-001 -2.246210e-001 1.024178e-001 2.750594e-001 2.254980e-001
<VARIANCE> 39
 3.689860e+001 2.462281e+001 3.507920e+001 3.608892e+001 3.537153e+001 5.048418e+001 3.622241e+001 8.104642e+001 4.921167e+001 6.764022e+001 3.513356e+001 3.372196e+001 4.472245e+001 1.753943e+000 1.888966e+000 2.449859e+000 2.294148e+000 2.331828e+000 2.668924e+000 3.546981e+000 4.429855e+000 3.655352e+000 3.045844e+000 2.724208e+000 2.783006e+000 1.367116e+000 2.580559e-001 3.221632e-001 3.759471e-001 3.365493e-001 4.424207e-001 4.769896e-001 6.057872e-001 7.439334e-001 8.043967e-001 7.320700e-001 5.582896e-001 5.471423e-001 2.660120e-001
<GCONST> 1.224015e+002
<STATE> 3
<MEAN> 39
 4.527203e+000 3.766556e+000 2.999688e+000 -2.308965e+000 -3.492200e+000 -2.652879e+000 -3.257051e+000 -1.367754e+001 -1.260320e+001 1.083138e+001 -8.067311e+000 -8.396792e+000 5.909912e+001 3.674517e-001 -7.261685e-001 4.279145e-001 1.859237e-001 1.668974e-001 -3.635016e-001 -1.652097e+000 4.673494e-001 9.627626e-001 -2.430068e-001 -1.439347e-001 1.991982e-001 5.101235e-001 -3.185337e-001 -6.463546e-001 -8.811712e-002 -3.573258e-001 5.889732e-002 -1.398454e-001 -6.401581e-001 1.194230e+000 9.478837e-001 -8.920065e-001 1.685541e-001 5.587181e-001 3.982744e-001
<VARIANCE> 39
 2.996637e+001 2.991819e+001 3.273928e+001 4.131590e+001 4.768963e+001 3.769548e+001 4.461630e+001 7.891206e+001 5.236113e+001 6.036907e+001 3.673769e+001 4.246872e+001 3.803204e+001 2.801470e+000 2.964115e+000 2.823945e+000 2.642450e+000 3.253127e+000 3.693309e+000 4.615019e+000 5.779239e+000 5.936665e+000 5.330745e+000 2.913066e+000 3.737855e+000 2.046490e+000 2.837165e-001 3.568359e-001 4.571897e-001 5.019442e-001 6.267391e-001 6.150742e-001 7.889566e-001 9.454765e-001 8.495690e-001 7.698597e-001 5.897622e-001 7.085611e-001 2.419741e-001
<GCONST> 1.291261e+002
<STATE> 4
<MEAN> 39
 3.348201e+000 -4.181401e-002 2.415076e+000 -2.024945e+000 -3.272016e+000 -3.201663e+000 -9.108768e+000 -8.341147e+000 -5.174236e+000 6.111217e+000 -8.076155e+000 -5.203015e+000 5.971667e+001 1.499273e-001 -1.422778e+000 1.399596e-001 -7.419600e-001 3.479035e-001 -3.102384e-001 -1.660217e+000 1.990117e+000 1.802625e+000 -1.156227e+000 -2.801540e-002 8.405185e-001 1.268926e+000 -2.771132e-001 -1.640150e-002 -1.430853e-001 -3.540745e-001 1.429965e-002 4.242216e-002 4.682157e-001 2.988894e-001 -1.681025e-001 -8.793186e-002 6.071901e-002 3.867189e-002 -3.939889e-003
<VARIANCE> 39
 4.391140e+001 3.818336e+001 5.545789e+001 3.702434e+001 5.273680e+001 4.256440e+001 6.354576e+001 6.667878e+001 9.124979e+001 5.785741e+001 4.420580e+001 4.822203e+001 6.484818e+001 4.274680e+000 3.798334e+000 4.050301e+000 2.980609e+000 4.475563e+000 4.761814e+000 5.353029e+000 7.959090e+000 6.733564e+000 6.835613e+000 3.669311e+000 4.289497e+000 3.553807e+000 3.999828e-001 5.759564e-001 4.914605e-001 4.577764e-001 6.635359e-001 6.892497e-001 1.027166e+000 9.685739e-001 1.184665e+000 7.499301e-001 7.068048e-001 6.190684e-001 4.301825e-001
<GCONST> 1.376125e+002
<TRANSP> 5
 0.000000e+000 1.000000e+000 0.000000e+000 0.000000e+000 0.000000e+000
 0.000000e+000 5.060878e-001 4.939122e-001 0.000000e+000 0.000000e+000
 0.000000e+000 0.000000e+000 4.414111e-001 5.585890e-001 0.000000e+000
 0.000000e+000 0.000000e+000 0.000000e+000 3.730200e-001 6.269799e-001
 0.000000e+000 0.000000e+000 0.000000e+000 0.000000e+000 0.000000e+000
<ENDHMM>
~h "o"
<BEGINHMM>
<NUMSTATES> 5
<STATE> 2
<MEAN> 39
 3.162107e+000 7.563478e-001 -4.096284e+000 -6.568513e+000 -1.330656e+000 -1.581987e-001 -1.136667e+001 -1.226938e+001 -5.183766e+000 7.051189e+000 -1.953557e+000 -6.364116e-001 6.064962e+001 2.082850e+000 7.575701e-001 5.436480e-001 -2.131737e+000 -2.532949e-001 8.875463e-001 6.339109e-002 -6.500620e-001 -1.190844e+000 1.214265e+000 5.581962e-001 -2.538103e-001 1.009694e+000 -3.586677e-001 7.714789e-002 7.704238e-002 2.931628e-001 -7.743395e-002 -2.697953e-002 3.961885e-001 3.069563e-001 -2.378146e-002 -2.423223e-001 -9.098560e-002 -1.541849e-001 -3.077090e-001
<VARIANCE> 39
 4.676812e+001 3.190219e+001 4.085632e+001 8.093784e+001 6.359024e+001 7.422095e+001 5.647957e+001 5.805963e+001 6.724799e+001 5.058324e+001 4.536514e+001 4.683870e+001 4.303536e+001 5.660649e+000 4.232786e+000 4.938798e+000 6.133554e+000 5.832869e+000 4.610890e+000 5.742040e+000 6.256713e+000 5.801318e+000 4.704194e+000 3.367521e+000 3.255139e+000 4.673502e+000 6.629695e-001 5.331501e-001 5.547745e-001 1.265036e+000 7.953695e-001 7.903103e-001 9.312439e-001 9.051996e-001 9.785040e-001 8.102387e-001 6.447099e-001 6.349686e-001 7.313206e-001
<GCONST> 1.404354e+002
<STATE> 3
<MEAN> 39
 6.714130e+000 1.086228e+000 -2.705168e+000 -1.117811e+001 -1.245897e+000 1.693958e+000 -1.099056e+001 -1.314247e+001 -8.328568e+000 1.014112e+001 -8.422555e-001 -2.392286e+000 6.290780e+001 5.768993e-001 6.468789e-001 1.898851e-001 -1.425675e-001 -1.266025e-001 4.290223e-001 5.986317e-001 2.197777e-001 -5.172404e-001 -6.375124e-002 1.068808e-001 -4.483354e-001 -2.655701e-001 -6.190332e-001 7.278610e-003 -2.052528e-001 8.900380e-001 8.525955e-003 -2.997159e-001 3.387372e-001 3.269158e-001 4.479136e-001 -6.793233e-001 -2.489454e-001 8.557478e-002 -4.261553e-001
<VARIANCE> 39
 1.378930e+001 2.860576e+001 2.619624e+001 5.867979e+001 5.472664e+001 5.263651e+001 5.846751e+001 5.581115e+001 7.684700e+001 5.757079e+001 4.382820e+001 4.897860e+001 1.547650e+001 2.268628e+000 2.629764e+000 3.017940e+000 4.467386e+000 4.048518e+000 4.154624e+000 5.090928e+000 3.563265e+000 4.815675e+000 3.975325e+000 2.590106e+000 2.707227e+000 1.642705e+000 3.894767e-001 4.476586e-001 4.748015e-001 7.106164e-001 7.184384e-001 6.228387e-001 8.994739e-001 7.598088e-001 9.271879e-001 7.389665e-001 5.426642e-001 5.622320e-001 2.835355e-001
<GCONST> 1.285150e+002
<STATE> 4
<MEAN> 39
 6.167813e+000 4.422518e+000 -4.731608e+000 -7.902593e+000 -1.803431e+000 2.796754e+000 -7.260798e+000 -1.149580e+001 -6.286793e+000 6.812369e+000 -8.264697e-001 -1.813180e+000 5.926662e+001 -5.645881e-001 7.170045e-001 -3.485109e-001 1.297792e+000 -1.684463e-002 -3.758953e-001 1.058652e+000 9.429386e-001 3.593635e-001 -1.124032e+000 -1.378467e-001 -5.623898e-002 -8.915611e-001 -5.285482e-001 -2.134679e-001 8.844963e-002 2.366799e-001 6.378137e-002 -3.171280e-001 -1.325794e-001 1.062688e-001 2.336305e-001 -2.337677e-001 -1.606818e-001 1.452043e-001 9.350049e-002
<VARIANCE> 39
 2.782688e+001 5.030809e+001 3.492789e+001 5.501802e+001 6.570747e+001 6.272918e+001 7.043611e+001 5.181836e+001 5.986504e+001 4.489909e+001 4.318270e+001 4.436501e+001 2.796909e+001 2.850182e+000 2.935702e+000 2.900352e+000 3.965673e+000 3.588753e+000 4.552791e+000 4.481133e+000 4.515110e+000 4.797641e+000 3.653412e+000 2.872455e+000 2.762191e+000 1.653613e+000 4.552042e-001 4.617985e-001 4.408906e-001 6.208206e-001 5.370701e-001 7.203425e-001 8.996273e-001 6.738809e-001 7.215717e-001 6.145218e-001 5.142731e-001 5.189040e-001 2.880665e-001
<GCONST> 1.299157e+002
<TRANSP> 5
 0.000000e+000 1.000000e+000 0.000000e+000 0.000000e+000 0.000000e+000
 0.000000e+000 3.156134e-001 6.843866e-001 0.000000e+000 0.000000e+000
 0.000000e+000 0.000000e+000 4.644745e-001 5.355256e-001 0.000000e+000
 0.000000e+000 0.000000e+000 0.000000e+000 4.310355e-001 5.689645e-001
 0.000000e+000 0.000000e+000 0.000000e+000 0.000000e+000 0.000000e+000
<ENDHMM>
~h "p"
<BEGINHMM>
<NUMSTATES> 5
<STATE> 2
<MEAN> 39
 -2.058575e+000 7.657858e+000 -7.482806e+000 -8.213835e-001 -5.865877e+000 2.599699e+000 -1.995881e+000 -3.460245e+000 -3.168270e+000 7.479087e-001 -1.780360e+000 -2.134520e+000 4.476554e+001 -1.039706e+000 -1.046431e+000 -1.472773e-001 5.325795e-001 1.700117e-001 -3.783954e-001 -1.116166e+000 -5.125558e-001 4.713457e-001 -4.055035e-001 -2.945683e-001 1.673364e-001 -2.997386e-001 -3.529370e-002 -9.377707e-001 3.583234e-001 -9.641251e-003 3.405276e-001 -5.827718e-001 -8.264973e-001 -5.141403e-001 -1.159137e-002 1.775365e-001 3.264976e-002 1.750126e-001 1.218829e+000
<VARIANCE> 39
 8.140755e+001 4.527172e+001 4.285445e+001 4.515107e+001 4.413462e+001 4.755239e+001 3.679484e+001 3.846641e+001 3.524645e+001 3.697028e+001 2.904944e+001 3.099667e+001 4.282109e+001 3.791370e+000 5.424299e+000 2.826293e+000 3.395034e+000 3.506329e+000 5.057109e+000 5.367063e+000 4.792345e+000 4.177772e+000 3.183495e+000 2.576551e+000 2.930344e+000 4.787161e+000 7.235127e-001 6.444885e-001 4.863446e-001 5.312599e-001 5.692046e-001 7.285557e-001 7.800990e-001 8.752600e-001 8.018385e-001 6.129309e-001 4.731381e-001 5.958427e-001 7.198958e-001
<GCONST> 1.319934e+002
<STATE> 3
<MEAN> 39
 -5.199397e+000 1.284241e+000 -5.665570e+000 2.353244e+000 -2.702610e+000 -6.808403e-001 -7.998071e+000 -7.257955e+000 -1.966348e+000 -7.231785e-002 -3.359566e+000 -9.364439e-001 4.751045e+001 1.499943e-001 -3.138159e+000 5.103815e-001 3.116378e-002 1.222882e+000 -1.663580e+000 -3.109853e+000 -1.913885e+000 3.252243e-001 4.672070e-001 3.064587e-001 8.483667e-001 3.860013e+000 7.478079e-001 2.295512e-001 2.733205e-001 -6.292298e-001 -8.534702e-002 1.738729e-001 2.627601e-001 7.736404e-002 -3.579501e-001 4.827768e-001 3.095953e-001 -1.769854e-002 9.475356e-001
<VARIANCE> 39
 4.514729e+001 4.637911e+001 4.188143e+001 3.589135e+001 4.160804e+001 4.868619e+001 5.287742e+001 3.975512e+001 4.144978e+001 3.886139e+001 3.564843e+001 3.610079e+001 5.515254e+001 1.437333e+001 7.606186e+000 6.552845e+000 8.077147e+000 6.014904e+000 7.020625e+000 7.007651e+000 7.000192e+000 7.636475e+000 5.956495e+000 4.159299e+000 4.806150e+000 6.808972e+000 7.068055e-001 9.026914e-001 7.632714e-001 9.039063e-001 7.426275e-001 9.134839e-001 1.113990e+000 1.020422e+000 9.032968e-001 7.926439e-001 6.098416e-001 6.592441e-001 6.317006e-001
<GCONST> 1.427035e+002
<STATE> 4
<MEAN> 39
 -3.649847e+000 -4.401213e+000 -5.309954e+000 9.239524e-001 -6.171036e-001 -2.650021e+000 -1.328834e+001 -1.137760e+001 -2.146307e+000 1.778058e+000 2.363282e-001 7.251183e-001 5.742214e+001 1.704989e+000 -1.052257e+000 7.353257e-001 -1.126461e+000 1.383894e-001 -4.069087e-002 -6.484631e-001 -4.978524e-001 -6.556044e-001 1.022597e+000 5.666286e-001 2.960817e-001 3.402699e+000 5.986880e-001 1.106733e+000 2.587726e-001 -3.810005e-001 -5.284626e-001 5.611482e-001 1.025278e+000 6.517221e-001 -3.568205e-001 9.504143e-002 -1.661612e-001 -2.559246e-001 -5.703034e-001
<VARIANCE> 39
 4.613271e+001 3.948875e+001 3.807129e+001 5.402122e+001 6.406778e+001 6.452139e+001 6.284956e+001 5.128258e+001 5.303263e+001 5.632042e+001 4.312814e+001 4.594244e+001 3.873020e+001 1.009712e+001 7.497472e+000 5.338223e+000 7.528194e+000 5.156318e+000 6.674047e+000 7.779529e+000 5.944611e+000 6.668538e+000 6.111386e+000 3.875088e+000 4.134923e+000 7.213749e+000 1.463721e+000 1.093492e+000 8.367140e-001 1.610388e+000 1.273355e+000 1.254559e+000 1.583916e+000 1.133223e+000 1.163677e+000 1.262477e+000 7.958117e-001 9.321329e-001 8.022287e-001
<GCONST> 1.480067e+002
<TRANSP> 5
 0.000000e+000 1.000000e+000 0.000000e+000 0.000000e+000 0.000000e+000
 0.000000e+000 6.430386e-001 3.569615e-001 0.000000e+000 0.000000e+000
 0.000000e+000 0.000000e+000 3.308700e-001 6.691300e-001 0.000000e+000
 0.000000e+000 0.000000e+000 0.000000e+000 4.600843e-001 5.399157e-001
 0.000000e+000 0.000000e+000 0.000000e+000 0.000000e+000 0.000000e+000
<ENDHMM>
~h "r"
<BEGINHMM>
<NUMSTATES> 5
<STATE> 2
<MEAN> 39
 -3.172062e-001 -3.798243e+000 -6.518794e-001 4.461054e-001 -1.893191e+000 -6.524619e+000 -1.285059e+001 -6.474803e+000 1.361153e+000 3.013223e+000 -4.861327e+000 -1.175631e+000 6.422218e+001 1.374175e+000 -1.130477e+000 9.296917e-001 1.181213e+000 -1.932039e+000 4.730880e-001 -5.266670e-001 2.635384e-001 1.115552e+000 -6.122772e-001 -9.278929e-002 4.699744e-001 5.660034e-001 1.131896e-001 5.105960e-002 -4.380295e-002 -6.173223e-002 -2.556610e-001 9.015982e-002 2.441565e-001 -3.963010e-002 -4.008811e-001 -3.494044e-002 1.768449e-001 2.321297e-002 -4.066140e-001
<VARIANCE> 39
 3.830363e+001 2.606950e+001 4.907846e+001 4.870224e+001 3.769304e+001 6.371702e+001 5.001393e+001 5.239802e+001 3.545172e+001 3.698187e+001 2.819078e+001 3.671898e+001 3.305639e+001 4.249327e+000 3.137979e+000 3.694670e+000 4.336277e+000 4.483634e+000 5.295648e+000 4.497601e+000 4.359767e+000 3.333169e+000 3.998137e+000 2.961758e+000 3.313766e+000 2.262578e+000 5.597170e-001 6.247551e-001 5.606863e-001 8.590555e-001 7.539628e-001 9.755182e-001 1.120336e+000 8.341580e-001 8.597320e-001 6.935514e-001 5.277046e-001 6.387465e-001 5.542490e-001
<GCONST> 1.324837e+002
<STATE> 3
<MEAN> 39
 3.265267e+000 -7.084807e+000 1.131887e+000 3.104345e+000 -7.711008e+000 -5.494145e+000 -1.321827e+001 -6.717452e+000 3.939738e+000 1.934461e+000 -5.071810e+000 1.031996e+000 6.469076e+001 9.933193e-001 -9.623331e-001 6.029790e-001 2.085337e-001 -1.223015e+000 3.706653e-001 -4.789224e-001 7.741180e-002 -5.539884e-002 -5.467116e-001 3.594183e-001 -7.010719e-002 6.953679e-002 -2.274424e-001 3.563901e-001 -2.350393e-001 -6.847876e-001 7.217741e-001 -1.288351e-001 9.324493e-002 1.856465e-001 -7.728173e-001 2.468010e-001 1.565586e-001 -5.007095e-001 -1.548123e-001
<VARIANCE> 39
 2.549536e+001 1.926886e+001 4.569120e+001 4.591780e+001 2.593483e+001 4.571554e+001 4.006038e+001 5.745345e+001 3.498668e+001 3.359869e+001 2.511208e+001 3.618341e+001 1.786248e+001 2.316756e+000 1.944554e+000 3.029286e+000 3.622593e+000 3.245977e+000 3.433041e+000 3.858959e+000 4.023601e+000 2.789725e+000 3.153741e+000 2.260601e+000 2.690332e+000 1.160218e+000 3.786043e-001 4.671894e-001 4.693381e-001 6.264535e-001 6.026658e-001 7.886791e-001 7.328604e-001 8.814958e-001 7.148404e-001 7.198472e-001 5.344612e-001 5.528876e-001 2.423449e-001
<GCONST> 1.228510e+002
<STATE> 4
<MEAN> 39
 4.715882e+000 -7.894697e+000 1.414551e+000 1.205221e+000 -6.945683e+000 -5.104383e+000 -1.357706e+001 -4.932335e+000 7.700118e-001 1.736687e+000 -2.553020e+000 -2.699794e+000 6.441225e+001 4.498512e-001 4.580547e-001 -1.203051e-001 -7.765985e-001 6.432058e-001 1.150502e-001 1.499757e-001 4.856233e-001 -1.396293e+000 3.697931e-001 3.312404e-001 -9.524562e-001 -4.231766e-001 -3.233405e-001 5.195031e-001 -2.440782e-001 -2.276684e-001 4.626070e-001 -1.953183e-001 4.371058e-001 4.554609e-003 -2.484048e-001 1.899859e-001 -2.238186e-001 -3.836392e-002 -1.846405e-001
<VARIANCE> 39
 2.303737e+001 2.130387e+001 4.994364e+001 3.800214e+001 3.215962e+001 4.288126e+001 5.062152e+001 6.575933e+001 3.820201e+001 4.566815e+001 2.569415e+001 3.775165e+001 1.964873e+001 1.979100e+000 2.900862e+000 2.726740e+000 3.468432e+000 3.155604e+000 3.811766e+000 4.142904e+000 4.234152e+000 3.798440e+000 3.235177e+000 2.993874e+000 3.034144e+000 1.525615e+000 3.066301e-001 2.790109e-001 3.541510e-001 5.026450e-001 5.700705e-001 5.447929e-001 6.875606e-001 7.126983e-001 6.294703e-001 6.708758e-001 4.335549e-001 5.062967e-001 1.589361e-001
<GCONST> 1.222799e+002
<TRANSP> 5
 0.000000e+000 1.000000e+000 0.000000e+000 0.000000e+000 0.000000e+000
 0.000000e+000 3.729888e-001 6.270113e-001 0.000000e+000 0.000000e+000
 0.000000e+000 0.000000e+000 4.564480e-001 5.435520e-001 0.000000e+000
 0.000000e+000 0.000000e+000 0.000000e+000 4.885890e-001 5.114110e-001
 0.000000e+000 0.000000e+000 0.000000e+000 0.000000e+000 0.000000e+000
<ENDHMM>
~h "s"
<BEGINHMM>
<NUMSTATES> 5
<STATE> 2
<MEAN> 39
 -1.110997e+001 3.106495e+000 -1.138552e+000 9.314373e-001 5.036367e+000 -9.637328e+000 -2.455435e+000 -3.185695e+000 5.425513e-001 3.312485e+000 -3.450074e+000 -8.457334e-001 6.375509e+001 -4.911488e+000 1.108040e+000 -7.276580e-001 1.626514e+000 2.023543e+000 -1.258938e+000 1.426995e+000 1.727659e+000 8.396614e-001 -6.425257e-001 -2.886802e-001 3.397794e-001 1.650012e+000 5.561003e-002 6.355953e-002 -7.074012e-002 -3.126400e-001 -4.112058e-001 2.994765e-001 -2.798472e-001 -1.253429e-001 -5.248967e-001 -1.506508e-002 -1.114586e-001 -1.471000e-001 -2.273948e-001
<VARIANCE> 39
 8.183157e+001 3.819255e+001 5.766736e+001 4.975187e+001 7.512538e+001 6.014035e+001 6.313299e+001 5.605816e+001 4.698853e+001 4.300936e+001 4.229819e+001 3.636230e+001 5.276106e+001 3.578855e+000 5.356790e+000 3.008278e+000 4.384052e+000 4.380644e+000 4.909478e+000 4.488780e+000 5.264135e+000 4.204482e+000 3.813779e+000 3.563316e+000 3.118653e+000 2.468552e+000 1.004046e+000 5.547889e-001 3.724150e-001 6.605612e-001 8.242748e-001 6.377862e-001 8.550489e-001 8.503610e-001 5.758606e-001 6.879547e-001 6.938868e-001 5.029019e-001 4.074761e-001
<GCONST> 1.352135e+002
<STATE> 3
<MEAN> 39
 -2.343369e+001 6.139353e+000 -3.223504e+000 3.454364e+000 7.274682e+000 -1.127297e+001 -1.387460e-001 -5.737318e-001 -4.938285e-001 1.228421e+000 -5.586982e+000 -6.886875e-001 6.637498e+001 -1.252437e+000 -2.324871e-001 -6.682463e-001 -1.752835e-001 6.855749e-002 4.671799e-002 -2.816539e-001 -1.458272e-001 -2.842512e-001 -2.661551e-001 -1.070137e-001 -6.771305e-003 -6.722409e-001 9.855025e-001 -3.537624e-001 1.365456e-001 -3.178969e-001 -4.060895e-001 1.137093e-001 -3.007647e-001 -3.963147e-001 -9.250671e-002 1.294554e-001 9.348094e-002 -3.949248e-002 -4.764040e-001
<VARIANCE> 39
 1.981612e+001 3.330486e+001 2.876376e+001 2.777223e+001 4.625756e+001 3.738229e+001 4.417268e+001 3.974142e+001 3.673667e+001 3.713013e+001 3.328459e+001 3.219478e+001 9.201585e+000 2.520561e+000 2.695163e+000 1.740113e+000 1.681586e+000 2.360158e+000 2.190029e+000 2.865068e+000 2.870557e+000 2.357235e+000 2.430448e+000 2.162880e+000 1.860450e+000 8.836724e-001 2.629881e-001 4.087830e-001 2.356287e-001 3.345334e-001 3.676308e-001 4.528690e-001 5.405498e-001 6.184333e-001 4.550377e-001 4.141094e-001 4.265302e-001 3.685094e-001 1.772696e-001
<GCONST> 1.130377e+002
<STATE> 4
<MEAN> 39
 -1.969697e+001 1.980511e+000 -4.957446e+000 1.097344e-001 4.033604e+000 -1.046287e+001 -3.288275e+000 -4.246072e+000 -1.685939e+000 1.612421e+000 -4.409275e+000 -7.108653e-001 5.887524e+001 2.247304e+000 1.737961e-001 -1.685103e-001 -5.001534e-001 -8.822412e-001 3.794443e-001 -1.430933e-001 -9.441708e-001 -4.443829e-001 3.417206e-001 2.753442e-001 -5.311740e-002 -1.780724e+000 5.512958e-001 2.930524e-001 1.640124e-001 -8.229294e-003 -5.794732e-002 1.031292e-001 1.558919e-002 -9.856841e-002 -6.282522e-002 1.483868e-001 3.931436e-002 4.093070e-004 1.772004e-001
<VARIANCE> 39
 3.610892e+001 4.693391e+001 4.027903e+001 3.522542e+001 4.953896e+001 4.741339e+001 5.409390e+001 4.349436e+001 3.797897e+001 3.695176e+001 3.723081e+001 2.899090e+001 3.282133e+001 3.778984e+000 3.755956e+000 2.699009e+000 2.056314e+000 2.478660e+000 2.744021e+000 4.258277e+000 3.976609e+000 3.013288e+000 2.825249e+000 2.635454e+000 2.257286e+000 2.996558e+000 4.424122e-001 7.459472e-001 4.749308e-001 4.758451e-001 4.786297e-001 5.010637e-001 8.810611e-001 7.490233e-001 6.566217e-001 5.693105e-001 5.329633e-001 4.582665e-001 5.001069e-001
<GCONST> 1.262264e+002
<TRANSP> 5
 0.000000e+000 1.000000e+000 0.000000e+000 0.000000e+000 0.000000e+000
 0.000000e+000 5.865378e-001 4.134622e-001 0.000000e+000 0.000000e+000
 0.000000e+000 0.000000e+000 7.728374e-001 2.271626e-001 0.000000e+000
 0.000000e+000 0.000000e+000 0.000000e+000 7.508718e-001 2.491281e-001
 0.000000e+000 0.000000e+000 0.000000e+000 0.000000e+000 0.000000e+000
<ENDHMM>
~h "t"
<BEGINHMM>
<NUMSTATES> 5
<STATE> 2
<MEAN> 39
 -4.069975e+000 7.211887e+000 -4.640642e+000 -7.114441e-002 -1.676016e+000 -3.694596e+000 -2.568783e-001 -3.160672e+000 -1.516505e+000 2.038544e+000 -2.838548e+000 -1.389612e+000 5.173824e+001 -7.144005e-001 1.056030e-001 -7.679638e-001 8.223160e-002 -3.857845e-001 7.008777e-001 2.236302e-001 1.761313e-001 1.788460e-001 -7.357206e-001 -9.348285e-002 1.967950e-001 -1.560055e+000 -5.642333e-001 -8.619740e-001 3.005510e-001 -2.641480e-001 2.769004e-001 -6.248416e-001 -7.304969e-001 -4.678468e-001 1.495068e-001 -3.671326e-002 -2.379695e-001 1.084675e-001 1.013804e+000
<VARIANCE> 39
 1.015764e+002 4.454359e+001 5.476028e+001 5.232619e+001 6.818749e+001 6.990533e+001 4.972651e+001 6.206236e+001 5.715762e+001 4.518044e+001 3.823550e+001 4.173884e+001 3.974520e+001 3.771945e+000 2.883279e+000 2.501326e+000 2.859295e+000 4.172264e+000 4.621257e+000 3.579167e+000 4.450122e+000 4.177207e+000 3.383476e+000 2.696611e+000 2.827452e+000 2.880368e+000 5.598090e-001 5.887086e-001 4.145879e-001 5.069366e-001 6.818419e-001 9.970520e-001 7.806042e-001 7.708944e-001 8.850135e-001 7.567214e-001 6.174259e-001 6.859037e-001 7.458093e-001
<GCONST> 1.341751e+002
<STATE> 3
<MEAN> 39
 -9.961624e+000 4.134531e+000 -8.219584e+000 -4.267873e-001 -4.186917e+000 -1.926186e+000 -2.567490e+000 -3.761418e+000 -1.571910e+000 -8.148559e-001 -3.635613e+000 -1.886633e+000 4.402121e+001 -1.663859e+000 -1.487922e+000 -7.898971e-002 -1.505742e-001 3.552376e-001 -7.829626e-001 -1.277704e+000 -7.455691e-001 5.124059e-001 -4.700613e-001 -1.867031e-001 4.546962e-001 6.280113e-001 -1.132656e-001 -4.584581e-001 2.511394e-001 -6.489867e-002 1.932079e-001 -4.978366e-001 -3.322796e-001 -1.329117e-001 6.475211e-002 1.713776e-001 -2.948888e-002 4.327374e-002 8.770455e-001
<VARIANCE> 39
 7.244957e+001 4.002567e+001 4.295329e+001 3.310432e+001 3.917293e+001 6.616316e+001 4.041139e+001 3.609386e+001 3.984519e+001 3.369670e+001 2.454597e+001 2.619229e+001 8.950961e+001 4.989158e+000 5.479935e+000 3.113158e+000 3.324955e+000 4.565786e+000 7.216958e+000 5.805472e+000 5.883100e+000 4.583628e+000 3.702618e+000 2.843748e+000 3.635821e+000 5.745353e+000 4.693573e-001 5.920362e-001 3.770472e-001 4.265791e-001 5.966690e-001 1.128052e+000 8.130158e-001 8.067964e-001 6.911384e-001 5.947403e-001 4.422065e-001 5.839732e-001 1.029457e+000
<GCONST> 1.336653e+002
<STATE> 4
<MEAN> 39
 -1.220425e+001 -2.355547e+000 -4.594394e+000 -1.146286e+000 6.230085e-001 -9.509517e+000 -7.751538e+000 -7.753276e+000 6.383958e-001 -2.504552e-001 -4.278671e+000 7.254044e-001 5.805192e+001 6.306236e-001 -8.738998e-001 5.892237e-001 -2.044954e-001 4.499910e-001 -9.217694e-001 -1.001823e+000 -4.981982e-001 2.721070e-002 8.996230e-001 3.969824e-002 -2.744172e-001 1.992199e+000 1.192840e+000 7.912800e-001 3.069361e-001 -9.921091e-002 -2.229716e-001 5.214520e-001 2.826634e-001 1.785056e-001 -4.462633e-001 5.160272e-001 1.844502e-001 -2.914867e-001 -2.551797e-001
<VARIANCE> 39
 3.976212e+001 3.940978e+001 4.365794e+001 4.290860e+001 6.273542e+001 5.790787e+001 6.392041e+001 4.510802e+001 4.493105e+001 5.083934e+001 4.120464e+001 4.327494e+001 5.224383e+001 1.030334e+001 6.982003e+000 3.858639e+000 4.129537e+000 5.163327e+000 7.746907e+000 6.427691e+000 5.155156e+000 5.333888e+000 5.089709e+000 3.650368e+000 4.212513e+000 6.340428e+000 8.446825e-001 9.380286e-001 5.985696e-001 8.899379e-001 1.038332e+000 1.182789e+000 1.298007e+000 1.051163e+000 8.995166e-001 9.629496e-001 6.948779e-001 7.868462e-001 8.884437e-001
<GCONST> 1.428128e+002
<TRANSP> 5
 0.000000e+000 1.000000e+000 0.000000e+000 0.000000e+000 0.000000e+000
 0.000000e+000 4.512321e-001 5.487679e-001 0.000000e+000 0.000000e+000
 0.000000e+000 0.000000e+000 5.604534e-001 4.395466e-001 0.000000e+000
 0.000000e+000 0.000000e+000 0.000000e+000 6.991021e-001 3.008979e-001
 0.000000e+000 0.000000e+000 0.000000e+000 0.000000e+000 0.000000e+000
<ENDHMM>
~h "u"
<BEGINHMM>
<NUMSTATES> 5
<STATE> 2
<MEAN> 39
 7.870783e+000 7.744642e+000 -3.122523e+000 -6.373418e+000 -4.719785e+000 1.344921e+000 -7.988122e+000 -1.355331e+001 -1.361498e+001 3.997594e+000 5.103413e-001 -2.747037e+000 5.773236e+001 1.162704e+000 1.292897e+000 4.947511e-001 1.993319e-001 -1.022990e+000 2.368937e-001 7.288308e-001 -4.779409e-001 -2.792521e-001 -1.536339e-002 -3.855927e-001 9.502093e-002 -3.433750e-001 -5.275919e-001 -3.757516e-001 -8.169293e-002 3.533872e-001 1.434721e-001 -1.666770e-003 1.313006e-001 4.739043e-001 7.153652e-001 -1.219291e-001 -2.919494e-001 -9.469023e-002 -1.870428e-001
<VARIANCE> 39
 2.028915e+001 3.458293e+001 4.231049e+001 6.134308e+001 6.666329e+001 6.429205e+001 1.071970e+002 7.242063e+001 6.133178e+001 8.261708e+001 6.021710e+001 5.419958e+001 1.383648e+001 2.627750e+000 3.879499e+000 3.989843e+000 5.372559e+000 3.148286e+000 4.302040e+000 5.579308e+000 5.934063e+000 7.197706e+000 4.557379e+000 3.598700e+000 3.130626e+000 2.015160e+000 3.734829e-001 5.012264e-001 4.806529e-001 7.728770e-001 6.341362e-001 7.980257e-001 1.061489e+000 1.066605e+000 1.014937e+000 7.646118e-001 7.331517e-001 6.489076e-001 2.020586e-001
<GCONST> 1.349481e+002
<STATE> 3
<MEAN> 39
 8.578612e+000 1.192256e+001 -3.615536e+000 -5.503495e+000 -9.171815e+000 3.500515e+000 -3.228081e+000 -9.414925e+000 -9.120770e+000 1.042251e-001 -3.033642e+000 -1.954182e+000 5.343650e+001 -5.402133e-001 2.517992e-001 3.759196e-002 8.924333e-001 2.401018e-001 2.324989e-001 3.240316e-001 7.520828e-001 5.600489e-001 -4.611355e-001 -1.642053e-001 3.104138e-002 -8.649921e-001 -4.071417e-001 -4.297838e-001 1.491165e-002 7.546134e-002 3.201520e-001 -1.034459e-001 -2.372112e-001 -2.277413e-003 1.005629e-001 1.586799e-001 1.241494e-001 -4.079192e-003 1.147110e-001
<VARIANCE> 39
 1.905543e+001 3.511076e+001 3.312989e+001 5.621164e+001 6.254079e+001 4.504667e+001 7.427032e+001 5.493616e+001 5.321353e+001 5.578251e+001 4.299823e+001 4.730799e+001 2.183101e+001 1.089841e+000 1.891112e+000 1.856830e+000 2.936557e+000 3.001664e+000 3.370436e+000 4.177507e+000 3.614476e+000 3.695641e+000 3.315670e+000 2.643123e+000 2.862273e+000 1.266116e+000 2.269217e-001 3.357139e-001 3.321311e-001 4.652385e-001 5.860713e-001 6.370647e-001 7.575070e-001 6.694899e-001 7.220721e-001 7.090442e-001 5.486981e-001 5.470945e-001 1.583284e-001
<GCONST> 1.230584e+002
<STATE> 4
<MEAN> 39
 -3.123583e+000 6.896132e+000 -5.465526e+000 -1.119382e-001 -5.273923e+000 3.942091e+000 -5.352905e+000 -6.953238e+000 -6.602091e+000 2.685840e-001 -1.616123e+000 -3.174213e+000 4.500389e+001 -1.572872e+000 -1.078359e+000 -4.082268e-002 5.844008e-001 5.925607e-001 -4.667831e-001 -5.184139e-001 2.773469e-001 8.568109e-001 2.731393e-001 7.313676e-002 -9.849141e-002 -4.151628e-001 -2.682705e-001 -2.762153e-001 1.446939e-001 -4.299000e-002 -1.286977e-002 -2.208792e-001 -2.392967e-002 -1.869766e-002 1.585386e-001 1.265056e-002 -9.841251e-002 5.541631e-002 3.013453e-001
<VARIANCE> 39
 1.518859e+002 3.630331e+001 3.877418e+001 4.022547e+001 5.507257e+001 4.071843e+001 7.236677e+001 5.924260e+001 5.267447e+001 5.175305e+001 3.542461e+001 3.211478e+001 1.668380e+002 1.665619e+000 2.842753e+000 2.467108e+000 3.299342e+000 5.438845e+000 3.385798e+000 4.152564e+000 4.493979e+000 4.349630e+000 4.465549e+000 3.569685e+000 2.727304e+000 2.475550e+000 4.246610e-001 5.614327e-001 4.122031e-001 5.005468e-001 8.563239e-001 5.628877e-001 1.012336e+000 7.788678e-001 6.777699e-001 8.252003e-001 5.345284e-001 5.309903e-001 2.806182e-001
<GCONST> 1.323370e+002
<TRANSP> 5
 0.000000e+000 1.000000e+000 0.000000e+000 0.000000e+000 0.000000e+000
 0.000000e+000 5.239666e-001 4.760334e-001 0.000000e+000 0.000000e+000
 0.000000e+000 0.000000e+000 6.683084e-001 3.316917e-001 0.000000e+000
 0.000000e+000 0.000000e+000 0.000000e+000 5.578491e-001 4.421509e-001
 0.000000e+000 0.000000e+000 0.000000e+000 0.000000e+000 0.000000e+000
<ENDHMM>
~h "v"
<BEGINHMM>
<NUMSTATES> 5
<STATE> 2
<MEAN> 39
 3.995493e+000 3.087377e+000 -3.753138e+000 -9.992914e-001 -4.523612e+000 -3.341248e+000 -9.194786e+000 -1.002190e+001 -6.978093e+000 3.945168e+000 -1.914364e+000 -1.359618e+000 5.674508e+001 6.911259e-001 6.412600e-001 -6.358073e-001 3.208222e-001 -8.174365e-002 3.322479e-001 -2.759899e-001 -4.881907e-001 -3.988488e-001 -4.036595e-001 3.708529e-001 2.375639e-001 -5.362584e-001 -4.668490e-002 -2.328187e-001 4.252167e-001 -4.099313e-001 -2.405887e-003 -1.667508e-001 -1.623254e-001 4.274974e-002 1.026408e-001 2.684870e-001 -2.386564e-001 -4.532086e-002 4.712965e-001
<VARIANCE> 39
 5.967916e+001 3.113093e+001 5.467297e+001 6.668951e+001 4.315314e+001 5.074787e+001 3.860759e+001 3.833664e+001 4.955886e+001 4.210390e+001 4.495093e+001 4.089210e+001 3.881734e+001 2.648700e+000 2.030266e+000 3.253738e+000 3.438585e+000 3.404204e+000 3.707683e+000 3.085325e+000 3.401808e+000 3.508015e+000 2.946648e+000 2.735984e+000 2.897082e+000 1.820959e+000 3.479134e-001 3.646357e-001 4.976732e-001 4.883006e-001 6.052641e-001 6.320752e-001 5.069553e-001 6.212104e-001 5.889379e-001 6.124231e-001 5.440989e-001 5.487931e-001 2.718041e-001
<GCONST> 1.260781e+002
<STATE> 3
<MEAN> 39
 6.418386e+000 4.445778e+000 -5.843212e+000 -3.544795e+000 -5.016506e+000 -1.835463e+000 -9.633363e+000 -1.093538e+001 -7.881938e+000 3.367723e+000 -1.076771e+000 -7.036164e-001 5.686516e+001 4.653207e-001 -4.413711e-001 3.437298e-001 -6.563054e-001 2.363155e-001 -6.250791e-002 -6.887039e-001 -1.203644e-001 5.042461e-002 9.102763e-001 -1.596066e-001 -1.460578e-001 7.109010e-001 -2.136982e-001 -5.733277e-001 6.441238e-001 -3.307014e-001 1.150738e-001 -2.280530e-001 -2.219540e-003 2.128932e-001 1.857675e-001 5.051690e-001 -4.031805e-001 -2.272887e-001 5.751690e-001
<VARIANCE> 39
 4.240086e+001 2.933295e+001 5.130822e+001 7.326124e+001 4.348421e+001 6.024046e+001 4.154522e+001 3.578147e+001 5.342613e+001 4.368518e+001 4.271951e+001 4.060340e+001 2.864755e+001 2.814351e+000 2.729801e+000 3.591293e+000 4.544662e+000 4.004406e+000 4.650167e+000 4.026776e+000 3.494848e+000 4.641913e+000 3.832732e+000 3.497981e+000 3.144781e+000 2.178814e+000 2.354162e-001 3.563474e-001 5.126026e-001 7.049958e-001 5.703409e-001 7.823058e-001 7.040884e-001 7.503723e-001 7.909304e-001 7.173485e-001 5.619494e-001 6.193178e-001 2.095821e-001
<GCONST> 1.291082e+002
<STATE> 4
<MEAN> 39
 5.776341e+000 1.754637e+000 -3.670158e+000 -3.724168e+000 -3.549487e+000 -3.123261e+000 -1.183001e+001 -1.056622e+001 -6.321003e+000 7.087003e+000 -2.768176e+000 -2.382648e+000 5.909987e+001 9.374448e-002 -1.327351e+000 1.604978e+000 -8.210478e-001 -1.082213e-003 -8.171623e-001 -1.000753e-001 4.318494e-001 3.764914e-001 1.031753e+000 -1.148824e+000 -3.715524e-001 1.488085e+000 -2.622282e-001 -1.798427e-001 4.652353e-001 -2.066689e-001 -1.926180e-001 -7.428090e-002 4.410292e-001 1.977865e-001 -5.400033e-002 -2.234133e-001 -1.562346e-001 2.963457e-003 1.247504e-001
<VARIANCE> 39
 3.007027e+001 3.094159e+001 5.856968e+001 7.537763e+001 5.980365e+001 8.101102e+001 6.211837e+001 4.750047e+001 6.504290e+001 6.556173e+001 4.919223e+001 4.409758e+001 2.815862e+001 2.925279e+000 3.485168e+000 4.830094e+000 6.144684e+000 4.731375e+000 6.701393e+000 5.165538e+000 5.527497e+000 5.985320e+000 4.537124e+000 3.289473e+000 3.406066e+000 2.599169e+000 2.928658e-001 3.627579e-001 5.194246e-001 8.582187e-001 8.071126e-001 8.091082e-001 8.547169e-001 7.457855e-001 7.846682e-001 7.965909e-001 6.037971e-001 6.403660e-001 2.773425e-001
<GCONST> 1.353237e+002
<TRANSP> 5
 0.000000e+000 1.000000e+000 0.000000e+000 0.000000e+000 0.000000e+000
 0.000000e+000 3.629052e-001 6.370948e-001 0.000000e+000 0.000000e+000
 0.000000e+000 0.000000e+000 3.714946e-001 6.285055e-001 0.000000e+000
 0.000000e+000 0.000000e+000 0.000000e+000 2.933705e-001 7.066295e-001
 0.000000e+000 0.000000e+000 0.000000e+000 0.000000e+000 0.000000e+000
<ENDHMM>
~h "x"
<BEGINHMM>
<NUMSTATES> 5
<STATE> 2
<MEAN> 39
 -1.111705e+001 2.208199e+000 1.283511e+001 3.277245e+000 -1.507200e+000 -6.165841e+000 -2.488028e+000 -7.328477e+000 -4.686104e+000 4.051022e+000 -8.771478e+000 1.154029e+000 6.168999e+001 -1.944387e+000 -2.832210e+000 -2.194745e+000 3.214223e+000 2.228825e+000 -1.405988e+000 -1.083653e+000 1.113829e+000 2.481683e-001 4.202947e-002 -4.300489e-002 8.378248e-002 7.074676e-001 6.362976e-001 -2.159621e-001 -4.276616e-001 -5.134361e-001 -3.039097e-001 1.072711e-001 -3.862180e-001 -1.736844e-001 -4.838332e-001 -1.456086e-001 4.408634e-001 -2.701779e-001 -1.454528e-001
<VARIANCE> 39
 4.964009e+001 5.655011e+001 1.100596e+002 6.356360e+001 5.888053e+001 9.405834e+001 6.404836e+001 1.001027e+002 3.963836e+001 5.193448e+001 4.433542e+001 3.730442e+001 1.672451e+001 2.437338e+000 5.389188e+000 3.867484e+000 6.028351e+000 4.897973e+000 5.909785e+000 5.392796e+000 5.151091e+000 4.637981e+000 4.905396e+000 3.973294e+000 3.529226e+000 1.364758e+000 4.651559e-001 7.257986e-001 4.097430e-001 7.922001e-001 5.995917e-001 1.022439e+000 1.208165e+000 9.350249e-001 7.005821e-001 5.993577e-001 6.790979e-001 6.505887e-001 2.449069e-001
<GCONST> 1.365334e+002
<STATE> 3
<MEAN> 39
 -1.231959e+001 -8.232583e+000 2.485020e+000 8.384117e+000 4.065300e+000 -1.055167e+001 -8.712841e+000 -5.395789e+000 -4.830820e+000 4.380578e+000 -5.953440e+000 9.257594e-001 6.236228e+001 3.346258e-001 -1.311491e+000 -2.431479e+000 -2.192119e-001 5.275156e-001 -8.390377e-002 -1.370122e+000 -2.725602e-001 -5.241556e-002 -3.176679e-001 8.010696e-001 -3.802998e-001 -5.341963e-001 4.908105e-001 7.234663e-001 2.914892e-001 -7.390277e-001 -5.762894e-001 5.611965e-001 4.387023e-001 -3.213502e-001 -2.211511e-001 -8.535609e-002 2.601836e-002 -1.423309e-001 -4.232615e-001
<VARIANCE> 39
 3.868037e+001 5.712116e+001 7.904117e+001 4.799435e+001 7.681339e+001 8.397617e+001 7.529486e+001 8.116867e+001 3.260989e+001 5.799622e+001 3.877647e+001 2.816081e+001 2.611947e+001 2.013463e+000 2.746383e+000 3.357624e+000 3.199510e+000 4.480016e+000 5.064024e+000 6.516263e+000 5.067982e+000 4.458048e+000 2.662267e+000 3.144356e+000 3.188173e+000 1.634370e+000 2.799590e-001 6.122255e-001 2.992637e-001 8.005689e-001 8.515199e-001 8.585845e-001 1.086621e+000 9.770933e-001 8.245529e-001 6.928591e-001 6.038588e-001 5.658428e-001 2.444063e-001
<GCONST> 1.323971e+002
<STATE> 4
<MEAN> 39
 -9.511751e+000 -6.203148e+000 -6.058197e+000 4.121325e+000 2.023127e+000 -2.769649e+000 -7.662592e+000 -5.813578e+000 -6.647842e+000 1.782313e+000 -2.782686e+000 -2.048982e+000 5.237159e+001 5.867562e-001 1.265477e+000 -5.382865e-001 -2.844954e-001 -8.024937e-001 9.254947e-001 5.859363e-001 -2.190053e-001 -1.098936e-001 -5.308288e-001 2.009535e-001 -1.632797e-001 -1.670563e+000 1.318463e-001 4.082273e-001 4.230902e-001 -1.440821e-001 -1.797715e-001 1.525907e-002 1.719358e-002 -1.842206e-002 2.253159e-001 1.954177e-001 -1.116404e-001 8.075154e-002 1.886803e-001
<VARIANCE> 39
 4.373055e+001 5.925781e+001 9.331440e+001 4.645943e+001 8.026099e+001 8.192751e+001 7.196152e+001 4.821333e+001 4.358506e+001 5.410541e+001 3.578760e+001 3.450915e+001 1.325535e+002 2.899491e+000 2.890886e+000 3.495177e+000 2.357080e+000 2.721856e+000 3.562715e+000 3.282260e+000 3.795587e+000 3.365157e+000 2.956904e+000 2.990947e+000 3.058824e+000 2.159189e+000 3.766132e-001 5.191348e-001 4.725051e-001 4.725638e-001 5.564854e-001 6.805730e-001 8.002554e-001 6.695304e-001 7.676814e-001 5.950709e-001 6.432551e-001 6.727986e-001 3.737838e-001
<GCONST> 1.316047e+002
<TRANSP> 5
 0.000000e+000 1.000000e+000 0.000000e+000 0.000000e+000 0.000000e+000
 0.000000e+000 5.420077e-001 4.579923e-001 0.000000e+000 0.000000e+000
 0.000000e+000 0.000000e+000 6.369243e-001 3.630757e-001 0.000000e+000
 0.000000e+000 0.000000e+000 0.000000e+000 7.069548e-001 2.930452e-001
 0.000000e+000 0.000000e+000 0.000000e+000 0.000000e+000 0.000000e+000
<ENDHMM>
~h "z"
<BEGINHMM>
<NUMSTATES> 5
<STATE> 2
<MEAN> 39
 -8.363730e+000 1.012643e+001 -3.285968e+000 -2.696427e+000 3.447515e+000 -1.517492e+001 -6.042982e+000 -6.355468e+000 -4.490295e+000 2.416210e+000 -3.961230e+000 -2.878015e+000 6.359072e+001 -3.025136e+000 1.831962e+000 -8.559620e-001 9.805450e-001 5.412263e-001 -1.307520e+000 6.834883e-001 5.691274e-001 7.863958e-001 -6.240712e-001 -3.814205e-001 1.178843e+000 3.752815e-001 5.070382e-001 -5.600989e-001 5.776216e-001 -1.267450e-002 -3.744861e-001 4.120647e-001 -3.221636e-001 -1.809031e-002 -7.927962e-003 2.167680e-001 -7.559497e-002 9.272166e-002 -5.175637e-002
<VARIANCE> 39
 4.158493e+001 3.658879e+001 5.098115e+001 7.163871e+001 6.921118e+001 7.299987e+001 5.253052e+001 5.564044e+001 4.124059e+001 4.340654e+001 4.536252e+001 5.219069e+001 6.059113e+001 4.146781e+000 3.853408e+000 3.565496e+000 2.141328e+000 3.189967e+000 4.247905e+000 3.724522e+000 5.458208e+000 4.623160e+000 2.921490e+000 2.774465e+000 2.394121e+000 1.716102e+000 7.291909e-001 6.061536e-001 5.700047e-001 5.114052e-001 5.151596e-001 8.911577e-001 8.482782e-001 8.667743e-001 7.959628e-001 5.463412e-001 5.706567e-001 6.823161e-001 2.132758e-001
<GCONST> 1.320824e+002
<STATE> 3
<MEAN> 39
 -1.365178e+001 1.225372e+001 -7.317910e-001 2.685379e+000 1.441570e+000 -1.660692e+001 -4.608909e+000 -3.760726e+000 -1.926090e+000 -3.778274e-001 -6.460662e+000 1.376399e+000 6.277998e+001 3.424122e-001 -2.751854e-001 8.960470e-001 6.764030e-001 -1.500112e-001 1.011049e-001 -6.893722e-001 -6.157223e-001 3.519021e-001 3.418707e-002 5.992961e-003 3.797034e-001 3.631158e-001 1.125075e+000 -5.825742e-001 2.287825e-001 -3.297042e-001 -2.523262e-001 2.686518e-001 -4.695598e-001 -4.896467e-001 -1.886548e-001 3.104444e-001 2.788851e-001 -3.647729e-001 -8.212504e-002
<VARIANCE> 39
 3.273496e+001 2.781617e+001 3.930455e+001 4.870537e+001 6.114118e+001 7.442849e+001 5.422888e+001 5.155111e+001 3.293612e+001 4.615120e+001 3.129089e+001 3.358133e+001 3.888652e+001 5.250534e+000 2.404070e+000 3.383636e+000 2.372616e+000 3.091035e+000 5.263330e+000 4.967840e+000 4.904894e+000 3.881716e+000 2.907575e+000 2.307687e+000 2.790265e+000 3.970600e+000 7.466483e-001 4.557233e-001 5.369295e-001 4.620651e-001 5.235561e-001 1.041443e+000 8.609323e-001 1.191723e+000 6.984575e-001 6.267316e-001 4.494594e-001 5.754011e-001 3.037972e-001
<GCONST> 1.301947e+002
<STATE> 4
<MEAN> 39
 -6.468045e+000 7.963839e+000 1.594047e+000 1.904808e+000 4.652492e-001 -1.600572e+001 -1.065241e+001 -9.947989e+000 -2.185085e+000 2.743807e+000 -3.283608e+000 6.226425e-002 6.418391e+001 2.689856e+000 -1.430873e+000 -4.702720e-002 -1.101760e+000 -4.821430e-001 6.427513e-001 -1.175670e+000 -7.896085e-001 -7.088403e-002 1.145229e+000 5.343227e-001 -9.325185e-001 9.440562e-002 1.328365e-001 -4.492574e-002 -2.799809e-001 -5.575264e-001 1.372916e-001 3.578435e-001 4.291108e-001 3.433752e-001 -1.990086e-001 1.230168e-001 -1.928521e-001 -3.135848e-001 -4.312048e-002
<VARIANCE> 39
 3.093447e+001 2.755702e+001 4.097126e+001 3.848555e+001 4.631015e+001 5.223913e+001 3.953434e+001 4.478732e+001 4.299698e+001 3.739583e+001 2.955282e+001 3.025219e+001 1.400849e+001 1.770059e+000 2.254401e+000 3.277947e+000 3.576895e+000 3.493179e+000 4.342198e+000 4.870526e+000 6.394455e+000 3.553656e+000 3.621092e+000 3.077253e+000 3.179314e+000 1.112410e+000 5.443900e-001 3.228270e-001 4.842256e-001 4.503156e-001 5.080812e-001 7.001556e-001 8.320475e-001 9.116147e-001 6.185201e-001 5.795447e-001 4.971690e-001 5.755776e-001 1.059702e-001
<GCONST> 1.237288e+002
<TRANSP> 5
 0.000000e+000 1.000000e+000 0.000000e+000 0.000000e+000 0.000000e+000
 0.000000e+000 5.878608e-001 4.121392e-001 0.000000e+000 0.000000e+000
 0.000000e+000 0.000000e+000 6.367311e-001 3.632689e-001 0.000000e+000
 0.000000e+000 0.000000e+000 0.000000e+000 6.370992e-001 3.629008e-001
 0.000000e+000 0.000000e+000 0.000000e+000 0.000000e+000 0.000000e+000
<ENDHMM>
~h "aa"
<BEGINHMM>
<NUMSTATES> 5
<STATE> 2
<MEAN> 39
 5.180772e+000 -7.667226e+000 -6.513026e+000 -9.842529e+000 3.387520e+000 -1.964906e+000 -6.099195e+000 -5.193901e+000 -4.346441e+000 8.374705e+000 -7.461020e+000 -7.549969e+000 6.713128e+001 1.090420e-001 -8.196871e-001 -6.355501e-001 -1.199748e+000 6.639693e-001 4.809072e-001 8.416394e-001 1.142894e-001 -1.334813e-001 4.110794e-002 -6.319585e-001 -4.474239e-001 2.760204e-001 -1.691143e-001 2.562927e-001 2.020730e-001 2.947924e-001 -2.616546e-001 -1.187422e-001 -4.449238e-002 -1.929880e-001 -2.969328e-002 -1.881217e-001 1.409584e-001 2.132311e-001 -2.540833e-001
<VARIANCE> 39
 1.051566e+001 2.070580e+001 2.061606e+001 3.208198e+001 2.950893e+001 4.646928e+001 4.299092e+001 6.055659e+001 3.908234e+001 3.704900e+001 4.051530e+001 3.999745e+001 7.981058e+000 7.140242e-001 1.126149e+000 1.700537e+000 2.190648e+000 2.050980e+000 2.266408e+000 2.845695e+000 3.197689e+000 2.492038e+000 2.387403e+000 2.489677e+000 2.552289e+000 4.922797e-001 1.838019e-001 2.055236e-001 2.237545e-001 3.202187e-001 3.524803e-001 3.315503e-001 5.067014e-001 5.990855e-001 5.111214e-001 4.887709e-001 5.029922e-001 4.591353e-001 1.175532e-001
<GCONST> 1.089096e+002
<STATE> 3
<MEAN> 39
 5.090554e+000 -7.941069e+000 -7.398552e+000 -1.371576e+001 3.313208e+000 1.049083e-001 -3.339671e+000 -8.200259e+000 -2.019029e+000 6.833240e+000 -8.963882e+000 -6.306444e+000 6.697407e+001 1.523525e-001 5.716400e-001 2.099988e-001 9.497258e-002 -6.440188e-001 7.799319e-002 2.062204e-001 1.570024e-002 3.222940e-001 -1.439028e-002 -1.247422e-002 2.290642e-001 -4.330561e-001 9.367105e-003 2.827422e-001 5.746408e-002 2.490570e-001 -2.131539e-001 -4.663025e-003 -3.301760e-002 8.121381e-002 -1.416059e-003 -3.302564e-003 1.703921e-001 4.377815e-002 -1.811611e-001
<VARIANCE> 39
 9.543599e+000 1.362098e+001 1.224867e+001 3.612970e+001 3.261042e+001 5.734086e+001 3.851580e+001 4.709462e+001 3.483310e+001 3.425201e+001 3.436333e+001 3.106475e+001 8.007069e+000 3.924143e-001 8.762382e-001 1.002143e+000 1.356346e+000 2.121424e+000 2.320818e+000 2.671748e+000 3.267766e+000 1.961085e+000 1.741915e+000 1.706725e+000 1.915855e+000 4.049562e-001 7.938558e-002 1.076933e-001 1.766133e-001 2.428646e-001 3.220442e-001 3.915037e-001 4.241965e-001 4.492904e-001 4.139858e-001 3.204995e-001 3.095782e-001 3.450869e-001 6.499424e-002
<GCONST> 9.969207e+001
<STATE> 4
<MEAN> 39
 2.823147e-001 -4.712189e-001 -9.524714e+000 -7.107419e+000 -2.341776e+000 3.576548e+000 -4.399527e-001 -3.992392e+000 -8.450555e-001 4.540141e+000 -5.134267e+000 -6.199135e+000 5.304114e+001 -5.054944e-001 9.855523e-001 -1.676016e-001 8.161228e-001 -7.287872e-001 3.075381e-001 2.600121e-001 5.600378e-001 -8.283740e-002 -5.653213e-001 4.280410e-001 1.338571e-002 -1.424597e+000 -1.928807e-001 -1.744879e-002 1.653056e-002 8.502835e-002 1.227812e-001 -4.035432e-002 -1.184561e-001 -2.126750e-002 -1.422968e-002 -1.274375e-001 -6.577446e-002 3.342591e-002 2.452356e-002
<VARIANCE> 39
 1.271017e+002 2.287029e+001 2.893573e+001 5.680076e+001 4.882354e+001 6.749513e+001 6.092646e+001 6.860285e+001 4.586292e+001 4.225692e+001 3.782462e+001 3.344038e+001 1.890045e+002 1.144171e+000 1.370240e+000 1.792731e+000 1.758295e+000 2.418906e+000 3.209533e+000 3.199450e+000 3.578502e+000 3.253907e+000 2.240248e+000 2.073124e+000 2.386817e+000 9.466761e-001 1.919215e-001 1.830303e-001 2.375201e-001 3.233030e-001 4.217378e-001 5.847365e-001 6.169456e-001 6.556339e-001 5.544761e-001 4.614404e-001 4.121661e-001 4.675956e-001 1.152142e-001
<GCONST> 1.196735e+002
<TRANSP> 5
 0.000000e+000 1.000000e+000 0.000000e+000 0.000000e+000 0.000000e+000
 0.000000e+000 7.651312e-001 2.348688e-001 0.000000e+000 0.000000e+000
 0.000000e+000 0.000000e+000 8.043652e-001 1.956348e-001 0.000000e+000
 0.000000e+000 0.000000e+000 0.000000e+000 7.260381e-001 2.739619e-001
 0.000000e+000 0.000000e+000 0.000000e+000 0.000000e+000 0.000000e+000
<ENDHMM>
~h "ch"
<BEGINHMM>
<NUMSTATES> 5
<STATE> 2
<MEAN> 39
 -5.781961e+000 4.010395e+000 7.476928e+000 -3.827374e+000 -5.218731e+000 3.526516e+000 -8.072195e+000 -5.751276e+000 8.739516e-002 -1.156027e+000 -3.721130e+000 4.401584e-002 5.582508e+001 -4.006896e+000 -1.369169e+000 1.482134e+000 1.143079e-001 -4.672188e-001 8.621827e-001 -2.260905e-001 -3.218116e-001 1.969767e+000 -5.115800e-001 -4.870689e-001 4.094034e-002 1.243745e+000 -7.906600e-001 -7.338561e-001 1.251641e-001 3.329782e-001 -1.388896e-001 -8.330916e-001 -2.260190e-002 -3.263224e-001 -2.623260e-001 2.967249e-001 -3.328005e-002 -2.084170e-001 9.857302e-001
<VARIANCE> 39
 6.866801e+001 4.161689e+001 6.070547e+001 6.281828e+001 6.019925e+001 7.874680e+001 4.579955e+001 7.506029e+001 6.129130e+001 3.886361e+001 3.372296e+001 3.169067e+001 3.119802e+001 4.904178e+000 4.953859e+000 3.701657e+000 4.868858e+000 5.087711e+000 5.472950e+000 5.827116e+000 5.814041e+000 5.699287e+000 4.332671e+000 4.517195e+000 4.509112e+000 4.772991e+000 6.537980e-001 7.121319e-001 6.204181e-001 8.215799e-001 9.242976e-001 1.027601e+000 1.211497e+000 1.091240e+000 1.004556e+000 9.608399e-001 7.261409e-001 7.670109e-001 4.956416e-001
<GCONST> 1.408596e+002
<STATE> 3
<MEAN> 39
 -2.322589e+001 -3.664309e+000 1.271370e+001 -5.174462e-001 -7.598306e+000 -3.814428e-001 -7.266284e+000 -8.448481e+000 2.881673e+000 -3.409347e-001 -5.114702e+000 -7.686722e-001 6.576340e+001 -2.973265e+000 -2.025696e+000 -1.446297e-001 1.644400e+000 -6.814368e-001 -2.313485e+000 3.828003e-001 -6.194347e-001 -3.189722e-001 8.613605e-001 6.441405e-002 -1.056512e-001 1.943698e+000 1.519657e+000 4.532830e-001 -7.633781e-001 -5.370390e-002 2.810812e-001 -2.837473e-001 2.692978e-002 1.611890e-001 -6.411714e-001 6.288777e-002 1.784059e-001 1.704153e-002 -8.542817e-001
<VARIANCE> 39
 2.532711e+001 2.828749e+001 2.167015e+001 4.176569e+001 3.646714e+001 3.273299e+001 2.537135e+001 4.259254e+001 2.938787e+001 5.243633e+001 3.878780e+001 3.381601e+001 1.446764e+001 5.443022e+000 2.350324e+000 2.650062e+000 2.968073e+000 3.018471e+000 5.428129e+000 3.170530e+000 4.044379e+000 2.238364e+000 3.293673e+000 2.158592e+000 2.257248e+000 3.261390e+000 6.067646e-001 4.010558e-001 4.454327e-001 6.398612e-001 5.180854e-001 8.663144e-001 6.105730e-001 7.483470e-001 5.824695e-001 7.230068e-001 6.399975e-001 6.386529e-001 3.526951e-001
<GCONST> 1.239887e+002
<STATE> 4
<MEAN> 39
 -2.022198e+001 -7.536432e+000 5.943953e+000 3.119670e+000 -6.744468e+000 -6.612398e+000 -6.953370e+000 -9.648271e+000 -1.031768e+000 1.195118e+000 -3.607829e+000 -1.302048e+000 6.392434e+001 2.773907e+000 6.012191e-001 -1.211691e+000 -3.968578e-001 5.654918e-001 -7.343146e-001 3.597078e-002 1.940277e-001 -9.401873e-001 2.795283e-001 2.194210e-001 -8.922181e-002 -9.643937e-001 9.008262e-001 5.912513e-001 1.133185e-001 -4.140589e-001 7.691169e-002 3.164107e-001 -6.909820e-002 1.486087e-001 1.484745e-003 3.871972e-002 8.074156e-003 2.165600e-003 -8.602715e-002
<VARIANCE> 39
 5.249459e+001 3.318956e+001 4.423759e+001 5.441268e+001 3.265358e+001 3.479365e+001 3.235077e+001 3.668658e+001 3.773014e+001 4.043679e+001 3.202584e+001 2.590458e+001 1.921840e+001 4.558464e+000 3.268200e+000 2.834616e+000 2.619080e+000 2.510596e+000 3.521046e+000 3.778047e+000 3.338976e+000 3.500335e+000 3.598791e+000 2.824870e+000 2.185737e+000 2.209483e+000 7.086089e-001 3.869303e-001 4.318393e-001 4.831242e-001 4.074124e-001 6.104041e-001 7.235789e-001 6.206844e-001 6.369792e-001 7.321039e-001 4.198719e-001 4.229694e-001 6.650422e-001
<GCONST> 1.246623e+002
<TRANSP> 5
 0.000000e+000 1.000000e+000 0.000000e+000 0.000000e+000 0.000000e+000
 0.000000e+000 7.068387e-001 2.931613e-001 0.000000e+000 0.000000e+000
 0.000000e+000 0.000000e+000 6.601393e-001 3.398606e-001 0.000000e+000
 0.000000e+000 0.000000e+000 0.000000e+000 7.963716e-001 2.036284e-001
 0.000000e+000 0.000000e+000 0.000000e+000 0.000000e+000 0.000000e+000
<ENDHMM>
~h "dg"
<BEGINHMM>
<NUMSTATES> 5
<STATE> 2
<MEAN> 39
 1.930083e-001 -5.536455e+000 8.935656e-001 -5.868027e+000 -1.525209e+000 -2.351073e+000 -1.067198e+001 -7.748889e+000 2.367130e+000 -3.160246e-001 -6.749549e+000 -5.548714e+000 6.450772e+001 -8.125914e-002 2.624572e-001 -3.735324e-001 -4.415305e-001 1.583899e-001 7.427076e-001 1.072387e-001 -1.453908e-001 -1.815611e-001 1.522200e-001 -2.090182e-001 -2.708358e-001 -3.284213e-001 -1.704301e-002 1.298883e-001 1.277530e-001 7.804781e-002 -1.187145e-001 -8.356570e-002 6.410377e-002 -1.697136e-001 -8.030821e-002 -1.393407e-002 7.995912e-002 -1.207363e-002 -5.980013e-002
<VARIANCE> 39
 6.800204e+001 3.489847e+001 3.099412e+001 3.947922e+001 4.562770e+001 3.507407e+001 3.520430e+001 4.223132e+001 5.450925e+001 2.306314e+001 1.297119e+001 2.655262e+001 1.331993e+001 7.650928e-001 2.857375e+000 1.363674e+000 1.089713e+000 2.182499e+000 2.598814e+000 1.345649e+000 2.193870e+000 3.566228e+000 1.324559e+000 1.806540e+000 1.537124e+000 1.290711e+000 6.575059e-002 3.958207e-001 2.177087e-001 2.185077e-001 4.078490e-001 4.197147e-001 1.984354e-001 3.901761e-001 4.452049e-001 2.767598e-001 3.937206e-001 2.887960e-001 1.038606e-001
<GCONST> 1.060838e+002
<STATE> 3
<MEAN> 39
 -6.002258e+000 8.954517e+000 -1.880372e+000 -3.283602e+000 4.339170e+000 -4.211254e+000 -1.035775e+001 -1.246201e+001 -3.745647e+000 4.381209e+000 -4.118939e+000 -7.970297e+000 5.978237e+001 -1.581095e-001 1.066835e+000 2.951052e-001 6.191986e-001 -9.342655e-002 6.626728e-003 3.094982e-001 5.935848e-001 -7.223980e-001 -3.055499e-001 2.441846e-001 2.054136e-001 -1.235845e+000 8.905555e-002 -3.892339e-001 1.535869e-001 1.602397e-001 -7.623898e-002 2.270522e-001 -3.505980e-002 -3.299087e-001 6.273928e-001 -5.236289e-002 1.488675e-001 9.627535e-002 -1.725449e-001
<VARIANCE> 39
