~o
<STREAMINFO> 1 39
<VECSIZE> 39<NULLD><MFCC_D_A_0><DIAGC>
~h "MJ"
<BEGINHMM>
<NUMSTATES> 3
<STATE> 2
<MEAN> 39
 -7.790004e+000 -2.901336e+000 -1.168309e+000 -8.623124e+000 -8.479667e+000 -7.369054e+000 -9.896074e+000 -3.065430e+000 -1.518227e+000 2.611179e+000 -8.970974e-001 -3.385734e+000 6.412222e+001 8.919372e-004 -9.211293e-005 2.813565e-004 3.294282e-004 -2.011636e-004 1.057398e-003 8.106274e-004 -1.299918e-004 -1.981243e-003 -6.911732e-004 -2.070948e-003 5.520660e-004 -2.754468e-004 -6.026668e-005 1.144633e-004 -4.584353e-005 -1.514012e-004 -2.274194e-004 3.577417e-005 9.005823e-005 7.985107e-006 -9.857640e-005 -1.436087e-004 1.123163e-005 2.407593e-004 1.967878e-005
<VARIANCE> 39
 6.436449e+001 3.355851e+001 7.643934e+001 4.651489e+001 5.216496e+001 6.023044e+001 6.918451e+001 4.154026e+001 5.401979e+001 3.134368e+001 3.705790e+001 3.030083e+001 6.831335e+001 3.040049e+000 2.054861e+000 2.731987e+000 2.890767e+000 3.085204e+000 3.136643e+000 4.088545e+000 3.077035e+000 3.373283e+000 2.257843e+000 2.425075e+000 2.177024e+000 2.380616e+000 4.300519e-001 3.545050e-001 4.064044e-001 4.976576e-001 5.351673e-001 5.309290e-001 6.967482e-001 5.727013e-001 5.957667e-001 4.286882e-001 4.468262e-001 3.993675e-001 3.821945e-001
<GCONST> 1.257851e+002
<TRANSP> 3
 0.000000e+000 1.000000e+000 0.000000e+000
 0.000000e+000 9.984397e-001 1.560251e-003
 0.000000e+000 0.000000e+000 0.000000e+000
<ENDHMM>
~h "PB"
<BEGINHMM>
<NUMSTATES> 3
<STATE> 2
<MEAN> 39
 -5.975979e+000 2.616990e+000 2.763663e+000 -2.450951e+000 -6.927554e+000 -1.459938e-001 -5.710514e+000 1.190096e+000 9.432134e-001 6.089173e-001 1.278237e+000 -3.538371e+000 6.193733e+001 -2.377417e-004 9.104077e-005 1.986277e-004 -1.528093e-006 -8.611476e-006 -4.538574e-004 -4.304230e-004 -2.228545e-004 1.263243e-004 2.654592e-006 5.374617e-004 1.001965e-003 1.051529e-004 2.082681e-004 -3.415242e-005 -1.521705e-005 -6.635073e-005 4.152012e-004 2.048934e-004 6.218364e-005 -2.418675e-005 -1.085457e-004 -1.673788e-004 1.639096e-004 5.754753e-004 -7.673763e-005
<VARIANCE> 39
 5.710323e+001 4.607751e+001 6.105488e+001 4.420092e+001 7.211788e+001 4.370979e+001 6.696442e+001 3.674151e+001 3.413719e+001 2.830835e+001 2.567742e+001 3.932117e+001 8.545267e+001 2.809860e+000 2.748950e+000 2.690157e+000 2.969848e+000 3.768644e+000 2.735219e+000 3.574765e+000 2.971932e+000 2.546132e+000 2.245304e+000 2.195213e+000 2.510803e+000 2.467576e+000 4.234979e-001 4.430608e-001 4.223478e-001 5.155103e-001 6.486028e-001 4.884408e-001 6.434220e-001 5.548679e-001 4.813122e-001 4.325822e-001 4.269131e-001 4.564476e-001 3.907419e-001
<GCONST> 1.252062e+002
<TRANSP> 3
 0.000000e+000 1.000000e+000 0.000000e+000
 0.000000e+000 9.985553e-001 1.444716e-003
 0.000000e+000 0.000000e+000 0.000000e+000
<ENDHMM>
~h "TOMAS"
<BEGINHMM>
<NUMSTATES> 3
<STATE> 2
<MEAN> 39
 -5.695893e+000 4.036926e+000 5.335601e+000 -1.176176e+000 -9.495377e-001 -3.130864e+000 -1.432610e+000 -4.845526e-001 5.349393e-001 1.296636e+000 2.242209e+000 2.191005e+000 6.201408e+001 -2.442399e-003 5.478182e-003 -4.560098e-004 -6.315983e-004 1.051720e-003 2.581700e-004 1.212353e-003 -1.281164e-003 -3.014055e-003 7.656236e-003 1.938265e-003 -5.068227e-003 2.827312e-004 -8.313240e-004 6.197268e-004 -6.678684e-004 7.916404e-004 -1.823818e-003 1.121476e-003 -1.373083e-003 2.373341e-004 -5.157958e-004 2.783726e-004 -1.587675e-004 -5.869353e-004 6.751228e-004
<VARIANCE> 39
 5.972927e+001 3.440341e+001 5.401930e+001 5.454398e+001 5.990864e+001 5.273880e+001 5.546521e+001 4.591652e+001 4.734425e+001 3.405444e+001 2.996216e+001 2.151159e+001 6.375304e+001 2.460585e+000 1.865775e+000 2.262886e+000 2.670536e+000 3.451296e+000 3.149308e+000 3.022560e+000 2.624864e+000 2.919529e+000 2.194164e+000 2.076385e+000 1.749108e+000 1.957628e+000 3.434532e-001 3.000298e-001 3.552550e-001 4.330109e-001 5.958776e-001 5.653878e-001 5.496680e-001 4.837202e-001 5.260977e-001 4.153341e-001 3.879239e-001 3.374002e-001 2.935973e-001
<GCONST> 1.214649e+002
<TRANSP> 3
 0.000000e+000 1.000000e+000 0.000000e+000
 0.000000e+000 9.973280e-001 2.671971e-003
 0.000000e+000 0.000000e+000 0.000000e+000
<ENDHMM>
~h "CERNY"
<BEGINHMM>
<NUMSTATES> 3
<STATE> 2
<MEAN> 39
 -1.026226e+001 -1.295330e+000 -1.157736e+000 -4.103764e+000 -4.616467e+000 -3.117985e+000 -5.648755e+000 -3.932247e-001 8.319212e-001 1.206294e+000 -5.857031e-002 -1.332534e+000 6.410395e+001 -3.188393e-004 8.974851e-004 1.988057e-005 4.181922e-004 2.286719e-004 -8.474853e-005 -6.725619e-004 4.049221e-004 -1.732752e-003 8.039747e-004 -1.243561e-003 6.504367e-004 -3.614089e-004 3.154399e-005 -1.948062e-004 2.079359e-004 -1.784780e-004 -1.608699e-004 -5.581656e-005 -9.710583e-005 -1.648773e-004 4.259129e-005 -3.519650e-004 2.271088e-004 -7.397142e-005 -4.111652e-005
<VARIANCE> 39
 1.964337e+001 2.057634e+001 2.901670e+001 4.214092e+001 3.596418e+001 3.030135e+001 5.151131e+001 2.778533e+001 2.521034e+001 2.438548e+001 1.620241e+001 2.349310e+001 2.006376e+001 9.801972e-001 1.259134e+000 1.328227e+000 2.041694e+000 2.148371e+000 1.903569e+000 2.885375e+000 2.235330e+000 2.036069e+000 1.919514e+000 1.464099e+000 1.528080e+000 6.867276e-001 1.444255e-001 2.040744e-001 2.106747e-001 3.372798e-001 3.824760e-001 3.541930e-001 5.297451e-001 4.289840e-001 3.875167e-001 3.675320e-001 2.903743e-001 2.849605e-001 1.154569e-001
<GCONST> 1.044341e+002
<TRANSP> 3
 0.000000e+000 1.000000e+000 0.000000e+000
 0.000000e+000 9.986002e-001 1.399776e-003
 0.000000e+000 0.000000e+000 0.000000e+000
<ENDHMM>
~h "ZSS2"
<BEGINHMM>
<NUMSTATES> 3
<STATE> 2
<MEAN> 39
 -6.220915e+000 2.530963e+000 1.624120e+000 -2.751673e+000 -1.047596e+000 -1.259026e+000 -2.285854e-001 -2.198268e-001 -1.015538e+000 2.351855e+000 -2.751385e+000 1.456893e+000 6.408607e+001 2.308850e-003 -5.843737e-004 1.234493e-004 2.585776e-003 1.605303e-003 2.371746e-003 -3.852278e-004 -2.357349e-003 1.665806e-003 -5.190780e-004 8.657553e-004 4.405249e-004 -3.403915e-003 1.599050e-004 1.607741e-004 -1.788888e-005 -4.720114e-004 -2.285029e-004 7.561083e-005 2.334738e-005 -4.741051e-004 -4.260759e-004 1.564982e-004 2.592833e-004 -1.336953e-004 1.978016e-005
<VARIANCE> 39
 6.581062e+001 3.901248e+001 4.545333e+001 6.644149e+001 8.518871e+001 5.157750e+001 6.616864e+001 4.297012e+001 6.423442e+001 3.355216e+001 7.719513e+001 2.547844e+001 7.343707e+001 3.831679e+000 2.684595e+000 2.546350e+000 4.070712e+000 4.802497e+000 3.627836e+000 3.664580e+000 2.913358e+000 3.786750e+000 2.950565e+000 4.223230e+000 2.080726e+000 3.525681e+000 5.982054e-001 4.728824e-001 4.297156e-001 6.801510e-001 8.288572e-001 6.705866e-001 6.244659e-001 5.366678e-001 6.546839e-001 5.696468e-001 7.164738e-001 4.021236e-001 6.027525e-001
<GCONST> 1.322694e+002
<TRANSP> 3
 0.000000e+000 1.000000e+000 0.000000e+000
 0.000000e+000 9.982025e-001 1.797483e-003
 0.000000e+000 0.000000e+000 0.000000e+000
<ENDHMM>
~h "SMOLA"
<BEGINHMM>
<NUMSTATES> 3
<STATE> 2
<MEAN> 39
 -6.724901e+000 2.136901e-001 1.289621e+000 -1.629051e+000 -2.936754e+000 -2.350430e+000 -5.908906e+000 2.907261e+000 -4.502212e+000 -2.121138e-001 3.837546e+000 -3.324195e+000 5.917997e+001 1.196035e-005 1.126164e-003 1.110020e-002 -1.116892e-002 8.395622e-003 4.658394e-003 8.273675e-003 -1.672428e-002 -2.278400e-002 -6.947537e-003 -5.044033e-003 -6.350013e-003 1.262601e-002 -8.583847e-004 -5.029656e-004 3.688093e-004 -1.015073e-003 1.794579e-003 8.684524e-004 -3.907233e-004 -2.282353e-004 1.650819e-004 7.536192e-004 -1.395760e-003 -9.404357e-004 4.176266e-004
<VARIANCE> 39
 6.367915e+001 6.508028e+001 4.790776e+001 7.041773e+001 5.697686e+001 6.495558e+001 7.789154e+001 4.359467e+001 7.402244e+001 3.446944e+001 2.706346e+001 3.802548e+001 1.440286e+002 3.304403e+000 3.614020e+000 2.639167e+000 3.861320e+000 3.170036e+000 3.579911e+000 4.462854e+000 3.194400e+000 4.898031e+000 2.436192e+000 2.231987e+000 2.293620e+000 5.209866e+000 4.867278e-001 5.811227e-001 4.386282e-001 6.569468e-001 5.677229e-001 6.545179e-001 8.089737e-001 6.037464e-001 8.854347e-001 4.579048e-001 4.301622e-001 4.113039e-001 8.370810e-001
<GCONST> 1.328523e+002
<TRANSP> 3
 0.000000e+000 1.000000e+000 0.000000e+000
 0.000000e+000 9.966092e-001 3.390863e-003
 0.000000e+000 0.000000e+000 0.000000e+000
<ENDHMM>
~h "NOZICKA"
<BEGINHMM>
<NUMSTATES> 3
<STATE> 2
<MEAN> 39
 -1.574684e+001 -9.917454e+000 7.749843e+000 -1.011549e+001 -2.900553e+000 1.773690e+000 -4.332557e+000 -9.399861e-001 -5.713410e-001 -3.235367e+000 3.372028e+000 -2.913975e+000 5.444348e+001 -5.419591e-004 -3.347941e-003 1.225549e-003 -4.784279e-003 4.779297e-003 1.241060e-003 -3.761418e-003 -3.343865e-004 -2.492640e-003 4.755567e-003 1.330804e-003 -1.476706e-003 3.001253e-003 -9.094430e-004 6.892395e-004 2.765359e-003 -2.279619e-004 4.910373e-004 -6.823235e-004 -1.251099e-003 6.974116e-004 -1.923189e-003 -4.651709e-004 8.109457e-004 -2.000194e-004 -2.418853e-004
<VARIANCE> 39
 1.184284e+002 1.511517e+002 2.040750e+002 1.613634e+002 1.247292e+002 1.214874e+002 9.070499e+001 7.203501e+001 8.358586e+001 5.726390e+001 4.904935e+001 3.610271e+001 4.229063e+002 3.348414e+000 4.690112e+000 3.906075e+000 5.354399e+000 6.438364e+000 5.665586e+000 5.407866e+000 3.886259e+000 5.021428e+000 3.374227e+000 3.235486e+000 2.279767e+000 4.500613e+000 4.609545e-001 6.899907e-001 6.085678e-001 8.760307e-001 1.077167e+000 8.996140e-001 9.223725e-001 6.755276e-001 8.396396e-001 6.122135e-001 5.846325e-001 4.246607e-001 6.217318e-001
<GCONST> 1.462383e+002
<TRANSP> 3
 0.000000e+000 1.000000e+000 0.000000e+000
 0.000000e+000 9.977571e-001 2.242944e-003
 0.000000e+000 0.000000e+000 0.000000e+000
<ENDHMM>
~h "DAVID"
<BEGINHMM>
<NUMSTATES> 3
<STATE> 2
<MEAN> 39
 -1.070620e+001 1.687019e+000 8.444861e-001 -3.978489e+000 -1.227900e+000 -2.834468e+000 -1.784175e+000 -5.591731e-001 -3.734275e+000 7.064865e-001 -1.089791e+000 -2.139907e+000 6.969395e+001 1.809920e-004 -6.530096e-004 9.338611e-005 4.226224e-004 6.103618e-004 1.385912e-003 8.399264e-004 -1.195453e-003 -1.416568e-003 -1.955494e-003 -1.208825e-003 1.230666e-003 1.511282e-004 1.821243e-005 -1.236630e-004 -3.201421e-005 -3.305333e-004 -6.258645e-004 -1.245367e-003 -7.361305e-004 1.655868e-004 -2.840447e-005 2.027506e-004 3.962469e-004 5.473401e-004 -1.349338e-004
<VARIANCE> 39
 5.920763e+001 2.678028e+001 5.316614e+001 4.878772e+001 3.575502e+001 3.100767e+001 4.473470e+001 3.905530e+001 5.662163e+001 2.369273e+001 2.779286e+001 2.479947e+001 7.109750e+001 2.759487e+000 1.616909e+000 2.156036e+000 3.133454e+000 2.295314e+000 2.244136e+000 3.040136e+000 3.047089e+000 3.561355e+000 2.129438e+000 2.066221e+000 1.711990e+000 2.093917e+000 3.802971e-001 2.680038e-001 3.191145e-001 5.326409e-001 3.965752e-001 4.135334e-001 5.315763e-001 5.678679e-001 6.208678e-001 4.127015e-001 3.889384e-001 3.141103e-001 3.414095e-001
<GCONST> 1.190843e+002
<TRANSP> 3
 0.000000e+000 1.000000e+000 0.000000e+000
 0.000000e+000 9.972219e-001 2.778121e-003
 0.000000e+000 0.000000e+000 0.000000e+000
<ENDHMM>
~h "JAN"
<BEGINHMM>
<NUMSTATES> 3
<STATE> 2
<MEAN> 39
 -8.357705e+000 -6.585149e+000 2.887311e+000 -3.689408e+000 -1.255880e+001 2.289832e+000 -8.056462e-001 -2.581839e+000 -1.021001e+000 2.850347e+000 -7.443741e+000 -6.409100e+000 5.004476e+001 -2.803978e-004 -1.279642e-003 6.915893e-004 6.453138e-004 1.518683e-003 -1.151951e-003 1.626703e-004 3.495439e-005 3.435049e-004 -8.407184e-005 -5.795714e-005 1.274490e-003 5.027374e-004 1.248538e-004 -1.034755e-004 1.696271e-004 -1.568965e-004 1.226314e-004 2.736175e-004 -3.022191e-004 2.447874e-005 -5.143877e-004 -2.908639e-004 -2.734853e-004 4.639291e-004 5.454886e-005
<VARIANCE> 39
 2.424328e+001 2.988249e+001 7.578339e+001 3.455888e+001 4.705892e+001 3.833579e+001 8.542354e+001 5.749625e+001 3.131397e+001 2.930799e+001 2.024351e+001 2.018155e+001 3.323767e+001 8.012654e-001 1.330741e+000 1.994440e+000 1.815583e+000 2.112358e+000 1.828425e+000 3.102480e+000 2.367503e+000 1.893537e+000 1.806324e+000 1.515502e+000 1.324977e+000 8.070685e-001 1.123681e-001 2.037114e-001 2.839620e-001 3.012306e-001 3.476816e-001 3.127364e-001 5.005157e-001 4.049698e-001 3.345913e-001 3.268845e-001 2.895525e-001 2.395329e-001 1.063897e-001
<GCONST> 1.077044e+002
<TRANSP> 3
 0.000000e+000 1.000000e+000 0.000000e+000
 0.000000e+000 9.972063e-001 2.793643e-003
 0.000000e+000 0.000000e+000 0.000000e+000
<ENDHMM>
~h "MAR"
<BEGINHMM>
<NUMSTATES> 3
<STATE> 2
<MEAN> 39
 -5.545363e+000 1.856495e+000 4.025024e+000 6.021413e-001 -8.096222e-001 -7.889904e-001 -2.031843e-001 -1.869367e+000 2.383722e+000 -2.049588e+000 4.810211e+000 -2.364152e+000 6.915984e+001 1.243876e-004 -1.816898e-004 1.240771e-003 4.675236e-004 1.632706e-004 -1.301346e-003 -9.173833e-004 -9.593850e-004 -8.675959e-004 -3.127526e-004 -1.142012e-003 2.212143e-004 6.111305e-005 3.065210e-005 1.953889e-004 -1.490227e-004 7.568653e-005 -4.466124e-005 -2.556291e-004 -5.293707e-004 -2.178859e-004 -1.834774e-004 2.347681e-004 -3.766387e-004 -2.957323e-004 1.515897e-004
<VARIANCE> 39
 8.035558e+001 4.693385e+001 6.142500e+001 5.812158e+001 7.341079e+001 5.466528e+001 5.797183e+001 4.839915e+001 4.030585e+001 5.042115e+001 3.037342e+001 4.481086e+001 1.105338e+002 4.204371e+000 3.007267e+000 2.896087e+000 4.206541e+000 4.429934e+000 4.027246e+000 3.595668e+000 3.461152e+000 2.928330e+000 3.207048e+000 2.857583e+000 3.022347e+000 5.021850e+000 6.057022e-001 5.095661e-001 4.606141e-001 7.377292e-001 7.678653e-001 7.467002e-001 6.434819e-001 6.360555e-001 5.464725e-001 5.771874e-001 5.727002e-001 5.408009e-001 8.446299e-001
<GCONST> 1.341180e+002
<TRANSP> 3
 0.000000e+000 1.000000e+000 0.000000e+000
 0.000000e+000 9.984528e-001 1.547198e-003
 0.000000e+000 0.000000e+000 0.000000e+000
<ENDHMM>
~h "MJB"
<BEGINHMM>
<NUMSTATES> 3
<STATE> 2
<MEAN> 39
 -5.408554e+000 -1.698380e-001 2.317129e+000 8.162916e-001 -3.198078e+000 1.507299e+000 -6.131702e+000 5.087020e-001 -2.582863e+000 -1.287729e+000 -1.895617e+000 -8.626231e-001 6.529601e+001 -2.716906e-003 1.256390e-003 -3.036087e-003 -4.171710e-004 8.571984e-004 1.474893e-003 4.630580e-003 2.725462e-003 2.134867e-003 3.658205e-003 4.006505e-005 1.442472e-003 -7.674859e-004 4.885931e-004 1.447207e-004 -2.446114e-004 -2.286650e-004 -3.521892e-004 -1.640817e-004 -4.158544e-004 -2.095874e-004 7.183010e-004 1.509547e-004 -1.764900e-004 -5.494107e-005 5.975305e-007
<VARIANCE> 39
 8.462671e+001 4.508918e+001 5.293248e+001 4.216824e+001 7.899239e+001 5.593909e+001 6.119567e+001 4.747709e+001 4.836018e+001 3.001512e+001 3.279963e+001 2.629736e+001 8.192673e+001 3.602427e+000 2.483772e+000 2.063777e+000 2.577307e+000 4.315892e+000 3.421009e+000 3.062987e+000 2.900570e+000 2.898453e+000 2.068777e+000 2.179289e+000 1.606037e+000 2.317435e+000 5.394708e-001 4.143763e-001 3.450048e-001 4.570683e-001 7.335439e-001 6.106313e-001 5.571324e-001 5.383248e-001 5.379314e-001 3.979369e-001 4.068187e-001 3.102241e-001 3.827596e-001
<GCONST> 1.251480e+002
<TRANSP> 3
 0.000000e+000 1.000000e+000 0.000000e+000
 0.000000e+000 9.982219e-001 1.778108e-003
 0.000000e+000 0.000000e+000 0.000000e+000
<ENDHMM>
~h "MJL"
<BEGINHMM>
<NUMSTATES> 3
<STATE> 2
<MEAN> 39
 -4.608071e+000 -1.752771e-001 1.562242e+000 2.355705e+000 -3.343199e+000 -5.605977e-001 1.787044e+000 1.343198e+000 2.463195e+000 4.817085e+000 5.420951e+000 1.618315e+000 5.218035e+001 -2.472861e-003 3.805786e-003 1.309578e-003 3.784260e-003 3.982744e-003 4.122568e-003 4.269761e-003 2.885792e-003 3.360751e-003 2.036512e-003 3.190127e-003 2.800987e-003 -6.994445e-003 1.286954e-003 -1.208081e-003 -3.281046e-004 -1.428525e-003 -1.573676e-003 -1.817961e-003 -2.550052e-003 -1.551029e-003 -5.322236e-004 -9.577296e-004 -1.318040e-003 -1.171148e-003 2.436051e-003
<VARIANCE> 39
 8.707443e+001 4.749577e+001 4.848845e+001 3.946740e+001 9.724834e+001 6.519135e+001 4.750533e+001 6.296769e+001 4.352271e+001 2.763998e+001 2.304933e+001 3.628309e+001 1.364076e+002 3.825319e+000 2.952760e+000 1.997880e+000 2.263271e+000 4.233299e+000 2.555880e+000 2.431863e+000 3.477095e+000 2.467017e+000 2.001444e+000 1.790130e+000 1.848807e+000 2.044175e+000 5.683074e-001 5.207265e-001 3.183232e-001 4.073255e-001 7.556100e-001 4.546284e-001 4.544918e-001 6.391700e-001 4.539175e-001 3.864563e-001 3.494678e-001 3.410027e-001 3.479109e-001
<GCONST> 1.245262e+002
<TRANSP> 3
 0.000000e+000 1.000000e+000 0.000000e+000
 0.000000e+000 9.983717e-001 1.628322e-003
 0.000000e+000 0.000000e+000 0.000000e+000
<ENDHMM>
~h "MKK"
<BEGINHMM>
<NUMSTATES> 3
<STATE> 2
<MEAN> 39
 -5.630125e+000 -1.315850e+000 5.041912e+000 -7.394996e+000 -2.160401e-001 -3.264477e+000 -5.183122e-002 2.251258e+000 2.182934e+000 9.240126e-001 -1.485129e+000 -1.041575e+000 6.128321e+001 -1.467508e-004 1.482303e-003 1.271205e-003 2.227890e-003 2.106711e-003 2.114813e-003 2.529158e-003 6.610147e-004 1.578641e-003 -2.540062e-004 1.028058e-003 6.808366e-004 -1.766570e-003 -1.682734e-004 -5.320372e-005 1.517637e-004 -7.290205e-005 -1.781624e-004 -5.108433e-005 1.138484e-004 4.768326e-005 -3.968801e-005 -5.483899e-005 3.634440e-006 -7.783045e-005 2.684180e-005
<VARIANCE> 39
 6.997975e+001 3.287285e+001 5.352594e+001 8.135313e+001 3.544352e+001 4.106849e+001 4.517659e+001 3.268718e+001 4.899760e+001 3.052248e+001 3.397441e+001 1.838679e+001 8.840391e+001 3.149333e+000 2.260205e+000 2.301281e+000 4.679662e+000 2.414337e+000 2.563297e+000 3.177494e+000 2.658992e+000 3.518436e+000 2.327030e+000 2.448397e+000 1.625789e+000 3.357013e+000 4.454147e-001 4.034694e-001 3.725117e-001 7.983064e-001 4.548822e-001 4.677209e-001 5.830469e-001 5.113068e-001 6.466420e-001 4.511186e-001 4.489030e-001 3.201032e-001 5.406358e-001
<GCONST> 1.241242e+002
<TRANSP> 3
 0.000000e+000 1.000000e+000 0.000000e+000
 0.000000e+000 9.988053e-001 1.194696e-003
 0.000000e+000 0.000000e+000 0.000000e+000
<ENDHMM>
~h "MMS"
<BEGINHMM>
<NUMSTATES> 3
<STATE> 2
<MEAN> 39
 -5.627665e+000 1.529461e+000 5.527102e+000 -2.869141e-001 -1.556550e+000 1.142911e+000 -1.134114e+000 -1.144630e+000 3.278544e+000 -4.083655e-001 3.887343e+000 -7.963765e-001 6.657004e+001 7.900789e-004 5.855687e-004 1.986955e-004 4.654935e-004 1.432723e-003 -1.339200e-003 -2.285539e-004 1.322100e-003 -2.314947e-005 -4.492217e-004 1.265381e-003 -6.425108e-004 -1.306695e-003 1.208227e-004 -2.236446e-004 -9.509153e-005 -5.538269e-005 -5.106116e-004 -2.569635e-004 -1.675871e-004 7.499382e-005 1.264912e-004 2.363188e-004 -1.105871e-004 -7.545048e-005 1.384002e-004
<VARIANCE> 39
 8.543905e+001 3.993757e+001 5.784718e+001 5.016871e+001 8.203888e+001 5.268549e+001 6.691412e+001 5.902481e+001 4.623744e+001 4.022673e+001 2.820019e+001 3.963017e+001 8.408480e+001 4.896943e+000 3.047144e+000 2.992784e+000 3.555911e+000 4.967315e+000 3.318941e+000 3.918477e+000 3.661140e+000 3.418701e+000 3.288204e+000 2.639491e+000 2.700437e+000 3.742148e+000 6.859211e-001 5.512109e-001 4.713345e-001 6.350143e-001 8.224507e-001 5.906312e-001 6.872366e-001 6.431839e-001 6.208223e-001 6.013078e-001 5.203092e-001 4.931723e-001 6.614308e-001
<GCONST> 1.331781e+002
<TRANSP> 3
 0.000000e+000 1.000000e+000 0.000000e+000
 0.000000e+000 9.980944e-001 1.905537e-003
 0.000000e+000 0.000000e+000 0.000000e+000
<ENDHMM>
~h "MOS"
<BEGINHMM>
<NUMSTATES> 3
<STATE> 2
<MEAN> 39
 -6.405623e+000 -2.494231e+000 2.936541e+000 -6.043226e+000 -3.975466e+000 -6.228812e+000 -2.915614e+000 1.948171e-002 1.889250e+000 2.813360e-001 1.311386e+000 -3.252964e+000 5.854594e+001 1.359901e-004 3.018180e-004 -5.444565e-004 -1.630229e-003 -7.528621e-004 -1.391308e-003 1.352199e-003 -1.653119e-004 -3.663285e-004 -1.330000e-003 -1.481969e-003 -9.917950e-004 1.039170e-003 -1.483571e-004 2.134184e-004 2.774843e-004 -6.059989e-005 -2.476901e-005 -7.993875e-005 -2.133275e-004 -3.625428e-004 -3.075554e-004 1.257964e-004 -1.081473e-004 1.382345e-004 -1.552587e-004
<VARIANCE> 39
 7.434605e+001 3.962608e+001 5.044588e+001 4.846356e+001 5.344946e+001 4.713578e+001 5.157563e+001 4.036971e+001 4.499067e+001 3.385529e+001 3.415774e+001 3.748655e+001 8.211250e+001 3.282047e+000 2.677045e+000 2.281914e+000 3.149210e+000 3.354881e+000 3.001860e+000 2.996288e+000 3.146216e+000 3.197164e+000 2.900298e+000 2.545126e+000 2.503526e+000 2.699060e+000 4.465148e-001 4.646805e-001 3.640516e-001 5.451574e-001 5.902603e-001 5.508310e-001 5.353452e-001 5.807194e-001 5.632956e-001 5.625225e-001 4.760476e-001 4.461868e-001 4.320602e-001
<GCONST> 1.265827e+002
<TRANSP> 3
 0.000000e+000 1.000000e+000 0.000000e+000
 0.000000e+000 9.984229e-001 1.577121e-003
 0.000000e+000 0.000000e+000 0.000000e+000
<ENDHMM>
~h "MPM"
<BEGINHMM>
<NUMSTATES> 3
<STATE> 2
<MEAN> 39
 -7.942111e+000 3.616573e+000 2.621429e+000 1.847155e+000 -3.127012e+000 -7.169706e-001 -3.335173e+000 -1.109707e-001 -1.004348e+000 2.050951e+000 1.039195e+000 -1.409395e+000 6.431326e+001 1.162461e-003 3.073790e-003 -2.511842e-003 -1.063284e-003 2.851516e-003 3.032166e-003 8.427482e-004 -1.493286e-003 7.082458e-004 2.256948e-003 1.398591e-003 1.947116e-004 -3.025631e-003 -6.409753e-005 -1.653004e-004 -1.644481e-004 -9.000767e-005 -1.150162e-004 1.018507e-004 -5.630216e-004 -3.381111e-004 -1.535825e-004 5.183775e-005 9.301953e-005 3.152354e-004 1.145432e-004
<VARIANCE> 39
 6.833973e+001 4.243056e+001 6.515428e+001 4.185175e+001 6.711044e+001 5.959251e+001 7.133754e+001 5.448091e+001 5.070095e+001 4.227705e+001 3.173857e+001 3.946568e+001 8.744417e+001 3.104883e+000 2.263358e+000 2.985594e+000 2.798801e+000 3.950277e+000 3.204936e+000 3.416327e+000 3.869413e+000 3.249044e+000 2.816868e+000 2.560321e+000 2.405411e+000 2.308628e+000 4.384992e-001 3.961449e-001 4.832785e-001 5.169407e-001 7.292261e-001 5.847165e-001 6.491674e-001 7.250862e-001 6.170971e-001 5.385330e-001 5.069691e-001 4.491608e-001 3.909546e-001
<GCONST> 1.291914e+002
<TRANSP> 3
 0.000000e+000 1.000000e+000 0.000000e+000
 0.000000e+000 9.985098e-001 1.490239e-003
 0.000000e+000 0.000000e+000 0.000000e+000
<ENDHMM>
~h "MPS"
<BEGINHMM>
<NUMSTATES> 3
<STATE> 2
<MEAN> 39
 -5.292253e+000 -1.216768e+000 4.957416e+000 -1.706126e+000 -2.298425e+000 3.326620e-001 -1.766451e+000 -1.020091e+000 1.319211e+000 9.104894e-001 2.809263e+000 -5.603222e-001 6.666750e+001 4.781709e-004 1.974520e-004 8.346597e-004 -3.160356e-004 -2.481214e-004 -5.313527e-004 3.286073e-004 -2.607326e-004 -7.379124e-004 -9.473369e-006 7.113045e-004 8.644225e-005 -6.568538e-004 1.131117e-005 1.870322e-005 1.214758e-004 2.207573e-004 -2.956993e-005 -5.660968e-005 1.983773e-004 1.410553e-004 -1.004313e-005 -5.367665e-005 -8.279446e-005 -8.951321e-005 -4.939247e-005
<VARIANCE> 39
 9.873726e+001 4.935650e+001 7.242881e+001 5.385135e+001 6.460514e+001 4.389604e+001 6.082282e+001 4.475807e+001 5.517985e+001 2.848816e+001 2.800305e+001 2.636375e+001 1.019316e+002 4.882378e+000 3.168337e+000 3.136123e+000 3.419375e+000 3.501385e+000 2.712792e+000 3.199291e+000 2.998032e+000 3.278614e+000 2.072223e+000 1.924181e+000 1.657550e+000 3.409088e+000 6.864848e-001 5.463360e-001 4.888127e-001 5.886806e-001 6.083028e-001 4.819187e-001 5.715471e-001 5.550898e-001 5.887832e-001 3.923945e-001 3.605977e-001 3.121246e-001 5.622411e-001
<GCONST> 1.279845e+002
<TRANSP> 3
 0.000000e+000 1.000000e+000 0.000000e+000
 0.000000e+000 9.984200e-001 1.580028e-003
 0.000000e+000 0.000000e+000 0.000000e+000
<ENDHMM>
~h "MVL"
<BEGINHMM>
<NUMSTATES> 3
<STATE> 2
<MEAN> 39
 -6.412434e+000 -4.217036e-001 1.901807e+000 -4.418848e-001 -6.589592e+000 1.693635e+000 -3.749789e+000 -1.821342e+000 9.498909e-001 2.213846e+000 -2.671682e+000 -1.791829e+000 6.931895e+001 -9.810632e-004 7.547572e-004 3.213275e-004 8.478766e-004 7.063298e-004 -1.817248e-004 -7.324599e-004 -2.071212e-003 -7.992809e-004 1.951507e-003 -3.125392e-003 -2.117028e-003 1.194703e-003 7.788828e-004 -4.868382e-004 -2.821076e-004 -8.306582e-005 1.108692e-004 -1.680671e-004 -5.706789e-004 1.671445e-004 -8.993497e-006 3.051311e-004 1.513945e-004 -4.328897e-005 -2.147787e-004
<VARIANCE> 39
 7.479299e+001 4.796236e+001 7.032717e+001 4.308033e+001 1.009259e+002 5.513264e+001 7.599485e+001 6.145813e+001 4.515058e+001 3.046552e+001 3.066141e+001 3.530148e+001 1.183114e+002 4.185260e+000 3.506558e+000 3.406462e+000 2.839803e+000 6.305437e+000 3.992907e+000 4.574714e+000 3.792242e+000 3.590163e+000 2.574848e+000 2.423246e+000 2.328492e+000 3.797370e+000 6.434639e-001 6.031998e-001 5.451751e-001 5.053589e-001 1.127461e+000 7.483540e-001 8.683075e-001 7.203970e-001 6.907104e-001 5.087888e-001 4.718023e-001 4.423844e-001 6.557215e-001
<GCONST> 1.343531e+002
<TRANSP> 3
 0.000000e+000 1.000000e+000 0.000000e+000
 0.000000e+000 9.980443e-001 1.955714e-003
 0.000000e+000 0.000000e+000 0.000000e+000
<ENDHMM>
~h "ZLG"
<BEGINHMM>
<NUMSTATES> 3
<STATE> 2
<MEAN> 39
 -6.442205e+000 2.510439e+000 -2.043721e+000 -2.308139e+000 -5.729788e+000 -4.208323e+000 -6.947838e+000 -6.328883e+000 -4.594914e+000 -3.002577e+000 -5.418940e+000 -3.560931e+000 6.518231e+001 -9.347177e-004 2.987228e-003 -2.088737e-003 9.742613e-005 3.166215e-003 3.953343e-004 3.665008e-003 8.155452e-004 2.053174e-003 1.151229e-003 2.162382e-003 -2.085859e-003 -1.922682e-003 4.592189e-004 -1.421268e-004 9.538242e-005 -2.306690e-005 -2.389342e-004 9.811801e-005 -2.399894e-004 -1.176952e-004 -8.693232e-004 -5.361237e-004 -5.166854e-004 -4.560634e-004 8.548621e-005
<VARIANCE> 39
 5.714713e+001 3.798036e+001 5.377790e+001 4.107045e+001 6.826884e+001 4.829166e+001 6.540520e+001 5.767598e+001 4.996473e+001 3.727595e+001 4.176621e+001 3.742275e+001 6.108151e+001 2.918609e+000 2.194766e+000 2.491377e+000 2.493232e+000 3.814310e+000 2.862813e+000 3.169502e+000 3.024443e+000 2.668943e+000 2.551244e+000 2.372993e+000 2.155626e+000 2.209346e+000 4.552670e-001 3.835148e-001 4.184720e-001 4.423769e-001 6.708126e-001 5.315168e-001 5.721548e-001 5.539094e-001 4.847966e-001 4.900595e-001 4.432274e-001 4.075440e-001 3.799467e-001
<GCONST> 1.253415e+002
<TRANSP> 3
 0.000000e+000 1.000000e+000 0.000000e+000
 0.000000e+000 9.981921e-001 1.807852e-003
 0.000000e+000 0.000000e+000 0.000000e+000
<ENDHMM>
~h "ZLR"
<BEGINHMM>
<NUMSTATES> 3
<STATE> 2
<MEAN> 39
 -6.015483e+000 2.135094e+000 1.677080e+000 -4.187175e+000 7.993509e-001 -4.438995e+000 3.183327e-001 -5.100119e+000 -1.310479e+000 -1.893527e+000 -1.649028e+000 -5.253621e-001 6.668388e+001 1.756130e-003 -5.615246e-004 1.697423e-003 -2.719504e-004 1.210401e-003 -1.153222e-003 1.573552e-004 -5.816175e-004 -1.425790e-003 9.844642e-004 -1.424631e-003 5.987471e-004 -1.323816e-003 1.837649e-005 -6.250843e-005 -1.939948e-004 -7.745823e-005 -2.788997e-004 -1.020976e-004 -5.487050e-004 -3.055200e-004 -6.266202e-005 -2.650512e-004 2.178371e-005 2.371672e-004 2.490482e-004
<VARIANCE> 39
 5.235615e+001 4.534389e+001 5.039969e+001 1.015019e+002 6.170761e+001 7.429371e+001 5.265125e+001 7.964833e+001 5.407997e+001 4.478204e+001 5.856691e+001 3.179209e+001 9.353113e+001 3.363569e+000 3.238903e+000 2.693464e+000 6.921354e+000 3.698567e+000 4.819129e+000 3.399025e+000 5.346229e+000 3.201657e+000 3.106951e+000 3.210404e+000 2.200500e+000 4.406292e+000 5.417924e-001 5.664086e-001 4.630258e-001 1.187408e+000 6.642097e-001 8.644834e-001 6.321124e-001 9.837738e-001 5.732704e-001 5.795454e-001 5.450791e-001 4.192707e-001 7.777837e-001
<GCONST> 1.358122e+002
<TRANSP> 3
 0.000000e+000 1.000000e+000 0.000000e+000
 0.000000e+000 9.983712e-001 1.628753e-003
 0.000000e+000 0.000000e+000 0.000000e+000
<ENDHMM>
~h "ZNM"
<BEGINHMM>
<NUMSTATES> 3
<STATE> 2
<MEAN> 39
 -8.788941e+000 -2.488011e+000 2.464020e+000 -7.579432e+000 -2.585758e+000 -1.125416e+001 3.967214e+000 -3.875336e+000 -1.027074e+000 3.101164e-001 -8.796297e-001 -2.513933e+000 6.239755e+001 5.164645e-006 2.034896e-003 -5.836175e-004 7.392876e-004 3.459634e-003 3.398294e-003 -2.995937e-003 -2.626566e-003 -1.411728e-004 -5.780904e-004 -2.239937e-003 1.280356e-004 -3.202113e-003 -6.922673e-005 1.554871e-004 1.120857e-004 -1.143974e-004 -3.054642e-004 -2.490579e-005 -8.432168e-005 -3.291601e-005 2.120505e-005 9.354439e-005 1.277626e-004 8.127212e-005 9.064899e-005
<VARIANCE> 39
 7.000198e+001 3.858470e+001 7.222364e+001 8.053702e+001 5.114370e+001 1.014131e+002 4.295353e+001 6.261085e+001 7.035356e+001 3.102134e+001 4.933958e+001 3.807272e+001 1.028100e+002 3.064978e+000 2.219339e+000 2.790893e+000 4.061544e+000 2.610589e+000 5.342851e+000 2.576523e+000 3.649081e+000 3.797801e+000 2.503340e+000 2.600109e+000 2.248134e+000 4.241251e+000 4.161457e-001 3.825346e-001 4.352235e-001 6.271952e-001 4.506527e-001 8.341463e-001 4.707852e-001 6.217563e-001 6.370406e-001 4.770423e-001 4.469476e-001 3.903078e-001 6.718206e-001
<GCONST> 1.305633e+002
<TRANSP> 3
 0.000000e+000 1.000000e+000 0.000000e+000
 0.000000e+000 9.989600e-001 1.040048e-003
 0.000000e+000 0.000000e+000 0.000000e+000
<ENDHMM>
~h "ZSS"
<BEGINHMM>
<NUMSTATES> 3
<STATE> 2
<MEAN> 39
 -6.325511e+000 2.349864e+000 2.108043e+000 -2.701821e+000 -1.146649e+000 9.177989e-001 -4.208617e-001 1.139819e+000 -1.803689e+000 2.148895e+000 -9.769788e-001 2.029216e+000 5.495061e+001 -1.164960e-003 2.384966e-003 1.304539e-003 3.307818e-003 4.049122e-003 1.147013e-004 1.172605e-003 1.541292e-003 7.980390e-005 -9.013948e-004 -4.751937e-005 1.912719e-003 -3.441625e-003 1.047148e-003 -6.932379e-004 -5.401692e-004 -8.060022e-004 -3.456839e-006 -4.261263e-004 -6.344348e-004 -6.215274e-004 5.401535e-006 -1.412720e-004 -6.234475e-004 -7.092320e-005 4.111000e-004
<VARIANCE> 39
 6.931292e+001 4.298489e+001 5.277588e+001 7.021616e+001 8.094149e+001 4.763520e+001 7.986063e+001 4.866705e+001 7.467899e+001 3.642521e+001 7.601708e+001 2.674259e+001 8.115015e+001 4.000206e+000 3.254232e+000 2.756271e+000 4.540105e+000 4.987832e+000 3.560166e+000 4.459154e+000 3.489199e+000 4.571786e+000 3.151187e+000 4.355759e+000 1.950986e+000 4.041017e+000 6.060348e-001 5.912899e-001 4.593635e-001 7.694252e-001 8.644347e-001 6.553202e-001 7.591962e-001 6.430272e-001 7.748089e-001 6.136277e-001 7.444740e-001 3.742890e-001 6.987149e-001
<GCONST> 1.355260e+002
<TRANSP> 3
 0.000000e+000 1.000000e+000 0.000000e+000
 0.000000e+000 9.981949e-001 1.805054e-003
 0.000000e+000 0.000000e+000 0.000000e+000
<ENDHMM>
~h "ZTK"
<BEGINHMM>
<NUMSTATES> 3
<STATE> 2
<MEAN> 39
 -6.776761e+000 -4.691528e+000 3.730224e+000 -1.065106e+001 -3.853852e+000 -6.905854e+000 -2.906985e+000 9.602104e-001 -2.343508e+000 -9.931538e-001 -3.810788e+000 -1.579520e+000 6.507233e+001 2.350653e-003 4.952757e-003 9.074416e-004 3.348202e-003 3.103040e-003 5.354588e-003 1.888407e-003 -1.019004e-003 1.878969e-003 -2.904727e-004 2.647902e-004 -1.092991e-003 -5.863094e-003 6.161843e-005 3.653006e-004 8.391495e-005 3.256640e-004 1.239852e-004 6.347159e-004 2.824308e-004 3.873100e-004 8.054726e-006 -3.081781e-004 -1.966920e-004 7.238431e-006 -3.795416e-004
<VARIANCE> 39
 7.122874e+001 7.774359e+001 5.614144e+001 1.147848e+002 6.666970e+001 5.816542e+001 7.342961e+001 5.153112e+001 7.407212e+001 3.795372e+001 6.459995e+001 2.901565e+001 9.857039e+001 3.759185e+000 4.606576e+000 2.888712e+000 7.581325e+000 3.842350e+000 3.923706e+000 4.476375e+000 4.190916e+000 4.399261e+000 3.285574e+000 3.876250e+000 2.145619e+000 6.062480e+000 5.651901e-001 7.376425e-001 4.810514e-001 1.187357e+000 6.464469e-001 6.862108e-001 7.485619e-001 7.891664e-001 7.229442e-001 6.392606e-001 6.555966e-001 4.033704e-001 9.929719e-001
<GCONST> 1.389285e+002
<TRANSP> 3
 0.000000e+000 1.000000e+000 0.000000e+000
 0.000000e+000 9.985837e-001 1.416295e-003
 0.000000e+000 0.000000e+000 0.000000e+000
<ENDHMM>
~h "ZTV"
<BEGINHMM>
<NUMSTATES> 3
<STATE> 2
<MEAN> 39
 -6.849684e+000 8.066637e-001 1.237443e+000 -6.233347e+000 -5.137922e+000 -4.443163e+000 -6.418079e+000 -1.898557e+000 -4.353538e+000 -8.859999e-001 -5.294134e+000 -1.189607e+000 6.727740e+001 1.720931e-003 -1.018322e-003 4.617557e-003 2.688617e-003 4.902192e-003 3.860882e-003 -6.763452e-004 -1.458201e-003 -1.740776e-003 -3.456041e-003 -2.517146e-003 -8.733833e-004 -4.545395e-003 -4.120369e-004 2.362535e-004 -7.334696e-004 1.222270e-004 -5.596899e-004 -2.437989e-004 1.904879e-004 7.904238e-005 2.134665e-004 1.022459e-004 -4.611120e-005 -4.831942e-004 3.663832e-004
<VARIANCE> 39
 5.907167e+001 3.642064e+001 5.772911e+001 7.520387e+001 9.023846e+001 5.233532e+001 9.477833e+001 5.235381e+001 6.747750e+001 4.104865e+001 6.760823e+001 3.159767e+001 8.294533e+001 3.076638e+000 2.479040e+000 2.521687e+000 4.450905e+000 4.980305e+000 3.492104e+000 4.977853e+000 3.540235e+000 3.749827e+000 3.195135e+000 3.903117e+000 2.459272e+000 3.844090e+000 4.648247e-001 4.376159e-001 4.118856e-001 7.464113e-001 8.540347e-001 6.304003e-001 8.259792e-001 6.538981e-001 6.577421e-001 6.088967e-001 7.005804e-001 4.628461e-001 6.436137e-001
<GCONST> 1.344857e+002
<TRANSP> 3
 0.000000e+000 1.000000e+000 0.000000e+000
 0.000000e+000 9.983172e-001 1.682794e-003
 0.000000e+000 0.000000e+000 0.000000e+000
<ENDHMM>
~h "MPCH"
<BEGINHMM>
<NUMSTATES> 3
<STATE> 2
<MEAN> 39
 -6.757581e+000 -6.165200e+000 2.773732e+000 -7.926696e+000 -5.222636e+000 -4.523789e+000 -2.704140e+000 9.712530e-001 -8.570526e-001 -6.528903e-001 -1.935085e-001 -1.889263e+000 6.536793e+001 -6.280042e-004 8.039337e-003 -2.033954e-003 7.976431e-003 3.396005e-003 7.494520e-003 5.438620e-003 -3.432038e-003 -1.101584e-003 1.095078e-003 1.110644e-003 -2.106640e-003 -1.267382e-002 4.189655e-006 1.025357e-004 2.739751e-004 4.889383e-004 2.901506e-004 1.993465e-004 2.691514e-004 2.349171e-004 -2.894879e-004 -3.309000e-004 -2.218957e-004 -1.789943e-004 -2.992225e-004
<VARIANCE> 39
 8.406596e+001 5.366768e+001 5.615802e+001 6.120583e+001 7.200213e+001 4.116524e+001 5.602714e+001 3.628677e+001 7.435124e+001 2.914626e+001 3.499133e+001 2.338794e+001 1.157083e+002 3.673453e+000 3.345994e+000 2.561080e+000 3.765264e+000 3.805356e+000 2.683256e+000 3.680588e+000 2.939966e+000 4.636290e+000 2.383820e+000 2.505552e+000 1.826623e+000 4.745579e+000 5.072206e-001 5.629488e-001 4.088641e-001 6.240103e-001 6.204550e-001 4.860927e-001 6.346879e-001 5.389258e-001 7.781307e-001 4.536010e-001 4.424589e-001 3.432050e-001 7.181709e-001
<GCONST> 1.297979e+002
<TRANSP> 3
 0.000000e+000 1.000000e+000 0.000000e+000
 0.000000e+000 9.984196e-001 1.580361e-003
 0.000000e+000 0.000000e+000 0.000000e+000
<ENDHMM>
~h "MVL2"
<BEGINHMM>
<NUMSTATES> 3
<STATE> 2
<MEAN> 39
 -4.898616e+000 1.733481e+000 2.464077e+000 -1.453723e+000 -5.149415e+000 -2.546151e+000 -7.035262e+000 -4.140566e+000 -9.478514e-001 1.099344e+000 1.878855e+000 1.500047e-001 7.188377e+001 -3.510919e-004 2.511395e-003 -1.561363e-003 7.142689e-004 2.437942e-003 2.805725e-003 -1.303868e-003 -1.931393e-003 -8.232773e-004 1.527703e-004 1.017632e-004 -5.784984e-004 -1.732669e-003 2.186614e-004 3.223036e-005 6.655118e-005 -1.428123e-004 1.932931e-004 1.868864e-004 -2.683584e-004 -2.239820e-004 -3.903094e-004 -5.269225e-004 -3.185475e-004 4.180094e-005 1.251051e-004
<VARIANCE> 39
 7.456705e+001 3.577899e+001 5.441363e+001 4.405054e+001 7.172002e+001 7.573955e+001 7.112287e+001 6.423304e+001 5.360203e+001 4.015733e+001 3.297163e+001 3.751427e+001 9.317390e+001 2.793883e+000 1.895846e+000 2.109931e+000 2.209519e+000 3.549928e+000 3.411274e+000 3.254197e+000 3.234099e+000 2.801923e+000 2.416175e+000 2.372116e+000 2.168938e+000 2.073042e+000 3.668364e-001 3.168418e-001 3.294644e-001 3.874958e-001 6.244609e-001 5.650188e-001 5.662630e-001 5.750738e-001 4.959431e-001 4.429904e-001 4.551780e-001 3.885503e-001 2.995477e-001
<GCONST> 1.252106e+002
<TRANSP> 3
 0.000000e+000 1.000000e+000 0.000000e+000
 0.000000e+000 9.984462e-001 1.553765e-003
 0.000000e+000 0.000000e+000 0.000000e+000
<ENDHMM>
~h "VACLAV"
<BEGINHMM>
<NUMSTATES> 3
<STATE> 2
<MEAN> 39
 -7.765951e+000 2.022330e+000 2.495329e+000 1.926642e+000 -8.180751e-001 3.941763e+000 -2.858048e+000 3.735020e+000 3.142068e+000 4.003971e+000 4.108374e+000 1.029833e+000 4.718831e+001 1.077820e-004 -8.315386e-005 -1.630940e-004 -5.357338e-004 1.451186e-003 -1.016536e-003 5.142005e-004 7.167539e-004 9.413736e-005 1.344093e-003 7.321483e-004 -1.077629e-003 -8.730053e-006 -1.662962e-005 -7.181637e-005 4.576956e-004 1.877247e-005 -2.181598e-004 -1.596127e-004 9.453005e-005 1.036439e-004 -3.235900e-004 4.168194e-004 -2.485669e-004 -7.410312e-005 -5.157295e-005
<VARIANCE> 39
 5.431882e+001 3.731064e+001 4.619599e+001 8.229253e+001 6.005626e+001 4.547677e+001 6.930563e+001 5.399982e+001 5.265760e+001 4.080575e+001 2.686961e+001 4.785279e+001 6.934866e+001 2.372259e+000 2.542459e+000 1.977215e+000 3.961004e+000 3.379619e+000 2.674257e+000 3.813864e+000 3.302378e+000 3.049603e+000 2.384273e+000 2.196545e+000 2.098452e+000 2.144248e+000 3.434096e-001 4.391217e-001 3.196542e-001 6.679175e-001 5.674006e-001 4.788167e-001 6.649517e-001 6.100608e-001 5.498597e-001 4.380943e-001 4.189291e-001 3.684433e-001 3.477426e-001
<GCONST> 1.256205e+002
<TRANSP> 3
 0.000000e+000 1.000000e+000 0.000000e+000
 0.000000e+000 9.975002e-001 2.499791e-003
 0.000000e+000 0.000000e+000 0.000000e+000
<ENDHMM>
~h "DUTKA"
<BEGINHMM>
<NUMSTATES> 3
<STATE> 2
<MEAN> 39
 -1.563528e+000 -4.926715e+000 -5.636679e-001 -1.482638e+001 -1.145559e+001 -4.023446e+000 -1.334382e+001 -2.292414e+000 -6.169241e+000 -4.443139e+000 -4.459674e+000 -5.463398e+000 6.051647e+001 1.379067e-003 -3.880308e-003 -8.146623e-004 -7.449327e-004 2.882770e-003 -3.099028e-003 -1.660152e-003 -2.092248e-003 -3.628544e-003 -1.015410e-003 -1.995109e-003 -7.194714e-004 4.412983e-003 -1.165852e-004 1.144826e-004 -3.182072e-005 -1.055523e-004 -1.590264e-005 -1.085354e-004 -9.713110e-005 -3.312314e-004 -2.717266e-004 7.523227e-005 -1.537509e-004 -1.556215e-004 -1.402463e-004
<VARIANCE> 39
 1.316409e+002 9.505096e+001 1.216445e+002 1.027346e+002 8.187189e+001 9.110606e+001 6.980406e+001 7.972211e+001 6.160628e+001 4.326635e+001 4.202704e+001 3.343792e+001 1.312671e+002 3.714016e+000 5.161221e+000 4.484251e+000 5.252649e+000 4.556384e+000 4.971061e+000 4.749508e+000 5.003657e+000 4.323577e+000 3.285526e+000 3.056499e+000 2.527243e+000 3.385756e+000 4.985725e-001 8.092660e-001 6.913758e-001 9.002492e-001 8.174868e-001 8.345913e-001 8.778905e-001 8.902690e-001 8.074201e-001 6.292260e-001 5.848020e-001 4.770727e-001 4.650888e-001
<GCONST> 1.416884e+002
<TRANSP> 3
 0.000000e+000 1.000000e+000 0.000000e+000
 0.000000e+000 9.983122e-001 1.687827e-003
 0.000000e+000 0.000000e+000 0.000000e+000
<ENDHMM>
~h "BLAZEK"
<BEGINHMM>
<NUMSTATES> 3
<STATE> 2
<MEAN> 39
 -7.147953e+000 -1.345614e+000 2.020009e+000 -3.871105e+000 -1.384037e+000 -2.382640e+000 -1.799542e+000 -1.003947e+000 2.671488e-001 1.943697e-001 8.218452e-001 -1.403142e+000 5.860730e+001 -4.771923e-003 3.546136e-003 -6.683482e-004 -2.367646e-003 5.646849e-003 -6.352226e-003 4.230381e-003 -6.438027e-004 -7.213651e-004 4.308657e-003 -1.648123e-003 -6.632239e-004 1.585003e-003 4.898481e-004 -6.800227e-004 7.045513e-004 7.144922e-004 -2.534360e-004 2.457356e-004 3.653429e-004 2.765720e-004 7.323953e-005 -3.092529e-004 6.370022e-004 4.715923e-004 -3.873495e-004
<VARIANCE> 39
 7.220547e+001 3.685637e+001 6.010888e+001 5.198904e+001 4.783542e+001 5.255565e+001 5.678269e+001 3.891116e+001 3.664657e+001 2.763427e+001 2.575151e+001 2.953559e+001 1.007154e+002 3.073123e+000 2.361242e+000 2.513468e+000 3.191431e+000 3.476819e+000 3.145429e+000 3.924743e+000 2.832989e+000 2.596414e+000 2.188584e+000 2.161041e+000 2.118092e+000 3.114559e+000 4.446924e-001 4.034420e-001 4.020837e-001 5.702525e-001 6.378824e-001 5.712982e-001 7.069101e-001 5.362766e-001 4.822133e-001 4.193393e-001 4.120968e-001 4.019521e-001 5.167139e-001
<GCONST> 1.253402e+002
<TRANSP> 3
 0.000000e+000 1.000000e+000 0.000000e+000
 0.000000e+000 9.982690e-001 1.730969e-003
 0.000000e+000 0.000000e+000 0.000000e+000
<ENDHMM>
~h "KOUNOVSKY"
<BEGINHMM>
<NUMSTATES> 3
<STATE> 2
<MEAN> 39
 -7.302338e+000 -2.551042e+000 2.295784e+000 4.325948e+000 -1.016414e+001 5.770131e+000 -4.380192e+000 -4.001485e+000 -1.500594e+000 2.405494e+000 -2.301165e+000 -1.802602e+000 5.741531e+001 -3.053790e-003 -1.361336e-003 -2.396120e-003 -3.412063e-003 -2.217626e-003 -1.539163e-003 -2.495127e-003 -3.964162e-003 -4.380459e-003 -5.026295e-003 -2.825752e-003 -3.903518e-003 -2.008932e-003 1.301928e-005 -1.332059e-004 1.442826e-004 -2.693332e-004 -3.476522e-004 -3.849145e-004 5.678394e-004 2.198940e-004 5.030692e-004 5.934584e-004 3.599288e-004 7.801904e-004 1.108411e-007
<VARIANCE> 39
 8.308649e+001 4.875665e+001 6.900697e+001 5.094346e+001 1.138135e+002 6.563198e+001 6.266235e+001 5.923622e+001 5.197239e+001 4.760760e+001 3.608932e+001 2.940667e+001 1.394264e+002 3.601339e+000 2.909504e+000 2.929892e+000 2.805069e+000 4.883764e+000 3.378991e+000 4.033631e+000 2.941773e+000 3.243424e+000 2.637774e+000 2.212108e+000 1.848447e+000 3.185561e+000 4.739791e-001 4.988644e-001 4.483467e-001 4.674282e-001 7.621650e-001 5.540024e-001 6.950683e-001 5.109898e-001 5.749511e-001 4.580233e-001 4.151848e-001 3.401059e-001 5.207680e-001
<GCONST> 1.306053e+002
<TRANSP> 3
 0.000000e+000 1.000000e+000 0.000000e+000
 0.000000e+000 9.971693e-001 2.830723e-003
 0.000000e+000 0.000000e+000 0.000000e+000
<ENDHMM>
~h "KOLAR"
<BEGINHMM>
<NUMSTATES> 3
<STATE> 2
<MEAN> 39
 -4.367988e+000 3.106473e+000 -2.616794e+000 6.949628e+000 -2.169253e+000 2.119937e+000 -2.771213e-002 2.523642e+000 1.514781e+000 4.291129e+000 4.901019e+000 -5.490673e-001 5.757510e+001 -3.027315e-004 4.541899e-004 5.458321e-004 1.169489e-003 1.258914e-003 2.255271e-004 5.997776e-004 9.239516e-004 1.171319e-003 2.116055e-003 1.038677e-003 5.859681e-004 -7.236808e-004 2.346073e-004 -1.815185e-004 -5.345008e-005 -1.273773e-005 -1.814249e-004 -6.442430e-004 -2.086524e-004 -4.454407e-004 -3.902834e-004 -3.230660e-004 -5.919805e-004 -1.118721e-004 2.620576e-004
<VARIANCE> 39
 5.265273e+001 1.879718e+001 3.212544e+001 2.228427e+001 7.302894e+001 3.769450e+001 5.222983e+001 3.534968e+001 3.431321e+001 2.516251e+001 2.125780e+001 4.583322e+001 6.592994e+001 1.617622e+000 1.160735e+000 1.862228e+000 1.297025e+000 2.752277e+000 1.930315e+000 2.548683e+000 1.912904e+000 1.868614e+000 1.565249e+000 1.598294e+000 1.709264e+000 1.586673e+000 2.149089e-001 2.066980e-001 3.215110e-001 2.276997e-001 4.537327e-001 3.502881e-001 4.362270e-001 3.446229e-001 3.386671e-001 2.858658e-001 3.080392e-001 2.998205e-001 2.495992e-001
<GCONST> 1.101591e+002
<TRANSP> 3
 0.000000e+000 1.000000e+000 0.000000e+000
 0.000000e+000 9.984227e-001 1.577287e-003
 0.000000e+000 0.000000e+000 0.000000e+000
<ENDHMM>
~h "HALADAVETY"
<BEGINHMM>
<NUMSTATES> 3
<STATE> 2
<MEAN> 39
 -1.064761e+001 4.943372e-001 -4.110312e+000 -2.218598e+000 -1.070909e+001 -7.659537e-001 -1.194013e+001 -3.620158e+000 -5.265095e+000 -5.125482e+000 -1.592350e+000 -1.831400e+000 5.359882e+001 1.977201e-003 2.664087e-003 1.813578e-003 -4.205914e-004 7.572238e-004 1.931094e-003 -1.513736e-003 -4.534480e-003 -3.431716e-003 -8.082540e-004 -8.251698e-004 -5.027383e-003 7.986448e-004 5.334445e-006 -1.017507e-004 -2.236842e-004 5.665786e-005 -4.216277e-004 -1.070719e-003 1.080963e-003 1.709440e-003 2.378047e-004 -1.435977e-003 -9.709100e-004 2.465184e-003 -3.364433e-005
<VARIANCE> 39
 1.250394e+002 6.273844e+001 7.412205e+001 7.484439e+001 6.309570e+001 8.472940e+001 6.608696e+001 6.483330e+001 5.533307e+001 3.820615e+001 4.457576e+001 4.027778e+001 3.094374e+002 3.464759e+000 3.070233e+000 2.753217e+000 3.255139e+000 3.869910e+000 4.500701e+000 4.167747e+000 3.902051e+000 3.492492e+000 2.771141e+000 2.899944e+000 2.702614e+000 4.279951e+000 5.063539e-001 4.961475e-001 4.382161e-001 5.402675e-001 6.946251e-001 7.794206e-001 7.706963e-001 7.131025e-001 6.430084e-001 5.349973e-001 5.446140e-001 5.129076e-001 6.374023e-001
<GCONST> 1.362563e+002
<TRANSP> 3
 0.000000e+000 1.000000e+000 0.000000e+000
 0.000000e+000 9.987823e-001 1.217648e-003
 0.000000e+000 0.000000e+000 0.000000e+000
<ENDHMM>
~h "HORKYVETY"
<BEGINHMM>
<NUMSTATES> 3
<STATE> 2
<MEAN> 39
 -1.610913e+001 5.788837e-001 -3.921054e+000 -4.196759e-001 -7.355708e+000 -1.406374e+000 -5.973432e+000 -2.933561e+000 4.718720e-001 -2.708886e+000 3.914660e+000 -3.418983e+000 4.638536e+001 -1.448741e-002 3.286355e-004 -3.809670e-003 -3.001386e-003 2.340603e-003 -2.546567e-003 1.086172e-003 3.478325e-004 -4.031878e-003 2.838658e-003 -3.948869e-003 2.348084e-003 -4.989939e-003 4.408204e-003 1.225094e-004 1.047752e-003 4.953592e-004 3.082824e-004 1.673508e-004 1.002445e-004 3.569660e-004 -2.065944e-004 -6.028821e-004 -2.496868e-004 -2.587768e-004 2.350906e-003
<VARIANCE> 39
 7.683684e+001 3.012694e+001 6.525047e+001 5.277124e+001 4.632508e+001 5.061051e+001 5.122364e+001 5.109494e+001 3.895845e+001 4.507209e+001 5.079854e+001 3.431274e+001 2.544586e+002 2.944206e+000 1.965811e+000 2.223395e+000 2.671476e+000 3.038916e+000 2.631692e+000 3.343802e+000 2.844257e+000 2.945282e+000 3.040130e+000 2.922978e+000 2.062879e+000 4.924560e+000 4.208371e-001 3.488786e-001 3.580838e-001 4.428150e-001 5.308135e-001 4.785116e-001 5.740817e-001 4.965459e-001 5.340587e-001 5.387412e-001 5.032437e-001 3.664141e-001 7.659755e-001
<GCONST> 1.275349e+002
<TRANSP> 3
 0.000000e+000 1.000000e+000 0.000000e+000
 0.000000e+000 9.985222e-001 1.477760e-003
 0.000000e+000 0.000000e+000 0.000000e+000
<ENDHMM>
~h "CHMELIK"
<BEGINHMM>
<NUMSTATES> 3
<STATE> 2
<MEAN> 39
 -1.004980e+001 -5.077719e+000 1.909322e+000 -4.583241e+000 -5.318744e+000 -3.323505e+000 -1.907905e+000 -1.456888e+000 7.144746e-001 -1.208149e+000 -5.974003e-002 -4.279079e+000 6.261163e+001 2.737795e-002 -2.585301e-002 -5.150766e-003 -1.172021e-002 1.858207e-002 -2.271445e-002 -2.393457e-003 -3.396822e-003 1.694355e-004 1.861402e-003 -8.338864e-003 -3.164550e-003 5.381898e-002 -1.149466e-003 1.161154e-003 3.821790e-004 4.894959e-004 -7.304014e-004 8.206607e-004 5.620387e-004 -1.053742e-004 -3.236351e-004 -4.084408e-005 6.692068e-004 6.316676e-005 -1.782096e-003
<VARIANCE> 39
 6.528972e+001 3.441595e+001 6.661856e+001 3.281515e+001 3.977625e+001 3.258166e+001 2.850282e+001 3.142005e+001 3.144996e+001 2.307018e+001 2.043438e+001 2.222856e+001 9.456574e+001 3.817521e+000 2.387215e+000 3.013615e+000 2.636959e+000 3.132131e+000 2.593174e+000 2.678334e+000 2.777627e+000 2.698938e+000 2.167964e+000 1.983207e+000 1.825776e+000 2.751072e+000 5.935201e-001 4.244014e-001 4.973952e-001 4.976207e-001 6.004369e-001 4.956574e-001 5.289816e-001 5.450125e-001 5.249162e-001 4.386254e-001 3.954112e-001 3.544863e-001 4.697145e-001
<GCONST> 1.213331e+002
<TRANSP> 3
 0.000000e+000 1.000000e+000 0.000000e+000
 0.000000e+000 9.983881e-001 1.611881e-003
 0.000000e+000 0.000000e+000 0.000000e+000
<ENDHMM>
~h "VACEKVETY"
<BEGINHMM>
<NUMSTATES> 3
<STATE> 2
<MEAN> 39
 -7.253404e+000 1.439489e+000 -2.169263e+000 -1.447076e+000 -4.423641e+000 -2.912508e+000 -6.057682e+000 -5.183490e+000 -3.276195e+000 2.000302e+000 -3.293535e+000 -1.769273e+000 5.203485e+001 1.117309e-003 6.088079e-004 -9.754451e-004 -8.349029e-004 1.085160e-003 1.905214e-003 -1.979495e-004 -1.141457e-003 2.751095e-004 1.310611e-003 4.875474e-004 -4.358556e-003 7.877178e-004 2.182469e-004 -2.603568e-005 -3.317422e-004 -9.856419e-005 -6.044016e-004 -9.784868e-004 8.359152e-004 1.682788e-003 4.850274e-004 -1.204124e-003 -9.040249e-004 1.441427e-003 6.387530e-005
<VARIANCE> 39
 1.850505e+002 5.038147e+001 9.386302e+001 6.135689e+001 6.048829e+001 8.867852e+001 5.780945e+001 7.466682e+001 6.443198e+001 4.997757e+001 3.913663e+001 3.569722e+001 2.676424e+002 4.294430e+000 3.265554e+000 3.269775e+000 3.415349e+000 3.418418e+000 4.083266e+000 4.344206e+000 4.365788e+000 4.008853e+000 3.306834e+000 2.561434e+000 2.660224e+000 2.879794e+000 5.691025e-001 5.369686e-001 4.826192e-001 5.809494e-001 5.900469e-001 6.939705e-001 8.027139e-001 7.671340e-001 7.175729e-001 6.197269e-001 4.926265e-001 5.110631e-001 4.417790e-001
<GCONST> 1.366949e+002
<TRANSP> 3
 0.000000e+000 1.000000e+000 0.000000e+000
 0.000000e+000 9.979952e-001 2.004811e-003
 0.000000e+000 0.000000e+000 0.000000e+000
<ENDHMM>
~h "DVORSKY"
<BEGINHMM>
<NUMSTATES> 3
<STATE> 2
<MEAN> 39
 -5.434663e+000 3.177184e+000 4.196861e+000 1.121885e+000 2.121182e+000 1.028060e-001 8.880802e-001 1.359414e+000 6.512727e-001 3.298197e+000 1.557205e+000 -9.211428e-002 5.696009e+001 -2.847704e-004 7.101886e-005 -3.877021e-004 -9.347146e-004 1.632117e-004 2.307943e-003 1.884485e-003 3.771828e-004 2.770341e-004 5.124386e-004 1.108966e-003 5.661233e-004 -9.258403e-004 -1.404661e-004 -2.239561e-004 7.462601e-005 3.759133e-004 -2.691759e-004 3.080852e-005 1.780552e-004 1.374690e-004 -3.450189e-004 1.975479e-004 4.761032e-004 -4.548967e-005 6.869952e-005
<VARIANCE> 39
 5.096741e+001 3.593480e+001 4.806331e+001 5.130936e+001 3.671164e+001 4.769902e+001 4.004449e+001 3.375431e+001 4.067395e+001 2.583830e+001 2.819478e+001 2.650704e+001 1.438315e+002 2.653511e+000 1.995243e+000 2.207828e+000 3.169106e+000 2.533352e+000 2.659903e+000 2.870583e+000 2.682542e+000 3.022727e+000 2.206082e+000 2.088994e+000 1.859168e+000 2.883018e+000 4.033048e-001 3.486800e-001 3.509957e-001 5.417566e-001 4.543560e-001 4.781609e-001 5.252532e-001 5.158854e-001 5.601377e-001 4.279516e-001 3.956304e-001 3.519916e-001 4.712949e-001
<GCONST> 1.214884e+002
<TRANSP> 3
 0.000000e+000 1.000000e+000 0.000000e+000
 0.000000e+000 9.976948e-001 2.305210e-003
 0.000000e+000 0.000000e+000 0.000000e+000
<ENDHMM>
~h "POLACEKVETY"
<BEGINHMM>
<NUMSTATES> 3
<STATE> 2
<MEAN> 39
 -7.945129e+000 1.118357e+000 1.139082e+000 -4.558601e-001 -9.843722e+000 -1.845143e+000 -9.366567e+000 -6.512690e-002 -2.475534e+000 -6.757028e-001 -1.645781e+000 -4.801213e+000 5.044286e+001 1.364920e-002 6.673194e-003 8.827794e-003 -3.397670e-003 6.087122e-003 1.044783e-003 -3.760690e-003 -6.487831e-003 -5.642227e-003 1.193918e-003 -5.002888e-003 -7.739469e-003 1.820046e-002 2.431730e-004 4.113164e-005 3.744691e-005 1.834695e-004 -6.975970e-004 -1.168760e-003 9.077778e-004 2.201112e-003 1.477628e-004 -1.374360e-003 -9.242215e-004 2.721803e-003 -2.908463e-004
<VARIANCE> 39
 8.805810e+001 4.442076e+001 7.147486e+001 4.635904e+001 6.879019e+001 6.096949e+001 4.319843e+001 3.477115e+001 3.752547e+001 2.930641e+001 2.524000e+001 2.981908e+001 1.264462e+002 3.527193e+000 2.471341e+000 2.431738e+000 2.766136e+000 3.516621e+000 2.673094e+000 2.672432e+000 2.656546e+000 2.418014e+000 2.090352e+000 1.834804e+000 1.952633e+000 2.387773e+000 4.687764e-001 4.205382e-001 3.704353e-001 4.948282e-001 5.954623e-001 4.797508e-001 4.973719e-001 4.940389e-001 4.461629e-001 3.955950e-001 3.504986e-001 3.538925e-001 3.821437e-001
<GCONST> 1.234553e+002
<TRANSP> 3
 0.000000e+000 1.000000e+000 0.000000e+000
 0.000000e+000 9.987432e-001 1.256790e-003
 0.000000e+000 0.000000e+000 0.000000e+000
<ENDHMM>
