~o
<STREAMINFO> 1 39
<VECSIZE> 39<NULLD><MFCC_D_A_0><DIAGC>
~h "MJ"
<BEGINHMM>
<NUMSTATES> 3
<STATE> 2
<NUMMIXES> 16
<MIXTURE> 1 4.706192e-002
<MEAN> 39
 -1.399466e+001 6.484153e-001 -6.917534e-001 -7.417903e+000 -4.905071e+000 -1.132583e+001 -6.302138e+000 -4.348665e+000 2.295802e+000 1.854220e+000 -1.133989e+000 -4.394910e-001 6.682340e+001 -1.789063e+000 5.223967e-001 -3.087533e-001 9.109439e-001 7.538986e-001 -2.178283e-001 1.731590e+000 1.145534e-001 1.064337e+000 -3.769446e-001 5.675075e-001 4.968642e-001 -7.339483e-002 1.601514e-001 -2.225674e-001 2.836784e-002 -5.663549e-002 -2.007378e-001 2.757665e-001 -1.531717e-001 1.824805e-001 -1.791462e-001 1.197987e-001 1.032111e-001 -1.387824e-001 -5.773087e-003
<VARIANCE> 39
 8.075964e+001 4.316436e+001 6.177592e+001 3.841092e+001 4.481034e+001 5.402558e+001 5.329156e+001 3.598157e+001 3.440116e+001 2.866357e+001 3.151254e+001 1.958190e+001 2.104566e+001 4.714676e+000 3.024959e+000 3.200078e+000 2.712767e+000 3.300993e+000 3.811728e+000 4.345246e+000 3.166679e+000 3.500103e+000 2.499488e+000 2.646400e+000 2.179329e+000 2.579933e+000 7.722459e-001 4.781764e-001 4.307235e-001 4.819497e-001 4.921935e-001 6.178660e-001 6.832502e-001 5.822008e-001 5.332243e-001 4.381627e-001 5.177066e-001 3.567203e-001 3.809028e-001
<GCONST> 1.253743e+002
<MIXTURE> 2 7.553563e-002
<MEAN> 39
 -1.240973e+000 -3.680801e+000 -1.744910e-001 -1.143666e+001 -9.937615e+000 -4.640069e+000 -1.552633e+001 -3.217000e+000 -4.504307e+000 6.186835e+000 2.215401e-001 -4.607441e+000 6.774827e+001 9.567851e-002 8.124293e-001 -1.879365e-001 6.942714e-001 5.690975e-001 4.765762e-002 8.079760e-001 -1.433168e-001 3.707536e-001 -1.205617e-001 8.035780e-002 2.169417e-001 -1.033110e+000 -2.503949e-001 7.255644e-002 -1.581410e-002 2.351959e-001 1.381701e-001 -1.282772e-001 3.486396e-001 -2.343585e-002 2.903694e-001 -2.277162e-001 -2.809760e-002 1.013835e-001 -1.489147e-001
<VARIANCE> 39
 1.131360e+001 2.991625e+001 6.217972e+001 6.142685e+001 3.952554e+001 8.669478e+001 4.819709e+001 5.088245e+001 5.189093e+001 3.424793e+001 3.733071e+001 3.327687e+001 2.368859e+001 6.615894e-001 1.651407e+000 1.917966e+000 3.251808e+000 2.692687e+000 2.949971e+000 2.984394e+000 3.202977e+000 3.408702e+000 2.248267e+000 2.498865e+000 2.287502e+000 1.820554e+000 1.506567e-001 3.034893e-001 3.459733e-001 5.870792e-001 4.903929e-001 5.404890e-001 5.508193e-001 6.034029e-001 5.962744e-001 4.393978e-001 4.268206e-001 4.279705e-001 2.873761e-001
<GCONST> 1.186989e+002
<MIXTURE> 3 5.183877e-002
<MEAN> 39
 -9.586492e+000 -3.606691e+000 -5.972254e+000 -1.064862e+001 -3.732412e+000 -5.328837e+000 -8.021216e+000 -5.615041e-001 2.996402e+000 2.705520e+000 -4.100786e+000 -2.113891e+000 6.565865e+001 2.574685e-002 1.005986e-001 -2.570695e-002 2.500795e-001 2.611422e-001 3.265532e-001 4.008225e-001 2.130020e-001 1.659825e-001 1.987935e-001 1.747229e-001 2.445913e-001 -4.979110e-001 7.261010e-002 3.029455e-002 2.040046e-001 1.131765e-001 -9.493112e-002 -5.067405e-002 -4.048941e-002 -1.108553e-001 -7.649728e-002 7.172046e-002 1.829352e-001 1.935643e-002 2.663007e-002
<VARIANCE> 39
 1.041445e+002 4.538210e+001 3.989591e+001 5.456528e+001 3.947149e+001 6.292068e+001 5.976016e+001 3.971394e+001 2.850181e+001 2.555352e+001 4.262227e+001 1.960721e+001 6.219003e+001 7.824747e-001 1.005117e+000 1.030382e+000 1.323849e+000 1.550143e+000 1.795876e+000 1.583773e+000 1.707319e+000 1.577422e+000 1.360230e+000 1.478133e+000 1.147738e+000 9.587294e-001 2.144467e-001 2.182677e-001 1.832914e-001 2.505146e-001 2.693406e-001 2.884003e-001 2.916384e-001 3.273350e-001 3.160028e-001 2.615921e-001 3.026902e-001 2.247527e-001 2.984216e-001
<GCONST> 1.067644e+002
<MIXTURE> 4 5.019172e-002
<MEAN> 39
 -2.197259e+000 -4.226889e+000 -9.790148e-001 -9.999578e+000 -9.132012e+000 -5.997467e+000 -1.531308e+001 -5.245521e+000 -2.649679e+000 5.049578e+000 -2.067227e-001 -4.128083e+000 6.781123e+001 1.968835e-001 -5.180240e-001 2.848201e-001 -9.663192e-001 -5.423935e-002 4.556697e-001 -7.576748e-001 5.083858e-001 -1.560546e-002 6.863207e-001 4.973714e-002 1.531035e-001 8.854015e-001 -4.105685e-001 1.094737e-001 1.335806e-002 1.053801e-001 1.284629e-001 -2.408005e-002 4.683574e-001 1.731364e-001 1.115210e-001 -1.290717e-001 1.563519e-002 1.230433e-001 -1.538230e-001
<VARIANCE> 39
 1.448346e+001 3.071368e+001 5.135081e+001 6.438750e+001 4.331553e+001 6.742000e+001 5.818015e+001 5.728363e+001 5.975635e+001 3.428539e+001 3.893205e+001 3.101610e+001 3.024931e+001 3.387040e+000 3.021896e+000 4.204134e+000 6.235250e+000 5.610741e+000 6.403970e+000 5.778839e+000 5.542978e+000 5.513213e+000 3.652171e+000 3.783999e+000 3.291451e+000 2.110956e+000 3.951604e-001 5.082366e-001 5.211191e-001 9.845254e-001 7.912414e-001 8.516540e-001 1.020154e+000 9.388966e-001 9.181516e-001 6.398141e-001 6.371271e-001 5.642437e-001 5.498915e-001
<GCONST> 1.341490e+002
<MIXTURE> 5 9.132709e-002
<MEAN> 39
 -8.371431e+000 -2.765620e+000 -7.195391e+000 -5.709791e+000 -6.177371e+000 -4.045432e+000 -4.392023e+000 -1.399898e+000 -2.629468e-001 9.626962e-002 -1.555878e+000 -2.088797e+000 5.122518e+001 -1.192414e-002 2.985470e-002 8.968070e-003 1.100667e-001 1.143476e-001 1.671318e-001 1.917861e-001 1.755364e-001 1.407310e-001 1.388045e-001 1.504823e-001 1.301081e-001 -1.201138e-001 -1.939256e-003 -4.182201e-003 5.578502e-002 9.344735e-003 3.520603e-002 1.308222e-002 1.260478e-002 2.666328e-002 3.887639e-002 7.246333e-002 3.692794e-002 2.522606e-002 8.530723e-002
<VARIANCE> 39
 1.200610e+001 8.306565e+000 1.207164e+001 1.354075e+001 1.150189e+001 1.627472e+001 1.644489e+001 1.679899e+001 1.589259e+001 1.455670e+001 1.487399e+001 1.077426e+001 2.918478e+001 2.149350e-001 3.194320e-001 5.225741e-001 6.323441e-001 8.447105e-001 1.010116e+000 1.074251e+000 1.220893e+000 1.313036e+000 1.212208e+000 1.152909e+000 9.570518e-001 1.915786e-001 4.325198e-002 7.242839e-002 9.871648e-002 1.364966e-001 1.701478e-001 2.045092e-001 2.263954e-001 2.473901e-001 2.750206e-001 2.473775e-001 2.365541e-001 1.963253e-001 7.332420e-002
<GCONST> 7.667780e+001
<MIXTURE> 6 7.539966e-002
<MEAN> 39
 -4.204458e+000 -2.833671e+000 6.662353e+000 -9.219337e+000 -1.488297e+001 -8.224216e+000 -1.385386e+001 -1.903656e+000 -6.997795e+000 3.997936e+000 1.830328e+000 -6.613451e+000 6.809574e+001 1.116177e-001 2.398209e-001 -2.675605e-001 2.767386e-001 2.947321e-001 1.571471e-001 4.640237e-001 1.366334e-001 3.457895e-001 6.538676e-002 -1.207339e-001 1.856678e-001 -4.647670e-001 -8.024490e-002 6.905472e-002 -2.222423e-001 1.515183e-001 3.719147e-001 -4.247392e-002 2.138131e-001 -1.066798e-001 2.516547e-001 -5.327014e-002 -9.849784e-002 1.904257e-001 -1.400770e-001
<VARIANCE> 39
 1.619662e+001 3.592245e+001 8.592123e+001 3.693696e+001 4.395560e+001 5.871695e+001 4.194969e+001 4.628941e+001 5.469058e+001 2.939447e+001 4.378446e+001 3.860461e+001 2.636912e+001 5.954827e-001 1.292418e+000 2.134225e+000 2.057680e+000 2.355156e+000 2.254879e+000 2.311339e+000 2.662776e+000 2.529065e+000 1.778271e+000 1.985057e+000 1.837252e+000 1.160892e+000 1.588884e-001 2.693276e-001 3.808135e-001 4.089381e-001 4.528579e-001 4.240185e-001 5.001887e-001 5.531446e-001 5.060384e-001 3.478880e-001 3.942596e-001 3.820604e-001 2.794716e-001
<GCONST> 1.144211e+002
<MIXTURE> 7 8.255959e-002
<MEAN> 39
 -1.581594e+001 -2.768069e+000 -2.440686e+000 -6.502147e+000 -5.030485e+000 -9.452472e+000 -3.459380e+000 -2.906130e+000 2.446960e+000 1.613357e+000 -8.750764e-002 -3.397740e-001 6.430253e+001 1.649373e-001 -2.790356e-001 5.407543e-001 5.551378e-003 -2.389008e-002 -5.466117e-002 -2.309638e-001 -1.772795e-001 -8.582640e-002 1.973646e-001 -2.321792e-002 1.019356e-001 8.874730e-001 6.592672e-001 1.842110e-001 3.313201e-001 -1.233395e-001 -3.238688e-001 7.964358e-002 -5.726374e-001 -7.741273e-002 -3.223638e-001 1.580634e-001 9.695113e-003 -2.310700e-001 9.720367e-002
<VARIANCE> 39
 7.488623e+001 3.909678e+001 5.748378e+001 3.732666e+001 4.097202e+001 4.400718e+001 4.012226e+001 2.978210e+001 3.226875e+001 2.427660e+001 2.329088e+001 1.939797e+001 3.781510e+001 6.987896e+000 3.116415e+000 4.001676e+000 2.848224e+000 3.427653e+000 4.011557e+000 4.350568e+000 3.184013e+000 3.475901e+000 2.230874e+000 2.444942e+000 2.269392e+000 4.049651e+000 6.385763e-001 5.581945e-001 5.337317e-001 5.893715e-001 6.406531e-001 7.272363e-001 6.667240e-001 6.001306e-001 5.677902e-001 4.634129e-001 5.057238e-001 4.177442e-001 6.454109e-001
<GCONST> 1.270517e+002
<MIXTURE> 8 3.752725e-002
<MEAN> 39
 -6.168697e+000 -2.121719e+000 5.375460e+000 -6.543412e+000 -1.201869e+001 -1.187949e+001 -1.291749e+001 -5.281344e+000 -3.976910e+000 1.755194e+000 -3.037694e-001 -4.414360e+000 6.866671e+001 1.477019e+000 -3.935324e-001 1.205387e+000 -9.365389e-001 -1.359378e+000 9.177698e-002 -1.969979e+000 5.925189e-001 -1.101610e+000 8.002650e-001 5.127302e-001 -6.619092e-001 1.088232e+000 -3.709734e-001 -1.126340e-001 -4.485007e-001 -1.744310e-001 2.884686e-001 3.750419e-001 3.785676e-001 2.897063e-001 2.584042e-001 2.008677e-001 7.870375e-002 1.238619e-001 -2.152089e-001
<VARIANCE> 39
 2.279302e+001 3.345110e+001 7.689470e+001 3.429135e+001 4.802585e+001 4.285063e+001 5.365252e+001 4.059361e+001 6.569170e+001 2.633242e+001 4.268211e+001 2.921835e+001 1.707899e+001 5.114561e+000 2.951451e+000 4.671876e+000 3.519573e+000 4.575050e+000 4.576309e+000 6.428493e+000 4.781940e+000 5.027740e+000 2.735740e+000 3.683989e+000 3.097770e+000 1.513239e+000 5.107456e-001 4.899145e-001 5.688898e-001 5.320989e-001 7.159091e-001 5.690331e-001 9.594798e-001 7.289407e-001 8.833246e-001 4.804583e-001 6.195186e-001 5.091418e-001 3.247865e-001
<GCONST> 1.294091e+002
<MIXTURE> 9 7.125626e-002
<MEAN> 39
 -8.671831e+000 -2.852923e+000 -7.522927e+000 -5.560069e+000 -6.395712e+000 -4.395294e+000 -4.425939e+000 -1.691331e+000 -5.951925e-001 -2.985764e-001 -1.691104e+000 -2.184401e+000 5.064249e+001 -5.491055e-002 -9.736148e-002 -1.876803e-001 -1.880862e-001 -1.952794e-001 -1.885781e-001 -2.505987e-001 -2.995076e-001 -3.272315e-001 -3.385071e-001 -2.562429e-001 -1.855800e-001 -1.274467e-001 -2.991024e-002 -4.212151e-002 -3.942258e-003 -7.191722e-002 -2.886998e-002 -7.871952e-002 -7.040628e-002 -6.882585e-002 -5.470006e-002 -3.332970e-002 -5.393743e-002 -2.912425e-002 8.481605e-002
<VARIANCE> 39
 9.132543e+000 7.122835e+000 9.251534e+000 1.122428e+001 1.083806e+001 1.534164e+001 1.528168e+001 1.529976e+001 1.539583e+001 1.405379e+001 1.360805e+001 1.062129e+001 2.056067e+001 2.228433e-001 3.058937e-001 4.991307e-001 6.131335e-001 8.293556e-001 9.688432e-001 1.064000e+000 1.179179e+000 1.312004e+000 1.192309e+000 1.156343e+000 9.932419e-001 2.073576e-001 4.139947e-002 6.586207e-002 8.953807e-002 1.323356e-001 1.692897e-001 2.059582e-001 2.244043e-001 2.440617e-001 2.774234e-001 2.597532e-001 2.391584e-001 2.071948e-001 8.020859e-002
<GCONST> 7.482894e+001
<MIXTURE> 10 6.544307e-002
<MEAN> 39
 -7.941223e+000 -4.781592e+000 -6.727160e+000 -1.201054e+001 -4.338443e+000 -4.737117e+000 -9.191821e+000 -5.104477e-001 2.618413e+000 2.836221e+000 -5.130541e+000 -2.851687e+000 6.615649e+001 4.187492e-002 -9.485171e-002 -2.677478e-001 -6.267676e-002 -1.804753e-002 1.141777e-001 4.063135e-002 -2.455665e-002 -1.276987e-001 -5.885403e-002 -7.990190e-002 -9.749908e-003 -5.591801e-001 2.279419e-003 -2.495487e-002 1.377104e-001 3.193172e-002 -1.565048e-001 -1.442050e-001 -1.211518e-001 -1.617934e-001 -1.504395e-001 2.082060e-002 1.158124e-001 -9.316089e-003 8.380049e-002
<VARIANCE> 39
 9.037327e+001 4.755553e+001 3.782899e+001 6.037697e+001 4.190806e+001 6.501125e+001 6.167081e+001 4.132847e+001 2.877539e+001 2.775621e+001 4.682195e+001 2.063775e+001 6.594631e+001 7.699998e-001 9.366623e-001 1.009997e+000 1.220764e+000 1.587539e+000 1.809385e+000 1.547186e+000 1.671291e+000 1.605089e+000 1.338527e+000 1.468267e+000 1.133179e+000 1.027184e+000 1.820200e-001 2.129237e-001 1.774903e-001 2.525176e-001 2.680145e-001 2.820399e-001 2.865253e-001 3.339216e-001 3.157617e-001 2.594029e-001 2.946210e-001 2.206852e-001 3.305357e-001
<GCONST> 1.068369e+002
<MIXTURE> 11 7.633207e-002
<MEAN> 39
 -1.472956e+001 -2.865893e+000 -2.380935e+000 -6.566677e+000 -5.767173e+000 -9.609938e+000 -4.165279e+000 -3.429063e+000 1.772988e+000 1.209433e+000 -5.685100e-001 -8.507857e-001 6.347369e+001 1.336103e-001 -5.747483e-001 1.981278e-001 -3.643799e-001 -3.313840e-001 -4.235690e-001 -6.895207e-001 -5.839587e-001 -5.316297e-001 -2.099957e-001 -3.433145e-001 -1.949820e-001 9.605526e-001 5.729066e-001 8.558110e-002 2.591364e-001 -2.677080e-001 -4.174108e-001 -3.617158e-003 -7.255237e-001 -1.200412e-001 -3.975698e-001 1.385715e-001 -2.349355e-002 -3.041278e-001 2.675806e-001
<VARIANCE> 39
 7.693609e+001 3.741039e+001 5.508977e+001 3.643665e+001 3.968116e+001 4.299531e+001 4.024353e+001 3.080821e+001 3.281035e+001 2.529177e+001 2.427122e+001 2.024244e+001 4.089278e+001 6.847019e+000 3.259061e+000 4.247356e+000 2.901628e+000 3.635271e+000 4.064651e+000 4.751301e+000 3.234597e+000 3.668624e+000 2.413651e+000 2.698564e+000 2.567384e+000 4.264997e+000 6.388425e-001 5.650379e-001 5.337136e-001 6.091059e-001 6.645537e-001 7.229087e-001 7.123530e-001 6.276059e-001 5.873434e-001 4.934395e-001 5.404221e-001 4.533848e-001 6.751686e-001
<GCONST> 1.283313e+002
<MIXTURE> 12 7.711674e-002
<MEAN> 39
 -1.643836e+000 -3.683180e+000 -6.643246e-003 -1.158887e+001 -1.093038e+001 -5.262314e+000 -1.613043e+001 -3.599275e+000 -4.895849e+000 5.314925e+000 -1.881015e-001 -5.419600e+000 6.733326e+001 -3.433880e-003 5.397681e-001 -3.283510e-001 5.455079e-001 2.896785e-001 -1.112644e-001 5.445027e-001 -2.139896e-001 1.945228e-001 -3.745271e-001 -1.545328e-001 -4.359473e-002 -9.744050e-001 -2.645280e-001 -1.696312e-002 -5.724275e-002 1.262743e-001 9.318794e-002 -1.883657e-001 2.458870e-001 -2.818722e-002 2.148754e-001 -2.446003e-001 -1.031040e-001 7.214878e-002 -4.416002e-002
<VARIANCE> 39
 1.222376e+001 3.019022e+001 6.610490e+001 6.070037e+001 4.065089e+001 8.253468e+001 4.940285e+001 5.140434e+001 5.337618e+001 3.737172e+001 4.039948e+001 3.457719e+001 2.753078e+001 6.532558e-001 1.575823e+000 2.144710e+000 3.077044e+000 2.679534e+000 2.860641e+000 2.966665e+000 3.354148e+000 3.538852e+000 2.377715e+000 2.564319e+000 2.372791e+000 1.935671e+000 1.538327e-001 3.090144e-001 3.586829e-001 5.998089e-001 4.850430e-001 5.282910e-001 5.516946e-001 6.260185e-001 5.954263e-001 4.562370e-001 4.353804e-001 4.410296e-001 3.259031e-001
<GCONST> 1.197633e+002
<MIXTURE> 13 6.269524e-002
<MEAN> 39
 -5.157008e+000 -2.537763e+000 7.386127e+000 -1.010266e+001 -1.632187e+001 -8.853832e+000 -1.481460e+001 -2.800838e+000 -7.880672e+000 2.973627e+000 1.264121e+000 -7.765016e+000 6.788216e+001 -1.261682e-002 8.440812e-002 -3.798118e-001 1.075132e-001 2.584988e-002 2.256613e-002 1.803790e-001 -9.569716e-002 1.081324e-001 -2.345296e-001 -2.939306e-001 -6.178171e-002 -4.576885e-001 -9.554977e-002 -2.471697e-002 -2.515446e-001 1.001114e-001 3.177278e-001 -1.322158e-001 1.435916e-001 -1.115585e-001 1.894024e-001 -7.619906e-002 -1.511327e-001 1.617107e-001 -2.253425e-002
<VARIANCE> 39
 1.764462e+001 3.467025e+001 9.093682e+001 3.606128e+001 4.490484e+001 5.373316e+001 4.239905e+001 4.723150e+001 5.687694e+001 3.174936e+001 4.781724e+001 3.982620e+001 3.099176e+001 5.883727e-001 1.207242e+000 2.277421e+000 1.865889e+000 2.209884e+000 2.130773e+000 2.186637e+000 2.612707e+000 2.540588e+000 1.825473e+000 2.097648e+000 1.909979e+000 1.203232e+000 1.711535e-001 2.650318e-001 3.684272e-001 4.087497e-001 4.375726e-001 4.152018e-001 5.055804e-001 5.605350e-001 5.210474e-001 3.527715e-001 4.072526e-001 3.812899e-001 3.353585e-001
<GCONST> 1.149665e+002
<MIXTURE> 14 5.343637e-002
<MEAN> 39
 -1.378299e+001 -1.611149e-001 -1.054818e+000 -7.668493e+000 -5.732708e+000 -1.131194e+001 -6.644444e+000 -4.621007e+000 1.770833e+000 1.452010e+000 -1.469786e+000 -1.163621e+000 6.593496e+001 -1.546227e+000 1.472576e-001 -5.733373e-001 4.896075e-001 3.489063e-001 -3.766927e-001 1.174427e+000 -9.673964e-002 5.950693e-001 -5.796744e-001 2.631028e-001 2.818280e-001 -1.612245e-001 2.326985e-001 -2.425804e-001 4.976838e-003 -1.354249e-001 -3.038045e-001 1.886530e-001 -3.200386e-001 8.347713e-002 -2.999124e-001 7.401096e-002 3.845596e-002 -1.876241e-001 4.484807e-002
<VARIANCE> 39
 8.669822e+001 4.124542e+001 6.087148e+001 3.666470e+001 4.383749e+001 5.246202e+001 5.326306e+001 3.626954e+001 3.567300e+001 2.916357e+001 3.330437e+001 2.088136e+001 2.556813e+001 4.980802e+000 2.784020e+000 3.308678e+000 2.721409e+000 3.346895e+000 3.673053e+000 4.208617e+000 3.107805e+000 3.493217e+000 2.369587e+000 2.682484e+000 2.216360e+000 3.076218e+000 6.994942e-001 4.893491e-001 4.470229e-001 5.031248e-001 5.157490e-001 6.292743e-001 6.909558e-001 5.925850e-001 5.370524e-001 4.504107e-001 5.214888e-001 3.694604e-001 4.583510e-001
<GCONST> 1.261084e+002
<MIXTURE> 15 4.967024e-002
<MEAN> 39
 -2.662903e+000 -4.615616e+000 -9.969734e-001 -1.001846e+001 -1.017375e+001 -7.171704e+000 -1.625277e+001 -5.704100e+000 -2.695319e+000 4.188731e+000 -1.099365e+000 -5.151058e+000 6.763673e+001 2.106361e-001 -7.122733e-001 8.334967e-002 -1.004496e+000 -2.835181e-001 2.924629e-001 -9.963843e-001 3.976157e-001 -2.040813e-001 4.159511e-001 -2.123406e-001 -1.671435e-001 8.647422e-001 -4.134411e-001 5.644793e-002 -4.136588e-002 -2.301688e-003 1.242621e-001 -2.364962e-002 4.088570e-001 1.871967e-001 4.361495e-002 -1.322437e-001 -4.152292e-002 1.098038e-001 -6.581534e-002
<VARIANCE> 39
 1.513368e+001 3.059189e+001 5.272444e+001 6.010390e+001 4.390558e+001 6.667943e+001 6.074249e+001 6.033592e+001 6.386650e+001 3.808719e+001 4.364411e+001 3.100455e+001 3.546398e+001 3.312206e+000 2.879707e+000 4.314905e+000 5.886808e+000 5.499026e+000 6.134737e+000 5.641281e+000 5.797899e+000 5.651985e+000 3.804696e+000 4.019167e+000 3.340937e+000 2.136632e+000 3.868578e-001 4.976730e-001 5.345525e-001 9.577023e-001 7.726848e-001 8.482620e-001 1.030910e+000 9.989838e-001 9.336178e-001 6.777342e-001 6.728477e-001 5.576050e-001 6.178074e-001
<GCONST> 1.349313e+002
<MIXTURE> 16 3.257595e-002
<MEAN> 39
 -7.077824e+000 -1.971769e+000 5.897836e+000 -7.339753e+000 -1.337229e+001 -1.270755e+001 -1.399760e+001 -6.652453e+000 -4.999092e+000 4.566911e-001 -1.433973e+000 -5.739952e+000 6.869794e+001 1.671929e+000 -3.270783e-001 1.133523e+000 -1.087878e+000 -1.758835e+000 -2.170261e-001 -2.538912e+000 3.149263e-001 -1.522149e+000 4.719512e-001 2.505130e-001 -1.222336e+000 1.115900e+000 -4.106641e-001 -2.039874e-001 -5.166860e-001 -2.195404e-001 2.771665e-001 3.430005e-001 3.839740e-001 3.511895e-001 2.659761e-001 2.357482e-001 8.595168e-002 1.372571e-001 -1.707004e-001
<VARIANCE> 39
 2.539129e+001 3.313232e+001 8.185989e+001 3.466443e+001 5.111479e+001 4.157688e+001 5.598151e+001 4.229535e+001 6.675964e+001 2.925356e+001 4.760915e+001 3.428281e+001 1.760912e+001 4.795701e+000 2.939778e+000 4.598869e+000 3.532172e+000 4.801084e+000 4.511192e+000 6.350103e+000 4.978390e+000 5.389750e+000 2.824681e+000 4.101035e+000 3.634245e+000 1.516184e+000 5.083697e-001 4.701182e-001 5.845268e-001 5.371510e-001 7.242435e-001 5.553164e-001 9.944553e-001 7.400204e-001 9.008740e-001 5.036592e-001 6.460942e-001 5.607343e-001 3.242912e-001
<GCONST> 1.307019e+002
<TRANSP> 3
 0.000000e+000 1.000000e+000 0.000000e+000
 0.000000e+000 9.984397e-001 1.560251e-003
 0.000000e+000 0.000000e+000 0.000000e+000
<ENDHMM>
~h "PB"
<BEGINHMM>
<NUMSTATES> 3
<STATE> 2
<NUMMIXES> 16
<MIXTURE> 1 4.114969e-002
<MEAN> 39
 -1.019762e+001 2.819382e+000 -1.482108e+000 1.118939e+000 6.726183e-002 2.495901e+000 2.094725e+000 3.202092e+000 2.954932e+000 2.142039e+000 1.781889e+000 1.016281e+000 4.993787e+001 8.935536e-002 1.339377e-001 2.854015e-001 3.788059e-001 4.886194e-001 5.161964e-001 5.985758e-001 6.446793e-001 6.256958e-001 5.893161e-001 4.489457e-001 2.975689e-001 -2.701870e-002 -1.159799e-002 2.181328e-002 2.558700e-002 4.187428e-002 2.161116e-002 5.131258e-002 -6.735963e-003 -1.868097e-003 1.916277e-002 4.365950e-002 5.274303e-002 1.637992e-002 4.071417e-002
<VARIANCE> 39
 1.418935e+000 2.634893e+000 4.101469e+000 6.028180e+000 7.565246e+000 9.212129e+000 1.038735e+001 1.207148e+001 1.205838e+001 1.146156e+001 1.152522e+001 1.005709e+001 1.036293e+000 1.728605e-001 2.484477e-001 3.821599e-001 5.481136e-001 6.806774e-001 9.221662e-001 1.040267e+000 1.105025e+000 1.110059e+000 1.122483e+000 1.162123e+000 1.110499e+000 9.382379e-002 3.218673e-002 4.963525e-002 8.293358e-002 1.205018e-001 1.597259e-001 1.986367e-001 2.319615e-001 2.572319e-001 2.613943e-001 2.545410e-001 2.534769e-001 2.348334e-001 1.354341e-002
<GCONST> 6.092001e+001
<MIXTURE> 2 5.648031e-002
<MEAN> 39
 -8.403171e-001 1.066902e+000 9.036052e+000 -4.891201e+000 -1.499232e+001 -3.414359e+000 -1.223091e+001 1.811060e+000 -1.010442e+000 8.651550e-001 1.750851e+000 -6.128695e+000 6.973479e+001 -1.752747e-001 1.625686e+000 -4.320395e-001 1.524505e+000 1.345221e+000 -3.836884e-001 1.496026e+000 -2.566988e-001 5.005654e-001 4.574149e-001 -4.405639e-001 9.133022e-001 -1.494323e+000 -4.244709e-001 3.144697e-001 -4.087077e-001 2.801305e-001 6.627295e-001 1.776822e-001 5.567856e-001 -1.182432e-001 1.732593e-001 -7.848398e-002 -9.812941e-002 2.114920e-001 -4.328992e-001
<VARIANCE> 39
 1.875190e+001 4.983783e+001 7.636588e+001 3.894164e+001 7.277046e+001 6.001729e+001 4.949478e+001 4.505237e+001 5.116184e+001 3.502237e+001 3.183054e+001 3.031975e+001 1.760709e+001 1.642171e+000 3.542305e+000 3.049727e+000 3.272762e+000 4.455595e+000 3.613313e+000 4.240754e+000 3.104541e+000 3.320078e+000 2.590812e+000 2.626841e+000 2.647263e+000 1.865993e+000 4.128141e-001 6.430489e-001 5.593828e-001 6.374928e-001 8.920178e-001 6.771882e-001 8.653708e-001 6.444371e-001 6.837851e-001 5.472854e-001 5.186221e-001 5.721056e-001 3.933772e-001
<GCONST> 1.273946e+002
<MIXTURE> 3 5.027866e-002
<MEAN> 39
 -1.255516e+001 5.695990e+000 -9.208643e-001 1.554190e+000 -2.756109e+000 1.242122e-001 -1.249781e+000 9.556645e-001 1.899013e+000 1.583666e+000 1.919565e+000 -2.385518e-001 5.726482e+001 -3.000871e-001 9.006067e-003 -1.218032e-001 3.605920e-001 3.942533e-001 3.797315e-001 5.167053e-001 3.278052e-001 3.749126e-001 2.354541e-001 2.802041e-001 2.797264e-001 -3.114058e-001 2.254533e-001 -8.312745e-002 1.956829e-001 -9.804820e-002 -1.629859e-002 -2.825271e-002 5.850766e-003 1.367687e-001 6.025678e-002 6.174327e-002 -4.799104e-003 6.553760e-003 1.602936e-001
<VARIANCE> 39
 5.853170e+001 2.802020e+001 3.469407e+001 2.120500e+001 2.918793e+001 3.995898e+001 2.645244e+001 2.521341e+001 2.177004e+001 1.949552e+001 1.966947e+001 1.838361e+001 3.310274e+001 1.855357e+000 1.240022e+000 1.297609e+000 1.330273e+000 1.485528e+000 1.873743e+000 1.744690e+000 1.771021e+000 1.732282e+000 1.541892e+000 1.579362e+000 1.391354e+000 1.375379e+000 4.076777e-001 2.445038e-001 2.627269e-001 2.706348e-001 3.287438e-001 4.018276e-001 3.991717e-001 3.734894e-001 3.726210e-001 3.374356e-001 3.278052e-001 3.036267e-001 3.594576e-001
<GCONST> 1.060243e+002
<MIXTURE> 4 7.846806e-002
<MEAN> 39
 -1.287260e+001 6.264273e+000 1.302009e+000 3.867288e-001 -4.259233e+000 -3.335955e+000 -2.568983e+000 1.514521e+000 1.937279e+000 1.619608e+000 8.905633e-001 3.161398e-001 6.368229e+001 -7.594276e-001 -5.458436e-002 -7.498677e-002 2.516606e-002 3.572150e-001 9.203812e-002 3.904196e-001 3.556686e-001 2.039072e-001 1.861147e-001 2.263401e-001 4.041080e-001 5.596357e-001 5.623978e-001 -1.485041e-001 3.853405e-001 -2.617274e-001 -4.306920e-001 1.250854e-001 -4.352707e-001 -5.128306e-002 -1.170977e-001 -5.966691e-002 6.808705e-002 -3.563577e-001 1.219743e-001
<VARIANCE> 39
 7.884844e+001 4.745240e+001 5.596862e+001 3.963220e+001 4.464779e+001 4.775560e+001 4.172648e+001 4.076039e+001 3.308280e+001 2.809825e+001 2.402864e+001 2.278129e+001 2.908057e+001 7.712343e+000 3.888918e+000 4.793256e+000 4.000017e+000 4.932061e+000 4.229674e+000 4.513504e+000 3.899454e+000 3.470606e+000 2.882368e+000 2.507530e+000 2.649536e+000 4.011152e+000 9.456206e-001 7.191959e-001 6.645491e-001 7.397454e-001 7.607139e-001 7.671314e-001 7.726905e-001 7.292239e-001 6.447416e-001 5.796902e-001 5.160599e-001 4.655187e-001 6.777433e-001
<GCONST> 1.320614e+002
<MIXTURE> 5 1.033624e-001
<MEAN> 39
 5.581835e-001 -2.073729e+000 5.192037e+000 -8.792704e+000 -1.225465e+001 1.760298e+000 -1.301166e+001 1.199283e+000 4.065374e-001 -9.760260e-001 2.368157e+000 -9.167324e+000 7.135001e+001 1.215881e-001 1.287474e-001 7.452612e-002 1.080769e-001 1.090285e-001 1.308047e-001 2.405016e-002 -3.607988e-002 3.604818e-002 1.583181e-001 1.787942e-001 6.692950e-002 -1.729925e-001 -1.274407e-001 3.669109e-001 -5.111664e-002 4.397669e-001 2.543329e-001 -2.032697e-001 3.347273e-001 -8.789510e-002 1.225743e-002 1.358415e-001 -1.373112e-001 3.112199e-001 -3.670556e-001
<VARIANCE> 39
 1.415268e+001 6.456523e+001 7.257093e+001 4.287294e+001 6.525095e+001 5.475354e+001 3.607952e+001 5.765853e+001 4.775833e+001 3.973946e+001 3.929679e+001 3.259382e+001 1.880511e+001 6.237360e-001 2.679761e+000 2.047580e+000 3.054587e+000 2.898125e+000 2.833310e+000 2.698280e+000 3.751739e+000 2.557128e+000 2.491850e+000 2.426323e+000 2.564338e+000 1.320994e+000 1.597858e-001 4.250884e-001 3.671305e-001 5.019319e-001 5.541856e-001 4.767192e-001 5.196800e-001 7.537000e-001 5.214943e-001 4.610195e-001 4.927207e-001 4.848829e-001 2.319826e-001
<GCONST> 1.197553e+002
<MIXTURE> 6 5.000653e-002
<MEAN> 39
 -3.150342e+000 3.463311e+000 5.754625e+000 -2.623624e+000 -1.003126e+001 -2.416194e+000 -8.890834e+000 -2.415030e-001 -3.863358e-001 5.136158e-001 2.718642e-001 -4.250355e+000 6.666256e+001 1.508061e+000 -1.274002e+000 1.380718e+000 -1.627745e+000 -2.164444e+000 1.409969e-001 -2.024579e+000 4.012362e-001 -2.718444e-001 -2.484253e-002 5.363145e-001 -1.034461e+000 1.932710e+000 -2.273549e-001 -1.091233e-001 -6.644429e-002 -1.126276e-001 4.601975e-002 2.525285e-001 8.597999e-002 1.655732e-001 1.124671e-001 2.472386e-002 2.290463e-001 -3.762436e-002 -8.367069e-002
<VARIANCE> 39
 3.748245e+001 4.170195e+001 6.603239e+001 4.324643e+001 6.101636e+001 4.686963e+001 4.586586e+001 3.839241e+001 3.863773e+001 2.894755e+001 2.700514e+001 2.654938e+001 2.858704e+001 5.705168e+000 4.722697e+000 5.292724e+000 3.980492e+000 6.104692e+000 5.066401e+000 4.869592e+000 5.995625e+000 4.393782e+000 3.471993e+000 3.724427e+000 3.910999e+000 2.374704e+000 6.652078e-001 6.162490e-001 6.828609e-001 7.508109e-001 1.046042e+000 6.828129e-001 9.291161e-001 7.549123e-001 6.532268e-001 5.931417e-001 5.599648e-001 6.255767e-001 5.605131e-001
<GCONST> 1.339572e+002
<MIXTURE> 7 7.947250e-002
<MEAN> 39
 -1.009686e+001 2.822542e+000 -1.369734e+000 1.035498e+000 7.471257e-002 2.478579e+000 2.273278e+000 3.283966e+000 3.014217e+000 2.370630e+000 1.867250e+000 9.893156e-001 4.974143e+001 4.191728e-002 2.083565e-002 -5.112515e-004 -3.784157e-002 -6.417550e-002 -6.946974e-002 -9.702826e-002 -1.112562e-001 -1.152863e-001 -7.231621e-002 -2.394038e-002 3.634651e-002 6.136106e-003 -1.001991e-002 1.058504e-002 7.026297e-003 3.541986e-002 2.157237e-002 4.615861e-002 1.145713e-002 2.910864e-002 2.949695e-002 1.817170e-002 2.626747e-002 2.111035e-002 3.410268e-002
<VARIANCE> 39
 1.017392e+000 1.945269e+000 3.447089e+000 5.189392e+000 6.511520e+000 8.308017e+000 9.610478e+000 1.023115e+001 1.011673e+001 1.051998e+001 1.025570e+001 9.319529e+000 5.998597e-001 1.421397e-001 2.168469e-001 3.566670e-001 5.338421e-001 6.782605e-001 8.774741e-001 9.539872e-001 1.058817e+000 1.043916e+000 1.122319e+000 1.139605e+000 1.044601e+000 6.558593e-002 2.487658e-002 4.268704e-002 7.196513e-002 1.106165e-001 1.454594e-001 1.847941e-001 2.107120e-001 2.352289e-001 2.315028e-001 2.446263e-001 2.323141e-001 2.101084e-001 1.088257e-002
<GCONST> 5.578738e+001
<MIXTURE> 8 4.782899e-002
<MEAN> 39
 -3.547796e-001 4.399092e+000 2.970978e+000 -2.040332e+000 -5.591038e+000 3.370721e-001 -6.084147e+000 -6.383067e-001 8.542436e-001 -4.434903e-001 -6.988372e-001 -6.293471e+000 6.236993e+001 -3.267815e-001 4.340654e-001 -2.880538e-001 4.886828e-001 5.682582e-001 7.122260e-002 5.812183e-001 -8.172707e-002 5.569662e-003 3.034221e-002 -6.451292e-002 3.857597e-001 -7.357503e-001 -1.306278e-001 -3.210006e-001 7.774667e-002 -3.049620e-001 -2.713328e-001 -2.985986e-002 -2.876875e-001 1.819723e-001 -7.427022e-003 8.785242e-002 2.030329e-001 7.239852e-002 4.552844e-001
<VARIANCE> 39
 2.074380e+001 5.626096e+001 3.608416e+001 3.757303e+001 3.795195e+001 3.234276e+001 2.699382e+001 3.648278e+001 3.168357e+001 2.749307e+001 2.841737e+001 2.770550e+001 4.153069e+001 9.961240e-001 1.448905e+000 1.298444e+000 1.742695e+000 1.624537e+000 1.653678e+000 1.852854e+000 1.587827e+000 1.513999e+000 1.561797e+000 1.380207e+000 1.434110e+000 1.584712e+000 1.610590e-001 3.087047e-001 2.253347e-001 3.074697e-001 3.052737e-001 2.872739e-001 3.426034e-001 3.490482e-001 3.331202e-001 3.142100e-001 2.939291e-001 2.818166e-001 2.790508e-001
<GCONST> 1.061235e+002
<MIXTURE> 9 9.847663e-002
<MEAN> 39
 8.605448e-002 -2.002343e+000 5.759660e+000 -9.117278e+000 -1.355360e+001 2.153071e+000 -1.402956e+001 3.893214e-001 -3.459664e-001 -1.803800e+000 2.160852e+000 -1.003222e+001 7.130625e+001 6.802824e-003 -1.444178e-001 2.287324e-002 -1.595323e-001 -5.554729e-002 1.444596e-001 -1.750516e-001 6.653300e-002 -1.861345e-002 -1.764214e-001 4.549362e-003 -3.335983e-001 1.006897e-001 -1.209633e-001 2.768133e-001 -9.151582e-002 3.704572e-001 2.268852e-001 -2.624364e-001 3.030898e-001 -2.236483e-002 1.251734e-002 8.512347e-002 -1.554405e-001 2.542515e-001 -2.698484e-001
<VARIANCE> 39
 1.657703e+001 6.902786e+001 8.675580e+001 4.256894e+001 6.671795e+001 5.545533e+001 3.659050e+001 5.933258e+001 4.886739e+001 4.309464e+001 3.786049e+001 3.240833e+001 1.916572e+001 6.591405e-001 2.600365e+000 2.085341e+000 2.873550e+000 2.944733e+000 2.869896e+000 2.634713e+000 3.848743e+000 2.595541e+000 2.452302e+000 2.397947e+000 2.575154e+000 1.299355e+000 1.625551e-001 4.122010e-001 3.886281e-001 4.971639e-001 5.684773e-001 4.817220e-001 5.094410e-001 7.946843e-001 5.035279e-001 4.509974e-001 4.818198e-001 4.721687e-001 2.308902e-001
<GCONST> 1.202890e+002
<MIXTURE> 10 6.145218e-002
<MEAN> 39
 -1.026962e+001 2.536910e+000 -1.767714e+000 6.121247e-001 -4.562282e-001 2.045120e+000 1.810406e+000 2.799270e+000 2.471846e+000 1.859465e+000 1.405392e+000 6.035853e-001 4.966960e+001 -5.483676e-002 -1.306488e-001 -2.350131e-001 -3.346992e-001 -3.931547e-001 -4.033001e-001 -4.331757e-001 -4.835803e-001 -4.905575e-001 -4.361293e-001 -3.630941e-001 -2.126879e-001 -3.726444e-002 -2.753302e-002 -1.649148e-002 -3.169090e-002 -1.635604e-002 -1.762872e-002 -1.436567e-002 -4.539753e-002 -4.189668e-002 -4.327361e-002 -4.886595e-002 -3.083434e-002 -2.212706e-002 2.296376e-002
<VARIANCE> 39
 1.010512e+000 1.918062e+000 3.362256e+000 5.028439e+000 6.336740e+000 8.127320e+000 9.434391e+000 1.018463e+001 9.829731e+000 1.041951e+001 1.051703e+001 9.062573e+000 5.772448e-001 1.390589e-001 2.189726e-001 3.646296e-001 5.521501e-001 6.929481e-001 8.684424e-001 9.497140e-001 1.053636e+000 1.053754e+000 1.134144e+000 1.125241e+000 1.053757e+000 6.688710e-002 2.397833e-002 4.320904e-002 7.575451e-002 1.133950e-001 1.480218e-001 1.867989e-001 2.132370e-001 2.318768e-001 2.298594e-001 2.495522e-001 2.349330e-001 2.110786e-001 1.003115e-002
<GCONST> 5.566358e+001
<MIXTURE> 11 5.599229e-002
<MEAN> 39
 -1.214839e+000 1.299324e+000 9.494192e+000 -5.190518e+000 -1.563463e+001 -2.803299e+000 -1.269678e+001 1.337291e+000 -1.586545e+000 5.446366e-001 1.825400e+000 -6.831325e+000 6.908427e+001 -1.904902e-001 1.279845e+000 -5.680295e-001 1.281443e+000 1.134762e+000 -4.676211e-001 1.184986e+000 -5.097312e-001 2.939087e-001 2.568646e-001 -4.799083e-001 6.756974e-001 -1.427813e+000 -3.226694e-001 1.626735e-001 -4.529801e-001 1.979571e-001 5.692357e-001 1.044342e-001 4.136880e-001 -1.746945e-001 1.262841e-001 -1.476492e-001 -1.485740e-001 1.213274e-001 -3.345884e-001
<VARIANCE> 39
 1.963956e+001 5.229108e+001 7.957153e+001 3.763145e+001 7.237627e+001 5.986243e+001 4.955687e+001 4.731686e+001 5.310031e+001 3.777544e+001 3.234752e+001 3.063269e+001 2.016500e+001 1.662457e+000 3.723515e+000 3.348255e+000 3.376294e+000 4.895117e+000 3.661943e+000 4.299506e+000 3.383230e+000 3.541849e+000 2.623757e+000 2.782915e+000 2.912590e+000 2.401942e+000 3.700698e-001 6.628272e-001 5.842612e-001 6.325803e-001 9.398444e-001 6.848279e-001 9.147105e-001 7.048942e-001 7.330486e-001 5.593215e-001 5.360923e-001 5.860013e-001 4.014507e-001
<GCONST> 1.290240e+002
<MIXTURE> 12 7.601432e-002
<MEAN> 39
 -1.121170e+001 5.988276e+000 1.913668e+000 2.867585e-002 -4.843070e+000 -2.990535e+000 -3.361862e+000 7.144413e-001 1.319928e+000 1.107330e+000 3.960790e-001 -6.114032e-001 6.306037e+001 -3.656223e-001 -4.180927e-001 -2.171474e-001 -3.996358e-001 -6.948865e-002 -2.375265e-001 -2.358341e-001 -1.145678e-001 -3.614691e-001 -2.624597e-001 -2.599859e-001 -5.850420e-002 7.117291e-001 5.654108e-001 -2.801396e-001 3.278558e-001 -4.221942e-001 -6.605957e-001 5.468958e-002 -6.446413e-001 -6.923803e-002 -2.022659e-001 -1.388775e-001 6.566752e-002 -4.887336e-001 3.601118e-001
<VARIANCE> 39
 7.910957e+001 4.141271e+001 5.593813e+001 3.763985e+001 4.300568e+001 4.353348e+001 3.888621e+001 3.737688e+001 3.262639e+001 2.739544e+001 2.331632e+001 2.305210e+001 2.975399e+001 8.454344e+000 3.668201e+000 5.253384e+000 3.968204e+000 5.289747e+000 4.084887e+000 4.572560e+000 3.820309e+000 3.483387e+000 2.921488e+000 2.595815e+000 2.992970e+000 4.223058e+000 8.811283e-001 7.068275e-001 6.723755e-001 7.352139e-001 7.539644e-001 7.253863e-001 7.709864e-001 7.290846e-001 6.397660e-001 5.901847e-001 5.356808e-001 4.923979e-001 6.267599e-001
<GCONST> 1.318003e+002
<MIXTURE> 13 4.771785e-002
<MEAN> 39
 -3.217812e+000 3.591513e+000 5.849505e+000 -3.078162e+000 -1.094025e+001 -2.845840e+000 -9.543742e+000 -6.394423e-001 -8.112754e-001 -3.761637e-001 -4.255092e-001 -5.175444e+000 6.712923e+001 1.846382e+000 -1.454160e+000 1.386706e+000 -1.916675e+000 -2.631538e+000 9.444387e-002 -2.549218e+000 1.369962e-001 -5.553675e-001 -5.863709e-001 3.440230e-001 -1.715300e+000 2.038529e+000 -2.379048e-001 -2.284399e-001 -1.378800e-001 -1.577048e-001 1.048434e-002 2.334544e-001 1.150417e-002 1.551950e-001 8.840147e-002 -1.160275e-002 2.333512e-001 -8.266694e-002 -3.104806e-002
<VARIANCE> 39
 3.747941e+001 4.427503e+001 6.953465e+001 4.180614e+001 6.031750e+001 4.531351e+001 4.580005e+001 3.822537e+001 3.983453e+001 2.975956e+001 2.817261e+001 2.736477e+001 2.649354e+001 5.552648e+000 4.718542e+000 5.560212e+000 3.834400e+000 6.137256e+000 4.872498e+000 4.809112e+000 5.706974e+000 4.504344e+000 3.661002e+000 3.898341e+000 4.241360e+000 2.179573e+000 6.288832e-001 5.768292e-001 6.784784e-001 7.012327e-001 1.080025e+000 6.474755e-001 9.187872e-001 7.124239e-001 6.266071e-001 5.637048e-001 5.491022e-001 6.372933e-001 5.292754e-001
<GCONST> 1.336074e+002
<MIXTURE> 14 6.072351e-002
<MEAN> 39
 -1.042484e+001 2.446827e+000 -1.942261e+000 6.476154e-001 -5.069330e-001 2.018768e+000 1.554239e+000 2.559010e+000 2.321656e+000 1.573171e+000 1.383401e+000 4.496632e-001 4.989271e+001 1.999099e-003 -1.741027e-002 5.616734e-002 9.499495e-002 1.651288e-001 1.518785e-001 2.300628e-001 2.626179e-001 2.182921e-001 1.835342e-001 3.338693e-002 -9.564505e-003 -7.890819e-002 -2.909315e-002 -8.712673e-003 -1.926183e-002 -1.554161e-002 -3.462322e-002 -5.845581e-004 -5.215404e-002 -5.301107e-002 -3.989374e-002 -2.560963e-002 -2.115129e-002 -2.879688e-002 2.454610e-002
<VARIANCE> 39
 1.458583e+000 2.480033e+000 3.872874e+000 5.703233e+000 7.182235e+000 9.022512e+000 1.007246e+001 1.140719e+001 1.126088e+001 1.138070e+001 1.181900e+001 9.968196e+000 1.064785e+000 1.768890e-001 2.392205e-001 3.665255e-001 5.321180e-001 6.641704e-001 8.726426e-001 9.909788e-001 1.096863e+000 1.076036e+000 1.100660e+000 1.141045e+000 1.060247e+000 9.258473e-002 3.175243e-002 4.955617e-002 8.165777e-002 1.218809e-001 1.594522e-001 1.890135e-001 2.259740e-001 2.494156e-001 2.618985e-001 2.592336e-001 2.552554e-001 2.269384e-001 1.283640e-002
<GCONST> 6.004312e+001
<MIXTURE> 15 5.728414e-002
<MEAN> 39
 -1.044925e+001 5.685972e+000 -2.226765e-002 1.034568e+000 -3.401211e+000 -8.297583e-002 -2.020185e+000 2.457431e-001 1.326045e+000 1.111454e+000 1.586624e+000 -8.168710e-001 5.687342e+001 -4.208835e-001 -2.329741e-001 -4.249214e-001 3.928571e-002 8.398973e-002 1.417571e-002 1.001786e-001 -1.418371e-001 -1.104371e-001 -2.173422e-001 -1.276520e-001 2.387458e-003 -4.626036e-001 1.431808e-001 -1.561667e-001 8.643901e-002 -2.131854e-001 -1.537103e-001 -1.122168e-001 -1.474075e-001 6.458706e-002 -6.124099e-002 -2.375785e-002 -8.742335e-002 -9.120622e-002 3.367150e-001
<VARIANCE> 39
 6.089954e+001 2.376753e+001 3.449631e+001 1.937379e+001 2.980301e+001 3.664950e+001 2.619506e+001 2.562130e+001 2.273844e+001 1.882854e+001 1.905035e+001 1.847838e+001 2.933447e+001 1.935723e+000 1.216222e+000 1.402993e+000 1.364818e+000 1.507173e+000 1.915373e+000 1.786164e+000 1.764427e+000 1.740685e+000 1.599444e+000 1.521990e+000 1.448334e+000 1.624397e+000 3.990571e-001 2.611869e-001 2.637129e-001 2.957149e-001 3.410707e-001 3.966110e-001 4.115469e-001 3.720882e-001 3.742783e-001 3.424683e-001 3.262144e-001 3.022341e-001 3.975562e-001
<GCONST> 1.062970e+002
<MIXTURE> 16 3.526820e-002
<MEAN> 39
 -5.714301e-001 3.878901e+000 2.981077e+000 -2.179307e+000 -6.431563e+000 -2.834112e-001 -6.462371e+000 -8.987454e-001 5.815936e-001 -5.486578e-001 -5.616074e-001 -6.180898e+000 6.222343e+001 -5.096231e-001 2.085199e-002 -6.465753e-001 1.816588e-001 3.699287e-001 -1.287747e-001 2.796547e-001 -4.018259e-001 -2.100678e-001 -2.359705e-001 -2.224947e-001 2.750424e-001 -9.772646e-001 -1.591178e-001 -4.111476e-001 1.324570e-002 -3.964550e-001 -3.721813e-001 -6.093499e-002 -3.814161e-001 1.588413e-001 -5.559421e-002 1.037728e-003 1.435147e-001 -6.352188e-002 5.651177e-001
<VARIANCE> 39
 1.757262e+001 5.589481e+001 4.060356e+001 3.628757e+001 3.716717e+001 3.397278e+001 2.626796e+001 3.748980e+001 3.398822e+001 2.989490e+001 2.753289e+001 3.022831e+001 4.316268e+001 1.141994e+000 1.442992e+000 1.541855e+000 1.714525e+000 1.750487e+000 1.804803e+000 1.786264e+000 1.610275e+000 1.577979e+000 1.676366e+000 1.377223e+000 1.571083e+000 2.215047e+000 1.595801e-001 3.252204e-001 2.398023e-001 3.051472e-001 3.240582e-001 2.934824e-001 3.276226e-001 3.555453e-001 3.530666e-001 3.375649e-001 2.928602e-001 3.013909e-001 2.732755e-001
<GCONST> 1.075991e+002
<TRANSP> 3
 0.000000e+000 1.000000e+000 0.000000e+000
 0.000000e+000 9.985553e-001 1.444716e-003
 0.000000e+000 0.000000e+000 0.000000e+000
<ENDHMM>
~h "TOMAS"
<BEGINHMM>
<NUMSTATES> 3
<STATE> 2
<NUMMIXES> 16
<MIXTURE> 1 4.816527e-002
<MEAN> 39
 -1.019039e+001 2.084501e+000 1.488189e+000 1.973649e+000 3.856470e+000 1.545380e+000 5.822315e+000 5.853884e+000 5.830608e+000 4.097574e+000 4.453972e+000 3.512128e+000 5.044605e+001 1.791216e-002 3.616736e-002 9.602701e-002 2.269799e-001 2.544922e-001 4.010850e-001 4.287206e-001 3.582854e-001 5.556732e-001 4.531548e-001 4.115706e-001 2.405704e-001 -9.628271e-002 -5.473160e-003 2.559181e-002 3.008585e-002 2.483262e-002 2.776791e-002 1.687216e-002 2.002225e-002 1.910610e-002 1.192363e-002 3.499306e-002 1.981001e-002 7.589277e-003 3.714562e-002
<VARIANCE> 39
 1.379465e+000 3.828347e+000 4.004824e+000 6.488996e+000 7.832950e+000 1.255857e+001 1.110696e+001 1.297609e+001 1.409096e+001 1.361983e+001 1.119016e+001 1.110167e+001 1.705591e+000 1.100994e-001 2.313272e-001 3.285858e-001 5.353670e-001 7.086495e-001 9.228665e-001 1.057893e+000 1.076289e+000 1.217054e+000 1.089580e+000 9.805545e-001 1.017424e+000 5.708224e-002 2.507756e-002 4.577173e-002 7.054381e-002 1.079413e-001 1.492720e-001 1.818525e-001 2.074282e-001 2.235465e-001 2.474710e-001 2.305552e-001 2.210446e-001 2.173261e-001 1.268319e-002
<GCONST> 5.989297e+001
<MIXTURE> 2 5.381724e-002
<MEAN> 39
 -2.607030e-001 3.921396e+000 6.130590e+000 -5.951560e+000 -2.944468e+000 -1.075873e+000 -4.834587e+000 -3.468858e+000 -1.318571e+000 2.477276e+000 4.539519e-001 1.993615e+000 6.742000e+001 -3.404014e-001 1.092887e+000 -4.183511e-001 9.135232e-001 1.407868e+000 -6.840422e-001 8.541785e-001 -1.831430e-001 7.226923e-001 1.876741e-001 2.472712e-001 2.934379e-001 -9.575607e-001 -2.297740e-001 5.565219e-002 -3.580285e-002 3.251774e-001 8.647367e-002 -1.118989e-001 1.796730e-001 1.358168e-001 1.414015e-001 -7.166772e-002 1.922239e-001 -1.354452e-003 -1.568105e-001
<VARIANCE> 39
 2.494854e+001 3.317465e+001 5.089670e+001 9.138367e+001 5.390255e+001 7.022173e+001 4.571670e+001 4.984852e+001 5.415707e+001 4.972737e+001 4.332104e+001 2.809379e+001 1.961109e+001 1.836440e+000 2.012954e+000 2.004885e+000 4.401156e+000 3.789292e+000 4.366573e+000 3.531465e+000 3.351727e+000 3.758526e+000 2.629564e+000 3.214370e+000 2.203829e+000 1.838536e+000 2.877800e-001 3.218017e-001 3.415268e-001 6.602982e-001 6.321776e-001 8.200091e-001 5.509205e-001 6.079859e-001 6.665518e-001 5.358534e-001 4.993397e-001 4.327135e-001 2.327585e-001
<GCONST> 1.247705e+002
<MIXTURE> 3 6.670724e-002
<MEAN> 39
 -4.922820e+000 6.857196e+000 4.096373e+000 -2.605874e+000 2.537078e+000 -3.442127e+000 -1.153209e+000 -5.152265e-001 -1.779639e-001 1.033963e+000 7.564004e-002 2.885420e+000 6.255846e+001 -8.219375e-002 2.330913e-001 1.241836e-001 4.988562e-001 5.976491e-001 1.787719e-001 4.192454e-001 2.337954e-001 2.745647e-001 1.923837e-001 1.489232e-001 1.418990e-001 -6.630414e-001 1.760551e-002 -1.370079e-001 1.020161e-001 8.335563e-002 -1.477152e-001 1.150684e-001 4.478407e-002 -6.502722e-003 8.346378e-002 7.492948e-002 1.497094e-001 1.169280e-002 3.419625e-002
<VARIANCE> 39
 8.712635e+001 3.985956e+001 4.335194e+001 6.771425e+001 3.547958e+001 5.602702e+001 3.482565e+001 3.750529e+001 2.764655e+001 3.027771e+001 2.845022e+001 2.318187e+001 3.476846e+001 7.700576e-001 1.067919e+000 9.690045e-001 1.541342e+000 1.619261e+000 1.945991e+000 1.608511e+000 1.725839e+000 1.716832e+000 1.741437e+000 1.534931e+000 1.409005e+000 6.834681e-001 1.607671e-001 1.748531e-001 1.761272e-001 2.618211e-001 2.878907e-001 3.530645e-001 3.015967e-001 3.208581e-001 2.980690e-001 2.915697e-001 2.795912e-001 2.579452e-001 1.168705e-001
<GCONST> 1.047257e+002
<MIXTURE> 4 8.002441e-002
<MEAN> 39
 -1.224270e+001 6.455934e+000 3.550855e+000 6.412480e-001 2.251693e+000 -7.555719e+000 1.064149e+000 -1.390539e+000 2.256083e+000 1.091637e-001 2.457530e+000 3.858436e+000 6.394883e+001 -3.113014e-001 -5.955617e-002 1.629993e-001 -2.848650e-002 -6.036004e-002 3.858427e-002 1.066498e-001 2.475805e-001 1.733271e-001 5.681841e-002 5.883365e-002 1.708989e-001 4.982956e-001 4.982467e-001 -7.597582e-002 2.882052e-001 -1.332355e-001 -3.298875e-001 3.183199e-001 -3.370990e-001 -2.152664e-002 -1.831832e-001 1.421353e-001 5.817313e-003 -1.251551e-001 -1.328375e-002
<VARIANCE> 39
 7.597743e+001 4.829110e+001 5.445420e+001 4.003027e+001 3.853982e+001 4.390914e+001 3.639380e+001 4.413609e+001 4.031812e+001 3.029236e+001 2.279238e+001 1.881826e+001 2.816247e+001 6.668386e+000 2.995414e+000 3.701022e+000 3.154939e+000 3.803871e+000 4.026428e+000 3.452737e+000 3.229302e+000 3.458154e+000 2.635362e+000 2.297646e+000 2.089587e+000 2.722215e+000 6.329250e-001 5.194975e-001 5.279337e-001 6.113997e-001 6.163092e-001 7.262635e-001 6.434011e-001 6.559244e-001 6.053453e-001 5.194040e-001 4.455980e-001 3.993819e-001 4.203578e-001
<GCONST> 1.266073e+002
<MIXTURE> 5 8.005185e-002
<MEAN> 39
 -1.534079e-002 1.040815e+000 1.104083e+001 -3.604576e+000 -9.991978e+000 -1.548102e+000 -8.115231e+000 -1.034137e+000 -3.941481e+000 9.384682e-001 2.695270e+000 3.797882e-001 6.963203e+001 2.076080e-001 1.986906e-001 -7.724065e-002 -9.616853e-002 4.260476e-001 2.322449e-001 9.268413e-002 1.619412e-001 3.934386e-004 3.270467e-001 8.201814e-002 2.149922e-002 -2.800147e-001 -2.248940e-001 3.837131e-001 -3.042859e-001 3.196698e-001 7.011858e-001 -3.206593e-001 4.741172e-001 -1.623263e-001 3.428735e-001 -3.655270e-002 -8.206271e-002 1.262766e-001 -4.075983e-001
<VARIANCE> 39
 1.577757e+001 3.457638e+001 8.383555e+001 6.278442e+001 5.418288e+001 6.008482e+001 4.398452e+001 5.455091e+001 6.194477e+001 4.825382e+001 4.478040e+001 2.494349e+001 1.954096e+001 9.168725e-001 1.990506e+000 2.244665e+000 3.152500e+000 4.247318e+000 3.907775e+000 3.009468e+000 3.434020e+000 3.600367e+000 2.227726e+000 2.385386e+000 1.848099e+000 1.339892e+000 2.381110e-001 3.247375e-001 4.607718e-001 4.705851e-001 7.319400e-001 6.832192e-001 6.017565e-001 6.391848e-001 6.854401e-001 4.793382e-001 4.692031e-001 3.941616e-001 2.037592e-001
<GCONST> 1.218450e+002
<MIXTURE> 6 5.789834e-002
<MEAN> 39
 -5.021143e+000 4.528342e+000 6.621314e+000 3.274536e-001 -1.838082e+000 -4.812678e+000 -1.977064e+000 -2.769418e+000 8.308386e-001 2.720135e-001 2.067639e+000 1.933699e+000 6.330337e+001 7.458568e-001 -7.817968e-001 8.706159e-001 -9.551502e-001 -1.625298e+000 5.004816e-001 -9.770563e-001 9.527569e-002 -6.718016e-001 3.394634e-002 -3.880026e-002 -7.562879e-002 1.785699e+000 -1.503139e-002 -5.542187e-002 2.928646e-002 -2.051789e-001 -7.122208e-002 1.983504e-001 -1.118435e-001 1.927505e-001 -9.069119e-002 1.489305e-001 8.789273e-002 3.958593e-002 8.034403e-002
<VARIANCE> 39
 4.297842e+001 2.897083e+001 5.660733e+001 4.527008e+001 5.129056e+001 4.206925e+001 4.470457e+001 3.877495e+001 4.112291e+001 3.232666e+001 2.511593e+001 1.779744e+001 4.481219e+001 6.669908e+000 3.201726e+000 5.455776e+000 4.854620e+000 5.404614e+000 5.994381e+000 5.671782e+000 4.399475e+000 4.592552e+000 4.086950e+000 2.877055e+000 2.470252e+000 2.393970e+000 6.134912e-001 4.247510e-001 5.863466e-001 5.904912e-001 8.359248e-001 7.444371e-001 7.874417e-001 5.941392e-001 6.310894e-001 5.426521e-001 4.698247e-001 4.039364e-001 5.997763e-001
<GCONST> 1.308003e+002
<MIXTURE> 7 5.135277e-002
<MEAN> 39
 -1.047798e+001 1.799706e+000 2.768407e+000 2.724461e+000 3.662023e+000 -1.675371e+000 5.185170e+000 4.042518e+000 3.536439e+000 2.090083e+000 4.090792e+000 3.498136e+000 5.224527e+001 -2.145424e-002 3.463028e-002 5.465347e-002 1.016417e-001 4.206064e-002 1.118894e-001 1.203871e-001 -1.951009e-002 -2.314457e-002 -4.049947e-002 1.413686e-002 -5.186932e-003 -6.840294e-002 1.798827e-002 5.799974e-002 -1.691068e-002 -3.844391e-002 6.889079e-003 2.154454e-002 -2.192207e-003 7.700378e-002 3.593537e-002 9.110503e-002 -6.460180e-003 4.746377e-003 6.170220e-002
<VARIANCE> 39
 3.447018e+000 6.503172e+000 5.810415e+000 7.540913e+000 9.380815e+000 2.435067e+001 1.385426e+001 2.054395e+001 2.185828e+001 1.841195e+001 1.372229e+001 1.371897e+001 5.161091e+000 2.087589e-001 3.227743e-001 4.225049e-001 6.671089e-001 8.067165e-001 1.087069e+000 1.167432e+000 1.253331e+000 1.240054e+000 1.261350e+000 1.274485e+000 1.147577e+000 1.048330e-001 4.036831e-002 5.931963e-002 9.127822e-002 1.353892e-001 1.636526e-001 2.193288e-001 2.415244e-001 2.732825e-001 2.875892e-001 2.943808e-001 2.582164e-001 2.381599e-001 3.194601e-002
<GCONST> 7.220887e+001
<MIXTURE> 8 6.186035e-002
<MEAN> 39
 -2.626381e+000 6.106182e+000 5.290084e+000 -5.792477e-001 8.105087e-001 -2.595742e+000 -1.448931e+000 -1.579372e+000 1.097568e+000 2.342671e+000 2.534221e+000 1.794703e+000 6.010683e+001 -2.210984e-001 8.299508e-002 -1.339101e-001 2.880940e-001 2.453469e-001 7.422371e-002 3.893200e-001 1.172855e-001 1.970689e-001 7.913651e-002 2.167933e-001 2.073482e-001 -4.685973e-001 -1.329288e-001 -1.671505e-001 8.479916e-002 -1.651513e-001 -1.522149e-001 -4.787876e-002 -5.807050e-002 8.742010e-002 -1.279250e-001 -1.170682e-001 -8.862405e-002 8.688168e-002 3.633711e-001
<VARIANCE> 39
 4.492266e+001 2.783477e+001 3.833743e+001 5.575872e+001 3.457879e+001 4.402105e+001 3.624170e+001 3.415008e+001 3.611461e+001 3.033627e+001 2.839390e+001 1.978794e+001 3.512376e+001 6.657749e-001 9.074966e-001 9.546599e-001 1.264092e+000 1.461594e+000 1.787255e+000 1.527318e+000 1.665680e+000 1.691663e+000 1.473889e+000 1.502888e+000 1.337281e+000 7.817228e-001 1.682088e-001 1.882008e-001 2.217329e-001 3.138227e-001 3.371031e-001 4.383123e-001 3.621822e-001 3.470904e-001 3.950680e-001 3.425273e-001 3.252759e-001 2.759918e-001 2.262429e-001
<GCONST> 1.047567e+002
<MIXTURE> 9 7.781936e-002
<MEAN> 39
 -5.244264e-001 7.380732e-001 1.145452e+001 -3.867581e+000 -1.116614e+001 -2.430093e+000 -9.445297e+000 -9.570350e-001 -4.834884e+000 1.904758e-001 2.862624e+000 -3.699967e-001 7.015557e+001 2.003584e-001 -2.204194e-002 -1.007222e-001 -2.113450e-001 5.653928e-002 1.167552e-001 -2.738693e-001 7.229754e-002 -1.838245e-001 9.842434e-002 -2.687679e-002 -2.256510e-001 -1.273726e-001 -2.417316e-001 3.284244e-001 -3.567559e-001 2.520439e-001 6.821117e-001 -2.931101e-001 4.724486e-001 -1.938523e-001 3.571729e-001 -6.257351e-002 -1.393618e-001 1.217229e-001 -3.967380e-001
<VARIANCE> 39
 1.579569e+001 3.619720e+001 8.415701e+001 5.830227e+001 5.385739e+001 6.094369e+001 4.533570e+001 5.442007e+001 6.326466e+001 4.853762e+001 4.589065e+001 2.459240e+001 2.105391e+001 9.259924e-001 1.979051e+000 2.338900e+000 2.881493e+000 4.238325e+000 3.722440e+000 3.183904e+000 3.422858e+000 3.638788e+000 2.149554e+000 2.424944e+000 1.872883e+000 1.360853e+000 2.483472e-001 3.232054e-001 4.486757e-001 4.409144e-001 7.363269e-001 6.517659e-001 6.388035e-001 6.271741e-001 6.835175e-001 4.544981e-001 4.674447e-001 3.906496e-001 2.169076e-001
<GCONST> 1.218866e+002
<MIXTURE> 10 7.542995e-002
<MEAN> 39
 -4.343844e+000 6.570532e+000 4.048600e+000 -3.006350e+000 1.390602e+000 -3.689860e+000 -1.988270e+000 -1.472963e+000 -7.987151e-001 4.253021e-001 -6.920174e-002 2.233585e+000 6.365027e+001 -1.764635e-001 1.246724e-001 -1.397194e-001 2.386684e-001 2.953904e-001 -1.150314e-001 1.511365e-001 -5.784533e-002 -1.001201e-002 -8.978636e-002 -8.389126e-002 -7.883851e-002 -6.059222e-001 1.331461e-002 -1.713768e-001 6.124031e-002 -1.355708e-002 -2.173211e-001 4.361999e-002 -5.741782e-002 -4.870150e-002 1.138099e-002 1.343386e-002 7.862802e-002 -2.749849e-002 6.972498e-002
<VARIANCE> 39
 8.804122e+001 4.122615e+001 4.375074e+001 7.342377e+001 4.212948e+001 6.051458e+001 3.724657e+001 3.601473e+001 2.970394e+001 2.992570e+001 3.045725e+001 2.421151e+001 3.564004e+001 6.949056e-001 1.051443e+000 9.367659e-001 1.447088e+000 1.618944e+000 1.790324e+000 1.579304e+000 1.662560e+000 1.701764e+000 1.556579e+000 1.551089e+000 1.399100e+000 6.647595e-001 1.442721e-001 1.665360e-001 1.712167e-001 2.538469e-001 2.914782e-001 3.389917e-001 2.888492e-001 3.202099e-001 3.007521e-001 2.652984e-001 2.846653e-001 2.566505e-001 1.111734e-001
<GCONST> 1.044200e+002
<MIXTURE> 11 7.809671e-002
<MEAN> 39
 -1.187655e+001 6.059864e+000 3.867213e+000 4.076080e-001 1.519895e+000 -7.815712e+000 2.824651e-001 -1.983723e+000 1.893536e+000 -4.081834e-001 2.080003e+000 3.315410e+000 6.403253e+001 -1.290196e-001 -3.694422e-001 4.762393e-003 -3.617254e-001 -5.027833e-001 -2.238396e-001 -2.869206e-001 -8.920252e-002 -2.557775e-001 -3.225988e-001 -3.681140e-001 -1.483635e-001 7.189613e-001 5.080756e-001 -8.842893e-002 2.529092e-001 -1.880252e-001 -4.074832e-001 2.730802e-001 -4.250259e-001 -6.436358e-002 -2.646138e-001 7.277271e-002 -3.801261e-002 -1.657469e-001 6.270218e-002
<VARIANCE> 39
 7.809357e+001 4.507418e+001 5.330157e+001 3.973444e+001 3.830286e+001 4.442040e+001 3.667141e+001 4.269375e+001 4.053184e+001 3.006876e+001 2.145475e+001 1.855376e+001 3.035712e+001 6.551522e+000 2.906558e+000 3.855332e+000 3.160481e+000 3.748386e+000 4.124108e+000 3.580550e+000 3.240932e+000 3.545335e+000 2.721787e+000 2.275348e+000 2.030923e+000 2.889900e+000 6.500530e-001 5.141056e-001 5.330775e-001 5.977989e-001 6.369761e-001 7.078385e-001 6.818827e-001 6.506447e-001 5.990904e-001 5.150954e-001 4.447729e-001 3.857184e-001 4.574049e-001
<GCONST> 1.267276e+002
<MIXTURE> 12 5.504328e-002
<MEAN> 39
 -5.070865e-001 3.482285e+000 6.287161e+000 -5.846735e+000 -4.064921e+000 -2.015736e+000 -5.638146e+000 -3.705836e+000 -1.835773e+000 2.099532e+000 7.865822e-001 1.375422e+000 6.756799e+001 -3.113326e-001 8.386366e-001 -6.150088e-001 6.865636e-001 1.058741e+000 -7.299055e-001 5.642713e-001 -4.402879e-001 5.576414e-001 -2.789190e-002 7.425511e-002 9.445184e-002 -9.029062e-001 -2.121318e-001 1.152640e-002 -7.016667e-002 2.478988e-001 4.261661e-002 -1.016933e-001 1.275454e-001 8.938762e-002 8.777576e-002 -1.399541e-001 9.834975e-002 -3.141038e-002 -1.373322e-001
<VARIANCE> 39
 2.618941e+001 3.409632e+001 5.320692e+001 8.548501e+001 5.195863e+001 7.508920e+001 4.730392e+001 5.214621e+001 5.502119e+001 4.966241e+001 4.501465e+001 2.812136e+001 2.205360e+001 1.776174e+000 2.082663e+000 2.088723e+000 4.109692e+000 3.874941e+000 4.322711e+000 3.591763e+000 3.419134e+000 3.977074e+000 2.585536e+000 3.195293e+000 2.278946e+000 1.919389e+000 2.704386e-001 3.283682e-001 3.447968e-001 5.984551e-001 6.408386e-001 8.158898e-001 5.558060e-001 6.268905e-001 6.752684e-001 5.300372e-001 5.099608e-001 4.353365e-001 2.495264e-001
<GCONST> 1.252534e+002
<MIXTURE> 13 5.217660e-002
<MEAN> 39
 -5.165315e+000 4.276519e+000 6.764356e+000 -1.348773e-001 -2.769647e+000 -5.383577e+000 -3.036222e+000 -3.090579e+000 4.069131e-001 -2.944228e-001 1.694831e+000 1.495085e+000 6.402729e+001 9.875687e-001 -1.014755e+000 8.144858e-001 -1.156732e+000 -2.113034e+000 2.588036e-001 -1.552047e+000 -1.197013e-001 -1.120537e+000 -4.098324e-001 -3.421697e-001 -4.434696e-001 1.966698e+000 -5.650402e-002 -1.086354e-001 -6.413637e-002 -2.635111e-001 -1.271693e-001 1.624521e-001 -1.555745e-001 1.630649e-001 -1.411856e-001 7.319239e-002 6.049533e-002 -1.069618e-002 1.391860e-001
<VARIANCE> 39
 4.215808e+001 2.909609e+001 5.607735e+001 4.077800e+001 5.309084e+001 4.288864e+001 4.937194e+001 3.752588e+001 4.277097e+001 3.274445e+001 2.475552e+001 1.837516e+001 4.907009e+001 6.750167e+000 3.028066e+000 6.066483e+000 4.568605e+000 5.349575e+000 5.983384e+000 6.686440e+000 4.621699e+000 4.724183e+000 4.052376e+000 3.004683e+000 2.586402e+000 2.293196e+000 6.424573e-001 4.183378e-001 5.977613e-001 5.444466e-001 8.591053e-001 7.030421e-001 8.828124e-001 6.044942e-001 6.298200e-001 5.381260e-001 4.777013e-001 4.085240e-001 6.153514e-001
<GCONST> 1.313356e+002
<MIXTURE> 14 7.001176e-002
<MEAN> 39
 -1.027350e+001 1.924348e+000 1.228890e+000 1.495099e+000 3.391769e+000 1.025814e+000 5.356714e+000 5.361686e+000 5.300329e+000 3.631684e+000 4.012461e+000 3.126504e+000 5.051191e+001 -4.620806e-002 -7.019182e-002 -6.602140e-002 -5.490353e-003 -1.038356e-002 1.123158e-001 7.386670e-002 -5.367398e-002 1.502540e-001 6.935988e-002 4.045905e-002 -2.861223e-002 -1.256872e-001 -1.914286e-002 4.569898e-003 -1.223326e-003 -1.316444e-002 -3.750930e-002 -7.739185e-002 -5.810472e-002 -5.539779e-002 -8.075489e-002 -6.800327e-002 -5.638999e-002 -2.825518e-002 3.074973e-002
<VARIANCE> 39
 1.231208e+000 3.774583e+000 3.618782e+000 5.937449e+000 6.920081e+000 1.220365e+001 1.026691e+001 1.261124e+001 1.399714e+001 1.314899e+001 1.061038e+001 1.077811e+001 1.788898e+000 1.035233e-001 2.172799e-001 3.094814e-001 5.165720e-001 6.682221e-001 8.906007e-001 1.029283e+000 1.033722e+000 1.134353e+000 1.080014e+000 1.015845e+000 9.765496e-001 5.313246e-002 2.293810e-002 4.159862e-002 6.340783e-002 1.035425e-001 1.398472e-001 1.771429e-001 2.111464e-001 2.174466e-001 2.411526e-001 2.317786e-001 2.157840e-001 2.111600e-001 1.175490e-002
<GCONST> 5.811592e+001
<MIXTURE> 15 4.089436e-002
<MEAN> 39
 -1.063481e+001 1.666322e+000 2.610772e+000 2.319491e+000 3.164428e+000 -2.582856e+000 4.725924e+000 3.494345e+000 2.775339e+000 1.348045e+000 3.593286e+000 3.041553e+000 5.268216e+001 -6.669097e-002 -6.722482e-002 -1.101829e-001 -8.456615e-002 -2.132561e-001 -1.298707e-001 -1.988609e-001 -4.005473e-001 -4.050089e-001 -4.396979e-001 -3.733521e-001 -3.223351e-001 -1.109217e-001 1.450431e-003 2.583830e-002 -4.788515e-002 -8.759079e-002 -4.193023e-002 -7.441613e-002 -8.881122e-002 -2.327965e-002 -5.920060e-002 2.228662e-002 -6.787307e-002 -2.827824e-002 4.943405e-002
<VARIANCE> 39
 3.653915e+000 6.436590e+000 6.032323e+000 7.193105e+000 8.809162e+000 2.288352e+001 1.343669e+001 1.954681e+001 2.190779e+001 1.741730e+001 1.361732e+001 1.348779e+001 5.700671e+000 1.957347e-001 3.070668e-001 4.085191e-001 6.929411e-001 7.995664e-001 1.078122e+000 1.173976e+000 1.243060e+000 1.223588e+000 1.254603e+000 1.264737e+000 1.154569e+000 1.046318e-001 3.653217e-002 5.614954e-002 8.640677e-002 1.334796e-001 1.529259e-001 2.063615e-001 2.344214e-001 2.609583e-001 2.905191e-001 2.848231e-001 2.545420e-001 2.292089e-001 2.775422e-002
<GCONST> 7.126647e+001
<MIXTURE> 16 5.063005e-002
<MEAN> 39
 -2.820063e+000 5.761325e+000 4.923017e+000 -7.433078e-001 -2.247605e-001 -3.168323e+000 -2.176059e+000 -2.240926e+000 1.148898e+000 2.379479e+000 3.152320e+000 1.671486e+000 5.948171e+001 -3.998682e-001 -1.541854e-001 -4.770122e-001 2.628143e-002 -1.056480e-001 -2.759693e-001 4.295586e-002 -2.469277e-001 -8.186945e-002 -2.421744e-001 -1.821886e-002 5.384611e-002 -5.485706e-001 -1.785785e-001 -2.094187e-001 1.720535e-002 -2.690702e-001 -2.121857e-001 -1.382889e-001 -1.231902e-001 3.604405e-002 -2.590504e-001 -2.201963e-001 -1.694472e-001 2.576349e-002 4.992486e-001
<VARIANCE> 39
 3.736162e+001 2.445741e+001 3.576584e+001 5.127502e+001 3.604066e+001 4.483227e+001 3.662732e+001 3.311356e+001 3.897400e+001 3.029174e+001 2.822686e+001 1.924031e+001 3.304868e+001 6.710205e-001 8.665603e-001 9.810963e-001 1.184527e+000 1.393108e+000 1.755940e+000 1.478174e+000 1.619375e+000 1.651541e+000 1.405185e+000 1.478212e+000 1.309447e+000 8.148122e-001 1.763399e-001 1.805779e-001 2.267554e-001 2.913061e-001 3.334876e-001 4.754443e-001 3.740875e-001 3.534357e-001 4.310963e-001 3.486599e-001 3.394795e-001 2.818345e-001 2.425971e-001
<GCONST> 1.043519e+002
<TRANSP> 3
 0.000000e+000 1.000000e+000 0.000000e+000
 0.000000e+000 9.973280e-001 2.671971e-003
 0.000000e+000 0.000000e+000 0.000000e+000
<ENDHMM>
~h "CERNY"
<BEGINHMM>
<NUMSTATES> 3
<STATE> 2
<NUMMIXES> 16
<MIXTURE> 1 6.468362e-002
<MEAN> 39
 -1.173087e+001 -8.850003e-001 -1.993750e+000 -5.568476e-001 -5.260743e-001 -2.001684e-001 -1.763544e-002 -1.181344e-002 3.872291e-001 3.532603e-001 8.723578e-001 4.808780e-001 5.972579e+001 4.862975e-002 9.964831e-002 1.433349e-001 2.287070e-001 3.250560e-001 3.883715e-001 3.958086e-001 3.944142e-001 3.944376e-001 3.596710e-001 2.915061e-001 1.437949e-001 1.589668e-002 9.159349e-003 1.372186e-002 1.231992e-002 2.615734e-003 1.018645e-002 1.587156e-002 1.942608e-002 2.730359e-002 2.155874e-002 6.076041e-003 -1.364649e-002 -1.048523e-002 7.842094e-003
<VARIANCE> 39
 9.639896e-001 1.627604e+000 2.759906e+000 4.344511e+000 5.874276e+000 7.390033e+000 8.587497e+000 9.495460e+000 1.001972e+001 9.845507e+000 9.268327e+000 8.389619e+000 4.629221e-001 8.169638e-002 1.835433e-001 3.379680e-001 4.767002e-001 6.065330e-001 7.651318e-001 9.018298e-001 1.004910e+000 1.023561e+000 1.045841e+000 1.049866e+000 9.741364e-001 2.729520e-002 1.681722e-002 3.821162e-002 6.687754e-002 1.012148e-001 1.393871e-001 1.733613e-001 2.010848e-001 2.252121e-001 2.290734e-001 2.290855e-001 2.179019e-001 1.975272e-001 5.669289e-003
<GCONST> 5.012758e+001
<MIXTURE> 2 5.582425e-002
<MEAN> 39
 -5.630840e+000 -5.464717e+000 -2.732672e+000 -1.166517e+001 -7.686339e+000 -4.624025e+000 -1.326189e+001 1.314162e+000 4.428956e+000 6.405121e+000 -1.312533e+000 -6.388838e+000 6.988578e+001 -1.112453e-002 4.689748e-001 2.327388e-002 3.182596e-001 4.662749e-001 4.685065e-001 6.302308e-001 -2.696130e-001 -2.380050e-001 1.397125e-002 3.923029e-001 2.013338e-001 -3.749655e-001 -3.374483e-001 4.791265e-001 4.356055e-002 5.586561e-001 2.991323e-001 1.284808e-001 6.817068e-001 -1.895242e-001 -3.629672e-001 -4.380421e-001 1.484124e-001 3.849066e-001 -4.129436e-001
<VARIANCE> 39
 3.957771e+000 2.008215e+001 2.513784e+001 5.950432e+001 2.912884e+001 5.010601e+001 4.623608e+001 4.406125e+001 3.543680e+001 2.840078e+001 2.245055e+001 3.259901e+001 7.741579e+000 6.850209e-001 2.421500e+000 1.359371e+000 4.397448e+000 2.240165e+000 2.548287e+000 3.850211e+000 3.345287e+000 2.591677e+000 2.516725e+000 1.936957e+000 2.170666e+000 1.319190e+000 1.507677e-001 3.089935e-001 2.627792e-001 6.463406e-001 5.315700e-001 5.731927e-001 7.708451e-001 6.644916e-001 5.092891e-001 4.743909e-001 3.981676e-001 3.859645e-001 1.660257e-001
<GCONST> 1.122192e+002
<MIXTURE> 3 3.037547e-002
<MEAN> 39
 -1.164132e+001 3.740125e-001 -2.135068e+000 -1.470256e+000 -2.091067e+000 -1.518245e+000 -2.417408e+000 -5.346618e-001 -3.327796e-001 2.580501e-001 -5.142020e-002 -3.943534e-001 6.181642e+001 -6.512213e-002 9.764533e-005 2.775727e-002 3.128451e-001 3.142781e-001 4.013371e-001 4.713009e-001 3.141247e-001 2.658350e-001 2.639745e-001 2.721331e-001 2.361926e-001 -2.169227e-001 -1.710518e-002 2.441396e-002 3.131612e-002 -1.272861e-001 -1.650933e-001 -2.194581e-001 -2.616317e-001 1.902930e-002 1.242883e-001 1.122682e-001 1.132452e-002 -1.579439e-002 2.288958e-001
<VARIANCE> 39
 1.105732e+001 8.288348e+000 1.242429e+001 1.089012e+001 1.151659e+001 1.433369e+001 1.669713e+001 1.737097e+001 1.463841e+001 1.405588e+001 1.221883e+001 1.306686e+001 3.167972e+000 8.131679e-001 6.148701e-001 8.873398e-001 9.278966e-001 1.109384e+000 1.452408e+000 1.649887e+000 1.676125e+000 1.623518e+000 1.488327e+000 1.269604e+000 1.230354e+000 3.529340e-001 1.288020e-001 1.109096e-001 1.533328e-001 2.013345e-001 2.375292e-001 2.978882e-001 3.561871e-001 3.141762e-001 2.944216e-001 3.100634e-001 2.704006e-001 2.393427e-001 7.234556e-002
<GCONST> 8.400262e+001
<MIXTURE> 4 6.419966e-002
<MEAN> 39
 -1.693870e+001 4.470028e+000 -3.170318e+000 -1.485331e+000 -2.974091e+000 -4.373163e+000 -4.063793e+000 -7.925189e-001 1.771946e-002 9.583791e-001 -2.027935e-001 -2.399478e-001 6.576421e+001 -6.861690e-001 3.019118e-001 -1.856864e-001 2.266569e-001 3.644589e-001 1.867884e-001 4.472254e-001 2.562344e-001 1.773081e-001 1.895293e-001 1.917208e-001 2.512870e-001 -4.181393e-003 3.818564e-001 -3.034513e-001 2.032690e-001 -1.348914e-001 -2.097633e-001 -3.474550e-002 -2.505874e-001 6.793559e-004 7.143933e-002 7.538804e-002 1.101205e-002 -6.561854e-002 1.564534e-002
<VARIANCE> 39
 3.457537e+001 2.556060e+001 4.203909e+001 1.743715e+001 2.839657e+001 2.496659e+001 3.137082e+001 2.749966e+001 2.341520e+001 2.057021e+001 1.463307e+001 1.425327e+001 4.061511e+000 2.823289e+000 2.184081e+000 1.866259e+000 1.699190e+000 2.369197e+000 2.157938e+000 3.005875e+000 2.208348e+000 2.082419e+000 1.896372e+000 1.447260e+000 1.389909e+000 5.989924e-001 3.343162e-001 2.585065e-001 2.480525e-001 2.773398e-001 3.860303e-001 4.085858e-001 5.232298e-001 4.547972e-001 4.221049e-001 3.794003e-001 3.021216e-001 2.771604e-001 9.641594e-002
<GCONST> 1.043006e+002
<MIXTURE> 5 8.270065e-002
<MEAN> 39
 -6.274736e+000 -4.733928e+000 1.043185e+000 -1.065164e+001 -1.054458e+001 -4.970661e+000 -1.134757e+001 1.416930e+000 2.266172e+000 1.829274e+000 -8.389482e-001 -3.010381e+000 6.900273e+001 -7.083905e-003 2.740424e-001 1.652725e-003 3.184896e-001 3.906002e-001 2.004179e-001 5.314249e-001 -7.279778e-002 -1.398200e-001 -4.759823e-002 1.050247e-001 9.884225e-002 -2.883838e-001 -7.783233e-002 1.769783e-001 -1.276652e-001 2.634007e-001 3.185813e-001 8.541574e-002 2.008452e-001 -1.364492e-001 -3.487422e-002 5.069986e-002 3.384152e-002 -1.249370e-002 -1.705599e-001
<VARIANCE> 39
 5.110895e+000 2.480096e+001 6.366583e+001 5.962808e+001 4.588736e+001 5.221681e+001 3.695885e+001 5.158309e+001 3.955872e+001 3.483421e+001 2.696917e+001 3.794167e+001 7.653242e+000 1.939154e-001 1.048944e+000 1.469533e+000 2.312009e+000 2.102808e+000 1.982584e+000 2.113178e+000 2.655075e+000 1.958671e+000 1.849547e+000 1.565114e+000 1.560279e+000 6.080174e-001 4.690846e-002 1.655431e-001 2.813807e-001 2.905464e-001 3.985512e-001 3.834280e-001 4.012596e-001 4.867904e-001 3.643963e-001 3.254152e-001 3.158499e-001 2.659987e-001 7.743779e-002
<GCONST> 1.027145e+002
<MIXTURE> 6 1.064513e-001
<MEAN> 39
 -1.197355e+001 -1.107706e+000 -2.240355e+000 -7.914938e-001 -5.978082e-001 -4.369562e-002 2.568767e-001 2.910955e-001 5.838037e-001 4.452960e-001 8.559656e-001 5.249723e-001 5.955533e+001 3.334783e-002 4.318273e-002 3.256287e-002 7.182185e-003 -3.174413e-002 -5.904435e-002 -6.044640e-002 -5.389780e-002 -4.222487e-002 1.546680e-003 5.886990e-002 9.442753e-002 1.876882e-002 1.409958e-002 1.616409e-002 2.222427e-002 2.701553e-002 2.260198e-002 1.393163e-002 5.234626e-003 7.936698e-003 1.401378e-002 2.551578e-002 3.065010e-002 1.822138e-002 1.218338e-002
<VARIANCE> 39
 1.446512e+000 2.096145e+000 3.049976e+000 4.226704e+000 5.638708e+000 7.295602e+000 8.334192e+000 9.245046e+000 9.763938e+000 9.785653e+000 1.000393e+001 9.075583e+000 1.317234e+000 8.765272e-002 1.844647e-001 3.156902e-001 4.718290e-001 6.261177e-001 7.779296e-001 9.001105e-001 1.017029e+000 1.083782e+000 1.070879e+000 1.055602e+000 9.751217e-001 3.334755e-002 1.899650e-002 3.987403e-002 6.809143e-002 9.849711e-002 1.326777e-001 1.677099e-001 1.954270e-001 2.171357e-001 2.274427e-001 2.230715e-001 2.277969e-001 2.042692e-001 7.558278e-003
<GCONST> 5.259954e+001
<MIXTURE> 7 5.051114e-002
<MEAN> 39
 -9.101616e+000 -9.631651e-001 4.736119e-001 -3.273902e+000 -7.210130e+000 -5.721132e+000 -9.643697e+000 -2.223939e+000 1.044500e+000 1.156133e+000 1.806248e-001 -1.203299e+000 6.584303e+001 1.080081e+000 -1.219709e+000 6.410475e-001 -1.315306e+000 -1.809217e+000 -7.354554e-001 -2.209625e+000 4.324646e-001 1.049587e+000 7.150933e-001 7.315382e-002 -3.137376e-001 1.321436e+000 -1.234735e-002 -1.246249e-001 3.062445e-003 -2.742231e-001 -2.320271e-002 1.926810e-001 4.189545e-002 2.391130e-001 8.015911e-002 1.328206e-001 1.736260e-003 -8.496948e-002 1.146047e-001
<VARIANCE> 39
 1.535827e+001 1.340916e+001 4.117331e+001 2.834343e+001 3.354539e+001 2.911807e+001 4.405561e+001 2.713438e+001 2.785740e+001 3.142114e+001 1.440910e+001 2.010767e+001 8.828237e+000 1.958156e+000 1.620685e+000 3.574208e+000 3.852651e+000 3.544139e+000 3.569946e+000 3.978792e+000 4.576512e+000 3.439507e+000 3.914330e+000 1.928912e+000 2.640808e+000 7.053133e-001 2.511908e-001 2.683423e-001 4.256707e-001 4.832082e-001 7.349967e-001 5.550653e-001 9.235632e-001 6.173835e-001 5.425686e-001 5.204706e-001 3.384616e-001 3.707948e-001 1.877657e-001
<GCONST> 1.150058e+002
<MIXTURE> 8 4.906720e-002
<MEAN> 39
 -8.107655e+000 6.301427e-001 7.569875e-001 -2.413689e+000 -4.843672e+000 -3.623405e+000 -6.024317e+000 -3.677547e+000 -1.791055e+000 -4.053336e-001 6.179855e-001 -1.139219e+000 6.310005e+001 -2.980544e-001 3.172387e-001 -1.736266e-001 5.386046e-001 7.481866e-001 4.339433e-001 8.025890e-001 1.103364e-001 -1.730169e-001 -2.612613e-001 -3.648502e-002 2.194914e-001 -4.099042e-001 1.017514e-002 -2.748102e-001 -2.258505e-002 -3.606383e-001 -3.194005e-001 -1.717997e-001 -4.222409e-001 3.327016e-001 3.988681e-001 2.650361e-001 -3.496743e-002 -3.455896e-002 3.433022e-001
<VARIANCE> 39
 4.686544e+000 4.917336e+000 1.457039e+001 1.533206e+001 1.217893e+001 1.599459e+001 1.804781e+001 1.650427e+001 1.650797e+001 1.749868e+001 1.338175e+001 1.631022e+001 2.764777e+000 3.442499e-001 5.402232e-001 9.994601e-001 1.378854e+000 1.480100e+000 1.561737e+000 2.058918e+000 1.659824e+000 1.798948e+000 1.749376e+000 1.305356e+000 1.286397e+000 3.845936e-001 7.087677e-002 1.150189e-001 1.961702e-001 2.707748e-001 2.801374e-001 3.167858e-001 4.135749e-001 3.714160e-001 3.536298e-001 3.628164e-001 2.870713e-001 2.647508e-001 6.654522e-002
<GCONST> 8.529510e+001
<MIXTURE> 9 8.354035e-002
<MEAN> 39
 -1.212082e+001 -1.282903e+000 -2.480950e+000 -1.061180e+000 -8.461705e-001 -3.063612e-001 -5.935811e-002 -8.055522e-004 2.434534e-001 1.561730e-001 6.138727e-001 4.149491e-001 5.944680e+001 -4.654861e-002 -8.170798e-002 -1.279464e-001 -1.845594e-001 -2.688535e-001 -3.222017e-001 -3.297428e-001 -3.448328e-001 -3.451275e-001 -3.021868e-001 -2.488324e-001 -1.123197e-001 -2.576787e-002 -8.185036e-003 -1.217167e-002 -6.200694e-003 -1.922008e-003 -1.445194e-002 -1.763456e-002 -2.645652e-002 -2.945843e-002 -1.974930e-002 -6.473281e-003 9.839078e-003 4.115950e-003 -1.864257e-003
<VARIANCE> 39
 1.595777e+000 2.217277e+000 3.155059e+000 4.235159e+000 5.579299e+000 7.319932e+000 8.267316e+000 9.212791e+000 9.693921e+000 9.652427e+000 1.019590e+001 9.171574e+000 1.668255e+000 8.825494e-002 1.870528e-001 3.110080e-001 4.676166e-001 6.372675e-001 7.902972e-001 9.057542e-001 1.019397e+000 1.118073e+000 1.061971e+000 1.071740e+000 9.885951e-001 3.480521e-002 1.817840e-002 3.865122e-002 6.811070e-002 9.732871e-002 1.319572e-001 1.679053e-001 1.927920e-001 2.121075e-001 2.300918e-001 2.205627e-001 2.243697e-001 2.061162e-001 7.552181e-003
<GCONST> 5.301442e+001
<MIXTURE> 10 7.840504e-002
<MEAN> 39
 -6.745803e+000 -4.902881e+000 2.422041e+000 -9.833964e+000 -1.132635e+001 -5.796273e+000 -1.202167e+001 1.135202e+000 2.101768e+000 1.248922e+000 -8.952435e-001 -2.564380e+000 6.894530e+001 -6.077500e-002 1.554082e-001 -1.035877e-001 1.512870e-001 2.037496e-001 -7.092522e-002 3.057912e-001 -1.549879e-001 -3.060068e-001 -2.283467e-001 -1.645446e-001 -7.152876e-002 -2.569676e-001 -7.583760e-002 1.583197e-001 -1.966391e-001 2.000307e-001 3.090480e-001 5.713995e-002 1.673894e-001 -1.588371e-001 -7.632309e-002 6.980744e-003 -4.289612e-002 -7.641105e-002 -1.506353e-001
<VARIANCE> 39
 5.480129e+000 2.431385e+001 6.888261e+001 5.656992e+001 4.780028e+001 5.108361e+001 3.706961e+001 5.351898e+001 4.282327e+001 3.697206e+001 2.801740e+001 3.882306e+001 7.714273e+000 1.979350e-001 1.035687e+000 1.562106e+000 2.164947e+000 2.051607e+000 2.037381e+000 2.028953e+000 2.736938e+000 2.003828e+000 1.848219e+000 1.599689e+000 1.563745e+000 5.868887e-001 4.720466e-002 1.624312e-001 2.874352e-001 2.731794e-001 3.897490e-001 3.792312e-001 3.902788e-001 4.840141e-001 3.595291e-001 3.223635e-001 3.125531e-001 2.670667e-001 7.620301e-002
<GCONST> 1.028982e+002
<MIXTURE> 11 9.200738e-002
<MEAN> 39
 -1.180820e+001 -1.022845e+000 -2.186015e+000 -7.961901e-001 -7.936370e-001 -4.969659e-001 -3.599554e-001 -3.889132e-001 1.581453e-002 3.236144e-002 5.677014e-001 2.460883e-001 5.969887e+001 -4.952586e-002 -4.455944e-002 -2.979283e-002 1.320858e-002 5.823185e-002 8.801697e-002 9.375481e-002 9.047548e-002 6.859516e-002 4.112211e-002 -3.615099e-002 -8.486526e-002 -2.998106e-002 -9.946370e-003 -1.064493e-002 -1.657952e-002 -3.065491e-002 -3.039352e-002 -2.330705e-002 -1.745965e-002 -1.494516e-002 -2.260939e-002 -3.713574e-002 -4.496498e-002 -2.691701e-002 -2.307360e-003
<VARIANCE> 39
 9.791641e-001 1.649132e+000 2.777480e+000 4.362563e+000 5.891257e+000 7.410001e+000 8.469839e+000 9.657137e+000 9.947437e+000 9.820883e+000 9.348015e+000 8.263627e+000 4.692286e-001 8.217852e-002 1.837716e-001 3.284921e-001 4.686075e-001 6.134247e-001 7.734484e-001 9.094001e-001 1.012776e+000 1.035634e+000 1.053199e+000 1.058781e+000 9.601023e-001 2.741836e-002 1.643149e-002 3.707213e-002 6.550755e-002 1.004393e-001 1.387112e-001 1.741078e-001 2.008243e-001 2.264444e-001 2.292536e-001 2.275430e-001 2.200400e-001 1.955100e-001 5.643489e-003
<GCONST> 5.010042e+001
<MIXTURE> 12 6.066649e-002
<MEAN> 39
 -1.555565e+001 3.694613e+000 -2.050836e+000 -1.941294e+000 -3.664377e+000 -4.477069e+000 -4.874752e+000 -1.340154e+000 -4.818976e-001 5.484725e-001 -3.337339e-001 -4.528400e-001 6.557546e+001 -3.687582e-001 1.733685e-001 -1.832244e-001 6.007457e-002 4.346080e-002 -1.650291e-001 5.471273e-003 -1.472347e-001 -1.746361e-001 -1.502362e-001 -1.964946e-001 -4.470557e-002 1.707039e-002 3.906186e-001 -3.371799e-001 1.771303e-001 -2.027433e-001 -3.259643e-001 -1.003123e-001 -3.827834e-001 -4.863967e-002 4.471580e-002 3.581378e-002 -5.742991e-002 -1.263434e-001 9.415703e-002
<VARIANCE> 39
 3.865673e+001 2.406810e+001 4.348832e+001 1.938404e+001 3.036300e+001 2.476151e+001 3.202363e+001 2.764035e+001 2.398711e+001 2.210451e+001 1.443920e+001 1.487344e+001 4.341713e+000 3.179666e+000 2.127705e+000 2.140869e+000 1.876367e+000 2.830675e+000 2.284663e+000 3.244767e+000 2.328264e+000 2.261809e+000 1.986477e+000 1.492225e+000 1.461343e+000 6.177636e-001 3.478142e-001 2.662766e-001 2.779086e-001 3.043397e-001 4.315798e-001 4.373705e-001 5.618302e-001 4.977662e-001 4.306548e-001 3.959051e-001 2.975178e-001 2.893527e-001 1.073783e-001
<GCONST> 1.065172e+002
<MIXTURE> 13 5.693664e-002
<MEAN> 39
 -5.890250e+000 -5.650362e+000 -2.385723e+000 -1.125128e+001 -8.023733e+000 -5.356213e+000 -1.375153e+001 1.295979e+000 4.586187e+000 6.215489e+000 -1.631086e+000 -6.315066e+000 6.988718e+001 -9.657732e-002 3.405109e-001 -1.008229e-001 1.854711e-001 3.073124e-001 1.862983e-001 4.376843e-001 -2.984872e-001 -3.861542e-001 -2.361019e-001 6.018070e-002 1.232280e-002 -3.297990e-001 -3.201741e-001 4.474943e-001 -4.090910e-003 4.607210e-001 2.726061e-001 1.197048e-001 6.144431e-001 -2.260816e-001 -4.266999e-001 -4.651175e-001 9.775751e-002 3.107799e-001 -3.665083e-001
<VARIANCE> 39
 4.083034e+000 2.078413e+001 2.713083e+001 5.919315e+001 3.055298e+001 5.037188e+001 4.855317e+001 4.499928e+001 3.586884e+001 2.934750e+001 2.278300e+001 3.218725e+001 8.258442e+000 7.332762e-001 2.652685e+000 1.437734e+000 4.277642e+000 2.299431e+000 2.641657e+000 3.910640e+000 3.608808e+000 2.838023e+000 2.600339e+000 1.999160e+000 2.268439e+000 1.336137e+000 1.494471e-001 3.163799e-001 2.726927e-001 5.929159e-001 5.236872e-001 5.559887e-001 7.615625e-001 6.765940e-001 5.115689e-001 4.790962e-001 3.899556e-001 3.676634e-001 1.681398e-001
<GCONST> 1.130271e+002
<MIXTURE> 14 4.946142e-002
<MEAN> 39
 -9.435982e+000 -9.333223e-001 2.159447e-001 -3.332243e+000 -7.117051e+000 -6.205146e+000 -9.586715e+000 -2.277678e+000 7.225628e-001 1.056349e+000 -2.985742e-001 -1.645382e+000 6.587516e+001 1.235063e+000 -1.373442e+000 6.541973e-001 -1.410095e+000 -1.975517e+000 -1.161709e+000 -2.538792e+000 2.669432e-001 7.598971e-001 4.512011e-001 -3.612685e-001 -6.675184e-001 1.364956e+000 2.907589e-003 -1.816285e-001 -8.195034e-003 -3.369659e-001 -7.589797e-002 1.414646e-001 -5.488184e-002 2.475705e-001 6.619149e-002 1.021305e-001 -4.653985e-002 -1.337278e-001 1.560410e-001
<VARIANCE> 39
 1.635037e+001 1.461248e+001 3.896555e+001 2.756798e+001 3.306318e+001 3.007424e+001 4.419456e+001 2.702515e+001 2.950405e+001 3.063472e+001 1.462085e+001 2.088478e+001 9.163347e+000 1.976624e+000 1.838838e+000 3.594067e+000 3.886776e+000 3.623771e+000 3.476035e+000 4.238535e+000 4.767721e+000 3.847326e+000 3.921273e+000 1.953128e+000 2.820785e+000 7.349809e-001 2.461135e-001 2.762919e-001 4.051104e-001 4.612501e-001 7.145853e-001 5.551733e-001 9.041840e-001 6.276843e-001 5.375509e-001 5.052168e-001 3.478047e-001 3.800415e-001 1.912110e-001
<GCONST> 1.156046e+002
<MIXTURE> 15 3.554616e-002
<MEAN> 39
 -1.107255e+001 1.714481e-001 -1.962047e+000 -1.861087e+000 -2.587545e+000 -1.934582e+000 -2.767623e+000 -9.289979e-001 -5.504680e-001 -9.225673e-002 -3.204772e-001 -5.692141e-001 6.182002e+001 -1.469948e-001 -8.313031e-002 -1.617232e-001 1.102263e-001 1.121815e-001 1.050942e-001 1.602781e-001 -1.554990e-002 -5.891552e-002 -6.529750e-002 -5.991907e-002 2.356695e-002 -2.076493e-001 1.293083e-002 -1.386477e-002 5.100114e-003 -1.977595e-001 -2.541009e-001 -2.554097e-001 -3.591845e-001 -3.892031e-002 6.592314e-002 6.901772e-002 -4.430978e-002 -6.058598e-002 2.597156e-001
<VARIANCE> 39
 9.997725e+000 7.427016e+000 1.241673e+001 1.186856e+001 1.238890e+001 1.468077e+001 1.671285e+001 1.703468e+001 1.496592e+001 1.456340e+001 1.215920e+001 1.328179e+001 3.159746e+000 7.664977e-001 5.843258e-001 8.773500e-001 9.748220e-001 1.147468e+000 1.456394e+000 1.640217e+000 1.612032e+000 1.584400e+000 1.487833e+000 1.259889e+000 1.202930e+000 3.554290e-001 1.196727e-001 1.115157e-001 1.607095e-001 2.118267e-001 2.542626e-001 2.950823e-001 3.573956e-001 3.162892e-001 3.024667e-001 3.169883e-001 2.648936e-001 2.416760e-001 7.434963e-002
<GCONST> 8.405794e+001
<MIXTURE> 16 3.960403e-002
<MEAN> 39
 -8.319658e+000 4.833564e-001 5.335819e-001 -2.656690e+000 -5.210783e+000 -4.025706e+000 -6.239921e+000 -3.889261e+000 -2.032107e+000 -7.768778e-001 4.449445e-001 -9.451220e-001 6.293279e+001 -3.658572e-001 1.866243e-001 -3.822066e-001 2.694874e-001 5.225646e-001 1.901753e-001 4.998730e-001 -1.423493e-001 -4.616364e-001 -5.309802e-001 -3.515494e-001 1.622632e-002 -3.967592e-001 2.058978e-002 -2.936498e-001 -1.777420e-002 -3.801943e-001 -3.568479e-001 -2.201407e-001 -4.930486e-001 2.856829e-001 3.534687e-001 2.285105e-001 -1.056945e-001 -1.072387e-001 3.813957e-001
<VARIANCE> 39
 4.427495e+000 4.945343e+000 1.457150e+001 1.559029e+001 1.245798e+001 1.646415e+001 1.867323e+001 1.683467e+001 1.726416e+001 1.752607e+001 1.319374e+001 1.632519e+001 2.690891e+000 3.661571e-001 5.453032e-001 1.031659e+000 1.372792e+000 1.449994e+000 1.625795e+000 1.993040e+000 1.571023e+000 1.769100e+000 1.716184e+000 1.348426e+000 1.301216e+000 3.970376e-001 7.217061e-002 1.230903e-001 1.982590e-001 2.916506e-001 2.795373e-001 3.338948e-001 4.296678e-001 3.764400e-001 3.848715e-001 3.572498e-001 2.855414e-001 2.672964e-001 7.159186e-002
<GCONST> 8.586195e+001
<TRANSP> 3
 0.000000e+000 1.000000e+000 0.000000e+000
 0.000000e+000 9.986002e-001 1.399776e-003
 0.000000e+000 0.000000e+000 0.000000e+000
<ENDHMM>
~h "ZSS2"
<BEGINHMM>
<NUMSTATES> 3
<STATE> 2
<NUMMIXES> 16
<MIXTURE> 1 5.951426e-002
<MEAN> 39
 -7.821012e+000 2.405941e+000 3.174624e+000 4.914309e+000 8.477249e+000 4.724728e+000 7.153685e+000 4.381062e+000 6.943215e+000 3.828197e+000 6.453505e+000 4.290618e+000 5.097402e+001 -9.794674e-003 -3.661059e-002 8.458568e-003 4.061287e-002 5.973872e-002 7.473009e-002 7.758056e-002 9.406567e-002 1.432888e-001 1.710640e-001 1.568847e-001 1.188868e-001 -6.909361e-002 -4.431863e-002 8.364161e-003 -1.733910e-004 -3.555004e-002 -1.270550e-002 -1.680273e-002 1.268501e-002 2.912028e-002 -2.086024e-002 3.801297e-002 -2.822766e-003 1.798398e-002 4.900190e-002
<VARIANCE> 39
 8.638350e-001 1.686335e+000 2.401458e+000 4.094458e+000 5.719000e+000 6.935613e+000 7.926312e+000 8.609825e+000 9.155809e+000 9.320945e+000 8.710820e+000 8.117508e+000 5.823497e-001 1.204483e-001 1.911926e-001 2.954277e-001 4.925392e-001 6.162784e-001 7.351747e-001 8.750618e-001 9.436200e-001 1.064524e+000 1.004024e+000 9.375352e-001 8.813285e-001 6.250537e-002 2.663952e-002 3.752198e-002 6.062867e-002 9.876938e-002 1.242671e-001 1.496536e-001 1.791091e-001 1.950643e-001 2.102777e-001 1.992506e-001 1.872440e-001 1.748313e-001 1.670264e-002
<GCONST> 5.077967e+001
<MIXTURE> 2 6.705563e-002
<MEAN> 39
 -2.493918e+000 4.664865e+000 2.504073e+000 -5.255967e+000 -5.762093e+000 -5.857367e+000 -4.156994e+000 -3.857373e+000 -3.973428e+000 1.411290e+000 -6.406493e+000 5.201943e-001 6.703868e+001 -1.735377e+000 1.323499e+000 7.103131e-001 2.416490e+000 2.130884e+000 2.372137e-001 1.608282e+000 3.145933e-001 1.890281e+000 -2.918297e-001 2.432318e+000 -6.924372e-001 -1.914930e+000 -4.777182e-001 -2.501106e-001 -1.336410e-001 2.187782e-001 4.399585e-001 5.092054e-001 3.723761e-001 4.235852e-001 3.060121e-001 1.313359e-001 3.275962e-001 6.768882e-002 -1.712499e-001
<VARIANCE> 39
 3.177991e+001 3.873321e+001 5.130764e+001 4.553303e+001 6.350724e+001 4.006301e+001 4.276031e+001 3.719009e+001 3.538892e+001 3.981796e+001 4.061127e+001 2.640433e+001 2.680904e+001 3.985043e+000 3.162373e+000 3.112742e+000 3.247020e+000 4.195338e+000 3.927412e+000 3.536942e+000 3.418419e+000 3.542634e+000 3.219329e+000 3.328094e+000 2.264483e+000 3.526319e+000 4.936462e-001 5.705444e-001 4.749870e-001 7.843701e-001 8.737433e-001 6.317080e-001 6.548316e-001 5.639699e-001 7.672490e-001 7.004524e-001 8.148292e-001 5.021628e-001 5.400329e-001
<GCONST> 1.291593e+002
<MIXTURE> 3 4.692153e-002
<MEAN> 39
 -8.336056e-001 2.899188e-002 -5.330835e-002 -9.356462e+000 -8.716249e+000 -5.311607e+000 -5.428580e+000 -2.790732e+000 -5.521115e+000 2.160682e+000 -9.490495e+000 1.254630e+000 7.132507e+001 1.106256e+000 -7.784798e-001 -4.667519e-001 -1.273475e+000 -1.052956e+000 5.106705e-001 -7.827057e-001 4.254541e-001 -1.179672e+000 1.406310e-001 -1.406144e+000 9.199747e-001 9.181674e-001 -7.428922e-001 3.374698e-001 2.692794e-001 8.417830e-001 8.904500e-001 3.671923e-001 6.182600e-001 2.706366e-001 5.571637e-001 1.926379e-002 8.269215e-001 -1.554524e-002 -7.296024e-001
<VARIANCE> 39
 2.275223e+001 4.599685e+001 6.877635e+001 4.747345e+001 6.396255e+001 4.901682e+001 4.916346e+001 4.746908e+001 4.446616e+001 4.641111e+001 4.074450e+001 2.707901e+001 1.885074e+001 2.779187e+000 3.358713e+000 3.738689e+000 3.780641e+000 4.515347e+000 5.247367e+000 3.855409e+000 3.826926e+000 3.711913e+000 4.624484e+000 3.680524e+000 2.481510e+000 1.951361e+000 6.788819e-001 7.699073e-001 8.034642e-001 8.546417e-001 1.043494e+000 9.944193e-001 8.974169e-001 8.002271e-001 9.868829e-001 8.581588e-001 1.004920e+000 5.327382e-001 5.997031e-001
<GCONST> 1.339434e+002
<MIXTURE> 4 8.216602e-002
<MEAN> 39
 -1.587789e+001 4.706316e+000 1.287267e+000 2.550679e+000 3.193465e+000 1.126776e+000 5.074266e+000 2.875343e+000 4.354955e+000 3.147186e+000 3.549932e+000 2.366989e+000 6.292562e+001 -6.332542e-001 1.435407e-002 -5.065870e-002 6.180527e-001 9.167514e-001 7.388319e-001 8.196497e-001 7.287514e-001 8.884867e-001 4.474270e-001 9.420679e-001 4.176096e-001 -9.988242e-001 4.410344e-001 -1.414664e-001 5.307775e-002 -1.900537e-001 -1.298981e-001 4.885138e-003 -1.601721e-001 -9.773622e-002 -1.663642e-001 -2.520861e-004 -2.037771e-001 5.625431e-002 -6.879143e-002
<VARIANCE> 39
 6.865859e+001 3.094231e+001 3.657938e+001 3.084452e+001 4.035966e+001 3.383348e+001 2.916764e+001 3.111461e+001 2.817492e+001 2.466820e+001 2.265716e+001 1.961572e+001 4.757092e+001 4.444748e+000 1.850704e+000 1.992372e+000 2.468169e+000 3.177873e+000 2.897118e+000 2.749181e+000 2.408406e+000 2.481087e+000 2.267953e+000 2.272117e+000 1.583337e+000 3.463648e+000 4.783595e-001 4.127560e-001 3.460986e-001 5.136262e-001 5.975775e-001 5.341991e-001 4.473240e-001 4.166936e-001 5.023416e-001 4.528236e-001 4.315032e-001 3.778767e-001 7.087251e-001
<GCONST> 1.191503e+002
<MIXTURE> 5 1.168684e-001
<MEAN> 39
 2.507802e-001 5.014313e-001 -4.571620e-001 -8.173953e+000 -5.452067e+000 -9.280874e-001 -5.875199e+000 -1.903840e+000 -7.928555e+000 1.529233e+000 -1.095987e+001 9.667729e-001 6.972573e+001 2.121144e-003 2.399588e-001 2.301854e-001 2.135956e-001 2.516905e-001 -2.250934e-002 1.333801e-001 -2.210185e-002 1.315050e-001 1.272904e-001 1.667010e-001 1.477797e-001 -3.572671e-001 -2.076603e-001 2.070585e-001 1.890584e-001 2.908470e-001 1.949511e-001 -1.885207e-001 2.015025e-001 -6.699684e-002 3.201555e-001 -2.903864e-002 3.511974e-001 -1.129457e-001 -2.424450e-001
<VARIANCE> 39
 1.536788e+001 5.453633e+001 6.736687e+001 5.237764e+001 7.645540e+001 5.400901e+001 4.936785e+001 4.313702e+001 3.655241e+001 4.595704e+001 3.024907e+001 3.047878e+001 2.203943e+001 5.716522e-001 1.428714e+000 1.755769e+000 1.862187e+000 2.598647e+000 2.752727e+000 2.380524e+000 2.032115e+000 2.307950e+000 2.450559e+000 1.862784e+000 1.684982e+000 6.861040e-001 1.853139e-001 3.307713e-001 3.524161e-001 4.524789e-001 5.403683e-001 5.629124e-001 4.880414e-001 4.574902e-001 4.841014e-001 5.550481e-001 4.792549e-001 3.819206e-001 2.017778e-001
<GCONST> 1.150080e+002
<MIXTURE> 6 3.466430e-002
<MEAN> 39
 -8.057678e+000 3.114919e+000 2.636133e+000 -2.934754e+000 -3.459465e+000 -5.259018e+000 -7.734883e-001 -3.142978e+000 -7.511524e-001 1.138513e+000 -2.160639e+000 -7.409344e-001 6.791865e+001 2.695669e+000 4.135597e-002 -1.327995e-001 -2.144250e+000 -2.772318e+000 -1.167935e+000 -2.158874e+000 -1.235261e+000 -2.095590e+000 -2.216745e-001 -2.579724e+000 -1.373941e-001 1.615964e+000 2.445137e-001 6.130953e-002 -4.862456e-002 -4.001584e-002 8.570974e-002 4.562910e-001 -3.096811e-002 3.111048e-001 -7.270386e-002 2.483470e-001 -1.621435e-001 3.057543e-001 -3.520422e-001
<VARIANCE> 39
 3.848558e+001 4.261877e+001 5.000674e+001 3.266809e+001 5.604716e+001 3.959727e+001 3.971841e+001 3.879846e+001 3.090067e+001 3.382051e+001 3.085719e+001 2.401953e+001 2.251915e+001 4.618205e+000 4.364080e+000 4.870519e+000 4.157834e+000 5.147438e+000 5.473969e+000 4.457825e+000 4.401446e+000 4.211901e+000 4.164032e+000 4.369832e+000 2.800227e+000 4.464692e+000 7.513075e-001 7.358190e-001 6.188406e-001 6.556269e-001 1.005865e+000 7.213258e-001 7.186914e-001 6.341610e-001 6.709231e-001 6.844792e-001 7.222794e-001 4.481120e-001 6.765000e-001
<GCONST> 1.324912e+002
<MIXTURE> 7 3.265558e-002
<MEAN> 39
 -9.002359e+000 1.059414e+000 3.571614e+000 3.151382e+000 7.074348e+000 3.949918e+000 8.011350e+000 5.254092e+000 5.011472e+000 3.880342e+000 6.510146e+000 4.846643e+000 5.364869e+001 5.889735e-002 1.448458e-001 3.251624e-002 2.444368e-001 1.845183e-001 2.118173e-001 9.503456e-002 7.451946e-002 1.899380e-001 2.074486e-001 1.537504e-001 6.930884e-002 -4.056787e-001 -9.898132e-002 -6.792726e-003 -3.032594e-002 -4.593931e-002 -8.652081e-002 -2.884712e-002 -4.193672e-002 -1.326907e-002 -1.955436e-002 7.941436e-003 -4.144072e-002 -2.124030e-002 1.802594e-001
<VARIANCE> 39
 4.682675e+000 1.542754e+001 6.106101e+000 1.127941e+001 1.457788e+001 1.168024e+001 1.403701e+001 1.330428e+001 1.729597e+001 1.596072e+001 1.397983e+001 1.231361e+001 8.250278e+000 1.006310e+000 7.689462e-001 7.515585e-001 1.203140e+000 1.489651e+000 1.342892e+000 1.326952e+000 1.446435e+000 1.666565e+000 1.646551e+000 1.310345e+000 1.266966e+000 1.021913e+000 1.337624e-001 1.241740e-001 1.301803e-001 2.120329e-001 2.656325e-001 2.381134e-001 2.554914e-001 2.657417e-001 3.180055e-001 3.070722e-001 2.669548e-001 2.463799e-001 1.675139e-001
<GCONST> 8.598949e+001
<MIXTURE> 8 5.235909e-002
<MEAN> 39
 -1.196161e+001 3.335893e+000 2.571842e+000 2.863631e+000 5.095554e+000 2.176102e+000 5.523439e+000 3.091378e+000 5.279854e+000 3.986996e+000 4.350293e+000 2.497853e+000 5.855120e+001 -5.302472e-001 -1.078945e+000 -2.821377e-001 -9.016700e-001 -6.234527e-001 -2.350556e-001 4.478884e-002 -3.350160e-002 -1.313273e-001 2.459829e-001 -1.937835e-002 2.656448e-001 1.502965e+000 3.698339e-001 -1.217804e-002 -1.189082e-001 -6.223704e-001 -7.729580e-001 -5.527672e-001 -5.740593e-001 -4.038936e-001 -5.541354e-001 -1.083842e-001 -6.479591e-001 -6.549456e-002 8.166023e-001
<VARIANCE> 39
 5.359531e+001 2.231890e+001 2.618881e+001 3.091992e+001 3.390255e+001 2.600587e+001 2.251491e+001 2.206424e+001 2.239365e+001 2.464618e+001 1.961947e+001 1.883529e+001 4.984452e+001 4.945237e+000 3.262544e+000 3.555955e+000 4.272390e+000 5.019938e+000 3.952960e+000 3.407381e+000 3.121329e+000 3.369303e+000 3.158103e+000 3.419330e+000 2.276862e+000 5.387646e+000 9.648193e-001 6.339516e-001 5.900868e-001 7.594894e-001 8.705628e-001 6.138158e-001 5.748169e-001 5.381014e-001 6.199020e-001 6.418100e-001 5.886545e-001 4.344955e-001 1.144776e+000
<GCONST> 1.262960e+002
<MIXTURE> 9 1.110749e-001
<MEAN> 39
 1.483032e-001 2.636567e-001 -4.179702e-001 -1.037283e+001 -6.539360e+000 -2.783556e+000 -7.257147e+000 -2.765889e+000 -9.295846e+000 1.425082e+000 -1.210304e+001 4.528207e-001 7.068918e+001 8.013465e-003 1.938763e-001 1.055321e-001 3.817282e-002 8.766022e-002 -1.421535e-002 -5.923628e-002 -1.001669e-001 -3.437344e-002 1.149462e-001 -1.691357e-001 -3.964229e-002 -1.786959e-001 -1.072466e-001 1.482694e-001 8.730350e-002 1.875633e-001 3.657222e-002 -1.491712e-001 1.192338e-001 -8.131108e-002 2.158375e-001 -6.309693e-002 2.187017e-001 -9.359381e-002 -1.196068e-001
<VARIANCE> 39
 1.553025e+001 6.165727e+001 7.009682e+001 4.804707e+001 7.304065e+001 5.646055e+001 4.746768e+001 4.328402e+001 3.456165e+001 4.857477e+001 2.866570e+001 3.243361e+001 2.099207e+001 5.637314e-001 1.415565e+000 1.763861e+000 1.857024e+000 2.547538e+000 2.870888e+000 2.416910e+000 2.138089e+000 2.159018e+000 2.567432e+000 1.732035e+000 1.695117e+000 6.538070e-001 1.542872e-001 3.177716e-001 3.381869e-001 4.444784e-001 4.991222e-001 6.013049e-001 4.701766e-001 4.611945e-001 4.374774e-001 5.541626e-001 4.231409e-001 3.757930e-001 1.808534e-001
<GCONST> 1.142702e+002
<MIXTURE> 10 9.158549e-002
<MEAN> 39
 -1.431178e+001 5.295362e+000 1.966386e+000 1.709859e+000 1.952057e+000 6.035759e-002 3.487159e+000 1.158421e+000 3.038178e+000 2.375776e+000 2.265202e+000 9.096945e-001 6.373944e+001 -7.927409e-001 -3.142697e-001 -1.665265e-001 4.869932e-001 7.450720e-001 6.834021e-001 7.211208e-001 6.323709e-001 6.487185e-001 2.248797e-001 6.955408e-001 2.055495e-001 -5.030681e-001 4.798560e-001 -2.375649e-001 -3.545939e-002 -3.859727e-001 -3.769220e-001 -1.697434e-001 -2.885877e-001 -1.770275e-001 -3.174905e-001 -3.736121e-002 -3.954237e-001 5.203261e-002 2.503147e-001
<VARIANCE> 39
 8.630976e+001 3.202351e+001 4.146514e+001 3.133032e+001 4.160980e+001 3.692382e+001 3.294889e+001 3.282668e+001 2.932058e+001 2.615896e+001 2.352441e+001 2.038633e+001 5.161240e+001 3.856455e+000 1.786747e+000 1.902413e+000 2.398125e+000 3.350237e+000 2.945679e+000 2.601229e+000 2.341809e+000 2.573566e+000 2.333052e+000 2.308477e+000 1.606856e+000 2.904250e+000 6.191080e-001 4.577363e-001 3.958103e-001 5.339147e-001 6.100562e-001 5.449528e-001 4.409380e-001 4.239857e-001 5.211208e-001 4.816800e-001 4.477278e-001 3.857307e-001 7.986217e-001
<GCONST> 1.206106e+002
<MIXTURE> 11 7.595991e-002
<MEAN> 39
 -1.211354e+000 4.933117e+000 3.497955e+000 -6.401701e+000 -7.185727e+000 -7.502662e+000 -5.693126e+000 -4.750691e+000 -5.651857e+000 1.537061e+000 -8.314296e+000 -8.184428e-001 6.742847e+001 -1.121461e+000 1.378038e+000 6.669662e-001 1.905519e+000 1.415536e+000 -5.302282e-001 7.335114e-001 -4.087772e-001 1.136377e+000 -4.923398e-001 1.567441e+000 -1.016954e+000 -1.181652e+000 -4.010057e-001 -2.428761e-001 -1.996250e-001 7.995487e-002 2.323444e-001 4.016730e-001 2.071495e-001 2.706951e-001 8.516832e-002 -2.879472e-002 1.748011e-001 3.613620e-002 1.146187e-001
<VARIANCE> 39
 2.726604e+001 4.256871e+001 5.145359e+001 4.373036e+001 5.619247e+001 4.033794e+001 3.749018e+001 3.712909e+001 3.486437e+001 3.864884e+001 3.732352e+001 2.899258e+001 2.533261e+001 3.580783e+000 3.488764e+000 3.447875e+000 3.323981e+000 4.393196e+000 4.482302e+000 3.529013e+000 3.439754e+000 3.317933e+000 4.308392e+000 3.391377e+000 2.364113e+000 2.734560e+000 5.010576e-001 6.711040e-001 5.127693e-001 8.310668e-001 9.764299e-001 7.159268e-001 6.598243e-001 5.806514e-001 7.269055e-001 7.789975e-001 7.974581e-001 5.446451e-001 5.598982e-001
<GCONST> 1.297873e+002
<MIXTURE> 12 6.451528e-002
<MEAN> 39
 -7.840384e+000 2.405632e+000 3.075004e+000 4.733667e+000 8.428258e+000 4.642261e+000 6.993319e+000 4.111190e+000 6.666977e+000 3.706175e+000 6.129774e+000 4.018492e+000 5.100557e+001 4.867792e-002 -1.590900e-002 1.180202e-002 2.121608e-002 -6.755902e-003 -3.361345e-002 -7.300258e-002 -9.577852e-002 -6.152135e-002 -8.027010e-002 -1.048294e-001 -6.411748e-002 -3.943043e-002 -3.662942e-002 1.141776e-002 1.963313e-003 -3.741074e-002 -2.606758e-002 -3.130660e-002 -9.178882e-003 -9.041766e-003 -5.373951e-002 -4.056654e-005 -4.139519e-002 -1.458428e-002 5.934194e-002
<VARIANCE> 39
 8.705378e-001 1.663175e+000 2.398250e+000 4.170475e+000 5.723638e+000 6.782980e+000 7.749367e+000 8.621394e+000 9.169091e+000 9.322017e+000 8.622423e+000 8.129944e+000 5.928191e-001 1.208321e-001 1.917689e-001 2.953658e-001 4.951156e-001 6.382419e-001 7.466846e-001 8.691567e-001 9.479929e-001 1.064078e+000 1.019855e+000 9.299119e-001 8.683839e-001 6.469822e-002 2.677046e-002 3.931412e-002 6.036647e-002 1.006119e-001 1.275540e-001 1.465519e-001 1.782026e-001 1.933157e-001 2.133012e-001 2.017361e-001 1.897525e-001 1.733144e-001 1.840912e-002
<GCONST> 5.103036e+001
<MIXTURE> 13 5.136563e-002
<MEAN> 39
 -1.230782e+001 2.425281e+000 2.053525e+000 1.042169e+000 3.033487e+000 4.115321e-001 4.209305e+000 1.975153e+000 4.199523e+000 3.458014e+000 3.096139e+000 1.815822e+000 6.195736e+001 6.752298e-001 -1.047395e+000 -3.542867e-001 -1.492863e+000 -1.574917e+000 -1.106698e+000 -1.030659e+000 -8.969644e-001 -1.150252e+000 -4.951305e-001 -1.253080e+000 -2.863990e-001 2.185108e+000 1.027402e+000 6.002634e-002 -2.063215e-001 -8.432076e-001 -1.036416e+000 -6.674088e-001 -9.163092e-001 -5.522495e-001 -8.538682e-001 -1.613488e-001 -1.079786e+000 -1.389654e-001 6.978493e-001
<VARIANCE> 39
 5.691277e+001 2.631514e+001 3.095575e+001 3.052095e+001 3.974706e+001 2.813932e+001 2.464225e+001 2.564343e+001 2.604178e+001 2.701904e+001 2.293776e+001 2.093142e+001 5.995640e+001 6.387350e+000 3.743906e+000 3.789981e+000 3.774623e+000 5.502048e+000 4.139887e+000 3.933729e+000 3.465322e+000 3.771842e+000 3.599567e+000 4.239780e+000 2.463145e+000 6.007187e+000 7.636408e-001 7.089587e-001 6.680008e-001 6.815979e-001 8.541762e-001 6.299440e-001 5.327025e-001 5.805569e-001 5.845554e-001 7.078308e-001 5.864057e-001 4.437902e-001 9.552732e-001
<GCONST> 1.289847e+002
<MIXTURE> 14 5.058606e-002
<MEAN> 39
 -2.456575e-001 3.601557e-001 -4.363983e-002 -1.022035e+001 -9.394161e+000 -6.339166e+000 -6.348853e+000 -3.407662e+000 -6.567727e+000 1.439745e+000 -1.029626e+001 -3.696559e-003 7.133539e+001 1.358668e+000 -1.211145e+000 -8.601704e-001 -1.789208e+000 -1.431625e+000 7.813585e-001 -1.116518e+000 4.892481e-001 -1.630595e+000 -1.844831e-001 -1.949099e+000 7.103269e-001 1.271976e+000 -5.125120e-001 1.883471e-001 1.163948e-001 6.079642e-001 6.613913e-001 3.127021e-001 4.080473e-001 2.057261e-001 3.407803e-001 4.700245e-002 5.226611e-001 4.079638e-002 -4.716987e-001
<VARIANCE> 39
 1.874709e+001 4.594146e+001 6.673922e+001 4.358369e+001 6.082212e+001 5.009768e+001 4.245273e+001 4.541147e+001 4.058501e+001 4.701901e+001 3.352946e+001 2.821740e+001 1.872229e+001 3.248134e+000 3.425909e+000 4.180812e+000 3.826218e+000 4.851479e+000 6.095537e+000 4.513924e+000 4.331244e+000 3.897145e+000 5.426536e+000 4.253314e+000 2.733062e+000 1.870089e+000 5.843118e-001 7.200357e-001 7.477358e-001 8.016297e-001 1.015768e+000 1.056136e+000 8.383583e-001 7.752675e-001 8.615788e-001 8.919920e-001 8.980008e-001 5.248832e-001 5.462791e-001
<GCONST> 1.336472e+002
<MIXTURE> 15 3.141320e-002
<MEAN> 39
 -8.254660e+000 2.635519e+000 2.025970e+000 -3.841917e+000 -3.618531e+000 -5.711167e+000 -1.211659e+000 -3.400275e+000 -1.230268e+000 4.947947e-001 -2.803914e+000 -7.527643e-001 6.838007e+001 3.342596e+000 -4.249277e-001 -5.494621e-001 -2.953661e+000 -3.362456e+000 -1.734306e+000 -2.782861e+000 -1.566325e+000 -2.696134e+000 -5.654494e-001 -3.394865e+000 -5.108463e-001 2.199617e+000 3.372945e-001 -4.324421e-002 -1.719289e-001 -2.392704e-001 -3.953311e-002 3.603159e-001 -1.437793e-001 2.767254e-001 -1.663348e-001 2.811422e-001 -3.106164e-001 2.570244e-001 -1.747344e-001
<VARIANCE> 39
 4.172388e+001 3.870123e+001 4.699868e+001 3.423846e+001 5.793919e+001 3.886619e+001 3.585885e+001 3.550252e+001 3.060044e+001 3.488641e+001 3.062853e+001 2.451556e+001 2.381678e+001 4.361502e+000 4.517693e+000 5.417457e+000 4.089976e+000 5.147447e+000 5.365514e+000 4.527380e+000 4.415194e+000 4.095648e+000 4.388077e+000 4.071371e+000 2.719239e+000 4.878855e+000 7.809136e-001 7.206584e-001 6.116075e-001 6.560343e-001 9.579937e-001 7.143170e-001 6.947471e-001 6.406734e-001 6.546793e-001 7.427076e-001 7.326989e-001 4.497113e-001 6.400377e-001
<GCONST> 1.323975e+002
<MIXTURE> 16 3.127513e-002
<MEAN> 39
 -8.890551e+000 1.319595e+000 3.519120e+000 3.279888e+000 7.126232e+000 3.519641e+000 7.541450e+000 4.645973e+000 5.120630e+000 3.772550e+000 5.950798e+000 4.374216e+000 5.362274e+001 -9.979169e-002 7.967421e-002 1.728398e-002 2.277462e-002 -1.144336e-001 -2.910994e-002 -1.056487e-001 -1.024198e-001 -1.600383e-001 1.283634e-002 -1.494576e-001 -1.462864e-001 3.010306e-002 -1.132520e-001 -4.774158e-002 -8.114905e-002 -1.437610e-001 -2.247215e-001 -1.225339e-001 -1.155797e-001 -6.777709e-002 -1.111149e-001 -6.064636e-002 -1.165029e-001 -6.666780e-002 3.740569e-001
<VARIANCE> 39
 4.881566e+000 1.579717e+001 5.654278e+000 1.141300e+001 1.312064e+001 1.102721e+001 1.310760e+001 1.199046e+001 1.577464e+001 1.427865e+001 1.282280e+001 1.169006e+001 1.179497e+001 1.201224e+000 7.407093e-001 7.169154e-001 1.146702e+000 1.656130e+000 1.338046e+000 1.223771e+000 1.445715e+000 1.583475e+000 1.605824e+000 1.362004e+000 1.229964e+000 1.381490e+000 1.530338e-001 1.334538e-001 1.427134e-001 2.373511e-001 3.011186e-001 2.672276e-001 2.648167e-001 2.904164e-001 3.152860e-001 3.085874e-001 2.818334e-001 2.475408e-001 2.619743e-001
<GCONST> 8.724878e+001
<TRANSP> 3
 0.000000e+000 1.000000e+000 0.000000e+000
 0.000000e+000 9.982025e-001 1.797483e-003
 0.000000e+000 0.000000e+000 0.000000e+000
<ENDHMM>
~h "SMOLA"
<BEGINHMM>
<NUMSTATES> 3
<STATE> 2
<NUMMIXES> 16
<MIXTURE> 1 4.248976e-002
<MEAN> 39
 -1.316348e+001 7.544543e+000 7.776278e-001 8.344272e+000 3.981751e+000 8.870993e+000 3.715296e+000 9.035049e+000 6.315432e+000 3.549307e+000 6.650536e+000 4.520698e+000 3.693623e+001 -7.965990e-002 8.450904e-002 7.186465e-002 9.569390e-002 8.209702e-002 1.617384e-001 1.032609e-001 2.336109e-001 2.383937e-001 2.509477e-001 2.475321e-001 1.291748e-001 -1.382772e-001 5.790130e-004 -4.186144e-002 1.688999e-002 -5.116137e-002 1.758425e-002 -3.255664e-002 1.753384e-002 -1.367239e-002 -9.268410e-003 1.743995e-002 -2.757515e-002 -8.850418e-003 7.738972e-002
<VARIANCE> 39
 3.922606e+000 3.183502e+000 4.445051e+000 4.877893e+000 6.487269e+000 1.038964e+001 1.017151e+001 1.377284e+001 1.389585e+001 1.284831e+001 1.236749e+001 8.958792e+000 3.663916e+000 1.707869e-001 2.637644e-001 4.118131e-001 5.745633e-001 7.339811e-001 8.773939e-001 1.004734e+000 1.007545e+000 1.126143e+000 1.061382e+000 1.035439e+000 9.376837e-001 1.385127e-001 3.241415e-002 6.051307e-002 8.031666e-002 1.114742e-001 1.378203e-001 1.637451e-001 1.841642e-001 2.069854e-001 2.158825e-001 2.095635e-001 2.087521e-001 1.822146e-001 2.940909e-002
<GCONST> 6.292583e+001
<MIXTURE> 2 6.312303e-002
<MEAN> 39
 -1.398746e+000 -2.111710e+000 2.589219e+000 -3.830983e+000 -3.532199e+000 -7.860109e+000 -9.401566e+000 2.961041e+000 -1.188758e+001 -9.535380e-002 3.209422e+000 -6.908473e+000 6.437871e+001 -9.594826e-001 2.345144e+000 -2.688591e-001 2.114816e+000 1.376129e+000 2.834864e-001 1.906945e+000 -9.463536e-001 1.110466e+000 8.645730e-002 -1.735590e-001 9.468318e-001 -2.376898e+000 -5.284177e-001 2.190739e-001 -1.883892e-001 5.833862e-002 -8.150499e-002 4.712516e-001 1.780813e-001 -9.359619e-002 8.528509e-001 -2.800604e-002 1.182484e-001 3.200470e-001 -2.758386e-001
<VARIANCE> 39
 1.837018e+001 3.760844e+001 5.261605e+001 5.866706e+001 4.933356e+001 5.452056e+001 5.115194e+001 4.341903e+001 4.446730e+001 3.863580e+001 3.210572e+001 1.983965e+001 4.673676e+001 2.511000e+000 3.145436e+000 2.526317e+000 3.259368e+000 3.073300e+000 3.478386e+000 3.688639e+000 2.861867e+000 5.475467e+000 2.613365e+000 2.297247e+000 1.948989e+000 3.972475e+000 3.696437e-001 6.611499e-001 4.510742e-001 8.470734e-001 6.517802e-001 6.718264e-001 8.404537e-001 6.541506e-001 9.094236e-001 5.312019e-001 4.718315e-001 4.220935e-001 7.507637e-001
<GCONST> 1.276204e+002
<MIXTURE> 3 4.754018e-002
<MEAN> 39
 -5.926796e-001 -4.599013e+000 2.103314e+000 -6.938873e+000 -9.242682e+000 -2.504525e+000 -1.221888e+001 1.178285e+000 -1.040198e+001 -2.709557e+000 6.514959e+000 -6.335311e+000 6.665523e+001 6.144565e-001 -1.238431e+000 1.006612e-001 -1.451527e+000 -1.965404e-001 6.507170e-001 -1.430278e+000 1.233764e+000 -2.959113e-001 5.335318e-001 5.444156e-001 -2.634886e-001 8.925910e-001 -3.500134e-001 3.474603e-001 -6.204792e-002 3.758804e-001 5.056127e-001 -9.360614e-002 4.587854e-001 4.341658e-002 3.090209e-001 1.219821e-001 -2.451516e-001 1.456063e-001 -4.185466e-001
<VARIANCE> 39
 2.551824e+001 3.683181e+001 9.386234e+001 5.612270e+001 6.399145e+001 5.386984e+001 4.972555e+001 4.720865e+001 5.145844e+001 4.816088e+001 2.898238e+001 2.499942e+001 2.588597e+001 1.908437e+000 2.985304e+000 2.794770e+000 5.231456e+000 3.591593e+000 4.217013e+000 4.110700e+000 3.743706e+000 5.646375e+000 2.908272e+000 2.483424e+000 2.095037e+000 2.715090e+000 4.549085e-001 5.268949e-001 7.518687e-001 1.051785e+000 7.789628e-001 9.420838e-001 1.128274e+000 8.207769e-001 1.208567e+000 5.972304e-001 4.982764e-001 5.153047e-001 5.883464e-001
<GCONST> 1.317083e+002
<MIXTURE> 4 8.762338e-002
<MEAN> 39
